// Neural Network File Format by Kyle Julian, Stanford 2016
4,2352,10,2352,
2352,20,20,20,10,
0,
0,0,0,0,0,0,0,0,0,0,0,0,0,0,0,0,0,0,0,0,0,0,0,0,0,0,0,0,0,0,0,0,0,0,0,0,0,0,0,0,0,0,0,0,0,0,0,0,0,0,0,0,0,0,0,0,0,0,0,0,0,0,0,0,0,0,0,0,0,0,0,0,0,0,0,0,0,0,0,0,0,0,0,0,0,0,0,0,0,0,0,0,0,0,0,0,0,0,0,0,0,0,0,0,0,0,0,0,0,0,0,0,0,0,0,0,0,0,0,0,0,0,0,0,0,0,0,0,0,0,0,0,0,0,0,0,0,0,0,0,0,0,0,0,0,0,0,0,0,0,0,0,0,0,0,0,0,0,0,0,0,0,0,0,0,0,0,0,0,0,0,0,0,0,0,0,0,0,0,0,0,0,0,0,0,0,0,0,0,0,0,0,0,0,0,0,0,0,0,0,0,0,0,0,0,0,0,0,0,0,0,0,0,0,0,0,0,0,0,0,0,0,0,0,0,0,0,0,0,0,0,0,0,0,0,0,0,0,0,0,0,0,0,0,0,0,0,0,0,0,0,0,0,0,0,0,0,0,0,0,0,0,0,0,0,0,0,0,0,0,0,0,0,0,0,0,0,0,0,0,0,0,0,0,0,0,0,0,0,0,0,0,0,0,0,0,0,0,0,0,0,0,0,0,0,0,0,0,0,0,0,0,0,0,0,0,0,0,0,0,0,0,0,0,0,0,0,0,0,0,0,0,0,0,0,0,0,0,0,0,0,0,0,0,0,0,0,0,0,0,0,0,0,0,0,0,0,0,0,0,0,0,0,0,0,0,0,0,0,0,0,0,0,0,0,0,0,0,0,0,0,0,0,0,0,0,0,0,0,0,0,0,0,0,0,0,0,0,0,0,0,0,0,0,0,0,0,0,0,0,0,0,0,0,0,0,0,0,0,0,0,0,0,0,0,0,0,0,0,0,0,0,0,0,0,0,0,0,0,0,0,0,0,0,0,0,0,0,0,0,0,0,0,0,0,0,0,0,0,0,0,0,0,0,0,0,0,0,0,0,0,0,0,0,0,0,0,0,0,0,0,0,0,0,0,0,0,0,0,0,0,0,0,0,0,0,0,0,0,0,0,0,0,0,0,0,0,0,0,0,0,0,0,0,0,0,0,0,0,0,0,0,0,0,0,0,0,0,0,0,0,0,0,0,0,0,0,0,0,0,0,0,0,0,0,0,0,0,0,0,0,0,0,0,0,0,0,0,0,0,0,0,0,0,0,0,0,0,0,0,0,0,0,0,0,0,0,0,0,0,0,0,0,0,0,0,0,0,0,0,0,0,0,0,0,0,0,0,0,0,0,0,0,0,0,0,0,0,0,0,0,0,0,0,0,0,0,0,0,0,0,0,0,0,0,0,0,0,0,0,0,0,0,0,0,0,0,0,0,0,0,0,0,0,0,0,0,0,0,0,0,0,0,0,0,0,0,0,0,0,0,0,0,0,0,0,0,0,0,0,0,0,0,0,0,0,0,0,0,0,0,0,0,0,0,0,0,0,0,0,0,0,0,0,0,0,0,0,0,0,0,0,0,0,0,0,0,0,0,0,0,0,0,0,0,0,0,0,0,0,0,0,0,0,0,0,0,0,0,0,0,0,0,0,0,0,0,0,0,0,0,0,0,0,0,0,0,0,0,0,0,0,0,0,0,0,0,0,0,0,0,0,0,0,0,0,0,0,0,0,0,0,0,0,0,0,0,0,0,0,0,0,0,0,0,0,0,0,0,0,0,0,0,0,0,0,0,0,0,0,0,0,0,0,0,0,0,0,0,0,0,0,0,0,0,0,0,0,0,0,0,0,0,0,0,0,0,0,0,0,0,0,0,0,0,0,0,0,0,0,0,0,0,0,0,0,0,0,0,0,0,0,0,0,0,0,0,0,0,0,0,0,0,0,0,0,0,0,0,0,0,0,0,0,0,0,0,0,0,0,0,0,0,0,0,0,0,0,0,0,0,0,0,0,0,0,0,0,0,0,0,0,0,0,0,0,0,0,0,0,0,0,0,0,0,0,0,0,0,0,0,0,0,0,0,0,0,0,0,0,0,0,0,0,0,0,0,0,0,0,0,0,0,0,0,0,0,0,0,0,0,0,0,0,0,0,0,0,0,0,0,0,0,0,0,0,0,0,0,0,0,0,0,0,0,0,0,0,0,0,0,0,0,0,0,0,0,0,0,0,0,0,0,0,0,0,0,0,0,0,0,0,0,0,0,0,0,0,0,0,0,0,0,0,0,0,0,0,0,0,0,0,0,0,0,0,0,0,0,0,0,0,0,0,0,0,0,0,0,0,0,0,0,0,0,0,0,0,0,0,0,0,0,0,0,0,0,0,0,0,0,0,0,0,0,0,0,0,0,0,0,0,0,0,0,0,0,0,0,0,0,0,0,0,0,0,0,0,0,0,0,0,0,0,0,0,0,0,0,0,0,0,0,0,0,0,0,0,0,0,0,0,0,0,0,0,0,0,0,0,0,0,0,0,0,0,0,0,0,0,0,0,0,0,0,0,0,0,0,0,0,0,0,0,0,0,0,0,0,0,0,0,0,0,0,0,0,0,0,0,0,0,0,0,0,0,0,0,0,0,0,0,0,0,0,0,0,0,0,0,0,0,0,0,0,0,0,0,0,0,0,0,0,0,0,0,0,0,0,0,0,0,0,0,0,0,0,0,0,0,0,0,0,0,0,0,0,0,0,0,0,0,0,0,0,0,0,0,0,0,0,0,0,0,0,0,0,0,0,0,0,0,0,0,0,0,0,0,0,0,0,0,0,0,0,0,0,0,0,0,0,0,0,0,0,0,0,0,0,0,0,0,0,0,0,0,0,0,0,0,0,0,0,0,0,0,0,0,0,0,0,0,0,0,0,0,0,0,0,0,0,0,0,0,0,0,0,0,0,0,0,0,0,0,0,0,0,0,0,0,0,0,0,0,0,0,0,0,0,0,0,0,0,0,0,0,0,0,0,0,0,0,0,0,0,0,0,0,0,0,0,0,0,0,0,0,0,0,0,0,0,0,0,0,0,0,0,0,0,0,0,0,0,0,0,0,0,0,0,0,0,0,0,0,0,0,0,0,0,0,0,0,0,0,0,0,0,0,0,0,0,0,0,0,0,0,0,0,0,0,0,0,0,0,0,0,0,0,0,0,0,0,0,0,0,0,0,0,0,0,0,0,0,0,0,0,0,0,0,0,0,0,0,0,0,0,0,0,0,0,0,0,0,0,0,0,0,0,0,0,0,0,0,0,0,0,0,0,0,0,0,0,0,0,0,0,0,0,0,0,0,0,0,0,0,0,0,0,0,0,0,0,0,0,0,0,0,0,0,0,0,0,0,0,0,0,0,0,0,0,0,0,0,0,0,0,0,0,0,0,0,0,0,0,0,0,0,0,0,0,0,0,0,0,0,0,0,0,0,0,0,0,0,0,0,0,0,0,0,0,0,0,0,0,0,0,0,0,0,0,0,0,0,0,0,0,0,0,0,0,0,0,0,0,0,0,0,0,0,0,0,0,0,0,0,0,0,0,0,0,0,0,0,0,0,0,0,0,0,0,0,0,0,0,0,0,0,0,0,0,0,0,0,0,0,0,0,0,0,0,0,0,0,0,0,0,0,0,0,0,0,0,0,0,0,0,0,0,0,0,0,0,0,0,0,0,0,0,0,0,0,0,0,0,0,0,0,0,0,0,0,0,0,0,0,0,0,0,0,0,0,0,0,0,0,0,0,0,0,0,0,0,0,0,0,0,0,0,0,0,0,0,0,0,0,0,0,0,0,0,0,0,0,0,0,0,0,0,0,0,0,0,0,0,0,0,0,0,0,0,0,0,0,0,0,0,0,0,0,0,0,0,0,0,0,0,0,0,0,0,0,0,0,0,0,0,0,0,0,0,0,0,0,0,0,0,0,0,0,0,0,0,0,0,0,0,0,0,0,0,0,0,0,0,0,0,0,0,0,0,0,0,0,0,0,0,0,0,0,0,0,0,0,0,0,0,0,0,0,0,0,0,0,0,0,0,0,0,0,0,0,0,0,0,0,0,0,0,0,0,0,0,0,0,0,0,0,0,0,0,0,0,0,0,0,0,0,0,0,0,0,0,0,0,0,0,0,0,0,0,0,0,0,0,0,0,0,0,0,0,0,0,0,0,0,0,0,0,0,0,0,0,0,0,0,0,0,0,0,0,0,0,0,0,0,0,0,0,0,0,0,0,0,0,0,0,0,0,0,0,0,0,0,0,0,0,0,0,0,0,0,0,0,0,0,0,0,0,0,0,0,0,0,0,0,0,0,0,0,0,0,0,0,0,0,0,0,0,0,0,0,0,0,0,0,0,0,0,0,0,0,0,0,0,0,0,0,0,0,0,0,0,0,0,0,0,0,0,0,0,0,0,0,0,0,0,0,0,0,0,0,0,0,0,0,0,0,0,0,0,0,0,0,0,0,0,0,0,0,0,0,0,0,0,0,0,0,0,0,0,0,0,0,0,0,0,0,0,0,0,0,0,0,0,0,0,0,0,0,0,0,0,0,0,0,0,0,0,0,0,0,0,0,0,0,0,0,0,0,0,0,0,0,0,0,0,0,0,0,0,0,0,0,0,0,0,0,0,0,0,0,0,0,0,0,0,0,0,0,0,0,0,0,0,0,0,0,0,0,0,0,0,0,0,0,0,0,0,0,0,0,0,0,0,0,0,0,0,0,0,0,0,0,0,0,0,0,0,0,0,0,0,0,0,0,0,0,0,0,0,0,0,0,0,0,0,0,0,0,0,0,0,0,0,0,0,0,0,0,0,0,0,0,0,0,0,0,0,0,0,0,0,0,0,0,0,0,0,0,0,0,0,0,0,0,0,0,0,0,0,0,0,0,0,0,0,0,0,0,0,0,0,0,0,0,0,0,0,0,0,0,0,0,0,0,0,0,0,0,0,0,0,0,0,0,0,0,0,0,0,0,0,0,0,0,0,0,0,0,0,0,0,0,0,0,0,0,0,0,0,0,0,0,0,0,0,0,0,0,0,0,0,0,0,0,0,0,0,0,0,0,0,0,0,0,0,0,0,0,0,0,0,0,0,0,0,0,0,0,0,0,0,0,0,0,0,0,0,0,0,0,0,0,0,0,0,0,0,0,0,0,0,0,0,0,0,0,0,0,0,0,0,0,0,0,0,0,0,0,0,0,0,0,0,0,0,0,0,0,0,0,0,0,0,0,0,0,0,0,0,0,0,0,0,0,0,0,0,0,0,0,0,
255.0,255.0,255.0,255.0,255.0,255.0,255.0,255.0,255.0,255.0,255.0,255.0,255.0,255.0,255.0,255.0,255.0,255.0,255.0,255.0,255.0,255.0,255.0,255.0,255.0,255.0,255.0,255.0,255.0,255.0,255.0,255.0,255.0,255.0,255.0,255.0,255.0,255.0,255.0,255.0,255.0,255.0,255.0,255.0,255.0,255.0,255.0,255.0,255.0,255.0,255.0,255.0,255.0,255.0,255.0,255.0,255.0,255.0,255.0,255.0,255.0,255.0,255.0,255.0,255.0,255.0,255.0,255.0,255.0,255.0,255.0,255.0,255.0,255.0,255.0,255.0,255.0,255.0,255.0,255.0,255.0,255.0,255.0,255.0,255.0,255.0,255.0,255.0,255.0,255.0,255.0,255.0,255.0,255.0,255.0,255.0,255.0,255.0,255.0,255.0,255.0,255.0,255.0,255.0,255.0,255.0,255.0,255.0,255.0,255.0,255.0,255.0,255.0,255.0,255.0,255.0,255.0,255.0,255.0,255.0,255.0,255.0,255.0,255.0,255.0,255.0,255.0,255.0,255.0,255.0,255.0,255.0,255.0,255.0,255.0,255.0,255.0,255.0,255.0,255.0,255.0,255.0,255.0,255.0,255.0,255.0,255.0,255.0,255.0,255.0,255.0,255.0,255.0,255.0,255.0,255.0,255.0,255.0,255.0,255.0,255.0,255.0,255.0,255.0,255.0,255.0,255.0,255.0,255.0,255.0,255.0,255.0,255.0,255.0,255.0,255.0,255.0,255.0,255.0,255.0,255.0,255.0,255.0,255.0,255.0,255.0,255.0,255.0,255.0,255.0,255.0,255.0,255.0,255.0,255.0,255.0,255.0,255.0,255.0,255.0,255.0,255.0,255.0,255.0,255.0,255.0,255.0,255.0,255.0,255.0,255.0,255.0,255.0,255.0,255.0,255.0,255.0,255.0,255.0,255.0,255.0,255.0,255.0,255.0,255.0,255.0,255.0,255.0,255.0,255.0,255.0,255.0,255.0,255.0,255.0,255.0,255.0,255.0,255.0,255.0,255.0,255.0,255.0,255.0,255.0,255.0,255.0,255.0,255.0,255.0,255.0,255.0,255.0,255.0,255.0,255.0,255.0,255.0,255.0,255.0,255.0,255.0,255.0,255.0,255.0,255.0,255.0,255.0,255.0,255.0,255.0,255.0,255.0,255.0,255.0,255.0,255.0,255.0,255.0,255.0,255.0,255.0,255.0,255.0,255.0,255.0,255.0,255.0,255.0,255.0,255.0,255.0,255.0,255.0,255.0,255.0,255.0,255.0,255.0,255.0,255.0,255.0,255.0,255.0,255.0,255.0,255.0,255.0,255.0,255.0,255.0,255.0,255.0,255.0,255.0,255.0,255.0,255.0,255.0,255.0,255.0,255.0,255.0,255.0,255.0,255.0,255.0,255.0,255.0,255.0,255.0,255.0,255.0,255.0,255.0,255.0,255.0,255.0,255.0,255.0,255.0,255.0,255.0,255.0,255.0,255.0,255.0,255.0,255.0,255.0,255.0,255.0,255.0,255.0,255.0,255.0,255.0,255.0,255.0,255.0,255.0,255.0,255.0,255.0,255.0,255.0,255.0,255.0,255.0,255.0,255.0,255.0,255.0,255.0,255.0,255.0,255.0,255.0,255.0,255.0,255.0,255.0,255.0,255.0,255.0,255.0,255.0,255.0,255.0,255.0,255.0,255.0,255.0,255.0,255.0,255.0,255.0,255.0,255.0,255.0,255.0,255.0,255.0,255.0,255.0,255.0,255.0,255.0,255.0,255.0,255.0,255.0,255.0,255.0,255.0,255.0,255.0,255.0,255.0,255.0,255.0,255.0,255.0,255.0,255.0,255.0,255.0,255.0,255.0,255.0,255.0,255.0,255.0,255.0,255.0,255.0,255.0,255.0,255.0,255.0,255.0,255.0,255.0,255.0,255.0,255.0,255.0,255.0,255.0,255.0,255.0,255.0,255.0,255.0,255.0,255.0,255.0,255.0,255.0,255.0,255.0,255.0,255.0,255.0,255.0,255.0,255.0,255.0,255.0,255.0,255.0,255.0,255.0,255.0,255.0,255.0,255.0,255.0,255.0,255.0,255.0,255.0,255.0,255.0,255.0,255.0,255.0,255.0,255.0,255.0,255.0,255.0,255.0,255.0,255.0,255.0,255.0,255.0,255.0,255.0,255.0,255.0,255.0,255.0,255.0,255.0,255.0,255.0,255.0,255.0,255.0,255.0,255.0,255.0,255.0,255.0,255.0,255.0,255.0,255.0,255.0,255.0,255.0,255.0,255.0,255.0,255.0,255.0,255.0,255.0,255.0,255.0,255.0,255.0,255.0,255.0,255.0,255.0,255.0,255.0,255.0,255.0,255.0,255.0,255.0,255.0,255.0,255.0,255.0,255.0,255.0,255.0,255.0,255.0,255.0,255.0,255.0,255.0,255.0,255.0,255.0,255.0,255.0,255.0,255.0,255.0,255.0,255.0,255.0,255.0,255.0,255.0,255.0,255.0,255.0,255.0,255.0,255.0,255.0,255.0,255.0,255.0,255.0,255.0,255.0,255.0,255.0,255.0,255.0,255.0,255.0,255.0,255.0,255.0,255.0,255.0,255.0,255.0,255.0,255.0,255.0,255.0,255.0,255.0,255.0,255.0,255.0,255.0,255.0,255.0,255.0,255.0,255.0,255.0,255.0,255.0,255.0,255.0,255.0,255.0,255.0,255.0,255.0,255.0,255.0,255.0,255.0,255.0,255.0,255.0,255.0,255.0,255.0,255.0,255.0,255.0,255.0,255.0,255.0,255.0,255.0,255.0,255.0,255.0,255.0,255.0,255.0,255.0,255.0,255.0,255.0,255.0,255.0,255.0,255.0,255.0,255.0,255.0,255.0,255.0,255.0,255.0,255.0,255.0,255.0,255.0,255.0,255.0,255.0,255.0,255.0,255.0,255.0,255.0,255.0,255.0,255.0,255.0,255.0,255.0,255.0,255.0,255.0,255.0,255.0,255.0,255.0,255.0,255.0,255.0,255.0,255.0,255.0,255.0,255.0,255.0,255.0,255.0,255.0,255.0,255.0,255.0,255.0,255.0,255.0,255.0,255.0,255.0,255.0,255.0,255.0,255.0,255.0,255.0,255.0,255.0,255.0,255.0,255.0,255.0,255.0,255.0,255.0,255.0,255.0,255.0,255.0,255.0,255.0,255.0,255.0,255.0,255.0,255.0,255.0,255.0,255.0,255.0,255.0,255.0,255.0,255.0,255.0,255.0,255.0,255.0,255.0,255.0,255.0,255.0,255.0,255.0,255.0,255.0,255.0,255.0,255.0,255.0,255.0,255.0,255.0,255.0,255.0,255.0,255.0,255.0,255.0,255.0,255.0,255.0,255.0,255.0,255.0,255.0,255.0,255.0,255.0,255.0,255.0,255.0,255.0,255.0,255.0,255.0,255.0,255.0,255.0,255.0,255.0,255.0,255.0,255.0,255.0,255.0,255.0,255.0,255.0,255.0,255.0,255.0,255.0,255.0,255.0,255.0,255.0,255.0,255.0,255.0,255.0,255.0,255.0,255.0,255.0,255.0,255.0,255.0,255.0,255.0,255.0,255.0,255.0,255.0,255.0,255.0,255.0,255.0,255.0,255.0,255.0,255.0,255.0,255.0,255.0,255.0,255.0,255.0,255.0,255.0,255.0,255.0,255.0,255.0,255.0,255.0,255.0,255.0,255.0,255.0,255.0,255.0,255.0,255.0,255.0,255.0,255.0,255.0,255.0,255.0,255.0,255.0,255.0,255.0,255.0,255.0,255.0,255.0,255.0,255.0,255.0,255.0,255.0,255.0,255.0,255.0,255.0,255.0,255.0,255.0,255.0,255.0,255.0,255.0,255.0,255.0,255.0,255.0,255.0,255.0,255.0,255.0,255.0,255.0,255.0,255.0,255.0,255.0,255.0,255.0,255.0,255.0,255.0,255.0,255.0,255.0,255.0,255.0,255.0,255.0,255.0,255.0,255.0,255.0,255.0,255.0,255.0,255.0,255.0,255.0,255.0,255.0,255.0,255.0,255.0,255.0,255.0,255.0,255.0,255.0,255.0,255.0,255.0,255.0,255.0,255.0,255.0,255.0,255.0,255.0,255.0,255.0,255.0,255.0,255.0,255.0,255.0,255.0,255.0,255.0,255.0,255.0,255.0,255.0,255.0,255.0,255.0,255.0,255.0,255.0,255.0,255.0,255.0,255.0,255.0,255.0,255.0,255.0,255.0,255.0,255.0,255.0,255.0,255.0,255.0,255.0,255.0,255.0,255.0,255.0,255.0,255.0,255.0,255.0,255.0,255.0,255.0,255.0,255.0,255.0,255.0,255.0,255.0,255.0,255.0,255.0,255.0,255.0,255.0,255.0,255.0,255.0,255.0,255.0,255.0,255.0,255.0,255.0,255.0,255.0,255.0,255.0,255.0,255.0,255.0,255.0,255.0,255.0,255.0,255.0,255.0,255.0,255.0,255.0,255.0,255.0,255.0,255.0,255.0,255.0,255.0,255.0,255.0,255.0,255.0,255.0,255.0,255.0,255.0,255.0,255.0,255.0,255.0,255.0,255.0,255.0,255.0,255.0,255.0,255.0,255.0,255.0,255.0,255.0,255.0,255.0,255.0,255.0,255.0,255.0,255.0,255.0,255.0,255.0,255.0,255.0,255.0,255.0,255.0,255.0,255.0,255.0,255.0,255.0,255.0,255.0,255.0,255.0,255.0,255.0,255.0,255.0,255.0,255.0,255.0,255.0,255.0,255.0,255.0,255.0,255.0,255.0,255.0,255.0,255.0,255.0,255.0,255.0,255.0,255.0,255.0,255.0,255.0,255.0,255.0,255.0,255.0,255.0,255.0,255.0,255.0,255.0,255.0,255.0,255.0,255.0,255.0,255.0,255.0,255.0,255.0,255.0,255.0,255.0,255.0,255.0,255.0,255.0,255.0,255.0,255.0,255.0,255.0,255.0,255.0,255.0,255.0,255.0,255.0,255.0,255.0,255.0,255.0,255.0,255.0,255.0,255.0,255.0,255.0,255.0,255.0,255.0,255.0,255.0,255.0,255.0,255.0,255.0,255.0,255.0,255.0,255.0,255.0,255.0,255.0,255.0,255.0,255.0,255.0,255.0,255.0,255.0,255.0,255.0,255.0,255.0,255.0,255.0,255.0,255.0,255.0,255.0,255.0,255.0,255.0,255.0,255.0,255.0,255.0,255.0,255.0,255.0,255.0,255.0,255.0,255.0,255.0,255.0,255.0,255.0,255.0,255.0,255.0,255.0,255.0,255.0,255.0,255.0,255.0,255.0,255.0,255.0,255.0,255.0,255.0,255.0,255.0,255.0,255.0,255.0,255.0,255.0,255.0,255.0,255.0,255.0,255.0,255.0,255.0,255.0,255.0,255.0,255.0,255.0,255.0,255.0,255.0,255.0,255.0,255.0,255.0,255.0,255.0,255.0,255.0,255.0,255.0,255.0,255.0,255.0,255.0,255.0,255.0,255.0,255.0,255.0,255.0,255.0,255.0,255.0,255.0,255.0,255.0,255.0,255.0,255.0,255.0,255.0,255.0,255.0,255.0,255.0,255.0,255.0,255.0,255.0,255.0,255.0,255.0,255.0,255.0,255.0,255.0,255.0,255.0,255.0,255.0,255.0,255.0,255.0,255.0,255.0,255.0,255.0,255.0,255.0,255.0,255.0,255.0,255.0,255.0,255.0,255.0,255.0,255.0,255.0,255.0,255.0,255.0,255.0,255.0,255.0,255.0,255.0,255.0,255.0,255.0,255.0,255.0,255.0,255.0,255.0,255.0,255.0,255.0,255.0,255.0,255.0,255.0,255.0,255.0,255.0,255.0,255.0,255.0,255.0,255.0,255.0,255.0,255.0,255.0,255.0,255.0,255.0,255.0,255.0,255.0,255.0,255.0,255.0,255.0,255.0,255.0,255.0,255.0,255.0,255.0,255.0,255.0,255.0,255.0,255.0,255.0,255.0,255.0,255.0,255.0,255.0,255.0,255.0,255.0,255.0,255.0,255.0,255.0,255.0,255.0,255.0,255.0,255.0,255.0,255.0,255.0,255.0,255.0,255.0,255.0,255.0,255.0,255.0,255.0,255.0,255.0,255.0,255.0,255.0,255.0,255.0,255.0,255.0,255.0,255.0,255.0,255.0,255.0,255.0,255.0,255.0,255.0,255.0,255.0,255.0,255.0,255.0,255.0,255.0,255.0,255.0,255.0,255.0,255.0,255.0,255.0,255.0,255.0,255.0,255.0,255.0,255.0,255.0,255.0,255.0,255.0,255.0,255.0,255.0,255.0,255.0,255.0,255.0,255.0,255.0,255.0,255.0,255.0,255.0,255.0,255.0,255.0,255.0,255.0,255.0,255.0,255.0,255.0,255.0,255.0,255.0,255.0,255.0,255.0,255.0,255.0,255.0,255.0,255.0,255.0,255.0,255.0,255.0,255.0,255.0,255.0,255.0,255.0,255.0,255.0,255.0,255.0,255.0,255.0,255.0,255.0,255.0,255.0,255.0,255.0,255.0,255.0,255.0,255.0,255.0,255.0,255.0,255.0,255.0,255.0,255.0,255.0,255.0,255.0,255.0,255.0,255.0,255.0,255.0,255.0,255.0,255.0,255.0,255.0,255.0,255.0,255.0,255.0,255.0,255.0,255.0,255.0,255.0,255.0,255.0,255.0,255.0,255.0,255.0,255.0,255.0,255.0,255.0,255.0,255.0,255.0,255.0,255.0,255.0,255.0,255.0,255.0,255.0,255.0,255.0,255.0,255.0,255.0,255.0,255.0,255.0,255.0,255.0,255.0,255.0,255.0,255.0,255.0,255.0,255.0,255.0,255.0,255.0,255.0,255.0,255.0,255.0,255.0,255.0,255.0,255.0,255.0,255.0,255.0,255.0,255.0,255.0,255.0,255.0,255.0,255.0,255.0,255.0,255.0,255.0,255.0,255.0,255.0,255.0,255.0,255.0,255.0,255.0,255.0,255.0,255.0,255.0,255.0,255.0,255.0,255.0,255.0,255.0,255.0,255.0,255.0,255.0,255.0,255.0,255.0,255.0,255.0,255.0,255.0,255.0,255.0,255.0,255.0,255.0,255.0,255.0,255.0,255.0,255.0,255.0,255.0,255.0,255.0,255.0,255.0,255.0,255.0,255.0,255.0,255.0,255.0,255.0,255.0,255.0,255.0,255.0,255.0,255.0,255.0,255.0,255.0,255.0,255.0,255.0,255.0,255.0,255.0,255.0,255.0,255.0,255.0,255.0,255.0,255.0,255.0,255.0,255.0,255.0,255.0,255.0,255.0,255.0,255.0,255.0,255.0,255.0,255.0,255.0,255.0,255.0,255.0,255.0,255.0,255.0,255.0,255.0,255.0,255.0,255.0,255.0,255.0,255.0,255.0,255.0,255.0,255.0,255.0,255.0,255.0,255.0,255.0,255.0,255.0,255.0,255.0,255.0,255.0,255.0,255.0,255.0,255.0,255.0,255.0,255.0,255.0,255.0,255.0,255.0,255.0,255.0,255.0,255.0,255.0,255.0,255.0,255.0,255.0,255.0,255.0,255.0,255.0,255.0,255.0,255.0,255.0,255.0,255.0,255.0,255.0,255.0,255.0,255.0,255.0,255.0,255.0,255.0,255.0,255.0,255.0,255.0,255.0,255.0,255.0,255.0,255.0,255.0,255.0,255.0,255.0,255.0,255.0,255.0,255.0,255.0,255.0,255.0,255.0,255.0,255.0,255.0,255.0,255.0,255.0,255.0,255.0,255.0,255.0,255.0,255.0,255.0,255.0,255.0,255.0,255.0,255.0,255.0,255.0,255.0,255.0,255.0,255.0,255.0,255.0,255.0,255.0,255.0,255.0,255.0,255.0,255.0,255.0,255.0,255.0,255.0,255.0,255.0,255.0,255.0,255.0,255.0,255.0,255.0,255.0,255.0,255.0,255.0,255.0,255.0,255.0,255.0,255.0,255.0,255.0,255.0,255.0,255.0,255.0,255.0,255.0,255.0,255.0,255.0,255.0,255.0,255.0,255.0,255.0,255.0,255.0,255.0,255.0,255.0,255.0,255.0,255.0,255.0,255.0,255.0,255.0,255.0,255.0,255.0,255.0,255.0,255.0,255.0,255.0,255.0,255.0,255.0,255.0,255.0,255.0,255.0,255.0,255.0,255.0,255.0,255.0,255.0,255.0,255.0,255.0,255.0,255.0,255.0,255.0,255.0,255.0,255.0,255.0,255.0,255.0,255.0,255.0,255.0,255.0,255.0,255.0,255.0,255.0,255.0,255.0,255.0,255.0,255.0,255.0,255.0,255.0,255.0,255.0,255.0,255.0,255.0,255.0,255.0,255.0,255.0,255.0,255.0,255.0,255.0,255.0,255.0,255.0,255.0,255.0,255.0,255.0,255.0,255.0,255.0,255.0,255.0,255.0,255.0,255.0,255.0,255.0,255.0,255.0,255.0,255.0,255.0,255.0,255.0,255.0,255.0,255.0,255.0,255.0,255.0,255.0,255.0,255.0,255.0,255.0,255.0,255.0,255.0,255.0,255.0,255.0,255.0,255.0,255.0,255.0,255.0,255.0,255.0,255.0,255.0,255.0,255.0,255.0,255.0,255.0,255.0,255.0,255.0,255.0,255.0,255.0,255.0,255.0,255.0,255.0,255.0,255.0,255.0,255.0,255.0,255.0,255.0,255.0,255.0,255.0,255.0,255.0,255.0,255.0,255.0,255.0,255.0,255.0,255.0,255.0,255.0,255.0,255.0,255.0,255.0,255.0,255.0,255.0,255.0,255.0,255.0,255.0,255.0,255.0,255.0,255.0,255.0,255.0,255.0,255.0,255.0,255.0,255.0,255.0,255.0,255.0,255.0,255.0,255.0,255.0,255.0,255.0,255.0,255.0,255.0,255.0,255.0,255.0,255.0,255.0,255.0,255.0,255.0,255.0,255.0,255.0,255.0,255.0,255.0,255.0,255.0,255.0,255.0,255.0,255.0,255.0,255.0,255.0,255.0,255.0,255.0,255.0,255.0,255.0,255.0,255.0,255.0,255.0,255.0,255.0,255.0,255.0,255.0,255.0,255.0,255.0,255.0,255.0,255.0,255.0,255.0,255.0,255.0,255.0,255.0,255.0,255.0,255.0,255.0,255.0,255.0,255.0,255.0,255.0,255.0,255.0,255.0,255.0,255.0,255.0,255.0,255.0,255.0,255.0,255.0,255.0,255.0,255.0,255.0,255.0,255.0,255.0,255.0,255.0,255.0,255.0,255.0,255.0,255.0,255.0,255.0,255.0,255.0,255.0,255.0,255.0,255.0,255.0,255.0,255.0,255.0,255.0,255.0,255.0,255.0,255.0,255.0,255.0,255.0,255.0,255.0,255.0,255.0,255.0,255.0,255.0,255.0,255.0,255.0,255.0,255.0,255.0,255.0,255.0,255.0,255.0,255.0,255.0,255.0,255.0,255.0,255.0,255.0,255.0,255.0,255.0,255.0,255.0,255.0,255.0,255.0,255.0,255.0,255.0,255.0,255.0,255.0,255.0,255.0,255.0,255.0,255.0,255.0,255.0,255.0,255.0,255.0,255.0,255.0,255.0,255.0,255.0,255.0,255.0,255.0,255.0,255.0,255.0,255.0,255.0,255.0,255.0,255.0,255.0,255.0,255.0,255.0,255.0,255.0,255.0,255.0,255.0,255.0,255.0,255.0,255.0,255.0,255.0,255.0,255.0,255.0,255.0,255.0,255.0,255.0,255.0,255.0,255.0,255.0,255.0,255.0,255.0,255.0,255.0,255.0,255.0,255.0,255.0,255.0,255.0,255.0,255.0,255.0,255.0,255.0,255.0,255.0,255.0,255.0,255.0,255.0,255.0,255.0,255.0,255.0,255.0,255.0,255.0,255.0,255.0,255.0,255.0,255.0,255.0,255.0,255.0,255.0,255.0,255.0,255.0,255.0,255.0,255.0,255.0,255.0,255.0,255.0,255.0,255.0,255.0,255.0,255.0,255.0,255.0,255.0,255.0,255.0,255.0,255.0,255.0,255.0,255.0,255.0,255.0,255.0,255.0,255.0,255.0,255.0,255.0,255.0,255.0,255.0,255.0,255.0,255.0,255.0,255.0,255.0,255.0,255.0,255.0,255.0,255.0,255.0,255.0,255.0,255.0,255.0,255.0,255.0,255.0,255.0,255.0,255.0,255.0,255.0,255.0,255.0,255.0,255.0,255.0,255.0,255.0,255.0,255.0,255.0,255.0,255.0,255.0,255.0,255.0,255.0,255.0,255.0,255.0,255.0,255.0,255.0,255.0,255.0,255.0,255.0,255.0,255.0,255.0,255.0,255.0,255.0,255.0,255.0,255.0,255.0,255.0,255.0,
127.0,127.0,127.0,127.0,127.0,127.0,127.0,127.0,127.0,127.0,127.0,127.0,127.0,127.0,127.0,127.0,127.0,127.0,127.0,127.0,127.0,127.0,127.0,127.0,127.0,127.0,127.0,127.0,127.0,127.0,127.0,127.0,127.0,127.0,127.0,127.0,127.0,127.0,127.0,127.0,127.0,127.0,127.0,127.0,127.0,127.0,127.0,127.0,127.0,127.0,127.0,127.0,127.0,127.0,127.0,127.0,127.0,127.0,127.0,127.0,127.0,127.0,127.0,127.0,127.0,127.0,127.0,127.0,127.0,127.0,127.0,127.0,127.0,127.0,127.0,127.0,127.0,127.0,127.0,127.0,127.0,127.0,127.0,127.0,127.0,127.0,127.0,127.0,127.0,127.0,127.0,127.0,127.0,127.0,127.0,127.0,127.0,127.0,127.0,127.0,127.0,127.0,127.0,127.0,127.0,127.0,127.0,127.0,127.0,127.0,127.0,127.0,127.0,127.0,127.0,127.0,127.0,127.0,127.0,127.0,127.0,127.0,127.0,127.0,127.0,127.0,127.0,127.0,127.0,127.0,127.0,127.0,127.0,127.0,127.0,127.0,127.0,127.0,127.0,127.0,127.0,127.0,127.0,127.0,127.0,127.0,127.0,127.0,127.0,127.0,127.0,127.0,127.0,127.0,127.0,127.0,127.0,127.0,127.0,127.0,127.0,127.0,127.0,127.0,127.0,127.0,127.0,127.0,127.0,127.0,127.0,127.0,127.0,127.0,127.0,127.0,127.0,127.0,127.0,127.0,127.0,127.0,127.0,127.0,127.0,127.0,127.0,127.0,127.0,127.0,127.0,127.0,127.0,127.0,127.0,127.0,127.0,127.0,127.0,127.0,127.0,127.0,127.0,127.0,127.0,127.0,127.0,127.0,127.0,127.0,127.0,127.0,127.0,127.0,127.0,127.0,127.0,127.0,127.0,127.0,127.0,127.0,127.0,127.0,127.0,127.0,127.0,127.0,127.0,127.0,127.0,127.0,127.0,127.0,127.0,127.0,127.0,127.0,127.0,127.0,127.0,127.0,127.0,127.0,127.0,127.0,127.0,127.0,127.0,127.0,127.0,127.0,127.0,127.0,127.0,127.0,127.0,127.0,127.0,127.0,127.0,127.0,127.0,127.0,127.0,127.0,127.0,127.0,127.0,127.0,127.0,127.0,127.0,127.0,127.0,127.0,127.0,127.0,127.0,127.0,127.0,127.0,127.0,127.0,127.0,127.0,127.0,127.0,127.0,127.0,127.0,127.0,127.0,127.0,127.0,127.0,127.0,127.0,127.0,127.0,127.0,127.0,127.0,127.0,127.0,127.0,127.0,127.0,127.0,127.0,127.0,127.0,127.0,127.0,127.0,127.0,127.0,127.0,127.0,127.0,127.0,127.0,127.0,127.0,127.0,127.0,127.0,127.0,127.0,127.0,127.0,127.0,127.0,127.0,127.0,127.0,127.0,127.0,127.0,127.0,127.0,127.0,127.0,127.0,127.0,127.0,127.0,127.0,127.0,127.0,127.0,127.0,127.0,127.0,127.0,127.0,127.0,127.0,127.0,127.0,127.0,127.0,127.0,127.0,127.0,127.0,127.0,127.0,127.0,127.0,127.0,127.0,127.0,127.0,127.0,127.0,127.0,127.0,127.0,127.0,127.0,127.0,127.0,127.0,127.0,127.0,127.0,127.0,127.0,127.0,127.0,127.0,127.0,127.0,127.0,127.0,127.0,127.0,127.0,127.0,127.0,127.0,127.0,127.0,127.0,127.0,127.0,127.0,127.0,127.0,127.0,127.0,127.0,127.0,127.0,127.0,127.0,127.0,127.0,127.0,127.0,127.0,127.0,127.0,127.0,127.0,127.0,127.0,127.0,127.0,127.0,127.0,127.0,127.0,127.0,127.0,127.0,127.0,127.0,127.0,127.0,127.0,127.0,127.0,127.0,127.0,127.0,127.0,127.0,127.0,127.0,127.0,127.0,127.0,127.0,127.0,127.0,127.0,127.0,127.0,127.0,127.0,127.0,127.0,127.0,127.0,127.0,127.0,127.0,127.0,127.0,127.0,127.0,127.0,127.0,127.0,127.0,127.0,127.0,127.0,127.0,127.0,127.0,127.0,127.0,127.0,127.0,127.0,127.0,127.0,127.0,127.0,127.0,127.0,127.0,127.0,127.0,127.0,127.0,127.0,127.0,127.0,127.0,127.0,127.0,127.0,127.0,127.0,127.0,127.0,127.0,127.0,127.0,127.0,127.0,127.0,127.0,127.0,127.0,127.0,127.0,127.0,127.0,127.0,127.0,127.0,127.0,127.0,127.0,127.0,127.0,127.0,127.0,127.0,127.0,127.0,127.0,127.0,127.0,127.0,127.0,127.0,127.0,127.0,127.0,127.0,127.0,127.0,127.0,127.0,127.0,127.0,127.0,127.0,127.0,127.0,127.0,127.0,127.0,127.0,127.0,127.0,127.0,127.0,127.0,127.0,127.0,127.0,127.0,127.0,127.0,127.0,127.0,127.0,127.0,127.0,127.0,127.0,127.0,127.0,127.0,127.0,127.0,127.0,127.0,127.0,127.0,127.0,127.0,127.0,127.0,127.0,127.0,127.0,127.0,127.0,127.0,127.0,127.0,127.0,127.0,127.0,127.0,127.0,127.0,127.0,127.0,127.0,127.0,127.0,127.0,127.0,127.0,127.0,127.0,127.0,127.0,127.0,127.0,127.0,127.0,127.0,127.0,127.0,127.0,127.0,127.0,127.0,127.0,127.0,127.0,127.0,127.0,127.0,127.0,127.0,127.0,127.0,127.0,127.0,127.0,127.0,127.0,127.0,127.0,127.0,127.0,127.0,127.0,127.0,127.0,127.0,127.0,127.0,127.0,127.0,127.0,127.0,127.0,127.0,127.0,127.0,127.0,127.0,127.0,127.0,127.0,127.0,127.0,127.0,127.0,127.0,127.0,127.0,127.0,127.0,127.0,127.0,127.0,127.0,127.0,127.0,127.0,127.0,127.0,127.0,127.0,127.0,127.0,127.0,127.0,127.0,127.0,127.0,127.0,127.0,127.0,127.0,127.0,127.0,127.0,127.0,127.0,127.0,127.0,127.0,127.0,127.0,127.0,127.0,127.0,127.0,127.0,127.0,127.0,127.0,127.0,127.0,127.0,127.0,127.0,127.0,127.0,127.0,127.0,127.0,127.0,127.0,127.0,127.0,127.0,127.0,127.0,127.0,127.0,127.0,127.0,127.0,127.0,127.0,127.0,127.0,127.0,127.0,127.0,127.0,127.0,127.0,127.0,127.0,127.0,127.0,127.0,127.0,127.0,127.0,127.0,127.0,127.0,127.0,127.0,127.0,127.0,127.0,127.0,127.0,127.0,127.0,127.0,127.0,127.0,127.0,127.0,127.0,127.0,127.0,127.0,127.0,127.0,127.0,127.0,127.0,127.0,127.0,127.0,127.0,127.0,127.0,127.0,127.0,127.0,127.0,127.0,127.0,127.0,127.0,127.0,127.0,127.0,127.0,127.0,127.0,127.0,127.0,127.0,127.0,127.0,127.0,127.0,127.0,127.0,127.0,127.0,127.0,127.0,127.0,127.0,127.0,127.0,127.0,127.0,127.0,127.0,127.0,127.0,127.0,127.0,127.0,127.0,127.0,127.0,127.0,127.0,127.0,127.0,127.0,127.0,127.0,127.0,127.0,127.0,127.0,127.0,127.0,127.0,127.0,127.0,127.0,127.0,127.0,127.0,127.0,127.0,127.0,127.0,127.0,127.0,127.0,127.0,127.0,127.0,127.0,127.0,127.0,127.0,127.0,127.0,127.0,127.0,127.0,127.0,127.0,127.0,127.0,127.0,127.0,127.0,127.0,127.0,127.0,127.0,127.0,127.0,127.0,127.0,127.0,127.0,127.0,127.0,127.0,127.0,127.0,127.0,127.0,127.0,127.0,127.0,127.0,127.0,127.0,127.0,127.0,127.0,127.0,127.0,127.0,127.0,127.0,127.0,127.0,127.0,127.0,127.0,127.0,127.0,127.0,127.0,127.0,127.0,127.0,127.0,127.0,127.0,127.0,127.0,127.0,127.0,127.0,127.0,127.0,127.0,127.0,127.0,127.0,127.0,127.0,127.0,127.0,127.0,127.0,127.0,127.0,127.0,127.0,127.0,127.0,127.0,127.0,127.0,127.0,127.0,127.0,127.0,127.0,127.0,127.0,127.0,127.0,127.0,127.0,127.0,127.0,127.0,127.0,127.0,127.0,127.0,127.0,127.0,127.0,127.0,127.0,127.0,127.0,127.0,127.0,127.0,127.0,127.0,127.0,127.0,127.0,127.0,127.0,127.0,127.0,127.0,127.0,127.0,127.0,127.0,127.0,127.0,127.0,127.0,127.0,127.0,127.0,127.0,127.0,127.0,127.0,127.0,127.0,127.0,127.0,127.0,127.0,127.0,127.0,127.0,127.0,127.0,127.0,127.0,127.0,127.0,127.0,127.0,127.0,127.0,127.0,127.0,127.0,127.0,127.0,127.0,127.0,127.0,127.0,127.0,127.0,127.0,127.0,127.0,127.0,127.0,127.0,127.0,127.0,127.0,127.0,127.0,127.0,127.0,127.0,127.0,127.0,127.0,127.0,127.0,127.0,127.0,127.0,127.0,127.0,127.0,127.0,127.0,127.0,127.0,127.0,127.0,127.0,127.0,127.0,127.0,127.0,127.0,127.0,127.0,127.0,127.0,127.0,127.0,127.0,127.0,127.0,127.0,127.0,127.0,127.0,127.0,127.0,127.0,127.0,127.0,127.0,127.0,127.0,127.0,127.0,127.0,127.0,127.0,127.0,127.0,127.0,127.0,127.0,127.0,127.0,127.0,127.0,127.0,127.0,127.0,127.0,127.0,127.0,127.0,127.0,127.0,127.0,127.0,127.0,127.0,127.0,127.0,127.0,127.0,127.0,127.0,127.0,127.0,127.0,127.0,127.0,127.0,127.0,127.0,127.0,127.0,127.0,127.0,127.0,127.0,127.0,127.0,127.0,127.0,127.0,127.0,127.0,127.0,127.0,127.0,127.0,127.0,127.0,127.0,127.0,127.0,127.0,127.0,127.0,127.0,127.0,127.0,127.0,127.0,127.0,127.0,127.0,127.0,127.0,127.0,127.0,127.0,127.0,127.0,127.0,127.0,127.0,127.0,127.0,127.0,127.0,127.0,127.0,127.0,127.0,127.0,127.0,127.0,127.0,127.0,127.0,127.0,127.0,127.0,127.0,127.0,127.0,127.0,127.0,127.0,127.0,127.0,127.0,127.0,127.0,127.0,127.0,127.0,127.0,127.0,127.0,127.0,127.0,127.0,127.0,127.0,127.0,127.0,127.0,127.0,127.0,127.0,127.0,127.0,127.0,127.0,127.0,127.0,127.0,127.0,127.0,127.0,127.0,127.0,127.0,127.0,127.0,127.0,127.0,127.0,127.0,127.0,127.0,127.0,127.0,127.0,127.0,127.0,127.0,127.0,127.0,127.0,127.0,127.0,127.0,127.0,127.0,127.0,127.0,127.0,127.0,127.0,127.0,127.0,127.0,127.0,127.0,127.0,127.0,127.0,127.0,127.0,127.0,127.0,127.0,127.0,127.0,127.0,127.0,127.0,127.0,127.0,127.0,127.0,127.0,127.0,127.0,127.0,127.0,127.0,127.0,127.0,127.0,127.0,127.0,127.0,127.0,127.0,127.0,127.0,127.0,127.0,127.0,127.0,127.0,127.0,127.0,127.0,127.0,127.0,127.0,127.0,127.0,127.0,127.0,127.0,127.0,127.0,127.0,127.0,127.0,127.0,127.0,127.0,127.0,127.0,127.0,127.0,127.0,127.0,127.0,127.0,127.0,127.0,127.0,127.0,127.0,127.0,127.0,127.0,127.0,127.0,127.0,127.0,127.0,127.0,127.0,127.0,127.0,127.0,127.0,127.0,127.0,127.0,127.0,127.0,127.0,127.0,127.0,127.0,127.0,127.0,127.0,127.0,127.0,127.0,127.0,127.0,127.0,127.0,127.0,127.0,127.0,127.0,127.0,127.0,127.0,127.0,127.0,127.0,127.0,127.0,127.0,127.0,127.0,127.0,127.0,127.0,127.0,127.0,127.0,127.0,127.0,127.0,127.0,127.0,127.0,127.0,127.0,127.0,127.0,127.0,127.0,127.0,127.0,127.0,127.0,127.0,127.0,127.0,127.0,127.0,127.0,127.0,127.0,127.0,127.0,127.0,127.0,127.0,127.0,127.0,127.0,127.0,127.0,127.0,127.0,127.0,127.0,127.0,127.0,127.0,127.0,127.0,127.0,127.0,127.0,127.0,127.0,127.0,127.0,127.0,127.0,127.0,127.0,127.0,127.0,127.0,127.0,127.0,127.0,127.0,127.0,127.0,127.0,127.0,127.0,127.0,127.0,127.0,127.0,127.0,127.0,127.0,127.0,127.0,127.0,127.0,127.0,127.0,127.0,127.0,127.0,127.0,127.0,127.0,127.0,127.0,127.0,127.0,127.0,127.0,127.0,127.0,127.0,127.0,127.0,127.0,127.0,127.0,127.0,127.0,127.0,127.0,127.0,127.0,127.0,127.0,127.0,127.0,127.0,127.0,127.0,127.0,127.0,127.0,127.0,127.0,127.0,127.0,127.0,127.0,127.0,127.0,127.0,127.0,127.0,127.0,127.0,127.0,127.0,127.0,127.0,127.0,127.0,127.0,127.0,127.0,127.0,127.0,127.0,127.0,127.0,127.0,127.0,127.0,127.0,127.0,127.0,127.0,127.0,127.0,127.0,127.0,127.0,127.0,127.0,127.0,127.0,127.0,127.0,127.0,127.0,127.0,127.0,127.0,127.0,127.0,127.0,127.0,127.0,127.0,127.0,127.0,127.0,127.0,127.0,127.0,127.0,127.0,127.0,127.0,127.0,127.0,127.0,127.0,127.0,127.0,127.0,127.0,127.0,127.0,127.0,127.0,127.0,127.0,127.0,127.0,127.0,127.0,127.0,127.0,127.0,127.0,127.0,127.0,127.0,127.0,127.0,127.0,127.0,127.0,127.0,127.0,127.0,127.0,127.0,127.0,127.0,127.0,127.0,127.0,127.0,127.0,127.0,127.0,127.0,127.0,127.0,127.0,127.0,127.0,127.0,127.0,127.0,127.0,127.0,127.0,127.0,127.0,127.0,127.0,127.0,127.0,127.0,127.0,127.0,127.0,127.0,127.0,127.0,127.0,127.0,127.0,127.0,127.0,127.0,127.0,127.0,127.0,127.0,127.0,127.0,127.0,127.0,127.0,127.0,127.0,127.0,127.0,127.0,127.0,127.0,127.0,127.0,127.0,127.0,127.0,127.0,127.0,127.0,127.0,127.0,127.0,127.0,127.0,127.0,127.0,127.0,127.0,127.0,127.0,127.0,127.0,127.0,127.0,127.0,127.0,127.0,127.0,127.0,127.0,127.0,127.0,127.0,127.0,127.0,127.0,127.0,127.0,127.0,127.0,127.0,127.0,127.0,127.0,127.0,127.0,127.0,127.0,127.0,127.0,127.0,127.0,127.0,127.0,127.0,127.0,127.0,127.0,127.0,127.0,127.0,127.0,127.0,127.0,127.0,127.0,127.0,127.0,127.0,127.0,127.0,127.0,127.0,127.0,127.0,127.0,127.0,127.0,127.0,127.0,127.0,127.0,127.0,127.0,127.0,127.0,127.0,127.0,127.0,127.0,127.0,127.0,127.0,127.0,127.0,127.0,127.0,127.0,127.0,127.0,127.0,127.0,127.0,127.0,127.0,127.0,127.0,127.0,127.0,127.0,127.0,127.0,127.0,127.0,127.0,127.0,127.0,127.0,127.0,127.0,127.0,127.0,127.0,127.0,127.0,127.0,127.0,127.0,127.0,127.0,127.0,127.0,127.0,127.0,127.0,127.0,127.0,127.0,127.0,127.0,127.0,127.0,127.0,127.0,127.0,127.0,127.0,127.0,127.0,127.0,127.0,127.0,127.0,127.0,127.0,127.0,127.0,127.0,127.0,127.0,127.0,127.0,127.0,127.0,127.0,127.0,127.0,127.0,127.0,127.0,127.0,127.0,127.0,127.0,127.0,127.0,127.0,127.0,127.0,127.0,127.0,127.0,127.0,127.0,127.0,127.0,127.0,127.0,127.0,127.0,127.0,127.0,127.0,127.0,127.0,127.0,127.0,127.0,127.0,127.0,127.0,127.0,127.0,127.0,127.0,127.0,127.0,127.0,127.0,127.0,127.0,127.0,127.0,127.0,127.0,127.0,127.0,127.0,127.0,127.0,127.0,127.0,127.0,127.0,127.0,127.0,127.0,127.0,127.0,127.0,127.0,127.0,127.0,127.0,127.0,127.0,127.0,127.0,127.0,127.0,127.0,127.0,127.0,127.0,127.0,127.0,127.0,127.0,127.0,127.0,127.0,127.0,127.0,127.0,127.0,127.0,127.0,127.0,127.0,127.0,127.0,127.0,127.0,127.0,127.0,127.0,127.0,127.0,127.0,127.0,127.0,127.0,127.0,127.0,127.0,127.0,127.0,127.0,127.0,127.0,127.0,127.0,127.0,127.0,127.0,127.0,127.0,127.0,127.0,127.0,127.0,127.0,127.0,127.0,127.0,127.0,127.0,127.0,127.0,127.0,127.0,127.0,127.0,127.0,127.0,127.0,127.0,127.0,127.0,127.0,127.0,127.0,127.0,127.0,127.0,127.0,127.0,127.0,127.0,127.0,127.0,127.0,127.0,127.0,127.0,127.0,127.0,127.0,127.0,127.0,127.0,127.0,127.0,127.0,127.0,127.0,127.0,127.0,127.0,127.0,127.0,127.0,127.0,127.0,127.0,127.0,127.0,127.0,127.0,127.0,127.0,127.0,127.0,127.0,127.0,127.0,127.0,127.0,127.0,127.0,127.0,127.0,127.0,127.0,127.0,127.0,127.0,127.0,127.0,127.0,127.0,127.0,127.0,127.0,127.0,127.0,127.0,127.0,127.0,127.0,127.0,127.0,127.0,127.0,127.0,127.0,127.0,127.0,127.0,127.0,127.0,127.0,127.0,127.0,127.0,127.0,127.0,127.0,127.0,127.0,127.0,127.0,127.0,127.0,127.0,127.0,127.0,127.0,127.0,127.0,127.0,127.0,127.0,127.0,127.0,127.0,127.0,127.0,127.0,127.0,127.0,127.0,127.0,127.0,127.0,127.0,127.0,127.0,127.0,127.0,127.0,127.0,127.0,127.0,127.0,127.0,127.0,127.0,127.0,127.0,127.0,127.0,127.0,127.0,127.0,127.0,127.0,127.0,127.0,127.0,127.0,127.0,127.0,127.0,127.0,127.0,127.0,127.0,127.0,127.0,127.0,127.0,127.0,127.0,127.0,127.0,127.0,127.0,127.0,127.0,127.0,127.0,127.0,127.0,127.0,127.0,127.0,127.0,127.0,127.0,127.0,127.0,127.0,127.0,127.0,127.0,127.0,127.0,127.0,127.0,127.0,127.0,127.0,127.0,127.0,127.0,127.0,127.0,127.0,127.0,127.0,127.0,127.0,127.0,127.0,127.0,127.0,127.0,127.0,127.0,127.0,127.0,127.0,127.0,127.0,127.0,127.0,127.0,127.0,127.0,127.0,127.0,127.0,127.0,127.0,127.0,127.0,127.0,127.0,127.0,127.0,127.0,127.0,127.0,127.0,127.0,127.0,127.0,127.0,127.0,127.0,127.0,127.0,127.0,127.0,127.0,127.0,127.0,127.0,127.0,127.0,127.0,127.0,127.0,127.0,127.0,127.0,127.0,127.0,127.0,127.0,127.0,127.0,127.0,127.0,127.0,127.0,127.0,127.0,127.0,127.0,127.0,127.0,127.0,127.0,127.0,127.0,127.0,127.0,127.0,127.0,127.0,127.0,127.0,127.0,127.0,127.0,127.0,127.0,127.0,127.0,127.0,127.0,127.0,127.0,127.0,127.0,127.0,127.0,127.0,127.0,127.0,127.0,127.0,127.0,127.0,127.0,127.0,127.0,127.0,127.0,127.0,127.0,127.0,127.0,127.0,127.0,127.0,127.0,127.0,127.0,127.0,127.0,127.0,127.0,127.0,127.0,127.0,127.0,127.0,127.0,127.0,127.0,127.0,127.0,127.0,127.0,127.0,127.0,127.0,127.0,127.0,127.0,127.0,127.0,127.0,127.0,127.0,127.0,127.0,127.0,127.0,127.0,127.0,127.0,127.0,127.0,127.0,127.0,127.0,127.0,127.0,127.0,127.0,127.0,127.0,127.0,127.0,127.0,127.0,127.0,127.0,127.0,127.0,127.0,127.0,127.0,127.0,127.0,127.0,127.0,127.0,127.0,127.0,127.0,127.0,127.0,127.0,127.0,127.0,127.0,127.0,127.0,
255.0,255.0,255.0,255.0,255.0,255.0,255.0,255.0,255.0,255.0,255.0,255.0,255.0,255.0,255.0,255.0,255.0,255.0,255.0,255.0,255.0,255.0,255.0,255.0,255.0,255.0,255.0,255.0,255.0,255.0,255.0,255.0,255.0,255.0,255.0,255.0,255.0,255.0,255.0,255.0,255.0,255.0,255.0,255.0,255.0,255.0,255.0,255.0,255.0,255.0,255.0,255.0,255.0,255.0,255.0,255.0,255.0,255.0,255.0,255.0,255.0,255.0,255.0,255.0,255.0,255.0,255.0,255.0,255.0,255.0,255.0,255.0,255.0,255.0,255.0,255.0,255.0,255.0,255.0,255.0,255.0,255.0,255.0,255.0,255.0,255.0,255.0,255.0,255.0,255.0,255.0,255.0,255.0,255.0,255.0,255.0,255.0,255.0,255.0,255.0,255.0,255.0,255.0,255.0,255.0,255.0,255.0,255.0,255.0,255.0,255.0,255.0,255.0,255.0,255.0,255.0,255.0,255.0,255.0,255.0,255.0,255.0,255.0,255.0,255.0,255.0,255.0,255.0,255.0,255.0,255.0,255.0,255.0,255.0,255.0,255.0,255.0,255.0,255.0,255.0,255.0,255.0,255.0,255.0,255.0,255.0,255.0,255.0,255.0,255.0,255.0,255.0,255.0,255.0,255.0,255.0,255.0,255.0,255.0,255.0,255.0,255.0,255.0,255.0,255.0,255.0,255.0,255.0,255.0,255.0,255.0,255.0,255.0,255.0,255.0,255.0,255.0,255.0,255.0,255.0,255.0,255.0,255.0,255.0,255.0,255.0,255.0,255.0,255.0,255.0,255.0,255.0,255.0,255.0,255.0,255.0,255.0,255.0,255.0,255.0,255.0,255.0,255.0,255.0,255.0,255.0,255.0,255.0,255.0,255.0,255.0,255.0,255.0,255.0,255.0,255.0,255.0,255.0,255.0,255.0,255.0,255.0,255.0,255.0,255.0,255.0,255.0,255.0,255.0,255.0,255.0,255.0,255.0,255.0,255.0,255.0,255.0,255.0,255.0,255.0,255.0,255.0,255.0,255.0,255.0,255.0,255.0,255.0,255.0,255.0,255.0,255.0,255.0,255.0,255.0,255.0,255.0,255.0,255.0,255.0,255.0,255.0,255.0,255.0,255.0,255.0,255.0,255.0,255.0,255.0,255.0,255.0,255.0,255.0,255.0,255.0,255.0,255.0,255.0,255.0,255.0,255.0,255.0,255.0,255.0,255.0,255.0,255.0,255.0,255.0,255.0,255.0,255.0,255.0,255.0,255.0,255.0,255.0,255.0,255.0,255.0,255.0,255.0,255.0,255.0,255.0,255.0,255.0,255.0,255.0,255.0,255.0,255.0,255.0,255.0,255.0,255.0,255.0,255.0,255.0,255.0,255.0,255.0,255.0,255.0,255.0,255.0,255.0,255.0,255.0,255.0,255.0,255.0,255.0,255.0,255.0,255.0,255.0,255.0,255.0,255.0,255.0,255.0,255.0,255.0,255.0,255.0,255.0,255.0,255.0,255.0,255.0,255.0,255.0,255.0,255.0,255.0,255.0,255.0,255.0,255.0,255.0,255.0,255.0,255.0,255.0,255.0,255.0,255.0,255.0,255.0,255.0,255.0,255.0,255.0,255.0,255.0,255.0,255.0,255.0,255.0,255.0,255.0,255.0,255.0,255.0,255.0,255.0,255.0,255.0,255.0,255.0,255.0,255.0,255.0,255.0,255.0,255.0,255.0,255.0,255.0,255.0,255.0,255.0,255.0,255.0,255.0,255.0,255.0,255.0,255.0,255.0,255.0,255.0,255.0,255.0,255.0,255.0,255.0,255.0,255.0,255.0,255.0,255.0,255.0,255.0,255.0,255.0,255.0,255.0,255.0,255.0,255.0,255.0,255.0,255.0,255.0,255.0,255.0,255.0,255.0,255.0,255.0,255.0,255.0,255.0,255.0,255.0,255.0,255.0,255.0,255.0,255.0,255.0,255.0,255.0,255.0,255.0,255.0,255.0,255.0,255.0,255.0,255.0,255.0,255.0,255.0,255.0,255.0,255.0,255.0,255.0,255.0,255.0,255.0,255.0,255.0,255.0,255.0,255.0,255.0,255.0,255.0,255.0,255.0,255.0,255.0,255.0,255.0,255.0,255.0,255.0,255.0,255.0,255.0,255.0,255.0,255.0,255.0,255.0,255.0,255.0,255.0,255.0,255.0,255.0,255.0,255.0,255.0,255.0,255.0,255.0,255.0,255.0,255.0,255.0,255.0,255.0,255.0,255.0,255.0,255.0,255.0,255.0,255.0,255.0,255.0,255.0,255.0,255.0,255.0,255.0,255.0,255.0,255.0,255.0,255.0,255.0,255.0,255.0,255.0,255.0,255.0,255.0,255.0,255.0,255.0,255.0,255.0,255.0,255.0,255.0,255.0,255.0,255.0,255.0,255.0,255.0,255.0,255.0,255.0,255.0,255.0,255.0,255.0,255.0,255.0,255.0,255.0,255.0,255.0,255.0,255.0,255.0,255.0,255.0,255.0,255.0,255.0,255.0,255.0,255.0,255.0,255.0,255.0,255.0,255.0,255.0,255.0,255.0,255.0,255.0,255.0,255.0,255.0,255.0,255.0,255.0,255.0,255.0,255.0,255.0,255.0,255.0,255.0,255.0,255.0,255.0,255.0,255.0,255.0,255.0,255.0,255.0,255.0,255.0,255.0,255.0,255.0,255.0,255.0,255.0,255.0,255.0,255.0,255.0,255.0,255.0,255.0,255.0,255.0,255.0,255.0,255.0,255.0,255.0,255.0,255.0,255.0,255.0,255.0,255.0,255.0,255.0,255.0,255.0,255.0,255.0,255.0,255.0,255.0,255.0,255.0,255.0,255.0,255.0,255.0,255.0,255.0,255.0,255.0,255.0,255.0,255.0,255.0,255.0,255.0,255.0,255.0,255.0,255.0,255.0,255.0,255.0,255.0,255.0,255.0,255.0,255.0,255.0,255.0,255.0,255.0,255.0,255.0,255.0,255.0,255.0,255.0,255.0,255.0,255.0,255.0,255.0,255.0,255.0,255.0,255.0,255.0,255.0,255.0,255.0,255.0,255.0,255.0,255.0,255.0,255.0,255.0,255.0,255.0,255.0,255.0,255.0,255.0,255.0,255.0,255.0,255.0,255.0,255.0,255.0,255.0,255.0,255.0,255.0,255.0,255.0,255.0,255.0,255.0,255.0,255.0,255.0,255.0,255.0,255.0,255.0,255.0,255.0,255.0,255.0,255.0,255.0,255.0,255.0,255.0,255.0,255.0,255.0,255.0,255.0,255.0,255.0,255.0,255.0,255.0,255.0,255.0,255.0,255.0,255.0,255.0,255.0,255.0,255.0,255.0,255.0,255.0,255.0,255.0,255.0,255.0,255.0,255.0,255.0,255.0,255.0,255.0,255.0,255.0,255.0,255.0,255.0,255.0,255.0,255.0,255.0,255.0,255.0,255.0,255.0,255.0,255.0,255.0,255.0,255.0,255.0,255.0,255.0,255.0,255.0,255.0,255.0,255.0,255.0,255.0,255.0,255.0,255.0,255.0,255.0,255.0,255.0,255.0,255.0,255.0,255.0,255.0,255.0,255.0,255.0,255.0,255.0,255.0,255.0,255.0,255.0,255.0,255.0,255.0,255.0,255.0,255.0,255.0,255.0,255.0,255.0,255.0,255.0,255.0,255.0,255.0,255.0,255.0,255.0,255.0,255.0,255.0,255.0,255.0,255.0,255.0,255.0,255.0,255.0,255.0,255.0,255.0,255.0,255.0,255.0,255.0,255.0,255.0,255.0,255.0,255.0,255.0,255.0,255.0,255.0,255.0,255.0,255.0,255.0,255.0,255.0,255.0,255.0,255.0,255.0,255.0,255.0,255.0,255.0,255.0,255.0,255.0,255.0,255.0,255.0,255.0,255.0,255.0,255.0,255.0,255.0,255.0,255.0,255.0,255.0,255.0,255.0,255.0,255.0,255.0,255.0,255.0,255.0,255.0,255.0,255.0,255.0,255.0,255.0,255.0,255.0,255.0,255.0,255.0,255.0,255.0,255.0,255.0,255.0,255.0,255.0,255.0,255.0,255.0,255.0,255.0,255.0,255.0,255.0,255.0,255.0,255.0,255.0,255.0,255.0,255.0,255.0,255.0,255.0,255.0,255.0,255.0,255.0,255.0,255.0,255.0,255.0,255.0,255.0,255.0,255.0,255.0,255.0,255.0,255.0,255.0,255.0,255.0,255.0,255.0,255.0,255.0,255.0,255.0,255.0,255.0,255.0,255.0,255.0,255.0,255.0,255.0,255.0,255.0,255.0,255.0,255.0,255.0,255.0,255.0,255.0,255.0,255.0,255.0,255.0,255.0,255.0,255.0,255.0,255.0,255.0,255.0,255.0,255.0,255.0,255.0,255.0,255.0,255.0,255.0,255.0,255.0,255.0,255.0,255.0,255.0,255.0,255.0,255.0,255.0,255.0,255.0,255.0,255.0,255.0,255.0,255.0,255.0,255.0,255.0,255.0,255.0,255.0,255.0,255.0,255.0,255.0,255.0,255.0,255.0,255.0,255.0,255.0,255.0,255.0,255.0,255.0,255.0,255.0,255.0,255.0,255.0,255.0,255.0,255.0,255.0,255.0,255.0,255.0,255.0,255.0,255.0,255.0,255.0,255.0,255.0,255.0,255.0,255.0,255.0,255.0,255.0,255.0,255.0,255.0,255.0,255.0,255.0,255.0,255.0,255.0,255.0,255.0,255.0,255.0,255.0,255.0,255.0,255.0,255.0,255.0,255.0,255.0,255.0,255.0,255.0,255.0,255.0,255.0,255.0,255.0,255.0,255.0,255.0,255.0,255.0,255.0,255.0,255.0,255.0,255.0,255.0,255.0,255.0,255.0,255.0,255.0,255.0,255.0,255.0,255.0,255.0,255.0,255.0,255.0,255.0,255.0,255.0,255.0,255.0,255.0,255.0,255.0,255.0,255.0,255.0,255.0,255.0,255.0,255.0,255.0,255.0,255.0,255.0,255.0,255.0,255.0,255.0,255.0,255.0,255.0,255.0,255.0,255.0,255.0,255.0,255.0,255.0,255.0,255.0,255.0,255.0,255.0,255.0,255.0,255.0,255.0,255.0,255.0,255.0,255.0,255.0,255.0,255.0,255.0,255.0,255.0,255.0,255.0,255.0,255.0,255.0,255.0,255.0,255.0,255.0,255.0,255.0,255.0,255.0,255.0,255.0,255.0,255.0,255.0,255.0,255.0,255.0,255.0,255.0,255.0,255.0,255.0,255.0,255.0,255.0,255.0,255.0,255.0,255.0,255.0,255.0,255.0,255.0,255.0,255.0,255.0,255.0,255.0,255.0,255.0,255.0,255.0,255.0,255.0,255.0,255.0,255.0,255.0,255.0,255.0,255.0,255.0,255.0,255.0,255.0,255.0,255.0,255.0,255.0,255.0,255.0,255.0,255.0,255.0,255.0,255.0,255.0,255.0,255.0,255.0,255.0,255.0,255.0,255.0,255.0,255.0,255.0,255.0,255.0,255.0,255.0,255.0,255.0,255.0,255.0,255.0,255.0,255.0,255.0,255.0,255.0,255.0,255.0,255.0,255.0,255.0,255.0,255.0,255.0,255.0,255.0,255.0,255.0,255.0,255.0,255.0,255.0,255.0,255.0,255.0,255.0,255.0,255.0,255.0,255.0,255.0,255.0,255.0,255.0,255.0,255.0,255.0,255.0,255.0,255.0,255.0,255.0,255.0,255.0,255.0,255.0,255.0,255.0,255.0,255.0,255.0,255.0,255.0,255.0,255.0,255.0,255.0,255.0,255.0,255.0,255.0,255.0,255.0,255.0,255.0,255.0,255.0,255.0,255.0,255.0,255.0,255.0,255.0,255.0,255.0,255.0,255.0,255.0,255.0,255.0,255.0,255.0,255.0,255.0,255.0,255.0,255.0,255.0,255.0,255.0,255.0,255.0,255.0,255.0,255.0,255.0,255.0,255.0,255.0,255.0,255.0,255.0,255.0,255.0,255.0,255.0,255.0,255.0,255.0,255.0,255.0,255.0,255.0,255.0,255.0,255.0,255.0,255.0,255.0,255.0,255.0,255.0,255.0,255.0,255.0,255.0,255.0,255.0,255.0,255.0,255.0,255.0,255.0,255.0,255.0,255.0,255.0,255.0,255.0,255.0,255.0,255.0,255.0,255.0,255.0,255.0,255.0,255.0,255.0,255.0,255.0,255.0,255.0,255.0,255.0,255.0,255.0,255.0,255.0,255.0,255.0,255.0,255.0,255.0,255.0,255.0,255.0,255.0,255.0,255.0,255.0,255.0,255.0,255.0,255.0,255.0,255.0,255.0,255.0,255.0,255.0,255.0,255.0,255.0,255.0,255.0,255.0,255.0,255.0,255.0,255.0,255.0,255.0,255.0,255.0,255.0,255.0,255.0,255.0,255.0,255.0,255.0,255.0,255.0,255.0,255.0,255.0,255.0,255.0,255.0,255.0,255.0,255.0,255.0,255.0,255.0,255.0,255.0,255.0,255.0,255.0,255.0,255.0,255.0,255.0,255.0,255.0,255.0,255.0,255.0,255.0,255.0,255.0,255.0,255.0,255.0,255.0,255.0,255.0,255.0,255.0,255.0,255.0,255.0,255.0,255.0,255.0,255.0,255.0,255.0,255.0,255.0,255.0,255.0,255.0,255.0,255.0,255.0,255.0,255.0,255.0,255.0,255.0,255.0,255.0,255.0,255.0,255.0,255.0,255.0,255.0,255.0,255.0,255.0,255.0,255.0,255.0,255.0,255.0,255.0,255.0,255.0,255.0,255.0,255.0,255.0,255.0,255.0,255.0,255.0,255.0,255.0,255.0,255.0,255.0,255.0,255.0,255.0,255.0,255.0,255.0,255.0,255.0,255.0,255.0,255.0,255.0,255.0,255.0,255.0,255.0,255.0,255.0,255.0,255.0,255.0,255.0,255.0,255.0,255.0,255.0,255.0,255.0,255.0,255.0,255.0,255.0,255.0,255.0,255.0,255.0,255.0,255.0,255.0,255.0,255.0,255.0,255.0,255.0,255.0,255.0,255.0,255.0,255.0,255.0,255.0,255.0,255.0,255.0,255.0,255.0,255.0,255.0,255.0,255.0,255.0,255.0,255.0,255.0,255.0,255.0,255.0,255.0,255.0,255.0,255.0,255.0,255.0,255.0,255.0,255.0,255.0,255.0,255.0,255.0,255.0,255.0,255.0,255.0,255.0,255.0,255.0,255.0,255.0,255.0,255.0,255.0,255.0,255.0,255.0,255.0,255.0,255.0,255.0,255.0,255.0,255.0,255.0,255.0,255.0,255.0,255.0,255.0,255.0,255.0,255.0,255.0,255.0,255.0,255.0,255.0,255.0,255.0,255.0,255.0,255.0,255.0,255.0,255.0,255.0,255.0,255.0,255.0,255.0,255.0,255.0,255.0,255.0,255.0,255.0,255.0,255.0,255.0,255.0,255.0,255.0,255.0,255.0,255.0,255.0,255.0,255.0,255.0,255.0,255.0,255.0,255.0,255.0,255.0,255.0,255.0,255.0,255.0,255.0,255.0,255.0,255.0,255.0,255.0,255.0,255.0,255.0,255.0,255.0,255.0,255.0,255.0,255.0,255.0,255.0,255.0,255.0,255.0,255.0,255.0,255.0,255.0,255.0,255.0,255.0,255.0,255.0,255.0,255.0,255.0,255.0,255.0,255.0,255.0,255.0,255.0,255.0,255.0,255.0,255.0,255.0,255.0,255.0,255.0,255.0,255.0,255.0,255.0,255.0,255.0,255.0,255.0,255.0,255.0,255.0,255.0,255.0,255.0,255.0,255.0,255.0,255.0,255.0,255.0,255.0,255.0,255.0,255.0,255.0,255.0,255.0,255.0,255.0,255.0,255.0,255.0,255.0,255.0,255.0,255.0,255.0,255.0,255.0,255.0,255.0,255.0,255.0,255.0,255.0,255.0,255.0,255.0,255.0,255.0,255.0,255.0,255.0,255.0,255.0,255.0,255.0,255.0,255.0,255.0,255.0,255.0,255.0,255.0,255.0,255.0,255.0,255.0,255.0,255.0,255.0,255.0,255.0,255.0,255.0,255.0,255.0,255.0,255.0,255.0,255.0,255.0,255.0,255.0,255.0,255.0,255.0,255.0,255.0,255.0,255.0,255.0,255.0,255.0,255.0,255.0,255.0,255.0,255.0,255.0,255.0,255.0,255.0,255.0,255.0,255.0,255.0,255.0,255.0,255.0,255.0,255.0,255.0,255.0,255.0,255.0,255.0,255.0,255.0,255.0,255.0,255.0,255.0,255.0,255.0,255.0,255.0,255.0,255.0,255.0,255.0,255.0,255.0,255.0,255.0,255.0,255.0,255.0,255.0,255.0,255.0,255.0,255.0,255.0,255.0,255.0,255.0,255.0,255.0,255.0,255.0,255.0,255.0,255.0,255.0,255.0,255.0,255.0,255.0,255.0,255.0,255.0,255.0,255.0,255.0,255.0,255.0,255.0,255.0,255.0,255.0,255.0,255.0,255.0,255.0,255.0,255.0,255.0,255.0,255.0,255.0,255.0,255.0,255.0,255.0,255.0,255.0,255.0,255.0,255.0,255.0,255.0,255.0,255.0,255.0,255.0,255.0,255.0,255.0,255.0,255.0,255.0,255.0,255.0,255.0,255.0,255.0,255.0,255.0,255.0,255.0,255.0,255.0,255.0,255.0,255.0,255.0,255.0,255.0,255.0,255.0,255.0,255.0,255.0,255.0,255.0,255.0,255.0,255.0,255.0,255.0,255.0,255.0,255.0,255.0,255.0,255.0,255.0,255.0,255.0,255.0,255.0,255.0,255.0,255.0,255.0,255.0,255.0,255.0,255.0,255.0,255.0,255.0,255.0,255.0,255.0,255.0,255.0,255.0,255.0,255.0,255.0,255.0,255.0,255.0,255.0,255.0,255.0,255.0,255.0,255.0,255.0,255.0,255.0,255.0,255.0,255.0,255.0,255.0,255.0,255.0,255.0,255.0,255.0,255.0,255.0,255.0,255.0,255.0,255.0,255.0,255.0,255.0,255.0,255.0,255.0,255.0,255.0,255.0,255.0,255.0,255.0,255.0,255.0,255.0,255.0,255.0,255.0,255.0,255.0,255.0,255.0,255.0,255.0,255.0,255.0,255.0,255.0,255.0,255.0,255.0,255.0,255.0,255.0,255.0,255.0,255.0,255.0,255.0,255.0,255.0,255.0,255.0,255.0,255.0,255.0,255.0,255.0,255.0,255.0,255.0,255.0,255.0,255.0,255.0,255.0,255.0,255.0,255.0,255.0,255.0,255.0,255.0,255.0,255.0,255.0,255.0,255.0,255.0,255.0,255.0,255.0,255.0,255.0,255.0,255.0,255.0,255.0,255.0,255.0,255.0,255.0,255.0,255.0,255.0,255.0,255.0,255.0,255.0,255.0,255.0,255.0,255.0,255.0,255.0,255.0,255.0,255.0,255.0,255.0,255.0,255.0,255.0,255.0,255.0,255.0,255.0,255.0,255.0,255.0,255.0,255.0,255.0,255.0,255.0,255.0,255.0,255.0,255.0,255.0,255.0,255.0,255.0,255.0,255.0,255.0,255.0,255.0,255.0,255.0,255.0,255.0,255.0,255.0,255.0,255.0,255.0,255.0,255.0,255.0,255.0,255.0,255.0,255.0,255.0,255.0,255.0,255.0,255.0,255.0,255.0,255.0,255.0,255.0,255.0,255.0,255.0,255.0,255.0,255.0,255.0,255.0,255.0,255.0,255.0,255.0,255.0,255.0,255.0,255.0,255.0,255.0,255.0,255.0,255.0,255.0,255.0,255.0,255.0,255.0,255.0,255.0,255.0,255.0,255.0,255.0,255.0,255.0,255.0,255.0,255.0,255.0,255.0,255.0,255.0,255.0,255.0,255.0,255.0,255.0,255.0,255.0,255.0,255.0,255.0,255.0,255.0,255.0,255.0,255.0,255.0,255.0,255.0,255.0,255.0,255.0,255.0,255.0,255.0,255.0,255.0,255.0,255.0,255.0,255.0,255.0,255.0,255.0,255.0,255.0,255.0,255.0,255.0,255.0,255.0,255.0,255.0,255.0,255.0,255.0,255.0,255.0,255.0,255.0,255.0,255.0,255.0,255.0,255.0,255.0,255.0,255.0,255.0,255.0,255.0,255.0,255.0,255.0,255.0,255.0,255.0,255.0,255.0,255.0,255.0,255.0,255.0,255.0,255.0,255.0,255.0,255.0,255.0,255.0,255.0,255.0,255.0,255.0,255.0,255.0,255.0,255.0,255.0,255.0,255.0,255.0,255.0,255.0,255.0,255.0,255.0,255.0,255.0,255.0,255.0,255.0,255.0,255.0,255.0,255.0,
-6.13693e-03,7.59594e-02,8.57456e-02,1.85717e-01,-1.42750e-02,8.13074e-02,2.11580e-02,-1.22081e-01,-6.66912e-02,5.14337e-02,-1.35273e-01,-1.04261e-01,4.40580e-02,-5.76107e-02,-6.84135e-02,-2.54721e-02,1.69412e-02,1.15865e-01,-2.53802e-02,5.26711e-02,-1.05961e-01,1.68212e-01,5.88932e-02,-7.58759e-02,-1.07607e-01,-7.53766e-02,-1.40881e-02,6.11568e-02,5.65500e-03,-1.56289e-01,7.95189e-02,-9.18451e-02,1.79354e-03,7.16859e-02,-1.02777e-01,1.92298e-01,3.18608e-02,1.30784e-04,7.83638e-03,7.37522e-02,-6.15399e-02,-1.95652e-02,-1.00972e-01,1.00567e-01,-7.61398e-03,-1.14000e-01,-5.84479e-02,7.44586e-02,6.87521e-02,-5.12382e-02,-1.30937e-02,1.19727e-01,-1.10731e-01,1.08179e-01,-2.11715e-02,-1.19941e-01,1.45071e-01,3.35509e-02,8.29602e-02,1.18652e-01,1.24915e-02,-8.53328e-02,5.98112e-02,5.36901e-02,1.26983e-01,-7.04519e-03,6.51259e-02,5.30808e-02,4.32129e-02,-1.36297e-01,-3.57073e-02,8.53931e-02,-2.12440e-03,5.14777e-02,-4.25368e-02,-5.04316e-02,-1.09453e-01,6.63883e-02,-7.24295e-02,6.45728e-02,5.34848e-02,1.30615e-01,2.65253e-02,6.74318e-02,-2.44932e-02,4.66127e-02,-3.69931e-02,1.69364e-01,-1.85101e-01,-8.12517e-02,1.36776e-01,8.93305e-02,-7.90782e-02,-3.29546e-02,-7.68492e-03,2.07995e-02,-1.75306e-01,-5.88920e-02,-2.44434e-02,-3.40451e-02,-7.93919e-04,5.66290e-02,-1.03747e-02,5.43202e-02,-5.61864e-02,-1.73253e-01,-8.35123e-02,-1.07498e-01,3.76701e-02,-1.92035e-01,-7.64301e-02,4.72836e-02,-1.44463e-01,-1.37623e-04,-1.46282e-01,-3.31656e-02,-1.84955e-01,6.79101e-02,1.00278e-01,1.12953e-01,1.17772e-01,-2.89286e-02,6.99931e-02,-4.37825e-02,-1.56512e-02,-6.42657e-02,1.08644e-02,1.32331e-01,8.75135e-02,-1.37792e-02,-5.36405e-02,-1.45220e-01,7.31039e-02,-7.42458e-02,-2.55973e-01,6.67742e-02,6.90751e-02,2.92299e-02,3.79987e-02,-4.37231e-02,4.24502e-02,6.29403e-02,3.64907e-03,6.42546e-02,-7.16271e-02,-1.55024e-01,-6.85082e-02,-8.50664e-03,-1.23348e-01,1.66986e-01,-4.83481e-03,-5.63617e-02,-9.76006e-02,2.90419e-02,-3.14408e-02,9.66968e-03,4.89144e-02,1.07458e-01,4.96006e-02,4.40588e-03,-4.59436e-03,1.48673e-01,4.08763e-02,-9.60934e-02,1.95374e-02,7.83681e-02,1.88328e-01,-9.62720e-02,-1.17629e-01,-1.17299e-01,1.73710e-02,-1.33882e-02,1.75825e-02,3.86370e-02,-1.72856e-02,-1.27970e-01,2.48895e-02,1.49226e-01,1.77532e-02,-1.07171e-02,-2.05284e-01,8.20413e-03,-9.41313e-02,-1.54490e-01,2.08649e-01,2.19270e-02,-8.56375e-02,6.81796e-02,-7.03898e-02,1.37246e-01,1.15821e-01,-5.73044e-02,-1.40615e-02,-1.54352e-01,4.33761e-02,-9.29801e-02,5.80409e-02,-1.59000e-02,6.51236e-02,-4.19727e-02,-1.06244e-01,-9.59082e-02,3.75714e-02,-1.63477e-02,-1.92386e-02,1.79906e-01,1.55044e-01,-1.38410e-01,-2.17678e-02,1.78515e-01,1.09740e-02,-2.04067e-02,-2.44463e-02,-2.04044e-02,1.17926e-01,3.21442e-02,-1.13755e-01,-2.12383e-02,-1.19855e-01,1.21219e-01,-1.05037e-02,-3.92793e-02,1.46145e-01,2.04655e-01,-7.78743e-02,8.53664e-02,-3.69463e-02,1.20977e-01,3.24947e-02,9.56076e-02,-5.65936e-02,9.19663e-02,-1.12576e-01,-7.00914e-02,1.28619e-01,4.28931e-02,1.36432e-01,-5.14193e-03,-6.37671e-02,8.15997e-02,-1.81058e-01,1.63432e-02,-8.37862e-02,-4.36453e-02,1.09791e-01,-1.17660e-01,-1.28545e-01,4.57715e-02,-1.07979e-01,1.14321e-01,8.08800e-02,-1.89759e-01,-6.00459e-02,-8.91122e-02,7.93981e-02,4.49388e-02,-6.28343e-02,3.01530e-02,-7.46557e-02,2.20146e-01,-6.78294e-02,-1.14289e-01,-5.38466e-02,-1.60856e-01,-4.53578e-02,1.16829e-01,1.68921e-01,-1.20005e-01,-1.06811e-01,1.11659e-02,1.71839e-01,-2.06402e-02,-1.26573e-01,-3.37247e-02,8.66180e-02,8.34046e-02,2.29841e-02,4.53072e-02,-6.96031e-02,1.02115e-02,2.67363e-02,1.34331e-02,-2.79362e-03,-1.00686e-01,-4.26779e-02,-8.49746e-02,-2.49172e-02,-9.34280e-02,-3.30374e-02,-2.54173e-03,1.01949e-02,-4.82600e-02,-3.00687e-02,-1.98772e-01,1.44447e-01,1.91038e-01,4.22558e-02,2.43796e-01,5.06972e-02,2.25040e-01,1.61468e-02,-1.04927e-01,1.97433e-01,4.11920e-02,2.64595e-02,9.89672e-02,7.00446e-02,1.71136e-01,3.11875e-02,9.76602e-02,1.00383e-02,1.64298e-01,9.82255e-02,2.10164e-01,1.29592e-01,1.77231e-02,4.79954e-02,9.27266e-03,3.07880e-03,-5.32359e-02,-1.62791e-03,-4.69996e-03,-1.02963e-01,4.08504e-02,1.60402e-02,1.29591e-02,1.29145e-02,-7.24422e-02,-2.08264e-01,3.44137e-02,8.92558e-02,-1.56866e-01,1.22199e-01,4.32061e-02,-9.22429e-02,-6.56061e-02,9.90132e-02,-1.40306e-01,1.00859e-01,-1.26455e-01,2.01403e-02,-2.01284e-02,1.33065e-01,1.04185e-01,2.59006e-03,-1.55001e-01,-2.42095e-03,6.44199e-02,5.27035e-02,-1.91436e-03,-1.44805e-01,9.12963e-02,-1.79822e-04,1.41388e-02,-8.57663e-02,-1.38075e-02,8.54326e-03,4.42153e-02,-8.93777e-02,2.34678e-02,-1.09520e-01,2.17883e-02,-8.19979e-03,-5.96935e-02,1.08522e-01,-2.72094e-02,3.57913e-02,5.04309e-02,9.73161e-02,2.07084e-01,2.76871e-03,9.45926e-02,-6.79184e-03,1.25331e-01,2.17344e-02,2.48254e-02,1.45543e-01,-5.14150e-02,1.12596e-01,2.68696e-02,2.01717e-01,1.12491e-01,6.30055e-02,-1.27710e-01,-7.24967e-02,-7.33094e-03,9.86556e-02,2.16249e-02,-1.27870e-01,3.40198e-02,3.91455e-02,-1.59551e-02,-1.51615e-02,2.97378e-02,2.72208e-01,2.25452e-01,7.94593e-02,2.85523e-01,5.01227e-02,6.47179e-02,5.47354e-02,1.46060e-01,1.76176e-01,7.47232e-02,4.43521e-02,1.59774e-01,2.79411e-01,2.12580e-01,8.47876e-02,7.81728e-02,-4.93066e-02,1.30442e-01,1.69992e-02,3.49868e-02,6.48168e-02,1.72400e-01,-9.87592e-02,1.86023e-01,8.52658e-02,-1.01333e-02,-7.48954e-02,9.95367e-02,-1.13773e-02,1.59518e-01,-4.45978e-02,-2.97971e-02,-3.80006e-02,-1.16582e-01,1.03520e-02,1.79588e-02,1.81050e-01,-4.84767e-02,9.34519e-02,-2.20942e-01,2.18736e-02,1.25207e-01,8.21556e-03,6.45177e-02,3.89270e-02,-5.33784e-02,1.03003e-01,5.86221e-02,1.42125e-01,-9.17657e-02,9.16777e-02,1.15620e-01,-7.03549e-02,1.34918e-01,-3.61204e-02,2.82655e-03,4.54669e-02,8.25356e-02,1.09024e-01,6.97288e-02,1.87866e-01,1.32812e-01,3.93778e-02,5.48422e-02,3.96831e-03,2.16329e-02,1.27869e-03,1.67293e-02,3.35223e-02,-3.80319e-02,1.28155e-01,-1.32966e-01,7.65623e-02,-1.47570e-02,-8.07194e-02,-4.25027e-02,-7.91841e-02,2.63867e-02,7.89434e-02,-9.72925e-02,6.45452e-02,2.84724e-02,7.49545e-02,1.33569e-01,2.18281e-01,1.42763e-01,1.16698e-01,2.23183e-01,1.96823e-01,1.70441e-01,9.40499e-02,2.23721e-01,1.60536e-01,2.58784e-01,2.26223e-01,3.22001e-01,3.76146e-01,2.27562e-01,2.64318e-01,1.67295e-01,2.39486e-01,1.90362e-01,1.09262e-01,2.65578e-01,1.59459e-01,9.08071e-03,3.59538e-02,2.56725e-02,-1.94502e-02,9.53297e-02,1.32058e-02,-6.99920e-04,3.00804e-02,-4.04659e-02,-1.23468e-01,-1.95592e-02,-1.26058e-01,-2.02818e-02,-1.32075e-01,-7.75454e-02,3.33614e-02,2.60372e-03,4.88985e-02,-5.35184e-02,-1.36238e-02,1.55864e-02,4.97936e-02,7.60590e-02,1.53799e-01,-6.86549e-02,-4.05121e-02,-4.60736e-02,2.67508e-02,-1.16447e-01,-1.26675e-01,3.01092e-02,1.22441e-01,1.71288e-02,-1.11833e-01,1.87551e-01,-4.83630e-02,-1.96884e-05,1.44700e-01,-1.54216e-02,-1.28103e-02,1.32013e-01,3.44833e-02,-1.68858e-02,-1.03686e-02,-5.68823e-02,3.47909e-03,-5.73346e-02,4.61403e-02,2.10206e-02,7.34044e-03,-2.46531e-02,-1.66574e-01,-8.51387e-02,-1.62372e-01,-8.73104e-02,2.85636e-02,-1.43899e-01,-1.90364e-01,-2.36671e-01,8.32559e-02,-3.16220e-02,1.37706e-01,-7.75494e-02,-5.30001e-03,1.62628e-01,1.17871e-01,6.77667e-02,3.65859e-02,9.98970e-03,1.95781e-01,2.12376e-01,1.54707e-01,8.80451e-02,1.21265e-01,4.33330e-01,2.41666e-01,3.22030e-01,4.29465e-01,3.72333e-01,3.47819e-01,2.87446e-01,3.02025e-01,3.46491e-01,7.83677e-02,5.33738e-02,6.67482e-02,1.42730e-01,-7.79388e-02,1.36899e-02,-6.70234e-02,5.42692e-02,-8.30778e-02,3.11842e-02,-5.48998e-02,-1.66017e-01,1.33671e-01,-5.38078e-02,-1.32530e-01,-1.78669e-01,-5.10667e-02,-2.03824e-02,-1.46063e-01,-1.95371e-01,-3.21477e-02,-1.52753e-01,-6.14976e-02,-1.94059e-01,-1.52474e-01,-1.14684e-01,-1.72530e-01,1.22678e-02,-1.25837e-02,-2.81189e-02,5.64389e-02,-1.90703e-01,3.05049e-02,5.85562e-02,9.03628e-03,-8.12261e-03,-1.22168e-01,1.83249e-02,-9.29819e-02,5.95312e-02,7.33316e-02,-1.45046e-01,-2.95789e-02,1.25085e-01,7.73821e-02,1.10382e-01,-1.37546e-01,1.40433e-01,-9.30648e-02,-2.90445e-02,3.93408e-02,1.04969e-02,1.35411e-02,-1.23531e-01,-1.80958e-01,-5.55876e-02,-5.19134e-02,-4.42502e-03,-5.59469e-02,-2.65144e-02,1.55184e-01,-2.83599e-02,-1.10248e-01,-1.08353e-01,1.22431e-01,-2.35181e-02,2.41315e-02,-5.99935e-03,-2.62707e-02,1.08635e-01,1.56171e-01,-4.37850e-02,1.85491e-01,1.47757e-01,2.54592e-01,3.60763e-01,4.09894e-01,2.99265e-01,3.48726e-01,2.50816e-01,2.05116e-01,3.24806e-01,2.95806e-01,3.33470e-01,2.17543e-01,8.91049e-02,2.68224e-01,1.52926e-02,-6.10833e-02,6.99859e-02,-1.76523e-01,-3.67324e-02,1.15949e-01,-2.54410e-01,-1.36711e-01,-1.28861e-01,1.45952e-02,-7.31029e-03,-3.57097e-02,-2.20041e-02,6.02431e-02,-1.08610e-01,-2.33039e-01,1.57874e-02,6.20038e-02,-7.71691e-02,-1.04226e-01,-1.15980e-01,-5.32041e-02,-2.46700e-01,-9.79592e-02,-1.82080e-01,-1.59077e-01,-9.21707e-02,-4.35067e-03,7.61575e-02,-1.55595e-01,-7.65308e-02,-5.67035e-02,-1.03299e-01,-1.38988e-02,-1.27895e-01,8.80545e-02,7.30867e-03,1.03259e-01,8.55753e-02,1.08675e-01,2.23146e-04,1.93255e-02,8.66681e-02,1.31368e-01,6.33734e-02,-2.02762e-01,-2.26382e-01,-1.16211e-01,-2.23612e-01,-1.02973e-01,-7.97926e-02,-1.69406e-01,-1.12866e-01,6.20885e-03,-2.60873e-03,6.07972e-02,-1.62567e-01,-5.85478e-02,-6.30016e-02,-9.88200e-02,-1.21508e-01,9.58571e-02,4.64715e-02,6.15946e-02,-3.99142e-02,2.27965e-02,8.74363e-02,1.15191e-01,1.01410e-01,2.05353e-01,-4.96151e-02,1.84947e-01,2.31688e-01,2.46387e-01,1.79813e-01,2.63123e-01,2.73221e-01,3.57362e-01,3.31926e-01,3.80315e-01,3.61957e-01,1.51757e-01,2.09855e-01,1.39676e-01,1.80077e-02,-5.71193e-02,1.06960e-02,-5.19830e-02,3.81899e-02,-4.08567e-03,-1.05932e-01,-8.45564e-02,3.26186e-02,-1.58475e-02,-1.44080e-01,-1.13097e-01,-1.87905e-01,3.10741e-02,-1.03833e-01,-1.60495e-01,-2.54712e-01,-1.53411e-01,-1.94100e-01,-4.42375e-02,-7.38554e-02,-1.01215e-01,-9.55773e-02,-1.24835e-01,1.07080e-02,-1.11931e-01,4.39493e-02,-3.91169e-02,2.14577e-02,-5.87952e-02,-4.44335e-03,1.38498e-02,6.38892e-02,-5.34028e-04,5.94229e-02,-1.99437e-02,1.34030e-01,-8.49290e-02,-7.17306e-02,-6.58754e-02,8.07024e-03,7.52534e-02,-1.37586e-01,-4.37599e-02,-1.22753e-01,-1.87538e-01,-2.26815e-01,-3.40659e-01,-1.56884e-01,-3.57068e-02,-9.69112e-02,-1.07294e-01,-4.91272e-02,-9.86966e-03,-2.10537e-01,-2.15424e-01,-1.27217e-01,-2.30755e-01,-9.68372e-02,1.52881e-02,-1.10266e-01,-1.24794e-01,5.58988e-02,8.40511e-02,-3.10705e-02,3.69964e-02,1.20297e-01,-3.50041e-02,-6.46421e-02,1.69542e-02,-9.98827e-02,-2.47288e-02,-2.81464e-02,2.46357e-02,1.24529e-01,2.65465e-01,3.08367e-01,1.55514e-01,1.44391e-01,2.55423e-01,3.56560e-01,1.36027e-01,6.65940e-02,1.43913e-01,-1.56323e-01,1.40979e-01,-1.49714e-01,-2.12559e-01,1.58415e-01,-9.02085e-03,1.19137e-01,-8.88101e-02,-1.66139e-01,7.57062e-03,-2.46017e-01,2.31563e-02,-6.09782e-02,-2.50179e-01,-3.05235e-01,-1.04616e-01,-9.25918e-02,-8.17732e-02,1.01621e-01,-2.10591e-02,-4.31431e-02,-7.10608e-02,8.21086e-02,-6.37473e-02,-7.39858e-02,-8.89298e-02,5.86311e-02,1.78774e-01,4.14185e-02,5.09386e-02,6.55146e-02,-1.57806e-02,-2.56588e-04,1.65953e-01,5.44539e-02,9.72504e-02,1.04890e-01,1.14413e-01,6.03599e-02,-1.35996e-01,-8.84073e-02,8.87929e-02,3.37383e-03,-1.15623e-01,6.37156e-02,-2.83537e-01,2.74636e-03,-2.90260e-01,-4.16567e-02,-1.88812e-01,-1.40669e-02,-1.56412e-02,-5.60601e-02,-2.53585e-01,7.90402e-02,-6.54430e-02,8.08683e-02,-3.52874e-02,-6.88855e-02,-2.17604e-01,-1.56389e-01,9.28688e-03,-1.37907e-01,-1.87576e-02,-2.92579e-02,-6.75855e-02,-1.91960e-01,-2.40827e-01,-2.73135e-01,-1.92917e-01,-1.36095e-01,-1.82040e-01,-6.17378e-02,-2.56315e-01,-8.74477e-02,1.04947e-01,1.04799e-01,8.50688e-02,1.28800e-01,1.75642e-01,2.39703e-02,1.73722e-01,3.60578e-03,1.14400e-01,-1.37237e-01,1.99921e-01,-6.08102e-02,-5.73848e-02,3.89454e-02,-6.89111e-02,3.72770e-02,-1.33757e-02,-1.39404e-01,-2.06648e-01,-1.31692e-01,-7.51506e-02,-4.47012e-03,-3.77724e-02,-8.12766e-02,-1.85012e-01,4.17319e-02,8.26199e-02,5.77061e-02,-4.50530e-02,1.60622e-02,-3.33995e-02,4.28065e-03,-6.28029e-02,1.26449e-01,1.11822e-01,7.90761e-02,3.71983e-02,2.93250e-02,3.12090e-02,7.56549e-02,5.40769e-03,2.06997e-01,2.15615e-01,9.79064e-03,5.28940e-02,2.61468e-02,1.19842e-01,3.05602e-01,-4.90426e-02,1.36644e-01,2.88486e-01,7.00779e-02,9.24387e-02,1.16034e-01,1.40458e-01,1.11136e-01,6.45383e-02,3.52554e-02,-3.46646e-02,4.47002e-02,6.81916e-02,2.14756e-03,4.81105e-02,-2.59251e-02,-7.46358e-02,-1.00723e-01,8.57369e-02,-1.35126e-01,-7.19065e-02,-1.01003e-01,-2.85077e-01,-9.85647e-03,-2.48171e-01,-9.98189e-02,-3.48275e-01,-2.78623e-01,-1.53616e-01,-2.74846e-01,-1.90376e-01,-1.60265e-01,-2.14531e-01,-1.23030e-01,-5.84649e-02,-1.72437e-01,-1.81150e-01,-2.56468e-01,-1.67511e-01,8.82090e-02,-2.96839e-02,3.22164e-02,-2.35679e-02,1.89004e-01,-7.88746e-02,-1.46358e-01,4.63789e-02,3.19866e-02,3.27161e-02,4.92264e-02,-1.60522e-01,7.94843e-02,-9.81936e-02,-2.45531e-02,-1.21360e-01,-1.11360e-01,-7.04767e-02,-1.91238e-01,6.90894e-02,-1.28030e-01,-1.12721e-01,4.63533e-02,-5.26676e-02,2.81658e-02,-4.45869e-02,1.22392e-01,-2.45101e-02,2.41552e-01,5.22245e-02,7.33327e-02,1.39462e-01,1.31572e-02,1.75938e-01,2.64076e-01,1.63148e-01,2.79307e-01,1.46442e-01,7.83509e-02,2.95102e-01,3.19352e-01,2.36435e-01,2.76570e-01,1.14984e-01,1.38374e-01,1.30796e-01,2.85956e-01,2.51848e-01,3.18471e-01,3.52849e-01,1.72231e-01,3.88189e-01,3.11144e-01,1.73192e-01,8.31253e-02,3.41770e-01,6.73380e-02,8.84208e-02,2.46790e-02,3.20432e-01,1.79667e-01,2.12354e-01,1.68277e-02,-6.40453e-02,1.65677e-02,2.73517e-02,-3.60551e-02,-5.74819e-02,-1.41000e-02,-8.17430e-02,-1.14533e-01,-3.33148e-01,-1.78441e-01,-2.44186e-01,-2.40005e-01,-2.76390e-01,-1.23347e-01,-1.80912e-01,-5.23856e-02,-3.07706e-01,-3.25019e-01,1.04041e-02,-1.88361e-01,-2.28115e-01,-4.23110e-02,-2.04260e-01,-1.96548e-01,5.44220e-02,-5.03799e-02,-1.67417e-01,8.20787e-03,-3.47066e-02,-1.12300e-01,1.61549e-02,8.73933e-03,-4.46205e-02,-8.44883e-02,-2.80861e-02,-1.66784e-01,6.70220e-02,-2.09353e-01,8.01489e-02,-1.05301e-01,-6.04157e-02,-1.08155e-01,-1.16341e-02,5.80022e-02,6.33031e-02,1.89875e-01,7.80378e-03,2.18484e-01,1.26591e-01,1.79278e-01,1.04741e-01,1.52228e-01,-4.38651e-02,1.99314e-01,1.81663e-01,3.10219e-01,1.59692e-01,2.19346e-01,1.88405e-01,1.82879e-01,2.58695e-01,1.49117e-01,1.73742e-01,4.14837e-01,4.04719e-01,2.36404e-01,2.86873e-01,3.50749e-01,2.33303e-01,4.52449e-01,3.13863e-01,3.13401e-01,3.65274e-01,2.40532e-01,3.32906e-01,1.92054e-01,2.63851e-01,3.41971e-01,1.60305e-01,2.71759e-01,8.18804e-02,1.06701e-01,1.88925e-01,9.06684e-02,2.19850e-01,-1.44277e-02,3.61995e-02,-3.21266e-02,9.55685e-03,1.29340e-01,-1.88861e-01,-1.72820e-01,-2.88872e-02,-1.67239e-01,-1.12246e-01,-2.11525e-01,-1.81488e-01,-9.25004e-02,-7.75993e-02,-1.59711e-01,-6.57910e-02,-9.52834e-02,-1.21671e-01,-1.56601e-01,-2.65722e-01,6.07770e-02,-1.33462e-02,-2.07588e-01,-1.03100e-01,-7.64621e-02,-9.88952e-02,9.79404e-02,-6.76790e-02,-9.44369e-02,1.37644e-01,-7.92027e-02,5.20744e-02,9.69195e-02,-5.28597e-02,-1.23140e-01,-2.33295e-02,3.90224e-02,3.27705e-02,6.76840e-02,-9.39511e-02,4.59504e-03,1.86344e-01,4.45078e-02,1.98107e-01,-1.34326e-01,-7.11507e-02,7.50865e-02,1.37344e-01,-1.13250e-02,-7.16324e-02,-1.00880e-01,2.94216e-02,5.63193e-02,2.08081e-02,4.02346e-02,1.63707e-01,2.27494e-01,4.43211e-02,2.02714e-01,2.35373e-01,1.77929e-01,2.78458e-01,4.24709e-01,1.50583e-01,2.24702e-01,3.45056e-01,3.71482e-01,1.78574e-01,3.92377e-01,3.45209e-01,2.37701e-01,2.84264e-01,1.59589e-01,3.78684e-01,2.20898e-01,1.96993e-01,2.69908e-01,1.94575e-01,1.45149e-01,2.32280e-01,1.10096e-01,1.43084e-01,1.02722e-01,8.09231e-02,9.31408e-02,1.27823e-01,-4.37714e-02,6.52454e-02,-1.89538e-01,-4.76264e-02,-1.25134e-01,-1.32553e-01,-1.26153e-01,3.09853e-02,-1.43807e-01,-1.82608e-01,-5.23800e-02,-4.39987e-02,-2.42886e-02,-2.90078e-02,-1.85661e-01,-1.82237e-01,-2.10617e-01,-1.39938e-01,-4.57848e-02,-2.57094e-01,-5.98345e-02,-1.53800e-02,-2.02445e-01,-4.26091e-02,-1.07750e-01,-1.67913e-02,-5.89249e-02,-4.10116e-02,8.97634e-02,-5.86207e-02,-7.85145e-02,-3.23236e-03,-3.10391e-02,5.52430e-02,-1.14145e-01,-7.32617e-02,1.98999e-02,-2.21972e-02,-1.30257e-02,2.65642e-02,5.43690e-02,-3.78774e-02,5.73412e-02,8.07436e-02,-2.50889e-02,5.10838e-02,-1.17571e-01,1.24598e-01,-3.73958e-02,3.26144e-03,6.40091e-02,6.31487e-02,1.10580e-01,-4.53894e-02,1.39905e-01,-1.48769e-02,9.87068e-02,1.87309e-01,2.27605e-01,6.37080e-02,5.53863e-02,1.53517e-01,2.25647e-01,2.83698e-01,4.00393e-01,2.28587e-01,2.14653e-01,1.96900e-01,3.53078e-01,1.26190e-01,3.50154e-01,1.43198e-01,1.08069e-01,2.54242e-01,1.68252e-01,1.21170e-01,3.40667e-01,1.09463e-02,1.66775e-01,1.96081e-01,2.55853e-01,1.32773e-02,9.16583e-03,-7.84681e-03,-1.23563e-01,5.86845e-02,-1.43369e-01,-9.17895e-03,-1.36308e-01,-1.66509e-01,-2.12027e-01,-1.04839e-01,-1.35872e-01,8.92201e-02,-6.92192e-02,-1.50473e-02,-1.50900e-01,-7.45895e-02,-2.10921e-02,-1.51759e-01,1.10861e-01,-2.50863e-01,-5.42259e-02,-5.19255e-02,5.80031e-04,3.02304e-02,-7.67993e-02,-1.06528e-01,-1.54866e-01,-5.49823e-03,1.82132e-02,1.25254e-01,1.18785e-01,4.98633e-02,1.41355e-01,7.48888e-02,4.60233e-02,-1.11023e-01,1.42342e-01,-5.99152e-02,7.25594e-02,2.74236e-02,1.09140e-01,-1.05600e-01,-5.87202e-02,-1.47005e-01,-9.57575e-02,6.91036e-02,1.68773e-02,-1.29059e-01,4.81481e-02,-1.33879e-01,-3.72122e-03,-1.25899e-02,1.77504e-01,-4.66321e-02,-8.56512e-02,3.51820e-02,-9.27211e-02,-7.32947e-03,-6.60087e-02,2.07403e-03,-9.61345e-02,8.45578e-02,7.57252e-02,1.16462e-01,9.64188e-02,1.50983e-01,7.72780e-02,1.60181e-01,2.37866e-01,3.36568e-02,9.79469e-02,1.55810e-01,1.10785e-01,1.22484e-01,-2.60694e-02,3.40387e-01,1.21831e-01,2.11259e-01,9.37715e-02,1.34748e-01,2.71818e-02,-7.07958e-02,6.36739e-02,9.79955e-02,1.04033e-01,5.15431e-02,-7.27036e-02,-1.51160e-01,6.30848e-03,-9.48814e-02,4.75404e-02,1.62098e-01,-1.36899e-01,-7.97470e-02,-7.09205e-02,-3.76124e-03,-5.36669e-03,-4.15992e-02,1.14158e-01,4.00958e-02,-4.94366e-02,-3.31920e-02,-1.32670e-01,-1.97445e-01,-3.80559e-02,-5.54522e-02,-3.21455e-02,-1.75735e-01,-1.43172e-01,-1.14590e-01,-5.07991e-02,7.24434e-02,-1.01981e-01,-9.51946e-02,-1.09131e-01,1.22280e-02,-1.18666e-01,-1.57794e-01,9.12291e-02,5.95475e-02,-7.55098e-02,7.39265e-02,-1.07989e-01,1.50455e-01,-1.68407e-01,-7.37635e-02,-9.89121e-02,-6.49321e-03,-1.68837e-01,1.42033e-02,-1.03894e-02,-9.95280e-03,-3.12793e-02,2.97731e-02,-1.55978e-05,-8.24144e-03,-1.89361e-01,-1.27371e-01,-4.78175e-02,-2.05101e-01,-2.62779e-01,-1.51892e-01,-1.23125e-01,4.06595e-02,-2.43680e-01,-8.22472e-02,-2.11185e-01,-2.57525e-02,-6.84549e-02,-1.22998e-03,-3.52475e-02,-1.15533e-01,1.88966e-01,-2.10037e-02,1.58039e-01,1.96678e-01,-1.61772e-02,1.28130e-01,-2.84107e-02,3.10842e-02,1.28298e-01,1.59637e-01,5.70337e-02,1.92066e-01,-1.33619e-01,5.94210e-02,-1.09663e-02,-2.50453e-02,6.59154e-03,-6.52495e-02,1.82047e-03,-1.27097e-01,1.26194e-02,-2.53065e-03,-1.75141e-02,3.17334e-02,-5.57091e-02,-1.61857e-01,-6.07790e-02,8.72221e-03,-1.16705e-01,-4.01156e-03,2.77249e-02,8.34676e-02,3.18639e-02,-7.37034e-02,9.14854e-02,1.66477e-02,-3.68613e-02,-8.71741e-02,-2.99791e-01,4.55572e-02,-1.85659e-01,5.95766e-02,-1.09370e-01,-1.01562e-01,-8.53389e-03,1.31492e-01,7.23899e-02,-3.51412e-02,1.11878e-02,4.30430e-02,1.07529e-01,-7.45386e-02,-4.28792e-02,7.19869e-02,2.41183e-02,1.91349e-01,-1.65044e-01,1.51547e-02,-1.81068e-01,1.57559e-02,-2.42385e-02,1.32222e-01,6.23922e-02,6.53329e-03,5.62044e-03,1.00409e-02,3.78375e-03,-1.23410e-01,-1.28554e-01,-1.10037e-01,-1.81249e-01,-1.90434e-01,-2.02851e-01,-1.70727e-01,-1.92111e-01,-1.47320e-01,-2.53409e-01,-7.17872e-02,-1.21222e-01,-1.23404e-01,-1.48975e-01,-2.58161e-01,-1.35765e-01,-2.08119e-01,-1.23685e-01,-7.85889e-02,4.30463e-03,1.45291e-01,-5.88911e-02,3.04093e-02,1.38974e-01,1.72907e-01,1.62153e-01,-7.34295e-02,1.06113e-01,-5.02008e-03,-1.34696e-01,5.18915e-02,-1.33811e-01,1.02585e-02,-6.64763e-02,-1.12604e-01,6.84128e-02,1.11053e-01,5.86157e-02,4.26852e-02,8.33983e-02,7.43730e-02,-7.09065e-02,8.63539e-02,-1.03830e-01,1.01075e-01,-9.99078e-02,-5.76598e-02,-2.68868e-02,5.71965e-03,-4.32519e-02,-1.68705e-01,-1.27987e-03,-1.44996e-01,-1.59951e-01,-1.21089e-01,-2.05762e-01,-4.47599e-02,-4.77212e-02,4.35554e-02,4.79928e-02,1.43593e-01,-4.22950e-02,-2.59279e-02,-6.34964e-02,1.25108e-01,-8.18459e-02,-1.49466e-01,-1.39513e-01,-7.66528e-02,-4.97325e-02,1.74023e-01,-2.22177e-02,-1.05707e-01,8.14875e-02,4.18052e-03,-1.29244e-02,-1.00005e-01,2.32629e-02,6.54364e-02,-9.65862e-03,-2.24701e-02,-3.46928e-02,4.65440e-02,-1.32741e-01,-4.91400e-02,-1.14897e-02,-3.44436e-02,-2.07720e-02,-7.73567e-02,-1.38874e-01,-4.37750e-03,-1.84881e-01,-9.77391e-02,-2.50425e-01,-4.76684e-02,-8.81381e-02,-3.24433e-01,-4.03455e-02,-1.41229e-01,-1.08168e-01,-1.74501e-01,6.96101e-02,-3.70546e-02,-1.90080e-01,9.43698e-02,-4.84614e-02,-5.17971e-02,3.84035e-02,4.31604e-02,4.12735e-02,8.77949e-02,3.84669e-02,4.19797e-03,3.83763e-02,-1.19008e-01,1.54435e-01,1.01828e-02,2.42494e-02,-9.08795e-02,1.83011e-01,1.50753e-01,-3.18578e-02,1.05302e-01,2.74466e-01,1.45443e-01,5.74668e-02,1.88014e-01,-8.42307e-02,9.10207e-02,1.53114e-01,1.07637e-03,-7.64217e-04,1.11825e-01,7.12239e-03,-9.54487e-02,-2.05108e-01,3.91544e-02,5.12490e-02,-1.36109e-01,-1.42085e-01,4.06519e-02,-1.21569e-01,6.67280e-02,2.09286e-01,-6.92364e-02,7.74204e-02,1.06220e-01,6.53534e-02,1.75884e-02,-1.71446e-01,-7.96450e-02,-8.40119e-02,1.14551e-01,-1.97105e-01,5.64570e-03,1.18711e-01,-1.15992e-01,-5.27417e-02,-1.02709e-01,9.00560e-02,4.25502e-02,-9.88445e-02,6.91634e-02,-2.03469e-01,9.87652e-03,7.02874e-02,1.76565e-01,5.04048e-02,2.55999e-02,1.21387e-01,-3.81561e-02,1.61718e-02,3.82847e-02,1.20268e-03,-2.46018e-03,-3.39071e-02,-1.60026e-02,-1.16056e-01,-1.04827e-01,1.93989e-02,-1.35246e-01,-1.58656e-01,-2.57427e-02,-6.80289e-02,-2.01519e-02,-5.28155e-02,-1.71703e-02,-1.70573e-02,3.97321e-02,7.41321e-03,1.17008e-01,-4.39651e-02,3.35711e-02,1.44361e-01,1.07754e-01,1.72776e-01,7.66386e-02,1.78327e-01,1.65234e-01,2.72863e-01,1.73142e-01,9.23787e-02,2.60309e-01,1.50815e-01,4.93232e-02,1.08859e-01,1.40694e-01,1.24581e-01,8.77273e-02,-4.76388e-02,4.60246e-02,1.70580e-01,7.55813e-02,1.78222e-01,2.13202e-01,3.19936e-02,3.26774e-02,6.54620e-03,6.21224e-02,6.69359e-02,3.60531e-02,-6.85319e-02,-9.95310e-02,-8.54930e-02,6.51075e-02,-5.92970e-02,-7.11528e-02,-7.45589e-02,-3.51489e-02,-1.33521e-02,4.71255e-02,6.98719e-02,1.71066e-01,-1.16924e-01,1.93797e-01,1.42512e-01,-9.23512e-02,-4.26952e-02,9.07478e-02,5.80861e-02,-1.56606e-01,-7.31105e-02,-2.13260e-01,-1.02687e-01,-3.27141e-02,-1.15322e-01,-1.27630e-01,9.16854e-02,5.08116e-03,4.02749e-03,-2.02908e-02,1.38565e-01,5.28175e-02,3.08783e-02,-5.27167e-02,1.22156e-02,-8.07753e-02,7.11666e-02,-2.25121e-02,9.24135e-02,-7.94826e-02,-1.64383e-01,1.22154e-03,-6.46579e-02,-8.41132e-02,-8.74050e-02,-1.96807e-03,-1.98541e-02,1.28063e-01,-3.62150e-02,-3.61244e-02,2.90418e-02,-6.45877e-02,1.14427e-02,5.58472e-02,2.17844e-02,5.21399e-02,9.10303e-02,9.89074e-02,7.04056e-02,9.61366e-02,4.70269e-02,1.09302e-01,1.80451e-01,-5.42403e-03,4.22795e-02,4.58117e-02,1.63361e-01,9.51477e-02,4.67978e-02,9.26433e-02,2.71566e-01,7.14284e-02,1.43468e-01,3.51205e-02,1.48911e-01,9.26185e-02,1.42433e-01,-1.29150e-02,8.67817e-02,-2.31896e-02,3.77027e-02,-1.09727e-01,-5.30353e-02,-1.00199e-01,3.45623e-02,-8.50778e-02,3.21340e-02,9.53067e-02,-3.57255e-02,2.65186e-02,-1.04352e-01,6.91836e-02,1.19263e-01,7.11185e-02,-3.95839e-02,4.44727e-02,-6.79371e-02,4.99633e-02,-1.44713e-01,6.18121e-02,2.03580e-02,-1.69461e-02,5.02372e-02,-4.33379e-02,-6.09034e-02,-3.98293e-02,6.29003e-03,4.83561e-02,-1.99464e-02,-1.50081e-02,-2.04858e-01,-8.45525e-02,4.39327e-02,-1.89746e-01,-5.64301e-03,-4.14299e-03,-1.73860e-01,6.66641e-02,-4.14792e-02,1.06955e-01,1.54343e-01,5.22975e-02,4.93394e-02,-5.96750e-02,-6.23151e-02,-4.90813e-02,-8.09345e-02,1.21447e-02,-5.41666e-02,-6.28068e-02,3.98195e-02,-1.01476e-01,2.98148e-02,3.02687e-02,-3.62217e-02,-7.53857e-02,9.67332e-02,9.75023e-02,1.59374e-02,-1.13104e-01,-3.35421e-02,-6.46437e-02,7.56305e-02,6.33706e-02,-3.92622e-02,1.58927e-01,2.28285e-01,7.97300e-02,1.76596e-01,1.66908e-01,1.65347e-01,6.66498e-02,5.61222e-02,1.93360e-01,3.11592e-02,-7.28050e-02,-9.08752e-02,-1.84320e-02,1.53967e-01,3.10867e-02,3.70996e-02,-1.11947e-01,1.98719e-02,-1.19167e-01,-7.75131e-02,3.81931e-02,7.64195e-02,-2.26753e-02,1.72438e-01,7.44478e-02,-1.75240e-01,3.30432e-02,-7.66109e-02,9.94071e-02,4.97718e-02,2.27396e-02,-1.33392e-01,-1.04529e-01,9.55375e-02,8.59426e-02,-1.47182e-01,1.75881e-02,-1.96247e-02,-1.46284e-01,-3.17774e-02,9.69637e-02,-4.95892e-02,-1.49989e-02,-3.61164e-02,1.57272e-02,6.11243e-02,-1.63805e-02,4.94962e-02,-1.71285e-01,-6.38558e-04,-1.60133e-03,4.39861e-02,-3.66548e-02,6.44966e-02,-6.30456e-03,2.42470e-02,9.66222e-02,7.39662e-02,-7.08148e-02,1.44791e-01,-1.91072e-02,-1.38248e-01,-1.56354e-01,-2.25243e-01,1.44223e-02,-2.39079e-02,2.54983e-02,2.61955e-02,-7.27781e-02,-1.00517e-01,-3.79045e-02,-8.45218e-02,-1.18585e-01,-1.90578e-01,3.92206e-02,-7.75604e-04,3.92959e-02,-8.31679e-02,3.76379e-02,-2.55068e-02,1.89189e-01,1.28874e-01,2.37294e-01,6.83005e-02,2.75629e-02,1.69877e-01,-7.72851e-02,1.93960e-01,2.22336e-01,2.40223e-01,8.65546e-02,1.01329e-01,1.01599e-02,3.29784e-02,2.00806e-01,1.04880e-01,1.90877e-01,2.05627e-02,2.03213e-01,8.91285e-02,-6.84935e-02,-6.93536e-02,-9.32151e-02,-1.06361e-01,-5.38740e-03,-2.19439e-02,7.30268e-02,4.23506e-02,3.28094e-02,-6.12323e-02,-3.90715e-02,1.18096e-01,2.10866e-01,-8.95254e-02,7.09930e-03,-5.94289e-02,8.67836e-02,-2.99356e-02,-1.09305e-01,-3.74836e-02,-2.47699e-02,3.29191e-02,-1.04353e-01,-1.70210e-01,-9.11482e-02,-2.45802e-02,-5.11535e-02,-3.38263e-02,-6.09296e-02,4.15108e-02,-1.55596e-02,-4.46722e-02,6.81942e-02,1.73133e-01,-8.53006e-02,-6.47544e-02,3.60503e-02,9.92379e-03,3.08973e-02,-5.50844e-02,-2.80356e-03,3.79098e-02,-8.66300e-02,-1.91014e-02,-1.14408e-01,4.64930e-02,-4.87068e-02,-5.27861e-02,3.86443e-02,1.72446e-01,4.15808e-03,9.96217e-03,1.38257e-01,8.74200e-02,-3.72582e-02,-8.96588e-02,-6.52540e-03,-2.59386e-02,9.54846e-02,1.44471e-01,3.02482e-02,9.31416e-02,-8.35000e-02,-1.20716e-01,-4.92539e-03,-5.59906e-02,-1.51984e-02,2.73075e-02,-1.59723e-02,1.01969e-01,3.08066e-02,7.33117e-02,4.50526e-02,7.40781e-02,2.21601e-01,9.38195e-02,2.23308e-02,2.40617e-01,2.46974e-01,7.97046e-02,3.01134e-03,-2.67511e-02,1.68354e-02,3.49129e-02,3.78485e-03,3.45775e-02,1.19840e-02,-7.73242e-02,-3.17399e-02,-2.37569e-01,9.55128e-04,-1.30282e-01,-6.55899e-02,-5.68553e-02,-6.26909e-02,6.55861e-02,-2.91230e-02,4.87916e-02,5.49276e-03,1.20694e-01,1.59083e-01,-2.80882e-02,-1.16530e-01,-4.55719e-02,3.74462e-02,-1.34509e-01,-9.99284e-02,8.71814e-02,6.85432e-02,1.18340e-01,9.07098e-02,1.04633e-01,1.73663e-02,1.19875e-01,9.37626e-03,9.67143e-03,-3.63595e-02,7.11500e-02,-3.70376e-02,4.49841e-02,7.93193e-02,4.61366e-02,1.82065e-01,-1.68368e-02,-9.49171e-02,-1.66024e-02,1.30020e-01,-7.80575e-02,6.73139e-02,9.90772e-02,1.40503e-01,1.47260e-01,-1.10044e-01,5.16455e-02,-7.36126e-02,-1.07068e-01,-3.86966e-02,6.87560e-02,9.25833e-02,9.89920e-03,-1.24139e-01,-8.71899e-02,7.19798e-02,-1.92459e-01,-5.15316e-02,-9.22930e-02,-4.56575e-03,3.27874e-04,9.10943e-02,2.92219e-02,-1.26495e-02,8.50643e-02,3.01613e-02,1.15280e-01,9.69685e-02,1.32531e-01,1.55426e-01,1.44733e-01,6.97750e-02,1.14421e-01,1.36283e-01,2.28824e-01,1.96742e-01,1.50087e-01,6.89322e-02,2.52056e-01,3.60450e-02,-3.67461e-02,8.98881e-03,-8.16092e-02,3.33391e-02,3.07479e-02,1.33151e-01,2.16969e-02,-9.29693e-02,1.37015e-02,6.62250e-02,1.36534e-01,-1.04839e-01,6.49552e-02,6.76339e-02,-1.75870e-02,-1.75228e-02,-8.65509e-02,5.76075e-02,1.95953e-01,1.15867e-01,8.30936e-02,9.62493e-02,-4.08493e-02,-1.03630e-01,-1.14158e-01,3.43056e-02,-5.87719e-02,1.48333e-01,1.03440e-01,3.73512e-02,3.18134e-02,5.21041e-02,8.50883e-02,1.99308e-01,-3.26302e-02,7.57982e-02,3.76585e-02,7.82372e-03,-9.98439e-02,-1.38640e-01,4.33815e-02,-7.27535e-03,-1.92328e-02,-2.36167e-01,-1.67709e-01,-1.22684e-01,-1.08123e-01,1.81747e-01,-4.10961e-02,8.55714e-02,-5.46936e-02,-1.15516e-01,-8.76108e-02,-8.86151e-02,1.54983e-02,6.38974e-02,-8.38893e-02,4.59564e-02,4.96707e-02,-4.17785e-02,9.01510e-02,7.29555e-02,-1.79284e-01,-2.08825e-01,-1.52087e-01,1.73347e-02,4.15087e-03,1.07628e-01,-1.57886e-01,-1.21250e-01,2.63684e-02,1.47475e-01,1.11227e-02,4.06186e-02,-2.65142e-03,-9.63774e-02,1.16121e-01,1.26229e-01,1.25357e-02,1.45562e-01,2.07516e-01,6.71554e-02,1.10693e-01,-9.44946e-02,-4.01413e-02,2.02733e-01,-4.18822e-02,-3.82894e-02,5.48021e-02,6.82324e-02,6.34985e-02,-4.04592e-02,2.79287e-02,-1.27051e-01,-9.16825e-02,-1.92993e-02,8.45301e-02,3.52969e-02,1.09466e-01,-4.53091e-02,-4.13291e-02,3.44321e-02,1.19934e-01,6.16741e-02,8.56587e-02,-2.36085e-02,2.87824e-02,-1.34841e-03,-1.18065e-02,1.11436e-01,1.28519e-01,3.52987e-02,-2.98938e-02,-5.16010e-02,-1.28299e-02,-9.63156e-02,-2.62815e-03,-1.17432e-01,7.31792e-02,2.39524e-02,-1.78868e-02,-1.92604e-01,2.47025e-03,-2.20382e-02,-7.86748e-02,4.86317e-02,-3.62175e-02,-1.17935e-01,-1.75212e-01,-1.65998e-01,-1.46925e-01,-2.17497e-02,-4.90587e-02,-1.77033e-01,1.14093e-01,-2.01026e-01,-1.05488e-02,-1.58334e-01,-1.46379e-01,-1.52697e-01,-4.31105e-02,-2.06585e-01,-1.46629e-01,2.22516e-03,-1.93807e-01,-3.12944e-01,-1.69780e-01,-1.50846e-01,-1.26517e-01,-1.53688e-01,-1.07288e-01,-2.02483e-01,-1.57180e-01,-1.23486e-01,-1.67688e-01,-5.26555e-02,-1.64173e-01,3.43246e-02,-1.04984e-01,-9.31928e-02,4.07217e-02,4.94819e-02,4.45631e-02,7.88834e-02,-3.42750e-02,-3.34077e-02,7.10129e-03,-7.31947e-02,1.86953e-02,-1.52239e-01,-1.10261e-02,-1.66343e-01,8.35968e-03,-1.62513e-01,-1.04149e-02,5.44927e-02,-1.47931e-01,3.24909e-02,-3.93871e-03,8.01097e-02,7.54034e-02,-6.80938e-02,6.20431e-02,1.06336e-05,8.62757e-02,
1.12351e-01,1.43903e-02,-3.07137e-02,3.55912e-02,3.10038e-02,5.84326e-02,-4.35836e-06,1.60162e-04,4.14716e-02,4.32589e-02,-1.99511e-01,7.56232e-02,-1.35664e-01,-3.78380e-03,-4.32035e-02,4.90074e-02,-2.66755e-02,4.72622e-02,-5.65841e-02,-2.00613e-03,8.50101e-02,1.55859e-01,7.93850e-02,1.59137e-01,-3.34920e-02,-4.06365e-02,-3.42210e-02,1.41171e-01,-6.90433e-02,1.00303e-01,-5.37298e-02,6.28504e-02,8.66834e-02,-1.09121e-02,-5.01499e-02,4.94941e-02,1.58227e-01,8.66617e-02,-5.06609e-02,-3.37199e-02,-1.02117e-03,-4.11838e-02,-1.39968e-01,1.17458e-01,-1.86131e-01,-2.28435e-04,-3.32927e-02,-4.07757e-02,-3.10948e-02,8.02095e-02,-1.08865e-01,7.81302e-02,1.96744e-01,-5.54773e-02,3.75248e-02,2.82830e-02,3.12682e-02,3.58719e-02,9.44664e-02,1.86242e-02,-2.63664e-02,-1.14591e-01,-2.46753e-02,1.96559e-01,-1.49717e-01,6.87130e-02,-1.29181e-02,1.56178e-01,-1.34899e-02,-1.02084e-01,8.72921e-02,-1.60192e-02,-1.21281e-02,1.05716e-01,5.23657e-02,-1.64448e-01,5.12816e-02,3.26525e-02,3.75959e-03,-1.73911e-01,-1.38410e-01,-3.00042e-02,-6.41911e-02,-4.30795e-02,-7.04349e-02,-1.14421e-02,-1.57725e-01,1.15848e-02,4.76308e-02,-1.91635e-01,6.85645e-02,-2.11129e-02,-6.20181e-03,-4.18810e-02,4.21257e-02,-1.65800e-02,6.86447e-02,-1.01488e-01,-1.24460e-01,8.28705e-02,-4.57475e-02,-9.64924e-02,3.08094e-02,-3.45248e-02,1.61989e-01,-1.16951e-02,2.98447e-02,6.20455e-02,-1.52774e-01,-1.10226e-02,7.29010e-02,9.53681e-02,-6.19722e-02,-1.02992e-01,1.25297e-01,6.51043e-02,1.37151e-03,4.32834e-02,1.71261e-01,1.76341e-01,1.59908e-01,1.64899e-01,5.70684e-03,-9.17946e-02,4.40562e-02,-1.31332e-01,6.16082e-02,-5.19878e-02,-1.18409e-01,1.04806e-01,-7.02953e-03,1.03844e-01,-1.60317e-02,-1.81904e-02,6.81319e-02,-1.08276e-01,6.05505e-02,1.18719e-02,-7.48372e-02,5.37293e-02,4.34757e-02,7.31616e-02,4.11775e-03,2.13215e-01,1.38783e-01,3.44643e-02,6.15729e-02,3.27589e-02,-1.28737e-01,4.91818e-02,8.94371e-02,8.05843e-02,-1.01030e-01,5.10469e-03,5.11604e-02,-1.32681e-01,-3.87368e-02,-1.11235e-01,-5.56893e-02,1.29257e-03,2.17546e-02,-2.87763e-02,-4.82513e-02,-6.24405e-02,-7.30057e-02,-1.40227e-02,-3.84224e-02,-1.16687e-01,-4.86827e-02,1.08778e-01,-1.42836e-02,1.48687e-03,-4.29608e-02,3.74093e-02,-4.31741e-02,-6.43282e-02,1.88652e-01,2.50343e-02,-1.76338e-03,9.37754e-02,-7.96689e-02,-2.50725e-02,-8.89914e-03,4.44844e-02,1.44632e-01,7.15589e-02,-5.10806e-02,-1.06865e-01,-3.36658e-02,-1.57460e-01,-1.75851e-01,4.54230e-02,7.59983e-02,9.65790e-02,-5.94399e-02,9.75169e-03,-1.25208e-02,1.09588e-01,1.94398e-01,2.77765e-02,-4.44424e-02,9.65345e-02,9.75473e-02,1.49498e-01,-7.99822e-02,-1.17079e-01,-2.10058e-02,-1.46312e-01,7.07079e-02,-6.37068e-02,-6.82603e-02,5.00220e-02,5.73941e-02,4.88018e-02,-1.52816e-01,-1.11223e-01,2.89915e-02,-1.72103e-02,-1.78319e-01,6.95826e-03,7.81631e-02,1.03154e-01,-1.11636e-01,-8.71344e-02,-1.25769e-02,7.87943e-02,-1.86704e-01,3.17589e-02,1.22256e-01,-3.99876e-02,1.23593e-03,-1.24302e-01,1.08573e-01,-2.37324e-02,3.40872e-02,-4.05152e-02,-5.69465e-02,-7.12428e-02,-4.89708e-02,5.74470e-02,-4.63971e-02,-1.34129e-01,4.23227e-02,6.59472e-02,4.37292e-04,2.56802e-04,1.48579e-02,-2.79077e-03,-2.20075e-02,-6.29095e-02,9.41559e-03,3.96892e-02,-7.37851e-02,-1.82412e-01,1.84151e-01,1.61671e-01,-4.08864e-03,5.35015e-02,1.61272e-02,2.73362e-02,-1.50224e-01,-6.90459e-02,-1.18325e-01,-2.36952e-02,1.50288e-01,7.43474e-02,-6.08949e-02,-5.75247e-02,-4.83797e-02,5.51943e-02,-3.73126e-02,-2.39453e-02,8.82617e-02,6.52276e-02,-9.39988e-02,3.35875e-02,6.77336e-02,9.25614e-02,1.34747e-01,-1.58227e-01,-3.94353e-03,5.35043e-02,1.85469e-01,1.12860e-01,1.90663e-01,6.70755e-02,1.30633e-01,1.34880e-01,1.06046e-01,1.62571e-01,-2.21564e-02,2.15114e-01,1.34622e-01,8.23590e-02,9.01136e-02,8.20559e-02,-3.43265e-02,-7.06729e-03,-5.03206e-02,3.27117e-02,-2.10662e-02,1.69866e-01,1.75111e-03,7.43757e-02,1.63342e-01,1.14171e-01,3.62028e-02,-4.52531e-02,2.66158e-02,1.52163e-01,-1.86232e-02,2.01076e-02,6.02303e-02,1.96729e-02,-6.67117e-02,2.01410e-01,8.22967e-02,-6.97454e-02,-2.84218e-02,2.50855e-02,-2.23671e-01,3.49347e-02,1.60196e-01,-1.52586e-01,-1.00138e-01,6.55099e-02,-1.25111e-01,-5.24120e-02,-1.92893e-02,-1.24539e-01,1.83030e-02,8.06575e-02,7.02052e-02,-8.25702e-02,-6.24727e-02,-6.87196e-02,-2.89376e-02,-6.45179e-02,-2.35865e-02,1.20874e-01,1.77611e-01,6.39382e-02,3.24318e-02,3.14411e-02,-9.52158e-02,-6.28430e-03,-1.03891e-01,-3.08782e-02,-1.96868e-01,5.56481e-03,-1.28482e-01,1.05126e-02,-7.44512e-02,7.43718e-02,-5.94150e-02,3.87769e-02,-2.83591e-02,-1.21526e-01,-6.39762e-02,2.45175e-02,-1.61245e-02,2.83368e-02,-1.37167e-01,-1.21982e-01,4.35903e-03,1.03749e-01,1.16092e-01,-1.33098e-02,1.14851e-01,-5.32190e-02,3.75024e-02,4.03833e-02,1.42958e-01,8.78933e-02,1.68910e-01,4.81847e-02,4.55038e-02,-7.70059e-02,1.41102e-01,9.13131e-02,-3.77930e-03,1.33219e-01,9.65452e-02,5.71353e-02,3.02501e-02,1.33927e-01,6.33342e-02,8.14227e-02,-3.35999e-02,1.98542e-02,5.68253e-02,4.54047e-02,1.36228e-01,-2.07488e-02,-8.08254e-03,-5.45236e-02,-9.73502e-02,-3.40817e-02,9.15483e-02,-6.85483e-02,-4.21372e-03,-3.85589e-02,-3.42679e-02,5.07975e-02,-8.38971e-02,-1.28972e-01,-2.93600e-02,-4.38788e-02,-1.08914e-01,-5.75237e-02,-5.04209e-02,-2.71228e-04,-1.54132e-02,-1.41795e-01,6.06485e-02,1.04792e-01,1.75961e-01,-3.32167e-02,1.65721e-01,1.85271e-01,1.03208e-01,6.88076e-02,-6.16780e-02,-5.48956e-02,-7.68727e-02,-4.52388e-02,-5.69268e-02,-1.41370e-01,-1.39382e-01,1.26641e-01,-1.04027e-01,1.08792e-01,1.16776e-01,-1.88362e-01,-4.16673e-02,6.40561e-02,-2.83406e-01,-2.17627e-01,7.04285e-02,1.87479e-02,-1.75308e-01,6.25494e-02,2.55800e-02,-5.72573e-02,-4.05286e-02,-5.53303e-03,1.13513e-01,4.23150e-02,4.46744e-02,5.70986e-02,1.01091e-01,7.63557e-02,-2.29555e-02,1.28240e-01,2.39147e-02,1.18032e-01,7.49513e-02,-2.57737e-02,3.02825e-02,-5.17980e-02,-1.04467e-01,-5.10497e-02,-6.35132e-03,1.02319e-01,6.16651e-02,1.25486e-01,3.33933e-02,8.83886e-02,1.73982e-01,-5.12279e-02,3.13232e-02,-1.68577e-02,1.23305e-01,1.40707e-01,-2.50987e-02,6.08377e-02,-1.73391e-02,1.58762e-01,4.23386e-02,2.50488e-03,-9.47653e-02,-1.37718e-01,6.90683e-02,-2.44609e-01,1.93038e-02,-1.70914e-01,9.20447e-03,-1.59075e-02,-1.59599e-01,-2.80522e-02,6.60980e-02,7.93684e-03,-7.60378e-02,-9.27895e-02,-1.94403e-01,5.06004e-02,1.42089e-01,8.17202e-02,8.86916e-02,1.03444e-01,-2.30433e-02,6.15103e-02,-1.47303e-01,2.26178e-03,-1.23405e-01,1.30861e-01,-1.84784e-01,1.25227e-01,1.63584e-01,-2.75263e-02,1.48679e-01,-1.51332e-02,-7.05402e-02,1.29387e-01,-1.44913e-01,7.48838e-02,-1.46233e-01,-1.24406e-01,-1.86031e-01,-2.06145e-01,-8.76989e-02,1.61276e-01,-1.39409e-01,1.36614e-01,6.92655e-02,-3.11223e-02,-8.95112e-02,-2.57956e-02,6.93692e-03,-1.40471e-02,5.94063e-02,-4.44305e-02,-9.89633e-02,7.46416e-02,4.21196e-02,1.78073e-02,3.88334e-02,-5.56686e-02,-4.74789e-02,-6.31263e-02,7.57728e-02,2.08875e-02,-4.09725e-02,1.79780e-01,2.09371e-01,5.63099e-02,2.35840e-01,3.19459e-02,6.36802e-02,1.05569e-01,1.43881e-01,2.42435e-01,1.36902e-01,1.03789e-01,2.40231e-01,3.22005e-02,9.00060e-02,2.89070e-01,-6.12874e-02,2.32927e-01,6.97729e-02,-1.49079e-01,-4.08850e-02,7.69170e-02,2.10030e-02,-1.15225e-01,1.05604e-01,-4.28891e-02,3.99641e-02,-2.01791e-02,-1.68014e-02,-2.19063e-02,-9.32985e-02,9.48677e-02,-1.52251e-01,-6.31297e-03,6.35479e-02,-5.24673e-02,6.21768e-02,-9.74241e-03,1.67962e-01,1.76719e-01,6.53702e-02,-9.68602e-02,1.02924e-01,1.91291e-03,-5.76645e-02,5.63631e-02,2.80178e-02,7.20760e-02,-6.24356e-02,3.85959e-02,5.40876e-02,6.20435e-02,1.15941e-01,-1.32922e-01,-7.80385e-02,1.07598e-01,-4.49515e-02,-2.67096e-02,-1.04773e-01,-7.24388e-02,-2.40235e-01,-1.28381e-02,-1.41996e-01,-2.97357e-02,-7.92017e-02,-1.20057e-01,1.86892e-02,-2.16845e-02,-8.37791e-02,3.68453e-02,5.93226e-02,-4.82539e-02,-1.64434e-01,1.01995e-01,-2.77775e-02,9.94118e-02,1.32004e-01,-1.01574e-01,6.54798e-02,-2.77624e-02,-4.88440e-02,2.16583e-01,2.25524e-03,1.23586e-02,-1.00089e-01,7.51285e-02,1.97714e-01,6.91282e-02,1.69411e-01,2.08032e-01,1.61543e-02,2.59649e-03,2.21619e-01,1.87348e-01,8.37320e-02,1.73054e-01,1.58232e-01,1.67589e-01,-4.73184e-02,2.29431e-01,1.30938e-01,1.34850e-01,1.25021e-01,2.58588e-02,1.22305e-03,-1.86341e-02,-5.36973e-02,-1.56998e-01,5.43574e-02,2.16271e-02,-1.04059e-01,-6.26473e-02,-2.50372e-02,-1.60245e-01,-7.16408e-02,1.14356e-01,1.39761e-04,-8.57234e-03,1.08080e-02,4.53464e-02,-2.54174e-02,2.53958e-01,1.39658e-01,2.05566e-01,-7.70067e-02,1.59583e-02,1.97520e-02,1.31134e-01,-1.18248e-01,6.58183e-02,-1.23089e-01,1.61492e-01,-2.68069e-02,-7.07908e-02,-7.81914e-02,7.14488e-02,1.22364e-01,6.69323e-02,-9.51827e-02,-6.16959e-02,6.81905e-03,-1.65713e-01,-2.80352e-02,-9.94038e-02,-1.67843e-01,-6.87789e-02,-1.36635e-01,-8.24289e-02,1.13467e-01,-4.84085e-02,-1.25683e-01,-4.40407e-02,2.18992e-02,7.56049e-02,1.21302e-01,9.16977e-02,2.61377e-02,2.95058e-02,5.56685e-03,-9.00239e-02,9.81317e-02,3.42023e-02,5.70011e-02,1.66573e-01,1.45279e-02,1.20211e-01,1.41390e-01,8.93777e-02,5.00290e-02,1.42284e-01,1.41259e-01,1.63520e-01,9.22403e-02,1.60199e-01,1.87637e-01,6.75654e-02,2.04035e-01,5.30100e-03,-9.17877e-02,2.12757e-01,-1.14089e-02,-1.05332e-02,2.37503e-02,-1.02278e-01,1.55260e-01,-7.62290e-03,1.15291e-01,-1.26653e-01,4.15099e-02,-4.91739e-02,3.82803e-02,-7.72202e-02,8.16874e-02,1.12017e-01,1.00584e-01,1.52576e-02,-7.11384e-02,-5.66904e-02,5.55119e-02,1.85289e-01,-6.06889e-02,1.77065e-01,1.58693e-01,2.68637e-01,1.14602e-01,2.53732e-01,-5.75161e-02,2.84333e-01,6.16471e-02,2.30732e-01,1.46314e-01,2.08457e-01,9.30724e-02,-1.68668e-02,-2.34777e-02,1.66900e-02,5.26534e-02,-1.63848e-01,8.74700e-03,7.06938e-02,-1.18641e-01,-1.80444e-01,-1.14349e-01,-6.58085e-02,-9.02867e-02,1.40408e-01,-2.74398e-02,1.59726e-01,1.23800e-01,-1.28322e-01,6.70824e-02,2.27688e-03,-5.04786e-02,-1.20165e-02,3.92562e-02,-3.18429e-02,9.71946e-02,7.73216e-02,2.12603e-01,-1.88237e-02,9.87197e-02,6.43244e-02,1.17528e-01,-2.66226e-02,1.38964e-02,8.79035e-02,9.61030e-03,-7.81497e-02,2.25309e-02,-1.92135e-02,1.59753e-01,-1.42293e-02,-6.49350e-02,1.67881e-02,-6.47918e-02,1.06108e-01,1.56790e-02,-1.10247e-03,9.60319e-03,-9.93173e-02,6.99674e-02,1.38666e-01,7.95337e-02,-1.56788e-01,1.40392e-01,-8.46620e-02,-1.05335e-01,-1.66095e-02,4.96085e-02,-6.40922e-03,4.22803e-02,-1.03607e-01,4.12737e-02,1.07794e-02,7.08146e-02,4.39311e-02,1.64982e-01,1.08757e-02,-6.95986e-02,-7.75879e-02,3.02313e-02,6.37353e-02,1.37850e-02,1.26248e-01,2.21178e-01,8.70649e-02,2.56612e-01,2.88368e-01,1.01359e-01,1.41839e-01,-1.08745e-03,7.44615e-02,4.72306e-02,1.66777e-01,1.69329e-01,1.56847e-01,1.18151e-01,4.35898e-02,-2.16820e-03,-3.99910e-02,-5.50803e-02,-4.54635e-02,-4.98641e-03,-1.07530e-02,5.50693e-02,2.23567e-02,2.14289e-01,1.12685e-01,4.94228e-02,1.26470e-01,-1.01749e-01,3.32227e-02,-2.47330e-02,-9.08558e-02,5.00331e-02,-5.73317e-02,8.84639e-04,-1.54750e-01,-2.40919e-02,1.24606e-01,-6.72286e-02,6.24812e-02,-6.48451e-02,1.60832e-01,-9.30348e-02,1.79736e-02,6.46068e-02,6.82704e-02,2.92054e-02,-2.71214e-02,6.90497e-02,2.04648e-02,2.23387e-01,4.90487e-02,5.14588e-02,1.09425e-01,6.05546e-02,-1.21073e-01,8.57338e-02,1.04744e-01,-6.09380e-02,-4.48195e-03,1.77144e-01,1.36325e-02,-1.07715e-01,-3.18464e-02,1.67995e-02,7.16618e-02,-7.79969e-02,-1.20342e-01,-1.21013e-02,-1.69457e-03,-8.55822e-02,3.52386e-02,1.81007e-02,1.02916e-01,2.12809e-03,1.16042e-01,1.70563e-01,-4.79733e-02,-1.01914e-02,3.35436e-02,6.19975e-02,2.24900e-01,9.87825e-02,7.01028e-02,-1.63019e-02,9.06060e-02,1.36951e-01,-1.53400e-02,8.31106e-02,2.18281e-01,1.51253e-01,2.85730e-01,1.37214e-01,3.36225e-01,2.39866e-01,1.99013e-01,1.50314e-02,8.82644e-03,9.77430e-03,-1.07705e-01,-1.03467e-01,1.04601e-01,3.02603e-02,6.99402e-02,-4.81338e-02,-1.07638e-01,-6.89981e-02,6.60916e-03,1.10210e-02,1.42324e-01,1.77768e-02,2.99831e-03,-1.06243e-01,3.59178e-02,-4.94483e-02,-8.22094e-02,-1.88048e-02,-4.96967e-02,2.15362e-02,-1.24904e-01,7.77303e-02,2.67664e-02,1.50896e-03,2.55903e-01,8.22348e-02,1.03614e-01,2.03505e-01,-5.59468e-02,6.78098e-02,-3.25557e-02,-7.64922e-02,4.40744e-02,-1.00245e-01,1.07519e-01,2.26967e-02,2.04944e-01,-4.85949e-02,-8.02842e-02,1.31956e-01,-2.92270e-02,1.68049e-02,1.20160e-01,3.35477e-02,1.43227e-03,-1.46715e-01,-6.26698e-02,-2.15960e-01,-2.19688e-01,9.79624e-03,-7.60748e-02,-1.66239e-01,1.29359e-01,1.33309e-01,3.73510e-02,-1.15593e-02,-1.37811e-01,1.80672e-01,-5.08917e-02,3.92099e-02,-1.44094e-01,1.25680e-03,2.18384e-01,-6.24699e-02,8.84923e-02,2.13567e-01,1.38181e-01,1.10257e-01,2.04666e-01,1.18245e-01,1.47931e-01,1.21022e-01,1.07139e-01,2.11422e-01,1.56132e-01,2.36629e-01,1.64747e-01,2.22992e-01,1.53088e-01,1.67940e-02,1.30381e-01,6.24796e-03,-2.72942e-02,-6.13549e-02,-9.22500e-02,-7.81046e-02,1.04962e-01,-4.24521e-02,1.54624e-02,-3.19012e-02,4.11770e-04,8.41969e-02,-7.88447e-03,9.86173e-02,2.43264e-02,-1.43431e-02,1.25082e-01,-3.12322e-04,5.05458e-02,-1.09409e-01,-1.43812e-01,-5.96230e-02,6.19380e-02,1.75404e-01,-1.10504e-04,3.51132e-02,3.33475e-02,1.48008e-01,1.15045e-02,1.06439e-01,9.97838e-02,-1.53662e-01,-4.88118e-02,-1.23557e-01,-9.18756e-03,1.56839e-01,1.25693e-01,3.65135e-02,6.98590e-02,2.04795e-01,3.23120e-02,1.71478e-02,1.93336e-02,8.64763e-02,6.12083e-02,2.18841e-02,8.48565e-02,3.39515e-02,-1.88515e-01,-2.39478e-01,1.35067e-02,-1.14018e-01,-1.96310e-01,-1.46543e-01,-1.01389e-01,-4.57380e-02,-4.34888e-04,2.08000e-02,-1.86176e-01,-1.25510e-01,-8.59658e-02,1.17170e-03,-5.59324e-02,1.79749e-02,-5.38556e-02,6.19634e-02,4.82805e-02,1.23701e-01,-2.21249e-02,8.03012e-02,-7.60869e-03,3.81781e-02,2.06670e-02,1.01903e-01,7.92360e-03,2.69973e-01,7.71210e-02,7.35057e-02,4.71004e-02,1.66247e-01,9.04215e-03,1.87532e-01,8.22938e-02,1.20759e-01,1.51698e-01,-9.47855e-03,-4.61578e-02,2.00695e-01,7.10789e-02,3.57069e-02,1.47218e-02,5.69509e-02,-7.85057e-02,8.35152e-02,-4.15947e-02,-1.83699e-02,7.81050e-02,-2.66172e-02,5.08639e-02,-3.79666e-02,3.23480e-03,-2.27480e-01,7.19139e-03,-3.36144e-02,-8.89043e-04,-6.34874e-02,7.51720e-02,-1.92539e-01,-1.66028e-02,-1.46780e-01,-3.06666e-02,-4.64160e-02,8.64067e-02,-8.30472e-02,-1.58633e-01,-1.67992e-02,1.34610e-01,-1.26245e-01,-3.89414e-02,1.48718e-01,1.00261e-01,-1.17503e-01,2.10783e-02,-5.82780e-02,-1.06418e-01,1.73063e-01,7.87226e-02,7.67144e-02,-1.25224e-01,2.35764e-02,1.33464e-01,-3.22710e-02,2.82032e-02,2.21930e-02,-5.82689e-02,1.20778e-03,-2.16566e-02,1.00723e-02,-1.12343e-01,1.38261e-02,3.92186e-02,1.18187e-01,1.40512e-01,-4.50139e-02,-8.74307e-02,8.40601e-02,2.01473e-01,1.84854e-01,-9.83381e-02,-4.99420e-02,-2.17515e-01,-1.45831e-02,2.62021e-02,5.97757e-02,1.00367e-01,-9.07769e-02,-3.60331e-02,3.42419e-02,1.06900e-01,7.48699e-02,-8.79147e-03,1.27131e-01,1.39969e-01,1.17736e-01,-5.28081e-02,2.03064e-01,1.70432e-01,1.00177e-01,6.03175e-02,4.53793e-02,-8.79431e-02,-4.19831e-02,-8.03352e-02,-1.11933e-01,1.18929e-01,-2.52953e-02,-1.04449e-01,5.06061e-02,-3.46410e-02,-4.13635e-02,5.55083e-02,-1.28373e-01,-1.32933e-01,-1.26254e-01,-2.99646e-02,-1.23031e-01,-1.21925e-01,-9.89312e-02,-1.23128e-02,-5.70360e-02,-7.31234e-02,-1.13835e-01,-1.81077e-01,-1.27210e-01,1.13918e-01,-6.47821e-02,-1.93373e-01,7.88799e-02,1.47678e-01,3.76336e-02,8.30718e-04,8.21007e-02,7.60209e-02,1.33958e-01,-1.17738e-01,1.58830e-01,5.42848e-02,-3.47791e-02,-9.71493e-03,3.03099e-02,9.36091e-02,7.04999e-02,-7.90615e-02,1.26078e-01,-7.13422e-03,7.47452e-02,7.96634e-02,7.33788e-02,-1.81862e-01,-5.24595e-02,-9.58622e-02,1.25889e-02,6.36401e-02,-4.29716e-02,7.30493e-02,-1.70592e-02,1.07718e-01,-1.37508e-02,-1.23994e-01,6.47264e-03,-1.56422e-01,-5.66121e-02,-1.24949e-02,7.62206e-02,3.83977e-02,-1.63848e-01,-4.23844e-03,5.30003e-02,-2.71487e-02,-9.27248e-02,-3.22183e-02,6.32007e-02,3.77094e-03,8.79913e-02,9.01103e-02,1.04049e-01,1.20013e-03,1.34900e-01,7.54130e-02,2.76424e-02,1.23099e-01,7.12663e-02,7.13514e-02,-1.26901e-02,-1.09669e-01,1.26968e-01,1.15079e-02,-3.66439e-02,4.89663e-02,-5.02477e-02,-3.13504e-02,-3.67817e-02,1.73305e-01,1.18120e-01,-1.06817e-02,5.07739e-03,6.90150e-03,-1.45296e-01,-1.25049e-01,-1.49193e-01,2.35237e-02,-2.62097e-02,-5.71949e-02,1.37812e-01,-6.14133e-02,-2.25502e-02,-1.37900e-01,-7.13398e-02,-6.26286e-02,1.73822e-01,6.72047e-02,-5.20920e-02,-5.90708e-02,6.26935e-02,1.20666e-01,2.18035e-01,1.77958e-01,8.35684e-02,2.37623e-02,1.24622e-01,3.73838e-02,6.48559e-02,2.17121e-01,6.99448e-02,4.59231e-02,2.03740e-01,-7.58065e-02,-5.58561e-03,-7.43750e-02,2.77696e-02,7.21336e-04,2.82307e-02,2.38046e-02,-1.01609e-01,6.72862e-02,1.53025e-01,3.03745e-03,-2.89889e-02,1.43777e-01,-8.52279e-02,-3.59498e-02,-1.71910e-02,1.53757e-01,-1.29700e-01,-1.24321e-01,4.97006e-02,5.74784e-02,-2.16474e-01,3.75895e-02,8.02252e-02,1.19981e-02,3.34573e-02,3.45893e-02,1.18132e-01,2.49173e-02,-1.17006e-01,-1.08248e-01,5.00001e-02,1.91809e-01,6.50319e-02,-9.44322e-02,8.71981e-03,1.89069e-02,1.60929e-01,-2.85632e-02,-1.53296e-01,1.44368e-01,2.50298e-02,7.64669e-02,9.94674e-03,-4.68836e-02,-1.07294e-01,-1.17386e-01,-1.28104e-01,-1.35342e-01,-3.54551e-03,-2.93536e-02,-1.70743e-01,-1.71783e-02,8.42742e-03,1.13041e-02,1.01740e-01,5.61584e-02,1.87581e-01,1.77691e-01,-8.06470e-02,1.15987e-01,3.47992e-02,4.77695e-02,-8.95969e-02,1.54521e-01,9.90913e-02,4.74067e-02,-2.37298e-02,7.98604e-02,-1.22410e-01,-4.93155e-03,-2.66497e-02,1.72296e-01,8.92897e-02,-4.63884e-02,4.88031e-02,1.60390e-01,1.16058e-01,6.36021e-02,1.17038e-01,2.57802e-01,1.11923e-01,7.42413e-02,1.73005e-01,-3.36888e-02,9.55625e-03,-3.61254e-02,-2.72739e-02,-2.31080e-01,-1.14943e-01,-9.12496e-03,-8.80987e-02,-8.16203e-04,1.08664e-01,1.17763e-01,2.41833e-02,8.24602e-02,-4.60110e-02,9.93863e-02,7.61619e-02,2.69875e-04,-6.88880e-02,9.04559e-02,6.32001e-02,-1.70984e-01,-1.63159e-01,7.29740e-02,3.62067e-02,-9.96392e-02,7.50601e-05,1.09826e-02,1.83909e-01,8.82826e-02,5.54541e-02,4.35586e-02,1.20062e-02,1.85705e-01,-4.94145e-03,-1.13138e-01,-2.92732e-02,2.51036e-01,2.07368e-02,-6.84320e-02,1.54060e-01,1.46834e-01,-3.49268e-03,-1.19538e-01,1.90126e-01,5.24085e-02,6.13133e-02,-8.59865e-02,2.14280e-02,-6.70755e-02,-6.05677e-02,1.53244e-01,-1.24572e-01,2.10179e-02,6.70070e-02,1.19459e-01,9.75870e-02,8.19784e-02,1.30462e-01,2.36303e-02,3.53048e-03,3.70271e-02,-6.92500e-02,-6.45875e-02,-9.04984e-02,-7.86070e-02,1.53270e-01,4.27135e-02,-9.22032e-02,3.37598e-02,-8.02791e-02,1.08775e-01,-2.42056e-02,-5.19446e-02,1.54465e-01,1.64050e-01,1.62281e-01,2.45081e-01,1.38573e-01,1.50469e-01,1.65662e-01,4.09208e-02,8.33038e-03,4.31313e-02,-9.38364e-02,1.04949e-01,-1.61295e-01,1.11052e-01,-2.37986e-01,-1.27139e-01,-1.29306e-02,-6.33631e-02,-2.56267e-01,3.45111e-02,-2.37939e-02,-1.30700e-01,4.88545e-02,4.29357e-02,1.33363e-01,1.28125e-01,-2.85941e-02,-3.82739e-02,3.35434e-02,-6.84428e-02,1.30233e-01,1.83213e-01,7.68527e-03,-1.78754e-02,-1.37450e-01,-3.10083e-02,-4.76958e-02,6.23243e-02,1.08256e-01,-1.40751e-02,3.38008e-02,4.07960e-02,1.25144e-02,-5.46089e-02,1.14141e-01,1.37039e-01,2.57205e-02,8.49047e-02,1.47297e-01,-9.90255e-03,9.86438e-02,1.12237e-01,9.70630e-02,1.04103e-01,5.03674e-02,-1.93571e-03,1.43386e-01,9.75379e-02,7.73772e-02,2.00986e-02,-7.56724e-03,1.40437e-01,5.58671e-02,-6.68207e-02,1.20093e-01,1.80786e-01,-1.07683e-01,2.07073e-02,-8.47363e-02,2.04989e-01,1.01253e-02,1.98840e-02,-6.03397e-02,3.13234e-03,5.98804e-02,1.79941e-02,1.34826e-01,4.11814e-03,1.17775e-01,3.50738e-02,2.06155e-01,1.94345e-02,1.29325e-01,-1.60784e-02,1.87911e-01,1.00848e-01,1.37762e-01,3.75817e-03,8.72449e-02,9.39256e-02,-5.64069e-02,-1.29461e-02,3.07053e-02,-4.90573e-02,-1.67765e-01,-1.77659e-01,1.82640e-02,-1.19421e-01,-1.56116e-01,-1.12693e-01,-1.54607e-01,-7.29985e-02,-7.65502e-02,-1.22440e-01,1.14871e-01,-2.27205e-02,3.81173e-03,6.68153e-02,1.28655e-01,2.09666e-01,-1.06818e-01,-9.03498e-03,5.55541e-02,-6.30571e-02,-1.34743e-01,-5.43202e-02,1.13227e-01,-4.79955e-02,-7.67873e-02,8.87676e-02,1.29545e-01,-5.01688e-02,-7.20903e-02,1.22236e-02,-3.69891e-02,1.60035e-02,9.40607e-02,1.04552e-01,2.98033e-02,8.96457e-02,3.42114e-02,-3.69051e-02,5.13452e-02,4.40125e-03,3.93299e-02,-3.34499e-02,-6.63527e-02,8.19718e-02,1.82618e-01,-9.19713e-02,1.63091e-02,9.09016e-02,-3.01505e-02,1.69673e-01,-4.85469e-02,5.40423e-02,8.84685e-02,7.17742e-02,-4.40254e-02,-3.13721e-02,-1.59463e-01,-1.11782e-01,-8.09021e-02,9.54143e-02,7.29379e-02,3.41705e-03,5.88460e-02,1.72860e-01,1.35786e-01,9.80808e-03,5.30555e-02,1.47115e-01,-5.78030e-02,1.02292e-01,2.26138e-01,9.56660e-02,1.62165e-01,1.75621e-02,9.52625e-02,-1.02505e-02,1.88031e-01,6.97730e-02,3.62806e-02,6.49820e-02,1.93854e-01,3.71541e-02,1.20441e-01,1.02471e-01,1.98544e-01,-1.95616e-01,6.28742e-02,1.73868e-02,-3.81916e-02,8.00832e-02,-4.43395e-02,-2.35122e-02,9.69369e-02,-1.23212e-01,-7.85005e-02,-1.09935e-03,7.63112e-02,-2.93818e-02,-7.44756e-02,-1.14915e-01,5.90069e-02,-1.18718e-01,1.34932e-01,8.36691e-02,-1.69791e-02,5.36675e-02,5.90548e-02,-1.84556e-02,-9.52275e-02,3.48890e-02,6.70587e-02,4.29663e-02,1.51291e-01,5.71295e-03,1.30405e-01,7.49870e-02,2.00896e-01,1.39526e-01,6.64940e-02,-3.27781e-02,2.63859e-02,1.04807e-02,1.57339e-01,8.15118e-02,-7.08598e-03,1.76908e-02,-4.81843e-02,1.48834e-01,1.14149e-01,-1.18021e-01,1.33048e-01,1.56121e-01,4.66199e-02,-1.16062e-02,7.83079e-02,3.76772e-02,-5.20390e-04,1.30341e-02,-8.90837e-03,7.31170e-02,1.15576e-01,-3.36752e-02,-3.74384e-02,2.10947e-01,3.04299e-02,9.26787e-02,8.62799e-02,-1.18533e-02,5.89653e-02,-7.93022e-02,-1.10405e-01,1.59912e-01,6.35622e-02,-7.68310e-02,1.04141e-01,2.33991e-02,-5.76528e-02,5.91923e-02,7.11464e-02,1.43962e-01,1.53212e-03,1.66545e-02,-9.74380e-02,-3.08998e-02,5.76225e-02,-6.92900e-02,3.51610e-02,-3.77454e-02,-1.01447e-02,9.40742e-02,2.92913e-03,1.86828e-02,-9.66216e-03,-1.50769e-01,-8.65994e-02,8.34507e-02,9.15784e-02,-6.57447e-02,-9.31687e-02,1.52734e-01,-2.48977e-02,-1.46268e-02,-7.50683e-03,-7.74365e-02,-1.17917e-01,-1.36845e-01,-5.64494e-02,-2.02964e-03,-9.31612e-03,-1.17983e-01,-4.08979e-03,7.07435e-02,-5.53541e-02,4.96146e-02,1.05912e-01,9.04555e-02,-3.17545e-02,8.39103e-02,5.27283e-02,9.15641e-02,2.38829e-01,-2.12095e-02,-1.20145e-01,4.60781e-02,-6.09586e-02,1.37828e-01,-6.34569e-02,2.13234e-01,-5.53549e-02,1.66221e-01,-7.63207e-02,6.93763e-02,1.10885e-01,-1.14458e-01,-3.11679e-02,8.87183e-02,-4.75990e-02,-2.94120e-02,-4.37916e-02,1.69993e-01,7.42306e-02,5.18279e-02,5.93233e-02,6.17015e-02,1.39539e-01,1.75419e-01,8.80933e-02,-1.21594e-01,-3.61233e-02,-1.11722e-01,1.02956e-01,1.63193e-02,-8.64303e-02,-2.58590e-02,-1.58292e-02,-4.21629e-02,4.58356e-02,7.81526e-02,7.69312e-02,1.36363e-01,9.20676e-03,1.01105e-01,4.83271e-02,1.40843e-01,1.48548e-01,5.72156e-02,1.02025e-01,3.93906e-02,-1.82513e-02,1.20829e-03,1.70861e-01,1.58014e-01,1.42235e-01,-4.35505e-02,-7.18905e-02,2.18298e-01,7.53779e-02,-3.17458e-02,4.81500e-02,1.12232e-01,-3.07305e-02,-3.78083e-02,5.63118e-02,-5.33272e-02,-8.80234e-02,-5.84886e-02,8.18582e-02,5.42297e-02,1.17500e-01,2.15464e-01,2.04187e-01,-5.75087e-02,-3.12592e-02,-3.61518e-02,-2.58987e-02,1.04970e-01,1.06009e-01,6.15063e-02,-6.38321e-02,8.60784e-02,-1.37971e-01,9.53876e-02,-1.73174e-02,-5.57051e-02,7.52166e-02,1.41075e-01,1.00783e-01,7.18837e-02,-9.88422e-03,-9.13574e-02,1.95589e-02,4.75083e-03,4.85897e-02,2.60871e-02,1.24346e-02,-4.65712e-02,7.44241e-04,3.80531e-02,-4.67637e-02,-8.23315e-02,3.09806e-02,-1.70111e-02,2.00057e-01,-9.26450e-02,6.93674e-02,-7.72127e-02,1.63265e-01,-3.78725e-02,1.20860e-01,2.02939e-02,2.98000e-02,-5.98647e-02,3.24659e-02,8.33258e-02,-1.65100e-01,-9.99500e-02,-1.29511e-01,1.28170e-01,8.66807e-02,5.58117e-02,-2.29966e-02,5.27270e-02,7.73586e-02,-1.72599e-01,-9.33089e-02,1.69438e-02,-9.30155e-02,-3.58143e-02,-3.44117e-02,3.53698e-02,6.16036e-02,-4.71479e-02,2.16385e-01,9.01723e-03,1.46029e-01,1.11247e-01,-7.97722e-02,-5.72276e-02,1.32208e-01,6.91415e-02,6.65671e-02,1.78313e-02,4.30536e-02,