// Neural Network File Format by Kyle Julian, Stanford 2016
3,2352,10,2352,
2352,20,20,20,
0,
0,0,0,0,0,0,0,0,0,0,0,0,0,0,0,0,0,0,0,0,0,0,0,0,0,0,0,0,0,0,0,0,0,0,0,0,0,0,0,0,0,0,0,0,0,0,0,0,0,0,0,0,0,0,0,0,0,0,0,0,0,0,0,0,0,0,0,0,0,0,0,0,0,0,0,0,0,0,0,0,0,0,0,0,0,0,0,0,0,0,0,0,0,0,0,0,0,0,0,0,0,0,0,0,0,0,0,0,0,0,0,0,0,0,0,0,0,0,0,0,0,0,0,0,0,0,0,0,0,0,0,0,0,0,0,0,0,0,0,0,0,0,0,0,0,0,0,0,0,0,0,0,0,0,0,0,0,0,0,0,0,0,0,0,0,0,0,0,0,0,0,0,0,0,0,0,0,0,0,0,0,0,0,0,0,0,0,0,0,0,0,0,0,0,0,0,0,0,0,0,0,0,0,0,0,0,0,0,0,0,0,0,0,0,0,0,0,0,0,0,0,0,0,0,0,0,0,0,0,0,0,0,0,0,0,0,0,0,0,0,0,0,0,0,0,0,0,0,0,0,0,0,0,0,0,0,0,0,0,0,0,0,0,0,0,0,0,0,0,0,0,0,0,0,0,0,0,0,0,0,0,0,0,0,0,0,0,0,0,0,0,0,0,0,0,0,0,0,0,0,0,0,0,0,0,0,0,0,0,0,0,0,0,0,0,0,0,0,0,0,0,0,0,0,0,0,0,0,0,0,0,0,0,0,0,0,0,0,0,0,0,0,0,0,0,0,0,0,0,0,0,0,0,0,0,0,0,0,0,0,0,0,0,0,0,0,0,0,0,0,0,0,0,0,0,0,0,0,0,0,0,0,0,0,0,0,0,0,0,0,0,0,0,0,0,0,0,0,0,0,0,0,0,0,0,0,0,0,0,0,0,0,0,0,0,0,0,0,0,0,0,0,0,0,0,0,0,0,0,0,0,0,0,0,0,0,0,0,0,0,0,0,0,0,0,0,0,0,0,0,0,0,0,0,0,0,0,0,0,0,0,0,0,0,0,0,0,0,0,0,0,0,0,0,0,0,0,0,0,0,0,0,0,0,0,0,0,0,0,0,0,0,0,0,0,0,0,0,0,0,0,0,0,0,0,0,0,0,0,0,0,0,0,0,0,0,0,0,0,0,0,0,0,0,0,0,0,0,0,0,0,0,0,0,0,0,0,0,0,0,0,0,0,0,0,0,0,0,0,0,0,0,0,0,0,0,0,0,0,0,0,0,0,0,0,0,0,0,0,0,0,0,0,0,0,0,0,0,0,0,0,0,0,0,0,0,0,0,0,0,0,0,0,0,0,0,0,0,0,0,0,0,0,0,0,0,0,0,0,0,0,0,0,0,0,0,0,0,0,0,0,0,0,0,0,0,0,0,0,0,0,0,0,0,0,0,0,0,0,0,0,0,0,0,0,0,0,0,0,0,0,0,0,0,0,0,0,0,0,0,0,0,0,0,0,0,0,0,0,0,0,0,0,0,0,0,0,0,0,0,0,0,0,0,0,0,0,0,0,0,0,0,0,0,0,0,0,0,0,0,0,0,0,0,0,0,0,0,0,0,0,0,0,0,0,0,0,0,0,0,0,0,0,0,0,0,0,0,0,0,0,0,0,0,0,0,0,0,0,0,0,0,0,0,0,0,0,0,0,0,0,0,0,0,0,0,0,0,0,0,0,0,0,0,0,0,0,0,0,0,0,0,0,0,0,0,0,0,0,0,0,0,0,0,0,0,0,0,0,0,0,0,0,0,0,0,0,0,0,0,0,0,0,0,0,0,0,0,0,0,0,0,0,0,0,0,0,0,0,0,0,0,0,0,0,0,0,0,0,0,0,0,0,0,0,0,0,0,0,0,0,0,0,0,0,0,0,0,0,0,0,0,0,0,0,0,0,0,0,0,0,0,0,0,0,0,0,0,0,0,0,0,0,0,0,0,0,0,0,0,0,0,0,0,0,0,0,0,0,0,0,0,0,0,0,0,0,0,0,0,0,0,0,0,0,0,0,0,0,0,0,0,0,0,0,0,0,0,0,0,0,0,0,0,0,0,0,0,0,0,0,0,0,0,0,0,0,0,0,0,0,0,0,0,0,0,0,0,0,0,0,0,0,0,0,0,0,0,0,0,0,0,0,0,0,0,0,0,0,0,0,0,0,0,0,0,0,0,0,0,0,0,0,0,0,0,0,0,0,0,0,0,0,0,0,0,0,0,0,0,0,0,0,0,0,0,0,0,0,0,0,0,0,0,0,0,0,0,0,0,0,0,0,0,0,0,0,0,0,0,0,0,0,0,0,0,0,0,0,0,0,0,0,0,0,0,0,0,0,0,0,0,0,0,0,0,0,0,0,0,0,0,0,0,0,0,0,0,0,0,0,0,0,0,0,0,0,0,0,0,0,0,0,0,0,0,0,0,0,0,0,0,0,0,0,0,0,0,0,0,0,0,0,0,0,0,0,0,0,0,0,0,0,0,0,0,0,0,0,0,0,0,0,0,0,0,0,0,0,0,0,0,0,0,0,0,0,0,0,0,0,0,0,0,0,0,0,0,0,0,0,0,0,0,0,0,0,0,0,0,0,0,0,0,0,0,0,0,0,0,0,0,0,0,0,0,0,0,0,0,0,0,0,0,0,0,0,0,0,0,0,0,0,0,0,0,0,0,0,0,0,0,0,0,0,0,0,0,0,0,0,0,0,0,0,0,0,0,0,0,0,0,0,0,0,0,0,0,0,0,0,0,0,0,0,0,0,0,0,0,0,0,0,0,0,0,0,0,0,0,0,0,0,0,0,0,0,0,0,0,0,0,0,0,0,0,0,0,0,0,0,0,0,0,0,0,0,0,0,0,0,0,0,0,0,0,0,0,0,0,0,0,0,0,0,0,0,0,0,0,0,0,0,0,0,0,0,0,0,0,0,0,0,0,0,0,0,0,0,0,0,0,0,0,0,0,0,0,0,0,0,0,0,0,0,0,0,0,0,0,0,0,0,0,0,0,0,0,0,0,0,0,0,0,0,0,0,0,0,0,0,0,0,0,0,0,0,0,0,0,0,0,0,0,0,0,0,0,0,0,0,0,0,0,0,0,0,0,0,0,0,0,0,0,0,0,0,0,0,0,0,0,0,0,0,0,0,0,0,0,0,0,0,0,0,0,0,0,0,0,0,0,0,0,0,0,0,0,0,0,0,0,0,0,0,0,0,0,0,0,0,0,0,0,0,0,0,0,0,0,0,0,0,0,0,0,0,0,0,0,0,0,0,0,0,0,0,0,0,0,0,0,0,0,0,0,0,0,0,0,0,0,0,0,0,0,0,0,0,0,0,0,0,0,0,0,0,0,0,0,0,0,0,0,0,0,0,0,0,0,0,0,0,0,0,0,0,0,0,0,0,0,0,0,0,0,0,0,0,0,0,0,0,0,0,0,0,0,0,0,0,0,0,0,0,0,0,0,0,0,0,0,0,0,0,0,0,0,0,0,0,0,0,0,0,0,0,0,0,0,0,0,0,0,0,0,0,0,0,0,0,0,0,0,0,0,0,0,0,0,0,0,0,0,0,0,0,0,0,0,0,0,0,0,0,0,0,0,0,0,0,0,0,0,0,0,0,0,0,0,0,0,0,0,0,0,0,0,0,0,0,0,0,0,0,0,0,0,0,0,0,0,0,0,0,0,0,0,0,0,0,0,0,0,0,0,0,0,0,0,0,0,0,0,0,0,0,0,0,0,0,0,0,0,0,0,0,0,0,0,0,0,0,0,0,0,0,0,0,0,0,0,0,0,0,0,0,0,0,0,0,0,0,0,0,0,0,0,0,0,0,0,0,0,0,0,0,0,0,0,0,0,0,0,0,0,0,0,0,0,0,0,0,0,0,0,0,0,0,0,0,0,0,0,0,0,0,0,0,0,0,0,0,0,0,0,0,0,0,0,0,0,0,0,0,0,0,0,0,0,0,0,0,0,0,0,0,0,0,0,0,0,0,0,0,0,0,0,0,0,0,0,0,0,0,0,0,0,0,0,0,0,0,0,0,0,0,0,0,0,0,0,0,0,0,0,0,0,0,0,0,0,0,0,0,0,0,0,0,0,0,0,0,0,0,0,0,0,0,0,0,0,0,0,0,0,0,0,0,0,0,0,0,0,0,0,0,0,0,0,0,0,0,0,0,0,0,0,0,0,0,0,0,0,0,0,0,0,0,0,0,0,0,0,0,0,0,0,0,0,0,0,0,0,0,0,0,0,0,0,0,0,0,0,0,0,0,0,0,0,0,0,0,0,0,0,0,0,0,0,0,0,0,0,0,0,0,0,0,0,0,0,0,0,0,0,0,0,0,0,0,0,0,0,0,0,0,0,0,0,0,0,0,0,0,0,0,0,0,0,0,0,0,0,0,0,0,0,0,0,0,0,0,0,0,0,0,0,0,0,0,0,0,0,0,0,0,0,0,0,0,0,0,0,0,0,0,0,0,0,0,0,0,0,0,0,0,0,0,0,0,0,0,0,0,0,0,0,0,0,0,0,0,0,0,0,0,0,0,0,0,0,0,0,0,0,0,0,0,0,0,0,0,0,0,0,0,0,0,0,0,0,0,0,0,0,0,0,0,0,0,0,0,0,0,0,0,0,0,0,0,0,0,0,0,0,0,0,0,0,0,0,0,0,0,0,0,0,0,0,0,0,0,0,0,0,0,0,0,0,0,0,0,0,0,0,0,0,0,0,0,0,0,0,0,0,0,0,0,0,0,0,0,0,0,0,0,0,0,0,0,0,0,0,0,0,0,0,0,0,0,0,0,0,0,0,0,0,0,0,0,0,0,0,0,0,0,0,0,0,0,0,0,0,0,0,0,0,0,0,0,0,0,0,0,0,0,0,0,0,0,0,0,0,0,0,0,0,0,0,0,0,0,0,0,0,0,0,0,0,0,0,0,0,0,0,0,0,0,0,0,0,0,0,0,0,0,0,0,0,0,0,0,0,0,0,0,0,0,0,0,0,0,0,0,0,0,0,0,0,0,0,0,0,0,0,0,0,0,0,0,0,0,0,0,0,0,0,0,0,0,0,0,0,0,0,0,0,0,0,0,0,0,0,0,0,0,0,0,0,0,0,0,0,0,0,0,0,0,0,0,0,0,0,0,0,0,0,0,0,0,0,0,0,0,0,0,0,0,0,0,0,0,0,0,0,0,0,0,0,0,0,0,0,0,0,0,0,0,0,0,0,0,0,0,0,0,0,0,0,0,0,0,0,0,0,0,0,0,0,0,0,
255.0,255.0,255.0,255.0,255.0,255.0,255.0,255.0,255.0,255.0,255.0,255.0,255.0,255.0,255.0,255.0,255.0,255.0,255.0,255.0,255.0,255.0,255.0,255.0,255.0,255.0,255.0,255.0,255.0,255.0,255.0,255.0,255.0,255.0,255.0,255.0,255.0,255.0,255.0,255.0,255.0,255.0,255.0,255.0,255.0,255.0,255.0,255.0,255.0,255.0,255.0,255.0,255.0,255.0,255.0,255.0,255.0,255.0,255.0,255.0,255.0,255.0,255.0,255.0,255.0,255.0,255.0,255.0,255.0,255.0,255.0,255.0,255.0,255.0,255.0,255.0,255.0,255.0,255.0,255.0,255.0,255.0,255.0,255.0,255.0,255.0,255.0,255.0,255.0,255.0,255.0,255.0,255.0,255.0,255.0,255.0,255.0,255.0,255.0,255.0,255.0,255.0,255.0,255.0,255.0,255.0,255.0,255.0,255.0,255.0,255.0,255.0,255.0,255.0,255.0,255.0,255.0,255.0,255.0,255.0,255.0,255.0,255.0,255.0,255.0,255.0,255.0,255.0,255.0,255.0,255.0,255.0,255.0,255.0,255.0,255.0,255.0,255.0,255.0,255.0,255.0,255.0,255.0,255.0,255.0,255.0,255.0,255.0,255.0,255.0,255.0,255.0,255.0,255.0,255.0,255.0,255.0,255.0,255.0,255.0,255.0,255.0,255.0,255.0,255.0,255.0,255.0,255.0,255.0,255.0,255.0,255.0,255.0,255.0,255.0,255.0,255.0,255.0,255.0,255.0,255.0,255.0,255.0,255.0,255.0,255.0,255.0,255.0,255.0,255.0,255.0,255.0,255.0,255.0,255.0,255.0,255.0,255.0,255.0,255.0,255.0,255.0,255.0,255.0,255.0,255.0,255.0,255.0,255.0,255.0,255.0,255.0,255.0,255.0,255.0,255.0,255.0,255.0,255.0,255.0,255.0,255.0,255.0,255.0,255.0,255.0,255.0,255.0,255.0,255.0,255.0,255.0,255.0,255.0,255.0,255.0,255.0,255.0,255.0,255.0,255.0,255.0,255.0,255.0,255.0,255.0,255.0,255.0,255.0,255.0,255.0,255.0,255.0,255.0,255.0,255.0,255.0,255.0,255.0,255.0,255.0,255.0,255.0,255.0,255.0,255.0,255.0,255.0,255.0,255.0,255.0,255.0,255.0,255.0,255.0,255.0,255.0,255.0,255.0,255.0,255.0,255.0,255.0,255.0,255.0,255.0,255.0,255.0,255.0,255.0,255.0,255.0,255.0,255.0,255.0,255.0,255.0,255.0,255.0,255.0,255.0,255.0,255.0,255.0,255.0,255.0,255.0,255.0,255.0,255.0,255.0,255.0,255.0,255.0,255.0,255.0,255.0,255.0,255.0,255.0,255.0,255.0,255.0,255.0,255.0,255.0,255.0,255.0,255.0,255.0,255.0,255.0,255.0,255.0,255.0,255.0,255.0,255.0,255.0,255.0,255.0,255.0,255.0,255.0,255.0,255.0,255.0,255.0,255.0,255.0,255.0,255.0,255.0,255.0,255.0,255.0,255.0,255.0,255.0,255.0,255.0,255.0,255.0,255.0,255.0,255.0,255.0,255.0,255.0,255.0,255.0,255.0,255.0,255.0,255.0,255.0,255.0,255.0,255.0,255.0,255.0,255.0,255.0,255.0,255.0,255.0,255.0,255.0,255.0,255.0,255.0,255.0,255.0,255.0,255.0,255.0,255.0,255.0,255.0,255.0,255.0,255.0,255.0,255.0,255.0,255.0,255.0,255.0,255.0,255.0,255.0,255.0,255.0,255.0,255.0,255.0,255.0,255.0,255.0,255.0,255.0,255.0,255.0,255.0,255.0,255.0,255.0,255.0,255.0,255.0,255.0,255.0,255.0,255.0,255.0,255.0,255.0,255.0,255.0,255.0,255.0,255.0,255.0,255.0,255.0,255.0,255.0,255.0,255.0,255.0,255.0,255.0,255.0,255.0,255.0,255.0,255.0,255.0,255.0,255.0,255.0,255.0,255.0,255.0,255.0,255.0,255.0,255.0,255.0,255.0,255.0,255.0,255.0,255.0,255.0,255.0,255.0,255.0,255.0,255.0,255.0,255.0,255.0,255.0,255.0,255.0,255.0,255.0,255.0,255.0,255.0,255.0,255.0,255.0,255.0,255.0,255.0,255.0,255.0,255.0,255.0,255.0,255.0,255.0,255.0,255.0,255.0,255.0,255.0,255.0,255.0,255.0,255.0,255.0,255.0,255.0,255.0,255.0,255.0,255.0,255.0,255.0,255.0,255.0,255.0,255.0,255.0,255.0,255.0,255.0,255.0,255.0,255.0,255.0,255.0,255.0,255.0,255.0,255.0,255.0,255.0,255.0,255.0,255.0,255.0,255.0,255.0,255.0,255.0,255.0,255.0,255.0,255.0,255.0,255.0,255.0,255.0,255.0,255.0,255.0,255.0,255.0,255.0,255.0,255.0,255.0,255.0,255.0,255.0,255.0,255.0,255.0,255.0,255.0,255.0,255.0,255.0,255.0,255.0,255.0,255.0,255.0,255.0,255.0,255.0,255.0,255.0,255.0,255.0,255.0,255.0,255.0,255.0,255.0,255.0,255.0,255.0,255.0,255.0,255.0,255.0,255.0,255.0,255.0,255.0,255.0,255.0,255.0,255.0,255.0,255.0,255.0,255.0,255.0,255.0,255.0,255.0,255.0,255.0,255.0,255.0,255.0,255.0,255.0,255.0,255.0,255.0,255.0,255.0,255.0,255.0,255.0,255.0,255.0,255.0,255.0,255.0,255.0,255.0,255.0,255.0,255.0,255.0,255.0,255.0,255.0,255.0,255.0,255.0,255.0,255.0,255.0,255.0,255.0,255.0,255.0,255.0,255.0,255.0,255.0,255.0,255.0,255.0,255.0,255.0,255.0,255.0,255.0,255.0,255.0,255.0,255.0,255.0,255.0,255.0,255.0,255.0,255.0,255.0,255.0,255.0,255.0,255.0,255.0,255.0,255.0,255.0,255.0,255.0,255.0,255.0,255.0,255.0,255.0,255.0,255.0,255.0,255.0,255.0,255.0,255.0,255.0,255.0,255.0,255.0,255.0,255.0,255.0,255.0,255.0,255.0,255.0,255.0,255.0,255.0,255.0,255.0,255.0,255.0,255.0,255.0,255.0,255.0,255.0,255.0,255.0,255.0,255.0,255.0,255.0,255.0,255.0,255.0,255.0,255.0,255.0,255.0,255.0,255.0,255.0,255.0,255.0,255.0,255.0,255.0,255.0,255.0,255.0,255.0,255.0,255.0,255.0,255.0,255.0,255.0,255.0,255.0,255.0,255.0,255.0,255.0,255.0,255.0,255.0,255.0,255.0,255.0,255.0,255.0,255.0,255.0,255.0,255.0,255.0,255.0,255.0,255.0,255.0,255.0,255.0,255.0,255.0,255.0,255.0,255.0,255.0,255.0,255.0,255.0,255.0,255.0,255.0,255.0,255.0,255.0,255.0,255.0,255.0,255.0,255.0,255.0,255.0,255.0,255.0,255.0,255.0,255.0,255.0,255.0,255.0,255.0,255.0,255.0,255.0,255.0,255.0,255.0,255.0,255.0,255.0,255.0,255.0,255.0,255.0,255.0,255.0,255.0,255.0,255.0,255.0,255.0,255.0,255.0,255.0,255.0,255.0,255.0,255.0,255.0,255.0,255.0,255.0,255.0,255.0,255.0,255.0,255.0,255.0,255.0,255.0,255.0,255.0,255.0,255.0,255.0,255.0,255.0,255.0,255.0,255.0,255.0,255.0,255.0,255.0,255.0,255.0,255.0,255.0,255.0,255.0,255.0,255.0,255.0,255.0,255.0,255.0,255.0,255.0,255.0,255.0,255.0,255.0,255.0,255.0,255.0,255.0,255.0,255.0,255.0,255.0,255.0,255.0,255.0,255.0,255.0,255.0,255.0,255.0,255.0,255.0,255.0,255.0,255.0,255.0,255.0,255.0,255.0,255.0,255.0,255.0,255.0,255.0,255.0,255.0,255.0,255.0,255.0,255.0,255.0,255.0,255.0,255.0,255.0,255.0,255.0,255.0,255.0,255.0,255.0,255.0,255.0,255.0,255.0,255.0,255.0,255.0,255.0,255.0,255.0,255.0,255.0,255.0,255.0,255.0,255.0,255.0,255.0,255.0,255.0,255.0,255.0,255.0,255.0,255.0,255.0,255.0,255.0,255.0,255.0,255.0,255.0,255.0,255.0,255.0,255.0,255.0,255.0,255.0,255.0,255.0,255.0,255.0,255.0,255.0,255.0,255.0,255.0,255.0,255.0,255.0,255.0,255.0,255.0,255.0,255.0,255.0,255.0,255.0,255.0,255.0,255.0,255.0,255.0,255.0,255.0,255.0,255.0,255.0,255.0,255.0,255.0,255.0,255.0,255.0,255.0,255.0,255.0,255.0,255.0,255.0,255.0,255.0,255.0,255.0,255.0,255.0,255.0,255.0,255.0,255.0,255.0,255.0,255.0,255.0,255.0,255.0,255.0,255.0,255.0,255.0,255.0,255.0,255.0,255.0,255.0,255.0,255.0,255.0,255.0,255.0,255.0,255.0,255.0,255.0,255.0,255.0,255.0,255.0,255.0,255.0,255.0,255.0,255.0,255.0,255.0,255.0,255.0,255.0,255.0,255.0,255.0,255.0,255.0,255.0,255.0,255.0,255.0,255.0,255.0,255.0,255.0,255.0,255.0,255.0,255.0,255.0,255.0,255.0,255.0,255.0,255.0,255.0,255.0,255.0,255.0,255.0,255.0,255.0,255.0,255.0,255.0,255.0,255.0,255.0,255.0,255.0,255.0,255.0,255.0,255.0,255.0,255.0,255.0,255.0,255.0,255.0,255.0,255.0,255.0,255.0,255.0,255.0,255.0,255.0,255.0,255.0,255.0,255.0,255.0,255.0,255.0,255.0,255.0,255.0,255.0,255.0,255.0,255.0,255.0,255.0,255.0,255.0,255.0,255.0,255.0,255.0,255.0,255.0,255.0,255.0,255.0,255.0,255.0,255.0,255.0,255.0,255.0,255.0,255.0,255.0,255.0,255.0,255.0,255.0,255.0,255.0,255.0,255.0,255.0,255.0,255.0,255.0,255.0,255.0,255.0,255.0,255.0,255.0,255.0,255.0,255.0,255.0,255.0,255.0,255.0,255.0,255.0,255.0,255.0,255.0,255.0,255.0,255.0,255.0,255.0,255.0,255.0,255.0,255.0,255.0,255.0,255.0,255.0,255.0,255.0,255.0,255.0,255.0,255.0,255.0,255.0,255.0,255.0,255.0,255.0,255.0,255.0,255.0,255.0,255.0,255.0,255.0,255.0,255.0,255.0,255.0,255.0,255.0,255.0,255.0,255.0,255.0,255.0,255.0,255.0,255.0,255.0,255.0,255.0,255.0,255.0,255.0,255.0,255.0,255.0,255.0,255.0,255.0,255.0,255.0,255.0,255.0,255.0,255.0,255.0,255.0,255.0,255.0,255.0,255.0,255.0,255.0,255.0,255.0,255.0,255.0,255.0,255.0,255.0,255.0,255.0,255.0,255.0,255.0,255.0,255.0,255.0,255.0,255.0,255.0,255.0,255.0,255.0,255.0,255.0,255.0,255.0,255.0,255.0,255.0,255.0,255.0,255.0,255.0,255.0,255.0,255.0,255.0,255.0,255.0,255.0,255.0,255.0,255.0,255.0,255.0,255.0,255.0,255.0,255.0,255.0,255.0,255.0,255.0,255.0,255.0,255.0,255.0,255.0,255.0,255.0,255.0,255.0,255.0,255.0,255.0,255.0,255.0,255.0,255.0,255.0,255.0,255.0,255.0,255.0,255.0,255.0,255.0,255.0,255.0,255.0,255.0,255.0,255.0,255.0,255.0,255.0,255.0,255.0,255.0,255.0,255.0,255.0,255.0,255.0,255.0,255.0,255.0,255.0,255.0,255.0,255.0,255.0,255.0,255.0,255.0,255.0,255.0,255.0,255.0,255.0,255.0,255.0,255.0,255.0,255.0,255.0,255.0,255.0,255.0,255.0,255.0,255.0,255.0,255.0,255.0,255.0,255.0,255.0,255.0,255.0,255.0,255.0,255.0,255.0,255.0,255.0,255.0,255.0,255.0,255.0,255.0,255.0,255.0,255.0,255.0,255.0,255.0,255.0,255.0,255.0,255.0,255.0,255.0,255.0,255.0,255.0,255.0,255.0,255.0,255.0,255.0,255.0,255.0,255.0,255.0,255.0,255.0,255.0,255.0,255.0,255.0,255.0,255.0,255.0,255.0,255.0,255.0,255.0,255.0,255.0,255.0,255.0,255.0,255.0,255.0,255.0,255.0,255.0,255.0,255.0,255.0,255.0,255.0,255.0,255.0,255.0,255.0,255.0,255.0,255.0,255.0,255.0,255.0,255.0,255.0,255.0,255.0,255.0,255.0,255.0,255.0,255.0,255.0,255.0,255.0,255.0,255.0,255.0,255.0,255.0,255.0,255.0,255.0,255.0,255.0,255.0,255.0,255.0,255.0,255.0,255.0,255.0,255.0,255.0,255.0,255.0,255.0,255.0,255.0,255.0,255.0,255.0,255.0,255.0,255.0,255.0,255.0,255.0,255.0,255.0,255.0,255.0,255.0,255.0,255.0,255.0,255.0,255.0,255.0,255.0,255.0,255.0,255.0,255.0,255.0,255.0,255.0,255.0,255.0,255.0,255.0,255.0,255.0,255.0,255.0,255.0,255.0,255.0,255.0,255.0,255.0,255.0,255.0,255.0,255.0,255.0,255.0,255.0,255.0,255.0,255.0,255.0,255.0,255.0,255.0,255.0,255.0,255.0,255.0,255.0,255.0,255.0,255.0,255.0,255.0,255.0,255.0,255.0,255.0,255.0,255.0,255.0,255.0,255.0,255.0,255.0,255.0,255.0,255.0,255.0,255.0,255.0,255.0,255.0,255.0,255.0,255.0,255.0,255.0,255.0,255.0,255.0,255.0,255.0,255.0,255.0,255.0,255.0,255.0,255.0,255.0,255.0,255.0,255.0,255.0,255.0,255.0,255.0,255.0,255.0,255.0,255.0,255.0,255.0,255.0,255.0,255.0,255.0,255.0,255.0,255.0,255.0,255.0,255.0,255.0,255.0,255.0,255.0,255.0,255.0,255.0,255.0,255.0,255.0,255.0,255.0,255.0,255.0,255.0,255.0,255.0,255.0,255.0,255.0,255.0,255.0,255.0,255.0,255.0,255.0,255.0,255.0,255.0,255.0,255.0,255.0,255.0,255.0,255.0,255.0,255.0,255.0,255.0,255.0,255.0,255.0,255.0,255.0,255.0,255.0,255.0,255.0,255.0,255.0,255.0,255.0,255.0,255.0,255.0,255.0,255.0,255.0,255.0,255.0,255.0,255.0,255.0,255.0,255.0,255.0,255.0,255.0,255.0,255.0,255.0,255.0,255.0,255.0,255.0,255.0,255.0,255.0,255.0,255.0,255.0,255.0,255.0,255.0,255.0,255.0,255.0,255.0,255.0,255.0,255.0,255.0,255.0,255.0,255.0,255.0,255.0,255.0,255.0,255.0,255.0,255.0,255.0,255.0,255.0,255.0,255.0,255.0,255.0,255.0,255.0,255.0,255.0,255.0,255.0,255.0,255.0,255.0,255.0,255.0,255.0,255.0,255.0,255.0,255.0,255.0,255.0,255.0,255.0,255.0,255.0,255.0,255.0,255.0,255.0,255.0,255.0,255.0,255.0,255.0,255.0,255.0,255.0,255.0,255.0,255.0,255.0,255.0,255.0,255.0,255.0,255.0,255.0,255.0,255.0,255.0,255.0,255.0,255.0,255.0,255.0,255.0,255.0,255.0,255.0,255.0,255.0,255.0,255.0,255.0,255.0,255.0,255.0,255.0,255.0,255.0,255.0,255.0,255.0,255.0,255.0,255.0,255.0,255.0,255.0,255.0,255.0,255.0,255.0,255.0,255.0,255.0,255.0,255.0,255.0,255.0,255.0,255.0,255.0,255.0,255.0,255.0,255.0,255.0,255.0,255.0,255.0,255.0,255.0,255.0,255.0,255.0,255.0,255.0,255.0,255.0,255.0,255.0,255.0,255.0,255.0,255.0,255.0,255.0,255.0,255.0,255.0,255.0,255.0,255.0,255.0,255.0,255.0,255.0,255.0,255.0,255.0,255.0,255.0,255.0,255.0,255.0,255.0,255.0,255.0,255.0,255.0,255.0,255.0,255.0,255.0,255.0,255.0,255.0,255.0,255.0,255.0,255.0,255.0,255.0,255.0,255.0,255.0,255.0,255.0,255.0,255.0,255.0,255.0,255.0,255.0,255.0,255.0,255.0,255.0,255.0,255.0,255.0,255.0,255.0,255.0,255.0,255.0,255.0,255.0,255.0,255.0,255.0,255.0,255.0,255.0,255.0,255.0,255.0,255.0,255.0,255.0,255.0,255.0,255.0,255.0,255.0,255.0,255.0,255.0,255.0,255.0,255.0,255.0,255.0,255.0,255.0,255.0,255.0,255.0,255.0,255.0,255.0,255.0,255.0,255.0,255.0,255.0,255.0,255.0,255.0,255.0,255.0,255.0,255.0,255.0,255.0,255.0,255.0,255.0,255.0,255.0,255.0,255.0,255.0,255.0,255.0,255.0,255.0,255.0,255.0,255.0,255.0,255.0,255.0,255.0,255.0,255.0,255.0,255.0,255.0,255.0,255.0,255.0,255.0,255.0,255.0,255.0,255.0,255.0,255.0,255.0,255.0,255.0,255.0,255.0,255.0,255.0,255.0,255.0,255.0,255.0,255.0,255.0,255.0,255.0,255.0,255.0,255.0,255.0,255.0,255.0,255.0,255.0,255.0,255.0,255.0,255.0,255.0,255.0,255.0,255.0,255.0,255.0,255.0,255.0,255.0,255.0,255.0,255.0,255.0,255.0,255.0,255.0,255.0,255.0,255.0,255.0,255.0,255.0,255.0,255.0,255.0,255.0,255.0,255.0,255.0,255.0,255.0,255.0,255.0,255.0,255.0,255.0,255.0,255.0,255.0,255.0,255.0,255.0,255.0,255.0,255.0,255.0,255.0,255.0,255.0,255.0,255.0,255.0,255.0,255.0,255.0,255.0,255.0,255.0,255.0,255.0,255.0,255.0,255.0,255.0,255.0,255.0,255.0,255.0,255.0,255.0,255.0,255.0,255.0,255.0,255.0,255.0,255.0,255.0,255.0,255.0,255.0,255.0,255.0,255.0,255.0,255.0,255.0,255.0,255.0,255.0,255.0,255.0,255.0,255.0,255.0,255.0,255.0,255.0,255.0,255.0,255.0,255.0,255.0,255.0,255.0,255.0,255.0,255.0,255.0,255.0,255.0,255.0,255.0,255.0,255.0,255.0,255.0,255.0,255.0,255.0,255.0,255.0,255.0,255.0,255.0,255.0,255.0,255.0,255.0,255.0,255.0,255.0,255.0,255.0,255.0,255.0,255.0,255.0,255.0,255.0,255.0,255.0,255.0,255.0,255.0,255.0,255.0,255.0,255.0,255.0,255.0,255.0,255.0,255.0,255.0,255.0,255.0,255.0,255.0,255.0,255.0,255.0,255.0,255.0,255.0,255.0,255.0,255.0,255.0,255.0,255.0,255.0,255.0,255.0,255.0,255.0,255.0,255.0,255.0,255.0,255.0,255.0,255.0,255.0,255.0,255.0,255.0,255.0,255.0,255.0,255.0,255.0,255.0,255.0,255.0,255.0,255.0,255.0,255.0,255.0,255.0,255.0,255.0,255.0,255.0,255.0,255.0,255.0,255.0,255.0,255.0,255.0,255.0,255.0,255.0,255.0,255.0,255.0,255.0,255.0,255.0,255.0,255.0,255.0,255.0,255.0,255.0,255.0,255.0,255.0,255.0,255.0,255.0,255.0,255.0,255.0,255.0,255.0,255.0,255.0,255.0,255.0,255.0,255.0,255.0,255.0,255.0,255.0,255.0,255.0,255.0,255.0,255.0,255.0,255.0,255.0,255.0,255.0,255.0,255.0,255.0,255.0,255.0,255.0,255.0,255.0,255.0,255.0,255.0,255.0,255.0,255.0,255.0,255.0,255.0,255.0,255.0,255.0,255.0,255.0,255.0,255.0,255.0,255.0,255.0,255.0,255.0,255.0,255.0,255.0,255.0,255.0,255.0,255.0,255.0,255.0,255.0,255.0,255.0,255.0,255.0,255.0,255.0,255.0,255.0,255.0,255.0,255.0,255.0,255.0,255.0,255.0,255.0,255.0,255.0,255.0,255.0,255.0,255.0,255.0,255.0,255.0,255.0,255.0,255.0,255.0,255.0,255.0,255.0,255.0,255.0,255.0,255.0,255.0,255.0,255.0,255.0,255.0,255.0,255.0,255.0,255.0,255.0,255.0,
127.0,127.0,127.0,127.0,127.0,127.0,127.0,127.0,127.0,127.0,127.0,127.0,127.0,127.0,127.0,127.0,127.0,127.0,127.0,127.0,127.0,127.0,127.0,127.0,127.0,127.0,127.0,127.0,127.0,127.0,127.0,127.0,127.0,127.0,127.0,127.0,127.0,127.0,127.0,127.0,127.0,127.0,127.0,127.0,127.0,127.0,127.0,127.0,127.0,127.0,127.0,127.0,127.0,127.0,127.0,127.0,127.0,127.0,127.0,127.0,127.0,127.0,127.0,127.0,127.0,127.0,127.0,127.0,127.0,127.0,127.0,127.0,127.0,127.0,127.0,127.0,127.0,127.0,127.0,127.0,127.0,127.0,127.0,127.0,127.0,127.0,127.0,127.0,127.0,127.0,127.0,127.0,127.0,127.0,127.0,127.0,127.0,127.0,127.0,127.0,127.0,127.0,127.0,127.0,127.0,127.0,127.0,127.0,127.0,127.0,127.0,127.0,127.0,127.0,127.0,127.0,127.0,127.0,127.0,127.0,127.0,127.0,127.0,127.0,127.0,127.0,127.0,127.0,127.0,127.0,127.0,127.0,127.0,127.0,127.0,127.0,127.0,127.0,127.0,127.0,127.0,127.0,127.0,127.0,127.0,127.0,127.0,127.0,127.0,127.0,127.0,127.0,127.0,127.0,127.0,127.0,127.0,127.0,127.0,127.0,127.0,127.0,127.0,127.0,127.0,127.0,127.0,127.0,127.0,127.0,127.0,127.0,127.0,127.0,127.0,127.0,127.0,127.0,127.0,127.0,127.0,127.0,127.0,127.0,127.0,127.0,127.0,127.0,127.0,127.0,127.0,127.0,127.0,127.0,127.0,127.0,127.0,127.0,127.0,127.0,127.0,127.0,127.0,127.0,127.0,127.0,127.0,127.0,127.0,127.0,127.0,127.0,127.0,127.0,127.0,127.0,127.0,127.0,127.0,127.0,127.0,127.0,127.0,127.0,127.0,127.0,127.0,127.0,127.0,127.0,127.0,127.0,127.0,127.0,127.0,127.0,127.0,127.0,127.0,127.0,127.0,127.0,127.0,127.0,127.0,127.0,127.0,127.0,127.0,127.0,127.0,127.0,127.0,127.0,127.0,127.0,127.0,127.0,127.0,127.0,127.0,127.0,127.0,127.0,127.0,127.0,127.0,127.0,127.0,127.0,127.0,127.0,127.0,127.0,127.0,127.0,127.0,127.0,127.0,127.0,127.0,127.0,127.0,127.0,127.0,127.0,127.0,127.0,127.0,127.0,127.0,127.0,127.0,127.0,127.0,127.0,127.0,127.0,127.0,127.0,127.0,127.0,127.0,127.0,127.0,127.0,127.0,127.0,127.0,127.0,127.0,127.0,127.0,127.0,127.0,127.0,127.0,127.0,127.0,127.0,127.0,127.0,127.0,127.0,127.0,127.0,127.0,127.0,127.0,127.0,127.0,127.0,127.0,127.0,127.0,127.0,127.0,127.0,127.0,127.0,127.0,127.0,127.0,127.0,127.0,127.0,127.0,127.0,127.0,127.0,127.0,127.0,127.0,127.0,127.0,127.0,127.0,127.0,127.0,127.0,127.0,127.0,127.0,127.0,127.0,127.0,127.0,127.0,127.0,127.0,127.0,127.0,127.0,127.0,127.0,127.0,127.0,127.0,127.0,127.0,127.0,127.0,127.0,127.0,127.0,127.0,127.0,127.0,127.0,127.0,127.0,127.0,127.0,127.0,127.0,127.0,127.0,127.0,127.0,127.0,127.0,127.0,127.0,127.0,127.0,127.0,127.0,127.0,127.0,127.0,127.0,127.0,127.0,127.0,127.0,127.0,127.0,127.0,127.0,127.0,127.0,127.0,127.0,127.0,127.0,127.0,127.0,127.0,127.0,127.0,127.0,127.0,127.0,127.0,127.0,127.0,127.0,127.0,127.0,127.0,127.0,127.0,127.0,127.0,127.0,127.0,127.0,127.0,127.0,127.0,127.0,127.0,127.0,127.0,127.0,127.0,127.0,127.0,127.0,127.0,127.0,127.0,127.0,127.0,127.0,127.0,127.0,127.0,127.0,127.0,127.0,127.0,127.0,127.0,127.0,127.0,127.0,127.0,127.0,127.0,127.0,127.0,127.0,127.0,127.0,127.0,127.0,127.0,127.0,127.0,127.0,127.0,127.0,127.0,127.0,127.0,127.0,127.0,127.0,127.0,127.0,127.0,127.0,127.0,127.0,127.0,127.0,127.0,127.0,127.0,127.0,127.0,127.0,127.0,127.0,127.0,127.0,127.0,127.0,127.0,127.0,127.0,127.0,127.0,127.0,127.0,127.0,127.0,127.0,127.0,127.0,127.0,127.0,127.0,127.0,127.0,127.0,127.0,127.0,127.0,127.0,127.0,127.0,127.0,127.0,127.0,127.0,127.0,127.0,127.0,127.0,127.0,127.0,127.0,127.0,127.0,127.0,127.0,127.0,127.0,127.0,127.0,127.0,127.0,127.0,127.0,127.0,127.0,127.0,127.0,127.0,127.0,127.0,127.0,127.0,127.0,127.0,127.0,127.0,127.0,127.0,127.0,127.0,127.0,127.0,127.0,127.0,127.0,127.0,127.0,127.0,127.0,127.0,127.0,127.0,127.0,127.0,127.0,127.0,127.0,127.0,127.0,127.0,127.0,127.0,127.0,127.0,127.0,127.0,127.0,127.0,127.0,127.0,127.0,127.0,127.0,127.0,127.0,127.0,127.0,127.0,127.0,127.0,127.0,127.0,127.0,127.0,127.0,127.0,127.0,127.0,127.0,127.0,127.0,127.0,127.0,127.0,127.0,127.0,127.0,127.0,127.0,127.0,127.0,127.0,127.0,127.0,127.0,127.0,127.0,127.0,127.0,127.0,127.0,127.0,127.0,127.0,127.0,127.0,127.0,127.0,127.0,127.0,127.0,127.0,127.0,127.0,127.0,127.0,127.0,127.0,127.0,127.0,127.0,127.0,127.0,127.0,127.0,127.0,127.0,127.0,127.0,127.0,127.0,127.0,127.0,127.0,127.0,127.0,127.0,127.0,127.0,127.0,127.0,127.0,127.0,127.0,127.0,127.0,127.0,127.0,127.0,127.0,127.0,127.0,127.0,127.0,127.0,127.0,127.0,127.0,127.0,127.0,127.0,127.0,127.0,127.0,127.0,127.0,127.0,127.0,127.0,127.0,127.0,127.0,127.0,127.0,127.0,127.0,127.0,127.0,127.0,127.0,127.0,127.0,127.0,127.0,127.0,127.0,127.0,127.0,127.0,127.0,127.0,127.0,127.0,127.0,127.0,127.0,127.0,127.0,127.0,127.0,127.0,127.0,127.0,127.0,127.0,127.0,127.0,127.0,127.0,127.0,127.0,127.0,127.0,127.0,127.0,127.0,127.0,127.0,127.0,127.0,127.0,127.0,127.0,127.0,127.0,127.0,127.0,127.0,127.0,127.0,127.0,127.0,127.0,127.0,127.0,127.0,127.0,127.0,127.0,127.0,127.0,127.0,127.0,127.0,127.0,127.0,127.0,127.0,127.0,127.0,127.0,127.0,127.0,127.0,127.0,127.0,127.0,127.0,127.0,127.0,127.0,127.0,127.0,127.0,127.0,127.0,127.0,127.0,127.0,127.0,127.0,127.0,127.0,127.0,127.0,127.0,127.0,127.0,127.0,127.0,127.0,127.0,127.0,127.0,127.0,127.0,127.0,127.0,127.0,127.0,127.0,127.0,127.0,127.0,127.0,127.0,127.0,127.0,127.0,127.0,127.0,127.0,127.0,127.0,127.0,127.0,127.0,127.0,127.0,127.0,127.0,127.0,127.0,127.0,127.0,127.0,127.0,127.0,127.0,127.0,127.0,127.0,127.0,127.0,127.0,127.0,127.0,127.0,127.0,127.0,127.0,127.0,127.0,127.0,127.0,127.0,127.0,127.0,127.0,127.0,127.0,127.0,127.0,127.0,127.0,127.0,127.0,127.0,127.0,127.0,127.0,127.0,127.0,127.0,127.0,127.0,127.0,127.0,127.0,127.0,127.0,127.0,127.0,127.0,127.0,127.0,127.0,127.0,127.0,127.0,127.0,127.0,127.0,127.0,127.0,127.0,127.0,127.0,127.0,127.0,127.0,127.0,127.0,127.0,127.0,127.0,127.0,127.0,127.0,127.0,127.0,127.0,127.0,127.0,127.0,127.0,127.0,127.0,127.0,127.0,127.0,127.0,127.0,127.0,127.0,127.0,127.0,127.0,127.0,127.0,127.0,127.0,127.0,127.0,127.0,127.0,127.0,127.0,127.0,127.0,127.0,127.0,127.0,127.0,127.0,127.0,127.0,127.0,127.0,127.0,127.0,127.0,127.0,127.0,127.0,127.0,127.0,127.0,127.0,127.0,127.0,127.0,127.0,127.0,127.0,127.0,127.0,127.0,127.0,127.0,127.0,127.0,127.0,127.0,127.0,127.0,127.0,127.0,127.0,127.0,127.0,127.0,127.0,127.0,127.0,127.0,127.0,127.0,127.0,127.0,127.0,127.0,127.0,127.0,127.0,127.0,127.0,127.0,127.0,127.0,127.0,127.0,127.0,127.0,127.0,127.0,127.0,127.0,127.0,127.0,127.0,127.0,127.0,127.0,127.0,127.0,127.0,127.0,127.0,127.0,127.0,127.0,127.0,127.0,127.0,127.0,127.0,127.0,127.0,127.0,127.0,127.0,127.0,127.0,127.0,127.0,127.0,127.0,127.0,127.0,127.0,127.0,127.0,127.0,127.0,127.0,127.0,127.0,127.0,127.0,127.0,127.0,127.0,127.0,127.0,127.0,127.0,127.0,127.0,127.0,127.0,127.0,127.0,127.0,127.0,127.0,127.0,127.0,127.0,127.0,127.0,127.0,127.0,127.0,127.0,127.0,127.0,127.0,127.0,127.0,127.0,127.0,127.0,127.0,127.0,127.0,127.0,127.0,127.0,127.0,127.0,127.0,127.0,127.0,127.0,127.0,127.0,127.0,127.0,127.0,127.0,127.0,127.0,127.0,127.0,127.0,127.0,127.0,127.0,127.0,127.0,127.0,127.0,127.0,127.0,127.0,127.0,127.0,127.0,127.0,127.0,127.0,127.0,127.0,127.0,127.0,127.0,127.0,127.0,127.0,127.0,127.0,127.0,127.0,127.0,127.0,127.0,127.0,127.0,127.0,127.0,127.0,127.0,127.0,127.0,127.0,127.0,127.0,127.0,127.0,127.0,127.0,127.0,127.0,127.0,127.0,127.0,127.0,127.0,127.0,127.0,127.0,127.0,127.0,127.0,127.0,127.0,127.0,127.0,127.0,127.0,127.0,127.0,127.0,127.0,127.0,127.0,127.0,127.0,127.0,127.0,127.0,127.0,127.0,127.0,127.0,127.0,127.0,127.0,127.0,127.0,127.0,127.0,127.0,127.0,127.0,127.0,127.0,127.0,127.0,127.0,127.0,127.0,127.0,127.0,127.0,127.0,127.0,127.0,127.0,127.0,127.0,127.0,127.0,127.0,127.0,127.0,127.0,127.0,127.0,127.0,127.0,127.0,127.0,127.0,127.0,127.0,127.0,127.0,127.0,127.0,127.0,127.0,127.0,127.0,127.0,127.0,127.0,127.0,127.0,127.0,127.0,127.0,127.0,127.0,127.0,127.0,127.0,127.0,127.0,127.0,127.0,127.0,127.0,127.0,127.0,127.0,127.0,127.0,127.0,127.0,127.0,127.0,127.0,127.0,127.0,127.0,127.0,127.0,127.0,127.0,127.0,127.0,127.0,127.0,127.0,127.0,127.0,127.0,127.0,127.0,127.0,127.0,127.0,127.0,127.0,127.0,127.0,127.0,127.0,127.0,127.0,127.0,127.0,127.0,127.0,127.0,127.0,127.0,127.0,127.0,127.0,127.0,127.0,127.0,127.0,127.0,127.0,127.0,127.0,127.0,127.0,127.0,127.0,127.0,127.0,127.0,127.0,127.0,127.0,127.0,127.0,127.0,127.0,127.0,127.0,127.0,127.0,127.0,127.0,127.0,127.0,127.0,127.0,127.0,127.0,127.0,127.0,127.0,127.0,127.0,127.0,127.0,127.0,127.0,127.0,127.0,127.0,127.0,127.0,127.0,127.0,127.0,127.0,127.0,127.0,127.0,127.0,127.0,127.0,127.0,127.0,127.0,127.0,127.0,127.0,127.0,127.0,127.0,127.0,127.0,127.0,127.0,127.0,127.0,127.0,127.0,127.0,127.0,127.0,127.0,127.0,127.0,127.0,127.0,127.0,127.0,127.0,127.0,127.0,127.0,127.0,127.0,127.0,127.0,127.0,127.0,127.0,127.0,127.0,127.0,127.0,127.0,127.0,127.0,127.0,127.0,127.0,127.0,127.0,127.0,127.0,127.0,127.0,127.0,127.0,127.0,127.0,127.0,127.0,127.0,127.0,127.0,127.0,127.0,127.0,127.0,127.0,127.0,127.0,127.0,127.0,127.0,127.0,127.0,127.0,127.0,127.0,127.0,127.0,127.0,127.0,127.0,127.0,127.0,127.0,127.0,127.0,127.0,127.0,127.0,127.0,127.0,127.0,127.0,127.0,127.0,127.0,127.0,127.0,127.0,127.0,127.0,127.0,127.0,127.0,127.0,127.0,127.0,127.0,127.0,127.0,127.0,127.0,127.0,127.0,127.0,127.0,127.0,127.0,127.0,127.0,127.0,127.0,127.0,127.0,127.0,127.0,127.0,127.0,127.0,127.0,127.0,127.0,127.0,127.0,127.0,127.0,127.0,127.0,127.0,127.0,127.0,127.0,127.0,127.0,127.0,127.0,127.0,127.0,127.0,127.0,127.0,127.0,127.0,127.0,127.0,127.0,127.0,127.0,127.0,127.0,127.0,127.0,127.0,127.0,127.0,127.0,127.0,127.0,127.0,127.0,127.0,127.0,127.0,127.0,127.0,127.0,127.0,127.0,127.0,127.0,127.0,127.0,127.0,127.0,127.0,127.0,127.0,127.0,127.0,127.0,127.0,127.0,127.0,127.0,127.0,127.0,127.0,127.0,127.0,127.0,127.0,127.0,127.0,127.0,127.0,127.0,127.0,127.0,127.0,127.0,127.0,127.0,127.0,127.0,127.0,127.0,127.0,127.0,127.0,127.0,127.0,127.0,127.0,127.0,127.0,127.0,127.0,127.0,127.0,127.0,127.0,127.0,127.0,127.0,127.0,127.0,127.0,127.0,127.0,127.0,127.0,127.0,127.0,127.0,127.0,127.0,127.0,127.0,127.0,127.0,127.0,127.0,127.0,127.0,127.0,127.0,127.0,127.0,127.0,127.0,127.0,127.0,127.0,127.0,127.0,127.0,127.0,127.0,127.0,127.0,127.0,127.0,127.0,127.0,127.0,127.0,127.0,127.0,127.0,127.0,127.0,127.0,127.0,127.0,127.0,127.0,127.0,127.0,127.0,127.0,127.0,127.0,127.0,127.0,127.0,127.0,127.0,127.0,127.0,127.0,127.0,127.0,127.0,127.0,127.0,127.0,127.0,127.0,127.0,127.0,127.0,127.0,127.0,127.0,127.0,127.0,127.0,127.0,127.0,127.0,127.0,127.0,127.0,127.0,127.0,127.0,127.0,127.0,127.0,127.0,127.0,127.0,127.0,127.0,127.0,127.0,127.0,127.0,127.0,127.0,127.0,127.0,127.0,127.0,127.0,127.0,127.0,127.0,127.0,127.0,127.0,127.0,127.0,127.0,127.0,127.0,127.0,127.0,127.0,127.0,127.0,127.0,127.0,127.0,127.0,127.0,127.0,127.0,127.0,127.0,127.0,127.0,127.0,127.0,127.0,127.0,127.0,127.0,127.0,127.0,127.0,127.0,127.0,127.0,127.0,127.0,127.0,127.0,127.0,127.0,127.0,127.0,127.0,127.0,127.0,127.0,127.0,127.0,127.0,127.0,127.0,127.0,127.0,127.0,127.0,127.0,127.0,127.0,127.0,127.0,127.0,127.0,127.0,127.0,127.0,127.0,127.0,127.0,127.0,127.0,127.0,127.0,127.0,127.0,127.0,127.0,127.0,127.0,127.0,127.0,127.0,127.0,127.0,127.0,127.0,127.0,127.0,127.0,127.0,127.0,127.0,127.0,127.0,127.0,127.0,127.0,127.0,127.0,127.0,127.0,127.0,127.0,127.0,127.0,127.0,127.0,127.0,127.0,127.0,127.0,127.0,127.0,127.0,127.0,127.0,127.0,127.0,127.0,127.0,127.0,127.0,127.0,127.0,127.0,127.0,127.0,127.0,127.0,127.0,127.0,127.0,127.0,127.0,127.0,127.0,127.0,127.0,127.0,127.0,127.0,127.0,127.0,127.0,127.0,127.0,127.0,127.0,127.0,127.0,127.0,127.0,127.0,127.0,127.0,127.0,127.0,127.0,127.0,127.0,127.0,127.0,127.0,127.0,127.0,127.0,127.0,127.0,127.0,127.0,127.0,127.0,127.0,127.0,127.0,127.0,127.0,127.0,127.0,127.0,127.0,127.0,127.0,127.0,127.0,127.0,127.0,127.0,127.0,127.0,127.0,127.0,127.0,127.0,127.0,127.0,127.0,127.0,127.0,127.0,127.0,127.0,127.0,127.0,127.0,127.0,127.0,127.0,127.0,127.0,127.0,127.0,127.0,127.0,127.0,127.0,127.0,127.0,127.0,127.0,127.0,127.0,127.0,127.0,127.0,127.0,127.0,127.0,127.0,127.0,127.0,127.0,127.0,127.0,127.0,127.0,127.0,127.0,127.0,127.0,127.0,127.0,127.0,127.0,127.0,127.0,127.0,127.0,127.0,127.0,127.0,127.0,127.0,127.0,127.0,127.0,127.0,127.0,127.0,127.0,127.0,127.0,127.0,127.0,127.0,127.0,127.0,127.0,127.0,127.0,127.0,127.0,127.0,127.0,127.0,127.0,127.0,127.0,127.0,127.0,127.0,127.0,127.0,127.0,127.0,127.0,127.0,127.0,127.0,127.0,127.0,127.0,127.0,127.0,127.0,127.0,127.0,127.0,127.0,127.0,127.0,127.0,127.0,127.0,127.0,127.0,127.0,127.0,127.0,127.0,127.0,127.0,127.0,127.0,127.0,127.0,127.0,127.0,127.0,127.0,127.0,127.0,127.0,127.0,127.0,127.0,127.0,127.0,127.0,127.0,127.0,127.0,127.0,127.0,127.0,127.0,127.0,127.0,127.0,127.0,127.0,127.0,127.0,127.0,127.0,127.0,127.0,127.0,127.0,127.0,127.0,127.0,127.0,127.0,127.0,127.0,127.0,127.0,127.0,127.0,127.0,127.0,127.0,127.0,127.0,127.0,127.0,127.0,127.0,127.0,127.0,127.0,127.0,127.0,127.0,127.0,127.0,127.0,127.0,127.0,127.0,127.0,127.0,127.0,127.0,127.0,127.0,127.0,127.0,127.0,127.0,127.0,127.0,127.0,127.0,127.0,127.0,127.0,127.0,127.0,127.0,127.0,127.0,127.0,127.0,127.0,127.0,127.0,127.0,127.0,127.0,127.0,127.0,127.0,127.0,127.0,127.0,127.0,127.0,127.0,127.0,127.0,127.0,127.0,127.0,127.0,127.0,127.0,127.0,127.0,127.0,127.0,127.0,127.0,127.0,127.0,127.0,127.0,127.0,127.0,127.0,127.0,127.0,127.0,127.0,127.0,127.0,127.0,127.0,127.0,127.0,127.0,127.0,127.0,127.0,127.0,127.0,127.0,127.0,127.0,127.0,127.0,127.0,127.0,127.0,127.0,127.0,127.0,127.0,127.0,127.0,127.0,127.0,127.0,127.0,127.0,127.0,127.0,127.0,127.0,127.0,127.0,127.0,127.0,127.0,127.0,127.0,127.0,127.0,127.0,127.0,127.0,127.0,127.0,127.0,127.0,127.0,127.0,127.0,127.0,127.0,127.0,127.0,127.0,127.0,127.0,127.0,127.0,127.0,127.0,127.0,127.0,127.0,127.0,127.0,127.0,127.0,127.0,127.0,127.0,127.0,127.0,127.0,127.0,127.0,127.0,127.0,127.0,127.0,127.0,127.0,127.0,127.0,127.0,127.0,127.0,127.0,127.0,127.0,127.0,127.0,127.0,127.0,127.0,127.0,127.0,127.0,127.0,127.0,127.0,127.0,127.0,127.0,127.0,127.0,127.0,127.0,127.0,127.0,127.0,127.0,127.0,127.0,127.0,127.0,127.0,127.0,127.0,127.0,127.0,127.0,127.0,127.0,127.0,127.0,127.0,127.0,127.0,127.0,127.0,127.0,127.0,127.0,127.0,127.0,127.0,127.0,127.0,127.0,127.0,127.0,127.0,127.0,127.0,127.0,127.0,127.0,127.0,127.0,127.0,127.0,127.0,127.0,127.0,127.0,127.0,127.0,127.0,
255.0,255.0,255.0,255.0,255.0,255.0,255.0,255.0,255.0,255.0,255.0,255.0,255.0,255.0,255.0,255.0,255.0,255.0,255.0,255.0,255.0,255.0,255.0,255.0,255.0,255.0,255.0,255.0,255.0,255.0,255.0,255.0,255.0,255.0,255.0,255.0,255.0,255.0,255.0,255.0,255.0,255.0,255.0,255.0,255.0,255.0,255.0,255.0,255.0,255.0,255.0,255.0,255.0,255.0,255.0,255.0,255.0,255.0,255.0,255.0,255.0,255.0,255.0,255.0,255.0,255.0,255.0,255.0,255.0,255.0,255.0,255.0,255.0,255.0,255.0,255.0,255.0,255.0,255.0,255.0,255.0,255.0,255.0,255.0,255.0,255.0,255.0,255.0,255.0,255.0,255.0,255.0,255.0,255.0,255.0,255.0,255.0,255.0,255.0,255.0,255.0,255.0,255.0,255.0,255.0,255.0,255.0,255.0,255.0,255.0,255.0,255.0,255.0,255.0,255.0,255.0,255.0,255.0,255.0,255.0,255.0,255.0,255.0,255.0,255.0,255.0,255.0,255.0,255.0,255.0,255.0,255.0,255.0,255.0,255.0,255.0,255.0,255.0,255.0,255.0,255.0,255.0,255.0,255.0,255.0,255.0,255.0,255.0,255.0,255.0,255.0,255.0,255.0,255.0,255.0,255.0,255.0,255.0,255.0,255.0,255.0,255.0,255.0,255.0,255.0,255.0,255.0,255.0,255.0,255.0,255.0,255.0,255.0,255.0,255.0,255.0,255.0,255.0,255.0,255.0,255.0,255.0,255.0,255.0,255.0,255.0,255.0,255.0,255.0,255.0,255.0,255.0,255.0,255.0,255.0,255.0,255.0,255.0,255.0,255.0,255.0,255.0,255.0,255.0,255.0,255.0,255.0,255.0,255.0,255.0,255.0,255.0,255.0,255.0,255.0,255.0,255.0,255.0,255.0,255.0,255.0,255.0,255.0,255.0,255.0,255.0,255.0,255.0,255.0,255.0,255.0,255.0,255.0,255.0,255.0,255.0,255.0,255.0,255.0,255.0,255.0,255.0,255.0,255.0,255.0,255.0,255.0,255.0,255.0,255.0,255.0,255.0,255.0,255.0,255.0,255.0,255.0,255.0,255.0,255.0,255.0,255.0,255.0,255.0,255.0,255.0,255.0,255.0,255.0,255.0,255.0,255.0,255.0,255.0,255.0,255.0,255.0,255.0,255.0,255.0,255.0,255.0,255.0,255.0,255.0,255.0,255.0,255.0,255.0,255.0,255.0,255.0,255.0,255.0,255.0,255.0,255.0,255.0,255.0,255.0,255.0,255.0,255.0,255.0,255.0,255.0,255.0,255.0,255.0,255.0,255.0,255.0,255.0,255.0,255.0,255.0,255.0,255.0,255.0,255.0,255.0,255.0,255.0,255.0,255.0,255.0,255.0,255.0,255.0,255.0,255.0,255.0,255.0,255.0,255.0,255.0,255.0,255.0,255.0,255.0,255.0,255.0,255.0,255.0,255.0,255.0,255.0,255.0,255.0,255.0,255.0,255.0,255.0,255.0,255.0,255.0,255.0,255.0,255.0,255.0,255.0,255.0,255.0,255.0,255.0,255.0,255.0,255.0,255.0,255.0,255.0,255.0,255.0,255.0,255.0,255.0,255.0,255.0,255.0,255.0,255.0,255.0,255.0,255.0,255.0,255.0,255.0,255.0,255.0,255.0,255.0,255.0,255.0,255.0,255.0,255.0,255.0,255.0,255.0,255.0,255.0,255.0,255.0,255.0,255.0,255.0,255.0,255.0,255.0,255.0,255.0,255.0,255.0,255.0,255.0,255.0,255.0,255.0,255.0,255.0,255.0,255.0,255.0,255.0,255.0,255.0,255.0,255.0,255.0,255.0,255.0,255.0,255.0,255.0,255.0,255.0,255.0,255.0,255.0,255.0,255.0,255.0,255.0,255.0,255.0,255.0,255.0,255.0,255.0,255.0,255.0,255.0,255.0,255.0,255.0,255.0,255.0,255.0,255.0,255.0,255.0,255.0,255.0,255.0,255.0,255.0,255.0,255.0,255.0,255.0,255.0,255.0,255.0,255.0,255.0,255.0,255.0,255.0,255.0,255.0,255.0,255.0,255.0,255.0,255.0,255.0,255.0,255.0,255.0,255.0,255.0,255.0,255.0,255.0,255.0,255.0,255.0,255.0,255.0,255.0,255.0,255.0,255.0,255.0,255.0,255.0,255.0,255.0,255.0,255.0,255.0,255.0,255.0,255.0,255.0,255.0,255.0,255.0,255.0,255.0,255.0,255.0,255.0,255.0,255.0,255.0,255.0,255.0,255.0,255.0,255.0,255.0,255.0,255.0,255.0,255.0,255.0,255.0,255.0,255.0,255.0,255.0,255.0,255.0,255.0,255.0,255.0,255.0,255.0,255.0,255.0,255.0,255.0,255.0,255.0,255.0,255.0,255.0,255.0,255.0,255.0,255.0,255.0,255.0,255.0,255.0,255.0,255.0,255.0,255.0,255.0,255.0,255.0,255.0,255.0,255.0,255.0,255.0,255.0,255.0,255.0,255.0,255.0,255.0,255.0,255.0,255.0,255.0,255.0,255.0,255.0,255.0,255.0,255.0,255.0,255.0,255.0,255.0,255.0,255.0,255.0,255.0,255.0,255.0,255.0,255.0,255.0,255.0,255.0,255.0,255.0,255.0,255.0,255.0,255.0,255.0,255.0,255.0,255.0,255.0,255.0,255.0,255.0,255.0,255.0,255.0,255.0,255.0,255.0,255.0,255.0,255.0,255.0,255.0,255.0,255.0,255.0,255.0,255.0,255.0,255.0,255.0,255.0,255.0,255.0,255.0,255.0,255.0,255.0,255.0,255.0,255.0,255.0,255.0,255.0,255.0,255.0,255.0,255.0,255.0,255.0,255.0,255.0,255.0,255.0,255.0,255.0,255.0,255.0,255.0,255.0,255.0,255.0,255.0,255.0,255.0,255.0,255.0,255.0,255.0,255.0,255.0,255.0,255.0,255.0,255.0,255.0,255.0,255.0,255.0,255.0,255.0,255.0,255.0,255.0,255.0,255.0,255.0,255.0,255.0,255.0,255.0,255.0,255.0,255.0,255.0,255.0,255.0,255.0,255.0,255.0,255.0,255.0,255.0,255.0,255.0,255.0,255.0,255.0,255.0,255.0,255.0,255.0,255.0,255.0,255.0,255.0,255.0,255.0,255.0,255.0,255.0,255.0,255.0,255.0,255.0,255.0,255.0,255.0,255.0,255.0,255.0,255.0,255.0,255.0,255.0,255.0,255.0,255.0,255.0,255.0,255.0,255.0,255.0,255.0,255.0,255.0,255.0,255.0,255.0,255.0,255.0,255.0,255.0,255.0,255.0,255.0,255.0,255.0,255.0,255.0,255.0,255.0,255.0,255.0,255.0,255.0,255.0,255.0,255.0,255.0,255.0,255.0,255.0,255.0,255.0,255.0,255.0,255.0,255.0,255.0,255.0,255.0,255.0,255.0,255.0,255.0,255.0,255.0,255.0,255.0,255.0,255.0,255.0,255.0,255.0,255.0,255.0,255.0,255.0,255.0,255.0,255.0,255.0,255.0,255.0,255.0,255.0,255.0,255.0,255.0,255.0,255.0,255.0,255.0,255.0,255.0,255.0,255.0,255.0,255.0,255.0,255.0,255.0,255.0,255.0,255.0,255.0,255.0,255.0,255.0,255.0,255.0,255.0,255.0,255.0,255.0,255.0,255.0,255.0,255.0,255.0,255.0,255.0,255.0,255.0,255.0,255.0,255.0,255.0,255.0,255.0,255.0,255.0,255.0,255.0,255.0,255.0,255.0,255.0,255.0,255.0,255.0,255.0,255.0,255.0,255.0,255.0,255.0,255.0,255.0,255.0,255.0,255.0,255.0,255.0,255.0,255.0,255.0,255.0,255.0,255.0,255.0,255.0,255.0,255.0,255.0,255.0,255.0,255.0,255.0,255.0,255.0,255.0,255.0,255.0,255.0,255.0,255.0,255.0,255.0,255.0,255.0,255.0,255.0,255.0,255.0,255.0,255.0,255.0,255.0,255.0,255.0,255.0,255.0,255.0,255.0,255.0,255.0,255.0,255.0,255.0,255.0,255.0,255.0,255.0,255.0,255.0,255.0,255.0,255.0,255.0,255.0,255.0,255.0,255.0,255.0,255.0,255.0,255.0,255.0,255.0,255.0,255.0,255.0,255.0,255.0,255.0,255.0,255.0,255.0,255.0,255.0,255.0,255.0,255.0,255.0,255.0,255.0,255.0,255.0,255.0,255.0,255.0,255.0,255.0,255.0,255.0,255.0,255.0,255.0,255.0,255.0,255.0,255.0,255.0,255.0,255.0,255.0,255.0,255.0,255.0,255.0,255.0,255.0,255.0,255.0,255.0,255.0,255.0,255.0,255.0,255.0,255.0,255.0,255.0,255.0,255.0,255.0,255.0,255.0,255.0,255.0,255.0,255.0,255.0,255.0,255.0,255.0,255.0,255.0,255.0,255.0,255.0,255.0,255.0,255.0,255.0,255.0,255.0,255.0,255.0,255.0,255.0,255.0,255.0,255.0,255.0,255.0,255.0,255.0,255.0,255.0,255.0,255.0,255.0,255.0,255.0,255.0,255.0,255.0,255.0,255.0,255.0,255.0,255.0,255.0,255.0,255.0,255.0,255.0,255.0,255.0,255.0,255.0,255.0,255.0,255.0,255.0,255.0,255.0,255.0,255.0,255.0,255.0,255.0,255.0,255.0,255.0,255.0,255.0,255.0,255.0,255.0,255.0,255.0,255.0,255.0,255.0,255.0,255.0,255.0,255.0,255.0,255.0,255.0,255.0,255.0,255.0,255.0,255.0,255.0,255.0,255.0,255.0,255.0,255.0,255.0,255.0,255.0,255.0,255.0,255.0,255.0,255.0,255.0,255.0,255.0,255.0,255.0,255.0,255.0,255.0,255.0,255.0,255.0,255.0,255.0,255.0,255.0,255.0,255.0,255.0,255.0,255.0,255.0,255.0,255.0,255.0,255.0,255.0,255.0,255.0,255.0,255.0,255.0,255.0,255.0,255.0,255.0,255.0,255.0,255.0,255.0,255.0,255.0,255.0,255.0,255.0,255.0,255.0,255.0,255.0,255.0,255.0,255.0,255.0,255.0,255.0,255.0,255.0,255.0,255.0,255.0,255.0,255.0,255.0,255.0,255.0,255.0,255.0,255.0,255.0,255.0,255.0,255.0,255.0,255.0,255.0,255.0,255.0,255.0,255.0,255.0,255.0,255.0,255.0,255.0,255.0,255.0,255.0,255.0,255.0,255.0,255.0,255.0,255.0,255.0,255.0,255.0,255.0,255.0,255.0,255.0,255.0,255.0,255.0,255.0,255.0,255.0,255.0,255.0,255.0,255.0,255.0,255.0,255.0,255.0,255.0,255.0,255.0,255.0,255.0,255.0,255.0,255.0,255.0,255.0,255.0,255.0,255.0,255.0,255.0,255.0,255.0,255.0,255.0,255.0,255.0,255.0,255.0,255.0,255.0,255.0,255.0,255.0,255.0,255.0,255.0,255.0,255.0,255.0,255.0,255.0,255.0,255.0,255.0,255.0,255.0,255.0,255.0,255.0,255.0,255.0,255.0,255.0,255.0,255.0,255.0,255.0,255.0,255.0,255.0,255.0,255.0,255.0,255.0,255.0,255.0,255.0,255.0,255.0,255.0,255.0,255.0,255.0,255.0,255.0,255.0,255.0,255.0,255.0,255.0,255.0,255.0,255.0,255.0,255.0,255.0,255.0,255.0,255.0,255.0,255.0,255.0,255.0,255.0,255.0,255.0,255.0,255.0,255.0,255.0,255.0,255.0,255.0,255.0,255.0,255.0,255.0,255.0,255.0,255.0,255.0,255.0,255.0,255.0,255.0,255.0,255.0,255.0,255.0,255.0,255.0,255.0,255.0,255.0,255.0,255.0,255.0,255.0,255.0,255.0,255.0,255.0,255.0,255.0,255.0,255.0,255.0,255.0,255.0,255.0,255.0,255.0,255.0,255.0,255.0,255.0,255.0,255.0,255.0,255.0,255.0,255.0,255.0,255.0,255.0,255.0,255.0,255.0,255.0,255.0,255.0,255.0,255.0,255.0,255.0,255.0,255.0,255.0,255.0,255.0,255.0,255.0,255.0,255.0,255.0,255.0,255.0,255.0,255.0,255.0,255.0,255.0,255.0,255.0,255.0,255.0,255.0,255.0,255.0,255.0,255.0,255.0,255.0,255.0,255.0,255.0,255.0,255.0,255.0,255.0,255.0,255.0,255.0,255.0,255.0,255.0,255.0,255.0,255.0,255.0,255.0,255.0,255.0,255.0,255.0,255.0,255.0,255.0,255.0,255.0,255.0,255.0,255.0,255.0,255.0,255.0,255.0,255.0,255.0,255.0,255.0,255.0,255.0,255.0,255.0,255.0,255.0,255.0,255.0,255.0,255.0,255.0,255.0,255.0,255.0,255.0,255.0,255.0,255.0,255.0,255.0,255.0,255.0,255.0,255.0,255.0,255.0,255.0,255.0,255.0,255.0,255.0,255.0,255.0,255.0,255.0,255.0,255.0,255.0,255.0,255.0,255.0,255.0,255.0,255.0,255.0,255.0,255.0,255.0,255.0,255.0,255.0,255.0,255.0,255.0,255.0,255.0,255.0,255.0,255.0,255.0,255.0,255.0,255.0,255.0,255.0,255.0,255.0,255.0,255.0,255.0,255.0,255.0,255.0,255.0,255.0,255.0,255.0,255.0,255.0,255.0,255.0,255.0,255.0,255.0,255.0,255.0,255.0,255.0,255.0,255.0,255.0,255.0,255.0,255.0,255.0,255.0,255.0,255.0,255.0,255.0,255.0,255.0,255.0,255.0,255.0,255.0,255.0,255.0,255.0,255.0,255.0,255.0,255.0,255.0,255.0,255.0,255.0,255.0,255.0,255.0,255.0,255.0,255.0,255.0,255.0,255.0,255.0,255.0,255.0,255.0,255.0,255.0,255.0,255.0,255.0,255.0,255.0,255.0,255.0,255.0,255.0,255.0,255.0,255.0,255.0,255.0,255.0,255.0,255.0,255.0,255.0,255.0,255.0,255.0,255.0,255.0,255.0,255.0,255.0,255.0,255.0,255.0,255.0,255.0,255.0,255.0,255.0,255.0,255.0,255.0,255.0,255.0,255.0,255.0,255.0,255.0,255.0,255.0,255.0,255.0,255.0,255.0,255.0,255.0,255.0,255.0,255.0,255.0,255.0,255.0,255.0,255.0,255.0,255.0,255.0,255.0,255.0,255.0,255.0,255.0,255.0,255.0,255.0,255.0,255.0,255.0,255.0,255.0,255.0,255.0,255.0,255.0,255.0,255.0,255.0,255.0,255.0,255.0,255.0,255.0,255.0,255.0,255.0,255.0,255.0,255.0,255.0,255.0,255.0,255.0,255.0,255.0,255.0,255.0,255.0,255.0,255.0,255.0,255.0,255.0,255.0,255.0,255.0,255.0,255.0,255.0,255.0,255.0,255.0,255.0,255.0,255.0,255.0,255.0,255.0,255.0,255.0,255.0,255.0,255.0,255.0,255.0,255.0,255.0,255.0,255.0,255.0,255.0,255.0,255.0,255.0,255.0,255.0,255.0,255.0,255.0,255.0,255.0,255.0,255.0,255.0,255.0,255.0,255.0,255.0,255.0,255.0,255.0,255.0,255.0,255.0,255.0,255.0,255.0,255.0,255.0,255.0,255.0,255.0,255.0,255.0,255.0,255.0,255.0,255.0,255.0,255.0,255.0,255.0,255.0,255.0,255.0,255.0,255.0,255.0,255.0,255.0,255.0,255.0,255.0,255.0,255.0,255.0,255.0,255.0,255.0,255.0,255.0,255.0,255.0,255.0,255.0,255.0,255.0,255.0,255.0,255.0,255.0,255.0,255.0,255.0,255.0,255.0,255.0,255.0,255.0,255.0,255.0,255.0,255.0,255.0,255.0,255.0,255.0,255.0,255.0,255.0,255.0,255.0,255.0,255.0,255.0,255.0,255.0,255.0,255.0,255.0,255.0,255.0,255.0,255.0,255.0,255.0,255.0,255.0,255.0,255.0,255.0,255.0,255.0,255.0,255.0,255.0,255.0,255.0,255.0,255.0,255.0,255.0,255.0,255.0,255.0,255.0,255.0,255.0,255.0,255.0,255.0,255.0,255.0,255.0,255.0,255.0,255.0,255.0,255.0,255.0,255.0,255.0,255.0,255.0,255.0,255.0,255.0,255.0,255.0,255.0,255.0,255.0,255.0,255.0,255.0,255.0,255.0,255.0,255.0,255.0,255.0,255.0,255.0,255.0,255.0,255.0,255.0,255.0,255.0,255.0,255.0,255.0,255.0,255.0,255.0,255.0,255.0,255.0,255.0,255.0,255.0,255.0,255.0,255.0,255.0,255.0,255.0,255.0,255.0,255.0,255.0,255.0,255.0,255.0,255.0,255.0,255.0,255.0,255.0,255.0,255.0,255.0,255.0,255.0,255.0,255.0,255.0,255.0,255.0,255.0,255.0,255.0,255.0,255.0,255.0,255.0,255.0,255.0,255.0,255.0,255.0,255.0,255.0,255.0,255.0,255.0,255.0,255.0,255.0,255.0,255.0,255.0,255.0,255.0,255.0,255.0,255.0,255.0,255.0,255.0,255.0,255.0,255.0,255.0,255.0,255.0,255.0,255.0,255.0,255.0,255.0,255.0,255.0,255.0,255.0,255.0,255.0,255.0,255.0,255.0,255.0,255.0,255.0,255.0,255.0,255.0,255.0,255.0,255.0,255.0,255.0,255.0,255.0,255.0,255.0,255.0,255.0,255.0,255.0,255.0,255.0,255.0,255.0,255.0,255.0,255.0,255.0,255.0,255.0,255.0,255.0,255.0,255.0,255.0,255.0,255.0,255.0,255.0,255.0,255.0,255.0,255.0,255.0,255.0,255.0,255.0,255.0,255.0,255.0,255.0,255.0,255.0,255.0,255.0,255.0,255.0,255.0,255.0,255.0,255.0,255.0,255.0,255.0,255.0,255.0,255.0,255.0,255.0,255.0,255.0,255.0,255.0,255.0,255.0,255.0,255.0,255.0,255.0,255.0,255.0,255.0,255.0,255.0,255.0,255.0,255.0,255.0,255.0,255.0,255.0,255.0,255.0,255.0,255.0,255.0,255.0,255.0,255.0,255.0,255.0,255.0,255.0,255.0,255.0,255.0,255.0,255.0,255.0,255.0,255.0,255.0,255.0,255.0,255.0,255.0,255.0,255.0,255.0,255.0,255.0,255.0,255.0,255.0,255.0,255.0,255.0,255.0,255.0,255.0,255.0,255.0,255.0,255.0,255.0,255.0,255.0,255.0,255.0,255.0,255.0,255.0,255.0,255.0,255.0,255.0,255.0,255.0,255.0,255.0,255.0,255.0,255.0,255.0,255.0,255.0,255.0,255.0,255.0,255.0,255.0,255.0,255.0,255.0,255.0,255.0,255.0,255.0,255.0,255.0,255.0,255.0,255.0,255.0,255.0,255.0,255.0,255.0,255.0,255.0,255.0,255.0,255.0,255.0,255.0,255.0,255.0,255.0,255.0,255.0,255.0,255.0,255.0,255.0,255.0,255.0,255.0,255.0,255.0,255.0,255.0,255.0,255.0,255.0,255.0,255.0,255.0,255.0,255.0,255.0,255.0,255.0,255.0,255.0,255.0,255.0,255.0,255.0,255.0,255.0,255.0,255.0,255.0,255.0,255.0,255.0,255.0,255.0,255.0,255.0,255.0,255.0,255.0,255.0,255.0,255.0,255.0,255.0,255.0,255.0,255.0,255.0,255.0,255.0,255.0,255.0,255.0,255.0,255.0,255.0,255.0,255.0,255.0,255.0,255.0,255.0,255.0,255.0,255.0,255.0,255.0,255.0,255.0,255.0,255.0,255.0,255.0,255.0,255.0,255.0,255.0,255.0,255.0,255.0,255.0,255.0,255.0,255.0,255.0,255.0,255.0,255.0,255.0,255.0,255.0,255.0,255.0,255.0,255.0,255.0,255.0,255.0,255.0,255.0,255.0,255.0,255.0,255.0,255.0,255.0,255.0,255.0,255.0,255.0,255.0,255.0,255.0,255.0,255.0,255.0,255.0,255.0,255.0,255.0,255.0,255.0,255.0,255.0,255.0,255.0,255.0,255.0,255.0,255.0,255.0,255.0,255.0,255.0,255.0,255.0,255.0,255.0,255.0,255.0,255.0,255.0,255.0,255.0,255.0,255.0,255.0,255.0,255.0,255.0,255.0,255.0,255.0,255.0,255.0,255.0,255.0,255.0,255.0,255.0,255.0,255.0,255.0,255.0,255.0,255.0,255.0,255.0,255.0,255.0,255.0,255.0,255.0,255.0,255.0,255.0,255.0,255.0,
-6.40618e-02,7.46965e-02,-1.33450e-02,1.72300e-01,1.06093e-01,-2.04103e-02,-6.76884e-03,7.35866e-02,-1.95143e-02,-3.36050e-02,4.48327e-02,1.09170e-01,1.47337e-01,-7.17690e-02,-8.01212e-02,1.05657e-02,-1.33345e-01,4.38989e-02,-1.16685e-01,-4.96703e-02,4.45136e-02,-5.85290e-02,-8.05067e-02,-6.40462e-02,1.29047e-01,-1.37889e-01,7.37722e-04,1.80462e-01,1.12576e-01,1.69336e-01,-4.64313e-02,1.21298e-03,-7.30993e-02,-4.67079e-02,-1.02179e-01,1.02541e-01,-1.21715e-02,5.55502e-02,-9.94560e-03,1.81053e-02,-1.33130e-01,1.09812e-02,-3.65162e-03,-8.02001e-02,2.32133e-02,-7.32867e-02,-1.51663e-02,1.11880e-01,-1.01666e-01,-5.43671e-02,-1.29420e-01,8.30814e-02,-5.66639e-02,-5.07101e-03,-1.33191e-01,-6.72283e-02,-1.04215e-01,-4.27716e-02,1.16943e-01,-7.61494e-02,3.21859e-02,-1.67464e-01,-2.56436e-02,-1.33944e-01,2.20279e-02,-4.84810e-02,-5.62645e-02,1.68283e-01,-1.32654e-01,3.77603e-02,1.40057e-02,-1.38117e-02,-6.24849e-03,-9.71083e-02,1.93519e-02,1.45836e-01,4.23123e-02,-1.75768e-01,-9.19421e-02,8.67590e-02,-4.18957e-03,-6.54445e-02,9.93148e-02,-8.88833e-02,-3.05978e-02,-1.00745e-01,-1.96872e-01,-1.32386e-01,2.74458e-02,1.48761e-01,3.70427e-03,-1.89973e-01,1.82932e-02,1.09292e-01,-1.61563e-01,-4.58482e-02,-9.32390e-02,-4.17317e-02,-8.71604e-02,1.81070e-01,4.21491e-03,-1.25381e-01,-3.04513e-02,1.67493e-02,1.76410e-01,8.92990e-02,3.84397e-03,1.44797e-02,7.96343e-02,4.32330e-02,-1.11041e-01,7.87232e-02,-4.92136e-02,-6.00285e-02,1.50853e-02,1.71474e-01,-3.61264e-02,-2.72746e-02,-2.93854e-02,5.91081e-02,2.61373e-02,6.01955e-02,1.08792e-01,2.43319e-01,9.82788e-02,-5.74251e-02,-1.29284e-01,2.69233e-01,7.93156e-03,4.02780e-02,1.77117e-01,-1.19270e-01,1.57166e-01,9.03594e-02,1.32566e-01,7.53983e-02,2.06983e-01,4.38616e-02,4.34051e-02,1.09341e-01,6.17259e-02,8.91054e-02,6.68021e-02,-4.73166e-02,-9.17290e-03,-2.95815e-02,1.84099e-01,8.10787e-02,1.03802e-01,3.88633e-02,-9.65100e-03,9.49597e-02,-1.27938e-01,-8.91900e-03,-5.42293e-02,8.21652e-02,-2.26033e-02,-8.03030e-02,-6.54567e-02,6.17457e-02,7.88194e-02,-4.26456e-02,-7.04382e-02,1.88546e-02,-9.06914e-02,-6.45077e-02,3.08835e-02,3.83368e-02,-3.29013e-03,-8.62373e-03,-2.65706e-02,1.32506e-01,-8.21382e-03,-1.30750e-01,1.49461e-01,-7.87308e-02,-5.44190e-02,-1.06287e-01,1.39740e-01,1.15916e-01,1.97348e-01,1.65934e-01,7.34454e-03,5.27220e-02,1.83492e-02,1.45353e-02,1.70811e-01,1.01831e-01,2.12880e-01,2.86199e-02,-5.36429e-03,-2.05566e-02,1.12961e-02,2.15451e-01,9.35344e-02,1.84379e-01,3.32000e-01,-4.55522e-02,1.83924e-01,2.83665e-01,9.62323e-02,2.17229e-01,2.77751e-01,2.70322e-01,3.88975e-01,2.36221e-01,3.46003e-02,2.17685e-01,1.02125e-01,-2.23656e-02,8.83595e-02,1.50657e-01,-1.10218e-01,-4.61708e-03,6.58434e-02,1.20477e-01,5.45423e-02,1.81361e-01,-1.65590e-03,2.37587e-01,2.54555e-01,3.76769e-02,2.61108e-01,1.64630e-01,3.82115e-03,1.89078e-01,3.37699e-02,3.72735e-02,1.27266e-01,1.19259e-01,1.56827e-01,2.93534e-01,2.56711e-01,-5.31557e-02,1.70524e-01,1.29183e-02,1.69183e-01,1.12084e-01,9.48559e-02,1.80721e-01,-2.19085e-02,2.40762e-03,-7.09452e-03,3.45085e-02,1.54011e-01,-1.21337e-01,-1.17294e-01,-3.17672e-02,1.99200e-02,-8.45272e-02,5.28486e-03,-3.80526e-02,6.90352e-02,-5.23085e-03,1.19372e-01,1.21072e-01,-9.34272e-02,1.15230e-01,1.20951e-01,4.59903e-02,9.22459e-02,-4.94770e-02,-5.15337e-03,1.62944e-02,-5.92368e-02,-1.66069e-01,-1.05769e-04,-2.03259e-02,-1.44498e-01,3.80545e-02,1.40973e-01,1.40028e-01,1.10996e-01,-1.28275e-01,1.44861e-01,2.27068e-02,-1.99122e-03,7.09999e-02,1.17829e-01,1.77593e-01,1.02312e-01,7.57103e-03,1.13059e-01,1.06930e-01,1.18100e-01,1.83539e-02,1.19148e-01,1.76443e-02,3.78318e-02,1.19599e-01,-5.74850e-02,2.43569e-01,2.98388e-02,-1.19669e-01,4.77617e-02,8.59588e-02,1.98198e-01,2.42984e-01,2.24638e-01,-1.05152e-01,2.45577e-01,2.18183e-01,1.28631e-02,9.45375e-02,1.67014e-01,6.46237e-02,1.87924e-01,1.81112e-01,7.13023e-02,-2.04417e-02,1.92064e-01,2.40312e-02,2.08027e-01,1.50777e-01,6.77135e-02,2.82948e-01,1.52869e-01,2.10945e-02,2.31685e-02,2.97960e-01,1.66284e-01,1.31439e-01,2.48614e-01,9.47530e-02,2.93927e-02,1.15763e-01,-8.19035e-02,5.23145e-02,4.50720e-02,1.35067e-01,-8.06177e-02,3.01527e-02,2.04877e-02,-1.79687e-01,-1.04369e-01,-5.38118e-02,-4.01269e-02,1.42542e-01,4.06961e-02,5.44143e-02,1.33676e-01,6.86183e-02,-7.28701e-02,-1.40112e-01,-7.35259e-02,9.90046e-02,-1.00181e-01,-1.03029e-01,-1.13873e-01,-5.00312e-02,5.97859e-02,-3.08266e-02,8.92281e-02,-5.33762e-02,-6.92235e-02,1.24283e-01,-1.57299e-01,-1.68547e-01,7.18667e-02,-1.95314e-01,-5.39529e-02,-6.86771e-02,-9.80969e-02,-5.25445e-02,2.63632e-02,4.84163e-02,-3.91841e-02,6.20386e-02,8.11964e-02,-1.34268e-01,-1.08635e-01,-1.31367e-02,1.09810e-01,1.88337e-02,-1.67307e-01,-9.16065e-02,-1.07505e-01,4.58284e-02,5.75979e-03,2.08530e-02,-8.73884e-02,1.87795e-02,8.77043e-02,-4.55553e-02,1.19404e-01,1.23322e-01,6.79028e-02,1.28695e-01,2.05260e-01,4.64621e-02,2.36017e-01,2.67458e-02,1.17611e-01,5.81464e-03,-4.95458e-02,6.51810e-02,-1.11084e-02,4.79402e-02,1.59640e-01,-2.74314e-02,-3.41504e-02,-3.11510e-02,1.68956e-01,1.99631e-01,1.99628e-01,-2.65119e-02,3.14933e-02,2.04867e-01,4.32653e-03,1.97189e-02,-4.39372e-02,9.79443e-02,-1.90983e-02,-9.23841e-02,2.09782e-01,2.28634e-02,-3.64744e-02,7.36111e-02,1.78738e-01,-3.77349e-03,2.23215e-02,1.22407e-01,2.13591e-02,-4.94464e-02,-8.81173e-02,-1.78495e-01,-1.11315e-01,-1.90484e-01,-4.29266e-02,2.36548e-02,-2.64599e-02,-5.70102e-02,6.39596e-02,-2.14469e-01,-1.01709e-01,-8.91886e-02,-1.44202e-01,-1.46128e-01,5.54594e-04,-1.86037e-03,-1.21522e-01,-4.20369e-02,-5.51552e-02,-5.20503e-02,1.16771e-01,-3.26008e-02,2.22040e-02,4.83148e-02,2.20900e-05,-3.04059e-02,-1.04419e-01,-3.64648e-02,-5.83635e-02,1.31757e-02,1.04160e-01,-1.52448e-01,1.99089e-01,1.54199e-02,-2.17791e-02,1.38844e-01,9.57752e-03,7.58245e-02,2.00973e-02,1.39352e-02,3.88143e-02,7.92010e-02,2.04331e-01,2.09615e-01,4.38321e-02,1.10110e-01,8.80306e-02,1.69500e-01,1.14678e-01,4.50467e-03,1.57264e-01,2.43631e-01,5.29553e-02,2.54927e-01,1.32951e-02,1.23685e-01,9.20390e-02,2.06328e-01,1.41991e-01,6.16274e-02,1.54504e-01,4.33409e-02,6.33442e-02,1.73410e-01,2.34139e-01,3.41390e-01,2.43514e-01,5.84282e-03,1.22474e-01,-2.93338e-02,-8.28257e-02,2.22161e-01,6.12426e-02,1.84164e-01,2.05446e-01,8.63602e-02,-3.94989e-02,-5.07409e-02,-7.99280e-03,6.19989e-02,1.36493e-01,1.33890e-01,5.36354e-04,-1.03265e-01,8.10424e-02,-2.69683e-02,1.17258e-01,2.26447e-02,-6.04226e-03,4.47552e-02,-1.59714e-01,4.27722e-02,-7.86520e-02,-9.30767e-02,7.85866e-03,-1.55231e-01,-1.67446e-02,9.09768e-02,-1.44677e-01,-2.49449e-01,-3.12412e-02,-9.02466e-02,1.01697e-01,-4.19263e-02,6.69459e-02,-7.25853e-02,-1.68008e-02,-3.59730e-02,7.55054e-02,6.34818e-02,-5.78710e-02,-1.01227e-01,2.10342e-01,5.32850e-02,-4.35925e-02,1.19894e-01,1.20209e-01,6.34321e-02,-1.27163e-01,7.65305e-02,-7.74822e-02,2.33150e-01,7.32778e-02,1.13017e-01,-2.82336e-03,4.79814e-02,-9.73032e-02,-9.27470e-02,1.99495e-01,1.01810e-02,6.65604e-02,2.56412e-01,-2.55348e-02,9.37395e-02,2.45804e-01,5.95400e-03,-4.60912e-02,-8.28446e-02,1.43339e-01,-4.17615e-02,1.15591e-01,2.33283e-01,3.39837e-02,6.15181e-02,9.44459e-03,2.02418e-01,3.72454e-01,5.90556e-02,2.34224e-01,3.65553e-01,2.79149e-01,2.97731e-02,2.32401e-01,2.24108e-01,1.12940e-01,2.19467e-01,1.32338e-01,9.93796e-02,1.47692e-01,7.79558e-02,2.18894e-01,-3.85171e-02,-1.49354e-01,-2.04347e-02,-2.60661e-02,1.18280e-01,-1.72008e-02,1.71857e-02,-1.04141e-01,-3.81559e-02,-9.77353e-02,-8.32914e-02,-1.19490e-01,-1.43164e-01,-9.31163e-02,-1.70809e-01,-1.50518e-01,-1.97392e-02,7.85156e-04,-9.57027e-02,-6.95248e-02,-1.06965e-01,-1.79766e-01,-7.04247e-02,-1.99755e-01,4.86452e-02,-2.47151e-02,1.00579e-01,1.84421e-02,-6.44090e-02,1.19030e-01,2.82896e-02,-1.26002e-02,4.58642e-02,9.44885e-02,-1.07629e-01,2.52698e-02,2.12829e-01,1.35630e-01,-7.42379e-02,-5.28985e-03,-1.07235e-01,1.50138e-01,4.48447e-02,-6.78945e-02,1.31161e-01,4.34819e-02,3.59468e-03,-6.11568e-03,-3.87112e-02,2.58594e-02,1.95496e-02,8.84706e-02,1.64027e-01,1.76351e-01,2.52263e-02,2.74899e-02,1.60620e-01,-9.78105e-02,1.82366e-01,2.37308e-01,7.93814e-02,1.41408e-01,1.66157e-01,1.54279e-01,1.46643e-01,1.71942e-01,1.04939e-01,2.28340e-01,1.59636e-01,1.00613e-01,2.67514e-01,3.76132e-03,1.38519e-01,3.22191e-01,9.09707e-02,2.61593e-01,4.38216e-01,3.09284e-01,2.83172e-01,2.76011e-01,1.39467e-01,1.71227e-01,7.24172e-02,1.73794e-01,7.74660e-03,2.21598e-01,-1.02294e-01,-7.59466e-02,-8.72705e-02,-7.44341e-02,-1.50055e-01,-1.44074e-01,-3.39128e-02,-5.58662e-02,-1.62832e-01,-1.95943e-01,-1.12232e-01,-7.28793e-02,-2.40896e-02,-3.00291e-01,-3.54120e-02,-2.37211e-01,-1.73275e-01,-2.62891e-01,-1.14758e-01,3.18974e-02,-8.21655e-02,-3.87614e-02,4.28120e-03,-3.57711e-02,-6.38766e-02,5.87521e-03,-5.39845e-03,8.42906e-02,9.44710e-02,2.66197e-02,-3.80392e-02,2.52389e-01,2.08014e-01,2.63176e-02,6.86755e-02,-2.04501e-02,7.47015e-02,-4.01926e-03,1.26999e-01,-8.41274e-02,4.62429e-02,-6.23820e-02,4.30824e-02,-9.01821e-02,3.11499e-02,-8.41601e-02,-6.16740e-02,3.02189e-02,-1.11067e-01,1.58256e-01,-1.08602e-01,-9.14478e-02,1.15876e-02,-1.46564e-01,-3.68899e-03,1.82187e-01,6.77121e-02,2.19870e-02,-2.76620e-02,3.81559e-02,9.22084e-02,6.71917e-03,5.89883e-02,4.91500e-02,-1.92438e-02,-1.52691e-02,1.86375e-01,1.16247e-01,1.90393e-01,-6.92707e-02,2.35571e-01,2.02046e-01,2.16729e-01,3.20893e-01,4.41553e-01,2.84282e-01,3.80322e-01,3.06801e-01,4.27027e-01,1.00946e-02,3.37372e-01,1.35195e-01,8.33206e-02,-5.35362e-02,3.63150e-02,-9.48099e-03,-2.04247e-02,-5.52791e-02,-6.08933e-02,-3.83242e-02,4.19800e-02,-5.18284e-02,1.93437e-02,-1.36167e-01,-1.41471e-01,-1.57616e-01,-6.42349e-02,-2.78992e-02,-4.98576e-02,9.82250e-02,1.67922e-02,-3.88358e-02,-4.88041e-02,-1.04140e-01,4.64758e-02,-1.55191e-02,1.91863e-01,-6.56547e-02,-1.28004e-01,1.01912e-01,2.02146e-01,9.48997e-03,4.91095e-02,2.52538e-01,1.26429e-01,7.77563e-02,1.30074e-01,2.75296e-01,3.69018e-02,1.52745e-01,5.91460e-02,1.66895e-02,1.20022e-01,1.50329e-01,1.83015e-01,-1.08022e-02,-3.40105e-03,-9.51917e-02,-1.27988e-01,-7.36580e-02,-1.05043e-01,-2.18367e-01,-1.16463e-01,-1.73745e-01,-2.38229e-01,1.15745e-01,6.93625e-02,-1.24593e-01,-8.24147e-02,-1.01294e-02,-1.26654e-01,-6.57582e-02,-4.66552e-02,-2.27508e-02,-1.21338e-01,9.27495e-02,-4.96544e-02,-1.10300e-02,1.43468e-02,8.87346e-02,-1.05029e-02,-7.42990e-02,2.33456e-01,9.01662e-02,2.74536e-01,1.77296e-01,8.26430e-02,3.19461e-01,3.84816e-01,2.96277e-01,3.80647e-01,4.71678e-01,4.70851e-01,-5.45434e-02,1.48441e-02,9.07687e-02,4.46618e-02,5.27952e-03,-5.29829e-02,-1.28168e-01,-9.42244e-02,-7.12220e-02,-8.29752e-02,-1.79919e-01,-2.11377e-01,-1.10248e-01,-1.47607e-01,-1.60685e-01,-1.38605e-01,-2.44862e-01,-8.18956e-02,-1.31521e-01,-4.96359e-02,-1.81113e-01,-6.04584e-02,-6.33407e-02,-8.69002e-02,-7.84968e-02,1.90693e-02,1.88811e-01,1.40626e-02,2.22537e-02,1.05651e-01,1.82894e-01,2.86057e-02,1.40122e-01,9.81279e-02,2.51151e-01,-6.43713e-02,2.28572e-01,2.18859e-01,1.02485e-01,9.32794e-02,1.45871e-01,2.57890e-02,1.49612e-01,3.41807e-02,5.51712e-02,1.81671e-01,1.87005e-01,4.91089e-02,-9.27318e-02,-1.33492e-01,4.55674e-02,-2.77740e-01,-1.78787e-01,7.83563e-03,-3.10133e-01,-1.64206e-01,-4.98507e-02,-2.06516e-01,-1.98204e-01,-3.54366e-02,8.92285e-02,-1.09496e-01,-1.02890e-01,5.94873e-02,-9.57937e-04,-9.98203e-03,2.80844e-02,-1.92814e-01,1.27190e-02,1.37215e-01,1.24262e-01,-2.79709e-02,1.39882e-01,6.36894e-02,-4.70759e-02,3.45156e-01,1.36403e-01,2.83045e-01,2.01347e-01,2.57579e-01,2.69733e-01,3.01546e-01,1.44634e-01,2.78037e-01,1.31661e-01,2.02138e-01,9.53504e-02,6.96899e-02,-8.44970e-02,-3.18405e-02,-1.18258e-01,-4.22267e-02,1.58260e-01,-1.96756e-01,-2.73270e-01,-1.67252e-01,-2.57439e-01,4.47253e-02,-9.43024e-02,-1.65435e-01,-5.74217e-02,6.23875e-02,-1.77435e-02,6.63199e-02,7.06891e-02,4.42607e-02,-3.70734e-02,2.37869e-03,-2.73097e-03,6.08097e-02,-6.92948e-02,1.53557e-01,1.29120e-01,1.81017e-01,2.62845e-01,1.22638e-01,1.55701e-01,1.52977e-01,2.53515e-01,9.43178e-02,1.79425e-01,1.46998e-01,1.53500e-01,2.13824e-01,6.06180e-02,8.52742e-02,1.69639e-01,1.39756e-01,1.68263e-01,7.93424e-02,2.91781e-02,1.95564e-01,-1.01091e-02,-1.80296e-01,-9.52888e-02,-2.44545e-01,-2.88791e-01,-4.36742e-02,-1.68172e-01,-1.82289e-01,-1.65750e-02,-2.04274e-01,-2.71144e-01,3.42477e-02,-1.57076e-01,-1.94298e-01,-1.26782e-01,-3.88984e-02,-3.84749e-02,-2.09349e-02,-5.98506e-02,-1.48066e-01,1.59835e-02,-4.73521e-02,-9.21112e-02,1.18229e-02,-1.23377e-01,-1.77966e-01,4.05796e-02,1.61757e-01,1.66596e-01,1.31390e-01,2.93857e-02,4.65150e-02,7.18114e-02,1.44302e-01,5.95636e-02,1.06028e-01,4.61009e-02,7.58338e-02,-1.22360e-01,-5.48112e-02,9.12756e-03,4.01399e-02,1.57998e-01,-1.29329e-01,3.18764e-02,-6.74888e-03,-7.95198e-02,-7.58305e-02,-1.14218e-01,-1.10423e-01,-6.61117e-02,-9.48275e-02,-6.29434e-02,-1.62329e-01,-8.93658e-02,-1.25217e-01,-9.13662e-02,-2.20354e-02,2.95248e-02,-7.77273e-02,1.12081e-01,9.49792e-02,1.01966e-01,2.45401e-01,1.41033e-01,-2.25128e-02,2.82507e-01,1.12247e-01,4.76227e-02,7.40334e-02,1.52289e-01,1.38613e-01,2.83855e-01,1.93455e-01,7.55739e-02,1.80218e-01,1.60667e-01,2.71265e-01,3.21557e-01,1.75282e-01,2.02335e-01,9.65354e-02,2.43116e-01,-1.66129e-03,-6.12512e-02,-8.51722e-02,-1.35819e-01,-1.64907e-01,-1.98572e-01,3.27420e-03,-2.13313e-01,-1.42188e-01,-6.06617e-02,2.36858e-02,3.62015e-02,-2.24820e-02,-1.24351e-01,-1.51660e-01,4.74185e-02,-1.62420e-01,-1.54696e-01,-8.05354e-02,-1.11534e-01,-2.89361e-03,1.33947e-01,6.99397e-02,3.39160e-02,4.70044e-02,7.92820e-02,-1.41195e-02,-1.84030e-01,2.24105e-01,9.20055e-02,3.01023e-02,1.91383e-01,9.05897e-02,1.25492e-01,-2.49730e-02,8.20374e-02,-5.34724e-02,-9.87143e-02,2.14528e-02,-2.16635e-02,-9.79458e-02,-7.66699e-02,-1.94816e-03,1.55704e-01,-1.13440e-02,-4.02017e-02,-1.07679e-01,-1.77262e-02,-6.67192e-02,-4.87897e-02,-2.27441e-02,4.32651e-02,-5.52650e-02,3.44877e-02,1.05862e-01,-1.56152e-01,-2.82065e-02,-3.22904e-02,1.61519e-02,1.54509e-01,6.91068e-02,1.19844e-01,2.44084e-01,6.81648e-02,3.50309e-02,2.26383e-01,1.10669e-01,3.15717e-02,6.43861e-02,-1.13043e-02,1.53330e-01,5.89085e-02,1.16281e-02,1.28714e-01,1.60545e-01,1.68235e-01,1.88721e-01,3.55047e-01,-4.63088e-02,8.85696e-02,1.93974e-01,1.17338e-01,1.97201e-01,1.03326e-02,1.75997e-01,-5.72209e-02,-1.55681e-02,-3.07543e-02,-6.49146e-02,-2.40328e-02,2.62633e-02,1.04203e-01,-9.28491e-02,1.09304e-01,-3.66319e-02,1.41250e-03,3.74001e-02,-6.13142e-02,-2.17798e-02,-1.35558e-02,-2.04374e-02,-8.87684e-02,-7.46553e-02,-2.47411e-02,-2.17020e-01,-1.17996e-01,1.01213e-01,8.38694e-02,-9.80987e-02,1.70910e-01,1.99437e-01,1.00975e-01,1.46225e-02,8.68682e-02,6.05034e-02,1.76136e-01,1.15500e-01,2.28378e-01,-1.30362e-02,1.82952e-02,1.39063e-02,-1.39051e-02,2.55490e-02,1.94063e-02,9.34049e-02,1.39664e-02,-1.55164e-01,1.53770e-01,-4.66399e-02,-2.53290e-02,5.40159e-02,-1.00027e-01,1.02865e-01,-2.44178e-01,1.14722e-01,5.84853e-03,-1.53133e-02,1.09538e-01,-1.36263e-01,2.47602e-02,-1.91906e-01,1.55649e-01,3.78331e-03,5.29633e-02,9.83322e-02,1.42906e-01,1.26644e-01,1.99302e-01,5.02286e-02,1.32646e-02,1.40122e-01,-3.41837e-02,-1.41218e-02,7.88029e-02,6.97736e-02,-2.28790e-02,-7.04318e-02,8.19872e-02,2.49094e-01,-8.46352e-02,3.06413e-01,1.53478e-01,1.09450e-01,1.01463e-01,1.71871e-01,2.44823e-01,-6.89595e-02,-9.30871e-02,1.01739e-01,-1.05878e-01,-1.07830e-01,-5.40315e-02,2.69474e-03,-6.60229e-04,1.64957e-02,4.19941e-02,-2.41363e-02,-4.01614e-02,5.97879e-02,1.24540e-03,1.96583e-02,-8.63499e-03,-1.23755e-03,2.95223e-02,-1.53945e-01,1.02341e-01,-3.18876e-02,-2.16263e-02,3.52045e-02,1.73528e-02,-1.63328e-01,-1.01298e-01,-8.66539e-02,-8.16975e-02,6.67159e-02,4.15706e-02,5.12281e-02,-1.65451e-03,-3.25976e-02,1.39334e-01,2.05742e-01,3.34019e-02,-1.12584e-01,1.80828e-01,-5.80215e-02,-1.24489e-01,-3.80075e-02,-9.12586e-02,-1.16144e-01,1.15786e-01,-2.10764e-01,9.35644e-02,-5.75484e-03,1.89912e-01,-7.34359e-03,-1.87281e-01,-5.43085e-02,-6.32198e-02,-1.13036e-01,-4.01746e-02,2.61808e-02,-1.70225e-01,1.24687e-02,-1.20005e-01,-4.23909e-03,-8.26627e-02,-3.28665e-02,1.03969e-01,2.40084e-01,-3.58680e-02,-1.97891e-02,-8.55587e-02,4.89676e-03,1.40020e-01,2.93409e-02,9.24179e-03,9.06286e-02,-1.93703e-01,1.49267e-01,1.63179e-01,6.44263e-02,8.39048e-02,2.62779e-01,2.43678e-02,-2.46454e-02,1.91344e-01,1.88760e-01,1.46713e-01,2.78277e-01,-9.22809e-03,1.22773e-01,9.84855e-02,3.27914e-02,-6.07773e-02,-7.37232e-03,1.37246e-01,5.16879e-02,8.62363e-02,7.94165e-02,1.60464e-01,2.47274e-02,1.24571e-01,5.69163e-02,3.40564e-02,1.09902e-01,3.97666e-02,-7.15517e-02,6.81123e-02,3.28830e-02,4.33170e-02,6.03389e-02,2.98161e-02,-6.81823e-02,-6.31532e-02,1.45690e-01,-1.06097e-01,-1.37192e-01,9.32255e-02,-7.98821e-02,-2.81574e-02,1.23384e-01,5.64091e-02,1.73168e-02,5.96063e-02,2.33909e-01,-7.38209e-02,6.28365e-02,1.19408e-02,-1.10468e-01,-6.94683e-02,-6.88981e-02,-1.94157e-01,3.26579e-02,-6.67090e-02,-2.00599e-02,-8.28869e-02,1.08874e-01,8.67984e-02,-8.54999e-02,-3.36499e-02,5.01903e-02,1.40259e-02,-1.19626e-01,-2.92524e-02,-1.29975e-01,-2.34215e-01,-1.32269e-01,-5.18939e-02,-9.46241e-02,-1.26791e-02,1.89359e-01,7.93697e-02,9.80731e-02,-4.29199e-02,-1.21074e-01,4.27547e-02,-5.70420e-02,6.30307e-02,-6.26263e-02,1.54940e-01,2.00029e-01,-5.45786e-02,2.18105e-01,-2.30030e-02,-1.43749e-01,-9.17706e-02,2.72460e-02,-1.89947e-02,9.18546e-02,1.11988e-01,4.23053e-02,2.13406e-01,2.67781e-01,-2.19233e-02,1.18027e-01,-8.55011e-02,6.89361e-02,-6.31431e-03,9.13712e-02,7.01484e-04,1.46389e-02,1.68618e-01,1.64975e-01,7.08951e-02,2.01015e-03,4.98646e-02,1.27162e-01,1.36384e-01,-6.09839e-02,-4.97907e-02,1.23780e-02,1.77779e-01,6.19831e-02,2.78997e-02,5.62865e-02,6.51923e-02,-1.44657e-01,6.55114e-03,1.75720e-01,-9.83193e-02,-8.08005e-02,1.23417e-01,1.21749e-01,-8.11798e-02,-2.76649e-02,1.48229e-02,4.46196e-02,7.50660e-02,1.27094e-01,-1.25975e-01,-4.89937e-02,9.43440e-02,-2.22704e-01,1.77759e-02,2.46565e-02,-1.65983e-01,-7.29874e-02,1.67558e-01,-2.92413e-02,9.14377e-03,2.66246e-02,-2.25253e-03,-6.39452e-03,6.87888e-02,-2.19641e-01,3.29603e-02,-1.86120e-01,-2.71406e-02,-1.39106e-01,-2.27289e-01,5.78610e-02,-1.42202e-01,-2.16410e-01,-8.94012e-02,2.08818e-02,7.25916e-02,1.27730e-01,-3.23147e-02,-2.04129e-03,-9.04247e-03,9.15730e-02,1.18774e-01,6.13075e-02,-4.62287e-02,8.73392e-03,3.53571e-02,2.96202e-02,-4.05434e-02,1.14132e-01,6.58701e-02,-2.34392e-02,7.54771e-02,1.03092e-01,2.48155e-01,2.58854e-02,-3.33428e-02,1.12025e-01,1.98546e-02,2.43049e-02,-3.17129e-02,-1.86137e-01,-1.06782e-01,9.78838e-03,6.06617e-02,1.34112e-01,1.76904e-02,2.53233e-02,1.36432e-01,2.24325e-01,7.58423e-02,2.02992e-01,2.14666e-01,-2.60351e-03,-2.87015e-02,2.48120e-02,8.59120e-02,2.07473e-01,1.02637e-01,-5.60765e-02,-2.29637e-02,7.76140e-02,-3.74238e-03,1.51940e-01,5.52478e-02,1.72487e-01,3.04328e-02,9.24320e-02,4.83523e-02,-8.10614e-02,-1.51990e-01,-1.36604e-01,2.48926e-02,-2.02987e-02,-9.56033e-02,2.28381e-01,-4.60001e-02,-6.93656e-02,9.25076e-02,1.41355e-02,-1.39048e-01,1.08276e-01,-4.50229e-03,6.91009e-03,-5.57211e-02,-2.49318e-02,-6.91116e-02,1.63638e-02,-4.99765e-02,-1.49170e-01,-1.57911e-01,4.15087e-02,-8.29286e-02,-2.02643e-01,-4.80441e-02,-1.80479e-01,-1.79866e-01,-6.63161e-02,-7.92853e-02,1.42664e-02,-6.87562e-02,-1.04019e-01,1.44426e-01,2.34896e-01,1.41627e-01,8.35015e-02,2.28582e-01,1.26098e-01,7.18234e-02,-5.11934e-02,-2.37112e-02,2.63216e-01,-1.08636e-02,-8.48469e-02,1.39554e-02,8.95001e-02,1.69121e-01,3.17942e-01,1.62226e-01,1.52060e-01,9.19317e-02,1.68398e-01,-3.18755e-02,4.98192e-02,-9.75538e-02,-1.99318e-02,-9.49497e-02,4.16790e-02,9.20849e-03,6.76744e-02,-1.63918e-03,1.08584e-01,1.69147e-01,9.25378e-02,7.39519e-02,1.49150e-01,8.92306e-02,5.84948e-02,1.52475e-01,2.74852e-02,-1.32134e-01,1.04747e-01,-4.66575e-02,-5.18026e-02,2.61759e-02,7.37188e-02,9.16806e-03,5.62395e-02,8.30501e-03,1.98571e-02,2.13302e-01,-5.24997e-02,-5.28399e-02,4.18187e-03,-8.15577e-02,-1.30901e-01,-7.55812e-02,-3.74039e-03,5.88280e-02,1.39492e-01,-1.18339e-01,-1.76893e-02,2.95135e-02,4.77165e-02,-6.26700e-02,-7.20151e-05,-3.71330e-02,-1.44308e-01,-7.36944e-02,8.37654e-02,-6.04621e-02,6.84016e-02,-6.25844e-02,-1.25692e-01,1.72644e-02,-2.35384e-02,7.02957e-02,-1.48861e-01,-1.45579e-01,-2.52044e-01,-1.16944e-01,3.61179e-03,-9.61646e-03,1.19005e-01,-6.08872e-02,8.75742e-02,7.18899e-02,1.11997e-01,1.07457e-01,3.86911e-03,1.80705e-01,1.50180e-01,2.53211e-01,1.62136e-01,1.03582e-01,1.59825e-01,2.30735e-01,-1.29400e-01,1.07925e-01,4.37916e-02,-1.32996e-02,1.55934e-01,9.74253e-02,1.39823e-01,1.12816e-01,1.67558e-01,-1.56991e-02,-3.65423e-02,1.97157e-01,-9.85635e-02,-3.06376e-02,8.58136e-02,2.49556e-03,9.74113e-02,2.52411e-01,1.98534e-01,1.29778e-01,1.93620e-02,-6.58419e-02,8.91982e-02,1.37932e-01,8.38228e-02,-7.74939e-02,9.76275e-03,9.42856e-02,-2.26729e-02,-9.19426e-02,2.12898e-01,2.14991e-01,-8.49297e-02,8.97016e-02,1.21828e-01,6.30899e-02,-1.17808e-01,1.28703e-01,8.45285e-02,1.11349e-01,-3.13711e-02,8.83973e-02,-7.28751e-03,1.21848e-01,-9.95536e-02,-5.75858e-02,4.04506e-02,-6.51039e-02,1.51785e-02,-1.12372e-01,-8.53008e-02,-3.88484e-02,3.88572e-02,-1.69020e-01,1.30817e-01,6.74527e-03,7.04029e-02,-3.00686e-02,5.50741e-02,1.06667e-01,-6.67361e-02,5.36706e-03,9.40500e-03,-4.09916e-02,-8.89627e-02,-8.13319e-02,-7.18676e-05,-2.05810e-01,-1.39647e-01,9.67350e-02,9.68885e-02,-9.94961e-02,7.53544e-02,7.56283e-02,1.38498e-01,-1.25697e-01,1.25384e-02,2.92890e-02,4.86372e-02,1.06313e-01,-2.53100e-02,1.28950e-01,2.05155e-01,1.48817e-01,-9.01765e-02,1.06715e-01,1.12357e-01,1.88102e-01,2.14164e-01,2.35979e-01,1.32829e-01,3.82342e-02,2.59551e-01,-2.52910e-02,1.76796e-01,1.53019e-02,1.43143e-01,1.29005e-01,-6.78931e-02,1.19687e-01,6.75829e-02,1.17750e-01,1.25499e-02,1.15150e-01,1.18879e-01,4.05121e-02,1.06999e-01,1.93134e-01,-2.51367e-02,2.71466e-02,-2.61639e-02,8.36950e-02,7.45495e-02,7.77149e-02,1.39088e-01,1.12747e-01,4.72851e-02,3.24569e-02,1.71721e-01,3.99261e-02,5.26966e-02,1.02578e-01,-2.91887e-02,1.08414e-03,-1.31825e-01,1.29434e-01,-5.75973e-02,7.72015e-02,-8.98999e-02,-1.34162e-01,-1.26981e-01,1.02420e-01,-6.77653e-02,5.92550e-02,2.84767e-02,1.92630e-02,7.19938e-02,3.13800e-02,8.97182e-02,4.16303e-02,1.07560e-01,1.15146e-01,-1.45639e-01,3.62535e-02,7.47131e-03,2.11902e-03,6.45590e-03,-6.37342e-02,-1.95056e-01,-2.44654e-01,-2.51802e-03,-5.74466e-02,-1.67958e-01,-1.33443e-01,5.22482e-02,-9.20224e-02,3.91029e-02,-2.65076e-02,1.26931e-01,-1.23359e-02,1.47657e-01,1.80213e-01,1.20560e-01,6.37931e-03,-3.79850e-02,-1.26628e-02,2.92449e-02,8.61732e-02,2.36528e-01,-1.68395e-02,1.27037e-01,1.04521e-02,1.21405e-01,9.70132e-02,4.85934e-02,3.64284e-02,3.10001e-01,6.24493e-02,1.17320e-01,1.03487e-01,7.06840e-03,1.70377e-01,-2.99763e-02,-1.20937e-02,4.56402e-02,5.08800e-02,3.97486e-02,3.64033e-02,2.25628e-01,1.78130e-02,-4.44064e-04,-3.33696e-02,-1.47967e-01,1.24443e-01,2.17867e-02,1.26921e-01,2.59569e-02,-4.70851e-02,1.84090e-02,1.49592e-02,1.68828e-02,6.69816e-02,9.52986e-02,8.93792e-02,-2.27919e-02,1.24449e-01,2.02106e-01,-4.88887e-02,1.62323e-02,-3.53918e-02,8.16268e-02,-2.17826e-02,-6.40692e-02,9.49124e-02,6.83036e-02,-5.87265e-02,3.84241e-03,-6.50391e-02,-1.19643e-01,-6.55612e-02,-3.46632e-02,4.67884e-02,1.00544e-01,9.93379e-02,-1.58756e-01,-1.52059e-03,-8.17106e-02,-4.07284e-02,3.61456e-02,-3.92926e-02,-8.33775e-03,-4.53944e-03,-1.69290e-01,-5.24768e-02,-1.09027e-01,1.87597e-02,-5.56848e-03,-1.32202e-01,-2.24544e-03,-6.68689e-02,-1.83520e-01,-1.92176e-02,-5.49423e-02,-1.50271e-01,-5.29594e-02,1.92696e-02,2.14914e-02,-7.82615e-02,-2.47034e-02,5.46629e-02,1.33358e-01,4.05851e-02,3.29700e-02,9.98862e-02,1.71223e-01,2.09611e-01,1.80463e-01,8.95569e-02,2.44042e-02,9.11789e-02,2.30819e-01,7.34242e-02,1.18480e-01,2.59987e-01,1.91378e-01,7.14824e-02,1.24533e-01,2.09572e-01,1.12317e-03,5.80663e-02,-1.33599e-02,5.29440e-02,1.37484e-01,-5.12350e-02,-1.13829e-01,1.04879e-01,2.27076e-02,1.34015e-01,9.13877e-02,8.19011e-02,-3.17553e-02,1.48614e-01,-1.41670e-01,9.54091e-02,1.23992e-01,-3.42752e-02,-8.69312e-02,-2.47249e-02,5.43747e-02,1.64119e-02,7.33837e-02,-1.82005e-03,-1.14279e-01,3.53338e-02,-1.33492e-01,-4.96268e-02,5.08923e-02,3.73236e-02,2.46029e-02,-5.04850e-02,1.81584e-02,4.21075e-02,2.54967e-02,-8.86858e-02,-1.17234e-01,-1.80565e-02,-5.17129e-02,-8.69436e-03,1.15055e-01,-1.41491e-01,1.09462e-01,2.24119e-02,-1.16286e-02,8.12506e-02,-6.80968e-02,4.15716e-02,-1.32962e-02,-2.38826e-01,-3.96840e-02,-1.06298e-01,-1.65909e-01,-3.73185e-02,8.89769e-02,-3.63659e-02,-7.83276e-02,4.20958e-02,-2.03092e-01,3.18866e-02,7.44881e-02,-5.54887e-02,7.36119e-03,6.31668e-02,-2.05299e-02,-3.83094e-02,-3.71191e-02,-1.20008e-01,1.21056e-01,3.05332e-01,-9.53435e-03,-2.17296e-02,2.95999e-01,5.09809e-02,6.49251e-02,5.67460e-02,1.31237e-01,3.47031e-01,7.50184e-02,2.04088e-01,4.35536e-02,1.53585e-01,8.24337e-02,9.35422e-02,-1.96888e-02,1.02553e-01,6.70589e-02,1.56374e-01,1.49717e-01,8.63359e-02,-5.89405e-02,9.48853e-02,1.22921e-01,-5.22481e-02,2.36390e-02,9.97049e-03,2.05617e-01,4.27012e-02,1.27931e-01,1.53205e-02,-2.98845e-02,1.25954e-01,-1.39101e-03,2.29718e-01,-4.40420e-03,8.96396e-02,-4.30554e-02,6.45439e-02,1.89634e-01,8.37343e-03,4.64989e-02,1.30358e-01,-2.77794e-02,-5.53816e-02,-3.11335e-02,-1.90207e-01,-1.01785e-01,-2.55093e-02,-4.96491e-02,1.03896e-01,-7.09811e-02,1.46896e-01,9.60264e-02,-1.48575e-01,-1.22068e-01,1.14133e-01,4.05649e-02,-6.25327e-02,-1.59731e-01,7.03114e-02,2.20444e-02,-2.38600e-02,-1.61068e-01,-1.30720e-02,1.59944e-02,-2.45615e-01,-5.26128e-02,-1.78833e-01,-3.45507e-01,-2.29511e-01,-8.06959e-02,-1.15951e-01,-3.26193e-01,-8.60680e-02,-1.29757e-01,-5.94247e-02,-4.31571e-02,-1.58661e-01,-6.15711e-02,1.32088e-01,-2.89824e-02,5.93873e-02,1.54382e-01,1.31226e-01,1.40779e-01,2.08435e-02,4.33930e-02,1.50969e-01,1.35094e-01,6.05659e-02,-1.75856e-02,1.26319e-01,6.67909e-03,2.80748e-01,2.58509e-01,5.04814e-02,2.40505e-01,1.55805e-01,-4.01340e-02,2.78285e-01,4.55806e-02,3.80529e-02,-6.40557e-02,1.73504e-01,7.76570e-02,-7.20437e-03,2.37223e-01,7.69301e-02,1.60529e-01,1.59524e-01,-1.16954e-02,1.82353e-01,1.94351e-02,-1.13717e-02,-7.67215e-02,1.74129e-01,-4.33871e-02,-9.89080e-02,9.82554e-02,9.93099e-02,-5.27080e-02,1.83566e-01,-6.48174e-02,9.22540e-02,3.34874e-03,-1.45408e-02,1.85465e-02,9.29791e-03,-5.54085e-02,4.50835e-02,7.82507e-03,-2.61989e-02,6.56788e-02,-1.17106e-01,1.09347e-01,-8.53221e-02,5.76457e-02,1.96490e-02,-1.84301e-01,-1.93660e-02,-1.39348e-04,-1.53872e-02,3.78436e-02,-2.10056e-02,1.59519e-01,6.24724e-02,7.38909e-02,-1.06437e-01,-5.64153e-02,-9.15541e-02,-2.38522e-01,9.40324e-02,-1.14049e-01,-1.66958e-01,1.40747e-02,-1.03880e-01,-1.96914e-01,-2.47432e-02,-1.29577e-02,-1.10398e-01,-2.24981e-02,-1.27378e-01,-3.03343e-01,1.30236e-02,-1.53100e-01,-1.11707e-01,1.42150e-01,-7.18569e-02,5.53366e-02,-8.17612e-02,-1.57903e-01,1.14373e-02,7.45962e-02,-4.08998e-02,-8.24008e-02,-6.87475e-02,-4.07152e-02,8.31230e-03,4.20292e-02,6.08489e-02,-5.73052e-04,6.05145e-02,7.41905e-02,-6.73561e-02,4.08316e-03,8.41407e-02,3.32143e-02,3.04949e-02,-1.66488e-01,1.15114e-01,3.44306e-03,-6.82449e-02,-6.39458e-02,-2.41451e-02,-1.01659e-01,-1.47493e-01,7.93842e-02,5.24693e-02,-8.31442e-02,-4.42955e-02,-1.55121e-01,1.17283e-01,-1.84988e-01,-3.87124e-02,-4.86310e-02,1.46276e-01,5.70452e-02,-1.35481e-01,-6.99199e-03,1.25585e-01,1.63137e-01,1.34931e-01,1.80204e-01,1.62115e-01,7.09566e-03,-1.05599e-01,-6.46386e-02,7.64292e-02,-5.64872e-02,-1.82454e-02,-7.63645e-02,1.46522e-01,-4.90745e-02,1.23329e-01,4.68419e-02,6.33266e-03,1.01693e-01,-1.60394e-02,-3.21548e-02,3.06031e-02,-2.59438e-02,-1.31871e-01,-2.69259e-02,-1.78967e-01,-9.09520e-02,-6.16231e-02,5.13406e-03,-1.56019e-01,-6.25011e-03,-4.88906e-03,-1.77507e-01,-1.20818e-01,3.38333e-02,-1.99241e-01,-3.57412e-02,-1.72201e-01,8.10776e-02,-7.00891e-02,-6.98121e-02,-3.02259e-01,-1.27041e-01,-2.00920e-01,-4.72318e-02,-1.28752e-01,-2.13636e-01,-1.01738e-01,4.93413e-02,-5.46736e-02,1.00916e-01,-1.85738e-01,-2.34105e-01,-5.73973e-02,8.12567e-02,5.79782e-03,-3.13838e-02,-1.79134e-01,-1.69864e-01,-2.01398e-01,1.10356e-01,-2.11199e-01,-1.72362e-01,-1.25969e-01,-1.01172e-01,-1.12796e-01,3.12363e-02,-2.71844e-01,-2.87381e-02,-2.05221e-01,-6.96154e-02,-2.37775e-01,-8.14614e-02,6.78205e-02,7.13917e-03,-1.22269e-01,5.69150e-03,-4.47213e-02,-1.12851e-01,-2.08840e-01,7.91047e-02,3.59560e-02,1.10226e-02,-4.46845e-02,1.77232e-01,3.75413e-02,7.21478e-02,-5.34303e-02,7.47404e-02,-1.30510e-02,1.71302e-01,-2.48826e-03,-8.18816e-02,1.21708e-01,3.82537e-02,-2.24001e-02,5.93521e-02,-8.71970e-02,-4.97182e-02,1.87421e-02,5.56752e-02,-2.92268e-02,-8.44310e-02,-1.35441e-01,1.26096e-02,-1.13917e-01,1.11081e-01,6.29038e-02,4.44759e-02,1.10584e-01,-7.59770e-02,-6.37860e-02,-9.11532e-02,8.55392e-02,4.99957e-02,-2.69401e-01,-8.69712e-02,-1.03684e-03,-2.25061e-02,-4.41011e-02,-1.08319e-01,-4.61345e-02,-8.61001e-02,-3.64966e-03,-4.88348e-02,-6.25846e-02,-2.00927e-02,-1.73323e-01,-5.44343e-02,-1.44033e-01,-1.82021e-01,3.70046e-02,2.32161e-02,-2.30316e-01,-1.10482e-01,5.92430e-02,-9.56930e-02,-2.94574e-01,-8.09897e-02,-2.63538e-01,-2.07514e-01,-7.05466e-02,-8.77250e-02,-1.64815e-01,-2.36486e-01,-1.97737e-01,-2.76203e-02,-2.57061e-01,-2.02260e-02,-1.55535e-01,-2.31378e-01,-2.33569e-02,-2.46421e-02,-1.97302e-01,-2.10290e-01,-4.80277e-02,-1.06875e-01,8.16689e-03,1.19276e-01,4.52769e-02,5.34879e-02,-4.40096e-02,5.21140e-02,-4.75488e-02,-1.50150e-01,9.63175e-02,1.70180e-02,-1.26200e-01,-5.73438e-03,-1.42323e-01,-1.15323e-01,-1.67104e-02,-5.63308e-02,-1.40316e-01,4.37787e-02,7.04394e-03,9.92349e-02,1.88492e-01,7.34207e-02,6.20889e-03,1.14851e-01,
-1.09833e-01,1.38668e-01,-6.84491e-02,4.61292e-02,1.76210e-02,3.87630e-02,-1.95639e-02,1.38258e-02,3.23434e-02,1.22948e-01,1.40417e-01,2.79568e-02,5.03624e-02,3.53762e-02,-1.27395e-01,-3.86524e-02,-1.72775e-01,-8.19510e-02,9.22450e-02,6.03923e-02,-5.31720e-02,1.84732e-01,5.29181e-02,-2.31987e-02,-5.44318e-02,-3.58332e-02,-5.24423e-02,6.08532e-03,-4.18310e-02,1.53837e-01,4.54677e-02,4.56844e-02,3.54460e-02,7.59650e-02,-1.05166e-01,1.05398e-01,1.24801e-01,-1.38309e-01,2.70890e-02,-1.00477e-01,2.73827e-03,8.78521e-02,-4.71392e-02,4.96219e-02,2.84245e-02,4.39610e-02,-4.00239e-02,-5.26179e-02,1.04218e-01,1.43607e-03,-1.79820e-01,-6.07667e-02,-5.32246e-02,-6.23691e-02,5.21159e-02,-3.80378e-02,-5.77563e-02,-1.32169e-01,1.31739e-02,-2.01125e-03,-1.07741e-01,-5.06399e-02,1.22476e-01,1.81371e-01,2.12799e-02,4.95623e-02,-2.90774e-02,9.61058e-02,1.55562e-01,-6.78855e-02,9.57623e-02,-7.59706e-02,-6.84423e-02,9.40818e-02,4.42203e-02,-1.70390e-02,-1.01036e-03,-7.23276e-02,3.00535e-04,-2.79465e-02,-2.68963e-02,-6.49645e-02,4.18806e-02,3.88329e-02,-2.45589e-02,-1.21650e-01,2.71608e-02,-6.16598e-03,3.93731e-02,-4.06277e-02,7.50067e-02,8.46199e-02,-9.45616e-02,5.65610e-02,4.78240e-02,-2.69894e-02,7.11201e-02,-4.64335e-02,1.17297e-01,-8.79567e-03,1.77416e-01,1.45167e-01,1.10058e-01,2.81247e-03,1.49879e-01,1.33696e-01,8.53495e-02,-1.50069e-01,-3.05008e-02,-7.28521e-02,-6.25220e-02,-7.42238e-02,1.56043e-01,4.47282e-02,6.09058e-02,3.41992e-02,9.48694e-02,2.72916e-03,1.31300e-01,2.06472e-02,5.55231e-02,1.29012e-01,1.17101e-01,2.13844e-01,-7.78479e-02,7.84722e-02,-1.04082e-02,-2.81819e-02,-4.06157e-02,3.37361e-02,-5.96521e-02,4.73812e-02,8.52085e-03,1.92522e-02,6.45242e-02,6.66243e-02,9.80999e-03,1.75050e-01,4.38216e-02,4.50159e-02,2.72954e-01,1.11132e-01,1.82277e-01,-1.47228e-02,5.24748e-03,6.90513e-02,1.68935e-01,4.29901e-02,1.12827e-01,4.44014e-02,-4.40120e-02,-3.29138e-02,2.10047e-01,1.48297e-01,6.46666e-02,-1.11328e-01,-2.41001e-02,-6.05194e-02,-3.76329e-02,2.72527e-02,-5.87497e-03,-6.89673e-02,-1.57759e-02,-3.78321e-02,1.33484e-01,5.07759e-02,1.44582e-01,-9.08599e-03,-7.55034e-02,8.50884e-02,-1.01452e-01,6.14015e-03,5.04995e-02,4.29859e-02,-6.08766e-02,-9.91777e-02,-2.85290e-02,2.91831e-02,-7.58528e-02,2.00078e-02,7.88980e-02,-3.70713e-02,6.83458e-02,1.02195e-02,-2.89863e-02,2.31980e-02,9.83505e-02,1.38964e-02,-1.25730e-01,2.24342e-02,1.84562e-01,-1.37220e-01,-9.21206e-02,8.19871e-02,1.91296e-01,-1.92555e-02,2.05504e-01,3.90551e-02,2.00063e-01,-6.60087e-03,1.12255e-01,2.49689e-01,-2.33173e-02,-4.29231e-02,-5.72468e-02,8.23693e-02,-5.16788e-02,-6.84247e-02,-1.42060e-02,9.11527e-02,3.42418e-02,-2.15617e-01,-9.98089e-02,-4.82656e-02,-1.37963e-01,-3.60396e-02,-7.15971e-02,1.00151e-01,3.84510e-02,1.22955e-01,-1.35833e-01,-9.93248e-02,4.23045e-02,9.19040e-03,-1.16784e-02,1.33379e-01,2.95038e-02,7.85661e-02,6.68390e-02,-1.07812e-01,5.24049e-02,9.27867e-02,-7.90410e-02,2.89473e-02,-4.69223e-02,3.42629e-02,-2.47687e-02,-5.39266e-02,-7.57414e-02,8.84885e-02,-6.03991e-02,-2.04875e-02,-3.09340e-02,6.23026e-02,2.74210e-02,1.44875e-02,8.43089e-02,8.91266e-02,6.44211e-02,-6.70927e-02,8.32853e-03,-7.94667e-02,-2.54890e-02,-6.03930e-02,-3.83361e-02,-1.14336e-01,-1.29181e-01,1.83170e-02,1.19993e-01,-1.25329e-03,9.53030e-03,1.74488e-02,7.10222e-02,-1.53431e-03,-2.28804e-02,4.08489e-02,6.83200e-02,-9.71562e-02,-1.08257e-01,1.76809e-02,-8.65199e-03,8.06672e-03,1.26193e-02,-1.95572e-02,1.59992e-01,4.04004e-02,-8.88178e-02,1.30636e-01,-1.74693e-01,1.69657e-02,5.93869e-02,-7.71259e-02,1.87033e-02,-2.87387e-02,1.93480e-02,5.99366e-02,2.18243e-01,-7.20788e-02,-7.22577e-02,-1.43957e-01,1.87609e-01,-1.09816e-01,-1.20711e-02,-8.63629e-02,-9.73805e-02,9.56650e-02,-1.63963e-02,-1.07292e-01,-4.83180e-02,-1.70308e-02,9.28234e-02,-5.77225e-03,-4.14844e-02,2.99290e-02,-1.15038e-01,-1.57489e-01,-1.49621e-01,4.64402e-02,-9.28441e-02,-1.93660e-02,-6.74442e-02,-4.99613e-02,-7.07397e-02,-1.06896e-01,2.03290e-02,-1.44208e-01,-2.34819e-01,-6.95044e-02,-9.66582e-02,2.99936e-02,-8.04047e-02,1.36577e-02,1.19217e-01,-2.75056e-02,-2.96039e-02,1.86646e-01,6.18679e-02,5.62436e-02,3.71278e-02,7.53937e-02,4.77932e-02,4.48437e-02,-3.95890e-02,5.83119e-02,3.64246e-02,6.65057e-02,-6.11206e-02,1.12707e-01,-7.07365e-02,1.45025e-02,5.99145e-02,-6.11496e-03,7.57611e-02,3.38784e-02,2.63677e-02,1.21334e-01,-3.00459e-02,-7.81745e-02,-8.31058e-02,-8.22383e-02,1.66849e-01,-8.88223e-02,3.78782e-02,1.02426e-01,1.19361e-02,5.66923e-02,-5.04956e-02,-9.21907e-02,-6.83108e-03,-1.64650e-02,1.79509e-02,1.36432e-02,-8.48666e-02,-7.60891e-02,1.10098e-01,7.72278e-02,1.02274e-01,-3.65066e-02,1.51647e-01,7.33866e-02,-9.47984e-03,-1.01475e-01,4.28751e-03,5.94026e-03,-4.98724e-02,3.07405e-02,1.34740e-01,-5.43416e-02,6.75124e-02,-1.72206e-01,-6.11112e-02,7.12522e-02,5.69017e-02,-8.28154e-02,1.19383e-01,-1.05821e-01,-3.98448e-02,-2.33146e-02,6.33564e-02,-3.51403e-02,-2.91007e-02,8.71989e-02,-4.05732e-02,-6.84029e-02,-8.56184e-02,1.20501e-02,-1.04576e-01,4.51820e-02,-1.18878e-01,-1.58306e-01,-2.16998e-01,-9.75044e-02,-1.21893e-01,9.26257e-02,-3.90643e-02,6.87618e-02,-8.72841e-02,1.56462e-02,5.87488e-02,5.95567e-02,-5.04767e-02,1.11203e-01,1.21108e-02,-8.84355e-02,1.07066e-01,1.22130e-02,6.73783e-02,-6.11809e-02,9.40631e-02,6.56997e-02,-4.33494e-02,-1.26800e-02,-4.72221e-02,-3.85725e-02,-3.90077e-02,1.23445e-01,1.39078e-01,3.49744e-02,-1.49099e-01,1.47332e-01,1.03406e-01,-1.16762e-02,3.70387e-02,-9.48059e-02,1.17930e-01,-9.00374e-02,8.98247e-02,4.64000e-03,8.93434e-02,-1.38675e-01,-3.33362e-02,-4.08660e-02,7.47277e-02,-1.44752e-01,-1.90545e-02,-4.23352e-03,1.59891e-01,1.30675e-01,-8.43289e-02,1.14104e-01,2.10385e-01,-5.29831e-02,3.15920e-02,1.63876e-01,1.36062e-01,1.73810e-01,1.35136e-02,1.64884e-02,-3.94612e-02,5.33045e-03,-4.37536e-02,1.60408e-01,2.65043e-02,1.06517e-01,-5.42204e-02,2.56714e-02,5.93773e-03,1.05755e-01,6.38651e-02,4.37303e-02,-1.36444e-01,-8.88876e-02,3.77408e-02,-3.34480e-02,2.98410e-02,1.68725e-01,2.36144e-02,5.47758e-02,-1.65084e-01,-8.78296e-02,6.34469e-02,1.31983e-01,-1.64438e-01,-8.64415e-02,4.09991e-02,-2.86303e-02,-8.84712e-02,-2.03147e-02,-4.25127e-02,7.77262e-02,1.86437e-02,3.48307e-02,-2.15086e-02,-1.76444e-01,-1.44462e-01,2.40807e-01,1.66074e-01,-4.79761e-02,-6.85786e-02,-4.25441e-03,-1.00261e-01,-3.41445e-02,-9.91117e-03,-9.82127e-02,5.25440e-02,5.33475e-02,-7.24607e-02,-9.55044e-02,-3.85809e-02,-5.00984e-02,6.43421e-02,1.78365e-02,-1.25745e-02,-2.68154e-02,-1.60677e-01,-4.98948e-02,7.70396e-03,2.40766e-03,-6.74774e-02,-1.55241e-02,1.93627e-01,-4.00173e-02,1.03002e-01,1.87278e-01,1.79967e-01,6.42364e-02,1.10331e-01,-3.87885e-02,5.06070e-02,1.82819e-01,-7.21432e-02,1.59198e-01,1.07197e-01,-4.42113e-02,2.51273e-01,2.83974e-02,-1.21362e-01,2.30164e-01,1.52832e-01,-6.81738e-02,1.50643e-01,1.65027e-01,1.74297e-01,2.36335e-01,-2.28457e-02,9.33544e-02,1.63332e-01,1.35023e-01,-5.76826e-02,2.77090e-01,1.65527e-01,-1.23906e-01,-1.05020e-02,1.00550e-01,-2.98150e-02,2.35511e-01,1.82188e-01,1.23954e-02,2.12678e-01,1.63319e-01,5.96640e-02,-3.98620e-02,1.95626e-01,-1.16903e-02,1.46399e-02,-9.14485e-03,4.80182e-02,-9.40769e-02,-5.25068e-02,-3.27049e-02,7.93814e-02,1.36960e-01,-8.91108e-02,-3.70430e-03,1.27735e-01,-5.59403e-02,1.31852e-01,-9.24189e-02,1.34307e-01,1.69375e-01,1.80849e-01,4.58859e-02,1.46400e-01,-3.05835e-02,9.26038e-02,-1.25070e-01,5.20118e-02,1.36536e-01,-4.41355e-02,-4.95585e-02,1.24176e-01,5.10350e-03,1.19642e-01,-3.99282e-02,-2.41127e-02,9.32844e-02,2.07932e-04,-9.89077e-02,1.44974e-01,-6.00097e-02,-4.48576e-02,-1.16553e-01,-5.97222e-02,-4.46622e-02,9.33247e-02,-3.70706e-02,1.18765e-02,4.55537e-02,-9.80600e-02,3.90388e-03,8.03886e-05,-4.70552e-02,-4.74955e-02,-1.19035e-01,-7.95812e-02,1.83902e-01,2.07074e-01,-5.10499e-02,1.03754e-01,1.32342e-02,-3.58932e-02,-1.52644e-02,1.94306e-01,1.24932e-01,2.44246e-01,5.69010e-03,6.59627e-02,7.58993e-02,2.29253e-01,1.77595e-02,8.80103e-02,1.15803e-01,1.19793e-01,1.71200e-01,1.11028e-01,-9.33634e-03,1.32456e-01,1.60151e-01,1.30108e-01,-7.96831e-03,9.76348e-02,-1.73543e-02,1.27729e-01,2.84017e-01,8.98650e-02,9.36504e-02,2.52821e-02,-6.00480e-03,-1.40643e-02,8.12961e-02,8.79911e-02,1.37664e-02,4.96739e-02,7.60652e-03,8.73379e-02,-9.46120e-02,1.10075e-01,8.34962e-02,2.72497e-02,5.39384e-02,-8.09242e-02,6.29817e-02,-4.91236e-02,1.40716e-01,2.25574e-01,7.84704e-02,1.95274e-01,7.16588e-02,5.41454e-02,1.35541e-01,2.61353e-02,5.44232e-02,8.36529e-03,5.38256e-02,7.48551e-02,-8.22453e-02,-7.41404e-02,-1.03821e-01,-3.03420e-02,1.87282e-01,-6.43226e-02,-1.18416e-01,-6.79272e-02,-7.19662e-02,-1.01214e-01,7.45096e-03,-3.84410e-03,-2.95374e-02,-6.13059e-03,-1.22380e-02,-2.40760e-02,3.06117e-02,-3.41651e-02,-1.11113e-01,3.05544e-02,6.81575e-02,-5.64471e-02,1.44203e-01,-1.19923e-02,6.35584e-02,3.71002e-02,1.65849e-01,-3.66482e-02,9.99147e-02,1.63572e-01,5.48283e-02,1.38286e-03,2.06656e-02,8.08465e-02,-3.74315e-02,1.79291e-01,-6.39288e-03,2.15162e-02,-9.57121e-02,1.74765e-01,7.92392e-02,2.18777e-02,2.51757e-01,1.54280e-01,1.30304e-02,2.76978e-02,1.00864e-01,1.71437e-01,1.50151e-01,9.91399e-02,1.42554e-01,2.49394e-01,-5.81653e-02,-4.95401e-03,2.33864e-01,5.52584e-02,2.42994e-02,-7.23931e-03,2.18544e-01,3.24018e-02,1.05104e-01,6.15455e-02,-5.52251e-02,-6.77777e-02,3.81947e-02,-4.19303e-02,2.31445e-02,1.59588e-01,1.80099e-01,1.76364e-01,3.76400e-02,1.18298e-01,1.09105e-01,-1.61616e-02,1.13465e-01,3.59211e-02,1.51233e-01,1.61401e-02,1.07356e-01,6.48308e-02,6.77650e-02,4.81058e-02,-2.99032e-02,1.11930e-01,6.49711e-03,1.06489e-01,1.27499e-01,-6.18181e-02,-9.25523e-02,1.09598e-01,1.56718e-01,5.20732e-02,6.84674e-03,9.94494e-02,-7.69859e-02,-4.57173e-02,-9.88298e-02,4.10631e-02,-1.33207e-02,-5.45272e-02,1.19779e-02,1.05512e-01,1.07476e-01,9.88207e-02,4.48007e-02,-4.63317e-02,-2.54005e-02,-7.87876e-02,5.54568e-02,-6.84417e-02,-1.34576e-02,1.27245e-01,-6.20474e-02,2.84854e-02,9.71321e-02,-1.16880e-01,6.58219e-02,-5.72951e-02,1.00401e-01,5.62324e-02,7.66201e-02,8.92347e-02,1.63173e-02,1.23789e-01,8.18034e-02,1.87463e-01,-4.97409e-02,2.26787e-01,-4.55725e-02,2.58171e-01,1.95930e-01,1.20348e-01,1.39596e-01,1.32818e-01,1.62824e-01,-3.43192e-02,1.57446e-01,1.12150e-01,5.69959e-02,2.75382e-01,2.36968e-01,9.81242e-02,1.13514e-01,1.16082e-01,1.66444e-01,2.57319e-02,4.08631e-02,4.56528e-02,1.80258e-01,5.72798e-02,3.03627e-02,7.79625e-02,8.02728e-02,2.42399e-01,1.04865e-01,2.81669e-01,9.63508e-02,1.58511e-01,8.99779e-02,-5.61141e-03,1.83314e-01,2.21731e-01,1.24873e-01,1.72150e-01,-4.40388e-02,-2.63055e-02,3.71259e-02,2.55832e-03,2.09749e-02,9.61182e-02,2.70389e-02,-3.72737e-03,1.52331e-01,1.55554e-02,-1.01345e-01,8.45571e-02,-9.78929e-02,2.84550e-02,1.10259e-01,-1.55317e-02,-1.83714e-02,1.80106e-02,-1.21160e-01,-9.21527e-03,-2.73317e-02,3.65117e-02,3.83338e-02,2.59810e-02,-9.08132e-02,1.63965e-01,-5.00358e-02,-5.83570e-02,1.77131e-02,-2.02206e-03,-1.51433e-02,-3.19172e-02,1.68147e-01,-3.34703e-02,-9.27558e-02,-3.95157e-02,-4.89808e-03,-3.05584e-02,-9.08201e-02,-7.56788e-02,1.13752e-01,1.41185e-01,-1.05318e-02,-2.88052e-02,5.91200e-02,1.54511e-01,1.51521e-01,-3.82040e-02,-1.26762e-01,3.19299e-02,5.35942e-03,-2.63633e-02,1.69220e-01,2.18789e-01,2.24935e-02,2.44738e-01,4.66591e-02,5.22870e-02,1.59962e-01,2.13507e-01,2.19724e-01,5.42075e-02,3.81817e-02,5.83139e-02,-4.33582e-02,-2.11632e-02,5.65540e-02,7.47666e-02,4.71405e-02,1.05321e-02,2.45783e-01,2.49275e-01,2.06139e-01,2.11129e-01,2.88495e-01,2.36888e-01,-3.86956e-02,1.50887e-01,5.94963e-02,1.58146e-01,2.34388e-02,-7.83599e-02,1.56701e-01,6.79499e-02,-2.41719e-02,-2.82663e-02,-1.49976e-01,1.00153e-01,-1.23625e-02,3.10782e-02,4.79101e-02,8.81890e-02,4.76419e-03,-1.17756e-01,-7.77398e-03,-3.50606e-02,-8.01214e-02,-1.98719e-02,1.07990e-02,-2.05626e-01,-1.06371e-01,-1.28755e-01,1.00265e-01,4.23841e-02,6.14000e-02,9.84249e-02,-2.48631e-04,1.27981e-01,-2.83993e-02,5.56654e-02,9.23178e-02,-4.89322e-02,1.93536e-02,8.74322e-02,-6.90706e-02,1.60870e-01,7.14685e-02,8.65640e-03,5.28232e-02,4.24976e-02,3.64292e-02,1.49740e-02,9.69913e-02,4.80042e-02,-2.36783e-02,5.45828e-03,-1.13207e-01,1.00146e-01,-7.38846e-02,3.97572e-02,1.04243e-01,-1.38062e-01,-1.62639e-01,1.14084e-01,6.54046e-03,-7.78392e-02,5.08925e-02,-2.02373e-02,-1.39528e-01,-7.69491e-03,6.17495e-02,-1.54103e-02,8.57553e-02,-1.18126e-02,2.24759e-02,2.52883e-02,1.41761e-01,1.73231e-02,7.88976e-02,9.32466e-02,1.01517e-01,9.37983e-02,2.60838e-02,-6.40103e-02,5.87509e-02,2.25028e-01,-5.37239e-03,-7.30982e-02,1.05914e-02,1.03821e-01,1.52080e-01,6.85484e-02,-2.26106e-02,1.13301e-01,4.10759e-02,-1.00705e-02,2.25431e-03,-1.12789e-02,4.42655e-02,3.62917e-02,1.59828e-01,8.40996e-03,-1.80008e-01,1.25153e-01,-1.07136e-01,-7.70267e-02,-1.75694e-01,-1.96521e-02,1.02752e-01,1.54549e-02,-6.63144e-02,-2.98159e-02,4.92372e-02,-2.00167e-01,3.62649e-02,-2.88564e-02,-1.29743e-01,-2.08340e-02,1.19274e-01,-2.40784e-02,1.11955e-01,-7.61301e-02,5.59536e-02,6.76975e-02,1.19327e-01,1.51598e-01,-6.42753e-03,3.90419e-02,-3.10468e-02,-1.04687e-01,1.20870e-01,-7.33111e-02,1.69754e-01,-1.35947e-01,2.37938e-02,3.68708e-02,1.97528e-02,1.80037e-01,1.35749e-02,9.90238e-02,-1.11622e-02,-6.26108e-02,-6.09030e-02,-1.35642e-01,-2.28302e-01,-1.67913e-01,7.42146e-03,-8.41716e-03,3.66934e-02,-4.68002e-02,-1.86825e-03,-2.03099e-02,1.11487e-01,-7.96864e-02,-1.64560e-01,-1.75388e-01,-1.26650e-01,1.08574e-01,-2.21266e-01,8.19672e-02,1.16832e-01,-1.14833e-01,1.32406e-01,3.20271e-02,5.53243e-02,6.31052e-02,-1.02113e-01,1.02300e-01,-3.30806e-02,1.20674e-01,5.38670e-03,4.26689e-02,1.82566e-01,-6.04301e-02,1.04851e-01,7.58602e-02,2.97176e-02,1.92696e-02,-8.42235e-02,3.14361e-02,4.04911e-02,-8.75659e-02,-9.13594e-02,-3.73805e-02,-1.26204e-01,1.72276e-02,1.95068e-02,-5.01705e-02,-1.45896e-02,1.74046e-01,2.25538e-02,1.23982e-01,7.99512e-02,-3.48804e-02,-2.25977e-03,1.10670e-02,-1.07619e-01,6.16920e-02,6.17434e-02,5.89955e-02,-2.13047e-02,-2.74092e-02,4.60491e-02,3.82273e-02,1.08372e-01,-4.83274e-02,2.26941e-02,2.80718e-02,-5.94758e-02,1.65433e-01,-8.33575e-02,1.78226e-01,-3.28560e-02,1.76754e-01,2.13132e-01,-1.64463e-03,9.19865e-02,1.74978e-02,1.74656e-01,1.36507e-01,1.78049e-01,7.47870e-02,-1.58150e-01,-9.17283e-02,-9.89432e-02,-3.57715e-01,-3.72478e-01,-1.78815e-01,-3.22226e-01,-9.15257e-02,-1.39323e-01,-1.63456e-01,-2.24468e-01,2.66477e-03,-3.46810e-02,-5.72980e-02,-1.49154e-01,-6.11938e-03,-2.42230e-01,-2.59398e-02,-6.40109e-02,6.12159e-02,-1.16152e-01,7.61045e-02,-4.05060e-02,1.21857e-01,-8.18910e-02,1.00194e-01,-1.79475e-01,2.75122e-02,8.83747e-02,3.22059e-02,1.25805e-01,1.03592e-01,-1.12589e-01,8.20341e-02,8.63531e-02,-4.47432e-02,-1.36714e-01,3.74495e-02,1.37608e-01,-4.07733e-02,-3.06132e-02,5.84044e-02,2.77698e-02,9.04355e-02,-1.82271e-01,7.13716e-02,-1.62569e-01,-5.30077e-02,-5.34350e-02,-1.07081e-01,1.65281e-01,6.84638e-02,-9.69753e-02,4.18471e-02,-7.28297e-02,-1.46578e-01,7.16070e-03,-3.82459e-02,-2.20940e-02,-3.64163e-02,4.34385e-02,1.73849e-04,2.69580e-02,1.68477e-01,9.04445e-02,4.99014e-02,5.68547e-02,8.93223e-02,7.43822e-02,8.98371e-02,1.05619e-01,4.14387e-02,4.25919e-02,-2.77676e-02,8.27715e-02,-1.11040e-01,1.41097e-01,3.30177e-02,-3.39061e-02,-5.76579e-02,7.10851e-02,-1.06559e-01,-2.91310e-02,-7.51990e-02,-1.94378e-01,-1.46418e-01,-5.13130e-02,-2.34564e-01,-6.14286e-02,1.71827e-02,-1.37357e-01,-2.97820e-01,-2.00519e-01,-1.68229e-01,-2.42343e-01,-1.24220e-01,5.93165e-02,-8.75867e-02,-9.00216e-02,4.71583e-02,9.85028e-02,-1.71935e-01,1.18168e-01,-2.38764e-02,-1.00731e-01,2.01998e-01,4.52216e-02,6.31213e-04,1.13354e-01,-7.81212e-03,1.75506e-01,1.21034e-01,6.08714e-02,-7.97372e-02,-5.16393e-02,1.76169e-01,-2.79879e-02,1.12691e-01,2.70971e-01,-1.87107e-02,-1.48214e-01,-1.34519e-01,4.58131e-02,-1.31834e-01,-3.25275e-02,-1.25601e-01,-1.45638e-02,-3.95265e-02,-1.14908e-01,-7.72507e-02,-8.41187e-03,-4.92871e-02,-9.44110e-03,1.01047e-01,-1.18905e-01,-8.61297e-02,-9.37153e-02,-1.40527e-02,-4.54968e-02,-1.31159e-01,-4.08673e-02,-5.68153e-02,-1.37740e-03,5.86252e-02,8.53603e-02,-3.41873e-03,2.53941e-02,-1.07997e-01,-7.42834e-03,-1.19549e-01,1.23924e-02,1.30956e-01,-6.83685e-02,1.59533e-02,3.73858e-02,-1.88972e-02,1.65773e-02,2.02954e-03,9.57285e-03,1.90284e-01,2.50905e-02,8.29481e-02,-3.12445e-02,3.20301e-02,-1.34619e-01,-1.44134e-01,-7.80539e-02,1.40045e-01,-2.42904e-01,-1.20895e-02,-1.04731e-01,-1.50868e-01,-3.42165e-01,-3.49373e-02,-2.51991e-01,-1.65255e-01,-7.45133e-02,-8.30059e-02,-2.01914e-01,-6.48454e-02,-4.08356e-02,2.82685e-02,1.06273e-02,-2.76885e-02,8.95988e-03,6.54621e-02,7.07548e-02,-4.49408e-02,1.23533e-01,3.58243e-02,2.40615e-01,6.11595e-04,1.37572e-01,2.18321e-02,-1.01216e-01,1.55691e-01,7.85849e-03,5.53905e-02,9.33063e-02,5.41873e-02,2.39797e-02,5.35648e-02,1.18628e-01,1.18379e-01,-1.87869e-01,1.62438e-01,-7.83334e-02,6.28484e-02,5.64865e-02,-7.33876e-02,-4.63614e-02,3.58821e-02,1.06238e-01,-1.82941e-01,-1.03954e-01,-1.69323e-02,7.25898e-02,1.17017e-01,2.79505e-03,1.20864e-02,1.96541e-01,1.08737e-01,-7.78217e-02,-2.03145e-01,-1.85432e-02,-8.07997e-02,3.22157e-03,8.55538e-02,1.12780e-01,-7.83348e-02,3.51408e-02,1.19938e-01,1.65853e-01,-1.02343e-01,1.44146e-01,1.40146e-01,-2.41061e-02,-4.20426e-03,2.34743e-03,1.29472e-01,6.78638e-02,3.77455e-03,1.80851e-01,-7.74763e-02,3.86468e-02,-1.30290e-01,1.70968e-02,9.43427e-02,5.19214e-02,7.23330e-03,-1.09693e-01,7.37081e-02,-1.66875e-01,-2.66854e-01,-1.53702e-01,-2.17413e-01,-9.38920e-02,-2.34740e-02,-1.17528e-01,4.65534e-02,-1.21943e-01,1.00144e-01,-2.40608e-02,-1.40709e-01,-2.45465e-03,-7.02674e-02,1.04625e-01,-2.68080e-02,1.28588e-01,-1.16919e-02,2.30562e-01,1.42781e-02,6.54685e-02,1.08234e-01,1.20685e-01,5.03132e-02,1.10961e-04,1.41979e-01,-9.20968e-02,1.45698e-01,7.29941e-02,-2.32056e-02,2.29495e-02,1.22743e-01,1.91099e-02,2.02371e-01,-2.62673e-02,1.28879e-02,1.79075e-04,2.19373e-02,-7.82220e-02,-8.03606e-03,-1.47956e-02,-9.95671e-02,3.85384e-02,-1.21542e-01,-1.21032e-01,-1.48253e-01,-1.44956e-01,-1.33575e-01,-7.58559e-02,7.44599e-02,-1.98914e-02,-1.90001e-01,-1.12697e-01,-4.25124e-02,-2.90792e-02,-1.74311e-01,7.98879e-02,2.10563e-01,1.39441e-02,2.06356e-02,1.74198e-01,1.20702e-01,9.02673e-02,1.25165e-01,1.10914e-01,-1.47504e-01,-1.04677e-01,-1.17641e-01,8.86098e-02,2.86560e-03,2.05921e-01,6.34779e-02,9.09990e-02,6.03302e-02,-1.01745e-01,-1.54098e-01,-6.72010e-02,-4.01860e-02,-6.17740e-02,-1.53373e-01,7.91992e-02,-1.05922e-01,-1.73358e-01,-2.50874e-01,-1.32461e-01,-2.24605e-01,-2.48065e-01,-1.37636e-01,-1.94693e-01,-6.62992e-02,-1.91009e-01,1.01113e-01,-1.61486e-01,-7.01373e-02,2.39410e-02,-7.96354e-02,2.44624e-01,2.57194e-01,1.87027e-01,2.67304e-01,2.36248e-01,-5.59449e-02,1.25311e-01,2.24906e-01,-5.06445e-02,1.30034e-01,4.93312e-02,5.65005e-02,1.06508e-01,1.77397e-02,-2.91724e-02,1.27522e-01,1.18199e-01,1.69811e-02,2.01551e-02,5.61448e-02,4.14186e-02,1.14707e-01,1.68578e-01,-3.93537e-02,-9.41253e-02,7.39784e-02,-8.29388e-02,1.99770e-02,-4.61705e-02,-7.90686e-02,6.46261e-02,6.38711e-02,-1.05744e-01,7.88053e-02,1.80358e-01,1.63283e-01,8.28132e-02,-6.00551e-02,6.02688e-02,-8.21724e-02,1.46702e-01,-1.58793e-01,7.90805e-02,-4.91497e-02,-1.67583e-02,8.77510e-02,7.75691e-02,-2.86476e-02,-1.19131e-01,1.33386e-01,-3.61319e-02,1.06614e-01,-6.85892e-03,1.11830e-03,1.67617e-01,7.38153e-02,-8.62162e-02,3.81990e-02,5.48548e-02,1.15053e-01,-9.97562e-02,1.25196e-01,1.12391e-01,1.59255e-01,-1.12585e-01,-1.70959e-01,-8.16792e-02,-5.00004e-02,-3.04808e-02,-1.02110e-01,-2.50709e-01,1.47926e-01,-8.39729e-02,5.47243e-02,-4.88074e-02,7.97021e-02,-9.73921e-02,1.54150e-01,7.92401e-02,1.22497e-01,-6.49169e-02,1.41402e-01,5.33871e-02,6.82596e-02,4.22592e-02,8.77336e-02,8.22321e-02,1.72795e-01,4.11479e-02,-7.88903e-02,4.73972e-02,1.17753e-01,-1.58147e-02,1.61458e-01,8.81123e-02,6.35297e-02,3.44089e-02,1.06849e-02,-1.38036e-01,2.95437e-02,8.62664e-02,-6.49502e-02,1.82359e-01,6.72307e-02,6.22825e-02,8.54746e-02,5.01796e-02,-1.86162e-02,8.71782e-02,8.65238e-02,-2.34065e-01,-3.81697e-02,-1.06550e-01,2.41909e-02,1.58471e-02,-3.83411e-03,3.45286e-03,-1.22727e-01,-8.21121e-02,-1.31689e-01,8.45450e-02,1.00211e-02,2.93288e-02,2.25406e-01,-3.70673e-02,4.27097e-02,9.57759e-03,5.51944e-02,-1.09950e-01,1.44494e-01,-6.07086e-03,-8.50804e-02,1.18723e-01,1.26913e-01,3.03956e-02,2.81473e-01,3.98274e-02,2.36777e-02,8.72858e-02,-4.93120e-02,-4.12392e-02,-5.59499e-02,8.74014e-02,7.60761e-02,1.61532e-01,1.64519e-01,2.95289e-02,1.38597e-01,6.96918e-02,3.65682e-02,4.91305e-02,4.41506e-03,3.17682e-02,3.75685e-02,1.22275e-01,1.72206e-02,1.06531e-01,-2.37697e-02,1.78340e-01,-6.14093e-02,2.13168e-01,6.09253e-02,1.43542e-01,4.47468e-02,-7.13962e-02,1.93097e-01,2.42236e-02,7.47140e-02,-8.15216e-02,-7.04165e-02,6.14110e-02,1.51317e-01,9.99746e-02,3.56553e-02,-6.60165e-02,1.47934e-02,1.00742e-01,1.62744e-01,-1.24383e-02,-2.76503e-02,4.23850e-02,5.44946e-02,-3.80972e-02,-3.36036e-02,-4.41125e-02,-3.30927e-02,1.44121e-01,-1.09535e-01,-1.21924e-01,2.00921e-01,-1.04934e-02,-2.37985e-01,-4.65045e-02,1.29424e-01,-7.22713e-02,6.21492e-02,-4.48276e-02,-6.49512e-02,-8.68612e-02,8.48240e-02,1.00819e-01,-9.47745e-03,1.46959e-01,3.20743e-02,-1.06695e-01,7.21652e-02,-5.96437e-02,3.10557e-02,7.60355e-02,-4.32758e-02,6.48515e-02,-7.93295e-02,7.12263e-02,1.29652e-01,1.73561e-01,1.47549e-02,1.08549e-01,-2.72732e-02,-4.80423e-02,1.56295e-01,-8.64662e-02,-3.87145e-02,-9.80051e-04,1.84857e-01,-1.14885e-02,1.05819e-01,5.76939e-02,1.69750e-01,1.90288e-01,1.42306e-01,-1.10963e-01,1.29525e-01,8.13668e-02,2.85738e-03,1.55936e-01,1.50708e-01,8.50644e-02,1.12978e-01,2.06342e-01,6.83760e-02,2.01494e-02,9.57688e-02,-3.29967e-02,-1.16974e-02,-4.18417e-02,6.57347e-02,1.19652e-01,3.84921e-02,-1.35224e-01,3.80273e-02,1.65486e-01,-6.41293e-02,-9.12740e-02,1.71531e-01,8.57971e-02,1.46441e-02,9.21817e-03,-1.39450e-01,-6.97757e-02,1.37742e-01,1.56958e-01,1.10468e-01,-8.80920e-02,7.41488e-03,1.41108e-01,2.28503e-02,-1.00247e-01,1.50005e-01,6.14217e-02,1.76277e-01,1.56818e-01,9.38781e-02,5.07100e-02,7.45480e-02,5.51224e-02,6.88883e-02,-3.30281e-02,5.64627e-02,-7.88601e-02,8.20363e-02,1.87123e-02,-3.25207e-02,1.51930e-01,-1.63728e-01,-2.23916e-03,-1.19829e-01,6.19157e-02,8.00367e-02,1.06289e-01,-1.18868e-01,-1.70068e-03,1.01963e-01,-4.52268e-02,-2.32639e-02,2.51115e-01,5.06394e-02,-1.24047e-01,2.52606e-02,1.56738e-01,6.39394e-02,1.35189e-02,8.32581e-03,1.03682e-01,1.20836e-01,4.84604e-02,-1.06615e-01,-4.22840e-02,1.13711e-01,-2.73225e-02,3.79885e-02,-2.36966e-02,7.86954e-02,-1.64663e-02,-2.06443e-02,1.49191e-01,4.38367e-02,-4.70224e-02,1.98260e-01,1.74945e-01,8.18932e-02,4.12651e-02,1.59127e-01,1.58115e-01,9.00947e-02,1.32710e-01,4.10778e-02,-4.06872e-02,-4.04816e-02,4.30323e-02,2.50004e-02,1.10265e-01,1.56197e-01,6.13970e-02,1.06742e-01,3.44397e-02,1.25105e-01,-4.89706e-02,-8.89985e-02,-7.81724e-02,1.15989e-01,-4.16260e-02,-7.04702e-02,-9.53226e-04,3.80906e-03,-5.02418e-02,-3.51533e-02,8.21705e-02,-6.84795e-02,3.87438e-02,-1.66477e-01,2.50568e-02,-5.69250e-02,5.04199e-02,-1.60001e-01,-2.39495e-02,8.97069e-02,-7.34464e-02,3.94735e-02,-2.66518e-02,-2.50124e-02,-1.36352e-01,6.77855e-02,1.02183e-02,2.04733e-01,-1.02957e-01,-2.07341e-02,6.85037e-02,4.40627e-02,2.75521e-02,3.80764e-02,-9.75055e-03,-1.36366e-01,1.08682e-02,-1.52896e-01,6.39976e-02,-3.45415e-02,7.08026e-02,1.70397e-01,3.96539e-02,7.67432e-02,-1.37249e-02,1.76843e-01,5.49235e-02,1.30633e-01,-1.05934e-01,1.22735e-01,-9.05609e-02,1.44419e-02,8.62406e-02,-6.70437e-02,1.35399e-02,7.41996e-02,8.94858e-02,1.53974e-01,-3.89817e-02,5.51095e-02,9.34400e-02,2.32132e-01,1.30938e-02,1.11420e-01,1.58839e-01,3.33790e-03,1.35837e-01,1.53281e-01,9.91584e-02,9.88184e-02,1.11983e-01,7.83215e-02,1.82763e-02,5.63970e-02,1.14333e-01,-1.29442e-03,4.76779e-04,7.70300e-03,-1.11496e-01,3.55753e-02,1.22346e-01,6.90195e-02,-7.43508e-02,1.31685e-01,7.94735e-02,2.01103e-01,