// Neural Network File Format by Kyle Julian, Stanford 2016
7,2352,10,2352,
2352,50,50,50,50,50,50,10,
0,
0,0,0,0,0,0,0,0,0,0,0,0,0,0,0,0,0,0,0,0,0,0,0,0,0,0,0,0,0,0,0,0,0,0,0,0,0,0,0,0,0,0,0,0,0,0,0,0,0,0,0,0,0,0,0,0,0,0,0,0,0,0,0,0,0,0,0,0,0,0,0,0,0,0,0,0,0,0,0,0,0,0,0,0,0,0,0,0,0,0,0,0,0,0,0,0,0,0,0,0,0,0,0,0,0,0,0,0,0,0,0,0,0,0,0,0,0,0,0,0,0,0,0,0,0,0,0,0,0,0,0,0,0,0,0,0,0,0,0,0,0,0,0,0,0,0,0,0,0,0,0,0,0,0,0,0,0,0,0,0,0,0,0,0,0,0,0,0,0,0,0,0,0,0,0,0,0,0,0,0,0,0,0,0,0,0,0,0,0,0,0,0,0,0,0,0,0,0,0,0,0,0,0,0,0,0,0,0,0,0,0,0,0,0,0,0,0,0,0,0,0,0,0,0,0,0,0,0,0,0,0,0,0,0,0,0,0,0,0,0,0,0,0,0,0,0,0,0,0,0,0,0,0,0,0,0,0,0,0,0,0,0,0,0,0,0,0,0,0,0,0,0,0,0,0,0,0,0,0,0,0,0,0,0,0,0,0,0,0,0,0,0,0,0,0,0,0,0,0,0,0,0,0,0,0,0,0,0,0,0,0,0,0,0,0,0,0,0,0,0,0,0,0,0,0,0,0,0,0,0,0,0,0,0,0,0,0,0,0,0,0,0,0,0,0,0,0,0,0,0,0,0,0,0,0,0,0,0,0,0,0,0,0,0,0,0,0,0,0,0,0,0,0,0,0,0,0,0,0,0,0,0,0,0,0,0,0,0,0,0,0,0,0,0,0,0,0,0,0,0,0,0,0,0,0,0,0,0,0,0,0,0,0,0,0,0,0,0,0,0,0,0,0,0,0,0,0,0,0,0,0,0,0,0,0,0,0,0,0,0,0,0,0,0,0,0,0,0,0,0,0,0,0,0,0,0,0,0,0,0,0,0,0,0,0,0,0,0,0,0,0,0,0,0,0,0,0,0,0,0,0,0,0,0,0,0,0,0,0,0,0,0,0,0,0,0,0,0,0,0,0,0,0,0,0,0,0,0,0,0,0,0,0,0,0,0,0,0,0,0,0,0,0,0,0,0,0,0,0,0,0,0,0,0,0,0,0,0,0,0,0,0,0,0,0,0,0,0,0,0,0,0,0,0,0,0,0,0,0,0,0,0,0,0,0,0,0,0,0,0,0,0,0,0,0,0,0,0,0,0,0,0,0,0,0,0,0,0,0,0,0,0,0,0,0,0,0,0,0,0,0,0,0,0,0,0,0,0,0,0,0,0,0,0,0,0,0,0,0,0,0,0,0,0,0,0,0,0,0,0,0,0,0,0,0,0,0,0,0,0,0,0,0,0,0,0,0,0,0,0,0,0,0,0,0,0,0,0,0,0,0,0,0,0,0,0,0,0,0,0,0,0,0,0,0,0,0,0,0,0,0,0,0,0,0,0,0,0,0,0,0,0,0,0,0,0,0,0,0,0,0,0,0,0,0,0,0,0,0,0,0,0,0,0,0,0,0,0,0,0,0,0,0,0,0,0,0,0,0,0,0,0,0,0,0,0,0,0,0,0,0,0,0,0,0,0,0,0,0,0,0,0,0,0,0,0,0,0,0,0,0,0,0,0,0,0,0,0,0,0,0,0,0,0,0,0,0,0,0,0,0,0,0,0,0,0,0,0,0,0,0,0,0,0,0,0,0,0,0,0,0,0,0,0,0,0,0,0,0,0,0,0,0,0,0,0,0,0,0,0,0,0,0,0,0,0,0,0,0,0,0,0,0,0,0,0,0,0,0,0,0,0,0,0,0,0,0,0,0,0,0,0,0,0,0,0,0,0,0,0,0,0,0,0,0,0,0,0,0,0,0,0,0,0,0,0,0,0,0,0,0,0,0,0,0,0,0,0,0,0,0,0,0,0,0,0,0,0,0,0,0,0,0,0,0,0,0,0,0,0,0,0,0,0,0,0,0,0,0,0,0,0,0,0,0,0,0,0,0,0,0,0,0,0,0,0,0,0,0,0,0,0,0,0,0,0,0,0,0,0,0,0,0,0,0,0,0,0,0,0,0,0,0,0,0,0,0,0,0,0,0,0,0,0,0,0,0,0,0,0,0,0,0,0,0,0,0,0,0,0,0,0,0,0,0,0,0,0,0,0,0,0,0,0,0,0,0,0,0,0,0,0,0,0,0,0,0,0,0,0,0,0,0,0,0,0,0,0,0,0,0,0,0,0,0,0,0,0,0,0,0,0,0,0,0,0,0,0,0,0,0,0,0,0,0,0,0,0,0,0,0,0,0,0,0,0,0,0,0,0,0,0,0,0,0,0,0,0,0,0,0,0,0,0,0,0,0,0,0,0,0,0,0,0,0,0,0,0,0,0,0,0,0,0,0,0,0,0,0,0,0,0,0,0,0,0,0,0,0,0,0,0,0,0,0,0,0,0,0,0,0,0,0,0,0,0,0,0,0,0,0,0,0,0,0,0,0,0,0,0,0,0,0,0,0,0,0,0,0,0,0,0,0,0,0,0,0,0,0,0,0,0,0,0,0,0,0,0,0,0,0,0,0,0,0,0,0,0,0,0,0,0,0,0,0,0,0,0,0,0,0,0,0,0,0,0,0,0,0,0,0,0,0,0,0,0,0,0,0,0,0,0,0,0,0,0,0,0,0,0,0,0,0,0,0,0,0,0,0,0,0,0,0,0,0,0,0,0,0,0,0,0,0,0,0,0,0,0,0,0,0,0,0,0,0,0,0,0,0,0,0,0,0,0,0,0,0,0,0,0,0,0,0,0,0,0,0,0,0,0,0,0,0,0,0,0,0,0,0,0,0,0,0,0,0,0,0,0,0,0,0,0,0,0,0,0,0,0,0,0,0,0,0,0,0,0,0,0,0,0,0,0,0,0,0,0,0,0,0,0,0,0,0,0,0,0,0,0,0,0,0,0,0,0,0,0,0,0,0,0,0,0,0,0,0,0,0,0,0,0,0,0,0,0,0,0,0,0,0,0,0,0,0,0,0,0,0,0,0,0,0,0,0,0,0,0,0,0,0,0,0,0,0,0,0,0,0,0,0,0,0,0,0,0,0,0,0,0,0,0,0,0,0,0,0,0,0,0,0,0,0,0,0,0,0,0,0,0,0,0,0,0,0,0,0,0,0,0,0,0,0,0,0,0,0,0,0,0,0,0,0,0,0,0,0,0,0,0,0,0,0,0,0,0,0,0,0,0,0,0,0,0,0,0,0,0,0,0,0,0,0,0,0,0,0,0,0,0,0,0,0,0,0,0,0,0,0,0,0,0,0,0,0,0,0,0,0,0,0,0,0,0,0,0,0,0,0,0,0,0,0,0,0,0,0,0,0,0,0,0,0,0,0,0,0,0,0,0,0,0,0,0,0,0,0,0,0,0,0,0,0,0,0,0,0,0,0,0,0,0,0,0,0,0,0,0,0,0,0,0,0,0,0,0,0,0,0,0,0,0,0,0,0,0,0,0,0,0,0,0,0,0,0,0,0,0,0,0,0,0,0,0,0,0,0,0,0,0,0,0,0,0,0,0,0,0,0,0,0,0,0,0,0,0,0,0,0,0,0,0,0,0,0,0,0,0,0,0,0,0,0,0,0,0,0,0,0,0,0,0,0,0,0,0,0,0,0,0,0,0,0,0,0,0,0,0,0,0,0,0,0,0,0,0,0,0,0,0,0,0,0,0,0,0,0,0,0,0,0,0,0,0,0,0,0,0,0,0,0,0,0,0,0,0,0,0,0,0,0,0,0,0,0,0,0,0,0,0,0,0,0,0,0,0,0,0,0,0,0,0,0,0,0,0,0,0,0,0,0,0,0,0,0,0,0,0,0,0,0,0,0,0,0,0,0,0,0,0,0,0,0,0,0,0,0,0,0,0,0,0,0,0,0,0,0,0,0,0,0,0,0,0,0,0,0,0,0,0,0,0,0,0,0,0,0,0,0,0,0,0,0,0,0,0,0,0,0,0,0,0,0,0,0,0,0,0,0,0,0,0,0,0,0,0,0,0,0,0,0,0,0,0,0,0,0,0,0,0,0,0,0,0,0,0,0,0,0,0,0,0,0,0,0,0,0,0,0,0,0,0,0,0,0,0,0,0,0,0,0,0,0,0,0,0,0,0,0,0,0,0,0,0,0,0,0,0,0,0,0,0,0,0,0,0,0,0,0,0,0,0,0,0,0,0,0,0,0,0,0,0,0,0,0,0,0,0,0,0,0,0,0,0,0,0,0,0,0,0,0,0,0,0,0,0,0,0,0,0,0,0,0,0,0,0,0,0,0,0,0,0,0,0,0,0,0,0,0,0,0,0,0,0,0,0,0,0,0,0,0,0,0,0,0,0,0,0,0,0,0,0,0,0,0,0,0,0,0,0,0,0,0,0,0,0,0,0,0,0,0,0,0,0,0,0,0,0,0,0,0,0,0,0,0,0,0,0,0,0,0,0,0,0,0,0,0,0,0,0,0,0,0,0,0,0,0,0,0,0,0,0,0,0,0,0,0,0,0,0,0,0,0,0,0,0,0,0,0,0,0,0,0,0,0,0,0,0,0,0,0,0,0,0,0,0,0,0,0,0,0,0,0,0,0,0,0,0,0,0,0,0,0,0,0,0,0,0,0,0,0,0,0,0,0,0,0,0,0,0,0,0,0,0,0,0,0,0,0,0,0,0,0,0,0,0,0,0,0,0,0,0,0,0,0,0,0,0,0,0,0,0,0,0,0,0,0,0,0,0,0,0,0,0,0,0,0,0,0,0,0,0,0,0,0,0,0,0,0,0,0,0,0,0,0,0,0,0,0,0,0,0,0,0,0,0,0,0,0,0,0,0,0,0,0,0,0,0,0,0,0,0,0,0,0,0,0,0,0,0,0,0,0,0,0,0,0,0,0,0,0,0,0,0,0,0,0,0,0,0,0,0,0,0,0,0,0,0,0,0,0,0,0,0,0,0,0,0,0,0,0,0,0,0,0,0,0,0,0,0,0,0,0,0,0,0,0,0,0,0,0,0,0,0,0,0,0,0,0,0,0,0,0,0,0,0,0,0,0,0,0,0,0,0,0,0,0,0,0,0,0,0,0,0,0,0,0,0,0,0,0,0,0,0,0,0,0,0,0,0,0,0,0,0,0,0,0,0,0,0,0,0,0,0,0,0,0,0,0,0,0,0,0,0,
255.0,255.0,255.0,255.0,255.0,255.0,255.0,255.0,255.0,255.0,255.0,255.0,255.0,255.0,255.0,255.0,255.0,255.0,255.0,255.0,255.0,255.0,255.0,255.0,255.0,255.0,255.0,255.0,255.0,255.0,255.0,255.0,255.0,255.0,255.0,255.0,255.0,255.0,255.0,255.0,255.0,255.0,255.0,255.0,255.0,255.0,255.0,255.0,255.0,255.0,255.0,255.0,255.0,255.0,255.0,255.0,255.0,255.0,255.0,255.0,255.0,255.0,255.0,255.0,255.0,255.0,255.0,255.0,255.0,255.0,255.0,255.0,255.0,255.0,255.0,255.0,255.0,255.0,255.0,255.0,255.0,255.0,255.0,255.0,255.0,255.0,255.0,255.0,255.0,255.0,255.0,255.0,255.0,255.0,255.0,255.0,255.0,255.0,255.0,255.0,255.0,255.0,255.0,255.0,255.0,255.0,255.0,255.0,255.0,255.0,255.0,255.0,255.0,255.0,255.0,255.0,255.0,255.0,255.0,255.0,255.0,255.0,255.0,255.0,255.0,255.0,255.0,255.0,255.0,255.0,255.0,255.0,255.0,255.0,255.0,255.0,255.0,255.0,255.0,255.0,255.0,255.0,255.0,255.0,255.0,255.0,255.0,255.0,255.0,255.0,255.0,255.0,255.0,255.0,255.0,255.0,255.0,255.0,255.0,255.0,255.0,255.0,255.0,255.0,255.0,255.0,255.0,255.0,255.0,255.0,255.0,255.0,255.0,255.0,255.0,255.0,255.0,255.0,255.0,255.0,255.0,255.0,255.0,255.0,255.0,255.0,255.0,255.0,255.0,255.0,255.0,255.0,255.0,255.0,255.0,255.0,255.0,255.0,255.0,255.0,255.0,255.0,255.0,255.0,255.0,255.0,255.0,255.0,255.0,255.0,255.0,255.0,255.0,255.0,255.0,255.0,255.0,255.0,255.0,255.0,255.0,255.0,255.0,255.0,255.0,255.0,255.0,255.0,255.0,255.0,255.0,255.0,255.0,255.0,255.0,255.0,255.0,255.0,255.0,255.0,255.0,255.0,255.0,255.0,255.0,255.0,255.0,255.0,255.0,255.0,255.0,255.0,255.0,255.0,255.0,255.0,255.0,255.0,255.0,255.0,255.0,255.0,255.0,255.0,255.0,255.0,255.0,255.0,255.0,255.0,255.0,255.0,255.0,255.0,255.0,255.0,255.0,255.0,255.0,255.0,255.0,255.0,255.0,255.0,255.0,255.0,255.0,255.0,255.0,255.0,255.0,255.0,255.0,255.0,255.0,255.0,255.0,255.0,255.0,255.0,255.0,255.0,255.0,255.0,255.0,255.0,255.0,255.0,255.0,255.0,255.0,255.0,255.0,255.0,255.0,255.0,255.0,255.0,255.0,255.0,255.0,255.0,255.0,255.0,255.0,255.0,255.0,255.0,255.0,255.0,255.0,255.0,255.0,255.0,255.0,255.0,255.0,255.0,255.0,255.0,255.0,255.0,255.0,255.0,255.0,255.0,255.0,255.0,255.0,255.0,255.0,255.0,255.0,255.0,255.0,255.0,255.0,255.0,255.0,255.0,255.0,255.0,255.0,255.0,255.0,255.0,255.0,255.0,255.0,255.0,255.0,255.0,255.0,255.0,255.0,255.0,255.0,255.0,255.0,255.0,255.0,255.0,255.0,255.0,255.0,255.0,255.0,255.0,255.0,255.0,255.0,255.0,255.0,255.0,255.0,255.0,255.0,255.0,255.0,255.0,255.0,255.0,255.0,255.0,255.0,255.0,255.0,255.0,255.0,255.0,255.0,255.0,255.0,255.0,255.0,255.0,255.0,255.0,255.0,255.0,255.0,255.0,255.0,255.0,255.0,255.0,255.0,255.0,255.0,255.0,255.0,255.0,255.0,255.0,255.0,255.0,255.0,255.0,255.0,255.0,255.0,255.0,255.0,255.0,255.0,255.0,255.0,255.0,255.0,255.0,255.0,255.0,255.0,255.0,255.0,255.0,255.0,255.0,255.0,255.0,255.0,255.0,255.0,255.0,255.0,255.0,255.0,255.0,255.0,255.0,255.0,255.0,255.0,255.0,255.0,255.0,255.0,255.0,255.0,255.0,255.0,255.0,255.0,255.0,255.0,255.0,255.0,255.0,255.0,255.0,255.0,255.0,255.0,255.0,255.0,255.0,255.0,255.0,255.0,255.0,255.0,255.0,255.0,255.0,255.0,255.0,255.0,255.0,255.0,255.0,255.0,255.0,255.0,255.0,255.0,255.0,255.0,255.0,255.0,255.0,255.0,255.0,255.0,255.0,255.0,255.0,255.0,255.0,255.0,255.0,255.0,255.0,255.0,255.0,255.0,255.0,255.0,255.0,255.0,255.0,255.0,255.0,255.0,255.0,255.0,255.0,255.0,255.0,255.0,255.0,255.0,255.0,255.0,255.0,255.0,255.0,255.0,255.0,255.0,255.0,255.0,255.0,255.0,255.0,255.0,255.0,255.0,255.0,255.0,255.0,255.0,255.0,255.0,255.0,255.0,255.0,255.0,255.0,255.0,255.0,255.0,255.0,255.0,255.0,255.0,255.0,255.0,255.0,255.0,255.0,255.0,255.0,255.0,255.0,255.0,255.0,255.0,255.0,255.0,255.0,255.0,255.0,255.0,255.0,255.0,255.0,255.0,255.0,255.0,255.0,255.0,255.0,255.0,255.0,255.0,255.0,255.0,255.0,255.0,255.0,255.0,255.0,255.0,255.0,255.0,255.0,255.0,255.0,255.0,255.0,255.0,255.0,255.0,255.0,255.0,255.0,255.0,255.0,255.0,255.0,255.0,255.0,255.0,255.0,255.0,255.0,255.0,255.0,255.0,255.0,255.0,255.0,255.0,255.0,255.0,255.0,255.0,255.0,255.0,255.0,255.0,255.0,255.0,255.0,255.0,255.0,255.0,255.0,255.0,255.0,255.0,255.0,255.0,255.0,255.0,255.0,255.0,255.0,255.0,255.0,255.0,255.0,255.0,255.0,255.0,255.0,255.0,255.0,255.0,255.0,255.0,255.0,255.0,255.0,255.0,255.0,255.0,255.0,255.0,255.0,255.0,255.0,255.0,255.0,255.0,255.0,255.0,255.0,255.0,255.0,255.0,255.0,255.0,255.0,255.0,255.0,255.0,255.0,255.0,255.0,255.0,255.0,255.0,255.0,255.0,255.0,255.0,255.0,255.0,255.0,255.0,255.0,255.0,255.0,255.0,255.0,255.0,255.0,255.0,255.0,255.0,255.0,255.0,255.0,255.0,255.0,255.0,255.0,255.0,255.0,255.0,255.0,255.0,255.0,255.0,255.0,255.0,255.0,255.0,255.0,255.0,255.0,255.0,255.0,255.0,255.0,255.0,255.0,255.0,255.0,255.0,255.0,255.0,255.0,255.0,255.0,255.0,255.0,255.0,255.0,255.0,255.0,255.0,255.0,255.0,255.0,255.0,255.0,255.0,255.0,255.0,255.0,255.0,255.0,255.0,255.0,255.0,255.0,255.0,255.0,255.0,255.0,255.0,255.0,255.0,255.0,255.0,255.0,255.0,255.0,255.0,255.0,255.0,255.0,255.0,255.0,255.0,255.0,255.0,255.0,255.0,255.0,255.0,255.0,255.0,255.0,255.0,255.0,255.0,255.0,255.0,255.0,255.0,255.0,255.0,255.0,255.0,255.0,255.0,255.0,255.0,255.0,255.0,255.0,255.0,255.0,255.0,255.0,255.0,255.0,255.0,255.0,255.0,255.0,255.0,255.0,255.0,255.0,255.0,255.0,255.0,255.0,255.0,255.0,255.0,255.0,255.0,255.0,255.0,255.0,255.0,255.0,255.0,255.0,255.0,255.0,255.0,255.0,255.0,255.0,255.0,255.0,255.0,255.0,255.0,255.0,255.0,255.0,255.0,255.0,255.0,255.0,255.0,255.0,255.0,255.0,255.0,255.0,255.0,255.0,255.0,255.0,255.0,255.0,255.0,255.0,255.0,255.0,255.0,255.0,255.0,255.0,255.0,255.0,255.0,255.0,255.0,255.0,255.0,255.0,255.0,255.0,255.0,255.0,255.0,255.0,255.0,255.0,255.0,255.0,255.0,255.0,255.0,255.0,255.0,255.0,255.0,255.0,255.0,255.0,255.0,255.0,255.0,255.0,255.0,255.0,255.0,255.0,255.0,255.0,255.0,255.0,255.0,255.0,255.0,255.0,255.0,255.0,255.0,255.0,255.0,255.0,255.0,255.0,255.0,255.0,255.0,255.0,255.0,255.0,255.0,255.0,255.0,255.0,255.0,255.0,255.0,255.0,255.0,255.0,255.0,255.0,255.0,255.0,255.0,255.0,255.0,255.0,255.0,255.0,255.0,255.0,255.0,255.0,255.0,255.0,255.0,255.0,255.0,255.0,255.0,255.0,255.0,255.0,255.0,255.0,255.0,255.0,255.0,255.0,255.0,255.0,255.0,255.0,255.0,255.0,255.0,255.0,255.0,255.0,255.0,255.0,255.0,255.0,255.0,255.0,255.0,255.0,255.0,255.0,255.0,255.0,255.0,255.0,255.0,255.0,255.0,255.0,255.0,255.0,255.0,255.0,255.0,255.0,255.0,255.0,255.0,255.0,255.0,255.0,255.0,255.0,255.0,255.0,255.0,255.0,255.0,255.0,255.0,255.0,255.0,255.0,255.0,255.0,255.0,255.0,255.0,255.0,255.0,255.0,255.0,255.0,255.0,255.0,255.0,255.0,255.0,255.0,255.0,255.0,255.0,255.0,255.0,255.0,255.0,255.0,255.0,255.0,255.0,255.0,255.0,255.0,255.0,255.0,255.0,255.0,255.0,255.0,255.0,255.0,255.0,255.0,255.0,255.0,255.0,255.0,255.0,255.0,255.0,255.0,255.0,255.0,255.0,255.0,255.0,255.0,255.0,255.0,255.0,255.0,255.0,255.0,255.0,255.0,255.0,255.0,255.0,255.0,255.0,255.0,255.0,255.0,255.0,255.0,255.0,255.0,255.0,255.0,255.0,255.0,255.0,255.0,255.0,255.0,255.0,255.0,255.0,255.0,255.0,255.0,255.0,255.0,255.0,255.0,255.0,255.0,255.0,255.0,255.0,255.0,255.0,255.0,255.0,255.0,255.0,255.0,255.0,255.0,255.0,255.0,255.0,255.0,255.0,255.0,255.0,255.0,255.0,255.0,255.0,255.0,255.0,255.0,255.0,255.0,255.0,255.0,255.0,255.0,255.0,255.0,255.0,255.0,255.0,255.0,255.0,255.0,255.0,255.0,255.0,255.0,255.0,255.0,255.0,255.0,255.0,255.0,255.0,255.0,255.0,255.0,255.0,255.0,255.0,255.0,255.0,255.0,255.0,255.0,255.0,255.0,255.0,255.0,255.0,255.0,255.0,255.0,255.0,255.0,255.0,255.0,255.0,255.0,255.0,255.0,255.0,255.0,255.0,255.0,255.0,255.0,255.0,255.0,255.0,255.0,255.0,255.0,255.0,255.0,255.0,255.0,255.0,255.0,255.0,255.0,255.0,255.0,255.0,255.0,255.0,255.0,255.0,255.0,255.0,255.0,255.0,255.0,255.0,255.0,255.0,255.0,255.0,255.0,255.0,255.0,255.0,255.0,255.0,255.0,255.0,255.0,255.0,255.0,255.0,255.0,255.0,255.0,255.0,255.0,255.0,255.0,255.0,255.0,255.0,255.0,255.0,255.0,255.0,255.0,255.0,255.0,255.0,255.0,255.0,255.0,255.0,255.0,255.0,255.0,255.0,255.0,255.0,255.0,255.0,255.0,255.0,255.0,255.0,255.0,255.0,255.0,255.0,255.0,255.0,255.0,255.0,255.0,255.0,255.0,255.0,255.0,255.0,255.0,255.0,255.0,255.0,255.0,255.0,255.0,255.0,255.0,255.0,255.0,255.0,255.0,255.0,255.0,255.0,255.0,255.0,255.0,255.0,255.0,255.0,255.0,255.0,255.0,255.0,255.0,255.0,255.0,255.0,255.0,255.0,255.0,255.0,255.0,255.0,255.0,255.0,255.0,255.0,255.0,255.0,255.0,255.0,255.0,255.0,255.0,255.0,255.0,255.0,255.0,255.0,255.0,255.0,255.0,255.0,255.0,255.0,255.0,255.0,255.0,255.0,255.0,255.0,255.0,255.0,255.0,255.0,255.0,255.0,255.0,255.0,255.0,255.0,255.0,255.0,255.0,255.0,255.0,255.0,255.0,255.0,255.0,255.0,255.0,255.0,255.0,255.0,255.0,255.0,255.0,255.0,255.0,255.0,255.0,255.0,255.0,255.0,255.0,255.0,255.0,255.0,255.0,255.0,255.0,255.0,255.0,255.0,255.0,255.0,255.0,255.0,255.0,255.0,255.0,255.0,255.0,255.0,255.0,255.0,255.0,255.0,255.0,255.0,255.0,255.0,255.0,255.0,255.0,255.0,255.0,255.0,255.0,255.0,255.0,255.0,255.0,255.0,255.0,255.0,255.0,255.0,255.0,255.0,255.0,255.0,255.0,255.0,255.0,255.0,255.0,255.0,255.0,255.0,255.0,255.0,255.0,255.0,255.0,255.0,255.0,255.0,255.0,255.0,255.0,255.0,255.0,255.0,255.0,255.0,255.0,255.0,255.0,255.0,255.0,255.0,255.0,255.0,255.0,255.0,255.0,255.0,255.0,255.0,255.0,255.0,255.0,255.0,255.0,255.0,255.0,255.0,255.0,255.0,255.0,255.0,255.0,255.0,255.0,255.0,255.0,255.0,255.0,255.0,255.0,255.0,255.0,255.0,255.0,255.0,255.0,255.0,255.0,255.0,255.0,255.0,255.0,255.0,255.0,255.0,255.0,255.0,255.0,255.0,255.0,255.0,255.0,255.0,255.0,255.0,255.0,255.0,255.0,255.0,255.0,255.0,255.0,255.0,255.0,255.0,255.0,255.0,255.0,255.0,255.0,255.0,255.0,255.0,255.0,255.0,255.0,255.0,255.0,255.0,255.0,255.0,255.0,255.0,255.0,255.0,255.0,255.0,255.0,255.0,255.0,255.0,255.0,255.0,255.0,255.0,255.0,255.0,255.0,255.0,255.0,255.0,255.0,255.0,255.0,255.0,255.0,255.0,255.0,255.0,255.0,255.0,255.0,255.0,255.0,255.0,255.0,255.0,255.0,255.0,255.0,255.0,255.0,255.0,255.0,255.0,255.0,255.0,255.0,255.0,255.0,255.0,255.0,255.0,255.0,255.0,255.0,255.0,255.0,255.0,255.0,255.0,255.0,255.0,255.0,255.0,255.0,255.0,255.0,255.0,255.0,255.0,255.0,255.0,255.0,255.0,255.0,255.0,255.0,255.0,255.0,255.0,255.0,255.0,255.0,255.0,255.0,255.0,255.0,255.0,255.0,255.0,255.0,255.0,255.0,255.0,255.0,255.0,255.0,255.0,255.0,255.0,255.0,255.0,255.0,255.0,255.0,255.0,255.0,255.0,255.0,255.0,255.0,255.0,255.0,255.0,255.0,255.0,255.0,255.0,255.0,255.0,255.0,255.0,255.0,255.0,255.0,255.0,255.0,255.0,255.0,255.0,255.0,255.0,255.0,255.0,255.0,255.0,255.0,255.0,255.0,255.0,255.0,255.0,255.0,255.0,255.0,255.0,255.0,255.0,255.0,255.0,255.0,255.0,255.0,255.0,255.0,255.0,255.0,255.0,255.0,255.0,255.0,255.0,255.0,255.0,255.0,255.0,255.0,255.0,255.0,255.0,255.0,255.0,255.0,255.0,255.0,255.0,255.0,255.0,255.0,255.0,255.0,255.0,255.0,255.0,255.0,255.0,255.0,255.0,255.0,255.0,255.0,255.0,255.0,255.0,255.0,255.0,255.0,255.0,255.0,255.0,255.0,255.0,255.0,255.0,255.0,255.0,255.0,255.0,255.0,255.0,255.0,255.0,255.0,255.0,255.0,255.0,255.0,255.0,255.0,255.0,255.0,255.0,255.0,255.0,255.0,255.0,255.0,255.0,255.0,255.0,255.0,255.0,255.0,255.0,255.0,255.0,255.0,255.0,255.0,255.0,255.0,255.0,255.0,255.0,255.0,255.0,255.0,255.0,255.0,255.0,255.0,255.0,255.0,255.0,255.0,255.0,255.0,255.0,255.0,255.0,255.0,255.0,255.0,255.0,255.0,255.0,255.0,255.0,255.0,255.0,255.0,255.0,255.0,255.0,255.0,255.0,255.0,255.0,255.0,255.0,255.0,255.0,255.0,255.0,255.0,255.0,255.0,255.0,255.0,255.0,255.0,255.0,255.0,255.0,255.0,255.0,255.0,255.0,255.0,255.0,255.0,255.0,255.0,255.0,255.0,255.0,255.0,255.0,255.0,255.0,255.0,255.0,255.0,255.0,255.0,255.0,255.0,255.0,255.0,255.0,255.0,255.0,255.0,255.0,255.0,255.0,255.0,255.0,255.0,255.0,255.0,255.0,255.0,255.0,255.0,255.0,255.0,255.0,255.0,255.0,255.0,255.0,255.0,255.0,255.0,255.0,255.0,255.0,255.0,255.0,255.0,255.0,255.0,255.0,255.0,255.0,255.0,255.0,255.0,255.0,255.0,255.0,255.0,255.0,255.0,255.0,255.0,255.0,255.0,255.0,255.0,255.0,255.0,255.0,255.0,255.0,255.0,255.0,255.0,255.0,255.0,255.0,255.0,255.0,255.0,255.0,255.0,255.0,255.0,255.0,255.0,255.0,255.0,255.0,255.0,255.0,255.0,255.0,255.0,255.0,255.0,255.0,255.0,255.0,255.0,255.0,255.0,255.0,255.0,255.0,255.0,255.0,255.0,255.0,255.0,255.0,255.0,255.0,255.0,255.0,255.0,255.0,255.0,255.0,255.0,255.0,255.0,255.0,255.0,255.0,255.0,255.0,255.0,255.0,255.0,255.0,255.0,255.0,255.0,255.0,255.0,255.0,255.0,255.0,255.0,255.0,255.0,255.0,255.0,255.0,255.0,255.0,255.0,255.0,255.0,255.0,255.0,255.0,255.0,255.0,255.0,255.0,255.0,255.0,255.0,255.0,255.0,255.0,255.0,255.0,255.0,255.0,255.0,255.0,255.0,255.0,255.0,255.0,255.0,255.0,255.0,255.0,255.0,255.0,255.0,255.0,255.0,255.0,255.0,255.0,255.0,255.0,255.0,255.0,255.0,255.0,255.0,255.0,255.0,255.0,255.0,255.0,255.0,255.0,255.0,255.0,255.0,255.0,255.0,255.0,255.0,255.0,255.0,255.0,255.0,255.0,255.0,255.0,255.0,255.0,255.0,255.0,255.0,255.0,255.0,255.0,255.0,255.0,255.0,255.0,255.0,255.0,255.0,255.0,255.0,255.0,255.0,255.0,255.0,255.0,255.0,255.0,255.0,255.0,255.0,255.0,255.0,255.0,255.0,255.0,255.0,255.0,255.0,255.0,255.0,255.0,255.0,255.0,255.0,255.0,255.0,255.0,255.0,255.0,255.0,255.0,255.0,255.0,255.0,255.0,255.0,255.0,255.0,255.0,255.0,255.0,255.0,255.0,255.0,255.0,255.0,255.0,255.0,255.0,255.0,255.0,255.0,255.0,255.0,255.0,255.0,255.0,255.0,255.0,255.0,255.0,255.0,255.0,255.0,255.0,255.0,255.0,255.0,255.0,255.0,255.0,255.0,255.0,255.0,255.0,255.0,255.0,255.0,255.0,255.0,255.0,255.0,255.0,255.0,255.0,255.0,255.0,255.0,255.0,255.0,255.0,255.0,255.0,255.0,255.0,255.0,255.0,255.0,255.0,255.0,255.0,255.0,255.0,255.0,255.0,255.0,255.0,255.0,255.0,255.0,255.0,255.0,255.0,255.0,255.0,255.0,255.0,255.0,255.0,255.0,255.0,255.0,255.0,255.0,255.0,255.0,255.0,255.0,255.0,255.0,255.0,255.0,255.0,255.0,255.0,255.0,255.0,255.0,255.0,255.0,255.0,255.0,255.0,255.0,255.0,255.0,255.0,255.0,255.0,255.0,255.0,255.0,255.0,255.0,255.0,255.0,255.0,255.0,255.0,255.0,255.0,255.0,255.0,255.0,255.0,255.0,255.0,255.0,255.0,255.0,255.0,255.0,255.0,255.0,255.0,255.0,255.0,255.0,255.0,255.0,255.0,255.0,255.0,255.0,255.0,255.0,255.0,255.0,255.0,255.0,255.0,255.0,255.0,255.0,255.0,255.0,255.0,255.0,255.0,255.0,255.0,255.0,255.0,255.0,255.0,255.0,255.0,255.0,255.0,255.0,255.0,255.0,255.0,255.0,255.0,255.0,255.0,255.0,255.0,255.0,255.0,255.0,255.0,255.0,255.0,255.0,255.0,255.0,255.0,255.0,
127.0,127.0,127.0,127.0,127.0,127.0,127.0,127.0,127.0,127.0,127.0,127.0,127.0,127.0,127.0,127.0,127.0,127.0,127.0,127.0,127.0,127.0,127.0,127.0,127.0,127.0,127.0,127.0,127.0,127.0,127.0,127.0,127.0,127.0,127.0,127.0,127.0,127.0,127.0,127.0,127.0,127.0,127.0,127.0,127.0,127.0,127.0,127.0,127.0,127.0,127.0,127.0,127.0,127.0,127.0,127.0,127.0,127.0,127.0,127.0,127.0,127.0,127.0,127.0,127.0,127.0,127.0,127.0,127.0,127.0,127.0,127.0,127.0,127.0,127.0,127.0,127.0,127.0,127.0,127.0,127.0,127.0,127.0,127.0,127.0,127.0,127.0,127.0,127.0,127.0,127.0,127.0,127.0,127.0,127.0,127.0,127.0,127.0,127.0,127.0,127.0,127.0,127.0,127.0,127.0,127.0,127.0,127.0,127.0,127.0,127.0,127.0,127.0,127.0,127.0,127.0,127.0,127.0,127.0,127.0,127.0,127.0,127.0,127.0,127.0,127.0,127.0,127.0,127.0,127.0,127.0,127.0,127.0,127.0,127.0,127.0,127.0,127.0,127.0,127.0,127.0,127.0,127.0,127.0,127.0,127.0,127.0,127.0,127.0,127.0,127.0,127.0,127.0,127.0,127.0,127.0,127.0,127.0,127.0,127.0,127.0,127.0,127.0,127.0,127.0,127.0,127.0,127.0,127.0,127.0,127.0,127.0,127.0,127.0,127.0,127.0,127.0,127.0,127.0,127.0,127.0,127.0,127.0,127.0,127.0,127.0,127.0,127.0,127.0,127.0,127.0,127.0,127.0,127.0,127.0,127.0,127.0,127.0,127.0,127.0,127.0,127.0,127.0,127.0,127.0,127.0,127.0,127.0,127.0,127.0,127.0,127.0,127.0,127.0,127.0,127.0,127.0,127.0,127.0,127.0,127.0,127.0,127.0,127.0,127.0,127.0,127.0,127.0,127.0,127.0,127.0,127.0,127.0,127.0,127.0,127.0,127.0,127.0,127.0,127.0,127.0,127.0,127.0,127.0,127.0,127.0,127.0,127.0,127.0,127.0,127.0,127.0,127.0,127.0,127.0,127.0,127.0,127.0,127.0,127.0,127.0,127.0,127.0,127.0,127.0,127.0,127.0,127.0,127.0,127.0,127.0,127.0,127.0,127.0,127.0,127.0,127.0,127.0,127.0,127.0,127.0,127.0,127.0,127.0,127.0,127.0,127.0,127.0,127.0,127.0,127.0,127.0,127.0,127.0,127.0,127.0,127.0,127.0,127.0,127.0,127.0,127.0,127.0,127.0,127.0,127.0,127.0,127.0,127.0,127.0,127.0,127.0,127.0,127.0,127.0,127.0,127.0,127.0,127.0,127.0,127.0,127.0,127.0,127.0,127.0,127.0,127.0,127.0,127.0,127.0,127.0,127.0,127.0,127.0,127.0,127.0,127.0,127.0,127.0,127.0,127.0,127.0,127.0,127.0,127.0,127.0,127.0,127.0,127.0,127.0,127.0,127.0,127.0,127.0,127.0,127.0,127.0,127.0,127.0,127.0,127.0,127.0,127.0,127.0,127.0,127.0,127.0,127.0,127.0,127.0,127.0,127.0,127.0,127.0,127.0,127.0,127.0,127.0,127.0,127.0,127.0,127.0,127.0,127.0,127.0,127.0,127.0,127.0,127.0,127.0,127.0,127.0,127.0,127.0,127.0,127.0,127.0,127.0,127.0,127.0,127.0,127.0,127.0,127.0,127.0,127.0,127.0,127.0,127.0,127.0,127.0,127.0,127.0,127.0,127.0,127.0,127.0,127.0,127.0,127.0,127.0,127.0,127.0,127.0,127.0,127.0,127.0,127.0,127.0,127.0,127.0,127.0,127.0,127.0,127.0,127.0,127.0,127.0,127.0,127.0,127.0,127.0,127.0,127.0,127.0,127.0,127.0,127.0,127.0,127.0,127.0,127.0,127.0,127.0,127.0,127.0,127.0,127.0,127.0,127.0,127.0,127.0,127.0,127.0,127.0,127.0,127.0,127.0,127.0,127.0,127.0,127.0,127.0,127.0,127.0,127.0,127.0,127.0,127.0,127.0,127.0,127.0,127.0,127.0,127.0,127.0,127.0,127.0,127.0,127.0,127.0,127.0,127.0,127.0,127.0,127.0,127.0,127.0,127.0,127.0,127.0,127.0,127.0,127.0,127.0,127.0,127.0,127.0,127.0,127.0,127.0,127.0,127.0,127.0,127.0,127.0,127.0,127.0,127.0,127.0,127.0,127.0,127.0,127.0,127.0,127.0,127.0,127.0,127.0,127.0,127.0,127.0,127.0,127.0,127.0,127.0,127.0,127.0,127.0,127.0,127.0,127.0,127.0,127.0,127.0,127.0,127.0,127.0,127.0,127.0,127.0,127.0,127.0,127.0,127.0,127.0,127.0,127.0,127.0,127.0,127.0,127.0,127.0,127.0,127.0,127.0,127.0,127.0,127.0,127.0,127.0,127.0,127.0,127.0,127.0,127.0,127.0,127.0,127.0,127.0,127.0,127.0,127.0,127.0,127.0,127.0,127.0,127.0,127.0,127.0,127.0,127.0,127.0,127.0,127.0,127.0,127.0,127.0,127.0,127.0,127.0,127.0,127.0,127.0,127.0,127.0,127.0,127.0,127.0,127.0,127.0,127.0,127.0,127.0,127.0,127.0,127.0,127.0,127.0,127.0,127.0,127.0,127.0,127.0,127.0,127.0,127.0,127.0,127.0,127.0,127.0,127.0,127.0,127.0,127.0,127.0,127.0,127.0,127.0,127.0,127.0,127.0,127.0,127.0,127.0,127.0,127.0,127.0,127.0,127.0,127.0,127.0,127.0,127.0,127.0,127.0,127.0,127.0,127.0,127.0,127.0,127.0,127.0,127.0,127.0,127.0,127.0,127.0,127.0,127.0,127.0,127.0,127.0,127.0,127.0,127.0,127.0,127.0,127.0,127.0,127.0,127.0,127.0,127.0,127.0,127.0,127.0,127.0,127.0,127.0,127.0,127.0,127.0,127.0,127.0,127.0,127.0,127.0,127.0,127.0,127.0,127.0,127.0,127.0,127.0,127.0,127.0,127.0,127.0,127.0,127.0,127.0,127.0,127.0,127.0,127.0,127.0,127.0,127.0,127.0,127.0,127.0,127.0,127.0,127.0,127.0,127.0,127.0,127.0,127.0,127.0,127.0,127.0,127.0,127.0,127.0,127.0,127.0,127.0,127.0,127.0,127.0,127.0,127.0,127.0,127.0,127.0,127.0,127.0,127.0,127.0,127.0,127.0,127.0,127.0,127.0,127.0,127.0,127.0,127.0,127.0,127.0,127.0,127.0,127.0,127.0,127.0,127.0,127.0,127.0,127.0,127.0,127.0,127.0,127.0,127.0,127.0,127.0,127.0,127.0,127.0,127.0,127.0,127.0,127.0,127.0,127.0,127.0,127.0,127.0,127.0,127.0,127.0,127.0,127.0,127.0,127.0,127.0,127.0,127.0,127.0,127.0,127.0,127.0,127.0,127.0,127.0,127.0,127.0,127.0,127.0,127.0,127.0,127.0,127.0,127.0,127.0,127.0,127.0,127.0,127.0,127.0,127.0,127.0,127.0,127.0,127.0,127.0,127.0,127.0,127.0,127.0,127.0,127.0,127.0,127.0,127.0,127.0,127.0,127.0,127.0,127.0,127.0,127.0,127.0,127.0,127.0,127.0,127.0,127.0,127.0,127.0,127.0,127.0,127.0,127.0,127.0,127.0,127.0,127.0,127.0,127.0,127.0,127.0,127.0,127.0,127.0,127.0,127.0,127.0,127.0,127.0,127.0,127.0,127.0,127.0,127.0,127.0,127.0,127.0,127.0,127.0,127.0,127.0,127.0,127.0,127.0,127.0,127.0,127.0,127.0,127.0,127.0,127.0,127.0,127.0,127.0,127.0,127.0,127.0,127.0,127.0,127.0,127.0,127.0,127.0,127.0,127.0,127.0,127.0,127.0,127.0,127.0,127.0,127.0,127.0,127.0,127.0,127.0,127.0,127.0,127.0,127.0,127.0,127.0,127.0,127.0,127.0,127.0,127.0,127.0,127.0,127.0,127.0,127.0,127.0,127.0,127.0,127.0,127.0,127.0,127.0,127.0,127.0,127.0,127.0,127.0,127.0,127.0,127.0,127.0,127.0,127.0,127.0,127.0,127.0,127.0,127.0,127.0,127.0,127.0,127.0,127.0,127.0,127.0,127.0,127.0,127.0,127.0,127.0,127.0,127.0,127.0,127.0,127.0,127.0,127.0,127.0,127.0,127.0,127.0,127.0,127.0,127.0,127.0,127.0,127.0,127.0,127.0,127.0,127.0,127.0,127.0,127.0,127.0,127.0,127.0,127.0,127.0,127.0,127.0,127.0,127.0,127.0,127.0,127.0,127.0,127.0,127.0,127.0,127.0,127.0,127.0,127.0,127.0,127.0,127.0,127.0,127.0,127.0,127.0,127.0,127.0,127.0,127.0,127.0,127.0,127.0,127.0,127.0,127.0,127.0,127.0,127.0,127.0,127.0,127.0,127.0,127.0,127.0,127.0,127.0,127.0,127.0,127.0,127.0,127.0,127.0,127.0,127.0,127.0,127.0,127.0,127.0,127.0,127.0,127.0,127.0,127.0,127.0,127.0,127.0,127.0,127.0,127.0,127.0,127.0,127.0,127.0,127.0,127.0,127.0,127.0,127.0,127.0,127.0,127.0,127.0,127.0,127.0,127.0,127.0,127.0,127.0,127.0,127.0,127.0,127.0,127.0,127.0,127.0,127.0,127.0,127.0,127.0,127.0,127.0,127.0,127.0,127.0,127.0,127.0,127.0,127.0,127.0,127.0,127.0,127.0,127.0,127.0,127.0,127.0,127.0,127.0,127.0,127.0,127.0,127.0,127.0,127.0,127.0,127.0,127.0,127.0,127.0,127.0,127.0,127.0,127.0,127.0,127.0,127.0,127.0,127.0,127.0,127.0,127.0,127.0,127.0,127.0,127.0,127.0,127.0,127.0,127.0,127.0,127.0,127.0,127.0,127.0,127.0,127.0,127.0,127.0,127.0,127.0,127.0,127.0,127.0,127.0,127.0,127.0,127.0,127.0,127.0,127.0,127.0,127.0,127.0,127.0,127.0,127.0,127.0,127.0,127.0,127.0,127.0,127.0,127.0,127.0,127.0,127.0,127.0,127.0,127.0,127.0,127.0,127.0,127.0,127.0,127.0,127.0,127.0,127.0,127.0,127.0,127.0,127.0,127.0,127.0,127.0,127.0,127.0,127.0,127.0,127.0,127.0,127.0,127.0,127.0,127.0,127.0,127.0,127.0,127.0,127.0,127.0,127.0,127.0,127.0,127.0,127.0,127.0,127.0,127.0,127.0,127.0,127.0,127.0,127.0,127.0,127.0,127.0,127.0,127.0,127.0,127.0,127.0,127.0,127.0,127.0,127.0,127.0,127.0,127.0,127.0,127.0,127.0,127.0,127.0,127.0,127.0,127.0,127.0,127.0,127.0,127.0,127.0,127.0,127.0,127.0,127.0,127.0,127.0,127.0,127.0,127.0,127.0,127.0,127.0,127.0,127.0,127.0,127.0,127.0,127.0,127.0,127.0,127.0,127.0,127.0,127.0,127.0,127.0,127.0,127.0,127.0,127.0,127.0,127.0,127.0,127.0,127.0,127.0,127.0,127.0,127.0,127.0,127.0,127.0,127.0,127.0,127.0,127.0,127.0,127.0,127.0,127.0,127.0,127.0,127.0,127.0,127.0,127.0,127.0,127.0,127.0,127.0,127.0,127.0,127.0,127.0,127.0,127.0,127.0,127.0,127.0,127.0,127.0,127.0,127.0,127.0,127.0,127.0,127.0,127.0,127.0,127.0,127.0,127.0,127.0,127.0,127.0,127.0,127.0,127.0,127.0,127.0,127.0,127.0,127.0,127.0,127.0,127.0,127.0,127.0,127.0,127.0,127.0,127.0,127.0,127.0,127.0,127.0,127.0,127.0,127.0,127.0,127.0,127.0,127.0,127.0,127.0,127.0,127.0,127.0,127.0,127.0,127.0,127.0,127.0,127.0,127.0,127.0,127.0,127.0,127.0,127.0,127.0,127.0,127.0,127.0,127.0,127.0,127.0,127.0,127.0,127.0,127.0,127.0,127.0,127.0,127.0,127.0,127.0,127.0,127.0,127.0,127.0,127.0,127.0,127.0,127.0,127.0,127.0,127.0,127.0,127.0,127.0,127.0,127.0,127.0,127.0,127.0,127.0,127.0,127.0,127.0,127.0,127.0,127.0,127.0,127.0,127.0,127.0,127.0,127.0,127.0,127.0,127.0,127.0,127.0,127.0,127.0,127.0,127.0,127.0,127.0,127.0,127.0,127.0,127.0,127.0,127.0,127.0,127.0,127.0,127.0,127.0,127.0,127.0,127.0,127.0,127.0,127.0,127.0,127.0,127.0,127.0,127.0,127.0,127.0,127.0,127.0,127.0,127.0,127.0,127.0,127.0,127.0,127.0,127.0,127.0,127.0,127.0,127.0,127.0,127.0,127.0,127.0,127.0,127.0,127.0,127.0,127.0,127.0,127.0,127.0,127.0,127.0,127.0,127.0,127.0,127.0,127.0,127.0,127.0,127.0,127.0,127.0,127.0,127.0,127.0,127.0,127.0,127.0,127.0,127.0,127.0,127.0,127.0,127.0,127.0,127.0,127.0,127.0,127.0,127.0,127.0,127.0,127.0,127.0,127.0,127.0,127.0,127.0,127.0,127.0,127.0,127.0,127.0,127.0,127.0,127.0,127.0,127.0,127.0,127.0,127.0,127.0,127.0,127.0,127.0,127.0,127.0,127.0,127.0,127.0,127.0,127.0,127.0,127.0,127.0,127.0,127.0,127.0,127.0,127.0,127.0,127.0,127.0,127.0,127.0,127.0,127.0,127.0,127.0,127.0,127.0,127.0,127.0,127.0,127.0,127.0,127.0,127.0,127.0,127.0,127.0,127.0,127.0,127.0,127.0,127.0,127.0,127.0,127.0,127.0,127.0,127.0,127.0,127.0,127.0,127.0,127.0,127.0,127.0,127.0,127.0,127.0,127.0,127.0,127.0,127.0,127.0,127.0,127.0,127.0,127.0,127.0,127.0,127.0,127.0,127.0,127.0,127.0,127.0,127.0,127.0,127.0,127.0,127.0,127.0,127.0,127.0,127.0,127.0,127.0,127.0,127.0,127.0,127.0,127.0,127.0,127.0,127.0,127.0,127.0,127.0,127.0,127.0,127.0,127.0,127.0,127.0,127.0,127.0,127.0,127.0,127.0,127.0,127.0,127.0,127.0,127.0,127.0,127.0,127.0,127.0,127.0,127.0,127.0,127.0,127.0,127.0,127.0,127.0,127.0,127.0,127.0,127.0,127.0,127.0,127.0,127.0,127.0,127.0,127.0,127.0,127.0,127.0,127.0,127.0,127.0,127.0,127.0,127.0,127.0,127.0,127.0,127.0,127.0,127.0,127.0,127.0,127.0,127.0,127.0,127.0,127.0,127.0,127.0,127.0,127.0,127.0,127.0,127.0,127.0,127.0,127.0,127.0,127.0,127.0,127.0,127.0,127.0,127.0,127.0,127.0,127.0,127.0,127.0,127.0,127.0,127.0,127.0,127.0,127.0,127.0,127.0,127.0,127.0,127.0,127.0,127.0,127.0,127.0,127.0,127.0,127.0,127.0,127.0,127.0,127.0,127.0,127.0,127.0,127.0,127.0,127.0,127.0,127.0,127.0,127.0,127.0,127.0,127.0,127.0,127.0,127.0,127.0,127.0,127.0,127.0,127.0,127.0,127.0,127.0,127.0,127.0,127.0,127.0,127.0,127.0,127.0,127.0,127.0,127.0,127.0,127.0,127.0,127.0,127.0,127.0,127.0,127.0,127.0,127.0,127.0,127.0,127.0,127.0,127.0,127.0,127.0,127.0,127.0,127.0,127.0,127.0,127.0,127.0,127.0,127.0,127.0,127.0,127.0,127.0,127.0,127.0,127.0,127.0,127.0,127.0,127.0,127.0,127.0,127.0,127.0,127.0,127.0,127.0,127.0,127.0,127.0,127.0,127.0,127.0,127.0,127.0,127.0,127.0,127.0,127.0,127.0,127.0,127.0,127.0,127.0,127.0,127.0,127.0,127.0,127.0,127.0,127.0,127.0,127.0,127.0,127.0,127.0,127.0,127.0,127.0,127.0,127.0,127.0,127.0,127.0,127.0,127.0,127.0,127.0,127.0,127.0,127.0,127.0,127.0,127.0,127.0,127.0,127.0,127.0,127.0,127.0,127.0,127.0,127.0,127.0,127.0,127.0,127.0,127.0,127.0,127.0,127.0,127.0,127.0,127.0,127.0,127.0,127.0,127.0,127.0,127.0,127.0,127.0,127.0,127.0,127.0,127.0,127.0,127.0,127.0,127.0,127.0,127.0,127.0,127.0,127.0,127.0,127.0,127.0,127.0,127.0,127.0,127.0,127.0,127.0,127.0,127.0,127.0,127.0,127.0,127.0,127.0,127.0,127.0,127.0,127.0,127.0,127.0,127.0,127.0,127.0,127.0,127.0,127.0,127.0,127.0,127.0,127.0,127.0,127.0,127.0,127.0,127.0,127.0,127.0,127.0,127.0,127.0,127.0,127.0,127.0,127.0,127.0,127.0,127.0,127.0,127.0,127.0,127.0,127.0,127.0,127.0,127.0,127.0,127.0,127.0,127.0,127.0,127.0,127.0,127.0,127.0,127.0,127.0,127.0,127.0,127.0,127.0,127.0,127.0,127.0,127.0,127.0,127.0,127.0,127.0,127.0,127.0,127.0,127.0,127.0,127.0,127.0,127.0,127.0,127.0,127.0,127.0,127.0,127.0,127.0,127.0,127.0,127.0,127.0,127.0,127.0,127.0,127.0,127.0,127.0,127.0,127.0,127.0,127.0,127.0,127.0,127.0,127.0,127.0,127.0,127.0,127.0,127.0,127.0,127.0,127.0,127.0,127.0,127.0,127.0,127.0,127.0,127.0,127.0,127.0,127.0,127.0,127.0,127.0,127.0,127.0,127.0,127.0,127.0,127.0,127.0,127.0,127.0,127.0,127.0,127.0,127.0,127.0,127.0,127.0,127.0,127.0,127.0,127.0,127.0,127.0,127.0,127.0,127.0,127.0,127.0,127.0,127.0,127.0,127.0,127.0,127.0,127.0,127.0,127.0,127.0,127.0,127.0,127.0,127.0,127.0,127.0,127.0,127.0,127.0,127.0,127.0,127.0,127.0,127.0,127.0,127.0,127.0,127.0,127.0,127.0,127.0,127.0,127.0,127.0,127.0,127.0,127.0,127.0,127.0,127.0,127.0,127.0,127.0,127.0,127.0,127.0,127.0,127.0,127.0,127.0,127.0,127.0,127.0,127.0,127.0,127.0,127.0,127.0,127.0,127.0,127.0,127.0,127.0,127.0,127.0,127.0,127.0,127.0,127.0,127.0,127.0,127.0,127.0,127.0,127.0,127.0,127.0,127.0,127.0,127.0,127.0,127.0,127.0,127.0,127.0,127.0,127.0,127.0,127.0,127.0,127.0,127.0,127.0,127.0,127.0,127.0,127.0,127.0,127.0,127.0,127.0,127.0,127.0,127.0,127.0,127.0,127.0,127.0,127.0,127.0,127.0,127.0,127.0,127.0,127.0,127.0,127.0,127.0,127.0,127.0,127.0,127.0,127.0,127.0,127.0,127.0,127.0,127.0,127.0,127.0,127.0,127.0,127.0,127.0,127.0,127.0,127.0,127.0,127.0,127.0,127.0,127.0,127.0,127.0,127.0,127.0,127.0,127.0,127.0,127.0,127.0,127.0,127.0,127.0,127.0,127.0,127.0,127.0,127.0,127.0,127.0,127.0,127.0,127.0,127.0,127.0,127.0,127.0,127.0,127.0,127.0,127.0,127.0,127.0,127.0,127.0,127.0,127.0,127.0,127.0,127.0,127.0,127.0,127.0,127.0,127.0,127.0,127.0,127.0,127.0,127.0,127.0,127.0,127.0,127.0,127.0,127.0,127.0,127.0,127.0,127.0,127.0,127.0,127.0,127.0,127.0,127.0,127.0,127.0,127.0,127.0,127.0,127.0,127.0,127.0,127.0,127.0,127.0,127.0,127.0,127.0,127.0,127.0,127.0,127.0,127.0,127.0,127.0,127.0,127.0,127.0,127.0,127.0,127.0,127.0,127.0,127.0,127.0,127.0,127.0,127.0,127.0,127.0,127.0,127.0,127.0,127.0,127.0,127.0,127.0,127.0,127.0,127.0,127.0,127.0,127.0,127.0,127.0,127.0,127.0,127.0,127.0,127.0,127.0,127.0,127.0,127.0,127.0,127.0,127.0,127.0,
255.0,255.0,255.0,255.0,255.0,255.0,255.0,255.0,255.0,255.0,255.0,255.0,255.0,255.0,255.0,255.0,255.0,255.0,255.0,255.0,255.0,255.0,255.0,255.0,255.0,255.0,255.0,255.0,255.0,255.0,255.0,255.0,255.0,255.0,255.0,255.0,255.0,255.0,255.0,255.0,255.0,255.0,255.0,255.0,255.0,255.0,255.0,255.0,255.0,255.0,255.0,255.0,255.0,255.0,255.0,255.0,255.0,255.0,255.0,255.0,255.0,255.0,255.0,255.0,255.0,255.0,255.0,255.0,255.0,255.0,255.0,255.0,255.0,255.0,255.0,255.0,255.0,255.0,255.0,255.0,255.0,255.0,255.0,255.0,255.0,255.0,255.0,255.0,255.0,255.0,255.0,255.0,255.0,255.0,255.0,255.0,255.0,255.0,255.0,255.0,255.0,255.0,255.0,255.0,255.0,255.0,255.0,255.0,255.0,255.0,255.0,255.0,255.0,255.0,255.0,255.0,255.0,255.0,255.0,255.0,255.0,255.0,255.0,255.0,255.0,255.0,255.0,255.0,255.0,255.0,255.0,255.0,255.0,255.0,255.0,255.0,255.0,255.0,255.0,255.0,255.0,255.0,255.0,255.0,255.0,255.0,255.0,255.0,255.0,255.0,255.0,255.0,255.0,255.0,255.0,255.0,255.0,255.0,255.0,255.0,255.0,255.0,255.0,255.0,255.0,255.0,255.0,255.0,255.0,255.0,255.0,255.0,255.0,255.0,255.0,255.0,255.0,255.0,255.0,255.0,255.0,255.0,255.0,255.0,255.0,255.0,255.0,255.0,255.0,255.0,255.0,255.0,255.0,255.0,255.0,255.0,255.0,255.0,255.0,255.0,255.0,255.0,255.0,255.0,255.0,255.0,255.0,255.0,255.0,255.0,255.0,255.0,255.0,255.0,255.0,255.0,255.0,255.0,255.0,255.0,255.0,255.0,255.0,255.0,255.0,255.0,255.0,255.0,255.0,255.0,255.0,255.0,255.0,255.0,255.0,255.0,255.0,255.0,255.0,255.0,255.0,255.0,255.0,255.0,255.0,255.0,255.0,255.0,255.0,255.0,255.0,255.0,255.0,255.0,255.0,255.0,255.0,255.0,255.0,255.0,255.0,255.0,255.0,255.0,255.0,255.0,255.0,255.0,255.0,255.0,255.0,255.0,255.0,255.0,255.0,255.0,255.0,255.0,255.0,255.0,255.0,255.0,255.0,255.0,255.0,255.0,255.0,255.0,255.0,255.0,255.0,255.0,255.0,255.0,255.0,255.0,255.0,255.0,255.0,255.0,255.0,255.0,255.0,255.0,255.0,255.0,255.0,255.0,255.0,255.0,255.0,255.0,255.0,255.0,255.0,255.0,255.0,255.0,255.0,255.0,255.0,255.0,255.0,255.0,255.0,255.0,255.0,255.0,255.0,255.0,255.0,255.0,255.0,255.0,255.0,255.0,255.0,255.0,255.0,255.0,255.0,255.0,255.0,255.0,255.0,255.0,255.0,255.0,255.0,255.0,255.0,255.0,255.0,255.0,255.0,255.0,255.0,255.0,255.0,255.0,255.0,255.0,255.0,255.0,255.0,255.0,255.0,255.0,255.0,255.0,255.0,255.0,255.0,255.0,255.0,255.0,255.0,255.0,255.0,255.0,255.0,255.0,255.0,255.0,255.0,255.0,255.0,255.0,255.0,255.0,255.0,255.0,255.0,255.0,255.0,255.0,255.0,255.0,255.0,255.0,255.0,255.0,255.0,255.0,255.0,255.0,255.0,255.0,255.0,255.0,255.0,255.0,255.0,255.0,255.0,255.0,255.0,255.0,255.0,255.0,255.0,255.0,255.0,255.0,255.0,255.0,255.0,255.0,255.0,255.0,255.0,255.0,255.0,255.0,255.0,255.0,255.0,255.0,255.0,255.0,255.0,255.0,255.0,255.0,255.0,255.0,255.0,255.0,255.0,255.0,255.0,255.0,255.0,255.0,255.0,255.0,255.0,255.0,255.0,255.0,255.0,255.0,255.0,255.0,255.0,255.0,255.0,255.0,255.0,255.0,255.0,255.0,255.0,255.0,255.0,255.0,255.0,255.0,255.0,255.0,255.0,255.0,255.0,255.0,255.0,255.0,255.0,255.0,255.0,255.0,255.0,255.0,255.0,255.0,255.0,255.0,255.0,255.0,255.0,255.0,255.0,255.0,255.0,255.0,255.0,255.0,255.0,255.0,255.0,255.0,255.0,255.0,255.0,255.0,255.0,255.0,255.0,255.0,255.0,255.0,255.0,255.0,255.0,255.0,255.0,255.0,255.0,255.0,255.0,255.0,255.0,255.0,255.0,255.0,255.0,255.0,255.0,255.0,255.0,255.0,255.0,255.0,255.0,255.0,255.0,255.0,255.0,255.0,255.0,255.0,255.0,255.0,255.0,255.0,255.0,255.0,255.0,255.0,255.0,255.0,255.0,255.0,255.0,255.0,255.0,255.0,255.0,255.0,255.0,255.0,255.0,255.0,255.0,255.0,255.0,255.0,255.0,255.0,255.0,255.0,255.0,255.0,255.0,255.0,255.0,255.0,255.0,255.0,255.0,255.0,255.0,255.0,255.0,255.0,255.0,255.0,255.0,255.0,255.0,255.0,255.0,255.0,255.0,255.0,255.0,255.0,255.0,255.0,255.0,255.0,255.0,255.0,255.0,255.0,255.0,255.0,255.0,255.0,255.0,255.0,255.0,255.0,255.0,255.0,255.0,255.0,255.0,255.0,255.0,255.0,255.0,255.0,255.0,255.0,255.0,255.0,255.0,255.0,255.0,255.0,255.0,255.0,255.0,255.0,255.0,255.0,255.0,255.0,255.0,255.0,255.0,255.0,255.0,255.0,255.0,255.0,255.0,255.0,255.0,255.0,255.0,255.0,255.0,255.0,255.0,255.0,255.0,255.0,255.0,255.0,255.0,255.0,255.0,255.0,255.0,255.0,255.0,255.0,255.0,255.0,255.0,255.0,255.0,255.0,255.0,255.0,255.0,255.0,255.0,255.0,255.0,255.0,255.0,255.0,255.0,255.0,255.0,255.0,255.0,255.0,255.0,255.0,255.0,255.0,255.0,255.0,255.0,255.0,255.0,255.0,255.0,255.0,255.0,255.0,255.0,255.0,255.0,255.0,255.0,255.0,255.0,255.0,255.0,255.0,255.0,255.0,255.0,255.0,255.0,255.0,255.0,255.0,255.0,255.0,255.0,255.0,255.0,255.0,255.0,255.0,255.0,255.0,255.0,255.0,255.0,255.0,255.0,255.0,255.0,255.0,255.0,255.0,255.0,255.0,255.0,255.0,255.0,255.0,255.0,255.0,255.0,255.0,255.0,255.0,255.0,255.0,255.0,255.0,255.0,255.0,255.0,255.0,255.0,255.0,255.0,255.0,255.0,255.0,255.0,255.0,255.0,255.0,255.0,255.0,255.0,255.0,255.0,255.0,255.0,255.0,255.0,255.0,255.0,255.0,255.0,255.0,255.0,255.0,255.0,255.0,255.0,255.0,255.0,255.0,255.0,255.0,255.0,255.0,255.0,255.0,255.0,255.0,255.0,255.0,255.0,255.0,255.0,255.0,255.0,255.0,255.0,255.0,255.0,255.0,255.0,255.0,255.0,255.0,255.0,255.0,255.0,255.0,255.0,255.0,255.0,255.0,255.0,255.0,255.0,255.0,255.0,255.0,255.0,255.0,255.0,255.0,255.0,255.0,255.0,255.0,255.0,255.0,255.0,255.0,255.0,255.0,255.0,255.0,255.0,255.0,255.0,255.0,255.0,255.0,255.0,255.0,255.0,255.0,255.0,255.0,255.0,255.0,255.0,255.0,255.0,255.0,255.0,255.0,255.0,255.0,255.0,255.0,255.0,255.0,255.0,255.0,255.0,255.0,255.0,255.0,255.0,255.0,255.0,255.0,255.0,255.0,255.0,255.0,255.0,255.0,255.0,255.0,255.0,255.0,255.0,255.0,255.0,255.0,255.0,255.0,255.0,255.0,255.0,255.0,255.0,255.0,255.0,255.0,255.0,255.0,255.0,255.0,255.0,255.0,255.0,255.0,255.0,255.0,255.0,255.0,255.0,255.0,255.0,255.0,255.0,255.0,255.0,255.0,255.0,255.0,255.0,255.0,255.0,255.0,255.0,255.0,255.0,255.0,255.0,255.0,255.0,255.0,255.0,255.0,255.0,255.0,255.0,255.0,255.0,255.0,255.0,255.0,255.0,255.0,255.0,255.0,255.0,255.0,255.0,255.0,255.0,255.0,255.0,255.0,255.0,255.0,255.0,255.0,255.0,255.0,255.0,255.0,255.0,255.0,255.0,255.0,255.0,255.0,255.0,255.0,255.0,255.0,255.0,255.0,255.0,255.0,255.0,255.0,255.0,255.0,255.0,255.0,255.0,255.0,255.0,255.0,255.0,255.0,255.0,255.0,255.0,255.0,255.0,255.0,255.0,255.0,255.0,255.0,255.0,255.0,255.0,255.0,255.0,255.0,255.0,255.0,255.0,255.0,255.0,255.0,255.0,255.0,255.0,255.0,255.0,255.0,255.0,255.0,255.0,255.0,255.0,255.0,255.0,255.0,255.0,255.0,255.0,255.0,255.0,255.0,255.0,255.0,255.0,255.0,255.0,255.0,255.0,255.0,255.0,255.0,255.0,255.0,255.0,255.0,255.0,255.0,255.0,255.0,255.0,255.0,255.0,255.0,255.0,255.0,255.0,255.0,255.0,255.0,255.0,255.0,255.0,255.0,255.0,255.0,255.0,255.0,255.0,255.0,255.0,255.0,255.0,255.0,255.0,255.0,255.0,255.0,255.0,255.0,255.0,255.0,255.0,255.0,255.0,255.0,255.0,255.0,255.0,255.0,255.0,255.0,255.0,255.0,255.0,255.0,255.0,255.0,255.0,255.0,255.0,255.0,255.0,255.0,255.0,255.0,255.0,255.0,255.0,255.0,255.0,255.0,255.0,255.0,255.0,255.0,255.0,255.0,255.0,255.0,255.0,255.0,255.0,255.0,255.0,255.0,255.0,255.0,255.0,255.0,255.0,255.0,255.0,255.0,255.0,255.0,255.0,255.0,255.0,255.0,255.0,255.0,255.0,255.0,255.0,255.0,255.0,255.0,255.0,255.0,255.0,255.0,255.0,255.0,255.0,255.0,255.0,255.0,255.0,255.0,255.0,255.0,255.0,255.0,255.0,255.0,255.0,255.0,255.0,255.0,255.0,255.0,255.0,255.0,255.0,255.0,255.0,255.0,255.0,255.0,255.0,255.0,255.0,255.0,255.0,255.0,255.0,255.0,255.0,255.0,255.0,255.0,255.0,255.0,255.0,255.0,255.0,255.0,255.0,255.0,255.0,255.0,255.0,255.0,255.0,255.0,255.0,255.0,255.0,255.0,255.0,255.0,255.0,255.0,255.0,255.0,255.0,255.0,255.0,255.0,255.0,255.0,255.0,255.0,255.0,255.0,255.0,255.0,255.0,255.0,255.0,255.0,255.0,255.0,255.0,255.0,255.0,255.0,255.0,255.0,255.0,255.0,255.0,255.0,255.0,255.0,255.0,255.0,255.0,255.0,255.0,255.0,255.0,255.0,255.0,255.0,255.0,255.0,255.0,255.0,255.0,255.0,255.0,255.0,255.0,255.0,255.0,255.0,255.0,255.0,255.0,255.0,255.0,255.0,255.0,255.0,255.0,255.0,255.0,255.0,255.0,255.0,255.0,255.0,255.0,255.0,255.0,255.0,255.0,255.0,255.0,255.0,255.0,255.0,255.0,255.0,255.0,255.0,255.0,255.0,255.0,255.0,255.0,255.0,255.0,255.0,255.0,255.0,255.0,255.0,255.0,255.0,255.0,255.0,255.0,255.0,255.0,255.0,255.0,255.0,255.0,255.0,255.0,255.0,255.0,255.0,255.0,255.0,255.0,255.0,255.0,255.0,255.0,255.0,255.0,255.0,255.0,255.0,255.0,255.0,255.0,255.0,255.0,255.0,255.0,255.0,255.0,255.0,255.0,255.0,255.0,255.0,255.0,255.0,255.0,255.0,255.0,255.0,255.0,255.0,255.0,255.0,255.0,255.0,255.0,255.0,255.0,255.0,255.0,255.0,255.0,255.0,255.0,255.0,255.0,255.0,255.0,255.0,255.0,255.0,255.0,255.0,255.0,255.0,255.0,255.0,255.0,255.0,255.0,255.0,255.0,255.0,255.0,255.0,255.0,255.0,255.0,255.0,255.0,255.0,255.0,255.0,255.0,255.0,255.0,255.0,255.0,255.0,255.0,255.0,255.0,255.0,255.0,255.0,255.0,255.0,255.0,255.0,255.0,255.0,255.0,255.0,255.0,255.0,255.0,255.0,255.0,255.0,255.0,255.0,255.0,255.0,255.0,255.0,255.0,255.0,255.0,255.0,255.0,255.0,255.0,255.0,255.0,255.0,255.0,255.0,255.0,255.0,255.0,255.0,255.0,255.0,255.0,255.0,255.0,255.0,255.0,255.0,255.0,255.0,255.0,255.0,255.0,255.0,255.0,255.0,255.0,255.0,255.0,255.0,255.0,255.0,255.0,255.0,255.0,255.0,255.0,255.0,255.0,255.0,255.0,255.0,255.0,255.0,255.0,255.0,255.0,255.0,255.0,255.0,255.0,255.0,255.0,255.0,255.0,255.0,255.0,255.0,255.0,255.0,255.0,255.0,255.0,255.0,255.0,255.0,255.0,255.0,255.0,255.0,255.0,255.0,255.0,255.0,255.0,255.0,255.0,255.0,255.0,255.0,255.0,255.0,255.0,255.0,255.0,255.0,255.0,255.0,255.0,255.0,255.0,255.0,255.0,255.0,255.0,255.0,255.0,255.0,255.0,255.0,255.0,255.0,255.0,255.0,255.0,255.0,255.0,255.0,255.0,255.0,255.0,255.0,255.0,255.0,255.0,255.0,255.0,255.0,255.0,255.0,255.0,255.0,255.0,255.0,255.0,255.0,255.0,255.0,255.0,255.0,255.0,255.0,255.0,255.0,255.0,255.0,255.0,255.0,255.0,255.0,255.0,255.0,255.0,255.0,255.0,255.0,255.0,255.0,255.0,255.0,255.0,255.0,255.0,255.0,255.0,255.0,255.0,255.0,255.0,255.0,255.0,255.0,255.0,255.0,255.0,255.0,255.0,255.0,255.0,255.0,255.0,255.0,255.0,255.0,255.0,255.0,255.0,255.0,255.0,255.0,255.0,255.0,255.0,255.0,255.0,255.0,255.0,255.0,255.0,255.0,255.0,255.0,255.0,255.0,255.0,255.0,255.0,255.0,255.0,255.0,255.0,255.0,255.0,255.0,255.0,255.0,255.0,255.0,255.0,255.0,255.0,255.0,255.0,255.0,255.0,255.0,255.0,255.0,255.0,255.0,255.0,255.0,255.0,255.0,255.0,255.0,255.0,255.0,255.0,255.0,255.0,255.0,255.0,255.0,255.0,255.0,255.0,255.0,255.0,255.0,255.0,255.0,255.0,255.0,255.0,255.0,255.0,255.0,255.0,255.0,255.0,255.0,255.0,255.0,255.0,255.0,255.0,255.0,255.0,255.0,255.0,255.0,255.0,255.0,255.0,255.0,255.0,255.0,255.0,255.0,255.0,255.0,255.0,255.0,255.0,255.0,255.0,255.0,255.0,255.0,255.0,255.0,255.0,255.0,255.0,255.0,255.0,255.0,255.0,255.0,255.0,255.0,255.0,255.0,255.0,255.0,255.0,255.0,255.0,255.0,255.0,255.0,255.0,255.0,255.0,255.0,255.0,255.0,255.0,255.0,255.0,255.0,255.0,255.0,255.0,255.0,255.0,255.0,255.0,255.0,255.0,255.0,255.0,255.0,255.0,255.0,255.0,255.0,255.0,255.0,255.0,255.0,255.0,255.0,255.0,255.0,255.0,255.0,255.0,255.0,255.0,255.0,255.0,255.0,255.0,255.0,255.0,255.0,255.0,255.0,255.0,255.0,255.0,255.0,255.0,255.0,255.0,255.0,255.0,255.0,255.0,255.0,255.0,255.0,255.0,255.0,255.0,255.0,255.0,255.0,255.0,255.0,255.0,255.0,255.0,255.0,255.0,255.0,255.0,255.0,255.0,255.0,255.0,255.0,255.0,255.0,255.0,255.0,255.0,255.0,255.0,255.0,255.0,255.0,255.0,255.0,255.0,255.0,255.0,255.0,255.0,255.0,255.0,255.0,255.0,255.0,255.0,255.0,255.0,255.0,255.0,255.0,255.0,255.0,255.0,255.0,255.0,255.0,255.0,255.0,255.0,255.0,255.0,255.0,255.0,255.0,255.0,255.0,255.0,255.0,255.0,255.0,255.0,255.0,255.0,255.0,255.0,255.0,255.0,255.0,255.0,255.0,255.0,255.0,255.0,255.0,255.0,255.0,255.0,255.0,255.0,255.0,255.0,255.0,255.0,255.0,255.0,255.0,255.0,255.0,255.0,255.0,255.0,255.0,255.0,255.0,255.0,255.0,255.0,255.0,255.0,255.0,255.0,255.0,255.0,255.0,255.0,255.0,255.0,255.0,255.0,255.0,255.0,255.0,255.0,255.0,255.0,255.0,255.0,255.0,255.0,255.0,255.0,255.0,255.0,255.0,255.0,255.0,255.0,255.0,255.0,255.0,255.0,255.0,255.0,255.0,255.0,255.0,255.0,255.0,255.0,255.0,255.0,255.0,255.0,255.0,255.0,255.0,255.0,255.0,255.0,255.0,255.0,255.0,255.0,255.0,255.0,255.0,255.0,255.0,255.0,255.0,255.0,255.0,255.0,255.0,255.0,255.0,255.0,255.0,255.0,255.0,255.0,255.0,255.0,255.0,255.0,255.0,255.0,255.0,255.0,255.0,255.0,255.0,255.0,255.0,255.0,255.0,255.0,255.0,255.0,255.0,255.0,255.0,255.0,255.0,255.0,255.0,255.0,255.0,255.0,255.0,255.0,255.0,255.0,255.0,255.0,255.0,255.0,255.0,255.0,255.0,255.0,255.0,255.0,255.0,255.0,255.0,255.0,255.0,255.0,255.0,255.0,255.0,255.0,255.0,255.0,255.0,255.0,255.0,255.0,255.0,255.0,255.0,255.0,255.0,255.0,255.0,255.0,255.0,255.0,255.0,255.0,255.0,255.0,255.0,255.0,255.0,255.0,255.0,255.0,255.0,255.0,255.0,255.0,255.0,255.0,255.0,255.0,255.0,255.0,255.0,255.0,255.0,255.0,255.0,255.0,255.0,255.0,255.0,255.0,255.0,255.0,255.0,255.0,255.0,255.0,255.0,255.0,255.0,255.0,255.0,255.0,255.0,255.0,255.0,255.0,255.0,255.0,255.0,255.0,255.0,255.0,255.0,255.0,255.0,255.0,255.0,255.0,255.0,255.0,255.0,255.0,255.0,255.0,255.0,255.0,255.0,255.0,255.0,255.0,255.0,255.0,255.0,255.0,255.0,255.0,255.0,255.0,255.0,255.0,255.0,255.0,255.0,255.0,255.0,255.0,255.0,255.0,255.0,255.0,255.0,255.0,255.0,255.0,255.0,255.0,255.0,255.0,255.0,255.0,255.0,255.0,255.0,255.0,255.0,255.0,255.0,255.0,255.0,255.0,255.0,255.0,255.0,255.0,255.0,255.0,255.0,255.0,255.0,255.0,255.0,255.0,255.0,255.0,255.0,255.0,255.0,255.0,255.0,255.0,255.0,255.0,255.0,255.0,255.0,255.0,255.0,255.0,255.0,255.0,255.0,255.0,255.0,255.0,255.0,255.0,255.0,255.0,255.0,255.0,255.0,255.0,255.0,255.0,255.0,255.0,255.0,255.0,255.0,255.0,255.0,255.0,255.0,255.0,255.0,255.0,255.0,255.0,255.0,255.0,255.0,255.0,255.0,255.0,255.0,255.0,255.0,255.0,255.0,255.0,255.0,255.0,255.0,255.0,255.0,255.0,255.0,255.0,255.0,255.0,255.0,255.0,255.0,255.0,255.0,255.0,255.0,255.0,255.0,255.0,255.0,255.0,255.0,255.0,255.0,255.0,255.0,255.0,255.0,255.0,255.0,255.0,255.0,255.0,255.0,255.0,255.0,255.0,255.0,255.0,255.0,255.0,255.0,255.0,255.0,255.0,255.0,255.0,255.0,255.0,255.0,255.0,255.0,255.0,255.0,255.0,255.0,255.0,255.0,255.0,255.0,255.0,255.0,255.0,255.0,255.0,255.0,255.0,255.0,255.0,255.0,255.0,255.0,255.0,255.0,255.0,255.0,255.0,255.0,255.0,255.0,255.0,255.0,255.0,255.0,255.0,255.0,255.0,255.0,255.0,255.0,255.0,255.0,255.0,255.0,255.0,255.0,255.0,255.0,255.0,255.0,255.0,255.0,
-9.49356e-03,1.06271e-01,4.56748e-02,-1.55597e-02,-3.18099e-02,-6.79592e-02,-4.52904e-02,1.57106e-02,5.27444e-04,2.59687e-02,5.42542e-02,-1.00671e-01,5.34622e-02,1.96587e-02,-1.65234e-02,8.23651e-02,1.23912e-01,-4.97012e-02,-1.18784e-01,8.25639e-02,-5.78338e-02,1.36489e-01,7.56790e-02,2.81340e-02,-7.08026e-02,-5.96763e-02,3.16296e-03,8.87734e-02,2.77996e-02,-2.85384e-03,-1.67809e-01,-1.16671e-01,-6.18833e-02,-5.06874e-03,1.34662e-02,3.20413e-02,3.27006e-02,-6.84675e-02,1.11496e-01,2.25183e-02,-4.68761e-03,1.34292e-01,4.57743e-03,-1.31359e-01,3.58981e-02,-2.18786e-02,9.94325e-02,-3.59992e-02,5.04151e-02,7.86510e-02,-3.44404e-02,-1.46907e-01,1.45335e-02,7.36830e-02,1.90821e-02,5.99080e-04,1.59631e-01,-3.36146e-02,-1.21263e-01,-1.17392e-02,1.13172e-01,1.35820e-01,1.54879e-02,-1.91957e-02,-6.76722e-03,-8.88055e-02,1.50556e-02,-5.67134e-02,5.51313e-02,1.28763e-02,7.80801e-02,1.04142e-01,1.15194e-02,1.49115e-01,1.35533e-01,9.16006e-03,-4.82958e-02,-5.87741e-02,-1.64814e-01,-1.92504e-01,-3.53115e-02,1.75153e-01,-9.26670e-02,4.64603e-02,8.13680e-02,-1.40561e-02,3.32640e-02,3.20199e-02,-4.45728e-02,-1.23871e-01,2.02709e-03,-6.94498e-02,-1.05825e-01,9.09146e-02,-9.44866e-02,1.79777e-01,-8.46401e-03,-1.62569e-01,-5.87873e-02,1.11156e-01,-3.36582e-02,-1.25016e-01,-1.32812e-02,-1.81424e-01,-4.03399e-02,-2.75802e-02,1.61869e-01,-1.48480e-01,-5.62324e-02,1.08283e-01,-6.31323e-02,-3.91721e-03,-6.91690e-02,-9.43996e-02,-1.86051e-01,-4.67789e-02,-1.60776e-01,-7.96363e-02,-1.38280e-02,-7.99507e-02,-1.50829e-01,-1.72832e-01,-6.22670e-02,-2.65908e-02,7.09434e-02,-9.18396e-02,-1.59470e-02,-1.67380e-01,8.74335e-02,1.16960e-02,4.81580e-02,1.01791e-01,1.17651e-01,-1.01153e-01,-7.08890e-02,-6.23755e-02,1.06894e-01,-1.61965e-01,-3.01408e-02,2.24102e-03,4.63506e-02,3.16788e-02,-8.14671e-02,-6.80338e-02,-6.92045e-02,7.17511e-03,4.79031e-02,2.62539e-02,5.80607e-03,5.50557e-03,7.01512e-02,-5.50276e-02,-5.73948e-02,-2.78912e-02,-1.03372e-01,2.49682e-02,6.28562e-02,1.25833e-01,9.53475e-02,3.33299e-02,4.15707e-02,4.90923e-02,-2.02207e-02,-1.91892e-02,6.42205e-02,9.82208e-02,3.54111e-02,4.77395e-02,-1.02262e-01,-8.68129e-02,-1.20846e-01,1.58120e-01,4.70195e-02,1.15754e-01,-5.81748e-02,8.36757e-02,7.44203e-02,-2.46170e-02,-4.16214e-02,7.53340e-02,-4.31898e-02,-1.35424e-01,7.58166e-02,1.33257e-01,-1.30198e-01,1.39150e-02,-9.83227e-02,-3.65432e-02,1.32736e-01,-1.95384e-01,7.08455e-02,-3.01500e-02,-7.16400e-02,-1.19915e-01,-1.07036e-01,-2.50171e-02,-1.75764e-01,-1.35206e-01,8.28285e-03,-1.46114e-01,4.50992e-02,-2.72351e-02,2.46139e-02,5.54114e-02,1.13970e-01,-3.16821e-02,3.07958e-02,1.22130e-02,1.05827e-01,3.56656e-02,2.75542e-02,-1.06594e-02,-1.07965e-02,9.84042e-02,-5.75432e-02,-1.42460e-01,1.50928e-01,8.82294e-02,-7.38141e-02,-2.81536e-03,7.70188e-02,-1.41910e-01,-3.33073e-02,6.00393e-02,-3.35142e-02,1.58812e-01,7.12614e-02,1.43687e-02,9.21818e-02,8.15343e-02,3.40815e-02,-1.89810e-02,-1.70316e-02,7.79696e-02,-4.08323e-02,-7.80035e-02,9.18076e-02,-6.33319e-02,4.69275e-02,-1.11208e-01,2.04445e-02,-3.78174e-02,8.50603e-02,1.53745e-01,1.07261e-01,4.02459e-03,-1.43052e-02,1.21712e-01,-8.10405e-02,2.54474e-02,2.02393e-02,9.51637e-02,-1.16957e-01,-6.70857e-02,8.86116e-02,-2.57104e-02,1.02943e-01,-7.47016e-02,-1.22381e-02,-1.06475e-01,1.75651e-02,-6.69576e-02,1.47199e-01,1.36765e-01,8.20049e-02,-6.09337e-02,9.02018e-02,-8.24318e-02,-1.10502e-01,4.73691e-02,-3.84533e-02,7.41852e-02,3.21184e-03,-1.06422e-01,-1.50250e-03,-5.71405e-02,5.63776e-02,1.27867e-01,7.55496e-02,-8.57239e-02,8.35183e-02,1.56313e-01,-5.20089e-02,-1.40944e-01,-3.19247e-02,-1.23828e-01,-1.50751e-01,6.47819e-02,-3.90593e-02,-3.15624e-02,8.20669e-02,-1.16347e-01,1.11722e-01,1.22691e-02,-8.15577e-02,-1.11259e-01,-1.28107e-01,5.07125e-02,-2.73547e-03,-1.42750e-01,-9.36451e-02,-5.43861e-02,8.20733e-02,1.13259e-01,4.28387e-02,-7.37442e-02,5.85789e-02,4.40785e-02,-2.35112e-02,9.29477e-02,9.07745e-02,4.23364e-03,-7.20530e-02,9.30363e-02,3.55184e-02,-4.26424e-02,9.03364e-02,-4.58700e-02,-3.31538e-02,1.60638e-01,9.03591e-02,2.65266e-02,-8.77551e-02,1.16479e-01,-9.93499e-02,1.09189e-02,-6.60084e-02,-2.02407e-02,-4.10465e-02,-7.92238e-02,-1.73289e-01,8.82167e-02,-9.14947e-02,-3.57294e-02,7.63035e-02,-5.00525e-02,1.45918e-02,6.57923e-02,5.95457e-03,5.10607e-02,-1.99451e-02,8.04492e-02,1.58762e-01,1.68654e-01,8.35988e-02,1.41230e-01,1.94638e-01,-5.05550e-02,-2.87977e-03,-1.07680e-01,3.52141e-02,-5.21177e-02,-1.18793e-02,1.37695e-01,1.47573e-01,4.11491e-02,-2.27266e-02,2.45725e-02,5.60781e-02,1.31741e-02,2.10070e-02,1.51812e-01,1.28300e-01,1.52431e-02,-1.42747e-02,7.65718e-02,-5.56031e-02,3.66080e-02,-1.70311e-01,1.72073e-01,2.35190e-02,-1.80747e-01,1.80567e-02,1.57314e-01,-7.03204e-02,-1.35298e-01,7.90584e-02,1.26088e-01,1.74370e-01,-1.06053e-01,-8.46988e-02,1.70908e-02,-5.49978e-02,-3.86543e-02,-4.69356e-03,9.68385e-02,-9.70696e-02,2.15275e-02,-1.74272e-01,4.14272e-02,-1.56388e-01,7.58836e-02,-6.90027e-02,-3.05184e-03,-1.71703e-03,2.98991e-04,1.12946e-01,-7.03291e-02,1.26393e-01,6.30245e-02,6.51057e-03,-6.00634e-02,3.19011e-02,-2.07682e-02,-1.23700e-01,1.38952e-01,-7.55264e-02,-6.23567e-02,-4.30437e-02,1.14805e-01,-1.26706e-01,4.63687e-02,-2.90942e-02,1.48571e-01,7.45110e-02,-6.17633e-02,-1.45713e-02,-1.49385e-02,-9.22240e-02,-1.59127e-01,3.76617e-02,9.56503e-02,-5.66883e-02,1.33192e-01,3.26205e-02,-1.18772e-01,-7.53734e-02,-2.72887e-02,1.65924e-01,-1.19739e-01,-6.48606e-02,5.51875e-03,6.84891e-02,-8.13667e-02,-1.41932e-02,1.17718e-01,-7.74439e-03,-1.13513e-01,-3.36157e-02,8.63119e-02,-5.95152e-02,-1.19686e-01,-1.15782e-01,1.17236e-01,-5.83134e-02,-1.13871e-01,1.91851e-02,-2.97449e-02,-5.87031e-02,1.38112e-03,5.47009e-02,-1.60452e-01,3.10316e-02,-2.49598e-02,-3.77191e-02,-5.08202e-03,-1.47385e-01,-7.81283e-03,-8.15416e-02,-4.13615e-02,-9.04676e-02,-1.32329e-01,6.50794e-02,9.33150e-04,-1.03260e-01,1.41483e-02,6.11704e-02,9.44196e-03,-9.60056e-02,-1.10209e-02,-7.47251e-02,9.58817e-02,1.90435e-02,4.76302e-03,-3.65279e-02,9.42800e-02,1.11350e-01,1.07759e-01,1.87642e-02,-3.65478e-02,1.39209e-02,-9.46619e-02,4.19411e-02,-6.60048e-02,-8.80622e-03,1.08918e-01,-6.83038e-03,1.05065e-01,-6.49767e-02,9.37761e-02,-3.68275e-02,-1.06740e-01,4.91290e-02,1.57498e-02,-8.39124e-02,-3.78046e-02,1.44021e-01,-1.87904e-03,-1.88855e-01,3.31293e-02,1.02147e-01,1.09883e-01,-1.50094e-01,-9.36191e-02,1.02147e-01,-9.28901e-02,4.64668e-02,-5.55062e-02,-7.11053e-02,9.24621e-02,-1.58894e-01,5.05880e-02,2.03987e-02,-8.92878e-02,-1.84588e-02,3.49975e-02,-1.14377e-01,1.12507e-01,1.08826e-01,8.73061e-02,1.50341e-01,-3.69018e-02,-4.30359e-02,2.92132e-02,-8.31309e-02,-3.62352e-02,-5.24812e-03,7.24731e-02,-6.93968e-02,-1.92880e-02,1.34495e-01,-1.10490e-03,-9.99176e-02,-2.98544e-02,-8.17413e-02,-3.22224e-02,1.84497e-02,8.79123e-02,-7.15131e-02,1.14804e-01,-9.19557e-03,-7.28244e-02,1.60487e-01,-5.30801e-03,1.25100e-01,-1.87223e-01,-5.86098e-02,1.83963e-02,5.02906e-03,-6.07293e-02,1.92100e-01,-2.17424e-02,-1.22089e-01,-2.53501e-02,-8.50760e-02,4.42143e-02,1.84589e-02,6.74415e-02,5.10671e-02,-8.55535e-02,8.18821e-02,4.88514e-02,1.31760e-02,-1.40310e-02,3.10860e-02,-1.23353e-01,6.27335e-03,-5.41382e-02,1.35609e-01,1.22578e-01,1.26912e-02,-1.71917e-02,-8.11599e-02,-7.75947e-02,9.76275e-02,1.83725e-01,5.89731e-02,2.71015e-02,-1.13853e-02,3.70181e-02,5.78477e-03,-7.02199e-02,-2.02452e-02,-6.38803e-02,4.70402e-03,-2.10108e-02,-2.66789e-03,-1.57492e-04,9.82884e-03,1.48334e-01,-5.98583e-03,6.01953e-02,-1.02495e-01,2.02855e-02,-1.15758e-01,3.33948e-02,1.50143e-01,2.68756e-02,3.70491e-02,1.88180e-02,5.79223e-02,1.66442e-01,-1.74429e-01,-8.50255e-02,1.61368e-01,1.05656e-01,-1.00953e-01,5.43283e-02,-7.96526e-02,5.07636e-02,8.61941e-02,1.08846e-01,-8.15583e-02,-1.05915e-01,2.57173e-02,1.61843e-01,4.12296e-02,1.20287e-02,2.47980e-02,1.83021e-01,-7.47508e-02,-9.00886e-03,3.05560e-02,1.09424e-02,2.43756e-02,-1.03413e-01,-8.50140e-02,1.29521e-02,2.54405e-02,9.39503e-02,8.94181e-02,2.38217e-02,-1.45562e-01,-1.68649e-01,-1.18332e-02,2.05668e-02,-1.37235e-01,-2.45372e-02,-3.52440e-02,-1.59548e-01,1.86781e-01,6.23254e-02,6.49150e-02,9.18821e-02,1.21518e-01,-6.14385e-02,1.09467e-01,1.46632e-02,-1.79386e-01,-1.53106e-01,4.02607e-02,2.24972e-02,-2.85667e-02,-8.66519e-02,4.47672e-02,2.42907e-02,2.98748e-02,1.42366e-02,-1.00458e-01,3.36986e-02,1.41569e-02,6.95030e-02,6.61527e-02,8.62882e-02,6.72700e-02,-1.95728e-01,-1.37994e-01,-1.89857e-01,7.58868e-02,7.53909e-02,-1.20833e-02,3.43542e-02,-6.01480e-02,-1.22933e-01,7.45618e-02,-1.50980e-03,-7.89510e-02,-4.77130e-02,1.57610e-02,-5.80615e-02,1.75728e-01,9.52570e-02,-8.84000e-02,-1.61492e-01,2.10791e-02,9.21369e-02,-8.16993e-03,8.07723e-02,-2.44774e-02,-8.33602e-03,-5.87420e-03,1.32287e-01,-1.50376e-01,3.57641e-02,1.47882e-02,-3.45752e-02,-3.03030e-02,-4.60855e-02,-5.35897e-02,1.15609e-02,-8.81623e-02,-7.15555e-03,-1.18217e-01,6.89283e-03,3.12109e-02,4.59546e-03,-1.14219e-01,-5.89741e-02,-4.23440e-02,-1.24297e-02,-1.06785e-02,-6.74862e-02,1.58160e-02,9.65934e-02,-1.43959e-01,-6.03509e-02,-8.25624e-02,-3.95862e-02,3.62100e-02,-4.52709e-02,-5.14427e-02,-4.85569e-02,-6.64570e-02,1.51013e-01,7.72572e-02,8.94805e-03,-1.78593e-01,-1.33031e-01,-1.03669e-01,2.02386e-02,-3.67466e-02,7.46866e-02,-6.19432e-02,-3.60797e-02,1.12192e-01,9.05458e-02,-1.99967e-01,5.64557e-02,7.48518e-02,-3.70530e-02,7.75127e-02,8.99600e-02,-1.80343e-02,-6.95251e-02,-1.88485e-01,-3.54291e-03,-7.62100e-03,1.14581e-01,-4.07727e-02,-1.11651e-01,5.44004e-02,-4.90118e-02,-1.59100e-01,-4.86352e-02,-1.12611e-02,-5.72901e-02,-5.97600e-02,1.96195e-01,-1.21227e-01,9.25486e-02,-4.32948e-02,-3.79988e-02,3.19208e-02,-6.62118e-02,1.27746e-01,6.84717e-03,7.24614e-02,4.37231e-02,-1.30251e-02,-1.10038e-01,-9.45131e-02,-1.97999e-01,1.79357e-02,-8.23278e-02,6.17966e-02,5.24177e-02,-1.60931e-01,-1.09536e-01,9.51335e-02,-9.92304e-02,2.51965e-02,-6.75097e-02,-1.22202e-01,-3.08567e-02,-4.85005e-02,-9.01595e-02,1.22668e-01,-1.82857e-01,-1.10931e-02,6.97875e-02,2.11726e-02,1.96359e-01,-2.90479e-02,-4.65924e-02,5.17407e-02,-1.26950e-01,2.94907e-02,-4.82783e-02,-1.69235e-02,7.37752e-02,6.98724e-02,-1.32525e-01,9.75456e-02,-3.33910e-02,5.14662e-02,-2.80938e-02,1.92396e-01,-6.07270e-02,8.72125e-02,2.00778e-02,9.54028e-02,7.65860e-02,5.35493e-02,8.62099e-02,-4.99838e-02,-1.21101e-01,-1.94538e-01,-7.77558e-02,-1.84173e-01,-1.41742e-02,-7.87874e-02,-6.88789e-02,-3.33991e-02,1.15526e-01,9.34489e-02,1.10616e-01,6.47917e-02,-6.45638e-02,5.97547e-02,2.14364e-02,-1.24213e-01,1.37691e-01,5.11128e-02,3.16274e-02,-6.33489e-02,-4.92990e-03,3.60050e-02,1.31554e-02,2.02902e-02,1.14519e-01,8.06933e-02,1.18402e-01,-4.57473e-02,-5.61338e-02,1.05997e-01,8.19140e-03,-1.42215e-01,4.57090e-02,-9.26448e-02,-2.13979e-02,-8.36023e-02,5.24186e-02,5.15608e-02,-1.59492e-01,9.33299e-02,4.40326e-02,1.61948e-01,-3.64902e-02,-2.36371e-02,8.48419e-04,4.56422e-02,1.59567e-01,9.03831e-03,-4.35542e-02,-9.60402e-02,-2.08229e-02,-1.48234e-02,3.18762e-02,-3.78946e-02,1.66171e-02,-1.14381e-01,-1.42355e-01,7.62120e-02,3.27512e-02,9.90184e-02,-5.43387e-02,7.19173e-02,-1.55642e-01,3.47939e-02,3.28096e-02,1.38583e-01,6.01003e-02,5.16581e-02,-5.04228e-02,-9.85740e-02,6.42903e-02,3.45594e-02,4.52814e-02,-8.88735e-02,2.70648e-02,-1.11892e-01,6.27182e-03,5.54823e-02,1.84749e-01,3.48068e-02,-1.23879e-01,8.57849e-02,-4.38160e-02,-2.35720e-02,-6.59330e-02,9.36672e-02,-3.42287e-02,1.92348e-01,8.39680e-02,-4.52574e-02,-4.38505e-02,-1.41853e-01,-1.49015e-01,-6.72296e-02,-1.32153e-01,3.49158e-02,4.86926e-02,-5.86282e-02,-8.90187e-02,4.93153e-02,1.47263e-01,-8.05864e-02,5.07537e-02,3.34800e-02,6.20201e-02,1.06054e-01,-6.42069e-02,-1.86306e-02,-3.03902e-02,9.41862e-02,-1.78233e-02,1.11397e-01,-6.82010e-02,-1.60907e-01,1.54528e-01,1.76797e-01,4.31665e-02,1.58950e-03,-3.12146e-02,1.43986e-01,7.76078e-02,-8.74567e-02,-8.29756e-02,2.04616e-02,9.18560e-02,4.11724e-02,1.06233e-01,6.15651e-02,8.94650e-02,-3.17007e-02,4.66110e-02,2.66385e-02,1.64702e-01,-1.15097e-01,-1.81494e-01,9.82119e-02,-7.72561e-02,2.72600e-02,9.35530e-02,6.99426e-02,1.14609e-01,1.87984e-01,-6.40371e-02,4.42280e-02,5.64384e-02,8.06432e-02,4.56563e-02,-1.92088e-01,-1.61159e-01,-1.59070e-02,-2.55400e-02,1.58297e-02,-3.04155e-02,-8.92092e-02,1.08600e-01,1.06113e-01,-9.44370e-02,-6.49419e-02,4.93218e-02,-1.86370e-02,-1.31663e-01,1.66068e-01,9.24209e-03,1.07874e-02,-5.00496e-02,-7.20283e-02,-1.82541e-01,5.72650e-02,-1.04023e-01,8.10891e-02,4.15390e-02,-1.08596e-01,2.46447e-04,5.74115e-02,-9.60428e-02,1.41494e-01,2.22721e-03,1.27471e-01,-6.97315e-02,3.39154e-02,1.71409e-01,8.27001e-02,8.23092e-02,3.45272e-02,9.58028e-03,8.65406e-02,-1.97752e-01,1.80018e-01,-1.07069e-01,-1.51480e-01,3.02293e-02,2.04237e-02,3.81452e-02,-2.62257e-02,-1.59773e-01,1.20555e-01,-4.44558e-02,3.65408e-02,-1.51993e-03,8.25392e-02,-4.99351e-02,-1.40465e-03,-2.22343e-02,-1.57949e-01,-3.52426e-02,-5.47181e-02,9.71815e-02,2.94855e-02,-5.12735e-02,1.01159e-01,-6.15819e-02,-1.03937e-02,-9.70211e-03,1.30172e-03,-1.33218e-01,7.03594e-02,-4.43619e-02,-8.60728e-02,-3.49970e-02,-6.70065e-02,5.17194e-02,8.89498e-02,-1.81821e-02,1.31226e-01,-4.07918e-02,1.29914e-01,4.79661e-02,-2.12999e-02,-5.91362e-02,4.78872e-02,-3.57464e-02,-1.49217e-02,-7.37295e-02,-4.26137e-02,-2.78182e-02,-9.37166e-02,5.75982e-02,6.03789e-02,1.66057e-01,-6.74611e-03,-6.99575e-02,7.55835e-02,3.12346e-02,5.85644e-03,-1.00707e-02,-6.13822e-02,5.08840e-03,-3.19695e-02,2.16718e-02,-1.90632e-02,2.50818e-02,-4.70314e-02,4.50717e-02,1.19053e-01,-4.52775e-02,-3.64045e-02,1.88210e-01,-5.78415e-02,8.53257e-03,-1.23785e-01,8.12831e-02,3.67518e-02,3.44993e-02,-1.55993e-01,1.19048e-01,-8.84964e-02,5.37648e-02,1.88638e-01,-4.66731e-02,5.10286e-02,-1.86024e-01,-7.01752e-02,7.20367e-02,1.78497e-02,1.05348e-02,-4.40895e-02,3.14511e-02,-6.76672e-03,8.16455e-03,2.28525e-02,4.45169e-02,-7.40982e-02,-4.07169e-02,-8.17583e-02,-1.52485e-01,5.30896e-02,5.77495e-02,-1.87459e-01,-1.40894e-01,-1.70893e-02,1.01429e-01,-2.68080e-02,-1.07214e-01,-1.91865e-01,-9.00746e-02,1.48996e-02,1.74365e-02,1.85887e-01,7.13949e-02,1.29371e-01,9.26758e-03,1.27677e-01,1.24799e-01,3.37529e-02,-1.23498e-01,4.94191e-02,-7.71984e-02,1.33984e-02,-8.31166e-02,-1.56071e-01,2.55076e-02,1.14588e-01,-1.48559e-01,-2.16304e-02,6.84797e-02,3.48740e-03,6.52033e-02,-1.45050e-02,-1.30637e-01,5.78040e-02,9.10955e-02,-3.45198e-02,-9.80226e-02,-5.32979e-02,6.80319e-02,2.76114e-03,7.79397e-04,1.17647e-01,3.09030e-02,-1.98325e-01,4.93044e-02,2.33364e-03,1.17555e-01,1.79231e-01,-6.83606e-02,1.58212e-01,1.75939e-01,3.26984e-02,-8.81299e-02,1.55575e-02,4.42394e-02,9.95753e-02,-2.29063e-02,-8.27598e-02,-9.05390e-02,-1.05168e-02,5.75010e-02,2.08875e-03,-6.28173e-02,-1.80069e-01,1.30414e-01,4.99145e-02,1.40172e-01,-1.03226e-02,1.36266e-01,-1.94584e-02,-1.24052e-01,3.65456e-02,-7.51682e-02,9.92744e-02,5.75523e-03,5.16943e-02,1.66651e-02,-2.28024e-02,2.91642e-03,-1.91880e-01,1.43738e-01,1.17465e-01,8.11872e-02,-3.15213e-02,-2.30262e-02,9.60171e-02,-4.34252e-02,-7.78027e-02,-2.88879e-02,-5.97051e-02,-9.13201e-02,1.22769e-01,3.30253e-02,1.74476e-01,1.18954e-02,-9.07721e-02,-1.93506e-01,-1.20054e-01,-8.57915e-03,9.12249e-02,-1.31774e-01,-6.14558e-02,1.53323e-01,-5.35705e-03,-1.91117e-01,-6.03449e-02,2.86064e-02,4.13621e-02,-9.65127e-02,9.96879e-03,-7.10009e-02,-4.33854e-02,-1.00217e-02,3.01825e-02,-5.74359e-02,1.86889e-02,-1.28453e-01,3.07166e-02,-2.07337e-02,-1.78421e-01,-4.01907e-02,1.94589e-02,6.01740e-02,-5.11711e-02,6.19716e-02,7.01846e-02,-2.90424e-02,-3.26724e-02,9.32123e-02,-1.06460e-01,1.86059e-01,5.29150e-02,-1.45497e-02,-1.45369e-01,1.11643e-01,1.29802e-01,-9.84733e-02,1.63142e-01,1.75968e-01,3.58812e-03,-9.86736e-03,7.39462e-03,9.90664e-02,1.42885e-01,-3.55259e-02,-1.69246e-01,-9.07807e-02,-2.68209e-02,1.43529e-03,-1.11814e-01,1.20810e-01,-8.58928e-02,7.91032e-02,-5.31413e-02,1.07866e-01,7.57977e-02,-1.57904e-02,-7.28732e-02,3.12688e-02,2.88573e-02,1.73832e-02,-1.32833e-01,-1.25866e-01,-8.58930e-02,-8.15056e-02,5.10411e-02,2.79089e-02,-1.98595e-01,6.11829e-02,9.65704e-02,9.36003e-02,-9.94657e-02,-4.05520e-03,5.01106e-02,8.13377e-02,9.12176e-02,5.65338e-02,-3.67748e-02,-6.94499e-02,2.32023e-03,1.44564e-01,-1.14477e-01,-1.42729e-02,-7.66725e-03,3.75935e-02,-1.19387e-01,-9.12160e-02,7.84668e-02,3.58801e-02,-3.39846e-02,-5.22221e-02,5.58764e-02,1.20600e-01,9.19058e-02,-5.30461e-02,5.27527e-04,1.69653e-01,4.64841e-03,-5.42176e-02,-4.56369e-02,4.73192e-02,3.14375e-02,6.62994e-03,-3.40266e-02,2.16762e-02,-4.59499e-02,-1.51685e-01,-5.94947e-02,1.41055e-01,-7.87773e-02,-8.82052e-02,-1.24499e-01,-2.08718e-02,-1.91798e-01,8.59892e-02,5.63045e-03,7.91538e-02,1.17770e-01,-8.09760e-02,1.45336e-01,-1.17937e-02,6.76875e-03,3.81696e-02,-5.82142e-02,1.95858e-02,-8.17328e-02,5.12780e-02,9.13480e-02,-7.35770e-02,9.96325e-03,1.41365e-02,-6.38812e-02,-3.91107e-02,1.62116e-01,7.65872e-02,3.01472e-02,7.18856e-02,-1.29542e-01,4.38125e-02,2.86471e-02,3.11550e-02,-4.80124e-02,-1.26909e-01,1.14899e-02,-3.13279e-02,-1.52953e-01,-1.20737e-01,-1.28586e-01,-1.51372e-01,-6.68133e-02,1.98738e-03,1.38286e-01,1.59335e-01,3.26325e-02,-1.56339e-01,1.19429e-01,-2.15995e-02,3.54124e-02,6.70524e-02,2.47462e-02,1.00664e-01,-5.08844e-02,-6.14600e-02,-3.26579e-02,9.98229e-05,-4.01964e-02,4.67138e-02,-5.24723e-02,8.84653e-02,-7.36976e-02,1.22598e-01,4.38857e-02,6.10780e-02,8.04942e-03,-4.47817e-02,-1.90128e-02,-9.07276e-03,-8.08604e-02,7.05751e-02,-6.27234e-02,-4.84551e-02,-1.43175e-01,-3.81373e-02,-4.64309e-02,-1.07041e-01,2.45743e-02,-6.74934e-02,3.69300e-02,2.99139e-03,1.83051e-01,1.72802e-01,1.55874e-01,4.96485e-02,-1.21264e-01,-1.84428e-01,-1.65973e-01,-2.62931e-02,8.16602e-03,-6.57151e-02,3.48791e-02,1.06224e-01,1.07449e-01,-1.69617e-01,1.05775e-02,-1.11165e-01,6.54372e-02,-1.17315e-01,1.24422e-02,-1.20351e-01,-1.06318e-01,-7.39912e-03,-3.23519e-02,3.96596e-03,-5.19062e-02,1.30972e-03,-1.27209e-01,3.32846e-02,4.16739e-02,8.99654e-03,-8.53115e-02,-1.07613e-01,-1.05584e-01,3.26176e-02,-1.69279e-02,1.93854e-01,-4.60346e-02,-1.20453e-01,-7.94720e-02,6.60416e-02,3.91669e-02,6.07996e-02,-4.83981e-02,-1.10573e-03,1.03406e-02,-1.08720e-01,8.93325e-02,-7.41797e-02,-4.75766e-02,1.26540e-01,-1.33267e-02,2.64394e-02,7.51551e-02,1.28568e-01,1.48135e-01,1.58069e-01,-1.34633e-01,-7.60147e-02,2.21601e-02,-1.49732e-01,6.12198e-02,-9.06543e-02,-1.15092e-01,-3.01497e-02,3.33592e-02,1.45149e-01,4.27922e-02,-8.69254e-02,-9.36332e-02,-8.49420e-03,-5.57074e-02,1.01625e-01,8.09312e-02,5.19374e-02,1.35620e-01,3.56935e-02,-1.11435e-01,5.46454e-02,-8.41660e-02,-9.94474e-02,5.12703e-02,-2.59003e-02,9.30880e-02,1.29780e-01,-8.20837e-02,-1.16696e-01,-1.51190e-01,-1.25235e-01,-4.23137e-02,-1.69776e-01,8.44373e-02,6.33390e-02,-1.87575e-01,-1.03302e-01,-1.15235e-01,-1.25271e-01,-7.14511e-02,5.18982e-02,-6.77641e-02,-4.53103e-03,-4.20884e-02,-5.62702e-02,9.08348e-02,-1.52475e-01,-1.25711e-01,-1.42171e-01,-1.54978e-01,-1.73464e-01,1.59849e-02,-6.27985e-02,1.00142e-02,1.61248e-01,-5.03386e-02,3.84147e-02,5.98217e-03,1.14291e-01,-1.92864e-01,-5.62990e-02,-1.62650e-01,-1.23686e-02,3.18703e-02,1.04215e-02,3.40691e-02,4.07289e-02,-1.82257e-01,3.65126e-02,1.39220e-01,5.03868e-03,-4.25833e-03,1.94891e-03,4.51786e-02,5.08523e-02,5.67436e-02,1.08399e-01,5.31480e-03,-1.93127e-02,-7.58360e-02,5.39978e-02,1.22267e-02,5.06184e-03,2.82492e-02,-2.79802e-02,1.85593e-01,-1.36303e-01,1.71485e-01,1.26852e-01,-1.68692e-02,9.64274e-02,1.81604e-01,9.21905e-02,1.02206e-01,9.25498e-02,1.41876e-01,-9.62326e-03,-9.63063e-03,5.58686e-02,-2.39876e-02,-1.52359e-01,2.71016e-02,-6.50731e-02,-5.44564e-02,1.32534e-01,1.02682e-01,2.09873e-02,-9.95074e-02,1.05521e-01,4.00687e-03,-1.23608e-02,5.64497e-02,-7.51185e-03,-3.01937e-02,1.39082e-02,-1.77668e-02,-7.66036e-02,1.26645e-01,2.71865e-02,9.45916e-02,-9.96740e-03,-2.54738e-02,-7.50706e-02,1.77832e-02,-1.74192e-02,2.94973e-02,1.04086e-01,4.84106e-02,1.58351e-01,-1.08901e-01,3.48039e-03,-6.71589e-02,1.53185e-02,-1.42429e-01,1.71579e-02,-1.51578e-01,7.94518e-03,-1.77660e-01,1.53028e-03,1.09185e-02,9.93739e-02,1.40344e-01,-1.16326e-01,-4.55989e-02,-9.34914e-03,8.23703e-02,1.84447e-02,1.19436e-01,-1.06860e-01,-1.05468e-01,-1.06823e-01,-5.04023e-02,-3.67325e-02,-2.91524e-02,-7.34786e-02,-5.64533e-02,1.11138e-01,7.93027e-02,-1.01107e-01,5.77032e-02,1.55828e-01,-1.61569e-01,-4.92204e-02,3.75706e-02,-3.33060e-02,-1.66662e-02,-7.04325e-02,-9.24945e-02,-1.02031e-03,6.14170e-03,1.21951e-02,6.51554e-02,9.11295e-02,-1.19421e-01,5.90645e-02,3.80209e-02,-3.18268e-03,-1.39245e-01,8.73869e-02,-4.53008e-02,5.94383e-02,1.36289e-01,-6.51705e-02,-1.23240e-01,-5.71500e-02,-5.68414e-02,2.80370e-02,1.21082e-01,-8.56379e-02,2.61161e-02,1.11266e-01,-2.05000e-02,-1.61974e-01,-1.21020e-01,-9.20826e-03,2.58869e-02,-3.27351e-02,-1.66732e-01,1.78552e-01,3.63316e-02,2.29987e-02,-1.02465e-01,1.28477e-01,-1.55351e-02,3.01709e-02,-1.25243e-01,6.77028e-02,4.99069e-02,6.38173e-02,1.21611e-01,9.33120e-02,6.13330e-02,6.67482e-02,7.16228e-02,4.69895e-02,1.39441e-01,9.20740e-02,-1.02166e-01,2.85903e-02,1.01152e-01,3.36713e-02,-2.70144e-02,-1.13854e-01,1.61766e-01,1.02228e-02,8.97125e-02,-2.23379e-02,-8.88272e-03,-4.18872e-02,4.26670e-02,2.68569e-02,1.11567e-01,1.46516e-01,-1.95761e-02,8.97419e-02,-2.51435e-03,-9.89319e-02,5.90817e-02,-1.40310e-01,-3.93648e-02,6.88710e-02,3.66781e-02,1.32791e-01,3.36119e-02,1.34902e-01,4.63120e-02,8.21101e-02,-3.74721e-02,6.50561e-02,-5.10300e-02,-1.06140e-01,-1.03396e-01,7.38633e-02,7.88407e-02,1.51895e-01,-7.99395e-02,-5.92429e-03,3.79343e-02,-1.66611e-01,-1.44432e-01,1.27080e-01,4.87326e-02,-4.13460e-02,-8.16505e-02,-1.07826e-01,4.50559e-02,-1.15695e-01,5.99259e-02,2.19816e-02,-8.00085e-02,-1.69877e-01,4.67499e-02,-1.23108e-01,6.94862e-02,-1.64437e-01,1.10576e-01,-1.81609e-01,2.75972e-02,-1.96162e-01,7.45826e-03,1.01593e-02,1.84993e-01,2.05088e-02,2.92256e-02,7.11329e-02,-1.36463e-01,-2.29730e-02,8.90770e-02,1.57152e-01,-4.04482e-02,1.59215e-02,-5.85675e-02,-3.59090e-02,-4.89638e-02,-1.06878e-01,1.22457e-01,-7.48583e-02,6.70716e-02,-6.08133e-02,1.30350e-02,1.03368e-02,1.08980e-01,-1.89154e-01,3.72270e-02,-9.46746e-02,1.35130e-01,4.40520e-02,-1.13286e-01,3.62973e-02,-1.33127e-02,-7.29337e-02,1.26007e-01,-1.28742e-01,9.01030e-02,1.99796e-01,-7.03405e-02,-8.79092e-02,-1.08571e-01,-1.56901e-03,-1.13415e-01,8.90327e-02,7.73073e-02,-1.17879e-01,-1.63988e-01,-1.11437e-01,-6.72996e-02,-4.76638e-02,2.15279e-02,1.15297e-01,-7.35709e-02,-2.11184e-02,5.73173e-02,6.39925e-02,1.37266e-01,3.17933e-02,9.64410e-02,-7.64276e-02,-6.06077e-02,1.82814e-01,5.07725e-02,7.36061e-02,-5.74115e-02,4.23614e-02,3.71701e-03,6.65175e-02,1.58909e-01,-1.28946e-01,-1.43701e-02,-4.95881e-02,5.67390e-02,8.45797e-03,-2.27904e-02,1.44007e-01,-1.06278e-01,3.77390e-02,-1.55704e-01,-2.59187e-02,7.42247e-02,-9.24972e-02,-1.08080e-01,-1.84405e-01,2.40511e-02,4.10053e-03,3.98355e-02,1.33313e-01,-6.54730e-02,1.54587e-02,-4.62570e-02,9.21247e-02,4.89952e-02,-9.06970e-03,-7.52023e-02,-3.68438e-02,-6.74917e-02,1.97993e-01,6.72116e-02,1.37189e-01,-4.38494e-02,9.42615e-02,-1.10521e-01,3.37076e-02,6.56728e-02,3.26631e-03,-1.06580e-01,-1.31714e-01,-7.59476e-02,-7.94203e-02,-3.54169e-02,-1.71895e-02,-4.95749e-02,-5.35672e-02,-2.96464e-03,-2.84143e-02,-1.70740e-01,-4.45892e-02,-4.94760e-02,-1.16004e-02,1.95057e-02,2.53130e-02,1.58148e-01,1.57601e-01,5.96627e-02,4.01715e-02,8.92805e-02,-7.89858e-02,6.86414e-02,4.49173e-02,1.47253e-02,2.29345e-02,7.60946e-03,6.23245e-02,2.25121e-02,9.10281e-03,-1.93853e-01,8.03321e-03,-1.19858e-01,1.56633e-01,1.41345e-01,-1.20596e-01,-1.68382e-02,-1.47481e-01,-6.09206e-02,9.21372e-02,4.58371e-03,-1.19740e-01,-8.01676e-02,-7.49614e-03,-4.71654e-03,7.77745e-02,1.31609e-01,1.11471e-01,1.01960e-01,-1.03034e-02,-2.89857e-02,1.42212e-01,-1.12544e-01,6.18502e-02,1.30572e-01,1.04784e-01,1.13193e-01,-7.74122e-02,1.96385e-01,8.39584e-02,1.72664e-02,-2.03016e-02,-8.92080e-02,-1.77074e-02,-4.38755e-02,1.10639e-02,1.30964e-01,4.32963e-02,6.34061e-02,-6.33138e-02,9.32492e-02,7.55707e-02,1.44857e-01,-1.25383e-01,2.12892e-02,-1.18651e-02,-3.60671e-02,-9.60393e-02,-1.53670e-01,1.86120e-01,-9.88257e-04,5.18991e-02,5.69409e-03,-2.51233e-02,-6.80993e-02,1.09981e-01,9.74779e-02,1.96166e-01,5.33214e-02,5.34720e-03,-1.27203e-01,-1.41799e-02,-1.07714e-02,1.43864e-01,-9.91406e-02,7.05885e-02,-8.21863e-02,4.10379e-02,4.77606e-02,2.05984e-02,9.28753e-02,-1.01905e-01,3.81682e-02,1.42551e-01,8.15194e-02,-1.96726e-01,1.08874e-01,1.55527e-01,1.51250e-01,4.57517e-02,-2.46563e-02,8.25967e-03,9.02389e-02,2.03985e-02,7.48772e-02,-4.65946e-02,1.83353e-02,-5.27456e-02,-1.90951e-01,1.73146e-01,-2.55956e-02,-8.19083e-02,-7.25577e-02,2.23058e-03,3.76278e-02,-1.97624e-01,-9.94036e-02,-1.51299e-02,-1.34633e-01,-4.07895e-02,8.81244e-02,-8.31554e-02,1.35874e-02,-6.48963e-02,-9.87058e-02,4.79994e-04,-6.54915e-02,-1.15717e-01,8.40083e-02,-3.21047e-02,-9.72449e-03,-5.65299e-02,7.58014e-02,-6.77532e-02,-4.58546e-03,-4.18713e-02,-1.28401e-01,3.20423e-03,1.37349e-01,2.06428e-02,-9.39301e-02,-4.17054e-03,-2.03692e-02,-1.19922e-01,1.04387e-02,8.97997e-02,-8.36479e-03,6.80773e-02,9.61687e-03,-4.95852e-03,-3.20473e-02,1.16246e-01,-5.87011e-02,-3.95856e-02,1.09274e-01,-1.69962e-01,1.29985e-01,-5.78044e-02,-6.00252e-02,-4.10806e-02,-7.22722e-02,-7.20902e-02,-5.43516e-02,-1.59627e-02,2.94952e-03,-7.38101e-02,-1.71533e-02,3.28492e-02,-9.23995e-02,6.21449e-02,1.14355e-02,-1.06833e-01,-2.26628e-03,-3.32999e-02,5.97288e-02,-1.44668e-01,-5.46399e-02,-7.12377e-03,7.56923e-02,1.50141e-01,-1.21753e-02,-1.35322e-01,-1.09784e-01,1.17465e-02,5.21998e-03,3.57757e-02,6.46670e-02,-8.15052e-02,6.05382e-02,1.63174e-01,5.52813e-02,1.19317e-01,-2.00411e-02,-1.22775e-02,-7.40465e-03,-1.19777e-01,3.26305e-02,-1.95494e-01,5.18276e-02,-1.39931e-01,1.34329e-01,5.03926e-03,1.23190e-01,1.98856e-02,1.44790e-01,6.37185e-02,-2.77746e-02,1.05159e-02,8.42811e-02,1.04688e-01,-4.09322e-02,1.58024e-01,-5.02649e-03,1.29260e-02,1.45785e-01,2.34525e-03,-1.07620e-01,-2.28377e-02,1.82490e-02,6.58997e-03,-3.25549e-02,2.38111e-02,-5.20305e-02,1.57209e-02,-4.77118e-02,8.35529e-03,1.16769e-01,1.20630e-01,1.45537e-01,7.63578e-02,1.37538e-02,-1.61845e-01,7.04360e-02,-6.25749e-02,5.45407e-02,9.29384e-02,-8.80464e-02,-9.55434e-02,-6.69326e-02,-2.61187e-02,-1.16439e-01,9.84343e-03,4.14531e-02,9.97174e-02,1.51202e-01,-1.44171e-01,-1.11570e-01,3.29884e-02,9.64192e-02,7.41075e-02,3.00088e-02,1.03808e-01,-1.25567e-01,1.07722e-01,-3.70209e-02,-1.35210e-01,-1.39925e-01,-7.23174e-02,4.20912e-02,5.76892e-02,-1.20555e-01,9.76523e-02,-1.19515e-01,-1.26854e-02,-1.56977e-01,1.02760e-01,2.88182e-02,5.89206e-02,1.61977e-02,-8.53233e-02,-1.63636e-03,8.45546e-02,6.90930e-02,-8.70862e-02,4.42592e-02,1.99764e-01,4.93123e-03,1.27095e-02,-9.15387e-02,-5.47882e-02,-9.90575e-02,5.02665e-02,-2.90769e-02,1.70430e-01,3.99587e-02,1.93992e-01,3.67905e-02,5.27422e-02,-5.85689e-02,-6.15398e-03,6.39789e-05,4.84289e-02,-2.03807e-03,-8.46551e-02,1.02230e-01,3.09085e-02,1.00042e-01,-3.87305e-02,1.32148e-01,-1.89447e-02,1.61682e-01,1.30524e-01,3.87800e-02,4.57894e-02,1.95940e-01,-6.73983e-02,-1.56713e-02,3.53760e-02,-1.30608e-02,9.82982e-03,-1.72228e-01,7.05784e-02,9.00953e-02,1.53737e-01,-5.46531e-02,6.12795e-02,8.70553e-02,-8.63058e-02,9.00698e-02,2.39580e-02,-7.32943e-02,-9.65126e-03,-3.19920e-02,6.67641e-02,-7.99365e-02,2.44629e-03,-3.12501e-02,-1.33195e-01,4.06595e-02,-7.24175e-02,5.58449e-02,2.70440e-02,4.29683e-02,-5.60408e-02,1.33586e-01,1.75409e-01,-4.98386e-02,-1.67627e-01,-7.69072e-02,1.70532e-02,-1.63567e-01,-4.72255e-02,-1.72776e-01,-6.72832e-02,-4.08833e-02,-6.67657e-02,8.55663e-03,8.33383e-02,-6.28428e-02,-1.65695e-01,-8.88198e-02,1.67378e-02,2.14608e-02,-6.21146e-02,-1.07917e-01,9.21248e-02,8.56103e-02,2.58091e-02,-1.20470e-01,-1.78096e-01,1.44573e-01,-3.09146e-03,6.72613e-03,-7.93020e-02,1.35397e-01,-9.93531e-02,-8.08674e-02,-3.44924e-02,1.35184e-01,-1.42184e-02,-1.06409e-01,1.98792e-02,-4.89214e-02,-9.15958e-03,1.32676e-01,2.23950e-02,4.19547e-02,9.75586e-02,-1.98203e-02,6.44500e-02,1.67441e-01,-4.09582e-02,5.31791e-02,-9.54329e-02,1.55101e-01,-1.05456e-01,-1.04168e-01,-1.19896e-01,7.81543e-02,-6.16097e-02,1.45196e-01,7.74526e-02,-1.52825e-02,-1.09722e-01,-1.94435e-01,1.03493e-01,1.49945e-01,-1.09774e-02,7.80178e-02,6.16745e-03,-4.50000e-02,2.75483e-02,-1.23332e-01,4.31413e-02,-9.00672e-03,1.19581e-01,-1.55667e-01,-3.30333e-02,-7.92295e-02,3.93063e-02,1.84741e-01,2.27972e-02,1.57572e-01,-5.74382e-02,-5.13476e-02,6.60780e-02,-1.56166e-02,-9.61679e-02,-1.10274e-02,7.14161e-02,-7.72638e-02,2.87068e-02,-1.12821e-02,9.80063e-02,-1.23657e-01,-1.08959e-01,1.17605e-02,4.07112e-03,-1.34070e-01,-9.68858e-03,1.04949e-01,-5.53665e-02,-3.68055e-02,1.64703e-01,-3.81468e-02,-2.80046e-02,1.07478e-01,1.18166e-02,-5.33021e-02,-4.88240e-02,-9.93602e-02,4.60179e-02,-1.98068e-02,1.46945e-01,1.71570e-01,-1.94791e-02,3.24682e-03,-5.85769e-02,9.82267e-02,3.88719e-02,7.19324e-03,5.08140e-02,-2.21323e-02,-6.86494e-03,-9.04391e-02,-2.28040e-02,-8.86466e-02,-6.22517e-02,9.75415e-02,5.39625e-02,-1.23751e-02,5.75457e-04,-6.52722e-02,-2.56225e-02,-8.73211e-02,-1.00421e-01,-5.34060e-02,9.76849e-02,-1.12571e-01,-1.26646e-01,2.08801e-02,-3.70510e-02,-5.37923e-02,-2.38631e-02,-1.37157e-01,5.72589e-02,-8.45276e-02,1.26888e-01,-1.17588e-01,-7.31607e-02,4.57798e-02,3.32994e-02,-5.09829e-02,2.86931e-02,-1.52630e-01,7.03188e-02,-2.10897e-02,5.46147e-02,1.07119e-01,9.40865e-02,-8.39144e-02,-1.14570e-01,-1.07955e-01,-3.81552e-02,1.75450e-01,1.44975e-01,9.23092e-02,-1.02910e-01,-7.27506e-02,1.11124e-01,3.51385e-03,8.45634e-02,-1.73362e-01,4.47383e-02,1.46438e-01,-1.27709e-01,-1.11311e-01,-8.79710e-02,5.51449e-02,2.90659e-03,-1.38220e-01,-1.32628e-01,
-8.28297e-02,-3.87872e-02,-2.24548e-02,-1.15619e-02,-1.48440e-01,2.46913e-02,3.89706e-02,8.14432e-02,-5.18566e-02,5.23048e-02,-2.12310e-02,-7.30257e-02,1.26049e-02,-1.01377e-01,6.41468e-02,-1.27371e-02,-1.25629e-01,-4.85154e-03,-9.19044e-02,-4.88039e-02,8.07495e-02,-1.89694e-03,1.22903e-01,5.51430e-02,-8.21853e-02,3.43850e-02,1.96788e-01,-2.93978e-02,1.93400e-02,1.00224e-01,3.63402e-02,1.82403e-01,-1.73912e-01,1.73234e-01,2.88424e-02,-4.25612e-02,-1.11196e-01,-5.44446e-02,-1.31107e-01,2.64575e-02,4.54372e-02,-3.29824e-02,-1.59445e-02,-3.11333e-02,-1.44955e-01,7.40818e-02,-1.11584e-02,3.59832e-03,-1.20615e-01,-7.45912e-02,-1.20004e-02,2.17612e-02,1.10520e-01,-2.09063e-02,-9.33335e-02,4.03453e-02,-1.63821e-01,-3.21748e-02,-1.09411e-01,-5.60139e-02,-9.94954e-02,8.70289e-03,4.66663e-03,-2.78562e-02,1.87204e-01,1.86611e-01,1.86717e-03,6.03891e-02,-8.78629e-02,-1.26603e-01,8.63721e-02,-8.09305e-02,6.64012e-02,-6.81799e-02,2.18618e-02,9.86830e-02,-1.52693e-01,-4.68972e-02,1.37010e-01,1.26146e-01,1.26759e-02,1.44659e-01,1.34593e-01,-8.29680e-02,-9.47989e-02,-1.48161e-01,3.87976e-02,7.90883e-02,3.40297e-02,4.16233e-02,2.65002e-02,-6.79960e-02,1.45111e-01,-4.71548e-02,-6.61892e-02,2.98061e-02,4.97840e-02,-1.16008e-01,-3.84661e-03,1.04823e-04,-2.35276e-02,-5.51254e-02,9.60707e-02,9.96839e-03,1.27023e-02,-1.13278e-01,9.03782e-03,1.29775e-01,9.30340e-02,2.49814e-02,-5.90093e-02,5.28651e-02,1.18091e-01,-3.73486e-02,-1.26764e-01,5.75844e-02,-4.17897e-02,1.05521e-01,1.95012e-02,-1.47981e-01,3.60971e-02,-5.66882e-02,1.18272e-03,3.71532e-02,5.55001e-02,-8.75096e-03,-1.69702e-01,-1.09472e-01,1.04133e-01,-2.69291e-02,-1.99918e-02,9.08165e-02,-1.35345e-01,1.16180e-01,1.71185e-02,2.09208e-02,1.66195e-01,-2.95335e-02,-1.29434e-01,3.23978e-02,7.25488e-02,1.27437e-01,-8.37970e-03,1.57986e-02,5.48474e-02,-3.49034e-02,-8.17779e-02,-2.68428e-02,-1.02740e-01,-8.11451e-02,4.15334e-02,-3.55288e-02,-3.96537e-02,4.10727e-02,7.98134e-03,-1.76969e-01,-9.83961e-02,-1.57151e-02,-5.12265e-02,-8.87548e-03,-1.03527e-01,-1.29071e-01,1.17386e-02,1.43693e-01,-4.64088e-02,-2.73296e-02,-1.78183e-01,-7.34070e-02,-5.53879e-02,-6.71700e-02,4.78542e-02,-1.12003e-01,-6.17608e-02,1.50183e-01,-9.63730e-02,-2.16104e-02,4.26143e-02,-1.95064e-01,-1.27236e-01,-7.09109e-02,9.93151e-02,6.73485e-02,5.22772e-02,-6.49720e-02,1.93119e-01,1.20427e-01,-7.98319e-02,8.72298e-02,4.73656e-02,-1.71536e-02,1.16442e-01,-7.08384e-02,-3.22978e-03,-6.20330e-02,9.63550e-02,-1.01105e-01,1.29966e-02,1.82459e-01,1.62621e-01,-3.75579e-02,1.42304e-02,-9.53230e-03,2.50010e-03,4.02484e-02,3.22668e-02,3.00736e-03,1.55084e-01,-5.63622e-02,-1.95519e-01,-1.39870e-01,8.37635e-02,-5.56770e-02,7.01031e-02,-1.48740e-01,-6.80382e-02,3.45003e-02,3.96521e-02,-4.28035e-02,-1.89437e-01,-9.72216e-02,1.67475e-02,-5.32274e-02,-2.22401e-02,-1.22184e-02,-1.17132e-01,1.83230e-02,6.83119e-03,1.69888e-01,-3.02008e-02,-5.64146e-02,-5.15570e-02,-6.71027e-02,-1.92152e-01,2.90636e-02,5.47180e-03,3.50570e-02,2.40633e-02,-3.49726e-02,7.54961e-03,-2.90168e-02,1.85186e-02,-7.64846e-02,-9.25855e-02,4.46247e-02,8.52389e-02,1.53752e-01,5.53214e-02,-1.01481e-01,-5.02001e-02,1.72555e-02,1.47845e-01,3.25221e-02,7.17148e-02,9.58871e-02,4.05133e-02,-6.79646e-02,5.61310e-02,-7.06623e-02,1.08441e-01,-1.01989e-01,-9.70569e-02,-7.69379e-02,-1.11059e-01,4.02681e-02,-6.15634e-02,9.94511e-02,1.25489e-02,1.02809e-01,1.91742e-01,9.69231e-02,6.91488e-02,9.21969e-02,-1.86477e-01,-4.47548e-02,-6.13023e-02,1.12412e-01,1.68373e-02,4.76578e-02,-9.99452e-02,-1.44507e-03,1.25090e-01,-7.44951e-02,1.42398e-01,-7.63431e-02,1.37584e-01,-4.56009e-02,-2.56723e-02,2.74207e-02,-2.50828e-02,-6.05150e-02,-5.58242e-02,-3.45385e-03,-2.41013e-02,1.93103e-03,2.10904e-02,8.55052e-02,-2.75379e-02,-1.50077e-01,-1.05535e-01,1.08617e-02,1.38282e-01,-3.51643e-02,5.05821e-02,8.08808e-02,-1.59305e-01,2.55844e-02,-8.41246e-02,-7.68431e-02,-8.99348e-02,1.09896e-02,-1.43028e-01,-1.07088e-01,1.86780e-02,2.49927e-02,-1.72709e-01,9.39422e-02,1.11353e-01,1.21560e-01,9.17482e-02,9.13250e-02,-6.42296e-02,3.23762e-02,5.64117e-02,9.22652e-02,1.19018e-01,1.05692e-01,-5.84614e-02,1.20213e-01,7.14256e-02,-2.62677e-02,8.64252e-02,5.41379e-02,-1.42549e-01,-1.11561e-01,-6.27995e-03,-4.37158e-02,2.83005e-02,2.66453e-02,9.39869e-02,-6.45651e-02,2.60312e-02,1.22454e-02,-1.16688e-01,-8.13552e-03,-1.01402e-01,-5.04821e-02,3.26036e-02,2.91516e-02,3.12458e-02,1.37975e-02,-1.00937e-01,-1.33071e-01,1.51551e-01,-6.39589e-03,1.58448e-01,1.84487e-02,-4.16659e-02,3.56258e-02,8.62255e-02,1.97751e-02,6.63066e-02,3.10448e-02,3.23164e-02,-1.47604e-01,3.40438e-02,-3.11394e-02,-7.61191e-02,-1.27871e-01,4.32514e-02,-1.50275e-02,6.64440e-02,3.63174e-02,-1.19869e-01,6.71501e-02,-4.23510e-02,-7.66397e-03,4.16528e-02,9.11305e-02,-1.27687e-02,7.69957e-03,2.71363e-02,1.47505e-01,-1.12563e-01,1.30087e-01,-3.10833e-02,-2.75128e-02,1.71251e-01,-2.42568e-03,1.73731e-01,-8.56960e-02,-1.26494e-01,-1.98519e-01,4.61409e-02,-5.38006e-02,-7.37943e-02,1.41703e-01,3.99756e-02,7.18033e-02,-7.03264e-02,-4.50153e-02,1.42491e-01,9.33225e-03,1.11806e-02,-1.90906e-01,-1.69679e-01,7.61212e-02,-3.81747e-02,-8.35325e-02,1.03872e-02,1.82465e-01,-9.27306e-02,9.77705e-02,-3.14529e-02,-4.21582e-03,1.11961e-02,-6.13861e-02,-7.38763e-02,-5.63525e-02,2.63758e-02,4.53337e-02,-4.11803e-02,1.42776e-01,6.63510e-03,1.67380e-03,1.08454e-01,9.85923e-02,9.37725e-03,5.01126e-02,-3.61762e-02,1.58021e-01,-1.62278e-01,6.23531e-02,-8.51717e-02,4.69743e-02,-5.67275e-02,1.63745e-01,4.76501e-02,1.76894e-02,-5.49908e-02,-1.21521e-01,-1.29881e-01,9.83258e-03,3.01489e-02,1.06010e-01,5.80009e-02,6.87407e-02,-1.20176e-03,-1.14411e-01,-1.32008e-01,-1.12635e-01,-3.31542e-02,-2.94640e-02,-6.02545e-02,1.76338e-01,8.55424e-03,1.58585e-01,-1.68165e-01,-6.85741e-02,-1.07223e-01,1.79380e-01,7.61813e-03,-1.41562e-01,8.54361e-02,6.21319e-02,5.79140e-02,8.15941e-02,-1.09137e-01,-5.87274e-02,9.13423e-02,4.51044e-02,1.59927e-01,1.73651e-01,-1.77718e-01,2.96627e-02,4.25344e-02,3.41156e-02,1.67672e-01,-1.42004e-01,4.29090e-02,-1.06193e-01,-1.17173e-01,1.24414e-01,8.15506e-02,-6.54685e-02,1.72844e-01,2.75396e-02,-6.11479e-02,2.39264e-02,-1.46382e-01,1.97638e-01,1.06009e-01,-1.19201e-02,4.22388e-02,-2.75602e-02,-4.87244e-02,-2.82032e-02,-4.46455e-02,-3.97544e-03,1.21625e-01,-1.17069e-01,-5.43684e-02,1.52402e-01,-1.17817e-02,-1.54526e-02,9.23744e-03,1.63867e-01,-1.16511e-01,-1.38842e-02,9.47772e-02,-4.73479e-02,5.14260e-02,-1.28339e-01,6.77250e-02,-1.34688e-01,1.07289e-01,1.42524e-02,6.42168e-02,-3.51730e-02,1.71932e-02,-3.68401e-02,-1.07491e-01,-1.64568e-01,-1.22988e-01,-2.58841e-02,1.68151e-02,2.48601e-02,-5.86570e-02,-5.80919e-02,1.48134e-01,1.14567e-03,-4.32399e-02,4.29910e-02,-4.50520e-02,-4.32515e-02,-6.45314e-02,-1.14142e-01,-7.40775e-02,8.69535e-02,-1.52711e-02,-9.64712e-02,6.61525e-02,8.50762e-02,8.53183e-02,6.40445e-02,-3.23239e-03,-1.21895e-01,-1.30467e-01,-5.30522e-03,-1.62871e-01,8.75690e-02,2.43611e-02,-6.60965e-03,4.84558e-02,-4.43914e-02,1.86422e-01,-1.55647e-01,2.83885e-02,1.19944e-01,1.95736e-01,-1.98275e-01,4.84854e-02,1.30163e-01,8.37472e-02,1.84253e-02,-1.79767e-01,6.29978e-02,-6.54067e-02,-5.74064e-02,-1.02022e-01,-1.23273e-01,1.03848e-01,4.72678e-02,1.26675e-01,3.58219e-02,7.84815e-02,-1.78890e-02,3.74944e-02,-4.22735e-02,2.99399e-02,-7.35888e-02,7.55589e-02,6.24897e-02,3.50691e-02,-2.20284e-02,-6.31474e-02,-1.96219e-02,-1.90850e-01,1.26179e-02,5.28220e-02,8.09597e-02,9.50967e-02,1.17813e-01,-6.32825e-02,1.28190e-01,2.97672e-02,5.17077e-02,8.71442e-03,-1.05020e-01,-1.07839e-01,5.13263e-02,-2.62987e-03,6.81100e-03,1.63639e-01,-7.53824e-02,-7.36824e-02,1.54001e-01,5.08768e-03,1.59869e-01,-3.37880e-02,9.38484e-02,4.92218e-02,1.28308e-01,7.38567e-02,-5.37332e-02,5.96613e-02,8.53262e-02,-7.14089e-02,7.25470e-02,-1.08846e-01,-8.89285e-04,-5.09197e-03,1.31433e-01,3.20811e-02,3.80159e-02,-5.71577e-02,6.47093e-03,-5.72485e-02,3.25400e-02,8.48861e-02,7.48216e-02,6.34933e-02,-3.79870e-02,-3.95967e-02,-1.56867e-01,1.84267e-02,-2.79968e-03,4.95348e-02,-1.63611e-01,4.57677e-02,4.58053e-02,7.30664e-02,-1.29004e-01,5.27722e-02,-1.10966e-02,7.74410e-02,-7.50820e-02,6.38147e-02,1.48525e-01,-5.83216e-02,-4.74301e-02,-4.01969e-02,-1.17312e-01,-1.53361e-01,-1.19742e-01,6.56242e-02,9.92629e-02,1.56853e-01,-1.78818e-02,5.72223e-02,7.48534e-02,-1.15665e-01,-9.24938e-02,6.58029e-02,9.08016e-03,-1.04306e-01,1.35495e-02,2.06805e-02,1.91213e-02,2.18045e-02,1.86978e-01,-8.49834e-03,-3.50593e-02,1.36884e-01,3.48440e-02,8.10417e-02,-1.00248e-01,4.47349e-02,3.31066e-02,-1.08959e-01,-1.59024e-01,-1.18689e-01,6.56936e-02,-1.14552e-01,3.64287e-02,-1.29704e-01,6.99821e-02,-1.00476e-02,6.15851e-02,-9.35816e-02,-1.95806e-01,-1.67093e-02,-1.79554e-01,-5.17516e-02,-5.01116e-02,6.82699e-02,-6.28693e-02,-9.89569e-02,4.72518e-02,-7.47008e-02,6.88324e-02,1.14951e-01,9.88214e-02,-1.08511e-01,6.34412e-02,-4.08960e-02,-1.89753e-01,1.96313e-02,5.79843e-02,3.89965e-02,4.20126e-02,5.79748e-02,-1.92544e-01,5.46835e-02,-9.61642e-03,-1.05548e-01,2.35409e-02,-1.01532e-01,8.15003e-02,-2.62213e-02,7.10403e-02,2.96274e-02,-3.12435e-02,-8.41674e-02,7.10444e-02,-5.69677e-02,-1.25837e-02,1.24026e-01,1.48912e-02,1.66393e-01,-4.99725e-02,-5.37860e-02,-2.15187e-02,-8.68107e-03,9.17651e-02,-6.79104e-02,-4.97707e-02,2.96060e-02,-4.74732e-02,-5.03265e-02,-3.82953e-02,6.01217e-02,-5.83677e-02,-1.28149e-01,-1.27205e-01,-9.01121e-02,6.73123e-02,8.34699e-02,-6.83629e-02,2.44144e-02,1.87324e-02,1.32041e-01,-4.05183e-02,8.29287e-02,-3.26052e-02,-6.38376e-03,-2.38298e-02,-1.07873e-01,6.51258e-02,6.09734e-03,2.54777e-02,-3.49203e-02,1.10974e-01,4.87693e-02,-1.31894e-01,1.29224e-02,9.78504e-02,-1.75420e-01,-9.53663e-02,8.88398e-02,1.95563e-01,1.69752e-01,1.16713e-01,5.91023e-02,8.07638e-03,-4.39067e-02,1.34226e-01,-8.73912e-02,7.37561e-02,4.57282e-02,-7.05107e-02,-6.33633e-02,-6.40717e-02,-9.44573e-02,-3.00169e-02,7.38761e-02,3.31015e-03,4.93607e-03,-9.12987e-02,7.05562e-04,4.20369e-02,-2.09011e-02,1.12946e-02,1.22486e-01,1.47547e-01,3.46801e-03,-2.42301e-02,1.12256e-01,-4.79944e-03,1.32339e-01,4.50349e-02,-7.40935e-02,-3.87034e-02,1.02852e-02,-1.06167e-01,-1.34238e-01,2.13603e-02,-6.92278e-02,-4.35234e-02,-9.76246e-02,3.93915e-02,3.60402e-02,6.29187e-02,-6.28138e-02,-2.77524e-03,1.15206e-01,-8.78973e-02,-5.83286e-02,3.66225e-03,1.48478e-02,6.40132e-02,5.49875e-03,-1.53195e-01,-1.21615e-01,-1.44958e-01,1.73910e-01,-2.43896e-02,1.27480e-01,-1.09215e-01,1.08686e-01,-2.35980e-02,-9.33700e-02,-1.65806e-01,-5.72350e-05,5.33871e-02,-4.24356e-02,3.50365e-02,5.62346e-03,1.75473e-01,1.63733e-01,1.18201e-01,1.55594e-02,8.27620e-02,-1.40546e-01,8.91533e-02,-8.24146e-03,-1.58802e-01,-7.61389e-02,9.31113e-02,1.60361e-01,-3.37771e-02,1.71440e-02,-9.87533e-02,-7.75635e-02,5.59516e-02,8.24696e-02,-3.47524e-02,-7.41448e-02,-7.60764e-02,1.15140e-01,-1.31983e-01,7.45919e-02,6.99858e-02,-1.37807e-01,7.36169e-02,1.48356e-01,-5.36641e-02,7.67037e-02,1.27734e-01,1.39267e-01,-2.65440e-02,-1.41278e-02,1.11408e-01,-3.09675e-02,-1.94290e-01,1.53956e-02,3.92924e-02,1.93658e-02,9.81527e-02,-7.61360e-02,-1.09181e-01,-4.57462e-02,2.76427e-02,7.60254e-02,-4.14502e-02,3.36843e-02,9.62291e-02,-2.69791e-03,-2.01423e-02,-9.13321e-02,-1.72396e-01,4.93888e-02,9.77654e-02,4.54866e-02,1.55736e-01,2.71426e-02,3.02396e-02,-1.83134e-02,-1.14933e-02,-5.59433e-03,-1.14978e-01,-2.23232e-02,4.09863e-02,-7.56266e-02,-5.42950e-02,1.90204e-01,1.69735e-02,-1.09343e-01,-9.93122e-02,-8.75807e-02,8.71366e-02,1.23202e-01,3.34101e-02,-1.37571e-01,-1.44831e-01,2.01449e-02,-1.35472e-01,1.30950e-03,1.54819e-01,4.76072e-02,-8.97440e-02,-2.21645e-02,-6.72547e-03,1.50932e-01,8.11638e-02,1.18602e-02,-8.49205e-02,-1.19540e-01,-2.04504e-02,-1.12470e-01,5.74592e-02,1.24423e-01,-3.92624e-02,1.38435e-01,-7.56248e-02,-1.49506e-01,-7.10641e-02,1.12446e-01,-8.50220e-02,1.16643e-01,-1.63005e-01,9.34232e-02,-1.97107e-01,1.76461e-02,1.76162e-01,-1.60758e-01,-1.26197e-01,1.87316e-02,5.70116e-02,1.45539e-01,1.57290e-01,-1.15530e-01,2.90360e-02,2.13618e-04,-3.19634e-02,1.06471e-01,1.40616e-01,-3.72234e-02,6.45585e-02,3.65894e-02,-4.54055e-02,-7.49394e-02,4.25941e-02,3.70113e-02,2.48438e-02,-4.63841e-02,-2.86547e-02,1.23570e-02,-1.60483e-01,3.08346e-02,-8.51598e-02,2.49312e-02,2.70922e-02,-9.09216e-02,-9.20423e-02,7.55337e-02,1.24368e-02,-1.46170e-01,3.28603e-02,8.23935e-02,-2.58423e-02,5.53455e-02,-1.01851e-02,-1.69230e-01,4.61504e-02,1.06532e-02,-5.44974e-02,5.24577e-02,1.11271e-01,6.65892e-02,-3.01555e-03,-2.44146e-02,-3.50413e-02,-2.77773e-02,-2.50207e-02,-1.04668e-01,7.37494e-02,-6.51104e-02,9.50120e-02,2.78909e-02,1.29699e-01,1.21999e-01,1.09497e-01,1.06928e-01,1.29078e-01,-9.78595e-02,-1.28020e-01,1.95055e-01,7.52727e-03,6.70488e-02,-1.60835e-02,-1.40679e-02,-1.65113e-01,3.20451e-02,-4.18276e-03,-7.15130e-02,1.15781e-02,5.61414e-02,-1.08644e-01,-1.07993e-01,1.20593e-01,1.74463e-01,9.17461e-02,1.49057e-01,4.80697e-02,-8.29813e-02,-5.74955e-02,3.22227e-02,5.74193e-02,1.00580e-01,-1.60966e-01,6.66875e-02,1.21405e-01,2.50475e-02,8.68420e-02,1.31830e-01,-1.00122e-01,1.64966e-01,-1.05668e-01,-4.07841e-02,-9.16271e-02,1.42750e-01,6.19985e-02,-2.13218e-02,8.04564e-03,-4.74006e-03,-9.67126e-04,-9.45115e-02,5.49576e-02,-8.55270e-03,-5.48705e-02,5.19039e-02,-1.99668e-02,-7.48290e-02,-1.62894e-01,-1.37350e-01,-1.37682e-01,-4.90143e-02,-5.88924e-02,-7.35780e-02,-1.51574e-01,-7.03459e-02,-5.74824e-02,1.06685e-02,1.33839e-01,1.64860e-01,-6.04530e-02,-6.67722e-03,-1.99334e-01,1.44623e-01,4.89057e-02,1.69342e-01,-1.58627e-01,-6.51923e-02,-3.32108e-02,-3.85820e-02,1.22693e-02,1.14309e-02,8.74897e-02,-9.58042e-02,6.67360e-02,-8.49274e-02,-1.07121e-01,-2.46478e-02,1.41951e-02,-1.69130e-01,-6.47336e-02,-8.23658e-02,7.12657e-02,1.23096e-01,1.10930e-01,8.26948e-02,1.39081e-01,2.17840e-02,-1.28615e-01,1.39211e-01,3.96497e-02,-4.29525e-02,-1.55521e-01,-1.17108e-01,-5.04788e-02,2.79270e-04,-8.38653e-02,4.37517e-02,-2.38378e-02,4.90921e-02,-6.98003e-02,-1.21744e-01,-1.57284e-01,-2.53116e-02,-3.25250e-02,-9.54080e-02,8.15698e-03,-1.35957e-01,1.09681e-01,-1.30211e-01,7.07343e-02,-1.63835e-01,6.52282e-02,-1.85367e-02,6.60720e-02,-5.14547e-02,2.81751e-02,-6.66077e-02,5.02063e-03,-2.35175e-02,-8.52711e-02,9.49458e-02,8.11493e-03,-1.83877e-01,1.12650e-02,-1.47382e-03,-4.53989e-02,1.10904e-02,-1.76076e-02,-1.62157e-02,1.74042e-01,3.70823e-02,1.58588e-01,1.06943e-01,-1.93479e-01,6.34993e-02,1.75503e-01,-2.65086e-02,6.42419e-02,1.37349e-02,-3.04254e-02,9.53560e-02,-4.03568e-02,-1.10261e-01,2.47034e-02,-1.85855e-01,6.24577e-02,1.33016e-01,-5.70212e-02,1.81316e-01,-1.90053e-02,-3.31918e-02,5.71392e-02,-8.30051e-02,9.58113e-02,1.76947e-01,3.96799e-02,1.60806e-03,-1.17065e-01,-2.12714e-02,-5.95812e-02,1.29406e-02,2.80165e-02,7.71433e-03,2.85943e-02,4.04019e-02,-3.14022e-02,7.43437e-02,-8.86693e-02,-2.50219e-02,3.91691e-03,2.14153e-02,-3.73369e-02,-2.70631e-04,5.01825e-03,9.99054e-02,-4.04803e-02,5.69782e-02,-4.19454e-02,-2.13166e-02,4.76300e-02,-6.59495e-04,-6.51173e-02,2.34881e-02,1.04081e-01,6.40366e-03,5.38581e-02,9.75201e-02,1.00235e-02,-3.11083e-02,7.19618e-02,1.99405e-02,1.82590e-01,4.29284e-03,1.00996e-01,-4.63429e-02,-6.84797e-02,-1.77728e-01,1.99686e-01,-3.15521e-02,-2.56657e-02,-6.22548e-03,8.38735e-03,-4.69598e-03,-1.07957e-01,-1.12002e-01,1.37673e-01,1.27960e-01,9.50487e-02,3.35396e-02,1.48908e-01,-6.61424e-02,-1.42662e-01,4.91430e-02,-9.31382e-02,-7.50522e-03,-6.81717e-03,1.73737e-02,1.58456e-01,1.78319e-02,1.77511e-01,-9.72505e-02,-2.25724e-02,3.03278e-02,4.39238e-02,3.47943e-02,-1.51849e-01,8.74388e-02,1.77781e-02,3.12435e-02,-2.84525e-02,7.97173e-03,-8.13602e-02,-1.32722e-01,-1.82444e-01,-3.54649e-02,-1.74544e-03,-2.28880e-02,-8.14369e-02,1.57098e-02,-1.21696e-01,-1.19151e-01,-3.97077e-02,3.85796e-02,-5.70736e-03,9.80389e-02,-5.57417e-02,-4.44861e-03,7.14865e-02,8.57010e-02,8.95942e-02,-2.52632e-02,1.85095e-01,8.21835e-02,8.09342e-02,1.34057e-01,-1.27457e-01,-4.97125e-02,-3.02109e-02,-1.44291e-02,-7.18953e-02,-1.27513e-02,-4.54685e-02,1.86373e-01,-3.08115e-02,-1.88562e-01,5.07570e-02,-2.92457e-02,-1.00824e-01,-1.31164e-01,-9.04896e-02,-4.64743e-02,-2.88315e-02,-7.84645e-02,-6.28509e-03,-1.73834e-02,-9.71071e-02,-6.95577e-02,1.89802e-02,-1.73459e-02,-4.81325e-02,-8.22650e-02,-3.90561e-02,-2.95327e-02,-7.22906e-02,-5.99150e-02,2.21558e-02,-3.41535e-02,-1.67947e-01,-3.18121e-03,-4.36037e-02,-5.90482e-03,2.27782e-02,1.53869e-01,3.52483e-02,-9.55780e-02,-8.86298e-02,-6.31962e-02,1.71002e-01,-7.33592e-02,-1.05951e-02,7.28086e-02,1.08776e-01,-9.56803e-02,4.75567e-02,-1.98594e-01,-5.46653e-04,-1.33189e-01,-1.15020e-01,1.82404e-01,-2.87948e-02,3.34351e-02,-7.76408e-02,-4.55397e-02,-4.41481e-02,4.04085e-02,-1.35390e-01,-2.81897e-02,-5.08957e-02,4.36686e-02,9.68530e-03,-4.54649e-02,1.45204e-01,-9.17833e-02,-9.06210e-02,6.01252e-02,1.51218e-01,7.78460e-02,-3.28658e-02,-1.36322e-01,1.38568e-01,1.21167e-02,-1.77755e-01,-1.27370e-02,1.72950e-02,-4.06736e-02,2.78689e-02,-1.90711e-01,-9.98510e-02,2.35779e-02,-8.51693e-02,-1.79132e-02,4.82912e-02,-1.19494e-01,-4.05400e-02,-2.58739e-02,-2.24997e-02,-5.26310e-02,7.76876e-02,-4.87145e-02,2.63173e-02,4.40977e-02,-1.01198e-01,-4.05072e-02,-2.87928e-02,7.04112e-02,-1.37801e-02,5.62648e-02,5.11802e-02,4.57205e-02,2.20575e-02,-3.78175e-02,-8.47616e-02,-7.74941e-02,-6.53481e-04,-7.86392e-02,-1.13939e-01,1.34931e-01,1.00718e-01,-4.77280e-02,1.02054e-01,-1.72534e-02,1.62156e-02,2.14698e-02,7.30249e-02,7.07072e-02,2.18429e-02,-5.58401e-02,2.48172e-02,2.02583e-02,-9.94057e-02,9.59576e-02,-1.84181e-01,-1.51321e-01,-1.82988e-01,2.65431e-02,1.59438e-01,-7.07050e-02,8.13261e-02,2.38457e-02,-1.39220e-01,-3.68385e-02,1.56071e-01,7.28198e-02,4.15764e-02,-6.66987e-02,-2.04181e-02,1.64050e-01,7.82114e-02,-8.64763e-03,-1.05838e-01,-6.89340e-02,2.25560e-02,-5.88531e-02,-1.12101e-02,4.65828e-02,1.89258e-02,-1.23615e-01,5.22874e-02,9.73639e-02,3.96704e-02,-8.47575e-02,5.65983e-02,1.74205e-01,-9.30938e-02,8.49122e-02,-1.03819e-02,-3.02912e-02,-5.73047e-03,-2.78705e-02,9.52223e-02,-5.18598e-02,-1.36924e-01,1.98795e-01,3.14797e-03,-1.29793e-02,1.69145e-01,1.34128e-01,-4.29267e-02,9.47920e-03,2.45299e-02,-1.52676e-01,9.13399e-02,-8.25740e-02,-8.13042e-02,-7.77883e-02,2.03226e-02,3.09579e-02,6.11231e-02,-1.32521e-02,8.60819e-02,1.29502e-02,-1.02497e-01,-8.57064e-02,1.08863e-01,-5.34863e-02,-7.56435e-02,-1.57681e-01,9.22686e-02,-7.40162e-02,9.24112e-02,-9.81625e-02,1.11711e-01,6.99809e-02,-1.49102e-01,-5.51226e-02,7.18846e-02,1.10350e-01,6.89065e-02,1.51173e-01,1.48994e-01,-1.19936e-02,-9.47455e-02,-6.12582e-02,6.87233e-04,-2.20214e-02,-5.09237e-02,9.52394e-02,-1.91775e-02,-8.47971e-02,-2.69447e-02,-1.53964e-02,1.02943e-02,-8.12696e-02,3.17038e-02,-6.90682e-02,-1.32179e-01,-7.72188e-02,1.52309e-02,-3.41405e-03,-1.51451e-01,6.40627e-02,6.65072e-02,-9.82041e-02,1.02701e-01,1.37538e-01,3.66037e-02,-1.00698e-01,1.52236e-01,8.97990e-03,-6.35850e-02,6.26217e-03,-1.95309e-01,-6.38492e-02,5.92208e-02,-9.58795e-02,1.13203e-01,1.60484e-01,3.67589e-02,-1.01712e-01,3.89544e-02,7.54550e-02,7.82887e-02,1.92999e-02,-8.74799e-02,-4.01271e-02,8.52800e-02,3.22773e-02,-1.25704e-02,1.14914e-01,5.94872e-02,-4.03845e-03,-4.59738e-03,-4.86479e-02,-5.08741e-02,1.81508e-01,-1.16521e-01,4.37926e-02,1.60357e-02,3.27882e-02,1.07060e-01,3.21125e-02,-8.64311e-02,1.01650e-01,3.64397e-02,1.07081e-01,2.64993e-02,8.19037e-02,1.12613e-01,-4.34145e-03,-3.11966e-02,-1.91738e-02,-2.05258e-02,7.92223e-02,7.96262e-02,4.12822e-02,7.10951e-03,-1.67457e-02,-8.58338e-04,-9.28820e-02,3.49474e-02,7.46785e-02,6.96989e-02,-1.08002e-01,1.56082e-02,-1.36383e-01,-1.07733e-01,-7.27591e-02,2.06683e-02,1.64090e-01,-1.06705e-01,2.06054e-02,-3.69542e-02,-6.77368e-02,-7.28603e-03,-4.13019e-02,1.34272e-01,1.55156e-01,2.51551e-02,3.73030e-02,-2.15855e-02,-2.07540e-02,-1.66882e-02,9.92466e-02,1.28525e-01,1.06810e-01,-1.13909e-01,-1.52798e-01,-1.68928e-01,1.68367e-01,5.67310e-02,-4.64573e-02,6.69897e-02,7.38963e-02,-2.21616e-02,-1.39412e-01,-1.45948e-01,4.58898e-02,-1.35580e-02,2.20020e-02,-8.54853e-02,6.15792e-04,1.27055e-01,4.29370e-02,1.89146e-01,-8.33388e-02,-7.08934e-02,6.09563e-02,-3.43819e-02,-2.51201e-02,-5.19824e-02,-1.15937e-01,3.72011e-02,-1.07391e-01,-1.40259e-01,-7.61120e-02,1.49231e-02,-7.34059e-02,-1.38722e-01,5.88750e-02,-4.10650e-02,-4.71324e-02,1.82180e-02,-6.49206e-02,-1.68262e-01,7.12359e-02,7.20150e-02,-3.78372e-02,-1.84943e-01,8.16985e-02,1.74905e-01,7.73852e-02,1.31446e-01,3.95175e-02,3.54578e-03,-1.08046e-02,-1.08208e-01,1.39246e-01,1.52925e-01,-1.37276e-01,7.57597e-02,5.08091e-02,7.03544e-02,9.31017e-03,1.00385e-01,1.23843e-01,2.00599e-02,-1.16258e-02,-1.61498e-02,7.79967e-03,-1.48022e-03,-7.29673e-02,1.73489e-01,-2.48736e-02,-3.71008e-02,1.22162e-01,1.18629e-02,-1.69158e-01,5.91983e-02,-5.70998e-03,5.68660e-02,6.01070e-02,-3.53824e-02,4.63418e-02,-6.85693e-02,-1.08842e-01,-3.26860e-02,-7.24860e-02,1.54007e-01,2.25597e-02,-1.80909e-01,5.84067e-02,3.48777e-02,1.37008e-01,-6.82522e-02,-1.55853e-01,-1.40111e-01,1.52027e-01,1.41319e-01,8.13586e-02,1.10070e-01,-1.69103e-02,-8.94645e-02,9.84901e-02,8.76452e-02,2.32595e-02,1.27924e-01,-1.75208e-01,-8.49835e-02,-7.80674e-02,1.13765e-01,5.33713e-02,4.29776e-02,1.45406e-01,-1.09122e-01,-1.11125e-01,2.64940e-02,-1.53016e-01,-8.48087e-02,-4.39255e-02,-1.77048e-01,-2.51035e-02,-3.23364e-02,2.13322e-02,8.85223e-02,5.05124e-02,-2.19074e-02,-1.19013e-02,-7.71283e-02,7.01751e-02,2.15277e-02,-1.92059e-01,1.09726e-01,-8.33509e-02,4.23186e-02,1.02668e-01,3.37010e-02,1.10673e-01,-8.40186e-03,7.68983e-03,8.10812e-02,1.00301e-01,3.36531e-02,-1.17292e-01,1.15610e-02,8.42870e-02,1.81364e-02,4.76777e-02,1.15067e-03,-1.02917e-01,-8.96908e-04,1.40870e-01,1.52063e-01,-2.85208e-02,-5.76718e-02,-7.43906e-02,1.00453e-01,6.15385e-02,7.17066e-02,-8.10201e-02,1.35912e-04,-7.77263e-02,2.57509e-02,1.74295e-02,9.22058e-03,4.21408e-02,1.08888e-01,-1.93896e-02,5.33407e-02,1.24660e-01,-1.51301e-02,6.66541e-02,-1.38933e-01,5.72928e-02,-6.70915e-02,1.69450e-02,-9.24533e-02,1.55805e-01,9.02513e-02,-1.45475e-01,-1.24348e-01,-6.71356e-02,1.48016e-01,8.93868e-02,6.64751e-02,1.01601e-01,4.76686e-02,1.35245e-01,-7.70773e-02,-9.49386e-03,1.45984e-02,6.40895e-02,3.06591e-02,1.27114e-01,-4.71591e-02,6.96409e-02,1.43072e-02,-6.36877e-02,3.71437e-02,6.89855e-02,-8.67910e-02,4.34059e-02,4.91922e-02,-1.29869e-01,4.65667e-02,3.27885e-02,-7.65775e-02,-6.17426e-02,-3.24272e-02,4.94840e-02,-1.96674e-03,1.15665e-01,-1.36117e-01,-1.53253e-02,1.11773e-01,4.74830e-02,1.04746e-01,-1.72465e-01,-9.13667e-02,1.16684e-01,-5.14894e-02,-1.14132e-01,-1.55658e-02,-7.20904e-02,5.97059e-02,1.63974e-01,-1.20952e-01,8.04983e-04,7.55985e-02,1.27575e-01,-9.38401e-02,2.13460e-02,-7.71379e-04,1.90140e-01,5.34217e-02,8.60977e-02,-1.81154e-01,1.35810e-01,-1.49729e-01,-1.15089e-02,1.55712e-02,4.12827e-02,9.77956e-02,-7.17832e-02,-1.36138e-01,-1.25167e-01,-1.11104e-01,-4.77792e-02,-2.60917e-03,3.19099e-03,1.35275e-01,-4.96646e-02,6.86035e-02,-1.05148e-01,-3.06876e-02,-1.00778e-01,-1.46940e-01,9.22678e-02,1.75229e-02,5.16991e-02,-8.77637e-02,-9.71866e-02,-9.34992e-02,5.15615e-02,-2.05146e-02,1.97267e-01,-8.28635e-02,-1.81217e-02,-1.00348e-01,-7.90932e-02,3.74185e-02,-5.30840e-02,7.64593e-02,-1.53282e-01,-3.62639e-02,-9.82375e-02,3.94255e-02,-5.25152e-03,1.43729e-02,1.13853e-01,1.61965e-01,1.73260e-02,-1.47900e-01,-2.15187e-03,-7.41571e-02,6.33219e-02,3.87820e-02,1.60613e-01,4.17319e-02,3.45061e-03,-3.74609e-02,-3.66329e-03,-6.62211e-02,7.03357e-02,-1.41237e-02,3.41845e-02,-6.64248e-02,-3.31195e-02,1.26386e-01,5.21009e-02,5.77267e-02,-1.00791e-01,2.57114e-02,-8.49982e-02,7.01120e-02,-1.05818e-01,-1.12827e-01,6.64167e-02,6.02013e-02,4.40078e-02,-1.01778e-01,2.89637e-02,-1.98549e-01,