// Neural Network File Format by Kyle Julian, Stanford 2016
4,2352,10,2352,
2352,50,50,50,10,
0,
0,0,0,0,0,0,0,0,0,0,0,0,0,0,0,0,0,0,0,0,0,0,0,0,0,0,0,0,0,0,0,0,0,0,0,0,0,0,0,0,0,0,0,0,0,0,0,0,0,0,0,0,0,0,0,0,0,0,0,0,0,0,0,0,0,0,0,0,0,0,0,0,0,0,0,0,0,0,0,0,0,0,0,0,0,0,0,0,0,0,0,0,0,0,0,0,0,0,0,0,0,0,0,0,0,0,0,0,0,0,0,0,0,0,0,0,0,0,0,0,0,0,0,0,0,0,0,0,0,0,0,0,0,0,0,0,0,0,0,0,0,0,0,0,0,0,0,0,0,0,0,0,0,0,0,0,0,0,0,0,0,0,0,0,0,0,0,0,0,0,0,0,0,0,0,0,0,0,0,0,0,0,0,0,0,0,0,0,0,0,0,0,0,0,0,0,0,0,0,0,0,0,0,0,0,0,0,0,0,0,0,0,0,0,0,0,0,0,0,0,0,0,0,0,0,0,0,0,0,0,0,0,0,0,0,0,0,0,0,0,0,0,0,0,0,0,0,0,0,0,0,0,0,0,0,0,0,0,0,0,0,0,0,0,0,0,0,0,0,0,0,0,0,0,0,0,0,0,0,0,0,0,0,0,0,0,0,0,0,0,0,0,0,0,0,0,0,0,0,0,0,0,0,0,0,0,0,0,0,0,0,0,0,0,0,0,0,0,0,0,0,0,0,0,0,0,0,0,0,0,0,0,0,0,0,0,0,0,0,0,0,0,0,0,0,0,0,0,0,0,0,0,0,0,0,0,0,0,0,0,0,0,0,0,0,0,0,0,0,0,0,0,0,0,0,0,0,0,0,0,0,0,0,0,0,0,0,0,0,0,0,0,0,0,0,0,0,0,0,0,0,0,0,0,0,0,0,0,0,0,0,0,0,0,0,0,0,0,0,0,0,0,0,0,0,0,0,0,0,0,0,0,0,0,0,0,0,0,0,0,0,0,0,0,0,0,0,0,0,0,0,0,0,0,0,0,0,0,0,0,0,0,0,0,0,0,0,0,0,0,0,0,0,0,0,0,0,0,0,0,0,0,0,0,0,0,0,0,0,0,0,0,0,0,0,0,0,0,0,0,0,0,0,0,0,0,0,0,0,0,0,0,0,0,0,0,0,0,0,0,0,0,0,0,0,0,0,0,0,0,0,0,0,0,0,0,0,0,0,0,0,0,0,0,0,0,0,0,0,0,0,0,0,0,0,0,0,0,0,0,0,0,0,0,0,0,0,0,0,0,0,0,0,0,0,0,0,0,0,0,0,0,0,0,0,0,0,0,0,0,0,0,0,0,0,0,0,0,0,0,0,0,0,0,0,0,0,0,0,0,0,0,0,0,0,0,0,0,0,0,0,0,0,0,0,0,0,0,0,0,0,0,0,0,0,0,0,0,0,0,0,0,0,0,0,0,0,0,0,0,0,0,0,0,0,0,0,0,0,0,0,0,0,0,0,0,0,0,0,0,0,0,0,0,0,0,0,0,0,0,0,0,0,0,0,0,0,0,0,0,0,0,0,0,0,0,0,0,0,0,0,0,0,0,0,0,0,0,0,0,0,0,0,0,0,0,0,0,0,0,0,0,0,0,0,0,0,0,0,0,0,0,0,0,0,0,0,0,0,0,0,0,0,0,0,0,0,0,0,0,0,0,0,0,0,0,0,0,0,0,0,0,0,0,0,0,0,0,0,0,0,0,0,0,0,0,0,0,0,0,0,0,0,0,0,0,0,0,0,0,0,0,0,0,0,0,0,0,0,0,0,0,0,0,0,0,0,0,0,0,0,0,0,0,0,0,0,0,0,0,0,0,0,0,0,0,0,0,0,0,0,0,0,0,0,0,0,0,0,0,0,0,0,0,0,0,0,0,0,0,0,0,0,0,0,0,0,0,0,0,0,0,0,0,0,0,0,0,0,0,0,0,0,0,0,0,0,0,0,0,0,0,0,0,0,0,0,0,0,0,0,0,0,0,0,0,0,0,0,0,0,0,0,0,0,0,0,0,0,0,0,0,0,0,0,0,0,0,0,0,0,0,0,0,0,0,0,0,0,0,0,0,0,0,0,0,0,0,0,0,0,0,0,0,0,0,0,0,0,0,0,0,0,0,0,0,0,0,0,0,0,0,0,0,0,0,0,0,0,0,0,0,0,0,0,0,0,0,0,0,0,0,0,0,0,0,0,0,0,0,0,0,0,0,0,0,0,0,0,0,0,0,0,0,0,0,0,0,0,0,0,0,0,0,0,0,0,0,0,0,0,0,0,0,0,0,0,0,0,0,0,0,0,0,0,0,0,0,0,0,0,0,0,0,0,0,0,0,0,0,0,0,0,0,0,0,0,0,0,0,0,0,0,0,0,0,0,0,0,0,0,0,0,0,0,0,0,0,0,0,0,0,0,0,0,0,0,0,0,0,0,0,0,0,0,0,0,0,0,0,0,0,0,0,0,0,0,0,0,0,0,0,0,0,0,0,0,0,0,0,0,0,0,0,0,0,0,0,0,0,0,0,0,0,0,0,0,0,0,0,0,0,0,0,0,0,0,0,0,0,0,0,0,0,0,0,0,0,0,0,0,0,0,0,0,0,0,0,0,0,0,0,0,0,0,0,0,0,0,0,0,0,0,0,0,0,0,0,0,0,0,0,0,0,0,0,0,0,0,0,0,0,0,0,0,0,0,0,0,0,0,0,0,0,0,0,0,0,0,0,0,0,0,0,0,0,0,0,0,0,0,0,0,0,0,0,0,0,0,0,0,0,0,0,0,0,0,0,0,0,0,0,0,0,0,0,0,0,0,0,0,0,0,0,0,0,0,0,0,0,0,0,0,0,0,0,0,0,0,0,0,0,0,0,0,0,0,0,0,0,0,0,0,0,0,0,0,0,0,0,0,0,0,0,0,0,0,0,0,0,0,0,0,0,0,0,0,0,0,0,0,0,0,0,0,0,0,0,0,0,0,0,0,0,0,0,0,0,0,0,0,0,0,0,0,0,0,0,0,0,0,0,0,0,0,0,0,0,0,0,0,0,0,0,0,0,0,0,0,0,0,0,0,0,0,0,0,0,0,0,0,0,0,0,0,0,0,0,0,0,0,0,0,0,0,0,0,0,0,0,0,0,0,0,0,0,0,0,0,0,0,0,0,0,0,0,0,0,0,0,0,0,0,0,0,0,0,0,0,0,0,0,0,0,0,0,0,0,0,0,0,0,0,0,0,0,0,0,0,0,0,0,0,0,0,0,0,0,0,0,0,0,0,0,0,0,0,0,0,0,0,0,0,0,0,0,0,0,0,0,0,0,0,0,0,0,0,0,0,0,0,0,0,0,0,0,0,0,0,0,0,0,0,0,0,0,0,0,0,0,0,0,0,0,0,0,0,0,0,0,0,0,0,0,0,0,0,0,0,0,0,0,0,0,0,0,0,0,0,0,0,0,0,0,0,0,0,0,0,0,0,0,0,0,0,0,0,0,0,0,0,0,0,0,0,0,0,0,0,0,0,0,0,0,0,0,0,0,0,0,0,0,0,0,0,0,0,0,0,0,0,0,0,0,0,0,0,0,0,0,0,0,0,0,0,0,0,0,0,0,0,0,0,0,0,0,0,0,0,0,0,0,0,0,0,0,0,0,0,0,0,0,0,0,0,0,0,0,0,0,0,0,0,0,0,0,0,0,0,0,0,0,0,0,0,0,0,0,0,0,0,0,0,0,0,0,0,0,0,0,0,0,0,0,0,0,0,0,0,0,0,0,0,0,0,0,0,0,0,0,0,0,0,0,0,0,0,0,0,0,0,0,0,0,0,0,0,0,0,0,0,0,0,0,0,0,0,0,0,0,0,0,0,0,0,0,0,0,0,0,0,0,0,0,0,0,0,0,0,0,0,0,0,0,0,0,0,0,0,0,0,0,0,0,0,0,0,0,0,0,0,0,0,0,0,0,0,0,0,0,0,0,0,0,0,0,0,0,0,0,0,0,0,0,0,0,0,0,0,0,0,0,0,0,0,0,0,0,0,0,0,0,0,0,0,0,0,0,0,0,0,0,0,0,0,0,0,0,0,0,0,0,0,0,0,0,0,0,0,0,0,0,0,0,0,0,0,0,0,0,0,0,0,0,0,0,0,0,0,0,0,0,0,0,0,0,0,0,0,0,0,0,0,0,0,0,0,0,0,0,0,0,0,0,0,0,0,0,0,0,0,0,0,0,0,0,0,0,0,0,0,0,0,0,0,0,0,0,0,0,0,0,0,0,0,0,0,0,0,0,0,0,0,0,0,0,0,0,0,0,0,0,0,0,0,0,0,0,0,0,0,0,0,0,0,0,0,0,0,0,0,0,0,0,0,0,0,0,0,0,0,0,0,0,0,0,0,0,0,0,0,0,0,0,0,0,0,0,0,0,0,0,0,0,0,0,0,0,0,0,0,0,0,0,0,0,0,0,0,0,0,0,0,0,0,0,0,0,0,0,0,0,0,0,0,0,0,0,0,0,0,0,0,0,0,0,0,0,0,0,0,0,0,0,0,0,0,0,0,0,0,0,0,0,0,0,0,0,0,0,0,0,0,0,0,0,0,0,0,0,0,0,0,0,0,0,0,0,0,0,0,0,0,0,0,0,0,0,0,0,0,0,0,0,0,0,0,0,0,0,0,0,0,0,0,0,0,0,0,0,0,0,0,0,0,0,0,0,0,0,0,0,0,0,0,0,0,0,0,0,0,0,0,0,0,0,0,0,0,0,0,0,0,0,0,0,0,0,0,0,0,0,0,0,0,0,0,0,0,0,0,0,0,0,0,0,0,0,0,0,0,0,0,0,0,0,0,0,0,0,0,0,0,0,0,0,0,0,0,0,0,0,0,0,0,0,0,0,0,0,0,0,0,0,0,0,0,0,0,0,0,0,0,0,0,0,0,0,0,0,0,0,0,0,0,0,0,0,0,0,0,0,0,0,0,0,0,0,0,0,0,0,0,0,0,0,0,0,0,0,0,0,0,0,0,0,0,0,0,0,0,0,0,0,0,0,0,0,0,0,0,0,0,0,0,0,0,0,0,0,0,0,0,0,0,0,0,0,0,0,0,0,0,0,0,0,0,0,0,0,0,0,0,0,0,0,0,0,0,0,0,0,0,0,0,0,0,0,0,0,0,0,0,0,0,0,0,0,0,0,0,0,0,0,0,0,0,0,0,0,0,0,0,0,0,0,0,0,0,0,0,0,0,0,0,0,0,0,0,0,0,0,0,0,0,0,0,0,0,0,0,0,
255.0,255.0,255.0,255.0,255.0,255.0,255.0,255.0,255.0,255.0,255.0,255.0,255.0,255.0,255.0,255.0,255.0,255.0,255.0,255.0,255.0,255.0,255.0,255.0,255.0,255.0,255.0,255.0,255.0,255.0,255.0,255.0,255.0,255.0,255.0,255.0,255.0,255.0,255.0,255.0,255.0,255.0,255.0,255.0,255.0,255.0,255.0,255.0,255.0,255.0,255.0,255.0,255.0,255.0,255.0,255.0,255.0,255.0,255.0,255.0,255.0,255.0,255.0,255.0,255.0,255.0,255.0,255.0,255.0,255.0,255.0,255.0,255.0,255.0,255.0,255.0,255.0,255.0,255.0,255.0,255.0,255.0,255.0,255.0,255.0,255.0,255.0,255.0,255.0,255.0,255.0,255.0,255.0,255.0,255.0,255.0,255.0,255.0,255.0,255.0,255.0,255.0,255.0,255.0,255.0,255.0,255.0,255.0,255.0,255.0,255.0,255.0,255.0,255.0,255.0,255.0,255.0,255.0,255.0,255.0,255.0,255.0,255.0,255.0,255.0,255.0,255.0,255.0,255.0,255.0,255.0,255.0,255.0,255.0,255.0,255.0,255.0,255.0,255.0,255.0,255.0,255.0,255.0,255.0,255.0,255.0,255.0,255.0,255.0,255.0,255.0,255.0,255.0,255.0,255.0,255.0,255.0,255.0,255.0,255.0,255.0,255.0,255.0,255.0,255.0,255.0,255.0,255.0,255.0,255.0,255.0,255.0,255.0,255.0,255.0,255.0,255.0,255.0,255.0,255.0,255.0,255.0,255.0,255.0,255.0,255.0,255.0,255.0,255.0,255.0,255.0,255.0,255.0,255.0,255.0,255.0,255.0,255.0,255.0,255.0,255.0,255.0,255.0,255.0,255.0,255.0,255.0,255.0,255.0,255.0,255.0,255.0,255.0,255.0,255.0,255.0,255.0,255.0,255.0,255.0,255.0,255.0,255.0,255.0,255.0,255.0,255.0,255.0,255.0,255.0,255.0,255.0,255.0,255.0,255.0,255.0,255.0,255.0,255.0,255.0,255.0,255.0,255.0,255.0,255.0,255.0,255.0,255.0,255.0,255.0,255.0,255.0,255.0,255.0,255.0,255.0,255.0,255.0,255.0,255.0,255.0,255.0,255.0,255.0,255.0,255.0,255.0,255.0,255.0,255.0,255.0,255.0,255.0,255.0,255.0,255.0,255.0,255.0,255.0,255.0,255.0,255.0,255.0,255.0,255.0,255.0,255.0,255.0,255.0,255.0,255.0,255.0,255.0,255.0,255.0,255.0,255.0,255.0,255.0,255.0,255.0,255.0,255.0,255.0,255.0,255.0,255.0,255.0,255.0,255.0,255.0,255.0,255.0,255.0,255.0,255.0,255.0,255.0,255.0,255.0,255.0,255.0,255.0,255.0,255.0,255.0,255.0,255.0,255.0,255.0,255.0,255.0,255.0,255.0,255.0,255.0,255.0,255.0,255.0,255.0,255.0,255.0,255.0,255.0,255.0,255.0,255.0,255.0,255.0,255.0,255.0,255.0,255.0,255.0,255.0,255.0,255.0,255.0,255.0,255.0,255.0,255.0,255.0,255.0,255.0,255.0,255.0,255.0,255.0,255.0,255.0,255.0,255.0,255.0,255.0,255.0,255.0,255.0,255.0,255.0,255.0,255.0,255.0,255.0,255.0,255.0,255.0,255.0,255.0,255.0,255.0,255.0,255.0,255.0,255.0,255.0,255.0,255.0,255.0,255.0,255.0,255.0,255.0,255.0,255.0,255.0,255.0,255.0,255.0,255.0,255.0,255.0,255.0,255.0,255.0,255.0,255.0,255.0,255.0,255.0,255.0,255.0,255.0,255.0,255.0,255.0,255.0,255.0,255.0,255.0,255.0,255.0,255.0,255.0,255.0,255.0,255.0,255.0,255.0,255.0,255.0,255.0,255.0,255.0,255.0,255.0,255.0,255.0,255.0,255.0,255.0,255.0,255.0,255.0,255.0,255.0,255.0,255.0,255.0,255.0,255.0,255.0,255.0,255.0,255.0,255.0,255.0,255.0,255.0,255.0,255.0,255.0,255.0,255.0,255.0,255.0,255.0,255.0,255.0,255.0,255.0,255.0,255.0,255.0,255.0,255.0,255.0,255.0,255.0,255.0,255.0,255.0,255.0,255.0,255.0,255.0,255.0,255.0,255.0,255.0,255.0,255.0,255.0,255.0,255.0,255.0,255.0,255.0,255.0,255.0,255.0,255.0,255.0,255.0,255.0,255.0,255.0,255.0,255.0,255.0,255.0,255.0,255.0,255.0,255.0,255.0,255.0,255.0,255.0,255.0,255.0,255.0,255.0,255.0,255.0,255.0,255.0,255.0,255.0,255.0,255.0,255.0,255.0,255.0,255.0,255.0,255.0,255.0,255.0,255.0,255.0,255.0,255.0,255.0,255.0,255.0,255.0,255.0,255.0,255.0,255.0,255.0,255.0,255.0,255.0,255.0,255.0,255.0,255.0,255.0,255.0,255.0,255.0,255.0,255.0,255.0,255.0,255.0,255.0,255.0,255.0,255.0,255.0,255.0,255.0,255.0,255.0,255.0,255.0,255.0,255.0,255.0,255.0,255.0,255.0,255.0,255.0,255.0,255.0,255.0,255.0,255.0,255.0,255.0,255.0,255.0,255.0,255.0,255.0,255.0,255.0,255.0,255.0,255.0,255.0,255.0,255.0,255.0,255.0,255.0,255.0,255.0,255.0,255.0,255.0,255.0,255.0,255.0,255.0,255.0,255.0,255.0,255.0,255.0,255.0,255.0,255.0,255.0,255.0,255.0,255.0,255.0,255.0,255.0,255.0,255.0,255.0,255.0,255.0,255.0,255.0,255.0,255.0,255.0,255.0,255.0,255.0,255.0,255.0,255.0,255.0,255.0,255.0,255.0,255.0,255.0,255.0,255.0,255.0,255.0,255.0,255.0,255.0,255.0,255.0,255.0,255.0,255.0,255.0,255.0,255.0,255.0,255.0,255.0,255.0,255.0,255.0,255.0,255.0,255.0,255.0,255.0,255.0,255.0,255.0,255.0,255.0,255.0,255.0,255.0,255.0,255.0,255.0,255.0,255.0,255.0,255.0,255.0,255.0,255.0,255.0,255.0,255.0,255.0,255.0,255.0,255.0,255.0,255.0,255.0,255.0,255.0,255.0,255.0,255.0,255.0,255.0,255.0,255.0,255.0,255.0,255.0,255.0,255.0,255.0,255.0,255.0,255.0,255.0,255.0,255.0,255.0,255.0,255.0,255.0,255.0,255.0,255.0,255.0,255.0,255.0,255.0,255.0,255.0,255.0,255.0,255.0,255.0,255.0,255.0,255.0,255.0,255.0,255.0,255.0,255.0,255.0,255.0,255.0,255.0,255.0,255.0,255.0,255.0,255.0,255.0,255.0,255.0,255.0,255.0,255.0,255.0,255.0,255.0,255.0,255.0,255.0,255.0,255.0,255.0,255.0,255.0,255.0,255.0,255.0,255.0,255.0,255.0,255.0,255.0,255.0,255.0,255.0,255.0,255.0,255.0,255.0,255.0,255.0,255.0,255.0,255.0,255.0,255.0,255.0,255.0,255.0,255.0,255.0,255.0,255.0,255.0,255.0,255.0,255.0,255.0,255.0,255.0,255.0,255.0,255.0,255.0,255.0,255.0,255.0,255.0,255.0,255.0,255.0,255.0,255.0,255.0,255.0,255.0,255.0,255.0,255.0,255.0,255.0,255.0,255.0,255.0,255.0,255.0,255.0,255.0,255.0,255.0,255.0,255.0,255.0,255.0,255.0,255.0,255.0,255.0,255.0,255.0,255.0,255.0,255.0,255.0,255.0,255.0,255.0,255.0,255.0,255.0,255.0,255.0,255.0,255.0,255.0,255.0,255.0,255.0,255.0,255.0,255.0,255.0,255.0,255.0,255.0,255.0,255.0,255.0,255.0,255.0,255.0,255.0,255.0,255.0,255.0,255.0,255.0,255.0,255.0,255.0,255.0,255.0,255.0,255.0,255.0,255.0,255.0,255.0,255.0,255.0,255.0,255.0,255.0,255.0,255.0,255.0,255.0,255.0,255.0,255.0,255.0,255.0,255.0,255.0,255.0,255.0,255.0,255.0,255.0,255.0,255.0,255.0,255.0,255.0,255.0,255.0,255.0,255.0,255.0,255.0,255.0,255.0,255.0,255.0,255.0,255.0,255.0,255.0,255.0,255.0,255.0,255.0,255.0,255.0,255.0,255.0,255.0,255.0,255.0,255.0,255.0,255.0,255.0,255.0,255.0,255.0,255.0,255.0,255.0,255.0,255.0,255.0,255.0,255.0,255.0,255.0,255.0,255.0,255.0,255.0,255.0,255.0,255.0,255.0,255.0,255.0,255.0,255.0,255.0,255.0,255.0,255.0,255.0,255.0,255.0,255.0,255.0,255.0,255.0,255.0,255.0,255.0,255.0,255.0,255.0,255.0,255.0,255.0,255.0,255.0,255.0,255.0,255.0,255.0,255.0,255.0,255.0,255.0,255.0,255.0,255.0,255.0,255.0,255.0,255.0,255.0,255.0,255.0,255.0,255.0,255.0,255.0,255.0,255.0,255.0,255.0,255.0,255.0,255.0,255.0,255.0,255.0,255.0,255.0,255.0,255.0,255.0,255.0,255.0,255.0,255.0,255.0,255.0,255.0,255.0,255.0,255.0,255.0,255.0,255.0,255.0,255.0,255.0,255.0,255.0,255.0,255.0,255.0,255.0,255.0,255.0,255.0,255.0,255.0,255.0,255.0,255.0,255.0,255.0,255.0,255.0,255.0,255.0,255.0,255.0,255.0,255.0,255.0,255.0,255.0,255.0,255.0,255.0,255.0,255.0,255.0,255.0,255.0,255.0,255.0,255.0,255.0,255.0,255.0,255.0,255.0,255.0,255.0,255.0,255.0,255.0,255.0,255.0,255.0,255.0,255.0,255.0,255.0,255.0,255.0,255.0,255.0,255.0,255.0,255.0,255.0,255.0,255.0,255.0,255.0,255.0,255.0,255.0,255.0,255.0,255.0,255.0,255.0,255.0,255.0,255.0,255.0,255.0,255.0,255.0,255.0,255.0,255.0,255.0,255.0,255.0,255.0,255.0,255.0,255.0,255.0,255.0,255.0,255.0,255.0,255.0,255.0,255.0,255.0,255.0,255.0,255.0,255.0,255.0,255.0,255.0,255.0,255.0,255.0,255.0,255.0,255.0,255.0,255.0,255.0,255.0,255.0,255.0,255.0,255.0,255.0,255.0,255.0,255.0,255.0,255.0,255.0,255.0,255.0,255.0,255.0,255.0,255.0,255.0,255.0,255.0,255.0,255.0,255.0,255.0,255.0,255.0,255.0,255.0,255.0,255.0,255.0,255.0,255.0,255.0,255.0,255.0,255.0,255.0,255.0,255.0,255.0,255.0,255.0,255.0,255.0,255.0,255.0,255.0,255.0,255.0,255.0,255.0,255.0,255.0,255.0,255.0,255.0,255.0,255.0,255.0,255.0,255.0,255.0,255.0,255.0,255.0,255.0,255.0,255.0,255.0,255.0,255.0,255.0,255.0,255.0,255.0,255.0,255.0,255.0,255.0,255.0,255.0,255.0,255.0,255.0,255.0,255.0,255.0,255.0,255.0,255.0,255.0,255.0,255.0,255.0,255.0,255.0,255.0,255.0,255.0,255.0,255.0,255.0,255.0,255.0,255.0,255.0,255.0,255.0,255.0,255.0,255.0,255.0,255.0,255.0,255.0,255.0,255.0,255.0,255.0,255.0,255.0,255.0,255.0,255.0,255.0,255.0,255.0,255.0,255.0,255.0,255.0,255.0,255.0,255.0,255.0,255.0,255.0,255.0,255.0,255.0,255.0,255.0,255.0,255.0,255.0,255.0,255.0,255.0,255.0,255.0,255.0,255.0,255.0,255.0,255.0,255.0,255.0,255.0,255.0,255.0,255.0,255.0,255.0,255.0,255.0,255.0,255.0,255.0,255.0,255.0,255.0,255.0,255.0,255.0,255.0,255.0,255.0,255.0,255.0,255.0,255.0,255.0,255.0,255.0,255.0,255.0,255.0,255.0,255.0,255.0,255.0,255.0,255.0,255.0,255.0,255.0,255.0,255.0,255.0,255.0,255.0,255.0,255.0,255.0,255.0,255.0,255.0,255.0,255.0,255.0,255.0,255.0,255.0,255.0,255.0,255.0,255.0,255.0,255.0,255.0,255.0,255.0,255.0,255.0,255.0,255.0,255.0,255.0,255.0,255.0,255.0,255.0,255.0,255.0,255.0,255.0,255.0,255.0,255.0,255.0,255.0,255.0,255.0,255.0,255.0,255.0,255.0,255.0,255.0,255.0,255.0,255.0,255.0,255.0,255.0,255.0,255.0,255.0,255.0,255.0,255.0,255.0,255.0,255.0,255.0,255.0,255.0,255.0,255.0,255.0,255.0,255.0,255.0,255.0,255.0,255.0,255.0,255.0,255.0,255.0,255.0,255.0,255.0,255.0,255.0,255.0,255.0,255.0,255.0,255.0,255.0,255.0,255.0,255.0,255.0,255.0,255.0,255.0,255.0,255.0,255.0,255.0,255.0,255.0,255.0,255.0,255.0,255.0,255.0,255.0,255.0,255.0,255.0,255.0,255.0,255.0,255.0,255.0,255.0,255.0,255.0,255.0,255.0,255.0,255.0,255.0,255.0,255.0,255.0,255.0,255.0,255.0,255.0,255.0,255.0,255.0,255.0,255.0,255.0,255.0,255.0,255.0,255.0,255.0,255.0,255.0,255.0,255.0,255.0,255.0,255.0,255.0,255.0,255.0,255.0,255.0,255.0,255.0,255.0,255.0,255.0,255.0,255.0,255.0,255.0,255.0,255.0,255.0,255.0,255.0,255.0,255.0,255.0,255.0,255.0,255.0,255.0,255.0,255.0,255.0,255.0,255.0,255.0,255.0,255.0,255.0,255.0,255.0,255.0,255.0,255.0,255.0,255.0,255.0,255.0,255.0,255.0,255.0,255.0,255.0,255.0,255.0,255.0,255.0,255.0,255.0,255.0,255.0,255.0,255.0,255.0,255.0,255.0,255.0,255.0,255.0,255.0,255.0,255.0,255.0,255.0,255.0,255.0,255.0,255.0,255.0,255.0,255.0,255.0,255.0,255.0,255.0,255.0,255.0,255.0,255.0,255.0,255.0,255.0,255.0,255.0,255.0,255.0,255.0,255.0,255.0,255.0,255.0,255.0,255.0,255.0,255.0,255.0,255.0,255.0,255.0,255.0,255.0,255.0,255.0,255.0,255.0,255.0,255.0,255.0,255.0,255.0,255.0,255.0,255.0,255.0,255.0,255.0,255.0,255.0,255.0,255.0,255.0,255.0,255.0,255.0,255.0,255.0,255.0,255.0,255.0,255.0,255.0,255.0,255.0,255.0,255.0,255.0,255.0,255.0,255.0,255.0,255.0,255.0,255.0,255.0,255.0,255.0,255.0,255.0,255.0,255.0,255.0,255.0,255.0,255.0,255.0,255.0,255.0,255.0,255.0,255.0,255.0,255.0,255.0,255.0,255.0,255.0,255.0,255.0,255.0,255.0,255.0,255.0,255.0,255.0,255.0,255.0,255.0,255.0,255.0,255.0,255.0,255.0,255.0,255.0,255.0,255.0,255.0,255.0,255.0,255.0,255.0,255.0,255.0,255.0,255.0,255.0,255.0,255.0,255.0,255.0,255.0,255.0,255.0,255.0,255.0,255.0,255.0,255.0,255.0,255.0,255.0,255.0,255.0,255.0,255.0,255.0,255.0,255.0,255.0,255.0,255.0,255.0,255.0,255.0,255.0,255.0,255.0,255.0,255.0,255.0,255.0,255.0,255.0,255.0,255.0,255.0,255.0,255.0,255.0,255.0,255.0,255.0,255.0,255.0,255.0,255.0,255.0,255.0,255.0,255.0,255.0,255.0,255.0,255.0,255.0,255.0,255.0,255.0,255.0,255.0,255.0,255.0,255.0,255.0,255.0,255.0,255.0,255.0,255.0,255.0,255.0,255.0,255.0,255.0,255.0,255.0,255.0,255.0,255.0,255.0,255.0,255.0,255.0,255.0,255.0,255.0,255.0,255.0,255.0,255.0,255.0,255.0,255.0,255.0,255.0,255.0,255.0,255.0,255.0,255.0,255.0,255.0,255.0,255.0,255.0,255.0,255.0,255.0,255.0,255.0,255.0,255.0,255.0,255.0,255.0,255.0,255.0,255.0,255.0,255.0,255.0,255.0,255.0,255.0,255.0,255.0,255.0,255.0,255.0,255.0,255.0,255.0,255.0,255.0,255.0,255.0,255.0,255.0,255.0,255.0,255.0,255.0,255.0,255.0,255.0,255.0,255.0,255.0,255.0,255.0,255.0,255.0,255.0,255.0,255.0,255.0,255.0,255.0,255.0,255.0,255.0,255.0,255.0,255.0,255.0,255.0,255.0,255.0,255.0,255.0,255.0,255.0,255.0,255.0,255.0,255.0,255.0,255.0,255.0,255.0,255.0,255.0,255.0,255.0,255.0,255.0,255.0,255.0,255.0,255.0,255.0,255.0,255.0,255.0,255.0,255.0,255.0,255.0,255.0,255.0,255.0,255.0,255.0,255.0,255.0,255.0,255.0,255.0,255.0,255.0,255.0,255.0,255.0,255.0,255.0,255.0,255.0,255.0,255.0,255.0,255.0,255.0,255.0,255.0,255.0,255.0,255.0,255.0,255.0,255.0,255.0,255.0,255.0,255.0,255.0,255.0,255.0,255.0,255.0,255.0,255.0,255.0,255.0,255.0,255.0,255.0,255.0,255.0,255.0,255.0,255.0,255.0,255.0,255.0,255.0,255.0,255.0,255.0,255.0,255.0,255.0,255.0,255.0,255.0,255.0,255.0,255.0,255.0,255.0,255.0,255.0,255.0,255.0,255.0,255.0,255.0,255.0,255.0,255.0,255.0,255.0,255.0,255.0,255.0,255.0,255.0,255.0,255.0,255.0,255.0,255.0,255.0,255.0,255.0,255.0,255.0,255.0,255.0,255.0,255.0,255.0,255.0,255.0,255.0,255.0,255.0,255.0,255.0,255.0,255.0,255.0,255.0,255.0,255.0,255.0,255.0,255.0,255.0,255.0,255.0,255.0,255.0,255.0,255.0,255.0,255.0,255.0,255.0,255.0,255.0,255.0,255.0,255.0,255.0,255.0,255.0,255.0,255.0,255.0,255.0,255.0,255.0,255.0,255.0,255.0,255.0,255.0,255.0,255.0,255.0,255.0,255.0,255.0,255.0,255.0,255.0,255.0,255.0,255.0,255.0,255.0,255.0,255.0,255.0,255.0,255.0,255.0,255.0,255.0,255.0,255.0,255.0,255.0,255.0,255.0,255.0,255.0,255.0,255.0,255.0,255.0,255.0,255.0,255.0,255.0,255.0,255.0,255.0,255.0,255.0,255.0,255.0,255.0,255.0,255.0,255.0,255.0,255.0,255.0,255.0,255.0,255.0,255.0,255.0,255.0,255.0,255.0,255.0,255.0,255.0,255.0,255.0,255.0,255.0,255.0,255.0,255.0,255.0,255.0,255.0,255.0,255.0,255.0,255.0,255.0,255.0,255.0,255.0,255.0,255.0,255.0,255.0,255.0,255.0,255.0,255.0,255.0,255.0,255.0,255.0,255.0,255.0,255.0,255.0,255.0,255.0,255.0,255.0,255.0,255.0,255.0,255.0,255.0,255.0,255.0,255.0,255.0,255.0,255.0,255.0,255.0,255.0,255.0,255.0,255.0,255.0,255.0,255.0,255.0,255.0,255.0,255.0,255.0,255.0,255.0,255.0,255.0,255.0,255.0,255.0,255.0,255.0,255.0,255.0,255.0,255.0,255.0,255.0,255.0,255.0,255.0,255.0,255.0,255.0,255.0,255.0,255.0,255.0,255.0,255.0,255.0,255.0,255.0,255.0,255.0,255.0,255.0,255.0,255.0,255.0,255.0,255.0,255.0,255.0,255.0,255.0,255.0,255.0,255.0,255.0,255.0,255.0,255.0,255.0,255.0,255.0,255.0,255.0,255.0,255.0,255.0,255.0,255.0,255.0,255.0,255.0,255.0,255.0,255.0,255.0,255.0,255.0,255.0,255.0,255.0,255.0,255.0,255.0,255.0,255.0,255.0,255.0,255.0,255.0,255.0,255.0,255.0,255.0,255.0,255.0,255.0,255.0,255.0,255.0,255.0,255.0,255.0,255.0,255.0,255.0,255.0,255.0,255.0,255.0,255.0,255.0,255.0,255.0,255.0,255.0,255.0,255.0,255.0,255.0,255.0,255.0,255.0,255.0,255.0,255.0,255.0,255.0,255.0,255.0,255.0,255.0,255.0,255.0,255.0,255.0,255.0,255.0,255.0,255.0,255.0,
127.0,127.0,127.0,127.0,127.0,127.0,127.0,127.0,127.0,127.0,127.0,127.0,127.0,127.0,127.0,127.0,127.0,127.0,127.0,127.0,127.0,127.0,127.0,127.0,127.0,127.0,127.0,127.0,127.0,127.0,127.0,127.0,127.0,127.0,127.0,127.0,127.0,127.0,127.0,127.0,127.0,127.0,127.0,127.0,127.0,127.0,127.0,127.0,127.0,127.0,127.0,127.0,127.0,127.0,127.0,127.0,127.0,127.0,127.0,127.0,127.0,127.0,127.0,127.0,127.0,127.0,127.0,127.0,127.0,127.0,127.0,127.0,127.0,127.0,127.0,127.0,127.0,127.0,127.0,127.0,127.0,127.0,127.0,127.0,127.0,127.0,127.0,127.0,127.0,127.0,127.0,127.0,127.0,127.0,127.0,127.0,127.0,127.0,127.0,127.0,127.0,127.0,127.0,127.0,127.0,127.0,127.0,127.0,127.0,127.0,127.0,127.0,127.0,127.0,127.0,127.0,127.0,127.0,127.0,127.0,127.0,127.0,127.0,127.0,127.0,127.0,127.0,127.0,127.0,127.0,127.0,127.0,127.0,127.0,127.0,127.0,127.0,127.0,127.0,127.0,127.0,127.0,127.0,127.0,127.0,127.0,127.0,127.0,127.0,127.0,127.0,127.0,127.0,127.0,127.0,127.0,127.0,127.0,127.0,127.0,127.0,127.0,127.0,127.0,127.0,127.0,127.0,127.0,127.0,127.0,127.0,127.0,127.0,127.0,127.0,127.0,127.0,127.0,127.0,127.0,127.0,127.0,127.0,127.0,127.0,127.0,127.0,127.0,127.0,127.0,127.0,127.0,127.0,127.0,127.0,127.0,127.0,127.0,127.0,127.0,127.0,127.0,127.0,127.0,127.0,127.0,127.0,127.0,127.0,127.0,127.0,127.0,127.0,127.0,127.0,127.0,127.0,127.0,127.0,127.0,127.0,127.0,127.0,127.0,127.0,127.0,127.0,127.0,127.0,127.0,127.0,127.0,127.0,127.0,127.0,127.0,127.0,127.0,127.0,127.0,127.0,127.0,127.0,127.0,127.0,127.0,127.0,127.0,127.0,127.0,127.0,127.0,127.0,127.0,127.0,127.0,127.0,127.0,127.0,127.0,127.0,127.0,127.0,127.0,127.0,127.0,127.0,127.0,127.0,127.0,127.0,127.0,127.0,127.0,127.0,127.0,127.0,127.0,127.0,127.0,127.0,127.0,127.0,127.0,127.0,127.0,127.0,127.0,127.0,127.0,127.0,127.0,127.0,127.0,127.0,127.0,127.0,127.0,127.0,127.0,127.0,127.0,127.0,127.0,127.0,127.0,127.0,127.0,127.0,127.0,127.0,127.0,127.0,127.0,127.0,127.0,127.0,127.0,127.0,127.0,127.0,127.0,127.0,127.0,127.0,127.0,127.0,127.0,127.0,127.0,127.0,127.0,127.0,127.0,127.0,127.0,127.0,127.0,127.0,127.0,127.0,127.0,127.0,127.0,127.0,127.0,127.0,127.0,127.0,127.0,127.0,127.0,127.0,127.0,127.0,127.0,127.0,127.0,127.0,127.0,127.0,127.0,127.0,127.0,127.0,127.0,127.0,127.0,127.0,127.0,127.0,127.0,127.0,127.0,127.0,127.0,127.0,127.0,127.0,127.0,127.0,127.0,127.0,127.0,127.0,127.0,127.0,127.0,127.0,127.0,127.0,127.0,127.0,127.0,127.0,127.0,127.0,127.0,127.0,127.0,127.0,127.0,127.0,127.0,127.0,127.0,127.0,127.0,127.0,127.0,127.0,127.0,127.0,127.0,127.0,127.0,127.0,127.0,127.0,127.0,127.0,127.0,127.0,127.0,127.0,127.0,127.0,127.0,127.0,127.0,127.0,127.0,127.0,127.0,127.0,127.0,127.0,127.0,127.0,127.0,127.0,127.0,127.0,127.0,127.0,127.0,127.0,127.0,127.0,127.0,127.0,127.0,127.0,127.0,127.0,127.0,127.0,127.0,127.0,127.0,127.0,127.0,127.0,127.0,127.0,127.0,127.0,127.0,127.0,127.0,127.0,127.0,127.0,127.0,127.0,127.0,127.0,127.0,127.0,127.0,127.0,127.0,127.0,127.0,127.0,127.0,127.0,127.0,127.0,127.0,127.0,127.0,127.0,127.0,127.0,127.0,127.0,127.0,127.0,127.0,127.0,127.0,127.0,127.0,127.0,127.0,127.0,127.0,127.0,127.0,127.0,127.0,127.0,127.0,127.0,127.0,127.0,127.0,127.0,127.0,127.0,127.0,127.0,127.0,127.0,127.0,127.0,127.0,127.0,127.0,127.0,127.0,127.0,127.0,127.0,127.0,127.0,127.0,127.0,127.0,127.0,127.0,127.0,127.0,127.0,127.0,127.0,127.0,127.0,127.0,127.0,127.0,127.0,127.0,127.0,127.0,127.0,127.0,127.0,127.0,127.0,127.0,127.0,127.0,127.0,127.0,127.0,127.0,127.0,127.0,127.0,127.0,127.0,127.0,127.0,127.0,127.0,127.0,127.0,127.0,127.0,127.0,127.0,127.0,127.0,127.0,127.0,127.0,127.0,127.0,127.0,127.0,127.0,127.0,127.0,127.0,127.0,127.0,127.0,127.0,127.0,127.0,127.0,127.0,127.0,127.0,127.0,127.0,127.0,127.0,127.0,127.0,127.0,127.0,127.0,127.0,127.0,127.0,127.0,127.0,127.0,127.0,127.0,127.0,127.0,127.0,127.0,127.0,127.0,127.0,127.0,127.0,127.0,127.0,127.0,127.0,127.0,127.0,127.0,127.0,127.0,127.0,127.0,127.0,127.0,127.0,127.0,127.0,127.0,127.0,127.0,127.0,127.0,127.0,127.0,127.0,127.0,127.0,127.0,127.0,127.0,127.0,127.0,127.0,127.0,127.0,127.0,127.0,127.0,127.0,127.0,127.0,127.0,127.0,127.0,127.0,127.0,127.0,127.0,127.0,127.0,127.0,127.0,127.0,127.0,127.0,127.0,127.0,127.0,127.0,127.0,127.0,127.0,127.0,127.0,127.0,127.0,127.0,127.0,127.0,127.0,127.0,127.0,127.0,127.0,127.0,127.0,127.0,127.0,127.0,127.0,127.0,127.0,127.0,127.0,127.0,127.0,127.0,127.0,127.0,127.0,127.0,127.0,127.0,127.0,127.0,127.0,127.0,127.0,127.0,127.0,127.0,127.0,127.0,127.0,127.0,127.0,127.0,127.0,127.0,127.0,127.0,127.0,127.0,127.0,127.0,127.0,127.0,127.0,127.0,127.0,127.0,127.0,127.0,127.0,127.0,127.0,127.0,127.0,127.0,127.0,127.0,127.0,127.0,127.0,127.0,127.0,127.0,127.0,127.0,127.0,127.0,127.0,127.0,127.0,127.0,127.0,127.0,127.0,127.0,127.0,127.0,127.0,127.0,127.0,127.0,127.0,127.0,127.0,127.0,127.0,127.0,127.0,127.0,127.0,127.0,127.0,127.0,127.0,127.0,127.0,127.0,127.0,127.0,127.0,127.0,127.0,127.0,127.0,127.0,127.0,127.0,127.0,127.0,127.0,127.0,127.0,127.0,127.0,127.0,127.0,127.0,127.0,127.0,127.0,127.0,127.0,127.0,127.0,127.0,127.0,127.0,127.0,127.0,127.0,127.0,127.0,127.0,127.0,127.0,127.0,127.0,127.0,127.0,127.0,127.0,127.0,127.0,127.0,127.0,127.0,127.0,127.0,127.0,127.0,127.0,127.0,127.0,127.0,127.0,127.0,127.0,127.0,127.0,127.0,127.0,127.0,127.0,127.0,127.0,127.0,127.0,127.0,127.0,127.0,127.0,127.0,127.0,127.0,127.0,127.0,127.0,127.0,127.0,127.0,127.0,127.0,127.0,127.0,127.0,127.0,127.0,127.0,127.0,127.0,127.0,127.0,127.0,127.0,127.0,127.0,127.0,127.0,127.0,127.0,127.0,127.0,127.0,127.0,127.0,127.0,127.0,127.0,127.0,127.0,127.0,127.0,127.0,127.0,127.0,127.0,127.0,127.0,127.0,127.0,127.0,127.0,127.0,127.0,127.0,127.0,127.0,127.0,127.0,127.0,127.0,127.0,127.0,127.0,127.0,127.0,127.0,127.0,127.0,127.0,127.0,127.0,127.0,127.0,127.0,127.0,127.0,127.0,127.0,127.0,127.0,127.0,127.0,127.0,127.0,127.0,127.0,127.0,127.0,127.0,127.0,127.0,127.0,127.0,127.0,127.0,127.0,127.0,127.0,127.0,127.0,127.0,127.0,127.0,127.0,127.0,127.0,127.0,127.0,127.0,127.0,127.0,127.0,127.0,127.0,127.0,127.0,127.0,127.0,127.0,127.0,127.0,127.0,127.0,127.0,127.0,127.0,127.0,127.0,127.0,127.0,127.0,127.0,127.0,127.0,127.0,127.0,127.0,127.0,127.0,127.0,127.0,127.0,127.0,127.0,127.0,127.0,127.0,127.0,127.0,127.0,127.0,127.0,127.0,127.0,127.0,127.0,127.0,127.0,127.0,127.0,127.0,127.0,127.0,127.0,127.0,127.0,127.0,127.0,127.0,127.0,127.0,127.0,127.0,127.0,127.0,127.0,127.0,127.0,127.0,127.0,127.0,127.0,127.0,127.0,127.0,127.0,127.0,127.0,127.0,127.0,127.0,127.0,127.0,127.0,127.0,127.0,127.0,127.0,127.0,127.0,127.0,127.0,127.0,127.0,127.0,127.0,127.0,127.0,127.0,127.0,127.0,127.0,127.0,127.0,127.0,127.0,127.0,127.0,127.0,127.0,127.0,127.0,127.0,127.0,127.0,127.0,127.0,127.0,127.0,127.0,127.0,127.0,127.0,127.0,127.0,127.0,127.0,127.0,127.0,127.0,127.0,127.0,127.0,127.0,127.0,127.0,127.0,127.0,127.0,127.0,127.0,127.0,127.0,127.0,127.0,127.0,127.0,127.0,127.0,127.0,127.0,127.0,127.0,127.0,127.0,127.0,127.0,127.0,127.0,127.0,127.0,127.0,127.0,127.0,127.0,127.0,127.0,127.0,127.0,127.0,127.0,127.0,127.0,127.0,127.0,127.0,127.0,127.0,127.0,127.0,127.0,127.0,127.0,127.0,127.0,127.0,127.0,127.0,127.0,127.0,127.0,127.0,127.0,127.0,127.0,127.0,127.0,127.0,127.0,127.0,127.0,127.0,127.0,127.0,127.0,127.0,127.0,127.0,127.0,127.0,127.0,127.0,127.0,127.0,127.0,127.0,127.0,127.0,127.0,127.0,127.0,127.0,127.0,127.0,127.0,127.0,127.0,127.0,127.0,127.0,127.0,127.0,127.0,127.0,127.0,127.0,127.0,127.0,127.0,127.0,127.0,127.0,127.0,127.0,127.0,127.0,127.0,127.0,127.0,127.0,127.0,127.0,127.0,127.0,127.0,127.0,127.0,127.0,127.0,127.0,127.0,127.0,127.0,127.0,127.0,127.0,127.0,127.0,127.0,127.0,127.0,127.0,127.0,127.0,127.0,127.0,127.0,127.0,127.0,127.0,127.0,127.0,127.0,127.0,127.0,127.0,127.0,127.0,127.0,127.0,127.0,127.0,127.0,127.0,127.0,127.0,127.0,127.0,127.0,127.0,127.0,127.0,127.0,127.0,127.0,127.0,127.0,127.0,127.0,127.0,127.0,127.0,127.0,127.0,127.0,127.0,127.0,127.0,127.0,127.0,127.0,127.0,127.0,127.0,127.0,127.0,127.0,127.0,127.0,127.0,127.0,127.0,127.0,127.0,127.0,127.0,127.0,127.0,127.0,127.0,127.0,127.0,127.0,127.0,127.0,127.0,127.0,127.0,127.0,127.0,127.0,127.0,127.0,127.0,127.0,127.0,127.0,127.0,127.0,127.0,127.0,127.0,127.0,127.0,127.0,127.0,127.0,127.0,127.0,127.0,127.0,127.0,127.0,127.0,127.0,127.0,127.0,127.0,127.0,127.0,127.0,127.0,127.0,127.0,127.0,127.0,127.0,127.0,127.0,127.0,127.0,127.0,127.0,127.0,127.0,127.0,127.0,127.0,127.0,127.0,127.0,127.0,127.0,127.0,127.0,127.0,127.0,127.0,127.0,127.0,127.0,127.0,127.0,127.0,127.0,127.0,127.0,127.0,127.0,127.0,127.0,127.0,127.0,127.0,127.0,127.0,127.0,127.0,127.0,127.0,127.0,127.0,127.0,127.0,127.0,127.0,127.0,127.0,127.0,127.0,127.0,127.0,127.0,127.0,127.0,127.0,127.0,127.0,127.0,127.0,127.0,127.0,127.0,127.0,127.0,127.0,127.0,127.0,127.0,127.0,127.0,127.0,127.0,127.0,127.0,127.0,127.0,127.0,127.0,127.0,127.0,127.0,127.0,127.0,127.0,127.0,127.0,127.0,127.0,127.0,127.0,127.0,127.0,127.0,127.0,127.0,127.0,127.0,127.0,127.0,127.0,127.0,127.0,127.0,127.0,127.0,127.0,127.0,127.0,127.0,127.0,127.0,127.0,127.0,127.0,127.0,127.0,127.0,127.0,127.0,127.0,127.0,127.0,127.0,127.0,127.0,127.0,127.0,127.0,127.0,127.0,127.0,127.0,127.0,127.0,127.0,127.0,127.0,127.0,127.0,127.0,127.0,127.0,127.0,127.0,127.0,127.0,127.0,127.0,127.0,127.0,127.0,127.0,127.0,127.0,127.0,127.0,127.0,127.0,127.0,127.0,127.0,127.0,127.0,127.0,127.0,127.0,127.0,127.0,127.0,127.0,127.0,127.0,127.0,127.0,127.0,127.0,127.0,127.0,127.0,127.0,127.0,127.0,127.0,127.0,127.0,127.0,127.0,127.0,127.0,127.0,127.0,127.0,127.0,127.0,127.0,127.0,127.0,127.0,127.0,127.0,127.0,127.0,127.0,127.0,127.0,127.0,127.0,127.0,127.0,127.0,127.0,127.0,127.0,127.0,127.0,127.0,127.0,127.0,127.0,127.0,127.0,127.0,127.0,127.0,127.0,127.0,127.0,127.0,127.0,127.0,127.0,127.0,127.0,127.0,127.0,127.0,127.0,127.0,127.0,127.0,127.0,127.0,127.0,127.0,127.0,127.0,127.0,127.0,127.0,127.0,127.0,127.0,127.0,127.0,127.0,127.0,127.0,127.0,127.0,127.0,127.0,127.0,127.0,127.0,127.0,127.0,127.0,127.0,127.0,127.0,127.0,127.0,127.0,127.0,127.0,127.0,127.0,127.0,127.0,127.0,127.0,127.0,127.0,127.0,127.0,127.0,127.0,127.0,127.0,127.0,127.0,127.0,127.0,127.0,127.0,127.0,127.0,127.0,127.0,127.0,127.0,127.0,127.0,127.0,127.0,127.0,127.0,127.0,127.0,127.0,127.0,127.0,127.0,127.0,127.0,127.0,127.0,127.0,127.0,127.0,127.0,127.0,127.0,127.0,127.0,127.0,127.0,127.0,127.0,127.0,127.0,127.0,127.0,127.0,127.0,127.0,127.0,127.0,127.0,127.0,127.0,127.0,127.0,127.0,127.0,127.0,127.0,127.0,127.0,127.0,127.0,127.0,127.0,127.0,127.0,127.0,127.0,127.0,127.0,127.0,127.0,127.0,127.0,127.0,127.0,127.0,127.0,127.0,127.0,127.0,127.0,127.0,127.0,127.0,127.0,127.0,127.0,127.0,127.0,127.0,127.0,127.0,127.0,127.0,127.0,127.0,127.0,127.0,127.0,127.0,127.0,127.0,127.0,127.0,127.0,127.0,127.0,127.0,127.0,127.0,127.0,127.0,127.0,127.0,127.0,127.0,127.0,127.0,127.0,127.0,127.0,127.0,127.0,127.0,127.0,127.0,127.0,127.0,127.0,127.0,127.0,127.0,127.0,127.0,127.0,127.0,127.0,127.0,127.0,127.0,127.0,127.0,127.0,127.0,127.0,127.0,127.0,127.0,127.0,127.0,127.0,127.0,127.0,127.0,127.0,127.0,127.0,127.0,127.0,127.0,127.0,127.0,127.0,127.0,127.0,127.0,127.0,127.0,127.0,127.0,127.0,127.0,127.0,127.0,127.0,127.0,127.0,127.0,127.0,127.0,127.0,127.0,127.0,127.0,127.0,127.0,127.0,127.0,127.0,127.0,127.0,127.0,127.0,127.0,127.0,127.0,127.0,127.0,127.0,127.0,127.0,127.0,127.0,127.0,127.0,127.0,127.0,127.0,127.0,127.0,127.0,127.0,127.0,127.0,127.0,127.0,127.0,127.0,127.0,127.0,127.0,127.0,127.0,127.0,127.0,127.0,127.0,127.0,127.0,127.0,127.0,127.0,127.0,127.0,127.0,127.0,127.0,127.0,127.0,127.0,127.0,127.0,127.0,127.0,127.0,127.0,127.0,127.0,127.0,127.0,127.0,127.0,127.0,127.0,127.0,127.0,127.0,127.0,127.0,127.0,127.0,127.0,127.0,127.0,127.0,127.0,127.0,127.0,127.0,127.0,127.0,127.0,127.0,127.0,127.0,127.0,127.0,127.0,127.0,127.0,127.0,127.0,127.0,127.0,127.0,127.0,127.0,127.0,127.0,127.0,127.0,127.0,127.0,127.0,127.0,127.0,127.0,127.0,127.0,127.0,127.0,127.0,127.0,127.0,127.0,127.0,127.0,127.0,127.0,127.0,127.0,127.0,127.0,127.0,127.0,127.0,127.0,127.0,127.0,127.0,127.0,127.0,127.0,127.0,127.0,127.0,127.0,127.0,127.0,127.0,127.0,127.0,127.0,127.0,127.0,127.0,127.0,127.0,127.0,127.0,127.0,127.0,127.0,127.0,127.0,127.0,127.0,127.0,127.0,127.0,127.0,127.0,127.0,127.0,127.0,127.0,127.0,127.0,127.0,127.0,127.0,127.0,127.0,127.0,127.0,127.0,127.0,127.0,127.0,127.0,127.0,127.0,127.0,127.0,127.0,127.0,127.0,127.0,127.0,127.0,127.0,127.0,127.0,127.0,127.0,127.0,127.0,127.0,127.0,127.0,127.0,127.0,127.0,127.0,127.0,127.0,127.0,127.0,127.0,127.0,127.0,127.0,127.0,127.0,127.0,127.0,127.0,127.0,127.0,127.0,127.0,127.0,127.0,127.0,127.0,127.0,127.0,127.0,127.0,127.0,127.0,127.0,127.0,127.0,127.0,127.0,127.0,127.0,127.0,127.0,127.0,127.0,127.0,127.0,127.0,127.0,127.0,127.0,127.0,127.0,127.0,127.0,127.0,127.0,127.0,127.0,127.0,127.0,127.0,127.0,127.0,127.0,127.0,127.0,127.0,127.0,127.0,127.0,127.0,127.0,127.0,127.0,127.0,127.0,127.0,127.0,127.0,127.0,127.0,127.0,127.0,127.0,127.0,127.0,127.0,127.0,127.0,127.0,127.0,127.0,127.0,127.0,127.0,127.0,127.0,127.0,127.0,127.0,127.0,127.0,127.0,127.0,127.0,127.0,127.0,127.0,127.0,127.0,127.0,127.0,127.0,127.0,127.0,127.0,127.0,127.0,127.0,127.0,127.0,127.0,127.0,127.0,127.0,127.0,127.0,127.0,127.0,127.0,127.0,127.0,127.0,127.0,127.0,127.0,127.0,127.0,127.0,127.0,127.0,127.0,127.0,127.0,127.0,127.0,127.0,127.0,127.0,127.0,127.0,127.0,127.0,127.0,127.0,127.0,127.0,127.0,127.0,127.0,127.0,127.0,127.0,127.0,127.0,127.0,127.0,127.0,127.0,127.0,127.0,127.0,127.0,127.0,127.0,127.0,127.0,127.0,127.0,127.0,127.0,127.0,127.0,127.0,127.0,127.0,127.0,127.0,127.0,127.0,127.0,127.0,127.0,127.0,127.0,127.0,127.0,127.0,127.0,127.0,127.0,127.0,127.0,127.0,127.0,127.0,127.0,127.0,127.0,127.0,127.0,127.0,127.0,127.0,127.0,127.0,127.0,127.0,127.0,127.0,127.0,127.0,127.0,127.0,127.0,127.0,127.0,127.0,127.0,127.0,127.0,127.0,127.0,127.0,127.0,127.0,127.0,127.0,127.0,127.0,127.0,127.0,127.0,127.0,127.0,127.0,127.0,127.0,127.0,127.0,127.0,127.0,127.0,127.0,127.0,127.0,127.0,127.0,127.0,127.0,127.0,127.0,127.0,127.0,127.0,127.0,127.0,127.0,127.0,127.0,127.0,127.0,127.0,127.0,127.0,127.0,127.0,127.0,127.0,127.0,127.0,127.0,127.0,127.0,127.0,127.0,127.0,127.0,127.0,127.0,127.0,127.0,127.0,127.0,127.0,127.0,127.0,
255.0,255.0,255.0,255.0,255.0,255.0,255.0,255.0,255.0,255.0,255.0,255.0,255.0,255.0,255.0,255.0,255.0,255.0,255.0,255.0,255.0,255.0,255.0,255.0,255.0,255.0,255.0,255.0,255.0,255.0,255.0,255.0,255.0,255.0,255.0,255.0,255.0,255.0,255.0,255.0,255.0,255.0,255.0,255.0,255.0,255.0,255.0,255.0,255.0,255.0,255.0,255.0,255.0,255.0,255.0,255.0,255.0,255.0,255.0,255.0,255.0,255.0,255.0,255.0,255.0,255.0,255.0,255.0,255.0,255.0,255.0,255.0,255.0,255.0,255.0,255.0,255.0,255.0,255.0,255.0,255.0,255.0,255.0,255.0,255.0,255.0,255.0,255.0,255.0,255.0,255.0,255.0,255.0,255.0,255.0,255.0,255.0,255.0,255.0,255.0,255.0,255.0,255.0,255.0,255.0,255.0,255.0,255.0,255.0,255.0,255.0,255.0,255.0,255.0,255.0,255.0,255.0,255.0,255.0,255.0,255.0,255.0,255.0,255.0,255.0,255.0,255.0,255.0,255.0,255.0,255.0,255.0,255.0,255.0,255.0,255.0,255.0,255.0,255.0,255.0,255.0,255.0,255.0,255.0,255.0,255.0,255.0,255.0,255.0,255.0,255.0,255.0,255.0,255.0,255.0,255.0,255.0,255.0,255.0,255.0,255.0,255.0,255.0,255.0,255.0,255.0,255.0,255.0,255.0,255.0,255.0,255.0,255.0,255.0,255.0,255.0,255.0,255.0,255.0,255.0,255.0,255.0,255.0,255.0,255.0,255.0,255.0,255.0,255.0,255.0,255.0,255.0,255.0,255.0,255.0,255.0,255.0,255.0,255.0,255.0,255.0,255.0,255.0,255.0,255.0,255.0,255.0,255.0,255.0,255.0,255.0,255.0,255.0,255.0,255.0,255.0,255.0,255.0,255.0,255.0,255.0,255.0,255.0,255.0,255.0,255.0,255.0,255.0,255.0,255.0,255.0,255.0,255.0,255.0,255.0,255.0,255.0,255.0,255.0,255.0,255.0,255.0,255.0,255.0,255.0,255.0,255.0,255.0,255.0,255.0,255.0,255.0,255.0,255.0,255.0,255.0,255.0,255.0,255.0,255.0,255.0,255.0,255.0,255.0,255.0,255.0,255.0,255.0,255.0,255.0,255.0,255.0,255.0,255.0,255.0,255.0,255.0,255.0,255.0,255.0,255.0,255.0,255.0,255.0,255.0,255.0,255.0,255.0,255.0,255.0,255.0,255.0,255.0,255.0,255.0,255.0,255.0,255.0,255.0,255.0,255.0,255.0,255.0,255.0,255.0,255.0,255.0,255.0,255.0,255.0,255.0,255.0,255.0,255.0,255.0,255.0,255.0,255.0,255.0,255.0,255.0,255.0,255.0,255.0,255.0,255.0,255.0,255.0,255.0,255.0,255.0,255.0,255.0,255.0,255.0,255.0,255.0,255.0,255.0,255.0,255.0,255.0,255.0,255.0,255.0,255.0,255.0,255.0,255.0,255.0,255.0,255.0,255.0,255.0,255.0,255.0,255.0,255.0,255.0,255.0,255.0,255.0,255.0,255.0,255.0,255.0,255.0,255.0,255.0,255.0,255.0,255.0,255.0,255.0,255.0,255.0,255.0,255.0,255.0,255.0,255.0,255.0,255.0,255.0,255.0,255.0,255.0,255.0,255.0,255.0,255.0,255.0,255.0,255.0,255.0,255.0,255.0,255.0,255.0,255.0,255.0,255.0,255.0,255.0,255.0,255.0,255.0,255.0,255.0,255.0,255.0,255.0,255.0,255.0,255.0,255.0,255.0,255.0,255.0,255.0,255.0,255.0,255.0,255.0,255.0,255.0,255.0,255.0,255.0,255.0,255.0,255.0,255.0,255.0,255.0,255.0,255.0,255.0,255.0,255.0,255.0,255.0,255.0,255.0,255.0,255.0,255.0,255.0,255.0,255.0,255.0,255.0,255.0,255.0,255.0,255.0,255.0,255.0,255.0,255.0,255.0,255.0,255.0,255.0,255.0,255.0,255.0,255.0,255.0,255.0,255.0,255.0,255.0,255.0,255.0,255.0,255.0,255.0,255.0,255.0,255.0,255.0,255.0,255.0,255.0,255.0,255.0,255.0,255.0,255.0,255.0,255.0,255.0,255.0,255.0,255.0,255.0,255.0,255.0,255.0,255.0,255.0,255.0,255.0,255.0,255.0,255.0,255.0,255.0,255.0,255.0,255.0,255.0,255.0,255.0,255.0,255.0,255.0,255.0,255.0,255.0,255.0,255.0,255.0,255.0,255.0,255.0,255.0,255.0,255.0,255.0,255.0,255.0,255.0,255.0,255.0,255.0,255.0,255.0,255.0,255.0,255.0,255.0,255.0,255.0,255.0,255.0,255.0,255.0,255.0,255.0,255.0,255.0,255.0,255.0,255.0,255.0,255.0,255.0,255.0,255.0,255.0,255.0,255.0,255.0,255.0,255.0,255.0,255.0,255.0,255.0,255.0,255.0,255.0,255.0,255.0,255.0,255.0,255.0,255.0,255.0,255.0,255.0,255.0,255.0,255.0,255.0,255.0,255.0,255.0,255.0,255.0,255.0,255.0,255.0,255.0,255.0,255.0,255.0,255.0,255.0,255.0,255.0,255.0,255.0,255.0,255.0,255.0,255.0,255.0,255.0,255.0,255.0,255.0,255.0,255.0,255.0,255.0,255.0,255.0,255.0,255.0,255.0,255.0,255.0,255.0,255.0,255.0,255.0,255.0,255.0,255.0,255.0,255.0,255.0,255.0,255.0,255.0,255.0,255.0,255.0,255.0,255.0,255.0,255.0,255.0,255.0,255.0,255.0,255.0,255.0,255.0,255.0,255.0,255.0,255.0,255.0,255.0,255.0,255.0,255.0,255.0,255.0,255.0,255.0,255.0,255.0,255.0,255.0,255.0,255.0,255.0,255.0,255.0,255.0,255.0,255.0,255.0,255.0,255.0,255.0,255.0,255.0,255.0,255.0,255.0,255.0,255.0,255.0,255.0,255.0,255.0,255.0,255.0,255.0,255.0,255.0,255.0,255.0,255.0,255.0,255.0,255.0,255.0,255.0,255.0,255.0,255.0,255.0,255.0,255.0,255.0,255.0,255.0,255.0,255.0,255.0,255.0,255.0,255.0,255.0,255.0,255.0,255.0,255.0,255.0,255.0,255.0,255.0,255.0,255.0,255.0,255.0,255.0,255.0,255.0,255.0,255.0,255.0,255.0,255.0,255.0,255.0,255.0,255.0,255.0,255.0,255.0,255.0,255.0,255.0,255.0,255.0,255.0,255.0,255.0,255.0,255.0,255.0,255.0,255.0,255.0,255.0,255.0,255.0,255.0,255.0,255.0,255.0,255.0,255.0,255.0,255.0,255.0,255.0,255.0,255.0,255.0,255.0,255.0,255.0,255.0,255.0,255.0,255.0,255.0,255.0,255.0,255.0,255.0,255.0,255.0,255.0,255.0,255.0,255.0,255.0,255.0,255.0,255.0,255.0,255.0,255.0,255.0,255.0,255.0,255.0,255.0,255.0,255.0,255.0,255.0,255.0,255.0,255.0,255.0,255.0,255.0,255.0,255.0,255.0,255.0,255.0,255.0,255.0,255.0,255.0,255.0,255.0,255.0,255.0,255.0,255.0,255.0,255.0,255.0,255.0,255.0,255.0,255.0,255.0,255.0,255.0,255.0,255.0,255.0,255.0,255.0,255.0,255.0,255.0,255.0,255.0,255.0,255.0,255.0,255.0,255.0,255.0,255.0,255.0,255.0,255.0,255.0,255.0,255.0,255.0,255.0,255.0,255.0,255.0,255.0,255.0,255.0,255.0,255.0,255.0,255.0,255.0,255.0,255.0,255.0,255.0,255.0,255.0,255.0,255.0,255.0,255.0,255.0,255.0,255.0,255.0,255.0,255.0,255.0,255.0,255.0,255.0,255.0,255.0,255.0,255.0,255.0,255.0,255.0,255.0,255.0,255.0,255.0,255.0,255.0,255.0,255.0,255.0,255.0,255.0,255.0,255.0,255.0,255.0,255.0,255.0,255.0,255.0,255.0,255.0,255.0,255.0,255.0,255.0,255.0,255.0,255.0,255.0,255.0,255.0,255.0,255.0,255.0,255.0,255.0,255.0,255.0,255.0,255.0,255.0,255.0,255.0,255.0,255.0,255.0,255.0,255.0,255.0,255.0,255.0,255.0,255.0,255.0,255.0,255.0,255.0,255.0,255.0,255.0,255.0,255.0,255.0,255.0,255.0,255.0,255.0,255.0,255.0,255.0,255.0,255.0,255.0,255.0,255.0,255.0,255.0,255.0,255.0,255.0,255.0,255.0,255.0,255.0,255.0,255.0,255.0,255.0,255.0,255.0,255.0,255.0,255.0,255.0,255.0,255.0,255.0,255.0,255.0,255.0,255.0,255.0,255.0,255.0,255.0,255.0,255.0,255.0,255.0,255.0,255.0,255.0,255.0,255.0,255.0,255.0,255.0,255.0,255.0,255.0,255.0,255.0,255.0,255.0,255.0,255.0,255.0,255.0,255.0,255.0,255.0,255.0,255.0,255.0,255.0,255.0,255.0,255.0,255.0,255.0,255.0,255.0,255.0,255.0,255.0,255.0,255.0,255.0,255.0,255.0,255.0,255.0,255.0,255.0,255.0,255.0,255.0,255.0,255.0,255.0,255.0,255.0,255.0,255.0,255.0,255.0,255.0,255.0,255.0,255.0,255.0,255.0,255.0,255.0,255.0,255.0,255.0,255.0,255.0,255.0,255.0,255.0,255.0,255.0,255.0,255.0,255.0,255.0,255.0,255.0,255.0,255.0,255.0,255.0,255.0,255.0,255.0,255.0,255.0,255.0,255.0,255.0,255.0,255.0,255.0,255.0,255.0,255.0,255.0,255.0,255.0,255.0,255.0,255.0,255.0,255.0,255.0,255.0,255.0,255.0,255.0,255.0,255.0,255.0,255.0,255.0,255.0,255.0,255.0,255.0,255.0,255.0,255.0,255.0,255.0,255.0,255.0,255.0,255.0,255.0,255.0,255.0,255.0,255.0,255.0,255.0,255.0,255.0,255.0,255.0,255.0,255.0,255.0,255.0,255.0,255.0,255.0,255.0,255.0,255.0,255.0,255.0,255.0,255.0,255.0,255.0,255.0,255.0,255.0,255.0,255.0,255.0,255.0,255.0,255.0,255.0,255.0,255.0,255.0,255.0,255.0,255.0,255.0,255.0,255.0,255.0,255.0,255.0,255.0,255.0,255.0,255.0,255.0,255.0,255.0,255.0,255.0,255.0,255.0,255.0,255.0,255.0,255.0,255.0,255.0,255.0,255.0,255.0,255.0,255.0,255.0,255.0,255.0,255.0,255.0,255.0,255.0,255.0,255.0,255.0,255.0,255.0,255.0,255.0,255.0,255.0,255.0,255.0,255.0,255.0,255.0,255.0,255.0,255.0,255.0,255.0,255.0,255.0,255.0,255.0,255.0,255.0,255.0,255.0,255.0,255.0,255.0,255.0,255.0,255.0,255.0,255.0,255.0,255.0,255.0,255.0,255.0,255.0,255.0,255.0,255.0,255.0,255.0,255.0,255.0,255.0,255.0,255.0,255.0,255.0,255.0,255.0,255.0,255.0,255.0,255.0,255.0,255.0,255.0,255.0,255.0,255.0,255.0,255.0,255.0,255.0,255.0,255.0,255.0,255.0,255.0,255.0,255.0,255.0,255.0,255.0,255.0,255.0,255.0,255.0,255.0,255.0,255.0,255.0,255.0,255.0,255.0,255.0,255.0,255.0,255.0,255.0,255.0,255.0,255.0,255.0,255.0,255.0,255.0,255.0,255.0,255.0,255.0,255.0,255.0,255.0,255.0,255.0,255.0,255.0,255.0,255.0,255.0,255.0,255.0,255.0,255.0,255.0,255.0,255.0,255.0,255.0,255.0,255.0,255.0,255.0,255.0,255.0,255.0,255.0,255.0,255.0,255.0,255.0,255.0,255.0,255.0,255.0,255.0,255.0,255.0,255.0,255.0,255.0,255.0,255.0,255.0,255.0,255.0,255.0,255.0,255.0,255.0,255.0,255.0,255.0,255.0,255.0,255.0,255.0,255.0,255.0,255.0,255.0,255.0,255.0,255.0,255.0,255.0,255.0,255.0,255.0,255.0,255.0,255.0,255.0,255.0,255.0,255.0,255.0,255.0,255.0,255.0,255.0,255.0,255.0,255.0,255.0,255.0,255.0,255.0,255.0,255.0,255.0,255.0,255.0,255.0,255.0,255.0,255.0,255.0,255.0,255.0,255.0,255.0,255.0,255.0,255.0,255.0,255.0,255.0,255.0,255.0,255.0,255.0,255.0,255.0,255.0,255.0,255.0,255.0,255.0,255.0,255.0,255.0,255.0,255.0,255.0,255.0,255.0,255.0,255.0,255.0,255.0,255.0,255.0,255.0,255.0,255.0,255.0,255.0,255.0,255.0,255.0,255.0,255.0,255.0,255.0,255.0,255.0,255.0,255.0,255.0,255.0,255.0,255.0,255.0,255.0,255.0,255.0,255.0,255.0,255.0,255.0,255.0,255.0,255.0,255.0,255.0,255.0,255.0,255.0,255.0,255.0,255.0,255.0,255.0,255.0,255.0,255.0,255.0,255.0,255.0,255.0,255.0,255.0,255.0,255.0,255.0,255.0,255.0,255.0,255.0,255.0,255.0,255.0,255.0,255.0,255.0,255.0,255.0,255.0,255.0,255.0,255.0,255.0,255.0,255.0,255.0,255.0,255.0,255.0,255.0,255.0,255.0,255.0,255.0,255.0,255.0,255.0,255.0,255.0,255.0,255.0,255.0,255.0,255.0,255.0,255.0,255.0,255.0,255.0,255.0,255.0,255.0,255.0,255.0,255.0,255.0,255.0,255.0,255.0,255.0,255.0,255.0,255.0,255.0,255.0,255.0,255.0,255.0,255.0,255.0,255.0,255.0,255.0,255.0,255.0,255.0,255.0,255.0,255.0,255.0,255.0,255.0,255.0,255.0,255.0,255.0,255.0,255.0,255.0,255.0,255.0,255.0,255.0,255.0,255.0,255.0,255.0,255.0,255.0,255.0,255.0,255.0,255.0,255.0,255.0,255.0,255.0,255.0,255.0,255.0,255.0,255.0,255.0,255.0,255.0,255.0,255.0,255.0,255.0,255.0,255.0,255.0,255.0,255.0,255.0,255.0,255.0,255.0,255.0,255.0,255.0,255.0,255.0,255.0,255.0,255.0,255.0,255.0,255.0,255.0,255.0,255.0,255.0,255.0,255.0,255.0,255.0,255.0,255.0,255.0,255.0,255.0,255.0,255.0,255.0,255.0,255.0,255.0,255.0,255.0,255.0,255.0,255.0,255.0,255.0,255.0,255.0,255.0,255.0,255.0,255.0,255.0,255.0,255.0,255.0,255.0,255.0,255.0,255.0,255.0,255.0,255.0,255.0,255.0,255.0,255.0,255.0,255.0,255.0,255.0,255.0,255.0,255.0,255.0,255.0,255.0,255.0,255.0,255.0,255.0,255.0,255.0,255.0,255.0,255.0,255.0,255.0,255.0,255.0,255.0,255.0,255.0,255.0,255.0,255.0,255.0,255.0,255.0,255.0,255.0,255.0,255.0,255.0,255.0,255.0,255.0,255.0,255.0,255.0,255.0,255.0,255.0,255.0,255.0,255.0,255.0,255.0,255.0,255.0,255.0,255.0,255.0,255.0,255.0,255.0,255.0,255.0,255.0,255.0,255.0,255.0,255.0,255.0,255.0,255.0,255.0,255.0,255.0,255.0,255.0,255.0,255.0,255.0,255.0,255.0,255.0,255.0,255.0,255.0,255.0,255.0,255.0,255.0,255.0,255.0,255.0,255.0,255.0,255.0,255.0,255.0,255.0,255.0,255.0,255.0,255.0,255.0,255.0,255.0,255.0,255.0,255.0,255.0,255.0,255.0,255.0,255.0,255.0,255.0,255.0,255.0,255.0,255.0,255.0,255.0,255.0,255.0,255.0,255.0,255.0,255.0,255.0,255.0,255.0,255.0,255.0,255.0,255.0,255.0,255.0,255.0,255.0,255.0,255.0,255.0,255.0,255.0,255.0,255.0,255.0,255.0,255.0,255.0,255.0,255.0,255.0,255.0,255.0,255.0,255.0,255.0,255.0,255.0,255.0,255.0,255.0,255.0,255.0,255.0,255.0,255.0,255.0,255.0,255.0,255.0,255.0,255.0,255.0,255.0,255.0,255.0,255.0,255.0,255.0,255.0,255.0,255.0,255.0,255.0,255.0,255.0,255.0,255.0,255.0,255.0,255.0,255.0,255.0,255.0,255.0,255.0,255.0,255.0,255.0,255.0,255.0,255.0,255.0,255.0,255.0,255.0,255.0,255.0,255.0,255.0,255.0,255.0,255.0,255.0,255.0,255.0,255.0,255.0,255.0,255.0,255.0,255.0,255.0,255.0,255.0,255.0,255.0,255.0,255.0,255.0,255.0,255.0,255.0,255.0,255.0,255.0,255.0,255.0,255.0,255.0,255.0,255.0,255.0,255.0,255.0,255.0,255.0,255.0,255.0,255.0,255.0,255.0,255.0,255.0,255.0,255.0,255.0,255.0,255.0,255.0,255.0,255.0,255.0,255.0,255.0,255.0,255.0,255.0,255.0,255.0,255.0,255.0,255.0,255.0,255.0,255.0,255.0,255.0,255.0,255.0,255.0,255.0,255.0,255.0,255.0,255.0,255.0,255.0,255.0,255.0,255.0,255.0,255.0,255.0,255.0,255.0,255.0,255.0,255.0,255.0,255.0,255.0,255.0,255.0,255.0,255.0,255.0,255.0,255.0,255.0,255.0,255.0,255.0,255.0,255.0,255.0,255.0,255.0,255.0,255.0,255.0,255.0,255.0,255.0,255.0,255.0,255.0,255.0,255.0,255.0,255.0,255.0,255.0,255.0,255.0,255.0,255.0,255.0,255.0,255.0,255.0,255.0,255.0,255.0,255.0,255.0,255.0,255.0,255.0,255.0,255.0,255.0,255.0,255.0,255.0,255.0,255.0,255.0,255.0,255.0,255.0,255.0,255.0,255.0,255.0,255.0,255.0,255.0,255.0,255.0,255.0,255.0,255.0,255.0,255.0,255.0,255.0,255.0,255.0,255.0,255.0,255.0,255.0,255.0,255.0,255.0,255.0,255.0,255.0,255.0,255.0,255.0,255.0,255.0,255.0,255.0,255.0,255.0,255.0,255.0,255.0,255.0,255.0,255.0,255.0,255.0,255.0,255.0,255.0,255.0,255.0,255.0,255.0,255.0,255.0,255.0,255.0,255.0,255.0,255.0,255.0,255.0,255.0,255.0,255.0,255.0,255.0,255.0,255.0,255.0,255.0,255.0,255.0,255.0,255.0,255.0,255.0,255.0,255.0,255.0,255.0,255.0,255.0,255.0,255.0,255.0,255.0,255.0,255.0,255.0,255.0,255.0,255.0,255.0,255.0,255.0,255.0,255.0,255.0,255.0,255.0,255.0,255.0,255.0,255.0,255.0,255.0,255.0,255.0,255.0,255.0,255.0,255.0,255.0,255.0,255.0,255.0,255.0,255.0,255.0,255.0,255.0,255.0,255.0,255.0,255.0,255.0,255.0,255.0,255.0,255.0,255.0,255.0,255.0,255.0,255.0,255.0,255.0,255.0,255.0,255.0,255.0,255.0,255.0,255.0,255.0,255.0,255.0,255.0,255.0,255.0,255.0,255.0,255.0,255.0,255.0,255.0,255.0,255.0,255.0,255.0,255.0,255.0,255.0,255.0,255.0,255.0,255.0,255.0,255.0,255.0,255.0,255.0,255.0,255.0,255.0,255.0,255.0,255.0,255.0,255.0,255.0,255.0,255.0,255.0,255.0,255.0,255.0,255.0,255.0,255.0,255.0,255.0,255.0,255.0,255.0,255.0,255.0,255.0,255.0,255.0,255.0,255.0,255.0,255.0,255.0,255.0,255.0,255.0,255.0,255.0,255.0,255.0,255.0,255.0,255.0,255.0,255.0,255.0,255.0,255.0,255.0,255.0,255.0,255.0,255.0,255.0,255.0,255.0,255.0,255.0,255.0,255.0,255.0,255.0,255.0,255.0,255.0,255.0,255.0,255.0,255.0,255.0,255.0,255.0,255.0,255.0,255.0,255.0,255.0,255.0,255.0,255.0,255.0,255.0,255.0,255.0,255.0,255.0,255.0,255.0,255.0,255.0,255.0,255.0,255.0,255.0,255.0,255.0,255.0,255.0,255.0,255.0,255.0,255.0,255.0,255.0,255.0,255.0,255.0,255.0,255.0,255.0,255.0,255.0,255.0,255.0,255.0,255.0,255.0,255.0,255.0,255.0,255.0,255.0,255.0,255.0,255.0,
2.88513e-02,1.36585e-01,7.88481e-02,1.25349e-01,-3.68057e-02,5.83071e-02,1.41763e-01,-8.30670e-03,1.26433e-01,-1.67087e-01,2.88011e-02,1.44890e-01,-1.07416e-01,-1.51811e-01,6.76159e-02,1.35543e-01,-5.75591e-02,-1.23633e-01,2.26883e-02,6.81714e-03,1.10441e-01,-1.50537e-01,-7.58393e-02,-1.29318e-01,-1.17350e-02,6.29317e-02,-5.41292e-02,-3.63985e-02,-1.43586e-02,-1.10277e-03,-3.10892e-02,-2.80280e-02,-1.35687e-01,-3.80141e-02,3.19675e-02,-1.53821e-01,-4.73278e-02,-5.22614e-02,1.54297e-01,1.70755e-02,1.00095e-02,1.16473e-02,-6.39634e-02,-1.96703e-01,-5.59617e-02,-1.33791e-01,-1.79830e-02,3.95127e-03,8.22349e-02,-2.44026e-02,-1.19913e-01,7.69931e-02,-9.47800e-02,1.08066e-01,-1.60241e-01,-1.62631e-01,2.38391e-02,-5.93715e-02,1.06573e-01,2.96564e-02,-8.67583e-02,6.57817e-02,1.10702e-01,-1.71009e-02,-7.17736e-02,-8.81557e-02,-1.01325e-01,-1.83750e-02,-8.13760e-02,4.23401e-02,6.03554e-02,7.08813e-02,-9.07434e-02,-2.09276e-02,-7.33308e-02,-6.94943e-02,-6.25992e-02,-3.90657e-02,-7.77053e-02,1.34239e-02,2.81335e-03,9.44274e-02,1.63629e-01,2.50591e-02,4.49397e-02,1.54436e-02,-1.19624e-01,-4.22361e-02,1.78376e-02,-1.46847e-02,1.04661e-02,8.55403e-02,-1.55079e-01,1.26717e-01,3.78709e-02,-7.45879e-02,3.28532e-02,1.01348e-01,-8.70437e-02,-1.64305e-01,-6.79937e-02,1.22474e-02,5.00723e-02,-2.77262e-02,-1.46263e-01,-7.22649e-02,-1.79967e-02,-1.38874e-02,-1.19320e-02,6.79865e-02,-7.49444e-02,-8.92478e-02,5.67528e-02,-1.69345e-01,-1.42352e-03,-2.58705e-02,-6.79853e-03,6.99058e-02,-1.03776e-01,-4.39071e-03,-1.72481e-01,5.33037e-02,-8.96934e-02,-1.14236e-01,-7.27061e-02,-3.27809e-02,5.74672e-02,1.43971e-01,-6.74893e-02,-7.27546e-02,5.31910e-02,-8.57102e-03,-5.66331e-02,7.06530e-02,6.68658e-02,-8.05562e-02,-8.50129e-02,-2.27655e-01,2.30366e-03,-1.07834e-01,-8.09489e-02,-3.76875e-02,-1.03151e-01,3.99887e-03,1.13462e-01,-7.40928e-02,-2.40631e-01,-1.03885e-01,4.77653e-02,6.24831e-02,1.13467e-01,-5.58760e-02,-1.75446e-01,-9.77214e-02,-3.88750e-02,-1.30085e-01,-1.31552e-02,-9.56990e-03,-7.77154e-02,-1.47333e-01,-4.73883e-02,-1.84599e-01,1.95361e-01,7.84822e-02,1.10804e-01,9.56346e-02,6.62468e-04,9.99356e-02,2.25238e-02,-1.14216e-01,-1.00273e-01,1.70415e-01,-5.03856e-02,1.66817e-01,-7.88573e-02,-1.11034e-01,-4.23417e-02,-1.83105e-02,5.12401e-02,-3.76344e-02,-7.24364e-02,-1.14062e-01,1.42935e-01,-2.05882e-01,-1.24784e-01,5.53174e-02,-1.07419e-01,-1.53142e-01,-1.10489e-02,-5.56423e-02,-6.60917e-02,-6.10618e-02,-1.19745e-01,-1.70035e-03,-1.46266e-01,-1.76827e-01,-1.22843e-01,-2.59393e-01,-1.61499e-01,-1.53570e-01,-6.82449e-02,-7.68815e-02,-2.44400e-01,-2.42580e-02,-8.64394e-02,-6.69245e-02,-1.55117e-01,-9.21839e-02,-1.29336e-01,-1.10058e-01,3.37208e-02,-1.12259e-01,-2.69729e-02,-6.69228e-02,-1.74907e-01,-1.99094e-01,-5.69123e-02,-1.72017e-01,6.74349e-02,-1.04537e-02,-1.42165e-01,-1.38483e-01,-1.19665e-01,-7.11809e-02,-3.92751e-02,-3.54013e-02,5.37077e-02,-4.25229e-02,-3.58379e-02,2.37741e-02,-3.71575e-03,7.84578e-02,1.09557e-01,-5.26840e-02,-1.07709e-01,-1.68268e-01,3.25156e-02,-2.24309e-01,-1.25073e-01,7.96075e-02,4.13117e-02,1.26209e-01,-7.03076e-02,1.33083e-01,-7.45024e-02,-8.80578e-02,1.55173e-01,6.02972e-02,-6.36956e-02,-1.12122e-01,-1.60707e-01,-1.25363e-01,-1.35124e-02,7.41303e-02,4.67963e-02,8.63204e-02,-3.85458e-02,-5.57338e-02,1.74366e-02,-4.56236e-02,7.32633e-02,-4.59606e-03,-5.84403e-02,-8.33538e-02,-1.15198e-01,-3.04753e-02,-8.05310e-02,-7.65083e-02,5.64300e-03,-8.01735e-02,-3.28351e-02,-8.31728e-04,-8.28812e-02,-1.79890e-01,4.62483e-02,-2.65764e-01,-7.36754e-02,-4.58689e-02,-1.62810e-01,-1.52081e-01,-1.74685e-01,-9.93921e-02,-1.33549e-01,-1.49619e-01,-8.69486e-02,-1.29855e-01,-7.63288e-02,-1.32158e-01,-1.64379e-01,-3.56201e-02,4.67086e-02,-2.38713e-01,-1.02389e-01,-2.38531e-03,-2.16222e-01,-1.77787e-01,-3.99982e-02,-1.87414e-01,-3.93827e-02,-1.12546e-02,-1.93493e-02,5.72020e-02,-1.23341e-01,-2.99859e-02,1.48028e-02,-1.22292e-01,-2.16076e-01,-4.12017e-02,-1.96574e-04,-1.21909e-02,-8.38407e-02,-1.46334e-01,4.09114e-02,-5.36226e-02,3.55480e-02,7.19321e-03,1.93843e-02,-2.55424e-01,-6.91532e-02,-9.35314e-02,2.23964e-02,-8.69166e-04,1.63772e-01,-1.53805e-01,2.75547e-02,-2.55033e-03,-6.60871e-02,-1.14937e-02,8.11926e-02,-8.09256e-02,9.66225e-03,-6.02340e-02,4.69003e-02,1.01747e-01,2.52054e-02,2.95220e-02,-1.33995e-01,-3.48428e-02,-4.73265e-02,-6.36033e-02,8.97069e-02,-1.12343e-01,2.93181e-02,-7.54568e-02,-1.53232e-01,3.14219e-02,-3.41838e-02,7.01591e-03,1.48385e-01,-8.72903e-02,-5.70398e-03,-1.06185e-01,1.64151e-01,-5.71113e-02,2.90377e-02,-1.61069e-01,1.49544e-02,-1.11476e-03,-2.90227e-02,-4.77893e-02,-1.66638e-01,-1.65482e-01,-1.55480e-03,2.96783e-02,-3.08465e-02,8.05856e-02,-9.60373e-02,-7.12939e-02,-2.03961e-01,-2.20338e-01,-1.70821e-01,-8.71483e-02,-5.41571e-02,-2.13236e-01,3.13165e-02,1.87002e-02,6.92090e-02,-2.08010e-02,-7.17162e-02,-3.44345e-02,-3.61630e-02,1.33072e-01,3.97721e-02,-7.80465e-02,-9.32158e-03,-9.16778e-02,-6.97000e-02,1.12651e-02,-1.82361e-01,-1.93385e-02,-1.89330e-01,-1.14144e-01,-2.03620e-01,6.21040e-02,1.05105e-01,-3.30015e-02,-1.32533e-01,1.44860e-01,3.42818e-02,-8.68015e-02,1.00938e-01,-5.91414e-03,-9.18462e-02,-3.27717e-02,-6.76311e-02,-1.16041e-01,1.22614e-01,-1.23116e-01,1.45076e-01,1.18052e-01,-3.12669e-02,-8.85577e-02,-1.02282e-01,1.21413e-01,9.64728e-02,-1.40576e-02,1.52829e-01,1.17039e-01,1.60705e-01,8.52205e-04,1.75581e-01,2.97579e-02,8.92419e-02,1.21888e-01,-2.35686e-02,2.02275e-02,2.17931e-02,1.45848e-01,-1.80056e-02,5.65630e-03,1.49121e-01,1.85658e-01,-3.70111e-02,5.32514e-02,-1.34578e-01,1.79005e-01,-7.22947e-02,-7.52839e-02,8.59843e-02,6.72860e-02,4.35825e-02,-2.07451e-02,-2.23272e-02,1.33247e-01,-1.22315e-02,6.64721e-03,-8.40288e-02,-6.02764e-02,-3.22092e-02,-7.23229e-02,-1.73405e-01,3.59088e-02,8.96746e-02,-4.00029e-02,-7.66949e-03,-1.10480e-01,2.52224e-02,-8.33186e-02,3.78455e-02,-5.85711e-02,-7.49011e-02,-6.03694e-02,5.84533e-02,-5.75768e-02,-8.48828e-02,-2.18720e-01,-1.49315e-01,2.38618e-02,-1.49803e-01,5.14205e-02,-1.67295e-02,2.51458e-02,1.07665e-02,-1.03972e-01,-7.89043e-02,-1.07143e-01,-1.70691e-01,-3.56713e-02,-1.88135e-01,1.19632e-01,-1.47663e-01,-5.45596e-02,-1.13252e-01,-7.43219e-02,6.24403e-02,-1.02639e-02,-6.70616e-02,-1.61062e-01,-7.47384e-03,2.62976e-02,-1.60501e-01,1.32778e-03,3.61853e-02,-4.56994e-02,-1.82303e-02,1.16159e-01,8.60724e-02,-3.88561e-02,3.16547e-02,1.87899e-01,1.15992e-01,-2.30616e-01,-4.14675e-02,-1.10518e-01,-8.64912e-02,1.71799e-01,1.67069e-02,-8.79745e-02,-7.00427e-02,-1.54574e-03,2.95795e-02,2.13637e-02,1.77411e-01,-4.97743e-02,2.05560e-01,1.28349e-01,-9.60490e-02,2.31041e-02,-8.91514e-02,-3.53164e-02,-1.14855e-02,2.06174e-02,8.11382e-03,3.44664e-02,4.52255e-02,1.32004e-02,2.05442e-01,1.21129e-01,6.84558e-02,-1.14458e-01,1.11067e-01,2.09023e-01,-2.93907e-02,5.25850e-02,1.18453e-01,1.12577e-01,4.70112e-02,-6.94526e-02,-9.94538e-02,8.06534e-02,9.44813e-02,1.26861e-01,5.63872e-02,-1.00692e-03,-3.03683e-02,-4.08498e-02,1.27641e-01,1.43848e-01,9.92013e-02,-2.01511e-03,2.51672e-02,1.62459e-01,6.90083e-02,7.40543e-02,2.46907e-02,-1.95488e-02,9.06245e-02,3.47651e-02,1.16758e-01,1.38861e-01,1.00329e-01,-7.25877e-03,-1.09683e-01,8.54614e-02,5.19342e-02,1.63549e-01,3.19264e-02,4.65308e-02,3.05903e-02,5.88058e-02,-3.75100e-02,1.04173e-01,-7.85963e-02,1.33087e-01,-1.53459e-01,-1.40269e-01,-2.04710e-01,-9.45162e-02,-7.85795e-02,1.64807e-01,5.35359e-02,4.75442e-02,2.93182e-02,9.84582e-05,-5.84280e-02,-1.42897e-02,-6.73408e-03,2.99745e-02,-7.42393e-02,1.73833e-01,5.00690e-02,4.84938e-02,-3.59437e-03,-9.55335e-02,8.26445e-02,1.17858e-01,5.20588e-02,1.01874e-01,1.39766e-01,1.14205e-01,-4.17369e-02,1.30392e-02,2.95512e-02,-8.21439e-03,1.67329e-02,-1.69674e-01,-7.27600e-02,7.60580e-02,-7.79925e-02,1.12942e-02,2.17751e-01,-1.41708e-01,-8.08269e-04,-1.20864e-02,-1.16366e-01,-1.46257e-01,2.28697e-03,2.31753e-02,-2.14936e-02,3.30368e-02,2.21354e-01,-2.84722e-02,1.42171e-01,1.17337e-01,-1.16464e-01,1.98108e-02,-9.54932e-02,7.06391e-02,1.42967e-01,7.92954e-02,2.43386e-02,-3.40401e-02,1.23481e-01,1.67516e-01,6.16282e-02,-5.90052e-02,5.76216e-02,-1.67955e-01,-3.18724e-02,1.12181e-01,-1.89166e-01,8.81926e-02,2.37815e-02,-3.81018e-02,7.22389e-02,5.27252e-02,4.84273e-02,-1.24813e-01,-9.89249e-02,8.75506e-02,1.72867e-01,1.14336e-01,-4.51084e-02,1.25053e-01,-1.04830e-01,-3.11615e-02,-1.26566e-01,-7.61600e-02,1.07992e-01,3.84850e-02,-4.83312e-02,2.88758e-02,-2.12486e-01,-5.65429e-03,-1.29872e-03,-1.00904e-03,9.24120e-03,1.68322e-01,-9.64102e-02,-1.24171e-01,-3.01402e-02,-5.72678e-02,-1.72547e-01,-3.34015e-02,1.49842e-01,2.92945e-02,1.71492e-01,5.25931e-03,-1.32723e-01,6.87382e-02,-3.97653e-03,6.22427e-03,6.58855e-02,1.38509e-01,4.66591e-02,2.46293e-02,-1.22547e-01,-4.71080e-02,-3.92202e-02,1.12387e-01,6.66958e-02,1.15967e-02,1.30095e-01,1.04980e-01,1.54597e-01,8.10282e-02,1.31376e-01,-4.88646e-02,2.51369e-02,-1.81632e-02,3.14753e-02,6.17615e-02,1.30484e-01,1.54731e-01,-4.09671e-02,1.62866e-01,9.68580e-02,7.27217e-02,1.08243e-01,3.40840e-02,-4.95844e-02,2.10242e-01,-2.69909e-03,1.28674e-01,8.87161e-02,1.24889e-01,7.69899e-02,-4.81875e-02,1.48674e-01,2.32337e-02,1.21251e-01,-8.75176e-02,4.86525e-02,-1.63215e-01,-1.57581e-01,9.71066e-02,1.66949e-01,4.74348e-02,-7.91083e-02,-1.30400e-01,-8.15854e-02,1.24738e-01,-6.33218e-02,1.10618e-01,-4.92929e-02,-4.84961e-02,-5.01226e-02,-1.35230e-01,7.56726e-02,1.06786e-01,-3.78586e-02,1.80157e-01,2.85326e-02,7.64833e-02,-5.31283e-02,8.50947e-02,-1.85175e-01,-3.18361e-02,-6.98525e-02,1.11962e-06,-2.77009e-02,2.36132e-01,1.21176e-01,4.20295e-02,-1.38034e-01,8.97626e-02,1.32993e-01,1.38156e-02,2.24496e-02,-1.36904e-01,1.36527e-01,5.62204e-02,1.40560e-01,-8.42611e-02,-9.79986e-02,7.90776e-02,2.34988e-01,9.00488e-02,-3.78100e-02,9.41899e-02,-2.35456e-02,1.60890e-01,-5.44659e-02,7.42085e-02,2.20608e-03,9.89093e-02,5.66919e-02,8.25153e-02,-4.17416e-03,4.49738e-02,-6.54727e-02,-5.89536e-02,-7.92578e-02,-2.49664e-02,6.41200e-02,-2.84484e-02,6.10704e-02,1.73455e-01,2.82483e-02,9.53332e-02,5.43480e-02,7.28378e-02,1.94189e-01,2.89170e-02,-7.53055e-02,7.60763e-02,-4.07821e-03,-6.82817e-02,-6.33196e-02,1.32334e-01,1.63107e-01,-9.08339e-02,-1.50465e-01,1.13070e-01,-5.94500e-02,4.86494e-02,2.39383e-02,-4.34465e-02,-3.70744e-02,-1.25164e-02,8.47689e-02,3.00481e-02,-6.59012e-02,7.19890e-02,-3.74506e-02,-8.29652e-02,-1.33592e-01,-1.06039e-01,1.30961e-01,-3.86865e-02,-1.50779e-01,2.42656e-02,1.60265e-01,-7.64886e-04,8.04155e-02,-2.04957e-02,-4.16433e-02,-5.80556e-02,6.61795e-02,-4.85451e-02,-3.87970e-02,-7.05521e-02,-4.88358e-02,-1.08845e-01,-2.71219e-02,1.11123e-01,6.04364e-02,-1.06573e-01,-8.93201e-02,1.30750e-01,5.12502e-02,8.92563e-04,1.81102e-01,4.97254e-02,1.22230e-01,1.34163e-01,7.12400e-02,2.78616e-02,1.33058e-01,-2.15492e-03,1.09664e-01,-4.31895e-02,7.50242e-02,4.90178e-02,1.44450e-02,-7.94441e-02,7.66275e-02,1.28139e-01,1.41284e-02,1.06861e-01,8.79789e-02,-6.75710e-02,7.67432e-02,1.05067e-01,1.20563e-01,-1.22830e-02,-8.59115e-02,1.68978e-01,1.05996e-01,-1.50585e-01,-1.04825e-01,8.04595e-02,1.05555e-01,-2.50022e-02,1.79425e-01,8.60135e-02,-2.99969e-02,1.80658e-01,1.15927e-02,3.90666e-02,-3.96955e-02,2.06382e-01,1.73667e-01,1.14040e-01,3.92960e-02,4.06472e-03,-9.98390e-02,1.91451e-01,4.89256e-02,8.58059e-03,1.15715e-01,-1.15789e-01,-4.78896e-02,-7.64389e-03,5.00658e-02,7.47787e-02,4.49821e-02,-3.46507e-02,1.83534e-01,-7.28392e-04,-4.45267e-02,1.40372e-02,1.42743e-01,6.94177e-02,3.95444e-02,-4.01193e-02,4.24468e-02,-3.13800e-02,1.32410e-01,-1.29830e-01,1.04008e-01,-4.86458e-02,9.53215e-02,-6.60252e-03,-2.61686e-01,-9.04690e-02,1.19795e-01,-7.33564e-02,1.23312e-02,-1.30132e-01,4.24232e-02,-1.18104e-02,-1.00904e-01,7.03679e-02,6.12341e-02,-2.64990e-03,7.56777e-02,1.38640e-01,-1.03502e-01,6.42282e-02,1.23467e-01,2.62684e-01,6.85002e-02,1.64621e-01,9.97935e-02,6.92944e-02,-8.36410e-02,9.55253e-02,2.55893e-01,3.37048e-02,-6.45015e-02,1.24050e-01,8.34236e-02,8.94353e-02,1.82060e-01,1.96064e-01,1.48501e-01,1.02695e-01,1.34024e-01,6.13502e-02,3.73445e-02,5.80070e-02,-3.90122e-02,1.36941e-01,1.33688e-01,5.62042e-02,1.21194e-01,-1.15796e-01,2.99965e-02,-8.55104e-02,5.94112e-02,1.43088e-01,-6.52567e-03,2.94875e-02,-1.27285e-01,-3.84258e-02,1.71250e-01,-3.82959e-02,1.86418e-01,-1.67025e-02,2.11354e-01,1.25220e-01,-6.24384e-02,-3.52839e-02,-5.20458e-03,9.74718e-02,3.02477e-02,7.66465e-02,-2.77876e-02,1.35626e-02,6.10642e-02,9.88940e-02,6.56449e-02,1.46129e-01,-1.59198e-01,3.44533e-02,1.08367e-01,-5.69887e-02,2.22640e-02,3.95426e-02,4.16145e-03,-4.11238e-02,3.40485e-02,1.34286e-01,1.17702e-01,-1.53790e-01,1.45058e-02,-1.57048e-01,-3.84374e-02,2.25812e-03,-5.70553e-02,1.13373e-01,-1.49502e-01,1.13794e-02,3.93353e-02,-1.40292e-02,-1.23372e-02,1.54749e-01,1.58873e-02,3.07979e-02,7.87123e-03,-3.60299e-02,-1.02080e-01,1.07819e-01,9.21206e-02,-2.92717e-03,-1.00642e-01,1.68635e-02,7.25270e-02,-2.00863e-02,8.71167e-02,1.97466e-01,5.19006e-02,5.93733e-02,2.29195e-01,2.23650e-01,-6.23914e-02,1.74186e-02,-4.14581e-02,2.59511e-01,-4.66698e-02,9.96186e-02,-3.54474e-02,1.58624e-01,1.96443e-01,1.43117e-01,1.92361e-01,2.00235e-02,1.01131e-01,-1.26212e-01,-6.17220e-02,9.78208e-02,1.71655e-01,-5.49662e-02,-1.90884e-01,-1.23227e-01,1.82478e-02,-7.99794e-02,-1.70228e-04,-6.27910e-02,1.22107e-01,-1.44818e-01,1.40200e-01,-9.85801e-02,5.36158e-02,-7.06650e-02,1.40575e-01,2.06642e-02,2.11514e-01,-1.36606e-01,-4.41917e-02,2.74145e-02,6.82573e-02,-1.00061e-01,1.00342e-01,6.79143e-03,6.81465e-02,2.04385e-03,1.96459e-01,-1.40573e-01,-8.99746e-02,7.45282e-02,5.33952e-02,1.11952e-01,7.20356e-02,6.54010e-02,-7.35627e-03,-1.56740e-02,6.29728e-02,1.99955e-01,-7.87168e-02,1.36284e-01,-1.25610e-01,1.52638e-01,-2.00610e-02,8.70304e-02,-1.05706e-01,-4.81460e-02,1.06255e-01,1.00798e-01,-4.54637e-02,7.04802e-02,-1.16199e-01,1.19461e-01,4.46263e-02,-6.07439e-02,-6.55105e-02,7.77128e-02,3.47973e-02,7.82098e-02,9.27409e-02,1.48089e-01,1.14914e-01,8.49245e-02,3.63816e-02,-6.83070e-03,7.04352e-03,-5.52852e-02,8.80523e-02,-1.80823e-02,-9.44795e-02,-1.13296e-01,5.44242e-02,-1.57607e-02,5.93002e-02,-3.59150e-02,-8.75686e-02,5.53020e-02,-1.42257e-02,-6.09014e-02,-8.21828e-02,-7.49360e-02,4.44183e-02,-5.89786e-02,-1.45845e-01,-6.04861e-02,-1.58173e-01,-5.82945e-02,-1.64132e-01,-3.91662e-02,-1.04181e-01,-7.20176e-02,-1.87189e-01,-5.04846e-02,-8.46482e-02,-9.13923e-02,5.03603e-02,-8.08974e-04,7.38619e-02,-2.02417e-02,1.43853e-01,3.68531e-02,1.35039e-02,-3.09764e-02,-3.73483e-02,-3.65430e-03,4.52578e-02,9.42282e-04,8.11695e-02,1.79518e-02,-4.34126e-02,-1.91227e-02,-1.02621e-01,1.69320e-01,8.18564e-02,1.74870e-01,1.04966e-01,-6.40977e-02,1.39348e-01,3.96848e-02,-5.93983e-02,-7.10509e-02,-1.02843e-01,-8.19904e-02,-6.47787e-02,-6.53362e-04,-5.17961e-02,1.04272e-01,1.13885e-01,-9.32219e-02,-4.49435e-02,7.91478e-02,-1.36168e-01,-1.22626e-01,4.08983e-02,1.79157e-01,7.08882e-03,1.66995e-01,-3.71811e-02,9.90814e-02,-6.93711e-02,1.21856e-01,1.52225e-01,-1.03047e-01,6.96282e-03,-1.24141e-01,-2.44180e-02,-2.98699e-02,-5.47332e-02,3.49340e-02,5.85291e-02,1.56860e-02,3.12732e-03,1.22347e-01,-7.76611e-02,7.82731e-02,-5.65650e-02,-1.18031e-01,-6.77389e-02,-1.93684e-02,-6.09284e-02,-1.73823e-01,-1.41068e-01,2.28527e-02,2.91613e-02,-1.14834e-01,4.26221e-02,7.59864e-02,-7.92086e-02,-2.06042e-01,-6.20855e-03,1.53286e-02,-1.66163e-01,-1.47518e-01,-1.08807e-01,-1.85419e-02,3.68698e-03,-8.17173e-02,2.33234e-02,8.48856e-03,4.33159e-02,-3.00933e-02,-8.06475e-02,1.10427e-01,1.40724e-01,8.29944e-02,8.42081e-02,1.75662e-01,4.69014e-02,2.43010e-01,7.78530e-02,-1.05203e-01,5.35761e-02,1.16496e-01,4.28588e-03,3.39324e-02,4.68097e-02,-3.82345e-02,1.67556e-01,1.82704e-02,-5.06740e-03,5.61385e-02,-3.52244e-02,1.83219e-01,1.08609e-01,-8.10462e-02,-3.78139e-02,1.60084e-02,-7.87834e-02,-6.15871e-02,-6.18618e-02,-1.94297e-01,-1.08746e-03,3.63926e-02,-2.43169e-01,8.07862e-02,1.06592e-02,4.52515e-02,-3.00025e-02,1.73118e-01,-8.90857e-02,1.70189e-02,2.42301e-02,-3.05656e-02,-4.48927e-03,9.77732e-02,-2.23791e-02,-1.57364e-01,4.33624e-02,-1.34573e-02,3.42052e-02,6.37288e-02,1.37721e-01,1.93566e-02,5.70023e-02,-4.59907e-02,-1.83256e-01,-3.41892e-02,-1.17999e-01,5.46887e-02,8.94698e-02,-1.42825e-01,-2.42909e-02,-8.25242e-02,4.50159e-03,-1.75790e-01,-1.23766e-01,-2.33784e-01,-2.61372e-01,-5.86493e-02,-1.35865e-01,-4.97125e-02,-7.11897e-02,-2.16049e-01,-1.08300e-01,-1.68411e-01,6.37316e-02,4.72211e-02,-5.18363e-02,-8.42793e-03,1.30907e-01,-1.23471e-01,-7.26965e-02,1.79516e-02,5.51749e-02,1.16536e-01,2.80564e-02,9.25129e-02,8.83374e-02,2.62162e-03,-3.45621e-02,1.04799e-01,2.44635e-01,1.61614e-01,3.56055e-02,9.83081e-02,-1.91700e-02,-1.08955e-01,-8.09170e-02,1.78529e-01,-5.57589e-02,-1.18725e-01,-3.67725e-02,-4.51226e-02,-1.04031e-03,1.22118e-01,-2.91904e-02,1.04463e-01,-1.24058e-01,-3.19652e-03,3.07598e-02,1.48191e-03,-2.04345e-01,1.83115e-02,1.81888e-02,-1.82724e-01,-1.62748e-01,-8.02561e-02,1.11637e-01,-1.92509e-01,-1.38834e-01,1.95972e-03,-1.00070e-01,5.54054e-02,-1.22644e-01,1.79577e-01,7.51561e-02,2.96012e-02,1.18133e-01,-9.85171e-02,-1.42138e-01,-1.03500e-01,-9.45144e-02,1.07895e-01,4.41428e-02,-1.36020e-01,-2.49026e-01,-8.46894e-02,1.43193e-02,-6.82101e-02,-1.14417e-02,7.92766e-03,-5.46909e-02,-2.07232e-01,-1.18409e-01,-2.39388e-01,7.42746e-02,-1.61433e-02,-8.26053e-05,4.55215e-02,-6.47219e-02,-1.39940e-01,6.15618e-02,-1.55906e-02,5.13177e-03,-1.17690e-01,-1.21181e-01,3.45930e-02,-7.44151e-02,-5.84592e-02,-3.19454e-02,1.16025e-02,1.45018e-01,4.71954e-02,1.10804e-01,2.68103e-03,-1.14135e-01,-4.89447e-03,1.37382e-01,7.99996e-02,2.75356e-02,-1.27080e-01,5.69774e-02,2.08943e-02,-2.32240e-02,2.85544e-02,2.60238e-02,-1.54159e-02,4.61932e-02,1.03533e-01,-2.15078e-02,-3.82016e-02,-5.94372e-02,8.18857e-02,-2.54214e-01,7.12508e-03,6.19164e-02,6.07109e-02,-1.22531e-01,-7.99539e-02,-1.81322e-02,-3.66920e-02,-1.48054e-01,5.70181e-02,-7.74995e-02,-9.82919e-02,-5.77300e-02,-1.91268e-01,-9.50179e-02,-2.82722e-02,-1.34250e-01,-1.15709e-01,1.69228e-02,-9.29372e-02,-1.61323e-01,-2.55771e-02,-9.12493e-02,1.15441e-01,7.35111e-02,-1.05718e-01,-1.33186e-01,1.02380e-01,-1.03582e-01,4.58796e-02,4.91731e-02,1.63872e-01,-1.92152e-02,-5.84128e-03,-2.00115e-01,-8.73135e-02,-9.13979e-02,6.87250e-02,-2.15641e-01,-1.54788e-01,-8.99994e-02,-1.88354e-01,-4.73710e-02,-2.25435e-01,-2.27950e-01,-1.92116e-01,-5.01210e-02,-1.52950e-01,-1.93863e-02,1.16553e-02,1.39056e-01,1.40281e-01,-6.82392e-02,-9.16118e-02,-1.18520e-02,7.86519e-02,5.15991e-02,-1.04600e-01,6.64722e-02,8.31037e-02,6.49861e-02,1.68251e-01,6.00369e-02,7.39148e-02,-8.75469e-03,2.29435e-01,1.03345e-01,1.43574e-01,8.94967e-02,1.33565e-01,1.14031e-01,1.41205e-01,-5.86846e-02,-2.94658e-02,8.76168e-02,-3.21893e-02,8.55594e-02,9.52478e-03,8.72000e-03,4.54431e-02,-1.18854e-01,8.86494e-02,-1.28481e-01,1.22256e-01,-2.87442e-02,-1.35716e-01,-1.49835e-02,-5.57996e-02,3.37678e-02,-1.99264e-01,-7.07248e-02,-1.46556e-02,-2.08495e-01,-9.35474e-02,-1.56010e-01,-1.07133e-02,-1.67699e-01,-4.85728e-02,5.92269e-02,-9.33707e-02,-1.52654e-01,-1.15588e-01,5.03217e-02,-7.08451e-03,-1.68286e-01,-8.63427e-02,-1.90535e-01,6.72528e-02,1.00454e-02,4.76488e-02,-1.16706e-01,2.66112e-02,1.73527e-01,1.14986e-01,-1.72339e-03,-1.66202e-01,7.80474e-02,5.31558e-03,8.12195e-02,-1.25649e-01,-4.76671e-02,-1.00411e-01,-4.23161e-02,-1.30491e-01,-6.82923e-03,-2.59351e-01,-9.52531e-02,-1.90454e-01,-2.39865e-01,-1.34990e-01,-2.47249e-01,-2.05749e-01,8.73961e-02,9.07391e-02,-4.76970e-02,-1.42523e-02,-1.84091e-02,-1.63353e-01,1.08809e-01,7.34953e-02,-1.01550e-01,1.12555e-01,-1.58690e-02,-9.18462e-02,1.30962e-01,-8.23213e-02,1.13659e-01,7.13653e-02,8.97695e-02,7.11360e-02,-3.74205e-02,1.92203e-02,7.44375e-02,-2.48669e-02,9.08962e-02,9.85505e-02,-2.41075e-02,-9.20315e-02,2.28189e-02,1.74139e-02,4.82951e-02,9.66792e-02,8.48835e-02,5.53727e-02,6.42887e-02,-1.71724e-01,-5.42409e-02,6.36165e-02,-1.36721e-01,-8.75668e-02,1.10410e-01,-1.37340e-01,-2.09448e-01,-4.98610e-02,6.03238e-02,-7.46988e-02,-1.34456e-01,-1.83439e-01,2.14883e-02,-1.24323e-01,-3.48604e-02,-5.17952e-02,-1.78309e-02,-7.42771e-02,-1.52223e-01,3.96652e-02,4.47034e-02,1.65356e-01,2.90134e-02,9.42524e-02,-6.40708e-02,-5.38266e-02,1.13320e-02,4.72542e-02,-5.58827e-02,2.25134e-01,-1.08499e-01,3.03603e-02,-1.53945e-05,-9.41801e-02,-1.15425e-01,-1.80823e-01,1.37401e-01,-3.07508e-02,-6.08024e-02,-1.88595e-01,-5.18906e-02,-2.43963e-01,-1.73726e-01,6.33703e-02,8.01165e-03,-2.17335e-01,-6.05173e-03,1.18910e-02,2.83308e-02,-5.59527e-02,7.08564e-02,-2.52882e-02,-3.77990e-02,4.33679e-02,-1.47042e-01,-1.23262e-01,-1.52876e-01,9.95803e-02,-3.27842e-02,1.25644e-01,-5.42365e-02,1.07676e-01,5.76084e-02,-4.78563e-02,-1.19417e-01,-1.52802e-02,2.37953e-01,8.63516e-02,9.28660e-02,-4.52102e-02,6.91997e-03,4.58666e-02,-1.22420e-02,-1.92106e-01,-1.65478e-01,-4.14608e-02,-8.02249e-02,-9.68316e-02,3.18777e-02,3.51289e-02,-1.07607e-01,-5.25264e-02,-1.20940e-01,-1.70307e-02,-5.22009e-02,-3.47476e-02,-6.90221e-02,4.30660e-02,9.82753e-03,-1.12128e-01,-2.11037e-01,-1.42246e-01,-1.87632e-01,-1.15235e-01,-3.44503e-02,-1.55001e-01,-5.25058e-02,-1.07881e-01,-2.04202e-01,-2.49108e-01,-1.15781e-01,-4.87891e-03,-2.00010e-01,1.13529e-01,5.91621e-02,-1.49168e-01,-1.76786e-01,-8.88642e-02,1.55350e-01,2.36693e-02,8.54308e-02,3.14304e-02,1.09285e-01,2.86223e-02,-1.93826e-02,-1.51837e-01,-1.95960e-01,-1.08362e-01,-1.87714e-01,6.66207e-02,-1.46332e-01,3.57690e-02,-1.56779e-02,-2.29202e-01,-1.18711e-01,-1.93461e-01,-1.67662e-01,-1.69609e-01,4.13328e-02,1.80187e-02,-7.45604e-02,9.12980e-02,1.96864e-02,4.31469e-02,-4.82712e-02,-4.91875e-02,1.50272e-02,-3.63304e-02,4.03656e-02,-5.68468e-02,-2.02718e-02,7.17031e-02,7.01994e-02,6.87788e-02,-1.31264e-01,-7.29875e-02,-8.64243e-02,-4.56961e-02,5.38476e-03,1.44303e-01,7.73729e-02,6.92254e-02,-7.04116e-02,-1.23412e-01,2.37845e-02,9.87345e-03,-1.01194e-01,-8.62880e-02,-3.93911e-02,-4.39854e-02,-7.72033e-03,-3.80913e-02,-5.89244e-02,-1.75278e-01,-1.31555e-01,-1.49947e-01,-1.08038e-01,-7.45977e-02,-2.09167e-02,-2.02741e-02,-1.24345e-01,-1.21243e-01,1.20815e-01,-1.81876e-01,-8.52472e-02,-5.47974e-02,-3.72575e-02,-5.52234e-02,1.81416e-02,-1.45825e-01,9.83189e-02,-1.16779e-01,-7.51094e-02,-1.16049e-01,-9.22256e-02,1.06600e-02,-6.36136e-02,1.00643e-01,-1.22813e-01,-7.32614e-04,1.81745e-02,6.13184e-02,1.31709e-02,1.33461e-01,1.55637e-02,-1.43864e-01,-8.03346e-02,-3.23545e-02,-1.91002e-01,6.16903e-02,-1.54370e-02,4.63013e-02,-1.55432e-01,-1.12623e-01,-9.69414e-03,-9.80657e-02,-4.82706e-02,3.46846e-02,-5.48080e-02,-1.41043e-01,-3.85477e-02,-8.83030e-02,-5.04666e-03,-4.77103e-02,-9.50385e-02,3.64502e-02,-9.71539e-02,1.72392e-02,-7.78059e-02,-2.98380e-02,-1.48063e-01,2.16939e-03,-4.77754e-02,-9.20925e-02,-1.00519e-01,8.04596e-02,-4.20824e-03,-3.42861e-02,-5.57124e-02,2.69650e-02,8.16167e-02,7.66272e-02,-8.64673e-02,3.89666e-02,1.37402e-01,9.68980e-02,1.48567e-01,-1.18568e-01,-9.87373e-02,6.91668e-03,5.98358e-02,-1.23877e-01,9.35303e-03,-1.02058e-01,1.69431e-01,-2.49579e-02,-7.78150e-02,-7.87063e-02,-2.06994e-01,3.53059e-03,-4.13453e-02,-1.20422e-01,-1.78611e-01,-1.02965e-01,-2.10595e-02,-9.40429e-02,-1.18519e-01,-3.20355e-02,1.00171e-01,3.31116e-02,-2.46972e-01,3.42096e-03,-1.69324e-02,-4.80621e-02,2.09297e-03,-4.92145e-02,-1.84336e-01,5.92894e-04,-6.33521e-02,-8.72179e-02,-2.02045e-01,1.55459e-02,-1.36988e-01,-6.69830e-02,-5.22841e-02,-8.42969e-02,1.01236e-03,4.98580e-02,-2.69479e-02,-1.16249e-01,-2.73544e-02,3.30223e-03,1.85859e-01,5.44235e-02,-2.09113e-01,1.78893e-02,-1.78015e-01,-1.84823e-01,-8.95773e-03,-5.93751e-02,1.61809e-03,-1.43259e-02,9.60188e-02,-1.43847e-01,-2.57883e-02,8.64761e-02,-1.08173e-01,-8.68540e-04,9.84565e-02,-5.59633e-02,-2.33747e-02,1.38796e-01,-1.80111e-01,1.12937e-01,-4.76923e-02,1.59144e-02,6.98076e-02,-4.88759e-02,4.37585e-03,-2.02469e-02,2.09588e-02,-2.62573e-03,-1.95563e-01,1.65132e-01,1.15835e-01,-7.15084e-03,1.99501e-01,-9.42370e-03,1.00857e-01,-5.18874e-02,-1.62865e-02,5.51339e-03,1.24402e-01,2.09002e-01,-1.95034e-02,1.94332e-01,-4.18487e-02,1.10350e-02,-8.35338e-02,-5.28727e-02,1.75514e-02,1.02710e-01,-1.03345e-04,-6.88004e-05,5.58042e-02,-1.43835e-02,-1.52668e-01,-3.46206e-02,-8.15013e-02,-1.10702e-01,-3.66201e-02,-5.47841e-02,2.78259e-02,1.11686e-01,3.89330e-02,1.58135e-01,-3.74894e-02,-1.23887e-01,-1.15569e-01,-1.77829e-02,-1.54130e-01,-1.69025e-02,2.65210e-02,3.66604e-02,-8.60039e-03,3.99866e-02,4.35559e-02,7.13199e-02,-4.81598e-02,2.84726e-02,1.15775e-02,-2.34671e-02,-4.49963e-02,5.25733e-02,-1.73217e-01,-1.18323e-01,1.20151e-02,-7.30809e-02,-5.31928e-02,-1.21596e-01,-1.54744e-01,-7.89137e-02,-6.60633e-02,-1.68874e-01,-1.72193e-01,3.87790e-02,-9.69425e-02,7.83313e-03,6.84550e-02,-1.19589e-01,1.63675e-01,9.42976e-02,-1.06045e-01,-5.85880e-02,4.20217e-02,7.65393e-02,2.13920e-02,1.10086e-01,6.47853e-02,-1.73977e-01,7.42094e-02,9.97945e-02,-7.76275e-02,2.88369e-02,-1.06872e-01,9.23728e-03,-6.61302e-02,3.88147e-02,5.62909e-02,-4.69501e-02,3.07060e-02,-6.69831e-02,-4.80691e-02,-1.91013e-01,2.27342e-02,3.47157e-02,-1.49944e-02,-3.89462e-02,-5.73837e-03,5.75082e-02,-9.26684e-02,-1.06468e-01,8.12080e-03,-8.18886e-02,-7.94651e-02,-1.03462e-01,-1.17600e-01,1.13054e-01,4.40386e-02,-2.07674e-02,-6.48643e-02,-7.49945e-02,-7.27308e-02,-2.33225e-02,-6.64400e-02,8.37791e-02,-5.20184e-02,-1.08124e-01,-7.26109e-02,1.51439e-01,-6.42598e-02,2.65188e-02,5.15172e-02,2.94640e-03,-8.96228e-02,1.20763e-01,-7.69262e-02,6.93219e-02,-1.09041e-01,-7.06561e-02,-6.29568e-02,1.49453e-01,-1.92422e-02,-1.71610e-01,4.61152e-02,-1.63257e-02,-1.16721e-01,-1.09131e-01,-1.13182e-02,7.31645e-02,-1.08169e-01,6.45055e-02,-3.77212e-02,1.49677e-02,-1.66589e-01,-1.75207e-01,-4.47758e-02,3.58022e-02,-2.10942e-02,1.10003e-01,7.39549e-02,-6.44409e-03,-4.36347e-02,7.69362e-02,8.77186e-02,9.86500e-02,1.83552e-01,-2.81328e-02,-1.47684e-01,-9.60944e-02,2.91261e-02,-4.49998e-02,1.03901e-01,6.35110e-04,6.62752e-02,-5.32890e-03,-3.13640e-02,-1.11646e-01,1.29728e-02,-2.27109e-02,1.04177e-01,-4.95909e-02,1.09239e-01,1.68510e-01,-1.37004e-01,1.01447e-02,8.17640e-02,5.05682e-02,1.37652e-01,1.10405e-01,5.75371e-02,2.25263e-01,1.51326e-02,4.11585e-02,-1.29084e-01,7.00421e-02,1.17114e-01,2.48903e-03,-1.03686e-01,-1.06566e-01,3.59894e-03,6.60330e-02,4.18977e-02,7.87528e-03,3.84863e-03,-1.19194e-01,-2.02440e-02,-1.37737e-01,8.30282e-02,2.45120e-02,-2.13969e-02,3.04838e-02,-4.18348e-02,2.02429e-01,1.05837e-01,-6.31972e-02,-6.88212e-02,-8.57357e-02,-1.54068e-01,-9.32218e-02,-1.03860e-01,-4.35707e-02,4.94699e-02,8.23439e-03,5.53071e-02,6.28187e-02,-3.09036e-02,-3.86418e-02,-1.00277e-01,2.66501e-02,-4.10574e-03,-1.55613e-02,-1.88390e-02,-1.42317e-01,-5.38736e-03,-7.64870e-02,-5.77831e-02,-2.58959e-02,-3.31946e-02,4.16058e-02,-1.46673e-01,1.44389e-01,-3.16140e-02,9.27959e-02,1.60980e-01,1.95262e-01,2.29526e-01,-5.15469e-02,-1.56511e-02,1.61582e-01,1.54577e-01,-1.51993e-01,7.68077e-02,1.56851e-02,1.04981e-03,7.96846e-02,1.63611e-01,1.44714e-01,1.59903e-01,2.05093e-03,1.70695e-01,9.89214e-02,1.87397e-01,-2.84426e-03,4.09839e-02,1.30608e-01,2.97348e-02,1.58087e-01,-1.21772e-01,1.76718e-01,1.46756e-01,9.41012e-02,-7.33160e-02,8.32373e-02,1.24747e-01,-3.68907e-02,-1.23980e-02,1.28279e-01,1.52183e-01,6.27994e-02,-9.12670e-02,4.26386e-02,4.69338e-02,-1.32904e-02,1.59930e-01,-5.11454e-02,-5.83589e-02,2.05218e-01,-1.28544e-01,-8.05539e-02,1.13503e-01,2.02869e-01,5.92050e-02,-2.26513e-02,8.38803e-02,-5.17805e-02,4.78472e-02,-1.20985e-01,-2.89012e-02,-2.47235e-02,-3.08014e-02,2.11062e-02,6.29479e-05,-1.05858e-01,1.58700e-01,-7.41734e-02,-1.93544e-02,-5.61905e-02,-4.72024e-02,-1.57761e-01,1.72740e-02,3.06745e-02,1.67221e-01,9.10710e-02,5.58786e-02,1.05306e-02,1.21825e-01,-1.83713e-02,-3.87047e-02,-5.45699e-03,-1.28657e-01,3.34042e-02,1.33714e-02,-1.54670e-02,6.74163e-02,2.16759e-03,6.39697e-02,7.13303e-02,-2.02629e-01,-1.58138e-01,-1.25139e-01,-7.83290e-02,9.68061e-03,6.65547e-02,6.77332e-02,3.82833e-02,7.76025e-02,3.73013e-02,-8.99070e-02,1.37440e-02,2.71748e-01,3.08241e-02,1.71990e-01,2.78710e-01,5.82640e-02,1.71379e-01,6.75288e-02,5.95699e-02,-6.01723e-02,1.63278e-01,2.59267e-02,1.02121e-01,8.41649e-02,1.62415e-01,7.46944e-02,5.79411e-02,1.91849e-01,2.46690e-01,1.58235e-01,2.19978e-01,5.03616e-02,2.88092e-02,2.10789e-01,1.12615e-01,1.29928e-01,1.22168e-02,8.35936e-02,7.85399e-02,7.54171e-02,1.40082e-01,-1.45012e-01,1.48988e-01,1.68921e-01,4.91102e-02,-5.57572e-02,-1.94699e-02,-4.87691e-02,-2.47447e-02,2.58777e-03,-3.05790e-02,1.12968e-01,-1.17724e-01,2.11314e-01,4.81085e-02,-1.59221e-01,1.12096e-01,-3.89906e-02,-1.67612e-01,1.11379e-02,1.39932e-01,2.17592e-02,3.06165e-02,-5.57229e-03,1.36402e-01,-3.63816e-02,1.10337e-01,-9.08756e-02,1.87588e-01,-1.13767e-01,1.22094e-01,2.58100e-04,-7.13515e-02,-7.72885e-02,3.49294e-02,-4.85131e-02,-2.80714e-02,1.49212e-02,6.88443e-02,1.67785e-02,-4.23208e-02,1.98942e-01,1.03522e-01,6.09320e-02,1.29519e-01,-6.15189e-04,1.61147e-01,-6.36710e-02,2.18361e-01,-6.90091e-02,8.76501e-02,6.90071e-02,1.68447e-01,1.50018e-01,4.67990e-02,1.42699e-01,1.19059e-01,1.60124e-01,2.14276e-01,-9.35256e-03,1.85898e-01,2.08663e-01,-3.91419e-02,2.80654e-05,1.57642e-01,1.55470e-01,9.95703e-02,1.27723e-01,9.60881e-02,1.92517e-01,1.46699e-01,1.16681e-01,2.15578e-01,-3.91389e-02,7.30366e-02,1.29031e-01,1.04861e-01,6.98159e-02,9.13388e-02,-6.23074e-03,1.77952e-01,-4.35983e-03,2.62235e-01,2.75978e-02,7.03942e-02,1.77320e-01,2.58355e-01,7.13658e-02,2.33537e-01,2.36804e-02,1.32510e-01,-4.56519e-02,1.49349e-01,6.25843e-02,9.15054e-02,-1.69678e-02,1.58164e-02,3.74053e-02,9.40185e-02,7.95070e-02,-4.23269e-02,-3.76520e-02,7.84008e-02,1.35466e-02,-6.15268e-02,-7.02598e-02,9.04325e-03,1.07296e-01,-9.59844e-02,4.73307e-02,6.97060e-02,-3.53156e-02,-1.35449e-01,
1.29682e-01,-7.90935e-03,1.93381e-01,-1.35844e-01,-9.71460e-02,3.73361e-02,7.87814e-02,6.39718e-02,-9.40112e-02,-5.46773e-02,6.75244e-02,1.65481e-02,3.65199e-02,6.58568e-03,1.80947e-01,-3.56866e-02,9.08300e-03,1.17283e-01,-1.54750e-02,-9.38636e-02,3.06959e-02,8.33574e-02,-8.43963e-02,-6.03169e-02,-9.35472e-02,1.70764e-01,4.46882e-02,-1.01498e-01,-7.73845e-02,-2.25379e-02,2.39345e-02,9.89885e-02,1.24392e-02,9.66055e-03,6.21349e-02,-8.12068e-02,-1.60993e-02,-4.64563e-02,9.97117e-03,-1.22262e-01,1.92579e-02,1.29887e-02,2.87353e-02,-5.54586e-02,-1.18854e-02,-6.96518e-02,6.49284e-02,-1.52753e-01,-1.15752e-01,-8.37500e-02,1.53613e-01,-2.96234e-02,-3.85948e-02,1.77192e-01,-1.74053e-01,-1.79353e-01,-4.02981e-02,-1.84561e-02,-8.34335e-02,1.41721e-02,1.34660e-02,-8.04579e-02,-2.04939e-02,4.91451e-02,-2.32869e-02,4.26553e-02,-6.41988e-02,8.81952e-03,1.40107e-02,4.22717e-03,-1.83026e-01,7.30244e-02,-7.62901e-02,-5.88620e-02,5.59053e-02,-1.24769e-02,4.49773e-02,7.80122e-02,6.71348e-02,-6.20085e-02,2.34153e-02,9.25819e-02,-1.22447e-01,1.06485e-01,-1.11694e-01,1.47523e-01,1.11878e-02,7.61821e-02,6.55206e-02,-6.03643e-02,1.25761e-01,-7.55095e-04,-4.14332e-02,-4.20374e-04,3.69396e-02,-1.85354e-01,-1.64062e-02,-6.88002e-02,-1.46290e-01,-1.10480e-01,2.26831e-02,-4.94157e-02,-1.77381e-02,-6.53513e-02,2.21360e-03,-9.15702e-02,-2.14415e-01,-5.80245e-03,-6.41962e-02,-8.34108e-02,3.05564e-02,-2.93347e-02,-9.64403e-02,4.78137e-02,4.53212e-03,-1.52414e-01,-4.78390e-02,-1.81793e-01,-3.31888e-02,-1.69587e-01,-1.01103e-01,-1.46053e-01,-1.07080e-01,2.62492e-02,-1.80091e-01,-1.02481e-01,-5.32219e-03,-2.13774e-01,7.49249e-02,-9.98770e-02,-1.85250e-01,-3.77449e-02,8.09304e-02,3.50563e-02,-2.70266e-03,-1.28771e-01,2.27283e-01,-1.76184e-02,8.50691e-04,9.08295e-05,3.73357e-02,-1.32353e-01,-3.31770e-03,-6.82977e-03,-6.01634e-02,5.63012e-02,-1.19216e-01,4.76764e-02,1.11221e-01,5.74256e-03,8.68682e-02,-9.69955e-02,-2.24831e-02,-6.03302e-02,-8.92986e-02,-1.07684e-02,-1.38550e-01,-1.53685e-01,-4.89463e-02,-4.90231e-02,-6.93368e-02,9.81155e-02,1.57723e-02,-1.62779e-01,1.66860e-01,9.42887e-02,1.38281e-01,1.85274e-01,1.15973e-01,-1.42654e-01,-9.71894e-03,-1.18098e-01,1.10088e-01,5.90501e-03,-2.00850e-02,7.44850e-02,-1.71973e-03,1.08964e-01,-1.28298e-01,-2.65034e-02,-4.10606e-02,2.38373e-02,1.63724e-02,3.07451e-02,-1.42398e-01,-1.03444e-01,-1.24932e-02,-1.10689e-02,1.10357e-02,-1.20063e-01,-7.57305e-02,-2.05473e-01,-1.70955e-02,-9.49739e-02,-2.63532e-02,-1.07754e-01,-1.03457e-01,-6.31804e-02,-2.82583e-02,2.16630e-03,9.01766e-02,6.27665e-02,2.20884e-01,-9.21417e-02,8.59294e-02,-1.25268e-01,7.27333e-02,-1.07167e-02,-4.59298e-02,-8.20597e-02,1.78147e-02,6.22670e-02,2.04043e-02,8.34642e-02,-1.68436e-01,8.46632e-02,3.90316e-02,-1.15348e-02,1.79423e-02,1.41690e-01,7.65667e-03,1.52673e-01,-1.14333e-01,-1.05290e-01,-1.51847e-02,-7.04467e-02,8.33805e-02,1.15160e-01,1.29191e-01,-5.27144e-02,7.61207e-02,3.13609e-02,1.01825e-02,-1.27644e-03,-1.46907e-01,-1.45605e-01,-4.09363e-02,6.26727e-02,-5.06476e-02,-1.88996e-02,4.83296e-02,-1.34610e-01,1.43498e-03,7.98852e-02,1.31977e-02,-3.33695e-02,7.99634e-02,5.94107e-02,3.35443e-02,-1.02211e-01,-1.25250e-01,-1.23859e-02,2.52784e-02,-9.94939e-02,-1.33793e-01,-8.34261e-02,8.43363e-02,-8.84291e-03,-9.34360e-03,5.62437e-02,6.13128e-02,7.46766e-02,-9.11452e-02,-6.29156e-02,1.07790e-01,1.58473e-02,-1.73760e-02,2.09827e-01,4.19384e-02,1.29138e-02,-2.13166e-01,-1.19024e-01,7.84384e-02,-1.25935e-01,-7.80117e-02,1.81062e-02,-5.67227e-02,-1.16286e-02,-8.69250e-02,-2.54315e-02,1.01418e-01,1.72689e-01,2.57608e-01,1.78351e-01,1.14211e-01,9.66410e-02,-3.41632e-02,-1.03217e-01,-4.59693e-02,1.50874e-01,1.39235e-01,-5.01164e-02,1.78468e-02,8.30922e-02,2.14301e-01,-2.48662e-02,1.45454e-01,1.04418e-01,1.45317e-01,2.04604e-01,-1.06508e-01,1.91639e-01,1.40282e-01,5.68828e-02,1.45169e-01,1.71115e-01,2.38778e-02,1.24033e-01,2.21743e-01,9.55025e-02,9.26809e-02,-7.45195e-02,-5.85374e-02,9.66208e-02,7.52696e-02,-3.44538e-02,-7.99217e-02,5.34744e-02,-3.99335e-02,1.19900e-01,4.87850e-02,-1.59128e-01,-1.47414e-02,-5.79475e-02,9.54281e-02,3.04524e-02,-4.91445e-02,-1.71368e-02,-7.59484e-02,1.92353e-01,-5.04788e-02,6.78158e-02,6.43641e-02,1.07538e-02,1.55808e-01,-8.39629e-02,-7.39125e-02,4.91613e-02,-3.85538e-02,-1.46852e-01,1.48099e-01,1.01933e-02,3.55021e-02,-7.04817e-02,-1.77011e-01,3.50480e-02,-1.31019e-01,-6.47461e-02,1.27216e-01,-1.47218e-01,1.82049e-01,-2.02571e-02,-1.21430e-01,-5.42862e-02,-1.23786e-01,3.39376e-02,7.28273e-02,3.76796e-02,-6.10750e-02,1.72973e-01,2.24663e-01,5.16773e-02,-2.32832e-03,1.50747e-01,-2.68211e-03,1.89493e-01,1.41949e-01,4.46024e-02,4.86583e-03,-2.99955e-03,1.11512e-01,-3.68189e-02,8.17818e-02,1.11429e-01,-8.90356e-03,-6.88837e-03,4.74437e-02,9.62204e-03,3.06604e-02,1.60236e-01,1.00740e-01,1.47960e-01,-6.95470e-02,-2.04631e-02,-1.34662e-01,1.54639e-01,-1.17999e-02,1.68295e-01,9.09383e-02,3.68058e-02,1.44510e-02,3.74724e-02,1.29513e-01,-1.43361e-02,-2.97023e-02,2.00950e-01,4.47615e-02,1.04173e-01,-9.91845e-02,-9.67880e-02,4.27287e-03,1.24794e-01,4.56303e-02,1.16843e-01,1.05182e-01,-8.66195e-02,-4.26734e-02,-2.49699e-01,1.54527e-01,-1.61547e-02,-1.13228e-01,-4.64018e-02,-8.80003e-02,1.52967e-01,-8.66116e-02,-1.16513e-01,1.42803e-02,-1.83346e-01,8.52524e-02,-7.93122e-02,2.79186e-03,-1.24949e-02,-1.71341e-01,9.64746e-04,-2.88897e-02,-8.15418e-02,-1.36154e-02,1.12170e-01,-1.23391e-01,9.58526e-02,1.43211e-01,3.62141e-02,1.74704e-01,2.89382e-02,2.18688e-02,1.55816e-01,6.97515e-02,6.18957e-02,-5.30609e-02,9.49023e-02,-9.77913e-02,1.80624e-01,3.44621e-02,8.70983e-02,2.52924e-02,4.40105e-02,7.11127e-02,1.21622e-01,-6.83796e-02,1.02528e-01,1.34799e-02,-8.62977e-02,-3.46715e-02,1.47557e-03,-5.64922e-02,1.31429e-01,2.05516e-01,8.10252e-02,-3.50064e-02,-3.04416e-02,1.01936e-01,4.99089e-03,3.00695e-02,-8.54082e-02,-1.00984e-01,2.39452e-02,1.55466e-01,-1.20477e-01,1.02554e-01,1.59423e-01,9.11442e-02,2.46544e-01,-2.48281e-02,1.47501e-01,1.04638e-03,-7.19434e-03,1.19031e-01,8.99249e-02,1.28752e-02,-1.32189e-02,8.21039e-02,-8.80490e-02,2.09439e-02,-1.27232e-01,5.73672e-02,-5.09282e-02,1.25979e-01,-1.26457e-01,9.21004e-02,3.06155e-02,-1.26750e-03,-1.24741e-01,-1.67628e-01,-9.78931e-02,6.47068e-02,-3.36862e-02,-9.45757e-02,9.87436e-02,-1.02157e-01,6.74973e-03,-4.30021e-02,1.15430e-01,8.35753e-03,-2.05498e-02,-6.72878e-02,-4.80962e-02,9.02925e-02,2.07290e-01,2.25722e-01,-2.10352e-02,3.68759e-02,9.58788e-02,-2.11844e-01,5.99693e-02,4.67068e-02,8.05435e-02,-3.05411e-02,1.43090e-01,-4.89753e-02,2.03923e-01,1.50847e-01,1.48617e-01,2.42761e-01,1.23159e-01,1.46947e-01,1.42403e-01,5.70975e-02,-1.55612e-01,3.66483e-02,6.12926e-02,-3.88733e-03,-6.49393e-02,5.01253e-02,-1.43338e-01,-1.54286e-02,-5.52745e-02,1.34335e-01,-1.06482e-02,-1.00303e-01,-9.87298e-02,1.49900e-01,1.84439e-02,-1.37508e-01,3.56959e-02,3.50128e-02,1.54873e-02,7.85857e-03,-3.55391e-02,4.75984e-02,-1.62355e-02,1.83066e-01,1.03405e-02,-3.72622e-03,-3.06227e-02,-1.43870e-01,3.17766e-02,9.62051e-02,9.98652e-02,7.09944e-02,1.72766e-01,1.53549e-01,-8.63548e-02,-4.06457e-02,-1.32322e-01,1.26773e-01,-6.89807e-02,2.38613e-02,-9.14193e-02,-9.24062e-02,6.77052e-02,-1.87887e-01,-1.31508e-01,-1.71722e-01,-4.57833e-02,8.41400e-02,-1.48164e-01,7.19158e-02,-1.13406e-01,-2.13010e-01,-2.25516e-01,4.35193e-02,2.17620e-02,-1.27502e-01,-4.47571e-02,-1.46176e-01,5.97086e-02,5.17634e-02,-7.85253e-02,-1.13247e-01,-1.71208e-02,-4.33322e-03,-2.13948e-02,-1.11401e-01,5.48994e-02,7.54670e-02,7.39121e-02,-1.09491e-02,1.20410e-02,8.64188e-03,1.69788e-01,1.42082e-01,1.17737e-01,2.37686e-01,1.06248e-01,2.14416e-02,6.84230e-03,6.82113e-02,-3.17830e-02,1.02455e-01,-5.84056e-02,8.25698e-04,-1.53755e-01,3.31988e-02,6.41350e-02,-1.09801e-01,-6.48195e-02,7.42746e-02,-7.59902e-02,6.83060e-02,-2.75562e-04,2.08453e-02,-1.25652e-01,-1.09669e-01,-1.49175e-01,8.45226e-02,-5.77293e-02,-4.35756e-02,1.87351e-02,-6.43245e-02,2.22694e-02,-7.93627e-03,6.62616e-02,3.14172e-02,7.45650e-02,-1.21948e-01,-1.29123e-01,-2.20918e-02,-3.33319e-02,1.05835e-01,-1.67199e-01,-3.41733e-03,-7.34641e-02,-3.66408e-03,3.39914e-02,8.42116e-02,-1.48600e-01,-1.03414e-01,3.37794e-02,1.00646e-01,8.56553e-02,-1.42440e-01,-9.41482e-02,-1.44574e-01,-1.76895e-01,7.49752e-02,1.18554e-02,-2.19898e-02,6.75110e-02,-6.60194e-02,-1.02090e-01,-8.32950e-02,-2.16584e-01,-2.36839e-01,-1.00635e-01,-1.07983e-01,5.98093e-02,-7.06569e-02,1.23617e-02,9.49867e-02,8.88094e-02,-8.36948e-02,1.20942e-02,6.13076e-02,4.93660e-03,3.18086e-02,7.44213e-02,-1.12578e-01,-1.35103e-01,8.32739e-02,-1.27529e-01,-1.55536e-01,2.36691e-01,1.48867e-01,1.73956e-01,2.36995e-01,1.69263e-01,1.21874e-01,1.20479e-01,1.46441e-01,2.21899e-01,1.28029e-01,2.04158e-01,-2.75967e-02,-5.52888e-02,1.71337e-01,-4.81099e-02,1.25504e-01,9.76274e-02,-9.70588e-02,3.79779e-03,-1.43588e-01,-3.68777e-02,-7.63969e-02,-1.01942e-01,2.38487e-02,-7.28708e-02,1.09444e-01,-9.08414e-03,-2.14469e-02,-2.73815e-02,-9.76225e-02,-1.95132e-01,-1.84000e-01,1.21132e-01,1.49666e-01,9.70058e-03,4.24424e-02,-9.37464e-02,-5.97326e-02,8.04403e-02,-7.40105e-02,1.01008e-01,8.42815e-02,3.80222e-02,1.32436e-01,-6.61316e-02,9.32376e-02,-1.50329e-02,1.06997e-01,-5.68754e-02,-1.61129e-02,1.20038e-01,2.55559e-02,6.58274e-02,7.23019e-02,2.97530e-02,-5.72097e-02,-1.14482e-01,-9.98062e-02,1.31271e-01,-2.29521e-02,-1.35270e-01,-1.08915e-01,-6.31487e-02,-2.63846e-01,-1.81903e-01,-2.13453e-01,-1.41626e-01,-2.13446e-01,-1.06714e-01,5.63664e-02,-7.48736e-02,-2.09322e-01,-3.46542e-02,-1.28794e-01,-9.28079e-02,4.93501e-02,3.42079e-02,-1.34505e-01,1.38800e-02,9.29051e-02,-2.46702e-02,5.57085e-02,-3.38401e-02,1.91003e-01,1.07241e-01,6.69676e-02,1.27511e-01,1.39522e-01,8.08540e-02,3.80993e-02,6.45093e-02,1.20415e-01,8.98670e-02,-9.79502e-02,4.03801e-02,5.44575e-02,-4.53244e-02,1.06526e-01,1.05660e-01,-1.03696e-02,2.53989e-02,4.14139e-02,2.83446e-02,3.13356e-02,-9.14532e-02,-2.26309e-02,1.28483e-02,-9.90395e-02,-2.58973e-02,-9.85653e-02,-2.68341e-01,-7.05137e-02,-3.87810e-02,-1.74891e-01,-4.27662e-02,5.91922e-03,-5.01739e-02,-6.83670e-02,1.25346e-01,9.04175e-02,3.75106e-02,-4.53758e-02,-2.08292e-02,8.16699e-02,1.16690e-02,1.13216e-01,1.35138e-01,2.43643e-02,1.20330e-01,1.00290e-01,1.51469e-01,1.71041e-01,1.42746e-01,1.73357e-01,1.40735e-01,7.62549e-02,6.31821e-02,-1.46480e-02,4.94475e-03,-1.21660e-01,-6.20651e-02,1.33204e-01,-1.59901e-01,1.39014e-01,-9.87358e-02,-2.44004e-01,-5.07951e-02,-1.55834e-01,-2.60445e-01,-3.89332e-01,-1.34307e-01,-2.63769e-01,-1.58363e-01,-8.15911e-02,-1.78248e-01,-5.43140e-02,1.03251e-01,-1.09838e-02,-1.42378e-02,7.24771e-02,1.33125e-01,6.76787e-03,1.94481e-01,-8.99740e-03,1.04497e-01,1.90480e-01,-5.59740e-02,9.14034e-03,6.21582e-02,-4.78248e-02,3.99873e-02,-1.97058e-02,8.37814e-03,-1.27029e-01,-4.41362e-02,1.10932e-01,-1.72307e-01,-1.04136e-01,5.98928e-02,-3.59872e-03,-1.64352e-01,8.27678e-03,8.05405e-02,-1.31695e-02,-7.31731e-02,-2.01810e-01,-1.41955e-03,-1.75105e-01,-1.18572e-01,-2.33687e-01,-1.51459e-01,-5.64098e-02,-1.76748e-01,-5.12950e-02,-5.07552e-02,-7.85347e-02,-1.32899e-01,-7.03721e-02,1.51176e-01,4.38697e-02,-2.81006e-02,-2.00276e-01,-1.56251e-01,7.06187e-02,-1.19054e-01,6.97175e-03,2.14093e-01,1.00592e-01,1.81179e-01,2.59375e-01,1.35986e-02,9.41735e-02,1.26343e-01,1.25586e-01,1.26376e-02,1.09722e-01,4.03112e-02,2.04726e-01,5.00290e-02,9.24895e-02,1.74977e-01,9.44576e-02,-1.29454e-02,1.01627e-01,1.40785e-01,1.31800e-01,1.34946e-01,1.47165e-01,-1.20018e-01,-1.66322e-01,-2.44404e-01,-3.27922e-01,-1.19717e-01,-7.27679e-02,-1.75678e-01,-1.37492e-01,-2.35850e-01,-6.33390e-02,-2.25033e-01,-8.83106e-02,-2.64945e-02,-1.45292e-02,-2.96478e-02,2.08821e-02,-1.15312e-01,4.61315e-02,1.36656e-01,8.37502e-02,5.03408e-02,-5.08268e-02,2.46966e-01,2.88224e-02,-2.87947e-02,4.74021e-02,1.41137e-01,1.22783e-01,1.11298e-01,9.46479e-02,-6.05689e-02,-9.74486e-02,-6.02538e-02,-1.05456e-01,3.99393e-02,1.64767e-01,5.64035e-02,4.78901e-03,-6.83120e-03,-6.28053e-02,-1.05468e-01,-1.45406e-01,-3.63890e-02,-6.69648e-02,-4.38026e-02,-8.94665e-02,-9.91933e-02,-4.58113e-03,-1.49406e-02,2.10615e-02,2.35488e-02,8.65437e-02,1.89794e-01,9.80624e-02,8.39869e-02,3.94306e-02,1.36853e-01,7.62062e-02,-2.00131e-01,-5.81164e-03,1.58595e-01,6.87347e-02,-6.19191e-02,1.91646e-01,2.45054e-01,1.70738e-01,1.08738e-01,1.60314e-01,9.17756e-02,3.35633e-02,1.27904e-01,6.77859e-02,2.05146e-01,4.86701e-02,-4.13885e-02,2.23156e-01,1.66257e-01,-7.48184e-02,-6.34830e-02,1.22480e-01,6.14340e-02,1.75543e-02,7.11944e-02,-1.31903e-01,2.88670e-02,-2.37438e-01,2.63979e-02,-3.45327e-01,-2.47668e-01,-2.19625e-01,-1.34234e-01,-1.74362e-01,-2.74918e-01,-1.29610e-01,1.00333e-01,-1.74931e-01,-1.45361e-01,-4.45504e-02,-1.76889e-03,-1.11158e-02,1.73836e-01,-8.82383e-02,2.36069e-01,9.12094e-02,-5.36775e-02,-8.73516e-02,1.73479e-01,-1.05362e-01,2.76126e-02,-7.48733e-02,-5.24878e-03,8.09891e-02,-8.84148e-02,-1.74980e-02,1.67132e-02,-1.35685e-01,-1.54008e-01,4.43587e-02,3.83519e-02,-1.81664e-01,-5.32538e-02,3.55931e-02,-1.43959e-01,-8.07597e-02,-9.99374e-02,1.81840e-02,1.53042e-01,6.17032e-02,3.13934e-02,4.95117e-02,1.35600e-01,-1.08553e-01,4.32004e-02,1.98997e-01,1.90250e-01,2.12455e-02,1.93951e-01,2.15433e-01,-1.30152e-01,1.64619e-01,-4.85304e-03,-9.72874e-03,-2.99840e-02,1.71348e-02,-1.14825e-01,-2.74961e-02,-1.03074e-01,2.08721e-02,6.94058e-02,-7.84510e-02,1.27183e-02,-8.65939e-02,-6.46206e-02,8.03452e-02,-8.32362e-03,-2.89205e-02,-7.16109e-02,1.59214e-01,-3.84800e-03,-5.65002e-03,1.02995e-01,1.45097e-01,-1.39460e-02,-1.13317e-01,6.41538e-02,3.76751e-02,-6.71884e-02,-1.15226e-01,2.04435e-02,-1.87349e-01,-7.13214e-02,6.77423e-03,-1.22922e-01,-2.64651e-01,-8.82053e-03,-7.20893e-02,-1.72397e-01,5.46026e-02,-4.88722e-02,-1.58491e-01,8.14295e-02,1.26007e-01,1.54415e-01,5.98295e-02,-7.66817e-02,-1.88926e-01,1.07509e-01,3.14903e-02,4.16551e-02,2.20285e-02,-3.32768e-03,6.28262e-02,1.87583e-01,3.55955e-02,4.16875e-02,5.05255e-02,-6.35256e-02,-5.11508e-02,1.08385e-01,8.43574e-02,-1.12438e-01,-1.40576e-02,1.72354e-01,8.51576e-02,-8.77870e-03,6.50349e-02,3.39187e-02,-3.66071e-02,1.40497e-01,-4.38797e-03,6.63042e-02,1.65763e-01,5.63952e-02,2.85393e-02,1.25713e-01,1.41245e-01,1.85770e-01,1.10704e-01,4.35352e-02,7.66026e-02,4.69480e-02,1.51213e-01,1.15819e-01,5.28671e-02,6.20401e-02,1.00823e-02,-1.29706e-01,-3.73802e-02,-3.68170e-02,-2.32658e-02,1.23576e-02,-2.74306e-02,9.77304e-02,1.59496e-01,3.69926e-02,1.03616e-01,-1.06145e-01,5.63815e-02,2.75159e-02,2.09513e-01,6.03056e-02,-4.10719e-02,6.02223e-03,9.43240e-02,-1.05839e-01,7.88638e-02,-6.96990e-02,-1.34996e-01,-4.00953e-02,8.38062e-02,9.19695e-03,1.49604e-01,-2.25763e-02,7.55915e-02,-9.18027e-02,6.76273e-02,-5.33045e-02,-2.11533e-02,4.30797e-02,-5.04891e-02,2.23900e-02,-5.65243e-02,1.36310e-01,1.19955e-01,5.12061e-02,-7.31383e-02,1.38282e-01,-3.11952e-02,-3.50270e-02,1.55321e-01,-1.13340e-02,-7.21979e-02,1.85599e-02,5.45586e-02,1.37319e-01,1.42990e-01,3.57864e-02,-8.59824e-02,1.42507e-01,1.99471e-01,5.52064e-02,8.68895e-03,7.52398e-02,8.16217e-02,1.36332e-01,5.18554e-02,3.40093e-02,-2.09435e-02,-7.61661e-02,1.24264e-01,1.61551e-01,-8.24260e-02,-1.42617e-02,2.29781e-01,6.53256e-02,8.33652e-02,1.89015e-02,-8.82097e-02,-1.43140e-02,1.11307e-01,8.19719e-02,-1.87934e-02,1.74180e-01,7.29234e-02,1.28705e-01,1.73590e-01,1.77896e-02,-6.93213e-02,1.21300e-01,-2.01403e-01,-5.28226e-02,2.30326e-02,4.10404e-02,-1.00641e-01,1.37905e-01,6.45487e-02,9.67360e-02,-6.16303e-02,7.22939e-03,2.84625e-02,4.77718e-02,3.58675e-03,-6.22958e-02,-3.43934e-02,8.66241e-03,9.62004e-02,-3.79922e-02,-1.83226e-02,1.65047e-01,2.00926e-01,1.22805e-01,2.01608e-01,-1.04500e-04,1.61314e-01,1.19493e-01,-5.58467e-02,1.06281e-01,9.12046e-02,1.25464e-01,-1.17399e-01,-1.29779e-02,-5.98648e-02,-3.99853e-02,3.88879e-02,9.27030e-02,4.74983e-02,1.63293e-01,8.39369e-02,-4.33645e-02,5.87723e-02,8.68020e-02,-7.98758e-03,4.56369e-02,-8.29421e-02,3.39897e-02,4.54986e-02,2.21136e-02,1.07361e-01,1.71285e-02,1.68567e-02,1.08847e-01,-5.57189e-02,2.03856e-01,3.72756e-02,-1.27297e-02,1.45187e-01,-4.38544e-02,5.17604e-02,-1.00538e-01,6.60095e-02,7.71940e-02,-2.22412e-02,5.99718e-02,-4.11357e-02,1.50846e-01,-5.38890e-02,7.48377e-02,4.15156e-02,1.81537e-01,-1.42573e-02,-9.37081e-03,-8.54310e-03,-5.20993e-02,1.06110e-01,-8.90456e-02,1.01401e-01,5.23615e-02,-7.97931e-02,3.00005e-02,7.14772e-02,-6.76335e-03,9.13822e-02,1.71888e-01,6.05119e-02,7.09700e-02,1.11648e-01,1.11787e-01,1.15730e-01,-8.90426e-02,-2.82528e-02,4.59234e-02,1.52148e-01,2.12034e-01,1.75481e-02,-5.90423e-02,-1.53042e-03,1.78371e-02,1.21923e-01,3.28164e-02,-5.30635e-02,-8.03181e-02,4.34299e-02,2.84066e-01,-7.59982e-02,2.36864e-01,2.21128e-01,1.63857e-02,6.95669e-02,2.17852e-01,3.60019e-02,-2.17720e-02,9.20700e-02,1.59795e-01,6.24673e-02,1.17470e-02,1.58123e-01,9.97326e-02,5.13435e-02,6.83684e-02,1.09803e-01,3.14938e-02,-3.87160e-02,3.61237e-02,1.47375e-01,9.41072e-02,1.07391e-01,8.83053e-03,2.42462e-02,-6.88393e-02,-1.44729e-01,1.61808e-01,-1.10505e-02,1.59854e-01,2.35172e-01,-4.88046e-03,1.20450e-01,-3.31068e-02,7.98614e-02,1.01289e-01,1.51775e-01,5.05091e-02,3.10372e-02,1.08871e-01,7.04375e-02,7.10631e-02,7.47782e-03,1.08695e-01,8.68935e-02,2.27025e-01,-1.24329e-02,1.23647e-01,-6.38860e-02,2.26894e-01,-6.37783e-02,1.13720e-01,-1.49918e-02,1.57074e-01,8.05268e-02,1.96669e-02,-7.48083e-02,-7.21673e-02,-7.04202e-02,-1.28380e-01,7.53408e-03,1.34605e-02,4.17172e-02,3.20328e-02,-4.04200e-02,-1.42347e-01,-6.64049e-02,7.54623e-02,1.66264e-01,5.28565e-03,2.36892e-01,1.67468e-01,4.36822e-02,8.00840e-02,1.43230e-01,6.59624e-02,2.35998e-01,1.62324e-01,1.04612e-01,1.02437e-02,1.27010e-01,2.13726e-01,1.77079e-01,2.50174e-01,1.86526e-01,8.89756e-03,1.83438e-01,2.15882e-01,-5.61965e-02,1.39122e-03,4.73550e-02,2.91152e-02,1.37717e-01,-1.36724e-02,1.47482e-01,1.69248e-01,1.18129e-01,7.27088e-02,4.76314e-02,1.89646e-01,5.62897e-02,8.61990e-02,1.64853e-02,-1.18023e-02,-4.30563e-02,7.51511e-02,1.91431e-02,1.01902e-01,6.04470e-02,1.80847e-02,3.50190e-02,1.01174e-01,1.27610e-02,1.55221e-01,1.57259e-02,6.33384e-02,1.10772e-01,3.28246e-02,9.65271e-02,2.45070e-02,3.72687e-02,8.84048e-02,-2.02645e-02,1.29937e-01,-1.61580e-02,8.93028e-03,8.48543e-02,2.10687e-01,3.93129e-02,-6.39854e-02,9.02078e-02,1.86006e-02,-3.08933e-02,1.63854e-02,-5.32238e-04,-7.79190e-02,4.20243e-02,-1.09307e-01,-1.51299e-03,1.24956e-01,-4.89451e-02,6.56020e-02,2.79813e-02,8.20675e-02,4.28370e-02,1.57988e-01,-5.09139e-02,3.21965e-02,3.42662e-02,1.68805e-01,6.98019e-02,1.95853e-01,2.85249e-02,9.61627e-02,1.88920e-01,1.44116e-01,2.65996e-02,4.50439e-02,6.81948e-02,4.47284e-02,6.65799e-02,1.45728e-01,2.17919e-01,6.70451e-02,2.32108e-02,4.94978e-02,9.26929e-02,3.40827e-02,1.31029e-01,1.41655e-01,-4.81669e-02,-1.96398e-02,1.50212e-01,8.48579e-02,1.38325e-01,-3.51909e-02,-3.63292e-04,4.58647e-02,1.92962e-02,-5.92016e-02,-3.86281e-02,-6.99132e-02,5.81573e-02,1.06250e-01,1.90259e-01,5.37551e-02,1.67686e-01,4.90695e-02,-4.16164e-02,-3.96195e-03,8.20592e-02,9.36534e-02,-1.54826e-01,-7.87513e-02,-3.68586e-02,-1.09276e-02,6.66985e-02,8.07318e-02,-9.20368e-02,-7.73935e-02,8.55985e-03,2.14807e-01,-3.87658e-02,2.07643e-01,7.12008e-02,-1.59963e-01,1.32821e-01,-1.49180e-02,-2.25800e-02,6.69638e-02,1.11946e-01,1.68429e-02,3.65135e-02,-5.95805e-02,1.97802e-02,3.88555e-02,3.87058e-03,-4.35774e-02,-6.97566e-02,9.40574e-02,-1.34236e-01,-2.20780e-02,-1.73994e-01,1.86551e-01,-1.19830e-01,4.40842e-02,-5.56217e-02,-1.29342e-01,2.45434e-02,-1.23754e-01,-4.17421e-02,1.49330e-01,7.62631e-02,-8.13728e-02,-7.00091e-02,-6.57435e-03,3.65851e-02,-8.67246e-02,1.41946e-01,1.30559e-01,8.69152e-03,8.25128e-02,-3.18857e-02,9.32398e-02,-2.00295e-02,2.32973e-01,5.99555e-02,4.05475e-02,-4.06140e-02,2.94570e-02,2.41077e-01,-1.50278e-01,-2.23078e-02,9.86732e-02,2.23017e-01,1.82011e-01,-1.00594e-02,-3.49437e-02,2.17687e-01,-1.83996e-02,-6.62143e-02,-1.26493e-01,-4.70723e-02,-9.55347e-02,-2.76816e-02,1.30380e-01,1.51927e-01,5.33995e-02,7.49420e-02,-3.45896e-02,1.08196e-01,6.81798e-02,3.24153e-02,-5.95887e-02,1.08619e-01,3.44408e-02,-1.00618e-02,1.06521e-02,-6.69244e-02,-5.35073e-02,-1.00757e-01,-1.68301e-02,7.76016e-02,4.10393e-02,-1.04861e-01,1.14272e-01,1.44127e-01,1.01792e-01,1.03504e-01,-4.53679e-02,3.96288e-02,-1.00217e-01,1.61886e-02,7.76350e-02,1.46372e-01,-4.12982e-02,1.23637e-01,6.43087e-02,-1.24492e-01,-1.52428e-01,-1.17577e-01,1.39007e-01,-1.24873e-01,-1.30605e-02,-9.02959e-02,6.99144e-03,-9.08440e-02,-6.89234e-02,1.33468e-01,9.32524e-03,-1.10279e-02,1.30878e-02,-5.33691e-02,3.20926e-02,5.67165e-02,9.19272e-02,8.80605e-02,-3.27507e-02,-4.89249e-02,2.45863e-02,-6.36011e-02,-8.33602e-02,1.63156e-01,1.26183e-01,1.38091e-01,-2.39256e-02,2.29733e-01,9.51531e-03,9.13767e-02,5.93012e-02,2.21949e-01,6.97863e-03,3.06323e-02,1.44681e-01,-3.33833e-02,7.23699e-02,4.99465e-02,-5.59583e-02,1.38736e-01,-1.15050e-01,1.30168e-01,-1.10055e-01,-4.56553e-02,-5.62559e-02,-5.70294e-02,8.63416e-03,-5.56155e-02,-2.15477e-01,-1.83487e-01,-5.74890e-02,-1.87549e-01,4.44826e-02,-5.65944e-02,7.86487e-02,6.82823e-02,-5.13614e-03,2.50416e-02,-1.22880e-01,6.84982e-02,7.10618e-02,-2.39025e-04,-1.31234e-02,-1.44527e-01,-3.92038e-02,-1.14687e-01,1.89133e-02,-5.63182e-03,1.54014e-01,4.66147e-03,3.33369e-02,4.91004e-02,7.52924e-02,-4.89202e-02,-7.62546e-02,5.64656e-02,5.59666e-02,6.61863e-02,1.57330e-02,-3.66466e-03,-7.05608e-02,1.05262e-01,-1.23723e-01,2.89342e-02,-5.17906e-02,8.39565e-03,1.11712e-01,-4.08857e-02,-8.21326e-02,-2.94588e-02,6.12674e-02,-8.72835e-02,4.19359e-02,6.66366e-02,-1.27415e-01,1.40752e-01,3.36179e-02,-8.46332e-02,1.47976e-01,-1.28361e-01,8.18175e-02,-6.43644e-02,6.98436e-03,1.36198e-01,1.78308e-01,-9.10982e-02,1.84213e-01,4.65740e-02,-4.51270e-02,5.89466e-02,2.22483e-01,-6.07527e-03,2.31960e-02,-2.43999e-02,1.18866e-02,-1.64476e-01,2.44520e-02,-5.20596e-02,-3.71910e-02,7.63372e-02,7.50685e-02,3.65405e-02,-1.11161e-01,7.99069e-03,9.41302e-03,-1.25763e-01,-1.12300e-01,-1.80782e-01,6.12864e-02,-1.16770e-02,-1.35755e-01,-7.57512e-03,8.61876e-02,-3.40046e-02,-1.08768e-01,-4.58664e-02,1.17014e-01,2.41299e-02,-2.57881e-02,1.24971e-01,-2.65375e-02,-9.74151e-02,-4.00898e-02,-6.47691e-02,5.86539e-02,-2.73283e-02,-5.53571e-02,1.33010e-01,1.42448e-01,5.08607e-02,-3.92402e-02,1.19320e-01,4.30925e-02,1.12269e-01,7.03026e-02,9.10743e-02,-1.18573e-01,-9.57778e-02,1.93821e-02,-1.00365e-01,-8.60415e-03,-6.27313e-02,-7.24601e-02,-3.67197e-02,-1.46745e-02,7.59864e-02,-5.61017e-02,-4.03429e-02,-7.12754e-02,-4.07351e-02,3.16018e-02,-7.10405e-02,-2.97864e-02,1.76886e-02,1.21299e-02,1.17155e-01,7.94258e-02,1.69455e-01,5.79749e-02,1.76479e-01,3.70652e-02,-1.29504e-02,1.47144e-01,1.24226e-01,1.08103e-01,2.21240e-02,1.11351e-01,4.34160e-02,9.96232e-02,-5.28719e-02,1.42978e-01,2.11055e-02,-3.44722e-02,1.11064e-02,1.86729e-01,-5.25353e-02,3.26212e-02,-7.76649e-02,1.73716e-02,6.85087e-02,-2.67525e-03,1.02948e-01,-5.00184e-02,3.56860e-02,-1.03162e-01,4.45313e-02,1.34736e-01,-8.38915e-02,4.05569e-02,2.84515e-02,-2.10409e-01,-8.96976e-02,-1.75749e-01,-2.29788e-01,-7.03163e-02,-1.62001e-02,7.63943e-02,7.18679e-02,4.74052e-02,-2.14482e-02,-1.08538e-01,-9.59411e-02,-4.37892e-02,-8.09222e-02,1.15814e-01,-1.50793e-01,3.47673e-02,2.53829e-02,-1.79585e-02,2.89031e-02,2.01517e-02,-3.96871e-02,-7.69008e-02,4.06095e-02,3.91255e-02,-9.93544e-02,1.03074e-01,8.41660e-02,-1.61489e-01,-1.64964e-01,-1.27014e-01,1.58659e-01,-1.30064e-01,-1.27528e-01,-7.65667e-03,-1.11659e-01,1.43683e-03,-5.84274e-02,-1.47107e-01,-5.68572e-02,-3.48112e-02,-6.14940e-02,-6.31165e-02,5.44244e-02,-1.11175e-01,-1.74032e-02,-4.87547e-02,-1.02605e-01,-9.98036e-02,-8.05583e-02,