// Neural Network File Format by Kyle Julian, Stanford 2016
4,2352,10,2352,
2352,20,20,20,10,
0,
0,0,0,0,0,0,0,0,0,0,0,0,0,0,0,0,0,0,0,0,0,0,0,0,0,0,0,0,0,0,0,0,0,0,0,0,0,0,0,0,0,0,0,0,0,0,0,0,0,0,0,0,0,0,0,0,0,0,0,0,0,0,0,0,0,0,0,0,0,0,0,0,0,0,0,0,0,0,0,0,0,0,0,0,0,0,0,0,0,0,0,0,0,0,0,0,0,0,0,0,0,0,0,0,0,0,0,0,0,0,0,0,0,0,0,0,0,0,0,0,0,0,0,0,0,0,0,0,0,0,0,0,0,0,0,0,0,0,0,0,0,0,0,0,0,0,0,0,0,0,0,0,0,0,0,0,0,0,0,0,0,0,0,0,0,0,0,0,0,0,0,0,0,0,0,0,0,0,0,0,0,0,0,0,0,0,0,0,0,0,0,0,0,0,0,0,0,0,0,0,0,0,0,0,0,0,0,0,0,0,0,0,0,0,0,0,0,0,0,0,0,0,0,0,0,0,0,0,0,0,0,0,0,0,0,0,0,0,0,0,0,0,0,0,0,0,0,0,0,0,0,0,0,0,0,0,0,0,0,0,0,0,0,0,0,0,0,0,0,0,0,0,0,0,0,0,0,0,0,0,0,0,0,0,0,0,0,0,0,0,0,0,0,0,0,0,0,0,0,0,0,0,0,0,0,0,0,0,0,0,0,0,0,0,0,0,0,0,0,0,0,0,0,0,0,0,0,0,0,0,0,0,0,0,0,0,0,0,0,0,0,0,0,0,0,0,0,0,0,0,0,0,0,0,0,0,0,0,0,0,0,0,0,0,0,0,0,0,0,0,0,0,0,0,0,0,0,0,0,0,0,0,0,0,0,0,0,0,0,0,0,0,0,0,0,0,0,0,0,0,0,0,0,0,0,0,0,0,0,0,0,0,0,0,0,0,0,0,0,0,0,0,0,0,0,0,0,0,0,0,0,0,0,0,0,0,0,0,0,0,0,0,0,0,0,0,0,0,0,0,0,0,0,0,0,0,0,0,0,0,0,0,0,0,0,0,0,0,0,0,0,0,0,0,0,0,0,0,0,0,0,0,0,0,0,0,0,0,0,0,0,0,0,0,0,0,0,0,0,0,0,0,0,0,0,0,0,0,0,0,0,0,0,0,0,0,0,0,0,0,0,0,0,0,0,0,0,0,0,0,0,0,0,0,0,0,0,0,0,0,0,0,0,0,0,0,0,0,0,0,0,0,0,0,0,0,0,0,0,0,0,0,0,0,0,0,0,0,0,0,0,0,0,0,0,0,0,0,0,0,0,0,0,0,0,0,0,0,0,0,0,0,0,0,0,0,0,0,0,0,0,0,0,0,0,0,0,0,0,0,0,0,0,0,0,0,0,0,0,0,0,0,0,0,0,0,0,0,0,0,0,0,0,0,0,0,0,0,0,0,0,0,0,0,0,0,0,0,0,0,0,0,0,0,0,0,0,0,0,0,0,0,0,0,0,0,0,0,0,0,0,0,0,0,0,0,0,0,0,0,0,0,0,0,0,0,0,0,0,0,0,0,0,0,0,0,0,0,0,0,0,0,0,0,0,0,0,0,0,0,0,0,0,0,0,0,0,0,0,0,0,0,0,0,0,0,0,0,0,0,0,0,0,0,0,0,0,0,0,0,0,0,0,0,0,0,0,0,0,0,0,0,0,0,0,0,0,0,0,0,0,0,0,0,0,0,0,0,0,0,0,0,0,0,0,0,0,0,0,0,0,0,0,0,0,0,0,0,0,0,0,0,0,0,0,0,0,0,0,0,0,0,0,0,0,0,0,0,0,0,0,0,0,0,0,0,0,0,0,0,0,0,0,0,0,0,0,0,0,0,0,0,0,0,0,0,0,0,0,0,0,0,0,0,0,0,0,0,0,0,0,0,0,0,0,0,0,0,0,0,0,0,0,0,0,0,0,0,0,0,0,0,0,0,0,0,0,0,0,0,0,0,0,0,0,0,0,0,0,0,0,0,0,0,0,0,0,0,0,0,0,0,0,0,0,0,0,0,0,0,0,0,0,0,0,0,0,0,0,0,0,0,0,0,0,0,0,0,0,0,0,0,0,0,0,0,0,0,0,0,0,0,0,0,0,0,0,0,0,0,0,0,0,0,0,0,0,0,0,0,0,0,0,0,0,0,0,0,0,0,0,0,0,0,0,0,0,0,0,0,0,0,0,0,0,0,0,0,0,0,0,0,0,0,0,0,0,0,0,0,0,0,0,0,0,0,0,0,0,0,0,0,0,0,0,0,0,0,0,0,0,0,0,0,0,0,0,0,0,0,0,0,0,0,0,0,0,0,0,0,0,0,0,0,0,0,0,0,0,0,0,0,0,0,0,0,0,0,0,0,0,0,0,0,0,0,0,0,0,0,0,0,0,0,0,0,0,0,0,0,0,0,0,0,0,0,0,0,0,0,0,0,0,0,0,0,0,0,0,0,0,0,0,0,0,0,0,0,0,0,0,0,0,0,0,0,0,0,0,0,0,0,0,0,0,0,0,0,0,0,0,0,0,0,0,0,0,0,0,0,0,0,0,0,0,0,0,0,0,0,0,0,0,0,0,0,0,0,0,0,0,0,0,0,0,0,0,0,0,0,0,0,0,0,0,0,0,0,0,0,0,0,0,0,0,0,0,0,0,0,0,0,0,0,0,0,0,0,0,0,0,0,0,0,0,0,0,0,0,0,0,0,0,0,0,0,0,0,0,0,0,0,0,0,0,0,0,0,0,0,0,0,0,0,0,0,0,0,0,0,0,0,0,0,0,0,0,0,0,0,0,0,0,0,0,0,0,0,0,0,0,0,0,0,0,0,0,0,0,0,0,0,0,0,0,0,0,0,0,0,0,0,0,0,0,0,0,0,0,0,0,0,0,0,0,0,0,0,0,0,0,0,0,0,0,0,0,0,0,0,0,0,0,0,0,0,0,0,0,0,0,0,0,0,0,0,0,0,0,0,0,0,0,0,0,0,0,0,0,0,0,0,0,0,0,0,0,0,0,0,0,0,0,0,0,0,0,0,0,0,0,0,0,0,0,0,0,0,0,0,0,0,0,0,0,0,0,0,0,0,0,0,0,0,0,0,0,0,0,0,0,0,0,0,0,0,0,0,0,0,0,0,0,0,0,0,0,0,0,0,0,0,0,0,0,0,0,0,0,0,0,0,0,0,0,0,0,0,0,0,0,0,0,0,0,0,0,0,0,0,0,0,0,0,0,0,0,0,0,0,0,0,0,0,0,0,0,0,0,0,0,0,0,0,0,0,0,0,0,0,0,0,0,0,0,0,0,0,0,0,0,0,0,0,0,0,0,0,0,0,0,0,0,0,0,0,0,0,0,0,0,0,0,0,0,0,0,0,0,0,0,0,0,0,0,0,0,0,0,0,0,0,0,0,0,0,0,0,0,0,0,0,0,0,0,0,0,0,0,0,0,0,0,0,0,0,0,0,0,0,0,0,0,0,0,0,0,0,0,0,0,0,0,0,0,0,0,0,0,0,0,0,0,0,0,0,0,0,0,0,0,0,0,0,0,0,0,0,0,0,0,0,0,0,0,0,0,0,0,0,0,0,0,0,0,0,0,0,0,0,0,0,0,0,0,0,0,0,0,0,0,0,0,0,0,0,0,0,0,0,0,0,0,0,0,0,0,0,0,0,0,0,0,0,0,0,0,0,0,0,0,0,0,0,0,0,0,0,0,0,0,0,0,0,0,0,0,0,0,0,0,0,0,0,0,0,0,0,0,0,0,0,0,0,0,0,0,0,0,0,0,0,0,0,0,0,0,0,0,0,0,0,0,0,0,0,0,0,0,0,0,0,0,0,0,0,0,0,0,0,0,0,0,0,0,0,0,0,0,0,0,0,0,0,0,0,0,0,0,0,0,0,0,0,0,0,0,0,0,0,0,0,0,0,0,0,0,0,0,0,0,0,0,0,0,0,0,0,0,0,0,0,0,0,0,0,0,0,0,0,0,0,0,0,0,0,0,0,0,0,0,0,0,0,0,0,0,0,0,0,0,0,0,0,0,0,0,0,0,0,0,0,0,0,0,0,0,0,0,0,0,0,0,0,0,0,0,0,0,0,0,0,0,0,0,0,0,0,0,0,0,0,0,0,0,0,0,0,0,0,0,0,0,0,0,0,0,0,0,0,0,0,0,0,0,0,0,0,0,0,0,0,0,0,0,0,0,0,0,0,0,0,0,0,0,0,0,0,0,0,0,0,0,0,0,0,0,0,0,0,0,0,0,0,0,0,0,0,0,0,0,0,0,0,0,0,0,0,0,0,0,0,0,0,0,0,0,0,0,0,0,0,0,0,0,0,0,0,0,0,0,0,0,0,0,0,0,0,0,0,0,0,0,0,0,0,0,0,0,0,0,0,0,0,0,0,0,0,0,0,0,0,0,0,0,0,0,0,0,0,0,0,0,0,0,0,0,0,0,0,0,0,0,0,0,0,0,0,0,0,0,0,0,0,0,0,0,0,0,0,0,0,0,0,0,0,0,0,0,0,0,0,0,0,0,0,0,0,0,0,0,0,0,0,0,0,0,0,0,0,0,0,0,0,0,0,0,0,0,0,0,0,0,0,0,0,0,0,0,0,0,0,0,0,0,0,0,0,0,0,0,0,0,0,0,0,0,0,0,0,0,0,0,0,0,0,0,0,0,0,0,0,0,0,0,0,0,0,0,0,0,0,0,0,0,0,0,0,0,0,0,0,0,0,0,0,0,0,0,0,0,0,0,0,0,0,0,0,0,0,0,0,0,0,0,0,0,0,0,0,0,0,0,0,0,0,0,0,0,0,0,0,0,0,0,0,0,0,0,0,0,0,0,0,0,0,0,0,0,0,0,0,0,0,0,0,0,0,0,0,0,0,0,0,0,0,0,0,0,0,0,0,0,0,0,0,0,0,0,0,0,0,0,0,0,0,0,0,0,0,0,0,0,0,0,0,0,0,0,0,0,0,0,0,0,0,0,0,0,0,0,0,0,0,0,0,0,0,0,0,0,0,0,0,0,0,0,0,0,0,0,0,0,0,0,0,0,0,0,0,0,0,0,0,0,0,0,0,0,0,0,0,0,0,0,0,0,0,0,0,0,0,0,0,0,0,0,0,0,0,0,0,0,0,0,0,0,0,0,0,0,0,0,0,0,0,0,0,0,0,0,0,0,0,0,0,0,0,0,0,0,0,0,0,0,0,0,0,0,0,0,0,0,0,0,0,0,0,0,0,0,0,0,0,0,0,0,0,0,0,0,0,
255.0,255.0,255.0,255.0,255.0,255.0,255.0,255.0,255.0,255.0,255.0,255.0,255.0,255.0,255.0,255.0,255.0,255.0,255.0,255.0,255.0,255.0,255.0,255.0,255.0,255.0,255.0,255.0,255.0,255.0,255.0,255.0,255.0,255.0,255.0,255.0,255.0,255.0,255.0,255.0,255.0,255.0,255.0,255.0,255.0,255.0,255.0,255.0,255.0,255.0,255.0,255.0,255.0,255.0,255.0,255.0,255.0,255.0,255.0,255.0,255.0,255.0,255.0,255.0,255.0,255.0,255.0,255.0,255.0,255.0,255.0,255.0,255.0,255.0,255.0,255.0,255.0,255.0,255.0,255.0,255.0,255.0,255.0,255.0,255.0,255.0,255.0,255.0,255.0,255.0,255.0,255.0,255.0,255.0,255.0,255.0,255.0,255.0,255.0,255.0,255.0,255.0,255.0,255.0,255.0,255.0,255.0,255.0,255.0,255.0,255.0,255.0,255.0,255.0,255.0,255.0,255.0,255.0,255.0,255.0,255.0,255.0,255.0,255.0,255.0,255.0,255.0,255.0,255.0,255.0,255.0,255.0,255.0,255.0,255.0,255.0,255.0,255.0,255.0,255.0,255.0,255.0,255.0,255.0,255.0,255.0,255.0,255.0,255.0,255.0,255.0,255.0,255.0,255.0,255.0,255.0,255.0,255.0,255.0,255.0,255.0,255.0,255.0,255.0,255.0,255.0,255.0,255.0,255.0,255.0,255.0,255.0,255.0,255.0,255.0,255.0,255.0,255.0,255.0,255.0,255.0,255.0,255.0,255.0,255.0,255.0,255.0,255.0,255.0,255.0,255.0,255.0,255.0,255.0,255.0,255.0,255.0,255.0,255.0,255.0,255.0,255.0,255.0,255.0,255.0,255.0,255.0,255.0,255.0,255.0,255.0,255.0,255.0,255.0,255.0,255.0,255.0,255.0,255.0,255.0,255.0,255.0,255.0,255.0,255.0,255.0,255.0,255.0,255.0,255.0,255.0,255.0,255.0,255.0,255.0,255.0,255.0,255.0,255.0,255.0,255.0,255.0,255.0,255.0,255.0,255.0,255.0,255.0,255.0,255.0,255.0,255.0,255.0,255.0,255.0,255.0,255.0,255.0,255.0,255.0,255.0,255.0,255.0,255.0,255.0,255.0,255.0,255.0,255.0,255.0,255.0,255.0,255.0,255.0,255.0,255.0,255.0,255.0,255.0,255.0,255.0,255.0,255.0,255.0,255.0,255.0,255.0,255.0,255.0,255.0,255.0,255.0,255.0,255.0,255.0,255.0,255.0,255.0,255.0,255.0,255.0,255.0,255.0,255.0,255.0,255.0,255.0,255.0,255.0,255.0,255.0,255.0,255.0,255.0,255.0,255.0,255.0,255.0,255.0,255.0,255.0,255.0,255.0,255.0,255.0,255.0,255.0,255.0,255.0,255.0,255.0,255.0,255.0,255.0,255.0,255.0,255.0,255.0,255.0,255.0,255.0,255.0,255.0,255.0,255.0,255.0,255.0,255.0,255.0,255.0,255.0,255.0,255.0,255.0,255.0,255.0,255.0,255.0,255.0,255.0,255.0,255.0,255.0,255.0,255.0,255.0,255.0,255.0,255.0,255.0,255.0,255.0,255.0,255.0,255.0,255.0,255.0,255.0,255.0,255.0,255.0,255.0,255.0,255.0,255.0,255.0,255.0,255.0,255.0,255.0,255.0,255.0,255.0,255.0,255.0,255.0,255.0,255.0,255.0,255.0,255.0,255.0,255.0,255.0,255.0,255.0,255.0,255.0,255.0,255.0,255.0,255.0,255.0,255.0,255.0,255.0,255.0,255.0,255.0,255.0,255.0,255.0,255.0,255.0,255.0,255.0,255.0,255.0,255.0,255.0,255.0,255.0,255.0,255.0,255.0,255.0,255.0,255.0,255.0,255.0,255.0,255.0,255.0,255.0,255.0,255.0,255.0,255.0,255.0,255.0,255.0,255.0,255.0,255.0,255.0,255.0,255.0,255.0,255.0,255.0,255.0,255.0,255.0,255.0,255.0,255.0,255.0,255.0,255.0,255.0,255.0,255.0,255.0,255.0,255.0,255.0,255.0,255.0,255.0,255.0,255.0,255.0,255.0,255.0,255.0,255.0,255.0,255.0,255.0,255.0,255.0,255.0,255.0,255.0,255.0,255.0,255.0,255.0,255.0,255.0,255.0,255.0,255.0,255.0,255.0,255.0,255.0,255.0,255.0,255.0,255.0,255.0,255.0,255.0,255.0,255.0,255.0,255.0,255.0,255.0,255.0,255.0,255.0,255.0,255.0,255.0,255.0,255.0,255.0,255.0,255.0,255.0,255.0,255.0,255.0,255.0,255.0,255.0,255.0,255.0,255.0,255.0,255.0,255.0,255.0,255.0,255.0,255.0,255.0,255.0,255.0,255.0,255.0,255.0,255.0,255.0,255.0,255.0,255.0,255.0,255.0,255.0,255.0,255.0,255.0,255.0,255.0,255.0,255.0,255.0,255.0,255.0,255.0,255.0,255.0,255.0,255.0,255.0,255.0,255.0,255.0,255.0,255.0,255.0,255.0,255.0,255.0,255.0,255.0,255.0,255.0,255.0,255.0,255.0,255.0,255.0,255.0,255.0,255.0,255.0,255.0,255.0,255.0,255.0,255.0,255.0,255.0,255.0,255.0,255.0,255.0,255.0,255.0,255.0,255.0,255.0,255.0,255.0,255.0,255.0,255.0,255.0,255.0,255.0,255.0,255.0,255.0,255.0,255.0,255.0,255.0,255.0,255.0,255.0,255.0,255.0,255.0,255.0,255.0,255.0,255.0,255.0,255.0,255.0,255.0,255.0,255.0,255.0,255.0,255.0,255.0,255.0,255.0,255.0,255.0,255.0,255.0,255.0,255.0,255.0,255.0,255.0,255.0,255.0,255.0,255.0,255.0,255.0,255.0,255.0,255.0,255.0,255.0,255.0,255.0,255.0,255.0,255.0,255.0,255.0,255.0,255.0,255.0,255.0,255.0,255.0,255.0,255.0,255.0,255.0,255.0,255.0,255.0,255.0,255.0,255.0,255.0,255.0,255.0,255.0,255.0,255.0,255.0,255.0,255.0,255.0,255.0,255.0,255.0,255.0,255.0,255.0,255.0,255.0,255.0,255.0,255.0,255.0,255.0,255.0,255.0,255.0,255.0,255.0,255.0,255.0,255.0,255.0,255.0,255.0,255.0,255.0,255.0,255.0,255.0,255.0,255.0,255.0,255.0,255.0,255.0,255.0,255.0,255.0,255.0,255.0,255.0,255.0,255.0,255.0,255.0,255.0,255.0,255.0,255.0,255.0,255.0,255.0,255.0,255.0,255.0,255.0,255.0,255.0,255.0,255.0,255.0,255.0,255.0,255.0,255.0,255.0,255.0,255.0,255.0,255.0,255.0,255.0,255.0,255.0,255.0,255.0,255.0,255.0,255.0,255.0,255.0,255.0,255.0,255.0,255.0,255.0,255.0,255.0,255.0,255.0,255.0,255.0,255.0,255.0,255.0,255.0,255.0,255.0,255.0,255.0,255.0,255.0,255.0,255.0,255.0,255.0,255.0,255.0,255.0,255.0,255.0,255.0,255.0,255.0,255.0,255.0,255.0,255.0,255.0,255.0,255.0,255.0,255.0,255.0,255.0,255.0,255.0,255.0,255.0,255.0,255.0,255.0,255.0,255.0,255.0,255.0,255.0,255.0,255.0,255.0,255.0,255.0,255.0,255.0,255.0,255.0,255.0,255.0,255.0,255.0,255.0,255.0,255.0,255.0,255.0,255.0,255.0,255.0,255.0,255.0,255.0,255.0,255.0,255.0,255.0,255.0,255.0,255.0,255.0,255.0,255.0,255.0,255.0,255.0,255.0,255.0,255.0,255.0,255.0,255.0,255.0,255.0,255.0,255.0,255.0,255.0,255.0,255.0,255.0,255.0,255.0,255.0,255.0,255.0,255.0,255.0,255.0,255.0,255.0,255.0,255.0,255.0,255.0,255.0,255.0,255.0,255.0,255.0,255.0,255.0,255.0,255.0,255.0,255.0,255.0,255.0,255.0,255.0,255.0,255.0,255.0,255.0,255.0,255.0,255.0,255.0,255.0,255.0,255.0,255.0,255.0,255.0,255.0,255.0,255.0,255.0,255.0,255.0,255.0,255.0,255.0,255.0,255.0,255.0,255.0,255.0,255.0,255.0,255.0,255.0,255.0,255.0,255.0,255.0,255.0,255.0,255.0,255.0,255.0,255.0,255.0,255.0,255.0,255.0,255.0,255.0,255.0,255.0,255.0,255.0,255.0,255.0,255.0,255.0,255.0,255.0,255.0,255.0,255.0,255.0,255.0,255.0,255.0,255.0,255.0,255.0,255.0,255.0,255.0,255.0,255.0,255.0,255.0,255.0,255.0,255.0,255.0,255.0,255.0,255.0,255.0,255.0,255.0,255.0,255.0,255.0,255.0,255.0,255.0,255.0,255.0,255.0,255.0,255.0,255.0,255.0,255.0,255.0,255.0,255.0,255.0,255.0,255.0,255.0,255.0,255.0,255.0,255.0,255.0,255.0,255.0,255.0,255.0,255.0,255.0,255.0,255.0,255.0,255.0,255.0,255.0,255.0,255.0,255.0,255.0,255.0,255.0,255.0,255.0,255.0,255.0,255.0,255.0,255.0,255.0,255.0,255.0,255.0,255.0,255.0,255.0,255.0,255.0,255.0,255.0,255.0,255.0,255.0,255.0,255.0,255.0,255.0,255.0,255.0,255.0,255.0,255.0,255.0,255.0,255.0,255.0,255.0,255.0,255.0,255.0,255.0,255.0,255.0,255.0,255.0,255.0,255.0,255.0,255.0,255.0,255.0,255.0,255.0,255.0,255.0,255.0,255.0,255.0,255.0,255.0,255.0,255.0,255.0,255.0,255.0,255.0,255.0,255.0,255.0,255.0,255.0,255.0,255.0,255.0,255.0,255.0,255.0,255.0,255.0,255.0,255.0,255.0,255.0,255.0,255.0,255.0,255.0,255.0,255.0,255.0,255.0,255.0,255.0,255.0,255.0,255.0,255.0,255.0,255.0,255.0,255.0,255.0,255.0,255.0,255.0,255.0,255.0,255.0,255.0,255.0,255.0,255.0,255.0,255.0,255.0,255.0,255.0,255.0,255.0,255.0,255.0,255.0,255.0,255.0,255.0,255.0,255.0,255.0,255.0,255.0,255.0,255.0,255.0,255.0,255.0,255.0,255.0,255.0,255.0,255.0,255.0,255.0,255.0,255.0,255.0,255.0,255.0,255.0,255.0,255.0,255.0,255.0,255.0,255.0,255.0,255.0,255.0,255.0,255.0,255.0,255.0,255.0,255.0,255.0,255.0,255.0,255.0,255.0,255.0,255.0,255.0,255.0,255.0,255.0,255.0,255.0,255.0,255.0,255.0,255.0,255.0,255.0,255.0,255.0,255.0,255.0,255.0,255.0,255.0,255.0,255.0,255.0,255.0,255.0,255.0,255.0,255.0,255.0,255.0,255.0,255.0,255.0,255.0,255.0,255.0,255.0,255.0,255.0,255.0,255.0,255.0,255.0,255.0,255.0,255.0,255.0,255.0,255.0,255.0,255.0,255.0,255.0,255.0,255.0,255.0,255.0,255.0,255.0,255.0,255.0,255.0,255.0,255.0,255.0,255.0,255.0,255.0,255.0,255.0,255.0,255.0,255.0,255.0,255.0,255.0,255.0,255.0,255.0,255.0,255.0,255.0,255.0,255.0,255.0,255.0,255.0,255.0,255.0,255.0,255.0,255.0,255.0,255.0,255.0,255.0,255.0,255.0,255.0,255.0,255.0,255.0,255.0,255.0,255.0,255.0,255.0,255.0,255.0,255.0,255.0,255.0,255.0,255.0,255.0,255.0,255.0,255.0,255.0,255.0,255.0,255.0,255.0,255.0,255.0,255.0,255.0,255.0,255.0,255.0,255.0,255.0,255.0,255.0,255.0,255.0,255.0,255.0,255.0,255.0,255.0,255.0,255.0,255.0,255.0,255.0,255.0,255.0,255.0,255.0,255.0,255.0,255.0,255.0,255.0,255.0,255.0,255.0,255.0,255.0,255.0,255.0,255.0,255.0,255.0,255.0,255.0,255.0,255.0,255.0,255.0,255.0,255.0,255.0,255.0,255.0,255.0,255.0,255.0,255.0,255.0,255.0,255.0,255.0,255.0,255.0,255.0,255.0,255.0,255.0,255.0,255.0,255.0,255.0,255.0,255.0,255.0,255.0,255.0,255.0,255.0,255.0,255.0,255.0,255.0,255.0,255.0,255.0,255.0,255.0,255.0,255.0,255.0,255.0,255.0,255.0,255.0,255.0,255.0,255.0,255.0,255.0,255.0,255.0,255.0,255.0,255.0,255.0,255.0,255.0,255.0,255.0,255.0,255.0,255.0,255.0,255.0,255.0,255.0,255.0,255.0,255.0,255.0,255.0,255.0,255.0,255.0,255.0,255.0,255.0,255.0,255.0,255.0,255.0,255.0,255.0,255.0,255.0,255.0,255.0,255.0,255.0,255.0,255.0,255.0,255.0,255.0,255.0,255.0,255.0,255.0,255.0,255.0,255.0,255.0,255.0,255.0,255.0,255.0,255.0,255.0,255.0,255.0,255.0,255.0,255.0,255.0,255.0,255.0,255.0,255.0,255.0,255.0,255.0,255.0,255.0,255.0,255.0,255.0,255.0,255.0,255.0,255.0,255.0,255.0,255.0,255.0,255.0,255.0,255.0,255.0,255.0,255.0,255.0,255.0,255.0,255.0,255.0,255.0,255.0,255.0,255.0,255.0,255.0,255.0,255.0,255.0,255.0,255.0,255.0,255.0,255.0,255.0,255.0,255.0,255.0,255.0,255.0,255.0,255.0,255.0,255.0,255.0,255.0,255.0,255.0,255.0,255.0,255.0,255.0,255.0,255.0,255.0,255.0,255.0,255.0,255.0,255.0,255.0,255.0,255.0,255.0,255.0,255.0,255.0,255.0,255.0,255.0,255.0,255.0,255.0,255.0,255.0,255.0,255.0,255.0,255.0,255.0,255.0,255.0,255.0,255.0,255.0,255.0,255.0,255.0,255.0,255.0,255.0,255.0,255.0,255.0,255.0,255.0,255.0,255.0,255.0,255.0,255.0,255.0,255.0,255.0,255.0,255.0,255.0,255.0,255.0,255.0,255.0,255.0,255.0,255.0,255.0,255.0,255.0,255.0,255.0,255.0,255.0,255.0,255.0,255.0,255.0,255.0,255.0,255.0,255.0,255.0,255.0,255.0,255.0,255.0,255.0,255.0,255.0,255.0,255.0,255.0,255.0,255.0,255.0,255.0,255.0,255.0,255.0,255.0,255.0,255.0,255.0,255.0,255.0,255.0,255.0,255.0,255.0,255.0,255.0,255.0,255.0,255.0,255.0,255.0,255.0,255.0,255.0,255.0,255.0,255.0,255.0,255.0,255.0,255.0,255.0,255.0,255.0,255.0,255.0,255.0,255.0,255.0,255.0,255.0,255.0,255.0,255.0,255.0,255.0,255.0,255.0,255.0,255.0,255.0,255.0,255.0,255.0,255.0,255.0,255.0,255.0,255.0,255.0,255.0,255.0,255.0,255.0,255.0,255.0,255.0,255.0,255.0,255.0,255.0,255.0,255.0,255.0,255.0,255.0,255.0,255.0,255.0,255.0,255.0,255.0,255.0,255.0,255.0,255.0,255.0,255.0,255.0,255.0,255.0,255.0,255.0,255.0,255.0,255.0,255.0,255.0,255.0,255.0,255.0,255.0,255.0,255.0,255.0,255.0,255.0,255.0,255.0,255.0,255.0,255.0,255.0,255.0,255.0,255.0,255.0,255.0,255.0,255.0,255.0,255.0,255.0,255.0,255.0,255.0,255.0,255.0,255.0,255.0,255.0,255.0,255.0,255.0,255.0,255.0,255.0,255.0,255.0,255.0,255.0,255.0,255.0,255.0,255.0,255.0,255.0,255.0,255.0,255.0,255.0,255.0,255.0,255.0,255.0,255.0,255.0,255.0,255.0,255.0,255.0,255.0,255.0,255.0,255.0,255.0,255.0,255.0,255.0,255.0,255.0,255.0,255.0,255.0,255.0,255.0,255.0,255.0,255.0,255.0,255.0,255.0,255.0,255.0,255.0,255.0,255.0,255.0,255.0,255.0,255.0,255.0,255.0,255.0,255.0,255.0,255.0,255.0,255.0,255.0,255.0,255.0,255.0,255.0,255.0,255.0,255.0,255.0,255.0,255.0,255.0,255.0,255.0,255.0,255.0,255.0,255.0,255.0,255.0,255.0,255.0,255.0,255.0,255.0,255.0,255.0,255.0,255.0,255.0,255.0,255.0,255.0,255.0,255.0,255.0,255.0,255.0,255.0,255.0,255.0,255.0,255.0,255.0,255.0,255.0,255.0,255.0,255.0,255.0,255.0,255.0,255.0,255.0,255.0,255.0,255.0,255.0,255.0,255.0,255.0,255.0,255.0,255.0,255.0,255.0,255.0,255.0,255.0,255.0,255.0,255.0,255.0,255.0,255.0,255.0,255.0,255.0,255.0,255.0,255.0,255.0,255.0,255.0,255.0,255.0,255.0,255.0,255.0,255.0,255.0,255.0,255.0,255.0,255.0,255.0,255.0,255.0,255.0,255.0,255.0,255.0,255.0,255.0,255.0,255.0,255.0,255.0,255.0,255.0,255.0,255.0,255.0,255.0,255.0,255.0,255.0,255.0,255.0,255.0,255.0,255.0,255.0,255.0,255.0,255.0,255.0,255.0,255.0,255.0,255.0,255.0,255.0,255.0,255.0,255.0,255.0,255.0,255.0,255.0,255.0,255.0,255.0,255.0,255.0,255.0,255.0,255.0,255.0,255.0,255.0,255.0,255.0,255.0,255.0,255.0,255.0,255.0,255.0,255.0,255.0,255.0,255.0,255.0,255.0,255.0,255.0,255.0,255.0,255.0,255.0,255.0,255.0,255.0,255.0,255.0,255.0,255.0,255.0,255.0,255.0,255.0,255.0,255.0,255.0,255.0,255.0,255.0,255.0,255.0,255.0,255.0,255.0,255.0,255.0,255.0,255.0,255.0,255.0,255.0,255.0,255.0,255.0,255.0,255.0,255.0,255.0,255.0,255.0,255.0,255.0,255.0,255.0,255.0,255.0,255.0,255.0,255.0,255.0,255.0,255.0,255.0,255.0,255.0,255.0,255.0,255.0,255.0,255.0,255.0,255.0,255.0,255.0,255.0,255.0,255.0,255.0,255.0,255.0,255.0,255.0,255.0,255.0,255.0,255.0,255.0,255.0,255.0,255.0,255.0,255.0,255.0,255.0,255.0,255.0,255.0,255.0,255.0,255.0,255.0,255.0,255.0,255.0,255.0,255.0,255.0,255.0,255.0,255.0,255.0,255.0,255.0,255.0,255.0,255.0,255.0,255.0,255.0,255.0,255.0,255.0,255.0,255.0,255.0,255.0,255.0,255.0,255.0,255.0,255.0,255.0,255.0,255.0,255.0,255.0,255.0,255.0,255.0,255.0,255.0,255.0,255.0,255.0,255.0,255.0,255.0,255.0,255.0,255.0,255.0,255.0,255.0,255.0,255.0,255.0,255.0,255.0,255.0,255.0,255.0,255.0,255.0,255.0,255.0,255.0,255.0,255.0,255.0,255.0,255.0,255.0,255.0,255.0,255.0,255.0,255.0,255.0,255.0,255.0,255.0,255.0,255.0,255.0,255.0,255.0,255.0,255.0,255.0,255.0,255.0,255.0,255.0,255.0,255.0,255.0,255.0,255.0,255.0,255.0,255.0,255.0,255.0,255.0,255.0,255.0,255.0,255.0,255.0,255.0,255.0,255.0,255.0,255.0,255.0,255.0,255.0,255.0,255.0,255.0,255.0,255.0,255.0,255.0,255.0,255.0,255.0,255.0,255.0,255.0,255.0,255.0,255.0,255.0,255.0,255.0,255.0,255.0,255.0,255.0,255.0,255.0,255.0,255.0,255.0,255.0,255.0,255.0,255.0,255.0,255.0,255.0,255.0,255.0,255.0,255.0,255.0,255.0,255.0,255.0,255.0,255.0,255.0,255.0,255.0,255.0,255.0,255.0,255.0,255.0,255.0,255.0,255.0,255.0,255.0,255.0,255.0,255.0,255.0,255.0,255.0,255.0,255.0,255.0,255.0,255.0,255.0,255.0,255.0,255.0,255.0,255.0,255.0,255.0,255.0,255.0,255.0,255.0,255.0,255.0,255.0,255.0,255.0,255.0,255.0,255.0,255.0,255.0,255.0,255.0,255.0,255.0,255.0,255.0,255.0,255.0,255.0,255.0,255.0,255.0,255.0,255.0,255.0,255.0,255.0,255.0,255.0,255.0,255.0,255.0,255.0,255.0,255.0,
127.0,127.0,127.0,127.0,127.0,127.0,127.0,127.0,127.0,127.0,127.0,127.0,127.0,127.0,127.0,127.0,127.0,127.0,127.0,127.0,127.0,127.0,127.0,127.0,127.0,127.0,127.0,127.0,127.0,127.0,127.0,127.0,127.0,127.0,127.0,127.0,127.0,127.0,127.0,127.0,127.0,127.0,127.0,127.0,127.0,127.0,127.0,127.0,127.0,127.0,127.0,127.0,127.0,127.0,127.0,127.0,127.0,127.0,127.0,127.0,127.0,127.0,127.0,127.0,127.0,127.0,127.0,127.0,127.0,127.0,127.0,127.0,127.0,127.0,127.0,127.0,127.0,127.0,127.0,127.0,127.0,127.0,127.0,127.0,127.0,127.0,127.0,127.0,127.0,127.0,127.0,127.0,127.0,127.0,127.0,127.0,127.0,127.0,127.0,127.0,127.0,127.0,127.0,127.0,127.0,127.0,127.0,127.0,127.0,127.0,127.0,127.0,127.0,127.0,127.0,127.0,127.0,127.0,127.0,127.0,127.0,127.0,127.0,127.0,127.0,127.0,127.0,127.0,127.0,127.0,127.0,127.0,127.0,127.0,127.0,127.0,127.0,127.0,127.0,127.0,127.0,127.0,127.0,127.0,127.0,127.0,127.0,127.0,127.0,127.0,127.0,127.0,127.0,127.0,127.0,127.0,127.0,127.0,127.0,127.0,127.0,127.0,127.0,127.0,127.0,127.0,127.0,127.0,127.0,127.0,127.0,127.0,127.0,127.0,127.0,127.0,127.0,127.0,127.0,127.0,127.0,127.0,127.0,127.0,127.0,127.0,127.0,127.0,127.0,127.0,127.0,127.0,127.0,127.0,127.0,127.0,127.0,127.0,127.0,127.0,127.0,127.0,127.0,127.0,127.0,127.0,127.0,127.0,127.0,127.0,127.0,127.0,127.0,127.0,127.0,127.0,127.0,127.0,127.0,127.0,127.0,127.0,127.0,127.0,127.0,127.0,127.0,127.0,127.0,127.0,127.0,127.0,127.0,127.0,127.0,127.0,127.0,127.0,127.0,127.0,127.0,127.0,127.0,127.0,127.0,127.0,127.0,127.0,127.0,127.0,127.0,127.0,127.0,127.0,127.0,127.0,127.0,127.0,127.0,127.0,127.0,127.0,127.0,127.0,127.0,127.0,127.0,127.0,127.0,127.0,127.0,127.0,127.0,127.0,127.0,127.0,127.0,127.0,127.0,127.0,127.0,127.0,127.0,127.0,127.0,127.0,127.0,127.0,127.0,127.0,127.0,127.0,127.0,127.0,127.0,127.0,127.0,127.0,127.0,127.0,127.0,127.0,127.0,127.0,127.0,127.0,127.0,127.0,127.0,127.0,127.0,127.0,127.0,127.0,127.0,127.0,127.0,127.0,127.0,127.0,127.0,127.0,127.0,127.0,127.0,127.0,127.0,127.0,127.0,127.0,127.0,127.0,127.0,127.0,127.0,127.0,127.0,127.0,127.0,127.0,127.0,127.0,127.0,127.0,127.0,127.0,127.0,127.0,127.0,127.0,127.0,127.0,127.0,127.0,127.0,127.0,127.0,127.0,127.0,127.0,127.0,127.0,127.0,127.0,127.0,127.0,127.0,127.0,127.0,127.0,127.0,127.0,127.0,127.0,127.0,127.0,127.0,127.0,127.0,127.0,127.0,127.0,127.0,127.0,127.0,127.0,127.0,127.0,127.0,127.0,127.0,127.0,127.0,127.0,127.0,127.0,127.0,127.0,127.0,127.0,127.0,127.0,127.0,127.0,127.0,127.0,127.0,127.0,127.0,127.0,127.0,127.0,127.0,127.0,127.0,127.0,127.0,127.0,127.0,127.0,127.0,127.0,127.0,127.0,127.0,127.0,127.0,127.0,127.0,127.0,127.0,127.0,127.0,127.0,127.0,127.0,127.0,127.0,127.0,127.0,127.0,127.0,127.0,127.0,127.0,127.0,127.0,127.0,127.0,127.0,127.0,127.0,127.0,127.0,127.0,127.0,127.0,127.0,127.0,127.0,127.0,127.0,127.0,127.0,127.0,127.0,127.0,127.0,127.0,127.0,127.0,127.0,127.0,127.0,127.0,127.0,127.0,127.0,127.0,127.0,127.0,127.0,127.0,127.0,127.0,127.0,127.0,127.0,127.0,127.0,127.0,127.0,127.0,127.0,127.0,127.0,127.0,127.0,127.0,127.0,127.0,127.0,127.0,127.0,127.0,127.0,127.0,127.0,127.0,127.0,127.0,127.0,127.0,127.0,127.0,127.0,127.0,127.0,127.0,127.0,127.0,127.0,127.0,127.0,127.0,127.0,127.0,127.0,127.0,127.0,127.0,127.0,127.0,127.0,127.0,127.0,127.0,127.0,127.0,127.0,127.0,127.0,127.0,127.0,127.0,127.0,127.0,127.0,127.0,127.0,127.0,127.0,127.0,127.0,127.0,127.0,127.0,127.0,127.0,127.0,127.0,127.0,127.0,127.0,127.0,127.0,127.0,127.0,127.0,127.0,127.0,127.0,127.0,127.0,127.0,127.0,127.0,127.0,127.0,127.0,127.0,127.0,127.0,127.0,127.0,127.0,127.0,127.0,127.0,127.0,127.0,127.0,127.0,127.0,127.0,127.0,127.0,127.0,127.0,127.0,127.0,127.0,127.0,127.0,127.0,127.0,127.0,127.0,127.0,127.0,127.0,127.0,127.0,127.0,127.0,127.0,127.0,127.0,127.0,127.0,127.0,127.0,127.0,127.0,127.0,127.0,127.0,127.0,127.0,127.0,127.0,127.0,127.0,127.0,127.0,127.0,127.0,127.0,127.0,127.0,127.0,127.0,127.0,127.0,127.0,127.0,127.0,127.0,127.0,127.0,127.0,127.0,127.0,127.0,127.0,127.0,127.0,127.0,127.0,127.0,127.0,127.0,127.0,127.0,127.0,127.0,127.0,127.0,127.0,127.0,127.0,127.0,127.0,127.0,127.0,127.0,127.0,127.0,127.0,127.0,127.0,127.0,127.0,127.0,127.0,127.0,127.0,127.0,127.0,127.0,127.0,127.0,127.0,127.0,127.0,127.0,127.0,127.0,127.0,127.0,127.0,127.0,127.0,127.0,127.0,127.0,127.0,127.0,127.0,127.0,127.0,127.0,127.0,127.0,127.0,127.0,127.0,127.0,127.0,127.0,127.0,127.0,127.0,127.0,127.0,127.0,127.0,127.0,127.0,127.0,127.0,127.0,127.0,127.0,127.0,127.0,127.0,127.0,127.0,127.0,127.0,127.0,127.0,127.0,127.0,127.0,127.0,127.0,127.0,127.0,127.0,127.0,127.0,127.0,127.0,127.0,127.0,127.0,127.0,127.0,127.0,127.0,127.0,127.0,127.0,127.0,127.0,127.0,127.0,127.0,127.0,127.0,127.0,127.0,127.0,127.0,127.0,127.0,127.0,127.0,127.0,127.0,127.0,127.0,127.0,127.0,127.0,127.0,127.0,127.0,127.0,127.0,127.0,127.0,127.0,127.0,127.0,127.0,127.0,127.0,127.0,127.0,127.0,127.0,127.0,127.0,127.0,127.0,127.0,127.0,127.0,127.0,127.0,127.0,127.0,127.0,127.0,127.0,127.0,127.0,127.0,127.0,127.0,127.0,127.0,127.0,127.0,127.0,127.0,127.0,127.0,127.0,127.0,127.0,127.0,127.0,127.0,127.0,127.0,127.0,127.0,127.0,127.0,127.0,127.0,127.0,127.0,127.0,127.0,127.0,127.0,127.0,127.0,127.0,127.0,127.0,127.0,127.0,127.0,127.0,127.0,127.0,127.0,127.0,127.0,127.0,127.0,127.0,127.0,127.0,127.0,127.0,127.0,127.0,127.0,127.0,127.0,127.0,127.0,127.0,127.0,127.0,127.0,127.0,127.0,127.0,127.0,127.0,127.0,127.0,127.0,127.0,127.0,127.0,127.0,127.0,127.0,127.0,127.0,127.0,127.0,127.0,127.0,127.0,127.0,127.0,127.0,127.0,127.0,127.0,127.0,127.0,127.0,127.0,127.0,127.0,127.0,127.0,127.0,127.0,127.0,127.0,127.0,127.0,127.0,127.0,127.0,127.0,127.0,127.0,127.0,127.0,127.0,127.0,127.0,127.0,127.0,127.0,127.0,127.0,127.0,127.0,127.0,127.0,127.0,127.0,127.0,127.0,127.0,127.0,127.0,127.0,127.0,127.0,127.0,127.0,127.0,127.0,127.0,127.0,127.0,127.0,127.0,127.0,127.0,127.0,127.0,127.0,127.0,127.0,127.0,127.0,127.0,127.0,127.0,127.0,127.0,127.0,127.0,127.0,127.0,127.0,127.0,127.0,127.0,127.0,127.0,127.0,127.0,127.0,127.0,127.0,127.0,127.0,127.0,127.0,127.0,127.0,127.0,127.0,127.0,127.0,127.0,127.0,127.0,127.0,127.0,127.0,127.0,127.0,127.0,127.0,127.0,127.0,127.0,127.0,127.0,127.0,127.0,127.0,127.0,127.0,127.0,127.0,127.0,127.0,127.0,127.0,127.0,127.0,127.0,127.0,127.0,127.0,127.0,127.0,127.0,127.0,127.0,127.0,127.0,127.0,127.0,127.0,127.0,127.0,127.0,127.0,127.0,127.0,127.0,127.0,127.0,127.0,127.0,127.0,127.0,127.0,127.0,127.0,127.0,127.0,127.0,127.0,127.0,127.0,127.0,127.0,127.0,127.0,127.0,127.0,127.0,127.0,127.0,127.0,127.0,127.0,127.0,127.0,127.0,127.0,127.0,127.0,127.0,127.0,127.0,127.0,127.0,127.0,127.0,127.0,127.0,127.0,127.0,127.0,127.0,127.0,127.0,127.0,127.0,127.0,127.0,127.0,127.0,127.0,127.0,127.0,127.0,127.0,127.0,127.0,127.0,127.0,127.0,127.0,127.0,127.0,127.0,127.0,127.0,127.0,127.0,127.0,127.0,127.0,127.0,127.0,127.0,127.0,127.0,127.0,127.0,127.0,127.0,127.0,127.0,127.0,127.0,127.0,127.0,127.0,127.0,127.0,127.0,127.0,127.0,127.0,127.0,127.0,127.0,127.0,127.0,127.0,127.0,127.0,127.0,127.0,127.0,127.0,127.0,127.0,127.0,127.0,127.0,127.0,127.0,127.0,127.0,127.0,127.0,127.0,127.0,127.0,127.0,127.0,127.0,127.0,127.0,127.0,127.0,127.0,127.0,127.0,127.0,127.0,127.0,127.0,127.0,127.0,127.0,127.0,127.0,127.0,127.0,127.0,127.0,127.0,127.0,127.0,127.0,127.0,127.0,127.0,127.0,127.0,127.0,127.0,127.0,127.0,127.0,127.0,127.0,127.0,127.0,127.0,127.0,127.0,127.0,127.0,127.0,127.0,127.0,127.0,127.0,127.0,127.0,127.0,127.0,127.0,127.0,127.0,127.0,127.0,127.0,127.0,127.0,127.0,127.0,127.0,127.0,127.0,127.0,127.0,127.0,127.0,127.0,127.0,127.0,127.0,127.0,127.0,127.0,127.0,127.0,127.0,127.0,127.0,127.0,127.0,127.0,127.0,127.0,127.0,127.0,127.0,127.0,127.0,127.0,127.0,127.0,127.0,127.0,127.0,127.0,127.0,127.0,127.0,127.0,127.0,127.0,127.0,127.0,127.0,127.0,127.0,127.0,127.0,127.0,127.0,127.0,127.0,127.0,127.0,127.0,127.0,127.0,127.0,127.0,127.0,127.0,127.0,127.0,127.0,127.0,127.0,127.0,127.0,127.0,127.0,127.0,127.0,127.0,127.0,127.0,127.0,127.0,127.0,127.0,127.0,127.0,127.0,127.0,127.0,127.0,127.0,127.0,127.0,127.0,127.0,127.0,127.0,127.0,127.0,127.0,127.0,127.0,127.0,127.0,127.0,127.0,127.0,127.0,127.0,127.0,127.0,127.0,127.0,127.0,127.0,127.0,127.0,127.0,127.0,127.0,127.0,127.0,127.0,127.0,127.0,127.0,127.0,127.0,127.0,127.0,127.0,127.0,127.0,127.0,127.0,127.0,127.0,127.0,127.0,127.0,127.0,127.0,127.0,127.0,127.0,127.0,127.0,127.0,127.0,127.0,127.0,127.0,127.0,127.0,127.0,127.0,127.0,127.0,127.0,127.0,127.0,127.0,127.0,127.0,127.0,127.0,127.0,127.0,127.0,127.0,127.0,127.0,127.0,127.0,127.0,127.0,127.0,127.0,127.0,127.0,127.0,127.0,127.0,127.0,127.0,127.0,127.0,127.0,127.0,127.0,127.0,127.0,127.0,127.0,127.0,127.0,127.0,127.0,127.0,127.0,127.0,127.0,127.0,127.0,127.0,127.0,127.0,127.0,127.0,127.0,127.0,127.0,127.0,127.0,127.0,127.0,127.0,127.0,127.0,127.0,127.0,127.0,127.0,127.0,127.0,127.0,127.0,127.0,127.0,127.0,127.0,127.0,127.0,127.0,127.0,127.0,127.0,127.0,127.0,127.0,127.0,127.0,127.0,127.0,127.0,127.0,127.0,127.0,127.0,127.0,127.0,127.0,127.0,127.0,127.0,127.0,127.0,127.0,127.0,127.0,127.0,127.0,127.0,127.0,127.0,127.0,127.0,127.0,127.0,127.0,127.0,127.0,127.0,127.0,127.0,127.0,127.0,127.0,127.0,127.0,127.0,127.0,127.0,127.0,127.0,127.0,127.0,127.0,127.0,127.0,127.0,127.0,127.0,127.0,127.0,127.0,127.0,127.0,127.0,127.0,127.0,127.0,127.0,127.0,127.0,127.0,127.0,127.0,127.0,127.0,127.0,127.0,127.0,127.0,127.0,127.0,127.0,127.0,127.0,127.0,127.0,127.0,127.0,127.0,127.0,127.0,127.0,127.0,127.0,127.0,127.0,127.0,127.0,127.0,127.0,127.0,127.0,127.0,127.0,127.0,127.0,127.0,127.0,127.0,127.0,127.0,127.0,127.0,127.0,127.0,127.0,127.0,127.0,127.0,127.0,127.0,127.0,127.0,127.0,127.0,127.0,127.0,127.0,127.0,127.0,127.0,127.0,127.0,127.0,127.0,127.0,127.0,127.0,127.0,127.0,127.0,127.0,127.0,127.0,127.0,127.0,127.0,127.0,127.0,127.0,127.0,127.0,127.0,127.0,127.0,127.0,127.0,127.0,127.0,127.0,127.0,127.0,127.0,127.0,127.0,127.0,127.0,127.0,127.0,127.0,127.0,127.0,127.0,127.0,127.0,127.0,127.0,127.0,127.0,127.0,127.0,127.0,127.0,127.0,127.0,127.0,127.0,127.0,127.0,127.0,127.0,127.0,127.0,127.0,127.0,127.0,127.0,127.0,127.0,127.0,127.0,127.0,127.0,127.0,127.0,127.0,127.0,127.0,127.0,127.0,127.0,127.0,127.0,127.0,127.0,127.0,127.0,127.0,127.0,127.0,127.0,127.0,127.0,127.0,127.0,127.0,127.0,127.0,127.0,127.0,127.0,127.0,127.0,127.0,127.0,127.0,127.0,127.0,127.0,127.0,127.0,127.0,127.0,127.0,127.0,127.0,127.0,127.0,127.0,127.0,127.0,127.0,127.0,127.0,127.0,127.0,127.0,127.0,127.0,127.0,127.0,127.0,127.0,127.0,127.0,127.0,127.0,127.0,127.0,127.0,127.0,127.0,127.0,127.0,127.0,127.0,127.0,127.0,127.0,127.0,127.0,127.0,127.0,127.0,127.0,127.0,127.0,127.0,127.0,127.0,127.0,127.0,127.0,127.0,127.0,127.0,127.0,127.0,127.0,127.0,127.0,127.0,127.0,127.0,127.0,127.0,127.0,127.0,127.0,127.0,127.0,127.0,127.0,127.0,127.0,127.0,127.0,127.0,127.0,127.0,127.0,127.0,127.0,127.0,127.0,127.0,127.0,127.0,127.0,127.0,127.0,127.0,127.0,127.0,127.0,127.0,127.0,127.0,127.0,127.0,127.0,127.0,127.0,127.0,127.0,127.0,127.0,127.0,127.0,127.0,127.0,127.0,127.0,127.0,127.0,127.0,127.0,127.0,127.0,127.0,127.0,127.0,127.0,127.0,127.0,127.0,127.0,127.0,127.0,127.0,127.0,127.0,127.0,127.0,127.0,127.0,127.0,127.0,127.0,127.0,127.0,127.0,127.0,127.0,127.0,127.0,127.0,127.0,127.0,127.0,127.0,127.0,127.0,127.0,127.0,127.0,127.0,127.0,127.0,127.0,127.0,127.0,127.0,127.0,127.0,127.0,127.0,127.0,127.0,127.0,127.0,127.0,127.0,127.0,127.0,127.0,127.0,127.0,127.0,127.0,127.0,127.0,127.0,127.0,127.0,127.0,127.0,127.0,127.0,127.0,127.0,127.0,127.0,127.0,127.0,127.0,127.0,127.0,127.0,127.0,127.0,127.0,127.0,127.0,127.0,127.0,127.0,127.0,127.0,127.0,127.0,127.0,127.0,127.0,127.0,127.0,127.0,127.0,127.0,127.0,127.0,127.0,127.0,127.0,127.0,127.0,127.0,127.0,127.0,127.0,127.0,127.0,127.0,127.0,127.0,127.0,127.0,127.0,127.0,127.0,127.0,127.0,127.0,127.0,127.0,127.0,127.0,127.0,127.0,127.0,127.0,127.0,127.0,127.0,127.0,127.0,127.0,127.0,127.0,127.0,127.0,127.0,127.0,127.0,127.0,127.0,127.0,127.0,127.0,127.0,127.0,127.0,127.0,127.0,127.0,127.0,127.0,127.0,127.0,127.0,127.0,127.0,127.0,127.0,127.0,127.0,127.0,127.0,127.0,127.0,127.0,127.0,127.0,127.0,127.0,127.0,127.0,127.0,127.0,127.0,127.0,127.0,127.0,127.0,127.0,127.0,127.0,127.0,127.0,127.0,127.0,127.0,127.0,127.0,127.0,127.0,127.0,127.0,127.0,127.0,127.0,127.0,127.0,127.0,127.0,127.0,127.0,127.0,127.0,127.0,127.0,127.0,127.0,127.0,127.0,127.0,127.0,127.0,127.0,127.0,127.0,127.0,127.0,127.0,127.0,127.0,127.0,127.0,127.0,127.0,127.0,127.0,127.0,127.0,127.0,127.0,127.0,127.0,127.0,127.0,127.0,127.0,127.0,127.0,127.0,127.0,127.0,127.0,127.0,127.0,127.0,127.0,127.0,127.0,127.0,127.0,127.0,127.0,127.0,127.0,127.0,127.0,127.0,127.0,127.0,127.0,127.0,127.0,127.0,127.0,127.0,127.0,127.0,127.0,127.0,127.0,127.0,127.0,127.0,127.0,127.0,127.0,127.0,127.0,127.0,127.0,127.0,127.0,127.0,127.0,127.0,127.0,127.0,127.0,127.0,127.0,127.0,127.0,127.0,127.0,127.0,127.0,127.0,127.0,127.0,127.0,127.0,127.0,127.0,127.0,127.0,127.0,127.0,127.0,127.0,127.0,127.0,127.0,127.0,127.0,127.0,127.0,127.0,127.0,127.0,127.0,127.0,127.0,127.0,127.0,127.0,127.0,127.0,127.0,127.0,127.0,127.0,127.0,127.0,127.0,127.0,127.0,127.0,127.0,127.0,127.0,127.0,127.0,127.0,127.0,127.0,127.0,127.0,127.0,127.0,127.0,127.0,127.0,127.0,127.0,127.0,127.0,127.0,127.0,127.0,127.0,127.0,127.0,127.0,127.0,127.0,127.0,127.0,127.0,127.0,127.0,127.0,127.0,127.0,127.0,127.0,127.0,127.0,127.0,127.0,127.0,127.0,127.0,127.0,127.0,127.0,127.0,127.0,127.0,127.0,127.0,127.0,127.0,127.0,127.0,127.0,127.0,127.0,127.0,127.0,127.0,127.0,127.0,127.0,127.0,127.0,127.0,127.0,127.0,127.0,127.0,127.0,127.0,127.0,127.0,127.0,127.0,127.0,127.0,127.0,127.0,127.0,127.0,127.0,127.0,127.0,127.0,127.0,127.0,127.0,127.0,127.0,127.0,127.0,127.0,127.0,127.0,127.0,127.0,127.0,127.0,127.0,127.0,127.0,127.0,127.0,127.0,127.0,127.0,127.0,127.0,127.0,127.0,127.0,127.0,127.0,127.0,127.0,127.0,127.0,127.0,127.0,127.0,127.0,127.0,127.0,127.0,127.0,127.0,127.0,127.0,127.0,127.0,127.0,127.0,127.0,127.0,127.0,127.0,127.0,127.0,127.0,127.0,127.0,127.0,127.0,127.0,127.0,127.0,127.0,127.0,127.0,127.0,127.0,127.0,127.0,127.0,127.0,127.0,127.0,127.0,127.0,127.0,127.0,127.0,127.0,127.0,127.0,127.0,127.0,127.0,127.0,127.0,127.0,127.0,127.0,127.0,
255.0,255.0,255.0,255.0,255.0,255.0,255.0,255.0,255.0,255.0,255.0,255.0,255.0,255.0,255.0,255.0,255.0,255.0,255.0,255.0,255.0,255.0,255.0,255.0,255.0,255.0,255.0,255.0,255.0,255.0,255.0,255.0,255.0,255.0,255.0,255.0,255.0,255.0,255.0,255.0,255.0,255.0,255.0,255.0,255.0,255.0,255.0,255.0,255.0,255.0,255.0,255.0,255.0,255.0,255.0,255.0,255.0,255.0,255.0,255.0,255.0,255.0,255.0,255.0,255.0,255.0,255.0,255.0,255.0,255.0,255.0,255.0,255.0,255.0,255.0,255.0,255.0,255.0,255.0,255.0,255.0,255.0,255.0,255.0,255.0,255.0,255.0,255.0,255.0,255.0,255.0,255.0,255.0,255.0,255.0,255.0,255.0,255.0,255.0,255.0,255.0,255.0,255.0,255.0,255.0,255.0,255.0,255.0,255.0,255.0,255.0,255.0,255.0,255.0,255.0,255.0,255.0,255.0,255.0,255.0,255.0,255.0,255.0,255.0,255.0,255.0,255.0,255.0,255.0,255.0,255.0,255.0,255.0,255.0,255.0,255.0,255.0,255.0,255.0,255.0,255.0,255.0,255.0,255.0,255.0,255.0,255.0,255.0,255.0,255.0,255.0,255.0,255.0,255.0,255.0,255.0,255.0,255.0,255.0,255.0,255.0,255.0,255.0,255.0,255.0,255.0,255.0,255.0,255.0,255.0,255.0,255.0,255.0,255.0,255.0,255.0,255.0,255.0,255.0,255.0,255.0,255.0,255.0,255.0,255.0,255.0,255.0,255.0,255.0,255.0,255.0,255.0,255.0,255.0,255.0,255.0,255.0,255.0,255.0,255.0,255.0,255.0,255.0,255.0,255.0,255.0,255.0,255.0,255.0,255.0,255.0,255.0,255.0,255.0,255.0,255.0,255.0,255.0,255.0,255.0,255.0,255.0,255.0,255.0,255.0,255.0,255.0,255.0,255.0,255.0,255.0,255.0,255.0,255.0,255.0,255.0,255.0,255.0,255.0,255.0,255.0,255.0,255.0,255.0,255.0,255.0,255.0,255.0,255.0,255.0,255.0,255.0,255.0,255.0,255.0,255.0,255.0,255.0,255.0,255.0,255.0,255.0,255.0,255.0,255.0,255.0,255.0,255.0,255.0,255.0,255.0,255.0,255.0,255.0,255.0,255.0,255.0,255.0,255.0,255.0,255.0,255.0,255.0,255.0,255.0,255.0,255.0,255.0,255.0,255.0,255.0,255.0,255.0,255.0,255.0,255.0,255.0,255.0,255.0,255.0,255.0,255.0,255.0,255.0,255.0,255.0,255.0,255.0,255.0,255.0,255.0,255.0,255.0,255.0,255.0,255.0,255.0,255.0,255.0,255.0,255.0,255.0,255.0,255.0,255.0,255.0,255.0,255.0,255.0,255.0,255.0,255.0,255.0,255.0,255.0,255.0,255.0,255.0,255.0,255.0,255.0,255.0,255.0,255.0,255.0,255.0,255.0,255.0,255.0,255.0,255.0,255.0,255.0,255.0,255.0,255.0,255.0,255.0,255.0,255.0,255.0,255.0,255.0,255.0,255.0,255.0,255.0,255.0,255.0,255.0,255.0,255.0,255.0,255.0,255.0,255.0,255.0,255.0,255.0,255.0,255.0,255.0,255.0,255.0,255.0,255.0,255.0,255.0,255.0,255.0,255.0,255.0,255.0,255.0,255.0,255.0,255.0,255.0,255.0,255.0,255.0,255.0,255.0,255.0,255.0,255.0,255.0,255.0,255.0,255.0,255.0,255.0,255.0,255.0,255.0,255.0,255.0,255.0,255.0,255.0,255.0,255.0,255.0,255.0,255.0,255.0,255.0,255.0,255.0,255.0,255.0,255.0,255.0,255.0,255.0,255.0,255.0,255.0,255.0,255.0,255.0,255.0,255.0,255.0,255.0,255.0,255.0,255.0,255.0,255.0,255.0,255.0,255.0,255.0,255.0,255.0,255.0,255.0,255.0,255.0,255.0,255.0,255.0,255.0,255.0,255.0,255.0,255.0,255.0,255.0,255.0,255.0,255.0,255.0,255.0,255.0,255.0,255.0,255.0,255.0,255.0,255.0,255.0,255.0,255.0,255.0,255.0,255.0,255.0,255.0,255.0,255.0,255.0,255.0,255.0,255.0,255.0,255.0,255.0,255.0,255.0,255.0,255.0,255.0,255.0,255.0,255.0,255.0,255.0,255.0,255.0,255.0,255.0,255.0,255.0,255.0,255.0,255.0,255.0,255.0,255.0,255.0,255.0,255.0,255.0,255.0,255.0,255.0,255.0,255.0,255.0,255.0,255.0,255.0,255.0,255.0,255.0,255.0,255.0,255.0,255.0,255.0,255.0,255.0,255.0,255.0,255.0,255.0,255.0,255.0,255.0,255.0,255.0,255.0,255.0,255.0,255.0,255.0,255.0,255.0,255.0,255.0,255.0,255.0,255.0,255.0,255.0,255.0,255.0,255.0,255.0,255.0,255.0,255.0,255.0,255.0,255.0,255.0,255.0,255.0,255.0,255.0,255.0,255.0,255.0,255.0,255.0,255.0,255.0,255.0,255.0,255.0,255.0,255.0,255.0,255.0,255.0,255.0,255.0,255.0,255.0,255.0,255.0,255.0,255.0,255.0,255.0,255.0,255.0,255.0,255.0,255.0,255.0,255.0,255.0,255.0,255.0,255.0,255.0,255.0,255.0,255.0,255.0,255.0,255.0,255.0,255.0,255.0,255.0,255.0,255.0,255.0,255.0,255.0,255.0,255.0,255.0,255.0,255.0,255.0,255.0,255.0,255.0,255.0,255.0,255.0,255.0,255.0,255.0,255.0,255.0,255.0,255.0,255.0,255.0,255.0,255.0,255.0,255.0,255.0,255.0,255.0,255.0,255.0,255.0,255.0,255.0,255.0,255.0,255.0,255.0,255.0,255.0,255.0,255.0,255.0,255.0,255.0,255.0,255.0,255.0,255.0,255.0,255.0,255.0,255.0,255.0,255.0,255.0,255.0,255.0,255.0,255.0,255.0,255.0,255.0,255.0,255.0,255.0,255.0,255.0,255.0,255.0,255.0,255.0,255.0,255.0,255.0,255.0,255.0,255.0,255.0,255.0,255.0,255.0,255.0,255.0,255.0,255.0,255.0,255.0,255.0,255.0,255.0,255.0,255.0,255.0,255.0,255.0,255.0,255.0,255.0,255.0,255.0,255.0,255.0,255.0,255.0,255.0,255.0,255.0,255.0,255.0,255.0,255.0,255.0,255.0,255.0,255.0,255.0,255.0,255.0,255.0,255.0,255.0,255.0,255.0,255.0,255.0,255.0,255.0,255.0,255.0,255.0,255.0,255.0,255.0,255.0,255.0,255.0,255.0,255.0,255.0,255.0,255.0,255.0,255.0,255.0,255.0,255.0,255.0,255.0,255.0,255.0,255.0,255.0,255.0,255.0,255.0,255.0,255.0,255.0,255.0,255.0,255.0,255.0,255.0,255.0,255.0,255.0,255.0,255.0,255.0,255.0,255.0,255.0,255.0,255.0,255.0,255.0,255.0,255.0,255.0,255.0,255.0,255.0,255.0,255.0,255.0,255.0,255.0,255.0,255.0,255.0,255.0,255.0,255.0,255.0,255.0,255.0,255.0,255.0,255.0,255.0,255.0,255.0,255.0,255.0,255.0,255.0,255.0,255.0,255.0,255.0,255.0,255.0,255.0,255.0,255.0,255.0,255.0,255.0,255.0,255.0,255.0,255.0,255.0,255.0,255.0,255.0,255.0,255.0,255.0,255.0,255.0,255.0,255.0,255.0,255.0,255.0,255.0,255.0,255.0,255.0,255.0,255.0,255.0,255.0,255.0,255.0,255.0,255.0,255.0,255.0,255.0,255.0,255.0,255.0,255.0,255.0,255.0,255.0,255.0,255.0,255.0,255.0,255.0,255.0,255.0,255.0,255.0,255.0,255.0,255.0,255.0,255.0,255.0,255.0,255.0,255.0,255.0,255.0,255.0,255.0,255.0,255.0,255.0,255.0,255.0,255.0,255.0,255.0,255.0,255.0,255.0,255.0,255.0,255.0,255.0,255.0,255.0,255.0,255.0,255.0,255.0,255.0,255.0,255.0,255.0,255.0,255.0,255.0,255.0,255.0,255.0,255.0,255.0,255.0,255.0,255.0,255.0,255.0,255.0,255.0,255.0,255.0,255.0,255.0,255.0,255.0,255.0,255.0,255.0,255.0,255.0,255.0,255.0,255.0,255.0,255.0,255.0,255.0,255.0,255.0,255.0,255.0,255.0,255.0,255.0,255.0,255.0,255.0,255.0,255.0,255.0,255.0,255.0,255.0,255.0,255.0,255.0,255.0,255.0,255.0,255.0,255.0,255.0,255.0,255.0,255.0,255.0,255.0,255.0,255.0,255.0,255.0,255.0,255.0,255.0,255.0,255.0,255.0,255.0,255.0,255.0,255.0,255.0,255.0,255.0,255.0,255.0,255.0,255.0,255.0,255.0,255.0,255.0,255.0,255.0,255.0,255.0,255.0,255.0,255.0,255.0,255.0,255.0,255.0,255.0,255.0,255.0,255.0,255.0,255.0,255.0,255.0,255.0,255.0,255.0,255.0,255.0,255.0,255.0,255.0,255.0,255.0,255.0,255.0,255.0,255.0,255.0,255.0,255.0,255.0,255.0,255.0,255.0,255.0,255.0,255.0,255.0,255.0,255.0,255.0,255.0,255.0,255.0,255.0,255.0,255.0,255.0,255.0,255.0,255.0,255.0,255.0,255.0,255.0,255.0,255.0,255.0,255.0,255.0,255.0,255.0,255.0,255.0,255.0,255.0,255.0,255.0,255.0,255.0,255.0,255.0,255.0,255.0,255.0,255.0,255.0,255.0,255.0,255.0,255.0,255.0,255.0,255.0,255.0,255.0,255.0,255.0,255.0,255.0,255.0,255.0,255.0,255.0,255.0,255.0,255.0,255.0,255.0,255.0,255.0,255.0,255.0,255.0,255.0,255.0,255.0,255.0,255.0,255.0,255.0,255.0,255.0,255.0,255.0,255.0,255.0,255.0,255.0,255.0,255.0,255.0,255.0,255.0,255.0,255.0,255.0,255.0,255.0,255.0,255.0,255.0,255.0,255.0,255.0,255.0,255.0,255.0,255.0,255.0,255.0,255.0,255.0,255.0,255.0,255.0,255.0,255.0,255.0,255.0,255.0,255.0,255.0,255.0,255.0,255.0,255.0,255.0,255.0,255.0,255.0,255.0,255.0,255.0,255.0,255.0,255.0,255.0,255.0,255.0,255.0,255.0,255.0,255.0,255.0,255.0,255.0,255.0,255.0,255.0,255.0,255.0,255.0,255.0,255.0,255.0,255.0,255.0,255.0,255.0,255.0,255.0,255.0,255.0,255.0,255.0,255.0,255.0,255.0,255.0,255.0,255.0,255.0,255.0,255.0,255.0,255.0,255.0,255.0,255.0,255.0,255.0,255.0,255.0,255.0,255.0,255.0,255.0,255.0,255.0,255.0,255.0,255.0,255.0,255.0,255.0,255.0,255.0,255.0,255.0,255.0,255.0,255.0,255.0,255.0,255.0,255.0,255.0,255.0,255.0,255.0,255.0,255.0,255.0,255.0,255.0,255.0,255.0,255.0,255.0,255.0,255.0,255.0,255.0,255.0,255.0,255.0,255.0,255.0,255.0,255.0,255.0,255.0,255.0,255.0,255.0,255.0,255.0,255.0,255.0,255.0,255.0,255.0,255.0,255.0,255.0,255.0,255.0,255.0,255.0,255.0,255.0,255.0,255.0,255.0,255.0,255.0,255.0,255.0,255.0,255.0,255.0,255.0,255.0,255.0,255.0,255.0,255.0,255.0,255.0,255.0,255.0,255.0,255.0,255.0,255.0,255.0,255.0,255.0,255.0,255.0,255.0,255.0,255.0,255.0,255.0,255.0,255.0,255.0,255.0,255.0,255.0,255.0,255.0,255.0,255.0,255.0,255.0,255.0,255.0,255.0,255.0,255.0,255.0,255.0,255.0,255.0,255.0,255.0,255.0,255.0,255.0,255.0,255.0,255.0,255.0,255.0,255.0,255.0,255.0,255.0,255.0,255.0,255.0,255.0,255.0,255.0,255.0,255.0,255.0,255.0,255.0,255.0,255.0,255.0,255.0,255.0,255.0,255.0,255.0,255.0,255.0,255.0,255.0,255.0,255.0,255.0,255.0,255.0,255.0,255.0,255.0,255.0,255.0,255.0,255.0,255.0,255.0,255.0,255.0,255.0,255.0,255.0,255.0,255.0,255.0,255.0,255.0,255.0,255.0,255.0,255.0,255.0,255.0,255.0,255.0,255.0,255.0,255.0,255.0,255.0,255.0,255.0,255.0,255.0,255.0,255.0,255.0,255.0,255.0,255.0,255.0,255.0,255.0,255.0,255.0,255.0,255.0,255.0,255.0,255.0,255.0,255.0,255.0,255.0,255.0,255.0,255.0,255.0,255.0,255.0,255.0,255.0,255.0,255.0,255.0,255.0,255.0,255.0,255.0,255.0,255.0,255.0,255.0,255.0,255.0,255.0,255.0,255.0,255.0,255.0,255.0,255.0,255.0,255.0,255.0,255.0,255.0,255.0,255.0,255.0,255.0,255.0,255.0,255.0,255.0,255.0,255.0,255.0,255.0,255.0,255.0,255.0,255.0,255.0,255.0,255.0,255.0,255.0,255.0,255.0,255.0,255.0,255.0,255.0,255.0,255.0,255.0,255.0,255.0,255.0,255.0,255.0,255.0,255.0,255.0,255.0,255.0,255.0,255.0,255.0,255.0,255.0,255.0,255.0,255.0,255.0,255.0,255.0,255.0,255.0,255.0,255.0,255.0,255.0,255.0,255.0,255.0,255.0,255.0,255.0,255.0,255.0,255.0,255.0,255.0,255.0,255.0,255.0,255.0,255.0,255.0,255.0,255.0,255.0,255.0,255.0,255.0,255.0,255.0,255.0,255.0,255.0,255.0,255.0,255.0,255.0,255.0,255.0,255.0,255.0,255.0,255.0,255.0,255.0,255.0,255.0,255.0,255.0,255.0,255.0,255.0,255.0,255.0,255.0,255.0,255.0,255.0,255.0,255.0,255.0,255.0,255.0,255.0,255.0,255.0,255.0,255.0,255.0,255.0,255.0,255.0,255.0,255.0,255.0,255.0,255.0,255.0,255.0,255.0,255.0,255.0,255.0,255.0,255.0,255.0,255.0,255.0,255.0,255.0,255.0,255.0,255.0,255.0,255.0,255.0,255.0,255.0,255.0,255.0,255.0,255.0,255.0,255.0,255.0,255.0,255.0,255.0,255.0,255.0,255.0,255.0,255.0,255.0,255.0,255.0,255.0,255.0,255.0,255.0,255.0,255.0,255.0,255.0,255.0,255.0,255.0,255.0,255.0,255.0,255.0,255.0,255.0,255.0,255.0,255.0,255.0,255.0,255.0,255.0,255.0,255.0,255.0,255.0,255.0,255.0,255.0,255.0,255.0,255.0,255.0,255.0,255.0,255.0,255.0,255.0,255.0,255.0,255.0,255.0,255.0,255.0,255.0,255.0,255.0,255.0,255.0,255.0,255.0,255.0,255.0,255.0,255.0,255.0,255.0,255.0,255.0,255.0,255.0,255.0,255.0,255.0,255.0,255.0,255.0,255.0,255.0,255.0,255.0,255.0,255.0,255.0,255.0,255.0,255.0,255.0,255.0,255.0,255.0,255.0,255.0,255.0,255.0,255.0,255.0,255.0,255.0,255.0,255.0,255.0,255.0,255.0,255.0,255.0,255.0,255.0,255.0,255.0,255.0,255.0,255.0,255.0,255.0,255.0,255.0,255.0,255.0,255.0,255.0,255.0,255.0,255.0,255.0,255.0,255.0,255.0,255.0,255.0,255.0,255.0,255.0,255.0,255.0,255.0,255.0,255.0,255.0,255.0,255.0,255.0,255.0,255.0,255.0,255.0,255.0,255.0,255.0,255.0,255.0,255.0,255.0,255.0,255.0,255.0,255.0,255.0,255.0,255.0,255.0,255.0,255.0,255.0,255.0,255.0,255.0,255.0,255.0,255.0,255.0,255.0,255.0,255.0,255.0,255.0,255.0,255.0,255.0,255.0,255.0,255.0,255.0,255.0,255.0,255.0,255.0,255.0,255.0,255.0,255.0,255.0,255.0,255.0,255.0,255.0,255.0,255.0,255.0,255.0,255.0,255.0,255.0,255.0,255.0,255.0,255.0,255.0,255.0,255.0,255.0,255.0,255.0,255.0,255.0,255.0,255.0,255.0,255.0,255.0,255.0,255.0,255.0,255.0,255.0,255.0,255.0,255.0,255.0,255.0,255.0,255.0,255.0,255.0,255.0,255.0,255.0,255.0,255.0,255.0,255.0,255.0,255.0,255.0,255.0,255.0,255.0,255.0,255.0,255.0,255.0,255.0,255.0,255.0,255.0,255.0,255.0,255.0,255.0,255.0,255.0,255.0,255.0,255.0,255.0,255.0,255.0,255.0,255.0,255.0,255.0,255.0,255.0,255.0,255.0,255.0,255.0,255.0,255.0,255.0,255.0,255.0,255.0,255.0,255.0,255.0,255.0,255.0,255.0,255.0,255.0,255.0,255.0,255.0,255.0,255.0,255.0,255.0,255.0,255.0,255.0,255.0,255.0,255.0,255.0,255.0,255.0,255.0,255.0,255.0,255.0,255.0,255.0,255.0,255.0,255.0,255.0,255.0,255.0,255.0,255.0,255.0,255.0,255.0,255.0,255.0,255.0,255.0,255.0,255.0,255.0,255.0,255.0,255.0,255.0,255.0,255.0,255.0,255.0,255.0,255.0,255.0,255.0,255.0,255.0,255.0,255.0,255.0,255.0,255.0,255.0,255.0,255.0,255.0,255.0,255.0,255.0,255.0,255.0,255.0,255.0,255.0,255.0,255.0,255.0,255.0,255.0,255.0,255.0,255.0,255.0,255.0,255.0,255.0,255.0,255.0,255.0,255.0,255.0,255.0,255.0,255.0,255.0,255.0,255.0,255.0,255.0,255.0,255.0,255.0,255.0,255.0,255.0,255.0,255.0,255.0,255.0,255.0,255.0,255.0,255.0,255.0,255.0,255.0,255.0,255.0,255.0,255.0,255.0,255.0,255.0,255.0,255.0,255.0,255.0,255.0,255.0,255.0,255.0,255.0,255.0,255.0,255.0,255.0,255.0,255.0,255.0,255.0,255.0,255.0,255.0,255.0,255.0,255.0,255.0,255.0,255.0,255.0,255.0,255.0,255.0,255.0,255.0,255.0,255.0,255.0,255.0,255.0,255.0,255.0,255.0,255.0,255.0,255.0,255.0,255.0,255.0,255.0,255.0,255.0,255.0,255.0,255.0,255.0,255.0,255.0,255.0,255.0,255.0,255.0,255.0,255.0,255.0,255.0,255.0,255.0,255.0,255.0,255.0,255.0,255.0,255.0,255.0,255.0,255.0,255.0,255.0,255.0,255.0,255.0,255.0,255.0,255.0,255.0,255.0,255.0,255.0,255.0,255.0,255.0,255.0,255.0,255.0,255.0,255.0,255.0,255.0,255.0,255.0,255.0,255.0,255.0,255.0,255.0,255.0,255.0,255.0,255.0,255.0,255.0,255.0,255.0,255.0,255.0,255.0,255.0,255.0,255.0,255.0,255.0,255.0,255.0,255.0,255.0,255.0,255.0,255.0,255.0,255.0,255.0,255.0,255.0,255.0,255.0,255.0,255.0,255.0,255.0,255.0,255.0,255.0,255.0,255.0,255.0,255.0,255.0,255.0,255.0,255.0,255.0,255.0,255.0,255.0,255.0,255.0,255.0,255.0,255.0,255.0,255.0,255.0,255.0,255.0,255.0,255.0,255.0,255.0,255.0,255.0,255.0,255.0,255.0,255.0,255.0,255.0,255.0,255.0,255.0,255.0,255.0,255.0,255.0,255.0,255.0,255.0,255.0,255.0,255.0,255.0,255.0,255.0,255.0,255.0,255.0,255.0,255.0,255.0,255.0,255.0,255.0,255.0,255.0,255.0,255.0,255.0,255.0,255.0,255.0,255.0,255.0,255.0,255.0,255.0,255.0,255.0,255.0,255.0,255.0,255.0,255.0,255.0,255.0,255.0,255.0,255.0,255.0,255.0,255.0,255.0,255.0,255.0,255.0,255.0,255.0,255.0,255.0,255.0,255.0,255.0,255.0,255.0,255.0,255.0,255.0,255.0,255.0,255.0,255.0,255.0,255.0,255.0,255.0,255.0,255.0,255.0,255.0,255.0,255.0,255.0,255.0,255.0,255.0,255.0,255.0,255.0,255.0,255.0,255.0,255.0,255.0,255.0,255.0,255.0,255.0,255.0,255.0,255.0,255.0,255.0,255.0,255.0,
-3.94049e-02,-9.98726e-04,-1.25369e-01,-7.40501e-02,7.77611e-02,1.70420e-02,5.85074e-02,7.80986e-02,-1.03435e-01,-9.30050e-02,-6.19450e-02,1.81555e-02,1.20044e-01,6.30187e-02,6.90035e-02,4.55725e-02,8.84049e-02,6.80484e-02,1.57641e-01,-3.17195e-04,-2.01416e-02,-8.81213e-02,-3.44345e-02,-5.49675e-02,-2.88071e-02,4.28759e-02,4.12666e-02,-6.18840e-02,7.92785e-02,1.76452e-01,3.79560e-02,2.60121e-02,5.97514e-02,6.24865e-02,-1.30269e-01,6.42207e-02,8.56003e-03,-1.45162e-02,2.77585e-02,-6.85833e-02,-1.02640e-01,-5.07895e-02,-1.38160e-01,-3.78740e-02,-5.38870e-02,3.19247e-02,-1.01257e-01,6.43915e-02,5.18842e-02,4.03435e-02,1.96679e-01,1.94147e-01,5.76215e-02,2.64328e-02,-3.92392e-02,-4.01416e-02,-9.22893e-02,1.36058e-01,7.22916e-02,-5.56218e-02,7.89098e-02,-1.05557e-01,-7.03793e-03,-7.80262e-04,9.04572e-02,-4.69217e-02,-1.58440e-01,1.41356e-01,4.07867e-02,-8.07747e-02,4.40425e-02,-8.60304e-02,1.89000e-02,7.29195e-02,1.03181e-01,1.45985e-01,5.83004e-02,1.43852e-01,1.42199e-01,1.85197e-01,6.29160e-02,3.21965e-02,2.64547e-02,-1.53083e-01,3.08431e-02,4.31106e-02,-2.58612e-02,7.60465e-02,1.86519e-02,7.85894e-02,-3.20669e-02,3.96593e-02,2.04340e-02,-1.37457e-01,-1.24318e-01,-1.43962e-01,9.04827e-02,-2.80117e-02,-7.45996e-02,4.48802e-02,1.44782e-01,9.59541e-02,9.48105e-02,1.14543e-01,9.25602e-02,4.80803e-02,-1.05010e-01,-7.07976e-03,-8.03200e-02,9.59310e-03,1.02688e-01,-5.41146e-02,1.12902e-02,7.21133e-02,1.37046e-01,1.00974e-01,9.23561e-02,-1.65288e-02,-6.92127e-02,1.16296e-01,1.85985e-01,-6.41477e-02,-5.01290e-02,-5.99578e-02,1.21070e-02,2.81111e-02,-1.57984e-01,6.13927e-02,-1.19708e-01,1.46164e-01,1.34538e-01,-1.53329e-01,3.54918e-02,-4.89488e-02,-7.80870e-02,-5.88664e-03,5.58576e-02,-6.73723e-02,1.13537e-01,1.33834e-01,1.53342e-01,-5.67147e-02,2.50604e-01,-1.85464e-02,1.90984e-01,1.68328e-01,6.17108e-02,-2.67182e-02,-8.09000e-03,4.77032e-02,-4.37784e-02,1.74699e-02,3.07586e-03,1.34792e-02,-7.80940e-02,-3.95421e-02,-6.28670e-04,7.58110e-02,2.81860e-02,-2.97248e-02,7.23669e-02,-2.42670e-02,-1.41016e-01,-4.38777e-02,-3.02383e-02,-1.11409e-01,-4.54648e-02,-3.28362e-02,7.26672e-03,7.29128e-02,1.17575e-01,-2.19911e-02,-1.60549e-01,-1.56616e-02,-6.58796e-02,2.01639e-01,-1.79535e-01,5.77674e-02,-3.34872e-02,-1.30349e-01,2.13667e-01,-9.38319e-02,3.57445e-02,1.06598e-01,9.01258e-03,1.47618e-02,9.02639e-02,2.02137e-02,1.06303e-01,1.17978e-01,5.86623e-02,2.63586e-01,1.42775e-01,6.33647e-02,1.63217e-01,1.57692e-01,2.14028e-01,6.28613e-02,-2.42450e-02,5.13383e-02,1.05882e-02,2.83267e-01,2.92206e-01,1.27944e-01,-2.88159e-02,5.44401e-02,4.32427e-02,2.04426e-02,1.20178e-01,5.10729e-02,8.31345e-02,6.30511e-02,-5.76089e-02,2.10081e-01,8.98796e-02,1.86456e-01,6.40173e-02,1.72912e-01,-7.50957e-02,1.96654e-01,3.61833e-02,-1.68080e-02,3.28355e-01,6.78858e-02,1.16717e-02,4.89089e-02,6.98908e-02,1.55674e-01,1.04005e-01,2.03250e-01,2.05112e-01,1.50404e-01,1.08729e-02,6.03398e-02,1.73177e-01,1.49860e-01,6.16287e-02,-4.06217e-04,1.16075e-01,2.64483e-01,5.53033e-02,-1.37997e-02,5.48657e-02,-9.97901e-02,-5.22747e-02,-1.15109e-01,5.69545e-02,-1.31178e-01,4.00903e-02,4.69014e-02,6.82033e-03,-1.14215e-01,-9.89280e-02,-8.23650e-02,6.62313e-02,7.18074e-02,1.02477e-01,-1.80469e-01,-1.32435e-01,-1.00420e-01,-9.46480e-02,-1.16999e-01,-2.80534e-02,1.13029e-01,1.64599e-02,-2.84232e-02,5.50901e-02,1.20961e-01,-9.98973e-02,4.44964e-02,8.72934e-02,-9.74783e-02,-2.20268e-02,1.42774e-01,1.42405e-02,-1.37679e-02,-1.01185e-01,-2.19180e-02,1.03437e-01,2.07187e-01,4.73709e-02,1.11696e-01,2.04291e-01,1.36818e-01,6.09559e-02,1.39391e-01,1.11065e-01,-6.55326e-02,-1.60276e-02,-1.21858e-01,-6.16423e-03,4.97002e-02,4.42587e-02,-1.33268e-01,1.68931e-02,-3.29946e-02,4.46288e-02,-7.01462e-02,-1.73815e-01,3.06536e-02,-5.70694e-02,-2.00946e-02,6.33685e-02,-5.77007e-02,-1.38766e-02,-3.29287e-02,1.60027e-01,1.52842e-01,6.26334e-02,-5.39901e-02,1.21510e-01,-2.53977e-02,9.88211e-02,-4.17366e-02,1.55244e-01,-2.50244e-02,5.93017e-02,9.62971e-02,2.45678e-01,1.41739e-01,1.22635e-01,1.67919e-01,-5.51139e-02,1.51150e-01,-3.62112e-02,8.60797e-02,9.70709e-02,6.56116e-02,8.58538e-02,-1.21244e-01,9.47707e-02,1.72168e-02,-2.29731e-02,-1.51508e-01,1.09587e-01,1.44671e-01,2.61027e-02,-1.72289e-03,-1.18437e-01,-6.05015e-02,2.84935e-02,5.17659e-02,-1.77651e-01,-9.25559e-02,-7.82465e-02,1.13341e-01,-1.16076e-02,-2.35131e-02,1.89517e-02,-1.45755e-01,-1.28693e-01,-1.17374e-01,-2.01153e-02,-3.11555e-03,8.08310e-02,-7.97039e-02,-1.64552e-01,-2.09346e-02,-6.58496e-02,3.63761e-02,-1.93936e-01,-1.00367e-01,1.77499e-01,-1.23416e-01,3.15406e-02,4.66762e-02,-2.23813e-01,-1.09859e-01,-6.35056e-02,-5.57717e-02,-2.58639e-02,1.60887e-02,-1.96649e-02,-7.08330e-02,-1.33996e-01,-1.74708e-01,-3.88634e-03,2.93215e-02,-1.14938e-01,-7.46209e-02,4.96422e-02,-7.08598e-02,-1.67198e-01,-1.10808e-01,1.01743e-02,-9.42258e-02,1.45726e-01,8.28179e-02,5.16748e-02,-1.07220e-01,1.39168e-01,-1.33201e-01,-8.38664e-02,-7.53459e-02,-1.24018e-01,-1.20392e-01,1.71237e-01,-1.22253e-02,1.15297e-01,9.10547e-02,-4.40933e-02,4.11072e-02,2.28724e-01,4.68821e-02,1.39341e-01,9.13367e-02,5.99131e-02,-6.19992e-02,6.04795e-02,8.46940e-02,-1.99199e-02,-2.02973e-02,-9.63674e-02,4.02314e-02,-5.09422e-02,-1.02466e-01,-1.79211e-01,-3.64824e-02,1.08158e-01,5.10524e-02,1.01693e-01,-5.61123e-02,-1.13003e-01,5.10987e-02,-1.58141e-01,-1.01373e-01,-3.44733e-02,-7.95815e-02,-1.15898e-01,4.17239e-02,-2.13279e-01,-7.54520e-02,-1.69086e-01,-3.76460e-02,-1.81464e-01,2.00386e-02,-8.61295e-02,-6.80745e-02,-1.14902e-01,-7.83934e-02,2.84665e-02,-1.49328e-01,-6.97556e-02,-2.05453e-01,-8.06573e-02,-4.02673e-02,1.44896e-01,-9.66680e-02,-1.09282e-01,-1.01243e-01,-1.56965e-01,7.43885e-02,2.04085e-02,3.20106e-02,-1.01190e-01,-1.62072e-01,9.40587e-02,1.38892e-01,5.62811e-02,-9.71981e-02,1.73019e-01,3.60520e-02,-2.69893e-02,-1.64500e-02,3.26229e-02,2.09099e-01,1.53709e-01,4.20908e-02,1.53330e-01,1.43138e-01,1.38938e-01,3.98436e-02,2.24379e-01,2.22789e-02,9.69457e-02,2.51765e-02,-2.46599e-02,7.94240e-02,4.84108e-02,6.19916e-02,-1.83565e-02,1.32882e-01,1.28290e-03,-6.93075e-02,5.95407e-02,4.16717e-02,-1.77875e-02,2.63846e-02,4.85551e-02,-5.23360e-02,3.44028e-02,1.44598e-01,-8.81186e-02,-6.49816e-03,-1.21875e-01,-2.86326e-01,1.54521e-02,1.68761e-02,-2.40030e-01,-1.25668e-01,-8.17503e-02,-1.19971e-01,9.97848e-02,5.32812e-03,-7.13924e-02,2.64211e-02,9.49922e-02,-4.00025e-02,6.25539e-02,-4.09027e-02,-1.75023e-01,1.19579e-01,1.79783e-01,5.85329e-02,-1.28230e-01,-1.21229e-01,-1.40114e-01,-2.04290e-01,1.61226e-02,1.28981e-02,-1.43487e-01,2.57393e-02,-1.93433e-01,3.54816e-02,-1.47978e-01,-4.33056e-02,-1.86653e-01,1.05314e-01,-3.40898e-03,-1.02611e-01,-8.70024e-02,-3.31354e-02,4.14497e-02,1.53007e-01,1.88951e-02,-4.39200e-03,6.04979e-02,4.21554e-02,-1.44074e-01,-2.01599e-02,-2.29896e-02,-5.83966e-02,1.07072e-01,7.83467e-02,2.04979e-01,4.34768e-02,-8.01954e-03,-1.47175e-01,7.70701e-02,4.69408e-02,1.83453e-02,1.60595e-01,1.37255e-01,7.51305e-04,-4.71160e-03,-7.96838e-02,1.09779e-01,9.83912e-02,8.79389e-02,-5.80060e-02,1.06291e-01,-2.15810e-02,-1.37201e-01,2.49561e-01,-1.04901e-01,4.01999e-02,-5.63536e-02,2.09468e-01,3.23007e-02,-4.10820e-02,1.99939e-01,-4.54972e-02,7.98141e-02,-4.38392e-02,9.13667e-02,-8.19544e-02,-5.66985e-02,-1.01852e-01,-9.36313e-02,-1.46351e-01,-2.19575e-02,-1.71435e-01,4.88558e-02,-2.03982e-01,7.23251e-02,1.94476e-02,-9.59781e-02,-1.93796e-01,-2.50777e-03,-8.60482e-02,-5.79448e-02,-1.21809e-01,-8.79143e-02,1.07342e-01,-4.11807e-02,-3.83736e-02,1.24846e-01,-7.56974e-02,-1.76405e-01,-1.77741e-01,4.00122e-02,-1.64078e-01,-1.57690e-01,-6.39141e-02,1.22565e-01,-8.51895e-02,2.14644e-03,7.46362e-02,1.30034e-02,2.45196e-03,-4.08715e-02,-1.27507e-01,1.42334e-01,1.71042e-01,-1.73396e-01,-2.32006e-02,1.37885e-01,7.14982e-02,-9.23460e-02,5.58120e-03,9.91157e-02,6.20145e-02,-5.13594e-02,2.68548e-02,-1.46536e-01,-5.88026e-03,5.14698e-02,1.24437e-01,8.21284e-02,-2.30340e-02,-7.81187e-02,9.95746e-02,1.24045e-01,-6.07611e-02,-5.67493e-02,-5.74621e-02,-9.05681e-02,-8.19701e-02,1.80295e-01,-1.08350e-01,-7.06391e-02,-8.93410e-02,-1.16323e-02,1.34118e-01,2.93860e-02,4.03584e-02,1.44134e-01,2.30044e-02,-1.22226e-01,-1.90060e-01,9.83757e-02,-1.06563e-01,-2.31464e-03,1.32016e-01,3.58378e-03,1.07472e-01,5.80257e-02,1.60792e-01,-8.54189e-02,-2.67543e-02,3.59735e-02,4.78016e-02,-1.00284e-01,-8.54916e-02,1.98489e-02,-1.74209e-01,-1.11024e-01,-2.56442e-02,-1.92941e-01,-3.93718e-02,3.03110e-02,-1.22222e-02,8.05473e-02,-6.37298e-02,-1.01456e-02,-7.03147e-02,3.22025e-02,1.04902e-02,-1.01708e-01,-1.34391e-01,6.09206e-02,-4.91938e-02,-1.20009e-01,-4.50443e-02,-2.37932e-01,-1.75980e-01,9.94213e-02,-8.46031e-02,-9.05644e-02,3.48169e-02,-5.49371e-02,-1.73069e-01,-8.61168e-02,4.25640e-02,-8.65572e-02,1.79839e-02,-6.72732e-02,1.24222e-01,8.99630e-02,2.17338e-01,6.20804e-02,5.56723e-02,8.83549e-02,1.38081e-01,7.59438e-02,-2.03141e-02,3.68902e-02,1.13015e-01,-5.29203e-02,7.10756e-02,5.43159e-02,-5.71127e-02,7.32437e-02,8.73744e-02,-4.93107e-02,-2.87283e-02,-9.27521e-02,-1.53570e-01,9.06667e-02,-1.26593e-01,-9.30765e-02,-3.38887e-03,-6.14597e-02,-7.34064e-03,-4.98753e-02,3.41552e-02,-7.13519e-02,1.01904e-01,8.14164e-02,1.61907e-01,-1.40770e-01,5.09562e-02,4.03533e-02,1.77247e-01,-5.74827e-02,-6.16786e-02,1.69556e-01,8.87260e-02,8.13790e-02,1.78176e-01,1.21445e-01,1.90518e-01,-1.99977e-02,-1.96411e-02,-1.05201e-01,6.99415e-02,-8.36646e-02,-1.88949e-01,-9.69804e-02,-1.71438e-01,-1.05483e-01,2.22423e-02,2.38734e-02,-1.53231e-01,6.75592e-02,6.79233e-02,-1.46515e-01,1.15743e-02,-4.70324e-02,-3.96676e-02,-1.25881e-01,1.42634e-02,3.56520e-02,-1.06993e-01,-1.33101e-01,-8.99215e-02,-2.89796e-01,-2.11853e-01,-6.08556e-02,-7.41151e-02,-8.19557e-02,-1.01970e-03,1.18102e-01,-6.33076e-02,3.74540e-02,-2.62538e-02,-8.67914e-02,1.91735e-01,9.19493e-02,-3.24804e-02,5.11816e-02,2.17488e-02,-4.31984e-02,2.54338e-01,1.11481e-01,8.63484e-02,7.05133e-02,2.27167e-01,1.15354e-01,1.89739e-01,2.35397e-01,-7.21084e-03,2.26507e-02,4.14925e-02,5.11151e-02,4.96056e-02,-1.02002e-01,-5.52671e-03,-6.78930e-02,-1.72924e-01,-1.31402e-01,-5.18745e-02,-8.32156e-02,3.99741e-02,-5.49008e-02,-1.38350e-01,-1.41010e-01,-1.26355e-01,-2.28210e-01,-5.31403e-02,1.89635e-03,-2.52315e-01,-1.91593e-01,-1.70777e-02,-5.50547e-03,5.90890e-02,-2.24532e-02,-1.41012e-01,-3.71014e-02,-1.45516e-02,7.32346e-02,-6.96361e-03,6.19305e-02,2.17482e-01,6.05236e-02,5.94076e-02,9.42353e-02,-4.25556e-02,-8.89025e-02,7.91439e-02,-3.65224e-02,-8.88766e-02,-2.33229e-01,-2.20141e-01,-1.15777e-01,-1.69608e-01,-1.29222e-01,2.56942e-02,-1.61067e-01,-8.77804e-02,1.01316e-02,-3.16784e-02,-1.27707e-01,5.00566e-02,5.96364e-02,5.74424e-03,-9.03666e-02,-2.16578e-01,4.80547e-02,-1.46344e-01,-1.71339e-01,-2.95486e-01,-1.08670e-01,-1.41545e-01,7.97938e-02,-1.86361e-01,8.40893e-02,2.40076e-02,1.78652e-01,6.51780e-02,2.43839e-01,-1.84657e-02,1.50495e-01,3.23377e-02,1.05669e-01,6.89614e-02,5.06598e-02,1.68172e-01,5.78237e-02,2.28331e-01,2.40423e-01,1.81257e-01,2.64528e-01,1.25086e-01,2.77961e-01,6.16271e-02,2.05848e-01,-2.81283e-02,-9.82623e-02,-5.62395e-02,5.94888e-02,1.47969e-02,-9.73470e-02,-1.64450e-01,-2.87916e-01,-2.20924e-01,-1.23926e-01,-2.45659e-01,-4.88943e-02,-2.55590e-01,-1.23248e-01,-4.33564e-02,-1.06666e-01,7.81500e-04,-1.13631e-01,1.90993e-02,3.09749e-02,8.82857e-02,7.93780e-02,1.29100e-03,-4.18916e-02,1.71872e-02,1.48986e-01,-1.12524e-02,3.01868e-02,1.76486e-02,-2.54816e-02,6.21728e-03,1.97104e-01,-5.81489e-02,-1.32690e-01,-7.18343e-03,-8.64248e-02,3.66500e-03,-5.84521e-02,-2.74127e-01,-5.29600e-02,-1.24166e-01,-2.48143e-01,-2.70208e-02,-1.93322e-01,-1.38927e-01,-1.41186e-02,1.02299e-01,-2.76936e-02,-1.61544e-01,7.23077e-02,1.71122e-02,-1.66844e-01,-2.07346e-01,-1.87515e-01,-1.31021e-01,-2.51023e-01,-2.50839e-01,-1.82205e-01,-5.65368e-02,-2.35005e-01,-1.16481e-01,-1.58146e-01,-1.60568e-01,3.64659e-02,-1.46005e-02,1.87924e-01,2.41306e-01,2.75694e-02,5.74510e-02,2.56556e-01,1.21783e-01,1.63917e-01,3.21303e-02,1.96514e-01,2.15089e-01,6.01336e-02,2.65638e-01,7.17233e-02,1.66886e-01,5.81553e-02,1.88487e-01,8.92563e-02,1.95568e-01,-3.57108e-02,8.69264e-02,8.61301e-02,-1.18023e-01,-4.97621e-03,-3.89452e-02,-1.33599e-01,-1.02754e-01,-1.29323e-01,-5.10059e-02,-5.14702e-02,-1.65379e-01,-5.28395e-02,-6.37167e-02,9.42219e-02,-8.93072e-02,1.41597e-01,-1.58451e-01,2.10072e-02,-1.65483e-01,6.49100e-02,1.03734e-01,1.62040e-01,2.38102e-01,7.22697e-03,-2.37508e-02,1.07921e-01,2.67899e-01,1.60797e-01,1.85057e-01,1.95853e-01,3.10159e-01,2.29489e-01,-1.47361e-02,2.03955e-03,8.87201e-02,2.07555e-02,-4.08658e-02,5.57593e-02,-9.66253e-02,-2.63004e-03,-1.94319e-01,-3.98447e-02,-2.00539e-01,-1.79626e-01,-1.19588e-01,-1.02589e-01,-1.90063e-01,1.13793e-01,7.30699e-02,4.18400e-02,-2.92279e-02,-8.28097e-02,-1.40483e-01,-3.87179e-02,-2.33283e-01,-3.47537e-02,-6.92147e-02,7.36350e-02,-4.39846e-02,-4.80281e-02,-2.34205e-01,-1.20583e-01,8.78126e-02,2.64590e-03,8.58223e-02,-2.53800e-02,6.63053e-02,1.95811e-01,8.42804e-02,1.40220e-01,4.55099e-02,2.08209e-01,7.47983e-02,6.82545e-02,4.56914e-02,-3.75737e-03,1.89178e-01,4.35420e-03,-2.53678e-02,-1.11220e-01,4.68386e-02,-5.05239e-02,-3.08599e-02,-2.71986e-02,1.34003e-02,6.69951e-04,-1.07209e-01,1.34714e-01,1.60737e-01,-2.09505e-01,1.74371e-02,-1.16785e-01,8.73245e-03,5.04248e-03,3.85494e-02,2.11483e-01,5.39665e-02,5.13532e-02,3.28405e-02,1.24475e-01,1.67851e-01,1.24077e-02,6.29584e-02,-7.03180e-02,1.81380e-01,-9.66542e-02,6.53885e-02,1.09449e-01,1.81884e-01,1.55374e-01,3.12419e-02,1.30940e-01,1.64513e-01,1.62018e-01,2.78235e-01,3.33512e-01,7.55089e-02,1.23228e-01,3.24188e-01,4.48020e-03,1.50917e-01,1.90426e-01,8.93896e-02,1.01084e-01,-1.76098e-01,-8.49884e-02,-5.35996e-02,-1.43678e-01,3.56355e-02,-2.02586e-01,3.27569e-02,-1.30751e-01,-1.65752e-01,-1.18749e-02,-1.81789e-02,1.09393e-01,-1.15317e-02,-7.67112e-02,7.22310e-02,-9.07827e-02,-1.60308e-01,-5.48260e-02,-7.24071e-02,-2.32410e-02,-1.53462e-01,5.97471e-02,1.53843e-01,1.52874e-01,5.24334e-02,2.09518e-02,7.55495e-03,5.80389e-02,1.58107e-01,2.33936e-02,1.34461e-01,7.60746e-02,1.47236e-01,-9.52488e-02,1.81052e-01,-4.71047e-02,7.28231e-02,6.35847e-02,-5.39034e-02,-4.14030e-02,4.01174e-02,4.82297e-02,1.05683e-02,-1.13766e-01,-1.80522e-01,-1.36083e-01,-5.50606e-02,-4.39032e-02,-1.65910e-01,2.53594e-02,1.91505e-02,-1.51043e-01,9.40675e-02,1.63407e-01,-6.55016e-04,-8.95055e-02,3.75399e-02,1.22552e-01,-1.42227e-01,8.62691e-02,1.95809e-01,-4.32880e-02,8.05275e-02,1.21125e-01,2.74551e-02,2.04958e-02,5.89568e-02,1.44372e-03,1.41028e-01,6.47715e-02,5.39957e-03,2.08039e-02,2.39205e-01,3.66165e-01,2.04259e-01,2.73385e-01,3.45263e-01,1.24476e-01,1.16087e-01,8.95682e-02,-3.74872e-02,8.70037e-02,-3.92652e-02,1.37339e-01,-6.57391e-02,2.47853e-02,1.28543e-01,-5.07994e-02,-5.95536e-04,-2.04459e-02,-9.01517e-02,-1.20080e-02,4.98213e-02,-1.96982e-01,4.19425e-02,-3.04556e-02,-1.44183e-01,-2.29720e-01,-6.40764e-02,-1.25910e-01,5.81191e-02,-1.37138e-01,-3.22465e-02,-8.39024e-02,-1.33702e-01,2.07068e-01,9.91692e-02,-2.69863e-02,5.37516e-02,1.99804e-02,2.59935e-01,-1.76784e-02,1.32250e-01,2.40340e-01,2.29684e-01,-1.91834e-03,-1.00413e-01,-5.46213e-02,-7.15495e-02,-4.81840e-02,1.07815e-02,9.98718e-02,8.35909e-02,5.52935e-02,1.74277e-01,-3.76927e-02,-9.64102e-03,2.85780e-03,-9.75071e-02,1.78385e-01,-2.25275e-02,-8.91237e-02,-1.35677e-01,1.25843e-01,1.77595e-01,9.82661e-02,1.54227e-01,1.48288e-01,-3.72895e-02,1.03895e-01,-8.26594e-02,9.83314e-02,1.38319e-01,5.34294e-02,4.28043e-02,1.38186e-02,-8.51400e-02,-9.10353e-02,7.82163e-02,8.35965e-02,9.15712e-03,-1.14726e-01,-1.64394e-02,1.22827e-02,-1.21653e-01,9.72489e-02,-3.83173e-02,5.99085e-02,2.20028e-01,1.49665e-01,9.43682e-02,4.63428e-02,2.46839e-01,1.04905e-01,-3.62666e-02,1.35867e-01,5.27836e-02,-6.96303e-02,1.63149e-02,-1.86418e-01,-1.23471e-02,-3.62466e-03,1.11375e-01,-8.24751e-02,6.83556e-02,-6.27541e-02,-7.20594e-02,-1.19090e-01,-8.59790e-02,-1.32598e-01,1.31008e-01,-5.76269e-02,2.34956e-02,2.90667e-02,-4.36907e-03,-4.61182e-02,-1.07727e-01,7.59646e-02,-9.09351e-02,5.60295e-03,1.47710e-03,-2.87967e-02,1.27892e-01,-4.73104e-02,1.37591e-03,3.83236e-02,9.49561e-02,2.05431e-01,-5.21099e-02,9.04827e-02,1.27398e-01,5.73978e-02,-2.76003e-02,7.78272e-02,-6.36174e-02,-7.83005e-02,1.27324e-01,1.19083e-01,1.34246e-01,4.44368e-02,1.39016e-01,-8.61315e-02,5.10491e-02,3.64168e-02,2.53431e-03,8.02171e-02,3.12272e-02,1.61218e-01,4.35927e-02,2.13257e-01,-4.08102e-02,4.63529e-02,7.43620e-02,1.38114e-01,1.56796e-01,8.69123e-02,3.42489e-02,-4.34706e-02,-1.03011e-01,-1.45225e-01,5.33240e-03,2.64843e-02,-1.67577e-01,-1.33942e-01,-1.06168e-02,5.87907e-02,1.24640e-01,3.98638e-02,1.99453e-02,6.53924e-02,1.50373e-01,4.65787e-02,1.47013e-01,1.09565e-01,2.53020e-01,1.29437e-01,9.27452e-02,-1.51591e-01,-1.10723e-01,2.08617e-02,-8.49834e-02,-8.03817e-02,-6.78826e-02,-4.69069e-03,-4.84525e-02,5.78765e-02,1.21500e-01,4.29121e-02,-9.34332e-02,-1.16483e-01,-5.27592e-02,-6.80822e-02,1.32396e-01,-7.31559e-02,-3.61075e-02,-4.73075e-02,3.06502e-02,-1.03499e-01,-9.60244e-02,-4.38972e-02,-1.16913e-01,-1.74320e-02,-6.92530e-02,-2.45742e-02,-3.55060e-02,6.81243e-02,4.07090e-02,-9.12672e-02,8.21297e-02,9.31049e-02,5.97913e-02,-1.09171e-01,8.41414e-02,-4.48142e-02,4.97837e-02,7.15875e-02,6.96370e-02,9.34254e-02,-3.17525e-02,4.82344e-02,-2.87266e-02,6.01649e-02,1.32356e-01,1.63006e-01,8.98159e-02,3.24322e-01,7.38052e-02,5.14343e-02,6.91624e-02,1.53196e-01,1.72496e-01,1.33308e-01,1.18073e-01,1.16035e-01,2.71008e-01,9.28818e-02,1.49563e-01,1.38215e-01,1.87028e-01,-6.96754e-02,3.38653e-02,-3.39548e-02,5.99526e-02,-2.24197e-01,-2.13775e-02,-2.25536e-01,-2.07099e-01,1.99973e-02,-2.74789e-02,-2.40168e-02,-7.59307e-02,-3.74740e-02,-1.82075e-02,1.77429e-01,-1.36682e-01,3.23225e-02,6.77949e-02,-3.90933e-02,-7.63062e-02,-4.84316e-02,-7.60416e-02,-2.62740e-02,7.44446e-02,4.32580e-02,-5.51813e-02,-2.79086e-02,-1.36705e-01,-1.42651e-01,-7.24437e-02,8.00117e-02,-6.65011e-04,-1.13279e-01,-1.09928e-01,-2.97555e-02,6.44242e-02,-9.27214e-02,3.99845e-03,-1.46751e-01,-1.33653e-01,-1.74268e-01,-3.78759e-02,-2.24786e-01,-8.98122e-02,-2.59007e-01,-7.53532e-02,-6.79008e-02,-1.95550e-01,-2.09793e-01,3.34606e-02,-9.00246e-02,-5.52352e-02,-1.67397e-01,6.21391e-02,1.76689e-01,8.74967e-02,3.68296e-02,2.37757e-01,1.52383e-01,1.37239e-01,-2.11684e-02,1.07358e-01,2.50401e-01,2.04225e-01,2.31939e-01,2.71161e-01,1.19477e-01,1.29801e-01,2.42774e-01,2.26339e-01,1.53222e-01,2.89236e-01,3.10862e-01,2.48814e-01,2.39320e-01,2.96677e-01,1.59067e-01,8.72375e-02,2.10842e-01,1.55735e-01,1.28709e-01,2.95940e-02,-3.48842e-02,1.43217e-01,1.53022e-01,-5.87238e-02,-1.30098e-01,4.11601e-02,-1.90627e-01,-1.76015e-01,-1.01641e-02,-8.61091e-03,-8.28692e-02,-9.14721e-02,9.42603e-02,9.42422e-02,-1.12895e-01,1.21875e-01,-1.47088e-01,1.09853e-01,7.06353e-02,7.39529e-02,4.20109e-02,1.44384e-01,7.15204e-02,-1.57709e-01,1.04719e-01,-7.84262e-02,-6.57410e-02,-1.01782e-01,1.05134e-01,1.50476e-01,-1.32806e-01,-3.46675e-02,4.53616e-02,-8.37002e-02,-1.15324e-01,8.27819e-02,-1.47410e-01,-7.48752e-02,-1.30893e-01,-1.25606e-01,-4.13694e-02,3.17224e-02,7.76299e-02,-9.17935e-02,4.46611e-02,-2.85280e-02,-1.81191e-01,-1.49294e-02,-2.63705e-01,-1.29876e-02,-1.96183e-03,-1.03251e-01,-7.99899e-02,-1.09016e-01,1.81913e-02,-1.14615e-01,-1.53321e-01,8.12526e-02,1.36564e-01,1.17483e-01,2.12210e-01,9.99789e-02,1.11103e-01,4.62746e-02,2.79710e-01,3.16781e-01,1.89080e-01,1.13580e-01,1.55638e-01,1.62729e-01,2.87710e-01,1.99349e-01,5.40486e-02,9.29005e-02,1.59226e-01,1.09426e-01,8.63554e-02,2.44678e-01,1.13841e-01,1.34253e-01,6.21275e-02,-7.77375e-02,4.91325e-03,2.73990e-02,-2.68527e-02,5.46220e-02,6.75763e-02,-1.28637e-02,-1.04656e-01,7.29769e-04,-3.27480e-02,-5.61769e-02,-7.09929e-02,7.73996e-02,1.80160e-01,-8.09173e-02,1.05752e-01,1.01805e-01,1.88429e-01,-1.59451e-01,-3.79410e-03,-1.20527e-01,6.60092e-02,-4.09997e-03,-1.53233e-01,6.67043e-02,-1.19125e-01,7.21846e-02,1.48859e-01,5.17877e-02,-3.79348e-02,1.89213e-01,-1.14314e-01,4.25127e-02,-1.93680e-02,-1.01701e-01,-2.27788e-02,-3.48949e-03,7.17074e-02,1.08607e-01,1.05135e-01,9.92312e-02,8.31612e-02,-1.26079e-01,-4.93913e-02,-2.44161e-02,-9.62115e-02,-1.69678e-01,5.92065e-02,-2.45767e-01,-2.74416e-01,-2.19321e-01,-2.42351e-01,-3.22894e-01,-7.68862e-02,-1.78027e-01,-1.12800e-01,-1.76967e-01,-1.51578e-02,7.49821e-02,-1.36003e-01,6.01661e-02,1.37885e-01,1.51423e-01,9.58235e-02,1.14445e-01,1.41823e-01,3.64530e-02,1.32318e-01,7.59194e-02,1.38686e-01,1.48366e-01,2.80405e-01,3.54212e-01,-1.00170e-02,1.99980e-01,2.16333e-01,9.54563e-02,6.93808e-02,-3.25711e-02,1.09799e-01,7.59621e-02,4.89968e-02,-2.72912e-02,8.53632e-02,6.03839e-02,1.92971e-01,1.27670e-01,-1.15577e-01,-6.11129e-02,1.53829e-01,1.49224e-01,1.27995e-02,2.52482e-02,4.93054e-02,1.00079e-01,4.43683e-02,-6.59611e-02,5.56923e-02,3.58012e-02,-3.66460e-02,1.08141e-01,1.61251e-02,-3.16016e-02,-2.67721e-03,3.37667e-02,9.42583e-02,3.22726e-03,-8.99695e-02,7.87790e-02,-9.67584e-02,3.59586e-02,1.33474e-02,-5.11029e-02,-3.22474e-02,7.13379e-02,-1.21052e-02,3.99583e-02,7.21120e-02,-1.92096e-01,6.14795e-02,-1.46890e-01,-7.42203e-02,1.08615e-01,3.29168e-02,5.47627e-02,-3.10552e-02,-4.54220e-02,1.25406e-01,-1.09285e-01,-4.02446e-02,6.55593e-02,-1.68277e-01,-1.43991e-01,-3.56422e-01,-1.40559e-01,-1.70573e-01,-1.57966e-01,-2.25598e-01,-1.37996e-01,-9.82488e-02,-1.47297e-01,1.08217e-01,-8.14758e-02,9.78259e-02,3.92458e-02,1.85957e-01,-4.13547e-02,-8.56434e-03,-5.68739e-03,3.85274e-02,1.49736e-01,3.25123e-02,4.12697e-02,2.30473e-03,8.82131e-02,1.06397e-01,1.65775e-01,5.05001e-02,-1.05721e-01,2.60229e-01,7.05641e-02,1.90163e-01,3.38333e-02,3.06499e-02,-1.01390e-01,-8.21141e-02,2.09909e-02,7.44422e-02,1.02051e-01,8.80237e-02,2.59382e-02,1.83576e-01,1.29067e-03,1.11974e-01,4.63045e-02,1.61501e-01,-1.03111e-01,6.06191e-02,4.03914e-02,1.73027e-01,3.25143e-02,-1.92158e-01,7.77114e-03,1.51782e-01,-3.18494e-02,3.12491e-03,9.18023e-03,-4.90108e-02,-3.47768e-02,-1.01344e-01,5.13374e-03,8.09537e-02,-2.92135e-02,5.15418e-02,1.49542e-01,1.29647e-01,6.36381e-02,9.84325e-02,-1.34716e-01,-2.66086e-02,5.95699e-02,3.48745e-02,-4.92056e-02,1.14801e-01,-6.90968e-02,-1.46507e-01,6.54228e-02,7.34257e-02,4.58792e-02,-1.80689e-01,-8.71211e-02,-1.64963e-01,-9.09042e-02,-2.26383e-01,-2.04645e-01,1.12648e-02,-1.28810e-01,-2.30159e-01,-1.68057e-01,-1.66079e-01,-6.04494e-02,-8.96453e-02,-1.61371e-01,-1.59384e-01,-7.12304e-02,5.06497e-02,-7.49326e-02,1.06621e-01,-5.16050e-02,9.33380e-02,-1.12883e-01,-9.04193e-02,6.72858e-02,2.80340e-03,2.25020e-01,2.24886e-02,-5.52423e-03,-1.24793e-02,1.18073e-01,-6.10511e-02,2.15611e-01,1.77081e-01,9.45556e-03,1.15279e-01,-1.41055e-02,1.40333e-01,2.12551e-01,1.29843e-01,7.56296e-02,-8.93500e-02,-1.01572e-02,1.39491e-01,2.06776e-01,1.36719e-01,5.80240e-02,6.74052e-02,-1.44591e-02,9.13032e-02,-2.81901e-04,-6.37497e-03,3.48429e-02,2.73000e-02,7.82006e-02,1.08324e-01,7.97656e-02,5.10568e-02,-7.26912e-02,1.29428e-01,1.42593e-01,3.44567e-02,8.10791e-02,-6.11951e-02,8.14016e-02,1.66545e-02,1.36799e-01,1.70743e-01,8.40496e-02,9.43000e-02,1.93916e-01,-4.64654e-02,-6.26851e-02,5.75227e-02,5.84949e-02,3.20330e-02,-2.18444e-02,-8.30160e-02,1.80613e-01,-1.99785e-02,-5.36072e-02,-5.65313e-02,8.69023e-02,-9.39850e-02,2.17283e-02,8.80365e-02,-1.55789e-01,-9.48509e-02,-5.99595e-02,-1.03624e-01,-7.72433e-04,-1.23512e-01,3.05651e-02,-8.39377e-02,5.06639e-02,-6.11131e-02,-1.38624e-01,-1.31340e-01,-1.80414e-01,-1.51199e-01,-1.04597e-01,-1.11174e-01,-5.68120e-02,8.47433e-04,-2.20611e-02,1.55963e-02,-1.85895e-01,9.43063e-03,2.86641e-02,1.09542e-01,1.86839e-01,1.31479e-02,6.90837e-02,8.15391e-02,7.76555e-02,4.99278e-02,-1.00862e-01,1.67364e-01,-1.08423e-01,2.66504e-01,-8.77926e-02,3.19632e-02,1.79316e-01,5.48621e-02,1.18007e-01,1.63587e-02,3.59711e-02,-6.02661e-02,2.72008e-02,1.16269e-01,-7.07210e-02,5.95153e-02,5.86248e-02,-3.08106e-02,1.65641e-01,-1.71696e-01,1.31930e-01,4.66140e-02,-4.27776e-05,4.80995e-02,3.29454e-02,-1.67670e-02,5.42244e-02,9.10206e-02,6.06458e-02,-6.28933e-02,1.96595e-01,-4.66941e-02,6.29818e-02,1.78449e-01,1.12450e-01,-1.35166e-02,6.44607e-02,6.13957e-02,-3.10507e-02,7.29890e-02,-4.64934e-02,-9.75228e-02,-1.47010e-01,1.38046e-02,-3.74639e-02,-1.60730e-01,-1.51169e-01,-2.55715e-02,1.22163e-01,3.67999e-02,-1.08849e-01,7.65480e-02,1.20460e-02,1.40530e-03,1.83059e-01,-1.36573e-01,7.60964e-02,2.95173e-02,-1.02025e-01,-8.63188e-02,-1.38830e-01,-4.66888e-02,-1.40223e-01,-2.26576e-01,-1.43646e-01,-1.00253e-01,-1.42280e-01,-2.28275e-01,-6.47101e-02,-2.66372e-02,8.12862e-03,-1.81459e-01,-2.67888e-03,1.67350e-01,-1.73193e-01,6.10989e-02,5.92358e-02,-5.87250e-02,-5.85402e-02,2.79162e-02,1.80458e-01,2.03032e-02,5.03547e-02,1.41039e-01,-6.58539e-02,1.45454e-01,-7.32778e-03,6.04580e-02,5.42536e-02,1.56597e-01,2.93067e-02,8.30191e-03,-8.17141e-02,2.45334e-02,1.86433e-01,3.97541e-02,6.62815e-02,1.31915e-02,3.89817e-02,6.43767e-02,7.13941e-02,-8.89886e-02,2.25324e-01,-7.43712e-02,4.64293e-02,2.08660e-01,-5.36563e-02,4.59754e-02,1.04776e-01,3.15766e-02,1.18180e-02,5.46554e-02,2.30161e-01,-4.89452e-03,1.01821e-01,2.31426e-01,4.75886e-02,-6.90215e-03,1.92805e-01,6.72010e-02,1.37931e-02,-2.53701e-02,4.44169e-03,1.33387e-01,7.32481e-02,2.87889e-03,1.45587e-01,1.03186e-01,2.34317e-02,-4.68687e-02,-2.96160e-02,3.32539e-02,3.28302e-03,-2.47104e-02,4.13610e-02,1.62121e-01,-5.49444e-02,3.25197e-02,-1.58240e-01,2.65893e-02,1.16293e-01,4.17878e-03,1.98858e-02,-2.10981e-01,-1.60746e-01,-6.76286e-02,-5.77547e-02,-2.45741e-02,3.74538e-02,-2.98899e-02,-1.02660e-01,-9.69757e-02,-2.33895e-01,-7.44883e-02,-1.47751e-01,-2.74545e-01,-1.19337e-01,-1.46834e-01,-2.49037e-02,-9.04909e-02,-1.40509e-02,-7.96629e-02,-1.33486e-01,-9.79858e-02,7.81349e-03,-1.38917e-01,-1.65637e-01,1.12300e-02,4.48766e-02,-7.12568e-02,1.05848e-01,-8.81982e-02,1.43397e-01,-1.05388e-01,6.03653e-02,-1.07546e-01,1.54742e-01,1.52810e-01,-2.78207e-02,6.44902e-03,6.46269e-02,3.68101e-02,-9.60820e-05,1.35603e-01,-2.78230e-02,1.94288e-01,-4.59988e-02,5.44998e-02,-5.51048e-02,-8.78011e-02,2.34648e-02,7.69317e-02,-2.68900e-02,-6.36690e-02,1.31228e-01,-3.76816e-02,-1.58266e-02,1.67775e-01,-9.52202e-02,1.38846e-01,-6.25504e-03,-2.50828e-02,-3.64991e-02,3.64574e-02,1.02094e-03,-2.61461e-02,6.80273e-02,6.28545e-02,-2.43576e-03,-2.95249e-02,-1.37607e-01,1.42717e-02,-2.26528e-02,-7.63349e-02,-1.66719e-01,1.08635e-02,2.84652e-02,1.48748e-01,1.83544e-01,-8.57715e-02,1.25548e-01,1.39710e-01,-1.14024e-01,-1.74845e-01,-3.23279e-02,7.21423e-02,-1.96445e-01,-2.26851e-03,5.41420e-02,-2.28652e-03,9.47701e-02,-8.06352e-02,3.11827e-02,1.20785e-01,1.12408e-01,-8.90732e-02,5.98085e-02,-4.87164e-02,6.27223e-02,-7.04575e-02,-6.07436e-02,-2.04496e-01,5.63139e-02,5.51304e-02,-8.45759e-02,1.91801e-03,8.76219e-03,-2.38332e-02,-2.52271e-01,-3.06215e-01,-2.17280e-01,5.31792e-02,-7.43947e-02,-2.34132e-01,-2.75786e-01,-1.57244e-01,-1.44525e-01,2.12692e-02,-2.17741e-01,-1.44591e-01,-2.33322e-02,-1.57862e-02,1.13505e-02,-1.07817e-01,1.86341e-02,-1.57261e-02,-1.29205e-01,-5.84337e-02,-1.33786e-01,-1.46745e-01,-7.53106e-02,-5.96073e-02,-9.53503e-02,-9.92408e-02,-2.12584e-01,-1.01720e-01,-1.79900e-01,-9.20129e-03,-6.79087e-03,-1.45307e-01,-2.12069e-02,2.64335e-03,6.67947e-02,6.87072e-02,-9.95189e-02,-1.33959e-01,7.83346e-02,4.73215e-02,-1.16016e-01,-1.21867e-01,3.77898e-02,-3.30541e-02,-4.58411e-02,-4.81832e-02,-5.49064e-03,1.16846e-01,4.10193e-02,-3.68423e-02,-1.81975e-01,-2.42807e-02,-9.53281e-03,-1.49973e-01,-1.00568e-01,-2.54775e-03,1.31027e-02,-1.85397e-02,-4.07725e-02,8.23420e-02,-1.26601e-02,2.82267e-02,-5.59936e-02,-9.92335e-02,-9.81570e-02,-1.66536e-01,-8.35576e-02,-1.16456e-01,-2.39234e-02,-4.51824e-02,-7.45884e-02,-5.56829e-02,3.85145e-02,-1.59783e-01,3.11998e-03,1.48845e-01,2.00024e-02,5.57744e-02,-6.39182e-02,-2.95270e-01,-8.54629e-02,-2.43372e-01,2.55712e-02,-2.80993e-02,1.03937e-01,-4.01159e-02,-1.60466e-01,-1.96602e-01,-2.67470e-02,-7.41505e-02,-5.20420e-02,-1.70880e-01,-1.59422e-01,-8.19032e-02,-4.36037e-03,-9.10489e-03,1.40983e-01,-1.44606e-01,-1.29444e-01,-6.31026e-02,-8.93016e-03,-8.55157e-02,4.65468e-02,-1.77064e-01,-1.00639e-01,-2.04252e-01,2.00966e-02,-5.53977e-02,-3.13549e-01,-2.86826e-02,-1.16250e-01,-2.07142e-01,-1.78616e-01,1.14100e-02,-2.17790e-01,-3.63613e-02,4.69882e-02,-1.52483e-01,-1.48893e-01,-6.46108e-02,-1.61444e-01,9.24274e-02,-1.86284e-01,8.71724e-02,1.61194e-02,7.92587e-02,1.81683e-02,-1.17663e-01,1.46279e-01,-6.61712e-02,-3.71159e-02,3.46896e-03,-1.81667e-01,-8.92078e-03,-7.54404e-02,-4.42965e-02,1.12836e-01,2.05300e-02,3.45178e-02,-1.19176e-01,-1.40309e-01,1.39831e-02,-8.06369e-02,-9.02616e-03,-1.12215e-01,-7.14182e-02,2.49683e-02,-2.28332e-02,-1.12239e-01,-4.50931e-02,-1.19036e-01,-1.07652e-01,-3.73261e-02,-1.28150e-02,-4.41614e-03,-1.49405e-01,-8.14231e-02,-1.07554e-02,-1.04161e-01,-7.96185e-03,-1.34816e-01,-2.61522e-02,-2.01808e-01,-6.92440e-02,-5.07966e-02,-2.28251e-03,5.21029e-02,-1.41833e-02,2.22643e-02,-1.78636e-01,-8.81494e-02,-1.50649e-01,-1.91222e-01,-1.10454e-01,-2.63772e-02,-1.54188e-01,4.74879e-02,-8.51158e-02,-1.46104e-01,-1.07552e-01,-7.13212e-02,6.15257e-02,2.70652e-02,-1.40400e-01,-2.05210e-01,-1.94211e-01,-2.05614e-01,-1.37995e-01,5.83678e-02,-5.41082e-02,-4.06409e-02,-1.13322e-01,-9.41053e-02,-2.41185e-01,-8.10025e-02,-1.09204e-01,-1.19911e-01,-1.46854e-01,-1.00652e-01,-1.23601e-01,4.75829e-02,-8.81355e-02,-4.58030e-02,-3.65492e-02,8.70158e-02,-2.50736e-02,-1.31468e-01,-1.39337e-01,-1.04772e-01,1.05676e-01,-2.87662e-03,-5.02997e-03,4.36270e-03,-5.46006e-02,-1.89371e-02,-8.04605e-02,1.47632e-01,8.47876e-02,7.34856e-03,-7.97398e-03,1.43363e-01,-3.60130e-02,-6.94925e-02,
-2.81652e-02,9.56016e-02,-1.82169e-01,-1.18231e-01,1.48561e-02,-1.94904e-01,8.15481e-02,1.86416e-02,1.01647e-01,1.48761e-01,-6.08297e-03,-2.62976e-02,-1.83631e-02,1.66154e-02,7.99990e-02,-6.86361e-02,1.34537e-01,-7.36427e-02,1.09297e-01,1.64711e-01,1.99644e-01,-2.83679e-02,1.00448e-01,6.71420e-02,-3.12480e-02,1.09348e-01,-3.25887e-02,1.68662e-02,1.25197e-01,-1.01023e-01,-1.16074e-01,4.48646e-02,-2.42272e-02,2.83523e-02,-1.05234e-01,1.01913e-02,1.39979e-01,-5.79189e-02,-1.24361e-01,-6.49405e-02,8.08160e-02,-1.33556e-01,1.99688e-02,-5.49409e-02,-1.20198e-01,-3.48890e-02,-6.11710e-02,-2.73078e-02,6.39095e-02,2.59990e-02,-1.49470e-01,7.42616e-02,-1.22607e-01,-8.68326e-02,-7.74439e-02,2.85813e-02,-6.44609e-02,1.42628e-03,-7.02316e-02,-3.38837e-02,2.20661e-02,3.24965e-02,8.65902e-02,-3.57371e-02,-1.06012e-01,1.34824e-01,-8.85307e-02,2.25053e-02,-1.26907e-01,6.17201e-02,6.41184e-02,4.58798e-02,-1.45932e-01,-6.99745e-02,9.56835e-02,4.80247e-02,1.13917e-02,-2.29654e-02,-1.18524e-02,4.61435e-02,-1.56906e-02,-8.80551e-02,-6.31905e-02,-1.62783e-02,-2.15226e-02,-1.80362e-01,4.94723e-02,-2.72181e-02,-1.75526e-02,5.79887e-02,-5.54935e-02,1.53446e-01,-1.24476e-01,-1.15490e-01,1.51299e-01,-1.35519e-02,1.55957e-01,4.09879e-02,-8.20246e-03,6.16593e-02,1.04091e-01,5.60841e-02,9.12362e-02,1.13462e-01,1.20774e-01,2.91435e-03,-6.59040e-02,-2.33865e-02,5.01286e-02,1.41526e-01,-3.74192e-02,-4.44384e-02,1.01955e-01,-1.03172e-01,-8.92510e-02,1.06778e-01,-7.65164e-02,1.59510e-01,-3.48569e-03,1.48939e-02,-4.54907e-02,3.91278e-02,-8.88660e-03,1.11425e-01,2.13814e-01,9.28550e-02,8.64211e-02,1.26044e-01,-7.72242e-02,-4.46024e-03,-5.09467e-02,1.11364e-01,-5.45894e-02,-3.66776e-02,-6.35349e-02,-1.79789e-01,5.43647e-02,8.26205e-02,-5.20788e-02,-9.20160e-02,-2.60546e-02,-1.27067e-01,-9.51486e-02,-1.20452e-01,1.88554e-01,-4.17447e-02,-8.60140e-02,-4.16567e-02,3.42356e-02,1.01944e-01,-1.06019e-01,-5.92676e-02,-1.38714e-01,1.92295e-02,-1.27165e-01,-4.64146e-02,-8.55561e-02,-9.10999e-02,2.48773e-02,5.80485e-02,-1.30971e-01,5.19021e-02,2.28972e-02,-1.73008e-01,1.70481e-01,6.62047e-02,4.00213e-02,1.29398e-01,4.42475e-03,3.03154e-02,-5.97734e-02,-2.55233e-02,-1.06558e-01,9.48168e-02,3.24037e-02,3.85950e-02,-5.93585e-02,8.53936e-02,-3.11631e-02,-9.20018e-02,2.04088e-01,-8.14329e-02,-1.91149e-02,5.01987e-02,1.77439e-01,-1.44337e-01,5.77741e-02,-5.00690e-02,4.50023e-02,1.57677e-01,-7.68469e-02,9.57245e-03,-6.97064e-02,-5.44481e-02,1.16747e-01,1.46899e-02,1.68810e-01,8.46319e-02,7.07778e-02,-5.59778e-02,8.40253e-02,2.30362e-01,1.33305e-01,1.15723e-01,-4.65311e-02,1.41024e-01,9.00368e-03,1.10422e-01,-1.23476e-01,2.12562e-01,2.02911e-01,1.40177e-01,1.63056e-02,1.65898e-01,1.32372e-01,-1.59048e-02,1.40866e-01,8.21672e-02,1.11157e-01,-5.44371e-02,-9.33093e-02,2.95261e-02,1.34138e-01,1.45778e-01,7.50028e-02,-1.23816e-02,2.33453e-01,5.52147e-02,2.54321e-01,2.55102e-01,8.58854e-02,2.29444e-01,1.28304e-02,6.47225e-02,1.57633e-01,-2.21363e-02,-2.23086e-02,1.45560e-01,3.39116e-02,2.26171e-02,4.27297e-02,1.45943e-01,-1.97724e-03,-6.45845e-02,-3.70240e-02,-3.84231e-03,5.76249e-02,-8.65388e-03,3.14005e-03,4.69449e-02,-6.44390e-02,1.81515e-03,3.98342e-02,-1.80349e-01,-4.48104e-02,-8.33496e-02,-5.52124e-02,-7.29353e-02,-1.74336e-01,-9.40396e-02,2.79544e-02,-1.91188e-02,-6.95447e-02,1.11379e-01,-6.73845e-02,2.94591e-02,-1.79606e-01,-9.61449e-03,1.30218e-01,6.53531e-02,1.34590e-01,1.47610e-01,4.20726e-02,-1.90162e-02,-5.63425e-02,1.54067e-01,2.24321e-02,-1.76598e-01,-1.36434e-01,9.58860e-02,-6.22830e-02,-5.75647e-02,2.10122e-02,-1.74916e-03,-5.05201e-02,4.05759e-02,1.48572e-01,5.67649e-02,1.08968e-01,3.00709e-02,1.23551e-01,6.56400e-02,6.40426e-02,6.56154e-02,-1.04043e-01,2.13600e-02,1.60158e-01,-7.71338e-02,1.57602e-01,3.74130e-02,2.78429e-02,1.49424e-01,9.19033e-02,1.76214e-01,1.15062e-01,1.73131e-01,3.20338e-01,1.10119e-01,1.13575e-01,2.59776e-01,1.23286e-01,1.44579e-01,3.45629e-02,8.94797e-03,7.93131e-02,2.01506e-01,1.74392e-01,1.93975e-01,9.32499e-02,8.09896e-02,1.05034e-01,1.13816e-01,-2.85612e-03,3.58971e-02,-1.65708e-01,1.91697e-02,-3.46744e-02,8.47316e-02,4.66058e-02,6.10976e-03,5.21855e-02,-8.44927e-03,-4.55086e-02,1.25568e-01,-6.11445e-02,-1.18303e-01,-4.69328e-02,2.12775e-02,-8.48256e-02,3.50812e-03,-8.40961e-02,3.16127e-02,-6.05734e-02,-4.21823e-02,1.14760e-01,-1.77705e-01,-1.47379e-01,-1.56249e-01,2.51831e-02,-7.38700e-02,-8.03333e-02,1.54337e-01,-3.42356e-02,-2.20946e-02,1.74334e-02,-2.04941e-01,-1.49348e-02,1.90996e-01,-9.54664e-02,-1.29395e-02,1.73112e-02,-3.08478e-02,5.21611e-02,-1.76953e-01,-1.20478e-01,-7.38209e-02,-7.29372e-02,6.91716e-02,-1.31504e-01,-2.39599e-01,-2.36445e-01,-5.89087e-02,5.03261e-03,1.10490e-02,-1.46271e-01,-3.09467e-02,-2.01275e-01,-1.79248e-01,-1.44983e-01,-6.81402e-02,-1.18407e-01,-1.03483e-01,-5.38002e-02,-2.71103e-01,7.78794e-02,-2.62892e-02,-5.39036e-02,1.25835e-01,3.23600e-02,-1.78549e-01,7.98459e-02,-1.11848e-01,1.21700e-01,1.32044e-01,9.76645e-02,6.05482e-02,1.01889e-01,9.91895e-02,7.18578e-02,-7.21517e-02,5.87989e-03,1.06365e-01,3.50021e-02,2.00973e-01,1.50267e-01,-6.33474e-02,1.82081e-01,9.43313e-02,-1.15751e-01,4.79224e-02,8.72336e-02,7.42097e-02,-3.62319e-02,9.35368e-03,-2.47246e-01,-1.62285e-01,6.37395e-02,-1.09280e-01,7.68985e-04,3.14643e-02,1.30631e-02,-1.21554e-01,-1.76681e-01,5.26055e-02,6.22395e-03,-1.71770e-01,1.19545e-01,-5.01516e-02,-8.50193e-02,-1.06783e-01,-1.59575e-01,-1.04541e-01,4.49658e-02,-6.28800e-02,7.45598e-04,-3.63830e-03,7.47961e-04,1.30233e-01,5.84015e-02,-6.13771e-02,8.93194e-02,-1.30359e-01,-1.34976e-01,-3.04403e-02,8.80010e-02,3.94060e-02,1.65938e-01,-1.48110e-02,3.27600e-02,9.01778e-02,1.13621e-01,-1.41899e-01,1.51457e-01,-7.61976e-02,-1.55909e-02,-8.67992e-02,-7.84918e-02,1.31055e-01,4.84595e-02,-1.63839e-01,-1.38927e-01,-1.35306e-01,-8.66861e-02,-4.20763e-02,-9.24720e-02,-4.23249e-02,-1.24915e-01,8.97674e-02,-1.67121e-01,-1.44471e-01,-8.76266e-03,-1.27823e-02,-1.15280e-01,-2.29737e-01,5.26848e-02,-1.15689e-02,-1.87640e-01,-2.54768e-02,-8.15973e-02,1.12040e-01,1.07599e-01,-4.88022e-02,4.88335e-02,5.13519e-02,8.85411e-02,-9.63287e-02,-1.37980e-02,-5.09871e-02,-1.48653e-02,3.34977e-02,4.74215e-02,8.73041e-02,1.58638e-01,1.18575e-01,-1.64934e-01,-1.52798e-01,-9.46912e-02,7.59329e-02,-1.42975e-01,-6.06937e-04,6.60625e-02,-5.70083e-02,-1.04404e-01,-4.49680e-02,-4.80780e-02,-2.47992e-02,5.65545e-03,-4.59576e-02,-2.09198e-02,6.58345e-02,6.97067e-03,-3.64228e-02,8.07010e-04,-9.60649e-02,-5.16360e-02,5.61320e-02,-2.68747e-02,5.21630e-02,-4.03104e-02,-1.26449e-01,5.79252e-02,-2.62301e-02,1.73030e-01,3.79502e-03,-6.62562e-02,-5.35745e-03,1.39612e-02,-5.39810e-02,-4.78851e-03,-7.69158e-02,-1.13412e-01,1.74508e-02,1.21266e-01,-1.78206e-01,-1.34810e-01,-8.41348e-02,-1.38898e-01,-1.56440e-01,6.65842e-02,-6.59112e-04,-1.09091e-01,-6.00745e-02,-1.26922e-01,-1.56916e-01,-1.46446e-01,-2.72609e-01,-7.39326e-02,-1.38792e-02,-5.41888e-02,-1.20528e-01,-7.96929e-02,-1.81064e-02,-2.01728e-01,4.71508e-02,-1.36338e-01,-1.41412e-01,-3.43163e-02,6.79342e-02,-1.00688e-02,8.19456e-02,-1.73608e-01,-1.40985e-01,-1.20928e-01,1.10760e-01,-9.39850e-03,2.66346e-02,-8.89694e-02,-1.41456e-01,-2.06623e-02,-1.34469e-01,-1.09013e-01,1.60804e-01,8.28640e-02,-1.84047e-01,-6.84784e-02,7.53801e-02,-1.52156e-01,-1.39665e-01,-1.38421e-01,-1.36678e-01,-5.12808e-02,-5.92033e-02,-1.77122e-01,4.15793e-02,-2.08465e-01,1.50176e-02,-3.85483e-02,2.91138e-02,-2.56172e-02,8.29645e-02,-1.66466e-01,-1.07013e-01,-2.29827e-02,1.31655e-01,1.00314e-01,-5.34519e-02,8.22984e-02,2.42281e-02,-6.13687e-02,-2.77651e-02,-1.24868e-01,-6.34978e-02,6.74169e-02,-9.77413e-02,1.35196e-01,8.35183e-02,-1.31465e-01,-3.78917e-02,1.54483e-01,-5.30607e-02,-3.64779e-02,6.42270e-02,-4.79838e-02,1.54670e-02,-9.31157e-02,-8.13685e-02,1.81607e-02,8.41634e-03,-9.86282e-02,-1.39194e-02,-7.24979e-02,-1.82385e-01,-1.15294e-01,-4.27723e-02,-1.42180e-01,-4.98396e-02,-1.83855e-01,-7.74224e-02,-3.96964e-02,-8.56136e-02,-9.90454e-02,-6.62222e-02,-3.26460e-02,-1.04369e-01,1.04050e-01,-7.07430e-02,-1.56000e-01,-2.02034e-01,-5.60439e-02,1.16503e-01,-1.60594e-01,-5.07163e-02,-1.86697e-01,-1.28461e-01,-1.32066e-01,-7.10593e-02,-2.77532e-01,-6.78094e-02,-2.35321e-02,-8.76420e-02,-1.82015e-02,4.80540e-02,-1.80194e-01,-2.70628e-01,-1.77485e-01,-2.68162e-02,1.35386e-02,-4.97073e-02,-2.00707e-01,-6.01793e-02,-2.01832e-01,2.48706e-02,-1.41393e-01,-2.66501e-01,-1.05632e-01,-4.52105e-02,-1.25510e-01,-2.70898e-02,-2.10360e-01,-7.39553e-02,-4.91598e-02,-1.23390e-01,1.29828e-01,1.28634e-02,4.88635e-02,-9.23695e-02,-3.59529e-02,-7.60026e-02,9.69443e-02,6.54143e-02,1.07830e-01,-8.20585e-02,-2.20255e-02,-1.32514e-01,5.03711e-02,-2.79157e-02,-3.61518e-02,1.32569e-01,3.45650e-02,-6.10065e-02,-5.77351e-03,-3.54873e-02,-1.30510e-01,-6.02677e-02,2.13203e-02,-7.46566e-02,5.64026e-02,-8.89517e-02,-3.69435e-02,3.17055e-02,5.92729e-02,8.28556e-02,-7.86899e-02,-1.84055e-02,3.76539e-02,4.30406e-02,5.60833e-02,-1.55807e-01,-1.17140e-01,-1.42637e-01,-1.16822e-01,-8.29431e-03,-7.63240e-02,-9.10605e-02,-6.08501e-02,-1.04154e-01,-7.14309e-02,-1.01068e-02,6.88027e-02,-1.33185e-01,-2.27160e-01,-1.95583e-02,-1.32348e-01,7.42701e-02,-2.02871e-01,2.76768e-02,-7.80554e-02,8.04714e-02,-5.67533e-03,-1.40230e-01,-2.39679e-01,-1.19046e-01,-1.43741e-01,-1.38468e-01,-1.58664e-03,-3.18245e-04,-5.34564e-02,-3.26560e-02,-1.11945e-01,-1.50440e-01,-2.80553e-01,3.33254e-02,-4.01116e-02,-1.11438e-01,-2.48547e-01,-2.82937e-01,-2.21022e-01,-1.12241e-01,-1.99607e-01,1.02329e-02,-1.64298e-01,-6.95021e-02,-1.00945e-02,1.92581e-02,6.53120e-02,-2.12422e-01,9.76072e-02,-1.62016e-01,3.10622e-02,-2.46418e-02,6.08195e-02,-1.19564e-02,-2.92128e-02,-2.28722e-02,1.19298e-02,-8.66297e-02,-7.09638e-02,9.31363e-02,9.82611e-02,-5.09543e-02,-6.44957e-02,-1.07044e-01,-8.30996e-02,-6.45882e-02,1.13702e-01,-2.70935e-02,1.97093e-02,-5.79389e-02,-9.30869e-02,-7.49402e-02,4.32049e-03,2.28024e-02,-8.77710e-02,-1.31890e-01,1.21860e-02,5.01257e-02,-1.83153e-01,-1.10657e-01,-1.54832e-01,-7.86108e-02,-1.70916e-01,-1.97489e-03,1.07172e-01,-1.87472e-01,-1.59822e-01,3.61539e-02,5.62420e-02,-9.62380e-02,-1.87334e-01,-1.26745e-01,-1.37500e-01,-4.56857e-02,-9.74772e-03,5.08182e-02,2.90793e-02,1.97835e-02,1.38928e-02,-1.06359e-01,-4.53185e-02,9.33013e-02,3.91513e-03,-1.47181e-03,-1.39684e-01,4.34352e-02,1.04088e-01,-2.25492e-01,-1.92892e-01,-6.16294e-02,-8.59606e-02,-1.69130e-01,-2.08106e-02,-5.05329e-02,-8.96525e-02,-8.44027e-02,-1.33293e-01,-3.41705e-01,-3.36256e-01,-2.32243e-01,-2.75801e-01,-1.51659e-01,-2.71973e-01,-1.17218e-01,-3.20212e-01,-2.37966e-02,-2.47930e-01,-9.90978e-02,-2.84175e-01,2.72817e-03,-8.82485e-03,-6.73120e-02,3.98158e-02,6.25567e-03,3.82895e-02,1.61487e-02,4.39212e-02,-1.23488e-01,1.06388e-01,-2.17740e-01,-1.34538e-01,-1.92038e-01,-1.10478e-01,7.64045e-03,-1.95820e-02,4.13029e-02,9.64593e-02,2.05636e-02,-6.01415e-02,-5.14490e-02,-9.40980e-02,-2.13087e-01,-5.10779e-02,-1.30774e-01,-2.57162e-02,-6.74686e-02,9.89517e-02,-4.02857e-03,-1.48811e-01,6.78434e-02,1.79834e-01,6.54304e-02,-1.65092e-02,7.61533e-02,-6.23096e-03,-1.36193e-01,-4.35723e-02,-7.12689e-02,1.49935e-01,-1.85880e-04,-1.57340e-01,-1.83889e-01,-6.31598e-02,1.46660e-02,-2.31835e-01,-1.11832e-01,3.88743e-02,1.31486e-01,4.37881e-02,-1.49363e-01,-9.42912e-03,4.46076e-02,5.75321e-02,-1.13802e-02,1.06670e-01,7.85357e-02,-1.55804e-01,-3.57296e-02,-6.00532e-02,-9.90889e-02,1.14978e-02,3.33792e-02,-5.29863e-02,-7.77106e-02,-1.16262e-01,1.36122e-02,-1.03851e-01,-1.70736e-01,-2.42613e-02,-8.19057e-02,-1.67112e-01,-1.30437e-01,-6.35734e-02,-3.23505e-01,-3.31017e-01,-2.86514e-01,-4.01192e-01,-2.86471e-01,-9.34652e-02,-2.30556e-01,-5.97017e-02,2.52711e-02,-1.45247e-01,-5.66663e-02,-8.96334e-02,-1.79687e-01,5.97764e-02,-7.67073e-03,-7.51544e-03,4.82092e-02,-8.72561e-02,7.81561e-03,-1.40998e-01,-8.62054e-02,8.34204e-02,-8.36252e-02,-5.67328e-02,-5.18450e-03,2.17493e-01,-1.12665e-01,7.79718e-02,2.60822e-02,8.49653e-02,1.86147e-03,8.97252e-02,4.71660e-02,9.54407e-02,1.71081e-01,8.22412e-02,-1.66057e-02,2.34324e-01,-6.71494e-04,1.37742e-01,1.16855e-01,7.09136e-02,4.69910e-02,5.15681e-02,-5.96411e-03,9.06346e-02,2.05999e-01,5.51033e-02,1.08024e-02,1.55147e-01,7.31489e-02,1.32777e-01,-1.28742e-01,-1.62642e-01,-7.84022e-02,-9.35336e-03,-8.63848e-02,-7.58101e-03,5.40328e-02,2.51044e-02,1.68800e-01,5.99311e-02,1.45720e-01,1.16080e-02,8.64143e-02,1.65685e-01,3.48588e-02,1.28089e-01,2.16013e-01,1.23929e-01,7.85407e-02,1.13732e-01,7.72981e-02,-5.40550e-02,-4.44590e-02,-1.32689e-01,4.39114e-02,-4.80568e-02,-1.33309e-01,-1.54720e-01,-3.47205e-02,2.08403e-02,-1.97509e-01,-9.37076e-02,-2.08744e-01,-3.58444e-01,-1.95070e-01,-3.16883e-01,-2.43593e-01,-1.39422e-01,-2.45888e-01,-1.38868e-01,-1.27198e-01,-2.35873e-01,-1.91805e-02,-9.19287e-02,-4.46759e-02,-1.45859e-01,-4.60889e-02,3.94595e-03,-6.06660e-02,-9.20138e-02,-5.83031e-02,-1.97478e-01,-6.93012e-02,-3.85465e-03,-6.27428e-02,6.03881e-02,-6.41256e-03,2.09605e-01,1.35324e-01,9.92401e-02,1.43142e-01,4.38946e-02,5.74265e-03,1.01130e-01,2.11201e-01,6.45946e-02,2.33850e-01,1.23768e-01,6.94457e-02,2.36433e-01,1.88713e-01,1.97608e-01,1.08049e-01,4.50575e-03,1.45613e-01,1.39821e-01,5.10608e-02,-2.70047e-02,-7.29287e-04,1.08390e-01,1.29190e-01,1.04001e-01,1.54086e-01,1.90560e-01,-7.80209e-03,1.25673e-01,8.85286e-02,-6.73750e-02,-3.77846e-02,2.05359e-02,7.36074e-02,-3.24355e-02,8.15085e-02,2.43079e-01,1.54799e-01,2.92424e-01,-4.22364e-02,7.98766e-02,5.69534e-02,8.83533e-02,1.37615e-01,4.80496e-02,6.41374e-03,1.47662e-01,7.58855e-02,1.69616e-01,2.92610e-02,7.42709e-02,1.80377e-01,1.23475e-01,-2.89822e-02,-5.59863e-02,-9.95862e-02,-5.47419e-02,5.89105e-02,-1.72909e-01,-1.36206e-01,5.61595e-02,2.94814e-02,-1.33573e-01,-1.34743e-01,6.76040e-03,-1.86629e-01,-2.42882e-01,-2.10263e-02,-1.54478e-01,-4.37863e-02,1.47317e-02,9.58080e-02,1.29595e-01,-7.51838e-02,1.50967e-01,-2.98910e-02,-1.49322e-01,-3.89832e-02,-6.65453e-03,-4.68814e-02,6.01122e-02,-1.18798e-01,-6.68048e-02,8.96598e-02,-4.62863e-02,1.01175e-01,1.70944e-01,6.83006e-02,2.21436e-01,-1.49660e-02,1.70270e-02,-4.72176e-03,-1.52796e-01,2.20458e-01,1.50776e-01,1.48967e-01,2.27464e-01,6.62054e-02,2.24469e-02,2.37671e-01,9.72853e-02,9.28890e-02,7.11083e-02,1.75174e-01,3.23116e-01,2.39279e-01,1.37729e-01,1.32388e-01,-3.06729e-02,9.88629e-02,9.61286e-02,-1.03340e-01,-8.63125e-02,6.89755e-02,1.26696e-01,-3.56499e-02,3.29863e-02,2.69340e-01,1.00989e-01,1.56469e-01,2.26376e-01,2.01318e-01,1.33565e-01,9.21539e-02,8.28145e-02,1.65450e-01,2.10782e-01,6.98824e-02,2.53342e-01,1.54757e-01,1.40932e-01,9.42040e-02,5.99002e-02,3.85873e-02,1.45436e-01,1.41305e-02,-1.35242e-03,-1.51608e-02,-3.57652e-02,4.41116e-02,8.23902e-02,-1.66786e-02,-5.01534e-03,-8.96695e-02,-1.85389e-01,-2.21319e-01,-1.57912e-01,-7.70287e-02,-1.14388e-01,-1.40290e-01,-2.62007e-01,-2.60735e-02,-1.01657e-01,-7.35036e-02,2.07566e-02,-7.14364e-02,1.14549e-01,-6.86739e-02,-8.54748e-02,-9.52807e-02,-5.30926e-02,-1.53882e-01,7.87655e-02,1.39536e-01,-1.26386e-01,-1.05819e-03,1.29902e-01,4.49043e-02,1.35814e-02,-1.03032e-01,1.15566e-01,4.63988e-02,1.57402e-01,-9.89515e-03,4.23274e-02,5.62609e-02,1.92804e-01,7.62550e-02,6.08069e-02,-8.55104e-02,1.85409e-01,9.92723e-02,1.15331e-01,1.19870e-01,8.23826e-02,5.66095e-03,1.85604e-01,1.12642e-01,-3.21985e-03,1.59854e-01,1.91583e-01,1.17489e-01,1.42938e-01,1.65569e-01,1.80600e-01,-7.89183e-02,6.78697e-03,5.36497e-02,-1.03240e-01,-5.96403e-02,2.30382e-02,8.39015e-02,6.08769e-02,8.58197e-02,1.18640e-01,7.38972e-02,1.89873e-01,2.25041e-01,1.49255e-02,2.47615e-01,7.05186e-02,1.64477e-01,1.09882e-01,-2.93735e-02,1.03584e-01,2.53928e-01,3.77895e-02,1.49472e-01,1.75654e-01,9.27267e-02,8.32761e-02,-3.84374e-03,2.22962e-02,1.03254e-01,7.47081e-02,8.64213e-02,-1.61795e-01,-6.51847e-04,-2.35469e-01,-6.45578e-02,-1.70375e-01,-1.96944e-01,-1.63400e-01,-7.45131e-02,3.36034e-02,-9.74113e-02,-1.00276e-01,-1.87712e-01,3.34620e-02,-3.11435e-02,2.17796e-02,-2.36914e-02,5.31893e-03,-1.08824e-01,3.23018e-02,-4.73961e-02,-7.97804e-02,-3.73666e-02,-6.57287e-02,4.31351e-02,1.28267e-01,-4.31462e-02,4.53036e-03,2.13568e-02,6.17817e-02,1.58551e-02,-2.49787e-03,3.20611e-02,8.53857e-02,1.17388e-01,3.02414e-02,1.11166e-01,5.39821e-02,1.47207e-01,8.48712e-02,2.65228e-02,2.50080e-01,2.34917e-01,-7.08786e-02,1.33325e-01,1.33720e-01,9.53090e-02,2.15623e-01,2.62985e-02,1.33714e-02,-1.89213e-02,1.38673e-01,7.29962e-02,9.80904e-02,1.24048e-01,-1.33822e-01,-8.93098e-03,1.46555e-01,1.02568e-01,4.74003e-02,1.29412e-01,1.14439e-01,-2.33850e-02,6.43199e-02,1.71720e-02,6.67105e-02,1.02047e-01,2.02961e-01,2.33371e-01,3.00168e-02,1.33460e-01,9.94015e-03,2.75126e-01,1.99399e-01,-6.09872e-03,9.38515e-02,1.42386e-01,1.56164e-01,1.68678e-01,1.76752e-01,-5.75724e-02,-1.01313e-01,-6.46234e-02,-6.41250e-02,-8.62077e-02,4.00927e-03,-5.93566e-02,-6.97300e-02,-1.87827e-01,-1.41278e-01,-2.02793e-01,-3.91134e-02,-1.46283e-01,-1.78995e-01,-1.05652e-01,-1.42948e-01,-1.21946e-01,-1.45495e-01,-1.30662e-01,-7.03309e-02,-1.09720e-02,5.14849e-02,2.41503e-02,8.97206e-03,-3.21945e-02,5.23899e-02,-1.16561e-01,-9.66264e-02,-1.98370e-01,-3.44387e-02,2.15583e-02,5.22844e-02,-1.23681e-01,-2.05658e-02,9.40503e-02,-2.11202e-01,7.67153e-02,-1.87338e-02,-2.91183e-02,-2.57909e-02,2.12870e-01,1.16150e-01,-6.98630e-02,1.90058e-01,1.43772e-01,-4.47614e-03,4.87505e-02,3.52041e-02,2.10550e-01,1.32855e-01,1.84874e-01,5.49996e-02,1.13676e-01,4.40853e-03,1.68783e-01,4.56976e-02,4.14667e-02,4.24706e-02,-1.36568e-01,1.87816e-01,3.55299e-03,1.00128e-01,-9.42072e-02,2.01739e-01,1.22938e-01,1.41656e-01,2.39487e-02,4.91620e-02,1.22787e-01,8.11848e-02,2.65119e-01,1.01572e-01,7.48223e-02,1.78027e-02,5.63876e-02,3.11062e-02,1.46645e-01,-6.79519e-02,-5.74288e-02,1.55383e-02,6.54241e-02,2.06080e-01,1.76560e-02,-4.02626e-02,-1.61639e-01,9.70726e-02,1.24030e-01,9.18936e-02,-1.83942e-01,-5.04972e-02,-1.13962e-01,-2.07335e-01,-1.03070e-01,-1.53300e-01,-8.52506e-02,9.85589e-02,-1.79140e-01,-2.10612e-01,-1.35862e-01,5.56151e-03,-5.52869e-04,7.03762e-02,-3.55195e-02,5.03313e-02,-1.34621e-02,1.83733e-01,-4.85175e-03,-5.47065e-02,5.30985e-02,1.16855e-01,7.85054e-02,-1.31503e-01,-5.27141e-02,-9.99545e-02,-1.67587e-02,-1.42633e-01,-1.33249e-01,-1.06395e-02,-1.34282e-02,-4.01682e-02,-1.09021e-02,-1.03635e-01,-1.71578e-01,2.57389e-02,5.62202e-02,1.15716e-02,-1.23956e-01,-2.28068e-02,-1.41645e-01,2.82518e-02,7.43951e-02,1.39362e-01,2.23727e-02,5.38378e-02,7.94191e-04,1.19556e-02,2.18890e-03,5.56381e-02,-4.77266e-02,-4.93287e-02,7.61759e-02,-1.85215e-03,-6.25850e-02,-9.75960e-03,-1.96689e-02,1.41241e-01,-5.38846e-02,-2.33523e-02,-3.28090e-02,9.03028e-02,2.41550e-01,-8.60173e-02,1.57900e-01,3.11174e-02,1.22132e-01,1.29920e-01,6.26870e-02,2.16635e-02,-2.26403e-02,9.70676e-02,1.17911e-01,8.09537e-02,1.40449e-01,-6.84458e-02,-1.21143e-01,6.26838e-02,-1.91763e-01,-7.23830e-02,9.40502e-03,-1.35068e-01,-3.55348e-02,-7.75219e-02,-4.60399e-02,2.58978e-02,-8.62320e-03,-2.59996e-01,-1.54275e-01,3.10961e-02,-4.49106e-02,-7.62091e-02,-1.64180e-01,-2.15039e-01,6.59643e-02,-2.11602e-01,5.33963e-02,-1.64940e-01,-1.39887e-01,-4.15815e-02,-6.65997e-02,3.20764e-02,-9.65349e-02,7.51657e-02,7.01560e-02,-1.46731e-01,-2.47331e-02,-5.52652e-02,6.35662e-02,-1.52656e-02,-1.25065e-01,-1.20505e-01,-5.06368e-02,8.24965e-02,-1.46596e-01,-9.02801e-02,-2.57937e-01,-1.47278e-01,-1.25807e-01,-1.75063e-01,-3.35642e-02,-1.64378e-01,-8.22732e-02,-1.16124e-01,8.35092e-02,-2.40115e-02,1.22427e-01,-3.38116e-02,6.27945e-02,1.62543e-01,5.35529e-02,2.02983e-01,5.31782e-02,2.10772e-02,-1.78193e-01,-4.21661e-02,2.27485e-02,-5.12717e-02,-8.87834e-02,-1.03003e-01,-1.51731e-01,1.15143e-01,1.11029e-01,7.27710e-02,1.09175e-01,1.79920e-02,-4.42261e-02,-1.49779e-02,-8.76526e-02,-1.44355e-01,3.70602e-02,3.11766e-02,2.72123e-02,6.93260e-02,-1.08843e-01,-2.17616e-02,1.47061e-01,-1.11143e-01,9.62213e-02,3.38161e-02,-5.18658e-02,-1.19179e-01,-2.16957e-01,-9.93029e-02,-1.49880e-01,-3.70986e-02,-2.33039e-01,-1.14315e-01,-2.09674e-01,-3.27664e-01,-2.47450e-01,-1.20456e-01,-1.51860e-01,-2.08071e-01,-1.62460e-01,-1.04785e-01,-1.52810e-01,1.07019e-01,-8.73532e-02,-7.83483e-02,8.47945e-02,9.21006e-02,-4.44973e-02,-1.53936e-02,-7.26940e-02,1.03750e-01,-1.21825e-01,-1.12040e-01,-1.57855e-03,-2.68183e-02,-1.32694e-01,-1.02655e-01,-1.15034e-01,-2.23861e-01,-1.63844e-01,-9.26977e-03,-2.60707e-01,-5.24127e-02,1.24885e-02,-1.53379e-01,-8.40846e-03,-1.79220e-01,-2.63406e-01,-5.05106e-02,-1.58482e-01,-1.92250e-01,-1.74143e-01,5.51766e-02,-1.75989e-01,-8.34102e-02,-1.32817e-01,-1.57498e-01,9.44762e-03,-2.30189e-01,7.81940e-02,-1.17331e-01,-1.34090e-02,-6.48882e-02,5.46799e-02,5.37848e-03,6.19362e-02,-1.11330e-03,-4.86079e-02,-5.59783e-02,-5.46781e-02,-5.88198e-02,4.00317e-02,3.92598e-02,-2.92908e-03,-8.37969e-03,2.79109e-02,4.59504e-02,-2.63494e-02,-1.42277e-02,-1.22436e-01,5.82591e-02,1.10989e-02,2.71291e-02,4.42562e-02,8.67711e-02,2.66833e-02,-8.06473e-03,-5.67321e-03,-2.04445e-01,-1.39672e-01,-2.22728e-01,-1.29962e-01,-1.81316e-01,-3.38084e-02,-1.62929e-01,-2.10722e-01,-3.27378e-01,-1.09425e-01,-8.28557e-02,-1.90831e-01,-3.42572e-01,-6.36217e-02,-1.70719e-01,-1.31348e-01,-8.46992e-02,-2.25911e-01,-1.32636e-02,1.17754e-01,-2.45775e-01,1.61248e-01,7.83607e-02,-1.11618e-01,-1.13455e-01,1.63547e-01,1.66946e-01,7.38108e-03,-1.77900e-01,8.04408e-02,3.91816e-02,-1.02162e-01,1.05893e-01,-1.38307e-02,-1.46686e-01,-2.16962e-02,-7.59977e-02,-1.64322e-01,-4.40184e-02,-3.17305e-01,-9.01294e-03,-1.21418e-01,-3.13214e-01,-2.21762e-01,-8.48281e-02,-2.06683e-01,-1.45731e-01,-2.34001e-01,-2.45713e-01,-1.00451e-01,-1.33521e-01,-1.64079e-02,-1.16025e-01,-3.68145e-01,-2.12869e-01,-1.07096e-01,-1.57535e-01,-1.57153e-01,-3.72089e-02,1.06887e-01,-8.81565e-02,1.67197e-01,-1.32593e-01,1.00405e-01,1.55512e-01,8.10708e-03,1.09953e-01,1.48009e-02,-7.10550e-02,9.12652e-02,1.11231e-01,1.46141e-01,1.14762e-01,9.39661e-02,-2.68743e-03,5.99643e-02,-9.91609e-02,-5.27178e-02,-1.79955e-01,1.49179e-02,-2.44046e-02,-1.91135e-01,-4.85634e-02,-1.38545e-01,-1.50589e-01,-9.25034e-02,-1.69284e-01,-1.79264e-01,-1.00623e-01,-2.64944e-01,-2.38298e-01,-1.11758e-01,-1.43161e-01,-3.13411e-01,-1.61123e-01,-2.82942e-01,-2.21813e-01,-7.96153e-02,-2.47386e-01,-1.73912e-02,9.93130e-03,-2.90070e-03,1.37619e-01,2.31551e-02,-2.41561e-01,-6.41184e-02,6.08593e-02,4.65901e-02,9.21721e-04,6.57744e-02,5.95168e-02,-1.44363e-01,-1.73245e-01,-9.72352e-03,-3.72806e-04,-2.15653e-01,1.63912e-02,1.15079e-02,-1.38143e-01,-1.66937e-01,-3.03003e-01,-1.78354e-01,-1.14734e-01,-1.06814e-01,-3.43960e-02,-1.05684e-01,-2.73592e-02,-1.57385e-01,-1.52305e-01,-1.81387e-01,-2.62752e-01,-1.56644e-01,-5.09408e-02,-1.41973e-01,-8.71148e-02,-1.15238e-01,-5.11429e-02,-2.43872e-01,-1.57255e-01,4.93054e-02,-6.17617e-02,-5.79008e-02,2.45480e-03,3.14450e-03,3.12409e-02,-6.37777e-02,1.48139e-01,-1.66619e-02,4.86530e-02,9.62899e-02,1.06409e-01,2.83880e-03,3.52284e-02,-1.07349e-02,3.01259e-03,2.69706e-02,-8.97418e-02,-5.68786e-02,8.08158e-02,5.22863e-02,2.49857e-03,-9.96484e-02,1.12424e-01,-1.17949e-01,4.19683e-02,-2.25031e-02,-1.16393e-01,-4.60441e-02,-4.03763e-02,2.30588e-02,-2.25975e-01,-8.32100e-02,-1.08754e-01,-1.09311e-01,-1.95938e-01,2.93073e-03,-2.73094e-03,-4.07631e-02,-1.01724e-01,1.43513e-02,-1.26963e-02,1.58761e-01,4.56930e-02,5.79240e-02,-1.29696e-01,-1.08735e-01,3.81237e-02,-1.32202e-01,-1.87682e-01,-5.04560e-02,8.12329e-02,8.38868e-02,-9.58522e-02,-2.01983e-01,8.08023e-02,-5.94856e-02,-2.43359e-02,-2.02256e-01,2.58060e-02,-1.96497e-01,1.19399e-01,-2.07712e-01,-9.21089e-02,-1.12271e-01,-7.64421e-02,-2.22055e-01,-1.32511e-01,-2.85598e-01,-2.31056e-01,-1.88704e-01,-1.52963e-01,-1.04198e-01,-3.37264e-01,-7.51395e-02,