// Neural Network File Format by Kyle Julian, Stanford 2016
7,2352,10,2352,
2352,50,50,50,50,50,50,10,
0,
0,0,0,0,0,0,0,0,0,0,0,0,0,0,0,0,0,0,0,0,0,0,0,0,0,0,0,0,0,0,0,0,0,0,0,0,0,0,0,0,0,0,0,0,0,0,0,0,0,0,0,0,0,0,0,0,0,0,0,0,0,0,0,0,0,0,0,0,0,0,0,0,0,0,0,0,0,0,0,0,0,0,0,0,0,0,0,0,0,0,0,0,0,0,0,0,0,0,0,0,0,0,0,0,0,0,0,0,0,0,0,0,0,0,0,0,0,0,0,0,0,0,0,0,0,0,0,0,0,0,0,0,0,0,0,0,0,0,0,0,0,0,0,0,0,0,0,0,0,0,0,0,0,0,0,0,0,0,0,0,0,0,0,0,0,0,0,0,0,0,0,0,0,0,0,0,0,0,0,0,0,0,0,0,0,0,0,0,0,0,0,0,0,0,0,0,0,0,0,0,0,0,0,0,0,0,0,0,0,0,0,0,0,0,0,0,0,0,0,0,0,0,0,0,0,0,0,0,0,0,0,0,0,0,0,0,0,0,0,0,0,0,0,0,0,0,0,0,0,0,0,0,0,0,0,0,0,0,0,0,0,0,0,0,0,0,0,0,0,0,0,0,0,0,0,0,0,0,0,0,0,0,0,0,0,0,0,0,0,0,0,0,0,0,0,0,0,0,0,0,0,0,0,0,0,0,0,0,0,0,0,0,0,0,0,0,0,0,0,0,0,0,0,0,0,0,0,0,0,0,0,0,0,0,0,0,0,0,0,0,0,0,0,0,0,0,0,0,0,0,0,0,0,0,0,0,0,0,0,0,0,0,0,0,0,0,0,0,0,0,0,0,0,0,0,0,0,0,0,0,0,0,0,0,0,0,0,0,0,0,0,0,0,0,0,0,0,0,0,0,0,0,0,0,0,0,0,0,0,0,0,0,0,0,0,0,0,0,0,0,0,0,0,0,0,0,0,0,0,0,0,0,0,0,0,0,0,0,0,0,0,0,0,0,0,0,0,0,0,0,0,0,0,0,0,0,0,0,0,0,0,0,0,0,0,0,0,0,0,0,0,0,0,0,0,0,0,0,0,0,0,0,0,0,0,0,0,0,0,0,0,0,0,0,0,0,0,0,0,0,0,0,0,0,0,0,0,0,0,0,0,0,0,0,0,0,0,0,0,0,0,0,0,0,0,0,0,0,0,0,0,0,0,0,0,0,0,0,0,0,0,0,0,0,0,0,0,0,0,0,0,0,0,0,0,0,0,0,0,0,0,0,0,0,0,0,0,0,0,0,0,0,0,0,0,0,0,0,0,0,0,0,0,0,0,0,0,0,0,0,0,0,0,0,0,0,0,0,0,0,0,0,0,0,0,0,0,0,0,0,0,0,0,0,0,0,0,0,0,0,0,0,0,0,0,0,0,0,0,0,0,0,0,0,0,0,0,0,0,0,0,0,0,0,0,0,0,0,0,0,0,0,0,0,0,0,0,0,0,0,0,0,0,0,0,0,0,0,0,0,0,0,0,0,0,0,0,0,0,0,0,0,0,0,0,0,0,0,0,0,0,0,0,0,0,0,0,0,0,0,0,0,0,0,0,0,0,0,0,0,0,0,0,0,0,0,0,0,0,0,0,0,0,0,0,0,0,0,0,0,0,0,0,0,0,0,0,0,0,0,0,0,0,0,0,0,0,0,0,0,0,0,0,0,0,0,0,0,0,0,0,0,0,0,0,0,0,0,0,0,0,0,0,0,0,0,0,0,0,0,0,0,0,0,0,0,0,0,0,0,0,0,0,0,0,0,0,0,0,0,0,0,0,0,0,0,0,0,0,0,0,0,0,0,0,0,0,0,0,0,0,0,0,0,0,0,0,0,0,0,0,0,0,0,0,0,0,0,0,0,0,0,0,0,0,0,0,0,0,0,0,0,0,0,0,0,0,0,0,0,0,0,0,0,0,0,0,0,0,0,0,0,0,0,0,0,0,0,0,0,0,0,0,0,0,0,0,0,0,0,0,0,0,0,0,0,0,0,0,0,0,0,0,0,0,0,0,0,0,0,0,0,0,0,0,0,0,0,0,0,0,0,0,0,0,0,0,0,0,0,0,0,0,0,0,0,0,0,0,0,0,0,0,0,0,0,0,0,0,0,0,0,0,0,0,0,0,0,0,0,0,0,0,0,0,0,0,0,0,0,0,0,0,0,0,0,0,0,0,0,0,0,0,0,0,0,0,0,0,0,0,0,0,0,0,0,0,0,0,0,0,0,0,0,0,0,0,0,0,0,0,0,0,0,0,0,0,0,0,0,0,0,0,0,0,0,0,0,0,0,0,0,0,0,0,0,0,0,0,0,0,0,0,0,0,0,0,0,0,0,0,0,0,0,0,0,0,0,0,0,0,0,0,0,0,0,0,0,0,0,0,0,0,0,0,0,0,0,0,0,0,0,0,0,0,0,0,0,0,0,0,0,0,0,0,0,0,0,0,0,0,0,0,0,0,0,0,0,0,0,0,0,0,0,0,0,0,0,0,0,0,0,0,0,0,0,0,0,0,0,0,0,0,0,0,0,0,0,0,0,0,0,0,0,0,0,0,0,0,0,0,0,0,0,0,0,0,0,0,0,0,0,0,0,0,0,0,0,0,0,0,0,0,0,0,0,0,0,0,0,0,0,0,0,0,0,0,0,0,0,0,0,0,0,0,0,0,0,0,0,0,0,0,0,0,0,0,0,0,0,0,0,0,0,0,0,0,0,0,0,0,0,0,0,0,0,0,0,0,0,0,0,0,0,0,0,0,0,0,0,0,0,0,0,0,0,0,0,0,0,0,0,0,0,0,0,0,0,0,0,0,0,0,0,0,0,0,0,0,0,0,0,0,0,0,0,0,0,0,0,0,0,0,0,0,0,0,0,0,0,0,0,0,0,0,0,0,0,0,0,0,0,0,0,0,0,0,0,0,0,0,0,0,0,0,0,0,0,0,0,0,0,0,0,0,0,0,0,0,0,0,0,0,0,0,0,0,0,0,0,0,0,0,0,0,0,0,0,0,0,0,0,0,0,0,0,0,0,0,0,0,0,0,0,0,0,0,0,0,0,0,0,0,0,0,0,0,0,0,0,0,0,0,0,0,0,0,0,0,0,0,0,0,0,0,0,0,0,0,0,0,0,0,0,0,0,0,0,0,0,0,0,0,0,0,0,0,0,0,0,0,0,0,0,0,0,0,0,0,0,0,0,0,0,0,0,0,0,0,0,0,0,0,0,0,0,0,0,0,0,0,0,0,0,0,0,0,0,0,0,0,0,0,0,0,0,0,0,0,0,0,0,0,0,0,0,0,0,0,0,0,0,0,0,0,0,0,0,0,0,0,0,0,0,0,0,0,0,0,0,0,0,0,0,0,0,0,0,0,0,0,0,0,0,0,0,0,0,0,0,0,0,0,0,0,0,0,0,0,0,0,0,0,0,0,0,0,0,0,0,0,0,0,0,0,0,0,0,0,0,0,0,0,0,0,0,0,0,0,0,0,0,0,0,0,0,0,0,0,0,0,0,0,0,0,0,0,0,0,0,0,0,0,0,0,0,0,0,0,0,0,0,0,0,0,0,0,0,0,0,0,0,0,0,0,0,0,0,0,0,0,0,0,0,0,0,0,0,0,0,0,0,0,0,0,0,0,0,0,0,0,0,0,0,0,0,0,0,0,0,0,0,0,0,0,0,0,0,0,0,0,0,0,0,0,0,0,0,0,0,0,0,0,0,0,0,0,0,0,0,0,0,0,0,0,0,0,0,0,0,0,0,0,0,0,0,0,0,0,0,0,0,0,0,0,0,0,0,0,0,0,0,0,0,0,0,0,0,0,0,0,0,0,0,0,0,0,0,0,0,0,0,0,0,0,0,0,0,0,0,0,0,0,0,0,0,0,0,0,0,0,0,0,0,0,0,0,0,0,0,0,0,0,0,0,0,0,0,0,0,0,0,0,0,0,0,0,0,0,0,0,0,0,0,0,0,0,0,0,0,0,0,0,0,0,0,0,0,0,0,0,0,0,0,0,0,0,0,0,0,0,0,0,0,0,0,0,0,0,0,0,0,0,0,0,0,0,0,0,0,0,0,0,0,0,0,0,0,0,0,0,0,0,0,0,0,0,0,0,0,0,0,0,0,0,0,0,0,0,0,0,0,0,0,0,0,0,0,0,0,0,0,0,0,0,0,0,0,0,0,0,0,0,0,0,0,0,0,0,0,0,0,0,0,0,0,0,0,0,0,0,0,0,0,0,0,0,0,0,0,0,0,0,0,0,0,0,0,0,0,0,0,0,0,0,0,0,0,0,0,0,0,0,0,0,0,0,0,0,0,0,0,0,0,0,0,0,0,0,0,0,0,0,0,0,0,0,0,0,0,0,0,0,0,0,0,0,0,0,0,0,0,0,0,0,0,0,0,0,0,0,0,0,0,0,0,0,0,0,0,0,0,0,0,0,0,0,0,0,0,0,0,0,0,0,0,0,0,0,0,0,0,0,0,0,0,0,0,0,0,0,0,0,0,0,0,0,0,0,0,0,0,0,0,0,0,0,0,0,0,0,0,0,0,0,0,0,0,0,0,0,0,0,0,0,0,0,0,0,0,0,0,0,0,0,0,0,0,0,0,0,0,0,0,0,0,0,0,0,0,0,0,0,0,0,0,0,0,0,0,0,0,0,0,0,0,0,0,0,0,0,0,0,0,0,0,0,0,0,0,0,0,0,0,0,0,0,0,0,0,0,0,0,0,0,0,0,0,0,0,0,0,0,0,0,0,0,0,0,0,0,0,0,0,0,0,0,0,0,0,0,0,0,0,0,0,0,0,0,0,0,0,0,0,0,0,0,0,0,0,0,0,0,0,0,0,0,0,0,0,0,0,0,0,0,0,0,0,0,0,0,0,0,0,0,0,0,0,0,0,0,0,0,0,0,0,0,0,0,0,0,0,0,0,0,0,0,0,0,0,0,0,0,0,0,0,0,0,0,0,0,0,0,0,0,0,0,0,0,0,0,0,0,0,0,0,0,0,0,0,0,0,0,0,0,0,0,0,0,0,0,0,0,0,0,0,0,0,0,0,0,0,0,0,0,0,0,0,0,0,0,0,0,0,0,0,0,0,0,0,0,0,0,0,0,0,0,0,0,0,0,0,0,0,0,0,0,0,0,0,0,0,0,0,0,0,0,0,0,0,0,0,0,0,0,0,0,0,0,0,0,0,0,0,0,0,0,0,0,0,0,0,0,0,0,0,0,0,0,0,0,0,0,0,0,0,0,0,0,0,0,0,
255.0,255.0,255.0,255.0,255.0,255.0,255.0,255.0,255.0,255.0,255.0,255.0,255.0,255.0,255.0,255.0,255.0,255.0,255.0,255.0,255.0,255.0,255.0,255.0,255.0,255.0,255.0,255.0,255.0,255.0,255.0,255.0,255.0,255.0,255.0,255.0,255.0,255.0,255.0,255.0,255.0,255.0,255.0,255.0,255.0,255.0,255.0,255.0,255.0,255.0,255.0,255.0,255.0,255.0,255.0,255.0,255.0,255.0,255.0,255.0,255.0,255.0,255.0,255.0,255.0,255.0,255.0,255.0,255.0,255.0,255.0,255.0,255.0,255.0,255.0,255.0,255.0,255.0,255.0,255.0,255.0,255.0,255.0,255.0,255.0,255.0,255.0,255.0,255.0,255.0,255.0,255.0,255.0,255.0,255.0,255.0,255.0,255.0,255.0,255.0,255.0,255.0,255.0,255.0,255.0,255.0,255.0,255.0,255.0,255.0,255.0,255.0,255.0,255.0,255.0,255.0,255.0,255.0,255.0,255.0,255.0,255.0,255.0,255.0,255.0,255.0,255.0,255.0,255.0,255.0,255.0,255.0,255.0,255.0,255.0,255.0,255.0,255.0,255.0,255.0,255.0,255.0,255.0,255.0,255.0,255.0,255.0,255.0,255.0,255.0,255.0,255.0,255.0,255.0,255.0,255.0,255.0,255.0,255.0,255.0,255.0,255.0,255.0,255.0,255.0,255.0,255.0,255.0,255.0,255.0,255.0,255.0,255.0,255.0,255.0,255.0,255.0,255.0,255.0,255.0,255.0,255.0,255.0,255.0,255.0,255.0,255.0,255.0,255.0,255.0,255.0,255.0,255.0,255.0,255.0,255.0,255.0,255.0,255.0,255.0,255.0,255.0,255.0,255.0,255.0,255.0,255.0,255.0,255.0,255.0,255.0,255.0,255.0,255.0,255.0,255.0,255.0,255.0,255.0,255.0,255.0,255.0,255.0,255.0,255.0,255.0,255.0,255.0,255.0,255.0,255.0,255.0,255.0,255.0,255.0,255.0,255.0,255.0,255.0,255.0,255.0,255.0,255.0,255.0,255.0,255.0,255.0,255.0,255.0,255.0,255.0,255.0,255.0,255.0,255.0,255.0,255.0,255.0,255.0,255.0,255.0,255.0,255.0,255.0,255.0,255.0,255.0,255.0,255.0,255.0,255.0,255.0,255.0,255.0,255.0,255.0,255.0,255.0,255.0,255.0,255.0,255.0,255.0,255.0,255.0,255.0,255.0,255.0,255.0,255.0,255.0,255.0,255.0,255.0,255.0,255.0,255.0,255.0,255.0,255.0,255.0,255.0,255.0,255.0,255.0,255.0,255.0,255.0,255.0,255.0,255.0,255.0,255.0,255.0,255.0,255.0,255.0,255.0,255.0,255.0,255.0,255.0,255.0,255.0,255.0,255.0,255.0,255.0,255.0,255.0,255.0,255.0,255.0,255.0,255.0,255.0,255.0,255.0,255.0,255.0,255.0,255.0,255.0,255.0,255.0,255.0,255.0,255.0,255.0,255.0,255.0,255.0,255.0,255.0,255.0,255.0,255.0,255.0,255.0,255.0,255.0,255.0,255.0,255.0,255.0,255.0,255.0,255.0,255.0,255.0,255.0,255.0,255.0,255.0,255.0,255.0,255.0,255.0,255.0,255.0,255.0,255.0,255.0,255.0,255.0,255.0,255.0,255.0,255.0,255.0,255.0,255.0,255.0,255.0,255.0,255.0,255.0,255.0,255.0,255.0,255.0,255.0,255.0,255.0,255.0,255.0,255.0,255.0,255.0,255.0,255.0,255.0,255.0,255.0,255.0,255.0,255.0,255.0,255.0,255.0,255.0,255.0,255.0,255.0,255.0,255.0,255.0,255.0,255.0,255.0,255.0,255.0,255.0,255.0,255.0,255.0,255.0,255.0,255.0,255.0,255.0,255.0,255.0,255.0,255.0,255.0,255.0,255.0,255.0,255.0,255.0,255.0,255.0,255.0,255.0,255.0,255.0,255.0,255.0,255.0,255.0,255.0,255.0,255.0,255.0,255.0,255.0,255.0,255.0,255.0,255.0,255.0,255.0,255.0,255.0,255.0,255.0,255.0,255.0,255.0,255.0,255.0,255.0,255.0,255.0,255.0,255.0,255.0,255.0,255.0,255.0,255.0,255.0,255.0,255.0,255.0,255.0,255.0,255.0,255.0,255.0,255.0,255.0,255.0,255.0,255.0,255.0,255.0,255.0,255.0,255.0,255.0,255.0,255.0,255.0,255.0,255.0,255.0,255.0,255.0,255.0,255.0,255.0,255.0,255.0,255.0,255.0,255.0,255.0,255.0,255.0,255.0,255.0,255.0,255.0,255.0,255.0,255.0,255.0,255.0,255.0,255.0,255.0,255.0,255.0,255.0,255.0,255.0,255.0,255.0,255.0,255.0,255.0,255.0,255.0,255.0,255.0,255.0,255.0,255.0,255.0,255.0,255.0,255.0,255.0,255.0,255.0,255.0,255.0,255.0,255.0,255.0,255.0,255.0,255.0,255.0,255.0,255.0,255.0,255.0,255.0,255.0,255.0,255.0,255.0,255.0,255.0,255.0,255.0,255.0,255.0,255.0,255.0,255.0,255.0,255.0,255.0,255.0,255.0,255.0,255.0,255.0,255.0,255.0,255.0,255.0,255.0,255.0,255.0,255.0,255.0,255.0,255.0,255.0,255.0,255.0,255.0,255.0,255.0,255.0,255.0,255.0,255.0,255.0,255.0,255.0,255.0,255.0,255.0,255.0,255.0,255.0,255.0,255.0,255.0,255.0,255.0,255.0,255.0,255.0,255.0,255.0,255.0,255.0,255.0,255.0,255.0,255.0,255.0,255.0,255.0,255.0,255.0,255.0,255.0,255.0,255.0,255.0,255.0,255.0,255.0,255.0,255.0,255.0,255.0,255.0,255.0,255.0,255.0,255.0,255.0,255.0,255.0,255.0,255.0,255.0,255.0,255.0,255.0,255.0,255.0,255.0,255.0,255.0,255.0,255.0,255.0,255.0,255.0,255.0,255.0,255.0,255.0,255.0,255.0,255.0,255.0,255.0,255.0,255.0,255.0,255.0,255.0,255.0,255.0,255.0,255.0,255.0,255.0,255.0,255.0,255.0,255.0,255.0,255.0,255.0,255.0,255.0,255.0,255.0,255.0,255.0,255.0,255.0,255.0,255.0,255.0,255.0,255.0,255.0,255.0,255.0,255.0,255.0,255.0,255.0,255.0,255.0,255.0,255.0,255.0,255.0,255.0,255.0,255.0,255.0,255.0,255.0,255.0,255.0,255.0,255.0,255.0,255.0,255.0,255.0,255.0,255.0,255.0,255.0,255.0,255.0,255.0,255.0,255.0,255.0,255.0,255.0,255.0,255.0,255.0,255.0,255.0,255.0,255.0,255.0,255.0,255.0,255.0,255.0,255.0,255.0,255.0,255.0,255.0,255.0,255.0,255.0,255.0,255.0,255.0,255.0,255.0,255.0,255.0,255.0,255.0,255.0,255.0,255.0,255.0,255.0,255.0,255.0,255.0,255.0,255.0,255.0,255.0,255.0,255.0,255.0,255.0,255.0,255.0,255.0,255.0,255.0,255.0,255.0,255.0,255.0,255.0,255.0,255.0,255.0,255.0,255.0,255.0,255.0,255.0,255.0,255.0,255.0,255.0,255.0,255.0,255.0,255.0,255.0,255.0,255.0,255.0,255.0,255.0,255.0,255.0,255.0,255.0,255.0,255.0,255.0,255.0,255.0,255.0,255.0,255.0,255.0,255.0,255.0,255.0,255.0,255.0,255.0,255.0,255.0,255.0,255.0,255.0,255.0,255.0,255.0,255.0,255.0,255.0,255.0,255.0,255.0,255.0,255.0,255.0,255.0,255.0,255.0,255.0,255.0,255.0,255.0,255.0,255.0,255.0,255.0,255.0,255.0,255.0,255.0,255.0,255.0,255.0,255.0,255.0,255.0,255.0,255.0,255.0,255.0,255.0,255.0,255.0,255.0,255.0,255.0,255.0,255.0,255.0,255.0,255.0,255.0,255.0,255.0,255.0,255.0,255.0,255.0,255.0,255.0,255.0,255.0,255.0,255.0,255.0,255.0,255.0,255.0,255.0,255.0,255.0,255.0,255.0,255.0,255.0,255.0,255.0,255.0,255.0,255.0,255.0,255.0,255.0,255.0,255.0,255.0,255.0,255.0,255.0,255.0,255.0,255.0,255.0,255.0,255.0,255.0,255.0,255.0,255.0,255.0,255.0,255.0,255.0,255.0,255.0,255.0,255.0,255.0,255.0,255.0,255.0,255.0,255.0,255.0,255.0,255.0,255.0,255.0,255.0,255.0,255.0,255.0,255.0,255.0,255.0,255.0,255.0,255.0,255.0,255.0,255.0,255.0,255.0,255.0,255.0,255.0,255.0,255.0,255.0,255.0,255.0,255.0,255.0,255.0,255.0,255.0,255.0,255.0,255.0,255.0,255.0,255.0,255.0,255.0,255.0,255.0,255.0,255.0,255.0,255.0,255.0,255.0,255.0,255.0,255.0,255.0,255.0,255.0,255.0,255.0,255.0,255.0,255.0,255.0,255.0,255.0,255.0,255.0,255.0,255.0,255.0,255.0,255.0,255.0,255.0,255.0,255.0,255.0,255.0,255.0,255.0,255.0,255.0,255.0,255.0,255.0,255.0,255.0,255.0,255.0,255.0,255.0,255.0,255.0,255.0,255.0,255.0,255.0,255.0,255.0,255.0,255.0,255.0,255.0,255.0,255.0,255.0,255.0,255.0,255.0,255.0,255.0,255.0,255.0,255.0,255.0,255.0,255.0,255.0,255.0,255.0,255.0,255.0,255.0,255.0,255.0,255.0,255.0,255.0,255.0,255.0,255.0,255.0,255.0,255.0,255.0,255.0,255.0,255.0,255.0,255.0,255.0,255.0,255.0,255.0,255.0,255.0,255.0,255.0,255.0,255.0,255.0,255.0,255.0,255.0,255.0,255.0,255.0,255.0,255.0,255.0,255.0,255.0,255.0,255.0,255.0,255.0,255.0,255.0,255.0,255.0,255.0,255.0,255.0,255.0,255.0,255.0,255.0,255.0,255.0,255.0,255.0,255.0,255.0,255.0,255.0,255.0,255.0,255.0,255.0,255.0,255.0,255.0,255.0,255.0,255.0,255.0,255.0,255.0,255.0,255.0,255.0,255.0,255.0,255.0,255.0,255.0,255.0,255.0,255.0,255.0,255.0,255.0,255.0,255.0,255.0,255.0,255.0,255.0,255.0,255.0,255.0,255.0,255.0,255.0,255.0,255.0,255.0,255.0,255.0,255.0,255.0,255.0,255.0,255.0,255.0,255.0,255.0,255.0,255.0,255.0,255.0,255.0,255.0,255.0,255.0,255.0,255.0,255.0,255.0,255.0,255.0,255.0,255.0,255.0,255.0,255.0,255.0,255.0,255.0,255.0,255.0,255.0,255.0,255.0,255.0,255.0,255.0,255.0,255.0,255.0,255.0,255.0,255.0,255.0,255.0,255.0,255.0,255.0,255.0,255.0,255.0,255.0,255.0,255.0,255.0,255.0,255.0,255.0,255.0,255.0,255.0,255.0,255.0,255.0,255.0,255.0,255.0,255.0,255.0,255.0,255.0,255.0,255.0,255.0,255.0,255.0,255.0,255.0,255.0,255.0,255.0,255.0,255.0,255.0,255.0,255.0,255.0,255.0,255.0,255.0,255.0,255.0,255.0,255.0,255.0,255.0,255.0,255.0,255.0,255.0,255.0,255.0,255.0,255.0,255.0,255.0,255.0,255.0,255.0,255.0,255.0,255.0,255.0,255.0,255.0,255.0,255.0,255.0,255.0,255.0,255.0,255.0,255.0,255.0,255.0,255.0,255.0,255.0,255.0,255.0,255.0,255.0,255.0,255.0,255.0,255.0,255.0,255.0,255.0,255.0,255.0,255.0,255.0,255.0,255.0,255.0,255.0,255.0,255.0,255.0,255.0,255.0,255.0,255.0,255.0,255.0,255.0,255.0,255.0,255.0,255.0,255.0,255.0,255.0,255.0,255.0,255.0,255.0,255.0,255.0,255.0,255.0,255.0,255.0,255.0,255.0,255.0,255.0,255.0,255.0,255.0,255.0,255.0,255.0,255.0,255.0,255.0,255.0,255.0,255.0,255.0,255.0,255.0,255.0,255.0,255.0,255.0,255.0,255.0,255.0,255.0,255.0,255.0,255.0,255.0,255.0,255.0,255.0,255.0,255.0,255.0,255.0,255.0,255.0,255.0,255.0,255.0,255.0,255.0,255.0,255.0,255.0,255.0,255.0,255.0,255.0,255.0,255.0,255.0,255.0,255.0,255.0,255.0,255.0,255.0,255.0,255.0,255.0,255.0,255.0,255.0,255.0,255.0,255.0,255.0,255.0,255.0,255.0,255.0,255.0,255.0,255.0,255.0,255.0,255.0,255.0,255.0,255.0,255.0,255.0,255.0,255.0,255.0,255.0,255.0,255.0,255.0,255.0,255.0,255.0,255.0,255.0,255.0,255.0,255.0,255.0,255.0,255.0,255.0,255.0,255.0,255.0,255.0,255.0,255.0,255.0,255.0,255.0,255.0,255.0,255.0,255.0,255.0,255.0,255.0,255.0,255.0,255.0,255.0,255.0,255.0,255.0,255.0,255.0,255.0,255.0,255.0,255.0,255.0,255.0,255.0,255.0,255.0,255.0,255.0,255.0,255.0,255.0,255.0,255.0,255.0,255.0,255.0,255.0,255.0,255.0,255.0,255.0,255.0,255.0,255.0,255.0,255.0,255.0,255.0,255.0,255.0,255.0,255.0,255.0,255.0,255.0,255.0,255.0,255.0,255.0,255.0,255.0,255.0,255.0,255.0,255.0,255.0,255.0,255.0,255.0,255.0,255.0,255.0,255.0,255.0,255.0,255.0,255.0,255.0,255.0,255.0,255.0,255.0,255.0,255.0,255.0,255.0,255.0,255.0,255.0,255.0,255.0,255.0,255.0,255.0,255.0,255.0,255.0,255.0,255.0,255.0,255.0,255.0,255.0,255.0,255.0,255.0,255.0,255.0,255.0,255.0,255.0,255.0,255.0,255.0,255.0,255.0,255.0,255.0,255.0,255.0,255.0,255.0,255.0,255.0,255.0,255.0,255.0,255.0,255.0,255.0,255.0,255.0,255.0,255.0,255.0,255.0,255.0,255.0,255.0,255.0,255.0,255.0,255.0,255.0,255.0,255.0,255.0,255.0,255.0,255.0,255.0,255.0,255.0,255.0,255.0,255.0,255.0,255.0,255.0,255.0,255.0,255.0,255.0,255.0,255.0,255.0,255.0,255.0,255.0,255.0,255.0,255.0,255.0,255.0,255.0,255.0,255.0,255.0,255.0,255.0,255.0,255.0,255.0,255.0,255.0,255.0,255.0,255.0,255.0,255.0,255.0,255.0,255.0,255.0,255.0,255.0,255.0,255.0,255.0,255.0,255.0,255.0,255.0,255.0,255.0,255.0,255.0,255.0,255.0,255.0,255.0,255.0,255.0,255.0,255.0,255.0,255.0,255.0,255.0,255.0,255.0,255.0,255.0,255.0,255.0,255.0,255.0,255.0,255.0,255.0,255.0,255.0,255.0,255.0,255.0,255.0,255.0,255.0,255.0,255.0,255.0,255.0,255.0,255.0,255.0,255.0,255.0,255.0,255.0,255.0,255.0,255.0,255.0,255.0,255.0,255.0,255.0,255.0,255.0,255.0,255.0,255.0,255.0,255.0,255.0,255.0,255.0,255.0,255.0,255.0,255.0,255.0,255.0,255.0,255.0,255.0,255.0,255.0,255.0,255.0,255.0,255.0,255.0,255.0,255.0,255.0,255.0,255.0,255.0,255.0,255.0,255.0,255.0,255.0,255.0,255.0,255.0,255.0,255.0,255.0,255.0,255.0,255.0,255.0,255.0,255.0,255.0,255.0,255.0,255.0,255.0,255.0,255.0,255.0,255.0,255.0,255.0,255.0,255.0,255.0,255.0,255.0,255.0,255.0,255.0,255.0,255.0,255.0,255.0,255.0,255.0,255.0,255.0,255.0,255.0,255.0,255.0,255.0,255.0,255.0,255.0,255.0,255.0,255.0,255.0,255.0,255.0,255.0,255.0,255.0,255.0,255.0,255.0,255.0,255.0,255.0,255.0,255.0,255.0,255.0,255.0,255.0,255.0,255.0,255.0,255.0,255.0,255.0,255.0,255.0,255.0,255.0,255.0,255.0,255.0,255.0,255.0,255.0,255.0,255.0,255.0,255.0,255.0,255.0,255.0,255.0,255.0,255.0,255.0,255.0,255.0,255.0,255.0,255.0,255.0,255.0,255.0,255.0,255.0,255.0,255.0,255.0,255.0,255.0,255.0,255.0,255.0,255.0,255.0,255.0,255.0,255.0,255.0,255.0,255.0,255.0,255.0,255.0,255.0,255.0,255.0,255.0,255.0,255.0,255.0,255.0,255.0,255.0,255.0,255.0,255.0,255.0,255.0,255.0,255.0,255.0,255.0,255.0,255.0,255.0,255.0,255.0,255.0,255.0,255.0,255.0,255.0,255.0,255.0,255.0,255.0,255.0,255.0,255.0,255.0,255.0,255.0,255.0,255.0,255.0,255.0,255.0,255.0,255.0,255.0,255.0,255.0,255.0,255.0,255.0,255.0,255.0,255.0,255.0,255.0,255.0,255.0,255.0,255.0,255.0,255.0,255.0,255.0,255.0,255.0,255.0,255.0,255.0,255.0,255.0,255.0,255.0,255.0,255.0,255.0,255.0,255.0,255.0,255.0,255.0,255.0,255.0,255.0,255.0,255.0,255.0,255.0,255.0,255.0,255.0,255.0,255.0,255.0,255.0,255.0,255.0,255.0,255.0,255.0,255.0,255.0,255.0,255.0,255.0,255.0,255.0,255.0,255.0,255.0,255.0,255.0,255.0,255.0,255.0,255.0,255.0,255.0,255.0,255.0,255.0,255.0,255.0,255.0,255.0,255.0,255.0,255.0,255.0,255.0,255.0,255.0,255.0,255.0,255.0,255.0,255.0,255.0,255.0,255.0,255.0,255.0,255.0,255.0,255.0,255.0,255.0,255.0,255.0,255.0,255.0,255.0,255.0,255.0,255.0,255.0,255.0,255.0,255.0,255.0,255.0,255.0,255.0,255.0,255.0,255.0,255.0,255.0,255.0,255.0,255.0,255.0,255.0,255.0,255.0,255.0,255.0,255.0,255.0,255.0,255.0,255.0,255.0,255.0,255.0,255.0,255.0,255.0,255.0,255.0,255.0,255.0,255.0,255.0,255.0,255.0,255.0,255.0,255.0,255.0,255.0,255.0,255.0,255.0,255.0,255.0,255.0,255.0,255.0,255.0,255.0,255.0,255.0,255.0,255.0,255.0,255.0,255.0,255.0,255.0,255.0,255.0,255.0,255.0,255.0,255.0,255.0,255.0,255.0,255.0,255.0,255.0,255.0,255.0,255.0,255.0,255.0,255.0,255.0,255.0,255.0,255.0,255.0,255.0,255.0,255.0,255.0,255.0,255.0,255.0,255.0,255.0,255.0,255.0,255.0,255.0,255.0,255.0,255.0,255.0,255.0,255.0,255.0,255.0,255.0,255.0,255.0,255.0,255.0,255.0,255.0,255.0,255.0,255.0,255.0,255.0,255.0,255.0,255.0,255.0,255.0,255.0,255.0,255.0,255.0,255.0,255.0,255.0,255.0,255.0,255.0,255.0,255.0,255.0,255.0,255.0,255.0,255.0,255.0,255.0,255.0,255.0,255.0,255.0,255.0,255.0,255.0,255.0,255.0,255.0,255.0,255.0,255.0,255.0,255.0,255.0,255.0,255.0,255.0,255.0,255.0,255.0,255.0,255.0,255.0,255.0,255.0,255.0,255.0,255.0,255.0,255.0,255.0,255.0,255.0,255.0,255.0,255.0,255.0,255.0,255.0,255.0,255.0,255.0,255.0,255.0,255.0,255.0,255.0,255.0,255.0,255.0,255.0,255.0,255.0,255.0,255.0,255.0,255.0,255.0,255.0,255.0,255.0,255.0,255.0,255.0,255.0,255.0,255.0,255.0,255.0,255.0,255.0,255.0,255.0,255.0,255.0,255.0,255.0,255.0,255.0,255.0,255.0,255.0,255.0,255.0,255.0,255.0,255.0,255.0,255.0,255.0,255.0,255.0,255.0,255.0,255.0,255.0,255.0,255.0,255.0,255.0,255.0,255.0,255.0,255.0,255.0,255.0,255.0,255.0,255.0,255.0,255.0,255.0,255.0,255.0,255.0,255.0,255.0,255.0,255.0,255.0,255.0,255.0,255.0,255.0,255.0,255.0,255.0,255.0,255.0,255.0,255.0,255.0,255.0,255.0,255.0,255.0,255.0,
127.0,127.0,127.0,127.0,127.0,127.0,127.0,127.0,127.0,127.0,127.0,127.0,127.0,127.0,127.0,127.0,127.0,127.0,127.0,127.0,127.0,127.0,127.0,127.0,127.0,127.0,127.0,127.0,127.0,127.0,127.0,127.0,127.0,127.0,127.0,127.0,127.0,127.0,127.0,127.0,127.0,127.0,127.0,127.0,127.0,127.0,127.0,127.0,127.0,127.0,127.0,127.0,127.0,127.0,127.0,127.0,127.0,127.0,127.0,127.0,127.0,127.0,127.0,127.0,127.0,127.0,127.0,127.0,127.0,127.0,127.0,127.0,127.0,127.0,127.0,127.0,127.0,127.0,127.0,127.0,127.0,127.0,127.0,127.0,127.0,127.0,127.0,127.0,127.0,127.0,127.0,127.0,127.0,127.0,127.0,127.0,127.0,127.0,127.0,127.0,127.0,127.0,127.0,127.0,127.0,127.0,127.0,127.0,127.0,127.0,127.0,127.0,127.0,127.0,127.0,127.0,127.0,127.0,127.0,127.0,127.0,127.0,127.0,127.0,127.0,127.0,127.0,127.0,127.0,127.0,127.0,127.0,127.0,127.0,127.0,127.0,127.0,127.0,127.0,127.0,127.0,127.0,127.0,127.0,127.0,127.0,127.0,127.0,127.0,127.0,127.0,127.0,127.0,127.0,127.0,127.0,127.0,127.0,127.0,127.0,127.0,127.0,127.0,127.0,127.0,127.0,127.0,127.0,127.0,127.0,127.0,127.0,127.0,127.0,127.0,127.0,127.0,127.0,127.0,127.0,127.0,127.0,127.0,127.0,127.0,127.0,127.0,127.0,127.0,127.0,127.0,127.0,127.0,127.0,127.0,127.0,127.0,127.0,127.0,127.0,127.0,127.0,127.0,127.0,127.0,127.0,127.0,127.0,127.0,127.0,127.0,127.0,127.0,127.0,127.0,127.0,127.0,127.0,127.0,127.0,127.0,127.0,127.0,127.0,127.0,127.0,127.0,127.0,127.0,127.0,127.0,127.0,127.0,127.0,127.0,127.0,127.0,127.0,127.0,127.0,127.0,127.0,127.0,127.0,127.0,127.0,127.0,127.0,127.0,127.0,127.0,127.0,127.0,127.0,127.0,127.0,127.0,127.0,127.0,127.0,127.0,127.0,127.0,127.0,127.0,127.0,127.0,127.0,127.0,127.0,127.0,127.0,127.0,127.0,127.0,127.0,127.0,127.0,127.0,127.0,127.0,127.0,127.0,127.0,127.0,127.0,127.0,127.0,127.0,127.0,127.0,127.0,127.0,127.0,127.0,127.0,127.0,127.0,127.0,127.0,127.0,127.0,127.0,127.0,127.0,127.0,127.0,127.0,127.0,127.0,127.0,127.0,127.0,127.0,127.0,127.0,127.0,127.0,127.0,127.0,127.0,127.0,127.0,127.0,127.0,127.0,127.0,127.0,127.0,127.0,127.0,127.0,127.0,127.0,127.0,127.0,127.0,127.0,127.0,127.0,127.0,127.0,127.0,127.0,127.0,127.0,127.0,127.0,127.0,127.0,127.0,127.0,127.0,127.0,127.0,127.0,127.0,127.0,127.0,127.0,127.0,127.0,127.0,127.0,127.0,127.0,127.0,127.0,127.0,127.0,127.0,127.0,127.0,127.0,127.0,127.0,127.0,127.0,127.0,127.0,127.0,127.0,127.0,127.0,127.0,127.0,127.0,127.0,127.0,127.0,127.0,127.0,127.0,127.0,127.0,127.0,127.0,127.0,127.0,127.0,127.0,127.0,127.0,127.0,127.0,127.0,127.0,127.0,127.0,127.0,127.0,127.0,127.0,127.0,127.0,127.0,127.0,127.0,127.0,127.0,127.0,127.0,127.0,127.0,127.0,127.0,127.0,127.0,127.0,127.0,127.0,127.0,127.0,127.0,127.0,127.0,127.0,127.0,127.0,127.0,127.0,127.0,127.0,127.0,127.0,127.0,127.0,127.0,127.0,127.0,127.0,127.0,127.0,127.0,127.0,127.0,127.0,127.0,127.0,127.0,127.0,127.0,127.0,127.0,127.0,127.0,127.0,127.0,127.0,127.0,127.0,127.0,127.0,127.0,127.0,127.0,127.0,127.0,127.0,127.0,127.0,127.0,127.0,127.0,127.0,127.0,127.0,127.0,127.0,127.0,127.0,127.0,127.0,127.0,127.0,127.0,127.0,127.0,127.0,127.0,127.0,127.0,127.0,127.0,127.0,127.0,127.0,127.0,127.0,127.0,127.0,127.0,127.0,127.0,127.0,127.0,127.0,127.0,127.0,127.0,127.0,127.0,127.0,127.0,127.0,127.0,127.0,127.0,127.0,127.0,127.0,127.0,127.0,127.0,127.0,127.0,127.0,127.0,127.0,127.0,127.0,127.0,127.0,127.0,127.0,127.0,127.0,127.0,127.0,127.0,127.0,127.0,127.0,127.0,127.0,127.0,127.0,127.0,127.0,127.0,127.0,127.0,127.0,127.0,127.0,127.0,127.0,127.0,127.0,127.0,127.0,127.0,127.0,127.0,127.0,127.0,127.0,127.0,127.0,127.0,127.0,127.0,127.0,127.0,127.0,127.0,127.0,127.0,127.0,127.0,127.0,127.0,127.0,127.0,127.0,127.0,127.0,127.0,127.0,127.0,127.0,127.0,127.0,127.0,127.0,127.0,127.0,127.0,127.0,127.0,127.0,127.0,127.0,127.0,127.0,127.0,127.0,127.0,127.0,127.0,127.0,127.0,127.0,127.0,127.0,127.0,127.0,127.0,127.0,127.0,127.0,127.0,127.0,127.0,127.0,127.0,127.0,127.0,127.0,127.0,127.0,127.0,127.0,127.0,127.0,127.0,127.0,127.0,127.0,127.0,127.0,127.0,127.0,127.0,127.0,127.0,127.0,127.0,127.0,127.0,127.0,127.0,127.0,127.0,127.0,127.0,127.0,127.0,127.0,127.0,127.0,127.0,127.0,127.0,127.0,127.0,127.0,127.0,127.0,127.0,127.0,127.0,127.0,127.0,127.0,127.0,127.0,127.0,127.0,127.0,127.0,127.0,127.0,127.0,127.0,127.0,127.0,127.0,127.0,127.0,127.0,127.0,127.0,127.0,127.0,127.0,127.0,127.0,127.0,127.0,127.0,127.0,127.0,127.0,127.0,127.0,127.0,127.0,127.0,127.0,127.0,127.0,127.0,127.0,127.0,127.0,127.0,127.0,127.0,127.0,127.0,127.0,127.0,127.0,127.0,127.0,127.0,127.0,127.0,127.0,127.0,127.0,127.0,127.0,127.0,127.0,127.0,127.0,127.0,127.0,127.0,127.0,127.0,127.0,127.0,127.0,127.0,127.0,127.0,127.0,127.0,127.0,127.0,127.0,127.0,127.0,127.0,127.0,127.0,127.0,127.0,127.0,127.0,127.0,127.0,127.0,127.0,127.0,127.0,127.0,127.0,127.0,127.0,127.0,127.0,127.0,127.0,127.0,127.0,127.0,127.0,127.0,127.0,127.0,127.0,127.0,127.0,127.0,127.0,127.0,127.0,127.0,127.0,127.0,127.0,127.0,127.0,127.0,127.0,127.0,127.0,127.0,127.0,127.0,127.0,127.0,127.0,127.0,127.0,127.0,127.0,127.0,127.0,127.0,127.0,127.0,127.0,127.0,127.0,127.0,127.0,127.0,127.0,127.0,127.0,127.0,127.0,127.0,127.0,127.0,127.0,127.0,127.0,127.0,127.0,127.0,127.0,127.0,127.0,127.0,127.0,127.0,127.0,127.0,127.0,127.0,127.0,127.0,127.0,127.0,127.0,127.0,127.0,127.0,127.0,127.0,127.0,127.0,127.0,127.0,127.0,127.0,127.0,127.0,127.0,127.0,127.0,127.0,127.0,127.0,127.0,127.0,127.0,127.0,127.0,127.0,127.0,127.0,127.0,127.0,127.0,127.0,127.0,127.0,127.0,127.0,127.0,127.0,127.0,127.0,127.0,127.0,127.0,127.0,127.0,127.0,127.0,127.0,127.0,127.0,127.0,127.0,127.0,127.0,127.0,127.0,127.0,127.0,127.0,127.0,127.0,127.0,127.0,127.0,127.0,127.0,127.0,127.0,127.0,127.0,127.0,127.0,127.0,127.0,127.0,127.0,127.0,127.0,127.0,127.0,127.0,127.0,127.0,127.0,127.0,127.0,127.0,127.0,127.0,127.0,127.0,127.0,127.0,127.0,127.0,127.0,127.0,127.0,127.0,127.0,127.0,127.0,127.0,127.0,127.0,127.0,127.0,127.0,127.0,127.0,127.0,127.0,127.0,127.0,127.0,127.0,127.0,127.0,127.0,127.0,127.0,127.0,127.0,127.0,127.0,127.0,127.0,127.0,127.0,127.0,127.0,127.0,127.0,127.0,127.0,127.0,127.0,127.0,127.0,127.0,127.0,127.0,127.0,127.0,127.0,127.0,127.0,127.0,127.0,127.0,127.0,127.0,127.0,127.0,127.0,127.0,127.0,127.0,127.0,127.0,127.0,127.0,127.0,127.0,127.0,127.0,127.0,127.0,127.0,127.0,127.0,127.0,127.0,127.0,127.0,127.0,127.0,127.0,127.0,127.0,127.0,127.0,127.0,127.0,127.0,127.0,127.0,127.0,127.0,127.0,127.0,127.0,127.0,127.0,127.0,127.0,127.0,127.0,127.0,127.0,127.0,127.0,127.0,127.0,127.0,127.0,127.0,127.0,127.0,127.0,127.0,127.0,127.0,127.0,127.0,127.0,127.0,127.0,127.0,127.0,127.0,127.0,127.0,127.0,127.0,127.0,127.0,127.0,127.0,127.0,127.0,127.0,127.0,127.0,127.0,127.0,127.0,127.0,127.0,127.0,127.0,127.0,127.0,127.0,127.0,127.0,127.0,127.0,127.0,127.0,127.0,127.0,127.0,127.0,127.0,127.0,127.0,127.0,127.0,127.0,127.0,127.0,127.0,127.0,127.0,127.0,127.0,127.0,127.0,127.0,127.0,127.0,127.0,127.0,127.0,127.0,127.0,127.0,127.0,127.0,127.0,127.0,127.0,127.0,127.0,127.0,127.0,127.0,127.0,127.0,127.0,127.0,127.0,127.0,127.0,127.0,127.0,127.0,127.0,127.0,127.0,127.0,127.0,127.0,127.0,127.0,127.0,127.0,127.0,127.0,127.0,127.0,127.0,127.0,127.0,127.0,127.0,127.0,127.0,127.0,127.0,127.0,127.0,127.0,127.0,127.0,127.0,127.0,127.0,127.0,127.0,127.0,127.0,127.0,127.0,127.0,127.0,127.0,127.0,127.0,127.0,127.0,127.0,127.0,127.0,127.0,127.0,127.0,127.0,127.0,127.0,127.0,127.0,127.0,127.0,127.0,127.0,127.0,127.0,127.0,127.0,127.0,127.0,127.0,127.0,127.0,127.0,127.0,127.0,127.0,127.0,127.0,127.0,127.0,127.0,127.0,127.0,127.0,127.0,127.0,127.0,127.0,127.0,127.0,127.0,127.0,127.0,127.0,127.0,127.0,127.0,127.0,127.0,127.0,127.0,127.0,127.0,127.0,127.0,127.0,127.0,127.0,127.0,127.0,127.0,127.0,127.0,127.0,127.0,127.0,127.0,127.0,127.0,127.0,127.0,127.0,127.0,127.0,127.0,127.0,127.0,127.0,127.0,127.0,127.0,127.0,127.0,127.0,127.0,127.0,127.0,127.0,127.0,127.0,127.0,127.0,127.0,127.0,127.0,127.0,127.0,127.0,127.0,127.0,127.0,127.0,127.0,127.0,127.0,127.0,127.0,127.0,127.0,127.0,127.0,127.0,127.0,127.0,127.0,127.0,127.0,127.0,127.0,127.0,127.0,127.0,127.0,127.0,127.0,127.0,127.0,127.0,127.0,127.0,127.0,127.0,127.0,127.0,127.0,127.0,127.0,127.0,127.0,127.0,127.0,127.0,127.0,127.0,127.0,127.0,127.0,127.0,127.0,127.0,127.0,127.0,127.0,127.0,127.0,127.0,127.0,127.0,127.0,127.0,127.0,127.0,127.0,127.0,127.0,127.0,127.0,127.0,127.0,127.0,127.0,127.0,127.0,127.0,127.0,127.0,127.0,127.0,127.0,127.0,127.0,127.0,127.0,127.0,127.0,127.0,127.0,127.0,127.0,127.0,127.0,127.0,127.0,127.0,127.0,127.0,127.0,127.0,127.0,127.0,127.0,127.0,127.0,127.0,127.0,127.0,127.0,127.0,127.0,127.0,127.0,127.0,127.0,127.0,127.0,127.0,127.0,127.0,127.0,127.0,127.0,127.0,127.0,127.0,127.0,127.0,127.0,127.0,127.0,127.0,127.0,127.0,127.0,127.0,127.0,127.0,127.0,127.0,127.0,127.0,127.0,127.0,127.0,127.0,127.0,127.0,127.0,127.0,127.0,127.0,127.0,127.0,127.0,127.0,127.0,127.0,127.0,127.0,127.0,127.0,127.0,127.0,127.0,127.0,127.0,127.0,127.0,127.0,127.0,127.0,127.0,127.0,127.0,127.0,127.0,127.0,127.0,127.0,127.0,127.0,127.0,127.0,127.0,127.0,127.0,127.0,127.0,127.0,127.0,127.0,127.0,127.0,127.0,127.0,127.0,127.0,127.0,127.0,127.0,127.0,127.0,127.0,127.0,127.0,127.0,127.0,127.0,127.0,127.0,127.0,127.0,127.0,127.0,127.0,127.0,127.0,127.0,127.0,127.0,127.0,127.0,127.0,127.0,127.0,127.0,127.0,127.0,127.0,127.0,127.0,127.0,127.0,127.0,127.0,127.0,127.0,127.0,127.0,127.0,127.0,127.0,127.0,127.0,127.0,127.0,127.0,127.0,127.0,127.0,127.0,127.0,127.0,127.0,127.0,127.0,127.0,127.0,127.0,127.0,127.0,127.0,127.0,127.0,127.0,127.0,127.0,127.0,127.0,127.0,127.0,127.0,127.0,127.0,127.0,127.0,127.0,127.0,127.0,127.0,127.0,127.0,127.0,127.0,127.0,127.0,127.0,127.0,127.0,127.0,127.0,127.0,127.0,127.0,127.0,127.0,127.0,127.0,127.0,127.0,127.0,127.0,127.0,127.0,127.0,127.0,127.0,127.0,127.0,127.0,127.0,127.0,127.0,127.0,127.0,127.0,127.0,127.0,127.0,127.0,127.0,127.0,127.0,127.0,127.0,127.0,127.0,127.0,127.0,127.0,127.0,127.0,127.0,127.0,127.0,127.0,127.0,127.0,127.0,127.0,127.0,127.0,127.0,127.0,127.0,127.0,127.0,127.0,127.0,127.0,127.0,127.0,127.0,127.0,127.0,127.0,127.0,127.0,127.0,127.0,127.0,127.0,127.0,127.0,127.0,127.0,127.0,127.0,127.0,127.0,127.0,127.0,127.0,127.0,127.0,127.0,127.0,127.0,127.0,127.0,127.0,127.0,127.0,127.0,127.0,127.0,127.0,127.0,127.0,127.0,127.0,127.0,127.0,127.0,127.0,127.0,127.0,127.0,127.0,127.0,127.0,127.0,127.0,127.0,127.0,127.0,127.0,127.0,127.0,127.0,127.0,127.0,127.0,127.0,127.0,127.0,127.0,127.0,127.0,127.0,127.0,127.0,127.0,127.0,127.0,127.0,127.0,127.0,127.0,127.0,127.0,127.0,127.0,127.0,127.0,127.0,127.0,127.0,127.0,127.0,127.0,127.0,127.0,127.0,127.0,127.0,127.0,127.0,127.0,127.0,127.0,127.0,127.0,127.0,127.0,127.0,127.0,127.0,127.0,127.0,127.0,127.0,127.0,127.0,127.0,127.0,127.0,127.0,127.0,127.0,127.0,127.0,127.0,127.0,127.0,127.0,127.0,127.0,127.0,127.0,127.0,127.0,127.0,127.0,127.0,127.0,127.0,127.0,127.0,127.0,127.0,127.0,127.0,127.0,127.0,127.0,127.0,127.0,127.0,127.0,127.0,127.0,127.0,127.0,127.0,127.0,127.0,127.0,127.0,127.0,127.0,127.0,127.0,127.0,127.0,127.0,127.0,127.0,127.0,127.0,127.0,127.0,127.0,127.0,127.0,127.0,127.0,127.0,127.0,127.0,127.0,127.0,127.0,127.0,127.0,127.0,127.0,127.0,127.0,127.0,127.0,127.0,127.0,127.0,127.0,127.0,127.0,127.0,127.0,127.0,127.0,127.0,127.0,127.0,127.0,127.0,127.0,127.0,127.0,127.0,127.0,127.0,127.0,127.0,127.0,127.0,127.0,127.0,127.0,127.0,127.0,127.0,127.0,127.0,127.0,127.0,127.0,127.0,127.0,127.0,127.0,127.0,127.0,127.0,127.0,127.0,127.0,127.0,127.0,127.0,127.0,127.0,127.0,127.0,127.0,127.0,127.0,127.0,127.0,127.0,127.0,127.0,127.0,127.0,127.0,127.0,127.0,127.0,127.0,127.0,127.0,127.0,127.0,127.0,127.0,127.0,127.0,127.0,127.0,127.0,127.0,127.0,127.0,127.0,127.0,127.0,127.0,127.0,127.0,127.0,127.0,127.0,127.0,127.0,127.0,127.0,127.0,127.0,127.0,127.0,127.0,127.0,127.0,127.0,127.0,127.0,127.0,127.0,127.0,127.0,127.0,127.0,127.0,127.0,127.0,127.0,127.0,127.0,127.0,127.0,127.0,127.0,127.0,127.0,127.0,127.0,127.0,127.0,127.0,127.0,127.0,127.0,127.0,127.0,127.0,127.0,127.0,127.0,127.0,127.0,127.0,127.0,127.0,127.0,127.0,127.0,127.0,127.0,127.0,127.0,127.0,127.0,127.0,127.0,127.0,127.0,127.0,127.0,127.0,127.0,127.0,127.0,127.0,127.0,127.0,127.0,127.0,127.0,127.0,127.0,127.0,127.0,127.0,127.0,127.0,127.0,127.0,127.0,127.0,127.0,127.0,127.0,127.0,127.0,127.0,127.0,127.0,127.0,127.0,127.0,127.0,127.0,127.0,127.0,127.0,127.0,127.0,127.0,127.0,127.0,127.0,127.0,127.0,127.0,127.0,127.0,127.0,127.0,127.0,127.0,127.0,127.0,127.0,127.0,127.0,127.0,127.0,127.0,127.0,127.0,127.0,127.0,127.0,127.0,127.0,127.0,127.0,127.0,127.0,127.0,127.0,127.0,127.0,127.0,127.0,127.0,127.0,127.0,127.0,127.0,127.0,127.0,127.0,127.0,127.0,127.0,127.0,127.0,127.0,127.0,127.0,127.0,127.0,127.0,127.0,127.0,127.0,127.0,127.0,127.0,127.0,127.0,127.0,127.0,127.0,127.0,127.0,127.0,127.0,127.0,127.0,127.0,127.0,127.0,127.0,127.0,127.0,127.0,127.0,127.0,127.0,127.0,127.0,127.0,127.0,127.0,127.0,127.0,127.0,127.0,127.0,127.0,127.0,127.0,127.0,127.0,127.0,127.0,127.0,127.0,127.0,127.0,127.0,127.0,127.0,127.0,127.0,127.0,127.0,127.0,127.0,127.0,127.0,127.0,127.0,127.0,127.0,127.0,127.0,127.0,127.0,127.0,127.0,127.0,127.0,127.0,127.0,127.0,127.0,127.0,127.0,127.0,127.0,127.0,127.0,127.0,127.0,127.0,127.0,127.0,127.0,127.0,127.0,127.0,127.0,127.0,127.0,127.0,127.0,127.0,127.0,127.0,127.0,127.0,127.0,127.0,127.0,127.0,127.0,127.0,127.0,127.0,127.0,127.0,127.0,127.0,127.0,127.0,127.0,127.0,127.0,127.0,127.0,127.0,127.0,127.0,127.0,127.0,127.0,127.0,127.0,127.0,127.0,127.0,127.0,127.0,127.0,127.0,127.0,127.0,127.0,127.0,127.0,127.0,127.0,127.0,127.0,127.0,127.0,127.0,127.0,127.0,127.0,127.0,127.0,127.0,127.0,127.0,127.0,127.0,127.0,127.0,127.0,127.0,127.0,127.0,127.0,127.0,127.0,127.0,127.0,127.0,127.0,127.0,127.0,127.0,127.0,127.0,127.0,127.0,127.0,127.0,127.0,127.0,127.0,127.0,127.0,127.0,127.0,127.0,127.0,127.0,127.0,127.0,127.0,127.0,127.0,127.0,127.0,127.0,127.0,127.0,127.0,127.0,127.0,127.0,127.0,127.0,127.0,127.0,127.0,127.0,127.0,127.0,127.0,127.0,127.0,127.0,127.0,127.0,127.0,127.0,127.0,127.0,127.0,127.0,127.0,127.0,127.0,127.0,127.0,127.0,127.0,127.0,127.0,127.0,127.0,127.0,127.0,127.0,127.0,127.0,127.0,127.0,127.0,127.0,127.0,127.0,127.0,127.0,127.0,127.0,127.0,127.0,127.0,127.0,127.0,127.0,127.0,
255.0,255.0,255.0,255.0,255.0,255.0,255.0,255.0,255.0,255.0,255.0,255.0,255.0,255.0,255.0,255.0,255.0,255.0,255.0,255.0,255.0,255.0,255.0,255.0,255.0,255.0,255.0,255.0,255.0,255.0,255.0,255.0,255.0,255.0,255.0,255.0,255.0,255.0,255.0,255.0,255.0,255.0,255.0,255.0,255.0,255.0,255.0,255.0,255.0,255.0,255.0,255.0,255.0,255.0,255.0,255.0,255.0,255.0,255.0,255.0,255.0,255.0,255.0,255.0,255.0,255.0,255.0,255.0,255.0,255.0,255.0,255.0,255.0,255.0,255.0,255.0,255.0,255.0,255.0,255.0,255.0,255.0,255.0,255.0,255.0,255.0,255.0,255.0,255.0,255.0,255.0,255.0,255.0,255.0,255.0,255.0,255.0,255.0,255.0,255.0,255.0,255.0,255.0,255.0,255.0,255.0,255.0,255.0,255.0,255.0,255.0,255.0,255.0,255.0,255.0,255.0,255.0,255.0,255.0,255.0,255.0,255.0,255.0,255.0,255.0,255.0,255.0,255.0,255.0,255.0,255.0,255.0,255.0,255.0,255.0,255.0,255.0,255.0,255.0,255.0,255.0,255.0,255.0,255.0,255.0,255.0,255.0,255.0,255.0,255.0,255.0,255.0,255.0,255.0,255.0,255.0,255.0,255.0,255.0,255.0,255.0,255.0,255.0,255.0,255.0,255.0,255.0,255.0,255.0,255.0,255.0,255.0,255.0,255.0,255.0,255.0,255.0,255.0,255.0,255.0,255.0,255.0,255.0,255.0,255.0,255.0,255.0,255.0,255.0,255.0,255.0,255.0,255.0,255.0,255.0,255.0,255.0,255.0,255.0,255.0,255.0,255.0,255.0,255.0,255.0,255.0,255.0,255.0,255.0,255.0,255.0,255.0,255.0,255.0,255.0,255.0,255.0,255.0,255.0,255.0,255.0,255.0,255.0,255.0,255.0,255.0,255.0,255.0,255.0,255.0,255.0,255.0,255.0,255.0,255.0,255.0,255.0,255.0,255.0,255.0,255.0,255.0,255.0,255.0,255.0,255.0,255.0,255.0,255.0,255.0,255.0,255.0,255.0,255.0,255.0,255.0,255.0,255.0,255.0,255.0,255.0,255.0,255.0,255.0,255.0,255.0,255.0,255.0,255.0,255.0,255.0,255.0,255.0,255.0,255.0,255.0,255.0,255.0,255.0,255.0,255.0,255.0,255.0,255.0,255.0,255.0,255.0,255.0,255.0,255.0,255.0,255.0,255.0,255.0,255.0,255.0,255.0,255.0,255.0,255.0,255.0,255.0,255.0,255.0,255.0,255.0,255.0,255.0,255.0,255.0,255.0,255.0,255.0,255.0,255.0,255.0,255.0,255.0,255.0,255.0,255.0,255.0,255.0,255.0,255.0,255.0,255.0,255.0,255.0,255.0,255.0,255.0,255.0,255.0,255.0,255.0,255.0,255.0,255.0,255.0,255.0,255.0,255.0,255.0,255.0,255.0,255.0,255.0,255.0,255.0,255.0,255.0,255.0,255.0,255.0,255.0,255.0,255.0,255.0,255.0,255.0,255.0,255.0,255.0,255.0,255.0,255.0,255.0,255.0,255.0,255.0,255.0,255.0,255.0,255.0,255.0,255.0,255.0,255.0,255.0,255.0,255.0,255.0,255.0,255.0,255.0,255.0,255.0,255.0,255.0,255.0,255.0,255.0,255.0,255.0,255.0,255.0,255.0,255.0,255.0,255.0,255.0,255.0,255.0,255.0,255.0,255.0,255.0,255.0,255.0,255.0,255.0,255.0,255.0,255.0,255.0,255.0,255.0,255.0,255.0,255.0,255.0,255.0,255.0,255.0,255.0,255.0,255.0,255.0,255.0,255.0,255.0,255.0,255.0,255.0,255.0,255.0,255.0,255.0,255.0,255.0,255.0,255.0,255.0,255.0,255.0,255.0,255.0,255.0,255.0,255.0,255.0,255.0,255.0,255.0,255.0,255.0,255.0,255.0,255.0,255.0,255.0,255.0,255.0,255.0,255.0,255.0,255.0,255.0,255.0,255.0,255.0,255.0,255.0,255.0,255.0,255.0,255.0,255.0,255.0,255.0,255.0,255.0,255.0,255.0,255.0,255.0,255.0,255.0,255.0,255.0,255.0,255.0,255.0,255.0,255.0,255.0,255.0,255.0,255.0,255.0,255.0,255.0,255.0,255.0,255.0,255.0,255.0,255.0,255.0,255.0,255.0,255.0,255.0,255.0,255.0,255.0,255.0,255.0,255.0,255.0,255.0,255.0,255.0,255.0,255.0,255.0,255.0,255.0,255.0,255.0,255.0,255.0,255.0,255.0,255.0,255.0,255.0,255.0,255.0,255.0,255.0,255.0,255.0,255.0,255.0,255.0,255.0,255.0,255.0,255.0,255.0,255.0,255.0,255.0,255.0,255.0,255.0,255.0,255.0,255.0,255.0,255.0,255.0,255.0,255.0,255.0,255.0,255.0,255.0,255.0,255.0,255.0,255.0,255.0,255.0,255.0,255.0,255.0,255.0,255.0,255.0,255.0,255.0,255.0,255.0,255.0,255.0,255.0,255.0,255.0,255.0,255.0,255.0,255.0,255.0,255.0,255.0,255.0,255.0,255.0,255.0,255.0,255.0,255.0,255.0,255.0,255.0,255.0,255.0,255.0,255.0,255.0,255.0,255.0,255.0,255.0,255.0,255.0,255.0,255.0,255.0,255.0,255.0,255.0,255.0,255.0,255.0,255.0,255.0,255.0,255.0,255.0,255.0,255.0,255.0,255.0,255.0,255.0,255.0,255.0,255.0,255.0,255.0,255.0,255.0,255.0,255.0,255.0,255.0,255.0,255.0,255.0,255.0,255.0,255.0,255.0,255.0,255.0,255.0,255.0,255.0,255.0,255.0,255.0,255.0,255.0,255.0,255.0,255.0,255.0,255.0,255.0,255.0,255.0,255.0,255.0,255.0,255.0,255.0,255.0,255.0,255.0,255.0,255.0,255.0,255.0,255.0,255.0,255.0,255.0,255.0,255.0,255.0,255.0,255.0,255.0,255.0,255.0,255.0,255.0,255.0,255.0,255.0,255.0,255.0,255.0,255.0,255.0,255.0,255.0,255.0,255.0,255.0,255.0,255.0,255.0,255.0,255.0,255.0,255.0,255.0,255.0,255.0,255.0,255.0,255.0,255.0,255.0,255.0,255.0,255.0,255.0,255.0,255.0,255.0,255.0,255.0,255.0,255.0,255.0,255.0,255.0,255.0,255.0,255.0,255.0,255.0,255.0,255.0,255.0,255.0,255.0,255.0,255.0,255.0,255.0,255.0,255.0,255.0,255.0,255.0,255.0,255.0,255.0,255.0,255.0,255.0,255.0,255.0,255.0,255.0,255.0,255.0,255.0,255.0,255.0,255.0,255.0,255.0,255.0,255.0,255.0,255.0,255.0,255.0,255.0,255.0,255.0,255.0,255.0,255.0,255.0,255.0,255.0,255.0,255.0,255.0,255.0,255.0,255.0,255.0,255.0,255.0,255.0,255.0,255.0,255.0,255.0,255.0,255.0,255.0,255.0,255.0,255.0,255.0,255.0,255.0,255.0,255.0,255.0,255.0,255.0,255.0,255.0,255.0,255.0,255.0,255.0,255.0,255.0,255.0,255.0,255.0,255.0,255.0,255.0,255.0,255.0,255.0,255.0,255.0,255.0,255.0,255.0,255.0,255.0,255.0,255.0,255.0,255.0,255.0,255.0,255.0,255.0,255.0,255.0,255.0,255.0,255.0,255.0,255.0,255.0,255.0,255.0,255.0,255.0,255.0,255.0,255.0,255.0,255.0,255.0,255.0,255.0,255.0,255.0,255.0,255.0,255.0,255.0,255.0,255.0,255.0,255.0,255.0,255.0,255.0,255.0,255.0,255.0,255.0,255.0,255.0,255.0,255.0,255.0,255.0,255.0,255.0,255.0,255.0,255.0,255.0,255.0,255.0,255.0,255.0,255.0,255.0,255.0,255.0,255.0,255.0,255.0,255.0,255.0,255.0,255.0,255.0,255.0,255.0,255.0,255.0,255.0,255.0,255.0,255.0,255.0,255.0,255.0,255.0,255.0,255.0,255.0,255.0,255.0,255.0,255.0,255.0,255.0,255.0,255.0,255.0,255.0,255.0,255.0,255.0,255.0,255.0,255.0,255.0,255.0,255.0,255.0,255.0,255.0,255.0,255.0,255.0,255.0,255.0,255.0,255.0,255.0,255.0,255.0,255.0,255.0,255.0,255.0,255.0,255.0,255.0,255.0,255.0,255.0,255.0,255.0,255.0,255.0,255.0,255.0,255.0,255.0,255.0,255.0,255.0,255.0,255.0,255.0,255.0,255.0,255.0,255.0,255.0,255.0,255.0,255.0,255.0,255.0,255.0,255.0,255.0,255.0,255.0,255.0,255.0,255.0,255.0,255.0,255.0,255.0,255.0,255.0,255.0,255.0,255.0,255.0,255.0,255.0,255.0,255.0,255.0,255.0,255.0,255.0,255.0,255.0,255.0,255.0,255.0,255.0,255.0,255.0,255.0,255.0,255.0,255.0,255.0,255.0,255.0,255.0,255.0,255.0,255.0,255.0,255.0,255.0,255.0,255.0,255.0,255.0,255.0,255.0,255.0,255.0,255.0,255.0,255.0,255.0,255.0,255.0,255.0,255.0,255.0,255.0,255.0,255.0,255.0,255.0,255.0,255.0,255.0,255.0,255.0,255.0,255.0,255.0,255.0,255.0,255.0,255.0,255.0,255.0,255.0,255.0,255.0,255.0,255.0,255.0,255.0,255.0,255.0,255.0,255.0,255.0,255.0,255.0,255.0,255.0,255.0,255.0,255.0,255.0,255.0,255.0,255.0,255.0,255.0,255.0,255.0,255.0,255.0,255.0,255.0,255.0,255.0,255.0,255.0,255.0,255.0,255.0,255.0,255.0,255.0,255.0,255.0,255.0,255.0,255.0,255.0,255.0,255.0,255.0,255.0,255.0,255.0,255.0,255.0,255.0,255.0,255.0,255.0,255.0,255.0,255.0,255.0,255.0,255.0,255.0,255.0,255.0,255.0,255.0,255.0,255.0,255.0,255.0,255.0,255.0,255.0,255.0,255.0,255.0,255.0,255.0,255.0,255.0,255.0,255.0,255.0,255.0,255.0,255.0,255.0,255.0,255.0,255.0,255.0,255.0,255.0,255.0,255.0,255.0,255.0,255.0,255.0,255.0,255.0,255.0,255.0,255.0,255.0,255.0,255.0,255.0,255.0,255.0,255.0,255.0,255.0,255.0,255.0,255.0,255.0,255.0,255.0,255.0,255.0,255.0,255.0,255.0,255.0,255.0,255.0,255.0,255.0,255.0,255.0,255.0,255.0,255.0,255.0,255.0,255.0,255.0,255.0,255.0,255.0,255.0,255.0,255.0,255.0,255.0,255.0,255.0,255.0,255.0,255.0,255.0,255.0,255.0,255.0,255.0,255.0,255.0,255.0,255.0,255.0,255.0,255.0,255.0,255.0,255.0,255.0,255.0,255.0,255.0,255.0,255.0,255.0,255.0,255.0,255.0,255.0,255.0,255.0,255.0,255.0,255.0,255.0,255.0,255.0,255.0,255.0,255.0,255.0,255.0,255.0,255.0,255.0,255.0,255.0,255.0,255.0,255.0,255.0,255.0,255.0,255.0,255.0,255.0,255.0,255.0,255.0,255.0,255.0,255.0,255.0,255.0,255.0,255.0,255.0,255.0,255.0,255.0,255.0,255.0,255.0,255.0,255.0,255.0,255.0,255.0,255.0,255.0,255.0,255.0,255.0,255.0,255.0,255.0,255.0,255.0,255.0,255.0,255.0,255.0,255.0,255.0,255.0,255.0,255.0,255.0,255.0,255.0,255.0,255.0,255.0,255.0,255.0,255.0,255.0,255.0,255.0,255.0,255.0,255.0,255.0,255.0,255.0,255.0,255.0,255.0,255.0,255.0,255.0,255.0,255.0,255.0,255.0,255.0,255.0,255.0,255.0,255.0,255.0,255.0,255.0,255.0,255.0,255.0,255.0,255.0,255.0,255.0,255.0,255.0,255.0,255.0,255.0,255.0,255.0,255.0,255.0,255.0,255.0,255.0,255.0,255.0,255.0,255.0,255.0,255.0,255.0,255.0,255.0,255.0,255.0,255.0,255.0,255.0,255.0,255.0,255.0,255.0,255.0,255.0,255.0,255.0,255.0,255.0,255.0,255.0,255.0,255.0,255.0,255.0,255.0,255.0,255.0,255.0,255.0,255.0,255.0,255.0,255.0,255.0,255.0,255.0,255.0,255.0,255.0,255.0,255.0,255.0,255.0,255.0,255.0,255.0,255.0,255.0,255.0,255.0,255.0,255.0,255.0,255.0,255.0,255.0,255.0,255.0,255.0,255.0,255.0,255.0,255.0,255.0,255.0,255.0,255.0,255.0,255.0,255.0,255.0,255.0,255.0,255.0,255.0,255.0,255.0,255.0,255.0,255.0,255.0,255.0,255.0,255.0,255.0,255.0,255.0,255.0,255.0,255.0,255.0,255.0,255.0,255.0,255.0,255.0,255.0,255.0,255.0,255.0,255.0,255.0,255.0,255.0,255.0,255.0,255.0,255.0,255.0,255.0,255.0,255.0,255.0,255.0,255.0,255.0,255.0,255.0,255.0,255.0,255.0,255.0,255.0,255.0,255.0,255.0,255.0,255.0,255.0,255.0,255.0,255.0,255.0,255.0,255.0,255.0,255.0,255.0,255.0,255.0,255.0,255.0,255.0,255.0,255.0,255.0,255.0,255.0,255.0,255.0,255.0,255.0,255.0,255.0,255.0,255.0,255.0,255.0,255.0,255.0,255.0,255.0,255.0,255.0,255.0,255.0,255.0,255.0,255.0,255.0,255.0,255.0,255.0,255.0,255.0,255.0,255.0,255.0,255.0,255.0,255.0,255.0,255.0,255.0,255.0,255.0,255.0,255.0,255.0,255.0,255.0,255.0,255.0,255.0,255.0,255.0,255.0,255.0,255.0,255.0,255.0,255.0,255.0,255.0,255.0,255.0,255.0,255.0,255.0,255.0,255.0,255.0,255.0,255.0,255.0,255.0,255.0,255.0,255.0,255.0,255.0,255.0,255.0,255.0,255.0,255.0,255.0,255.0,255.0,255.0,255.0,255.0,255.0,255.0,255.0,255.0,255.0,255.0,255.0,255.0,255.0,255.0,255.0,255.0,255.0,255.0,255.0,255.0,255.0,255.0,255.0,255.0,255.0,255.0,255.0,255.0,255.0,255.0,255.0,255.0,255.0,255.0,255.0,255.0,255.0,255.0,255.0,255.0,255.0,255.0,255.0,255.0,255.0,255.0,255.0,255.0,255.0,255.0,255.0,255.0,255.0,255.0,255.0,255.0,255.0,255.0,255.0,255.0,255.0,255.0,255.0,255.0,255.0,255.0,255.0,255.0,255.0,255.0,255.0,255.0,255.0,255.0,255.0,255.0,255.0,255.0,255.0,255.0,255.0,255.0,255.0,255.0,255.0,255.0,255.0,255.0,255.0,255.0,255.0,255.0,255.0,255.0,255.0,255.0,255.0,255.0,255.0,255.0,255.0,255.0,255.0,255.0,255.0,255.0,255.0,255.0,255.0,255.0,255.0,255.0,255.0,255.0,255.0,255.0,255.0,255.0,255.0,255.0,255.0,255.0,255.0,255.0,255.0,255.0,255.0,255.0,255.0,255.0,255.0,255.0,255.0,255.0,255.0,255.0,255.0,255.0,255.0,255.0,255.0,255.0,255.0,255.0,255.0,255.0,255.0,255.0,255.0,255.0,255.0,255.0,255.0,255.0,255.0,255.0,255.0,255.0,255.0,255.0,255.0,255.0,255.0,255.0,255.0,255.0,255.0,255.0,255.0,255.0,255.0,255.0,255.0,255.0,255.0,255.0,255.0,255.0,255.0,255.0,255.0,255.0,255.0,255.0,255.0,255.0,255.0,255.0,255.0,255.0,255.0,255.0,255.0,255.0,255.0,255.0,255.0,255.0,255.0,255.0,255.0,255.0,255.0,255.0,255.0,255.0,255.0,255.0,255.0,255.0,255.0,255.0,255.0,255.0,255.0,255.0,255.0,255.0,255.0,255.0,255.0,255.0,255.0,255.0,255.0,255.0,255.0,255.0,255.0,255.0,255.0,255.0,255.0,255.0,255.0,255.0,255.0,255.0,255.0,255.0,255.0,255.0,255.0,255.0,255.0,255.0,255.0,255.0,255.0,255.0,255.0,255.0,255.0,255.0,255.0,255.0,255.0,255.0,255.0,255.0,255.0,255.0,255.0,255.0,255.0,255.0,255.0,255.0,255.0,255.0,255.0,255.0,255.0,255.0,255.0,255.0,255.0,255.0,255.0,255.0,255.0,255.0,255.0,255.0,255.0,255.0,255.0,255.0,255.0,255.0,255.0,255.0,255.0,255.0,255.0,255.0,255.0,255.0,255.0,255.0,255.0,255.0,255.0,255.0,255.0,255.0,255.0,255.0,255.0,255.0,255.0,255.0,255.0,255.0,255.0,255.0,255.0,255.0,255.0,255.0,255.0,255.0,255.0,255.0,255.0,255.0,255.0,255.0,255.0,255.0,255.0,255.0,255.0,255.0,255.0,255.0,255.0,255.0,255.0,255.0,255.0,255.0,255.0,255.0,255.0,255.0,255.0,255.0,255.0,255.0,255.0,255.0,255.0,255.0,255.0,255.0,255.0,255.0,255.0,255.0,255.0,255.0,255.0,255.0,255.0,255.0,255.0,255.0,255.0,255.0,255.0,255.0,255.0,255.0,255.0,255.0,255.0,255.0,255.0,255.0,255.0,255.0,255.0,255.0,255.0,255.0,255.0,255.0,255.0,255.0,255.0,255.0,255.0,255.0,255.0,255.0,255.0,255.0,255.0,255.0,255.0,255.0,255.0,255.0,255.0,255.0,255.0,255.0,255.0,255.0,255.0,255.0,255.0,255.0,255.0,255.0,255.0,255.0,255.0,255.0,255.0,255.0,255.0,255.0,255.0,255.0,255.0,255.0,255.0,255.0,255.0,255.0,255.0,255.0,255.0,255.0,255.0,255.0,255.0,255.0,255.0,255.0,255.0,255.0,255.0,255.0,255.0,255.0,255.0,255.0,255.0,255.0,255.0,255.0,255.0,255.0,255.0,255.0,255.0,255.0,255.0,255.0,255.0,255.0,255.0,255.0,255.0,255.0,255.0,255.0,255.0,255.0,255.0,255.0,255.0,255.0,255.0,255.0,255.0,255.0,255.0,255.0,255.0,255.0,255.0,255.0,255.0,255.0,255.0,255.0,255.0,255.0,255.0,255.0,255.0,255.0,255.0,255.0,255.0,255.0,255.0,255.0,255.0,255.0,255.0,255.0,255.0,255.0,255.0,255.0,255.0,255.0,255.0,255.0,255.0,255.0,255.0,255.0,255.0,255.0,255.0,255.0,255.0,255.0,255.0,255.0,255.0,255.0,255.0,255.0,255.0,255.0,255.0,255.0,255.0,255.0,255.0,255.0,255.0,255.0,255.0,255.0,255.0,255.0,255.0,255.0,255.0,255.0,255.0,255.0,255.0,255.0,255.0,255.0,255.0,255.0,255.0,255.0,255.0,255.0,255.0,255.0,255.0,255.0,255.0,255.0,255.0,255.0,255.0,255.0,255.0,255.0,255.0,255.0,255.0,255.0,255.0,255.0,255.0,255.0,255.0,255.0,255.0,255.0,255.0,255.0,255.0,255.0,255.0,255.0,255.0,255.0,255.0,255.0,255.0,255.0,255.0,255.0,255.0,255.0,255.0,255.0,255.0,255.0,255.0,255.0,255.0,255.0,255.0,255.0,255.0,255.0,255.0,255.0,255.0,255.0,255.0,255.0,255.0,255.0,255.0,255.0,255.0,255.0,255.0,255.0,255.0,255.0,255.0,255.0,255.0,255.0,255.0,255.0,255.0,255.0,255.0,255.0,255.0,255.0,255.0,255.0,255.0,255.0,255.0,255.0,255.0,255.0,255.0,255.0,255.0,255.0,255.0,255.0,255.0,255.0,255.0,255.0,255.0,255.0,255.0,255.0,255.0,255.0,255.0,255.0,255.0,255.0,255.0,255.0,255.0,255.0,255.0,255.0,255.0,255.0,255.0,255.0,255.0,255.0,255.0,255.0,255.0,255.0,255.0,255.0,255.0,255.0,255.0,255.0,255.0,255.0,255.0,255.0,255.0,255.0,255.0,255.0,255.0,255.0,255.0,255.0,255.0,255.0,255.0,255.0,255.0,255.0,255.0,255.0,255.0,255.0,255.0,255.0,255.0,255.0,255.0,255.0,255.0,255.0,255.0,255.0,255.0,255.0,255.0,255.0,255.0,255.0,255.0,
-7.32739e-02,-7.76082e-02,1.70316e-01,1.56168e-01,-9.60305e-02,-9.23001e-02,7.98027e-02,1.04492e-02,-1.06483e-01,-1.83173e-01,-3.29226e-02,-1.86863e-02,-7.53292e-02,2.14655e-02,9.52284e-02,-1.26860e-02,7.17580e-02,-1.26216e-01,8.53512e-02,-8.88175e-02,1.79524e-01,4.95341e-02,-7.52842e-03,5.86980e-02,-5.92346e-02,-3.10226e-02,-2.14915e-02,-1.39614e-02,-6.24647e-02,1.26208e-01,-8.32540e-02,3.06527e-02,2.21513e-02,-1.12476e-01,2.64225e-04,-1.19161e-01,-1.38154e-02,-3.66185e-02,6.82974e-02,-8.12903e-02,1.39024e-01,6.91635e-02,8.92145e-02,3.10251e-02,-8.40158e-02,-1.13332e-01,-1.85432e-01,3.95822e-02,-4.51184e-02,9.35922e-02,9.04909e-02,1.55661e-01,1.28971e-01,-5.48386e-02,-1.14359e-01,6.49566e-02,-9.59570e-02,1.24013e-01,-2.48490e-02,-3.18872e-02,-5.84344e-02,5.09475e-02,-2.71820e-02,5.64047e-02,3.70265e-03,-1.02675e-01,1.79938e-01,4.49628e-02,1.00039e-02,-1.65589e-01,-3.11423e-02,-8.13809e-02,5.14795e-02,2.32467e-02,-1.15038e-01,4.16212e-02,6.63747e-02,8.74601e-02,1.38388e-01,9.48684e-02,6.03774e-02,3.68495e-02,-5.59613e-02,-1.47988e-01,9.60398e-02,1.09886e-01,-1.43787e-01,8.16837e-02,1.50030e-01,7.86774e-02,3.51691e-02,-3.27601e-02,6.56465e-02,1.68996e-03,-5.21095e-03,-7.33728e-02,-8.34913e-02,-1.56990e-01,1.11407e-01,-5.08538e-02,-7.03392e-02,1.58521e-01,-8.24412e-02,-6.73642e-02,6.75218e-02,-7.29861e-03,-9.40870e-02,5.16149e-02,-1.02095e-01,-8.87773e-02,7.89660e-05,-1.61317e-01,-1.75001e-01,-1.53526e-01,-2.25646e-01,-9.11850e-03,1.28394e-01,-6.21951e-02,4.00299e-02,-5.65437e-02,-6.91647e-02,2.08701e-03,-1.55770e-01,-1.72023e-01,-1.45774e-01,1.82515e-02,1.48589e-01,-2.53405e-02,-9.30935e-02,4.68075e-03,-3.49508e-02,-2.75647e-03,-5.42420e-02,-4.07329e-02,-1.18959e-01,-1.75276e-01,-7.52209e-02,-7.62233e-02,-1.84602e-01,-9.50796e-02,7.42336e-02,-1.59501e-02,1.06722e-01,-1.01232e-01,-1.31675e-02,1.22341e-01,-1.12252e-01,9.02822e-02,-4.90749e-03,-1.63157e-02,-2.22580e-02,-7.15743e-02,3.33465e-02,4.07702e-02,6.66164e-02,-1.45815e-01,1.25714e-01,5.49066e-02,-1.33707e-01,-1.49580e-01,-3.17938e-02,3.81257e-02,-5.65942e-02,1.05826e-02,1.06426e-01,6.63780e-02,-4.36632e-02,6.13054e-02,-1.65919e-01,-1.49972e-01,-2.10424e-02,-1.33124e-01,-1.32259e-01,-5.72712e-02,-1.48587e-01,-1.01181e-01,-1.77999e-01,4.00695e-02,-4.57923e-02,4.94756e-02,7.39697e-02,1.52102e-01,-1.29031e-01,-1.33914e-01,5.42522e-02,-1.53334e-01,-8.98193e-02,-1.11158e-01,-5.43965e-02,1.52072e-02,-1.68860e-01,-8.31461e-02,-7.13468e-02,1.18324e-02,-7.64002e-02,-1.16643e-01,2.09102e-02,-5.16095e-02,-2.04426e-02,-1.30151e-01,-6.41064e-03,1.59042e-02,-4.11268e-02,7.26136e-02,-8.08273e-02,-5.46287e-02,-9.63394e-02,-1.01558e-01,3.51134e-02,-2.21557e-02,1.11074e-01,5.56053e-02,-1.35694e-01,-1.21542e-01,-3.04553e-02,-9.69567e-02,1.74461e-01,-3.30790e-02,-1.25355e-01,3.38774e-02,-1.09713e-01,3.68100e-02,-1.11916e-01,5.75688e-02,-6.64148e-02,-4.99430e-02,-1.12448e-01,4.44717e-05,-1.72705e-01,-1.57657e-01,-1.59613e-01,-2.98579e-02,-1.10846e-01,-1.60459e-01,-1.27933e-02,-1.05989e-01,5.91871e-02,-8.92820e-02,2.09729e-02,3.11278e-03,1.82533e-02,-5.28772e-03,-1.51817e-01,-2.84348e-02,-4.05109e-02,1.15888e-01,-1.25482e-01,1.03985e-01,2.23126e-02,-5.67913e-02,-1.31028e-01,5.14045e-02,2.51011e-02,-9.87547e-02,1.63091e-01,1.61997e-01,-7.06697e-02,-6.47220e-02,1.71772e-01,1.84833e-03,6.12120e-02,-3.92619e-02,2.01531e-02,-4.05255e-02,4.50794e-02,5.75092e-02,1.16882e-01,-5.40219e-02,-3.74752e-02,1.24964e-01,7.98108e-02,1.34418e-01,3.42056e-03,-1.27671e-01,-1.12784e-01,-1.48629e-01,4.29090e-02,-1.93312e-01,7.74310e-02,-9.32649e-02,-9.02799e-02,-2.23783e-01,-1.54438e-01,-9.49002e-02,4.52942e-02,-1.97986e-01,-2.73033e-02,-2.27235e-02,-1.48482e-01,-9.02589e-02,7.41276e-03,-6.41979e-02,-6.82404e-02,-1.21678e-01,-9.87887e-02,-7.55624e-02,6.30661e-02,-1.29553e-01,4.53182e-02,1.33224e-01,8.13121e-02,-9.79464e-02,2.11554e-01,-2.13274e-02,-1.03023e-01,-6.58468e-02,-2.38522e-02,7.22098e-02,-6.15762e-02,-1.78593e-02,5.15519e-02,-7.46571e-02,2.18233e-01,2.79694e-02,2.15163e-02,1.19091e-01,-4.99211e-04,-3.24695e-02,-9.20655e-02,2.21560e-01,-8.96423e-02,-2.64519e-02,-2.34798e-04,-9.27888e-02,-1.70687e-01,-1.37311e-01,-3.20425e-02,1.69127e-01,-1.20682e-01,-1.32681e-01,-1.05535e-02,-1.13829e-01,5.11557e-03,1.77095e-02,3.68575e-02,4.37941e-02,1.55099e-02,5.16888e-02,-3.59559e-02,7.01832e-02,-6.06135e-03,1.27739e-01,9.31839e-02,2.21070e-01,5.63426e-02,-2.53409e-02,9.27746e-02,1.05178e-02,9.53514e-02,8.12258e-02,6.40686e-02,7.53589e-02,-1.45800e-02,1.59320e-01,-1.09724e-01,8.07865e-02,2.97315e-02,8.99579e-03,-1.42358e-02,1.74961e-02,1.14697e-01,-1.02293e-01,-1.25408e-01,-4.53264e-02,-5.64808e-02,-1.23634e-01,-4.29794e-03,-7.05347e-03,3.80947e-02,3.33861e-02,1.38956e-01,8.78287e-03,-1.47777e-02,7.48457e-02,1.39719e-03,1.15212e-01,1.83779e-01,1.56543e-03,-9.95397e-02,1.71204e-02,2.27031e-02,-8.66350e-02,-9.51572e-03,2.88937e-03,8.11122e-02,-6.27251e-02,-6.59490e-03,1.13352e-02,1.47931e-01,-4.02161e-03,-1.60378e-02,-7.95357e-02,1.01690e-01,-1.43709e-01,1.54896e-01,1.52549e-02,-3.24843e-02,-8.21175e-02,1.12329e-01,3.75437e-02,-8.85269e-02,1.08753e-01,4.18603e-02,1.30997e-01,-9.14160e-02,8.95527e-02,8.52188e-02,2.47649e-02,-1.31182e-01,3.12318e-02,-7.88553e-02,1.02742e-01,-7.97155e-02,2.47047e-02,-5.15052e-02,2.34670e-01,1.35427e-01,1.00718e-01,1.11566e-01,-1.17962e-02,1.63497e-01,-1.23619e-01,5.76202e-02,1.51928e-01,7.55650e-02,4.47886e-02,5.25963e-02,-3.26928e-02,5.86108e-03,1.20473e-01,-3.02040e-02,1.36012e-02,-2.28720e-02,-3.37341e-02,-1.20321e-01,1.11731e-01,-1.27638e-02,8.58550e-02,7.10808e-02,-8.55690e-02,-4.99526e-02,1.58220e-01,-1.07324e-01,-1.46137e-02,1.61372e-01,-9.83036e-02,-7.44338e-02,3.43690e-02,-7.49232e-02,-1.12667e-01,-9.38188e-02,-1.04795e-01,-6.15014e-02,-1.26932e-01,1.02917e-02,1.43936e-01,1.33237e-01,2.92244e-02,-1.71111e-02,1.30681e-01,2.03837e-01,1.68287e-01,1.44813e-03,3.13613e-03,-2.42339e-02,-8.64307e-02,1.70781e-02,4.13891e-02,1.47670e-01,-3.36236e-02,4.04449e-02,-9.53795e-02,-1.49278e-01,7.60594e-03,1.63216e-01,-5.23536e-03,-7.74710e-02,-4.92890e-02,-5.43417e-02,-2.07622e-02,7.02744e-02,2.93378e-02,2.18844e-02,-1.15521e-01,-6.96224e-02,-2.80484e-02,-1.12172e-01,-1.12633e-01,1.05863e-01,1.22596e-01,1.73617e-01,9.03550e-03,4.14556e-02,1.60380e-01,1.72976e-01,-1.32765e-02,1.26667e-01,3.46524e-03,-6.51125e-02,9.93530e-02,1.83918e-02,1.40484e-01,-4.21800e-02,-1.36550e-01,1.38569e-01,1.15377e-03,-2.81273e-02,6.86995e-02,-5.24476e-02,8.48573e-02,-6.96345e-02,-1.63751e-01,3.20849e-02,2.01683e-01,3.61195e-02,-1.14855e-02,5.61171e-02,5.55893e-02,-5.08972e-02,-1.65074e-01,-4.27428e-02,1.66018e-02,1.71131e-01,6.06475e-02,-8.28660e-02,-6.23966e-02,-2.86634e-02,-1.18077e-02,-1.01678e-01,-5.28023e-02,-1.30542e-01,1.75944e-01,-8.60774e-02,-9.32537e-02,2.33872e-02,-1.28679e-01,6.16674e-02,1.20717e-01,4.54638e-02,-7.72873e-03,-1.14796e-01,6.49844e-02,6.50195e-02,5.41124e-03,1.19878e-01,-2.55578e-02,4.57355e-02,-1.92639e-02,-3.78911e-02,5.20517e-02,1.21954e-01,1.02715e-01,6.29150e-03,7.09787e-02,-1.71785e-02,-2.30890e-02,-7.42283e-03,-1.12142e-02,-3.29769e-02,1.67970e-01,-8.23867e-02,9.18266e-02,1.03016e-01,-4.06892e-02,1.05674e-01,6.76874e-02,1.67536e-02,1.19422e-01,8.63460e-02,-5.40688e-02,1.04853e-01,-7.63897e-03,-6.04373e-02,1.34407e-01,8.65307e-02,8.22435e-02,1.54998e-02,2.89660e-02,5.92828e-02,-1.57662e-02,1.72842e-01,7.08275e-02,8.83373e-02,8.69994e-02,-2.47871e-02,-3.45896e-02,8.89494e-02,-1.57282e-02,-2.89469e-02,-1.52894e-01,4.23409e-02,-1.12952e-01,-7.03834e-02,1.74902e-01,-6.01199e-02,-9.00531e-02,1.87234e-02,2.09503e-01,-6.07147e-02,-4.43499e-02,1.30882e-01,-1.79815e-02,-2.51806e-02,-9.38226e-02,-2.50037e-02,4.23749e-02,3.85266e-02,5.55548e-02,7.29416e-02,-1.08072e-01,-3.11743e-02,-1.33095e-02,-5.69010e-02,-1.51941e-01,8.62267e-02,3.96811e-02,2.36819e-02,-1.03818e-01,8.46294e-03,-9.14371e-02,-5.24153e-02,1.14001e-02,1.40550e-01,1.09993e-01,-9.87477e-02,9.92079e-02,2.28934e-02,-4.41559e-02,1.33220e-01,1.09488e-02,-6.61317e-02,-1.58036e-01,1.89550e-01,1.16288e-01,3.16478e-02,-6.54389e-02,-7.90752e-02,7.41347e-02,-5.37376e-03,6.66988e-02,3.96191e-02,-2.56745e-02,-9.95383e-02,2.06556e-02,-5.87506e-02,-9.63861e-02,-1.49510e-01,-4.17232e-02,7.20735e-02,-1.01800e-01,1.74817e-01,1.69828e-01,-5.69054e-02,9.53031e-02,-4.83374e-02,5.08833e-02,7.57896e-02,-1.31345e-01,-8.67893e-02,4.23277e-02,5.39769e-02,7.20095e-02,2.92046e-02,9.51961e-02,1.22086e-01,-7.04805e-02,-1.55825e-01,7.28832e-02,1.58949e-01,4.25124e-02,-1.66147e-01,-1.26293e-01,-1.04977e-01,-1.20072e-02,-4.73091e-02,9.35788e-02,-1.39847e-01,-8.49500e-02,1.48644e-01,-1.76865e-01,2.78932e-02,-1.48978e-02,8.95379e-03,5.56867e-03,-5.98822e-02,1.74478e-01,1.35374e-01,-2.73393e-02,-9.52580e-02,9.87187e-02,-2.89850e-02,1.08896e-01,-3.53016e-02,-1.83215e-01,9.14462e-02,-1.00921e-01,6.34087e-02,1.06243e-01,7.30415e-02,1.14855e-01,-1.06023e-02,3.00717e-02,5.50681e-02,6.14801e-02,3.79359e-02,3.78797e-05,1.62754e-02,3.34462e-02,1.45747e-01,-1.82272e-02,-5.11866e-02,1.06291e-01,9.86919e-02,1.77608e-01,7.63022e-02,-5.91125e-02,-1.69057e-01,-5.19522e-03,1.81783e-01,1.03424e-01,4.18164e-03,8.56473e-02,-7.10829e-02,-1.23265e-01,2.09361e-02,-9.66654e-03,-1.17824e-02,7.96522e-02,2.70863e-02,1.99011e-01,-1.33654e-01,-6.75072e-02,-1.52585e-02,7.93822e-02,8.30313e-02,2.03776e-01,7.05573e-02,-1.44837e-01,8.54354e-02,5.72634e-02,1.31680e-02,4.32050e-02,5.72645e-03,-1.74191e-01,9.31283e-02,1.88558e-01,-1.60912e-01,1.70923e-01,1.79246e-01,1.11311e-02,2.32947e-01,1.65748e-01,2.37596e-01,1.69618e-01,2.54971e-02,-9.27034e-02,1.02450e-02,9.44561e-02,5.54898e-03,-9.45934e-02,-1.34242e-01,-5.87878e-03,4.54309e-02,9.48532e-02,7.41999e-02,-1.81732e-01,6.83005e-02,1.09714e-01,-8.19034e-02,-9.63162e-02,-1.55204e-01,7.81588e-02,2.00076e-01,-2.30883e-02,8.77405e-02,1.47942e-01,-2.80319e-02,-5.03264e-03,1.07387e-01,9.78914e-02,1.89073e-02,-8.85125e-02,-3.31201e-03,4.96738e-02,2.47363e-02,1.51075e-02,1.40695e-02,-5.67441e-02,-2.18750e-02,-7.88606e-02,8.26596e-02,4.92324e-03,-2.16982e-02,4.85899e-02,3.41949e-04,-3.58229e-02,-8.30816e-02,-2.00328e-01,4.68749e-02,-9.43386e-02,-1.59941e-01,1.11799e-01,1.40000e-01,2.76398e-02,-5.96992e-02,1.11844e-01,-3.40364e-02,1.53055e-01,-4.80258e-02,-5.56652e-02,1.43832e-01,9.52156e-02,8.38542e-02,-5.82655e-02,-3.25755e-02,1.65405e-01,-3.95839e-02,4.12589e-02,-6.11671e-02,1.49349e-01,1.24833e-01,1.21345e-01,3.79950e-02,3.62452e-02,-3.43033e-02,9.26049e-02,1.19217e-01,2.44486e-02,3.78073e-02,5.64357e-02,-6.88175e-02,-4.83920e-02,9.52485e-02,-5.19986e-02,4.04828e-02,1.25556e-01,2.25590e-01,5.91797e-02,7.59499e-02,1.45832e-01,8.90934e-02,-7.71998e-02,2.69405e-03,1.07211e-01,-1.64990e-01,-3.62196e-02,-7.41695e-02,-1.00357e-01,-1.59699e-01,1.12775e-02,-6.73118e-02,-5.70051e-02,-9.35661e-02,1.19174e-01,-1.25224e-01,-2.79076e-02,-7.24027e-02,-1.26832e-01,-7.06647e-02,-4.69860e-03,4.63886e-02,1.07151e-01,-4.60181e-02,9.43423e-02,1.06794e-01,5.94129e-02,4.58888e-02,-5.73515e-02,-5.73012e-02,5.36717e-03,6.22641e-02,3.30281e-03,-1.03608e-01,-5.37473e-02,-6.61770e-02,-1.30518e-01,-6.35697e-02,-5.57301e-02,-8.19423e-02,-8.02563e-02,-1.86633e-01,-2.02369e-02,7.63876e-02,-6.60603e-02,8.06019e-02,-1.15489e-01,5.46693e-02,-1.68283e-02,3.45888e-02,2.19040e-01,-1.90682e-01,-6.78514e-02,1.72296e-02,1.28452e-01,1.60911e-01,5.27455e-02,-4.88749e-02,6.04438e-02,-1.43812e-01,-1.25868e-01,4.26145e-02,8.61794e-02,6.06489e-02,-1.37391e-03,-8.37021e-02,-3.70464e-02,1.02081e-01,2.07903e-02,-5.12823e-02,1.17725e-01,-1.52345e-02,1.67507e-01,-3.25362e-02,-7.54564e-02,6.30703e-02,1.82283e-01,1.04271e-01,1.15682e-01,-5.60214e-02,6.22780e-02,7.09531e-02,9.92819e-02,-6.19242e-02,5.33307e-03,-8.41288e-02,5.41657e-02,1.22086e-02,5.03154e-02,1.12775e-01,5.22307e-02,-4.95945e-02,-1.63090e-01,5.20019e-02,1.17429e-01,-1.01824e-01,5.68968e-02,4.85541e-02,-6.65256e-03,-9.22821e-02,6.46774e-02,1.59270e-01,1.32197e-01,-6.47743e-02,-7.73281e-02,-1.10370e-01,1.52304e-01,7.47637e-02,-1.08374e-01,2.90285e-02,-9.36041e-02,-1.03647e-01,-1.47360e-02,1.07603e-02,2.01842e-01,6.07719e-02,1.38297e-02,1.04008e-01,3.78810e-02,3.44825e-02,2.26815e-02,1.24454e-01,1.07301e-01,-1.90569e-02,1.10622e-01,2.74517e-02,7.23237e-02,1.73717e-01,3.44661e-02,-8.40489e-02,9.45972e-02,1.50509e-01,3.47456e-02,-3.13503e-02,1.13193e-01,1.20559e-01,9.79729e-02,5.26958e-02,7.98816e-02,6.89472e-02,1.68669e-03,1.73588e-02,-3.46497e-02,-3.26875e-02,1.76605e-01,-1.14231e-01,7.39143e-02,1.89420e-01,7.97065e-02,-5.96276e-02,1.27773e-01,-1.09055e-01,1.24643e-01,-5.86414e-02,-1.86680e-01,-1.12088e-02,-1.61758e-02,1.22038e-01,7.09345e-02,-1.32930e-01,7.43635e-03,1.33100e-01,1.18792e-01,-1.89371e-02,-6.65159e-02,-9.28422e-03,-1.71182e-01,-1.32318e-01,-1.16046e-01,-1.07062e-01,-1.19060e-01,1.29671e-02,4.15015e-02,-7.28817e-02,-1.66706e-01,-8.17199e-02,1.05266e-01,1.33633e-01,4.05289e-02,1.17280e-01,-8.67998e-02,4.81786e-02,5.17751e-02,4.28710e-02,9.03328e-02,-4.43339e-02,-3.17504e-02,7.37980e-03,-1.81883e-01,9.08956e-03,-4.75794e-02,-8.93600e-02,3.54968e-03,-4.01620e-03,3.48601e-02,4.41969e-02,1.09529e-01,-2.15371e-02,1.02908e-01,-1.02110e-01,4.79653e-03,-6.29267e-03,4.70097e-02,1.10266e-02,-1.33589e-02,-2.49355e-02,-3.59101e-02,4.74630e-02,-6.39729e-02,-5.05802e-03,-9.78203e-02,6.08008e-02,2.20414e-02,2.56274e-02,1.85925e-01,2.05956e-01,1.14943e-03,6.94504e-02,4.70726e-02,7.58070e-03,1.99944e-01,9.01262e-02,6.41441e-02,1.60946e-02,4.54205e-02,-7.79841e-02,1.03519e-01,-1.10941e-03,-9.57053e-02,-2.57579e-02,-1.95826e-03,1.71991e-01,3.36132e-02,-5.77902e-02,-9.71084e-02,8.24407e-03,-2.10126e-02,7.24781e-02,-2.07549e-02,8.31574e-02,1.55955e-01,-7.72521e-02,-5.35286e-02,1.24879e-01,-4.27416e-02,-9.52338e-02,2.79619e-02,1.03119e-01,-9.10604e-03,-2.85015e-02,9.44644e-03,-4.71705e-02,1.99065e-02,1.37629e-01,-1.01019e-01,4.63149e-02,-4.11286e-02,1.22393e-01,-3.55130e-02,1.14926e-01,-1.50717e-01,-1.48105e-01,-5.53375e-02,-2.57880e-02,-1.23993e-01,7.07478e-02,-4.48521e-02,5.97895e-02,7.58588e-02,1.81779e-01,-4.30138e-02,3.53169e-03,-1.12022e-01,8.24810e-02,1.69234e-01,4.47526e-02,-1.12286e-01,1.00320e-01,4.87568e-02,-1.10672e-01,9.69996e-02,4.77892e-02,7.14582e-02,-5.07862e-02,7.72648e-02,-9.49605e-02,-1.34974e-01,2.73614e-02,1.20000e-01,2.59520e-02,-1.74194e-01,4.22715e-02,-1.38760e-02,6.22833e-02,1.19476e-01,1.94964e-01,1.40247e-01,1.24692e-01,2.21576e-01,9.37037e-02,9.51508e-02,8.32292e-02,5.97777e-02,-1.22304e-01,1.06165e-01,1.89278e-02,5.97811e-03,-7.50982e-02,-3.76716e-02,5.46985e-03,1.60227e-01,2.20033e-02,2.05302e-02,3.31900e-02,-5.39745e-02,1.93579e-02,8.22248e-02,9.66373e-02,-3.26859e-02,3.98190e-02,-5.09852e-02,-4.37712e-02,1.00596e-01,2.86875e-02,-7.67429e-02,-1.66485e-01,7.13485e-02,-1.43042e-01,2.80496e-02,2.29774e-02,-1.47806e-01,6.19107e-02,9.58744e-02,-9.88778e-02,-8.36237e-02,7.91032e-02,4.42533e-02,-1.22229e-01,-1.70952e-01,-1.89019e-02,-1.75560e-01,7.13506e-02,2.95353e-02,-1.22592e-01,-9.23748e-02,-1.35481e-01,3.26555e-02,1.08507e-01,6.49570e-02,-1.28548e-01,1.36205e-01,4.82654e-02,-4.33933e-02,6.99019e-02,-5.48095e-02,-3.59646e-03,-7.60590e-02,1.07458e-01,8.17808e-02,-1.05215e-01,-3.38429e-02,-1.22428e-01,-3.60262e-03,4.27597e-02,-1.18180e-01,-3.87354e-02,-7.81218e-02,-3.14992e-02,-8.41950e-02,1.62986e-02,-4.03026e-02,1.49883e-01,-4.53017e-02,4.54556e-02,1.93958e-01,-7.28253e-03,1.16856e-01,1.85908e-01,8.16918e-02,5.53858e-02,-2.66904e-02,-2.21061e-02,5.32839e-02,-9.95121e-03,2.33809e-02,3.15768e-02,5.47453e-02,4.34313e-02,8.19483e-02,-6.22534e-02,-2.22309e-02,-1.08730e-01,1.54497e-01,8.20736e-02,5.77613e-02,8.09576e-02,8.00468e-02,1.51511e-01,-1.83439e-02,-4.50230e-02,-6.48380e-03,-1.93463e-02,6.77756e-02,-1.07534e-01,9.77200e-02,-1.68367e-01,-1.22446e-01,-1.34934e-01,1.09495e-01,-9.21318e-02,-1.55854e-01,-8.28363e-02,1.86396e-01,-4.55894e-02,-8.49646e-02,-4.36418e-02,-4.44194e-02,-7.78241e-02,-8.51230e-03,-5.19104e-02,6.72350e-02,-6.03039e-02,2.95159e-02,-3.42631e-02,3.25580e-02,-6.23748e-02,-4.89011e-02,2.05740e-02,-1.06725e-01,3.04924e-02,-8.31106e-02,1.25925e-01,-1.15363e-01,9.14391e-02,1.08803e-03,5.13448e-02,-1.00083e-01,6.47853e-03,-1.90763e-01,2.06901e-02,2.84801e-02,2.94818e-02,8.32094e-02,-2.19988e-02,-5.21019e-02,1.16035e-02,-1.56208e-01,1.37951e-02,2.30443e-03,2.01291e-04,6.12347e-02,-2.14887e-02,-3.78844e-02,1.54846e-01,-3.48123e-02,-3.95408e-02,1.89802e-01,3.59540e-02,-4.89199e-02,-1.27322e-01,9.15451e-02,1.49106e-03,3.01314e-02,1.30569e-01,-2.07548e-02,1.39361e-01,1.79599e-01,2.32214e-02,1.13554e-02,-7.98134e-02,9.52962e-02,2.67174e-02,-2.37448e-02,-6.77516e-02,7.29442e-02,2.89083e-02,2.91645e-02,-2.66032e-02,-3.61562e-02,9.22119e-02,-6.49410e-02,-1.10965e-01,2.32788e-02,-1.49454e-01,-9.31199e-02,-2.03397e-01,-9.05006e-03,-2.80238e-02,-1.50717e-01,-1.05045e-01,5.46722e-02,-7.27711e-02,-3.53311e-03,-1.31968e-01,-1.47486e-01,-2.13667e-03,-9.92282e-02,1.06437e-01,9.62448e-02,9.41947e-03,4.02255e-02,7.96519e-02,9.90975e-03,1.06369e-01,-4.29665e-02,1.71294e-02,1.35043e-02,-1.83487e-02,1.32823e-01,8.30531e-02,-1.59631e-01,-7.79044e-02,5.90912e-02,-1.33292e-04,1.08299e-01,1.93061e-02,-4.81250e-02,-4.58118e-02,-5.35788e-02,-1.26895e-02,7.47835e-02,-4.21490e-02,-1.42995e-02,9.83414e-02,5.56984e-02,-8.07494e-02,-1.63534e-01,-7.58938e-02,-1.50970e-01,1.21399e-01,-1.53551e-03,-4.83588e-02,8.15242e-02,-8.17933e-02,8.35446e-02,-1.59978e-01,7.69479e-02,-1.75421e-02,-6.48148e-03,1.74403e-01,2.57454e-02,-1.81299e-02,1.14810e-01,-4.46061e-02,-3.64436e-02,8.35370e-02,-3.61176e-02,4.36865e-02,-6.30595e-03,5.95121e-02,-8.41557e-02,2.36326e-03,1.67593e-01,-1.41683e-01,8.00633e-02,-1.17510e-02,1.19240e-01,9.48795e-02,-9.07613e-02,4.75775e-02,3.11156e-02,-2.57154e-02,-1.34246e-01,-1.22466e-01,-9.29580e-02,-1.23620e-01,-1.71685e-01,-6.93721e-02,-3.93457e-03,-3.54039e-02,1.89591e-02,-9.55980e-02,6.07423e-02,2.05214e-02,-1.68755e-02,-8.74222e-02,-9.57168e-02,1.28237e-01,-3.12721e-03,-2.11385e-01,-1.38281e-01,-1.56594e-01,-1.86192e-01,1.57801e-01,9.82048e-02,-3.72442e-02,-1.35770e-01,2.76250e-02,-9.79597e-02,1.95555e-01,4.09010e-02,1.20987e-01,5.94453e-02,1.37397e-01,2.94546e-02,1.73740e-01,1.79291e-03,-1.88983e-01,9.42212e-02,3.83848e-03,-6.74840e-02,7.53358e-02,7.25847e-02,-1.56284e-01,-1.77468e-02,-3.16781e-02,1.23720e-01,-1.42153e-01,-7.22902e-02,-1.16362e-01,6.51371e-03,-2.90185e-02,-5.83824e-02,-1.27810e-01,1.23766e-03,9.93063e-02,6.20681e-02,-3.69960e-02,7.32167e-02,9.34866e-02,-1.54789e-01,2.94118e-04,-3.53380e-04,6.27079e-02,1.39187e-01,-3.15036e-02,8.62493e-02,1.03240e-02,3.98132e-02,1.40848e-01,1.35876e-01,-1.57519e-01,-4.69656e-02,1.10269e-01,7.58919e-03,2.29891e-02,-9.80095e-02,-4.35531e-02,-5.31343e-02,1.42461e-02,-1.89210e-01,-1.00236e-01,-6.26464e-02,1.27299e-02,-6.06759e-02,-1.45720e-01,5.65490e-02,-5.38779e-02,-6.98051e-02,1.13988e-02,-6.45180e-02,5.19050e-02,-5.87737e-02,8.16488e-02,9.41253e-02,4.11466e-02,-7.35110e-02,-1.62128e-01,4.37507e-02,1.49570e-01,4.08623e-02,3.74626e-02,1.79821e-01,9.67609e-03,-1.01305e-01,-5.29474e-02,7.53791e-02,-1.58614e-01,1.81112e-01,1.27392e-02,4.73176e-02,7.06393e-02,-3.89198e-02,8.03422e-02,1.08333e-02,4.72636e-02,-9.57522e-02,7.05121e-02,-7.79931e-02,1.20617e-01,1.10999e-01,-3.53331e-02,1.49437e-02,7.92183e-02,-2.47570e-02,-4.35706e-02,-7.94370e-02,-1.35203e-01,4.76522e-02,-1.05538e-01,7.39724e-02,-1.67402e-02,-1.19043e-01,1.48644e-01,-4.69558e-02,-5.49321e-02,2.91368e-02,-1.39985e-01,-7.61833e-02,9.29431e-02,3.52348e-02,-2.08591e-01,-6.41622e-02,1.81112e-02,6.13982e-02,-2.37154e-02,1.10715e-01,-2.30970e-02,2.07597e-02,6.71524e-02,-1.10911e-01,3.64556e-02,-8.63514e-02,1.59507e-01,8.06733e-02,2.81174e-03,8.16796e-02,-8.33745e-02,2.45218e-02,4.87855e-02,1.66331e-01,1.13566e-01,-1.49170e-02,7.97564e-02,4.14634e-04,-2.76051e-02,-4.70767e-02,-1.80680e-02,-1.66507e-02,-1.05381e-01,1.89161e-02,9.22931e-02,1.02158e-01,-1.73529e-01,1.15364e-01,7.09075e-02,1.16042e-01,-1.20726e-02,6.39600e-02,1.23443e-01,-1.78686e-01,-1.05013e-01,-1.02218e-01,-1.44659e-01,-1.62647e-01,-6.47469e-02,-1.27573e-01,-9.91211e-02,-4.12309e-02,-5.62746e-02,-1.04189e-01,-5.29686e-02,-1.64733e-01,1.13075e-01,-9.68713e-02,1.75327e-01,2.67199e-02,-4.44720e-02,-5.85910e-02,-8.74684e-02,-2.43969e-02,-5.75455e-02,-1.12792e-01,-3.40866e-02,3.89007e-02,-1.19355e-01,9.43423e-02,-9.38933e-02,-4.36683e-02,-9.47675e-02,-8.72528e-02,2.19930e-02,-1.32416e-01,3.84082e-02,1.28629e-01,3.01488e-02,3.10888e-02,4.92668e-02,-1.45999e-03,4.61797e-02,2.73029e-02,-1.08636e-01,-1.43947e-02,3.05655e-02,8.08584e-02,1.45792e-01,1.25673e-03,-1.21642e-01,-6.17759e-02,-1.46412e-01,-1.08773e-01,2.11882e-02,1.03187e-01,-1.06833e-01,-1.01681e-02,-1.89623e-01,2.76489e-02,-1.70957e-01,-2.57070e-02,-1.38514e-01,-1.11144e-01,1.09014e-01,9.44030e-02,1.34577e-02,-9.48754e-02,-1.29331e-02,4.37575e-02,5.14231e-02,1.26684e-01,-6.88546e-02,8.99027e-02,-4.48341e-02,-1.12940e-02,1.20316e-01,-9.11595e-02,-1.63563e-01,7.16310e-02,-6.87024e-02,1.34360e-01,4.43210e-02,-2.09057e-02,-8.72990e-02,-1.36142e-01,8.23845e-02,-2.62556e-02,8.18871e-03,8.51389e-02,-5.36905e-02,1.18123e-01,2.40744e-02,3.61123e-02,-1.84106e-01,-6.48113e-02,1.52311e-01,-5.82159e-02,-3.34430e-02,1.20594e-01,-7.22283e-02,1.21300e-01,1.40846e-02,-9.90073e-03,1.39804e-01,-2.44349e-02,5.11545e-02,-1.08560e-01,2.10841e-02,1.23088e-01,-3.21880e-03,-7.69780e-02,1.12078e-01,-8.26074e-02,-1.54643e-01,-8.09845e-02,-9.49486e-02,-1.11459e-01,6.30445e-02,-1.13633e-01,-5.04371e-02,4.86472e-02,-1.34092e-01,2.21889e-02,7.36592e-02,1.81355e-03,6.60043e-02,-4.35077e-02,8.44058e-03,-7.42873e-02,-4.21411e-02,-1.30082e-01,6.83229e-03,3.65947e-02,1.62239e-01,6.59437e-02,-6.61738e-03,7.22520e-02,1.08467e-02,-3.61919e-02,1.83919e-01,2.35233e-02,-2.46707e-02,-1.65004e-01,-9.98806e-02,-5.92932e-02,-9.14410e-03,1.28127e-01,-1.97653e-01,3.61858e-02,3.66693e-02,8.89057e-02,1.58758e-02,1.23247e-01,1.66179e-03,-3.28551e-02,-5.98367e-03,7.50034e-02,4.69939e-02,1.15270e-01,-6.55515e-02,2.51989e-02,8.17663e-02,-2.09504e-02,-4.20958e-02,-5.78982e-02,1.75093e-01,-9.08784e-02,8.76222e-02,5.09817e-02,6.17066e-03,1.27194e-01,1.68262e-02,9.70517e-02,1.51346e-01,-1.54546e-01,-3.42804e-02,-4.70074e-02,-8.38572e-02,3.74879e-02,1.98116e-02,-5.80232e-02,-1.88450e-01,-6.80760e-05,1.02391e-01,4.12802e-02,8.35013e-03,1.27357e-01,7.41006e-02,-2.68353e-02,3.74562e-02,7.04354e-02,1.71659e-01,1.05701e-02,-6.91459e-02,1.34710e-01,1.05793e-01,1.54930e-03,-1.14495e-01,7.52167e-02,6.37296e-02,-2.58421e-02,9.40365e-02,-1.11577e-01,-4.84579e-02,5.62598e-02,6.43814e-02,4.04320e-02,-3.20768e-02,-6.89148e-02,7.81063e-02,-2.91683e-02,-2.06141e-03,4.99335e-03,1.23345e-01,9.31765e-02,6.87559e-02,4.45976e-02,2.99429e-03,-5.46785e-02,1.26401e-01,2.48539e-02,2.02529e-03,-1.03406e-01,4.28262e-02,-5.95139e-02,-1.98200e-03,3.11879e-02,2.05782e-02,-2.35232e-01,-3.78303e-02,-5.58326e-02,1.78536e-02,3.65509e-02,-5.15735e-02,6.32562e-02,6.40595e-02,1.11337e-01,-9.92008e-02,-3.26944e-02,1.03268e-01,1.38600e-01,4.17939e-03,-5.16437e-03,-1.24292e-01,1.16848e-02,5.48777e-03,5.58381e-02,9.39340e-02,-5.20864e-02,7.65263e-02,1.65291e-02,5.87966e-03,1.51058e-01,7.54599e-02,-1.06708e-01,-7.46532e-02,-1.58205e-02,-6.98932e-02,-1.04816e-01,-2.32274e-03,-5.16692e-02,-5.61515e-02,5.44429e-02,-2.36412e-02,-1.22201e-02,5.42618e-02,-2.01207e-01,1.89185e-03,7.78885e-02,-1.56912e-02,1.59091e-01,2.94622e-02,6.23081e-02,-7.18472e-02,9.54615e-02,4.81420e-02,-1.91592e-02,-8.51034e-02,-1.88278e-01,-1.88607e-01,6.12242e-02,-5.23737e-02,1.53497e-01,-2.53042e-02,1.72989e-01,1.12420e-01,7.89973e-02,6.65587e-02,-5.90396e-02,1.05225e-01,1.55057e-01,8.19170e-02,-9.10625e-03,8.82921e-02,-8.56246e-02,-5.10799e-02,-3.57775e-02,1.64546e-02,-1.69776e-01,-9.05037e-02,6.69175e-02,-7.77287e-03,-5.18659e-02,-7.26646e-02,-1.18026e-01,-4.73299e-02,-8.56017e-02,-1.90979e-01,5.56905e-02,-1.18623e-01,7.23530e-02,1.84408e-02,3.07910e-02,-1.60269e-01,-4.97115e-03,-1.67739e-01,-9.41484e-02,7.46250e-02,-9.34111e-02,-5.25800e-02,-8.06610e-02,-1.47095e-01,6.55155e-02,1.11654e-01,1.07511e-01,5.21818e-02,-6.88248e-04,1.59997e-01,-7.34126e-02,1.13046e-01,1.17367e-01,-1.79032e-01,2.78596e-02,3.38275e-03,-6.02418e-03,2.56835e-02,-8.56510e-02,7.42316e-02,1.00041e-01,-5.53874e-02,-9.46284e-02,6.64226e-02,3.79235e-02,-4.60855e-02,3.76623e-02,9.25126e-03,7.88277e-02,5.79764e-02,3.03534e-02,1.38279e-01,4.89388e-02,9.36819e-02,-1.34964e-01,5.09950e-02,-1.22801e-01,1.39608e-01,2.09486e-02,-2.92434e-03,8.96701e-02,1.99951e-01,1.02307e-01,8.03824e-02,-1.31952e-01,-8.06133e-03,6.96892e-02,-1.60072e-02,-9.23935e-02,2.04316e-01,1.03748e-01,-1.32620e-01,-1.17947e-01,1.64772e-01,-1.44218e-02,-1.29715e-01,-1.15671e-01,-1.15752e-01,1.29217e-01,-1.66465e-01,-7.12266e-02,6.50066e-03,5.74473e-02,-6.24359e-02,-5.06918e-02,-1.12449e-01,-1.12009e-01,-6.86749e-02,2.81535e-02,1.38084e-01,-6.81655e-02,1.68560e-02,-2.52817e-02,1.30944e-01,-1.43775e-02,3.93355e-02,1.30166e-01,-2.18529e-02,-2.04493e-02,7.35612e-02,1.27703e-01,-1.86717e-01,-8.54544e-02,2.09503e-02,1.51866e-02,1.99505e-01,1.63573e-01,-4.03619e-02,-7.71777e-02,-7.67313e-02,-2.22659e-04,1.56756e-01,-6.58659e-02,8.66803e-03,1.96815e-01,1.59559e-02,-8.61625e-02,9.07612e-02,1.40598e-01,1.14249e-01,8.14221e-02,-7.97345e-02,-3.23958e-02,4.95854e-02,-3.39053e-02,-1.79256e-01,-1.33660e-01,5.96927e-02,-7.93793e-02,-5.75292e-02,-5.80305e-02,7.15589e-02,6.42592e-02,-8.67927e-03,-1.51000e-01,-1.22106e-01,7.23821e-02,-6.11506e-02,-5.71869e-02,9.59847e-02,2.42136e-02,-7.84828e-02,-1.19228e-02,8.66240e-02,-4.13961e-02,-4.88139e-02,2.58928e-02,-6.45994e-03,9.43919e-02,1.40339e-02,1.24849e-01,-8.11084e-02,-1.20864e-01,-1.84483e-02,8.61774e-02,1.22375e-01,-1.25859e-01,-1.36082e-01,2.46311e-01,1.06574e-01,-7.99850e-02,2.17731e-01,-1.44547e-01,8.49800e-02,2.13108e-02,-4.91241e-02,-7.57478e-02,8.80141e-02,1.00250e-01,1.10179e-01,1.24578e-01,1.23844e-01,-1.60449e-02,3.96404e-02,1.18708e-01,8.49583e-02,-1.30159e-01,2.59599e-02,-2.85768e-02,6.86922e-02,1.02863e-01,9.29434e-03,-3.24758e-03,-1.75547e-02,6.10451e-02,-6.85695e-02,-1.29203e-01,4.04482e-02,7.55453e-02,7.28905e-02,-9.02540e-02,6.63872e-02,-1.67650e-01,-5.19051e-02,5.78106e-02,-1.51004e-01,1.06683e-01,1.17283e-01,-7.94239e-02,7.75517e-02,-1.75147e-01,1.10312e-03,1.43876e-01,8.32032e-02,-1.88419e-02,-7.60172e-02,1.61978e-01,6.49032e-02,9.58339e-02,-3.98351e-02,7.71222e-02,-1.49629e-01,2.03766e-02,-8.05671e-02,3.56408e-02,-7.62553e-02,2.31954e-04,-1.41052e-02,-4.02321e-02,5.59915e-02,2.22209e-01,2.96699e-02,1.19174e-01,1.11330e-01,-5.95156e-02,-1.14856e-01,-8.66497e-02,1.16073e-01,1.10477e-01,-2.92195e-04,-6.47739e-02,1.69539e-01,1.52651e-01,1.50789e-01,2.08818e-02,9.77467e-02,1.14381e-01,1.45639e-01,1.13051e-01,-1.96759e-02,7.57613e-02,8.05366e-02,7.19442e-02,-7.79931e-02,5.72143e-02,-6.92538e-02,-1.35781e-01,4.27093e-02,-3.70300e-02,1.19349e-01,-2.33692e-02,2.43561e-02,1.22553e-01,-1.50728e-01,-1.00974e-01,2.10874e-05,-5.53193e-02,2.87962e-02,-1.41755e-01,3.68837e-02,1.63122e-01,-5.76308e-02,8.42811e-04,1.03515e-01,-8.61949e-02,7.23616e-02,-6.93240e-02,1.88168e-01,-1.34714e-01,-5.05909e-02,-1.34577e-01,-4.44265e-02,-6.32089e-02,-2.54009e-02,3.48695e-02,-4.15118e-02,3.81816e-02,-1.12261e-01,7.83993e-02,2.16121e-02,-1.11807e-01,9.48108e-02,-1.24985e-02,1.60938e-01,-5.78592e-02,2.19267e-01,1.05883e-01,8.04499e-02,-4.32665e-02,-1.06598e-01,-1.15050e-01,-1.25047e-01,-3.86504e-02,4.69820e-02,5.36588e-02,1.59770e-01,1.45386e-01,-1.86944e-01,7.78391e-02,-1.25208e-01,-7.99580e-02,-6.99039e-02,-1.07180e-01,-5.33339e-03,1.16631e-01,9.36025e-02,9.98540e-02,5.99177e-02,-3.35807e-03,1.50679e-01,-3.27413e-02,-5.07185e-02,3.98386e-02,-4.49529e-02,-4.96803e-03,-6.48383e-02,7.53312e-02,-7.84598e-02,3.24836e-02,3.85689e-02,1.09007e-01,-1.00370e-01,2.01732e-01,8.01065e-02,1.19321e-02,6.27002e-02,1.41249e-01,-1.32199e-01,5.66121e-02,-1.81763e-01,4.40956e-02,1.40219e-01,-1.98766e-02,1.22102e-01,-2.84955e-02,4.70198e-02,3.07653e-02,7.82997e-02,1.75578e-02,-3.10919e-02,8.55396e-02,5.38741e-02,4.64312e-02,-1.03625e-01,-8.83910e-02,-2.08323e-02,-2.67183e-03,2.25554e-01,-4.55334e-02,1.02924e-01,2.26349e-01,1.18529e-01,1.93551e-01,1.70595e-01,6.99868e-02,1.43253e-01,-4.34645e-03,7.40427e-03,-7.56956e-02,-7.18690e-02,2.10182e-01,-3.49910e-02,1.57205e-01,-3.05003e-02,1.38918e-01,8.44613e-02,-4.66658e-02,2.31236e-01,1.02204e-01,7.49978e-02,6.65553e-02,1.08561e-01,9.19163e-02,9.62652e-02,-1.23853e-01,5.11694e-02,4.49333e-02,1.43440e-01,-2.84488e-02,1.05091e-01,3.17395e-02,-4.54503e-02,-1.41179e-01,8.01372e-02,-1.17759e-01,7.40826e-02,-9.78673e-02,8.48608e-02,6.48497e-02,2.14464e-02,-6.40645e-02,-1.18628e-01,-1.22774e-01,9.77126e-02,-7.50088e-02,2.95381e-02,-1.18910e-01,1.51822e-01,9.69811e-02,6.72218e-02,-1.10000e-01,-4.11943e-03,-2.00084e-02,7.78875e-03,-3.71871e-02,-5.83056e-02,-1.25022e-01,1.14620e-01,-8.79090e-02,9.68866e-02,2.63900e-02,1.33170e-01,-1.28753e-01,2.28099e-02,7.85812e-02,9.09221e-02,1.67431e-02,-6.05336e-02,-3.61286e-03,-1.60639e-01,8.45439e-02,2.28939e-01,-1.16867e-01,-7.53357e-02,1.69089e-01,7.69320e-03,1.50754e-01,4.33150e-02,-3.45979e-02,1.11394e-01,4.94229e-02,5.33434e-02,-1.06351e-01,-2.29691e-02,-7.28951e-02,2.35598e-01,-8.97531e-02,-4.85404e-02,6.80417e-02,6.12041e-02,9.25034e-02,-7.43580e-02,8.73411e-02,1.28178e-01,-1.22580e-01,2.92279e-02,1.49154e-01,-5.27863e-02,1.43154e-01,2.34310e-02,7.74498e-02,-1.01539e-02,7.66322e-02,6.45251e-02,-2.64385e-02,8.88316e-02,4.84377e-02,-8.46941e-02,1.05734e-02,4.20936e-02,-2.54530e-02,1.65534e-01,-1.55713e-02,1.17081e-01,-1.30738e-01,1.23317e-01,5.28383e-02,-7.89101e-02,-6.65517e-02,-1.02222e-01,-5.92984e-05,7.38894e-02,-7.71186e-02,4.81496e-02,-2.04472e-02,2.98226e-02,3.25675e-02,
-2.93271e-02,-9.56549e-02,4.18458e-02,1.41597e-01,4.14170e-02,-1.04435e-01,1.09873e-01,3.17587e-02,-1.55244e-01,3.15110e-02,-7.05788e-02,4.62802e-02,-1.69416e-02,6.84996e-02,-8.44393e-03,-1.57982e-01,-1.39588e-01,-1.59633e-02,-1.43785e-01,-1.52142e-01,1.52282e-01,-5.04925e-02,-2.27878e-03,-7.35162e-02,-1.14938e-02,1.19522e-01,5.44034e-02,-1.49214e-02,1.48937e-01,-1.74511e-02,4.33360e-03,2.11507e-03,3.42946e-02,1.36928e-01,1.20621e-02,-1.07010e-01,1.47696e-01,1.23313e-01,6.50419e-03,9.55388e-02,-9.49855e-02,7.29695e-02,-9.84068e-02,4.95678e-02,-2.91805e-02,1.22342e-02,1.01105e-01,-3.64292e-02,1.44810e-02,-5.51435e-02,1.76210e-01,-4.62537e-02,2.55222e-02,3.71134e-03,-6.24852e-02,9.69299e-02,-2.56353e-02,-1.50598e-01,-1.25937e-01,6.70844e-02,-1.12261e-02,-3.80541e-02,1.24443e-02,-6.88815e-02,-9.74788e-02,-4.53560e-02,-1.32507e-01,1.45540e-02,-7.57474e-04,4.91464e-02,-1.43402e-02,-4.04448e-02,1.63012e-03,1.97825e-01,9.15717e-02,-2.82557e-02,-1.45108e-01,1.52210e-01,5.44023e-02,1.02423e-01,-6.88378e-02,-1.30253e-03,-1.80142e-01,1.45609e-01,-9.12082e-03,2.26362e-02,-4.21530e-02,4.67651e-02,5.03252e-02,-8.34293e-02,1.58720e-01,-1.91073e-02,5.17684e-02,-5.96904e-02,8.64623e-02,-2.59086e-02,7.19800e-02,-2.08093e-02,-6.46367e-02,5.88868e-02,-4.59267e-02,-7.50854e-02,6.97580e-03,8.71492e-02,2.99169e-02,-6.41634e-02,-6.13665e-02,1.82419e-01,-6.20097e-02,3.01028e-02,-1.32090e-01,-1.09353e-02,-5.18716e-02,3.36865e-02,-4.84523e-02,-1.09766e-01,-4.70439e-02,4.40575e-02,-2.95045e-02,1.01736e-01,-1.09107e-01,-1.17087e-02,-1.28989e-01,-1.89425e-01,-1.12376e-01,1.10619e-01,-2.89769e-02,7.82155e-02,-6.94600e-02,-4.92593e-02,-3.23566e-02,-5.20583e-02,-1.04766e-01,1.00098e-03,8.82867e-02,-3.58538e-02,-3.20726e-02,2.97858e-02,-1.47874e-01,-5.79062e-02,-7.19234e-02,5.43810e-02,-4.27962e-02,-2.98059e-02,-1.52168e-01,1.55619e-02,-1.13904e-01,-1.28672e-02,-1.05972e-01,1.21096e-01,7.63311e-02,1.00732e-01,-2.74800e-02,-4.38603e-02,-4.57736e-02,4.22616e-02,-1.43926e-01,1.38930e-01,-1.17902e-02,-7.16335e-02,-1.52530e-04,7.13077e-02,-1.22985e-01,1.18812e-01,-1.50312e-03,-8.74322e-02,5.89066e-02,3.41091e-02,-1.34787e-01,-1.12992e-01,9.20014e-02,-7.06001e-02,-3.50391e-02,3.71787e-02,-2.97067e-02,-1.89149e-02,-5.77651e-03,-2.18699e-02,-1.17206e-01,-4.58280e-02,-2.77981e-02,5.75573e-03,-5.08990e-02,8.16994e-03,8.65753e-02,6.63654e-02,-4.45637e-02,9.80115e-02,-4.63405e-02,-5.67995e-02,5.64091e-02,-5.76961e-02,1.51380e-01,-1.08532e-01,-2.32259e-02,-1.10902e-01,2.31221e-02,-3.67627e-02,3.05154e-02,7.41147e-02,8.86981e-03,-3.82778e-02,6.98478e-02,9.53966e-02,6.22485e-02,-2.07788e-02,1.09828e-01,3.47794e-02,-3.62478e-03,3.24507e-02,-1.32788e-01,6.99094e-02,5.88994e-02,-8.97029e-02,1.50601e-01,1.61011e-02,-6.04753e-02,8.19620e-02,-3.41288e-02,1.76131e-01,-7.54362e-02,-1.05782e-01,-1.70033e-02,1.59264e-01,4.90356e-02,-6.85708e-03,-5.34490e-02,-6.26806e-02,-1.46502e-01,-1.55140e-02,1.75437e-01,-2.02358e-02,-8.94779e-02,7.19306e-04,7.03744e-02,1.29394e-01,-9.82520e-02,1.70243e-02,-9.28319e-02,-5.28651e-02,2.38831e-02,-8.92284e-02,-1.29207e-01,-1.77088e-02,-4.35544e-02,-1.04836e-01,6.46537e-02,1.38890e-01,-1.12195e-01,-8.51756e-02,5.06419e-02,-1.13534e-01,-1.12908e-01,8.31542e-02,-2.95725e-03,1.02810e-02,-1.92848e-02,5.47560e-02,1.41784e-03,1.42450e-01,-5.07268e-02,-3.29792e-02,-3.55092e-02,-3.06827e-02,1.00689e-01,1.05760e-01,-6.70044e-02,-1.18154e-01,-9.19043e-02,-1.18366e-02,3.51055e-03,-7.78974e-02,1.97876e-02,6.77912e-02,-7.76170e-03,-6.10999e-02,-7.24297e-02,-1.83012e-02,-1.52923e-01,-7.75432e-02,5.36221e-02,-7.31185e-02,-5.96828e-02,1.30694e-01,4.40401e-02,-1.75373e-01,-9.05203e-03,-1.78771e-01,1.65577e-01,-1.13849e-01,7.48324e-02,7.73823e-02,-6.33926e-02,-1.21846e-01,-7.28204e-02,-6.79826e-02,-1.78131e-02,1.28503e-02,-4.00884e-02,4.22652e-02,2.36327e-01,3.00773e-02,-7.08322e-02,-6.36513e-02,2.18539e-02,1.68112e-02,-6.23836e-02,-1.74444e-01,-1.33965e-01,7.96913e-02,-9.49611e-02,9.10730e-02,-1.41470e-01,-1.02735e-01,6.91727e-02,-2.32496e-02,-4.66694e-02,-1.34572e-01,4.96085e-02,4.90388e-03,-9.80566e-02,-6.48899e-02,1.22627e-01,1.22375e-01,9.17412e-02,-5.41616e-02,1.55133e-02,-1.60307e-01,-1.13627e-01,1.18933e-01,7.95172e-02,-4.79578e-02,-1.58838e-01,-1.43767e-01,-1.66109e-02,3.14602e-02,7.20281e-02,-8.26382e-02,-1.93067e-01,-1.38259e-02,8.69751e-02,-4.01162e-02,1.18122e-01,1.39139e-01,8.97682e-03,-4.75703e-02,-1.70437e-01,-3.36625e-02,1.74525e-02,9.55157e-02,4.70934e-02,-7.68667e-02,4.87970e-02,-8.49586e-02,-1.08654e-01,-1.50813e-01,-2.07344e-02,-2.13221e-01,-5.85255e-03,-1.36106e-01,-4.74537e-02,-4.14848e-02,-4.95907e-02,-1.68781e-01,-7.75748e-02,4.82508e-02,-1.37109e-01,9.50749e-02,6.66176e-02,-1.11546e-01,-1.32358e-01,6.53059e-02,2.10046e-02,3.82676e-02,-8.66107e-02,4.48614e-02,9.38653e-02,1.15533e-01,-2.63115e-02,-2.23684e-02,4.18858e-02,1.25222e-01,1.42538e-01,6.30449e-02,2.06998e-01,3.88858e-02,4.12494e-03,-1.10628e-01,-4.34807e-02,1.99793e-01,5.66533e-02,-1.23041e-02,6.34809e-02,8.90416e-02,9.22569e-02,-8.24120e-02,1.04624e-01,-5.55786e-02,3.16098e-02,-6.03975e-02,5.46966e-02,6.46281e-02,-6.51238e-02,-1.93441e-01,3.48445e-02,7.02226e-03,-2.09580e-01,4.24268e-02,-1.71346e-01,1.36106e-01,-5.76259e-02,-6.42824e-02,-1.63607e-01,-1.20532e-01,-5.10049e-02,6.76651e-03,4.37632e-02,-6.92652e-02,1.07657e-02,1.14356e-02,8.45263e-02,1.76928e-01,-1.28111e-01,-1.56242e-01,-9.42641e-02,1.94707e-01,-8.76534e-02,7.33588e-02,-3.24030e-02,-1.71005e-01,-2.25487e-02,-1.22013e-01,-2.48819e-02,1.25789e-01,1.59745e-01,-5.65675e-02,1.26759e-01,-2.86615e-02,6.97469e-02,-1.42510e-02,4.41578e-02,-2.17507e-02,-1.01957e-02,-1.44649e-01,-5.75184e-02,-1.98672e-01,1.77705e-04,2.67201e-02,-9.52264e-02,-2.04942e-01,-1.03416e-01,3.91915e-02,-1.64327e-01,6.54407e-02,8.38338e-02,-6.93888e-02,2.52949e-02,-4.36078e-02,-6.37449e-02,-2.52744e-02,7.34082e-02,3.48567e-02,1.48111e-02,-6.24450e-02,1.06508e-01,3.13861e-02,-2.54617e-02,-8.11936e-02,-2.12646e-02,8.05252e-03,5.03573e-02,-1.52938e-02,1.04788e-01,-6.07305e-02,-2.98478e-02,-7.57800e-02,4.51939e-02,3.72738e-02,-6.07880e-02,1.15047e-01,1.05685e-01,5.31319e-02,4.85197e-03,1.25842e-01,7.16555e-02,-3.21007e-02,-1.26596e-01,-1.51378e-02,-3.45854e-02,7.95366e-02,-4.58329e-02,-6.26322e-02,9.17165e-03,-4.04007e-02,6.27581e-02,-1.28437e-01,3.30030e-02,-1.07782e-02,4.27214e-02,-8.40561e-02,4.57897e-02,-5.30441e-02,1.09611e-01,-1.34487e-01,9.02218e-02,-7.70136e-02,4.95720e-02,6.39328e-02,5.16841e-02,3.99559e-02,-4.77360e-02,-5.03766e-02,1.60466e-01,-9.20039e-02,-1.13591e-01,-7.31531e-02,1.63513e-02,-2.71670e-04,-1.03735e-01,-1.01168e-01,-8.91918e-02,-6.84280e-02,7.55158e-02,-9.56215e-02,1.26982e-02,-8.05586e-03,9.42709e-02,-1.61329e-01,8.80119e-02,9.13820e-02,-1.01384e-01,-9.83995e-02,-1.63075e-01,-2.64148e-02,-2.06241e-01,-2.21264e-02,6.16470e-02,4.78765e-02,1.16230e-01,-1.06240e-01,-9.72928e-03,-6.63344e-02,4.80724e-02,3.36759e-02,1.30836e-01,-3.18072e-02,-8.56684e-02,-1.69926e-01,8.34647e-03,3.12961e-02,6.12767e-02,1.08540e-01,1.75699e-01,2.05105e-02,2.87505e-02,-2.00868e-02,-9.09328e-02,1.92922e-02,2.72594e-02,2.75605e-02,-6.56722e-02,1.28761e-02,-1.59725e-01,1.15499e-01,5.52494e-02,-3.49584e-02,-1.35377e-01,-3.58736e-02,4.65306e-02,-7.64543e-03,8.03919e-03,-1.19281e-01,-8.32419e-02,-3.07288e-03,-2.01733e-01,-1.24446e-01,-2.23684e-01,-2.50989e-01,-3.77928e-02,-1.26735e-01,-1.27011e-02,-8.85120e-02,-1.56651e-01,6.68341e-02,-2.06228e-02,-1.69832e-01,7.12322e-02,-1.48677e-01,1.99847e-01,-7.23267e-02,1.04699e-01,-3.47201e-02,-2.59301e-02,1.89045e-01,-5.43870e-03,8.97146e-03,1.61642e-02,-9.88401e-02,3.17218e-02,1.43658e-01,8.66632e-02,1.75965e-01,-1.58153e-01,-9.59515e-02,-4.21447e-02,-1.15947e-01,-1.79185e-01,-5.24349e-02,4.02127e-03,-1.23738e-01,-7.93651e-02,-2.33795e-02,-1.29447e-01,-3.87686e-02,3.81960e-02,-3.46605e-03,-6.87196e-02,-5.77197e-02,-1.51544e-01,-1.60466e-01,7.05655e-02,1.31143e-02,2.57097e-02,-1.07088e-02,-8.37271e-02,-7.22206e-02,1.37414e-03,1.02911e-01,5.55628e-02,1.39600e-02,9.07325e-03,9.92388e-02,2.92556e-03,9.27074e-02,2.78310e-02,5.44524e-02,-6.11869e-02,-1.37809e-01,1.24206e-01,-4.10203e-02,5.30487e-02,-2.33081e-02,-4.34691e-03,-9.32837e-02,-1.53935e-01,-1.29142e-01,6.10631e-02,7.28309e-02,-6.20472e-02,-1.77612e-01,-1.31530e-01,9.05924e-02,-1.44939e-01,-1.53462e-01,2.76910e-02,-1.23071e-01,-1.53438e-01,-7.64479e-02,-1.23261e-01,-2.72130e-01,-1.43568e-01,-1.71857e-01,-1.60241e-01,-1.09552e-01,7.97192e-02,-1.71449e-01,1.97360e-02,4.08469e-02,-1.50460e-01,4.70822e-02,-9.53467e-02,1.51868e-02,-8.14300e-02,-3.85473e-02,-7.50902e-02,2.09358e-02,-9.16782e-03,1.46363e-02,2.46463e-02,-5.72401e-03,3.19162e-02,-8.49724e-02,9.14905e-02,2.33537e-02,-3.92048e-03,-2.45285e-02,1.45142e-01,-7.24038e-02,1.14085e-02,3.66875e-02,-5.76059e-02,8.23118e-02,-9.41651e-02,1.59033e-02,-1.28352e-01,-4.13203e-02,-2.24179e-02,1.00743e-01,-1.88283e-02,1.27822e-01,2.99749e-02,1.05980e-01,-6.41939e-02,-7.96087e-02,-1.60376e-01,-1.20471e-02,8.12954e-03,6.49404e-02,-3.60930e-02,6.30506e-02,-7.43233e-02,-4.49926e-02,-3.89074e-03,6.30757e-02,1.51829e-01,1.20340e-01,-6.41078e-02,7.53841e-02,-1.34814e-02,-4.93827e-02,8.76342e-02,3.71535e-02,2.78547e-02,1.72090e-01,4.12403e-03,7.88673e-02,-2.72892e-02,4.21759e-02,-8.11090e-02,3.84563e-02,-1.17684e-01,9.38165e-02,-1.45408e-01,2.75066e-02,-1.75697e-01,-1.75964e-01,2.67305e-02,1.10026e-02,-2.16881e-01,-1.87223e-01,-1.78758e-01,-2.53150e-01,-2.20104e-01,-1.02600e-01,-1.15978e-02,-8.86524e-02,-9.71320e-02,-2.08283e-01,-7.05742e-02,-1.70204e-01,1.04944e-01,-4.46123e-02,9.62394e-02,-5.78544e-02,1.70280e-01,-1.45714e-01,1.90600e-01,3.04278e-02,2.02943e-01,1.25078e-01,-4.39053e-02,6.17239e-02,3.51766e-02,1.20770e-01,3.79532e-02,5.03626e-02,-1.10381e-01,2.01047e-02,-1.76169e-01,-6.24339e-02,-1.57745e-01,2.56530e-02,-4.02635e-02,5.02621e-02,1.76342e-02,7.10944e-02,-9.75394e-02,-1.18662e-01,5.55120e-03,-8.46734e-02,-2.67225e-02,-1.72156e-01,-4.06456e-02,6.17630e-02,-3.23683e-02,-1.79029e-01,1.20249e-02,-1.73501e-02,8.79834e-02,-8.55048e-02,-1.90585e-02,-4.14537e-02,-1.44644e-01,1.02227e-01,1.63761e-01,1.14658e-01,2.15362e-01,2.75971e-02,3.50607e-02,7.91874e-02,1.44547e-01,3.06066e-02,1.09297e-01,1.95174e-01,2.37522e-01,-1.70993e-02,1.67731e-02,1.34058e-01,-8.57908e-02,1.30234e-01,-3.79239e-02,3.29645e-03,-4.34836e-02,6.70317e-02,-4.24928e-03,-1.57337e-01,-1.79167e-01,-2.94024e-02,-2.00130e-01,-1.84078e-01,-2.83674e-01,-1.98199e-01,4.70001e-03,-1.10952e-01,-2.84547e-02,-8.33329e-02,-3.86014e-03,-1.03082e-01,-1.70386e-01,-4.51420e-02,-3.31896e-01,-2.10552e-01,-1.63291e-01,-3.97482e-02,5.78806e-02,-1.57388e-01,-8.22495e-02,-1.71615e-03,4.14659e-02,2.49214e-02,5.45743e-02,2.42742e-03,5.83261e-02,8.43065e-02,2.15887e-01,1.33461e-02,1.32459e-01,1.26785e-01,4.50148e-02,7.50788e-02,3.22052e-04,-2.25150e-02,1.17883e-01,-9.71323e-03,2.31487e-02,-8.48157e-02,-4.40296e-02,4.04479e-03,-1.08289e-01,1.11612e-01,2.26910e-02,1.42651e-01,1.02516e-01,1.02466e-01,-1.75492e-01,2.67571e-02,-5.78438e-03,-1.19032e-01,-1.10393e-01,-1.60565e-02,-1.12435e-01,1.37068e-01,-1.40000e-03,-6.34693e-02,1.30871e-01,-1.84870e-02,8.26573e-02,-5.28677e-02,1.55129e-01,6.08357e-02,2.56059e-01,-3.38272e-02,-1.09334e-02,3.14018e-01,1.94644e-01,2.93726e-01,1.76861e-01,1.96064e-01,9.92663e-02,2.27740e-02,2.53626e-01,-3.51565e-02,9.93458e-03,8.73843e-02,5.06784e-02,-1.89233e-01,-2.43279e-02,-1.59395e-01,-2.34031e-01,5.82456e-02,-1.90706e-01,-1.28646e-01,2.69676e-02,-1.82181e-01,3.24440e-02,-1.14008e-01,-1.83875e-01,-1.76821e-01,-2.29848e-01,-9.10681e-02,-1.00931e-01,-1.61174e-01,-1.36895e-01,-2.02996e-01,-1.51204e-01,2.58949e-03,-1.12212e-01,-1.95050e-01,6.58515e-03,5.79228e-03,-2.66364e-02,3.79648e-02,-1.50159e-01,1.67226e-03,5.64060e-02,4.10641e-02,1.73465e-01,-5.59503e-03,-1.42710e-01,4.74413e-02,-7.48708e-02,3.16206e-02,1.36797e-01,4.10806e-02,7.44498e-02,-1.36891e-01,2.00740e-02,-1.51717e-01,-1.07654e-02,-6.97820e-02,1.47940e-01,-1.01468e-01,-1.33282e-01,1.67993e-01,-7.90984e-02,3.06172e-02,-1.07843e-01,-1.87379e-02,-1.34040e-02,1.17503e-01,-1.20907e-01,1.29119e-01,-4.11969e-02,-1.26325e-02,1.87256e-01,-3.52208e-03,-4.84973e-02,-2.72144e-02,1.84398e-01,4.91373e-02,-3.69114e-02,1.97022e-01,-4.26916e-02,6.04626e-02,-7.41447e-02,1.17283e-01,1.99329e-01,1.54236e-01,2.31258e-01,1.66938e-01,8.66025e-02,-2.75378e-02,1.32211e-01,1.81743e-01,2.72164e-02,9.30971e-02,-1.83173e-01,-5.80662e-02,-1.63442e-02,-1.94414e-01,-1.44327e-01,-1.54994e-01,-1.84066e-01,-1.63912e-01,-2.70139e-01,-5.06767e-02,-5.87170e-02,-1.80612e-01,-1.23668e-01,-9.41006e-02,-1.14296e-01,-2.23060e-01,-1.59165e-01,-1.86728e-02,3.32465e-02,1.14267e-01,8.14233e-03,-2.23803e-02,-1.51085e-01,-9.98411e-02,-1.18850e-01,-1.32187e-01,3.71289e-02,-5.79217e-02,-1.20748e-02,-4.04503e-02,-3.56878e-02,6.68028e-03,-5.31635e-02,3.26237e-03,4.97906e-03,9.27519e-02,-4.26316e-02,1.50678e-01,1.02032e-01,-6.04466e-02,1.20028e-01,6.83777e-02,-2.52360e-02,-4.38423e-02,-1.70289e-01,-3.63412e-02,3.53585e-02,3.57352e-02,5.40564e-02,-1.13563e-01,-6.84313e-02,-4.45130e-02,-4.18546e-02,-1.00169e-02,-1.52650e-01,6.84283e-02,5.40113e-02,1.85076e-01,5.11992e-02,-5.79976e-02,-2.74700e-02,6.07371e-02,1.30665e-01,-4.32923e-02,-5.35499e-02,-1.38624e-01,-1.60954e-01,-2.42322e-02,1.07865e-01,1.01744e-02,-5.13223e-02,8.78690e-02,1.57073e-01,8.96828e-02,5.73777e-02,6.32232e-02,1.85218e-01,-2.76411e-02,5.53340e-02,5.08418e-02,-3.47706e-02,-8.52972e-02,3.02100e-02,-5.81794e-02,5.49985e-02,-4.74145e-02,-2.87451e-02,2.78259e-02,-2.22031e-01,-7.21043e-02,-2.58425e-01,2.44063e-02,-9.49874e-02,-1.82769e-01,6.46157e-02,-4.97124e-02,2.72555e-02,-1.10543e-01,-2.03895e-01,7.56768e-02,8.63785e-02,-1.95041e-01,3.88505e-02,3.45604e-02,-9.57930e-02,-1.10331e-01,-1.77415e-02,-2.01112e-03,-6.93930e-02,1.43622e-01,1.03854e-01,-8.92114e-02,5.12837e-02,9.64430e-02,6.57906e-02,1.68914e-01,-2.88242e-02,-9.93513e-02,4.20158e-03,6.24472e-02,-7.76559e-02,-1.14101e-01,-1.81635e-02,1.96124e-01,3.16740e-02,1.30528e-01,1.68310e-02,-2.48160e-02,8.82432e-02,7.51770e-02,5.43325e-02,1.22210e-01,2.17231e-02,1.89042e-01,-1.82905e-02,-1.02045e-01,-1.51749e-02,3.57075e-02,-7.23217e-02,1.31436e-04,-5.82621e-02,6.27513e-02,-3.69332e-02,-8.71130e-02,-2.92342e-02,2.02732e-02,-7.71563e-02,-8.26894e-02,1.55998e-01,9.78354e-02,-4.37101e-02,1.89272e-02,3.99027e-02,6.61081e-03,-2.55245e-02,9.97665e-02,-1.78398e-02,1.06508e-01,5.47374e-02,2.17859e-01,-5.18264e-02,2.28169e-01,1.73584e-01,3.92580e-02,-1.16341e-01,-8.93193e-02,-9.94839e-02,-1.41283e-01,-9.25237e-02,-1.24383e-01,-6.26881e-02,-9.06841e-02,-1.20413e-01,-2.30877e-01,-2.78729e-01,1.98184e-02,-9.33587e-02,-1.22861e-01,1.28510e-01,1.00176e-01,1.34466e-01,-1.28938e-02,-8.94782e-02,-3.05439e-02,-2.54034e-02,1.40075e-01,9.58572e-02,5.18499e-02,2.95128e-02,8.61342e-02,-4.58767e-03,-8.14957e-02,7.18818e-02,6.69039e-02,9.90337e-03,-1.32699e-01,-8.82012e-02,1.12894e-01,1.27070e-02,8.29604e-02,-1.80793e-01,1.65005e-02,1.42154e-01,-3.40917e-02,1.10154e-01,1.37436e-01,1.27381e-01,1.07745e-02,3.72662e-02,9.49782e-05,-7.78030e-02,-5.66542e-02,4.85614e-02,8.82014e-02,-4.26012e-02,-7.06028e-03,-1.05372e-01,8.37616e-04,4.69857e-02,1.38119e-02,-3.16184e-02,-7.44343e-02,-9.01119e-02,-2.91871e-02,-1.49163e-01,-1.66486e-01,1.18938e-01,-3.30153e-02,3.68270e-02,-5.97818e-02,-6.53232e-02,7.53328e-02,9.34882e-02,8.50856e-02,7.29630e-02,-1.30496e-01,-1.79267e-01,7.77060e-03,1.18274e-01,1.61344e-01,-4.27247e-02,3.86153e-02,3.40679e-02,2.36717e-02,2.37772e-02,7.37428e-02,1.07230e-01,-4.77925e-03,3.17389e-02,8.52335e-02,8.19400e-02,-1.35919e-01,-9.72901e-02,-7.37565e-02,-1.35729e-01,-6.90385e-02,8.05572e-02,-6.11846e-02,-1.22752e-01,8.14369e-02,-4.99101e-02,-1.39176e-01,-7.33367e-02,-1.10333e-01,-7.89980e-02,2.87359e-02,-1.15554e-01,-3.34699e-02,1.64294e-01,-5.50196e-02,4.47852e-02,1.65031e-01,1.00436e-02,-9.74361e-03,8.42242e-02,7.82223e-03,1.55637e-01,9.84217e-02,6.82921e-02,9.86063e-02,7.33312e-02,4.31980e-02,6.55654e-02,3.60512e-02,1.48553e-02,2.49131e-02,4.55033e-02,1.08776e-01,7.85161e-02,-1.09876e-01,1.23142e-01,-5.59618e-03,4.97959e-02,8.99809e-02,2.06158e-01,-5.12054e-02,1.59321e-01,1.14062e-01,4.10893e-03,-9.57313e-02,-1.06429e-01,-2.51383e-02,-2.96338e-03,-1.24018e-01,3.02251e-02,-1.02660e-02,-1.28886e-01,-4.95609e-02,-1.16934e-01,5.02655e-02,-8.42382e-02,2.05272e-01,-4.25673e-02,4.24664e-02,-1.64638e-02,-4.94998e-02,-3.62727e-02,3.45979e-02,-1.18753e-02,1.65061e-01,1.49363e-02,-7.76565e-03,-1.64764e-01,2.65693e-02,4.60178e-02,1.37094e-01,3.49804e-02,1.40941e-01,1.03071e-01,-3.35726e-02,-1.04597e-01,-1.82298e-01,2.67952e-02,-8.68402e-02,-3.91348e-02,-9.96053e-02,-1.03470e-01,-9.57866e-02,1.18336e-01,-7.29930e-02,-4.36909e-02,-4.36482e-02,-3.91536e-02,-1.19952e-01,2.92325e-02,4.09419e-02,-5.80128e-02,5.60394e-02,1.37567e-01,5.54668e-02,-3.77077e-03,1.93127e-01,1.49716e-01,4.72511e-02,9.55855e-02,-1.26280e-01,-1.12620e-02,-4.14791e-03,7.16362e-03,2.23127e-02,1.83903e-01,6.65713e-03,1.14833e-03,2.06212e-01,-1.15935e-01,4.18897e-02,-1.29795e-01,-3.55992e-02,-9.27752e-02,1.37389e-01,-8.65955e-03,4.97599e-02,-5.33782e-02,1.06167e-01,8.23627e-03,-2.59407e-02,-6.36489e-02,-3.86980e-02,1.30429e-01,6.69213e-02,1.01729e-01,-1.91590e-02,-2.20127e-02,-7.87076e-02,-1.43938e-02,1.06105e-01,-5.70276e-02,-8.15471e-02,-2.84966e-02,-1.33956e-01,-2.62389e-02,-2.36381e-02,6.61346e-02,9.82611e-02,-4.55737e-02,-3.35263e-02,-4.83141e-02,1.35600e-01,-1.44871e-01,-6.21656e-02,-7.12115e-02,-1.82913e-02,-1.01842e-01,4.07554e-02,-4.26204e-02,-2.84789e-03,-2.44251e-02,-3.74254e-02,7.15898e-02,-6.83112e-02,1.06410e-01,-1.91107e-02,1.26825e-01,4.66610e-02,2.74496e-02,1.45798e-01,-1.73501e-01,-1.01911e-01,-4.94456e-02,-1.20826e-01,-1.22119e-01,-3.84840e-02,-1.27411e-01,-3.03860e-02,8.47328e-03,6.10243e-04,-7.07939e-02,-2.18479e-01,-4.44753e-02,-4.94683e-02,3.75022e-02,1.36370e-01,1.53339e-02,1.04672e-02,8.46484e-02,5.50984e-02,1.44367e-02,9.28762e-02,5.08395e-03,9.50794e-02,-6.28039e-02,1.48745e-01,1.12345e-01,9.53748e-02,1.11183e-01,-1.23206e-01,-1.95954e-02,-2.44610e-02,7.63124e-03,-1.21800e-01,-6.55546e-02,2.08315e-01,1.42957e-01,-5.31993e-02,1.82472e-01,-1.09550e-01,-8.95762e-02,1.42618e-02,-9.48153e-02,-3.31530e-02,5.14275e-02,-1.32493e-01,-1.24304e-01,1.12115e-01,1.48614e-01,-1.81822e-02,7.28091e-02,-1.49178e-01,-5.05983e-02,-5.92875e-02,-3.61667e-02,-1.57830e-01,-2.94981e-03,-4.19357e-03,-2.91128e-01,1.09970e-02,7.89432e-02,-1.80249e-02,1.22333e-01,6.78773e-03,1.51004e-01,7.12943e-02,4.78070e-02,1.09413e-01,-1.17221e-01,-5.70919e-02,-7.96321e-02,-9.05748e-03,8.13204e-02,-1.63834e-01,1.28469e-01,5.17186e-03,2.02153e-02,-1.18758e-01,1.48467e-02,9.43061e-02,4.56104e-02,-2.44112e-01,1.30978e-01,8.53097e-02,4.06916e-03,-1.39363e-01,8.00325e-04,-2.69788e-01,-2.07380e-02,-1.35285e-01,-1.40708e-01,-2.06504e-01,-7.50193e-02,4.79659e-03,-4.91556e-02,1.23116e-01,6.34172e-03,1.09603e-01,2.28162e-02,1.18853e-02,6.94730e-02,-1.23988e-01,-6.97066e-02,2.58178e-02,7.32293e-02,-1.22362e-02,-7.74171e-02,3.60086e-02,6.78993e-02,1.05592e-01,6.83529e-02,-1.12630e-01,1.88356e-01,-4.35469e-02,-5.34263e-02,-4.56568e-02,-7.66691e-02,-4.08287e-02,1.77602e-01,-7.73064e-02,-4.15335e-02,-1.36899e-02,-1.27087e-01,2.89449e-02,1.62893e-01,-1.12929e-01,7.27424e-02,2.48679e-02,2.02322e-01,-8.68006e-02,1.45373e-01,5.41186e-03,2.71170e-03,-9.18097e-02,2.70441e-03,-2.26381e-01,-1.31988e-01,-2.44418e-01,-1.41535e-01,-1.26376e-01,-2.22708e-01,-3.96189e-02,-3.93686e-02,-2.02889e-01,2.61159e-02,9.15244e-02,-4.56538e-02,1.04829e-01,4.12486e-02,-9.58431e-02,5.00569e-02,2.50697e-02,1.14031e-01,-9.76746e-02,4.10279e-02,4.23800e-02,4.98807e-02,9.50154e-02,1.95960e-01,2.26659e-01,2.70211e-01,-5.57893e-02,-9.65537e-02,1.98128e-02,1.22421e-01,-1.28057e-01,-5.53084e-02,-8.21296e-02,-1.01954e-01,-2.45285e-01,-1.91140e-01,5.01297e-02,2.81001e-02,-1.61206e-01,-1.36174e-01,-1.78960e-02,-4.15968e-02,-7.85853e-02,1.83172e-02,-5.92532e-03,-8.78424e-02,-1.89643e-01,-6.37857e-02,-1.06215e-01,7.49239e-03,-1.29841e-01,8.98371e-02,-1.38915e-01,-2.10264e-01,2.38764e-02,-4.07404e-02,1.08837e-01,-1.06064e-02,-1.98669e-02,-1.53620e-01,-1.06327e-01,9.70507e-03,-1.14570e-01,-2.73476e-02,-1.17884e-02,-1.07154e-01,2.91757e-04,-4.87882e-02,-7.43625e-02,-1.15552e-01,-8.67819e-02,2.25985e-02,-2.57093e-02,1.33679e-01,-1.76341e-01,2.35300e-02,1.40500e-02,1.51604e-01,-1.25433e-01,1.10768e-01,-7.50487e-02,6.22588e-02,5.71724e-02,2.17900e-02,-5.92951e-02,-1.86500e-01,-8.91486e-02,-2.18139e-01,-2.49723e-01,-2.10693e-01,-1.41818e-01,-2.18256e-01,-2.14792e-01,-1.24909e-01,-1.33834e-02,-2.06684e-01,1.05447e-01,3.89372e-02,-9.58195e-03,4.34989e-03,-4.45252e-02,-4.87057e-02,-1.05206e-01,1.32427e-01,-1.32944e-01,1.13670e-01,2.54577e-02,-1.11307e-01,-6.76612e-03,1.09236e-01,8.50477e-02,-1.22219e-02,-9.00942e-03,1.86018e-02,-1.04821e-01,7.96926e-02,-1.10518e-02,-1.37025e-01,-8.51101e-02,-1.15598e-01,-2.69134e-02,-1.04689e-01,3.70117e-02,-2.32374e-02,3.22703e-02,-1.24323e-01,-6.71470e-02,-4.14257e-03,4.43951e-02,-2.50775e-02,7.29177e-02,6.69399e-02,-2.98108e-02,-3.29036e-02,3.22206e-02,-3.38677e-02,-5.48046e-02,3.12215e-02,-2.32490e-02,1.05138e-01,6.31972e-02,3.67876e-02,-1.60046e-01,-1.76245e-01,1.92799e-01,3.89938e-02,-4.67882e-02,2.92498e-02,6.04470e-02,9.10395e-02,-1.01472e-01,-2.12385e-02,9.07120e-02,-1.76331e-01,1.63847e-01,7.39288e-02,-6.20436e-03,1.21241e-01,7.20107e-02,-7.48175e-02,-7.25074e-02,-1.60890e-01,1.10670e-01,-3.58837e-02,8.69402e-02,-1.47693e-01,-1.15846e-01,7.30560e-02,-5.90394e-02,5.03584e-02,-5.12573e-02,-1.55426e-01,-1.82431e-01,-1.63296e-01,-1.05730e-01,-2.10211e-01,-8.48147e-02,4.69209e-02,-3.36258e-02,-1.46334e-01,5.39916e-02,-1.25311e-01,-5.07669e-02,8.10408e-02,5.58459e-02,5.34578e-02,1.69912e-01,4.48093e-02,9.59133e-02,5.90022e-02,-2.09446e-02,1.19730e-01,5.51077e-02,-1.50619e-02,-4.24267e-03,-1.70488e-01,1.52885e-01,7.01093e-02,-2.46259e-02,-1.66965e-01,5.01982e-03,1.26243e-02,-1.74646e-02,-1.53490e-01,-1.41569e-01,-2.87974e-02,-5.36718e-02,3.58578e-02,9.05272e-03,-3.95391e-02,-3.77666e-02,-1.94091e-03,-1.34693e-01,4.00838e-02,6.03281e-02,6.44647e-03,1.82378e-03,1.24268e-02,-3.52058e-02,-5.15026e-03,-5.69060e-02,-1.03879e-01,-1.68411e-01,-1.41891e-02,-1.04887e-01,-5.53473e-02,-1.18930e-01,2.16446e-02,-5.15441e-02,7.44999e-03,-8.75630e-02,1.14856e-01,-3.02241e-02,2.08221e-01,-4.09743e-02,3.51845e-02,-2.72211e-02,-1.30711e-01,6.84468e-02,1.04871e-01,1.29784e-01,-2.91676e-02,9.66633e-02,-3.13775e-03,-1.52909e-01,-1.57001e-03,-2.75058e-02,9.89012e-02,9.47657e-03,5.52344e-02,2.85620e-02,1.31147e-01,-5.36722e-02,-1.59220e-01,5.48810e-02,5.41093e-02,-8.24320e-02,-1.32066e-01,-1.97429e-02,-1.69913e-01,-2.14138e-01,-4.90761e-02,-1.56977e-02,6.18087e-03,-1.48596e-02,-6.44935e-02,-1.58555e-01,-4.91273e-02,2.07134e-01,6.75478e-02,1.39325e-01,-6.17520e-02,-5.16515e-02,-1.01112e-01,-8.13112e-02,-1.20703e-01,1.79681e-02,-4.91587e-02,1.13424e-01,6.16375e-02,1.42039e-01,-4.84218e-02,-2.83486e-02,6.95760e-02,5.52615e-02,8.64107e-02,8.37373e-02,-2.70896e-03,-3.35429e-02,6.88225e-02,4.91521e-02,1.02827e-02,-5.48364e-03,-5.81384e-03,1.29068e-01,-7.04010e-02,-7.93587e-03,8.66719e-02,-9.21747e-02,9.16734e-02,4.08235e-02,-1.31550e-02,-1.10000e-01,-7.50496e-02,1.21380e-01,1.01134e-02,9.52606e-03,1.71589e-01,-1.14252e-01,5.92764e-02,8.88474e-03,1.57290e-01,-6.72045e-02,-9.56521e-02,-7.47044e-02,-2.71724e-02,-5.83731e-02,-1.70738e-01,-9.15019e-02,4.73717e-02,-1.21673e-01,-1.01680e-01,-3.79473e-02,1.36163e-01,-1.42532e-01,3.62643e-02,-3.11057e-02,-2.43151e-02,-1.07717e-01,7.71085e-02,1.29836e-01,-9.42450e-02,-8.08026e-02,-3.30731e-02,-1.87736e-01,-2.36018e-03,-3.85912e-02,-1.64411e-01,-2.10078e-01,1.33178e-02,-7.96779e-02,-1.32940e-01,-7.98262e-03,1.17800e-01,-6.98154e-02,-3.45687e-02,