// Neural Network File Format by Kyle Julian, Stanford 2016
7,2352,10,2352,
2352,50,50,50,50,50,50,10,
0,
0,0,0,0,0,0,0,0,0,0,0,0,0,0,0,0,0,0,0,0,0,0,0,0,0,0,0,0,0,0,0,0,0,0,0,0,0,0,0,0,0,0,0,0,0,0,0,0,0,0,0,0,0,0,0,0,0,0,0,0,0,0,0,0,0,0,0,0,0,0,0,0,0,0,0,0,0,0,0,0,0,0,0,0,0,0,0,0,0,0,0,0,0,0,0,0,0,0,0,0,0,0,0,0,0,0,0,0,0,0,0,0,0,0,0,0,0,0,0,0,0,0,0,0,0,0,0,0,0,0,0,0,0,0,0,0,0,0,0,0,0,0,0,0,0,0,0,0,0,0,0,0,0,0,0,0,0,0,0,0,0,0,0,0,0,0,0,0,0,0,0,0,0,0,0,0,0,0,0,0,0,0,0,0,0,0,0,0,0,0,0,0,0,0,0,0,0,0,0,0,0,0,0,0,0,0,0,0,0,0,0,0,0,0,0,0,0,0,0,0,0,0,0,0,0,0,0,0,0,0,0,0,0,0,0,0,0,0,0,0,0,0,0,0,0,0,0,0,0,0,0,0,0,0,0,0,0,0,0,0,0,0,0,0,0,0,0,0,0,0,0,0,0,0,0,0,0,0,0,0,0,0,0,0,0,0,0,0,0,0,0,0,0,0,0,0,0,0,0,0,0,0,0,0,0,0,0,0,0,0,0,0,0,0,0,0,0,0,0,0,0,0,0,0,0,0,0,0,0,0,0,0,0,0,0,0,0,0,0,0,0,0,0,0,0,0,0,0,0,0,0,0,0,0,0,0,0,0,0,0,0,0,0,0,0,0,0,0,0,0,0,0,0,0,0,0,0,0,0,0,0,0,0,0,0,0,0,0,0,0,0,0,0,0,0,0,0,0,0,0,0,0,0,0,0,0,0,0,0,0,0,0,0,0,0,0,0,0,0,0,0,0,0,0,0,0,0,0,0,0,0,0,0,0,0,0,0,0,0,0,0,0,0,0,0,0,0,0,0,0,0,0,0,0,0,0,0,0,0,0,0,0,0,0,0,0,0,0,0,0,0,0,0,0,0,0,0,0,0,0,0,0,0,0,0,0,0,0,0,0,0,0,0,0,0,0,0,0,0,0,0,0,0,0,0,0,0,0,0,0,0,0,0,0,0,0,0,0,0,0,0,0,0,0,0,0,0,0,0,0,0,0,0,0,0,0,0,0,0,0,0,0,0,0,0,0,0,0,0,0,0,0,0,0,0,0,0,0,0,0,0,0,0,0,0,0,0,0,0,0,0,0,0,0,0,0,0,0,0,0,0,0,0,0,0,0,0,0,0,0,0,0,0,0,0,0,0,0,0,0,0,0,0,0,0,0,0,0,0,0,0,0,0,0,0,0,0,0,0,0,0,0,0,0,0,0,0,0,0,0,0,0,0,0,0,0,0,0,0,0,0,0,0,0,0,0,0,0,0,0,0,0,0,0,0,0,0,0,0,0,0,0,0,0,0,0,0,0,0,0,0,0,0,0,0,0,0,0,0,0,0,0,0,0,0,0,0,0,0,0,0,0,0,0,0,0,0,0,0,0,0,0,0,0,0,0,0,0,0,0,0,0,0,0,0,0,0,0,0,0,0,0,0,0,0,0,0,0,0,0,0,0,0,0,0,0,0,0,0,0,0,0,0,0,0,0,0,0,0,0,0,0,0,0,0,0,0,0,0,0,0,0,0,0,0,0,0,0,0,0,0,0,0,0,0,0,0,0,0,0,0,0,0,0,0,0,0,0,0,0,0,0,0,0,0,0,0,0,0,0,0,0,0,0,0,0,0,0,0,0,0,0,0,0,0,0,0,0,0,0,0,0,0,0,0,0,0,0,0,0,0,0,0,0,0,0,0,0,0,0,0,0,0,0,0,0,0,0,0,0,0,0,0,0,0,0,0,0,0,0,0,0,0,0,0,0,0,0,0,0,0,0,0,0,0,0,0,0,0,0,0,0,0,0,0,0,0,0,0,0,0,0,0,0,0,0,0,0,0,0,0,0,0,0,0,0,0,0,0,0,0,0,0,0,0,0,0,0,0,0,0,0,0,0,0,0,0,0,0,0,0,0,0,0,0,0,0,0,0,0,0,0,0,0,0,0,0,0,0,0,0,0,0,0,0,0,0,0,0,0,0,0,0,0,0,0,0,0,0,0,0,0,0,0,0,0,0,0,0,0,0,0,0,0,0,0,0,0,0,0,0,0,0,0,0,0,0,0,0,0,0,0,0,0,0,0,0,0,0,0,0,0,0,0,0,0,0,0,0,0,0,0,0,0,0,0,0,0,0,0,0,0,0,0,0,0,0,0,0,0,0,0,0,0,0,0,0,0,0,0,0,0,0,0,0,0,0,0,0,0,0,0,0,0,0,0,0,0,0,0,0,0,0,0,0,0,0,0,0,0,0,0,0,0,0,0,0,0,0,0,0,0,0,0,0,0,0,0,0,0,0,0,0,0,0,0,0,0,0,0,0,0,0,0,0,0,0,0,0,0,0,0,0,0,0,0,0,0,0,0,0,0,0,0,0,0,0,0,0,0,0,0,0,0,0,0,0,0,0,0,0,0,0,0,0,0,0,0,0,0,0,0,0,0,0,0,0,0,0,0,0,0,0,0,0,0,0,0,0,0,0,0,0,0,0,0,0,0,0,0,0,0,0,0,0,0,0,0,0,0,0,0,0,0,0,0,0,0,0,0,0,0,0,0,0,0,0,0,0,0,0,0,0,0,0,0,0,0,0,0,0,0,0,0,0,0,0,0,0,0,0,0,0,0,0,0,0,0,0,0,0,0,0,0,0,0,0,0,0,0,0,0,0,0,0,0,0,0,0,0,0,0,0,0,0,0,0,0,0,0,0,0,0,0,0,0,0,0,0,0,0,0,0,0,0,0,0,0,0,0,0,0,0,0,0,0,0,0,0,0,0,0,0,0,0,0,0,0,0,0,0,0,0,0,0,0,0,0,0,0,0,0,0,0,0,0,0,0,0,0,0,0,0,0,0,0,0,0,0,0,0,0,0,0,0,0,0,0,0,0,0,0,0,0,0,0,0,0,0,0,0,0,0,0,0,0,0,0,0,0,0,0,0,0,0,0,0,0,0,0,0,0,0,0,0,0,0,0,0,0,0,0,0,0,0,0,0,0,0,0,0,0,0,0,0,0,0,0,0,0,0,0,0,0,0,0,0,0,0,0,0,0,0,0,0,0,0,0,0,0,0,0,0,0,0,0,0,0,0,0,0,0,0,0,0,0,0,0,0,0,0,0,0,0,0,0,0,0,0,0,0,0,0,0,0,0,0,0,0,0,0,0,0,0,0,0,0,0,0,0,0,0,0,0,0,0,0,0,0,0,0,0,0,0,0,0,0,0,0,0,0,0,0,0,0,0,0,0,0,0,0,0,0,0,0,0,0,0,0,0,0,0,0,0,0,0,0,0,0,0,0,0,0,0,0,0,0,0,0,0,0,0,0,0,0,0,0,0,0,0,0,0,0,0,0,0,0,0,0,0,0,0,0,0,0,0,0,0,0,0,0,0,0,0,0,0,0,0,0,0,0,0,0,0,0,0,0,0,0,0,0,0,0,0,0,0,0,0,0,0,0,0,0,0,0,0,0,0,0,0,0,0,0,0,0,0,0,0,0,0,0,0,0,0,0,0,0,0,0,0,0,0,0,0,0,0,0,0,0,0,0,0,0,0,0,0,0,0,0,0,0,0,0,0,0,0,0,0,0,0,0,0,0,0,0,0,0,0,0,0,0,0,0,0,0,0,0,0,0,0,0,0,0,0,0,0,0,0,0,0,0,0,0,0,0,0,0,0,0,0,0,0,0,0,0,0,0,0,0,0,0,0,0,0,0,0,0,0,0,0,0,0,0,0,0,0,0,0,0,0,0,0,0,0,0,0,0,0,0,0,0,0,0,0,0,0,0,0,0,0,0,0,0,0,0,0,0,0,0,0,0,0,0,0,0,0,0,0,0,0,0,0,0,0,0,0,0,0,0,0,0,0,0,0,0,0,0,0,0,0,0,0,0,0,0,0,0,0,0,0,0,0,0,0,0,0,0,0,0,0,0,0,0,0,0,0,0,0,0,0,0,0,0,0,0,0,0,0,0,0,0,0,0,0,0,0,0,0,0,0,0,0,0,0,0,0,0,0,0,0,0,0,0,0,0,0,0,0,0,0,0,0,0,0,0,0,0,0,0,0,0,0,0,0,0,0,0,0,0,0,0,0,0,0,0,0,0,0,0,0,0,0,0,0,0,0,0,0,0,0,0,0,0,0,0,0,0,0,0,0,0,0,0,0,0,0,0,0,0,0,0,0,0,0,0,0,0,0,0,0,0,0,0,0,0,0,0,0,0,0,0,0,0,0,0,0,0,0,0,0,0,0,0,0,0,0,0,0,0,0,0,0,0,0,0,0,0,0,0,0,0,0,0,0,0,0,0,0,0,0,0,0,0,0,0,0,0,0,0,0,0,0,0,0,0,0,0,0,0,0,0,0,0,0,0,0,0,0,0,0,0,0,0,0,0,0,0,0,0,0,0,0,0,0,0,0,0,0,0,0,0,0,0,0,0,0,0,0,0,0,0,0,0,0,0,0,0,0,0,0,0,0,0,0,0,0,0,0,0,0,0,0,0,0,0,0,0,0,0,0,0,0,0,0,0,0,0,0,0,0,0,0,0,0,0,0,0,0,0,0,0,0,0,0,0,0,0,0,0,0,0,0,0,0,0,0,0,0,0,0,0,0,0,0,0,0,0,0,0,0,0,0,0,0,0,0,0,0,0,0,0,0,0,0,0,0,0,0,0,0,0,0,0,0,0,0,0,0,0,0,0,0,0,0,0,0,0,0,0,0,0,0,0,0,0,0,0,0,0,0,0,0,0,0,0,0,0,0,0,0,0,0,0,0,0,0,0,0,0,0,0,0,0,0,0,0,0,0,0,0,0,0,0,0,0,0,0,0,0,0,0,0,0,0,0,0,0,0,0,0,0,0,0,0,0,0,0,0,0,0,0,0,0,0,0,0,0,0,0,0,0,0,0,0,0,0,0,0,0,0,0,0,0,0,0,0,0,0,0,0,0,0,0,0,0,0,0,0,0,0,0,0,0,0,0,0,0,0,0,0,0,0,0,0,0,0,0,0,0,0,0,0,0,0,0,0,0,0,0,0,0,0,0,0,0,0,0,0,0,0,0,0,0,0,0,0,0,0,0,0,0,0,0,0,0,0,0,0,0,0,0,0,0,0,0,0,0,0,0,0,0,0,
255.0,255.0,255.0,255.0,255.0,255.0,255.0,255.0,255.0,255.0,255.0,255.0,255.0,255.0,255.0,255.0,255.0,255.0,255.0,255.0,255.0,255.0,255.0,255.0,255.0,255.0,255.0,255.0,255.0,255.0,255.0,255.0,255.0,255.0,255.0,255.0,255.0,255.0,255.0,255.0,255.0,255.0,255.0,255.0,255.0,255.0,255.0,255.0,255.0,255.0,255.0,255.0,255.0,255.0,255.0,255.0,255.0,255.0,255.0,255.0,255.0,255.0,255.0,255.0,255.0,255.0,255.0,255.0,255.0,255.0,255.0,255.0,255.0,255.0,255.0,255.0,255.0,255.0,255.0,255.0,255.0,255.0,255.0,255.0,255.0,255.0,255.0,255.0,255.0,255.0,255.0,255.0,255.0,255.0,255.0,255.0,255.0,255.0,255.0,255.0,255.0,255.0,255.0,255.0,255.0,255.0,255.0,255.0,255.0,255.0,255.0,255.0,255.0,255.0,255.0,255.0,255.0,255.0,255.0,255.0,255.0,255.0,255.0,255.0,255.0,255.0,255.0,255.0,255.0,255.0,255.0,255.0,255.0,255.0,255.0,255.0,255.0,255.0,255.0,255.0,255.0,255.0,255.0,255.0,255.0,255.0,255.0,255.0,255.0,255.0,255.0,255.0,255.0,255.0,255.0,255.0,255.0,255.0,255.0,255.0,255.0,255.0,255.0,255.0,255.0,255.0,255.0,255.0,255.0,255.0,255.0,255.0,255.0,255.0,255.0,255.0,255.0,255.0,255.0,255.0,255.0,255.0,255.0,255.0,255.0,255.0,255.0,255.0,255.0,255.0,255.0,255.0,255.0,255.0,255.0,255.0,255.0,255.0,255.0,255.0,255.0,255.0,255.0,255.0,255.0,255.0,255.0,255.0,255.0,255.0,255.0,255.0,255.0,255.0,255.0,255.0,255.0,255.0,255.0,255.0,255.0,255.0,255.0,255.0,255.0,255.0,255.0,255.0,255.0,255.0,255.0,255.0,255.0,255.0,255.0,255.0,255.0,255.0,255.0,255.0,255.0,255.0,255.0,255.0,255.0,255.0,255.0,255.0,255.0,255.0,255.0,255.0,255.0,255.0,255.0,255.0,255.0,255.0,255.0,255.0,255.0,255.0,255.0,255.0,255.0,255.0,255.0,255.0,255.0,255.0,255.0,255.0,255.0,255.0,255.0,255.0,255.0,255.0,255.0,255.0,255.0,255.0,255.0,255.0,255.0,255.0,255.0,255.0,255.0,255.0,255.0,255.0,255.0,255.0,255.0,255.0,255.0,255.0,255.0,255.0,255.0,255.0,255.0,255.0,255.0,255.0,255.0,255.0,255.0,255.0,255.0,255.0,255.0,255.0,255.0,255.0,255.0,255.0,255.0,255.0,255.0,255.0,255.0,255.0,255.0,255.0,255.0,255.0,255.0,255.0,255.0,255.0,255.0,255.0,255.0,255.0,255.0,255.0,255.0,255.0,255.0,255.0,255.0,255.0,255.0,255.0,255.0,255.0,255.0,255.0,255.0,255.0,255.0,255.0,255.0,255.0,255.0,255.0,255.0,255.0,255.0,255.0,255.0,255.0,255.0,255.0,255.0,255.0,255.0,255.0,255.0,255.0,255.0,255.0,255.0,255.0,255.0,255.0,255.0,255.0,255.0,255.0,255.0,255.0,255.0,255.0,255.0,255.0,255.0,255.0,255.0,255.0,255.0,255.0,255.0,255.0,255.0,255.0,255.0,255.0,255.0,255.0,255.0,255.0,255.0,255.0,255.0,255.0,255.0,255.0,255.0,255.0,255.0,255.0,255.0,255.0,255.0,255.0,255.0,255.0,255.0,255.0,255.0,255.0,255.0,255.0,255.0,255.0,255.0,255.0,255.0,255.0,255.0,255.0,255.0,255.0,255.0,255.0,255.0,255.0,255.0,255.0,255.0,255.0,255.0,255.0,255.0,255.0,255.0,255.0,255.0,255.0,255.0,255.0,255.0,255.0,255.0,255.0,255.0,255.0,255.0,255.0,255.0,255.0,255.0,255.0,255.0,255.0,255.0,255.0,255.0,255.0,255.0,255.0,255.0,255.0,255.0,255.0,255.0,255.0,255.0,255.0,255.0,255.0,255.0,255.0,255.0,255.0,255.0,255.0,255.0,255.0,255.0,255.0,255.0,255.0,255.0,255.0,255.0,255.0,255.0,255.0,255.0,255.0,255.0,255.0,255.0,255.0,255.0,255.0,255.0,255.0,255.0,255.0,255.0,255.0,255.0,255.0,255.0,255.0,255.0,255.0,255.0,255.0,255.0,255.0,255.0,255.0,255.0,255.0,255.0,255.0,255.0,255.0,255.0,255.0,255.0,255.0,255.0,255.0,255.0,255.0,255.0,255.0,255.0,255.0,255.0,255.0,255.0,255.0,255.0,255.0,255.0,255.0,255.0,255.0,255.0,255.0,255.0,255.0,255.0,255.0,255.0,255.0,255.0,255.0,255.0,255.0,255.0,255.0,255.0,255.0,255.0,255.0,255.0,255.0,255.0,255.0,255.0,255.0,255.0,255.0,255.0,255.0,255.0,255.0,255.0,255.0,255.0,255.0,255.0,255.0,255.0,255.0,255.0,255.0,255.0,255.0,255.0,255.0,255.0,255.0,255.0,255.0,255.0,255.0,255.0,255.0,255.0,255.0,255.0,255.0,255.0,255.0,255.0,255.0,255.0,255.0,255.0,255.0,255.0,255.0,255.0,255.0,255.0,255.0,255.0,255.0,255.0,255.0,255.0,255.0,255.0,255.0,255.0,255.0,255.0,255.0,255.0,255.0,255.0,255.0,255.0,255.0,255.0,255.0,255.0,255.0,255.0,255.0,255.0,255.0,255.0,255.0,255.0,255.0,255.0,255.0,255.0,255.0,255.0,255.0,255.0,255.0,255.0,255.0,255.0,255.0,255.0,255.0,255.0,255.0,255.0,255.0,255.0,255.0,255.0,255.0,255.0,255.0,255.0,255.0,255.0,255.0,255.0,255.0,255.0,255.0,255.0,255.0,255.0,255.0,255.0,255.0,255.0,255.0,255.0,255.0,255.0,255.0,255.0,255.0,255.0,255.0,255.0,255.0,255.0,255.0,255.0,255.0,255.0,255.0,255.0,255.0,255.0,255.0,255.0,255.0,255.0,255.0,255.0,255.0,255.0,255.0,255.0,255.0,255.0,255.0,255.0,255.0,255.0,255.0,255.0,255.0,255.0,255.0,255.0,255.0,255.0,255.0,255.0,255.0,255.0,255.0,255.0,255.0,255.0,255.0,255.0,255.0,255.0,255.0,255.0,255.0,255.0,255.0,255.0,255.0,255.0,255.0,255.0,255.0,255.0,255.0,255.0,255.0,255.0,255.0,255.0,255.0,255.0,255.0,255.0,255.0,255.0,255.0,255.0,255.0,255.0,255.0,255.0,255.0,255.0,255.0,255.0,255.0,255.0,255.0,255.0,255.0,255.0,255.0,255.0,255.0,255.0,255.0,255.0,255.0,255.0,255.0,255.0,255.0,255.0,255.0,255.0,255.0,255.0,255.0,255.0,255.0,255.0,255.0,255.0,255.0,255.0,255.0,255.0,255.0,255.0,255.0,255.0,255.0,255.0,255.0,255.0,255.0,255.0,255.0,255.0,255.0,255.0,255.0,255.0,255.0,255.0,255.0,255.0,255.0,255.0,255.0,255.0,255.0,255.0,255.0,255.0,255.0,255.0,255.0,255.0,255.0,255.0,255.0,255.0,255.0,255.0,255.0,255.0,255.0,255.0,255.0,255.0,255.0,255.0,255.0,255.0,255.0,255.0,255.0,255.0,255.0,255.0,255.0,255.0,255.0,255.0,255.0,255.0,255.0,255.0,255.0,255.0,255.0,255.0,255.0,255.0,255.0,255.0,255.0,255.0,255.0,255.0,255.0,255.0,255.0,255.0,255.0,255.0,255.0,255.0,255.0,255.0,255.0,255.0,255.0,255.0,255.0,255.0,255.0,255.0,255.0,255.0,255.0,255.0,255.0,255.0,255.0,255.0,255.0,255.0,255.0,255.0,255.0,255.0,255.0,255.0,255.0,255.0,255.0,255.0,255.0,255.0,255.0,255.0,255.0,255.0,255.0,255.0,255.0,255.0,255.0,255.0,255.0,255.0,255.0,255.0,255.0,255.0,255.0,255.0,255.0,255.0,255.0,255.0,255.0,255.0,255.0,255.0,255.0,255.0,255.0,255.0,255.0,255.0,255.0,255.0,255.0,255.0,255.0,255.0,255.0,255.0,255.0,255.0,255.0,255.0,255.0,255.0,255.0,255.0,255.0,255.0,255.0,255.0,255.0,255.0,255.0,255.0,255.0,255.0,255.0,255.0,255.0,255.0,255.0,255.0,255.0,255.0,255.0,255.0,255.0,255.0,255.0,255.0,255.0,255.0,255.0,255.0,255.0,255.0,255.0,255.0,255.0,255.0,255.0,255.0,255.0,255.0,255.0,255.0,255.0,255.0,255.0,255.0,255.0,255.0,255.0,255.0,255.0,255.0,255.0,255.0,255.0,255.0,255.0,255.0,255.0,255.0,255.0,255.0,255.0,255.0,255.0,255.0,255.0,255.0,255.0,255.0,255.0,255.0,255.0,255.0,255.0,255.0,255.0,255.0,255.0,255.0,255.0,255.0,255.0,255.0,255.0,255.0,255.0,255.0,255.0,255.0,255.0,255.0,255.0,255.0,255.0,255.0,255.0,255.0,255.0,255.0,255.0,255.0,255.0,255.0,255.0,255.0,255.0,255.0,255.0,255.0,255.0,255.0,255.0,255.0,255.0,255.0,255.0,255.0,255.0,255.0,255.0,255.0,255.0,255.0,255.0,255.0,255.0,255.0,255.0,255.0,255.0,255.0,255.0,255.0,255.0,255.0,255.0,255.0,255.0,255.0,255.0,255.0,255.0,255.0,255.0,255.0,255.0,255.0,255.0,255.0,255.0,255.0,255.0,255.0,255.0,255.0,255.0,255.0,255.0,255.0,255.0,255.0,255.0,255.0,255.0,255.0,255.0,255.0,255.0,255.0,255.0,255.0,255.0,255.0,255.0,255.0,255.0,255.0,255.0,255.0,255.0,255.0,255.0,255.0,255.0,255.0,255.0,255.0,255.0,255.0,255.0,255.0,255.0,255.0,255.0,255.0,255.0,255.0,255.0,255.0,255.0,255.0,255.0,255.0,255.0,255.0,255.0,255.0,255.0,255.0,255.0,255.0,255.0,255.0,255.0,255.0,255.0,255.0,255.0,255.0,255.0,255.0,255.0,255.0,255.0,255.0,255.0,255.0,255.0,255.0,255.0,255.0,255.0,255.0,255.0,255.0,255.0,255.0,255.0,255.0,255.0,255.0,255.0,255.0,255.0,255.0,255.0,255.0,255.0,255.0,255.0,255.0,255.0,255.0,255.0,255.0,255.0,255.0,255.0,255.0,255.0,255.0,255.0,255.0,255.0,255.0,255.0,255.0,255.0,255.0,255.0,255.0,255.0,255.0,255.0,255.0,255.0,255.0,255.0,255.0,255.0,255.0,255.0,255.0,255.0,255.0,255.0,255.0,255.0,255.0,255.0,255.0,255.0,255.0,255.0,255.0,255.0,255.0,255.0,255.0,255.0,255.0,255.0,255.0,255.0,255.0,255.0,255.0,255.0,255.0,255.0,255.0,255.0,255.0,255.0,255.0,255.0,255.0,255.0,255.0,255.0,255.0,255.0,255.0,255.0,255.0,255.0,255.0,255.0,255.0,255.0,255.0,255.0,255.0,255.0,255.0,255.0,255.0,255.0,255.0,255.0,255.0,255.0,255.0,255.0,255.0,255.0,255.0,255.0,255.0,255.0,255.0,255.0,255.0,255.0,255.0,255.0,255.0,255.0,255.0,255.0,255.0,255.0,255.0,255.0,255.0,255.0,255.0,255.0,255.0,255.0,255.0,255.0,255.0,255.0,255.0,255.0,255.0,255.0,255.0,255.0,255.0,255.0,255.0,255.0,255.0,255.0,255.0,255.0,255.0,255.0,255.0,255.0,255.0,255.0,255.0,255.0,255.0,255.0,255.0,255.0,255.0,255.0,255.0,255.0,255.0,255.0,255.0,255.0,255.0,255.0,255.0,255.0,255.0,255.0,255.0,255.0,255.0,255.0,255.0,255.0,255.0,255.0,255.0,255.0,255.0,255.0,255.0,255.0,255.0,255.0,255.0,255.0,255.0,255.0,255.0,255.0,255.0,255.0,255.0,255.0,255.0,255.0,255.0,255.0,255.0,255.0,255.0,255.0,255.0,255.0,255.0,255.0,255.0,255.0,255.0,255.0,255.0,255.0,255.0,255.0,255.0,255.0,255.0,255.0,255.0,255.0,255.0,255.0,255.0,255.0,255.0,255.0,255.0,255.0,255.0,255.0,255.0,255.0,255.0,255.0,255.0,255.0,255.0,255.0,255.0,255.0,255.0,255.0,255.0,255.0,255.0,255.0,255.0,255.0,255.0,255.0,255.0,255.0,255.0,255.0,255.0,255.0,255.0,255.0,255.0,255.0,255.0,255.0,255.0,255.0,255.0,255.0,255.0,255.0,255.0,255.0,255.0,255.0,255.0,255.0,255.0,255.0,255.0,255.0,255.0,255.0,255.0,255.0,255.0,255.0,255.0,255.0,255.0,255.0,255.0,255.0,255.0,255.0,255.0,255.0,255.0,255.0,255.0,255.0,255.0,255.0,255.0,255.0,255.0,255.0,255.0,255.0,255.0,255.0,255.0,255.0,255.0,255.0,255.0,255.0,255.0,255.0,255.0,255.0,255.0,255.0,255.0,255.0,255.0,255.0,255.0,255.0,255.0,255.0,255.0,255.0,255.0,255.0,255.0,255.0,255.0,255.0,255.0,255.0,255.0,255.0,255.0,255.0,255.0,255.0,255.0,255.0,255.0,255.0,255.0,255.0,255.0,255.0,255.0,255.0,255.0,255.0,255.0,255.0,255.0,255.0,255.0,255.0,255.0,255.0,255.0,255.0,255.0,255.0,255.0,255.0,255.0,255.0,255.0,255.0,255.0,255.0,255.0,255.0,255.0,255.0,255.0,255.0,255.0,255.0,255.0,255.0,255.0,255.0,255.0,255.0,255.0,255.0,255.0,255.0,255.0,255.0,255.0,255.0,255.0,255.0,255.0,255.0,255.0,255.0,255.0,255.0,255.0,255.0,255.0,255.0,255.0,255.0,255.0,255.0,255.0,255.0,255.0,255.0,255.0,255.0,255.0,255.0,255.0,255.0,255.0,255.0,255.0,255.0,255.0,255.0,255.0,255.0,255.0,255.0,255.0,255.0,255.0,255.0,255.0,255.0,255.0,255.0,255.0,255.0,255.0,255.0,255.0,255.0,255.0,255.0,255.0,255.0,255.0,255.0,255.0,255.0,255.0,255.0,255.0,255.0,255.0,255.0,255.0,255.0,255.0,255.0,255.0,255.0,255.0,255.0,255.0,255.0,255.0,255.0,255.0,255.0,255.0,255.0,255.0,255.0,255.0,255.0,255.0,255.0,255.0,255.0,255.0,255.0,255.0,255.0,255.0,255.0,255.0,255.0,255.0,255.0,255.0,255.0,255.0,255.0,255.0,255.0,255.0,255.0,255.0,255.0,255.0,255.0,255.0,255.0,255.0,255.0,255.0,255.0,255.0,255.0,255.0,255.0,255.0,255.0,255.0,255.0,255.0,255.0,255.0,255.0,255.0,255.0,255.0,255.0,255.0,255.0,255.0,255.0,255.0,255.0,255.0,255.0,255.0,255.0,255.0,255.0,255.0,255.0,255.0,255.0,255.0,255.0,255.0,255.0,255.0,255.0,255.0,255.0,255.0,255.0,255.0,255.0,255.0,255.0,255.0,255.0,255.0,255.0,255.0,255.0,255.0,255.0,255.0,255.0,255.0,255.0,255.0,255.0,255.0,255.0,255.0,255.0,255.0,255.0,255.0,255.0,255.0,255.0,255.0,255.0,255.0,255.0,255.0,255.0,255.0,255.0,255.0,255.0,255.0,255.0,255.0,255.0,255.0,255.0,255.0,255.0,255.0,255.0,255.0,255.0,255.0,255.0,255.0,255.0,255.0,255.0,255.0,255.0,255.0,255.0,255.0,255.0,255.0,255.0,255.0,255.0,255.0,255.0,255.0,255.0,255.0,255.0,255.0,255.0,255.0,255.0,255.0,255.0,255.0,255.0,255.0,255.0,255.0,255.0,255.0,255.0,255.0,255.0,255.0,255.0,255.0,255.0,255.0,255.0,255.0,255.0,255.0,255.0,255.0,255.0,255.0,255.0,255.0,255.0,255.0,255.0,255.0,255.0,255.0,255.0,255.0,255.0,255.0,255.0,255.0,255.0,255.0,255.0,255.0,255.0,255.0,255.0,255.0,255.0,255.0,255.0,255.0,255.0,255.0,255.0,255.0,255.0,255.0,255.0,255.0,255.0,255.0,255.0,255.0,255.0,255.0,255.0,255.0,255.0,255.0,255.0,255.0,255.0,255.0,255.0,255.0,255.0,255.0,255.0,255.0,255.0,255.0,255.0,255.0,255.0,255.0,255.0,255.0,255.0,255.0,255.0,255.0,255.0,255.0,255.0,255.0,255.0,255.0,255.0,255.0,255.0,255.0,255.0,255.0,255.0,255.0,255.0,255.0,255.0,255.0,255.0,255.0,255.0,255.0,255.0,255.0,255.0,255.0,255.0,255.0,255.0,255.0,255.0,255.0,255.0,255.0,255.0,255.0,255.0,255.0,255.0,255.0,255.0,255.0,255.0,255.0,255.0,255.0,255.0,255.0,255.0,255.0,255.0,255.0,255.0,255.0,255.0,255.0,255.0,255.0,255.0,255.0,255.0,255.0,255.0,255.0,255.0,255.0,255.0,255.0,255.0,255.0,255.0,255.0,255.0,255.0,255.0,255.0,255.0,255.0,255.0,255.0,255.0,255.0,255.0,255.0,255.0,255.0,255.0,255.0,255.0,255.0,255.0,255.0,255.0,255.0,255.0,255.0,255.0,255.0,255.0,255.0,255.0,255.0,255.0,255.0,255.0,255.0,255.0,255.0,255.0,255.0,255.0,255.0,255.0,255.0,255.0,255.0,255.0,255.0,255.0,255.0,255.0,255.0,255.0,255.0,255.0,255.0,255.0,255.0,255.0,255.0,255.0,255.0,255.0,255.0,255.0,255.0,255.0,255.0,255.0,255.0,255.0,255.0,255.0,255.0,255.0,255.0,255.0,255.0,255.0,255.0,255.0,255.0,255.0,255.0,255.0,255.0,255.0,255.0,255.0,255.0,255.0,255.0,255.0,255.0,255.0,255.0,255.0,255.0,255.0,255.0,255.0,255.0,255.0,255.0,255.0,255.0,255.0,255.0,255.0,255.0,255.0,255.0,255.0,255.0,255.0,255.0,255.0,255.0,255.0,255.0,255.0,255.0,255.0,255.0,255.0,255.0,255.0,255.0,255.0,255.0,255.0,255.0,255.0,255.0,255.0,255.0,255.0,255.0,255.0,255.0,255.0,255.0,255.0,255.0,255.0,255.0,255.0,255.0,255.0,255.0,255.0,255.0,255.0,255.0,255.0,255.0,255.0,255.0,255.0,255.0,255.0,255.0,255.0,255.0,255.0,255.0,255.0,255.0,255.0,255.0,255.0,255.0,255.0,255.0,255.0,255.0,255.0,255.0,255.0,255.0,255.0,255.0,255.0,255.0,255.0,255.0,255.0,255.0,255.0,255.0,255.0,255.0,255.0,255.0,255.0,255.0,255.0,255.0,255.0,255.0,255.0,255.0,255.0,255.0,255.0,255.0,255.0,255.0,255.0,255.0,255.0,255.0,255.0,255.0,255.0,255.0,255.0,255.0,255.0,255.0,255.0,255.0,255.0,255.0,255.0,255.0,255.0,255.0,255.0,255.0,255.0,255.0,255.0,255.0,255.0,255.0,255.0,255.0,255.0,255.0,255.0,255.0,255.0,255.0,255.0,255.0,255.0,255.0,255.0,255.0,255.0,255.0,255.0,255.0,255.0,255.0,255.0,255.0,255.0,255.0,255.0,255.0,255.0,255.0,255.0,255.0,255.0,255.0,255.0,255.0,255.0,255.0,255.0,255.0,255.0,255.0,255.0,255.0,255.0,255.0,255.0,255.0,255.0,255.0,255.0,255.0,255.0,255.0,255.0,255.0,255.0,255.0,255.0,255.0,255.0,255.0,255.0,255.0,255.0,255.0,255.0,255.0,255.0,255.0,255.0,255.0,255.0,255.0,255.0,255.0,255.0,255.0,255.0,255.0,255.0,255.0,255.0,255.0,255.0,255.0,255.0,255.0,255.0,255.0,255.0,255.0,255.0,255.0,255.0,255.0,255.0,255.0,255.0,255.0,255.0,
127.0,127.0,127.0,127.0,127.0,127.0,127.0,127.0,127.0,127.0,127.0,127.0,127.0,127.0,127.0,127.0,127.0,127.0,127.0,127.0,127.0,127.0,127.0,127.0,127.0,127.0,127.0,127.0,127.0,127.0,127.0,127.0,127.0,127.0,127.0,127.0,127.0,127.0,127.0,127.0,127.0,127.0,127.0,127.0,127.0,127.0,127.0,127.0,127.0,127.0,127.0,127.0,127.0,127.0,127.0,127.0,127.0,127.0,127.0,127.0,127.0,127.0,127.0,127.0,127.0,127.0,127.0,127.0,127.0,127.0,127.0,127.0,127.0,127.0,127.0,127.0,127.0,127.0,127.0,127.0,127.0,127.0,127.0,127.0,127.0,127.0,127.0,127.0,127.0,127.0,127.0,127.0,127.0,127.0,127.0,127.0,127.0,127.0,127.0,127.0,127.0,127.0,127.0,127.0,127.0,127.0,127.0,127.0,127.0,127.0,127.0,127.0,127.0,127.0,127.0,127.0,127.0,127.0,127.0,127.0,127.0,127.0,127.0,127.0,127.0,127.0,127.0,127.0,127.0,127.0,127.0,127.0,127.0,127.0,127.0,127.0,127.0,127.0,127.0,127.0,127.0,127.0,127.0,127.0,127.0,127.0,127.0,127.0,127.0,127.0,127.0,127.0,127.0,127.0,127.0,127.0,127.0,127.0,127.0,127.0,127.0,127.0,127.0,127.0,127.0,127.0,127.0,127.0,127.0,127.0,127.0,127.0,127.0,127.0,127.0,127.0,127.0,127.0,127.0,127.0,127.0,127.0,127.0,127.0,127.0,127.0,127.0,127.0,127.0,127.0,127.0,127.0,127.0,127.0,127.0,127.0,127.0,127.0,127.0,127.0,127.0,127.0,127.0,127.0,127.0,127.0,127.0,127.0,127.0,127.0,127.0,127.0,127.0,127.0,127.0,127.0,127.0,127.0,127.0,127.0,127.0,127.0,127.0,127.0,127.0,127.0,127.0,127.0,127.0,127.0,127.0,127.0,127.0,127.0,127.0,127.0,127.0,127.0,127.0,127.0,127.0,127.0,127.0,127.0,127.0,127.0,127.0,127.0,127.0,127.0,127.0,127.0,127.0,127.0,127.0,127.0,127.0,127.0,127.0,127.0,127.0,127.0,127.0,127.0,127.0,127.0,127.0,127.0,127.0,127.0,127.0,127.0,127.0,127.0,127.0,127.0,127.0,127.0,127.0,127.0,127.0,127.0,127.0,127.0,127.0,127.0,127.0,127.0,127.0,127.0,127.0,127.0,127.0,127.0,127.0,127.0,127.0,127.0,127.0,127.0,127.0,127.0,127.0,127.0,127.0,127.0,127.0,127.0,127.0,127.0,127.0,127.0,127.0,127.0,127.0,127.0,127.0,127.0,127.0,127.0,127.0,127.0,127.0,127.0,127.0,127.0,127.0,127.0,127.0,127.0,127.0,127.0,127.0,127.0,127.0,127.0,127.0,127.0,127.0,127.0,127.0,127.0,127.0,127.0,127.0,127.0,127.0,127.0,127.0,127.0,127.0,127.0,127.0,127.0,127.0,127.0,127.0,127.0,127.0,127.0,127.0,127.0,127.0,127.0,127.0,127.0,127.0,127.0,127.0,127.0,127.0,127.0,127.0,127.0,127.0,127.0,127.0,127.0,127.0,127.0,127.0,127.0,127.0,127.0,127.0,127.0,127.0,127.0,127.0,127.0,127.0,127.0,127.0,127.0,127.0,127.0,127.0,127.0,127.0,127.0,127.0,127.0,127.0,127.0,127.0,127.0,127.0,127.0,127.0,127.0,127.0,127.0,127.0,127.0,127.0,127.0,127.0,127.0,127.0,127.0,127.0,127.0,127.0,127.0,127.0,127.0,127.0,127.0,127.0,127.0,127.0,127.0,127.0,127.0,127.0,127.0,127.0,127.0,127.0,127.0,127.0,127.0,127.0,127.0,127.0,127.0,127.0,127.0,127.0,127.0,127.0,127.0,127.0,127.0,127.0,127.0,127.0,127.0,127.0,127.0,127.0,127.0,127.0,127.0,127.0,127.0,127.0,127.0,127.0,127.0,127.0,127.0,127.0,127.0,127.0,127.0,127.0,127.0,127.0,127.0,127.0,127.0,127.0,127.0,127.0,127.0,127.0,127.0,127.0,127.0,127.0,127.0,127.0,127.0,127.0,127.0,127.0,127.0,127.0,127.0,127.0,127.0,127.0,127.0,127.0,127.0,127.0,127.0,127.0,127.0,127.0,127.0,127.0,127.0,127.0,127.0,127.0,127.0,127.0,127.0,127.0,127.0,127.0,127.0,127.0,127.0,127.0,127.0,127.0,127.0,127.0,127.0,127.0,127.0,127.0,127.0,127.0,127.0,127.0,127.0,127.0,127.0,127.0,127.0,127.0,127.0,127.0,127.0,127.0,127.0,127.0,127.0,127.0,127.0,127.0,127.0,127.0,127.0,127.0,127.0,127.0,127.0,127.0,127.0,127.0,127.0,127.0,127.0,127.0,127.0,127.0,127.0,127.0,127.0,127.0,127.0,127.0,127.0,127.0,127.0,127.0,127.0,127.0,127.0,127.0,127.0,127.0,127.0,127.0,127.0,127.0,127.0,127.0,127.0,127.0,127.0,127.0,127.0,127.0,127.0,127.0,127.0,127.0,127.0,127.0,127.0,127.0,127.0,127.0,127.0,127.0,127.0,127.0,127.0,127.0,127.0,127.0,127.0,127.0,127.0,127.0,127.0,127.0,127.0,127.0,127.0,127.0,127.0,127.0,127.0,127.0,127.0,127.0,127.0,127.0,127.0,127.0,127.0,127.0,127.0,127.0,127.0,127.0,127.0,127.0,127.0,127.0,127.0,127.0,127.0,127.0,127.0,127.0,127.0,127.0,127.0,127.0,127.0,127.0,127.0,127.0,127.0,127.0,127.0,127.0,127.0,127.0,127.0,127.0,127.0,127.0,127.0,127.0,127.0,127.0,127.0,127.0,127.0,127.0,127.0,127.0,127.0,127.0,127.0,127.0,127.0,127.0,127.0,127.0,127.0,127.0,127.0,127.0,127.0,127.0,127.0,127.0,127.0,127.0,127.0,127.0,127.0,127.0,127.0,127.0,127.0,127.0,127.0,127.0,127.0,127.0,127.0,127.0,127.0,127.0,127.0,127.0,127.0,127.0,127.0,127.0,127.0,127.0,127.0,127.0,127.0,127.0,127.0,127.0,127.0,127.0,127.0,127.0,127.0,127.0,127.0,127.0,127.0,127.0,127.0,127.0,127.0,127.0,127.0,127.0,127.0,127.0,127.0,127.0,127.0,127.0,127.0,127.0,127.0,127.0,127.0,127.0,127.0,127.0,127.0,127.0,127.0,127.0,127.0,127.0,127.0,127.0,127.0,127.0,127.0,127.0,127.0,127.0,127.0,127.0,127.0,127.0,127.0,127.0,127.0,127.0,127.0,127.0,127.0,127.0,127.0,127.0,127.0,127.0,127.0,127.0,127.0,127.0,127.0,127.0,127.0,127.0,127.0,127.0,127.0,127.0,127.0,127.0,127.0,127.0,127.0,127.0,127.0,127.0,127.0,127.0,127.0,127.0,127.0,127.0,127.0,127.0,127.0,127.0,127.0,127.0,127.0,127.0,127.0,127.0,127.0,127.0,127.0,127.0,127.0,127.0,127.0,127.0,127.0,127.0,127.0,127.0,127.0,127.0,127.0,127.0,127.0,127.0,127.0,127.0,127.0,127.0,127.0,127.0,127.0,127.0,127.0,127.0,127.0,127.0,127.0,127.0,127.0,127.0,127.0,127.0,127.0,127.0,127.0,127.0,127.0,127.0,127.0,127.0,127.0,127.0,127.0,127.0,127.0,127.0,127.0,127.0,127.0,127.0,127.0,127.0,127.0,127.0,127.0,127.0,127.0,127.0,127.0,127.0,127.0,127.0,127.0,127.0,127.0,127.0,127.0,127.0,127.0,127.0,127.0,127.0,127.0,127.0,127.0,127.0,127.0,127.0,127.0,127.0,127.0,127.0,127.0,127.0,127.0,127.0,127.0,127.0,127.0,127.0,127.0,127.0,127.0,127.0,127.0,127.0,127.0,127.0,127.0,127.0,127.0,127.0,127.0,127.0,127.0,127.0,127.0,127.0,127.0,127.0,127.0,127.0,127.0,127.0,127.0,127.0,127.0,127.0,127.0,127.0,127.0,127.0,127.0,127.0,127.0,127.0,127.0,127.0,127.0,127.0,127.0,127.0,127.0,127.0,127.0,127.0,127.0,127.0,127.0,127.0,127.0,127.0,127.0,127.0,127.0,127.0,127.0,127.0,127.0,127.0,127.0,127.0,127.0,127.0,127.0,127.0,127.0,127.0,127.0,127.0,127.0,127.0,127.0,127.0,127.0,127.0,127.0,127.0,127.0,127.0,127.0,127.0,127.0,127.0,127.0,127.0,127.0,127.0,127.0,127.0,127.0,127.0,127.0,127.0,127.0,127.0,127.0,127.0,127.0,127.0,127.0,127.0,127.0,127.0,127.0,127.0,127.0,127.0,127.0,127.0,127.0,127.0,127.0,127.0,127.0,127.0,127.0,127.0,127.0,127.0,127.0,127.0,127.0,127.0,127.0,127.0,127.0,127.0,127.0,127.0,127.0,127.0,127.0,127.0,127.0,127.0,127.0,127.0,127.0,127.0,127.0,127.0,127.0,127.0,127.0,127.0,127.0,127.0,127.0,127.0,127.0,127.0,127.0,127.0,127.0,127.0,127.0,127.0,127.0,127.0,127.0,127.0,127.0,127.0,127.0,127.0,127.0,127.0,127.0,127.0,127.0,127.0,127.0,127.0,127.0,127.0,127.0,127.0,127.0,127.0,127.0,127.0,127.0,127.0,127.0,127.0,127.0,127.0,127.0,127.0,127.0,127.0,127.0,127.0,127.0,127.0,127.0,127.0,127.0,127.0,127.0,127.0,127.0,127.0,127.0,127.0,127.0,127.0,127.0,127.0,127.0,127.0,127.0,127.0,127.0,127.0,127.0,127.0,127.0,127.0,127.0,127.0,127.0,127.0,127.0,127.0,127.0,127.0,127.0,127.0,127.0,127.0,127.0,127.0,127.0,127.0,127.0,127.0,127.0,127.0,127.0,127.0,127.0,127.0,127.0,127.0,127.0,127.0,127.0,127.0,127.0,127.0,127.0,127.0,127.0,127.0,127.0,127.0,127.0,127.0,127.0,127.0,127.0,127.0,127.0,127.0,127.0,127.0,127.0,127.0,127.0,127.0,127.0,127.0,127.0,127.0,127.0,127.0,127.0,127.0,127.0,127.0,127.0,127.0,127.0,127.0,127.0,127.0,127.0,127.0,127.0,127.0,127.0,127.0,127.0,127.0,127.0,127.0,127.0,127.0,127.0,127.0,127.0,127.0,127.0,127.0,127.0,127.0,127.0,127.0,127.0,127.0,127.0,127.0,127.0,127.0,127.0,127.0,127.0,127.0,127.0,127.0,127.0,127.0,127.0,127.0,127.0,127.0,127.0,127.0,127.0,127.0,127.0,127.0,127.0,127.0,127.0,127.0,127.0,127.0,127.0,127.0,127.0,127.0,127.0,127.0,127.0,127.0,127.0,127.0,127.0,127.0,127.0,127.0,127.0,127.0,127.0,127.0,127.0,127.0,127.0,127.0,127.0,127.0,127.0,127.0,127.0,127.0,127.0,127.0,127.0,127.0,127.0,127.0,127.0,127.0,127.0,127.0,127.0,127.0,127.0,127.0,127.0,127.0,127.0,127.0,127.0,127.0,127.0,127.0,127.0,127.0,127.0,127.0,127.0,127.0,127.0,127.0,127.0,127.0,127.0,127.0,127.0,127.0,127.0,127.0,127.0,127.0,127.0,127.0,127.0,127.0,127.0,127.0,127.0,127.0,127.0,127.0,127.0,127.0,127.0,127.0,127.0,127.0,127.0,127.0,127.0,127.0,127.0,127.0,127.0,127.0,127.0,127.0,127.0,127.0,127.0,127.0,127.0,127.0,127.0,127.0,127.0,127.0,127.0,127.0,127.0,127.0,127.0,127.0,127.0,127.0,127.0,127.0,127.0,127.0,127.0,127.0,127.0,127.0,127.0,127.0,127.0,127.0,127.0,127.0,127.0,127.0,127.0,127.0,127.0,127.0,127.0,127.0,127.0,127.0,127.0,127.0,127.0,127.0,127.0,127.0,127.0,127.0,127.0,127.0,127.0,127.0,127.0,127.0,127.0,127.0,127.0,127.0,127.0,127.0,127.0,127.0,127.0,127.0,127.0,127.0,127.0,127.0,127.0,127.0,127.0,127.0,127.0,127.0,127.0,127.0,127.0,127.0,127.0,127.0,127.0,127.0,127.0,127.0,127.0,127.0,127.0,127.0,127.0,127.0,127.0,127.0,127.0,127.0,127.0,127.0,127.0,127.0,127.0,127.0,127.0,127.0,127.0,127.0,127.0,127.0,127.0,127.0,127.0,127.0,127.0,127.0,127.0,127.0,127.0,127.0,127.0,127.0,127.0,127.0,127.0,127.0,127.0,127.0,127.0,127.0,127.0,127.0,127.0,127.0,127.0,127.0,127.0,127.0,127.0,127.0,127.0,127.0,127.0,127.0,127.0,127.0,127.0,127.0,127.0,127.0,127.0,127.0,127.0,127.0,127.0,127.0,127.0,127.0,127.0,127.0,127.0,127.0,127.0,127.0,127.0,127.0,127.0,127.0,127.0,127.0,127.0,127.0,127.0,127.0,127.0,127.0,127.0,127.0,127.0,127.0,127.0,127.0,127.0,127.0,127.0,127.0,127.0,127.0,127.0,127.0,127.0,127.0,127.0,127.0,127.0,127.0,127.0,127.0,127.0,127.0,127.0,127.0,127.0,127.0,127.0,127.0,127.0,127.0,127.0,127.0,127.0,127.0,127.0,127.0,127.0,127.0,127.0,127.0,127.0,127.0,127.0,127.0,127.0,127.0,127.0,127.0,127.0,127.0,127.0,127.0,127.0,127.0,127.0,127.0,127.0,127.0,127.0,127.0,127.0,127.0,127.0,127.0,127.0,127.0,127.0,127.0,127.0,127.0,127.0,127.0,127.0,127.0,127.0,127.0,127.0,127.0,127.0,127.0,127.0,127.0,127.0,127.0,127.0,127.0,127.0,127.0,127.0,127.0,127.0,127.0,127.0,127.0,127.0,127.0,127.0,127.0,127.0,127.0,127.0,127.0,127.0,127.0,127.0,127.0,127.0,127.0,127.0,127.0,127.0,127.0,127.0,127.0,127.0,127.0,127.0,127.0,127.0,127.0,127.0,127.0,127.0,127.0,127.0,127.0,127.0,127.0,127.0,127.0,127.0,127.0,127.0,127.0,127.0,127.0,127.0,127.0,127.0,127.0,127.0,127.0,127.0,127.0,127.0,127.0,127.0,127.0,127.0,127.0,127.0,127.0,127.0,127.0,127.0,127.0,127.0,127.0,127.0,127.0,127.0,127.0,127.0,127.0,127.0,127.0,127.0,127.0,127.0,127.0,127.0,127.0,127.0,127.0,127.0,127.0,127.0,127.0,127.0,127.0,127.0,127.0,127.0,127.0,127.0,127.0,127.0,127.0,127.0,127.0,127.0,127.0,127.0,127.0,127.0,127.0,127.0,127.0,127.0,127.0,127.0,127.0,127.0,127.0,127.0,127.0,127.0,127.0,127.0,127.0,127.0,127.0,127.0,127.0,127.0,127.0,127.0,127.0,127.0,127.0,127.0,127.0,127.0,127.0,127.0,127.0,127.0,127.0,127.0,127.0,127.0,127.0,127.0,127.0,127.0,127.0,127.0,127.0,127.0,127.0,127.0,127.0,127.0,127.0,127.0,127.0,127.0,127.0,127.0,127.0,127.0,127.0,127.0,127.0,127.0,127.0,127.0,127.0,127.0,127.0,127.0,127.0,127.0,127.0,127.0,127.0,127.0,127.0,127.0,127.0,127.0,127.0,127.0,127.0,127.0,127.0,127.0,127.0,127.0,127.0,127.0,127.0,127.0,127.0,127.0,127.0,127.0,127.0,127.0,127.0,127.0,127.0,127.0,127.0,127.0,127.0,127.0,127.0,127.0,127.0,127.0,127.0,127.0,127.0,127.0,127.0,127.0,127.0,127.0,127.0,127.0,127.0,127.0,127.0,127.0,127.0,127.0,127.0,127.0,127.0,127.0,127.0,127.0,127.0,127.0,127.0,127.0,127.0,127.0,127.0,127.0,127.0,127.0,127.0,127.0,127.0,127.0,127.0,127.0,127.0,127.0,127.0,127.0,127.0,127.0,127.0,127.0,127.0,127.0,127.0,127.0,127.0,127.0,127.0,127.0,127.0,127.0,127.0,127.0,127.0,127.0,127.0,127.0,127.0,127.0,127.0,127.0,127.0,127.0,127.0,127.0,127.0,127.0,127.0,127.0,127.0,127.0,127.0,127.0,127.0,127.0,127.0,127.0,127.0,127.0,127.0,127.0,127.0,127.0,127.0,127.0,127.0,127.0,127.0,127.0,127.0,127.0,127.0,127.0,127.0,127.0,127.0,127.0,127.0,127.0,127.0,127.0,127.0,127.0,127.0,127.0,127.0,127.0,127.0,127.0,127.0,127.0,127.0,127.0,127.0,127.0,127.0,127.0,127.0,127.0,127.0,127.0,127.0,127.0,127.0,127.0,127.0,127.0,127.0,127.0,127.0,127.0,127.0,127.0,127.0,127.0,127.0,127.0,127.0,127.0,127.0,127.0,127.0,127.0,127.0,127.0,127.0,127.0,127.0,127.0,127.0,127.0,127.0,127.0,127.0,127.0,127.0,127.0,127.0,127.0,127.0,127.0,127.0,127.0,127.0,127.0,127.0,127.0,127.0,127.0,127.0,127.0,127.0,127.0,127.0,127.0,127.0,127.0,127.0,127.0,127.0,127.0,127.0,127.0,127.0,127.0,127.0,127.0,127.0,127.0,127.0,127.0,127.0,127.0,127.0,127.0,127.0,127.0,127.0,127.0,127.0,127.0,127.0,127.0,127.0,127.0,127.0,127.0,127.0,127.0,127.0,127.0,127.0,127.0,127.0,127.0,127.0,127.0,127.0,127.0,127.0,127.0,127.0,127.0,127.0,127.0,127.0,127.0,127.0,127.0,127.0,127.0,127.0,127.0,127.0,127.0,127.0,127.0,127.0,127.0,127.0,127.0,127.0,127.0,127.0,127.0,127.0,127.0,127.0,127.0,127.0,127.0,127.0,127.0,127.0,127.0,127.0,127.0,127.0,127.0,127.0,127.0,127.0,127.0,127.0,127.0,127.0,127.0,127.0,127.0,127.0,127.0,127.0,127.0,127.0,127.0,127.0,127.0,127.0,127.0,127.0,127.0,127.0,127.0,127.0,127.0,127.0,127.0,127.0,127.0,127.0,127.0,127.0,127.0,127.0,127.0,127.0,127.0,127.0,127.0,127.0,127.0,127.0,127.0,127.0,127.0,127.0,127.0,127.0,127.0,127.0,127.0,127.0,127.0,127.0,127.0,127.0,127.0,127.0,127.0,127.0,127.0,127.0,127.0,127.0,127.0,127.0,127.0,127.0,127.0,127.0,127.0,127.0,127.0,127.0,127.0,127.0,127.0,127.0,127.0,127.0,127.0,127.0,127.0,127.0,127.0,127.0,127.0,127.0,127.0,127.0,127.0,127.0,127.0,127.0,127.0,127.0,127.0,127.0,127.0,127.0,127.0,127.0,127.0,127.0,127.0,127.0,127.0,127.0,127.0,127.0,127.0,127.0,127.0,127.0,127.0,127.0,127.0,127.0,127.0,127.0,127.0,127.0,127.0,127.0,127.0,127.0,127.0,127.0,127.0,127.0,127.0,127.0,127.0,127.0,127.0,127.0,127.0,127.0,127.0,127.0,127.0,127.0,127.0,127.0,127.0,127.0,127.0,127.0,127.0,127.0,127.0,127.0,127.0,127.0,127.0,127.0,127.0,127.0,127.0,127.0,127.0,127.0,127.0,127.0,127.0,127.0,127.0,127.0,127.0,127.0,127.0,127.0,127.0,127.0,127.0,127.0,127.0,127.0,127.0,127.0,127.0,127.0,127.0,127.0,127.0,127.0,127.0,127.0,127.0,127.0,127.0,127.0,127.0,127.0,127.0,127.0,127.0,127.0,127.0,127.0,127.0,127.0,127.0,127.0,127.0,127.0,127.0,127.0,127.0,127.0,127.0,127.0,127.0,127.0,127.0,127.0,127.0,127.0,127.0,127.0,127.0,127.0,127.0,127.0,127.0,127.0,127.0,127.0,127.0,127.0,127.0,127.0,127.0,127.0,127.0,127.0,127.0,127.0,127.0,127.0,127.0,127.0,127.0,127.0,127.0,127.0,127.0,127.0,127.0,127.0,127.0,127.0,127.0,127.0,127.0,127.0,127.0,
255.0,255.0,255.0,255.0,255.0,255.0,255.0,255.0,255.0,255.0,255.0,255.0,255.0,255.0,255.0,255.0,255.0,255.0,255.0,255.0,255.0,255.0,255.0,255.0,255.0,255.0,255.0,255.0,255.0,255.0,255.0,255.0,255.0,255.0,255.0,255.0,255.0,255.0,255.0,255.0,255.0,255.0,255.0,255.0,255.0,255.0,255.0,255.0,255.0,255.0,255.0,255.0,255.0,255.0,255.0,255.0,255.0,255.0,255.0,255.0,255.0,255.0,255.0,255.0,255.0,255.0,255.0,255.0,255.0,255.0,255.0,255.0,255.0,255.0,255.0,255.0,255.0,255.0,255.0,255.0,255.0,255.0,255.0,255.0,255.0,255.0,255.0,255.0,255.0,255.0,255.0,255.0,255.0,255.0,255.0,255.0,255.0,255.0,255.0,255.0,255.0,255.0,255.0,255.0,255.0,255.0,255.0,255.0,255.0,255.0,255.0,255.0,255.0,255.0,255.0,255.0,255.0,255.0,255.0,255.0,255.0,255.0,255.0,255.0,255.0,255.0,255.0,255.0,255.0,255.0,255.0,255.0,255.0,255.0,255.0,255.0,255.0,255.0,255.0,255.0,255.0,255.0,255.0,255.0,255.0,255.0,255.0,255.0,255.0,255.0,255.0,255.0,255.0,255.0,255.0,255.0,255.0,255.0,255.0,255.0,255.0,255.0,255.0,255.0,255.0,255.0,255.0,255.0,255.0,255.0,255.0,255.0,255.0,255.0,255.0,255.0,255.0,255.0,255.0,255.0,255.0,255.0,255.0,255.0,255.0,255.0,255.0,255.0,255.0,255.0,255.0,255.0,255.0,255.0,255.0,255.0,255.0,255.0,255.0,255.0,255.0,255.0,255.0,255.0,255.0,255.0,255.0,255.0,255.0,255.0,255.0,255.0,255.0,255.0,255.0,255.0,255.0,255.0,255.0,255.0,255.0,255.0,255.0,255.0,255.0,255.0,255.0,255.0,255.0,255.0,255.0,255.0,255.0,255.0,255.0,255.0,255.0,255.0,255.0,255.0,255.0,255.0,255.0,255.0,255.0,255.0,255.0,255.0,255.0,255.0,255.0,255.0,255.0,255.0,255.0,255.0,255.0,255.0,255.0,255.0,255.0,255.0,255.0,255.0,255.0,255.0,255.0,255.0,255.0,255.0,255.0,255.0,255.0,255.0,255.0,255.0,255.0,255.0,255.0,255.0,255.0,255.0,255.0,255.0,255.0,255.0,255.0,255.0,255.0,255.0,255.0,255.0,255.0,255.0,255.0,255.0,255.0,255.0,255.0,255.0,255.0,255.0,255.0,255.0,255.0,255.0,255.0,255.0,255.0,255.0,255.0,255.0,255.0,255.0,255.0,255.0,255.0,255.0,255.0,255.0,255.0,255.0,255.0,255.0,255.0,255.0,255.0,255.0,255.0,255.0,255.0,255.0,255.0,255.0,255.0,255.0,255.0,255.0,255.0,255.0,255.0,255.0,255.0,255.0,255.0,255.0,255.0,255.0,255.0,255.0,255.0,255.0,255.0,255.0,255.0,255.0,255.0,255.0,255.0,255.0,255.0,255.0,255.0,255.0,255.0,255.0,255.0,255.0,255.0,255.0,255.0,255.0,255.0,255.0,255.0,255.0,255.0,255.0,255.0,255.0,255.0,255.0,255.0,255.0,255.0,255.0,255.0,255.0,255.0,255.0,255.0,255.0,255.0,255.0,255.0,255.0,255.0,255.0,255.0,255.0,255.0,255.0,255.0,255.0,255.0,255.0,255.0,255.0,255.0,255.0,255.0,255.0,255.0,255.0,255.0,255.0,255.0,255.0,255.0,255.0,255.0,255.0,255.0,255.0,255.0,255.0,255.0,255.0,255.0,255.0,255.0,255.0,255.0,255.0,255.0,255.0,255.0,255.0,255.0,255.0,255.0,255.0,255.0,255.0,255.0,255.0,255.0,255.0,255.0,255.0,255.0,255.0,255.0,255.0,255.0,255.0,255.0,255.0,255.0,255.0,255.0,255.0,255.0,255.0,255.0,255.0,255.0,255.0,255.0,255.0,255.0,255.0,255.0,255.0,255.0,255.0,255.0,255.0,255.0,255.0,255.0,255.0,255.0,255.0,255.0,255.0,255.0,255.0,255.0,255.0,255.0,255.0,255.0,255.0,255.0,255.0,255.0,255.0,255.0,255.0,255.0,255.0,255.0,255.0,255.0,255.0,255.0,255.0,255.0,255.0,255.0,255.0,255.0,255.0,255.0,255.0,255.0,255.0,255.0,255.0,255.0,255.0,255.0,255.0,255.0,255.0,255.0,255.0,255.0,255.0,255.0,255.0,255.0,255.0,255.0,255.0,255.0,255.0,255.0,255.0,255.0,255.0,255.0,255.0,255.0,255.0,255.0,255.0,255.0,255.0,255.0,255.0,255.0,255.0,255.0,255.0,255.0,255.0,255.0,255.0,255.0,255.0,255.0,255.0,255.0,255.0,255.0,255.0,255.0,255.0,255.0,255.0,255.0,255.0,255.0,255.0,255.0,255.0,255.0,255.0,255.0,255.0,255.0,255.0,255.0,255.0,255.0,255.0,255.0,255.0,255.0,255.0,255.0,255.0,255.0,255.0,255.0,255.0,255.0,255.0,255.0,255.0,255.0,255.0,255.0,255.0,255.0,255.0,255.0,255.0,255.0,255.0,255.0,255.0,255.0,255.0,255.0,255.0,255.0,255.0,255.0,255.0,255.0,255.0,255.0,255.0,255.0,255.0,255.0,255.0,255.0,255.0,255.0,255.0,255.0,255.0,255.0,255.0,255.0,255.0,255.0,255.0,255.0,255.0,255.0,255.0,255.0,255.0,255.0,255.0,255.0,255.0,255.0,255.0,255.0,255.0,255.0,255.0,255.0,255.0,255.0,255.0,255.0,255.0,255.0,255.0,255.0,255.0,255.0,255.0,255.0,255.0,255.0,255.0,255.0,255.0,255.0,255.0,255.0,255.0,255.0,255.0,255.0,255.0,255.0,255.0,255.0,255.0,255.0,255.0,255.0,255.0,255.0,255.0,255.0,255.0,255.0,255.0,255.0,255.0,255.0,255.0,255.0,255.0,255.0,255.0,255.0,255.0,255.0,255.0,255.0,255.0,255.0,255.0,255.0,255.0,255.0,255.0,255.0,255.0,255.0,255.0,255.0,255.0,255.0,255.0,255.0,255.0,255.0,255.0,255.0,255.0,255.0,255.0,255.0,255.0,255.0,255.0,255.0,255.0,255.0,255.0,255.0,255.0,255.0,255.0,255.0,255.0,255.0,255.0,255.0,255.0,255.0,255.0,255.0,255.0,255.0,255.0,255.0,255.0,255.0,255.0,255.0,255.0,255.0,255.0,255.0,255.0,255.0,255.0,255.0,255.0,255.0,255.0,255.0,255.0,255.0,255.0,255.0,255.0,255.0,255.0,255.0,255.0,255.0,255.0,255.0,255.0,255.0,255.0,255.0,255.0,255.0,255.0,255.0,255.0,255.0,255.0,255.0,255.0,255.0,255.0,255.0,255.0,255.0,255.0,255.0,255.0,255.0,255.0,255.0,255.0,255.0,255.0,255.0,255.0,255.0,255.0,255.0,255.0,255.0,255.0,255.0,255.0,255.0,255.0,255.0,255.0,255.0,255.0,255.0,255.0,255.0,255.0,255.0,255.0,255.0,255.0,255.0,255.0,255.0,255.0,255.0,255.0,255.0,255.0,255.0,255.0,255.0,255.0,255.0,255.0,255.0,255.0,255.0,255.0,255.0,255.0,255.0,255.0,255.0,255.0,255.0,255.0,255.0,255.0,255.0,255.0,255.0,255.0,255.0,255.0,255.0,255.0,255.0,255.0,255.0,255.0,255.0,255.0,255.0,255.0,255.0,255.0,255.0,255.0,255.0,255.0,255.0,255.0,255.0,255.0,255.0,255.0,255.0,255.0,255.0,255.0,255.0,255.0,255.0,255.0,255.0,255.0,255.0,255.0,255.0,255.0,255.0,255.0,255.0,255.0,255.0,255.0,255.0,255.0,255.0,255.0,255.0,255.0,255.0,255.0,255.0,255.0,255.0,255.0,255.0,255.0,255.0,255.0,255.0,255.0,255.0,255.0,255.0,255.0,255.0,255.0,255.0,255.0,255.0,255.0,255.0,255.0,255.0,255.0,255.0,255.0,255.0,255.0,255.0,255.0,255.0,255.0,255.0,255.0,255.0,255.0,255.0,255.0,255.0,255.0,255.0,255.0,255.0,255.0,255.0,255.0,255.0,255.0,255.0,255.0,255.0,255.0,255.0,255.0,255.0,255.0,255.0,255.0,255.0,255.0,255.0,255.0,255.0,255.0,255.0,255.0,255.0,255.0,255.0,255.0,255.0,255.0,255.0,255.0,255.0,255.0,255.0,255.0,255.0,255.0,255.0,255.0,255.0,255.0,255.0,255.0,255.0,255.0,255.0,255.0,255.0,255.0,255.0,255.0,255.0,255.0,255.0,255.0,255.0,255.0,255.0,255.0,255.0,255.0,255.0,255.0,255.0,255.0,255.0,255.0,255.0,255.0,255.0,255.0,255.0,255.0,255.0,255.0,255.0,255.0,255.0,255.0,255.0,255.0,255.0,255.0,255.0,255.0,255.0,255.0,255.0,255.0,255.0,255.0,255.0,255.0,255.0,255.0,255.0,255.0,255.0,255.0,255.0,255.0,255.0,255.0,255.0,255.0,255.0,255.0,255.0,255.0,255.0,255.0,255.0,255.0,255.0,255.0,255.0,255.0,255.0,255.0,255.0,255.0,255.0,255.0,255.0,255.0,255.0,255.0,255.0,255.0,255.0,255.0,255.0,255.0,255.0,255.0,255.0,255.0,255.0,255.0,255.0,255.0,255.0,255.0,255.0,255.0,255.0,255.0,255.0,255.0,255.0,255.0,255.0,255.0,255.0,255.0,255.0,255.0,255.0,255.0,255.0,255.0,255.0,255.0,255.0,255.0,255.0,255.0,255.0,255.0,255.0,255.0,255.0,255.0,255.0,255.0,255.0,255.0,255.0,255.0,255.0,255.0,255.0,255.0,255.0,255.0,255.0,255.0,255.0,255.0,255.0,255.0,255.0,255.0,255.0,255.0,255.0,255.0,255.0,255.0,255.0,255.0,255.0,255.0,255.0,255.0,255.0,255.0,255.0,255.0,255.0,255.0,255.0,255.0,255.0,255.0,255.0,255.0,255.0,255.0,255.0,255.0,255.0,255.0,255.0,255.0,255.0,255.0,255.0,255.0,255.0,255.0,255.0,255.0,255.0,255.0,255.0,255.0,255.0,255.0,255.0,255.0,255.0,255.0,255.0,255.0,255.0,255.0,255.0,255.0,255.0,255.0,255.0,255.0,255.0,255.0,255.0,255.0,255.0,255.0,255.0,255.0,255.0,255.0,255.0,255.0,255.0,255.0,255.0,255.0,255.0,255.0,255.0,255.0,255.0,255.0,255.0,255.0,255.0,255.0,255.0,255.0,255.0,255.0,255.0,255.0,255.0,255.0,255.0,255.0,255.0,255.0,255.0,255.0,255.0,255.0,255.0,255.0,255.0,255.0,255.0,255.0,255.0,255.0,255.0,255.0,255.0,255.0,255.0,255.0,255.0,255.0,255.0,255.0,255.0,255.0,255.0,255.0,255.0,255.0,255.0,255.0,255.0,255.0,255.0,255.0,255.0,255.0,255.0,255.0,255.0,255.0,255.0,255.0,255.0,255.0,255.0,255.0,255.0,255.0,255.0,255.0,255.0,255.0,255.0,255.0,255.0,255.0,255.0,255.0,255.0,255.0,255.0,255.0,255.0,255.0,255.0,255.0,255.0,255.0,255.0,255.0,255.0,255.0,255.0,255.0,255.0,255.0,255.0,255.0,255.0,255.0,255.0,255.0,255.0,255.0,255.0,255.0,255.0,255.0,255.0,255.0,255.0,255.0,255.0,255.0,255.0,255.0,255.0,255.0,255.0,255.0,255.0,255.0,255.0,255.0,255.0,255.0,255.0,255.0,255.0,255.0,255.0,255.0,255.0,255.0,255.0,255.0,255.0,255.0,255.0,255.0,255.0,255.0,255.0,255.0,255.0,255.0,255.0,255.0,255.0,255.0,255.0,255.0,255.0,255.0,255.0,255.0,255.0,255.0,255.0,255.0,255.0,255.0,255.0,255.0,255.0,255.0,255.0,255.0,255.0,255.0,255.0,255.0,255.0,255.0,255.0,255.0,255.0,255.0,255.0,255.0,255.0,255.0,255.0,255.0,255.0,255.0,255.0,255.0,255.0,255.0,255.0,255.0,255.0,255.0,255.0,255.0,255.0,255.0,255.0,255.0,255.0,255.0,255.0,255.0,255.0,255.0,255.0,255.0,255.0,255.0,255.0,255.0,255.0,255.0,255.0,255.0,255.0,255.0,255.0,255.0,255.0,255.0,255.0,255.0,255.0,255.0,255.0,255.0,255.0,255.0,255.0,255.0,255.0,255.0,255.0,255.0,255.0,255.0,255.0,255.0,255.0,255.0,255.0,255.0,255.0,255.0,255.0,255.0,255.0,255.0,255.0,255.0,255.0,255.0,255.0,255.0,255.0,255.0,255.0,255.0,255.0,255.0,255.0,255.0,255.0,255.0,255.0,255.0,255.0,255.0,255.0,255.0,255.0,255.0,255.0,255.0,255.0,255.0,255.0,255.0,255.0,255.0,255.0,255.0,255.0,255.0,255.0,255.0,255.0,255.0,255.0,255.0,255.0,255.0,255.0,255.0,255.0,255.0,255.0,255.0,255.0,255.0,255.0,255.0,255.0,255.0,255.0,255.0,255.0,255.0,255.0,255.0,255.0,255.0,255.0,255.0,255.0,255.0,255.0,255.0,255.0,255.0,255.0,255.0,255.0,255.0,255.0,255.0,255.0,255.0,255.0,255.0,255.0,255.0,255.0,255.0,255.0,255.0,255.0,255.0,255.0,255.0,255.0,255.0,255.0,255.0,255.0,255.0,255.0,255.0,255.0,255.0,255.0,255.0,255.0,255.0,255.0,255.0,255.0,255.0,255.0,255.0,255.0,255.0,255.0,255.0,255.0,255.0,255.0,255.0,255.0,255.0,255.0,255.0,255.0,255.0,255.0,255.0,255.0,255.0,255.0,255.0,255.0,255.0,255.0,255.0,255.0,255.0,255.0,255.0,255.0,255.0,255.0,255.0,255.0,255.0,255.0,255.0,255.0,255.0,255.0,255.0,255.0,255.0,255.0,255.0,255.0,255.0,255.0,255.0,255.0,255.0,255.0,255.0,255.0,255.0,255.0,255.0,255.0,255.0,255.0,255.0,255.0,255.0,255.0,255.0,255.0,255.0,255.0,255.0,255.0,255.0,255.0,255.0,255.0,255.0,255.0,255.0,255.0,255.0,255.0,255.0,255.0,255.0,255.0,255.0,255.0,255.0,255.0,255.0,255.0,255.0,255.0,255.0,255.0,255.0,255.0,255.0,255.0,255.0,255.0,255.0,255.0,255.0,255.0,255.0,255.0,255.0,255.0,255.0,255.0,255.0,255.0,255.0,255.0,255.0,255.0,255.0,255.0,255.0,255.0,255.0,255.0,255.0,255.0,255.0,255.0,255.0,255.0,255.0,255.0,255.0,255.0,255.0,255.0,255.0,255.0,255.0,255.0,255.0,255.0,255.0,255.0,255.0,255.0,255.0,255.0,255.0,255.0,255.0,255.0,255.0,255.0,255.0,255.0,255.0,255.0,255.0,255.0,255.0,255.0,255.0,255.0,255.0,255.0,255.0,255.0,255.0,255.0,255.0,255.0,255.0,255.0,255.0,255.0,255.0,255.0,255.0,255.0,255.0,255.0,255.0,255.0,255.0,255.0,255.0,255.0,255.0,255.0,255.0,255.0,255.0,255.0,255.0,255.0,255.0,255.0,255.0,255.0,255.0,255.0,255.0,255.0,255.0,255.0,255.0,255.0,255.0,255.0,255.0,255.0,255.0,255.0,255.0,255.0,255.0,255.0,255.0,255.0,255.0,255.0,255.0,255.0,255.0,255.0,255.0,255.0,255.0,255.0,255.0,255.0,255.0,255.0,255.0,255.0,255.0,255.0,255.0,255.0,255.0,255.0,255.0,255.0,255.0,255.0,255.0,255.0,255.0,255.0,255.0,255.0,255.0,255.0,255.0,255.0,255.0,255.0,255.0,255.0,255.0,255.0,255.0,255.0,255.0,255.0,255.0,255.0,255.0,255.0,255.0,255.0,255.0,255.0,255.0,255.0,255.0,255.0,255.0,255.0,255.0,255.0,255.0,255.0,255.0,255.0,255.0,255.0,255.0,255.0,255.0,255.0,255.0,255.0,255.0,255.0,255.0,255.0,255.0,255.0,255.0,255.0,255.0,255.0,255.0,255.0,255.0,255.0,255.0,255.0,255.0,255.0,255.0,255.0,255.0,255.0,255.0,255.0,255.0,255.0,255.0,255.0,255.0,255.0,255.0,255.0,255.0,255.0,255.0,255.0,255.0,255.0,255.0,255.0,255.0,255.0,255.0,255.0,255.0,255.0,255.0,255.0,255.0,255.0,255.0,255.0,255.0,255.0,255.0,255.0,255.0,255.0,255.0,255.0,255.0,255.0,255.0,255.0,255.0,255.0,255.0,255.0,255.0,255.0,255.0,255.0,255.0,255.0,255.0,255.0,255.0,255.0,255.0,255.0,255.0,255.0,255.0,255.0,255.0,255.0,255.0,255.0,255.0,255.0,255.0,255.0,255.0,255.0,255.0,255.0,255.0,255.0,255.0,255.0,255.0,255.0,255.0,255.0,255.0,255.0,255.0,255.0,255.0,255.0,255.0,255.0,255.0,255.0,255.0,255.0,255.0,255.0,255.0,255.0,255.0,255.0,255.0,255.0,255.0,255.0,255.0,255.0,255.0,255.0,255.0,255.0,255.0,255.0,255.0,255.0,255.0,255.0,255.0,255.0,255.0,255.0,255.0,255.0,255.0,255.0,255.0,255.0,255.0,255.0,255.0,255.0,255.0,255.0,255.0,255.0,255.0,255.0,255.0,255.0,255.0,255.0,255.0,255.0,255.0,255.0,255.0,255.0,255.0,255.0,255.0,255.0,255.0,255.0,255.0,255.0,255.0,255.0,255.0,255.0,255.0,255.0,255.0,255.0,255.0,255.0,255.0,255.0,255.0,255.0,255.0,255.0,255.0,255.0,255.0,255.0,255.0,255.0,255.0,255.0,255.0,255.0,255.0,255.0,255.0,255.0,255.0,255.0,255.0,255.0,255.0,255.0,255.0,255.0,255.0,255.0,255.0,255.0,255.0,255.0,255.0,255.0,255.0,255.0,255.0,255.0,255.0,255.0,255.0,255.0,255.0,255.0,255.0,255.0,255.0,255.0,255.0,255.0,255.0,255.0,255.0,255.0,255.0,255.0,255.0,255.0,255.0,255.0,255.0,255.0,255.0,255.0,255.0,255.0,255.0,255.0,255.0,255.0,255.0,255.0,255.0,255.0,255.0,255.0,255.0,255.0,255.0,255.0,255.0,255.0,255.0,255.0,255.0,255.0,255.0,255.0,255.0,255.0,255.0,255.0,255.0,255.0,255.0,255.0,255.0,255.0,255.0,255.0,255.0,255.0,255.0,255.0,255.0,255.0,255.0,255.0,255.0,255.0,255.0,255.0,255.0,255.0,255.0,255.0,255.0,255.0,255.0,255.0,255.0,255.0,255.0,255.0,255.0,255.0,255.0,255.0,255.0,255.0,255.0,255.0,255.0,255.0,255.0,255.0,255.0,255.0,255.0,255.0,255.0,255.0,255.0,255.0,255.0,255.0,255.0,255.0,255.0,255.0,255.0,255.0,255.0,255.0,255.0,255.0,255.0,255.0,255.0,255.0,255.0,255.0,255.0,255.0,255.0,255.0,255.0,255.0,255.0,255.0,255.0,255.0,255.0,255.0,255.0,255.0,255.0,255.0,255.0,255.0,255.0,255.0,255.0,255.0,255.0,255.0,255.0,255.0,255.0,255.0,255.0,255.0,255.0,255.0,255.0,255.0,255.0,255.0,255.0,255.0,255.0,255.0,255.0,255.0,255.0,255.0,255.0,255.0,255.0,255.0,255.0,255.0,255.0,255.0,255.0,255.0,255.0,255.0,255.0,255.0,255.0,255.0,255.0,255.0,255.0,255.0,255.0,255.0,255.0,255.0,255.0,255.0,255.0,255.0,255.0,255.0,255.0,255.0,255.0,255.0,255.0,255.0,255.0,255.0,255.0,255.0,255.0,255.0,255.0,255.0,255.0,255.0,255.0,255.0,255.0,255.0,255.0,255.0,255.0,255.0,255.0,255.0,255.0,255.0,255.0,255.0,255.0,255.0,255.0,255.0,255.0,255.0,255.0,255.0,255.0,
-2.01642e-02,-1.40952e-01,1.89573e-01,1.70997e-01,-5.92645e-02,-1.59583e-02,1.14727e-01,-1.59388e-01,1.97991e-01,-1.08678e-02,-5.87471e-02,3.16551e-02,8.43202e-02,-4.61782e-02,-1.90491e-02,-4.10860e-02,1.07317e-02,1.36411e-01,3.45860e-03,3.06471e-02,5.90852e-02,2.37299e-02,-2.90908e-02,-2.49434e-02,-1.01631e-01,1.60707e-01,1.12206e-01,-5.42381e-02,-1.18398e-01,-3.88781e-02,1.24613e-01,6.26934e-02,5.24619e-02,1.98326e-01,1.93777e-02,-2.34687e-02,-1.67447e-01,1.86935e-01,2.70768e-02,-6.36880e-02,1.07758e-01,7.30467e-02,-4.92663e-03,-1.94846e-02,5.84584e-02,5.02668e-02,1.00717e-01,1.04711e-01,-1.43252e-01,1.36488e-01,-9.17352e-02,1.19468e-01,1.69769e-01,1.19091e-01,5.40425e-03,1.01874e-01,2.85158e-02,1.15669e-01,-1.16462e-01,2.51825e-02,8.52682e-02,4.13593e-02,-1.69716e-01,-3.66362e-02,-8.15857e-02,-5.32739e-05,-5.09499e-02,9.07672e-02,2.66293e-02,1.78974e-01,4.95904e-02,-8.46057e-02,1.19916e-01,4.34081e-02,-1.56213e-02,-1.45157e-01,1.40785e-01,5.78731e-03,9.72830e-02,4.13480e-02,-3.88889e-02,-2.77091e-02,-5.58273e-03,1.22875e-01,2.62493e-02,-5.54384e-02,-8.31796e-02,2.91762e-02,6.74894e-02,1.57724e-01,1.48912e-02,1.62169e-01,9.50971e-02,-2.05889e-02,1.13172e-02,-8.80581e-03,-2.39995e-02,1.35198e-01,-1.24660e-01,5.23126e-02,7.43076e-02,-3.20626e-02,-6.50530e-02,-1.01839e-02,-2.14875e-01,-5.57916e-02,-5.88212e-02,1.92842e-03,5.12838e-02,6.10556e-02,-1.16977e-01,-1.43778e-01,1.13311e-01,-2.29452e-01,-8.87981e-02,-3.09397e-03,-6.59592e-02,3.94719e-02,-1.81271e-01,3.48937e-02,8.21769e-02,-2.84560e-02,-1.81695e-01,-8.85561e-02,-1.11912e-01,-1.75417e-01,1.45565e-01,-4.83903e-02,9.82158e-02,-2.12393e-01,-4.54655e-02,-1.12070e-01,-5.10163e-02,-1.36073e-03,5.66649e-02,4.68338e-02,-1.14307e-01,-1.07167e-01,-1.67761e-01,-3.43413e-02,-1.59465e-01,-1.36665e-01,-3.54336e-02,-1.11514e-01,3.63364e-02,-9.63267e-02,-1.37487e-01,-4.21042e-02,-1.70116e-01,-1.81557e-02,-4.83602e-02,8.35216e-02,-1.76725e-03,-6.07687e-02,1.02025e-01,-1.74354e-01,7.97741e-02,1.83710e-02,3.23681e-02,3.72671e-02,-2.68217e-02,-6.13603e-02,2.15211e-02,6.84774e-03,-5.59458e-02,-6.51339e-02,-4.89710e-02,-4.39221e-02,-4.94064e-02,9.01770e-02,-1.11387e-01,-1.11812e-02,-1.57550e-01,1.36502e-01,3.83954e-02,-1.26478e-01,-2.04381e-02,1.11317e-01,-4.90472e-02,6.70301e-02,1.53861e-01,3.34866e-02,9.10540e-03,3.69335e-03,-2.07763e-01,1.56282e-01,-2.20531e-01,-4.05287e-03,-1.88125e-01,2.29887e-02,-1.03040e-02,4.09688e-02,-2.12959e-01,-8.35654e-02,-7.24032e-02,-9.88333e-02,-6.53374e-02,-7.66457e-03,-1.73774e-01,-4.03881e-02,7.99974e-02,-4.30673e-02,-2.62235e-01,-5.85483e-02,-1.28938e-01,-1.15186e-01,-1.70222e-02,-1.81004e-01,4.63072e-02,-1.25828e-01,9.46478e-03,-1.19208e-01,-1.83560e-01,-1.15107e-01,1.20612e-02,1.12372e-01,-1.43914e-01,-1.62181e-01,-1.54045e-01,-4.98786e-02,4.74692e-03,4.91491e-02,-1.57838e-01,-3.31312e-02,-1.70836e-02,-1.56092e-01,8.16003e-02,-5.05530e-02,8.73597e-02,-1.31877e-01,-5.93127e-09,4.80699e-02,8.59132e-03,-1.02044e-01,8.66424e-02,6.04927e-02,-2.56935e-01,6.05825e-02,-1.33794e-01,-2.06878e-01,-6.40801e-03,-8.34178e-02,3.50126e-02,1.15349e-01,-7.06537e-02,5.19554e-02,-1.58230e-01,-1.09178e-01,-1.60355e-01,-7.34607e-02,-2.01681e-02,6.48568e-02,5.70670e-03,-6.25028e-02,9.45543e-02,5.97334e-02,-7.71281e-03,-1.70534e-02,8.32970e-02,9.64332e-03,1.44366e-02,-6.03918e-02,-1.51668e-01,-5.18553e-02,2.88324e-02,5.53245e-02,9.27997e-03,9.26773e-02,-1.08472e-01,-2.00153e-01,-2.22942e-02,2.94175e-02,1.27555e-01,-1.67009e-01,-2.00456e-01,5.23100e-02,-3.64491e-02,-1.59420e-01,-3.63286e-02,-2.18406e-01,-1.54908e-01,-1.17167e-02,-6.95580e-02,-6.09546e-02,-7.00653e-03,8.76194e-02,-6.00912e-02,-2.14559e-02,-2.82514e-01,-1.92544e-01,-2.04320e-01,-1.85312e-01,-1.71371e-01,-1.67504e-01,-9.60043e-02,-9.78403e-02,-5.55821e-02,-1.00095e-01,-4.97749e-02,1.08788e-01,-1.50081e-01,-2.28523e-02,-8.78035e-02,-1.70607e-01,7.44594e-02,8.57453e-02,-3.96882e-02,-2.33963e-01,-2.25858e-01,-4.01307e-02,-1.70144e-01,-1.34406e-01,-8.54082e-02,-2.63144e-01,4.78663e-02,6.43019e-02,-2.27678e-01,5.55091e-03,-1.11993e-01,-1.28660e-01,-7.59674e-02,7.06540e-02,8.44904e-02,-1.03299e-01,-5.06656e-03,-2.40860e-02,1.67299e-01,1.74855e-01,-7.96918e-02,-1.36305e-01,-1.22342e-01,-1.12354e-01,7.22741e-02,-6.72878e-02,-8.96993e-02,-1.50405e-01,-3.25486e-02,7.52858e-03,-4.93711e-02,-2.48568e-02,1.15964e-02,-1.54306e-01,-4.64373e-02,4.76053e-02,-1.83576e-01,-9.79881e-02,-1.47413e-01,1.06460e-01,1.02927e-01,-2.60515e-01,1.25514e-01,-2.40064e-01,-4.42475e-03,1.50676e-01,1.10692e-02,-2.68905e-02,-1.31542e-01,-5.67937e-02,2.98568e-02,-1.79499e-01,-5.75015e-04,-5.15538e-02,9.38201e-02,-1.26990e-03,-2.32095e-01,-3.26828e-02,-1.63036e-01,-1.52067e-02,-1.34083e-01,9.48528e-02,-2.12363e-01,-1.61751e-02,-3.18978e-02,-5.06824e-02,2.47865e-03,3.82422e-02,-9.66767e-02,-3.86022e-03,9.70937e-02,-8.42446e-02,6.39210e-02,-8.42344e-02,-9.85457e-02,3.33762e-02,1.28678e-01,-1.06078e-01,-5.68089e-02,3.25345e-02,-1.95566e-02,-1.13313e-01,-9.72768e-02,-1.10134e-01,-1.46044e-02,1.36214e-02,6.03872e-02,5.21788e-02,-3.93424e-02,1.32546e-01,-1.02488e-01,-4.71834e-02,-2.75199e-02,-6.06160e-02,-2.94956e-02,7.00031e-02,-9.68591e-03,8.47301e-02,-5.06143e-02,-1.82491e-02,-2.46236e-02,1.58053e-01,3.50272e-02,1.06487e-01,-4.47548e-02,-5.24604e-02,-1.35486e-01,-1.31120e-01,1.23593e-01,-1.27460e-01,-1.72480e-01,1.32303e-01,8.45790e-02,1.17497e-01,-5.41606e-02,-3.88371e-02,-1.20452e-01,-6.51802e-03,8.06993e-03,1.64068e-03,-1.65173e-01,9.60294e-04,-7.73035e-02,7.50158e-03,-1.28062e-01,-2.24227e-02,5.14859e-02,-4.21462e-02,-7.45495e-02,-1.36256e-01,1.33272e-01,-6.49690e-02,-2.78936e-02,-1.33445e-01,-1.91118e-03,6.07841e-02,3.16711e-02,3.94856e-02,-1.12059e-01,1.00571e-01,-6.43740e-02,8.25770e-02,1.27295e-01,-1.93779e-03,1.05661e-01,-9.77075e-02,2.12535e-01,-6.17737e-03,-1.11699e-01,-1.98169e-02,4.35945e-02,5.76027e-02,2.72340e-02,-1.91765e-02,-2.13461e-02,-1.19842e-02,2.88246e-02,2.17182e-02,-4.25764e-02,-1.36030e-01,-2.32273e-02,-9.08318e-02,-7.58112e-02,2.00822e-01,1.01680e-01,3.57765e-02,-4.79333e-02,-2.06339e-03,4.05920e-02,-8.29383e-02,7.22300e-02,5.00727e-02,8.32122e-02,-7.77084e-03,4.92548e-03,-5.52722e-03,5.96501e-02,-1.09495e-01,-1.44445e-01,-5.20713e-02,-5.75452e-02,-5.81594e-02,-1.50316e-01,4.39769e-02,-9.18266e-02,1.88453e-01,-1.08988e-01,-1.22730e-03,-1.55270e-01,-1.44079e-01,7.90085e-02,-1.07189e-01,1.10893e-01,-4.09435e-02,1.67447e-02,-5.28092e-02,-3.85320e-02,2.62376e-02,4.56204e-02,-9.85148e-02,-2.43155e-02,1.53828e-01,1.32937e-01,3.91665e-02,5.51694e-02,-1.16486e-01,-6.06230e-02,1.52336e-01,-6.93090e-02,2.60936e-02,1.79557e-02,5.08922e-02,-2.33100e-02,1.27887e-02,2.91480e-03,4.67515e-03,5.09446e-03,-5.48108e-02,2.81991e-02,-1.17817e-01,-1.51376e-01,1.45627e-01,1.71056e-01,7.29046e-03,4.11024e-02,-1.27799e-01,-3.44654e-03,1.22256e-01,-7.46654e-02,-5.25336e-02,1.90794e-01,1.18558e-01,9.48910e-02,1.30809e-01,-5.50861e-02,1.84941e-02,-1.03156e-01,1.00166e-01,-2.67586e-02,1.16603e-01,-7.29817e-02,-2.34893e-02,4.50124e-02,2.38747e-01,8.87894e-02,4.79713e-02,-2.21796e-02,8.86013e-03,-2.46514e-02,6.83112e-02,-3.87495e-02,5.44573e-02,9.20280e-02,-1.18479e-01,-2.12210e-02,-8.33483e-02,-7.65734e-02,-9.26273e-02,-1.75200e-01,-1.72050e-02,-1.48694e-01,-1.19185e-01,9.52998e-02,-5.82253e-02,-8.56904e-03,-4.02774e-02,-1.06274e-01,1.39806e-02,-1.07445e-01,8.24756e-02,8.40673e-03,1.02612e-01,-8.74894e-02,3.01442e-02,1.57495e-01,1.22713e-01,-2.68080e-02,3.22931e-03,-1.87371e-01,1.94152e-02,-1.56530e-01,6.04741e-02,2.19490e-02,-1.43811e-01,-6.94512e-02,-3.12035e-02,-6.66824e-02,1.41334e-01,-7.78247e-02,8.83287e-02,-1.20046e-01,-1.32898e-01,-1.77113e-01,-5.20922e-02,8.89260e-02,2.14685e-02,8.03601e-03,-2.24676e-02,-1.59830e-01,-1.72456e-01,5.55735e-02,-7.42561e-02,-1.15761e-01,8.89616e-02,1.28677e-01,1.71111e-01,-6.51133e-02,-1.57743e-01,4.65413e-03,-1.17462e-01,-2.08423e-02,9.88061e-02,-3.11681e-02,1.90691e-01,1.68168e-02,8.89785e-02,-2.33648e-02,-1.06253e-01,-3.94366e-03,1.06878e-01,1.57378e-01,6.07985e-02,-5.49800e-02,-1.21939e-01,5.66952e-02,-2.34590e-02,1.73044e-01,-2.05359e-02,9.07196e-02,8.45412e-02,7.86072e-02,2.38831e-02,-1.40190e-01,1.93963e-01,-1.34452e-01,6.80927e-02,-3.84908e-02,-1.20609e-02,-1.59745e-01,-5.09521e-02,-1.67474e-01,-1.00968e-02,5.16555e-02,2.90663e-02,-2.58825e-02,1.04398e-01,-1.42330e-01,-4.22335e-03,-1.25290e-01,5.95297e-03,-5.70688e-02,-5.69201e-02,7.52614e-02,-9.79570e-02,-1.04544e-03,-5.50858e-02,-1.55626e-01,-2.00818e-01,-1.51261e-01,2.62454e-02,4.74343e-02,-4.92205e-02,-4.62608e-02,-4.78599e-03,-7.08392e-02,-4.58647e-03,1.76905e-01,-3.63494e-02,-1.05410e-01,1.33310e-01,1.49170e-01,4.86890e-02,-1.60517e-01,-2.14433e-02,-6.40461e-02,4.94779e-02,2.67612e-02,3.70433e-02,6.31891e-02,8.00116e-02,2.64947e-02,8.43820e-02,-1.06241e-01,-1.48016e-01,-5.83624e-02,-8.05195e-03,9.26721e-03,1.75824e-02,7.56413e-03,1.08647e-01,1.76828e-01,-6.82638e-04,-1.76339e-01,2.31483e-02,-9.41776e-02,-1.61073e-02,-1.16527e-01,-3.45215e-02,1.65733e-01,-4.92362e-02,-1.31644e-02,1.23016e-01,4.69634e-02,4.36920e-02,3.17255e-02,-1.09924e-01,7.78455e-02,-1.61247e-01,9.99241e-02,1.54768e-02,-2.68727e-02,7.89109e-02,9.68408e-02,4.72838e-02,-8.73280e-02,-3.97493e-03,7.55342e-03,-8.85785e-02,9.80824e-02,7.24450e-02,6.43531e-02,-5.96202e-02,2.53124e-03,3.42293e-02,-3.69054e-02,4.68244e-02,4.34596e-02,-1.99818e-01,5.79539e-02,7.93398e-03,-1.50888e-01,1.41688e-01,-9.32703e-02,9.74159e-02,7.23923e-02,-1.68816e-01,-9.51853e-02,-9.12915e-03,9.05079e-02,-2.16088e-02,7.22938e-03,-1.49341e-01,3.68684e-02,1.06419e-01,1.06387e-01,-7.34121e-02,-9.56953e-02,8.36647e-03,-6.11033e-04,4.17414e-02,4.32468e-02,8.77713e-02,-5.80668e-02,2.04419e-02,-2.11753e-02,1.31074e-02,9.72420e-02,-1.09188e-01,8.95945e-02,-4.10604e-04,-8.53936e-02,-1.73128e-01,-1.63105e-01,8.32454e-02,1.07297e-02,-1.12307e-01,5.73929e-02,-8.25876e-02,3.22640e-02,-1.26614e-01,-1.69166e-02,1.39444e-02,5.69547e-04,7.36362e-02,7.26237e-02,-1.91014e-01,6.03167e-02,-1.27009e-01,-2.59850e-02,-7.01409e-03,-3.75238e-02,-1.28543e-01,-1.63366e-01,-1.06331e-01,-2.07301e-03,2.60515e-02,1.47127e-01,7.38019e-03,1.64143e-01,-1.56902e-01,1.18039e-02,-3.85103e-02,-4.38383e-02,-9.26312e-02,9.06074e-03,6.01012e-02,-9.70857e-03,-9.02123e-02,-2.04412e-01,7.97438e-02,2.47954e-02,-2.11637e-03,-4.37113e-02,-1.29293e-01,1.01581e-01,-1.08605e-02,9.59610e-03,2.55241e-02,-9.04784e-03,-3.82557e-02,-2.48106e-02,-2.06593e-02,-1.46824e-02,-1.48489e-01,-7.17448e-02,6.17730e-03,-1.17003e-03,-3.46253e-02,2.69979e-02,1.01778e-01,-1.23888e-01,7.32132e-03,-7.25469e-02,3.60325e-02,-1.18878e-01,8.39179e-02,-9.70586e-02,1.90093e-02,-2.01064e-01,-8.99676e-02,-8.05981e-03,-1.94117e-01,7.71211e-02,9.50010e-02,1.48365e-01,5.10651e-02,-1.12364e-03,1.10571e-01,1.75241e-01,1.08918e-01,1.01262e-01,7.29192e-02,8.70102e-02,1.74291e-01,-6.90775e-03,-5.93311e-02,1.14076e-01,-2.00648e-01,-4.76199e-02,1.20145e-01,1.56120e-01,1.32420e-01,-7.17815e-02,3.76271e-02,-1.42579e-01,1.25399e-01,1.70936e-01,3.52172e-02,-4.71466e-02,-5.69510e-02,-1.33058e-01,-7.50307e-02,1.93805e-02,1.57388e-01,-7.07069e-02,1.96924e-01,1.16677e-01,-1.19808e-02,-5.11578e-02,2.13268e-02,1.29102e-01,8.56676e-02,-3.74216e-02,-4.91709e-02,-2.10943e-01,5.72621e-02,4.69628e-02,-4.39746e-02,-1.71561e-01,9.19647e-03,-8.09671e-02,2.29772e-02,1.37777e-01,-2.33696e-02,8.02147e-02,-3.91146e-03,-2.12095e-01,1.13047e-01,2.25118e-02,5.65230e-02,9.07669e-02,1.00711e-02,1.75646e-01,-5.41953e-02,-7.92195e-02,-3.89394e-02,-1.16031e-01,6.61796e-02,-1.34382e-01,9.60157e-02,-5.72770e-03,-7.99044e-02,1.10144e-02,-6.52377e-02,-4.32351e-02,3.71590e-02,-5.55375e-02,-1.24030e-01,-2.15210e-01,-3.48959e-02,-6.52231e-02,-5.75842e-02,-2.82085e-02,8.60297e-02,1.62785e-01,-7.59434e-03,5.55078e-02,8.07661e-02,-9.58815e-03,7.23549e-03,1.02173e-01,2.11081e-01,1.20537e-01,-4.04955e-02,8.89038e-02,5.39302e-05,6.02970e-02,-4.01713e-03,1.00951e-01,8.15323e-02,-5.74228e-02,5.13631e-02,-2.69426e-02,-1.15009e-01,-4.87194e-02,5.34012e-02,1.96084e-01,7.99430e-02,-9.42669e-02,1.36071e-02,-3.45125e-02,-6.80397e-02,9.34635e-02,-3.66327e-02,4.51964e-02,1.08732e-01,1.68793e-01,5.01537e-02,1.21892e-01,7.73377e-02,8.12351e-02,-1.41761e-01,1.76134e-02,6.59672e-02,1.97636e-02,-1.40528e-01,-6.60845e-02,-9.82017e-02,7.44227e-02,-1.74202e-01,-2.55912e-02,1.25245e-01,3.38609e-02,-2.32386e-02,-8.35529e-03,-1.43871e-01,-1.49074e-01,-2.74287e-02,3.55428e-02,-1.19233e-02,3.47167e-02,1.59813e-01,-5.90455e-02,1.21053e-01,4.89585e-02,9.34774e-02,9.16765e-02,1.43366e-01,-1.17611e-01,-1.43111e-01,1.36500e-01,-1.72547e-02,8.65604e-02,-1.10100e-02,1.25084e-01,-5.92923e-02,6.74751e-02,3.75618e-02,3.98318e-02,9.09537e-02,-5.90478e-02,-5.61766e-02,-5.41595e-02,-1.00786e-01,3.36133e-02,-1.25831e-01,8.85674e-02,2.23376e-01,5.29094e-02,6.67030e-02,5.84327e-03,1.38072e-01,2.06909e-01,8.64227e-02,2.50035e-02,-8.17150e-02,9.98000e-02,2.11271e-02,-7.81530e-02,1.03988e-01,7.43824e-02,8.53128e-02,-6.38818e-02,1.12083e-02,-8.46340e-02,3.06026e-02,2.01902e-01,9.89540e-03,-5.40593e-02,-1.30897e-01,2.10931e-01,9.67648e-02,-7.72380e-02,5.67125e-03,-5.56071e-02,1.71342e-01,1.21756e-02,-1.18375e-01,5.81344e-02,5.00907e-02,6.53762e-02,5.07847e-02,1.50798e-01,-4.10287e-03,1.50519e-03,1.48225e-01,-1.44741e-02,6.19107e-02,2.32810e-02,1.53433e-02,1.60005e-01,-3.60978e-02,1.19614e-01,1.47506e-01,2.40148e-02,8.04497e-02,-9.75309e-02,-1.37342e-01,-1.08055e-01,-3.48914e-02,2.37160e-02,-3.84406e-02,3.56808e-02,1.66555e-01,1.19804e-01,1.79574e-01,7.48183e-02,-3.94417e-03,5.31625e-02,5.09635e-02,2.00820e-01,-1.21823e-01,9.65365e-02,-2.97685e-02,7.70437e-02,1.39371e-01,-6.68239e-02,1.17800e-01,6.47343e-02,1.03751e-01,1.13289e-01,4.41456e-02,5.29181e-02,1.36649e-01,1.48951e-01,-9.02200e-02,-1.83881e-02,9.73471e-02,-5.79920e-02,4.74428e-02,-1.48816e-01,-1.67231e-01,-6.45302e-04,1.36816e-01,5.46003e-02,6.68281e-02,2.22146e-02,-6.95609e-02,1.26645e-01,-5.30990e-03,1.82412e-01,-7.34084e-02,1.05844e-01,-3.03534e-02,-4.42998e-02,2.54369e-02,1.21707e-01,-7.65624e-02,4.84567e-02,-1.41132e-02,1.63442e-01,2.19024e-02,-4.78292e-02,2.27712e-02,2.85683e-02,6.41540e-02,1.48526e-01,1.94915e-02,1.58587e-02,1.58888e-01,5.43328e-02,-1.29991e-01,1.14752e-01,-2.78787e-02,-5.09310e-02,1.83428e-01,-1.23184e-01,-2.61337e-02,7.12394e-02,1.14250e-01,5.28555e-02,-1.66984e-01,-2.96783e-02,1.46279e-01,3.50211e-02,-9.47772e-02,-4.30001e-02,6.58120e-03,-1.81647e-01,5.82403e-02,1.53407e-01,-9.93090e-02,-2.94460e-02,-8.99198e-02,1.33329e-01,-2.57622e-02,8.63593e-03,-3.12369e-02,2.16994e-01,2.49410e-02,1.06181e-01,1.17415e-02,2.39147e-01,1.15249e-01,-7.17772e-02,1.56816e-01,8.02106e-02,4.03223e-02,-1.01384e-01,-2.84406e-02,-3.17830e-02,7.32442e-04,1.41554e-01,-1.53260e-02,1.42755e-01,6.10729e-02,-2.72288e-02,-2.04546e-01,2.82365e-02,-7.37164e-03,1.00416e-01,1.42582e-02,7.23618e-03,-2.23928e-04,-6.50700e-02,7.58430e-02,-3.42728e-02,1.36991e-02,-6.40245e-03,-6.81691e-03,-3.54578e-02,-8.93850e-02,-1.58632e-01,1.91925e-02,2.12972e-01,6.59655e-02,1.62789e-01,1.37459e-02,-1.46364e-01,1.22964e-01,-3.79866e-02,1.56512e-01,1.54563e-01,-4.13476e-02,1.75733e-02,4.05603e-02,-3.60390e-03,1.27843e-01,1.60708e-01,-8.92945e-02,8.38256e-02,2.81364e-02,3.31250e-02,2.09719e-01,7.85999e-03,2.31963e-01,-1.45731e-02,2.45747e-02,3.96336e-04,-5.98756e-02,-9.50611e-02,-2.21641e-02,8.74054e-02,1.73444e-01,4.56854e-02,3.74892e-02,-5.50414e-02,2.01484e-02,-1.74625e-01,-1.29498e-01,-1.62188e-03,7.74346e-02,1.16969e-01,9.32371e-02,1.16701e-02,-7.49715e-02,-3.92167e-02,-1.17158e-01,7.32730e-02,2.35357e-01,-4.17634e-02,-2.95471e-02,-3.43235e-02,5.08629e-02,1.19942e-01,1.89307e-01,3.81099e-02,-2.14696e-02,1.16352e-01,7.91686e-02,-4.84912e-02,-1.07110e-01,-7.01585e-04,6.90251e-02,8.76559e-02,1.15423e-01,2.06893e-02,3.07407e-02,3.36633e-02,-7.37809e-03,5.13873e-02,-1.26303e-01,-8.42047e-02,2.53245e-02,5.60385e-02,-4.10680e-02,-3.35179e-02,-1.43345e-02,4.76334e-02,-1.73927e-01,8.73855e-02,-8.30389e-02,1.78103e-01,5.38361e-02,-8.28078e-03,-1.73795e-01,1.52335e-02,-1.05208e-01,3.90099e-02,-1.54392e-01,-2.87497e-02,1.68569e-01,-1.84019e-02,5.60626e-02,-6.86544e-02,-2.86985e-02,2.04224e-01,4.42828e-02,-5.86513e-02,-6.72980e-02,9.17170e-02,1.05896e-01,-3.17818e-02,2.69007e-02,3.47395e-02,8.93589e-03,-1.04222e-01,9.51643e-02,1.36512e-01,2.02993e-01,1.34090e-01,5.08563e-02,4.66171e-02,-3.09585e-02,-7.98411e-02,1.52939e-01,-9.32317e-02,7.54021e-02,-1.31347e-01,-1.77800e-03,1.06157e-01,-7.57861e-02,-1.22324e-02,-2.64978e-02,1.26453e-02,-4.93406e-02,2.83726e-02,-5.34026e-02,2.07700e-02,-5.49728e-02,1.62305e-01,3.53037e-02,-6.09092e-02,1.00246e-01,5.48042e-02,-8.50230e-02,1.76433e-01,4.79983e-03,-9.46143e-03,-5.23661e-02,1.71415e-01,-9.77372e-02,-8.10828e-02,-1.35438e-02,7.22877e-02,-6.15936e-02,-4.27788e-02,-1.31744e-02,-8.95935e-02,-1.18130e-01,-2.36145e-02,-1.03717e-01,8.58789e-03,-9.09236e-02,1.07163e-01,6.07256e-02,-9.62098e-03,-1.45087e-01,1.28114e-01,2.58100e-02,1.04812e-02,-3.66043e-02,-1.14924e-01,-3.75119e-02,8.75427e-02,3.24231e-02,5.80927e-02,-7.22256e-03,1.58180e-02,1.06533e-01,-1.33836e-03,-3.23104e-02,2.01773e-02,4.51110e-03,-9.82439e-02,-1.35195e-01,-4.35366e-02,-5.95373e-02,1.87030e-02,7.64725e-02,-1.19737e-01,-1.23935e-01,-1.00514e-01,-2.45907e-03,-5.56868e-02,1.19489e-01,1.90334e-01,-1.19488e-01,2.38246e-01,-1.17885e-02,1.27470e-01,2.29377e-01,-8.22059e-02,1.09586e-01,-6.57008e-04,1.83771e-02,8.77368e-02,7.82789e-02,2.05300e-01,6.42825e-03,1.58514e-01,6.85548e-04,-2.21049e-02,-4.09095e-02,-1.28103e-01,-1.82941e-01,-1.77803e-01,-2.57392e-02,-5.98686e-02,1.01613e-01,3.49997e-02,8.61251e-02,4.46657e-02,8.02386e-02,1.12839e-01,-1.72054e-01,1.11217e-01,1.48161e-01,7.46337e-02,-3.79701e-03,1.83470e-01,-3.45614e-02,-1.03347e-01,1.75388e-01,1.02075e-01,3.97165e-02,-8.81432e-03,1.27406e-01,1.42579e-01,-4.17603e-02,1.19034e-01,-1.39992e-01,-1.17716e-01,3.08912e-02,-1.26418e-01,1.36874e-01,-4.44978e-02,1.45105e-02,-3.75214e-02,-7.86399e-02,-9.16786e-02,2.04882e-02,-7.67982e-02,-7.60747e-03,-1.38677e-01,6.09639e-02,-1.05302e-01,-7.55667e-02,-5.07906e-02,3.81067e-02,2.67053e-02,-1.82286e-02,2.26651e-02,1.11100e-01,-2.12258e-01,-2.97601e-02,2.25494e-02,-1.40520e-01,1.12731e-01,-1.41905e-01,8.91596e-02,-3.79376e-02,-1.89789e-01,-1.99805e-01,1.28907e-01,-5.59859e-02,-1.86529e-02,8.28570e-03,-1.38765e-01,-9.47298e-02,8.82312e-02,7.89408e-02,1.00934e-01,2.71065e-02,8.68725e-02,1.05071e-01,4.66392e-02,4.49163e-02,-9.68084e-03,-5.38592e-02,2.30440e-01,1.21697e-01,-5.84180e-02,2.65073e-03,-7.33448e-02,-2.54823e-02,-1.56011e-01,8.88469e-02,5.52690e-02,5.70263e-02,-3.95141e-02,3.47791e-02,6.16366e-02,-1.19028e-01,1.01301e-01,-1.01888e-01,-1.14247e-01,-8.22584e-02,-6.80424e-02,1.39305e-01,3.23752e-02,1.36293e-01,4.75830e-03,1.10287e-01,1.56157e-01,4.53547e-02,1.15626e-02,2.34419e-02,1.41317e-02,1.44254e-01,1.47903e-01,-1.32658e-01,4.33766e-02,-1.54532e-01,4.24174e-02,3.52824e-03,-2.17379e-02,6.63099e-02,-1.41221e-01,6.55887e-02,-1.06996e-01,5.84605e-02,-1.11030e-02,-2.45075e-04,-6.17532e-02,-7.90801e-02,6.13167e-02,-8.75732e-03,1.75658e-02,7.71271e-02,-3.66583e-02,-1.76329e-01,7.22210e-02,3.32576e-02,-9.48809e-02,-5.52843e-02,6.13317e-02,-1.01037e-01,1.96679e-02,1.04253e-01,-4.31796e-02,9.22027e-02,1.20109e-01,-1.75748e-01,1.88007e-02,-1.14528e-02,-1.13037e-01,-2.51451e-02,-1.14399e-01,-1.00439e-01,6.11560e-02,-1.44881e-01,4.69060e-02,-1.43096e-02,-8.27746e-02,-4.47166e-03,-3.42636e-02,3.52710e-02,8.12256e-03,-3.25998e-02,6.11604e-02,1.36936e-01,-1.22588e-01,9.85687e-02,6.64982e-02,2.40949e-02,-5.34130e-02,1.49788e-01,-4.74225e-02,4.89428e-02,8.94692e-02,2.61080e-02,-7.39966e-03,-5.97983e-03,4.57007e-02,-4.05266e-03,-1.53932e-01,1.96990e-02,1.32894e-02,-2.91204e-02,-9.25884e-03,-5.21098e-02,1.41423e-01,7.21354e-02,-3.62232e-02,1.73992e-01,-7.44107e-02,3.27500e-02,-1.29713e-01,-2.87656e-02,-7.90177e-02,8.36475e-04,1.31558e-01,1.55316e-01,2.96877e-03,1.69545e-02,8.46399e-04,-2.17047e-01,-1.51011e-01,-8.86655e-03,-9.13743e-02,-1.01568e-02,-2.84901e-02,-1.88205e-01,-1.78529e-01,2.69268e-02,1.42471e-01,-1.13224e-01,5.31050e-03,-8.37924e-02,-7.33535e-02,-6.62557e-02,3.06352e-02,-8.91072e-02,6.77788e-02,3.65641e-02,9.65673e-02,1.33558e-01,1.72676e-02,6.44726e-02,-9.23727e-02,3.45748e-02,8.01262e-02,1.73005e-02,-1.97790e-01,-3.66063e-02,6.10203e-02,-5.59649e-02,8.40506e-02,1.33813e-02,-2.70064e-02,9.48386e-02,-2.95090e-02,-4.61272e-02,-2.58416e-02,1.31859e-01,-1.44053e-01,-1.40862e-02,8.72650e-02,-1.35417e-01,-9.88855e-03,4.16414e-02,-9.03974e-02,-7.21094e-02,1.56687e-01,-3.97461e-02,-1.93127e-02,-2.61601e-02,3.23417e-02,-1.03727e-01,-1.96359e-02,-3.20580e-02,6.55866e-02,-9.62352e-02,2.63410e-03,-1.16075e-01,9.51214e-02,-6.59579e-03,1.67904e-01,1.14448e-01,6.99059e-02,5.91832e-02,-6.15598e-02,4.40699e-02,-7.72648e-02,-1.01782e-02,-1.09360e-01,1.20803e-01,-1.16119e-01,-1.20702e-02,-1.11312e-01,-8.94056e-02,-1.41939e-01,-5.62648e-02,-7.96748e-02,-1.83372e-02,-1.25932e-02,-4.35559e-02,-6.36546e-02,-7.30341e-03,-1.22301e-03,-8.40115e-02,-4.03103e-02,-1.03378e-01,-1.32231e-01,-1.34160e-01,-2.41053e-02,-7.52083e-02,-2.56561e-02,-5.67217e-02,-1.08797e-01,-1.87875e-02,-1.01692e-01,-1.31402e-01,-1.51812e-01,5.68379e-03,-1.09048e-01,3.97463e-03,-1.71359e-01,-1.78827e-01,5.12414e-02,6.34264e-02,-5.53955e-02,-3.07213e-02,-1.26264e-01,-3.97374e-02,-8.68756e-03,5.40089e-02,-8.50744e-02,3.06069e-02,4.17245e-02,-7.88886e-02,-8.70849e-03,3.15044e-02,-5.05559e-02,-1.00235e-01,-9.70414e-02,-4.14900e-02,-1.67891e-01,-4.74460e-02,-1.07432e-01,1.33154e-01,1.37318e-02,9.57290e-03,-1.14968e-01,-1.97405e-01,-7.47431e-02,-1.09407e-01,1.32955e-02,-9.18325e-02,-1.49245e-01,7.91784e-02,-7.10494e-02,-6.79526e-02,-3.28064e-02,-1.59353e-01,4.53488e-02,-2.30861e-01,1.11622e-01,-6.02718e-03,-8.91625e-02,9.93073e-02,-4.49726e-02,8.01998e-02,-2.26821e-01,-2.46857e-02,-1.14068e-01,-4.85432e-02,-8.88409e-02,-1.31491e-01,-1.26573e-01,-3.97897e-02,7.14546e-02,8.80851e-02,-4.59956e-02,-3.14169e-02,-1.59624e-02,-4.29426e-02,-2.10937e-04,-1.19662e-01,-1.16162e-01,-1.78707e-01,-1.46380e-01,-1.11130e-01,-8.63465e-02,1.16857e-01,-3.83315e-02,-2.03432e-02,-3.18657e-02,-2.26031e-01,-3.08242e-02,-1.00112e-01,-3.61863e-02,-6.23315e-02,7.09520e-02,4.08275e-02,-3.02409e-02,5.30503e-02,-1.10923e-01,-1.53234e-01,5.45177e-02,-1.12199e-01,-1.32403e-01,-8.18400e-02,-1.95331e-02,5.09861e-02,-1.09224e-01,-3.77182e-03,-9.21922e-02,1.79413e-01,-1.82311e-01,1.52719e-01,-1.85786e-01,4.31760e-02,-4.62000e-02,3.08543e-02,-1.19484e-01,8.49816e-02,-1.94509e-01,-8.64814e-02,-6.72262e-02,6.34871e-02,1.32441e-01,-3.10154e-02,1.21814e-01,4.76666e-02,-8.88799e-02,1.82118e-02,-1.65182e-01,-5.07924e-03,-8.36706e-03,1.41553e-01,-3.51125e-02,2.27113e-02,5.65602e-02,9.96863e-02,3.52841e-02,2.56602e-02,-1.25245e-02,1.16261e-01,9.35100e-02,3.80181e-02,-3.96462e-02,-9.74447e-02,-1.36057e-01,2.63832e-02,-1.41954e-01,-3.65997e-02,-1.06894e-01,1.37823e-01,-6.56235e-03,-1.58412e-01,2.38644e-02,-2.39082e-02,1.21609e-01,-5.16571e-02,-2.13029e-01,-1.32806e-01,-3.42809e-02,-6.04104e-02,-1.05223e-01,7.49294e-02,-1.62491e-02,-1.28112e-02,-9.02834e-02,-4.38304e-02,-4.33036e-02,1.72909e-02,2.38196e-02,6.14405e-02,2.92783e-02,6.07794e-02,8.11113e-02,-5.11795e-02,-5.13915e-02,-2.59674e-02,-1.73784e-01,1.20738e-01,-1.69967e-02,-1.19363e-01,6.14188e-02,-5.81419e-02,-7.33009e-02,-2.07686e-01,-7.27161e-02,-2.45255e-02,-6.93570e-02,-3.14995e-02,-3.71540e-02,1.32880e-02,4.17459e-02,-1.27450e-01,-6.25164e-02,-3.01275e-02,-8.97388e-02,1.35066e-01,-2.64564e-02,-2.42888e-01,-1.35464e-01,-1.12039e-01,-1.78040e-02,-1.01777e-01,-4.24326e-02,-7.00581e-02,4.38693e-02,-1.98310e-02,-7.49388e-02,-2.13470e-02,9.41237e-02,3.42775e-02,-6.18047e-02,2.90939e-02,-1.42398e-01,1.32909e-01,-7.36501e-02,1.08112e-01,1.12778e-01,-1.04615e-01,-5.73886e-02,1.45551e-01,7.61019e-03,-1.07343e-01,4.46557e-02,-4.91699e-02,4.15826e-02,-1.74965e-01,3.59633e-02,-4.60243e-03,-9.60714e-02,7.01899e-02,-1.40726e-01,1.08099e-01,-7.75097e-02,-1.42091e-01,-9.37541e-05,1.65941e-02,-1.60087e-01,6.17454e-02,-3.00187e-02,6.37336e-02,-2.08866e-02,-3.10837e-02,-6.12004e-02,6.87293e-02,7.57030e-02,8.40511e-02,-1.11395e-01,1.52182e-01,-6.28448e-02,-1.63351e-02,9.68267e-02,-1.54084e-02,1.19138e-02,-1.43414e-01,-1.04907e-01,8.49932e-02,1.12909e-02,1.15286e-01,-1.38956e-02,-1.33501e-01,1.04979e-01,-2.30831e-02,-3.97461e-02,2.06616e-01,1.72019e-02,7.19700e-02,-3.14641e-02,-1.32024e-01,-4.16714e-02,-9.89166e-02,-2.79747e-02,5.50013e-02,-2.27027e-02,-2.92754e-02,5.71644e-03,6.10196e-02,1.27687e-01,-7.62897e-03,4.79687e-02,-2.49004e-02,3.60990e-02,-1.27212e-01,7.44583e-02,-7.35461e-02,1.68845e-02,-5.02487e-02,-1.95981e-01,2.32521e-02,-8.00939e-02,-1.03872e-01,1.99684e-02,-7.91106e-02,1.42865e-02,1.33656e-01,-1.75657e-02,-5.35093e-02,1.59200e-02,3.54740e-02,5.18960e-02,1.24919e-01,1.29929e-01,-3.73070e-02,-8.40760e-02,5.61303e-02,-4.16143e-02,1.88002e-02,5.45472e-02,-1.07982e-01,4.94324e-02,-4.23345e-02,-1.89067e-02,1.40182e-01,6.05993e-02,-2.47161e-02,2.15338e-02,-6.21280e-02,1.03253e-01,-3.52730e-02,1.51905e-01,-1.76726e-02,7.88137e-02,9.07993e-02,6.05541e-02,1.02708e-01,-1.74940e-01,1.04006e-01,-1.30787e-01,4.29471e-02,5.71243e-02,6.12266e-02,-9.92389e-02,1.19699e-01,1.77890e-01,-8.09593e-02,1.61992e-01,7.01086e-03,-1.21092e-01,-2.67165e-02,1.60121e-03,1.91605e-01,1.62371e-01,2.73563e-02,-4.91087e-02,5.84049e-02,-5.28168e-02,2.78340e-02,9.51771e-02,7.53134e-02,-1.61219e-02,1.20417e-01,-1.01555e-01,6.69985e-02,1.01049e-01,1.02314e-01,-1.50667e-01,-1.15043e-01,1.12941e-01,-1.05535e-01,-4.14322e-03,1.04615e-01,-8.07309e-02,3.23741e-02,-2.97621e-02,1.06361e-02,-9.02150e-02,1.92006e-01,7.79226e-02,-8.83721e-02,5.53409e-02,1.02816e-01,1.55130e-01,-2.38989e-02,7.41687e-02,-2.00499e-02,-1.26851e-01,1.58163e-01,-1.19994e-01,9.94895e-02,1.27027e-01,1.38101e-01,-4.83556e-02,-3.72970e-02,1.44618e-01,5.16961e-02,1.73865e-02,5.18104e-02,2.02099e-02,-6.14190e-02,1.11881e-01,1.30011e-01,-5.27017e-02,5.61154e-02,-4.40176e-02,-1.34215e-02,-1.09891e-01,2.91067e-03,-3.21608e-02,-1.64606e-01,-3.18387e-02,8.47574e-02,-8.75510e-02,-3.95919e-02,-1.02878e-02,9.54752e-02,1.32670e-01,9.06281e-02,1.30415e-01,-2.14935e-02,1.50207e-01,-4.81353e-02,-1.83362e-01,-2.30112e-01,2.98951e-02,-4.70997e-02,-4.77363e-02,-1.04726e-01,2.13647e-02,5.35156e-02,1.71723e-01,3.97938e-02,1.95452e-02,-3.46056e-02,-6.47509e-02,8.17096e-03,2.29685e-01,-1.39691e-01,-1.96107e-02,3.33929e-02,5.91019e-02,1.55888e-01,-8.28247e-02,-7.76560e-02,2.07509e-02,-6.01527e-02,9.93438e-02,-1.23697e-01,-4.71385e-02,-1.10364e-01,-8.24212e-03,8.08701e-02,-1.15770e-01,-6.22274e-02,-1.49200e-01,3.37112e-02,-9.63302e-02,3.34387e-02,2.16759e-02,-1.25379e-01,8.78686e-02,5.14618e-02,1.48355e-01,-7.08585e-02,1.14448e-01,-2.01555e-02,-8.77559e-02,-7.68945e-02,9.81875e-02,-7.32967e-02,6.20151e-02,-4.05148e-02,-4.65266e-02,6.81032e-03,2.66103e-02,-1.16968e-01,-4.66605e-02,-9.27247e-02,1.95636e-02,-4.17404e-02,1.26624e-01,7.83879e-02,-9.38299e-02,1.26893e-01,1.12808e-01,-1.52455e-03,-5.97771e-02,-1.45807e-01,6.76562e-02,-1.61605e-01,1.54348e-01,5.24381e-02,-9.31117e-02,-2.07200e-01,1.31164e-01,4.03735e-02,1.83583e-02,-9.08067e-02,1.38697e-01,-5.49243e-02,1.29399e-02,2.00153e-01,-1.12204e-02,-1.59748e-01,-1.00845e-01,-1.42114e-01,1.42958e-01,-1.36085e-01,1.67611e-01,-8.00430e-02,-9.10571e-02,1.09480e-01,-1.75329e-01,-6.39784e-02,-1.67285e-02,7.85214e-03,1.19201e-01,7.43204e-03,2.14814e-02,1.97554e-01,3.97528e-02,-1.43087e-01,-1.14961e-03,-6.67975e-02,-1.44565e-01,-7.56667e-02,-3.68530e-02,-3.10495e-02,-1.59481e-01,1.19216e-02,6.05730e-03,8.54604e-03,-3.35503e-02,-1.94560e-01,-1.21599e-02,-1.20834e-01,5.74486e-02,-5.16775e-02,1.08640e-01,4.83979e-02,4.95675e-02,-7.68797e-02,1.43431e-01,8.13441e-02,1.74489e-01,-7.26081e-02,-4.22981e-02,5.74218e-02,9.88161e-02,1.07796e-02,1.52312e-02,1.29477e-01,1.40855e-01,5.75606e-02,-6.22196e-02,7.83161e-02,4.51798e-02,7.84720e-02,4.24106e-02,3.52831e-02,1.70995e-02,1.43081e-01,2.74543e-02,1.11577e-01,1.68618e-01,-4.21947e-02,-1.19491e-02,1.43017e-01,-1.23383e-01,1.20109e-01,-1.09434e-02,1.17853e-01,1.32268e-01,-1.66299e-02,1.28649e-01,1.46795e-01,1.30451e-01,1.04327e-01,1.21100e-01,2.01509e-01,-2.01840e-02,-7.05194e-02,1.22520e-01,-2.90285e-03,-3.17795e-02,-6.16575e-02,2.79755e-02,8.46082e-02,4.55312e-02,-1.05782e-01,1.31886e-01,1.33230e-01,8.69522e-03,5.47780e-02,-6.61422e-02,1.07807e-01,1.00951e-01,2.18067e-01,4.14534e-02,9.81582e-02,1.27673e-01,-7.28683e-02,9.64914e-02,3.24472e-02,-1.17393e-02,1.05054e-01,5.14100e-02,3.86352e-02,1.81149e-01,2.36083e-02,-6.06822e-02,2.04418e-02,1.33753e-01,-9.84210e-03,-3.71587e-02,-7.56472e-03,-1.10038e-03,-9.15582e-03,4.23896e-02,-2.56950e-02,-1.32807e-01,-1.43813e-01,2.33402e-02,1.86707e-02,7.40986e-02,1.91155e-03,4.46868e-02,3.84604e-02,1.99159e-02,1.05774e-01,-1.45973e-02,1.69431e-01,5.64934e-03,1.19248e-02,-1.22608e-01,7.72168e-02,1.41303e-02,-1.62744e-01,-2.05699e-02,1.40200e-01,-1.32156e-01,5.24285e-02,-5.41560e-02,2.18903e-02,5.13799e-02,3.72827e-02,9.72908e-02,1.84876e-01,-1.39664e-02,1.55473e-02,-8.69394e-03,9.93073e-02,-1.50741e-01,-8.07455e-02,-5.07835e-02,1.24234e-01,-4.66129e-02,-7.08751e-02,3.50295e-02,-4.07522e-02,7.81071e-02,1.84995e-01,3.66154e-02,2.30392e-01,5.68044e-02,1.06330e-01,5.18531e-02,1.03644e-01,-7.92803e-03,1.17334e-01,2.57432e-01,1.13393e-01,1.46545e-01,1.14455e-01,-8.84382e-02,-1.99421e-02,6.50938e-02,9.01567e-02,1.75499e-01,6.14973e-02,-1.58752e-02,2.75433e-02,2.28364e-01,-9.18546e-02,2.71218e-03,1.48167e-01,-1.04853e-01,1.23437e-01,1.22914e-02,1.46276e-01,-1.63766e-01,2.11612e-02,-1.18903e-01,-2.87093e-02,-4.38553e-02,-1.68312e-01,2.22354e-02,1.07409e-01,9.02406e-02,-1.32434e-01,-1.09275e-01,7.07006e-02,6.17087e-02,5.83035e-02,4.48620e-02,8.85361e-02,
-7.17237e-02,7.32334e-02,-1.57016e-01,-7.32922e-02,4.25145e-02,2.72712e-02,-7.98880e-02,1.63595e-01,-2.54331e-03,1.17815e-01,-5.75498e-02,-6.58024e-02,9.39315e-02,1.73632e-02,-2.56747e-02,1.45296e-01,-2.13195e-02,-6.52930e-02,-1.31930e-01,-1.46232e-02,-7.59620e-02,7.90844e-02,-4.13263e-02,1.20100e-01,1.60561e-01,3.69348e-02,-1.40635e-01,-9.63972e-02,1.21369e-02,8.93032e-02,-3.31609e-02,-5.73888e-02,3.19691e-02,9.11753e-03,1.68484e-01,-4.87327e-02,2.11410e-02,1.46759e-01,-8.96826e-02,-1.45417e-02,-5.15614e-02,-1.56441e-02,3.50062e-02,-3.88943e-02,-1.34691e-01,-3.36494e-02,5.93049e-02,1.64266e-01,1.96273e-02,-1.78495e-01,-2.61195e-02,-9.35026e-03,-2.05808e-02,1.28021e-01,-1.45201e-01,-1.69269e-01,1.17577e-01,3.58991e-02,1.16259e-01,-5.26445e-02,-3.28947e-02,1.72778e-01,-1.78593e-02,1.60198e-01,1.50091e-01,1.08931e-01,1.10538e-01,-7.40507e-03,1.30689e-01,-2.46224e-02,-1.14913e-02,-1.14232e-02,1.25159e-01,-1.18048e-01,-9.40143e-02,-1.09601e-01,1.16205e-01,7.65922e-02,-8.14388e-02,1.30885e-01,8.88747e-03,-1.77447e-01,-1.54659e-01,5.25837e-02,3.59816e-02,1.55371e-01,-1.12732e-01,1.97542e-02,-2.66087e-02,1.80211e-01,-6.96145e-02,1.14556e-01,-3.61604e-02,-8.90010e-02,-1.86351e-02,-1.03856e-01,-2.69256e-02,-1.23556e-01,-9.65471e-02,8.61128e-02,3.76000e-02,-1.37318e-01,-1.32048e-01,-5.70329e-02,3.01507e-02,5.18530e-02,3.37070e-02,-2.46602e-02,1.02183e-01,-1.94135e-01,1.19882e-01,1.01433e-02,-8.17331e-03,-1.45145e-01,-1.57421e-01,-7.11129e-02,-8.38194e-02,4.70563e-02,9.91675e-02,6.90544e-02,-1.40633e-01,-1.59181e-02,-1.73680e-02,2.84193e-02,-3.58336e-03,5.21840e-03,-1.60869e-02,1.12859e-01,-9.72081e-02,6.46551e-02,-6.72074e-02,2.63473e-02,-1.20513e-01,3.24721e-02,2.88005e-02,1.07283e-01,1.13369e-01,6.09744e-02,-1.05102e-01,-1.06835e-01,-4.29056e-02,-4.88959e-02,-2.13357e-02,-4.00171e-02,-1.15418e-01,-7.20542e-02,-5.27886e-02,8.75357e-02,-6.78807e-03,5.82307e-02,-1.35114e-01,-9.45393e-02,-1.06382e-01,1.39784e-01,-3.02321e-02,1.57570e-01,-6.58954e-02,-7.48413e-02,-9.72695e-02,-1.61697e-01,-6.26249e-02,8.61753e-02,-8.31762e-03,-1.41579e-01,7.98965e-02,-9.52586e-02,7.35122e-02,-4.55393e-02,-9.18874e-02,9.78601e-02,6.20266e-02,-1.18885e-01,-7.51661e-02,-4.82771e-02,9.09886e-02,-2.48759e-02,1.55828e-01,-1.13227e-01,5.76068e-02,-1.39054e-01,-1.74431e-01,-5.37577e-02,-5.19120e-02,7.97283e-02,-2.02037e-01,-1.81939e-02,-8.44706e-02,-4.62940e-02,-1.94140e-01,-1.10495e-01,-9.38095e-02,3.15003e-02,-1.48774e-01,-5.80748e-02,-9.59971e-02,-4.19626e-02,-6.34455e-02,-1.13227e-01,-1.20409e-01,-1.65064e-01,-1.49470e-01,-1.19515e-01,-1.01119e-01,-1.12150e-01,1.27242e-02,-1.30346e-01,-2.55992e-01,-1.59944e-01,-1.89462e-01,-1.16329e-01,-3.39372e-02,2.92614e-02,-1.03207e-02,6.64496e-02,-1.60120e-01,-4.90286e-02,-2.06499e-01,-5.30475e-02,-4.03334e-02,-1.91699e-01,-8.37742e-02,-1.43274e-01,-4.08806e-02,-1.98739e-01,-3.89785e-02,4.01953e-03,1.10113e-02,-1.61265e-01,3.94447e-02,-5.74859e-02,3.13970e-02,-7.40575e-02,-8.52302e-02,-8.47776e-02,-8.45737e-02,-1.04985e-01,-1.28582e-02,-5.52902e-02,5.57908e-02,-2.15372e-01,-4.54581e-02,-1.95601e-01,7.76741e-02,-1.52423e-01,-9.28036e-03,-8.50964e-02,8.12156e-02,-8.26584e-02,1.78951e-02,1.38568e-01,-5.71869e-02,6.46653e-02,-1.62224e-01,-6.31036e-02,1.87501e-02,1.22867e-01,-4.36210e-02,9.72739e-02,-9.35770e-02,4.05593e-02,-1.13549e-01,9.78413e-02,-8.56897e-02,-9.63033e-02,-1.34780e-01,8.95575e-03,1.00076e-01,-2.58653e-02,-6.16455e-02,8.81796e-02,-5.03437e-02,-1.18173e-01,-4.09860e-03,4.31787e-02,-1.71206e-01,-1.49376e-01,-2.45826e-01,-2.30417e-01,-1.54510e-02,-2.46226e-01,-2.05729e-01,8.62147e-02,-1.52367e-01,-2.49415e-01,-1.72743e-01,-2.07856e-01,-2.17533e-02,-1.75373e-01,-1.24784e-01,-1.78040e-01,-2.96468e-01,-2.49318e-01,-8.23161e-02,-1.19880e-01,-1.04603e-01,-6.00569e-02,-2.78230e-01,-2.07095e-01,-2.44771e-01,-1.52642e-01,-5.59438e-02,8.57905e-02,-1.06013e-01,-3.63412e-02,-1.83387e-01,-9.69677e-02,-3.40834e-02,8.88053e-02,-1.08982e-02,-9.48056e-02,-1.78123e-01,-1.71013e-01,-2.49135e-02,-6.80953e-02,-5.35938e-02,5.17198e-03,8.36072e-02,-1.11383e-01,-2.34987e-02,1.79627e-01,1.44216e-02,1.45958e-01,-8.05126e-02,-4.92197e-02,-4.88704e-02,2.83038e-02,1.30269e-01,1.29829e-02,-1.11080e-01,-1.33096e-01,-1.77754e-01,-2.99352e-02,-1.12002e-01,-6.99394e-02,-4.01396e-03,-9.90794e-02,-4.30648e-03,-6.79446e-02,-1.03974e-01,-2.69044e-02,-5.48672e-02,-1.36348e-01,-1.03878e-01,-2.61285e-02,7.25889e-02,-1.20745e-01,-2.59269e-02,1.48387e-01,9.91083e-02,-5.03805e-02,-5.69021e-02,-1.21524e-02,-1.08361e-01,-1.20219e-01,-2.23194e-01,-9.62435e-02,5.24651e-02,-1.58443e-01,-6.76160e-02,-3.54150e-02,-1.11184e-01,-2.52704e-02,-1.84062e-02,-2.55241e-01,-5.95983e-02,5.60601e-02,-1.29479e-01,-4.69052e-02,-4.14494e-02,5.07712e-02,-1.68123e-01,7.26907e-02,-7.79133e-02,-7.44952e-02,9.21961e-02,1.13731e-01,-9.63090e-02,3.76980e-02,6.28871e-02,-7.45405e-02,-8.01976e-02,4.14913e-02,5.93781e-02,-1.25479e-01,1.66100e-01,-7.64340e-02,-1.69071e-01,-2.38907e-02,4.88913e-02,3.02318e-02,-5.33482e-02,-2.50422e-02,4.59142e-02,-2.40936e-02,2.61539e-02,1.74548e-01,-7.98760e-02,4.96354e-02,-1.14703e-01,7.03166e-02,4.32361e-02,8.63154e-02,-1.21988e-02,5.47402e-02,7.94344e-02,-1.10440e-01,5.41607e-02,-5.07608e-02,5.47277e-02,1.09797e-01,-3.55648e-03,3.78224e-02,-5.46385e-03,-1.46979e-03,-1.46532e-02,1.68121e-01,-4.32525e-03,3.95485e-02,-7.73983e-02,5.13290e-02,1.86924e-02,-3.27215e-02,8.65338e-02,-2.26191e-02,6.55342e-02,9.42943e-03,-2.46274e-02,-5.42971e-02,-6.71659e-02,-1.51582e-02,1.11710e-01,6.25199e-02,1.05276e-01,1.43360e-02,1.35735e-01,-8.42508e-02,-8.51080e-03,2.42276e-02,-4.57546e-02,-1.27794e-02,4.60721e-02,-3.59041e-02,-2.55517e-03,-7.71102e-02,-1.04680e-01,1.51674e-01,-4.21740e-02,-3.66319e-02,-1.03879e-01,-9.05707e-02,6.54452e-02,4.15316e-03,7.42616e-02,7.88900e-03,-1.06334e-01,1.97622e-01,1.65896e-02,-4.39922e-02,2.43643e-01,3.80054e-02,1.65791e-01,-1.25882e-01,-9.93924e-02,2.52281e-03,-1.07258e-01,-1.43954e-01,4.92913e-02,-1.24253e-01,-9.25345e-03,2.47849e-02,7.75039e-02,-5.27772e-04,1.10067e-01,-2.03012e-02,5.43537e-02,-1.14199e-01,5.44386e-02,1.05145e-01,-1.82410e-02,-3.98644e-02,-3.42538e-02,1.21709e-01,1.59125e-01,-2.56641e-02,3.48492e-03,-8.25016e-02,3.46947e-02,8.81553e-02,3.98109e-02,1.71735e-02,8.96136e-02,1.27595e-01,5.81486e-02,1.14727e-01,-6.16049e-02,5.94767e-02,7.67823e-02,7.62515e-03,6.05561e-02,7.73425e-02,1.72652e-01,-1.85035e-02,-6.45822e-02,5.97610e-02,4.95380e-02,9.10266e-02,1.28215e-01,-1.59739e-01,-1.10186e-01,-3.46816e-02,2.57964e-02,-5.00989e-02,-7.98533e-02,6.42220e-02,-7.96148e-02,-6.95790e-02,-1.74903e-01,-1.03466e-01,-3.32959e-02,-9.13426e-02,-1.75064e-01,-1.23391e-01,-6.63878e-02,8.82366e-02,-1.32003e-02,8.08436e-02,4.36615e-02,-1.46406e-01,3.63264e-02,3.60760e-02,-6.63607e-02,-1.78600e-01,-8.07273e-02,1.55295e-01,1.31443e-01,-3.48004e-03,-2.62578e-02,2.98529e-02,2.70605e-02,-3.55787e-02,-1.18835e-01,-1.14205e-02,1.90616e-02,-8.36611e-03,-7.29970e-02,1.06191e-01,4.38242e-03,1.49313e-01,4.80931e-02,-2.53900e-02,1.39921e-02,-7.66095e-02,1.88532e-01,1.74759e-01,7.89177e-02,1.33998e-01,-1.57392e-01,-4.24895e-02,-6.11328e-02,-2.48310e-02,2.65037e-02,-1.37378e-02,1.00173e-01,1.91760e-02,5.41608e-02,-1.90666e-01,6.57243e-02,1.95582e-02,-2.16254e-02,-2.73668e-02,-4.84740e-02,-6.13319e-02,4.13392e-02,1.63840e-01,5.42326e-02,3.80253e-03,1.61341e-01,3.92667e-02,-1.67731e-02,2.38356e-02,-4.17700e-02,1.20187e-01,3.55099e-02,-7.59237e-02,-3.11367e-02,-9.90444e-02,-1.15586e-02,5.25324e-02,-1.43235e-01,-1.99266e-03,1.10763e-01,-9.60333e-02,-1.06853e-01,3.62024e-02,9.94942e-02,2.49194e-02,-1.65464e-02,-1.23944e-02,-5.58001e-02,4.45573e-02,-6.98862e-02,9.46866e-03,6.05780e-02,-3.76636e-02,-4.10318e-02,6.03581e-02,-1.00927e-01,7.94172e-02,-4.45497e-02,-7.72898e-02,1.27969e-01,-1.18665e-03,1.92406e-02,-3.47308e-02,1.12524e-01,-9.22514e-02,-1.54544e-02,-1.23247e-01,8.06719e-02,2.72540e-02,-1.52233e-01,-1.13249e-01,-7.82775e-02,-8.37161e-03,-1.17600e-01,4.39072e-03,6.23724e-02,1.14397e-01,3.73489e-02,1.79756e-01,3.72615e-02,-7.79697e-02,9.13352e-03,4.85121e-02,1.73822e-01,1.28240e-01,3.52506e-02,1.12786e-02,4.90406e-02,2.26234e-02,9.16292e-02,3.75700e-02,2.97987e-02,-6.12631e-02,4.87119e-02,-2.75181e-02,9.15238e-03,9.43699e-02,-1.06516e-02,1.07441e-01,7.08499e-02,-1.25515e-01,2.50483e-02,-4.19190e-02,2.51356e-02,1.57638e-02,-9.28008e-02,-3.32809e-02,6.42596e-02,1.74060e-02,1.52971e-02,-3.81956e-02,1.31643e-01,1.68683e-01,-1.81177e-01,-2.97122e-02,-6.12630e-02,5.91033e-02,-1.65058e-01,7.25032e-02,2.79080e-02,3.30758e-02,5.42468e-03,1.54425e-01,-4.93418e-02,7.23782e-03,3.52809e-02,1.03959e-01,1.98078e-02,8.85511e-02,-4.18917e-02,1.15924e-01,1.37381e-01,3.93241e-02,-1.82425e-01,-7.22288e-02,-1.08698e-01,1.69291e-01,5.66762e-02,-1.13664e-01,-1.11116e-01,4.43686e-02,2.29348e-02,-4.13396e-02,1.76809e-01,9.64500e-02,1.66209e-02,-6.47440e-02,4.95622e-02,6.62676e-02,7.79917e-03,3.60472e-02,1.27512e-01,5.42992e-02,1.04189e-01,1.31911e-01,-1.21812e-02,-8.02074e-02,1.17455e-01,1.53398e-01,4.12277e-02,3.98100e-02,-7.65079e-03,1.29413e-02,-7.04153e-02,5.01884e-03,-4.16156e-02,-1.74388e-01,-2.89679e-04,7.17944e-02,1.04494e-01,1.71526e-01,3.61722e-02,2.05853e-01,-2.34565e-02,-2.49377e-02,-2.02145e-02,5.16828e-02,7.93552e-03,7.44851e-02,2.44777e-02,8.61116e-02,2.99267e-02,1.62834e-01,1.32067e-01,-1.59482e-01,2.06233e-02,-7.78166e-02,8.06715e-02,1.33629e-02,-2.33483e-02,8.58709e-02,1.37654e-01,-4.04237e-02,-1.48026e-02,-1.93160e-01,-1.86971e-02,-1.69272e-01,-1.55638e-02,-5.06394e-02,-2.95662e-02,7.26655e-02,1.07049e-01,-2.00970e-02,4.86542e-02,8.19226e-02,-4.71702e-02,-4.99342e-02,-5.75229e-03,-1.64110e-01,-8.72073e-02,-1.64722e-01,-8.05626e-02,-5.59287e-02,1.37327e-01,-1.28499e-01,1.84089e-01,3.28576e-02,-2.58255e-01,-4.81839e-02,-2.28121e-01,1.51401e-02,-1.13332e-01,-1.75205e-01,-5.25903e-02,-9.54615e-04,-5.41079e-02,-1.45184e-02,1.70352e-01,-6.19223e-02,-1.27739e-02,1.00526e-01,1.89102e-03,-1.69918e-02,-1.46563e-01,1.04460e-01,6.48268e-02,3.55268e-02,-5.43541e-03,1.79891e-01,-2.88288e-02,1.51972e-01,3.57473e-03,5.70395e-02,7.30424e-03,-1.28308e-01,-9.54374e-02,1.29077e-01,5.78858e-02,-6.09004e-02,-4.03516e-03,1.20766e-01,-3.41099e-02,6.04894e-03,-7.68030e-02,7.74571e-02,-3.49684e-03,5.79456e-02,-9.35155e-02,-5.22796e-02,2.56500e-02,4.85965e-02,-4.63579e-02,-2.73923e-02,1.46690e-02,5.45926e-02,-3.90127e-02,4.82295e-02,-6.61402e-02,7.43817e-02,-2.62494e-02,1.20384e-01,-1.15046e-02,1.36683e-01,1.66328e-01,-1.60773e-01,2.91881e-02,1.49247e-02,-2.81739e-02,-5.42081e-02,-9.13972e-02,-7.79261e-02,-1.72099e-01,3.92682e-02,6.65743e-02,-2.07972e-01,3.82140e-02,-6.71180e-02,-2.05945e-01,-5.46832e-02,7.34212e-03,-8.89353e-02,-1.40810e-01,1.98427e-02,-5.87166e-02,-3.77391e-02,-4.50143e-02,1.18992e-01,-7.19914e-02,-2.07250e-01,5.37594e-02,1.08403e-01,2.11722e-02,-5.45610e-03,9.02910e-02,1.30679e-02,3.29875e-02,3.10619e-02,1.35183e-02,-1.09099e-01,1.28982e-01,2.09251e-02,1.65281e-01,-2.89297e-02,-3.57592e-02,-7.01918e-03,5.16312e-03,-3.87455e-02,9.97082e-02,4.02925e-02,6.12930e-02,-5.83805e-02,-1.43690e-02,9.27050e-02,8.87216e-02,-6.61026e-02,-3.44017e-02,8.44287e-02,6.79300e-02,-1.16142e-01,5.54918e-03,-5.60013e-02,-5.99230e-02,1.13358e-03,1.60724e-01,-1.22011e-01,-7.30910e-02,-8.24225e-02,1.10574e-01,5.32131e-02,-6.44045e-02,1.72006e-01,-9.84277e-02,4.46735e-02,1.49100e-02,6.84614e-04,-1.44447e-01,8.96247e-02,5.88775e-02,9.55957e-02,7.29750e-02,-3.44204e-02,-5.02993e-02,1.38535e-01,-3.03599e-02,-8.10944e-02,7.60527e-02,-2.10594e-02,-1.04589e-01,-2.99063e-02,6.01585e-02,4.27061e-02,5.33486e-02,-1.38157e-01,-1.89992e-02,6.94324e-02,-7.18191e-02,-1.51538e-01,-3.47705e-03,-1.78472e-02,-1.64173e-01,5.13684e-02,1.74145e-02,1.39514e-01,3.20270e-02,-6.49905e-02,-8.49416e-02,-1.72022e-03,-8.29037e-02,-6.64050e-02,2.07621e-02,-1.37208e-01,-1.70284e-01,-5.42970e-02,-5.04955e-02,-1.29053e-01,1.69325e-01,-8.87050e-02,-4.67894e-02,1.49406e-01,1.55712e-01,-9.37392e-03,6.46857e-02,1.73044e-01,-1.12385e-01,9.92092e-02,1.72095e-01,1.11851e-01,-2.33809e-02,1.40383e-01,7.93001e-03,-1.01778e-01,3.05927e-02,7.17266e-02,3.80105e-02,-5.99930e-02,1.17435e-01,3.00171e-02,-1.09273e-01,1.09439e-01,4.97433e-02,9.39299e-02,7.23264e-02,9.09341e-03,-1.22662e-01,2.81453e-02,1.03068e-01,1.84442e-01,-3.97855e-02,1.12979e-02,1.73064e-02,-1.27301e-02,-1.54247e-02,-2.71441e-02,1.96205e-01,1.05355e-01,1.99181e-02,-2.69983e-02,2.67346e-02,-1.03701e-02,-2.57625e-02,4.69708e-02,2.19981e-02,5.62133e-02,1.02924e-01,1.59214e-01,5.99302e-02,1.35718e-02,1.57851e-01,1.02704e-01,-5.34109e-02,-4.69203e-02,1.56958e-01,-2.04855e-02,6.23704e-02,-2.83331e-02,1.00571e-01,-7.88277e-02,1.06368e-03,8.73157e-02,3.87778e-02,-1.81752e-01,-1.04343e-01,-1.88919e-03,9.90472e-02,3.91772e-02,6.95873e-03,1.27798e-01,1.51177e-03,-1.41596e-02,-2.06773e-02,-1.59244e-01,-4.77354e-02,-6.30132e-02,-1.21511e-01,5.27154e-02,-7.07549e-02,-6.52703e-02,7.82446e-02,1.57417e-01,7.82030e-03,1.90823e-01,-3.51787e-02,6.97082e-02,-1.82263e-02,1.39899e-01,-1.25659e-01,1.41095e-01,1.47583e-02,5.72098e-02,1.17151e-01,6.79912e-02,-7.91211e-02,-1.67411e-02,1.37916e-01,1.38697e-01,-2.41278e-02,5.25898e-02,8.10731e-04,-8.15832e-02,2.20952e-02,2.59273e-02,9.41861e-02,-3.87948e-02,2.15998e-02,-8.46803e-02,-8.85046e-02,5.32761e-02,-1.95977e-01,4.90697e-02,-9.14162e-03,1.93247e-01,-1.36117e-02,8.04700e-02,-6.91132e-02,-1.76874e-02,1.24898e-01,4.35340e-02,-1.87541e-02,4.17743e-02,-3.45864e-02,-7.32144e-02,-1.17505e-01,1.38166e-01,1.64999e-01,1.52422e-02,-4.35963e-02,1.10326e-02,1.38929e-01,-3.71559e-02,2.11378e-01,2.25752e-01,7.97633e-02,2.18263e-01,8.06081e-02,3.45830e-03,-3.30631e-02,1.88099e-01,1.40551e-01,1.98140e-01,-1.28636e-02,-1.44404e-01,-6.75842e-02,-1.97153e-02,-5.30084e-03,-1.54177e-01,-8.54258e-02,-1.48651e-01,9.54032e-02,1.69774e-01,9.11553e-02,-2.82013e-02,-1.16371e-01,5.96938e-02,-7.03728e-02,5.04624e-02,5.45054e-02,-1.88374e-01,-9.35874e-02,-7.91747e-02,-1.01437e-01,-5.54152e-02,1.01355e-01,1.11506e-02,-5.41941e-02,9.64948e-02,1.78817e-01,1.28595e-01,-1.19366e-01,-3.86416e-02,1.47600e-01,-8.47226e-02,-1.90993e-02,5.12777e-02,1.72122e-01,1.31536e-01,4.78919e-02,1.25068e-01,3.80101e-02,-9.74577e-02,1.36688e-01,1.15507e-01,9.05946e-02,-1.43262e-02,8.13312e-02,-1.24274e-01,1.08470e-01,3.28056e-02,-1.04471e-01,-1.27123e-01,-3.31574e-02,3.44884e-02,6.03795e-02,5.56260e-02,-9.01754e-02,1.68459e-01,2.13955e-01,8.68992e-02,1.09766e-01,-4.53179e-02,1.52434e-01,-6.95733e-02,-6.71168e-02,1.42787e-01,8.31917e-02,6.74374e-03,-5.40320e-03,4.48311e-02,-3.11992e-02,1.94975e-01,8.64875e-03,-3.19233e-02,1.86755e-01,1.75442e-01,8.62613e-02,-3.71998e-02,1.41287e-01,1.41461e-01,1.47236e-04,9.93268e-02,1.00129e-01,1.95717e-01,2.37142e-02,9.65889e-05,-6.13661e-02,8.87273e-02,-1.31477e-01,5.39950e-02,3.59496e-04,1.34969e-02,2.92910e-02,-3.29837e-02,-9.53417e-02,6.75396e-02,6.82574e-02,-7.33088e-02,5.05045e-02,-8.73190e-02,3.77836e-02,-1.54560e-01,-5.11365e-02,4.79325e-02,-1.33922e-01,-1.15737e-01,1.12059e-01,1.02027e-01,-4.28225e-02,5.78479e-02,1.31082e-01,1.02177e-01,2.42817e-01,6.57294e-02,3.30942e-02,4.69790e-02,2.75245e-01,8.70636e-02,4.90828e-02,-1.14791e-01,3.92465e-02,6.07893e-02,1.08515e-01,8.25164e-02,1.42115e-01,7.99588e-02,2.73488e-02,-1.53274e-01,-4.30717e-02,-6.93968e-02,-8.93108e-02,-6.93472e-02,5.54751e-02,5.35755e-02,-5.19069e-02,1.50275e-01,1.82491e-01,2.25079e-01,6.37361e-02,-7.27801e-02,1.04351e-01,1.65851e-01,1.74556e-01,-3.18694e-02,1.63513e-01,2.98350e-02,1.12963e-01,1.91051e-01,4.94053e-02,1.05483e-01,-3.49858e-02,1.52251e-01,1.66192e-01,3.47805e-02,-7.13669e-02,6.88071e-02,1.30556e-02,1.05187e-01,1.23146e-01,9.63720e-02,1.04808e-01,-3.65857e-02,2.02412e-01,-2.24325e-02,7.55609e-02,-1.13129e-01,9.02637e-02,-1.61505e-01,-1.57759e-01,-6.92444e-02,-6.32757e-02,-8.05311e-02,-1.68413e-01,-9.74689e-03,-7.21672e-02,-1.70906e-01,6.06447e-02,1.23820e-01,-8.23369e-02,-1.46406e-01,8.29749e-02,-6.92846e-02,4.66617e-02,-8.95812e-02,-8.55368e-02,3.41820e-02,5.64179e-02,1.34645e-01,-5.46781e-02,3.92271e-02,6.95952e-02,1.47430e-02,1.35597e-01,-3.66682e-03,8.49779e-02,-2.50610e-02,-4.05241e-02,2.76442e-02,-4.55410e-02,-1.12524e-01,3.50265e-02,5.55602e-02,7.20062e-02,-6.16302e-02,-6.58475e-02,2.76055e-02,1.63792e-01,2.05778e-01,-7.28015e-02,3.83496e-02,-6.63022e-02,-9.25487e-02,6.27704e-02,2.26942e-02,2.33334e-02,5.08575e-02,-8.37806e-03,6.56143e-02,3.58932e-03,5.09693e-03,2.10677e-01,1.64083e-02,-5.38351e-02,1.30254e-01,1.98103e-02,-1.52641e-02,9.09227e-02,-3.82100e-02,1.35005e-02,-5.52953e-02,3.48307e-02,-5.39009e-02,3.91917e-03,1.10736e-01,1.16496e-01,-3.10037e-02,4.65477e-03,5.97485e-02,4.42068e-02,6.01616e-02,-8.76099e-02,-1.98943e-02,2.37837e-02,-2.20386e-02,-1.37566e-01,9.30899e-02,4.62411e-03,5.85177e-02,-2.02865e-02,5.27215e-02,-1.25359e-01,3.34756e-02,-6.91341e-03,-1.73897e-01,-1.51603e-01,5.98428e-02,-1.70468e-01,1.43156e-03,-1.84210e-01,7.62559e-02,7.56553e-02,-3.10616e-02,-1.34024e-01,6.60663e-02,6.00978e-02,1.71412e-01,7.99242e-02,-2.82898e-02,-1.54496e-01,-1.58283e-02,7.67372e-03,6.59176e-02,4.84194e-02,-2.05719e-02,1.74598e-02,-1.37099e-01,1.19859e-01,6.72258e-02,4.44574e-02,-1.54069e-01,-6.48460e-02,5.86673e-03,-8.20511e-02,-1.82695e-01,-5.96725e-02,-1.16859e-01,9.08326e-02,1.05630e-01,-3.37394e-02,1.25329e-01,-7.68254e-02,2.17056e-01,1.82482e-01,6.91915e-03,-3.05320e-02,6.87389e-03,-2.04892e-02,-2.62843e-02,1.28900e-01,5.53950e-02,1.51318e-01,-3.81228e-02,1.36222e-01,1.91009e-03,-7.02428e-02,-5.16026e-02,6.29826e-02,1.42283e-01,1.45617e-01,7.35103e-02,-7.38596e-03,6.93875e-02,-4.92704e-02,9.05675e-02,-4.94232e-02,9.12992e-02,-5.17948e-02,1.34417e-01,-2.13016e-02,1.14021e-01,-1.29708e-01,-8.47108e-02,2.30722e-03,3.63926e-02,1.90353e-02,-1.18221e-02,-1.08313e-01,3.01030e-02,-3.47934e-02,-6.11303e-02,8.91171e-02,-2.05311e-01,-3.30597e-03,4.86605e-03,1.68671e-01,-2.58742e-03,3.06785e-02,-1.74498e-01,-5.74044e-03,-5.85081e-02,1.30264e-02,-1.45452e-01,2.36895e-03,-1.46875e-01,5.99373e-02,-6.88631e-03,-1.81006e-02,9.63253e-02,-3.64640e-02,6.24223e-02,1.23587e-01,7.63591e-02,-3.61672e-02,-3.36583e-02,1.64425e-02,8.01993e-02,-1.57735e-01,-1.36501e-01,8.98253e-03,-7.08742e-02,-8.76346e-02,7.89864e-02,5.74248e-02,-3.02266e-02,1.35869e-01,-2.79376e-02,-1.87262e-02,1.11592e-01,9.12703e-02,8.41546e-02,1.44992e-01,1.90204e-01,1.72334e-01,1.50699e-01,7.76608e-02,1.38458e-01,3.23931e-02,4.29842e-02,-5.38346e-02,1.39830e-01,-4.09161e-03,8.19782e-02,1.99548e-01,8.11576e-02,9.23550e-02,-2.57262e-02,4.16005e-02,1.24644e-01,1.33307e-01,4.88635e-02,-4.95683e-02,4.73587e-02,1.16245e-02,8.85619e-02,2.89051e-02,1.04852e-01,-3.26698e-03,-4.98530e-02,3.63974e-02,2.73457e-02,-4.56196e-02,3.93059e-02,-1.00700e-02,-5.94741e-02,-1.80359e-02,-3.51323e-02,-1.96868e-02,-1.45308e-02,-8.03629e-03,8.16787e-02,-8.48782e-02,-4.62342e-02,1.04779e-02,2.83963e-02,-1.59391e-01,7.82273e-02,-1.58133e-01,-8.64009e-02,-1.40646e-01,2.09425e-02,-1.11922e-01,-7.17181e-02,8.18802e-02,6.74311e-02,3.30362e-02,-7.19421e-02,-1.77863e-02,1.09646e-01,-1.17492e-01,4.55573e-03,-1.29579e-01,-3.84191e-02,-1.16973e-01,-4.60710e-02,4.62661e-02,-1.13500e-01,3.01691e-02,-2.12566e-01,-1.27726e-01,1.14387e-01,-1.15464e-01,-1.32685e-01,-1.40869e-01,-3.49029e-03,8.99321e-03,8.45970e-02,-3.41265e-02,2.50762e-02,-2.07604e-02,-4.12461e-02,1.28404e-01,1.38768e-02,1.00389e-01,-4.39103e-02,5.89271e-04,5.81411e-02,5.85873e-02,8.27906e-02,7.39958e-02,5.05170e-03,3.37888e-02,2.29298e-01,-3.56050e-02,-3.46617e-02,7.29126e-02,2.05303e-01,-3.06209e-02,1.69543e-01,2.36178e-02,7.15764e-02,6.90206e-02,-5.36340e-02,1.34113e-01,1.85588e-01,7.70841e-02,-6.64558e-02,5.86488e-02,-5.59919e-02,1.53480e-01,-1.56849e-01,-1.01566e-01,-5.95502e-02,-7.02024e-02,-4.66127e-02,-1.38473e-01,-6.12150e-02,4.87388e-03,8.58478e-02,-5.80579e-02,-7.11566e-03,-3.74943e-02,-6.00077e-02,-1.34132e-01,-9.42741e-02,-9.61714e-02,-1.60321e-01,-3.18674e-02,8.92069e-02,7.22896e-03,-1.80846e-01,-4.60715e-02,-1.28974e-02,-2.42940e-01,8.01516e-02,-9.16239e-02,-7.56799e-02,-6.17192e-03,-1.27902e-01,6.73008e-03,-1.27330e-01,-3.42759e-02,-1.61259e-01,2.03502e-02,-1.00408e-01,-2.14156e-01,-8.75494e-02,7.25519e-02,-1.79945e-02,2.01611e-02,-1.45638e-02,6.42471e-02,4.36507e-02,1.03806e-01,5.05092e-02,-9.54421e-04,-1.89752e-02,1.30214e-01,-7.03409e-02,5.66978e-02,-4.70722e-02,-7.49547e-02,-1.66172e-01,-1.81759e-01,-1.16619e-02,-1.22318e-01,8.69749e-02,6.86988e-02,-8.04426e-02,-8.73881e-02,3.61026e-02,6.17536e-02,6.86360e-02,4.32138e-02,-4.74713e-02,-6.27087e-02,-1.23315e-01,-1.02205e-01,-6.17840e-02,8.38572e-02,-8.50959e-03,1.70234e-01,-1.27546e-01,-6.25844e-02,5.29729e-02,1.51186e-02,7.59898e-02,7.99134e-02,-9.07404e-02,7.23303e-02,-6.10033e-02,-4.83476e-02,-5.57422e-03,-2.19443e-02,-3.59328e-02,1.18494e-01,-9.41916e-02,-1.14295e-01,-2.44884e-02,-2.86704e-02,-6.12480e-02,-7.01151e-03,-1.01586e-01,5.39559e-02,-1.83325e-02,-4.14358e-02,-8.98680e-02,2.27914e-02,-2.54967e-02,6.30827e-02,-1.83915e-01,8.27157e-02,-6.30835e-02,8.55048e-03,1.37740e-03,4.78391e-02,-5.20691e-02,-1.37888e-01,-7.04314e-03,-1.25407e-01,-9.89141e-02,-6.38810e-02,-8.72006e-02,-3.69226e-02,-1.40223e-01,-1.43332e-01,-1.73745e-01,8.09657e-02,6.05076e-02,-3.44054e-03,5.39167e-02,-1.82723e-02,2.69424e-02,8.04921e-02,-1.52402e-01,-9.50274e-02,8.02802e-02,3.34452e-02,6.44526e-02,-1.48857e-01,-1.24269e-02,3.06792e-02,8.94043e-03,-2.58646e-01,-1.79937e-01,-1.03424e-01,-1.39303e-01,4.18853e-02,-2.08039e-01,-6.70373e-03,-1.48699e-01,3.25035e-02,-6.70773e-02,-5.21956e-03,9.13834e-02,-6.97025e-02,3.72434e-02,9.12270e-02,2.64914e-03,-5.49285e-02,-1.95257e-02,-2.14151e-01,1.11199e-01,-1.28913e-01,3.81082e-02,-1.62926e-01,-1.81443e-01,-7.25419e-02,-2.86587e-02,-2.83309e-02,-5.80408e-02,-6.98638e-02,3.27706e-02,4.65981e-02,-1.24051e-01,4.97777e-02,2.55431e-02,6.58768e-02,-4.17502e-02,2.77351e-02,-1.42791e-02,-6.10586e-02,-6.37439e-02,9.40918e-02,1.28047e-01,-1.96544e-04,-2.64236e-02,-3.76248e-02,-1.50309e-01,7.99599e-02,-9.15468e-02,-1.39564e-01,1.43343e-02,8.48190e-02,1.20163e-01,1.52202e-01,-8.79358e-02,-9.63315e-02,5.03548e-03,6.16628e-02,-3.88767e-02,3.16330e-02,-4.99311e-02,-1.90940e-02,-1.31736e-01,6.44093e-02,-5.90486e-02,-7.52074e-02,-7.96916e-03,-6.87419e-03,8.84008e-02,8.93078e-02,-7.14947e-02,-7.62016e-02,1.07459e-01,-5.76516e-02,1.97394e-01,-1.49625e-01,6.30452e-02,7.44894e-02,-4.42619e-02,2.19056e-02,-1.46723e-01,-5.16733e-02,1.56345e-02,-1.44857e-01,-1.29934e-02,6.95803e-03,-5.96543e-02,-1.10835e-01,-1.35891e-01,3.79855e-02,1.77009e-02,1.27967e-02,-1.46057e-01,-6.45222e-02,-8.53723e-02,6.84794e-02,-6.85690e-02,1.70808e-01,-4.41140e-02,7.47452e-02,-7.48145e-02,3.13634e-02,-1.52591e-01,-1.29026e-01,-1.97674e-01,6.00741e-02,-3.11119e-02,-5.94381e-02,-1.08192e-02,-2.03282e-01,3.83401e-02,-6.88349e-02,1.80281e-02,4.74034e-02,-5.24707e-03,-1.37362e-01,3.45305e-02,4.47985e-02,5.77720e-03,-1.21173e-01,2.29634e-02,-1.12703e-01,1.03886e-01,9.95290e-02,-1.66259e-01,6.51590e-02,-5.30349e-02,-1.71766e-01,-6.46456e-02,7.36688e-03,-1.84193e-01,-1.35339e-01,1.07253e-01,-9.13200e-02,3.44291e-02,3.35096e-02,-7.40052e-02,7.58823e-03,-1.28880e-01,1.25437e-01,4.78393e-02,-6.84789e-02,-3.54056e-03,-4.08797e-02,-8.40188e-02,-1.79721e-02,-1.81735e-02,4.59866e-03,-1.76259e-01,1.16791e-01,-3.51733e-02,-7.27833e-03,-6.44106e-02,-1.18856e-01,7.77320e-02,3.63989e-02,8.50337e-02,-1.09735e-02,8.76934e-02,2.16281e-02,2.60653e-02,1.01284e-01,1.01159e-01,3.58167e-02,-1.49158e-01,5.84271e-02,-1.28835e-01,-1.17252e-01,3.68027e-02,-1.18105e-01,-1.57028e-01,-4.44657e-02,1.24339e-01,-1.33185e-01,1.17285e-01,2.24980e-02,-6.18704e-02,-5.13196e-02,-4.66306e-02,3.87686e-02,-8.34285e-02,