// Neural Network File Format by Kyle Julian, Stanford 2016
7,2352,10,2352,
2352,50,50,50,50,50,50,10,
0,
0,0,0,0,0,0,0,0,0,0,0,0,0,0,0,0,0,0,0,0,0,0,0,0,0,0,0,0,0,0,0,0,0,0,0,0,0,0,0,0,0,0,0,0,0,0,0,0,0,0,0,0,0,0,0,0,0,0,0,0,0,0,0,0,0,0,0,0,0,0,0,0,0,0,0,0,0,0,0,0,0,0,0,0,0,0,0,0,0,0,0,0,0,0,0,0,0,0,0,0,0,0,0,0,0,0,0,0,0,0,0,0,0,0,0,0,0,0,0,0,0,0,0,0,0,0,0,0,0,0,0,0,0,0,0,0,0,0,0,0,0,0,0,0,0,0,0,0,0,0,0,0,0,0,0,0,0,0,0,0,0,0,0,0,0,0,0,0,0,0,0,0,0,0,0,0,0,0,0,0,0,0,0,0,0,0,0,0,0,0,0,0,0,0,0,0,0,0,0,0,0,0,0,0,0,0,0,0,0,0,0,0,0,0,0,0,0,0,0,0,0,0,0,0,0,0,0,0,0,0,0,0,0,0,0,0,0,0,0,0,0,0,0,0,0,0,0,0,0,0,0,0,0,0,0,0,0,0,0,0,0,0,0,0,0,0,0,0,0,0,0,0,0,0,0,0,0,0,0,0,0,0,0,0,0,0,0,0,0,0,0,0,0,0,0,0,0,0,0,0,0,0,0,0,0,0,0,0,0,0,0,0,0,0,0,0,0,0,0,0,0,0,0,0,0,0,0,0,0,0,0,0,0,0,0,0,0,0,0,0,0,0,0,0,0,0,0,0,0,0,0,0,0,0,0,0,0,0,0,0,0,0,0,0,0,0,0,0,0,0,0,0,0,0,0,0,0,0,0,0,0,0,0,0,0,0,0,0,0,0,0,0,0,0,0,0,0,0,0,0,0,0,0,0,0,0,0,0,0,0,0,0,0,0,0,0,0,0,0,0,0,0,0,0,0,0,0,0,0,0,0,0,0,0,0,0,0,0,0,0,0,0,0,0,0,0,0,0,0,0,0,0,0,0,0,0,0,0,0,0,0,0,0,0,0,0,0,0,0,0,0,0,0,0,0,0,0,0,0,0,0,0,0,0,0,0,0,0,0,0,0,0,0,0,0,0,0,0,0,0,0,0,0,0,0,0,0,0,0,0,0,0,0,0,0,0,0,0,0,0,0,0,0,0,0,0,0,0,0,0,0,0,0,0,0,0,0,0,0,0,0,0,0,0,0,0,0,0,0,0,0,0,0,0,0,0,0,0,0,0,0,0,0,0,0,0,0,0,0,0,0,0,0,0,0,0,0,0,0,0,0,0,0,0,0,0,0,0,0,0,0,0,0,0,0,0,0,0,0,0,0,0,0,0,0,0,0,0,0,0,0,0,0,0,0,0,0,0,0,0,0,0,0,0,0,0,0,0,0,0,0,0,0,0,0,0,0,0,0,0,0,0,0,0,0,0,0,0,0,0,0,0,0,0,0,0,0,0,0,0,0,0,0,0,0,0,0,0,0,0,0,0,0,0,0,0,0,0,0,0,0,0,0,0,0,0,0,0,0,0,0,0,0,0,0,0,0,0,0,0,0,0,0,0,0,0,0,0,0,0,0,0,0,0,0,0,0,0,0,0,0,0,0,0,0,0,0,0,0,0,0,0,0,0,0,0,0,0,0,0,0,0,0,0,0,0,0,0,0,0,0,0,0,0,0,0,0,0,0,0,0,0,0,0,0,0,0,0,0,0,0,0,0,0,0,0,0,0,0,0,0,0,0,0,0,0,0,0,0,0,0,0,0,0,0,0,0,0,0,0,0,0,0,0,0,0,0,0,0,0,0,0,0,0,0,0,0,0,0,0,0,0,0,0,0,0,0,0,0,0,0,0,0,0,0,0,0,0,0,0,0,0,0,0,0,0,0,0,0,0,0,0,0,0,0,0,0,0,0,0,0,0,0,0,0,0,0,0,0,0,0,0,0,0,0,0,0,0,0,0,0,0,0,0,0,0,0,0,0,0,0,0,0,0,0,0,0,0,0,0,0,0,0,0,0,0,0,0,0,0,0,0,0,0,0,0,0,0,0,0,0,0,0,0,0,0,0,0,0,0,0,0,0,0,0,0,0,0,0,0,0,0,0,0,0,0,0,0,0,0,0,0,0,0,0,0,0,0,0,0,0,0,0,0,0,0,0,0,0,0,0,0,0,0,0,0,0,0,0,0,0,0,0,0,0,0,0,0,0,0,0,0,0,0,0,0,0,0,0,0,0,0,0,0,0,0,0,0,0,0,0,0,0,0,0,0,0,0,0,0,0,0,0,0,0,0,0,0,0,0,0,0,0,0,0,0,0,0,0,0,0,0,0,0,0,0,0,0,0,0,0,0,0,0,0,0,0,0,0,0,0,0,0,0,0,0,0,0,0,0,0,0,0,0,0,0,0,0,0,0,0,0,0,0,0,0,0,0,0,0,0,0,0,0,0,0,0,0,0,0,0,0,0,0,0,0,0,0,0,0,0,0,0,0,0,0,0,0,0,0,0,0,0,0,0,0,0,0,0,0,0,0,0,0,0,0,0,0,0,0,0,0,0,0,0,0,0,0,0,0,0,0,0,0,0,0,0,0,0,0,0,0,0,0,0,0,0,0,0,0,0,0,0,0,0,0,0,0,0,0,0,0,0,0,0,0,0,0,0,0,0,0,0,0,0,0,0,0,0,0,0,0,0,0,0,0,0,0,0,0,0,0,0,0,0,0,0,0,0,0,0,0,0,0,0,0,0,0,0,0,0,0,0,0,0,0,0,0,0,0,0,0,0,0,0,0,0,0,0,0,0,0,0,0,0,0,0,0,0,0,0,0,0,0,0,0,0,0,0,0,0,0,0,0,0,0,0,0,0,0,0,0,0,0,0,0,0,0,0,0,0,0,0,0,0,0,0,0,0,0,0,0,0,0,0,0,0,0,0,0,0,0,0,0,0,0,0,0,0,0,0,0,0,0,0,0,0,0,0,0,0,0,0,0,0,0,0,0,0,0,0,0,0,0,0,0,0,0,0,0,0,0,0,0,0,0,0,0,0,0,0,0,0,0,0,0,0,0,0,0,0,0,0,0,0,0,0,0,0,0,0,0,0,0,0,0,0,0,0,0,0,0,0,0,0,0,0,0,0,0,0,0,0,0,0,0,0,0,0,0,0,0,0,0,0,0,0,0,0,0,0,0,0,0,0,0,0,0,0,0,0,0,0,0,0,0,0,0,0,0,0,0,0,0,0,0,0,0,0,0,0,0,0,0,0,0,0,0,0,0,0,0,0,0,0,0,0,0,0,0,0,0,0,0,0,0,0,0,0,0,0,0,0,0,0,0,0,0,0,0,0,0,0,0,0,0,0,0,0,0,0,0,0,0,0,0,0,0,0,0,0,0,0,0,0,0,0,0,0,0,0,0,0,0,0,0,0,0,0,0,0,0,0,0,0,0,0,0,0,0,0,0,0,0,0,0,0,0,0,0,0,0,0,0,0,0,0,0,0,0,0,0,0,0,0,0,0,0,0,0,0,0,0,0,0,0,0,0,0,0,0,0,0,0,0,0,0,0,0,0,0,0,0,0,0,0,0,0,0,0,0,0,0,0,0,0,0,0,0,0,0,0,0,0,0,0,0,0,0,0,0,0,0,0,0,0,0,0,0,0,0,0,0,0,0,0,0,0,0,0,0,0,0,0,0,0,0,0,0,0,0,0,0,0,0,0,0,0,0,0,0,0,0,0,0,0,0,0,0,0,0,0,0,0,0,0,0,0,0,0,0,0,0,0,0,0,0,0,0,0,0,0,0,0,0,0,0,0,0,0,0,0,0,0,0,0,0,0,0,0,0,0,0,0,0,0,0,0,0,0,0,0,0,0,0,0,0,0,0,0,0,0,0,0,0,0,0,0,0,0,0,0,0,0,0,0,0,0,0,0,0,0,0,0,0,0,0,0,0,0,0,0,0,0,0,0,0,0,0,0,0,0,0,0,0,0,0,0,0,0,0,0,0,0,0,0,0,0,0,0,0,0,0,0,0,0,0,0,0,0,0,0,0,0,0,0,0,0,0,0,0,0,0,0,0,0,0,0,0,0,0,0,0,0,0,0,0,0,0,0,0,0,0,0,0,0,0,0,0,0,0,0,0,0,0,0,0,0,0,0,0,0,0,0,0,0,0,0,0,0,0,0,0,0,0,0,0,0,0,0,0,0,0,0,0,0,0,0,0,0,0,0,0,0,0,0,0,0,0,0,0,0,0,0,0,0,0,0,0,0,0,0,0,0,0,0,0,0,0,0,0,0,0,0,0,0,0,0,0,0,0,0,0,0,0,0,0,0,0,0,0,0,0,0,0,0,0,0,0,0,0,0,0,0,0,0,0,0,0,0,0,0,0,0,0,0,0,0,0,0,0,0,0,0,0,0,0,0,0,0,0,0,0,0,0,0,0,0,0,0,0,0,0,0,0,0,0,0,0,0,0,0,0,0,0,0,0,0,0,0,0,0,0,0,0,0,0,0,0,0,0,0,0,0,0,0,0,0,0,0,0,0,0,0,0,0,0,0,0,0,0,0,0,0,0,0,0,0,0,0,0,0,0,0,0,0,0,0,0,0,0,0,0,0,0,0,0,0,0,0,0,0,0,0,0,0,0,0,0,0,0,0,0,0,0,0,0,0,0,0,0,0,0,0,0,0,0,0,0,0,0,0,0,0,0,0,0,0,0,0,0,0,0,0,0,0,0,0,0,0,0,0,0,0,0,0,0,0,0,0,0,0,0,0,0,0,0,0,0,0,0,0,0,0,0,0,0,0,0,0,0,0,0,0,0,0,0,0,0,0,0,0,0,0,0,0,0,0,0,0,0,0,0,0,0,0,0,0,0,0,0,0,0,0,0,0,0,0,0,0,0,0,0,0,0,0,0,0,0,0,0,0,0,0,0,0,0,0,0,0,0,0,0,0,0,0,0,0,0,0,0,0,0,0,0,0,0,0,0,0,0,0,0,0,0,0,0,0,0,0,0,0,0,0,0,0,0,0,0,0,0,0,0,0,0,0,0,0,0,0,0,0,0,0,0,0,0,0,0,0,0,0,0,0,0,0,0,0,0,0,0,0,0,0,0,0,0,0,0,0,0,0,0,0,0,0,0,0,0,0,0,0,0,0,0,0,0,0,0,0,0,0,0,0,0,0,0,0,0,0,0,0,0,0,0,0,0,0,0,0,0,0,0,0,0,0,0,0,0,0,0,0,0,0,0,0,0,0,0,0,0,0,0,0,0,0,0,0,0,0,0,0,
255.0,255.0,255.0,255.0,255.0,255.0,255.0,255.0,255.0,255.0,255.0,255.0,255.0,255.0,255.0,255.0,255.0,255.0,255.0,255.0,255.0,255.0,255.0,255.0,255.0,255.0,255.0,255.0,255.0,255.0,255.0,255.0,255.0,255.0,255.0,255.0,255.0,255.0,255.0,255.0,255.0,255.0,255.0,255.0,255.0,255.0,255.0,255.0,255.0,255.0,255.0,255.0,255.0,255.0,255.0,255.0,255.0,255.0,255.0,255.0,255.0,255.0,255.0,255.0,255.0,255.0,255.0,255.0,255.0,255.0,255.0,255.0,255.0,255.0,255.0,255.0,255.0,255.0,255.0,255.0,255.0,255.0,255.0,255.0,255.0,255.0,255.0,255.0,255.0,255.0,255.0,255.0,255.0,255.0,255.0,255.0,255.0,255.0,255.0,255.0,255.0,255.0,255.0,255.0,255.0,255.0,255.0,255.0,255.0,255.0,255.0,255.0,255.0,255.0,255.0,255.0,255.0,255.0,255.0,255.0,255.0,255.0,255.0,255.0,255.0,255.0,255.0,255.0,255.0,255.0,255.0,255.0,255.0,255.0,255.0,255.0,255.0,255.0,255.0,255.0,255.0,255.0,255.0,255.0,255.0,255.0,255.0,255.0,255.0,255.0,255.0,255.0,255.0,255.0,255.0,255.0,255.0,255.0,255.0,255.0,255.0,255.0,255.0,255.0,255.0,255.0,255.0,255.0,255.0,255.0,255.0,255.0,255.0,255.0,255.0,255.0,255.0,255.0,255.0,255.0,255.0,255.0,255.0,255.0,255.0,255.0,255.0,255.0,255.0,255.0,255.0,255.0,255.0,255.0,255.0,255.0,255.0,255.0,255.0,255.0,255.0,255.0,255.0,255.0,255.0,255.0,255.0,255.0,255.0,255.0,255.0,255.0,255.0,255.0,255.0,255.0,255.0,255.0,255.0,255.0,255.0,255.0,255.0,255.0,255.0,255.0,255.0,255.0,255.0,255.0,255.0,255.0,255.0,255.0,255.0,255.0,255.0,255.0,255.0,255.0,255.0,255.0,255.0,255.0,255.0,255.0,255.0,255.0,255.0,255.0,255.0,255.0,255.0,255.0,255.0,255.0,255.0,255.0,255.0,255.0,255.0,255.0,255.0,255.0,255.0,255.0,255.0,255.0,255.0,255.0,255.0,255.0,255.0,255.0,255.0,255.0,255.0,255.0,255.0,255.0,255.0,255.0,255.0,255.0,255.0,255.0,255.0,255.0,255.0,255.0,255.0,255.0,255.0,255.0,255.0,255.0,255.0,255.0,255.0,255.0,255.0,255.0,255.0,255.0,255.0,255.0,255.0,255.0,255.0,255.0,255.0,255.0,255.0,255.0,255.0,255.0,255.0,255.0,255.0,255.0,255.0,255.0,255.0,255.0,255.0,255.0,255.0,255.0,255.0,255.0,255.0,255.0,255.0,255.0,255.0,255.0,255.0,255.0,255.0,255.0,255.0,255.0,255.0,255.0,255.0,255.0,255.0,255.0,255.0,255.0,255.0,255.0,255.0,255.0,255.0,255.0,255.0,255.0,255.0,255.0,255.0,255.0,255.0,255.0,255.0,255.0,255.0,255.0,255.0,255.0,255.0,255.0,255.0,255.0,255.0,255.0,255.0,255.0,255.0,255.0,255.0,255.0,255.0,255.0,255.0,255.0,255.0,255.0,255.0,255.0,255.0,255.0,255.0,255.0,255.0,255.0,255.0,255.0,255.0,255.0,255.0,255.0,255.0,255.0,255.0,255.0,255.0,255.0,255.0,255.0,255.0,255.0,255.0,255.0,255.0,255.0,255.0,255.0,255.0,255.0,255.0,255.0,255.0,255.0,255.0,255.0,255.0,255.0,255.0,255.0,255.0,255.0,255.0,255.0,255.0,255.0,255.0,255.0,255.0,255.0,255.0,255.0,255.0,255.0,255.0,255.0,255.0,255.0,255.0,255.0,255.0,255.0,255.0,255.0,255.0,255.0,255.0,255.0,255.0,255.0,255.0,255.0,255.0,255.0,255.0,255.0,255.0,255.0,255.0,255.0,255.0,255.0,255.0,255.0,255.0,255.0,255.0,255.0,255.0,255.0,255.0,255.0,255.0,255.0,255.0,255.0,255.0,255.0,255.0,255.0,255.0,255.0,255.0,255.0,255.0,255.0,255.0,255.0,255.0,255.0,255.0,255.0,255.0,255.0,255.0,255.0,255.0,255.0,255.0,255.0,255.0,255.0,255.0,255.0,255.0,255.0,255.0,255.0,255.0,255.0,255.0,255.0,255.0,255.0,255.0,255.0,255.0,255.0,255.0,255.0,255.0,255.0,255.0,255.0,255.0,255.0,255.0,255.0,255.0,255.0,255.0,255.0,255.0,255.0,255.0,255.0,255.0,255.0,255.0,255.0,255.0,255.0,255.0,255.0,255.0,255.0,255.0,255.0,255.0,255.0,255.0,255.0,255.0,255.0,255.0,255.0,255.0,255.0,255.0,255.0,255.0,255.0,255.0,255.0,255.0,255.0,255.0,255.0,255.0,255.0,255.0,255.0,255.0,255.0,255.0,255.0,255.0,255.0,255.0,255.0,255.0,255.0,255.0,255.0,255.0,255.0,255.0,255.0,255.0,255.0,255.0,255.0,255.0,255.0,255.0,255.0,255.0,255.0,255.0,255.0,255.0,255.0,255.0,255.0,255.0,255.0,255.0,255.0,255.0,255.0,255.0,255.0,255.0,255.0,255.0,255.0,255.0,255.0,255.0,255.0,255.0,255.0,255.0,255.0,255.0,255.0,255.0,255.0,255.0,255.0,255.0,255.0,255.0,255.0,255.0,255.0,255.0,255.0,255.0,255.0,255.0,255.0,255.0,255.0,255.0,255.0,255.0,255.0,255.0,255.0,255.0,255.0,255.0,255.0,255.0,255.0,255.0,255.0,255.0,255.0,255.0,255.0,255.0,255.0,255.0,255.0,255.0,255.0,255.0,255.0,255.0,255.0,255.0,255.0,255.0,255.0,255.0,255.0,255.0,255.0,255.0,255.0,255.0,255.0,255.0,255.0,255.0,255.0,255.0,255.0,255.0,255.0,255.0,255.0,255.0,255.0,255.0,255.0,255.0,255.0,255.0,255.0,255.0,255.0,255.0,255.0,255.0,255.0,255.0,255.0,255.0,255.0,255.0,255.0,255.0,255.0,255.0,255.0,255.0,255.0,255.0,255.0,255.0,255.0,255.0,255.0,255.0,255.0,255.0,255.0,255.0,255.0,255.0,255.0,255.0,255.0,255.0,255.0,255.0,255.0,255.0,255.0,255.0,255.0,255.0,255.0,255.0,255.0,255.0,255.0,255.0,255.0,255.0,255.0,255.0,255.0,255.0,255.0,255.0,255.0,255.0,255.0,255.0,255.0,255.0,255.0,255.0,255.0,255.0,255.0,255.0,255.0,255.0,255.0,255.0,255.0,255.0,255.0,255.0,255.0,255.0,255.0,255.0,255.0,255.0,255.0,255.0,255.0,255.0,255.0,255.0,255.0,255.0,255.0,255.0,255.0,255.0,255.0,255.0,255.0,255.0,255.0,255.0,255.0,255.0,255.0,255.0,255.0,255.0,255.0,255.0,255.0,255.0,255.0,255.0,255.0,255.0,255.0,255.0,255.0,255.0,255.0,255.0,255.0,255.0,255.0,255.0,255.0,255.0,255.0,255.0,255.0,255.0,255.0,255.0,255.0,255.0,255.0,255.0,255.0,255.0,255.0,255.0,255.0,255.0,255.0,255.0,255.0,255.0,255.0,255.0,255.0,255.0,255.0,255.0,255.0,255.0,255.0,255.0,255.0,255.0,255.0,255.0,255.0,255.0,255.0,255.0,255.0,255.0,255.0,255.0,255.0,255.0,255.0,255.0,255.0,255.0,255.0,255.0,255.0,255.0,255.0,255.0,255.0,255.0,255.0,255.0,255.0,255.0,255.0,255.0,255.0,255.0,255.0,255.0,255.0,255.0,255.0,255.0,255.0,255.0,255.0,255.0,255.0,255.0,255.0,255.0,255.0,255.0,255.0,255.0,255.0,255.0,255.0,255.0,255.0,255.0,255.0,255.0,255.0,255.0,255.0,255.0,255.0,255.0,255.0,255.0,255.0,255.0,255.0,255.0,255.0,255.0,255.0,255.0,255.0,255.0,255.0,255.0,255.0,255.0,255.0,255.0,255.0,255.0,255.0,255.0,255.0,255.0,255.0,255.0,255.0,255.0,255.0,255.0,255.0,255.0,255.0,255.0,255.0,255.0,255.0,255.0,255.0,255.0,255.0,255.0,255.0,255.0,255.0,255.0,255.0,255.0,255.0,255.0,255.0,255.0,255.0,255.0,255.0,255.0,255.0,255.0,255.0,255.0,255.0,255.0,255.0,255.0,255.0,255.0,255.0,255.0,255.0,255.0,255.0,255.0,255.0,255.0,255.0,255.0,255.0,255.0,255.0,255.0,255.0,255.0,255.0,255.0,255.0,255.0,255.0,255.0,255.0,255.0,255.0,255.0,255.0,255.0,255.0,255.0,255.0,255.0,255.0,255.0,255.0,255.0,255.0,255.0,255.0,255.0,255.0,255.0,255.0,255.0,255.0,255.0,255.0,255.0,255.0,255.0,255.0,255.0,255.0,255.0,255.0,255.0,255.0,255.0,255.0,255.0,255.0,255.0,255.0,255.0,255.0,255.0,255.0,255.0,255.0,255.0,255.0,255.0,255.0,255.0,255.0,255.0,255.0,255.0,255.0,255.0,255.0,255.0,255.0,255.0,255.0,255.0,255.0,255.0,255.0,255.0,255.0,255.0,255.0,255.0,255.0,255.0,255.0,255.0,255.0,255.0,255.0,255.0,255.0,255.0,255.0,255.0,255.0,255.0,255.0,255.0,255.0,255.0,255.0,255.0,255.0,255.0,255.0,255.0,255.0,255.0,255.0,255.0,255.0,255.0,255.0,255.0,255.0,255.0,255.0,255.0,255.0,255.0,255.0,255.0,255.0,255.0,255.0,255.0,255.0,255.0,255.0,255.0,255.0,255.0,255.0,255.0,255.0,255.0,255.0,255.0,255.0,255.0,255.0,255.0,255.0,255.0,255.0,255.0,255.0,255.0,255.0,255.0,255.0,255.0,255.0,255.0,255.0,255.0,255.0,255.0,255.0,255.0,255.0,255.0,255.0,255.0,255.0,255.0,255.0,255.0,255.0,255.0,255.0,255.0,255.0,255.0,255.0,255.0,255.0,255.0,255.0,255.0,255.0,255.0,255.0,255.0,255.0,255.0,255.0,255.0,255.0,255.0,255.0,255.0,255.0,255.0,255.0,255.0,255.0,255.0,255.0,255.0,255.0,255.0,255.0,255.0,255.0,255.0,255.0,255.0,255.0,255.0,255.0,255.0,255.0,255.0,255.0,255.0,255.0,255.0,255.0,255.0,255.0,255.0,255.0,255.0,255.0,255.0,255.0,255.0,255.0,255.0,255.0,255.0,255.0,255.0,255.0,255.0,255.0,255.0,255.0,255.0,255.0,255.0,255.0,255.0,255.0,255.0,255.0,255.0,255.0,255.0,255.0,255.0,255.0,255.0,255.0,255.0,255.0,255.0,255.0,255.0,255.0,255.0,255.0,255.0,255.0,255.0,255.0,255.0,255.0,255.0,255.0,255.0,255.0,255.0,255.0,255.0,255.0,255.0,255.0,255.0,255.0,255.0,255.0,255.0,255.0,255.0,255.0,255.0,255.0,255.0,255.0,255.0,255.0,255.0,255.0,255.0,255.0,255.0,255.0,255.0,255.0,255.0,255.0,255.0,255.0,255.0,255.0,255.0,255.0,255.0,255.0,255.0,255.0,255.0,255.0,255.0,255.0,255.0,255.0,255.0,255.0,255.0,255.0,255.0,255.0,255.0,255.0,255.0,255.0,255.0,255.0,255.0,255.0,255.0,255.0,255.0,255.0,255.0,255.0,255.0,255.0,255.0,255.0,255.0,255.0,255.0,255.0,255.0,255.0,255.0,255.0,255.0,255.0,255.0,255.0,255.0,255.0,255.0,255.0,255.0,255.0,255.0,255.0,255.0,255.0,255.0,255.0,255.0,255.0,255.0,255.0,255.0,255.0,255.0,255.0,255.0,255.0,255.0,255.0,255.0,255.0,255.0,255.0,255.0,255.0,255.0,255.0,255.0,255.0,255.0,255.0,255.0,255.0,255.0,255.0,255.0,255.0,255.0,255.0,255.0,255.0,255.0,255.0,255.0,255.0,255.0,255.0,255.0,255.0,255.0,255.0,255.0,255.0,255.0,255.0,255.0,255.0,255.0,255.0,255.0,255.0,255.0,255.0,255.0,255.0,255.0,255.0,255.0,255.0,255.0,255.0,255.0,255.0,255.0,255.0,255.0,255.0,255.0,255.0,255.0,255.0,255.0,255.0,255.0,255.0,255.0,255.0,255.0,255.0,255.0,255.0,255.0,255.0,255.0,255.0,255.0,255.0,255.0,255.0,255.0,255.0,255.0,255.0,255.0,255.0,255.0,255.0,255.0,255.0,255.0,255.0,255.0,255.0,255.0,255.0,255.0,255.0,255.0,255.0,255.0,255.0,255.0,255.0,255.0,255.0,255.0,255.0,255.0,255.0,255.0,255.0,255.0,255.0,255.0,255.0,255.0,255.0,255.0,255.0,255.0,255.0,255.0,255.0,255.0,255.0,255.0,255.0,255.0,255.0,255.0,255.0,255.0,255.0,255.0,255.0,255.0,255.0,255.0,255.0,255.0,255.0,255.0,255.0,255.0,255.0,255.0,255.0,255.0,255.0,255.0,255.0,255.0,255.0,255.0,255.0,255.0,255.0,255.0,255.0,255.0,255.0,255.0,255.0,255.0,255.0,255.0,255.0,255.0,255.0,255.0,255.0,255.0,255.0,255.0,255.0,255.0,255.0,255.0,255.0,255.0,255.0,255.0,255.0,255.0,255.0,255.0,255.0,255.0,255.0,255.0,255.0,255.0,255.0,255.0,255.0,255.0,255.0,255.0,255.0,255.0,255.0,255.0,255.0,255.0,255.0,255.0,255.0,255.0,255.0,255.0,255.0,255.0,255.0,255.0,255.0,255.0,255.0,255.0,255.0,255.0,255.0,255.0,255.0,255.0,255.0,255.0,255.0,255.0,255.0,255.0,255.0,255.0,255.0,255.0,255.0,255.0,255.0,255.0,255.0,255.0,255.0,255.0,255.0,255.0,255.0,255.0,255.0,255.0,255.0,255.0,255.0,255.0,255.0,255.0,255.0,255.0,255.0,255.0,255.0,255.0,255.0,255.0,255.0,255.0,255.0,255.0,255.0,255.0,255.0,255.0,255.0,255.0,255.0,255.0,255.0,255.0,255.0,255.0,255.0,255.0,255.0,255.0,255.0,255.0,255.0,255.0,255.0,255.0,255.0,255.0,255.0,255.0,255.0,255.0,255.0,255.0,255.0,255.0,255.0,255.0,255.0,255.0,255.0,255.0,255.0,255.0,255.0,255.0,255.0,255.0,255.0,255.0,255.0,255.0,255.0,255.0,255.0,255.0,255.0,255.0,255.0,255.0,255.0,255.0,255.0,255.0,255.0,255.0,255.0,255.0,255.0,255.0,255.0,255.0,255.0,255.0,255.0,255.0,255.0,255.0,255.0,255.0,255.0,255.0,255.0,255.0,255.0,255.0,255.0,255.0,255.0,255.0,255.0,255.0,255.0,255.0,255.0,255.0,255.0,255.0,255.0,255.0,255.0,255.0,255.0,255.0,255.0,255.0,255.0,255.0,255.0,255.0,255.0,255.0,255.0,255.0,255.0,255.0,255.0,255.0,255.0,255.0,255.0,255.0,255.0,255.0,255.0,255.0,255.0,255.0,255.0,255.0,255.0,255.0,255.0,255.0,255.0,255.0,255.0,255.0,255.0,255.0,255.0,255.0,255.0,255.0,255.0,255.0,255.0,255.0,255.0,255.0,255.0,255.0,255.0,255.0,255.0,255.0,255.0,255.0,255.0,255.0,255.0,255.0,255.0,255.0,255.0,255.0,255.0,255.0,255.0,255.0,255.0,255.0,255.0,255.0,255.0,255.0,255.0,255.0,255.0,255.0,255.0,255.0,255.0,255.0,255.0,255.0,255.0,255.0,255.0,255.0,255.0,255.0,255.0,255.0,255.0,255.0,255.0,255.0,255.0,255.0,255.0,255.0,255.0,255.0,255.0,255.0,255.0,255.0,255.0,255.0,255.0,255.0,255.0,255.0,255.0,255.0,255.0,255.0,255.0,255.0,255.0,255.0,255.0,255.0,255.0,255.0,255.0,255.0,255.0,255.0,255.0,255.0,255.0,255.0,255.0,255.0,255.0,255.0,255.0,255.0,255.0,255.0,255.0,255.0,255.0,255.0,255.0,255.0,255.0,255.0,255.0,255.0,255.0,255.0,255.0,255.0,255.0,255.0,255.0,255.0,255.0,255.0,255.0,255.0,255.0,255.0,255.0,255.0,255.0,255.0,255.0,255.0,255.0,255.0,255.0,255.0,255.0,255.0,255.0,255.0,255.0,255.0,255.0,255.0,255.0,255.0,255.0,255.0,255.0,255.0,255.0,255.0,255.0,255.0,255.0,255.0,255.0,255.0,255.0,255.0,255.0,255.0,255.0,255.0,255.0,255.0,255.0,255.0,255.0,255.0,255.0,255.0,255.0,255.0,255.0,255.0,255.0,255.0,255.0,255.0,255.0,255.0,255.0,255.0,255.0,255.0,255.0,255.0,255.0,255.0,255.0,255.0,255.0,255.0,255.0,255.0,255.0,255.0,255.0,255.0,255.0,255.0,255.0,255.0,255.0,255.0,255.0,255.0,255.0,255.0,255.0,255.0,255.0,255.0,255.0,255.0,255.0,255.0,255.0,255.0,255.0,255.0,255.0,255.0,255.0,255.0,255.0,255.0,255.0,255.0,255.0,255.0,255.0,255.0,255.0,255.0,255.0,255.0,255.0,255.0,255.0,255.0,255.0,255.0,255.0,255.0,255.0,255.0,255.0,255.0,255.0,255.0,255.0,255.0,255.0,255.0,255.0,255.0,255.0,255.0,255.0,255.0,255.0,255.0,255.0,255.0,255.0,255.0,255.0,255.0,255.0,255.0,255.0,255.0,255.0,255.0,255.0,255.0,255.0,255.0,255.0,255.0,255.0,255.0,255.0,255.0,255.0,255.0,255.0,255.0,255.0,255.0,255.0,255.0,255.0,255.0,255.0,255.0,255.0,255.0,255.0,255.0,255.0,255.0,255.0,255.0,255.0,255.0,255.0,255.0,255.0,255.0,255.0,255.0,255.0,255.0,255.0,255.0,255.0,255.0,255.0,255.0,255.0,255.0,255.0,255.0,255.0,255.0,255.0,255.0,255.0,255.0,255.0,255.0,255.0,255.0,255.0,255.0,255.0,255.0,255.0,255.0,255.0,255.0,255.0,255.0,255.0,255.0,255.0,255.0,255.0,255.0,255.0,255.0,255.0,255.0,255.0,255.0,255.0,255.0,255.0,255.0,255.0,255.0,255.0,255.0,255.0,255.0,255.0,255.0,255.0,255.0,255.0,255.0,255.0,255.0,255.0,255.0,255.0,255.0,255.0,255.0,255.0,255.0,255.0,255.0,255.0,255.0,255.0,255.0,255.0,255.0,255.0,255.0,255.0,255.0,255.0,255.0,255.0,255.0,255.0,255.0,255.0,255.0,255.0,255.0,255.0,255.0,255.0,255.0,255.0,255.0,255.0,255.0,255.0,255.0,255.0,255.0,255.0,255.0,255.0,255.0,255.0,255.0,255.0,255.0,255.0,255.0,255.0,255.0,255.0,255.0,255.0,255.0,255.0,255.0,255.0,255.0,255.0,255.0,255.0,255.0,255.0,255.0,255.0,255.0,255.0,255.0,255.0,255.0,255.0,255.0,255.0,255.0,255.0,255.0,255.0,255.0,255.0,255.0,255.0,255.0,255.0,255.0,255.0,255.0,255.0,255.0,255.0,255.0,255.0,255.0,255.0,255.0,255.0,255.0,255.0,255.0,255.0,255.0,255.0,255.0,255.0,255.0,255.0,255.0,255.0,255.0,255.0,255.0,255.0,255.0,255.0,255.0,255.0,255.0,255.0,255.0,255.0,255.0,255.0,255.0,255.0,255.0,255.0,255.0,255.0,255.0,255.0,255.0,255.0,255.0,255.0,255.0,255.0,255.0,255.0,255.0,255.0,255.0,255.0,255.0,255.0,255.0,255.0,255.0,255.0,255.0,255.0,255.0,255.0,255.0,255.0,255.0,255.0,255.0,255.0,255.0,255.0,255.0,255.0,255.0,255.0,255.0,255.0,255.0,255.0,255.0,255.0,255.0,255.0,255.0,255.0,255.0,255.0,255.0,255.0,
127.0,127.0,127.0,127.0,127.0,127.0,127.0,127.0,127.0,127.0,127.0,127.0,127.0,127.0,127.0,127.0,127.0,127.0,127.0,127.0,127.0,127.0,127.0,127.0,127.0,127.0,127.0,127.0,127.0,127.0,127.0,127.0,127.0,127.0,127.0,127.0,127.0,127.0,127.0,127.0,127.0,127.0,127.0,127.0,127.0,127.0,127.0,127.0,127.0,127.0,127.0,127.0,127.0,127.0,127.0,127.0,127.0,127.0,127.0,127.0,127.0,127.0,127.0,127.0,127.0,127.0,127.0,127.0,127.0,127.0,127.0,127.0,127.0,127.0,127.0,127.0,127.0,127.0,127.0,127.0,127.0,127.0,127.0,127.0,127.0,127.0,127.0,127.0,127.0,127.0,127.0,127.0,127.0,127.0,127.0,127.0,127.0,127.0,127.0,127.0,127.0,127.0,127.0,127.0,127.0,127.0,127.0,127.0,127.0,127.0,127.0,127.0,127.0,127.0,127.0,127.0,127.0,127.0,127.0,127.0,127.0,127.0,127.0,127.0,127.0,127.0,127.0,127.0,127.0,127.0,127.0,127.0,127.0,127.0,127.0,127.0,127.0,127.0,127.0,127.0,127.0,127.0,127.0,127.0,127.0,127.0,127.0,127.0,127.0,127.0,127.0,127.0,127.0,127.0,127.0,127.0,127.0,127.0,127.0,127.0,127.0,127.0,127.0,127.0,127.0,127.0,127.0,127.0,127.0,127.0,127.0,127.0,127.0,127.0,127.0,127.0,127.0,127.0,127.0,127.0,127.0,127.0,127.0,127.0,127.0,127.0,127.0,127.0,127.0,127.0,127.0,127.0,127.0,127.0,127.0,127.0,127.0,127.0,127.0,127.0,127.0,127.0,127.0,127.0,127.0,127.0,127.0,127.0,127.0,127.0,127.0,127.0,127.0,127.0,127.0,127.0,127.0,127.0,127.0,127.0,127.0,127.0,127.0,127.0,127.0,127.0,127.0,127.0,127.0,127.0,127.0,127.0,127.0,127.0,127.0,127.0,127.0,127.0,127.0,127.0,127.0,127.0,127.0,127.0,127.0,127.0,127.0,127.0,127.0,127.0,127.0,127.0,127.0,127.0,127.0,127.0,127.0,127.0,127.0,127.0,127.0,127.0,127.0,127.0,127.0,127.0,127.0,127.0,127.0,127.0,127.0,127.0,127.0,127.0,127.0,127.0,127.0,127.0,127.0,127.0,127.0,127.0,127.0,127.0,127.0,127.0,127.0,127.0,127.0,127.0,127.0,127.0,127.0,127.0,127.0,127.0,127.0,127.0,127.0,127.0,127.0,127.0,127.0,127.0,127.0,127.0,127.0,127.0,127.0,127.0,127.0,127.0,127.0,127.0,127.0,127.0,127.0,127.0,127.0,127.0,127.0,127.0,127.0,127.0,127.0,127.0,127.0,127.0,127.0,127.0,127.0,127.0,127.0,127.0,127.0,127.0,127.0,127.0,127.0,127.0,127.0,127.0,127.0,127.0,127.0,127.0,127.0,127.0,127.0,127.0,127.0,127.0,127.0,127.0,127.0,127.0,127.0,127.0,127.0,127.0,127.0,127.0,127.0,127.0,127.0,127.0,127.0,127.0,127.0,127.0,127.0,127.0,127.0,127.0,127.0,127.0,127.0,127.0,127.0,127.0,127.0,127.0,127.0,127.0,127.0,127.0,127.0,127.0,127.0,127.0,127.0,127.0,127.0,127.0,127.0,127.0,127.0,127.0,127.0,127.0,127.0,127.0,127.0,127.0,127.0,127.0,127.0,127.0,127.0,127.0,127.0,127.0,127.0,127.0,127.0,127.0,127.0,127.0,127.0,127.0,127.0,127.0,127.0,127.0,127.0,127.0,127.0,127.0,127.0,127.0,127.0,127.0,127.0,127.0,127.0,127.0,127.0,127.0,127.0,127.0,127.0,127.0,127.0,127.0,127.0,127.0,127.0,127.0,127.0,127.0,127.0,127.0,127.0,127.0,127.0,127.0,127.0,127.0,127.0,127.0,127.0,127.0,127.0,127.0,127.0,127.0,127.0,127.0,127.0,127.0,127.0,127.0,127.0,127.0,127.0,127.0,127.0,127.0,127.0,127.0,127.0,127.0,127.0,127.0,127.0,127.0,127.0,127.0,127.0,127.0,127.0,127.0,127.0,127.0,127.0,127.0,127.0,127.0,127.0,127.0,127.0,127.0,127.0,127.0,127.0,127.0,127.0,127.0,127.0,127.0,127.0,127.0,127.0,127.0,127.0,127.0,127.0,127.0,127.0,127.0,127.0,127.0,127.0,127.0,127.0,127.0,127.0,127.0,127.0,127.0,127.0,127.0,127.0,127.0,127.0,127.0,127.0,127.0,127.0,127.0,127.0,127.0,127.0,127.0,127.0,127.0,127.0,127.0,127.0,127.0,127.0,127.0,127.0,127.0,127.0,127.0,127.0,127.0,127.0,127.0,127.0,127.0,127.0,127.0,127.0,127.0,127.0,127.0,127.0,127.0,127.0,127.0,127.0,127.0,127.0,127.0,127.0,127.0,127.0,127.0,127.0,127.0,127.0,127.0,127.0,127.0,127.0,127.0,127.0,127.0,127.0,127.0,127.0,127.0,127.0,127.0,127.0,127.0,127.0,127.0,127.0,127.0,127.0,127.0,127.0,127.0,127.0,127.0,127.0,127.0,127.0,127.0,127.0,127.0,127.0,127.0,127.0,127.0,127.0,127.0,127.0,127.0,127.0,127.0,127.0,127.0,127.0,127.0,127.0,127.0,127.0,127.0,127.0,127.0,127.0,127.0,127.0,127.0,127.0,127.0,127.0,127.0,127.0,127.0,127.0,127.0,127.0,127.0,127.0,127.0,127.0,127.0,127.0,127.0,127.0,127.0,127.0,127.0,127.0,127.0,127.0,127.0,127.0,127.0,127.0,127.0,127.0,127.0,127.0,127.0,127.0,127.0,127.0,127.0,127.0,127.0,127.0,127.0,127.0,127.0,127.0,127.0,127.0,127.0,127.0,127.0,127.0,127.0,127.0,127.0,127.0,127.0,127.0,127.0,127.0,127.0,127.0,127.0,127.0,127.0,127.0,127.0,127.0,127.0,127.0,127.0,127.0,127.0,127.0,127.0,127.0,127.0,127.0,127.0,127.0,127.0,127.0,127.0,127.0,127.0,127.0,127.0,127.0,127.0,127.0,127.0,127.0,127.0,127.0,127.0,127.0,127.0,127.0,127.0,127.0,127.0,127.0,127.0,127.0,127.0,127.0,127.0,127.0,127.0,127.0,127.0,127.0,127.0,127.0,127.0,127.0,127.0,127.0,127.0,127.0,127.0,127.0,127.0,127.0,127.0,127.0,127.0,127.0,127.0,127.0,127.0,127.0,127.0,127.0,127.0,127.0,127.0,127.0,127.0,127.0,127.0,127.0,127.0,127.0,127.0,127.0,127.0,127.0,127.0,127.0,127.0,127.0,127.0,127.0,127.0,127.0,127.0,127.0,127.0,127.0,127.0,127.0,127.0,127.0,127.0,127.0,127.0,127.0,127.0,127.0,127.0,127.0,127.0,127.0,127.0,127.0,127.0,127.0,127.0,127.0,127.0,127.0,127.0,127.0,127.0,127.0,127.0,127.0,127.0,127.0,127.0,127.0,127.0,127.0,127.0,127.0,127.0,127.0,127.0,127.0,127.0,127.0,127.0,127.0,127.0,127.0,127.0,127.0,127.0,127.0,127.0,127.0,127.0,127.0,127.0,127.0,127.0,127.0,127.0,127.0,127.0,127.0,127.0,127.0,127.0,127.0,127.0,127.0,127.0,127.0,127.0,127.0,127.0,127.0,127.0,127.0,127.0,127.0,127.0,127.0,127.0,127.0,127.0,127.0,127.0,127.0,127.0,127.0,127.0,127.0,127.0,127.0,127.0,127.0,127.0,127.0,127.0,127.0,127.0,127.0,127.0,127.0,127.0,127.0,127.0,127.0,127.0,127.0,127.0,127.0,127.0,127.0,127.0,127.0,127.0,127.0,127.0,127.0,127.0,127.0,127.0,127.0,127.0,127.0,127.0,127.0,127.0,127.0,127.0,127.0,127.0,127.0,127.0,127.0,127.0,127.0,127.0,127.0,127.0,127.0,127.0,127.0,127.0,127.0,127.0,127.0,127.0,127.0,127.0,127.0,127.0,127.0,127.0,127.0,127.0,127.0,127.0,127.0,127.0,127.0,127.0,127.0,127.0,127.0,127.0,127.0,127.0,127.0,127.0,127.0,127.0,127.0,127.0,127.0,127.0,127.0,127.0,127.0,127.0,127.0,127.0,127.0,127.0,127.0,127.0,127.0,127.0,127.0,127.0,127.0,127.0,127.0,127.0,127.0,127.0,127.0,127.0,127.0,127.0,127.0,127.0,127.0,127.0,127.0,127.0,127.0,127.0,127.0,127.0,127.0,127.0,127.0,127.0,127.0,127.0,127.0,127.0,127.0,127.0,127.0,127.0,127.0,127.0,127.0,127.0,127.0,127.0,127.0,127.0,127.0,127.0,127.0,127.0,127.0,127.0,127.0,127.0,127.0,127.0,127.0,127.0,127.0,127.0,127.0,127.0,127.0,127.0,127.0,127.0,127.0,127.0,127.0,127.0,127.0,127.0,127.0,127.0,127.0,127.0,127.0,127.0,127.0,127.0,127.0,127.0,127.0,127.0,127.0,127.0,127.0,127.0,127.0,127.0,127.0,127.0,127.0,127.0,127.0,127.0,127.0,127.0,127.0,127.0,127.0,127.0,127.0,127.0,127.0,127.0,127.0,127.0,127.0,127.0,127.0,127.0,127.0,127.0,127.0,127.0,127.0,127.0,127.0,127.0,127.0,127.0,127.0,127.0,127.0,127.0,127.0,127.0,127.0,127.0,127.0,127.0,127.0,127.0,127.0,127.0,127.0,127.0,127.0,127.0,127.0,127.0,127.0,127.0,127.0,127.0,127.0,127.0,127.0,127.0,127.0,127.0,127.0,127.0,127.0,127.0,127.0,127.0,127.0,127.0,127.0,127.0,127.0,127.0,127.0,127.0,127.0,127.0,127.0,127.0,127.0,127.0,127.0,127.0,127.0,127.0,127.0,127.0,127.0,127.0,127.0,127.0,127.0,127.0,127.0,127.0,127.0,127.0,127.0,127.0,127.0,127.0,127.0,127.0,127.0,127.0,127.0,127.0,127.0,127.0,127.0,127.0,127.0,127.0,127.0,127.0,127.0,127.0,127.0,127.0,127.0,127.0,127.0,127.0,127.0,127.0,127.0,127.0,127.0,127.0,127.0,127.0,127.0,127.0,127.0,127.0,127.0,127.0,127.0,127.0,127.0,127.0,127.0,127.0,127.0,127.0,127.0,127.0,127.0,127.0,127.0,127.0,127.0,127.0,127.0,127.0,127.0,127.0,127.0,127.0,127.0,127.0,127.0,127.0,127.0,127.0,127.0,127.0,127.0,127.0,127.0,127.0,127.0,127.0,127.0,127.0,127.0,127.0,127.0,127.0,127.0,127.0,127.0,127.0,127.0,127.0,127.0,127.0,127.0,127.0,127.0,127.0,127.0,127.0,127.0,127.0,127.0,127.0,127.0,127.0,127.0,127.0,127.0,127.0,127.0,127.0,127.0,127.0,127.0,127.0,127.0,127.0,127.0,127.0,127.0,127.0,127.0,127.0,127.0,127.0,127.0,127.0,127.0,127.0,127.0,127.0,127.0,127.0,127.0,127.0,127.0,127.0,127.0,127.0,127.0,127.0,127.0,127.0,127.0,127.0,127.0,127.0,127.0,127.0,127.0,127.0,127.0,127.0,127.0,127.0,127.0,127.0,127.0,127.0,127.0,127.0,127.0,127.0,127.0,127.0,127.0,127.0,127.0,127.0,127.0,127.0,127.0,127.0,127.0,127.0,127.0,127.0,127.0,127.0,127.0,127.0,127.0,127.0,127.0,127.0,127.0,127.0,127.0,127.0,127.0,127.0,127.0,127.0,127.0,127.0,127.0,127.0,127.0,127.0,127.0,127.0,127.0,127.0,127.0,127.0,127.0,127.0,127.0,127.0,127.0,127.0,127.0,127.0,127.0,127.0,127.0,127.0,127.0,127.0,127.0,127.0,127.0,127.0,127.0,127.0,127.0,127.0,127.0,127.0,127.0,127.0,127.0,127.0,127.0,127.0,127.0,127.0,127.0,127.0,127.0,127.0,127.0,127.0,127.0,127.0,127.0,127.0,127.0,127.0,127.0,127.0,127.0,127.0,127.0,127.0,127.0,127.0,127.0,127.0,127.0,127.0,127.0,127.0,127.0,127.0,127.0,127.0,127.0,127.0,127.0,127.0,127.0,127.0,127.0,127.0,127.0,127.0,127.0,127.0,127.0,127.0,127.0,127.0,127.0,127.0,127.0,127.0,127.0,127.0,127.0,127.0,127.0,127.0,127.0,127.0,127.0,127.0,127.0,127.0,127.0,127.0,127.0,127.0,127.0,127.0,127.0,127.0,127.0,127.0,127.0,127.0,127.0,127.0,127.0,127.0,127.0,127.0,127.0,127.0,127.0,127.0,127.0,127.0,127.0,127.0,127.0,127.0,127.0,127.0,127.0,127.0,127.0,127.0,127.0,127.0,127.0,127.0,127.0,127.0,127.0,127.0,127.0,127.0,127.0,127.0,127.0,127.0,127.0,127.0,127.0,127.0,127.0,127.0,127.0,127.0,127.0,127.0,127.0,127.0,127.0,127.0,127.0,127.0,127.0,127.0,127.0,127.0,127.0,127.0,127.0,127.0,127.0,127.0,127.0,127.0,127.0,127.0,127.0,127.0,127.0,127.0,127.0,127.0,127.0,127.0,127.0,127.0,127.0,127.0,127.0,127.0,127.0,127.0,127.0,127.0,127.0,127.0,127.0,127.0,127.0,127.0,127.0,127.0,127.0,127.0,127.0,127.0,127.0,127.0,127.0,127.0,127.0,127.0,127.0,127.0,127.0,127.0,127.0,127.0,127.0,127.0,127.0,127.0,127.0,127.0,127.0,127.0,127.0,127.0,127.0,127.0,127.0,127.0,127.0,127.0,127.0,127.0,127.0,127.0,127.0,127.0,127.0,127.0,127.0,127.0,127.0,127.0,127.0,127.0,127.0,127.0,127.0,127.0,127.0,127.0,127.0,127.0,127.0,127.0,127.0,127.0,127.0,127.0,127.0,127.0,127.0,127.0,127.0,127.0,127.0,127.0,127.0,127.0,127.0,127.0,127.0,127.0,127.0,127.0,127.0,127.0,127.0,127.0,127.0,127.0,127.0,127.0,127.0,127.0,127.0,127.0,127.0,127.0,127.0,127.0,127.0,127.0,127.0,127.0,127.0,127.0,127.0,127.0,127.0,127.0,127.0,127.0,127.0,127.0,127.0,127.0,127.0,127.0,127.0,127.0,127.0,127.0,127.0,127.0,127.0,127.0,127.0,127.0,127.0,127.0,127.0,127.0,127.0,127.0,127.0,127.0,127.0,127.0,127.0,127.0,127.0,127.0,127.0,127.0,127.0,127.0,127.0,127.0,127.0,127.0,127.0,127.0,127.0,127.0,127.0,127.0,127.0,127.0,127.0,127.0,127.0,127.0,127.0,127.0,127.0,127.0,127.0,127.0,127.0,127.0,127.0,127.0,127.0,127.0,127.0,127.0,127.0,127.0,127.0,127.0,127.0,127.0,127.0,127.0,127.0,127.0,127.0,127.0,127.0,127.0,127.0,127.0,127.0,127.0,127.0,127.0,127.0,127.0,127.0,127.0,127.0,127.0,127.0,127.0,127.0,127.0,127.0,127.0,127.0,127.0,127.0,127.0,127.0,127.0,127.0,127.0,127.0,127.0,127.0,127.0,127.0,127.0,127.0,127.0,127.0,127.0,127.0,127.0,127.0,127.0,127.0,127.0,127.0,127.0,127.0,127.0,127.0,127.0,127.0,127.0,127.0,127.0,127.0,127.0,127.0,127.0,127.0,127.0,127.0,127.0,127.0,127.0,127.0,127.0,127.0,127.0,127.0,127.0,127.0,127.0,127.0,127.0,127.0,127.0,127.0,127.0,127.0,127.0,127.0,127.0,127.0,127.0,127.0,127.0,127.0,127.0,127.0,127.0,127.0,127.0,127.0,127.0,127.0,127.0,127.0,127.0,127.0,127.0,127.0,127.0,127.0,127.0,127.0,127.0,127.0,127.0,127.0,127.0,127.0,127.0,127.0,127.0,127.0,127.0,127.0,127.0,127.0,127.0,127.0,127.0,127.0,127.0,127.0,127.0,127.0,127.0,127.0,127.0,127.0,127.0,127.0,127.0,127.0,127.0,127.0,127.0,127.0,127.0,127.0,127.0,127.0,127.0,127.0,127.0,127.0,127.0,127.0,127.0,127.0,127.0,127.0,127.0,127.0,127.0,127.0,127.0,127.0,127.0,127.0,127.0,127.0,127.0,127.0,127.0,127.0,127.0,127.0,127.0,127.0,127.0,127.0,127.0,127.0,127.0,127.0,127.0,127.0,127.0,127.0,127.0,127.0,127.0,127.0,127.0,127.0,127.0,127.0,127.0,127.0,127.0,127.0,127.0,127.0,127.0,127.0,127.0,127.0,127.0,127.0,127.0,127.0,127.0,127.0,127.0,127.0,127.0,127.0,127.0,127.0,127.0,127.0,127.0,127.0,127.0,127.0,127.0,127.0,127.0,127.0,127.0,127.0,127.0,127.0,127.0,127.0,127.0,127.0,127.0,127.0,127.0,127.0,127.0,127.0,127.0,127.0,127.0,127.0,127.0,127.0,127.0,127.0,127.0,127.0,127.0,127.0,127.0,127.0,127.0,127.0,127.0,127.0,127.0,127.0,127.0,127.0,127.0,127.0,127.0,127.0,127.0,127.0,127.0,127.0,127.0,127.0,127.0,127.0,127.0,127.0,127.0,127.0,127.0,127.0,127.0,127.0,127.0,127.0,127.0,127.0,127.0,127.0,127.0,127.0,127.0,127.0,127.0,127.0,127.0,127.0,127.0,127.0,127.0,127.0,127.0,127.0,127.0,127.0,127.0,127.0,127.0,127.0,127.0,127.0,127.0,127.0,127.0,127.0,127.0,127.0,127.0,127.0,127.0,127.0,127.0,127.0,127.0,127.0,127.0,127.0,127.0,127.0,127.0,127.0,127.0,127.0,127.0,127.0,127.0,127.0,127.0,127.0,127.0,127.0,127.0,127.0,127.0,127.0,127.0,127.0,127.0,127.0,127.0,127.0,127.0,127.0,127.0,127.0,127.0,127.0,127.0,127.0,127.0,127.0,127.0,127.0,127.0,127.0,127.0,127.0,127.0,127.0,127.0,127.0,127.0,127.0,127.0,127.0,127.0,127.0,127.0,127.0,127.0,127.0,127.0,127.0,127.0,127.0,127.0,127.0,127.0,127.0,127.0,127.0,127.0,127.0,127.0,127.0,127.0,127.0,127.0,127.0,127.0,127.0,127.0,127.0,127.0,127.0,127.0,127.0,127.0,127.0,127.0,127.0,127.0,127.0,127.0,127.0,127.0,127.0,127.0,127.0,127.0,127.0,127.0,127.0,127.0,127.0,127.0,127.0,127.0,127.0,127.0,127.0,127.0,127.0,127.0,127.0,127.0,127.0,127.0,127.0,127.0,127.0,127.0,127.0,127.0,127.0,127.0,127.0,127.0,127.0,127.0,127.0,127.0,127.0,127.0,127.0,127.0,127.0,127.0,127.0,127.0,127.0,127.0,127.0,127.0,127.0,127.0,127.0,127.0,127.0,127.0,127.0,127.0,127.0,127.0,127.0,127.0,127.0,127.0,127.0,127.0,127.0,127.0,127.0,127.0,127.0,127.0,127.0,127.0,127.0,127.0,127.0,127.0,127.0,127.0,127.0,127.0,127.0,127.0,127.0,127.0,127.0,127.0,127.0,127.0,127.0,127.0,127.0,127.0,127.0,127.0,127.0,127.0,127.0,127.0,127.0,127.0,127.0,127.0,127.0,127.0,127.0,127.0,127.0,127.0,127.0,127.0,127.0,127.0,127.0,127.0,127.0,127.0,127.0,127.0,127.0,127.0,127.0,127.0,127.0,127.0,127.0,127.0,127.0,127.0,127.0,127.0,127.0,127.0,127.0,127.0,127.0,127.0,127.0,127.0,127.0,127.0,127.0,127.0,127.0,127.0,127.0,127.0,127.0,127.0,127.0,127.0,127.0,127.0,127.0,127.0,127.0,127.0,127.0,127.0,127.0,127.0,127.0,127.0,127.0,127.0,127.0,127.0,127.0,127.0,127.0,127.0,127.0,127.0,127.0,127.0,127.0,127.0,127.0,127.0,127.0,127.0,127.0,127.0,127.0,127.0,127.0,127.0,127.0,127.0,127.0,127.0,127.0,127.0,127.0,127.0,127.0,127.0,
255.0,255.0,255.0,255.0,255.0,255.0,255.0,255.0,255.0,255.0,255.0,255.0,255.0,255.0,255.0,255.0,255.0,255.0,255.0,255.0,255.0,255.0,255.0,255.0,255.0,255.0,255.0,255.0,255.0,255.0,255.0,255.0,255.0,255.0,255.0,255.0,255.0,255.0,255.0,255.0,255.0,255.0,255.0,255.0,255.0,255.0,255.0,255.0,255.0,255.0,255.0,255.0,255.0,255.0,255.0,255.0,255.0,255.0,255.0,255.0,255.0,255.0,255.0,255.0,255.0,255.0,255.0,255.0,255.0,255.0,255.0,255.0,255.0,255.0,255.0,255.0,255.0,255.0,255.0,255.0,255.0,255.0,255.0,255.0,255.0,255.0,255.0,255.0,255.0,255.0,255.0,255.0,255.0,255.0,255.0,255.0,255.0,255.0,255.0,255.0,255.0,255.0,255.0,255.0,255.0,255.0,255.0,255.0,255.0,255.0,255.0,255.0,255.0,255.0,255.0,255.0,255.0,255.0,255.0,255.0,255.0,255.0,255.0,255.0,255.0,255.0,255.0,255.0,255.0,255.0,255.0,255.0,255.0,255.0,255.0,255.0,255.0,255.0,255.0,255.0,255.0,255.0,255.0,255.0,255.0,255.0,255.0,255.0,255.0,255.0,255.0,255.0,255.0,255.0,255.0,255.0,255.0,255.0,255.0,255.0,255.0,255.0,255.0,255.0,255.0,255.0,255.0,255.0,255.0,255.0,255.0,255.0,255.0,255.0,255.0,255.0,255.0,255.0,255.0,255.0,255.0,255.0,255.0,255.0,255.0,255.0,255.0,255.0,255.0,255.0,255.0,255.0,255.0,255.0,255.0,255.0,255.0,255.0,255.0,255.0,255.0,255.0,255.0,255.0,255.0,255.0,255.0,255.0,255.0,255.0,255.0,255.0,255.0,255.0,255.0,255.0,255.0,255.0,255.0,255.0,255.0,255.0,255.0,255.0,255.0,255.0,255.0,255.0,255.0,255.0,255.0,255.0,255.0,255.0,255.0,255.0,255.0,255.0,255.0,255.0,255.0,255.0,255.0,255.0,255.0,255.0,255.0,255.0,255.0,255.0,255.0,255.0,255.0,255.0,255.0,255.0,255.0,255.0,255.0,255.0,255.0,255.0,255.0,255.0,255.0,255.0,255.0,255.0,255.0,255.0,255.0,255.0,255.0,255.0,255.0,255.0,255.0,255.0,255.0,255.0,255.0,255.0,255.0,255.0,255.0,255.0,255.0,255.0,255.0,255.0,255.0,255.0,255.0,255.0,255.0,255.0,255.0,255.0,255.0,255.0,255.0,255.0,255.0,255.0,255.0,255.0,255.0,255.0,255.0,255.0,255.0,255.0,255.0,255.0,255.0,255.0,255.0,255.0,255.0,255.0,255.0,255.0,255.0,255.0,255.0,255.0,255.0,255.0,255.0,255.0,255.0,255.0,255.0,255.0,255.0,255.0,255.0,255.0,255.0,255.0,255.0,255.0,255.0,255.0,255.0,255.0,255.0,255.0,255.0,255.0,255.0,255.0,255.0,255.0,255.0,255.0,255.0,255.0,255.0,255.0,255.0,255.0,255.0,255.0,255.0,255.0,255.0,255.0,255.0,255.0,255.0,255.0,255.0,255.0,255.0,255.0,255.0,255.0,255.0,255.0,255.0,255.0,255.0,255.0,255.0,255.0,255.0,255.0,255.0,255.0,255.0,255.0,255.0,255.0,255.0,255.0,255.0,255.0,255.0,255.0,255.0,255.0,255.0,255.0,255.0,255.0,255.0,255.0,255.0,255.0,255.0,255.0,255.0,255.0,255.0,255.0,255.0,255.0,255.0,255.0,255.0,255.0,255.0,255.0,255.0,255.0,255.0,255.0,255.0,255.0,255.0,255.0,255.0,255.0,255.0,255.0,255.0,255.0,255.0,255.0,255.0,255.0,255.0,255.0,255.0,255.0,255.0,255.0,255.0,255.0,255.0,255.0,255.0,255.0,255.0,255.0,255.0,255.0,255.0,255.0,255.0,255.0,255.0,255.0,255.0,255.0,255.0,255.0,255.0,255.0,255.0,255.0,255.0,255.0,255.0,255.0,255.0,255.0,255.0,255.0,255.0,255.0,255.0,255.0,255.0,255.0,255.0,255.0,255.0,255.0,255.0,255.0,255.0,255.0,255.0,255.0,255.0,255.0,255.0,255.0,255.0,255.0,255.0,255.0,255.0,255.0,255.0,255.0,255.0,255.0,255.0,255.0,255.0,255.0,255.0,255.0,255.0,255.0,255.0,255.0,255.0,255.0,255.0,255.0,255.0,255.0,255.0,255.0,255.0,255.0,255.0,255.0,255.0,255.0,255.0,255.0,255.0,255.0,255.0,255.0,255.0,255.0,255.0,255.0,255.0,255.0,255.0,255.0,255.0,255.0,255.0,255.0,255.0,255.0,255.0,255.0,255.0,255.0,255.0,255.0,255.0,255.0,255.0,255.0,255.0,255.0,255.0,255.0,255.0,255.0,255.0,255.0,255.0,255.0,255.0,255.0,255.0,255.0,255.0,255.0,255.0,255.0,255.0,255.0,255.0,255.0,255.0,255.0,255.0,255.0,255.0,255.0,255.0,255.0,255.0,255.0,255.0,255.0,255.0,255.0,255.0,255.0,255.0,255.0,255.0,255.0,255.0,255.0,255.0,255.0,255.0,255.0,255.0,255.0,255.0,255.0,255.0,255.0,255.0,255.0,255.0,255.0,255.0,255.0,255.0,255.0,255.0,255.0,255.0,255.0,255.0,255.0,255.0,255.0,255.0,255.0,255.0,255.0,255.0,255.0,255.0,255.0,255.0,255.0,255.0,255.0,255.0,255.0,255.0,255.0,255.0,255.0,255.0,255.0,255.0,255.0,255.0,255.0,255.0,255.0,255.0,255.0,255.0,255.0,255.0,255.0,255.0,255.0,255.0,255.0,255.0,255.0,255.0,255.0,255.0,255.0,255.0,255.0,255.0,255.0,255.0,255.0,255.0,255.0,255.0,255.0,255.0,255.0,255.0,255.0,255.0,255.0,255.0,255.0,255.0,255.0,255.0,255.0,255.0,255.0,255.0,255.0,255.0,255.0,255.0,255.0,255.0,255.0,255.0,255.0,255.0,255.0,255.0,255.0,255.0,255.0,255.0,255.0,255.0,255.0,255.0,255.0,255.0,255.0,255.0,255.0,255.0,255.0,255.0,255.0,255.0,255.0,255.0,255.0,255.0,255.0,255.0,255.0,255.0,255.0,255.0,255.0,255.0,255.0,255.0,255.0,255.0,255.0,255.0,255.0,255.0,255.0,255.0,255.0,255.0,255.0,255.0,255.0,255.0,255.0,255.0,255.0,255.0,255.0,255.0,255.0,255.0,255.0,255.0,255.0,255.0,255.0,255.0,255.0,255.0,255.0,255.0,255.0,255.0,255.0,255.0,255.0,255.0,255.0,255.0,255.0,255.0,255.0,255.0,255.0,255.0,255.0,255.0,255.0,255.0,255.0,255.0,255.0,255.0,255.0,255.0,255.0,255.0,255.0,255.0,255.0,255.0,255.0,255.0,255.0,255.0,255.0,255.0,255.0,255.0,255.0,255.0,255.0,255.0,255.0,255.0,255.0,255.0,255.0,255.0,255.0,255.0,255.0,255.0,255.0,255.0,255.0,255.0,255.0,255.0,255.0,255.0,255.0,255.0,255.0,255.0,255.0,255.0,255.0,255.0,255.0,255.0,255.0,255.0,255.0,255.0,255.0,255.0,255.0,255.0,255.0,255.0,255.0,255.0,255.0,255.0,255.0,255.0,255.0,255.0,255.0,255.0,255.0,255.0,255.0,255.0,255.0,255.0,255.0,255.0,255.0,255.0,255.0,255.0,255.0,255.0,255.0,255.0,255.0,255.0,255.0,255.0,255.0,255.0,255.0,255.0,255.0,255.0,255.0,255.0,255.0,255.0,255.0,255.0,255.0,255.0,255.0,255.0,255.0,255.0,255.0,255.0,255.0,255.0,255.0,255.0,255.0,255.0,255.0,255.0,255.0,255.0,255.0,255.0,255.0,255.0,255.0,255.0,255.0,255.0,255.0,255.0,255.0,255.0,255.0,255.0,255.0,255.0,255.0,255.0,255.0,255.0,255.0,255.0,255.0,255.0,255.0,255.0,255.0,255.0,255.0,255.0,255.0,255.0,255.0,255.0,255.0,255.0,255.0,255.0,255.0,255.0,255.0,255.0,255.0,255.0,255.0,255.0,255.0,255.0,255.0,255.0,255.0,255.0,255.0,255.0,255.0,255.0,255.0,255.0,255.0,255.0,255.0,255.0,255.0,255.0,255.0,255.0,255.0,255.0,255.0,255.0,255.0,255.0,255.0,255.0,255.0,255.0,255.0,255.0,255.0,255.0,255.0,255.0,255.0,255.0,255.0,255.0,255.0,255.0,255.0,255.0,255.0,255.0,255.0,255.0,255.0,255.0,255.0,255.0,255.0,255.0,255.0,255.0,255.0,255.0,255.0,255.0,255.0,255.0,255.0,255.0,255.0,255.0,255.0,255.0,255.0,255.0,255.0,255.0,255.0,255.0,255.0,255.0,255.0,255.0,255.0,255.0,255.0,255.0,255.0,255.0,255.0,255.0,255.0,255.0,255.0,255.0,255.0,255.0,255.0,255.0,255.0,255.0,255.0,255.0,255.0,255.0,255.0,255.0,255.0,255.0,255.0,255.0,255.0,255.0,255.0,255.0,255.0,255.0,255.0,255.0,255.0,255.0,255.0,255.0,255.0,255.0,255.0,255.0,255.0,255.0,255.0,255.0,255.0,255.0,255.0,255.0,255.0,255.0,255.0,255.0,255.0,255.0,255.0,255.0,255.0,255.0,255.0,255.0,255.0,255.0,255.0,255.0,255.0,255.0,255.0,255.0,255.0,255.0,255.0,255.0,255.0,255.0,255.0,255.0,255.0,255.0,255.0,255.0,255.0,255.0,255.0,255.0,255.0,255.0,255.0,255.0,255.0,255.0,255.0,255.0,255.0,255.0,255.0,255.0,255.0,255.0,255.0,255.0,255.0,255.0,255.0,255.0,255.0,255.0,255.0,255.0,255.0,255.0,255.0,255.0,255.0,255.0,255.0,255.0,255.0,255.0,255.0,255.0,255.0,255.0,255.0,255.0,255.0,255.0,255.0,255.0,255.0,255.0,255.0,255.0,255.0,255.0,255.0,255.0,255.0,255.0,255.0,255.0,255.0,255.0,255.0,255.0,255.0,255.0,255.0,255.0,255.0,255.0,255.0,255.0,255.0,255.0,255.0,255.0,255.0,255.0,255.0,255.0,255.0,255.0,255.0,255.0,255.0,255.0,255.0,255.0,255.0,255.0,255.0,255.0,255.0,255.0,255.0,255.0,255.0,255.0,255.0,255.0,255.0,255.0,255.0,255.0,255.0,255.0,255.0,255.0,255.0,255.0,255.0,255.0,255.0,255.0,255.0,255.0,255.0,255.0,255.0,255.0,255.0,255.0,255.0,255.0,255.0,255.0,255.0,255.0,255.0,255.0,255.0,255.0,255.0,255.0,255.0,255.0,255.0,255.0,255.0,255.0,255.0,255.0,255.0,255.0,255.0,255.0,255.0,255.0,255.0,255.0,255.0,255.0,255.0,255.0,255.0,255.0,255.0,255.0,255.0,255.0,255.0,255.0,255.0,255.0,255.0,255.0,255.0,255.0,255.0,255.0,255.0,255.0,255.0,255.0,255.0,255.0,255.0,255.0,255.0,255.0,255.0,255.0,255.0,255.0,255.0,255.0,255.0,255.0,255.0,255.0,255.0,255.0,255.0,255.0,255.0,255.0,255.0,255.0,255.0,255.0,255.0,255.0,255.0,255.0,255.0,255.0,255.0,255.0,255.0,255.0,255.0,255.0,255.0,255.0,255.0,255.0,255.0,255.0,255.0,255.0,255.0,255.0,255.0,255.0,255.0,255.0,255.0,255.0,255.0,255.0,255.0,255.0,255.0,255.0,255.0,255.0,255.0,255.0,255.0,255.0,255.0,255.0,255.0,255.0,255.0,255.0,255.0,255.0,255.0,255.0,255.0,255.0,255.0,255.0,255.0,255.0,255.0,255.0,255.0,255.0,255.0,255.0,255.0,255.0,255.0,255.0,255.0,255.0,255.0,255.0,255.0,255.0,255.0,255.0,255.0,255.0,255.0,255.0,255.0,255.0,255.0,255.0,255.0,255.0,255.0,255.0,255.0,255.0,255.0,255.0,255.0,255.0,255.0,255.0,255.0,255.0,255.0,255.0,255.0,255.0,255.0,255.0,255.0,255.0,255.0,255.0,255.0,255.0,255.0,255.0,255.0,255.0,255.0,255.0,255.0,255.0,255.0,255.0,255.0,255.0,255.0,255.0,255.0,255.0,255.0,255.0,255.0,255.0,255.0,255.0,255.0,255.0,255.0,255.0,255.0,255.0,255.0,255.0,255.0,255.0,255.0,255.0,255.0,255.0,255.0,255.0,255.0,255.0,255.0,255.0,255.0,255.0,255.0,255.0,255.0,255.0,255.0,255.0,255.0,255.0,255.0,255.0,255.0,255.0,255.0,255.0,255.0,255.0,255.0,255.0,255.0,255.0,255.0,255.0,255.0,255.0,255.0,255.0,255.0,255.0,255.0,255.0,255.0,255.0,255.0,255.0,255.0,255.0,255.0,255.0,255.0,255.0,255.0,255.0,255.0,255.0,255.0,255.0,255.0,255.0,255.0,255.0,255.0,255.0,255.0,255.0,255.0,255.0,255.0,255.0,255.0,255.0,255.0,255.0,255.0,255.0,255.0,255.0,255.0,255.0,255.0,255.0,255.0,255.0,255.0,255.0,255.0,255.0,255.0,255.0,255.0,255.0,255.0,255.0,255.0,255.0,255.0,255.0,255.0,255.0,255.0,255.0,255.0,255.0,255.0,255.0,255.0,255.0,255.0,255.0,255.0,255.0,255.0,255.0,255.0,255.0,255.0,255.0,255.0,255.0,255.0,255.0,255.0,255.0,255.0,255.0,255.0,255.0,255.0,255.0,255.0,255.0,255.0,255.0,255.0,255.0,255.0,255.0,255.0,255.0,255.0,255.0,255.0,255.0,255.0,255.0,255.0,255.0,255.0,255.0,255.0,255.0,255.0,255.0,255.0,255.0,255.0,255.0,255.0,255.0,255.0,255.0,255.0,255.0,255.0,255.0,255.0,255.0,255.0,255.0,255.0,255.0,255.0,255.0,255.0,255.0,255.0,255.0,255.0,255.0,255.0,255.0,255.0,255.0,255.0,255.0,255.0,255.0,255.0,255.0,255.0,255.0,255.0,255.0,255.0,255.0,255.0,255.0,255.0,255.0,255.0,255.0,255.0,255.0,255.0,255.0,255.0,255.0,255.0,255.0,255.0,255.0,255.0,255.0,255.0,255.0,255.0,255.0,255.0,255.0,255.0,255.0,255.0,255.0,255.0,255.0,255.0,255.0,255.0,255.0,255.0,255.0,255.0,255.0,255.0,255.0,255.0,255.0,255.0,255.0,255.0,255.0,255.0,255.0,255.0,255.0,255.0,255.0,255.0,255.0,255.0,255.0,255.0,255.0,255.0,255.0,255.0,255.0,255.0,255.0,255.0,255.0,255.0,255.0,255.0,255.0,255.0,255.0,255.0,255.0,255.0,255.0,255.0,255.0,255.0,255.0,255.0,255.0,255.0,255.0,255.0,255.0,255.0,255.0,255.0,255.0,255.0,255.0,255.0,255.0,255.0,255.0,255.0,255.0,255.0,255.0,255.0,255.0,255.0,255.0,255.0,255.0,255.0,255.0,255.0,255.0,255.0,255.0,255.0,255.0,255.0,255.0,255.0,255.0,255.0,255.0,255.0,255.0,255.0,255.0,255.0,255.0,255.0,255.0,255.0,255.0,255.0,255.0,255.0,255.0,255.0,255.0,255.0,255.0,255.0,255.0,255.0,255.0,255.0,255.0,255.0,255.0,255.0,255.0,255.0,255.0,255.0,255.0,255.0,255.0,255.0,255.0,255.0,255.0,255.0,255.0,255.0,255.0,255.0,255.0,255.0,255.0,255.0,255.0,255.0,255.0,255.0,255.0,255.0,255.0,255.0,255.0,255.0,255.0,255.0,255.0,255.0,255.0,255.0,255.0,255.0,255.0,255.0,255.0,255.0,255.0,255.0,255.0,255.0,255.0,255.0,255.0,255.0,255.0,255.0,255.0,255.0,255.0,255.0,255.0,255.0,255.0,255.0,255.0,255.0,255.0,255.0,255.0,255.0,255.0,255.0,255.0,255.0,255.0,255.0,255.0,255.0,255.0,255.0,255.0,255.0,255.0,255.0,255.0,255.0,255.0,255.0,255.0,255.0,255.0,255.0,255.0,255.0,255.0,255.0,255.0,255.0,255.0,255.0,255.0,255.0,255.0,255.0,255.0,255.0,255.0,255.0,255.0,255.0,255.0,255.0,255.0,255.0,255.0,255.0,255.0,255.0,255.0,255.0,255.0,255.0,255.0,255.0,255.0,255.0,255.0,255.0,255.0,255.0,255.0,255.0,255.0,255.0,255.0,255.0,255.0,255.0,255.0,255.0,255.0,255.0,255.0,255.0,255.0,255.0,255.0,255.0,255.0,255.0,255.0,255.0,255.0,255.0,255.0,255.0,255.0,255.0,255.0,255.0,255.0,255.0,255.0,255.0,255.0,255.0,255.0,255.0,255.0,255.0,255.0,255.0,255.0,255.0,255.0,255.0,255.0,255.0,255.0,255.0,255.0,255.0,255.0,255.0,255.0,255.0,255.0,255.0,255.0,255.0,255.0,255.0,255.0,255.0,255.0,255.0,255.0,255.0,255.0,255.0,255.0,255.0,255.0,255.0,255.0,255.0,255.0,255.0,255.0,255.0,255.0,255.0,255.0,255.0,255.0,255.0,255.0,255.0,255.0,255.0,255.0,255.0,255.0,255.0,255.0,255.0,255.0,255.0,255.0,255.0,255.0,255.0,255.0,255.0,255.0,255.0,255.0,255.0,255.0,255.0,255.0,255.0,255.0,255.0,255.0,255.0,255.0,255.0,255.0,255.0,255.0,255.0,255.0,255.0,255.0,255.0,255.0,255.0,255.0,255.0,255.0,255.0,255.0,255.0,255.0,255.0,255.0,255.0,255.0,255.0,255.0,255.0,255.0,255.0,255.0,255.0,255.0,255.0,255.0,255.0,255.0,255.0,255.0,255.0,255.0,255.0,255.0,255.0,255.0,255.0,255.0,255.0,255.0,255.0,255.0,255.0,255.0,255.0,255.0,255.0,255.0,255.0,255.0,255.0,255.0,255.0,255.0,255.0,255.0,255.0,255.0,255.0,255.0,255.0,255.0,255.0,255.0,255.0,255.0,255.0,255.0,255.0,255.0,255.0,255.0,255.0,255.0,255.0,255.0,255.0,255.0,255.0,255.0,255.0,255.0,255.0,255.0,255.0,255.0,255.0,255.0,255.0,255.0,255.0,255.0,255.0,255.0,255.0,255.0,255.0,255.0,255.0,255.0,255.0,255.0,255.0,255.0,255.0,255.0,255.0,255.0,255.0,255.0,255.0,255.0,255.0,255.0,255.0,255.0,255.0,255.0,255.0,255.0,255.0,255.0,255.0,255.0,255.0,255.0,255.0,255.0,255.0,255.0,255.0,255.0,255.0,255.0,255.0,255.0,255.0,255.0,255.0,255.0,255.0,255.0,255.0,255.0,255.0,255.0,255.0,255.0,255.0,255.0,255.0,255.0,255.0,255.0,255.0,255.0,255.0,255.0,255.0,255.0,255.0,255.0,255.0,255.0,255.0,255.0,255.0,255.0,255.0,255.0,255.0,255.0,255.0,255.0,255.0,255.0,255.0,255.0,255.0,255.0,255.0,255.0,255.0,255.0,255.0,255.0,255.0,255.0,255.0,255.0,255.0,255.0,255.0,255.0,255.0,255.0,255.0,255.0,255.0,255.0,255.0,255.0,255.0,255.0,255.0,255.0,255.0,255.0,255.0,255.0,255.0,255.0,255.0,255.0,255.0,255.0,255.0,255.0,255.0,255.0,255.0,255.0,255.0,255.0,255.0,255.0,255.0,255.0,255.0,255.0,255.0,255.0,255.0,255.0,255.0,255.0,255.0,255.0,255.0,255.0,255.0,255.0,255.0,255.0,255.0,255.0,255.0,255.0,255.0,255.0,255.0,255.0,255.0,255.0,255.0,255.0,255.0,255.0,255.0,255.0,255.0,255.0,255.0,255.0,255.0,255.0,255.0,255.0,255.0,255.0,255.0,255.0,255.0,255.0,255.0,255.0,255.0,255.0,255.0,255.0,255.0,255.0,255.0,255.0,255.0,255.0,255.0,255.0,255.0,255.0,255.0,255.0,255.0,255.0,255.0,
5.16500e-02,7.16458e-02,1.01454e-02,1.99822e-01,1.20185e-01,2.32794e-02,6.04416e-03,-1.29942e-02,1.47506e-01,3.79651e-02,-1.13623e-02,-1.76950e-01,9.43808e-02,-1.64493e-01,-6.35018e-02,3.69318e-02,2.02305e-02,5.12696e-02,-7.62876e-02,2.49952e-02,-3.51628e-02,8.10977e-02,-9.71004e-02,4.48100e-02,1.11324e-01,1.74906e-01,-1.25809e-01,-5.46504e-02,2.51369e-02,-1.79873e-02,-4.16855e-02,-1.90810e-01,-5.89240e-03,5.81667e-02,3.32427e-02,-8.32480e-03,7.32078e-02,1.78045e-01,2.81380e-02,-4.37170e-02,1.28279e-01,-5.35706e-02,3.81385e-02,4.19800e-02,-2.83676e-02,-8.74186e-02,4.22328e-02,-9.04619e-02,-1.04900e-01,8.56650e-02,-9.11638e-02,1.80788e-02,4.00139e-02,8.07487e-02,1.33432e-02,-2.35491e-02,5.60634e-02,-2.54888e-02,-7.30680e-02,6.25762e-02,-5.99530e-02,-7.91913e-02,-9.00998e-02,1.58565e-01,-1.29919e-01,1.16338e-01,-3.26624e-02,1.18230e-01,1.84597e-01,9.18335e-02,-1.70835e-01,-3.19012e-02,2.99376e-02,9.62486e-02,-5.36493e-02,-1.95926e-01,-1.03366e-01,-5.20259e-02,-3.33608e-02,-6.35575e-02,-4.11656e-04,-1.32665e-03,5.80034e-02,1.01047e-01,-9.99401e-02,-1.49270e-01,2.72251e-02,1.19259e-01,-1.01624e-01,1.15852e-01,-8.01033e-02,1.15259e-01,2.43194e-02,2.27321e-02,5.02032e-02,1.12926e-01,1.91652e-01,4.50162e-02,8.76944e-02,6.80086e-02,-1.28484e-01,-1.09312e-01,-1.79196e-01,1.91522e-01,6.65815e-02,5.76453e-02,-8.21333e-02,2.23091e-02,-6.33366e-02,5.85215e-03,-5.94602e-02,6.09614e-02,-1.19527e-01,7.65198e-02,8.21969e-04,-1.27287e-01,7.49132e-03,-1.15266e-01,-2.22155e-02,-4.50200e-02,1.06310e-01,-1.30687e-01,-3.54895e-03,2.01925e-02,-3.02220e-02,6.43386e-02,-4.79939e-02,7.72841e-02,-1.77649e-02,-3.05695e-02,2.56834e-02,2.71221e-02,5.87597e-03,1.57720e-02,1.58517e-01,-2.82164e-02,-7.77216e-02,3.44852e-02,-5.97488e-02,-1.46055e-01,-5.78983e-02,-1.10493e-01,-3.20520e-02,6.64554e-03,-1.07925e-01,6.23845e-02,7.49300e-02,8.63299e-02,6.21413e-02,3.04950e-02,-2.19351e-02,-2.76513e-02,-7.82663e-02,9.48141e-02,7.13777e-02,1.66064e-02,-3.73645e-02,3.45129e-02,-2.75474e-02,-3.53428e-02,-6.52304e-02,-1.20860e-01,1.22357e-02,1.63908e-01,-1.85524e-01,-1.41467e-02,3.13082e-02,-3.11467e-02,1.24687e-01,3.06611e-02,-5.13502e-02,5.36590e-02,-5.85984e-02,-1.93068e-02,-2.50808e-02,1.48454e-01,1.14032e-02,1.88115e-02,1.49547e-01,1.18989e-02,-1.31184e-01,9.39941e-03,-5.62888e-02,-3.70700e-03,-1.30048e-01,-7.00147e-02,9.50161e-04,-1.82036e-01,-2.84117e-02,-1.80138e-02,-7.45933e-02,-1.38351e-01,-6.18261e-02,-5.91515e-02,-8.14612e-02,-7.78036e-03,-1.00740e-01,5.70609e-02,1.36255e-02,1.05955e-01,-3.66673e-02,-2.49385e-02,-9.70574e-02,-2.22723e-03,1.33910e-01,1.25974e-01,3.17749e-02,-1.71151e-01,6.93769e-02,-9.94551e-02,1.63772e-02,-8.61677e-02,-1.15894e-01,5.53979e-02,8.65517e-02,-1.96009e-01,3.50526e-02,-9.60209e-02,-8.45449e-02,-5.07295e-02,-1.21605e-01,4.14997e-02,6.78223e-03,-7.35919e-02,1.07168e-01,-8.56360e-03,1.04538e-01,7.78635e-02,-1.80277e-01,6.42985e-02,7.45341e-02,-9.55889e-03,-8.98692e-02,1.79675e-02,9.87785e-02,-1.35956e-01,-3.66401e-02,-1.12622e-01,6.94846e-02,1.26910e-01,2.12730e-02,3.61915e-02,1.50416e-01,-5.43416e-02,-1.43095e-01,4.50939e-02,6.14398e-02,1.57802e-01,-2.96901e-02,-6.46587e-03,-2.77201e-02,-1.10379e-02,1.39843e-02,-3.47982e-02,1.78678e-02,-4.00071e-02,-1.51604e-01,-7.28531e-02,-5.53780e-03,-1.72860e-01,1.80103e-01,3.79546e-02,4.95785e-02,2.50939e-02,1.03287e-01,9.38240e-02,-1.60364e-01,-5.54030e-02,1.86460e-01,-3.41874e-02,-1.02019e-01,-7.16172e-02,1.03205e-02,9.48326e-02,-4.00806e-02,1.30147e-01,-1.05242e-01,1.91931e-02,-2.51276e-02,-3.75006e-02,7.85385e-02,-1.43395e-01,-9.36206e-02,-9.08637e-03,-3.47225e-02,6.52355e-02,-9.63267e-04,-3.83486e-02,1.11981e-01,7.60406e-02,1.42481e-01,6.08724e-02,-6.11250e-02,2.75660e-02,-4.96713e-02,3.11446e-02,1.22026e-01,-6.44337e-02,-1.71855e-01,7.27421e-02,-6.57860e-02,-4.32776e-02,1.89833e-01,-5.42731e-02,2.47930e-02,-5.98268e-02,-4.16905e-02,-3.86986e-02,6.03405e-02,-1.48386e-01,-1.19488e-02,1.90756e-02,8.39460e-02,-5.20143e-02,8.57996e-02,5.83632e-02,3.59044e-02,-5.61712e-02,-1.31531e-01,1.65195e-01,9.24781e-02,1.68281e-01,1.89866e-01,-4.96335e-02,1.71406e-01,1.59873e-01,-1.52264e-01,-1.19162e-01,-1.40361e-01,-1.12856e-01,8.91623e-02,-6.88196e-02,1.23245e-01,7.46254e-02,1.12335e-01,-8.44127e-02,-2.24167e-02,8.21955e-02,9.02278e-02,1.05795e-02,-2.80008e-02,4.99924e-02,2.13506e-02,3.77776e-02,-1.20024e-01,-5.84404e-02,-7.44121e-02,5.45493e-02,1.98167e-01,7.58204e-03,1.02117e-01,-7.06540e-02,7.86871e-03,1.71150e-01,1.12382e-01,2.20982e-02,-1.87642e-01,-3.34181e-02,5.55593e-02,1.15351e-01,5.81837e-02,-1.78788e-02,-9.58758e-02,-1.91665e-01,1.75448e-01,1.03269e-02,-1.30148e-02,5.16001e-02,-8.21397e-02,-1.17835e-01,-8.40039e-02,-9.10995e-02,5.19794e-02,-5.67416e-02,-8.87546e-02,-4.77060e-02,-4.40790e-02,1.12383e-02,-3.33552e-02,1.36950e-01,-6.88105e-02,-1.38597e-02,1.32346e-01,5.25100e-02,5.51169e-03,4.75141e-02,-8.95127e-02,-7.35516e-03,-4.56756e-02,-4.33817e-02,-4.71766e-02,1.42948e-01,8.61459e-02,6.58152e-02,4.83295e-02,7.81705e-02,6.79912e-04,-6.07910e-02,2.65858e-02,6.11797e-02,4.00717e-02,-7.18230e-02,-1.51920e-01,-7.95730e-02,8.53525e-02,6.91732e-02,-4.10337e-02,4.83203e-02,-1.10813e-01,-1.12770e-01,5.69374e-02,5.84038e-02,-9.88433e-02,1.31974e-01,6.34058e-02,1.46533e-01,-2.08356e-02,1.46668e-02,8.56124e-02,-3.52350e-03,1.36385e-01,-1.45288e-02,-6.75926e-02,-3.18015e-03,-4.00864e-02,-7.32111e-02,1.14202e-01,3.52010e-02,6.64632e-02,3.03514e-02,-3.58064e-02,3.45319e-02,-1.79967e-02,-1.10889e-01,-1.23282e-01,1.11225e-01,1.90305e-01,9.96173e-02,-4.17324e-02,1.69908e-01,4.71116e-02,5.51112e-02,4.92554e-05,5.93463e-02,1.67212e-01,7.83098e-02,4.23121e-03,-3.28044e-02,4.63995e-02,-1.17766e-01,-7.89221e-02,-1.26539e-01,4.13214e-02,-1.83145e-01,1.46038e-01,1.52653e-01,7.75472e-03,1.30231e-01,3.90199e-02,-8.81455e-02,-3.94701e-02,1.69746e-01,1.78569e-01,9.26300e-02,5.27148e-02,-2.18252e-02,-3.65130e-02,2.41363e-02,-9.67702e-02,-2.30142e-02,-6.98846e-03,1.67500e-02,2.15147e-02,-5.85438e-02,-1.49321e-01,-8.71889e-03,1.09030e-01,-2.53456e-02,-6.51589e-03,5.37172e-02,8.96516e-02,-1.53400e-01,1.05306e-01,-7.47837e-02,1.44558e-01,1.67622e-01,1.38561e-01,-4.86851e-02,-6.76792e-02,-4.84179e-02,1.43821e-02,-1.83833e-01,-5.52540e-02,2.53541e-03,-2.36068e-02,1.32472e-01,-5.60542e-02,-1.20790e-01,-9.32816e-02,1.01963e-02,8.14497e-02,5.77415e-02,-7.06868e-02,-4.03240e-02,-7.89526e-02,-1.21239e-01,3.50382e-02,5.48748e-02,9.87120e-02,-1.22346e-01,-5.63429e-02,2.98422e-02,-3.41227e-02,6.05642e-02,-3.34405e-02,8.47824e-02,-7.83002e-02,-2.47166e-02,-1.65036e-02,2.88640e-02,7.68598e-02,1.46307e-01,1.26070e-02,-1.03560e-01,1.42817e-02,1.35247e-02,-7.55766e-02,1.35695e-02,-7.68593e-02,1.89476e-01,-5.94118e-02,2.10480e-02,5.28898e-02,-6.96522e-02,8.92374e-02,1.86508e-02,-7.68821e-02,-1.86756e-02,3.45780e-03,5.96436e-02,2.86684e-02,4.21212e-02,-9.06376e-02,7.94337e-02,-4.34278e-02,-7.14565e-02,-1.61885e-01,-1.88168e-01,1.05475e-01,2.92206e-02,-7.21894e-02,1.80980e-01,-1.21741e-01,-1.60139e-01,1.96073e-01,-2.05123e-03,-4.73385e-02,4.52984e-02,-1.31739e-01,-3.07652e-02,2.39653e-02,-1.09668e-02,-5.98160e-02,2.81806e-02,1.31458e-01,1.16507e-02,-1.01297e-01,2.34788e-03,-1.15027e-01,9.76179e-02,1.12054e-01,3.10360e-02,-6.20217e-02,1.23454e-02,-8.69911e-02,-6.50022e-02,1.32506e-01,2.63280e-02,1.23006e-01,-6.10504e-02,-9.58211e-02,-8.44190e-03,-5.09361e-02,2.21588e-02,1.21866e-01,2.35342e-02,-2.12976e-02,-2.38002e-02,7.67723e-02,3.18607e-02,-3.94071e-02,-6.04728e-02,6.99576e-02,1.53254e-01,-1.12764e-01,9.54915e-02,5.06759e-02,-4.85076e-02,-1.46183e-01,-1.36530e-01,-7.16390e-02,-1.81374e-02,-3.32849e-02,-1.63773e-01,-6.73738e-03,-1.02284e-01,-1.30709e-01,-8.55276e-03,5.07739e-02,-2.38421e-02,7.39592e-02,-4.74778e-02,1.48787e-01,5.20850e-02,-7.67129e-02,3.35048e-02,-1.61115e-02,5.63125e-03,-1.53754e-02,4.14531e-03,-4.99030e-02,2.52834e-02,1.42125e-01,3.47774e-02,-7.88259e-02,1.01309e-01,5.90891e-02,1.05037e-01,5.43628e-02,-1.57107e-01,7.91476e-02,-3.53062e-02,-4.75544e-02,1.67690e-01,-7.28525e-02,-8.39171e-02,1.08335e-01,-9.87127e-02,1.68988e-01,-5.40500e-02,-3.07002e-02,-1.78700e-01,-1.39279e-02,-4.15915e-02,-7.31247e-03,-2.44424e-02,2.11300e-02,-1.90140e-03,-8.02379e-02,-1.35081e-01,-1.76462e-02,-1.33332e-01,2.40962e-02,-4.15857e-02,1.07717e-02,-9.80430e-02,1.54239e-01,-7.04808e-02,7.12821e-02,-1.53412e-01,1.11047e-03,9.95924e-04,-4.98942e-02,-1.11836e-02,-1.32883e-02,2.68551e-02,-1.79911e-02,-8.58592e-02,-8.22242e-02,-3.01853e-02,1.22114e-01,4.08869e-02,-1.21828e-01,-1.60363e-01,1.27748e-01,-1.71730e-01,-1.03781e-01,2.25418e-02,1.10613e-01,7.72079e-02,6.61944e-02,-7.57461e-02,-2.27924e-02,7.42123e-02,-5.13474e-02,-8.14729e-02,-6.72481e-02,2.46730e-02,-1.45036e-02,-5.09454e-02,-8.69397e-02,1.25781e-01,2.63675e-02,1.40987e-01,-9.69453e-02,-1.57960e-01,1.04165e-01,4.09286e-02,-8.38778e-02,-7.08571e-02,-2.70317e-02,8.02636e-02,-5.62262e-02,1.00292e-01,6.71267e-02,-1.12557e-01,-5.85444e-02,1.09362e-01,4.12737e-02,8.63395e-02,-1.24818e-01,-1.36393e-01,-3.81883e-02,-1.58791e-01,-3.24437e-02,-9.96823e-02,9.76663e-02,-6.65381e-02,1.11738e-01,-6.49992e-02,7.09762e-03,-6.83672e-02,-1.17045e-01,-9.86951e-02,1.90078e-03,6.84783e-02,-4.84068e-02,2.04849e-04,-1.42526e-01,-1.15734e-01,-1.82013e-02,3.97300e-02,-8.47628e-02,6.73015e-02,-1.23997e-01,-1.73743e-01,1.82147e-02,9.02897e-02,-1.43957e-01,2.56206e-02,2.95038e-02,2.08514e-03,1.93024e-01,6.23161e-02,-6.20853e-03,-1.48346e-01,4.41351e-02,-3.88403e-02,3.49771e-02,4.69197e-02,3.81076e-02,4.57453e-02,6.42444e-03,-9.27361e-02,1.90271e-01,-1.67821e-01,1.95547e-01,7.39342e-02,5.96009e-02,3.94663e-02,-1.13448e-01,-8.65170e-02,-6.60190e-02,2.93994e-02,-1.03902e-01,-9.36425e-02,1.12177e-01,-1.50380e-01,1.67937e-02,4.91448e-02,-4.92535e-02,-9.36784e-02,5.50496e-03,-1.09981e-01,-1.47066e-01,8.14053e-02,7.86722e-02,5.97305e-02,1.59307e-02,5.07731e-02,-2.29918e-02,-1.89489e-01,-3.80506e-03,-1.02287e-01,3.73188e-02,-8.55830e-02,1.60130e-02,-6.84166e-02,6.05760e-02,9.91589e-02,-1.49333e-02,1.79801e-02,-1.06983e-01,4.09877e-02,-1.71028e-01,9.63463e-02,2.45785e-02,-3.55846e-02,2.50676e-02,-6.27709e-02,6.80542e-02,-1.51201e-02,-2.71660e-02,5.21111e-02,7.47651e-02,3.17984e-02,-1.05606e-01,9.82917e-02,-7.02274e-02,-2.91202e-02,-4.27072e-02,-1.94004e-02,7.92271e-02,-7.23584e-03,3.46653e-02,7.47118e-02,-4.07672e-02,4.34001e-02,-7.07571e-02,2.78938e-02,-8.02730e-03,9.48433e-02,8.14781e-02,1.07166e-01,-7.21914e-02,1.36106e-01,5.06391e-02,1.47106e-02,-8.06943e-02,8.96066e-02,-5.20327e-02,3.52416e-03,3.63642e-02,-3.44597e-02,5.02161e-03,-8.73392e-02,6.21927e-02,-1.60808e-01,1.84255e-01,6.96071e-02,1.19117e-01,-2.27587e-02,1.02521e-01,-9.45643e-02,1.03666e-01,1.98014e-01,-8.01710e-02,1.44074e-01,1.28837e-01,6.45975e-02,9.84378e-02,-5.04870e-02,1.00135e-01,-2.74385e-02,-6.48965e-02,8.88153e-02,-1.42091e-01,8.29307e-02,8.07126e-02,1.55906e-02,-9.33436e-02,7.00579e-02,5.02745e-02,6.98778e-02,3.12178e-02,-4.61609e-03,3.16126e-03,7.84795e-02,1.09707e-01,1.36795e-01,-2.61648e-02,3.96317e-02,1.38207e-01,-5.44925e-02,5.50249e-02,-2.26676e-02,3.92932e-02,-1.29462e-01,6.79488e-02,-3.69340e-02,3.12637e-02,-2.37330e-02,-1.36903e-01,7.85163e-02,-9.22033e-02,-3.17073e-02,-1.53725e-01,1.45625e-03,3.14307e-02,1.21610e-01,1.32119e-01,6.79192e-02,1.30079e-01,-1.08652e-01,-1.33558e-01,-2.33841e-02,1.55409e-01,-1.81695e-01,-4.79575e-02,3.36380e-02,-8.02211e-02,-6.55912e-02,1.03848e-01,1.87149e-01,1.10132e-01,-1.79878e-01,1.82364e-02,5.56032e-02,-8.77330e-02,-8.53397e-02,8.93005e-02,-1.55918e-01,9.22058e-04,-1.97118e-01,2.39407e-02,1.49626e-01,7.44266e-02,1.86076e-01,3.91722e-02,1.21361e-02,-1.14594e-01,-1.16767e-01,2.48358e-02,-5.23873e-02,8.52783e-02,7.43119e-02,-1.16671e-01,6.67382e-02,3.80416e-02,-2.95320e-02,-3.52590e-02,4.82471e-02,4.38372e-02,-7.01010e-02,3.99038e-02,-1.19245e-01,-1.11067e-01,6.60281e-02,1.83189e-01,4.52263e-02,1.50787e-01,-3.66267e-02,1.03376e-01,7.66479e-02,7.63010e-02,2.95385e-02,9.89770e-02,-2.77178e-02,8.04393e-02,2.38788e-02,2.82812e-02,-5.53706e-02,4.53372e-02,1.20717e-01,-1.14179e-02,-1.37063e-04,5.02462e-03,-1.84202e-02,-7.15105e-02,-6.55094e-02,1.40444e-04,2.25666e-02,-6.45214e-02,1.27300e-01,-3.51986e-02,-1.15842e-01,-1.28786e-02,4.36191e-02,-2.34747e-02,1.31508e-01,-3.31821e-02,2.14771e-03,-1.74143e-01,-6.97071e-02,4.24830e-04,6.74673e-02,7.47341e-02,3.96052e-02,7.63209e-02,-4.82006e-02,-3.62356e-02,2.19757e-03,-5.88891e-02,-1.22203e-01,-1.06812e-01,1.20095e-01,1.81908e-01,3.07013e-02,1.38697e-01,-6.94032e-02,1.24685e-02,2.92111e-03,-3.59090e-02,3.62218e-02,-1.56156e-01,1.42973e-01,1.88439e-02,9.99145e-02,-1.68951e-01,2.37460e-04,-5.24534e-02,-3.53070e-02,1.71126e-01,9.39501e-02,-1.19576e-01,-9.55826e-02,1.61074e-01,-1.14833e-01,9.99990e-02,2.27074e-02,1.82455e-02,-1.79824e-01,2.37245e-02,-1.95612e-01,-8.48779e-03,1.96980e-01,6.63348e-02,-1.03350e-01,8.68979e-02,-6.63085e-02,-1.37836e-02,1.35886e-01,3.00147e-02,-7.18356e-02,3.23557e-02,-4.78814e-02,-1.13212e-01,-1.39731e-02,-3.47697e-02,-7.05724e-04,9.40034e-02,7.21914e-02,3.48698e-04,7.36113e-02,-3.63014e-02,-1.08084e-01,-5.94616e-02,-1.33497e-01,6.48507e-02,7.83062e-02,-5.20835e-02,1.03592e-02,-3.39712e-02,-7.19887e-02,-8.04239e-02,1.47000e-02,-5.40606e-02,-6.82754e-02,-1.27361e-01,5.55662e-03,-1.09331e-01,1.29194e-01,-2.88998e-02,2.70074e-02,-8.19551e-02,-3.77526e-02,-3.06293e-02,9.95637e-02,-2.12287e-02,-4.64011e-02,3.60258e-02,-1.39079e-02,-5.28611e-02,-1.93068e-01,1.46982e-01,7.96491e-02,-6.56111e-02,7.49194e-02,1.29895e-01,5.75793e-02,-9.82886e-02,6.83539e-02,3.09334e-02,8.83765e-02,-5.15086e-02,1.04002e-01,7.42288e-02,2.31636e-02,-1.12024e-01,5.12877e-02,1.46954e-01,-5.64977e-02,1.59415e-01,-1.92102e-02,-3.26574e-03,-4.34720e-02,-4.10210e-03,-2.89713e-02,-5.89229e-02,-4.44173e-02,8.14336e-02,1.62740e-02,7.70348e-02,-1.90730e-02,-1.10980e-01,-3.27554e-02,1.08506e-01,1.19323e-02,4.05569e-03,7.44933e-02,1.07293e-02,9.24827e-02,1.24629e-02,9.11999e-02,-8.28788e-02,5.56188e-02,1.18088e-01,-7.56370e-02,-5.62085e-02,-1.63078e-01,1.29714e-01,1.53494e-02,1.04118e-02,9.01079e-02,6.06208e-02,-6.52812e-02,1.69463e-02,4.94162e-02,7.97406e-02,6.38904e-02,-3.43898e-02,9.34459e-02,-1.25421e-01,-9.97453e-02,-2.26491e-03,6.12372e-03,6.46266e-03,-7.47302e-02,-4.44426e-03,7.79867e-02,-1.17087e-01,6.18229e-02,-4.50988e-02,7.15428e-03,-2.63934e-03,7.20113e-02,-2.62582e-02,1.88228e-02,-5.81442e-02,1.38514e-01,-1.06331e-01,3.16303e-02,-4.97669e-02,2.33890e-02,1.56210e-01,5.07227e-02,-1.32262e-01,3.34454e-02,5.63399e-02,-4.82175e-04,1.00914e-01,5.84008e-02,-6.30818e-02,-1.24336e-01,-3.46721e-02,-3.41213e-02,-9.48964e-02,2.72114e-02,2.15985e-03,-1.58548e-01,3.15437e-02,7.40044e-02,-4.29605e-02,-2.02093e-02,7.73366e-02,1.25395e-02,9.80028e-02,-9.98996e-02,1.10482e-01,6.19035e-04,-2.52623e-02,-1.88827e-02,1.48944e-02,8.70049e-02,-5.89406e-02,-1.03754e-01,6.69302e-02,1.61606e-01,-3.08082e-03,7.57994e-02,7.54273e-02,-1.91608e-01,-1.26234e-01,-5.41272e-03,-1.35723e-01,6.76031e-02,8.36685e-02,-1.24861e-01,2.49506e-02,-3.18648e-02,7.05350e-02,1.51627e-02,5.01632e-02,9.48830e-02,1.08207e-01,-4.59109e-02,-8.87002e-02,5.79654e-02,-3.93612e-02,1.18107e-02,-2.35726e-02,-8.70992e-02,-1.31801e-01,-8.91999e-02,9.30676e-02,8.18100e-02,-6.80733e-02,-1.96181e-01,-5.49748e-02,-1.38030e-01,-8.09579e-03,1.21142e-01,1.93674e-01,-3.46497e-02,6.71312e-02,2.75777e-02,-5.54213e-02,6.99174e-02,3.74176e-02,3.28588e-02,3.21882e-03,1.35985e-01,-4.72385e-02,5.33774e-03,-1.88405e-03,1.29202e-02,7.19977e-02,-1.86829e-01,8.96992e-02,-3.49325e-02,4.15765e-02,1.44728e-01,9.81358e-02,5.92614e-02,6.60210e-02,-1.70656e-02,-1.18275e-01,-9.99629e-02,-4.24813e-02,-3.89339e-02,7.79763e-02,1.94978e-02,6.71908e-02,2.02444e-02,-1.44488e-01,-6.32649e-02,6.32799e-02,1.74529e-01,6.73776e-02,8.21088e-02,-1.49111e-02,-1.64356e-02,5.71760e-02,-1.61040e-02,1.49303e-01,1.74609e-01,-4.64483e-02,9.57687e-02,1.76173e-01,9.31017e-02,3.43460e-02,-3.14897e-02,-2.97373e-03,-1.58158e-01,-9.22874e-02,-8.45520e-02,-1.49838e-02,-2.61924e-02,6.38925e-02,1.00016e-02,1.41584e-01,-1.59383e-01,-2.58026e-03,-1.01775e-01,2.30166e-02,-2.40065e-02,-1.30914e-01,8.24435e-02,-4.49830e-02,-1.51371e-01,4.03919e-02,-4.21173e-02,2.91364e-02,7.27763e-02,8.25279e-02,-7.08090e-02,3.07842e-02,-9.96005e-02,-2.79601e-02,3.90346e-02,1.87877e-01,-1.18251e-01,-1.40978e-01,-6.06101e-02,-6.50720e-03,-1.64521e-01,-1.18082e-04,-1.14787e-01,-8.93540e-03,6.44517e-03,4.60362e-02,-4.24798e-02,8.57833e-02,8.20048e-02,6.51015e-02,1.21802e-02,-1.09186e-01,-8.43552e-03,1.48501e-02,1.41761e-01,1.15017e-02,-1.02875e-01,-1.71275e-01,-4.73174e-02,1.79505e-02,-5.98555e-02,1.02651e-01,-1.08381e-02,-9.48829e-02,-1.24893e-01,-1.54793e-02,7.70937e-02,1.86376e-02,8.00599e-02,1.01206e-01,-1.17256e-01,8.02047e-03,-5.26706e-02,-6.08672e-02,1.14260e-01,1.10368e-01,8.39205e-04,-5.66976e-02,1.12331e-01,1.31916e-02,1.50857e-01,-5.59584e-03,-6.72664e-02,-9.84958e-02,-6.63052e-02,-1.07428e-01,2.81076e-02,-2.38865e-02,-4.00171e-02,4.15327e-02,8.41511e-02,-3.41943e-02,1.97041e-02,-5.79093e-02,-1.25138e-01,1.15578e-01,-1.09379e-01,-1.53722e-01,-2.00936e-02,-6.07339e-02,6.28504e-02,-1.45169e-01,9.00296e-02,-1.37303e-01,1.13443e-01,9.54446e-02,-8.15048e-02,1.17418e-01,8.41200e-02,-9.36983e-02,-8.54943e-02,1.70696e-01,8.31724e-02,-1.24440e-01,5.54318e-02,-3.16215e-02,1.14205e-02,1.64721e-01,-1.35633e-01,-1.27342e-01,4.51969e-03,1.81456e-02,-1.11220e-01,5.53664e-02,2.83637e-02,5.39990e-02,1.29768e-01,5.43478e-03,1.29480e-01,-6.47991e-02,1.55331e-01,-1.24880e-01,1.94707e-02,-8.57009e-02,8.27056e-02,-8.77349e-02,1.31972e-01,-7.41358e-03,6.01242e-03,9.34588e-03,-5.28628e-02,9.31318e-02,7.75309e-04,8.22614e-03,1.10916e-01,2.24002e-02,-4.11299e-02,-7.51691e-02,6.60153e-03,-1.27544e-01,-1.46415e-01,-8.06963e-02,1.09082e-01,1.82926e-02,-1.15230e-01,1.27944e-01,1.16943e-01,1.56898e-02,-4.22349e-02,-4.36708e-02,9.81803e-02,-1.55797e-02,6.28228e-02,4.30334e-03,-6.41347e-02,-8.39679e-02,7.17154e-02,1.30482e-01,-9.42796e-02,-6.82335e-03,-1.34075e-02,-1.21705e-01,6.21633e-02,-1.78794e-01,1.52684e-01,-9.65291e-02,1.40394e-02,1.12921e-01,-5.55888e-02,-5.95537e-02,-9.35865e-02,-1.52322e-01,5.17798e-02,-7.03650e-02,7.95994e-02,-7.75601e-02,-1.28779e-02,-1.59011e-01,-1.25955e-01,1.56382e-01,-1.01844e-01,-5.97322e-02,9.47482e-02,1.35168e-02,-1.93385e-01,-1.33087e-01,1.24481e-01,3.43508e-02,-8.07801e-02,-5.84712e-02,-9.77619e-02,-6.40826e-02,-9.13398e-02,1.02448e-01,-1.96090e-01,1.14969e-01,-1.16747e-02,-3.87638e-02,1.85309e-01,1.90592e-01,1.32846e-01,3.05263e-02,-2.75351e-02,-7.42651e-02,-1.02881e-01,1.58391e-01,-1.86234e-01,-1.18555e-01,1.49305e-01,-3.09377e-03,-1.92881e-01,-2.44317e-02,-1.06564e-01,8.03318e-02,-1.00178e-01,9.20171e-02,-7.69297e-02,1.98967e-01,1.05630e-01,5.31012e-03,7.67253e-02,-1.38634e-01,-6.65525e-02,6.34998e-02,5.59559e-02,-9.56109e-02,-3.94946e-02,-2.32227e-02,-1.35683e-01,-1.72230e-01,-8.26047e-02,1.07859e-02,-4.51024e-02,-6.69164e-02,6.73809e-02,5.59002e-02,1.95570e-02,4.68934e-02,1.05791e-02,1.38537e-01,-1.90459e-02,1.23610e-02,1.78915e-01,-9.61259e-02,5.04272e-02,9.03320e-02,1.03369e-01,-2.52755e-02,-1.11328e-01,1.04564e-01,4.93162e-03,2.11379e-03,2.01163e-02,1.33394e-01,-1.63199e-01,-1.86499e-03,-2.44531e-02,-4.28362e-02,4.38587e-02,1.24375e-02,5.18521e-02,3.17076e-02,1.33685e-01,-3.12111e-02,8.13826e-02,6.04781e-02,1.69009e-01,2.00854e-02,-9.45349e-03,5.56217e-02,5.06234e-03,3.86693e-02,2.37687e-02,-1.65966e-02,1.39742e-01,8.18483e-02,7.90858e-02,1.84964e-01,1.65443e-02,-4.31603e-02,-4.01390e-02,-5.22196e-02,-5.79662e-02,1.86549e-02,-6.06892e-02,1.55804e-02,-1.85219e-01,-6.18697e-03,9.79710e-02,-5.41455e-03,1.43499e-02,-8.81462e-02,1.53266e-01,1.22901e-01,-9.15934e-02,7.03743e-02,-3.61776e-03,-2.53518e-02,-1.21423e-02,1.55645e-01,-2.27892e-02,1.61511e-01,9.05865e-02,-4.71119e-02,1.15009e-01,3.72763e-02,-2.05600e-02,4.82404e-03,-8.76472e-04,-2.87039e-02,-2.38381e-02,1.87225e-02,7.23156e-02,-4.97508e-02,6.54193e-02,4.79461e-02,2.89898e-02,-3.15576e-02,2.84366e-02,-8.00299e-02,-2.76041e-02,-5.91161e-02,5.20265e-02,-2.06439e-02,4.18731e-02,8.17963e-03,2.09500e-02,-2.55699e-02,-4.89938e-02,2.76793e-02,4.53195e-02,2.21695e-02,4.40673e-02,3.56711e-02,5.56819e-02,-4.48846e-02,-3.34691e-02,-1.45296e-01,-2.01703e-03,-1.69626e-01,4.56370e-02,1.30638e-01,9.43250e-02,1.12520e-01,7.35068e-02,1.27238e-01,2.51872e-02,-2.14487e-02,-1.58121e-02,-2.61882e-03,1.49777e-02,-5.71494e-02,-1.29937e-01,-4.05036e-02,6.19487e-02,-6.43141e-02,4.09424e-02,-1.01692e-01,-1.03935e-02,-1.24084e-01,-3.42389e-02,8.73434e-02,-3.18481e-02,2.07035e-02,3.23089e-02,-1.95279e-01,1.36812e-02,9.00828e-02,-8.31836e-02,8.04925e-02,-2.63925e-02,-4.68860e-02,3.10716e-02,8.87134e-02,1.68010e-01,1.04472e-01,-5.90023e-02,7.62996e-02,-1.65561e-01,8.18954e-02,-1.82285e-02,-3.22614e-02,4.96853e-02,1.10238e-01,-1.22582e-01,-3.99845e-02,1.37465e-01,4.21203e-02,6.22604e-02,-7.19598e-02,-9.47430e-02,-1.41720e-02,4.76246e-02,1.60460e-02,1.65088e-01,-1.15877e-01,-2.50961e-02,-6.65562e-02,3.07880e-02,1.14258e-01,1.06466e-01,1.31630e-01,-2.05880e-02,-1.92758e-02,1.35048e-01,5.10323e-03,-1.40440e-01,6.01963e-02,1.46662e-01,6.62481e-02,-1.02215e-01,9.36899e-02,3.56677e-02,-8.09716e-02,1.27843e-01,-8.19863e-03,-1.99418e-02,-8.06935e-02,-1.95069e-02,-3.04631e-02,-9.47571e-02,-8.03454e-02,-2.51184e-02,4.95411e-02,-9.00271e-02,-1.47459e-01,-8.05098e-02,3.37171e-02,-7.84043e-02,1.41361e-02,-1.63191e-01,1.49501e-01,-1.16936e-01,5.35471e-02,-1.06293e-01,2.39832e-02,1.20902e-01,-3.98744e-02,-5.81961e-03,-2.47050e-03,4.39604e-02,6.57773e-02,-1.32658e-01,-3.20309e-02,-4.88017e-03,-9.12075e-02,1.96396e-01,-7.15905e-03,-2.21121e-02,-9.36993e-02,3.33926e-02,2.97905e-02,3.48786e-02,-1.46634e-01,-2.15826e-02,1.21612e-01,-4.16575e-03,-1.20652e-01,1.06738e-01,4.83505e-02,3.75930e-02,-4.53356e-02,-9.27053e-02,-3.03897e-02,5.84326e-02,4.04907e-02,4.28195e-02,1.51993e-01,7.09762e-02,2.29401e-02,-2.26334e-02,-1.50110e-01,5.66171e-02,-9.48506e-02,1.15426e-01,2.75076e-02,-2.72759e-02,-1.06894e-01,-1.12093e-02,1.54305e-03,-1.25851e-01,-1.76602e-01,8.65828e-02,-1.75412e-02,-7.19689e-02,9.08344e-02,8.03333e-02,-1.09229e-01,-6.62635e-02,5.92359e-02,1.67859e-01,2.30338e-02,-5.40364e-02,1.04883e-01,3.81079e-02,1.92407e-03,-1.17967e-01,2.20475e-02,-2.49403e-02,-1.24517e-01,-7.54462e-03,-1.49581e-02,-7.29902e-02,1.50758e-02,1.18854e-01,-4.88005e-03,1.63638e-02,-1.56176e-01,2.32822e-02,1.52057e-01,1.11874e-02,2.94281e-02,-2.94629e-02,-4.32442e-02,-2.57052e-02,6.72222e-02,8.43419e-02,6.62425e-03,-3.37323e-03,-9.20120e-03,4.18276e-02,2.05634e-02,-6.92962e-02,-8.02778e-02,-1.55320e-02,-8.84700e-02,-9.89277e-02,1.34854e-01,1.17501e-01,2.27664e-03,-3.23922e-02,-2.33852e-02,1.00285e-01,1.63041e-02,1.78804e-01,-1.06883e-01,-1.32792e-02,-6.11476e-02,-1.21127e-01,-1.22839e-01,8.50691e-02,1.08880e-01,1.07013e-02,2.15020e-02,8.31093e-02,-1.32172e-01,3.81619e-02,-1.19432e-01,2.53258e-02,-5.83179e-02,5.82935e-02,4.35234e-02,2.67846e-02,-1.42716e-01,-9.49548e-02,1.16456e-01,5.98528e-02,-1.33166e-02,-1.03259e-01,-4.07351e-02,5.35412e-02,1.10397e-02,1.01142e-01,-4.30972e-02,1.85416e-01,1.87244e-01,1.15690e-02,-1.03736e-03,-1.07759e-01,-1.91226e-01,-1.17481e-01,-7.19162e-02,-1.16909e-01,9.75802e-02,-2.26702e-02,4.59866e-02,2.32078e-02,-8.16579e-02,8.39249e-02,5.98277e-02,6.81303e-02,1.69711e-01,3.98276e-02,3.14937e-02,8.55269e-02,2.04106e-02,9.44816e-02,5.56520e-02,-7.69015e-02,-3.84919e-02,-6.98740e-02,4.80356e-03,-8.68977e-03,-6.42556e-02,-1.87688e-03,1.50598e-01,1.84231e-01,1.30321e-01,1.49101e-01,-2.72556e-02,6.54507e-02,6.02548e-02,9.12121e-02,1.30437e-01,-6.05854e-02,1.89877e-02,3.14072e-02,-2.43733e-02,-7.63822e-02,6.31191e-02,-1.28906e-01,-1.61891e-01,4.37884e-02,-1.20356e-01,2.63902e-02,5.78729e-02,-2.23929e-02,-6.90352e-02,5.49715e-02,-7.25136e-03,-3.68521e-02,2.24305e-02,-2.85063e-02,1.63554e-01,-2.80407e-02,1.45241e-01,-3.38161e-02,-1.94777e-01,1.43304e-01,-9.01396e-03,4.55839e-02,7.16880e-02,-2.55093e-02,4.69386e-02,-6.39395e-02,6.66696e-02,-6.06592e-02,4.28890e-03,-5.30505e-02,2.18174e-02,4.09577e-02,-4.44138e-02,5.80030e-02,1.59803e-01,-1.21870e-01,1.34259e-02,-1.00193e-01,-1.47992e-01,-1.19254e-01,1.34516e-02,-6.02039e-02,9.73452e-02,9.99591e-02,-1.04509e-01,-1.04416e-01,1.81930e-01,-3.86777e-02,7.97648e-02,-7.08789e-02,-5.02804e-02,8.64507e-02,-8.37941e-02,1.54358e-01,5.90056e-02,-4.92429e-02,-1.30672e-02,3.15017e-02,1.71320e-01,1.97483e-03,7.49667e-03,1.41293e-01,-1.98485e-01,-1.61084e-01,5.94922e-02,1.28638e-01,1.45806e-01,9.58299e-02,-5.71798e-02,-2.48555e-02,5.45197e-02,-5.20996e-02,1.40648e-01,5.92006e-03,-2.43179e-02,-1.65823e-02,-3.67966e-02,-3.52480e-02,-1.14519e-01,1.12061e-01,2.59313e-02,2.77990e-02,-2.20822e-02,-1.92245e-02,1.16063e-01,-2.96562e-02,1.45691e-01,4.55361e-02,-6.76581e-02,1.17778e-01,-3.83636e-02,-1.33039e-01,8.05175e-02,9.58953e-02,3.92069e-02,-2.75482e-02,-4.91480e-02,1.40866e-01,4.72760e-02,-2.00625e-02,8.43424e-02,-1.02924e-01,2.22202e-02,-2.96358e-02,-1.60474e-01,1.07502e-02,-1.62035e-01,-1.20672e-01,-1.56570e-01,4.35859e-02,1.20573e-01,-1.38361e-01,-6.00145e-02,4.66149e-02,5.43579e-02,5.84403e-02,-4.74334e-03,6.51257e-02,-9.46231e-02,-1.68559e-01,-1.16206e-01,-1.81472e-01,-1.08710e-02,-3.47821e-02,1.42085e-01,2.44907e-02,-7.94047e-02,9.15308e-02,-5.62659e-02,-5.56648e-02,1.60160e-02,1.61488e-02,4.22489e-02,1.63968e-01,-4.41951e-02,-1.41200e-01,-4.19082e-02,-1.98541e-01,-1.47388e-01,7.71242e-02,1.76989e-01,8.03808e-02,-7.27490e-02,-1.62373e-01,1.09140e-01,2.22020e-02,-1.91657e-02,-1.15359e-01,-1.45751e-01,-3.18727e-02,-2.25129e-02,-2.29616e-02,7.97434e-02,1.09624e-01,8.13300e-02,1.37736e-01,-1.59974e-01,-1.25774e-02,-1.66702e-01,-3.22782e-02,-3.37062e-02,-3.95017e-03,-6.31645e-02,-9.98642e-02,3.16146e-02,-1.69552e-01,-2.87725e-02,7.83777e-03,-9.95650e-02,-2.56054e-02,2.89124e-02,-5.59436e-02,-1.01672e-01,1.81457e-01,8.51212e-02,8.03849e-02,-7.59045e-02,-2.56670e-02,-1.02259e-01,6.14393e-02,4.74085e-02,1.47475e-01,-9.93468e-02,4.68147e-02,1.09705e-02,1.05894e-01,-4.62707e-02,1.33629e-02,-1.17681e-01,-1.70142e-01,-2.84665e-02,-2.85280e-03,-6.32917e-03,-1.82680e-01,-7.72582e-02,-3.44046e-02,-1.22344e-01,6.62389e-02,9.69735e-02,1.83905e-01,1.72026e-01,-6.73674e-02,-8.63831e-02,-1.58209e-02,1.12217e-01,-6.79646e-02,-1.51501e-02,6.73234e-02,1.09265e-01,7.79494e-02,3.51992e-02,2.30134e-02,9.29109e-02,-8.41163e-02,-8.40511e-02,-3.21778e-02,5.64535e-02,5.38701e-02,-1.56914e-02,1.56010e-01,-1.38051e-01,1.64917e-01,-1.26835e-01,-1.04699e-01,5.65666e-02,5.85807e-02,-7.82341e-02,-6.24294e-02,1.42027e-02,1.82080e-01,-5.22546e-02,-1.76408e-02,5.77423e-02,3.13114e-02,7.21711e-02,7.25596e-02,-4.77517e-02,-3.11984e-02,-1.13986e-01,-1.08007e-01,-1.01796e-01,-1.93177e-01,8.71937e-02,6.08265e-02,1.78087e-02,9.22405e-02,7.62155e-02,2.87266e-02,1.35403e-01,1.54423e-01,3.94051e-02,-1.19709e-01,-1.23698e-01,-2.69587e-02,-3.79853e-02,6.07594e-03,-3.33327e-02,1.71842e-01,1.00549e-01,-9.32545e-02,-6.09864e-02,-5.34414e-02,1.85601e-02,-9.09167e-02,4.00212e-02,5.63084e-02,1.19851e-01,-2.11609e-02,1.30779e-01,3.00746e-02,-1.37660e-02,-2.21074e-02,-8.67182e-02,-1.34801e-01,1.45700e-01,-1.55927e-01,7.21221e-02,8.76182e-02,-4.50166e-03,-1.60159e-01,-7.58515e-02,8.15473e-02,-7.21363e-02,2.07075e-03,5.73075e-02,1.75677e-01,8.42468e-02,2.93156e-02,-3.68325e-02,-6.61218e-02,-4.13209e-02,6.35491e-02,1.77772e-01,3.00979e-02,9.07398e-02,-4.48811e-03,4.17359e-03,5.41291e-02,9.40532e-04,-9.87543e-02,-3.02680e-02,-8.08595e-02,4.48663e-02,7.67637e-02,1.14079e-01,1.15067e-01,6.51191e-02,9.75991e-02,-9.61896e-02,-4.05762e-02,9.30639e-02,1.52321e-01,5.20121e-02,8.73064e-03,-1.33624e-01,-9.78373e-03,-1.07330e-01,-1.16323e-01,2.36648e-02,-1.68950e-01,1.48363e-01,1.23532e-01,1.46393e-02,-7.74443e-02,-3.27275e-02,-6.45776e-02,8.17571e-02,3.04394e-03,-4.73985e-02,-6.38385e-02,3.63824e-02,-1.27050e-01,-1.73292e-01,3.74301e-02,-3.42500e-02,6.50383e-02,-7.03745e-02,-3.53669e-02,-3.46545e-02,-1.74282e-01,4.36260e-02,7.79726e-02,-1.42873e-02,-1.59149e-01,1.50725e-01,-1.48197e-01,-1.12115e-01,5.07260e-02,-3.19325e-02,1.03377e-01,-4.99666e-02,-1.60723e-01,-2.79451e-02,8.17883e-02,-1.08024e-03,-5.32406e-02,-1.68323e-01,-1.25408e-01,3.79774e-02,1.55244e-02,-1.09217e-01,1.38365e-02,1.33355e-01,-8.03713e-02,4.92801e-02,-9.51829e-02,-4.61096e-02,1.26848e-01,3.39421e-02,-1.58964e-01,-1.10356e-01,1.78037e-02,-1.30701e-02,4.21276e-02,1.44121e-01,-9.28034e-02,3.86266e-02,-3.97888e-02,-2.91615e-03,-1.13651e-01,-1.36588e-01,7.67867e-02,-7.17369e-02,-8.45038e-02,-5.68442e-02,1.62058e-01,-6.07422e-02,-9.38266e-02,-8.75766e-02,1.50505e-01,-7.24567e-02,-1.67710e-01,6.84626e-02,7.80399e-02,-1.98624e-02,-1.36177e-01,-3.45870e-02,1.97139e-01,4.70692e-02,-5.23311e-02,-1.49776e-01,4.66157e-02,-4.25550e-02,-1.13355e-01,2.68555e-02,-8.46263e-02,6.98551e-02,1.93580e-01,-1.94733e-01,-1.78832e-02,-7.22140e-03,-5.15074e-02,-1.18748e-02,1.28510e-01,-4.56127e-02,-1.31186e-02,-5.52157e-02,1.13853e-01,1.04811e-01,2.61191e-02,-5.01367e-03,9.86591e-02,9.68575e-03,-3.06134e-02,1.68227e-03,-4.88476e-02,-4.65351e-02,3.48949e-02,3.83448e-02,-2.18541e-02,2.82208e-03,4.08282e-02,4.54339e-02,-2.11689e-02,-1.48294e-01,-1.03811e-01,1.20303e-01,-1.08017e-01,7.20374e-03,1.09916e-01,1.45998e-01,-1.43964e-02,1.27788e-02,-7.56809e-02,6.19951e-02,6.12594e-02,-4.05929e-02,1.47798e-01,1.04138e-01,1.46008e-01,-1.07995e-01,8.59287e-02,-1.21374e-01,-9.39045e-02,-5.33698e-02,4.35756e-03,-1.46862e-01,-6.79747e-02,1.68265e-01,4.42559e-02,3.15547e-02,-1.31539e-01,-9.24024e-02,1.17719e-01,-1.51201e-01,1.76526e-02,1.53877e-02,6.92056e-02,-1.25134e-01,7.17163e-02,-8.02359e-02,1.85392e-01,-3.14493e-02,6.44598e-02,-5.32632e-03,-4.97604e-02,-1.24987e-01,1.33118e-01,
-9.65004e-02,-1.11423e-01,-3.58903e-03,8.29386e-02,1.06750e-01,4.02689e-02,-1.46111e-01,5.84681e-02,1.24463e-02,-2.84707e-02,-1.69720e-01,-8.32549e-02,-7.68850e-02,-5.50719e-02,-9.07506e-02,-6.82504e-02,1.41530e-02,-7.87001e-02,-2.72945e-02,-8.65965e-02,-6.72307e-02,4.25054e-02,-1.15280e-01,-3.38913e-02,-9.71068e-02,-8.79261e-02,1.37392e-02,-1.24926e-01,-2.44196e-02,1.26825e-01,-1.19100e-01,-1.41572e-01,8.28673e-02,1.68491e-01,2.95373e-02,1.33388e-01,5.58164e-02,9.45427e-03,1.44998e-01,2.06263e-02,-1.46888e-02,2.77707e-02,5.23836e-02,-1.45070e-01,5.06633e-02,9.97638e-02,-5.58160e-02,-4.19621e-02,-6.48045e-02,1.30473e-01,1.91340e-01,1.62741e-01,-2.55303e-02,-4.81869e-02,1.51984e-01,8.56763e-03,2.16477e-02,2.82564e-02,4.51587e-02,9.94732e-03,-1.31426e-02,-5.98022e-02,7.81662e-02,9.60140e-02,5.71434e-02,-5.35354e-02,-7.20907e-03,8.66111e-02,3.55664e-02,-1.45621e-01,-1.28688e-01,6.94245e-03,1.31933e-01,2.18848e-02,1.03316e-01,1.31922e-01,5.60724e-02,9.85949e-02,-1.22713e-01,-1.21848e-01,-1.94539e-01,4.64916e-02,1.21653e-01,-1.05521e-01,7.66367e-03,-1.54843e-02,-2.40061e-02,-1.64804e-01,1.38059e-02,3.42938e-02,1.18358e-01,-3.57421e-03,3.38853e-02,1.03304e-02,-1.91166e-01,-2.85799e-02,7.00457e-02,1.53618e-02,-7.81346e-02,4.60153e-03,2.86957e-02,-6.60208e-02,1.20751e-01,-2.15061e-02,1.27067e-02,9.64038e-02,-9.41353e-02,-1.73852e-01,5.01736e-02,-7.66707e-02,-2.11448e-02,-1.57718e-01,1.45931e-02,-5.95058e-02,-9.76309e-02,2.01544e-03,1.93462e-01,7.18258e-02,-4.15244e-03,7.92164e-03,1.53501e-01,2.25821e-02,-9.72697e-02,5.04842e-02,-7.89840e-02,7.57550e-02,1.60824e-01,6.23580e-02,3.75742e-02,5.45621e-02,5.70792e-02,-1.19833e-01,4.19890e-04,8.77513e-02,-6.50469e-02,-8.12443e-02,1.99676e-02,-1.32184e-01,-1.93329e-02,6.16460e-02,1.26837e-01,1.24144e-01,5.19141e-02,-6.66549e-03,2.42426e-03,3.71808e-02,5.91700e-02,-1.82072e-02,2.60417e-02,1.84871e-01,1.00528e-01,1.79567e-03,-8.27399e-02,-7.75115e-02,1.43916e-02,4.10632e-03,8.67352e-02,5.30653e-02,3.65509e-02,1.27116e-01,-3.61846e-03,5.67562e-02,5.62906e-02,-6.70049e-02,-1.12131e-01,-1.03985e-01,1.41848e-01,1.09071e-01,-5.82753e-02,-7.64966e-02,1.54603e-01,9.99249e-02,1.32371e-02,-8.82244e-02,-1.57120e-01,-8.24151e-02,-1.81894e-03,-8.14363e-02,6.90802e-02,1.22163e-01,-1.30051e-01,9.57746e-02,7.20710e-02,-1.39223e-01,4.80846e-02,-5.34729e-02,-8.94815e-02,1.87656e-01,-1.84094e-01,-7.54773e-02,1.03280e-01,-1.87823e-01,1.23469e-01,1.03802e-01,5.35409e-02,-3.26722e-02,-1.33644e-01,1.31766e-02,-3.09934e-02,8.39248e-02,-8.09556e-02,1.00122e-01,1.29888e-01,-5.50140e-02,8.29591e-02,1.12695e-01,9.82741e-02,3.80471e-02,-2.26029e-02,6.13386e-02,-4.01717e-02,1.05326e-01,8.68850e-03,1.33242e-02,1.06951e-01,1.16212e-01,-1.48674e-01,-4.41224e-02,-6.86005e-02,-2.65891e-02,2.49125e-02,-5.84020e-02,-5.99263e-02,9.93662e-02,1.66021e-01,1.42210e-02,6.86386e-02,1.80021e-02,8.09644e-02,2.40822e-02,-1.27437e-02,2.42513e-02,-9.39539e-02,-3.63520e-02,1.32940e-01,-2.96826e-02,9.85505e-02,9.66613e-02,1.75061e-01,1.15236e-01,1.10091e-01,-7.10099e-02,2.45053e-03,-1.83981e-01,2.27729e-02,-8.67030e-02,-1.16973e-01,2.19620e-02,1.72097e-01,1.44117e-01,-1.71788e-01,-5.43198e-02,-5.83799e-02,-6.15884e-03,-1.45970e-01,1.63084e-01,1.01932e-01,-1.04059e-01,4.09797e-02,-4.74104e-02,-1.05664e-01,-9.69258e-02,5.80302e-02,-1.03765e-03,3.06951e-03,6.13774e-02,8.59485e-02,-9.73831e-02,-4.83422e-02,6.64883e-02,-9.69585e-02,-6.06223e-02,1.28017e-01,-3.86080e-02,-1.37088e-03,-9.40032e-02,5.40072e-02,-1.03732e-01,6.56163e-02,-4.70809e-02,-2.24553e-02,6.30960e-02,-2.31696e-02,-6.09790e-04,1.51945e-02,-1.44474e-01,-1.56545e-01,6.71987e-02,1.35512e-01,-5.40187e-02,-6.20817e-02,7.44754e-03,-1.55252e-01,-6.01881e-02,1.11654e-01,7.22657e-02,4.24668e-02,5.16222e-02,1.12863e-01,1.68880e-01,-8.15420e-02,-4.01661e-02,3.72106e-02,-2.56762e-02,5.79354e-02,-6.97567e-02,1.79488e-01,-1.44785e-01,4.61881e-02,-6.90719e-02,5.93083e-02,-1.12287e-02,-7.96296e-04,-8.51352e-02,1.26849e-02,5.71547e-02,1.51860e-02,1.07275e-01,-9.10779e-02,-8.53451e-02,-1.09332e-01,1.16332e-01,-3.90495e-02,-5.54508e-02,5.20936e-02,-4.93176e-03,-3.84469e-02,1.02878e-01,1.25222e-02,-3.94529e-02,9.78530e-03,-8.15884e-02,-1.73212e-02,4.61714e-02,4.69368e-02,3.39862e-02,-1.88881e-01,-8.23652e-02,-6.74735e-02,-1.03222e-01,-1.63283e-01,-2.65866e-02,7.98542e-02,-7.03305e-02,3.64008e-02,8.17013e-02,-1.25195e-01,-9.45228e-02,3.75700e-02,7.29918e-02,6.39317e-03,-9.20488e-02,2.20512e-02,-4.47770e-02,9.47281e-02,1.94931e-01,1.61667e-02,4.97890e-02,6.21032e-02,7.22075e-02,9.95867e-02,5.88095e-02,1.71190e-01,-1.44075e-01,-4.06396e-02,-1.66300e-01,-1.22861e-01,-1.12793e-01,-4.78785e-04,8.25040e-02,-5.27040e-02,-1.40398e-01,-4.17518e-02,4.53807e-02,3.27294e-02,-2.99373e-03,2.63378e-03,-5.11486e-02,-4.68713e-02,5.36238e-02,1.72674e-01,7.60426e-02,-6.75316e-02,1.83220e-01,-4.93057e-02,1.06866e-01,3.91700e-03,-3.23237e-02,1.70061e-01,2.07755e-02,3.16615e-02,2.31566e-02,4.89738e-02,-1.06702e-01,-8.54887e-02,-1.13247e-01,-3.56633e-02,-5.37012e-02,-3.94029e-02,-5.51122e-02,-3.65533e-02,5.41709e-03,-1.62478e-02,-7.89463e-02,1.56751e-01,1.64740e-01,3.79670e-03,1.20202e-01,-1.43956e-01,8.98183e-02,5.55731e-02,6.15875e-02,-3.07109e-02,-4.81069e-03,8.21006e-02,9.10726e-02,-1.14425e-01,-1.75264e-03,1.52480e-01,6.36990e-02,-1.55302e-01,1.15816e-01,-1.43826e-01,1.26322e-01,-1.78111e-01,1.70036e-01,-6.41886e-02,-2.75417e-02,8.93111e-02,1.48835e-01,4.64985e-02,4.00182e-02,-1.79101e-01,1.50258e-01,1.14443e-02,-1.40996e-01,1.03329e-03,4.07210e-02,5.16208e-03,1.44832e-02,4.43893e-02,6.62595e-02,-1.40478e-01,5.02303e-02,-7.80262e-02,6.32675e-02,8.25669e-02,-5.26155e-02,-1.83810e-02,-1.02369e-01,-1.30769e-01,-4.27339e-02,1.34694e-01,-5.12819e-02,1.54100e-02,4.15579e-02,1.34120e-01,-1.49393e-01,-4.55628e-02,-1.61107e-01,-5.71649e-02,4.68869e-02,1.91997e-02,-2.45331e-02,2.32225e-02,4.65927e-02,1.41923e-02,6.87401e-02,1.03911e-01,8.04322e-02,-4.71111e-02,-4.48490e-02,8.91206e-02,-2.99162e-02,2.39579e-03,1.59627e-02,6.29399e-02,-1.29348e-01,-1.51671e-01,8.29251e-02,2.72923e-02,1.06764e-02,1.15863e-01,-5.71136e-02,-1.18719e-01,1.00674e-01,-5.25348e-03,-2.97778e-02,1.10534e-02,-8.71085e-02,7.99749e-02,-1.89361e-02,-1.26974e-01,4.32295e-02,1.39848e-01,-7.57305e-02,-5.43254e-02,-1.09644e-01,1.38259e-01,-2.59289e-02,-2.67514e-02,-3.70035e-02,2.13841e-02,-3.99151e-03,1.20309e-02,-8.37018e-02,8.87963e-02,7.40140e-02,6.28082e-02,6.62019e-02,2.53548e-02,-1.38834e-01,4.84912e-02,-3.21295e-02,-3.91114e-02,-7.84728e-02,1.02970e-01,9.84577e-02,1.29370e-02,5.50419e-02,-1.65628e-01,-1.32687e-01,-6.81880e-02,-4.99226e-02,1.79485e-02,-8.52491e-02,-5.01467e-02,-5.04658e-02,1.02413e-01,6.74984e-02,1.12678e-01,-4.68746e-02,-1.17252e-01,9.19042e-02,5.74079e-02,-9.43219e-02,5.09646e-02,-3.06599e-02,1.93607e-01,4.73829e-02,-1.47388e-01,-2.99202e-03,4.94620e-02,-7.38316e-02,-9.42313e-02,7.34744e-02,8.11956e-02,-6.92424e-02,-9.97586e-03,-6.37667e-02,-1.31435e-01,1.62150e-01,-5.20305e-02,-6.43369e-02,-8.22614e-02,-8.32909e-02,-1.36456e-01,5.57045e-02,-1.41203e-01,-1.79878e-01,-2.61825e-03,5.01312e-03,-6.19687e-02,-1.03329e-01,-1.31912e-02,4.15764e-02,2.22430e-02,1.64632e-01,-1.28150e-01,7.81263e-02,5.06599e-02,2.77046e-02,7.61222e-02,1.53132e-02,-3.93246e-02,-3.83182e-02,1.95044e-01,2.89827e-02,4.95253e-03,-1.31538e-01,-5.15811e-02,-1.02460e-01,1.22502e-01,-1.62231e-01,-2.98733e-02,5.59718e-02,-2.13583e-02,-5.51441e-02,-1.09592e-02,-4.25471e-02,-4.67888e-03,6.28517e-02,2.34350e-02,6.28109e-02,-3.67187e-02,-1.69033e-01,-2.72613e-02,6.61301e-02,-6.84315e-03,-1.31094e-01,5.25706e-02,-3.49383e-02,1.30192e-01,-1.08225e-01,2.32490e-02,1.71324e-02,-7.25919e-02,1.45783e-01,2.61423e-04,-4.83535e-03,3.70083e-02,1.48748e-01,-2.47925e-02,8.28708e-02,1.23375e-01,-2.07075e-03,1.24939e-01,3.66094e-02,3.70037e-02,2.74510e-02,7.50600e-02,-1.21682e-01,1.11241e-01,-2.56785e-02,7.30360e-02,1.32453e-02,8.82812e-02,-6.74252e-02,-1.93183e-01,1.37261e-01,1.38696e-01,-6.34717e-02,-1.06864e-02,-2.48331e-02,-4.70138e-02,5.52390e-02,1.01536e-01,-4.66923e-02,6.78357e-02,2.78719e-02,1.01042e-01,1.00094e-01,-5.87234e-02,1.19488e-01,-1.37297e-01,1.44677e-01,-6.94257e-02,-6.65750e-02,-1.64256e-01,-1.27070e-01,-1.00386e-01,5.28570e-02,1.22213e-01,-1.07010e-01,1.59255e-01,1.27073e-01,5.54400e-02,4.07727e-03,1.26920e-02,1.73016e-01,1.21666e-03,-2.13466e-02,7.47978e-02,-1.09319e-01,3.92725e-02,9.07918e-02,5.03347e-02,1.49527e-01,4.38458e-02,-9.30682e-02,-6.94782e-02,1.22282e-01,-1.26111e-02,7.76963e-02,-1.00681e-01,1.37906e-01,-5.78882e-02,-1.19050e-01,1.73251e-01,9.07007e-02,-9.03191e-02,-1.21388e-02,1.20927e-01,-2.68498e-02,1.13535e-04,6.80451e-02,-2.42823e-02,-1.07302e-01,-5.08973e-02,1.60939e-01,-7.20411e-02,5.55528e-02,-8.31363e-02,3.20719e-02,1.02800e-01,9.19302e-02,8.08404e-02,6.92913e-02,-3.30546e-02,1.14660e-02,1.09035e-01,3.93286e-02,-6.88609e-02,-1.84857e-01,-1.32160e-01,-4.71029e-02,1.38919e-01,-4.55637e-02,1.33780e-01,-9.75288e-02,-2.26602e-02,-1.64264e-01,1.64380e-01,7.38795e-03,-5.89594e-02,-5.82358e-02,-1.11871e-01,-1.57504e-02,-2.41469e-02,-1.57633e-02,3.39972e-02,2.26688e-02,-6.60463e-02,-1.02772e-01,-3.36386e-02,5.22109e-02,1.77221e-02,-3.27098e-02,-9.56505e-02,-4.11924e-02,-3.34916e-02,-1.54041e-01,8.69569e-02,7.35450e-02,-3.05371e-02,1.12420e-01,-5.80505e-02,5.81274e-02,1.94813e-01,1.01782e-01,-3.41265e-02,4.77455e-04,7.40982e-02,-1.74262e-01,9.13518e-02,6.18887e-02,1.60034e-02,-1.84381e-01,4.87351e-02,-2.42841e-02,3.13727e-02,-3.01548e-02,6.29532e-02,-3.31538e-02,4.56537e-02,-2.05902e-02,-1.69037e-01,-8.08929e-02,1.83694e-01,-1.86820e-01,-1.29186e-02,-1.15839e-01,1.22192e-02,6.14940e-03,-1.00223e-01,-1.14473e-01,-1.49166e-01,-1.51478e-03,1.98418e-01,-3.66654e-02,-1.58659e-01,-1.05128e-01,1.48056e-01,-1.47961e-01,-1.76120e-01,5.67155e-02,-1.34898e-01,-5.70087e-02,-4.86629e-02,-1.12597e-01,4.65232e-02,-9.77094e-02,-8.35377e-02,-1.24852e-02,1.04768e-01,-1.36402e-01,-9.14019e-02,8.18511e-02,-1.16113e-01,4.59961e-02,-7.77627e-02,1.33650e-01,1.78641e-01,-2.46000e-02,4.06625e-02,1.78586e-02,-1.06761e-01,1.02728e-01,-1.20895e-02,-5.41177e-02,2.27126e-02,1.38003e-01,-4.35000e-02,4.70118e-02,-3.87562e-02,-8.06879e-03,-8.36473e-02,-1.43598e-01,-1.96955e-01,1.33010e-01,-2.81572e-02,1.61098e-02,9.76637e-03,3.51065e-02,-3.97751e-02,4.68683e-02,-8.76761e-02,-1.45491e-01,5.62394e-02,-6.54903e-02,-1.05406e-01,-1.23167e-01,8.94411e-02,1.66173e-01,-8.54141e-03,-1.31390e-02,1.26110e-01,1.36389e-01,9.57552e-02,8.22423e-02,8.65778e-02,-5.03729e-02,1.73832e-03,-7.11022e-03,-7.53500e-02,1.74578e-01,1.22306e-01,-1.57290e-01,2.64009e-02,-1.04250e-02,-2.09677e-02,2.62730e-02,-4.98653e-02,9.14488e-02,-9.00319e-02,2.66617e-02,8.88104e-02,-8.20204e-02,-1.34394e-01,-2.88680e-02,-1.05655e-01,4.52806e-02,2.38448e-02,-2.01818e-02,-2.92656e-02,3.69649e-02,5.42230e-03,1.73139e-01,-7.25137e-02,1.73331e-02,1.10516e-01,-1.62468e-02,6.98473e-02,-4.22456e-02,-3.08050e-02,1.58061e-02,8.92999e-02,-1.96211e-01,-1.72063e-01,1.10767e-01,-9.17399e-02,1.04118e-01,3.54733e-02,4.13531e-02,-1.52711e-01,1.49649e-02,-1.27436e-01,-7.31822e-02,-4.21485e-02,1.09891e-01,8.08981e-02,-2.62303e-02,4.28201e-02,1.69638e-01,3.98717e-02,-6.19795e-02,-3.87746e-02,1.24439e-02,-7.16724e-02,9.17583e-02,-6.61384e-02,-2.04762e-02,9.19984e-02,-2.89648e-02,1.11764e-01,-1.19651e-01,-6.68114e-02,2.10372e-02,1.29586e-01,-9.30788e-02,-1.35858e-01,-6.48983e-02,1.97282e-02,-2.96658e-02,-1.33483e-01,1.55850e-02,-4.83703e-02,1.21449e-01,-5.44628e-02,-7.05007e-02,-6.56580e-02,-1.28496e-01,-4.14045e-02,-5.19323e-02,2.06227e-02,1.28291e-01,-1.35197e-01,8.78272e-02,2.60530e-02,4.73275e-02,1.46608e-02,1.38604e-01,-2.93874e-02,1.95977e-01,9.54973e-02,4.45395e-02,-4.45448e-02,1.69120e-01,-1.50611e-02,-7.26383e-02,-1.00838e-02,-6.13541e-03,2.66882e-02,1.43431e-01,-2.83081e-02,8.61408e-02,7.11054e-02,7.14962e-02,9.96163e-05,-5.86455e-02,7.73368e-02,2.67460e-02,1.74309e-01,1.73680e-01,4.04544e-02,4.82066e-02,1.28105e-01,-6.86636e-02,-5.17557e-03,-1.20355e-01,5.03327e-02,-4.83623e-02,-8.71298e-02,1.07198e-01,-8.59980e-02,4.78431e-03,-7.03439e-02,-2.36932e-03,9.06804e-02,-2.87433e-02,-1.50593e-01,-9.08590e-02,5.20430e-02,4.41759e-03,2.85938e-03,1.94799e-01,1.79952e-03,7.28964e-04,-4.99027e-02,-1.26955e-01,1.20243e-01,-1.02722e-01,2.93483e-02,3.35251e-04,-1.21531e-02,1.41144e-02,2.47439e-02,-1.87840e-04,1.34090e-01,4.95559e-02,-1.49616e-01,-3.87366e-02,-1.33360e-01,-2.38341e-02,3.01747e-02,-6.53795e-02,-3.77730e-02,6.32142e-02,1.07721e-01,2.45562e-02,2.08416e-02,-3.04013e-02,-7.68065e-02,-1.66159e-01,-1.03128e-01,3.13064e-02,1.12182e-01,-1.07253e-02,-1.07437e-02,-5.09353e-02,1.00570e-01,1.52309e-03,1.83269e-01,-1.64121e-02,2.28080e-02,2.85435e-02,3.38237e-02,-8.53329e-03,8.16173e-02,-1.00603e-02,-3.15718e-02,5.76685e-02,-1.38024e-01,7.22138e-02,8.58794e-02,5.50757e-02,-3.79087e-02,-8.54905e-02,-2.20240e-02,-1.19076e-01,-1.83040e-02,-4.39320e-02,1.00743e-01,1.88809e-02,-2.24975e-03,-4.10564e-02,6.78032e-02,-8.08670e-02,8.20483e-02,-1.58889e-01,1.09300e-01,-8.67905e-02,7.93623e-02,1.03767e-01,-2.45841e-02,-7.79644e-02,1.48468e-01,-6.78197e-02,-5.00715e-02,-1.46816e-02,1.25920e-02,-1.89441e-02,1.16977e-01,1.92802e-01,2.39984e-02,3.90463e-03,1.13029e-01,-1.15402e-01,-1.76231e-01,1.20166e-02,-1.28066e-02,-5.38265e-02,-9.84886e-02,-1.06683e-01,1.85257e-02,1.52218e-01,-2.00152e-02,1.19072e-01,-1.36405e-02,-2.20120e-02,1.15447e-01,-1.22341e-01,1.43203e-01,-3.79654e-02,4.70649e-02,-7.34670e-02,-1.00884e-01,-1.13193e-01,-1.00252e-01,-4.66943e-02,-2.33667e-02,1.77636e-01,-1.41008e-01,-5.40773e-02,-2.01767e-02,5.29324e-02,-3.81696e-02,-1.40805e-01,-1.29751e-03,-9.10214e-02,2.30860e-02,8.77473e-02,1.28176e-01,1.24335e-01,1.32893e-01,-1.43226e-01,-4.12850e-02,9.08081e-02,1.21801e-01,-7.17468e-02,-7.16077e-02,-2.52064e-02,1.25609e-01,1.34201e-01,7.18552e-02,-1.57527e-01,-2.51242e-02,1.66194e-02,-5.63638e-02,-4.05923e-02,1.24573e-01,1.38135e-01,-5.73726e-02,-1.83230e-02,-4.04446e-02,1.81985e-02,5.68570e-02,1.36753e-02,-9.77420e-02,-9.08004e-02,-1.68785e-01,2.89632e-04,4.74059e-02,-5.01132e-03,-1.62248e-01,2.90184e-02,-2.36509e-02,6.46008e-02,1.22058e-01,1.26977e-01,-4.78977e-04,1.82801e-01,-3.22671e-02,1.64293e-01,8.56048e-02,2.43452e-02,1.62794e-01,7.94284e-02,1.26257e-01,4.96990e-03,-6.63290e-02,-1.68744e-02,-1.51980e-01,-1.57376e-01,1.27470e-01,1.39056e-01,7.91832e-03,-1.50501e-01,-1.37262e-02,1.50511e-02,1.06851e-02,1.10572e-01,-1.41736e-01,1.37639e-02,-5.38907e-02,-7.20325e-02,9.89314e-02,-1.32051e-01,1.32493e-02,2.85463e-02,-1.52940e-01,-1.41520e-01,3.00355e-02,9.61157e-02,-3.09976e-02,1.31545e-01,-9.61854e-02,5.51539e-03,-1.59115e-02,1.39282e-01,6.47226e-02,-1.05714e-02,-3.34834e-02,-4.30478e-02,-1.45253e-01,1.67396e-01,6.02691e-02,-1.92759e-02,-1.07008e-01,-8.81576e-03,6.58947e-02,4.71026e-02,-6.93713e-02,-1.93360e-02,-9.34651e-02,-2.90392e-02,-1.29808e-01,-9.39925e-02,-9.27514e-02,-1.21712e-02,-4.40715e-02,-1.20085e-01,-6.02204e-02,1.09222e-01,3.72737e-02,-1.38434e-01,8.11658e-02,5.99752e-02,3.75455e-03,-3.69895e-02,1.87770e-01,-2.88856e-02,9.75060e-02,1.68772e-01,-7.62700e-02,3.56713e-02,3.42291e-02,8.75481e-02,7.88966e-02,-5.71991e-02,-9.98406e-02,1.09090e-01,-1.60941e-01,-1.18098e-01,9.88451e-02,4.24645e-02,5.78723e-02,6.93593e-02,6.96505e-02,-2.90903e-02,1.97660e-01,1.01197e-01,1.10732e-01,7.80865e-02,3.01228e-02,-9.83095e-02,-9.14952e-02,9.91412e-02,-1.67472e-01,-1.73233e-01,7.38235e-02,-1.98873e-01,1.17594e-01,9.17227e-02,-1.89463e-01,6.38412e-02,1.67391e-01,-7.89702e-02,1.34552e-01,8.77392e-02,-1.15445e-01,-1.19993e-02,1.67383e-01,7.14160e-02,4.96610e-02,1.12957e-02,-2.96878e-02,8.57450e-02,4.69626e-02,-1.59609e-01,-3.71307e-02,-2.45223e-02,1.98531e-02,1.03173e-01,3.09598e-02,4.87924e-02,-1.25371e-02,-4.54420e-02,1.43535e-01,1.41583e-01,-3.39520e-02,7.39821e-02,3.98996e-02,-7.58359e-03,-7.20651e-02,-4.77286e-03,-5.14832e-02,-2.62921e-02,7.50013e-03,7.65562e-03,-1.11662e-01,1.10280e-01,3.79080e-02,1.01219e-01,7.57746e-02,1.20174e-01,-2.43787e-02,1.18398e-02,1.99379e-01,5.14489e-02,2.41213e-02,-1.79526e-01,-6.80095e-03,-2.18695e-02,-1.46701e-01,1.08208e-01,-1.27163e-01,-7.42084e-02,-1.68742e-01,1.45721e-01,7.34305e-02,1.36686e-01,8.37981e-02,4.46774e-02,-1.45772e-01,-3.99990e-02,2.93466e-02,2.73457e-02,-6.37214e-02,-1.01934e-01,-1.84314e-01,5.34129e-02,6.78369e-02,1.03627e-01,1.59032e-01,1.97984e-02,8.07521e-02,-4.33909e-02,4.37410e-02,-9.12550e-02,1.45261e-01,1.01933e-01,-1.01815e-01,-1.27469e-01,1.47053e-02,6.07467e-02,7.67645e-02,-3.86793e-02,1.77996e-02,-1.30168e-02,1.33344e-02,1.51199e-01,1.10172e-01,-1.05398e-01,-7.95413e-02,-1.03467e-02,7.83094e-02,5.49211e-02,3.83372e-02,-1.58299e-01,-5.86774e-02,-1.07289e-01,1.19189e-02,-9.01050e-02,6.59047e-02,4.78353e-02,5.76040e-02,5.12733e-02,-5.41380e-02,7.02796e-02,-7.50574e-03,-8.48512e-02,-8.83998e-02,1.30154e-01,-5.62165e-02,9.50029e-02,-7.07837e-02,-9.06744e-02,-6.73783e-02,-1.62633e-01,-4.70573e-02,-1.46533e-02,-8.37618e-02,-2.10353e-02,1.77702e-02,-1.58743e-01,-1.51703e-01,-1.58930e-01,-1.47906e-01,3.83282e-03,7.65872e-02,8.77887e-02,4.95272e-03,-6.01607e-02,3.21571e-02,1.00966e-01,7.51140e-02,9.30474e-02,-9.20061e-03,-3.94174e-02,1.86825e-01,-1.51618e-01,1.33085e-02,-8.15146e-02,7.00468e-02,8.58014e-03,1.89167e-05,9.45692e-03,1.25774e-02,1.43412e-01,8.35957e-02,-7.48587e-04,8.21810e-02,-2.05560e-02,-2.18060e-03,4.03468e-02,-7.59390e-02,-1.11294e-01,-3.67634e-02,6.65872e-02,1.49321e-02,8.67277e-02,-1.00906e-01,-4.76525e-02,-9.10966e-02,-2.57510e-02,-8.23115e-02,8.91522e-02,1.25425e-03,-3.64788e-02,-6.28038e-02,-9.36679e-02,6.75388e-02,-3.35405e-03,2.41865e-03,1.83204e-01,-2.97333e-02,-2.57111e-02,5.26112e-02,-5.22559e-02,7.48468e-02,2.86084e-02,-2.68849e-02,1.90123e-01,-3.57913e-02,2.67900e-03,-1.39139e-01,-8.54824e-02,1.76554e-02,-1.41755e-01,1.70350e-02,5.08704e-02,-2.55483e-02,-7.33428e-02,9.38087e-02,-1.11341e-01,-3.59774e-02,-2.88106e-02,-9.85210e-02,-5.26240e-02,-1.43201e-01,-1.24242e-01,-6.32347e-02,8.37759e-02,-2.76100e-02,1.30632e-01,-1.17344e-02,-4.32432e-02,-1.09529e-01,-7.34593e-03,-3.05953e-02,3.18890e-02,-4.96008e-02,-1.31687e-02,-1.18367e-01,4.94137e-02,-1.24459e-01,-1.18719e-01,-1.69847e-02,-1.11052e-01,1.34437e-01,2.90304e-02,1.93672e-01,4.19951e-03,7.47407e-02,1.19941e-02,-1.23016e-01,1.48977e-01,2.00373e-02,-6.93067e-02,9.42320e-03,1.10824e-01,-9.99870e-02,-1.60549e-01,-2.88429e-02,5.71476e-02,1.67037e-02,9.16963e-02,-1.35523e-01,-7.65160e-02,1.78258e-01,9.87734e-02,2.46676e-03,-1.34803e-01,5.72631e-02,3.70362e-02,1.17479e-01,1.91431e-02,-7.34804e-02,-1.98748e-02,-1.35817e-01,5.02240e-03,-2.32781e-02,-4.06774e-02,3.66836e-04,-6.51057e-02,-6.52336e-02,4.15155e-02,-4.68210e-02,-8.10664e-02,-2.15264e-02,-1.20867e-02,-5.55585e-02,3.57137e-02,-8.91639e-03,-1.87907e-01,-5.98243e-05,-1.92727e-01,1.37390e-03,-6.67214e-03,-1.24406e-01,-7.10815e-02,-9.16757e-02,-1.12118e-01,9.79761e-03,-2.29878e-02,-1.75234e-01,8.15635e-03,-6.51758e-02,1.20941e-01,-4.72437e-02,8.92653e-02,-3.40887e-02,1.23124e-01,9.24398e-03,-5.91146e-02,-6.01830e-02,-2.09308e-02,9.71009e-03,7.53703e-02,5.45018e-03,-4.59631e-02,9.02829e-03,-5.21709e-02,7.56129e-02,4.58399e-02,4.40954e-02,-1.32915e-01,2.46069e-02,2.14374e-02,-3.23226e-02,-2.52531e-02,-4.03228e-02,-5.04161e-02,-6.32489e-02,3.98532e-02,2.96589e-02,1.01635e-01,5.24026e-02,8.78789e-02,-2.75715e-02,-2.65896e-02,2.59175e-02,-7.72061e-02,-5.79279e-02,3.74971e-02,1.62622e-01,9.40882e-02,1.35184e-01,9.97663e-02,-1.12910e-01,2.72135e-02,1.97292e-02,-4.02885e-02,-1.86249e-01,3.21467e-02,3.06112e-02,1.51278e-01,5.65764e-03,-2.37165e-02,2.90416e-02,1.64539e-01,1.76102e-03,1.26766e-01,-5.38187e-02,7.47392e-02,-2.83079e-02,9.40270e-02,1.39354e-01,6.78762e-02,5.73504e-03,-3.31898e-02,7.08992e-02,-1.08256e-01,-7.14648e-04,-3.22495e-02,-3.85134e-02,1.16776e-02,1.82879e-02,-4.00108e-02,8.01244e-02,-1.64359e-02,-3.26670e-02,-7.85623e-02,-9.00041e-02,1.99823e-02,-4.17455e-02,1.60257e-01,4.88177e-02,5.93275e-02,-3.68828e-02,2.15010e-02,6.24718e-02,-9.94843e-02,-7.53690e-02,-5.21370e-02,-2.92848e-02,-8.35020e-02,-1.67008e-01,8.68610e-02,1.86202e-01,3.52540e-02,1.32380e-01,-5.45178e-02,-2.79363e-02,1.87170e-01,7.58487e-02,3.90584e-02,3.79468e-02,-5.67423e-02,-1.08620e-01,-1.55159e-01,7.95220e-02,-1.56339e-01,-1.67670e-04,-9.50705e-02,-1.11267e-01,1.55742e-02,-1.08529e-01,3.34616e-02,-3.71779e-02,-9.45899e-02,3.60793e-02,1.28022e-01,7.51338e-02,6.09835e-02,-3.81279e-02,-1.84757e-02,1.06081e-01,4.33487e-02,1.02949e-01,6.18184e-02,-7.88117e-02,1.89289e-01,9.74431e-02,-9.59063e-03,1.80896e-01,1.23159e-01,1.39031e-01,1.11303e-01,2.09422e-02,-7.31023e-02,2.43167e-02,3.83681e-02,-9.01372e-02,-4.13825e-03,-1.24640e-01,-2.75204e-02,1.58615e-01,-4.04397e-02,-7.32477e-02,-2.37039e-02,1.12416e-02,6.29595e-03,-6.34990e-02,-1.14800e-01,-1.95775e-01,1.53983e-01,-8.57414e-02,-2.75800e-02,5.72317e-02,1.54362e-02,-4.87218e-02,-7.57677e-02,-9.80911e-02,-6.45150e-02,3.66472e-03,-7.12019e-02,-5.72770e-02,7.21805e-02,1.36444e-01,-1.70400e-01,3.47802e-02,1.23378e-01,1.47757e-02,-8.13024e-02,-1.34158e-01,-1.72231e-02,2.61570e-02,-4.88130e-02,-1.39279e-01,-1.43654e-01,-1.46500e-01,-4.93365e-03,9.74807e-02,5.39887e-02,1.11887e-01,-8.15837e-02,-7.18858e-02,5.15273e-02,-6.96503e-02,-1.39832e-01,6.19116e-02,-9.77037e-02,-1.49050e-02,-3.36820e-02,-1.94001e-02,8.03654e-02,-4.34235e-02,1.64613e-01,5.47351e-03,-7.96591e-02,-5.19695e-02,1.07326e-01,-5.46727e-02,-7.80765e-02,-1.38046e-01,2.22334e-02,7.31535e-02,2.66708e-02,-1.27467e-01,2.06108e-02,8.26780e-02,1.76862e-01,1.81234e-01,-1.15789e-01,-8.47399e-02,1.54288e-02,5.64855e-02,-6.27716e-03,-7.72559e-02,-7.89451e-02,6.62266e-02,-6.69676e-02,1.53001e-02,-4.33475e-02,1.12228e-01,1.21284e-01,1.48060e-02,5.40931e-02,-1.46487e-01,-2.16253e-04,9.93555e-02,1.14431e-01,1.48783e-01,6.42057e-02,2.83867e-02,1.28126e-01,-1.77981e-01,-8.81885e-02,-7.15959e-02,4.13766e-02,6.33230e-02,-4.26306e-02,-1.55419e-01,-1.19712e-01,-1.04394e-01,-7.36696e-02,5.06286e-03,1.67389e-02,-1.92113e-02,-1.00187e-01,-4.27185e-02,7.70555e-02,3.36428e-02,9.57677e-02,-1.48272e-01,2.64437e-02,-8.82179e-02,-1.99603e-02,-8.55637e-03,4.83092e-02,1.56647e-01,8.49096e-02,9.90763e-03,1.40851e-01,9.59763e-02,9.77445e-03,-5.73450e-02,1.08506e-01,-4.46117e-02,-1.15085e-02,8.15226e-02,1.84546e-01,-2.13040e-02,-1.39597e-02,-5.51325e-02,-9.70262e-02,-1.34847e-02,-1.49236e-01,-2.34754e-02,-1.01449e-01,1.99300e-02,8.58727e-02,-3.74723e-02,1.38118e-02,-1.81637e-01,-3.09272e-02,1.07491e-02,-1.60090e-01,-3.53732e-02,1.92141e-01,1.56687e-01,-1.78813e-01,-5.62301e-03,-7.12476e-03,4.14965e-02,4.84165e-02,6.29435e-02,-1.45771e-02,4.79814e-02,1.41347e-01,8.56042e-03,-1.30078e-01,1.52774e-01,4.89257e-02,9.13759e-02,-1.57262e-01,5.76930e-02,-1.10582e-01,-5.47113e-02,-5.16504e-02,-6.14525e-02,-1.40709e-02,-1.04174e-01,-1.17044e-01,9.73866e-02,1.10881e-01,-6.22820e-03,-6.65297e-02,-9.58830e-02,7.64732e-02,-1.92984e-01,6.35507e-02,3.55182e-02,3.47930e-02,-1.29183e-01,-9.44015e-02,1.07916e-01,9.44412e-02,7.84166e-02,-1.56757e-01,5.97678e-02,-1.34035e-01,-6.72894e-02,-1.14392e-02,4.30971e-02,-1.81181e-01,-1.54311e-01,1.51107e-01,9.07818e-02,2.50989e-02,6.69796e-03,4.30047e-02,-1.27788e-01,2.78430e-02,-1.70462e-02,-1.23268e-02,-7.54365e-03,-6.88104e-02,9.24843e-02,1.06927e-01,-9.49034e-02,8.77971e-02,9.11112e-02,1.88014e-02,-6.62923e-02,-4.53631e-02,-6.48784e-02,-1.11124e-01,-1.82363e-01,-8.73534e-02,1.75960e-01,-7.54872e-02,-3.50351e-02,-7.15349e-02,3.07507e-02,1.19472e-02,-1.46035e-01,-1.28480e-01,2.25966e-02,-9.41572e-02,2.81988e-03,-1.28354e-01,-9.05648e-02,1.05359e-01,1.75643e-01,1.43459e-02,-3.05063e-02,3.04814e-02,4.13576e-02,6.36506e-02,-9.94404e-02,-1.72008e-01,-8.14122e-02,-9.17295e-02,-1.41248e-01,