// Neural Network File Format by Kyle Julian, Stanford 2016
5,2352,50,2352,
2352,50,50,50,50,50,
0,
0,0,0,0,0,0,0,0,0,0,0,0,0,0,0,0,0,0,0,0,0,0,0,0,0,0,0,0,0,0,0,0,0,0,0,0,0,0,0,0,0,0,0,0,0,0,0,0,0,0,0,0,0,0,0,0,0,0,0,0,0,0,0,0,0,0,0,0,0,0,0,0,0,0,0,0,0,0,0,0,0,0,0,0,0,0,0,0,0,0,0,0,0,0,0,0,0,0,0,0,0,0,0,0,0,0,0,0,0,0,0,0,0,0,0,0,0,0,0,0,0,0,0,0,0,0,0,0,0,0,0,0,0,0,0,0,0,0,0,0,0,0,0,0,0,0,0,0,0,0,0,0,0,0,0,0,0,0,0,0,0,0,0,0,0,0,0,0,0,0,0,0,0,0,0,0,0,0,0,0,0,0,0,0,0,0,0,0,0,0,0,0,0,0,0,0,0,0,0,0,0,0,0,0,0,0,0,0,0,0,0,0,0,0,0,0,0,0,0,0,0,0,0,0,0,0,0,0,0,0,0,0,0,0,0,0,0,0,0,0,0,0,0,0,0,0,0,0,0,0,0,0,0,0,0,0,0,0,0,0,0,0,0,0,0,0,0,0,0,0,0,0,0,0,0,0,0,0,0,0,0,0,0,0,0,0,0,0,0,0,0,0,0,0,0,0,0,0,0,0,0,0,0,0,0,0,0,0,0,0,0,0,0,0,0,0,0,0,0,0,0,0,0,0,0,0,0,0,0,0,0,0,0,0,0,0,0,0,0,0,0,0,0,0,0,0,0,0,0,0,0,0,0,0,0,0,0,0,0,0,0,0,0,0,0,0,0,0,0,0,0,0,0,0,0,0,0,0,0,0,0,0,0,0,0,0,0,0,0,0,0,0,0,0,0,0,0,0,0,0,0,0,0,0,0,0,0,0,0,0,0,0,0,0,0,0,0,0,0,0,0,0,0,0,0,0,0,0,0,0,0,0,0,0,0,0,0,0,0,0,0,0,0,0,0,0,0,0,0,0,0,0,0,0,0,0,0,0,0,0,0,0,0,0,0,0,0,0,0,0,0,0,0,0,0,0,0,0,0,0,0,0,0,0,0,0,0,0,0,0,0,0,0,0,0,0,0,0,0,0,0,0,0,0,0,0,0,0,0,0,0,0,0,0,0,0,0,0,0,0,0,0,0,0,0,0,0,0,0,0,0,0,0,0,0,0,0,0,0,0,0,0,0,0,0,0,0,0,0,0,0,0,0,0,0,0,0,0,0,0,0,0,0,0,0,0,0,0,0,0,0,0,0,0,0,0,0,0,0,0,0,0,0,0,0,0,0,0,0,0,0,0,0,0,0,0,0,0,0,0,0,0,0,0,0,0,0,0,0,0,0,0,0,0,0,0,0,0,0,0,0,0,0,0,0,0,0,0,0,0,0,0,0,0,0,0,0,0,0,0,0,0,0,0,0,0,0,0,0,0,0,0,0,0,0,0,0,0,0,0,0,0,0,0,0,0,0,0,0,0,0,0,0,0,0,0,0,0,0,0,0,0,0,0,0,0,0,0,0,0,0,0,0,0,0,0,0,0,0,0,0,0,0,0,0,0,0,0,0,0,0,0,0,0,0,0,0,0,0,0,0,0,0,0,0,0,0,0,0,0,0,0,0,0,0,0,0,0,0,0,0,0,0,0,0,0,0,0,0,0,0,0,0,0,0,0,0,0,0,0,0,0,0,0,0,0,0,0,0,0,0,0,0,0,0,0,0,0,0,0,0,0,0,0,0,0,0,0,0,0,0,0,0,0,0,0,0,0,0,0,0,0,0,0,0,0,0,0,0,0,0,0,0,0,0,0,0,0,0,0,0,0,0,0,0,0,0,0,0,0,0,0,0,0,0,0,0,0,0,0,0,0,0,0,0,0,0,0,0,0,0,0,0,0,0,0,0,0,0,0,0,0,0,0,0,0,0,0,0,0,0,0,0,0,0,0,0,0,0,0,0,0,0,0,0,0,0,0,0,0,0,0,0,0,0,0,0,0,0,0,0,0,0,0,0,0,0,0,0,0,0,0,0,0,0,0,0,0,0,0,0,0,0,0,0,0,0,0,0,0,0,0,0,0,0,0,0,0,0,0,0,0,0,0,0,0,0,0,0,0,0,0,0,0,0,0,0,0,0,0,0,0,0,0,0,0,0,0,0,0,0,0,0,0,0,0,0,0,0,0,0,0,0,0,0,0,0,0,0,0,0,0,0,0,0,0,0,0,0,0,0,0,0,0,0,0,0,0,0,0,0,0,0,0,0,0,0,0,0,0,0,0,0,0,0,0,0,0,0,0,0,0,0,0,0,0,0,0,0,0,0,0,0,0,0,0,0,0,0,0,0,0,0,0,0,0,0,0,0,0,0,0,0,0,0,0,0,0,0,0,0,0,0,0,0,0,0,0,0,0,0,0,0,0,0,0,0,0,0,0,0,0,0,0,0,0,0,0,0,0,0,0,0,0,0,0,0,0,0,0,0,0,0,0,0,0,0,0,0,0,0,0,0,0,0,0,0,0,0,0,0,0,0,0,0,0,0,0,0,0,0,0,0,0,0,0,0,0,0,0,0,0,0,0,0,0,0,0,0,0,0,0,0,0,0,0,0,0,0,0,0,0,0,0,0,0,0,0,0,0,0,0,0,0,0,0,0,0,0,0,0,0,0,0,0,0,0,0,0,0,0,0,0,0,0,0,0,0,0,0,0,0,0,0,0,0,0,0,0,0,0,0,0,0,0,0,0,0,0,0,0,0,0,0,0,0,0,0,0,0,0,0,0,0,0,0,0,0,0,0,0,0,0,0,0,0,0,0,0,0,0,0,0,0,0,0,0,0,0,0,0,0,0,0,0,0,0,0,0,0,0,0,0,0,0,0,0,0,0,0,0,0,0,0,0,0,0,0,0,0,0,0,0,0,0,0,0,0,0,0,0,0,0,0,0,0,0,0,0,0,0,0,0,0,0,0,0,0,0,0,0,0,0,0,0,0,0,0,0,0,0,0,0,0,0,0,0,0,0,0,0,0,0,0,0,0,0,0,0,0,0,0,0,0,0,0,0,0,0,0,0,0,0,0,0,0,0,0,0,0,0,0,0,0,0,0,0,0,0,0,0,0,0,0,0,0,0,0,0,0,0,0,0,0,0,0,0,0,0,0,0,0,0,0,0,0,0,0,0,0,0,0,0,0,0,0,0,0,0,0,0,0,0,0,0,0,0,0,0,0,0,0,0,0,0,0,0,0,0,0,0,0,0,0,0,0,0,0,0,0,0,0,0,0,0,0,0,0,0,0,0,0,0,0,0,0,0,0,0,0,0,0,0,0,0,0,0,0,0,0,0,0,0,0,0,0,0,0,0,0,0,0,0,0,0,0,0,0,0,0,0,0,0,0,0,0,0,0,0,0,0,0,0,0,0,0,0,0,0,0,0,0,0,0,0,0,0,0,0,0,0,0,0,0,0,0,0,0,0,0,0,0,0,0,0,0,0,0,0,0,0,0,0,0,0,0,0,0,0,0,0,0,0,0,0,0,0,0,0,0,0,0,0,0,0,0,0,0,0,0,0,0,0,0,0,0,0,0,0,0,0,0,0,0,0,0,0,0,0,0,0,0,0,0,0,0,0,0,0,0,0,0,0,0,0,0,0,0,0,0,0,0,0,0,0,0,0,0,0,0,0,0,0,0,0,0,0,0,0,0,0,0,0,0,0,0,0,0,0,0,0,0,0,0,0,0,0,0,0,0,0,0,0,0,0,0,0,0,0,0,0,0,0,0,0,0,0,0,0,0,0,0,0,0,0,0,0,0,0,0,0,0,0,0,0,0,0,0,0,0,0,0,0,0,0,0,0,0,0,0,0,0,0,0,0,0,0,0,0,0,0,0,0,0,0,0,0,0,0,0,0,0,0,0,0,0,0,0,0,0,0,0,0,0,0,0,0,0,0,0,0,0,0,0,0,0,0,0,0,0,0,0,0,0,0,0,0,0,0,0,0,0,0,0,0,0,0,0,0,0,0,0,0,0,0,0,0,0,0,0,0,0,0,0,0,0,0,0,0,0,0,0,0,0,0,0,0,0,0,0,0,0,0,0,0,0,0,0,0,0,0,0,0,0,0,0,0,0,0,0,0,0,0,0,0,0,0,0,0,0,0,0,0,0,0,0,0,0,0,0,0,0,0,0,0,0,0,0,0,0,0,0,0,0,0,0,0,0,0,0,0,0,0,0,0,0,0,0,0,0,0,0,0,0,0,0,0,0,0,0,0,0,0,0,0,0,0,0,0,0,0,0,0,0,0,0,0,0,0,0,0,0,0,0,0,0,0,0,0,0,0,0,0,0,0,0,0,0,0,0,0,0,0,0,0,0,0,0,0,0,0,0,0,0,0,0,0,0,0,0,0,0,0,0,0,0,0,0,0,0,0,0,0,0,0,0,0,0,0,0,0,0,0,0,0,0,0,0,0,0,0,0,0,0,0,0,0,0,0,0,0,0,0,0,0,0,0,0,0,0,0,0,0,0,0,0,0,0,0,0,0,0,0,0,0,0,0,0,0,0,0,0,0,0,0,0,0,0,0,0,0,0,0,0,0,0,0,0,0,0,0,0,0,0,0,0,0,0,0,0,0,0,0,0,0,0,0,0,0,0,0,0,0,0,0,0,0,0,0,0,0,0,0,0,0,0,0,0,0,0,0,0,0,0,0,0,0,0,0,0,0,0,0,0,0,0,0,0,0,0,0,0,0,0,0,0,0,0,0,0,0,0,0,0,0,0,0,0,0,0,0,0,0,0,0,0,0,0,0,0,0,0,0,0,0,0,0,0,0,0,0,0,0,0,0,0,0,0,0,0,0,0,0,0,0,0,0,0,0,0,0,0,0,0,0,0,0,0,0,0,0,0,0,0,0,0,0,0,0,0,0,0,0,0,0,0,0,0,0,0,0,0,0,0,0,0,0,0,0,0,0,0,0,0,0,0,0,0,0,0,0,0,0,0,0,0,0,0,0,0,0,0,0,0,0,0,0,0,0,0,0,0,0,0,0,0,0,0,0,0,0,0,0,0,0,0,0,0,0,0,0,0,0,0,0,0,0,0,0,0,0,0,0,0,0,0,0,0,0,0,0,0,0,0,0,0,0,0,0,0,0,0,0,0,0,0,0,0,0,0,0,0,0,0,0,0,0,0,0,0,0,0,0,0,0,0,0,0,0,0,0,0,0,0,0,0,0,0,0,0,0,0,0,0,0,0,0,0,0,0,0,0,0,0,0,0,0,0,0,0,0,0,
255.0,255.0,255.0,255.0,255.0,255.0,255.0,255.0,255.0,255.0,255.0,255.0,255.0,255.0,255.0,255.0,255.0,255.0,255.0,255.0,255.0,255.0,255.0,255.0,255.0,255.0,255.0,255.0,255.0,255.0,255.0,255.0,255.0,255.0,255.0,255.0,255.0,255.0,255.0,255.0,255.0,255.0,255.0,255.0,255.0,255.0,255.0,255.0,255.0,255.0,255.0,255.0,255.0,255.0,255.0,255.0,255.0,255.0,255.0,255.0,255.0,255.0,255.0,255.0,255.0,255.0,255.0,255.0,255.0,255.0,255.0,255.0,255.0,255.0,255.0,255.0,255.0,255.0,255.0,255.0,255.0,255.0,255.0,255.0,255.0,255.0,255.0,255.0,255.0,255.0,255.0,255.0,255.0,255.0,255.0,255.0,255.0,255.0,255.0,255.0,255.0,255.0,255.0,255.0,255.0,255.0,255.0,255.0,255.0,255.0,255.0,255.0,255.0,255.0,255.0,255.0,255.0,255.0,255.0,255.0,255.0,255.0,255.0,255.0,255.0,255.0,255.0,255.0,255.0,255.0,255.0,255.0,255.0,255.0,255.0,255.0,255.0,255.0,255.0,255.0,255.0,255.0,255.0,255.0,255.0,255.0,255.0,255.0,255.0,255.0,255.0,255.0,255.0,255.0,255.0,255.0,255.0,255.0,255.0,255.0,255.0,255.0,255.0,255.0,255.0,255.0,255.0,255.0,255.0,255.0,255.0,255.0,255.0,255.0,255.0,255.0,255.0,255.0,255.0,255.0,255.0,255.0,255.0,255.0,255.0,255.0,255.0,255.0,255.0,255.0,255.0,255.0,255.0,255.0,255.0,255.0,255.0,255.0,255.0,255.0,255.0,255.0,255.0,255.0,255.0,255.0,255.0,255.0,255.0,255.0,255.0,255.0,255.0,255.0,255.0,255.0,255.0,255.0,255.0,255.0,255.0,255.0,255.0,255.0,255.0,255.0,255.0,255.0,255.0,255.0,255.0,255.0,255.0,255.0,255.0,255.0,255.0,255.0,255.0,255.0,255.0,255.0,255.0,255.0,255.0,255.0,255.0,255.0,255.0,255.0,255.0,255.0,255.0,255.0,255.0,255.0,255.0,255.0,255.0,255.0,255.0,255.0,255.0,255.0,255.0,255.0,255.0,255.0,255.0,255.0,255.0,255.0,255.0,255.0,255.0,255.0,255.0,255.0,255.0,255.0,255.0,255.0,255.0,255.0,255.0,255.0,255.0,255.0,255.0,255.0,255.0,255.0,255.0,255.0,255.0,255.0,255.0,255.0,255.0,255.0,255.0,255.0,255.0,255.0,255.0,255.0,255.0,255.0,255.0,255.0,255.0,255.0,255.0,255.0,255.0,255.0,255.0,255.0,255.0,255.0,255.0,255.0,255.0,255.0,255.0,255.0,255.0,255.0,255.0,255.0,255.0,255.0,255.0,255.0,255.0,255.0,255.0,255.0,255.0,255.0,255.0,255.0,255.0,255.0,255.0,255.0,255.0,255.0,255.0,255.0,255.0,255.0,255.0,255.0,255.0,255.0,255.0,255.0,255.0,255.0,255.0,255.0,255.0,255.0,255.0,255.0,255.0,255.0,255.0,255.0,255.0,255.0,255.0,255.0,255.0,255.0,255.0,255.0,255.0,255.0,255.0,255.0,255.0,255.0,255.0,255.0,255.0,255.0,255.0,255.0,255.0,255.0,255.0,255.0,255.0,255.0,255.0,255.0,255.0,255.0,255.0,255.0,255.0,255.0,255.0,255.0,255.0,255.0,255.0,255.0,255.0,255.0,255.0,255.0,255.0,255.0,255.0,255.0,255.0,255.0,255.0,255.0,255.0,255.0,255.0,255.0,255.0,255.0,255.0,255.0,255.0,255.0,255.0,255.0,255.0,255.0,255.0,255.0,255.0,255.0,255.0,255.0,255.0,255.0,255.0,255.0,255.0,255.0,255.0,255.0,255.0,255.0,255.0,255.0,255.0,255.0,255.0,255.0,255.0,255.0,255.0,255.0,255.0,255.0,255.0,255.0,255.0,255.0,255.0,255.0,255.0,255.0,255.0,255.0,255.0,255.0,255.0,255.0,255.0,255.0,255.0,255.0,255.0,255.0,255.0,255.0,255.0,255.0,255.0,255.0,255.0,255.0,255.0,255.0,255.0,255.0,255.0,255.0,255.0,255.0,255.0,255.0,255.0,255.0,255.0,255.0,255.0,255.0,255.0,255.0,255.0,255.0,255.0,255.0,255.0,255.0,255.0,255.0,255.0,255.0,255.0,255.0,255.0,255.0,255.0,255.0,255.0,255.0,255.0,255.0,255.0,255.0,255.0,255.0,255.0,255.0,255.0,255.0,255.0,255.0,255.0,255.0,255.0,255.0,255.0,255.0,255.0,255.0,255.0,255.0,255.0,255.0,255.0,255.0,255.0,255.0,255.0,255.0,255.0,255.0,255.0,255.0,255.0,255.0,255.0,255.0,255.0,255.0,255.0,255.0,255.0,255.0,255.0,255.0,255.0,255.0,255.0,255.0,255.0,255.0,255.0,255.0,255.0,255.0,255.0,255.0,255.0,255.0,255.0,255.0,255.0,255.0,255.0,255.0,255.0,255.0,255.0,255.0,255.0,255.0,255.0,255.0,255.0,255.0,255.0,255.0,255.0,255.0,255.0,255.0,255.0,255.0,255.0,255.0,255.0,255.0,255.0,255.0,255.0,255.0,255.0,255.0,255.0,255.0,255.0,255.0,255.0,255.0,255.0,255.0,255.0,255.0,255.0,255.0,255.0,255.0,255.0,255.0,255.0,255.0,255.0,255.0,255.0,255.0,255.0,255.0,255.0,255.0,255.0,255.0,255.0,255.0,255.0,255.0,255.0,255.0,255.0,255.0,255.0,255.0,255.0,255.0,255.0,255.0,255.0,255.0,255.0,255.0,255.0,255.0,255.0,255.0,255.0,255.0,255.0,255.0,255.0,255.0,255.0,255.0,255.0,255.0,255.0,255.0,255.0,255.0,255.0,255.0,255.0,255.0,255.0,255.0,255.0,255.0,255.0,255.0,255.0,255.0,255.0,255.0,255.0,255.0,255.0,255.0,255.0,255.0,255.0,255.0,255.0,255.0,255.0,255.0,255.0,255.0,255.0,255.0,255.0,255.0,255.0,255.0,255.0,255.0,255.0,255.0,255.0,255.0,255.0,255.0,255.0,255.0,255.0,255.0,255.0,255.0,255.0,255.0,255.0,255.0,255.0,255.0,255.0,255.0,255.0,255.0,255.0,255.0,255.0,255.0,255.0,255.0,255.0,255.0,255.0,255.0,255.0,255.0,255.0,255.0,255.0,255.0,255.0,255.0,255.0,255.0,255.0,255.0,255.0,255.0,255.0,255.0,255.0,255.0,255.0,255.0,255.0,255.0,255.0,255.0,255.0,255.0,255.0,255.0,255.0,255.0,255.0,255.0,255.0,255.0,255.0,255.0,255.0,255.0,255.0,255.0,255.0,255.0,255.0,255.0,255.0,255.0,255.0,255.0,255.0,255.0,255.0,255.0,255.0,255.0,255.0,255.0,255.0,255.0,255.0,255.0,255.0,255.0,255.0,255.0,255.0,255.0,255.0,255.0,255.0,255.0,255.0,255.0,255.0,255.0,255.0,255.0,255.0,255.0,255.0,255.0,255.0,255.0,255.0,255.0,255.0,255.0,255.0,255.0,255.0,255.0,255.0,255.0,255.0,255.0,255.0,255.0,255.0,255.0,255.0,255.0,255.0,255.0,255.0,255.0,255.0,255.0,255.0,255.0,255.0,255.0,255.0,255.0,255.0,255.0,255.0,255.0,255.0,255.0,255.0,255.0,255.0,255.0,255.0,255.0,255.0,255.0,255.0,255.0,255.0,255.0,255.0,255.0,255.0,255.0,255.0,255.0,255.0,255.0,255.0,255.0,255.0,255.0,255.0,255.0,255.0,255.0,255.0,255.0,255.0,255.0,255.0,255.0,255.0,255.0,255.0,255.0,255.0,255.0,255.0,255.0,255.0,255.0,255.0,255.0,255.0,255.0,255.0,255.0,255.0,255.0,255.0,255.0,255.0,255.0,255.0,255.0,255.0,255.0,255.0,255.0,255.0,255.0,255.0,255.0,255.0,255.0,255.0,255.0,255.0,255.0,255.0,255.0,255.0,255.0,255.0,255.0,255.0,255.0,255.0,255.0,255.0,255.0,255.0,255.0,255.0,255.0,255.0,255.0,255.0,255.0,255.0,255.0,255.0,255.0,255.0,255.0,255.0,255.0,255.0,255.0,255.0,255.0,255.0,255.0,255.0,255.0,255.0,255.0,255.0,255.0,255.0,255.0,255.0,255.0,255.0,255.0,255.0,255.0,255.0,255.0,255.0,255.0,255.0,255.0,255.0,255.0,255.0,255.0,255.0,255.0,255.0,255.0,255.0,255.0,255.0,255.0,255.0,255.0,255.0,255.0,255.0,255.0,255.0,255.0,255.0,255.0,255.0,255.0,255.0,255.0,255.0,255.0,255.0,255.0,255.0,255.0,255.0,255.0,255.0,255.0,255.0,255.0,255.0,255.0,255.0,255.0,255.0,255.0,255.0,255.0,255.0,255.0,255.0,255.0,255.0,255.0,255.0,255.0,255.0,255.0,255.0,255.0,255.0,255.0,255.0,255.0,255.0,255.0,255.0,255.0,255.0,255.0,255.0,255.0,255.0,255.0,255.0,255.0,255.0,255.0,255.0,255.0,255.0,255.0,255.0,255.0,255.0,255.0,255.0,255.0,255.0,255.0,255.0,255.0,255.0,255.0,255.0,255.0,255.0,255.0,255.0,255.0,255.0,255.0,255.0,255.0,255.0,255.0,255.0,255.0,255.0,255.0,255.0,255.0,255.0,255.0,255.0,255.0,255.0,255.0,255.0,255.0,255.0,255.0,255.0,255.0,255.0,255.0,255.0,255.0,255.0,255.0,255.0,255.0,255.0,255.0,255.0,255.0,255.0,255.0,255.0,255.0,255.0,255.0,255.0,255.0,255.0,255.0,255.0,255.0,255.0,255.0,255.0,255.0,255.0,255.0,255.0,255.0,255.0,255.0,255.0,255.0,255.0,255.0,255.0,255.0,255.0,255.0,255.0,255.0,255.0,255.0,255.0,255.0,255.0,255.0,255.0,255.0,255.0,255.0,255.0,255.0,255.0,255.0,255.0,255.0,255.0,255.0,255.0,255.0,255.0,255.0,255.0,255.0,255.0,255.0,255.0,255.0,255.0,255.0,255.0,255.0,255.0,255.0,255.0,255.0,255.0,255.0,255.0,255.0,255.0,255.0,255.0,255.0,255.0,255.0,255.0,255.0,255.0,255.0,255.0,255.0,255.0,255.0,255.0,255.0,255.0,255.0,255.0,255.0,255.0,255.0,255.0,255.0,255.0,255.0,255.0,255.0,255.0,255.0,255.0,255.0,255.0,255.0,255.0,255.0,255.0,255.0,255.0,255.0,255.0,255.0,255.0,255.0,255.0,255.0,255.0,255.0,255.0,255.0,255.0,255.0,255.0,255.0,255.0,255.0,255.0,255.0,255.0,255.0,255.0,255.0,255.0,255.0,255.0,255.0,255.0,255.0,255.0,255.0,255.0,255.0,255.0,255.0,255.0,255.0,255.0,255.0,255.0,255.0,255.0,255.0,255.0,255.0,255.0,255.0,255.0,255.0,255.0,255.0,255.0,255.0,255.0,255.0,255.0,255.0,255.0,255.0,255.0,255.0,255.0,255.0,255.0,255.0,255.0,255.0,255.0,255.0,255.0,255.0,255.0,255.0,255.0,255.0,255.0,255.0,255.0,255.0,255.0,255.0,255.0,255.0,255.0,255.0,255.0,255.0,255.0,255.0,255.0,255.0,255.0,255.0,255.0,255.0,255.0,255.0,255.0,255.0,255.0,255.0,255.0,255.0,255.0,255.0,255.0,255.0,255.0,255.0,255.0,255.0,255.0,255.0,255.0,255.0,255.0,255.0,255.0,255.0,255.0,255.0,255.0,255.0,255.0,255.0,255.0,255.0,255.0,255.0,255.0,255.0,255.0,255.0,255.0,255.0,255.0,255.0,255.0,255.0,255.0,255.0,255.0,255.0,255.0,255.0,255.0,255.0,255.0,255.0,255.0,255.0,255.0,255.0,255.0,255.0,255.0,255.0,255.0,255.0,255.0,255.0,255.0,255.0,255.0,255.0,255.0,255.0,255.0,255.0,255.0,255.0,255.0,255.0,255.0,255.0,255.0,255.0,255.0,255.0,255.0,255.0,255.0,255.0,255.0,255.0,255.0,255.0,255.0,255.0,255.0,255.0,255.0,255.0,255.0,255.0,255.0,255.0,255.0,255.0,255.0,255.0,255.0,255.0,255.0,255.0,255.0,255.0,255.0,255.0,255.0,255.0,255.0,255.0,255.0,255.0,255.0,255.0,255.0,255.0,255.0,255.0,255.0,255.0,255.0,255.0,255.0,255.0,255.0,255.0,255.0,255.0,255.0,255.0,255.0,255.0,255.0,255.0,255.0,255.0,255.0,255.0,255.0,255.0,255.0,255.0,255.0,255.0,255.0,255.0,255.0,255.0,255.0,255.0,255.0,255.0,255.0,255.0,255.0,255.0,255.0,255.0,255.0,255.0,255.0,255.0,255.0,255.0,255.0,255.0,255.0,255.0,255.0,255.0,255.0,255.0,255.0,255.0,255.0,255.0,255.0,255.0,255.0,255.0,255.0,255.0,255.0,255.0,255.0,255.0,255.0,255.0,255.0,255.0,255.0,255.0,255.0,255.0,255.0,255.0,255.0,255.0,255.0,255.0,255.0,255.0,255.0,255.0,255.0,255.0,255.0,255.0,255.0,255.0,255.0,255.0,255.0,255.0,255.0,255.0,255.0,255.0,255.0,255.0,255.0,255.0,255.0,255.0,255.0,255.0,255.0,255.0,255.0,255.0,255.0,255.0,255.0,255.0,255.0,255.0,255.0,255.0,255.0,255.0,255.0,255.0,255.0,255.0,255.0,255.0,255.0,255.0,255.0,255.0,255.0,255.0,255.0,255.0,255.0,255.0,255.0,255.0,255.0,255.0,255.0,255.0,255.0,255.0,255.0,255.0,255.0,255.0,255.0,255.0,255.0,255.0,255.0,255.0,255.0,255.0,255.0,255.0,255.0,255.0,255.0,255.0,255.0,255.0,255.0,255.0,255.0,255.0,255.0,255.0,255.0,255.0,255.0,255.0,255.0,255.0,255.0,255.0,255.0,255.0,255.0,255.0,255.0,255.0,255.0,255.0,255.0,255.0,255.0,255.0,255.0,255.0,255.0,255.0,255.0,255.0,255.0,255.0,255.0,255.0,255.0,255.0,255.0,255.0,255.0,255.0,255.0,255.0,255.0,255.0,255.0,255.0,255.0,255.0,255.0,255.0,255.0,255.0,255.0,255.0,255.0,255.0,255.0,255.0,255.0,255.0,255.0,255.0,255.0,255.0,255.0,255.0,255.0,255.0,255.0,255.0,255.0,255.0,255.0,255.0,255.0,255.0,255.0,255.0,255.0,255.0,255.0,255.0,255.0,255.0,255.0,255.0,255.0,255.0,255.0,255.0,255.0,255.0,255.0,255.0,255.0,255.0,255.0,255.0,255.0,255.0,255.0,255.0,255.0,255.0,255.0,255.0,255.0,255.0,255.0,255.0,255.0,255.0,255.0,255.0,255.0,255.0,255.0,255.0,255.0,255.0,255.0,255.0,255.0,255.0,255.0,255.0,255.0,255.0,255.0,255.0,255.0,255.0,255.0,255.0,255.0,255.0,255.0,255.0,255.0,255.0,255.0,255.0,255.0,255.0,255.0,255.0,255.0,255.0,255.0,255.0,255.0,255.0,255.0,255.0,255.0,255.0,255.0,255.0,255.0,255.0,255.0,255.0,255.0,255.0,255.0,255.0,255.0,255.0,255.0,255.0,255.0,255.0,255.0,255.0,255.0,255.0,255.0,255.0,255.0,255.0,255.0,255.0,255.0,255.0,255.0,255.0,255.0,255.0,255.0,255.0,255.0,255.0,255.0,255.0,255.0,255.0,255.0,255.0,255.0,255.0,255.0,255.0,255.0,255.0,255.0,255.0,255.0,255.0,255.0,255.0,255.0,255.0,255.0,255.0,255.0,255.0,255.0,255.0,255.0,255.0,255.0,255.0,255.0,255.0,255.0,255.0,255.0,255.0,255.0,255.0,255.0,255.0,255.0,255.0,255.0,255.0,255.0,255.0,255.0,255.0,255.0,255.0,255.0,255.0,255.0,255.0,255.0,255.0,255.0,255.0,255.0,255.0,255.0,255.0,255.0,255.0,255.0,255.0,255.0,255.0,255.0,255.0,255.0,255.0,255.0,255.0,255.0,255.0,255.0,255.0,255.0,255.0,255.0,255.0,255.0,255.0,255.0,255.0,255.0,255.0,255.0,255.0,255.0,255.0,255.0,255.0,255.0,255.0,255.0,255.0,255.0,255.0,255.0,255.0,255.0,255.0,255.0,255.0,255.0,255.0,255.0,255.0,255.0,255.0,255.0,255.0,255.0,255.0,255.0,255.0,255.0,255.0,255.0,255.0,255.0,255.0,255.0,255.0,255.0,255.0,255.0,255.0,255.0,255.0,255.0,255.0,255.0,255.0,255.0,255.0,255.0,255.0,255.0,255.0,255.0,255.0,255.0,255.0,255.0,255.0,255.0,255.0,255.0,255.0,255.0,255.0,255.0,255.0,255.0,255.0,255.0,255.0,255.0,255.0,255.0,255.0,255.0,255.0,255.0,255.0,255.0,255.0,255.0,255.0,255.0,255.0,255.0,255.0,255.0,255.0,255.0,255.0,255.0,255.0,255.0,255.0,255.0,255.0,255.0,255.0,255.0,255.0,255.0,255.0,255.0,255.0,255.0,255.0,255.0,255.0,255.0,255.0,255.0,255.0,255.0,255.0,255.0,255.0,255.0,255.0,255.0,255.0,255.0,255.0,255.0,255.0,255.0,255.0,255.0,255.0,255.0,255.0,255.0,255.0,255.0,255.0,255.0,255.0,255.0,255.0,255.0,255.0,255.0,255.0,255.0,255.0,255.0,255.0,255.0,255.0,255.0,255.0,255.0,255.0,255.0,255.0,255.0,255.0,255.0,255.0,255.0,255.0,255.0,255.0,255.0,255.0,255.0,255.0,255.0,255.0,255.0,255.0,255.0,255.0,255.0,255.0,255.0,255.0,255.0,255.0,255.0,255.0,255.0,255.0,255.0,255.0,255.0,255.0,255.0,255.0,255.0,255.0,255.0,255.0,255.0,255.0,255.0,255.0,255.0,255.0,255.0,255.0,255.0,255.0,255.0,255.0,255.0,255.0,255.0,255.0,255.0,255.0,255.0,255.0,255.0,255.0,255.0,255.0,255.0,255.0,255.0,255.0,255.0,255.0,255.0,255.0,255.0,255.0,255.0,255.0,255.0,255.0,255.0,255.0,255.0,255.0,255.0,255.0,255.0,255.0,255.0,255.0,255.0,255.0,255.0,255.0,255.0,255.0,255.0,255.0,255.0,255.0,255.0,255.0,255.0,255.0,255.0,255.0,255.0,255.0,255.0,255.0,255.0,255.0,255.0,255.0,255.0,255.0,255.0,255.0,255.0,255.0,255.0,255.0,255.0,255.0,255.0,255.0,255.0,255.0,255.0,255.0,255.0,255.0,255.0,255.0,255.0,255.0,255.0,255.0,255.0,255.0,255.0,255.0,255.0,255.0,255.0,255.0,255.0,255.0,255.0,255.0,255.0,255.0,255.0,255.0,255.0,255.0,255.0,255.0,255.0,255.0,255.0,255.0,255.0,255.0,255.0,255.0,255.0,255.0,255.0,255.0,255.0,255.0,255.0,255.0,255.0,255.0,255.0,255.0,255.0,255.0,255.0,255.0,255.0,255.0,255.0,255.0,255.0,255.0,255.0,255.0,255.0,255.0,255.0,255.0,255.0,255.0,255.0,255.0,255.0,255.0,255.0,255.0,255.0,255.0,255.0,255.0,255.0,255.0,255.0,255.0,255.0,255.0,255.0,255.0,255.0,255.0,255.0,255.0,255.0,255.0,255.0,255.0,255.0,255.0,255.0,255.0,255.0,255.0,255.0,255.0,255.0,255.0,255.0,255.0,255.0,255.0,255.0,255.0,255.0,255.0,255.0,255.0,255.0,255.0,255.0,255.0,255.0,255.0,255.0,255.0,255.0,255.0,255.0,255.0,255.0,255.0,255.0,255.0,255.0,255.0,255.0,255.0,255.0,255.0,255.0,255.0,255.0,255.0,255.0,255.0,255.0,255.0,255.0,255.0,255.0,255.0,255.0,255.0,255.0,255.0,255.0,255.0,255.0,255.0,255.0,255.0,255.0,255.0,
127.0,127.0,127.0,127.0,127.0,127.0,127.0,127.0,127.0,127.0,127.0,127.0,127.0,127.0,127.0,127.0,127.0,127.0,127.0,127.0,127.0,127.0,127.0,127.0,127.0,127.0,127.0,127.0,127.0,127.0,127.0,127.0,127.0,127.0,127.0,127.0,127.0,127.0,127.0,127.0,127.0,127.0,127.0,127.0,127.0,127.0,127.0,127.0,127.0,127.0,127.0,127.0,127.0,127.0,127.0,127.0,127.0,127.0,127.0,127.0,127.0,127.0,127.0,127.0,127.0,127.0,127.0,127.0,127.0,127.0,127.0,127.0,127.0,127.0,127.0,127.0,127.0,127.0,127.0,127.0,127.0,127.0,127.0,127.0,127.0,127.0,127.0,127.0,127.0,127.0,127.0,127.0,127.0,127.0,127.0,127.0,127.0,127.0,127.0,127.0,127.0,127.0,127.0,127.0,127.0,127.0,127.0,127.0,127.0,127.0,127.0,127.0,127.0,127.0,127.0,127.0,127.0,127.0,127.0,127.0,127.0,127.0,127.0,127.0,127.0,127.0,127.0,127.0,127.0,127.0,127.0,127.0,127.0,127.0,127.0,127.0,127.0,127.0,127.0,127.0,127.0,127.0,127.0,127.0,127.0,127.0,127.0,127.0,127.0,127.0,127.0,127.0,127.0,127.0,127.0,127.0,127.0,127.0,127.0,127.0,127.0,127.0,127.0,127.0,127.0,127.0,127.0,127.0,127.0,127.0,127.0,127.0,127.0,127.0,127.0,127.0,127.0,127.0,127.0,127.0,127.0,127.0,127.0,127.0,127.0,127.0,127.0,127.0,127.0,127.0,127.0,127.0,127.0,127.0,127.0,127.0,127.0,127.0,127.0,127.0,127.0,127.0,127.0,127.0,127.0,127.0,127.0,127.0,127.0,127.0,127.0,127.0,127.0,127.0,127.0,127.0,127.0,127.0,127.0,127.0,127.0,127.0,127.0,127.0,127.0,127.0,127.0,127.0,127.0,127.0,127.0,127.0,127.0,127.0,127.0,127.0,127.0,127.0,127.0,127.0,127.0,127.0,127.0,127.0,127.0,127.0,127.0,127.0,127.0,127.0,127.0,127.0,127.0,127.0,127.0,127.0,127.0,127.0,127.0,127.0,127.0,127.0,127.0,127.0,127.0,127.0,127.0,127.0,127.0,127.0,127.0,127.0,127.0,127.0,127.0,127.0,127.0,127.0,127.0,127.0,127.0,127.0,127.0,127.0,127.0,127.0,127.0,127.0,127.0,127.0,127.0,127.0,127.0,127.0,127.0,127.0,127.0,127.0,127.0,127.0,127.0,127.0,127.0,127.0,127.0,127.0,127.0,127.0,127.0,127.0,127.0,127.0,127.0,127.0,127.0,127.0,127.0,127.0,127.0,127.0,127.0,127.0,127.0,127.0,127.0,127.0,127.0,127.0,127.0,127.0,127.0,127.0,127.0,127.0,127.0,127.0,127.0,127.0,127.0,127.0,127.0,127.0,127.0,127.0,127.0,127.0,127.0,127.0,127.0,127.0,127.0,127.0,127.0,127.0,127.0,127.0,127.0,127.0,127.0,127.0,127.0,127.0,127.0,127.0,127.0,127.0,127.0,127.0,127.0,127.0,127.0,127.0,127.0,127.0,127.0,127.0,127.0,127.0,127.0,127.0,127.0,127.0,127.0,127.0,127.0,127.0,127.0,127.0,127.0,127.0,127.0,127.0,127.0,127.0,127.0,127.0,127.0,127.0,127.0,127.0,127.0,127.0,127.0,127.0,127.0,127.0,127.0,127.0,127.0,127.0,127.0,127.0,127.0,127.0,127.0,127.0,127.0,127.0,127.0,127.0,127.0,127.0,127.0,127.0,127.0,127.0,127.0,127.0,127.0,127.0,127.0,127.0,127.0,127.0,127.0,127.0,127.0,127.0,127.0,127.0,127.0,127.0,127.0,127.0,127.0,127.0,127.0,127.0,127.0,127.0,127.0,127.0,127.0,127.0,127.0,127.0,127.0,127.0,127.0,127.0,127.0,127.0,127.0,127.0,127.0,127.0,127.0,127.0,127.0,127.0,127.0,127.0,127.0,127.0,127.0,127.0,127.0,127.0,127.0,127.0,127.0,127.0,127.0,127.0,127.0,127.0,127.0,127.0,127.0,127.0,127.0,127.0,127.0,127.0,127.0,127.0,127.0,127.0,127.0,127.0,127.0,127.0,127.0,127.0,127.0,127.0,127.0,127.0,127.0,127.0,127.0,127.0,127.0,127.0,127.0,127.0,127.0,127.0,127.0,127.0,127.0,127.0,127.0,127.0,127.0,127.0,127.0,127.0,127.0,127.0,127.0,127.0,127.0,127.0,127.0,127.0,127.0,127.0,127.0,127.0,127.0,127.0,127.0,127.0,127.0,127.0,127.0,127.0,127.0,127.0,127.0,127.0,127.0,127.0,127.0,127.0,127.0,127.0,127.0,127.0,127.0,127.0,127.0,127.0,127.0,127.0,127.0,127.0,127.0,127.0,127.0,127.0,127.0,127.0,127.0,127.0,127.0,127.0,127.0,127.0,127.0,127.0,127.0,127.0,127.0,127.0,127.0,127.0,127.0,127.0,127.0,127.0,127.0,127.0,127.0,127.0,127.0,127.0,127.0,127.0,127.0,127.0,127.0,127.0,127.0,127.0,127.0,127.0,127.0,127.0,127.0,127.0,127.0,127.0,127.0,127.0,127.0,127.0,127.0,127.0,127.0,127.0,127.0,127.0,127.0,127.0,127.0,127.0,127.0,127.0,127.0,127.0,127.0,127.0,127.0,127.0,127.0,127.0,127.0,127.0,127.0,127.0,127.0,127.0,127.0,127.0,127.0,127.0,127.0,127.0,127.0,127.0,127.0,127.0,127.0,127.0,127.0,127.0,127.0,127.0,127.0,127.0,127.0,127.0,127.0,127.0,127.0,127.0,127.0,127.0,127.0,127.0,127.0,127.0,127.0,127.0,127.0,127.0,127.0,127.0,127.0,127.0,127.0,127.0,127.0,127.0,127.0,127.0,127.0,127.0,127.0,127.0,127.0,127.0,127.0,127.0,127.0,127.0,127.0,127.0,127.0,127.0,127.0,127.0,127.0,127.0,127.0,127.0,127.0,127.0,127.0,127.0,127.0,127.0,127.0,127.0,127.0,127.0,127.0,127.0,127.0,127.0,127.0,127.0,127.0,127.0,127.0,127.0,127.0,127.0,127.0,127.0,127.0,127.0,127.0,127.0,127.0,127.0,127.0,127.0,127.0,127.0,127.0,127.0,127.0,127.0,127.0,127.0,127.0,127.0,127.0,127.0,127.0,127.0,127.0,127.0,127.0,127.0,127.0,127.0,127.0,127.0,127.0,127.0,127.0,127.0,127.0,127.0,127.0,127.0,127.0,127.0,127.0,127.0,127.0,127.0,127.0,127.0,127.0,127.0,127.0,127.0,127.0,127.0,127.0,127.0,127.0,127.0,127.0,127.0,127.0,127.0,127.0,127.0,127.0,127.0,127.0,127.0,127.0,127.0,127.0,127.0,127.0,127.0,127.0,127.0,127.0,127.0,127.0,127.0,127.0,127.0,127.0,127.0,127.0,127.0,127.0,127.0,127.0,127.0,127.0,127.0,127.0,127.0,127.0,127.0,127.0,127.0,127.0,127.0,127.0,127.0,127.0,127.0,127.0,127.0,127.0,127.0,127.0,127.0,127.0,127.0,127.0,127.0,127.0,127.0,127.0,127.0,127.0,127.0,127.0,127.0,127.0,127.0,127.0,127.0,127.0,127.0,127.0,127.0,127.0,127.0,127.0,127.0,127.0,127.0,127.0,127.0,127.0,127.0,127.0,127.0,127.0,127.0,127.0,127.0,127.0,127.0,127.0,127.0,127.0,127.0,127.0,127.0,127.0,127.0,127.0,127.0,127.0,127.0,127.0,127.0,127.0,127.0,127.0,127.0,127.0,127.0,127.0,127.0,127.0,127.0,127.0,127.0,127.0,127.0,127.0,127.0,127.0,127.0,127.0,127.0,127.0,127.0,127.0,127.0,127.0,127.0,127.0,127.0,127.0,127.0,127.0,127.0,127.0,127.0,127.0,127.0,127.0,127.0,127.0,127.0,127.0,127.0,127.0,127.0,127.0,127.0,127.0,127.0,127.0,127.0,127.0,127.0,127.0,127.0,127.0,127.0,127.0,127.0,127.0,127.0,127.0,127.0,127.0,127.0,127.0,127.0,127.0,127.0,127.0,127.0,127.0,127.0,127.0,127.0,127.0,127.0,127.0,127.0,127.0,127.0,127.0,127.0,127.0,127.0,127.0,127.0,127.0,127.0,127.0,127.0,127.0,127.0,127.0,127.0,127.0,127.0,127.0,127.0,127.0,127.0,127.0,127.0,127.0,127.0,127.0,127.0,127.0,127.0,127.0,127.0,127.0,127.0,127.0,127.0,127.0,127.0,127.0,127.0,127.0,127.0,127.0,127.0,127.0,127.0,127.0,127.0,127.0,127.0,127.0,127.0,127.0,127.0,127.0,127.0,127.0,127.0,127.0,127.0,127.0,127.0,127.0,127.0,127.0,127.0,127.0,127.0,127.0,127.0,127.0,127.0,127.0,127.0,127.0,127.0,127.0,127.0,127.0,127.0,127.0,127.0,127.0,127.0,127.0,127.0,127.0,127.0,127.0,127.0,127.0,127.0,127.0,127.0,127.0,127.0,127.0,127.0,127.0,127.0,127.0,127.0,127.0,127.0,127.0,127.0,127.0,127.0,127.0,127.0,127.0,127.0,127.0,127.0,127.0,127.0,127.0,127.0,127.0,127.0,127.0,127.0,127.0,127.0,127.0,127.0,127.0,127.0,127.0,127.0,127.0,127.0,127.0,127.0,127.0,127.0,127.0,127.0,127.0,127.0,127.0,127.0,127.0,127.0,127.0,127.0,127.0,127.0,127.0,127.0,127.0,127.0,127.0,127.0,127.0,127.0,127.0,127.0,127.0,127.0,127.0,127.0,127.0,127.0,127.0,127.0,127.0,127.0,127.0,127.0,127.0,127.0,127.0,127.0,127.0,127.0,127.0,127.0,127.0,127.0,127.0,127.0,127.0,127.0,127.0,127.0,127.0,127.0,127.0,127.0,127.0,127.0,127.0,127.0,127.0,127.0,127.0,127.0,127.0,127.0,127.0,127.0,127.0,127.0,127.0,127.0,127.0,127.0,127.0,127.0,127.0,127.0,127.0,127.0,127.0,127.0,127.0,127.0,127.0,127.0,127.0,127.0,127.0,127.0,127.0,127.0,127.0,127.0,127.0,127.0,127.0,127.0,127.0,127.0,127.0,127.0,127.0,127.0,127.0,127.0,127.0,127.0,127.0,127.0,127.0,127.0,127.0,127.0,127.0,127.0,127.0,127.0,127.0,127.0,127.0,127.0,127.0,127.0,127.0,127.0,127.0,127.0,127.0,127.0,127.0,127.0,127.0,127.0,127.0,127.0,127.0,127.0,127.0,127.0,127.0,127.0,127.0,127.0,127.0,127.0,127.0,127.0,127.0,127.0,127.0,127.0,127.0,127.0,127.0,127.0,127.0,127.0,127.0,127.0,127.0,127.0,127.0,127.0,127.0,127.0,127.0,127.0,127.0,127.0,127.0,127.0,127.0,127.0,127.0,127.0,127.0,127.0,127.0,127.0,127.0,127.0,127.0,127.0,127.0,127.0,127.0,127.0,127.0,127.0,127.0,127.0,127.0,127.0,127.0,127.0,127.0,127.0,127.0,127.0,127.0,127.0,127.0,127.0,127.0,127.0,127.0,127.0,127.0,127.0,127.0,127.0,127.0,127.0,127.0,127.0,127.0,127.0,127.0,127.0,127.0,127.0,127.0,127.0,127.0,127.0,127.0,127.0,127.0,127.0,127.0,127.0,127.0,127.0,127.0,127.0,127.0,127.0,127.0,127.0,127.0,127.0,127.0,127.0,127.0,127.0,127.0,127.0,127.0,127.0,127.0,127.0,127.0,127.0,127.0,127.0,127.0,127.0,127.0,127.0,127.0,127.0,127.0,127.0,127.0,127.0,127.0,127.0,127.0,127.0,127.0,127.0,127.0,127.0,127.0,127.0,127.0,127.0,127.0,127.0,127.0,127.0,127.0,127.0,127.0,127.0,127.0,127.0,127.0,127.0,127.0,127.0,127.0,127.0,127.0,127.0,127.0,127.0,127.0,127.0,127.0,127.0,127.0,127.0,127.0,127.0,127.0,127.0,127.0,127.0,127.0,127.0,127.0,127.0,127.0,127.0,127.0,127.0,127.0,127.0,127.0,127.0,127.0,127.0,127.0,127.0,127.0,127.0,127.0,127.0,127.0,127.0,127.0,127.0,127.0,127.0,127.0,127.0,127.0,127.0,127.0,127.0,127.0,127.0,127.0,127.0,127.0,127.0,127.0,127.0,127.0,127.0,127.0,127.0,127.0,127.0,127.0,127.0,127.0,127.0,127.0,127.0,127.0,127.0,127.0,127.0,127.0,127.0,127.0,127.0,127.0,127.0,127.0,127.0,127.0,127.0,127.0,127.0,127.0,127.0,127.0,127.0,127.0,127.0,127.0,127.0,127.0,127.0,127.0,127.0,127.0,127.0,127.0,127.0,127.0,127.0,127.0,127.0,127.0,127.0,127.0,127.0,127.0,127.0,127.0,127.0,127.0,127.0,127.0,127.0,127.0,127.0,127.0,127.0,127.0,127.0,127.0,127.0,127.0,127.0,127.0,127.0,127.0,127.0,127.0,127.0,127.0,127.0,127.0,127.0,127.0,127.0,127.0,127.0,127.0,127.0,127.0,127.0,127.0,127.0,127.0,127.0,127.0,127.0,127.0,127.0,127.0,127.0,127.0,127.0,127.0,127.0,127.0,127.0,127.0,127.0,127.0,127.0,127.0,127.0,127.0,127.0,127.0,127.0,127.0,127.0,127.0,127.0,127.0,127.0,127.0,127.0,127.0,127.0,127.0,127.0,127.0,127.0,127.0,127.0,127.0,127.0,127.0,127.0,127.0,127.0,127.0,127.0,127.0,127.0,127.0,127.0,127.0,127.0,127.0,127.0,127.0,127.0,127.0,127.0,127.0,127.0,127.0,127.0,127.0,127.0,127.0,127.0,127.0,127.0,127.0,127.0,127.0,127.0,127.0,127.0,127.0,127.0,127.0,127.0,127.0,127.0,127.0,127.0,127.0,127.0,127.0,127.0,127.0,127.0,127.0,127.0,127.0,127.0,127.0,127.0,127.0,127.0,127.0,127.0,127.0,127.0,127.0,127.0,127.0,127.0,127.0,127.0,127.0,127.0,127.0,127.0,127.0,127.0,127.0,127.0,127.0,127.0,127.0,127.0,127.0,127.0,127.0,127.0,127.0,127.0,127.0,127.0,127.0,127.0,127.0,127.0,127.0,127.0,127.0,127.0,127.0,127.0,127.0,127.0,127.0,127.0,127.0,127.0,127.0,127.0,127.0,127.0,127.0,127.0,127.0,127.0,127.0,127.0,127.0,127.0,127.0,127.0,127.0,127.0,127.0,127.0,127.0,127.0,127.0,127.0,127.0,127.0,127.0,127.0,127.0,127.0,127.0,127.0,127.0,127.0,127.0,127.0,127.0,127.0,127.0,127.0,127.0,127.0,127.0,127.0,127.0,127.0,127.0,127.0,127.0,127.0,127.0,127.0,127.0,127.0,127.0,127.0,127.0,127.0,127.0,127.0,127.0,127.0,127.0,127.0,127.0,127.0,127.0,127.0,127.0,127.0,127.0,127.0,127.0,127.0,127.0,127.0,127.0,127.0,127.0,127.0,127.0,127.0,127.0,127.0,127.0,127.0,127.0,127.0,127.0,127.0,127.0,127.0,127.0,127.0,127.0,127.0,127.0,127.0,127.0,127.0,127.0,127.0,127.0,127.0,127.0,127.0,127.0,127.0,127.0,127.0,127.0,127.0,127.0,127.0,127.0,127.0,127.0,127.0,127.0,127.0,127.0,127.0,127.0,127.0,127.0,127.0,127.0,127.0,127.0,127.0,127.0,127.0,127.0,127.0,127.0,127.0,127.0,127.0,127.0,127.0,127.0,127.0,127.0,127.0,127.0,127.0,127.0,127.0,127.0,127.0,127.0,127.0,127.0,127.0,127.0,127.0,127.0,127.0,127.0,127.0,127.0,127.0,127.0,127.0,127.0,127.0,127.0,127.0,127.0,127.0,127.0,127.0,127.0,127.0,127.0,127.0,127.0,127.0,127.0,127.0,127.0,127.0,127.0,127.0,127.0,127.0,127.0,127.0,127.0,127.0,127.0,127.0,127.0,127.0,127.0,127.0,127.0,127.0,127.0,127.0,127.0,127.0,127.0,127.0,127.0,127.0,127.0,127.0,127.0,127.0,127.0,127.0,127.0,127.0,127.0,127.0,127.0,127.0,127.0,127.0,127.0,127.0,127.0,127.0,127.0,127.0,127.0,127.0,127.0,127.0,127.0,127.0,127.0,127.0,127.0,127.0,127.0,127.0,127.0,127.0,127.0,127.0,127.0,127.0,127.0,127.0,127.0,127.0,127.0,127.0,127.0,127.0,127.0,127.0,127.0,127.0,127.0,127.0,127.0,127.0,127.0,127.0,127.0,127.0,127.0,127.0,127.0,127.0,127.0,127.0,127.0,127.0,127.0,127.0,127.0,127.0,127.0,127.0,127.0,127.0,127.0,127.0,127.0,127.0,127.0,127.0,127.0,127.0,127.0,127.0,127.0,127.0,127.0,127.0,127.0,127.0,127.0,127.0,127.0,127.0,127.0,127.0,127.0,127.0,127.0,127.0,127.0,127.0,127.0,127.0,127.0,127.0,127.0,127.0,127.0,127.0,127.0,127.0,127.0,127.0,127.0,127.0,127.0,127.0,127.0,127.0,127.0,127.0,127.0,127.0,127.0,127.0,127.0,127.0,127.0,127.0,127.0,127.0,127.0,127.0,127.0,127.0,127.0,127.0,127.0,127.0,127.0,127.0,127.0,127.0,127.0,127.0,127.0,127.0,127.0,127.0,127.0,127.0,127.0,127.0,127.0,127.0,127.0,127.0,127.0,127.0,127.0,127.0,127.0,127.0,127.0,127.0,127.0,127.0,127.0,127.0,127.0,127.0,127.0,127.0,127.0,127.0,127.0,127.0,127.0,127.0,127.0,127.0,127.0,127.0,127.0,127.0,127.0,127.0,127.0,127.0,127.0,127.0,127.0,127.0,127.0,127.0,127.0,127.0,127.0,127.0,127.0,127.0,127.0,127.0,127.0,127.0,127.0,127.0,127.0,127.0,127.0,127.0,127.0,127.0,127.0,127.0,127.0,127.0,127.0,127.0,127.0,127.0,127.0,127.0,127.0,127.0,127.0,127.0,127.0,127.0,127.0,127.0,127.0,127.0,127.0,127.0,127.0,127.0,127.0,127.0,127.0,127.0,127.0,127.0,127.0,127.0,127.0,127.0,127.0,127.0,127.0,127.0,127.0,127.0,127.0,127.0,127.0,127.0,127.0,127.0,127.0,127.0,127.0,127.0,127.0,127.0,127.0,127.0,127.0,127.0,127.0,127.0,127.0,127.0,127.0,127.0,127.0,127.0,127.0,127.0,127.0,127.0,127.0,127.0,127.0,127.0,127.0,127.0,127.0,127.0,127.0,127.0,127.0,127.0,127.0,127.0,127.0,127.0,127.0,127.0,127.0,127.0,127.0,127.0,127.0,127.0,127.0,127.0,127.0,127.0,127.0,127.0,127.0,127.0,127.0,127.0,127.0,127.0,127.0,127.0,127.0,127.0,127.0,127.0,127.0,127.0,127.0,127.0,127.0,127.0,127.0,127.0,127.0,127.0,127.0,127.0,127.0,127.0,127.0,127.0,127.0,127.0,127.0,127.0,127.0,127.0,127.0,127.0,127.0,127.0,127.0,127.0,127.0,127.0,127.0,127.0,127.0,127.0,127.0,127.0,127.0,127.0,127.0,127.0,127.0,127.0,127.0,127.0,127.0,127.0,127.0,127.0,127.0,127.0,127.0,127.0,127.0,127.0,127.0,127.0,127.0,127.0,127.0,127.0,127.0,127.0,127.0,127.0,127.0,127.0,127.0,127.0,127.0,127.0,127.0,127.0,127.0,127.0,127.0,127.0,127.0,127.0,127.0,127.0,127.0,127.0,127.0,127.0,127.0,127.0,127.0,127.0,127.0,127.0,127.0,127.0,127.0,127.0,127.0,127.0,127.0,127.0,127.0,127.0,127.0,127.0,127.0,127.0,127.0,127.0,127.0,127.0,127.0,127.0,127.0,127.0,127.0,127.0,127.0,127.0,127.0,127.0,127.0,127.0,127.0,127.0,127.0,127.0,127.0,127.0,127.0,127.0,127.0,127.0,127.0,127.0,127.0,127.0,127.0,127.0,
255.0,255.0,255.0,255.0,255.0,255.0,255.0,255.0,255.0,255.0,255.0,255.0,255.0,255.0,255.0,255.0,255.0,255.0,255.0,255.0,255.0,255.0,255.0,255.0,255.0,255.0,255.0,255.0,255.0,255.0,255.0,255.0,255.0,255.0,255.0,255.0,255.0,255.0,255.0,255.0,255.0,255.0,255.0,255.0,255.0,255.0,255.0,255.0,255.0,255.0,255.0,255.0,255.0,255.0,255.0,255.0,255.0,255.0,255.0,255.0,255.0,255.0,255.0,255.0,255.0,255.0,255.0,255.0,255.0,255.0,255.0,255.0,255.0,255.0,255.0,255.0,255.0,255.0,255.0,255.0,255.0,255.0,255.0,255.0,255.0,255.0,255.0,255.0,255.0,255.0,255.0,255.0,255.0,255.0,255.0,255.0,255.0,255.0,255.0,255.0,255.0,255.0,255.0,255.0,255.0,255.0,255.0,255.0,255.0,255.0,255.0,255.0,255.0,255.0,255.0,255.0,255.0,255.0,255.0,255.0,255.0,255.0,255.0,255.0,255.0,255.0,255.0,255.0,255.0,255.0,255.0,255.0,255.0,255.0,255.0,255.0,255.0,255.0,255.0,255.0,255.0,255.0,255.0,255.0,255.0,255.0,255.0,255.0,255.0,255.0,255.0,255.0,255.0,255.0,255.0,255.0,255.0,255.0,255.0,255.0,255.0,255.0,255.0,255.0,255.0,255.0,255.0,255.0,255.0,255.0,255.0,255.0,255.0,255.0,255.0,255.0,255.0,255.0,255.0,255.0,255.0,255.0,255.0,255.0,255.0,255.0,255.0,255.0,255.0,255.0,255.0,255.0,255.0,255.0,255.0,255.0,255.0,255.0,255.0,255.0,255.0,255.0,255.0,255.0,255.0,255.0,255.0,255.0,255.0,255.0,255.0,255.0,255.0,255.0,255.0,255.0,255.0,255.0,255.0,255.0,255.0,255.0,255.0,255.0,255.0,255.0,255.0,255.0,255.0,255.0,255.0,255.0,255.0,255.0,255.0,255.0,255.0,255.0,255.0,255.0,255.0,255.0,255.0,255.0,255.0,255.0,255.0,255.0,255.0,255.0,255.0,255.0,255.0,255.0,255.0,255.0,255.0,255.0,255.0,255.0,255.0,255.0,255.0,255.0,255.0,255.0,255.0,255.0,255.0,255.0,255.0,255.0,255.0,255.0,255.0,255.0,255.0,255.0,255.0,255.0,255.0,255.0,255.0,255.0,255.0,255.0,255.0,255.0,255.0,255.0,255.0,255.0,255.0,255.0,255.0,255.0,255.0,255.0,255.0,255.0,255.0,255.0,255.0,255.0,255.0,255.0,255.0,255.0,255.0,255.0,255.0,255.0,255.0,255.0,255.0,255.0,255.0,255.0,255.0,255.0,255.0,255.0,255.0,255.0,255.0,255.0,255.0,255.0,255.0,255.0,255.0,255.0,255.0,255.0,255.0,255.0,255.0,255.0,255.0,255.0,255.0,255.0,255.0,255.0,255.0,255.0,255.0,255.0,255.0,255.0,255.0,255.0,255.0,255.0,255.0,255.0,255.0,255.0,255.0,255.0,255.0,255.0,255.0,255.0,255.0,255.0,255.0,255.0,255.0,255.0,255.0,255.0,255.0,255.0,255.0,255.0,255.0,255.0,255.0,255.0,255.0,255.0,255.0,255.0,255.0,255.0,255.0,255.0,255.0,255.0,255.0,255.0,255.0,255.0,255.0,255.0,255.0,255.0,255.0,255.0,255.0,255.0,255.0,255.0,255.0,255.0,255.0,255.0,255.0,255.0,255.0,255.0,255.0,255.0,255.0,255.0,255.0,255.0,255.0,255.0,255.0,255.0,255.0,255.0,255.0,255.0,255.0,255.0,255.0,255.0,255.0,255.0,255.0,255.0,255.0,255.0,255.0,255.0,255.0,255.0,255.0,255.0,255.0,255.0,255.0,255.0,255.0,255.0,255.0,255.0,255.0,255.0,255.0,255.0,255.0,255.0,255.0,255.0,255.0,255.0,255.0,255.0,255.0,255.0,255.0,255.0,255.0,255.0,255.0,255.0,255.0,255.0,255.0,255.0,255.0,255.0,255.0,255.0,255.0,255.0,255.0,255.0,255.0,255.0,255.0,255.0,255.0,255.0,255.0,255.0,255.0,255.0,255.0,255.0,255.0,255.0,255.0,255.0,255.0,255.0,255.0,255.0,255.0,255.0,255.0,255.0,255.0,255.0,255.0,255.0,255.0,255.0,255.0,255.0,255.0,255.0,255.0,255.0,255.0,255.0,255.0,255.0,255.0,255.0,255.0,255.0,255.0,255.0,255.0,255.0,255.0,255.0,255.0,255.0,255.0,255.0,255.0,255.0,255.0,255.0,255.0,255.0,255.0,255.0,255.0,255.0,255.0,255.0,255.0,255.0,255.0,255.0,255.0,255.0,255.0,255.0,255.0,255.0,255.0,255.0,255.0,255.0,255.0,255.0,255.0,255.0,255.0,255.0,255.0,255.0,255.0,255.0,255.0,255.0,255.0,255.0,255.0,255.0,255.0,255.0,255.0,255.0,255.0,255.0,255.0,255.0,255.0,255.0,255.0,255.0,255.0,255.0,255.0,255.0,255.0,255.0,255.0,255.0,255.0,255.0,255.0,255.0,255.0,255.0,255.0,255.0,255.0,255.0,255.0,255.0,255.0,255.0,255.0,255.0,255.0,255.0,255.0,255.0,255.0,255.0,255.0,255.0,255.0,255.0,255.0,255.0,255.0,255.0,255.0,255.0,255.0,255.0,255.0,255.0,255.0,255.0,255.0,255.0,255.0,255.0,255.0,255.0,255.0,255.0,255.0,255.0,255.0,255.0,255.0,255.0,255.0,255.0,255.0,255.0,255.0,255.0,255.0,255.0,255.0,255.0,255.0,255.0,255.0,255.0,255.0,255.0,255.0,255.0,255.0,255.0,255.0,255.0,255.0,255.0,255.0,255.0,255.0,255.0,255.0,255.0,255.0,255.0,255.0,255.0,255.0,255.0,255.0,255.0,255.0,255.0,255.0,255.0,255.0,255.0,255.0,255.0,255.0,255.0,255.0,255.0,255.0,255.0,255.0,255.0,255.0,255.0,255.0,255.0,255.0,255.0,255.0,255.0,255.0,255.0,255.0,255.0,255.0,255.0,255.0,255.0,255.0,255.0,255.0,255.0,255.0,255.0,255.0,255.0,255.0,255.0,255.0,255.0,255.0,255.0,255.0,255.0,255.0,255.0,255.0,255.0,255.0,255.0,255.0,255.0,255.0,255.0,255.0,255.0,255.0,255.0,255.0,255.0,255.0,255.0,255.0,255.0,255.0,255.0,255.0,255.0,255.0,255.0,255.0,255.0,255.0,255.0,255.0,255.0,255.0,255.0,255.0,255.0,255.0,255.0,255.0,255.0,255.0,255.0,255.0,255.0,255.0,255.0,255.0,255.0,255.0,255.0,255.0,255.0,255.0,255.0,255.0,255.0,255.0,255.0,255.0,255.0,255.0,255.0,255.0,255.0,255.0,255.0,255.0,255.0,255.0,255.0,255.0,255.0,255.0,255.0,255.0,255.0,255.0,255.0,255.0,255.0,255.0,255.0,255.0,255.0,255.0,255.0,255.0,255.0,255.0,255.0,255.0,255.0,255.0,255.0,255.0,255.0,255.0,255.0,255.0,255.0,255.0,255.0,255.0,255.0,255.0,255.0,255.0,255.0,255.0,255.0,255.0,255.0,255.0,255.0,255.0,255.0,255.0,255.0,255.0,255.0,255.0,255.0,255.0,255.0,255.0,255.0,255.0,255.0,255.0,255.0,255.0,255.0,255.0,255.0,255.0,255.0,255.0,255.0,255.0,255.0,255.0,255.0,255.0,255.0,255.0,255.0,255.0,255.0,255.0,255.0,255.0,255.0,255.0,255.0,255.0,255.0,255.0,255.0,255.0,255.0,255.0,255.0,255.0,255.0,255.0,255.0,255.0,255.0,255.0,255.0,255.0,255.0,255.0,255.0,255.0,255.0,255.0,255.0,255.0,255.0,255.0,255.0,255.0,255.0,255.0,255.0,255.0,255.0,255.0,255.0,255.0,255.0,255.0,255.0,255.0,255.0,255.0,255.0,255.0,255.0,255.0,255.0,255.0,255.0,255.0,255.0,255.0,255.0,255.0,255.0,255.0,255.0,255.0,255.0,255.0,255.0,255.0,255.0,255.0,255.0,255.0,255.0,255.0,255.0,255.0,255.0,255.0,255.0,255.0,255.0,255.0,255.0,255.0,255.0,255.0,255.0,255.0,255.0,255.0,255.0,255.0,255.0,255.0,255.0,255.0,255.0,255.0,255.0,255.0,255.0,255.0,255.0,255.0,255.0,255.0,255.0,255.0,255.0,255.0,255.0,255.0,255.0,255.0,255.0,255.0,255.0,255.0,255.0,255.0,255.0,255.0,255.0,255.0,255.0,255.0,255.0,255.0,255.0,255.0,255.0,255.0,255.0,255.0,255.0,255.0,255.0,255.0,255.0,255.0,255.0,255.0,255.0,255.0,255.0,255.0,255.0,255.0,255.0,255.0,255.0,255.0,255.0,255.0,255.0,255.0,255.0,255.0,255.0,255.0,255.0,255.0,255.0,255.0,255.0,255.0,255.0,255.0,255.0,255.0,255.0,255.0,255.0,255.0,255.0,255.0,255.0,255.0,255.0,255.0,255.0,255.0,255.0,255.0,255.0,255.0,255.0,255.0,255.0,255.0,255.0,255.0,255.0,255.0,255.0,255.0,255.0,255.0,255.0,255.0,255.0,255.0,255.0,255.0,255.0,255.0,255.0,255.0,255.0,255.0,255.0,255.0,255.0,255.0,255.0,255.0,255.0,255.0,255.0,255.0,255.0,255.0,255.0,255.0,255.0,255.0,255.0,255.0,255.0,255.0,255.0,255.0,255.0,255.0,255.0,255.0,255.0,255.0,255.0,255.0,255.0,255.0,255.0,255.0,255.0,255.0,255.0,255.0,255.0,255.0,255.0,255.0,255.0,255.0,255.0,255.0,255.0,255.0,255.0,255.0,255.0,255.0,255.0,255.0,255.0,255.0,255.0,255.0,255.0,255.0,255.0,255.0,255.0,255.0,255.0,255.0,255.0,255.0,255.0,255.0,255.0,255.0,255.0,255.0,255.0,255.0,255.0,255.0,255.0,255.0,255.0,255.0,255.0,255.0,255.0,255.0,255.0,255.0,255.0,255.0,255.0,255.0,255.0,255.0,255.0,255.0,255.0,255.0,255.0,255.0,255.0,255.0,255.0,255.0,255.0,255.0,255.0,255.0,255.0,255.0,255.0,255.0,255.0,255.0,255.0,255.0,255.0,255.0,255.0,255.0,255.0,255.0,255.0,255.0,255.0,255.0,255.0,255.0,255.0,255.0,255.0,255.0,255.0,255.0,255.0,255.0,255.0,255.0,255.0,255.0,255.0,255.0,255.0,255.0,255.0,255.0,255.0,255.0,255.0,255.0,255.0,255.0,255.0,255.0,255.0,255.0,255.0,255.0,255.0,255.0,255.0,255.0,255.0,255.0,255.0,255.0,255.0,255.0,255.0,255.0,255.0,255.0,255.0,255.0,255.0,255.0,255.0,255.0,255.0,255.0,255.0,255.0,255.0,255.0,255.0,255.0,255.0,255.0,255.0,255.0,255.0,255.0,255.0,255.0,255.0,255.0,255.0,255.0,255.0,255.0,255.0,255.0,255.0,255.0,255.0,255.0,255.0,255.0,255.0,255.0,255.0,255.0,255.0,255.0,255.0,255.0,255.0,255.0,255.0,255.0,255.0,255.0,255.0,255.0,255.0,255.0,255.0,255.0,255.0,255.0,255.0,255.0,255.0,255.0,255.0,255.0,255.0,255.0,255.0,255.0,255.0,255.0,255.0,255.0,255.0,255.0,255.0,255.0,255.0,255.0,255.0,255.0,255.0,255.0,255.0,255.0,255.0,255.0,255.0,255.0,255.0,255.0,255.0,255.0,255.0,255.0,255.0,255.0,255.0,255.0,255.0,255.0,255.0,255.0,255.0,255.0,255.0,255.0,255.0,255.0,255.0,255.0,255.0,255.0,255.0,255.0,255.0,255.0,255.0,255.0,255.0,255.0,255.0,255.0,255.0,255.0,255.0,255.0,255.0,255.0,255.0,255.0,255.0,255.0,255.0,255.0,255.0,255.0,255.0,255.0,255.0,255.0,255.0,255.0,255.0,255.0,255.0,255.0,255.0,255.0,255.0,255.0,255.0,255.0,255.0,255.0,255.0,255.0,255.0,255.0,255.0,255.0,255.0,255.0,255.0,255.0,255.0,255.0,255.0,255.0,255.0,255.0,255.0,255.0,255.0,255.0,255.0,255.0,255.0,255.0,255.0,255.0,255.0,255.0,255.0,255.0,255.0,255.0,255.0,255.0,255.0,255.0,255.0,255.0,255.0,255.0,255.0,255.0,255.0,255.0,255.0,255.0,255.0,255.0,255.0,255.0,255.0,255.0,255.0,255.0,255.0,255.0,255.0,255.0,255.0,255.0,255.0,255.0,255.0,255.0,255.0,255.0,255.0,255.0,255.0,255.0,255.0,255.0,255.0,255.0,255.0,255.0,255.0,255.0,255.0,255.0,255.0,255.0,255.0,255.0,255.0,255.0,255.0,255.0,255.0,255.0,255.0,255.0,255.0,255.0,255.0,255.0,255.0,255.0,255.0,255.0,255.0,255.0,255.0,255.0,255.0,255.0,255.0,255.0,255.0,255.0,255.0,255.0,255.0,255.0,255.0,255.0,255.0,255.0,255.0,255.0,255.0,255.0,255.0,255.0,255.0,255.0,255.0,255.0,255.0,255.0,255.0,255.0,255.0,255.0,255.0,255.0,255.0,255.0,255.0,255.0,255.0,255.0,255.0,255.0,255.0,255.0,255.0,255.0,255.0,255.0,255.0,255.0,255.0,255.0,255.0,255.0,255.0,255.0,255.0,255.0,255.0,255.0,255.0,255.0,255.0,255.0,255.0,255.0,255.0,255.0,255.0,255.0,255.0,255.0,255.0,255.0,255.0,255.0,255.0,255.0,255.0,255.0,255.0,255.0,255.0,255.0,255.0,255.0,255.0,255.0,255.0,255.0,255.0,255.0,255.0,255.0,255.0,255.0,255.0,255.0,255.0,255.0,255.0,255.0,255.0,255.0,255.0,255.0,255.0,255.0,255.0,255.0,255.0,255.0,255.0,255.0,255.0,255.0,255.0,255.0,255.0,255.0,255.0,255.0,255.0,255.0,255.0,255.0,255.0,255.0,255.0,255.0,255.0,255.0,255.0,255.0,255.0,255.0,255.0,255.0,255.0,255.0,255.0,255.0,255.0,255.0,255.0,255.0,255.0,255.0,255.0,255.0,255.0,255.0,255.0,255.0,255.0,255.0,255.0,255.0,255.0,255.0,255.0,255.0,255.0,255.0,255.0,255.0,255.0,255.0,255.0,255.0,255.0,255.0,255.0,255.0,255.0,255.0,255.0,255.0,255.0,255.0,255.0,255.0,255.0,255.0,255.0,255.0,255.0,255.0,255.0,255.0,255.0,255.0,255.0,255.0,255.0,255.0,255.0,255.0,255.0,255.0,255.0,255.0,255.0,255.0,255.0,255.0,255.0,255.0,255.0,255.0,255.0,255.0,255.0,255.0,255.0,255.0,255.0,255.0,255.0,255.0,255.0,255.0,255.0,255.0,255.0,255.0,255.0,255.0,255.0,255.0,255.0,255.0,255.0,255.0,255.0,255.0,255.0,255.0,255.0,255.0,255.0,255.0,255.0,255.0,255.0,255.0,255.0,255.0,255.0,255.0,255.0,255.0,255.0,255.0,255.0,255.0,255.0,255.0,255.0,255.0,255.0,255.0,255.0,255.0,255.0,255.0,255.0,255.0,255.0,255.0,255.0,255.0,255.0,255.0,255.0,255.0,255.0,255.0,255.0,255.0,255.0,255.0,255.0,255.0,255.0,255.0,255.0,255.0,255.0,255.0,255.0,255.0,255.0,255.0,255.0,255.0,255.0,255.0,255.0,255.0,255.0,255.0,255.0,255.0,255.0,255.0,255.0,255.0,255.0,255.0,255.0,255.0,255.0,255.0,255.0,255.0,255.0,255.0,255.0,255.0,255.0,255.0,255.0,255.0,255.0,255.0,255.0,255.0,255.0,255.0,255.0,255.0,255.0,255.0,255.0,255.0,255.0,255.0,255.0,255.0,255.0,255.0,255.0,255.0,255.0,255.0,255.0,255.0,255.0,255.0,255.0,255.0,255.0,255.0,255.0,255.0,255.0,255.0,255.0,255.0,255.0,255.0,255.0,255.0,255.0,255.0,255.0,255.0,255.0,255.0,255.0,255.0,255.0,255.0,255.0,255.0,255.0,255.0,255.0,255.0,255.0,255.0,255.0,255.0,255.0,255.0,255.0,255.0,255.0,255.0,255.0,255.0,255.0,255.0,255.0,255.0,255.0,255.0,255.0,255.0,255.0,255.0,255.0,255.0,255.0,255.0,255.0,255.0,255.0,255.0,255.0,255.0,255.0,255.0,255.0,255.0,255.0,255.0,255.0,255.0,255.0,255.0,255.0,255.0,255.0,255.0,255.0,255.0,255.0,255.0,255.0,255.0,255.0,255.0,255.0,255.0,255.0,255.0,255.0,255.0,255.0,255.0,255.0,255.0,255.0,255.0,255.0,255.0,255.0,255.0,255.0,255.0,255.0,255.0,255.0,255.0,255.0,255.0,255.0,255.0,255.0,255.0,255.0,255.0,255.0,255.0,255.0,255.0,255.0,255.0,255.0,255.0,255.0,255.0,255.0,255.0,255.0,255.0,255.0,255.0,255.0,255.0,255.0,255.0,255.0,255.0,255.0,255.0,255.0,255.0,255.0,255.0,255.0,255.0,255.0,255.0,255.0,255.0,255.0,255.0,255.0,255.0,255.0,255.0,255.0,255.0,255.0,255.0,255.0,255.0,255.0,255.0,255.0,255.0,255.0,255.0,255.0,255.0,255.0,255.0,255.0,255.0,255.0,255.0,255.0,255.0,255.0,255.0,255.0,255.0,255.0,255.0,255.0,255.0,255.0,255.0,255.0,255.0,255.0,255.0,255.0,255.0,255.0,255.0,255.0,255.0,255.0,255.0,255.0,255.0,255.0,255.0,255.0,255.0,255.0,255.0,255.0,255.0,255.0,255.0,255.0,255.0,255.0,255.0,255.0,255.0,255.0,255.0,255.0,255.0,255.0,255.0,255.0,255.0,255.0,255.0,255.0,255.0,255.0,255.0,255.0,255.0,255.0,255.0,255.0,255.0,255.0,255.0,255.0,255.0,255.0,255.0,255.0,255.0,255.0,255.0,255.0,255.0,255.0,255.0,255.0,255.0,255.0,255.0,255.0,255.0,255.0,255.0,255.0,255.0,255.0,255.0,255.0,255.0,255.0,255.0,255.0,255.0,255.0,255.0,255.0,255.0,255.0,255.0,255.0,255.0,255.0,255.0,255.0,255.0,255.0,255.0,255.0,255.0,255.0,255.0,255.0,255.0,255.0,255.0,255.0,255.0,255.0,255.0,255.0,255.0,255.0,255.0,255.0,255.0,255.0,255.0,255.0,255.0,255.0,255.0,255.0,255.0,255.0,255.0,255.0,255.0,255.0,255.0,255.0,255.0,255.0,255.0,255.0,255.0,255.0,255.0,255.0,255.0,255.0,255.0,255.0,255.0,255.0,255.0,255.0,255.0,255.0,255.0,255.0,255.0,255.0,255.0,255.0,255.0,255.0,255.0,255.0,255.0,255.0,255.0,255.0,255.0,255.0,255.0,255.0,255.0,255.0,255.0,255.0,255.0,255.0,255.0,255.0,255.0,255.0,255.0,255.0,255.0,255.0,255.0,255.0,255.0,255.0,255.0,255.0,255.0,255.0,255.0,255.0,255.0,255.0,255.0,255.0,255.0,255.0,255.0,255.0,255.0,255.0,255.0,255.0,255.0,255.0,255.0,255.0,255.0,255.0,255.0,255.0,255.0,255.0,255.0,255.0,255.0,255.0,255.0,255.0,255.0,255.0,255.0,255.0,255.0,255.0,255.0,255.0,255.0,255.0,255.0,255.0,255.0,255.0,255.0,255.0,255.0,255.0,255.0,255.0,255.0,255.0,255.0,255.0,255.0,255.0,255.0,255.0,255.0,255.0,255.0,255.0,255.0,255.0,255.0,255.0,255.0,255.0,255.0,255.0,255.0,255.0,255.0,255.0,255.0,255.0,255.0,255.0,255.0,255.0,255.0,255.0,255.0,255.0,255.0,255.0,255.0,255.0,255.0,255.0,255.0,255.0,255.0,255.0,255.0,255.0,255.0,255.0,255.0,255.0,255.0,255.0,255.0,255.0,255.0,255.0,
-3.68166e-02,-7.06536e-02,-6.82747e-02,6.62303e-02,6.44799e-03,1.36803e-01,7.44498e-02,1.27735e-01,-8.86504e-04,-5.95681e-02,-8.24784e-02,2.80475e-03,1.41722e-01,5.56905e-02,3.24988e-02,-1.06119e-02,-9.94398e-02,2.48472e-02,5.27215e-02,-5.63718e-02,2.55603e-02,1.41036e-02,-1.23317e-01,1.47154e-02,1.20138e-01,-5.04018e-02,-1.69642e-01,8.44950e-02,-8.01794e-02,1.63709e-01,-1.43308e-01,1.67760e-01,-1.03287e-01,-1.89397e-01,-1.08241e-01,1.27933e-01,-1.26426e-01,-3.00382e-03,-8.16375e-02,8.51243e-02,8.13745e-02,3.76087e-02,-1.43287e-01,-7.08528e-03,-1.35791e-02,-5.13784e-03,5.61328e-02,3.76340e-03,-1.72704e-01,4.49273e-02,8.83521e-02,-6.70924e-02,2.64632e-03,-6.72575e-02,3.04465e-02,-5.66851e-02,4.70227e-02,4.17494e-02,5.69837e-02,-1.54257e-01,3.64544e-04,-7.91290e-02,6.68566e-02,-9.88763e-02,-2.82650e-02,7.39303e-02,1.13276e-01,9.07501e-02,6.02339e-02,-1.41703e-01,-1.07189e-01,7.40866e-02,4.27813e-02,9.98930e-02,-4.28371e-02,-4.15439e-02,1.16294e-01,2.18768e-02,4.66117e-02,8.32253e-02,-1.00247e-01,-2.03509e-02,-7.28862e-02,-1.78645e-02,-1.66754e-01,9.05086e-02,4.94041e-02,-2.28525e-02,-1.46671e-01,-1.02875e-03,2.75540e-02,6.15376e-03,9.03576e-02,-6.11531e-02,3.08725e-02,-4.50262e-02,2.98142e-02,1.73488e-02,5.56465e-04,1.10227e-02,-8.47749e-02,-9.75834e-02,1.26476e-01,5.12339e-02,4.45844e-02,-1.72927e-01,-1.17190e-01,5.24279e-02,-6.66368e-02,-1.52656e-02,-9.65734e-02,-1.83818e-01,-1.16880e-01,4.81048e-02,-4.42293e-02,1.27489e-02,-1.16335e-01,-1.13855e-01,3.75546e-02,8.28905e-02,-1.54251e-01,-1.59082e-01,-1.03033e-01,-2.41215e-02,-7.45384e-02,-3.95527e-02,2.77351e-02,9.41223e-02,1.60575e-01,7.47402e-03,2.48199e-03,-2.04452e-01,-8.34519e-02,-1.09023e-01,2.31854e-02,2.11609e-02,5.64052e-02,1.37182e-01,-2.38240e-02,-1.17722e-01,2.40509e-02,-6.05654e-02,-4.16323e-02,-2.20281e-01,-5.21550e-02,-9.47746e-02,-4.68138e-02,-1.18886e-01,-2.99903e-02,-6.43584e-02,-1.53672e-01,8.49201e-02,-1.58221e-01,-1.12008e-01,-1.80652e-02,-1.18679e-02,-5.10949e-02,3.24571e-03,5.12022e-02,7.24439e-02,-6.86610e-03,4.63180e-02,-5.72567e-03,1.52934e-01,3.43066e-02,7.42499e-02,6.58114e-02,7.14283e-02,9.00002e-02,-1.46038e-01,2.48795e-02,-7.02119e-02,-9.36504e-02,-4.34881e-02,-9.29790e-02,-1.32246e-01,-1.25111e-02,-1.11903e-01,-1.82521e-03,5.87553e-02,-1.10751e-02,-1.36994e-02,-2.13206e-01,-8.40278e-02,4.45812e-02,1.16402e-02,1.37177e-01,-1.92370e-01,-1.20855e-01,-2.41734e-01,-1.11235e-01,-1.20163e-01,-5.01427e-02,-1.30048e-01,-9.22294e-02,-5.07210e-02,-1.16971e-01,2.15205e-02,5.07087e-02,-4.66135e-02,-2.70054e-01,-1.24952e-01,-2.17841e-01,-1.40796e-01,-6.04423e-02,-2.38664e-01,1.54928e-02,1.55362e-01,-5.88513e-02,-1.79684e-01,1.30674e-01,-5.33514e-02,-8.15160e-02,-3.37005e-02,-8.51072e-02,-2.47177e-02,-5.09796e-04,2.00260e-02,-4.60567e-02,9.83483e-02,-1.33590e-01,1.44879e-01,-6.90057e-02,1.35016e-01,-1.08261e-02,2.11978e-02,-6.97440e-02,-8.30276e-02,7.26469e-02,-1.31119e-01,8.81106e-02,2.34475e-02,1.20925e-01,-1.14456e-01,3.03706e-02,-3.78334e-02,-5.73859e-02,-1.99239e-01,-1.48366e-01,-1.34808e-01,1.42889e-01,1.71389e-02,5.38882e-02,-6.87632e-03,-2.33613e-02,1.37603e-01,2.66127e-02,5.04552e-02,7.46181e-02,-5.77086e-02,-4.69805e-02,-1.11764e-02,1.17327e-01,1.21455e-01,-1.29139e-01,5.95235e-02,-1.48589e-01,6.94442e-02,3.62928e-02,-1.09819e-02,1.93346e-01,-6.57290e-02,-3.43522e-02,1.30695e-01,-1.84514e-02,-2.30591e-02,1.35448e-01,1.34000e-01,-8.11830e-02,-1.88592e-01,-1.99374e-02,1.98622e-02,-1.98046e-02,8.35281e-03,3.43969e-02,2.97983e-02,-1.52487e-04,-1.70313e-01,3.08788e-02,9.64652e-02,-1.77590e-01,-8.95953e-02,-4.01696e-02,-6.23726e-02,-4.12129e-02,-4.08130e-03,-3.00228e-01,-9.67831e-02,-2.49824e-02,-1.57765e-01,-7.40641e-02,-2.22249e-02,-1.00146e-01,-4.46651e-02,-6.29165e-02,4.04393e-02,-5.79927e-02,-2.45266e-03,-2.19623e-02,-6.98058e-03,-4.80946e-02,-2.96612e-03,-9.79175e-02,8.91098e-02,-5.09149e-02,-1.19748e-02,4.99652e-02,5.79275e-02,-9.11159e-02,3.45086e-02,3.74126e-02,-1.71785e-01,-7.48469e-02,-1.42550e-01,-8.98818e-02,-4.86391e-02,-8.65452e-03,2.01470e-02,-2.69938e-02,9.77715e-02,-8.56827e-02,-5.40526e-02,-1.07519e-01,7.87342e-02,-8.62086e-05,-1.55735e-01,9.78352e-02,2.95063e-02,-1.24770e-01,-3.78437e-02,1.07415e-01,-3.43696e-02,-1.48983e-01,-1.29782e-01,-2.58959e-02,-5.01124e-04,8.38684e-02,-1.68970e-01,3.91942e-02,1.01540e-01,-7.61421e-02,7.26935e-02,1.06467e-01,7.26487e-02,4.34328e-02,-7.73076e-02,-7.33145e-02,-2.42542e-02,1.37634e-01,3.68381e-02,-4.84607e-02,4.07169e-02,-1.25328e-01,2.30263e-01,1.69291e-02,9.77646e-02,1.25064e-01,1.70164e-01,-9.70819e-02,5.65811e-02,-1.09319e-01,-5.96791e-02,-6.50753e-02,-3.75459e-02,-1.22903e-01,1.69855e-01,1.10024e-01,-1.89581e-01,2.94388e-03,-5.22935e-02,-1.74647e-01,-1.02693e-02,4.29230e-02,-5.26729e-02,-5.09645e-02,-4.22303e-02,-1.12428e-01,7.15823e-02,-3.91612e-02,1.58188e-02,1.10859e-01,-7.16968e-02,-3.13947e-02,-1.80673e-01,9.14223e-02,1.07780e-03,-1.75069e-01,-8.03334e-02,-2.32467e-01,-5.83033e-02,-2.12477e-01,-3.83795e-03,1.08619e-01,-5.47987e-02,-1.74380e-01,-2.22802e-01,-1.00496e-01,-2.89758e-02,-3.74224e-02,-3.56213e-02,-1.03573e-01,-4.48566e-02,-1.12706e-01,-1.56784e-01,5.65988e-02,1.28616e-01,5.50714e-02,-1.29176e-03,-7.16822e-02,1.26540e-01,3.08110e-02,-4.69221e-02,-1.61418e-02,-6.62057e-02,-1.78350e-01,-6.21127e-02,4.40362e-02,4.73778e-02,-3.87078e-02,-5.15749e-02,-6.68586e-02,-5.89531e-02,1.41205e-01,-1.02168e-01,1.85782e-01,-8.88396e-03,5.12977e-02,-1.20103e-01,-1.43608e-01,1.06608e-01,1.64950e-01,2.71047e-02,5.12174e-02,-4.36510e-02,1.34799e-01,1.50880e-02,-6.89606e-02,1.42979e-01,-7.90389e-02,-2.56958e-02,2.72024e-02,3.46335e-02,-1.21266e-01,7.37694e-02,-8.62520e-03,-2.72527e-02,-1.04039e-01,6.79350e-02,9.99689e-02,4.79146e-02,-8.19363e-03,1.09025e-02,1.35366e-01,-7.37928e-03,-4.97838e-02,-2.75767e-02,-2.77298e-02,-1.43921e-01,-2.81430e-02,1.81912e-01,-1.06776e-01,2.03203e-01,-8.01091e-02,3.08424e-03,5.53167e-02,1.45113e-01,-8.35480e-03,-1.39981e-02,-5.67258e-03,4.07777e-02,3.15252e-02,-1.50311e-01,-2.22011e-02,3.43842e-02,-1.65034e-01,2.95124e-02,-1.74288e-01,-9.28853e-02,-8.27540e-02,-6.78287e-02,-4.86914e-02,-4.92295e-02,-7.68988e-02,-2.12208e-01,-1.46790e-01,-1.19975e-01,-7.59367e-02,2.96408e-02,6.28002e-02,1.19375e-01,-1.46759e-01,1.24445e-01,-5.68276e-02,4.20584e-02,-7.32475e-02,-9.16490e-03,-1.12491e-01,3.40487e-02,-5.06241e-02,4.81619e-02,-1.37488e-01,1.10672e-01,5.18566e-02,3.00201e-02,9.36898e-02,-8.24391e-02,8.14797e-02,6.49439e-04,-1.35850e-01,-1.29084e-01,-4.37081e-03,1.76271e-01,1.84974e-01,4.60250e-02,5.64493e-02,-1.48056e-01,-6.84719e-02,-5.40572e-02,2.02118e-01,-1.07774e-02,1.09868e-02,6.81212e-02,2.00834e-01,7.13175e-02,7.46704e-02,-3.74297e-02,-1.12237e-01,-3.82949e-02,3.24834e-02,-1.15656e-01,-6.16278e-02,1.03383e-01,2.31076e-02,6.61552e-02,7.61635e-02,1.65247e-01,8.35446e-02,4.92306e-02,-1.20664e-02,-1.15148e-01,1.35713e-03,9.00387e-02,-5.88220e-02,7.27461e-02,-3.25945e-03,1.73388e-02,-7.80828e-02,1.48695e-02,1.82945e-01,9.62349e-02,2.51770e-02,-4.55056e-02,8.70826e-02,-9.10838e-02,1.64705e-01,-1.19975e-01,3.69186e-02,6.32062e-02,-1.47977e-02,3.37958e-02,1.65468e-01,-4.52810e-02,6.66221e-02,8.60637e-03,-1.10708e-01,5.85901e-03,1.61018e-02,-3.46413e-02,1.97732e-01,7.01423e-03,-4.64167e-02,-8.29794e-02,-1.32104e-01,-1.95319e-01,-4.10781e-02,-1.06941e-02,-1.17917e-01,-8.21496e-03,-9.24161e-02,-4.66960e-02,-3.86555e-02,-2.09823e-02,-9.84533e-02,1.44268e-01,-8.65973e-03,-3.79906e-02,-8.19530e-02,2.05100e-01,-2.56944e-02,4.08479e-02,3.12672e-02,7.37449e-02,1.04081e-01,1.70651e-01,1.58533e-01,1.38228e-01,-4.17910e-02,3.82214e-02,6.51622e-02,1.75968e-02,-8.12983e-02,-1.41136e-01,-3.43562e-02,-1.24966e-01,5.82067e-02,1.64183e-03,-6.15408e-02,7.01584e-02,-4.83768e-04,3.87198e-02,-9.62977e-04,-1.18269e-01,1.28212e-01,-1.02927e-01,-6.34121e-02,1.12745e-01,1.00021e-01,-1.78938e-02,1.22611e-01,5.78919e-02,4.39531e-02,9.07192e-02,-9.54371e-02,-6.03691e-02,-4.88675e-02,2.58991e-02,3.62371e-02,-1.04981e-01,7.62991e-02,-1.33116e-01,3.46757e-02,3.57978e-02,-1.66596e-02,1.35735e-01,1.29805e-01,-2.11032e-02,7.28677e-02,9.02921e-02,1.04098e-03,5.88664e-02,1.40484e-01,-6.82747e-02,1.17397e-01,-1.31494e-01,-2.26821e-02,1.03761e-01,1.88176e-02,1.65422e-01,-1.72845e-02,9.19248e-02,-7.30801e-02,1.45812e-01,-9.47175e-02,4.23547e-02,-4.66635e-02,-1.24213e-01,4.51794e-02,-1.77230e-02,-8.68574e-02,-1.08688e-01,-9.62355e-02,2.38105e-02,-6.20713e-02,2.98919e-04,1.75092e-03,-1.58596e-02,-2.52039e-02,8.28689e-03,1.76274e-01,3.59795e-03,8.64360e-02,1.87009e-01,1.01358e-01,2.39306e-02,-1.61187e-02,8.52525e-02,1.67042e-01,1.36650e-01,5.34393e-02,3.09907e-02,6.97020e-02,7.27977e-02,2.16247e-01,-1.16168e-01,1.68198e-01,1.15724e-02,-4.92398e-02,1.63094e-01,-1.54710e-02,4.46402e-03,-1.09590e-01,-1.28748e-02,1.32666e-01,-1.35520e-01,-9.02718e-02,1.47388e-01,8.77399e-02,-1.11956e-01,1.82064e-01,5.93612e-02,1.01453e-01,8.14809e-02,-4.19723e-02,-1.18789e-01,-1.87158e-02,-3.18104e-02,1.28145e-01,5.68420e-02,1.02152e-01,6.74160e-02,9.64357e-02,3.38020e-02,9.70584e-02,-9.76040e-02,-4.39598e-02,1.09889e-01,-1.76118e-01,-1.77637e-02,-1.22392e-01,9.54369e-02,-9.81409e-02,4.95641e-02,-8.76134e-02,-6.56947e-02,-9.68777e-03,3.78378e-02,-1.44999e-01,2.02994e-01,6.00458e-02,1.00879e-01,1.90032e-01,3.46307e-02,-3.60315e-02,-1.19904e-01,-1.64308e-01,-5.01526e-02,1.51943e-01,-1.38540e-01,-2.85926e-02,-5.35050e-02,9.35478e-02,-1.34275e-02,6.23128e-02,2.90408e-02,4.32851e-02,-1.46199e-01,-2.16550e-02,-2.61342e-02,2.13009e-02,-4.68717e-02,-3.27448e-02,-2.75174e-02,5.70008e-02,8.88480e-02,2.61478e-02,2.36079e-02,-8.90099e-02,-3.35735e-02,1.83841e-01,-8.54152e-02,8.24770e-03,9.05765e-02,3.14877e-02,1.68139e-01,1.05333e-01,-1.34161e-01,1.83837e-02,-4.76429e-02,1.61882e-02,8.51429e-02,-1.89610e-01,-4.95463e-03,4.52845e-02,8.40856e-02,-2.41098e-02,3.61304e-02,1.07617e-01,1.07898e-01,1.15875e-01,7.07686e-02,-3.18983e-02,1.11113e-01,9.06611e-02,6.16879e-03,1.53798e-01,6.05378e-02,-3.44670e-02,1.35638e-01,1.59863e-01,-5.08206e-02,1.23769e-01,-1.33168e-01,-5.41522e-02,-1.67181e-01,1.66887e-01,5.45138e-02,-1.35118e-01,9.58520e-02,1.17257e-01,-5.12778e-02,2.41797e-02,5.06121e-02,3.23337e-02,-4.01895e-03,5.67100e-02,3.36239e-02,-2.36107e-02,1.03928e-01,-2.92854e-02,1.79320e-01,-1.33786e-01,-1.11813e-02,1.01105e-01,-1.05217e-01,-1.24331e-01,-1.36953e-01,-6.24708e-02,-4.94957e-02,-1.88896e-01,-4.85249e-02,1.47053e-01,7.59409e-02,6.18097e-02,1.27838e-01,2.38688e-03,-3.71311e-02,-1.33491e-01,3.50722e-02,-9.99785e-02,-9.66004e-02,-1.30966e-01,-1.40394e-01,-1.16980e-01,-2.60787e-01,8.55864e-02,-1.21776e-01,4.14460e-02,8.20473e-02,-2.08885e-02,2.77094e-02,9.05543e-02,1.29028e-01,-5.29263e-02,8.49187e-02,2.08666e-02,1.17141e-01,2.05860e-02,-2.54990e-02,-1.28435e-02,6.85329e-02,3.36722e-02,1.64907e-02,-3.61763e-02,1.94316e-01,-9.79282e-02,-1.11014e-01,6.79410e-02,-1.46113e-02,1.14455e-04,-1.01326e-01,1.15678e-01,6.56909e-02,3.73987e-02,-1.25730e-01,1.14353e-01,1.34229e-01,1.93479e-01,-1.33259e-01,-7.25743e-02,-6.39317e-02,9.05044e-02,-9.57062e-02,3.35428e-02,1.40330e-01,-1.13030e-01,1.96152e-02,8.11063e-02,4.38288e-02,-1.01855e-01,1.11236e-02,7.78779e-02,-6.30230e-02,9.32639e-02,1.76912e-02,5.75877e-02,-3.83850e-02,-1.64789e-02,7.68548e-02,1.45519e-01,4.48656e-03,7.51336e-02,-9.10489e-02,-5.68047e-02,-1.38644e-02,-5.51221e-02,1.73910e-01,2.80187e-02,-1.32353e-01,8.22158e-02,-1.19226e-01,-7.85815e-02,1.55315e-01,1.36331e-01,6.40464e-02,7.98883e-02,-6.05813e-04,7.40604e-02,1.63042e-01,-1.50936e-01,-9.16708e-02,-1.50494e-01,4.33386e-02,-2.48929e-02,-1.35783e-01,-2.24490e-01,-1.40602e-01,-1.02387e-01,1.03793e-01,-9.18623e-02,-5.20243e-02,-9.62277e-02,-1.78383e-02,-3.45855e-02,1.80036e-01,6.36640e-02,9.16580e-02,9.12960e-02,1.14824e-01,-8.71436e-02,8.08377e-02,1.54140e-01,2.94431e-02,9.18788e-02,3.19336e-03,-2.70366e-02,2.54348e-02,3.53078e-02,-4.53544e-02,8.10983e-02,2.48100e-02,1.24908e-01,-8.03293e-02,2.25711e-02,9.41131e-02,1.25496e-01,-1.07979e-01,-7.72731e-02,9.58913e-02,-4.77403e-02,1.58841e-01,-1.30593e-01,3.55195e-02,-1.34045e-02,-8.04460e-02,-5.25354e-02,1.25903e-02,7.90209e-02,7.79872e-02,5.46153e-02,4.67961e-02,6.95143e-02,-3.33589e-02,-4.58818e-03,-1.12357e-01,-1.12563e-01,-2.09462e-01,8.78414e-02,4.19330e-02,1.17502e-01,1.32130e-01,7.68372e-02,1.04368e-01,-1.21373e-01,-1.13488e-01,1.29888e-01,2.32687e-02,4.20046e-02,1.13745e-01,1.04247e-01,1.15501e-01,6.24721e-02,1.77512e-01,-1.37884e-01,-1.24125e-01,-1.75144e-02,1.66416e-01,-1.09899e-01,6.13581e-02,1.42132e-01,8.79748e-02,2.06024e-02,1.09552e-01,-5.70744e-02,5.31338e-02,1.30649e-01,-1.16572e-01,-8.97484e-02,-8.54681e-02,2.15320e-02,-3.69589e-02,8.64940e-04,-1.14541e-01,-1.43688e-02,-1.34639e-01,2.75127e-02,-1.69852e-01,-1.76969e-01,1.14925e-01,2.20610e-02,-1.14926e-01,1.24515e-01,-2.97998e-02,2.08101e-03,5.41153e-02,1.55141e-01,2.71668e-02,3.68419e-03,1.05967e-01,7.62652e-02,-1.41751e-01,3.01216e-02,1.11675e-01,-5.00524e-02,3.16841e-02,2.70801e-02,-1.39198e-02,-4.77456e-02,-1.52868e-02,-2.66544e-02,1.75553e-01,3.72313e-02,1.84112e-01,-2.73852e-02,-1.13234e-01,9.10451e-02,-1.40061e-01,1.23307e-02,-1.21419e-01,6.17880e-02,-8.76037e-03,-3.31930e-02,-8.80552e-03,-1.15508e-01,-5.15764e-02,-1.05076e-01,-2.59865e-01,-3.39982e-02,2.97399e-02,-1.72572e-01,-9.46244e-02,8.05473e-02,-9.92103e-02,-3.38526e-02,1.07716e-01,-2.75768e-02,1.90834e-01,9.42648e-03,2.53942e-02,5.45126e-02,-9.86571e-02,5.11996e-02,1.37238e-01,-1.46990e-01,9.57179e-02,2.01782e-01,-1.10668e-02,2.12304e-01,1.61606e-01,-8.63979e-02,2.19784e-01,-2.26409e-02,3.40055e-03,-3.93638e-02,4.44553e-02,7.37533e-02,2.27801e-02,5.73500e-02,-3.47180e-04,-2.12391e-02,-2.07153e-01,-1.43369e-01,-1.31700e-01,5.70776e-02,-1.05506e-01,1.82006e-02,-5.03876e-02,-3.81646e-02,1.34822e-02,1.05422e-01,1.13032e-01,-6.33345e-03,5.09593e-02,1.59337e-02,-1.47545e-01,8.82805e-02,-4.43139e-02,-1.21610e-01,-1.10335e-01,2.07801e-01,6.84473e-02,-6.27292e-03,8.31623e-02,-8.37243e-02,4.35508e-02,2.19947e-01,1.39875e-01,1.05249e-01,-4.58595e-02,7.29303e-02,-6.09143e-02,-8.29133e-02,-8.80755e-02,3.96995e-02,-1.86312e-02,5.25988e-02,-3.33874e-02,8.26938e-02,-4.02391e-03,-4.03211e-02,8.09351e-02,-4.89034e-02,-2.22698e-02,1.68712e-01,-1.50262e-01,-2.05574e-02,-5.19722e-02,-2.26164e-02,-2.36258e-02,-2.27108e-01,-1.33976e-01,1.41397e-02,-1.10080e-01,-1.43193e-01,-1.73185e-02,-4.42216e-02,-5.88402e-02,9.93187e-02,4.91901e-02,-1.76582e-02,-3.93969e-02,-1.22564e-02,8.28803e-02,9.22010e-02,1.19302e-02,1.26370e-01,1.23157e-02,2.45769e-02,-1.96308e-03,1.18289e-01,-6.85416e-03,1.27774e-01,4.92237e-02,-3.44239e-02,1.39840e-02,-3.44830e-02,2.38266e-01,1.62668e-01,5.52958e-02,-6.36224e-02,-4.71248e-02,-3.33413e-02,5.98039e-02,1.10616e-01,-4.19266e-02,5.85409e-02,-1.29878e-01,6.78402e-02,8.09871e-02,1.59005e-01,-1.96886e-02,-9.42254e-02,-3.52425e-02,-1.66343e-01,1.28561e-01,-2.38776e-02,1.41935e-01,1.18421e-01,-1.65375e-01,1.01603e-01,2.02741e-01,-1.44361e-03,9.29142e-02,-3.49791e-03,1.23860e-01,2.43143e-02,-3.68736e-02,1.45795e-01,1.04162e-01,2.06202e-02,9.03178e-02,9.94456e-02,-1.11619e-03,4.00646e-02,-5.64981e-02,-9.14146e-03,2.01196e-02,-3.40090e-02,-3.20002e-02,-1.29847e-01,2.50163e-02,-5.71573e-02,-9.38494e-02,-7.78922e-04,-4.96951e-02,-1.36721e-02,-9.28416e-02,6.91974e-02,-1.01002e-01,-1.28701e-01,9.87849e-02,-1.06424e-01,-1.38045e-01,-2.25036e-02,-1.08645e-01,3.86646e-02,1.35085e-01,1.93354e-01,2.10480e-02,1.45264e-02,-1.70997e-01,-1.38561e-01,4.15363e-02,9.45245e-02,1.65883e-02,-1.50166e-01,-1.34500e-01,9.23622e-02,2.50858e-01,-3.84276e-02,-8.51847e-02,-7.59156e-02,5.73166e-02,6.69554e-02,2.27774e-01,-6.89829e-03,8.71498e-02,-3.81688e-02,2.88553e-02,1.62971e-01,-3.11825e-02,9.81142e-02,-4.88961e-03,-8.26999e-02,4.80815e-02,-1.01730e-01,-8.46358e-03,-2.62596e-02,-8.23464e-02,-1.10009e-01,1.29666e-02,4.84060e-03,1.31194e-01,1.99767e-01,-5.89776e-02,-5.21239e-02,-1.47536e-02,2.02229e-02,-6.18158e-02,-1.82143e-02,4.51871e-02,8.88056e-02,2.85952e-02,-2.42442e-03,-1.05513e-01,8.31444e-02,-1.39733e-01,4.86707e-02,-3.03967e-02,-7.52814e-02,-1.35690e-01,4.44474e-03,4.55990e-02,-1.96296e-02,4.13288e-02,-8.30807e-02,-2.98076e-02,6.01740e-03,-8.96479e-02,-6.13362e-02,1.43678e-01,-1.04597e-01,1.54219e-01,2.41596e-02,-8.44261e-02,-1.09614e-01,1.36332e-02,-3.99688e-02,3.01466e-02,1.33276e-02,-7.70811e-02,-6.92551e-02,-1.98136e-01,2.17925e-03,7.11863e-02,3.02819e-02,4.92271e-02,-1.21849e-01,3.01291e-02,1.48404e-01,-6.48020e-02,-5.76299e-02,-7.26078e-02,1.62116e-01,6.19472e-02,9.06730e-02,5.33287e-02,1.45478e-01,7.72986e-02,-3.46872e-02,6.39233e-02,-1.42106e-01,1.59024e-01,7.28017e-02,1.26525e-01,1.14739e-01,1.57609e-02,4.61952e-02,-3.03952e-02,1.12214e-01,1.37946e-01,-7.23087e-02,1.32777e-01,-1.17284e-01,7.43907e-02,9.74795e-02,-1.45077e-02,-1.40961e-02,-4.69430e-02,1.83292e-01,-1.93196e-01,4.13331e-02,5.18373e-02,-9.51736e-02,-1.52170e-01,9.02513e-02,8.84520e-02,-8.83798e-03,3.43151e-03,1.01088e-01,-2.91990e-02,1.23799e-01,-3.17564e-02,-1.28774e-01,2.44521e-02,7.43819e-02,2.24091e-01,1.63791e-01,-3.98582e-02,1.89195e-02,5.71242e-02,8.04568e-02,-6.78698e-03,-9.13061e-02,-6.42118e-03,4.11522e-02,-3.38168e-02,1.11167e-01,-2.33878e-02,-1.21671e-01,1.84466e-02,-6.10099e-02,-2.89407e-02,-6.92671e-02,4.05471e-02,3.99590e-02,-6.17212e-02,-1.36292e-01,1.69793e-01,7.06391e-02,1.02156e-01,-8.97067e-02,5.56782e-03,-6.97278e-02,-8.95519e-02,-8.56261e-02,5.43950e-02,1.39121e-01,-1.60628e-01,-1.48409e-01,5.49685e-02,-9.37925e-05,-7.20248e-02,6.46093e-02,-2.04816e-01,6.46000e-02,-6.60924e-02,-2.69179e-02,-2.92361e-02,1.45825e-01,3.30069e-02,8.38967e-03,1.99884e-02,1.01497e-01,3.72920e-02,1.65323e-01,4.12894e-02,6.99054e-02,1.12740e-01,-4.62855e-02,2.37619e-02,-2.68284e-02,3.46085e-02,-4.30371e-02,1.17871e-01,-4.93050e-02,-3.53650e-02,-3.86681e-02,4.73904e-02,-7.73748e-02,-9.07848e-02,1.60341e-01,-3.43888e-02,-5.59973e-02,-1.12969e-01,-8.78740e-02,5.45807e-02,-8.19915e-02,5.05364e-02,-3.97800e-02,-3.89703e-02,-6.62378e-02,6.30567e-02,-1.79283e-01,-1.81189e-02,9.85225e-02,5.66155e-02,5.18429e-02,1.60245e-02,-9.33957e-02,-7.33223e-02,-1.14497e-01,-7.13205e-03,1.06433e-01,-1.55748e-01,6.89843e-02,-8.07631e-03,-1.29656e-01,-6.95231e-02,-1.95383e-02,-8.97778e-02,1.76887e-01,3.62331e-02,2.81633e-02,1.07357e-01,4.57327e-02,-9.33108e-02,1.23146e-01,-1.69764e-01,-1.42878e-03,-2.18564e-02,1.34035e-01,1.19982e-01,4.05407e-02,-8.55163e-02,-5.38834e-02,-2.48845e-02,-7.98330e-02,9.19937e-02,2.14447e-02,-8.33737e-02,-9.75936e-02,9.86930e-02,-3.87692e-02,-4.06055e-02,1.41502e-01,1.53825e-01,1.34543e-02,-2.11749e-02,9.73411e-03,7.41318e-02,5.76832e-02,-4.09448e-02,9.06114e-02,1.28564e-01,1.27926e-01,-1.29511e-01,2.30226e-02,1.70236e-01,1.40107e-01,1.23451e-01,-7.24162e-02,-1.25153e-01,9.29222e-02,1.49831e-02,3.55531e-02,6.36505e-02,-4.89488e-02,-7.44321e-02,-9.17483e-02,4.04723e-02,-6.28674e-02,-2.15951e-02,-8.86503e-02,-5.67698e-02,-1.21955e-01,9.03139e-03,1.16545e-02,8.71284e-02,7.01865e-02,4.80516e-02,-6.14967e-02,-2.10793e-02,-7.64749e-02,7.94150e-02,5.66391e-02,-6.17607e-03,3.46059e-02,1.43891e-03,-2.18621e-03,2.61870e-02,-1.85574e-01,1.38218e-01,-7.98187e-02,1.12325e-02,7.33784e-02,8.13640e-02,1.74408e-01,1.07365e-01,7.22517e-02,-6.45746e-02,-8.23358e-02,3.97364e-02,1.14671e-01,-7.20482e-02,4.27554e-02,-1.44918e-01,-4.52613e-02,-5.67733e-02,-7.95923e-02,6.47304e-02,-1.76962e-01,5.69698e-02,4.49754e-03,5.21621e-02,-1.52735e-02,8.99849e-02,-8.15339e-02,-5.40720e-02,7.47416e-02,2.19083e-02,5.30988e-03,-3.04906e-02,-2.31997e-02,-4.81539e-02,1.03012e-01,-9.42511e-03,8.44126e-03,1.33783e-01,-4.45744e-02,-8.64304e-02,1.30569e-02,8.35629e-02,-9.69136e-02,1.11158e-01,-3.47090e-02,-5.12697e-02,-8.90879e-02,-1.13664e-02,-2.53261e-02,-4.03089e-02,1.99636e-01,-1.89620e-03,1.35890e-01,1.47495e-01,1.43422e-01,9.96505e-02,-6.97536e-02,5.65381e-02,1.07496e-01,1.14769e-01,2.26219e-02,8.50324e-02,9.15419e-02,-3.35703e-02,7.29782e-03,-7.14942e-02,-1.56312e-02,-6.10159e-02,-1.44019e-01,-6.03438e-02,3.78433e-02,-7.05960e-02,-8.08793e-02,-1.02504e-01,-1.05980e-01,-4.42549e-02,-6.66484e-02,-3.98076e-02,9.47974e-02,1.92307e-01,-9.85348e-02,-2.04526e-02,-6.72808e-03,1.18701e-01,-6.80396e-02,2.37830e-02,1.25196e-01,-1.63322e-02,3.35881e-02,-9.83789e-03,-5.55563e-02,1.38873e-01,-1.92373e-02,-1.41643e-01,-2.22206e-02,-3.94985e-02,5.79199e-02,-6.44529e-02,-2.02340e-01,-9.30540e-03,8.96862e-03,-7.30231e-02,2.17679e-02,-4.24353e-02,6.76461e-02,-7.36927e-02,1.73050e-01,-2.14183e-01,-1.31775e-01,1.55539e-01,-1.07480e-01,-4.06239e-02,-1.89027e-02,-1.04503e-01,-6.12762e-02,1.71990e-02,-5.08732e-02,-1.14723e-02,9.81480e-02,2.32827e-02,1.57759e-01,-1.12179e-01,-9.90621e-02,-1.22916e-01,-4.48407e-02,-1.51479e-02,8.56158e-02,-3.70726e-02,-4.78449e-02,9.10544e-02,6.75621e-02,-2.99881e-02,-4.19522e-03,2.79960e-02,-2.55331e-02,-4.86979e-02,8.11813e-02,4.48842e-02,-1.34010e-01,5.79978e-02,-4.84330e-02,6.94316e-02,-2.22525e-02,-6.31196e-03,-1.98660e-02,1.17820e-01,-5.39514e-02,-4.75848e-02,-9.96587e-02,2.87278e-02,-1.04905e-01,-7.66807e-02,7.21255e-02,-1.93776e-01,-8.86401e-03,-8.39118e-02,4.35285e-02,3.38966e-02,-1.81541e-02,-2.00978e-01,7.07583e-02,-8.19559e-02,2.03418e-02,8.49952e-02,-7.18173e-02,8.20635e-03,-3.71642e-02,-2.11975e-02,-2.51594e-02,-3.72172e-02,-1.04362e-01,2.29687e-02,1.25465e-01,4.02900e-02,-4.84997e-02,4.47698e-02,3.45460e-02,-1.68360e-01,-6.46346e-02,9.25671e-02,-1.53024e-01,-2.19256e-02,-1.34558e-01,1.09584e-01,-6.70134e-02,-5.94472e-02,-1.79671e-01,3.71550e-02,7.02487e-02,1.59852e-01,-8.12297e-02,3.22497e-02,-8.82717e-02,2.42457e-02,-1.66499e-01,7.60309e-02,-2.49883e-02,-2.11447e-02,-6.05738e-02,-7.77999e-02,-1.67215e-01,-7.06866e-02,3.78442e-02,6.48717e-02,-3.64888e-02,-2.62886e-02,-1.69612e-01,4.18917e-02,-1.69222e-01,8.30183e-02,9.19244e-02,9.26368e-02,2.04988e-01,1.06202e-01,8.45614e-02,-7.57097e-03,-1.05366e-01,-5.30480e-02,5.08275e-02,1.07441e-01,2.14027e-03,3.26343e-02,-8.77864e-02,5.40837e-02,-3.88350e-02,-7.15275e-02,-4.68740e-02,6.78033e-02,-4.67530e-02,-1.30752e-01,6.66780e-02,-8.16880e-02,1.06128e-01,-6.50153e-02,-3.30471e-03,2.62267e-02,-1.78664e-01,-1.61031e-01,-1.53965e-01,-1.05743e-01,-2.74263e-02,3.32576e-02,1.83139e-01,-9.06801e-02,1.59240e-01,8.67071e-02,-1.68128e-02,1.91276e-01,1.33639e-01,-2.52488e-02,-7.49369e-02,6.63749e-02,-6.73415e-02,1.73950e-01,-1.79352e-03,3.37565e-02,-4.50581e-02,4.05888e-02,6.67381e-02,-1.06336e-01,-9.94754e-02,1.14055e-01,1.29830e-01,-5.79669e-02,-6.04391e-02,-1.11398e-01,-5.70019e-02,-6.64869e-02,-1.04715e-01,-1.55516e-01,1.24535e-01,-7.61124e-02,7.47864e-03,-9.02326e-02,-1.10590e-01,1.12371e-01,-6.01010e-02,1.67958e-02,-8.89225e-02,5.82075e-02,-1.38116e-01,5.81468e-02,-1.75020e-01,-1.03058e-01,-2.09630e-01,-1.96784e-01,-7.59992e-02,-1.76623e-01,2.10498e-02,6.13482e-02,2.98422e-02,-7.63776e-02,7.77657e-03,-3.54696e-02,-4.34145e-02,4.23540e-03,-1.24548e-01,-4.26995e-02,-9.94490e-02,-1.93737e-02,-1.34514e-01,4.65584e-02,9.75585e-03,-1.28067e-01,6.25383e-02,1.68834e-01,-2.18620e-02,2.39269e-03,8.67528e-02,-3.16442e-02,9.22682e-02,8.62823e-02,-1.36693e-01,-7.27043e-02,-1.72400e-01,-8.00378e-02,-1.31533e-01,-6.55093e-02,-1.93755e-01,-4.32120e-03,7.31419e-02,1.72875e-03,1.50733e-02,-5.02307e-02,-7.76901e-03,2.00251e-01,2.31443e-02,5.42691e-02,2.51760e-01,6.85217e-02,3.60811e-02,2.30062e-01,-4.05185e-02,7.74883e-02,-5.28777e-02,-6.10133e-02,-3.17688e-02,1.34017e-02,-1.74238e-02,1.23072e-01,7.46860e-02,-5.25083e-02,-1.00435e-01,7.76325e-02,-8.14222e-02,1.01630e-01,-1.37433e-01,-3.00191e-03,-9.40178e-03,-3.71048e-02,1.94760e-02,9.47082e-02,-1.71557e-03,-6.37178e-02,5.88791e-03,-1.07192e-01,-8.49128e-02,5.94403e-02,-1.36669e-01,-4.90834e-02,-1.19218e-02,9.44318e-03,6.98933e-02,4.42958e-02,1.60602e-01,4.85872e-02,-2.24242e-01,-3.76007e-03,1.04459e-01,1.41033e-01,-5.29361e-02,-1.69061e-01,3.39226e-02,1.09343e-01,6.69684e-02,-8.17182e-02,6.35695e-02,-7.00789e-02,-6.31216e-02,1.10219e-01,1.12707e-01,1.62983e-01,-1.53304e-01,1.23467e-01,8.44465e-02,4.48699e-02,-1.54296e-01,1.53249e-03,-5.33897e-02,2.03473e-01,-1.90638e-01,1.39891e-02,9.01748e-02,7.64731e-04,-4.96558e-02,-1.26454e-01,-1.73145e-01,-1.02534e-01,7.96179e-02,-2.43938e-01,1.13091e-01,-6.79673e-02,-5.04756e-02,-1.35352e-01,2.38653e-02,-5.38522e-03,4.61030e-02,4.07356e-02,2.40420e-02,1.00349e-01,-8.19801e-02,8.02493e-02,-9.81374e-03,-1.01499e-02,-5.91940e-04,-5.45847e-02,5.15177e-02,3.70562e-02,1.33361e-01,-1.20151e-01,5.43572e-02,4.02120e-03,5.59893e-02,3.25528e-02,1.34586e-01,-4.36164e-03,4.71716e-04,-8.55387e-02,-3.13072e-02,4.70573e-02,-7.79613e-02,-1.56537e-01,-1.55810e-01,-1.56456e-01,-1.74168e-01,5.49985e-02,3.40993e-02,1.03121e-03,8.82396e-02,1.47358e-01,1.66539e-02,-5.31877e-02,-1.19776e-01,-1.39018e-02,1.09739e-01,-1.70083e-02,-5.10680e-02,2.79833e-02,9.28885e-02,1.84769e-02,-2.17313e-02,-2.29028e-02,5.34088e-02,-1.05056e-03,-5.23442e-02,8.47450e-02,-5.87307e-02,6.10825e-02,1.26963e-01,2.07705e-02,-7.23170e-03,3.60303e-03,4.22258e-02,4.44554e-02,1.63213e-02,-1.87177e-01,-1.00819e-01,-1.12632e-01,-8.06363e-02,1.66316e-02,-1.28593e-01,2.09228e-02,4.93808e-02,8.93069e-02,-3.34969e-02,-7.00058e-02,-4.43499e-03,3.14169e-02,8.96897e-03,-4.25202e-02,-1.07206e-01,-1.47985e-01,1.31127e-01,-8.17525e-02,-8.41428e-02,1.40635e-01,-7.64432e-03,-6.54494e-02,-1.47454e-02,3.51235e-02,-8.92046e-02,-7.00044e-02,1.34364e-01,-3.41064e-02,-1.91751e-02,8.39100e-02,-3.61538e-03,-3.95796e-03,1.00879e-01,-7.92790e-02,-1.01691e-01,-4.40612e-02,-4.63406e-02,-1.38808e-01,1.07339e-02,2.10281e-02,-7.42366e-03,8.13689e-02,-1.34342e-01,1.82815e-02,-7.23775e-02,-1.16085e-01,-6.59734e-02,-2.87612e-02,-1.27556e-02,1.62680e-02,2.43006e-02,1.10657e-02,2.99450e-02,-1.93455e-02,-5.68813e-03,1.60741e-01,2.48143e-01,-4.67744e-02,-8.34047e-02,1.16327e-01,-1.67527e-01,1.85339e-01,3.58739e-02,-2.56435e-02,-1.27700e-01,8.93243e-02,-1.99150e-01,-5.85859e-02,1.67800e-01,1.10254e-01,6.30689e-03,-3.64994e-02,-1.05064e-01,-1.10366e-01,-9.28152e-03,7.82259e-02,-2.01289e-02,-1.44676e-01,7.18159e-03,6.77266e-02,3.26291e-02,4.14867e-02,-6.12240e-02,-1.85951e-01,5.88698e-02,3.69885e-02,9.33442e-02,6.42811e-02,-1.16542e-01,-1.74685e-01,-1.43723e-01,5.24675e-02,-1.89865e-02,6.72712e-02,-4.97528e-02,9.14149e-02,-4.96037e-02,-1.04232e-02,-2.21259e-02,-2.63247e-02,6.25206e-03,4.51047e-02,2.30775e-03,1.27315e-01,-2.49662e-02,-1.46232e-01,3.81968e-02,9.93246e-02,-2.95881e-02,8.55610e-02,-2.19857e-03,4.20311e-02,-1.21897e-01,1.73067e-01,-4.37252e-02,6.73815e-02,8.99550e-02,3.61368e-02,-8.15239e-02,-1.80724e-01,-9.27216e-02,1.29138e-01,1.15482e-01,-1.36101e-01,1.47268e-01,1.20030e-01,6.84289e-02,5.84591e-02,2.11250e-02,-8.20552e-02,2.43916e-02,5.18915e-02,-5.72214e-02,9.25216e-02,3.85747e-02,1.48448e-01,-3.78252e-02,-6.34133e-02,3.52070e-02,1.85165e-02,5.58488e-02,2.49318e-01,5.93622e-03,-1.32166e-02,3.61220e-02,-1.36980e-02,-5.09962e-02,-2.90218e-02,8.14732e-02,1.88891e-01,1.72083e-01,-1.02885e-01,-2.67274e-02,-3.87177e-02,1.53114e-01,3.51805e-02,1.92271e-01,-8.16485e-02,1.06042e-01,-1.35191e-01,-8.97485e-03,1.40343e-01,1.30331e-01,2.06346e-02,2.56492e-02,-1.98761e-02,1.48638e-01,1.31960e-01,-1.02772e-01,3.76443e-02,7.56721e-02,1.21337e-01,1.34221e-02,9.26896e-03,6.45031e-02,-1.26232e-01,-2.16132e-02,1.52979e-01,-1.05763e-01,2.21925e-02,-8.25878e-02,2.05072e-01,3.46708e-03,2.72058e-03,-3.32990e-02,1.63766e-02,1.45073e-01,-4.21268e-02,1.08228e-01,9.44615e-02,1.05698e-02,-5.77959e-02,-7.62917e-02,7.87502e-02,5.88181e-02,1.17645e-03,4.77500e-02,6.04639e-02,7.80616e-02,1.54203e-01,3.94177e-02,-9.17151e-02,1.35352e-01,2.66488e-02,-5.18936e-04,-1.23184e-01,-1.41185e-02,6.31540e-02,1.42176e-01,-1.50526e-01,-8.56267e-02,-1.06239e-01,-5.29798e-03,5.13412e-02,-1.79519e-02,-5.42293e-02,2.47565e-02,3.86797e-02,-4.15120e-02,9.73905e-02,3.88440e-02,5.13770e-02,5.12000e-02,4.50134e-03,4.32198e-02,6.93754e-04,5.65014e-02,9.99711e-02,-1.18404e-02,6.91147e-02,2.43380e-01,7.29469e-02,2.61407e-01,1.10333e-01,1.11612e-01,1.40578e-01,7.45833e-02,1.78577e-01,1.40793e-01,-5.21383e-04,5.19745e-02,9.24612e-02,1.43290e-02,1.44083e-01,-3.27518e-02,-2.67523e-02,1.50196e-01,1.95064e-01,2.24733e-01,4.84647e-02,1.03580e-01,1.17185e-01,1.38223e-01,2.36487e-02,-2.10066e-02,-9.50917e-02,2.03478e-02,8.05674e-02,-1.77226e-02,6.99085e-02,-4.69193e-02,3.04413e-02,-6.60776e-02,3.30331e-03,2.92903e-02,-1.09176e-01,1.40744e-01,4.86962e-02,3.74887e-02,6.87336e-02,1.23153e-01,-3.44440e-02,1.02236e-01,-2.12366e-02,-1.13261e-01,9.99378e-03,-2.86393e-02,3.14798e-02,-2.94077e-02,-8.16277e-02,1.15131e-01,1.95642e-04,-1.43023e-01,7.11562e-02,7.64991e-02,4.03754e-02,3.09934e-02,5.75538e-02,5.82341e-02,-1.64550e-01,3.32457e-02,-6.98526e-04,-9.21834e-02,-6.70107e-02,1.39214e-01,-6.57362e-02,1.13876e-01,1.41935e-01,-5.77675e-02,-1.35993e-01,-8.71576e-02,1.52442e-02,-8.14244e-02,-1.64283e-01,-3.84028e-02,1.16512e-01,2.33116e-02,4.08938e-02,7.46183e-02,-1.96335e-02,-4.99608e-02,1.31987e-01,3.56559e-02,-4.64069e-02,6.80658e-02,-1.54491e-02,-1.26270e-02,1.55077e-01,-7.00236e-02,8.39014e-02,8.48617e-02,1.48893e-01,4.63908e-02,1.74376e-01,7.62670e-02,-3.69940e-02,7.60139e-02,-6.09725e-02,1.27454e-01,-6.92405e-02,1.42090e-01,1.75838e-01,-1.11263e-01,1.90942e-02,8.26196e-02,-1.11548e-03,6.93838e-02,9.50592e-02,1.57594e-01,1.77592e-01,1.62073e-02,8.32841e-02,1.21102e-01,8.47372e-02,1.28360e-01,2.01891e-01,1.31509e-01,1.25478e-01,1.85882e-01,-6.79986e-02,-6.65463e-02,6.01976e-02,6.77423e-02,3.04134e-02,1.10221e-01,9.81154e-02,7.62916e-02,-6.38155e-03,5.48167e-02,-7.68313e-02,4.49006e-02,5.50511e-02,3.23571e-03,2.29452e-02,3.98735e-02,1.66252e-01,-2.70810e-02,-1.83391e-01,9.04461e-03,-6.91969e-02,-1.28724e-02,3.22646e-02,1.36976e-02,-1.71896e-01,-9.12468e-02,-4.90859e-02,
1.89174e-01,2.36389e-03,8.67687e-02,1.11197e-01,4.40587e-02,7.85534e-03,5.70984e-03,-5.05238e-02,-4.85731e-02,-6.11039e-02,3.92614e-02,1.51224e-01,2.20277e-02,-1.18789e-01,8.06583e-02,-7.11365e-02,5.75342e-02,7.95257e-02,9.72839e-02,1.64663e-02,5.35844e-02,-1.32586e-01,4.14429e-02,5.01236e-02,1.48632e-01,1.41557e-02,-1.52674e-01,1.28687e-02,-5.68580e-02,5.94843e-02,1.13085e-01,1.46493e-01,3.50833e-02,2.52133e-02,9.62738e-02,-2.37351e-02,4.48417e-02,-1.17339e-02,-4.82411e-02,5.38615e-02,1.90676e-01,1.43334e-01,1.82525e-02,8.06271e-02,1.04333e-01,-5.35187e-02,1.17537e-01,-1.12246e-01,6.34646e-02,9.11421e-02,1.94494e-02,-1.18211e-01,1.30094e-01,5.76651e-02,3.31422e-02,5.54975e-02,-1.40351e-01,-7.58298e-02,1.06661e-01,-6.58198e-02,2.15238e-02,-9.82722e-02,-4.71992e-02,-7.62019e-04,-6.34646e-02,3.74388e-03,-4.41130e-02,-7.15732e-03,-1.42639e-01,-3.01301e-02,1.95412e-01,-8.00279e-02,-2.88855e-02,1.04529e-01,6.41320e-02,5.29437e-02,-8.69288e-02,-1.47924e-01,-1.38623e-01,-4.26998e-02,1.29224e-01,4.15422e-03,-7.71223e-02,-3.03184e-02,-1.09279e-01,1.30625e-01,7.42442e-02,-6.87927e-02,-5.64881e-02,-5.59170e-02,-7.62949e-02,7.44833e-02,-1.23406e-01,1.11146e-01,-8.23109e-02,1.18162e-02,8.35858e-02,8.33845e-02,8.79611e-02,-6.59649e-02,-1.37619e-01,9.48425e-02,-1.16512e-01,-5.27916e-02,3.02470e-02,1.43644e-01,-9.33322e-02,-8.06703e-03,3.98849e-02,3.82198e-03,1.01543e-01,5.94175e-02,-1.71781e-01,1.78003e-01,-1.20921e-01,-1.42249e-01,-1.14543e-01,1.07912e-02,-2.38372e-02,-7.46944e-04,-6.38007e-02,-1.52470e-01,-9.60713e-02,-3.52735e-02,5.75723e-02,1.74297e-01,-1.84342e-02,1.23758e-01,4.22100e-03,2.02978e-03,-1.40772e-01,-9.24957e-02,-5.55235e-02,5.95335e-02,-5.27292e-02,3.78400e-02,5.29078e-02,1.62438e-01,8.40364e-02,-1.00069e-01,-8.00877e-03,-1.54319e-01,-9.23740e-02,-1.75738e-02,-8.51129e-03,-6.42540e-02,4.95894e-02,1.66090e-02,1.58370e-01,4.27323e-02,-1.48286e-01,5.67688e-02,-1.51448e-01,1.09612e-02,-2.82415e-02,1.50940e-01,-1.43006e-01,-1.59526e-01,1.07261e-01,-1.09481e-01,-6.62196e-02,2.39656e-03,5.49062e-02,-5.51455e-02,-5.08993e-02,3.81012e-02,-1.58028e-01,-2.96640e-02,-6.66182e-02,-1.10878e-01,2.53743e-02,-1.27046e-01,-8.42057e-02,1.18909e-01,-4.14880e-02,9.46688e-02,-5.16244e-02,-1.20267e-01,-4.83496e-02,1.47345e-01,4.32486e-02,8.90135e-02,-9.76629e-02,-6.96576e-02,-1.73119e-01,1.29544e-01,8.37430e-02,-2.13114e-03,8.49163e-02,6.53324e-02,4.50717e-02,-4.78671e-02,-2.26656e-02,6.27388e-03,-3.15097e-02,5.89527e-02,-3.76876e-02,-5.95886e-02,-1.02099e-01,2.36616e-02,-1.59701e-02,4.46181e-02,-1.35554e-01,-4.19519e-02,-1.18027e-01,-3.55416e-02,-1.14115e-01,-1.84213e-01,-1.67496e-01,-8.88875e-02,-4.61777e-02,-1.08364e-02,-4.27113e-02,1.21421e-02,4.50111e-02,-6.74436e-02,1.30366e-01,9.19240e-02,-8.92248e-02,-6.35048e-02,-6.32917e-02,-5.89599e-02,9.35545e-03,-4.39904e-02,1.20483e-02,3.57159e-02,-1.41477e-01,-3.65981e-02,-4.27696e-02,-8.17870e-02,-1.14734e-02,-2.89451e-02,3.48987e-03,3.52013e-02,1.66336e-01,9.28662e-04,-5.38719e-02,6.64632e-03,-1.00440e-01,8.11625e-02,-1.23980e-01,-1.62378e-01,-9.67350e-02,-9.96798e-02,-8.26481e-02,9.67480e-02,-3.87817e-02,7.71540e-02,-4.44095e-02,1.68972e-01,-1.06407e-01,-4.31026e-02,4.77834e-02,-1.56260e-01,-7.34369e-02,6.02817e-03,3.18560e-02,5.76088e-02,1.77053e-02,-7.15046e-02,-8.68416e-02,-2.49781e-02,-6.33858e-02,-1.07940e-01,1.58881e-02,2.53688e-05,-7.35496e-02,-2.05447e-01,3.29857e-02,-2.14266e-01,-1.71988e-01,-7.89598e-02,-4.57545e-02,4.14335e-02,-7.35793e-02,8.15503e-02,-6.09859e-02,-1.31253e-01,-1.98440e-01,-1.20025e-01,2.78191e-02,1.96192e-02,2.10004e-01,7.85040e-02,-1.72660e-01,1.11378e-01,-5.61895e-02,-5.74872e-02,1.14967e-03,2.60145e-02,-1.69675e-02,-1.32999e-01,7.33311e-02,1.53170e-02,1.77956e-01,3.79390e-02,-1.36006e-02,8.52738e-02,-2.59856e-02,-5.64381e-02,-4.99401e-02,4.52305e-03,-4.67107e-03,9.76351e-02,-4.96806e-02,1.45737e-01,1.68258e-01,1.25514e-01,-9.46216e-02,4.69226e-02,7.01242e-03,1.83424e-01,7.26828e-02,-9.06933e-02,2.00349e-01,1.95358e-01,1.77696e-02,2.18030e-02,-6.98881e-02,9.24995e-02,6.15672e-03,1.63993e-02,6.93729e-03,4.80372e-02,1.30844e-01,-1.68857e-01,1.12465e-01,3.86479e-02,-1.63308e-02,-1.26176e-01,8.45421e-02,-5.94964e-02,-4.45990e-02,1.39338e-01,-2.31918e-03,1.61408e-01,4.82649e-02,7.50758e-03,-1.86904e-01,1.52471e-01,-1.64139e-01,-4.93377e-02,-8.78360e-02,9.13773e-03,5.83340e-02,2.72472e-02,-8.61303e-02,-1.92040e-01,-3.50549e-02,-4.98188e-02,-7.12665e-02,6.98281e-02,1.31903e-02,-8.34196e-02,1.98924e-03,1.70512e-02,-1.62616e-01,1.70522e-01,5.32501e-02,1.10116e-01,-1.21392e-01,-3.55438e-04,-1.13442e-01,-7.99527e-03,7.07150e-02,2.77415e-02,3.56105e-02,1.46530e-01,-6.70846e-02,7.22351e-02,4.46119e-02,1.24891e-01,7.06359e-02,-1.21902e-02,6.12297e-02,-6.25465e-02,-1.67737e-01,1.26094e-01,3.25500e-02,-2.58196e-03,-1.49652e-01,4.63848e-02,9.75698e-02,1.07059e-01,8.22645e-02,-5.44212e-02,1.73737e-02,-6.09238e-03,4.92153e-02,2.05047e-01,1.03732e-01,2.85425e-02,1.43096e-01,1.12286e-02,9.94603e-02,2.99784e-02,1.39376e-02,3.71222e-03,1.64504e-01,-1.06534e-01,-1.52899e-01,6.50193e-02,-6.85955e-02,-3.31819e-03,1.25021e-02,-1.16864e-01,1.63192e-01,1.46934e-01,1.93951e-01,9.78778e-02,1.30354e-01,-6.21672e-02,8.38757e-02,-9.51765e-02,-1.67435e-02,2.20755e-01,-8.30982e-02,6.70401e-02,-5.03105e-02,-5.41900e-02,-2.33840e-02,-2.45786e-02,-1.13495e-01,-4.58286e-02,-1.23085e-01,-5.81303e-02,5.98270e-02,4.49718e-02,-1.23837e-02,7.84144e-02,6.60732e-02,-1.72681e-02,-1.11995e-01,-7.12028e-02,3.24046e-02,3.52312e-02,2.77754e-02,-8.95135e-02,-7.70574e-02,-1.66618e-01,-1.51977e-01,-6.07012e-02,5.74771e-02,2.39752e-02,-3.70636e-02,1.65883e-01,-2.28057e-02,8.14320e-02,-6.00517e-02,1.43242e-01,1.48304e-03,-3.47977e-02,4.46140e-02,1.55846e-02,-6.56569e-02,-1.47475e-02,3.09050e-02,8.70666e-04,-1.78904e-01,8.17273e-02,-7.15118e-04,8.38401e-02,5.22873e-03,-1.48435e-01,8.32000e-02,-7.50319e-02,4.54611e-02,-2.57117e-02,1.23486e-01,7.10774e-02,6.11265e-03,-5.92605e-02,-3.17408e-02,-5.46206e-02,2.06762e-02,2.37056e-01,-1.72034e-03,1.27879e-01,1.36991e-01,1.19303e-01,-8.47818e-02,1.97998e-01,-7.14634e-03,1.09703e-01,1.56391e-01,1.91760e-01,5.01058e-02,4.99730e-02,2.40441e-01,3.97427e-02,-1.13981e-01,1.05898e-01,1.23074e-01,4.51463e-03,1.55620e-01,2.24475e-01,2.53095e-01,2.16945e-01,3.85430e-02,1.42339e-01,7.93559e-02,-1.20582e-01,-1.43067e-02,3.45898e-02,9.33325e-02,-1.01471e-01,-2.38658e-02,7.91414e-02,4.31086e-02,-5.86415e-03,4.43611e-02,-1.23451e-01,6.30586e-02,1.12928e-02,-4.77658e-02,-5.95216e-02,6.40268e-02,-2.65332e-03,-1.44218e-01,9.17914e-02,-3.15210e-02,-1.33534e-02,-2.90906e-02,7.76048e-02,3.69001e-02,5.73451e-02,1.94840e-02,-2.26010e-04,2.69670e-02,1.06634e-01,5.37194e-02,1.12814e-01,2.48092e-02,1.12862e-01,1.61250e-01,4.91639e-02,-2.94155e-02,-6.91696e-02,8.56205e-02,-3.63059e-02,-1.49714e-02,3.40942e-03,-7.87863e-02,1.06283e-01,5.72061e-02,3.00402e-02,1.51024e-01,1.15721e-03,-5.23451e-02,1.00507e-01,-1.25472e-01,1.32480e-01,6.95228e-02,9.61283e-02,2.04769e-02,1.48075e-01,-4.09180e-02,5.70122e-02,2.34519e-01,2.03594e-02,1.60255e-01,-9.61899e-02,2.80526e-01,9.90280e-02,2.36233e-01,-3.58383e-02,8.52620e-02,3.06399e-02,3.90776e-02,-9.85466e-02,3.90743e-02,2.36355e-02,6.65459e-02,-3.95353e-02,7.67548e-02,1.40297e-01,9.10946e-02,1.54707e-01,-3.18933e-02,2.39934e-01,2.60734e-02,-1.25990e-01,9.47973e-02,5.91248e-02,1.59858e-01,-1.14101e-01,8.82455e-02,3.92049e-02,6.77152e-02,4.27943e-03,-2.08674e-02,9.29161e-02,-1.61876e-02,-4.31158e-02,-5.95636e-02,7.05147e-02,-2.11257e-02,-1.71497e-01,-4.44106e-02,3.95499e-02,6.86642e-02,-1.26187e-01,-1.00501e-02,-7.17942e-02,7.32445e-02,-1.18654e-01,5.66131e-02,-1.14336e-02,-1.94692e-02,8.60097e-02,5.79966e-02,-1.61460e-01,9.26182e-02,6.20031e-02,2.68380e-02,8.23895e-02,1.34265e-04,-5.70699e-03,9.95019e-02,4.49974e-02,7.50843e-03,3.65101e-02,1.99436e-02,9.47812e-02,7.20624e-03,9.48486e-02,8.44499e-02,2.26472e-02,7.35425e-02,-1.09616e-02,9.49486e-02,1.85443e-02,-7.55662e-02,1.88171e-01,5.41705e-02,-7.89328e-02,4.67342e-02,1.99927e-01,5.03777e-02,5.54794e-02,1.32464e-01,6.12774e-03,1.41438e-01,7.44604e-02,1.43309e-01,1.57320e-01,8.64528e-02,9.67710e-02,6.50416e-04,2.67209e-02,5.70805e-02,-2.34363e-02,8.35206e-03,-6.32044e-02,-6.40797e-02,6.33647e-02,2.95832e-02,3.52250e-02,2.35217e-01,1.30244e-01,1.61292e-01,4.03826e-02,-5.46071e-02,1.07292e-01,2.43726e-02,1.35997e-01,4.67142e-02,1.93014e-01,-1.61795e-03,-3.67655e-02,2.86224e-02,-2.37248e-02,-6.43044e-02,3.96810e-02,2.71139e-02,-7.93545e-02,1.47544e-01,1.45448e-02,-9.24811e-02,1.06333e-01,8.38024e-02,-6.29748e-03,-1.04745e-01,2.43845e-02,5.75233e-02,4.56671e-02,1.51449e-01,-1.54286e-01,1.22221e-01,-4.22965e-02,-3.99434e-02,-1.62183e-01,-3.40888e-02,-1.31071e-01,3.38484e-02,-1.45467e-01,-8.28359e-02,4.64478e-02,5.21723e-02,1.20664e-01,-2.17242e-02,1.42197e-02,-2.66447e-02,7.41706e-02,1.34246e-01,6.01040e-02,6.28355e-03,7.19328e-02,-8.28804e-02,7.15149e-02,-5.73221e-02,-9.97477e-02,-2.46346e-02,-3.21361e-03,1.75331e-02,3.63313e-02,-7.32028e-02,-5.27580e-02,-8.72362e-03,-9.82783e-02,-1.10975e-02,-1.80025e-02,-1.07056e-01,4.62617e-02,1.46885e-01,-1.49908e-01,-2.39213e-02,7.13943e-02,-6.68559e-03,-5.48326e-02,-1.46818e-02,1.29740e-01,2.75721e-02,8.71905e-03,-1.50976e-02,8.35027e-03,-9.50737e-02,-1.40327e-01,1.46935e-01,2.97392e-02,-1.97396e-01,-5.04403e-02,6.80281e-02,-4.30873e-03,6.71824e-02,4.87687e-02,-3.55079e-02,1.54416e-01,-2.53722e-02,1.84890e-01,1.43704e-01,-3.84547e-02,-5.93936e-02,1.06255e-01,-5.21152e-02,8.14605e-02,-3.24174e-02,-8.66544e-02,-7.45562e-02,9.22118e-02,4.14783e-02,-6.53240e-02,-1.89925e-02,9.29765e-02,1.91067e-02,1.90558e-02,-8.87015e-02,-1.40049e-02,-1.22512e-01,-2.52578e-02,-1.34378e-01,-8.70892e-02,1.27807e-01,-1.10192e-01,-1.69786e-02,2.45655e-02,9.00863e-02,1.50099e-02,7.35319e-02,1.16615e-01,1.13487e-01,7.43172e-02,4.48353e-02,4.89869e-03,-2.69257e-02,4.80454e-02,-4.22994e-02,5.45535e-02,6.00883e-02,1.10882e-02,-7.84215e-02,3.35376e-02,1.23180e-01,8.08008e-02,4.57643e-02,-2.25189e-02,-2.19082e-02,-6.19912e-02,-1.18401e-01,-2.15706e-01,2.94612e-04,-2.88807e-01,-2.43380e-01,-9.32908e-02,-1.47239e-01,-2.08139e-01,-2.52571e-01,-8.40761e-02,-1.18698e-01,-1.12655e-01,-2.74047e-01,-2.41398e-01,-2.12544e-01,-1.52956e-01,-1.63997e-01,-1.40443e-02,-2.28627e-01,-2.68512e-01,-5.66441e-02,-1.09555e-01,-2.24192e-01,-1.08837e-01,-1.96200e-01,-3.40726e-01,-6.27087e-02,-7.77590e-02,-1.00653e-01,-9.64817e-02,1.61661e-01,-1.69618e-01,5.07390e-02,-1.21162e-01,9.29653e-02,6.20967e-02,4.35417e-02,-2.03011e-03,-1.30342e-02,-2.11343e-02,7.69409e-02,6.89946e-02,1.13765e-01,7.60676e-02,1.51822e-01,3.83843e-02,-4.34192e-02,3.51146e-02,-7.96401e-02,-5.29205e-02,1.13559e-01,-1.98216e-02,1.38816e-02,9.92004e-02,3.51842e-02,2.94821e-02,6.93386e-02,1.33827e-03,-1.40586e-01,1.04959e-01,-4.42280e-02,1.19046e-01,-1.22016e-02,-1.01289e-01,-2.99598e-02,7.50037e-02,1.70530e-02,-1.00945e-02,-9.63931e-02,3.29521e-02,1.14193e-01,8.60308e-02,8.41807e-02,-1.05431e-01,3.14799e-02,2.11556e-02,1.50087e-01,-9.66306e-02,6.99387e-02,-3.29866e-02,-3.45235e-02,-3.11764e-02,-4.37088e-02,1.59593e-02,-1.11514e-01,-4.95552e-02,-2.03707e-01,-2.91061e-01,-1.41611e-01,-1.38367e-01,-6.13920e-02,-2.70996e-01,-6.98511e-02,-2.35091e-01,-1.22314e-01,-1.63478e-01,-2.14205e-01,-1.81832e-01,-1.73422e-01,-2.43817e-01,-3.21610e-01,-1.66503e-01,-2.70911e-01,-3.64719e-01,-2.07124e-01,-3.93582e-01,-3.11063e-01,-1.97029e-01,-2.18898e-01,-2.72621e-01,-1.79478e-01,-1.56848e-01,-3.36953e-01,-1.23696e-01,-5.18966e-02,-3.18001e-01,9.82430e-03,5.38139e-02,9.66689e-02,3.87077e-02,1.97091e-01,1.41461e-01,3.07287e-02,2.13752e-01,-1.60721e-01,1.37835e-01,9.26849e-02,-2.19265e-02,1.21211e-03,-4.82113e-02,-6.41699e-02,2.30245e-02,-5.56146e-03,1.18886e-01,-3.24076e-02,4.73888e-02,5.42699e-02,-1.24769e-02,4.45941e-02,-2.03667e-02,1.20796e-01,-9.76201e-02,1.25645e-02,4.29809e-02,-1.82856e-02,-9.05196e-02,8.33868e-02,1.13636e-01,-1.18799e-01,9.69297e-02,4.13213e-02,8.24345e-02,-7.70851e-02,-9.31414e-02,-6.38021e-02,5.89343e-02,-1.71299e-02,-5.27400e-02,8.56949e-02,-1.42649e-01,-4.47169e-02,-1.40200e-01,8.70734e-02,-7.36005e-02,-9.04123e-02,-2.37876e-03,3.70442e-03,-1.22566e-01,-3.16563e-02,-1.14501e-01,-9.06715e-03,-8.59723e-02,1.10833e-02,-9.25711e-02,-6.95419e-02,-1.55116e-02,-4.74319e-02,-5.08695e-02,-1.51088e-01,-4.01120e-02,-6.09514e-02,2.00016e-04,-2.63745e-02,-4.53563e-02,-2.03744e-01,-4.22553e-02,-3.68099e-01,-1.76001e-01,-9.17926e-02,-1.33802e-01,-1.36406e-01,-2.26370e-01,-2.12194e-01,-3.87973e-01,-2.88584e-01,-3.23607e-01,-2.88317e-01,-1.52048e-01,-1.73513e-01,-1.54630e-01,-1.58327e-02,5.71467e-02,-5.56538e-02,-4.86528e-02,5.04148e-02,-3.15641e-02,5.44387e-02,-5.72903e-02,8.04047e-02,1.09668e-02,-1.98631e-01,3.40745e-02,4.88149e-02,-8.27500e-03,6.06656e-02,-7.97456e-02,-8.65208e-02,-7.87630e-02,-2.97747e-02,8.02768e-02,-1.25359e-01,-2.28286e-02,4.01599e-03,-6.48111e-02,5.92094e-02,3.77422e-02,-1.95479e-02,1.08614e-02,-4.79827e-03,6.87057e-02,4.81919e-02,3.32657e-03,6.89271e-03,-8.52327e-02,9.01851e-02,-3.94970e-02,-1.48690e-02,1.10702e-01,-1.16846e-01,1.26364e-04,-1.15924e-01,3.36461e-02,-7.39843e-02,-1.09918e-01,-1.38181e-02,-7.70388e-03,1.28257e-01,-3.81769e-03,-6.91420e-02,-2.63468e-03,-6.63778e-02,1.90137e-02,1.33816e-02,-1.50583e-01,-4.40429e-02,4.74676e-02,-7.29717e-02,-9.45425e-03,5.87879e-02,-8.41187e-03,-5.47505e-03,9.96363e-02,6.05606e-02,8.66801e-02,-4.53540e-02,-5.10209e-02,3.91332e-02,1.40524e-01,-6.69435e-02,7.14964e-02,-3.46087e-02,6.31872e-02,-1.16869e-01,-1.21652e-01,-1.40615e-01,3.31950e-02,-1.61545e-01,-1.89449e-02,-1.02420e-01,-3.23027e-01,-2.10635e-01,-2.52643e-01,-1.70218e-01,-8.45918e-02,-1.13474e-01,-2.11019e-01,-5.05066e-02,1.39181e-01,-1.19840e-01,1.49672e-01,-3.78307e-03,-3.08748e-02,8.24322e-02,-6.58739e-02,-2.92920e-02,7.75261e-02,-6.02749e-02,-1.08174e-01,1.12741e-01,1.40786e-01,-9.65180e-02,8.70975e-03,2.10648e-02,1.24336e-01,-1.59525e-03,-2.50084e-02,-1.41389e-01,1.38880e-01,7.28716e-02,1.08028e-02,8.32960e-02,-1.28991e-02,1.24178e-01,-5.91851e-02,2.85431e-02,7.09234e-02,-7.93508e-02,-5.84690e-02,-3.98265e-02,2.24415e-02,-7.16175e-02,-1.53490e-01,4.10046e-03,9.31033e-02,-6.39151e-02,1.33959e-01,7.27395e-02,9.47308e-02,1.66689e-01,-2.70429e-02,6.37685e-02,-7.94573e-03,6.20931e-02,-4.86019e-02,9.46980e-02,1.47485e-01,1.00488e-01,-1.01228e-01,1.39587e-01,-1.61660e-01,3.85433e-02,-1.72101e-01,1.24004e-01,-6.86621e-02,-1.44784e-01,-5.11997e-02,5.01458e-02,-6.23222e-03,5.19711e-02,8.54588e-02,9.20108e-02,-8.16887e-02,1.49890e-01,1.70255e-01,-6.92527e-02,6.03843e-02,9.43698e-03,-1.48113e-01,1.18951e-01,1.11374e-02,9.69980e-02,-1.31830e-01,-4.81584e-02,-2.46767e-01,-9.42417e-02,-1.51891e-02,-1.60106e-01,-3.27494e-01,-1.22149e-01,-1.88662e-01,-1.31127e-01,2.93202e-02,1.37377e-02,2.36778e-02,5.06554e-02,3.92066e-02,-9.69106e-02,9.32655e-02,2.35368e-03,2.02014e-03,5.44398e-03,5.54917e-02,3.96963e-02,3.77862e-02,-4.11333e-02,8.59325e-02,-1.60363e-01,-6.46220e-02,-4.20993e-02,-1.26023e-01,-1.24717e-01,4.23203e-02,6.33199e-02,6.58026e-02,3.28760e-02,5.01060e-02,2.59223e-02,-1.25194e-01,-1.18076e-01,4.65819e-03,8.01518e-02,3.29995e-02,-8.03013e-02,-1.70398e-01,1.35255e-01,2.11307e-03,3.07086e-02,1.04669e-04,4.33575e-02,-1.89964e-01,-3.63728e-02,4.50359e-02,-6.63270e-02,-6.86825e-02,-1.37367e-01,-8.86553e-02,-3.01718e-02,-4.18819e-02,-2.35017e-02,1.40270e-01,-1.23766e-01,-6.34885e-02,3.53458e-02,3.26138e-02,6.13985e-02,-1.39687e-02,2.13916e-02,-1.54337e-02,-1.43208e-01,2.26137e-03,-6.00713e-02,1.80627e-02,-1.09321e-01,3.10688e-02,1.96426e-02,2.72142e-02,1.75127e-01,1.08487e-01,5.18336e-02,-1.01500e-01,2.18028e-01,1.49419e-01,-2.21319e-02,-1.54865e-02,8.83757e-02,9.25245e-02,1.92523e-01,-7.60153e-02,1.56410e-02,-1.79309e-02,-1.17410e-01,-1.41134e-01,-3.14626e-02,2.27765e-02,-8.83262e-02,-1.03736e-02,-2.29080e-02,2.10141e-02,-5.59831e-02,-2.64398e-02,-1.18749e-01,5.73209e-02,1.13496e-01,2.39734e-02,-9.57383e-02,-3.89887e-02,1.01408e-01,5.04785e-02,-6.67352e-02,1.35446e-01,4.44334e-02,4.15179e-02,-1.61574e-01,1.94471e-01,-7.62768e-02,-5.09239e-02,3.11035e-02,-1.16248e-01,1.33187e-01,5.71346e-02,-1.16017e-01,4.30086e-02,7.83385e-02,-1.04790e-01,-3.17341e-03,-3.16117e-02,3.69384e-03,-3.64026e-02,-8.20529e-02,2.29298e-02,1.47205e-02,2.73402e-02,-3.06528e-02,-2.44862e-02,1.04430e-01,9.34177e-02,9.58286e-02,3.40434e-02,1.45570e-01,1.63866e-02,-4.82555e-02,-5.80886e-02,4.99491e-02,3.74262e-02,6.49113e-03,-1.65016e-02,-7.68719e-02,-1.02593e-01,-7.61611e-02,-4.98021e-02,-1.26934e-01,-1.91662e-02,-2.71922e-02,-2.65449e-02,2.01180e-02,-1.68917e-01,-5.73941e-02,-8.84094e-03,7.23486e-02,1.13280e-01,2.20291e-01,1.32593e-01,5.49934e-02,-1.02742e-02,-7.87924e-02,1.25213e-02,-4.93671e-02,-8.38586e-02,6.20126e-02,1.20772e-01,-9.51211e-02,-6.61367e-02,4.43760e-02,1.37693e-02,-8.95671e-02,7.51187e-02,7.05940e-02,1.02926e-01,-3.54838e-02,1.28599e-01,8.07513e-02,7.95354e-02,1.63019e-02,-6.35998e-02,-8.12266e-02,1.15970e-01,1.84791e-02,-3.60128e-03,-1.56232e-02,2.10437e-01,-1.23729e-02,9.09558e-02,-1.96677e-01,-1.67220e-02,-5.80254e-02,-2.98230e-03,7.31832e-02,1.28676e-03,-6.77901e-02,-1.73326e-01,3.43944e-03,-1.09369e-01,-2.47206e-01,-1.53264e-01,-3.08701e-01,-2.90797e-02,-4.74851e-02,-2.77817e-02,-2.58702e-01,6.03885e-02,-1.29868e-02,-2.10588e-01,-1.41133e-01,-1.86574e-01,7.28217e-02,-1.18219e-01,-2.35447e-02,5.86808e-03,2.89517e-02,6.50817e-02,-1.66038e-01,-2.97773e-02,8.26850e-03,1.08965e-01,5.49521e-02,-1.43797e-02,-6.57234e-02,2.36586e-02,-2.04725e-02,-6.89120e-02,2.83433e-02,-6.40063e-02,7.25329e-02,-1.03270e-01,-7.48576e-02,-2.18504e-01,-8.32836e-02,1.34562e-01,-5.74935e-02,-5.08850e-03,6.26423e-02,-2.02729e-02,-5.41213e-02,-3.24284e-02,2.16685e-02,1.21040e-01,2.01099e-02,3.50685e-02,-6.52249e-02,1.32055e-02,1.71734e-01,4.94109e-02,-8.74461e-02,1.41190e-01,7.87677e-02,-5.67256e-02,-2.49559e-02,-9.21861e-02,7.13993e-02,-5.49256e-02,1.02650e-01,3.63970e-02,-3.31436e-02,-6.59576e-03,-8.24971e-02,-3.77132e-02,7.34565e-02,-2.86244e-02,-2.56036e-02,8.73099e-02,2.64797e-02,1.09510e-02,1.26816e-02,8.48365e-02,-6.21483e-02,6.17427e-02,-1.22314e-01,-6.63397e-02,-2.04293e-01,1.45463e-01,2.44146e-02,3.61146e-02,6.49391e-02,-2.55859e-02,-5.01163e-02,-9.03955e-02,-1.28467e-01,-6.75972e-02,1.58687e-02,-6.50211e-02,-9.90336e-02,-4.67484e-02,-1.05906e-01,-1.62144e-02,-3.11439e-02,-1.51894e-01,-1.77074e-01,-2.22088e-01,-1.21121e-01,-7.57699e-02,-1.49442e-01,-2.53434e-01,-1.20466e-02,-6.49299e-02,7.43393e-02,-1.11587e-01,3.52330e-02,-2.19563e-02,-1.15177e-01,-1.26579e-01,-4.13359e-02,-1.49752e-01,-1.66533e-01,-1.50632e-01,-1.58511e-01,6.02412e-02,-1.47425e-01,1.83545e-02,2.37493e-02,3.01361e-02,-7.44822e-02,6.99518e-02,1.14042e-01,-2.94104e-02,-6.53615e-02,1.63675e-01,1.33009e-02,-5.04153e-02,1.71211e-01,6.73817e-02,1.31959e-01,7.83380e-02,1.27061e-01,1.90332e-01,1.03355e-01,-4.01161e-02,1.62279e-01,-8.26843e-02,-3.78062e-02,6.03335e-02,7.17878e-02,1.30240e-01,-8.74688e-02,-4.20722e-02,1.24685e-02,4.16773e-02,-1.92857e-02,5.87373e-02,-4.61996e-02,-6.64757e-02,7.49163e-02,3.33923e-03,1.45861e-01,5.65723e-02,-1.30414e-01,-4.68572e-02,1.19829e-01,2.13105e-02,-6.38991e-02,4.01794e-02,-1.16806e-01,1.62190e-01,7.87481e-03,-1.07542e-01,9.98049e-02,9.08129e-02,-4.62695e-02,-7.60986e-02,2.13327e-01,-1.85232e-02,3.68213e-02,-1.20585e-01,-5.86532e-02,-8.15936e-02,-1.12342e-02,-2.69247e-01,-5.98022e-02,-2.29275e-01,-2.10493e-01,-2.16837e-01,-1.27880e-01,-8.67463e-03,-1.77062e-01,-6.39679e-02,-6.82918e-02,-2.41300e-01,-2.27819e-01,-2.00048e-01,1.22044e-02,-3.15677e-02,-2.01970e-01,-9.40418e-02,-2.44921e-03,-2.27772e-01,-1.13078e-01,-3.99582e-02,2.59234e-02,2.65069e-02,-1.07533e-01,-1.08227e-01,3.30284e-02,1.67491e-02,1.74860e-02,1.05663e-03,-2.07927e-02,1.58637e-02,2.04164e-01,-1.77077e-01,1.95059e-01,-7.78941e-02,8.89451e-02,1.64833e-01,2.94239e-02,9.77202e-02,-2.47873e-02,3.28265e-02,-1.34420e-01,9.21245e-02,7.74361e-02,4.83056e-02,-1.14584e-01,8.59986e-03,-1.50480e-01,1.27360e-01,-1.30511e-01,3.08497e-02,-1.01683e-02,1.76984e-01,1.71063e-01,-1.07883e-01,-5.88994e-02,-1.53516e-01,2.36800e-02,1.22970e-01,-3.93230e-02,-8.14492e-02,2.80986e-02,1.18674e-01,-8.81733e-02,4.30275e-02,1.27610e-01,-1.50543e-01,-6.02977e-02,-3.84945e-02,-8.72854e-02,-7.50377e-02,1.19954e-01,-2.47498e-02,-7.53896e-05,1.42186e-01,1.43682e-01,3.81856e-02,5.19461e-02,-2.72815e-02,1.10853e-02,-4.39413e-02,-1.71878e-02,-1.15799e-01,-1.31788e-01,-2.63609e-02,-5.03688e-02,-7.35871e-02,-1.37930e-01,1.06283e-02,-3.88029e-02,-6.42768e-02,1.82770e-02,-1.62712e-01,5.64506e-02,-5.07700e-02,-1.52291e-01,-1.63005e-01,-1.44819e-01,-1.43387e-01,-6.96176e-02,-1.10566e-01,-1.12725e-01,-1.36233e-04,-2.68071e-01,-6.12493e-02,6.00754e-02,-8.34222e-02,3.31890e-02,3.32692e-03,7.41167e-03,2.11904e-02,-1.46649e-01,3.96317e-02,-8.90953e-02,1.29789e-01,2.77221e-02,-7.39586e-03,7.88950e-02,-2.19392e-02,-8.52850e-02,-9.67187e-04,-2.06796e-02,7.97651e-02,6.94027e-02,-2.50210e-02,3.55503e-03,-8.13308e-03,1.79392e-01,-8.65470e-03,2.01677e-01,-2.71205e-02,7.42130e-02,5.71130e-03,1.39242e-01,-1.09631e-01,1.06545e-01,1.34037e-02,1.50411e-01,-5.60400e-02,-5.59397e-02,-9.21603e-02,-5.50901e-02,-1.53899e-01,1.57269e-01,9.16604e-04,1.55834e-02,7.46413e-04,1.56685e-01,1.53520e-01,-1.89899e-01,4.95093e-02,-1.06745e-02,-2.12211e-02,-1.34499e-02,-3.56119e-02,-9.97024e-03,3.96766e-02,3.31521e-02,2.30351e-02,2.34071e-01,1.28232e-01,1.52064e-01,2.22263e-02,-1.53421e-02,-4.18978e-02,-2.23126e-02,-1.56302e-01,8.56881e-02,6.26326e-02,2.39441e-02,-9.15867e-02,-8.26311e-02,7.48022e-02,1.16419e-02,6.88431e-02,-6.74441e-02,-1.03593e-01,2.38350e-02,-1.98473e-01,4.05385e-02,-6.81963e-02,2.49047e-02,6.12864e-02,1.52234e-01,-4.54254e-03,4.81669e-02,-5.68253e-02,-7.94857e-02,-1.40307e-01,3.91981e-02,1.30973e-01,-1.05453e-01,-5.41732e-02,-3.23390e-02,4.11156e-03,1.27423e-01,-2.87294e-02,-1.42893e-02,1.52469e-01,1.17672e-01,5.52472e-02,4.13393e-03,6.51013e-02,2.02577e-01,-2.04031e-02,1.08303e-01,1.43478e-01,1.35322e-01,1.12775e-01,4.10027e-02,6.79556e-02,6.24031e-02,2.65536e-02,4.78751e-02,1.98895e-01,-2.68763e-02,1.25438e-01,1.49550e-01,8.98480e-03,-8.48826e-03,-1.76986e-01,1.50411e-01,1.76898e-02,-1.28573e-01,-5.66631e-02,1.36032e-01,4.33704e-02,1.14118e-01,-1.63816e-01,6.15807e-03,-1.64716e-01,-5.77609e-03,4.72272e-02,-8.52867e-02,-4.50422e-02,-7.42112e-02,-6.10638e-02,2.04266e-01,1.56423e-01,-4.52006e-03,-8.95974e-02,6.81941e-02,-8.43548e-02,1.53193e-01,-8.46494e-02,-9.54946e-03,1.12389e-02,1.21672e-01,3.92480e-02,5.85264e-02,-1.29691e-02,-4.37159e-02,9.85843e-02,1.85603e-01,-3.39808e-02,8.82623e-02,-7.21563e-02,-4.63977e-02,-2.39052e-02,5.28543e-02,8.90326e-02,-4.71652e-02,1.00722e-01,-5.50538e-02,1.07521e-01,-1.37113e-02,9.08176e-02,1.20925e-02,5.44575e-02,-1.30598e-01,-6.31210e-03,1.73183e-01,2.43284e-01,-2.32385e-02,5.01215e-02,1.32691e-01,-1.17646e-01,-6.71840e-03,1.09545e-01,1.03214e-01,1.06415e-02,5.77373e-03,-1.47813e-01,-1.09601e-01,5.06385e-02,2.82588e-02,1.21797e-01,-2.59532e-02,-8.75242e-03,-2.01447e-02,-9.27201e-03,2.86807e-02,-1.31498e-01,1.32239e-01,-5.12109e-03,1.13597e-02,-7.75674e-02,-7.36952e-03,2.08991e-02,-1.96765e-02,3.60266e-02,1.38101e-01,-1.07791e-01,-4.79361e-02,-1.35915e-01,1.14700e-01,4.84859e-02,-1.48235e-01,-1.14808e-02,6.37420e-02,3.93158e-02,2.54637e-02,-7.45914e-03,1.06991e-01,1.59982e-02,1.27167e-01,-9.33152e-02,-1.51023e-02,-7.38652e-03,8.92445e-02,9.59312e-02,-2.68587e-02,-3.90371e-02,9.40507e-02,-2.76323e-02,9.58540e-02,4.46246e-02,-7.23664e-02,3.13315e-02,-2.14316e-02,-1.67871e-02,-1.40881e-01,3.28386e-02,7.26200e-02,-3.99786e-02,3.30550e-02,5.66910e-02,2.04777e-01,-1.49565e-01,1.05351e-01,-9.14554e-02,3.01017e-02,