// Neural Network File Format by Kyle Julian, Stanford 2016
7,2352,10,2352,
2352,50,50,50,50,50,50,10,
0,
0,0,0,0,0,0,0,0,0,0,0,0,0,0,0,0,0,0,0,0,0,0,0,0,0,0,0,0,0,0,0,0,0,0,0,0,0,0,0,0,0,0,0,0,0,0,0,0,0,0,0,0,0,0,0,0,0,0,0,0,0,0,0,0,0,0,0,0,0,0,0,0,0,0,0,0,0,0,0,0,0,0,0,0,0,0,0,0,0,0,0,0,0,0,0,0,0,0,0,0,0,0,0,0,0,0,0,0,0,0,0,0,0,0,0,0,0,0,0,0,0,0,0,0,0,0,0,0,0,0,0,0,0,0,0,0,0,0,0,0,0,0,0,0,0,0,0,0,0,0,0,0,0,0,0,0,0,0,0,0,0,0,0,0,0,0,0,0,0,0,0,0,0,0,0,0,0,0,0,0,0,0,0,0,0,0,0,0,0,0,0,0,0,0,0,0,0,0,0,0,0,0,0,0,0,0,0,0,0,0,0,0,0,0,0,0,0,0,0,0,0,0,0,0,0,0,0,0,0,0,0,0,0,0,0,0,0,0,0,0,0,0,0,0,0,0,0,0,0,0,0,0,0,0,0,0,0,0,0,0,0,0,0,0,0,0,0,0,0,0,0,0,0,0,0,0,0,0,0,0,0,0,0,0,0,0,0,0,0,0,0,0,0,0,0,0,0,0,0,0,0,0,0,0,0,0,0,0,0,0,0,0,0,0,0,0,0,0,0,0,0,0,0,0,0,0,0,0,0,0,0,0,0,0,0,0,0,0,0,0,0,0,0,0,0,0,0,0,0,0,0,0,0,0,0,0,0,0,0,0,0,0,0,0,0,0,0,0,0,0,0,0,0,0,0,0,0,0,0,0,0,0,0,0,0,0,0,0,0,0,0,0,0,0,0,0,0,0,0,0,0,0,0,0,0,0,0,0,0,0,0,0,0,0,0,0,0,0,0,0,0,0,0,0,0,0,0,0,0,0,0,0,0,0,0,0,0,0,0,0,0,0,0,0,0,0,0,0,0,0,0,0,0,0,0,0,0,0,0,0,0,0,0,0,0,0,0,0,0,0,0,0,0,0,0,0,0,0,0,0,0,0,0,0,0,0,0,0,0,0,0,0,0,0,0,0,0,0,0,0,0,0,0,0,0,0,0,0,0,0,0,0,0,0,0,0,0,0,0,0,0,0,0,0,0,0,0,0,0,0,0,0,0,0,0,0,0,0,0,0,0,0,0,0,0,0,0,0,0,0,0,0,0,0,0,0,0,0,0,0,0,0,0,0,0,0,0,0,0,0,0,0,0,0,0,0,0,0,0,0,0,0,0,0,0,0,0,0,0,0,0,0,0,0,0,0,0,0,0,0,0,0,0,0,0,0,0,0,0,0,0,0,0,0,0,0,0,0,0,0,0,0,0,0,0,0,0,0,0,0,0,0,0,0,0,0,0,0,0,0,0,0,0,0,0,0,0,0,0,0,0,0,0,0,0,0,0,0,0,0,0,0,0,0,0,0,0,0,0,0,0,0,0,0,0,0,0,0,0,0,0,0,0,0,0,0,0,0,0,0,0,0,0,0,0,0,0,0,0,0,0,0,0,0,0,0,0,0,0,0,0,0,0,0,0,0,0,0,0,0,0,0,0,0,0,0,0,0,0,0,0,0,0,0,0,0,0,0,0,0,0,0,0,0,0,0,0,0,0,0,0,0,0,0,0,0,0,0,0,0,0,0,0,0,0,0,0,0,0,0,0,0,0,0,0,0,0,0,0,0,0,0,0,0,0,0,0,0,0,0,0,0,0,0,0,0,0,0,0,0,0,0,0,0,0,0,0,0,0,0,0,0,0,0,0,0,0,0,0,0,0,0,0,0,0,0,0,0,0,0,0,0,0,0,0,0,0,0,0,0,0,0,0,0,0,0,0,0,0,0,0,0,0,0,0,0,0,0,0,0,0,0,0,0,0,0,0,0,0,0,0,0,0,0,0,0,0,0,0,0,0,0,0,0,0,0,0,0,0,0,0,0,0,0,0,0,0,0,0,0,0,0,0,0,0,0,0,0,0,0,0,0,0,0,0,0,0,0,0,0,0,0,0,0,0,0,0,0,0,0,0,0,0,0,0,0,0,0,0,0,0,0,0,0,0,0,0,0,0,0,0,0,0,0,0,0,0,0,0,0,0,0,0,0,0,0,0,0,0,0,0,0,0,0,0,0,0,0,0,0,0,0,0,0,0,0,0,0,0,0,0,0,0,0,0,0,0,0,0,0,0,0,0,0,0,0,0,0,0,0,0,0,0,0,0,0,0,0,0,0,0,0,0,0,0,0,0,0,0,0,0,0,0,0,0,0,0,0,0,0,0,0,0,0,0,0,0,0,0,0,0,0,0,0,0,0,0,0,0,0,0,0,0,0,0,0,0,0,0,0,0,0,0,0,0,0,0,0,0,0,0,0,0,0,0,0,0,0,0,0,0,0,0,0,0,0,0,0,0,0,0,0,0,0,0,0,0,0,0,0,0,0,0,0,0,0,0,0,0,0,0,0,0,0,0,0,0,0,0,0,0,0,0,0,0,0,0,0,0,0,0,0,0,0,0,0,0,0,0,0,0,0,0,0,0,0,0,0,0,0,0,0,0,0,0,0,0,0,0,0,0,0,0,0,0,0,0,0,0,0,0,0,0,0,0,0,0,0,0,0,0,0,0,0,0,0,0,0,0,0,0,0,0,0,0,0,0,0,0,0,0,0,0,0,0,0,0,0,0,0,0,0,0,0,0,0,0,0,0,0,0,0,0,0,0,0,0,0,0,0,0,0,0,0,0,0,0,0,0,0,0,0,0,0,0,0,0,0,0,0,0,0,0,0,0,0,0,0,0,0,0,0,0,0,0,0,0,0,0,0,0,0,0,0,0,0,0,0,0,0,0,0,0,0,0,0,0,0,0,0,0,0,0,0,0,0,0,0,0,0,0,0,0,0,0,0,0,0,0,0,0,0,0,0,0,0,0,0,0,0,0,0,0,0,0,0,0,0,0,0,0,0,0,0,0,0,0,0,0,0,0,0,0,0,0,0,0,0,0,0,0,0,0,0,0,0,0,0,0,0,0,0,0,0,0,0,0,0,0,0,0,0,0,0,0,0,0,0,0,0,0,0,0,0,0,0,0,0,0,0,0,0,0,0,0,0,0,0,0,0,0,0,0,0,0,0,0,0,0,0,0,0,0,0,0,0,0,0,0,0,0,0,0,0,0,0,0,0,0,0,0,0,0,0,0,0,0,0,0,0,0,0,0,0,0,0,0,0,0,0,0,0,0,0,0,0,0,0,0,0,0,0,0,0,0,0,0,0,0,0,0,0,0,0,0,0,0,0,0,0,0,0,0,0,0,0,0,0,0,0,0,0,0,0,0,0,0,0,0,0,0,0,0,0,0,0,0,0,0,0,0,0,0,0,0,0,0,0,0,0,0,0,0,0,0,0,0,0,0,0,0,0,0,0,0,0,0,0,0,0,0,0,0,0,0,0,0,0,0,0,0,0,0,0,0,0,0,0,0,0,0,0,0,0,0,0,0,0,0,0,0,0,0,0,0,0,0,0,0,0,0,0,0,0,0,0,0,0,0,0,0,0,0,0,0,0,0,0,0,0,0,0,0,0,0,0,0,0,0,0,0,0,0,0,0,0,0,0,0,0,0,0,0,0,0,0,0,0,0,0,0,0,0,0,0,0,0,0,0,0,0,0,0,0,0,0,0,0,0,0,0,0,0,0,0,0,0,0,0,0,0,0,0,0,0,0,0,0,0,0,0,0,0,0,0,0,0,0,0,0,0,0,0,0,0,0,0,0,0,0,0,0,0,0,0,0,0,0,0,0,0,0,0,0,0,0,0,0,0,0,0,0,0,0,0,0,0,0,0,0,0,0,0,0,0,0,0,0,0,0,0,0,0,0,0,0,0,0,0,0,0,0,0,0,0,0,0,0,0,0,0,0,0,0,0,0,0,0,0,0,0,0,0,0,0,0,0,0,0,0,0,0,0,0,0,0,0,0,0,0,0,0,0,0,0,0,0,0,0,0,0,0,0,0,0,0,0,0,0,0,0,0,0,0,0,0,0,0,0,0,0,0,0,0,0,0,0,0,0,0,0,0,0,0,0,0,0,0,0,0,0,0,0,0,0,0,0,0,0,0,0,0,0,0,0,0,0,0,0,0,0,0,0,0,0,0,0,0,0,0,0,0,0,0,0,0,0,0,0,0,0,0,0,0,0,0,0,0,0,0,0,0,0,0,0,0,0,0,0,0,0,0,0,0,0,0,0,0,0,0,0,0,0,0,0,0,0,0,0,0,0,0,0,0,0,0,0,0,0,0,0,0,0,0,0,0,0,0,0,0,0,0,0,0,0,0,0,0,0,0,0,0,0,0,0,0,0,0,0,0,0,0,0,0,0,0,0,0,0,0,0,0,0,0,0,0,0,0,0,0,0,0,0,0,0,0,0,0,0,0,0,0,0,0,0,0,0,0,0,0,0,0,0,0,0,0,0,0,0,0,0,0,0,0,0,0,0,0,0,0,0,0,0,0,0,0,0,0,0,0,0,0,0,0,0,0,0,0,0,0,0,0,0,0,0,0,0,0,0,0,0,0,0,0,0,0,0,0,0,0,0,0,0,0,0,0,0,0,0,0,0,0,0,0,0,0,0,0,0,0,0,0,0,0,0,0,0,0,0,0,0,0,0,0,0,0,0,0,0,0,0,0,0,0,0,0,0,0,0,0,0,0,0,0,0,0,0,0,0,0,0,0,0,0,0,0,0,0,0,0,0,0,0,0,0,0,0,0,0,0,0,0,0,0,0,0,0,0,0,0,0,0,0,0,0,0,0,0,0,0,0,0,0,0,0,0,0,0,0,0,0,0,0,0,0,0,0,0,0,0,0,0,0,0,0,0,0,0,0,0,0,0,0,0,0,0,0,0,0,0,0,0,0,0,0,0,0,0,0,0,0,0,0,0,0,0,0,0,0,0,0,0,0,0,0,0,0,0,0,0,0,0,0,0,0,0,0,0,0,0,0,0,0,0,0,0,0,0,0,0,0,0,0,0,0,0,0,0,0,0,0,0,0,0,0,0,0,0,0,0,0,0,0,0,0,0,0,0,0,0,0,0,0,0,0,0,0,0,0,0,0,0,0,0,0,0,0,0,0,0,0,0,0,0,0,0,0,0,0,0,0,0,0,0,0,0,0,0,0,0,0,0,0,0,0,0,0,0,0,0,0,0,0,0,0,0,0,0,0,0,0,0,0,0,0,0,0,0,0,0,0,0,
255.0,255.0,255.0,255.0,255.0,255.0,255.0,255.0,255.0,255.0,255.0,255.0,255.0,255.0,255.0,255.0,255.0,255.0,255.0,255.0,255.0,255.0,255.0,255.0,255.0,255.0,255.0,255.0,255.0,255.0,255.0,255.0,255.0,255.0,255.0,255.0,255.0,255.0,255.0,255.0,255.0,255.0,255.0,255.0,255.0,255.0,255.0,255.0,255.0,255.0,255.0,255.0,255.0,255.0,255.0,255.0,255.0,255.0,255.0,255.0,255.0,255.0,255.0,255.0,255.0,255.0,255.0,255.0,255.0,255.0,255.0,255.0,255.0,255.0,255.0,255.0,255.0,255.0,255.0,255.0,255.0,255.0,255.0,255.0,255.0,255.0,255.0,255.0,255.0,255.0,255.0,255.0,255.0,255.0,255.0,255.0,255.0,255.0,255.0,255.0,255.0,255.0,255.0,255.0,255.0,255.0,255.0,255.0,255.0,255.0,255.0,255.0,255.0,255.0,255.0,255.0,255.0,255.0,255.0,255.0,255.0,255.0,255.0,255.0,255.0,255.0,255.0,255.0,255.0,255.0,255.0,255.0,255.0,255.0,255.0,255.0,255.0,255.0,255.0,255.0,255.0,255.0,255.0,255.0,255.0,255.0,255.0,255.0,255.0,255.0,255.0,255.0,255.0,255.0,255.0,255.0,255.0,255.0,255.0,255.0,255.0,255.0,255.0,255.0,255.0,255.0,255.0,255.0,255.0,255.0,255.0,255.0,255.0,255.0,255.0,255.0,255.0,255.0,255.0,255.0,255.0,255.0,255.0,255.0,255.0,255.0,255.0,255.0,255.0,255.0,255.0,255.0,255.0,255.0,255.0,255.0,255.0,255.0,255.0,255.0,255.0,255.0,255.0,255.0,255.0,255.0,255.0,255.0,255.0,255.0,255.0,255.0,255.0,255.0,255.0,255.0,255.0,255.0,255.0,255.0,255.0,255.0,255.0,255.0,255.0,255.0,255.0,255.0,255.0,255.0,255.0,255.0,255.0,255.0,255.0,255.0,255.0,255.0,255.0,255.0,255.0,255.0,255.0,255.0,255.0,255.0,255.0,255.0,255.0,255.0,255.0,255.0,255.0,255.0,255.0,255.0,255.0,255.0,255.0,255.0,255.0,255.0,255.0,255.0,255.0,255.0,255.0,255.0,255.0,255.0,255.0,255.0,255.0,255.0,255.0,255.0,255.0,255.0,255.0,255.0,255.0,255.0,255.0,255.0,255.0,255.0,255.0,255.0,255.0,255.0,255.0,255.0,255.0,255.0,255.0,255.0,255.0,255.0,255.0,255.0,255.0,255.0,255.0,255.0,255.0,255.0,255.0,255.0,255.0,255.0,255.0,255.0,255.0,255.0,255.0,255.0,255.0,255.0,255.0,255.0,255.0,255.0,255.0,255.0,255.0,255.0,255.0,255.0,255.0,255.0,255.0,255.0,255.0,255.0,255.0,255.0,255.0,255.0,255.0,255.0,255.0,255.0,255.0,255.0,255.0,255.0,255.0,255.0,255.0,255.0,255.0,255.0,255.0,255.0,255.0,255.0,255.0,255.0,255.0,255.0,255.0,255.0,255.0,255.0,255.0,255.0,255.0,255.0,255.0,255.0,255.0,255.0,255.0,255.0,255.0,255.0,255.0,255.0,255.0,255.0,255.0,255.0,255.0,255.0,255.0,255.0,255.0,255.0,255.0,255.0,255.0,255.0,255.0,255.0,255.0,255.0,255.0,255.0,255.0,255.0,255.0,255.0,255.0,255.0,255.0,255.0,255.0,255.0,255.0,255.0,255.0,255.0,255.0,255.0,255.0,255.0,255.0,255.0,255.0,255.0,255.0,255.0,255.0,255.0,255.0,255.0,255.0,255.0,255.0,255.0,255.0,255.0,255.0,255.0,255.0,255.0,255.0,255.0,255.0,255.0,255.0,255.0,255.0,255.0,255.0,255.0,255.0,255.0,255.0,255.0,255.0,255.0,255.0,255.0,255.0,255.0,255.0,255.0,255.0,255.0,255.0,255.0,255.0,255.0,255.0,255.0,255.0,255.0,255.0,255.0,255.0,255.0,255.0,255.0,255.0,255.0,255.0,255.0,255.0,255.0,255.0,255.0,255.0,255.0,255.0,255.0,255.0,255.0,255.0,255.0,255.0,255.0,255.0,255.0,255.0,255.0,255.0,255.0,255.0,255.0,255.0,255.0,255.0,255.0,255.0,255.0,255.0,255.0,255.0,255.0,255.0,255.0,255.0,255.0,255.0,255.0,255.0,255.0,255.0,255.0,255.0,255.0,255.0,255.0,255.0,255.0,255.0,255.0,255.0,255.0,255.0,255.0,255.0,255.0,255.0,255.0,255.0,255.0,255.0,255.0,255.0,255.0,255.0,255.0,255.0,255.0,255.0,255.0,255.0,255.0,255.0,255.0,255.0,255.0,255.0,255.0,255.0,255.0,255.0,255.0,255.0,255.0,255.0,255.0,255.0,255.0,255.0,255.0,255.0,255.0,255.0,255.0,255.0,255.0,255.0,255.0,255.0,255.0,255.0,255.0,255.0,255.0,255.0,255.0,255.0,255.0,255.0,255.0,255.0,255.0,255.0,255.0,255.0,255.0,255.0,255.0,255.0,255.0,255.0,255.0,255.0,255.0,255.0,255.0,255.0,255.0,255.0,255.0,255.0,255.0,255.0,255.0,255.0,255.0,255.0,255.0,255.0,255.0,255.0,255.0,255.0,255.0,255.0,255.0,255.0,255.0,255.0,255.0,255.0,255.0,255.0,255.0,255.0,255.0,255.0,255.0,255.0,255.0,255.0,255.0,255.0,255.0,255.0,255.0,255.0,255.0,255.0,255.0,255.0,255.0,255.0,255.0,255.0,255.0,255.0,255.0,255.0,255.0,255.0,255.0,255.0,255.0,255.0,255.0,255.0,255.0,255.0,255.0,255.0,255.0,255.0,255.0,255.0,255.0,255.0,255.0,255.0,255.0,255.0,255.0,255.0,255.0,255.0,255.0,255.0,255.0,255.0,255.0,255.0,255.0,255.0,255.0,255.0,255.0,255.0,255.0,255.0,255.0,255.0,255.0,255.0,255.0,255.0,255.0,255.0,255.0,255.0,255.0,255.0,255.0,255.0,255.0,255.0,255.0,255.0,255.0,255.0,255.0,255.0,255.0,255.0,255.0,255.0,255.0,255.0,255.0,255.0,255.0,255.0,255.0,255.0,255.0,255.0,255.0,255.0,255.0,255.0,255.0,255.0,255.0,255.0,255.0,255.0,255.0,255.0,255.0,255.0,255.0,255.0,255.0,255.0,255.0,255.0,255.0,255.0,255.0,255.0,255.0,255.0,255.0,255.0,255.0,255.0,255.0,255.0,255.0,255.0,255.0,255.0,255.0,255.0,255.0,255.0,255.0,255.0,255.0,255.0,255.0,255.0,255.0,255.0,255.0,255.0,255.0,255.0,255.0,255.0,255.0,255.0,255.0,255.0,255.0,255.0,255.0,255.0,255.0,255.0,255.0,255.0,255.0,255.0,255.0,255.0,255.0,255.0,255.0,255.0,255.0,255.0,255.0,255.0,255.0,255.0,255.0,255.0,255.0,255.0,255.0,255.0,255.0,255.0,255.0,255.0,255.0,255.0,255.0,255.0,255.0,255.0,255.0,255.0,255.0,255.0,255.0,255.0,255.0,255.0,255.0,255.0,255.0,255.0,255.0,255.0,255.0,255.0,255.0,255.0,255.0,255.0,255.0,255.0,255.0,255.0,255.0,255.0,255.0,255.0,255.0,255.0,255.0,255.0,255.0,255.0,255.0,255.0,255.0,255.0,255.0,255.0,255.0,255.0,255.0,255.0,255.0,255.0,255.0,255.0,255.0,255.0,255.0,255.0,255.0,255.0,255.0,255.0,255.0,255.0,255.0,255.0,255.0,255.0,255.0,255.0,255.0,255.0,255.0,255.0,255.0,255.0,255.0,255.0,255.0,255.0,255.0,255.0,255.0,255.0,255.0,255.0,255.0,255.0,255.0,255.0,255.0,255.0,255.0,255.0,255.0,255.0,255.0,255.0,255.0,255.0,255.0,255.0,255.0,255.0,255.0,255.0,255.0,255.0,255.0,255.0,255.0,255.0,255.0,255.0,255.0,255.0,255.0,255.0,255.0,255.0,255.0,255.0,255.0,255.0,255.0,255.0,255.0,255.0,255.0,255.0,255.0,255.0,255.0,255.0,255.0,255.0,255.0,255.0,255.0,255.0,255.0,255.0,255.0,255.0,255.0,255.0,255.0,255.0,255.0,255.0,255.0,255.0,255.0,255.0,255.0,255.0,255.0,255.0,255.0,255.0,255.0,255.0,255.0,255.0,255.0,255.0,255.0,255.0,255.0,255.0,255.0,255.0,255.0,255.0,255.0,255.0,255.0,255.0,255.0,255.0,255.0,255.0,255.0,255.0,255.0,255.0,255.0,255.0,255.0,255.0,255.0,255.0,255.0,255.0,255.0,255.0,255.0,255.0,255.0,255.0,255.0,255.0,255.0,255.0,255.0,255.0,255.0,255.0,255.0,255.0,255.0,255.0,255.0,255.0,255.0,255.0,255.0,255.0,255.0,255.0,255.0,255.0,255.0,255.0,255.0,255.0,255.0,255.0,255.0,255.0,255.0,255.0,255.0,255.0,255.0,255.0,255.0,255.0,255.0,255.0,255.0,255.0,255.0,255.0,255.0,255.0,255.0,255.0,255.0,255.0,255.0,255.0,255.0,255.0,255.0,255.0,255.0,255.0,255.0,255.0,255.0,255.0,255.0,255.0,255.0,255.0,255.0,255.0,255.0,255.0,255.0,255.0,255.0,255.0,255.0,255.0,255.0,255.0,255.0,255.0,255.0,255.0,255.0,255.0,255.0,255.0,255.0,255.0,255.0,255.0,255.0,255.0,255.0,255.0,255.0,255.0,255.0,255.0,255.0,255.0,255.0,255.0,255.0,255.0,255.0,255.0,255.0,255.0,255.0,255.0,255.0,255.0,255.0,255.0,255.0,255.0,255.0,255.0,255.0,255.0,255.0,255.0,255.0,255.0,255.0,255.0,255.0,255.0,255.0,255.0,255.0,255.0,255.0,255.0,255.0,255.0,255.0,255.0,255.0,255.0,255.0,255.0,255.0,255.0,255.0,255.0,255.0,255.0,255.0,255.0,255.0,255.0,255.0,255.0,255.0,255.0,255.0,255.0,255.0,255.0,255.0,255.0,255.0,255.0,255.0,255.0,255.0,255.0,255.0,255.0,255.0,255.0,255.0,255.0,255.0,255.0,255.0,255.0,255.0,255.0,255.0,255.0,255.0,255.0,255.0,255.0,255.0,255.0,255.0,255.0,255.0,255.0,255.0,255.0,255.0,255.0,255.0,255.0,255.0,255.0,255.0,255.0,255.0,255.0,255.0,255.0,255.0,255.0,255.0,255.0,255.0,255.0,255.0,255.0,255.0,255.0,255.0,255.0,255.0,255.0,255.0,255.0,255.0,255.0,255.0,255.0,255.0,255.0,255.0,255.0,255.0,255.0,255.0,255.0,255.0,255.0,255.0,255.0,255.0,255.0,255.0,255.0,255.0,255.0,255.0,255.0,255.0,255.0,255.0,255.0,255.0,255.0,255.0,255.0,255.0,255.0,255.0,255.0,255.0,255.0,255.0,255.0,255.0,255.0,255.0,255.0,255.0,255.0,255.0,255.0,255.0,255.0,255.0,255.0,255.0,255.0,255.0,255.0,255.0,255.0,255.0,255.0,255.0,255.0,255.0,255.0,255.0,255.0,255.0,255.0,255.0,255.0,255.0,255.0,255.0,255.0,255.0,255.0,255.0,255.0,255.0,255.0,255.0,255.0,255.0,255.0,255.0,255.0,255.0,255.0,255.0,255.0,255.0,255.0,255.0,255.0,255.0,255.0,255.0,255.0,255.0,255.0,255.0,255.0,255.0,255.0,255.0,255.0,255.0,255.0,255.0,255.0,255.0,255.0,255.0,255.0,255.0,255.0,255.0,255.0,255.0,255.0,255.0,255.0,255.0,255.0,255.0,255.0,255.0,255.0,255.0,255.0,255.0,255.0,255.0,255.0,255.0,255.0,255.0,255.0,255.0,255.0,255.0,255.0,255.0,255.0,255.0,255.0,255.0,255.0,255.0,255.0,255.0,255.0,255.0,255.0,255.0,255.0,255.0,255.0,255.0,255.0,255.0,255.0,255.0,255.0,255.0,255.0,255.0,255.0,255.0,255.0,255.0,255.0,255.0,255.0,255.0,255.0,255.0,255.0,255.0,255.0,255.0,255.0,255.0,255.0,255.0,255.0,255.0,255.0,255.0,255.0,255.0,255.0,255.0,255.0,255.0,255.0,255.0,255.0,255.0,255.0,255.0,255.0,255.0,255.0,255.0,255.0,255.0,255.0,255.0,255.0,255.0,255.0,255.0,255.0,255.0,255.0,255.0,255.0,255.0,255.0,255.0,255.0,255.0,255.0,255.0,255.0,255.0,255.0,255.0,255.0,255.0,255.0,255.0,255.0,255.0,255.0,255.0,255.0,255.0,255.0,255.0,255.0,255.0,255.0,255.0,255.0,255.0,255.0,255.0,255.0,255.0,255.0,255.0,255.0,255.0,255.0,255.0,255.0,255.0,255.0,255.0,255.0,255.0,255.0,255.0,255.0,255.0,255.0,255.0,255.0,255.0,255.0,255.0,255.0,255.0,255.0,255.0,255.0,255.0,255.0,255.0,255.0,255.0,255.0,255.0,255.0,255.0,255.0,255.0,255.0,255.0,255.0,255.0,255.0,255.0,255.0,255.0,255.0,255.0,255.0,255.0,255.0,255.0,255.0,255.0,255.0,255.0,255.0,255.0,255.0,255.0,255.0,255.0,255.0,255.0,255.0,255.0,255.0,255.0,255.0,255.0,255.0,255.0,255.0,255.0,255.0,255.0,255.0,255.0,255.0,255.0,255.0,255.0,255.0,255.0,255.0,255.0,255.0,255.0,255.0,255.0,255.0,255.0,255.0,255.0,255.0,255.0,255.0,255.0,255.0,255.0,255.0,255.0,255.0,255.0,255.0,255.0,255.0,255.0,255.0,255.0,255.0,255.0,255.0,255.0,255.0,255.0,255.0,255.0,255.0,255.0,255.0,255.0,255.0,255.0,255.0,255.0,255.0,255.0,255.0,255.0,255.0,255.0,255.0,255.0,255.0,255.0,255.0,255.0,255.0,255.0,255.0,255.0,255.0,255.0,255.0,255.0,255.0,255.0,255.0,255.0,255.0,255.0,255.0,255.0,255.0,255.0,255.0,255.0,255.0,255.0,255.0,255.0,255.0,255.0,255.0,255.0,255.0,255.0,255.0,255.0,255.0,255.0,255.0,255.0,255.0,255.0,255.0,255.0,255.0,255.0,255.0,255.0,255.0,255.0,255.0,255.0,255.0,255.0,255.0,255.0,255.0,255.0,255.0,255.0,255.0,255.0,255.0,255.0,255.0,255.0,255.0,255.0,255.0,255.0,255.0,255.0,255.0,255.0,255.0,255.0,255.0,255.0,255.0,255.0,255.0,255.0,255.0,255.0,255.0,255.0,255.0,255.0,255.0,255.0,255.0,255.0,255.0,255.0,255.0,255.0,255.0,255.0,255.0,255.0,255.0,255.0,255.0,255.0,255.0,255.0,255.0,255.0,255.0,255.0,255.0,255.0,255.0,255.0,255.0,255.0,255.0,255.0,255.0,255.0,255.0,255.0,255.0,255.0,255.0,255.0,255.0,255.0,255.0,255.0,255.0,255.0,255.0,255.0,255.0,255.0,255.0,255.0,255.0,255.0,255.0,255.0,255.0,255.0,255.0,255.0,255.0,255.0,255.0,255.0,255.0,255.0,255.0,255.0,255.0,255.0,255.0,255.0,255.0,255.0,255.0,255.0,255.0,255.0,255.0,255.0,255.0,255.0,255.0,255.0,255.0,255.0,255.0,255.0,255.0,255.0,255.0,255.0,255.0,255.0,255.0,255.0,255.0,255.0,255.0,255.0,255.0,255.0,255.0,255.0,255.0,255.0,255.0,255.0,255.0,255.0,255.0,255.0,255.0,255.0,255.0,255.0,255.0,255.0,255.0,255.0,255.0,255.0,255.0,255.0,255.0,255.0,255.0,255.0,255.0,255.0,255.0,255.0,255.0,255.0,255.0,255.0,255.0,255.0,255.0,255.0,255.0,255.0,255.0,255.0,255.0,255.0,255.0,255.0,255.0,255.0,255.0,255.0,255.0,255.0,255.0,255.0,255.0,255.0,255.0,255.0,255.0,255.0,255.0,255.0,255.0,255.0,255.0,255.0,255.0,255.0,255.0,255.0,255.0,255.0,255.0,255.0,255.0,255.0,255.0,255.0,255.0,255.0,255.0,255.0,255.0,255.0,255.0,255.0,255.0,255.0,255.0,255.0,255.0,255.0,255.0,255.0,255.0,255.0,255.0,255.0,255.0,255.0,255.0,255.0,255.0,255.0,255.0,255.0,255.0,255.0,255.0,255.0,255.0,255.0,255.0,255.0,255.0,255.0,255.0,255.0,255.0,255.0,255.0,255.0,255.0,255.0,255.0,255.0,255.0,255.0,255.0,255.0,255.0,255.0,255.0,255.0,255.0,255.0,255.0,255.0,255.0,255.0,255.0,255.0,255.0,255.0,255.0,255.0,255.0,255.0,255.0,255.0,255.0,255.0,255.0,255.0,255.0,255.0,255.0,255.0,255.0,255.0,255.0,255.0,255.0,255.0,255.0,255.0,255.0,255.0,255.0,255.0,255.0,255.0,255.0,255.0,255.0,255.0,255.0,255.0,255.0,255.0,255.0,255.0,255.0,255.0,255.0,255.0,255.0,255.0,255.0,255.0,255.0,255.0,255.0,255.0,255.0,255.0,255.0,255.0,255.0,255.0,255.0,255.0,255.0,255.0,255.0,255.0,255.0,255.0,255.0,255.0,255.0,255.0,255.0,255.0,255.0,255.0,255.0,255.0,255.0,255.0,255.0,255.0,255.0,255.0,255.0,255.0,255.0,255.0,255.0,255.0,255.0,255.0,255.0,255.0,255.0,255.0,255.0,255.0,255.0,255.0,255.0,255.0,255.0,255.0,255.0,255.0,255.0,255.0,255.0,255.0,255.0,255.0,255.0,255.0,255.0,255.0,255.0,255.0,255.0,255.0,255.0,255.0,255.0,255.0,255.0,255.0,255.0,255.0,255.0,255.0,255.0,255.0,255.0,255.0,255.0,255.0,255.0,255.0,255.0,255.0,255.0,255.0,255.0,255.0,255.0,255.0,255.0,255.0,255.0,255.0,255.0,255.0,255.0,255.0,255.0,255.0,255.0,255.0,255.0,255.0,255.0,255.0,255.0,255.0,255.0,255.0,255.0,255.0,255.0,255.0,255.0,255.0,255.0,255.0,255.0,255.0,255.0,255.0,255.0,255.0,255.0,255.0,255.0,255.0,255.0,255.0,255.0,255.0,255.0,255.0,255.0,255.0,255.0,255.0,255.0,255.0,255.0,255.0,255.0,255.0,255.0,255.0,255.0,255.0,255.0,255.0,255.0,255.0,255.0,255.0,255.0,255.0,255.0,255.0,255.0,255.0,255.0,255.0,255.0,255.0,255.0,255.0,255.0,255.0,255.0,255.0,255.0,255.0,255.0,255.0,255.0,255.0,255.0,255.0,255.0,255.0,255.0,255.0,255.0,255.0,255.0,255.0,255.0,255.0,255.0,255.0,255.0,255.0,255.0,255.0,255.0,255.0,255.0,255.0,255.0,255.0,255.0,255.0,255.0,255.0,255.0,255.0,255.0,255.0,255.0,255.0,255.0,255.0,255.0,255.0,255.0,255.0,255.0,255.0,255.0,255.0,255.0,255.0,255.0,255.0,255.0,255.0,255.0,255.0,255.0,255.0,255.0,255.0,255.0,255.0,255.0,255.0,255.0,255.0,255.0,255.0,255.0,255.0,255.0,255.0,255.0,255.0,255.0,255.0,255.0,255.0,255.0,255.0,255.0,255.0,255.0,255.0,255.0,255.0,255.0,255.0,255.0,255.0,255.0,255.0,255.0,255.0,255.0,255.0,255.0,255.0,255.0,255.0,255.0,255.0,255.0,255.0,255.0,255.0,255.0,255.0,255.0,255.0,255.0,255.0,255.0,255.0,255.0,255.0,255.0,255.0,255.0,255.0,255.0,255.0,255.0,255.0,255.0,255.0,255.0,255.0,255.0,255.0,255.0,255.0,255.0,255.0,255.0,255.0,255.0,255.0,255.0,255.0,255.0,255.0,255.0,255.0,255.0,255.0,255.0,255.0,255.0,255.0,255.0,255.0,255.0,255.0,255.0,255.0,255.0,255.0,255.0,255.0,255.0,255.0,255.0,255.0,255.0,255.0,
127.0,127.0,127.0,127.0,127.0,127.0,127.0,127.0,127.0,127.0,127.0,127.0,127.0,127.0,127.0,127.0,127.0,127.0,127.0,127.0,127.0,127.0,127.0,127.0,127.0,127.0,127.0,127.0,127.0,127.0,127.0,127.0,127.0,127.0,127.0,127.0,127.0,127.0,127.0,127.0,127.0,127.0,127.0,127.0,127.0,127.0,127.0,127.0,127.0,127.0,127.0,127.0,127.0,127.0,127.0,127.0,127.0,127.0,127.0,127.0,127.0,127.0,127.0,127.0,127.0,127.0,127.0,127.0,127.0,127.0,127.0,127.0,127.0,127.0,127.0,127.0,127.0,127.0,127.0,127.0,127.0,127.0,127.0,127.0,127.0,127.0,127.0,127.0,127.0,127.0,127.0,127.0,127.0,127.0,127.0,127.0,127.0,127.0,127.0,127.0,127.0,127.0,127.0,127.0,127.0,127.0,127.0,127.0,127.0,127.0,127.0,127.0,127.0,127.0,127.0,127.0,127.0,127.0,127.0,127.0,127.0,127.0,127.0,127.0,127.0,127.0,127.0,127.0,127.0,127.0,127.0,127.0,127.0,127.0,127.0,127.0,127.0,127.0,127.0,127.0,127.0,127.0,127.0,127.0,127.0,127.0,127.0,127.0,127.0,127.0,127.0,127.0,127.0,127.0,127.0,127.0,127.0,127.0,127.0,127.0,127.0,127.0,127.0,127.0,127.0,127.0,127.0,127.0,127.0,127.0,127.0,127.0,127.0,127.0,127.0,127.0,127.0,127.0,127.0,127.0,127.0,127.0,127.0,127.0,127.0,127.0,127.0,127.0,127.0,127.0,127.0,127.0,127.0,127.0,127.0,127.0,127.0,127.0,127.0,127.0,127.0,127.0,127.0,127.0,127.0,127.0,127.0,127.0,127.0,127.0,127.0,127.0,127.0,127.0,127.0,127.0,127.0,127.0,127.0,127.0,127.0,127.0,127.0,127.0,127.0,127.0,127.0,127.0,127.0,127.0,127.0,127.0,127.0,127.0,127.0,127.0,127.0,127.0,127.0,127.0,127.0,127.0,127.0,127.0,127.0,127.0,127.0,127.0,127.0,127.0,127.0,127.0,127.0,127.0,127.0,127.0,127.0,127.0,127.0,127.0,127.0,127.0,127.0,127.0,127.0,127.0,127.0,127.0,127.0,127.0,127.0,127.0,127.0,127.0,127.0,127.0,127.0,127.0,127.0,127.0,127.0,127.0,127.0,127.0,127.0,127.0,127.0,127.0,127.0,127.0,127.0,127.0,127.0,127.0,127.0,127.0,127.0,127.0,127.0,127.0,127.0,127.0,127.0,127.0,127.0,127.0,127.0,127.0,127.0,127.0,127.0,127.0,127.0,127.0,127.0,127.0,127.0,127.0,127.0,127.0,127.0,127.0,127.0,127.0,127.0,127.0,127.0,127.0,127.0,127.0,127.0,127.0,127.0,127.0,127.0,127.0,127.0,127.0,127.0,127.0,127.0,127.0,127.0,127.0,127.0,127.0,127.0,127.0,127.0,127.0,127.0,127.0,127.0,127.0,127.0,127.0,127.0,127.0,127.0,127.0,127.0,127.0,127.0,127.0,127.0,127.0,127.0,127.0,127.0,127.0,127.0,127.0,127.0,127.0,127.0,127.0,127.0,127.0,127.0,127.0,127.0,127.0,127.0,127.0,127.0,127.0,127.0,127.0,127.0,127.0,127.0,127.0,127.0,127.0,127.0,127.0,127.0,127.0,127.0,127.0,127.0,127.0,127.0,127.0,127.0,127.0,127.0,127.0,127.0,127.0,127.0,127.0,127.0,127.0,127.0,127.0,127.0,127.0,127.0,127.0,127.0,127.0,127.0,127.0,127.0,127.0,127.0,127.0,127.0,127.0,127.0,127.0,127.0,127.0,127.0,127.0,127.0,127.0,127.0,127.0,127.0,127.0,127.0,127.0,127.0,127.0,127.0,127.0,127.0,127.0,127.0,127.0,127.0,127.0,127.0,127.0,127.0,127.0,127.0,127.0,127.0,127.0,127.0,127.0,127.0,127.0,127.0,127.0,127.0,127.0,127.0,127.0,127.0,127.0,127.0,127.0,127.0,127.0,127.0,127.0,127.0,127.0,127.0,127.0,127.0,127.0,127.0,127.0,127.0,127.0,127.0,127.0,127.0,127.0,127.0,127.0,127.0,127.0,127.0,127.0,127.0,127.0,127.0,127.0,127.0,127.0,127.0,127.0,127.0,127.0,127.0,127.0,127.0,127.0,127.0,127.0,127.0,127.0,127.0,127.0,127.0,127.0,127.0,127.0,127.0,127.0,127.0,127.0,127.0,127.0,127.0,127.0,127.0,127.0,127.0,127.0,127.0,127.0,127.0,127.0,127.0,127.0,127.0,127.0,127.0,127.0,127.0,127.0,127.0,127.0,127.0,127.0,127.0,127.0,127.0,127.0,127.0,127.0,127.0,127.0,127.0,127.0,127.0,127.0,127.0,127.0,127.0,127.0,127.0,127.0,127.0,127.0,127.0,127.0,127.0,127.0,127.0,127.0,127.0,127.0,127.0,127.0,127.0,127.0,127.0,127.0,127.0,127.0,127.0,127.0,127.0,127.0,127.0,127.0,127.0,127.0,127.0,127.0,127.0,127.0,127.0,127.0,127.0,127.0,127.0,127.0,127.0,127.0,127.0,127.0,127.0,127.0,127.0,127.0,127.0,127.0,127.0,127.0,127.0,127.0,127.0,127.0,127.0,127.0,127.0,127.0,127.0,127.0,127.0,127.0,127.0,127.0,127.0,127.0,127.0,127.0,127.0,127.0,127.0,127.0,127.0,127.0,127.0,127.0,127.0,127.0,127.0,127.0,127.0,127.0,127.0,127.0,127.0,127.0,127.0,127.0,127.0,127.0,127.0,127.0,127.0,127.0,127.0,127.0,127.0,127.0,127.0,127.0,127.0,127.0,127.0,127.0,127.0,127.0,127.0,127.0,127.0,127.0,127.0,127.0,127.0,127.0,127.0,127.0,127.0,127.0,127.0,127.0,127.0,127.0,127.0,127.0,127.0,127.0,127.0,127.0,127.0,127.0,127.0,127.0,127.0,127.0,127.0,127.0,127.0,127.0,127.0,127.0,127.0,127.0,127.0,127.0,127.0,127.0,127.0,127.0,127.0,127.0,127.0,127.0,127.0,127.0,127.0,127.0,127.0,127.0,127.0,127.0,127.0,127.0,127.0,127.0,127.0,127.0,127.0,127.0,127.0,127.0,127.0,127.0,127.0,127.0,127.0,127.0,127.0,127.0,127.0,127.0,127.0,127.0,127.0,127.0,127.0,127.0,127.0,127.0,127.0,127.0,127.0,127.0,127.0,127.0,127.0,127.0,127.0,127.0,127.0,127.0,127.0,127.0,127.0,127.0,127.0,127.0,127.0,127.0,127.0,127.0,127.0,127.0,127.0,127.0,127.0,127.0,127.0,127.0,127.0,127.0,127.0,127.0,127.0,127.0,127.0,127.0,127.0,127.0,127.0,127.0,127.0,127.0,127.0,127.0,127.0,127.0,127.0,127.0,127.0,127.0,127.0,127.0,127.0,127.0,127.0,127.0,127.0,127.0,127.0,127.0,127.0,127.0,127.0,127.0,127.0,127.0,127.0,127.0,127.0,127.0,127.0,127.0,127.0,127.0,127.0,127.0,127.0,127.0,127.0,127.0,127.0,127.0,127.0,127.0,127.0,127.0,127.0,127.0,127.0,127.0,127.0,127.0,127.0,127.0,127.0,127.0,127.0,127.0,127.0,127.0,127.0,127.0,127.0,127.0,127.0,127.0,127.0,127.0,127.0,127.0,127.0,127.0,127.0,127.0,127.0,127.0,127.0,127.0,127.0,127.0,127.0,127.0,127.0,127.0,127.0,127.0,127.0,127.0,127.0,127.0,127.0,127.0,127.0,127.0,127.0,127.0,127.0,127.0,127.0,127.0,127.0,127.0,127.0,127.0,127.0,127.0,127.0,127.0,127.0,127.0,127.0,127.0,127.0,127.0,127.0,127.0,127.0,127.0,127.0,127.0,127.0,127.0,127.0,127.0,127.0,127.0,127.0,127.0,127.0,127.0,127.0,127.0,127.0,127.0,127.0,127.0,127.0,127.0,127.0,127.0,127.0,127.0,127.0,127.0,127.0,127.0,127.0,127.0,127.0,127.0,127.0,127.0,127.0,127.0,127.0,127.0,127.0,127.0,127.0,127.0,127.0,127.0,127.0,127.0,127.0,127.0,127.0,127.0,127.0,127.0,127.0,127.0,127.0,127.0,127.0,127.0,127.0,127.0,127.0,127.0,127.0,127.0,127.0,127.0,127.0,127.0,127.0,127.0,127.0,127.0,127.0,127.0,127.0,127.0,127.0,127.0,127.0,127.0,127.0,127.0,127.0,127.0,127.0,127.0,127.0,127.0,127.0,127.0,127.0,127.0,127.0,127.0,127.0,127.0,127.0,127.0,127.0,127.0,127.0,127.0,127.0,127.0,127.0,127.0,127.0,127.0,127.0,127.0,127.0,127.0,127.0,127.0,127.0,127.0,127.0,127.0,127.0,127.0,127.0,127.0,127.0,127.0,127.0,127.0,127.0,127.0,127.0,127.0,127.0,127.0,127.0,127.0,127.0,127.0,127.0,127.0,127.0,127.0,127.0,127.0,127.0,127.0,127.0,127.0,127.0,127.0,127.0,127.0,127.0,127.0,127.0,127.0,127.0,127.0,127.0,127.0,127.0,127.0,127.0,127.0,127.0,127.0,127.0,127.0,127.0,127.0,127.0,127.0,127.0,127.0,127.0,127.0,127.0,127.0,127.0,127.0,127.0,127.0,127.0,127.0,127.0,127.0,127.0,127.0,127.0,127.0,127.0,127.0,127.0,127.0,127.0,127.0,127.0,127.0,127.0,127.0,127.0,127.0,127.0,127.0,127.0,127.0,127.0,127.0,127.0,127.0,127.0,127.0,127.0,127.0,127.0,127.0,127.0,127.0,127.0,127.0,127.0,127.0,127.0,127.0,127.0,127.0,127.0,127.0,127.0,127.0,127.0,127.0,127.0,127.0,127.0,127.0,127.0,127.0,127.0,127.0,127.0,127.0,127.0,127.0,127.0,127.0,127.0,127.0,127.0,127.0,127.0,127.0,127.0,127.0,127.0,127.0,127.0,127.0,127.0,127.0,127.0,127.0,127.0,127.0,127.0,127.0,127.0,127.0,127.0,127.0,127.0,127.0,127.0,127.0,127.0,127.0,127.0,127.0,127.0,127.0,127.0,127.0,127.0,127.0,127.0,127.0,127.0,127.0,127.0,127.0,127.0,127.0,127.0,127.0,127.0,127.0,127.0,127.0,127.0,127.0,127.0,127.0,127.0,127.0,127.0,127.0,127.0,127.0,127.0,127.0,127.0,127.0,127.0,127.0,127.0,127.0,127.0,127.0,127.0,127.0,127.0,127.0,127.0,127.0,127.0,127.0,127.0,127.0,127.0,127.0,127.0,127.0,127.0,127.0,127.0,127.0,127.0,127.0,127.0,127.0,127.0,127.0,127.0,127.0,127.0,127.0,127.0,127.0,127.0,127.0,127.0,127.0,127.0,127.0,127.0,127.0,127.0,127.0,127.0,127.0,127.0,127.0,127.0,127.0,127.0,127.0,127.0,127.0,127.0,127.0,127.0,127.0,127.0,127.0,127.0,127.0,127.0,127.0,127.0,127.0,127.0,127.0,127.0,127.0,127.0,127.0,127.0,127.0,127.0,127.0,127.0,127.0,127.0,127.0,127.0,127.0,127.0,127.0,127.0,127.0,127.0,127.0,127.0,127.0,127.0,127.0,127.0,127.0,127.0,127.0,127.0,127.0,127.0,127.0,127.0,127.0,127.0,127.0,127.0,127.0,127.0,127.0,127.0,127.0,127.0,127.0,127.0,127.0,127.0,127.0,127.0,127.0,127.0,127.0,127.0,127.0,127.0,127.0,127.0,127.0,127.0,127.0,127.0,127.0,127.0,127.0,127.0,127.0,127.0,127.0,127.0,127.0,127.0,127.0,127.0,127.0,127.0,127.0,127.0,127.0,127.0,127.0,127.0,127.0,127.0,127.0,127.0,127.0,127.0,127.0,127.0,127.0,127.0,127.0,127.0,127.0,127.0,127.0,127.0,127.0,127.0,127.0,127.0,127.0,127.0,127.0,127.0,127.0,127.0,127.0,127.0,127.0,127.0,127.0,127.0,127.0,127.0,127.0,127.0,127.0,127.0,127.0,127.0,127.0,127.0,127.0,127.0,127.0,127.0,127.0,127.0,127.0,127.0,127.0,127.0,127.0,127.0,127.0,127.0,127.0,127.0,127.0,127.0,127.0,127.0,127.0,127.0,127.0,127.0,127.0,127.0,127.0,127.0,127.0,127.0,127.0,127.0,127.0,127.0,127.0,127.0,127.0,127.0,127.0,127.0,127.0,127.0,127.0,127.0,127.0,127.0,127.0,127.0,127.0,127.0,127.0,127.0,127.0,127.0,127.0,127.0,127.0,127.0,127.0,127.0,127.0,127.0,127.0,127.0,127.0,127.0,127.0,127.0,127.0,127.0,127.0,127.0,127.0,127.0,127.0,127.0,127.0,127.0,127.0,127.0,127.0,127.0,127.0,127.0,127.0,127.0,127.0,127.0,127.0,127.0,127.0,127.0,127.0,127.0,127.0,127.0,127.0,127.0,127.0,127.0,127.0,127.0,127.0,127.0,127.0,127.0,127.0,127.0,127.0,127.0,127.0,127.0,127.0,127.0,127.0,127.0,127.0,127.0,127.0,127.0,127.0,127.0,127.0,127.0,127.0,127.0,127.0,127.0,127.0,127.0,127.0,127.0,127.0,127.0,127.0,127.0,127.0,127.0,127.0,127.0,127.0,127.0,127.0,127.0,127.0,127.0,127.0,127.0,127.0,127.0,127.0,127.0,127.0,127.0,127.0,127.0,127.0,127.0,127.0,127.0,127.0,127.0,127.0,127.0,127.0,127.0,127.0,127.0,127.0,127.0,127.0,127.0,127.0,127.0,127.0,127.0,127.0,127.0,127.0,127.0,127.0,127.0,127.0,127.0,127.0,127.0,127.0,127.0,127.0,127.0,127.0,127.0,127.0,127.0,127.0,127.0,127.0,127.0,127.0,127.0,127.0,127.0,127.0,127.0,127.0,127.0,127.0,127.0,127.0,127.0,127.0,127.0,127.0,127.0,127.0,127.0,127.0,127.0,127.0,127.0,127.0,127.0,127.0,127.0,127.0,127.0,127.0,127.0,127.0,127.0,127.0,127.0,127.0,127.0,127.0,127.0,127.0,127.0,127.0,127.0,127.0,127.0,127.0,127.0,127.0,127.0,127.0,127.0,127.0,127.0,127.0,127.0,127.0,127.0,127.0,127.0,127.0,127.0,127.0,127.0,127.0,127.0,127.0,127.0,127.0,127.0,127.0,127.0,127.0,127.0,127.0,127.0,127.0,127.0,127.0,127.0,127.0,127.0,127.0,127.0,127.0,127.0,127.0,127.0,127.0,127.0,127.0,127.0,127.0,127.0,127.0,127.0,127.0,127.0,127.0,127.0,127.0,127.0,127.0,127.0,127.0,127.0,127.0,127.0,127.0,127.0,127.0,127.0,127.0,127.0,127.0,127.0,127.0,127.0,127.0,127.0,127.0,127.0,127.0,127.0,127.0,127.0,127.0,127.0,127.0,127.0,127.0,127.0,127.0,127.0,127.0,127.0,127.0,127.0,127.0,127.0,127.0,127.0,127.0,127.0,127.0,127.0,127.0,127.0,127.0,127.0,127.0,127.0,127.0,127.0,127.0,127.0,127.0,127.0,127.0,127.0,127.0,127.0,127.0,127.0,127.0,127.0,127.0,127.0,127.0,127.0,127.0,127.0,127.0,127.0,127.0,127.0,127.0,127.0,127.0,127.0,127.0,127.0,127.0,127.0,127.0,127.0,127.0,127.0,127.0,127.0,127.0,127.0,127.0,127.0,127.0,127.0,127.0,127.0,127.0,127.0,127.0,127.0,127.0,127.0,127.0,127.0,127.0,127.0,127.0,127.0,127.0,127.0,127.0,127.0,127.0,127.0,127.0,127.0,127.0,127.0,127.0,127.0,127.0,127.0,127.0,127.0,127.0,127.0,127.0,127.0,127.0,127.0,127.0,127.0,127.0,127.0,127.0,127.0,127.0,127.0,127.0,127.0,127.0,127.0,127.0,127.0,127.0,127.0,127.0,127.0,127.0,127.0,127.0,127.0,127.0,127.0,127.0,127.0,127.0,127.0,127.0,127.0,127.0,127.0,127.0,127.0,127.0,127.0,127.0,127.0,127.0,127.0,127.0,127.0,127.0,127.0,127.0,127.0,127.0,127.0,127.0,127.0,127.0,127.0,127.0,127.0,127.0,127.0,127.0,127.0,127.0,127.0,127.0,127.0,127.0,127.0,127.0,127.0,127.0,127.0,127.0,127.0,127.0,127.0,127.0,127.0,127.0,127.0,127.0,127.0,127.0,127.0,127.0,127.0,127.0,127.0,127.0,127.0,127.0,127.0,127.0,127.0,127.0,127.0,127.0,127.0,127.0,127.0,127.0,127.0,127.0,127.0,127.0,127.0,127.0,127.0,127.0,127.0,127.0,127.0,127.0,127.0,127.0,127.0,127.0,127.0,127.0,127.0,127.0,127.0,127.0,127.0,127.0,127.0,127.0,127.0,127.0,127.0,127.0,127.0,127.0,127.0,127.0,127.0,127.0,127.0,127.0,127.0,127.0,127.0,127.0,127.0,127.0,127.0,127.0,127.0,127.0,127.0,127.0,127.0,127.0,127.0,127.0,127.0,127.0,127.0,127.0,127.0,127.0,127.0,127.0,127.0,127.0,127.0,127.0,127.0,127.0,127.0,127.0,127.0,127.0,127.0,127.0,127.0,127.0,127.0,127.0,127.0,127.0,127.0,127.0,127.0,127.0,127.0,127.0,127.0,127.0,127.0,127.0,127.0,127.0,127.0,127.0,127.0,127.0,127.0,127.0,127.0,127.0,127.0,127.0,127.0,127.0,127.0,127.0,127.0,127.0,127.0,127.0,127.0,127.0,127.0,127.0,127.0,127.0,127.0,127.0,127.0,127.0,127.0,127.0,127.0,127.0,127.0,127.0,127.0,127.0,127.0,127.0,127.0,127.0,127.0,127.0,127.0,127.0,127.0,127.0,127.0,127.0,127.0,127.0,127.0,127.0,127.0,127.0,127.0,127.0,127.0,127.0,127.0,127.0,127.0,127.0,127.0,127.0,127.0,127.0,127.0,127.0,127.0,127.0,127.0,127.0,127.0,127.0,127.0,127.0,127.0,127.0,127.0,127.0,127.0,127.0,127.0,127.0,127.0,127.0,127.0,127.0,127.0,127.0,127.0,127.0,127.0,127.0,127.0,127.0,127.0,127.0,127.0,127.0,127.0,127.0,127.0,127.0,127.0,127.0,127.0,127.0,127.0,127.0,127.0,127.0,127.0,127.0,127.0,127.0,127.0,127.0,127.0,127.0,127.0,127.0,127.0,127.0,127.0,127.0,127.0,127.0,127.0,127.0,127.0,127.0,127.0,127.0,127.0,127.0,127.0,127.0,127.0,127.0,127.0,127.0,127.0,127.0,127.0,127.0,127.0,127.0,127.0,127.0,127.0,127.0,127.0,127.0,127.0,127.0,127.0,127.0,127.0,127.0,127.0,127.0,127.0,127.0,127.0,127.0,127.0,127.0,127.0,127.0,127.0,127.0,127.0,127.0,127.0,127.0,127.0,127.0,127.0,127.0,127.0,127.0,127.0,127.0,127.0,127.0,127.0,127.0,127.0,127.0,127.0,127.0,127.0,127.0,127.0,127.0,127.0,127.0,127.0,127.0,127.0,127.0,127.0,127.0,127.0,127.0,127.0,127.0,127.0,127.0,127.0,127.0,127.0,127.0,127.0,127.0,127.0,127.0,127.0,127.0,127.0,127.0,127.0,127.0,127.0,127.0,127.0,127.0,127.0,127.0,127.0,127.0,127.0,127.0,127.0,127.0,127.0,127.0,127.0,127.0,127.0,127.0,127.0,127.0,127.0,127.0,127.0,127.0,127.0,127.0,127.0,127.0,127.0,127.0,127.0,127.0,127.0,127.0,127.0,127.0,127.0,127.0,127.0,127.0,127.0,127.0,127.0,127.0,127.0,127.0,127.0,127.0,127.0,127.0,127.0,127.0,127.0,127.0,127.0,127.0,127.0,127.0,127.0,127.0,127.0,127.0,127.0,127.0,127.0,127.0,127.0,127.0,127.0,127.0,127.0,127.0,127.0,127.0,127.0,127.0,127.0,127.0,127.0,127.0,127.0,127.0,127.0,127.0,127.0,127.0,127.0,127.0,127.0,127.0,127.0,127.0,
255.0,255.0,255.0,255.0,255.0,255.0,255.0,255.0,255.0,255.0,255.0,255.0,255.0,255.0,255.0,255.0,255.0,255.0,255.0,255.0,255.0,255.0,255.0,255.0,255.0,255.0,255.0,255.0,255.0,255.0,255.0,255.0,255.0,255.0,255.0,255.0,255.0,255.0,255.0,255.0,255.0,255.0,255.0,255.0,255.0,255.0,255.0,255.0,255.0,255.0,255.0,255.0,255.0,255.0,255.0,255.0,255.0,255.0,255.0,255.0,255.0,255.0,255.0,255.0,255.0,255.0,255.0,255.0,255.0,255.0,255.0,255.0,255.0,255.0,255.0,255.0,255.0,255.0,255.0,255.0,255.0,255.0,255.0,255.0,255.0,255.0,255.0,255.0,255.0,255.0,255.0,255.0,255.0,255.0,255.0,255.0,255.0,255.0,255.0,255.0,255.0,255.0,255.0,255.0,255.0,255.0,255.0,255.0,255.0,255.0,255.0,255.0,255.0,255.0,255.0,255.0,255.0,255.0,255.0,255.0,255.0,255.0,255.0,255.0,255.0,255.0,255.0,255.0,255.0,255.0,255.0,255.0,255.0,255.0,255.0,255.0,255.0,255.0,255.0,255.0,255.0,255.0,255.0,255.0,255.0,255.0,255.0,255.0,255.0,255.0,255.0,255.0,255.0,255.0,255.0,255.0,255.0,255.0,255.0,255.0,255.0,255.0,255.0,255.0,255.0,255.0,255.0,255.0,255.0,255.0,255.0,255.0,255.0,255.0,255.0,255.0,255.0,255.0,255.0,255.0,255.0,255.0,255.0,255.0,255.0,255.0,255.0,255.0,255.0,255.0,255.0,255.0,255.0,255.0,255.0,255.0,255.0,255.0,255.0,255.0,255.0,255.0,255.0,255.0,255.0,255.0,255.0,255.0,255.0,255.0,255.0,255.0,255.0,255.0,255.0,255.0,255.0,255.0,255.0,255.0,255.0,255.0,255.0,255.0,255.0,255.0,255.0,255.0,255.0,255.0,255.0,255.0,255.0,255.0,255.0,255.0,255.0,255.0,255.0,255.0,255.0,255.0,255.0,255.0,255.0,255.0,255.0,255.0,255.0,255.0,255.0,255.0,255.0,255.0,255.0,255.0,255.0,255.0,255.0,255.0,255.0,255.0,255.0,255.0,255.0,255.0,255.0,255.0,255.0,255.0,255.0,255.0,255.0,255.0,255.0,255.0,255.0,255.0,255.0,255.0,255.0,255.0,255.0,255.0,255.0,255.0,255.0,255.0,255.0,255.0,255.0,255.0,255.0,255.0,255.0,255.0,255.0,255.0,255.0,255.0,255.0,255.0,255.0,255.0,255.0,255.0,255.0,255.0,255.0,255.0,255.0,255.0,255.0,255.0,255.0,255.0,255.0,255.0,255.0,255.0,255.0,255.0,255.0,255.0,255.0,255.0,255.0,255.0,255.0,255.0,255.0,255.0,255.0,255.0,255.0,255.0,255.0,255.0,255.0,255.0,255.0,255.0,255.0,255.0,255.0,255.0,255.0,255.0,255.0,255.0,255.0,255.0,255.0,255.0,255.0,255.0,255.0,255.0,255.0,255.0,255.0,255.0,255.0,255.0,255.0,255.0,255.0,255.0,255.0,255.0,255.0,255.0,255.0,255.0,255.0,255.0,255.0,255.0,255.0,255.0,255.0,255.0,255.0,255.0,255.0,255.0,255.0,255.0,255.0,255.0,255.0,255.0,255.0,255.0,255.0,255.0,255.0,255.0,255.0,255.0,255.0,255.0,255.0,255.0,255.0,255.0,255.0,255.0,255.0,255.0,255.0,255.0,255.0,255.0,255.0,255.0,255.0,255.0,255.0,255.0,255.0,255.0,255.0,255.0,255.0,255.0,255.0,255.0,255.0,255.0,255.0,255.0,255.0,255.0,255.0,255.0,255.0,255.0,255.0,255.0,255.0,255.0,255.0,255.0,255.0,255.0,255.0,255.0,255.0,255.0,255.0,255.0,255.0,255.0,255.0,255.0,255.0,255.0,255.0,255.0,255.0,255.0,255.0,255.0,255.0,255.0,255.0,255.0,255.0,255.0,255.0,255.0,255.0,255.0,255.0,255.0,255.0,255.0,255.0,255.0,255.0,255.0,255.0,255.0,255.0,255.0,255.0,255.0,255.0,255.0,255.0,255.0,255.0,255.0,255.0,255.0,255.0,255.0,255.0,255.0,255.0,255.0,255.0,255.0,255.0,255.0,255.0,255.0,255.0,255.0,255.0,255.0,255.0,255.0,255.0,255.0,255.0,255.0,255.0,255.0,255.0,255.0,255.0,255.0,255.0,255.0,255.0,255.0,255.0,255.0,255.0,255.0,255.0,255.0,255.0,255.0,255.0,255.0,255.0,255.0,255.0,255.0,255.0,255.0,255.0,255.0,255.0,255.0,255.0,255.0,255.0,255.0,255.0,255.0,255.0,255.0,255.0,255.0,255.0,255.0,255.0,255.0,255.0,255.0,255.0,255.0,255.0,255.0,255.0,255.0,255.0,255.0,255.0,255.0,255.0,255.0,255.0,255.0,255.0,255.0,255.0,255.0,255.0,255.0,255.0,255.0,255.0,255.0,255.0,255.0,255.0,255.0,255.0,255.0,255.0,255.0,255.0,255.0,255.0,255.0,255.0,255.0,255.0,255.0,255.0,255.0,255.0,255.0,255.0,255.0,255.0,255.0,255.0,255.0,255.0,255.0,255.0,255.0,255.0,255.0,255.0,255.0,255.0,255.0,255.0,255.0,255.0,255.0,255.0,255.0,255.0,255.0,255.0,255.0,255.0,255.0,255.0,255.0,255.0,255.0,255.0,255.0,255.0,255.0,255.0,255.0,255.0,255.0,255.0,255.0,255.0,255.0,255.0,255.0,255.0,255.0,255.0,255.0,255.0,255.0,255.0,255.0,255.0,255.0,255.0,255.0,255.0,255.0,255.0,255.0,255.0,255.0,255.0,255.0,255.0,255.0,255.0,255.0,255.0,255.0,255.0,255.0,255.0,255.0,255.0,255.0,255.0,255.0,255.0,255.0,255.0,255.0,255.0,255.0,255.0,255.0,255.0,255.0,255.0,255.0,255.0,255.0,255.0,255.0,255.0,255.0,255.0,255.0,255.0,255.0,255.0,255.0,255.0,255.0,255.0,255.0,255.0,255.0,255.0,255.0,255.0,255.0,255.0,255.0,255.0,255.0,255.0,255.0,255.0,255.0,255.0,255.0,255.0,255.0,255.0,255.0,255.0,255.0,255.0,255.0,255.0,255.0,255.0,255.0,255.0,255.0,255.0,255.0,255.0,255.0,255.0,255.0,255.0,255.0,255.0,255.0,255.0,255.0,255.0,255.0,255.0,255.0,255.0,255.0,255.0,255.0,255.0,255.0,255.0,255.0,255.0,255.0,255.0,255.0,255.0,255.0,255.0,255.0,255.0,255.0,255.0,255.0,255.0,255.0,255.0,255.0,255.0,255.0,255.0,255.0,255.0,255.0,255.0,255.0,255.0,255.0,255.0,255.0,255.0,255.0,255.0,255.0,255.0,255.0,255.0,255.0,255.0,255.0,255.0,255.0,255.0,255.0,255.0,255.0,255.0,255.0,255.0,255.0,255.0,255.0,255.0,255.0,255.0,255.0,255.0,255.0,255.0,255.0,255.0,255.0,255.0,255.0,255.0,255.0,255.0,255.0,255.0,255.0,255.0,255.0,255.0,255.0,255.0,255.0,255.0,255.0,255.0,255.0,255.0,255.0,255.0,255.0,255.0,255.0,255.0,255.0,255.0,255.0,255.0,255.0,255.0,255.0,255.0,255.0,255.0,255.0,255.0,255.0,255.0,255.0,255.0,255.0,255.0,255.0,255.0,255.0,255.0,255.0,255.0,255.0,255.0,255.0,255.0,255.0,255.0,255.0,255.0,255.0,255.0,255.0,255.0,255.0,255.0,255.0,255.0,255.0,255.0,255.0,255.0,255.0,255.0,255.0,255.0,255.0,255.0,255.0,255.0,255.0,255.0,255.0,255.0,255.0,255.0,255.0,255.0,255.0,255.0,255.0,255.0,255.0,255.0,255.0,255.0,255.0,255.0,255.0,255.0,255.0,255.0,255.0,255.0,255.0,255.0,255.0,255.0,255.0,255.0,255.0,255.0,255.0,255.0,255.0,255.0,255.0,255.0,255.0,255.0,255.0,255.0,255.0,255.0,255.0,255.0,255.0,255.0,255.0,255.0,255.0,255.0,255.0,255.0,255.0,255.0,255.0,255.0,255.0,255.0,255.0,255.0,255.0,255.0,255.0,255.0,255.0,255.0,255.0,255.0,255.0,255.0,255.0,255.0,255.0,255.0,255.0,255.0,255.0,255.0,255.0,255.0,255.0,255.0,255.0,255.0,255.0,255.0,255.0,255.0,255.0,255.0,255.0,255.0,255.0,255.0,255.0,255.0,255.0,255.0,255.0,255.0,255.0,255.0,255.0,255.0,255.0,255.0,255.0,255.0,255.0,255.0,255.0,255.0,255.0,255.0,255.0,255.0,255.0,255.0,255.0,255.0,255.0,255.0,255.0,255.0,255.0,255.0,255.0,255.0,255.0,255.0,255.0,255.0,255.0,255.0,255.0,255.0,255.0,255.0,255.0,255.0,255.0,255.0,255.0,255.0,255.0,255.0,255.0,255.0,255.0,255.0,255.0,255.0,255.0,255.0,255.0,255.0,255.0,255.0,255.0,255.0,255.0,255.0,255.0,255.0,255.0,255.0,255.0,255.0,255.0,255.0,255.0,255.0,255.0,255.0,255.0,255.0,255.0,255.0,255.0,255.0,255.0,255.0,255.0,255.0,255.0,255.0,255.0,255.0,255.0,255.0,255.0,255.0,255.0,255.0,255.0,255.0,255.0,255.0,255.0,255.0,255.0,255.0,255.0,255.0,255.0,255.0,255.0,255.0,255.0,255.0,255.0,255.0,255.0,255.0,255.0,255.0,255.0,255.0,255.0,255.0,255.0,255.0,255.0,255.0,255.0,255.0,255.0,255.0,255.0,255.0,255.0,255.0,255.0,255.0,255.0,255.0,255.0,255.0,255.0,255.0,255.0,255.0,255.0,255.0,255.0,255.0,255.0,255.0,255.0,255.0,255.0,255.0,255.0,255.0,255.0,255.0,255.0,255.0,255.0,255.0,255.0,255.0,255.0,255.0,255.0,255.0,255.0,255.0,255.0,255.0,255.0,255.0,255.0,255.0,255.0,255.0,255.0,255.0,255.0,255.0,255.0,255.0,255.0,255.0,255.0,255.0,255.0,255.0,255.0,255.0,255.0,255.0,255.0,255.0,255.0,255.0,255.0,255.0,255.0,255.0,255.0,255.0,255.0,255.0,255.0,255.0,255.0,255.0,255.0,255.0,255.0,255.0,255.0,255.0,255.0,255.0,255.0,255.0,255.0,255.0,255.0,255.0,255.0,255.0,255.0,255.0,255.0,255.0,255.0,255.0,255.0,255.0,255.0,255.0,255.0,255.0,255.0,255.0,255.0,255.0,255.0,255.0,255.0,255.0,255.0,255.0,255.0,255.0,255.0,255.0,255.0,255.0,255.0,255.0,255.0,255.0,255.0,255.0,255.0,255.0,255.0,255.0,255.0,255.0,255.0,255.0,255.0,255.0,255.0,255.0,255.0,255.0,255.0,255.0,255.0,255.0,255.0,255.0,255.0,255.0,255.0,255.0,255.0,255.0,255.0,255.0,255.0,255.0,255.0,255.0,255.0,255.0,255.0,255.0,255.0,255.0,255.0,255.0,255.0,255.0,255.0,255.0,255.0,255.0,255.0,255.0,255.0,255.0,255.0,255.0,255.0,255.0,255.0,255.0,255.0,255.0,255.0,255.0,255.0,255.0,255.0,255.0,255.0,255.0,255.0,255.0,255.0,255.0,255.0,255.0,255.0,255.0,255.0,255.0,255.0,255.0,255.0,255.0,255.0,255.0,255.0,255.0,255.0,255.0,255.0,255.0,255.0,255.0,255.0,255.0,255.0,255.0,255.0,255.0,255.0,255.0,255.0,255.0,255.0,255.0,255.0,255.0,255.0,255.0,255.0,255.0,255.0,255.0,255.0,255.0,255.0,255.0,255.0,255.0,255.0,255.0,255.0,255.0,255.0,255.0,255.0,255.0,255.0,255.0,255.0,255.0,255.0,255.0,255.0,255.0,255.0,255.0,255.0,255.0,255.0,255.0,255.0,255.0,255.0,255.0,255.0,255.0,255.0,255.0,255.0,255.0,255.0,255.0,255.0,255.0,255.0,255.0,255.0,255.0,255.0,255.0,255.0,255.0,255.0,255.0,255.0,255.0,255.0,255.0,255.0,255.0,255.0,255.0,255.0,255.0,255.0,255.0,255.0,255.0,255.0,255.0,255.0,255.0,255.0,255.0,255.0,255.0,255.0,255.0,255.0,255.0,255.0,255.0,255.0,255.0,255.0,255.0,255.0,255.0,255.0,255.0,255.0,255.0,255.0,255.0,255.0,255.0,255.0,255.0,255.0,255.0,255.0,255.0,255.0,255.0,255.0,255.0,255.0,255.0,255.0,255.0,255.0,255.0,255.0,255.0,255.0,255.0,255.0,255.0,255.0,255.0,255.0,255.0,255.0,255.0,255.0,255.0,255.0,255.0,255.0,255.0,255.0,255.0,255.0,255.0,255.0,255.0,255.0,255.0,255.0,255.0,255.0,255.0,255.0,255.0,255.0,255.0,255.0,255.0,255.0,255.0,255.0,255.0,255.0,255.0,255.0,255.0,255.0,255.0,255.0,255.0,255.0,255.0,255.0,255.0,255.0,255.0,255.0,255.0,255.0,255.0,255.0,255.0,255.0,255.0,255.0,255.0,255.0,255.0,255.0,255.0,255.0,255.0,255.0,255.0,255.0,255.0,255.0,255.0,255.0,255.0,255.0,255.0,255.0,255.0,255.0,255.0,255.0,255.0,255.0,255.0,255.0,255.0,255.0,255.0,255.0,255.0,255.0,255.0,255.0,255.0,255.0,255.0,255.0,255.0,255.0,255.0,255.0,255.0,255.0,255.0,255.0,255.0,255.0,255.0,255.0,255.0,255.0,255.0,255.0,255.0,255.0,255.0,255.0,255.0,255.0,255.0,255.0,255.0,255.0,255.0,255.0,255.0,255.0,255.0,255.0,255.0,255.0,255.0,255.0,255.0,255.0,255.0,255.0,255.0,255.0,255.0,255.0,255.0,255.0,255.0,255.0,255.0,255.0,255.0,255.0,255.0,255.0,255.0,255.0,255.0,255.0,255.0,255.0,255.0,255.0,255.0,255.0,255.0,255.0,255.0,255.0,255.0,255.0,255.0,255.0,255.0,255.0,255.0,255.0,255.0,255.0,255.0,255.0,255.0,255.0,255.0,255.0,255.0,255.0,255.0,255.0,255.0,255.0,255.0,255.0,255.0,255.0,255.0,255.0,255.0,255.0,255.0,255.0,255.0,255.0,255.0,255.0,255.0,255.0,255.0,255.0,255.0,255.0,255.0,255.0,255.0,255.0,255.0,255.0,255.0,255.0,255.0,255.0,255.0,255.0,255.0,255.0,255.0,255.0,255.0,255.0,255.0,255.0,255.0,255.0,255.0,255.0,255.0,255.0,255.0,255.0,255.0,255.0,255.0,255.0,255.0,255.0,255.0,255.0,255.0,255.0,255.0,255.0,255.0,255.0,255.0,255.0,255.0,255.0,255.0,255.0,255.0,255.0,255.0,255.0,255.0,255.0,255.0,255.0,255.0,255.0,255.0,255.0,255.0,255.0,255.0,255.0,255.0,255.0,255.0,255.0,255.0,255.0,255.0,255.0,255.0,255.0,255.0,255.0,255.0,255.0,255.0,255.0,255.0,255.0,255.0,255.0,255.0,255.0,255.0,255.0,255.0,255.0,255.0,255.0,255.0,255.0,255.0,255.0,255.0,255.0,255.0,255.0,255.0,255.0,255.0,255.0,255.0,255.0,255.0,255.0,255.0,255.0,255.0,255.0,255.0,255.0,255.0,255.0,255.0,255.0,255.0,255.0,255.0,255.0,255.0,255.0,255.0,255.0,255.0,255.0,255.0,255.0,255.0,255.0,255.0,255.0,255.0,255.0,255.0,255.0,255.0,255.0,255.0,255.0,255.0,255.0,255.0,255.0,255.0,255.0,255.0,255.0,255.0,255.0,255.0,255.0,255.0,255.0,255.0,255.0,255.0,255.0,255.0,255.0,255.0,255.0,255.0,255.0,255.0,255.0,255.0,255.0,255.0,255.0,255.0,255.0,255.0,255.0,255.0,255.0,255.0,255.0,255.0,255.0,255.0,255.0,255.0,255.0,255.0,255.0,255.0,255.0,255.0,255.0,255.0,255.0,255.0,255.0,255.0,255.0,255.0,255.0,255.0,255.0,255.0,255.0,255.0,255.0,255.0,255.0,255.0,255.0,255.0,255.0,255.0,255.0,255.0,255.0,255.0,255.0,255.0,255.0,255.0,255.0,255.0,255.0,255.0,255.0,255.0,255.0,255.0,255.0,255.0,255.0,255.0,255.0,255.0,255.0,255.0,255.0,255.0,255.0,255.0,255.0,255.0,255.0,255.0,255.0,255.0,255.0,255.0,255.0,255.0,255.0,255.0,255.0,255.0,255.0,255.0,255.0,255.0,255.0,255.0,255.0,255.0,255.0,255.0,255.0,255.0,255.0,255.0,255.0,255.0,255.0,255.0,255.0,255.0,255.0,255.0,255.0,255.0,255.0,255.0,255.0,255.0,255.0,255.0,255.0,255.0,255.0,255.0,255.0,255.0,255.0,255.0,255.0,255.0,255.0,255.0,255.0,255.0,255.0,255.0,255.0,255.0,255.0,255.0,255.0,255.0,255.0,255.0,255.0,255.0,255.0,255.0,255.0,255.0,255.0,255.0,255.0,255.0,255.0,255.0,255.0,255.0,255.0,255.0,255.0,255.0,255.0,255.0,255.0,255.0,255.0,255.0,255.0,255.0,255.0,255.0,255.0,255.0,255.0,255.0,255.0,255.0,255.0,255.0,255.0,255.0,255.0,255.0,255.0,255.0,255.0,255.0,255.0,255.0,255.0,255.0,255.0,255.0,255.0,255.0,255.0,255.0,255.0,255.0,255.0,255.0,255.0,255.0,255.0,255.0,255.0,255.0,255.0,255.0,255.0,255.0,255.0,255.0,255.0,255.0,255.0,255.0,255.0,255.0,255.0,255.0,255.0,255.0,255.0,255.0,255.0,255.0,255.0,255.0,255.0,255.0,255.0,255.0,255.0,255.0,255.0,255.0,255.0,255.0,255.0,255.0,255.0,255.0,255.0,255.0,255.0,255.0,255.0,255.0,255.0,255.0,255.0,255.0,255.0,255.0,255.0,255.0,255.0,255.0,255.0,255.0,255.0,255.0,255.0,255.0,255.0,255.0,255.0,255.0,255.0,255.0,255.0,255.0,255.0,255.0,255.0,255.0,255.0,255.0,255.0,255.0,255.0,255.0,255.0,255.0,255.0,255.0,255.0,255.0,255.0,255.0,255.0,255.0,255.0,255.0,255.0,255.0,255.0,255.0,255.0,255.0,255.0,255.0,255.0,255.0,255.0,255.0,255.0,255.0,255.0,255.0,255.0,255.0,255.0,255.0,255.0,255.0,255.0,255.0,255.0,255.0,255.0,255.0,255.0,255.0,255.0,255.0,255.0,255.0,255.0,255.0,255.0,255.0,255.0,255.0,255.0,255.0,255.0,255.0,255.0,255.0,255.0,255.0,255.0,255.0,255.0,255.0,255.0,255.0,255.0,255.0,255.0,255.0,255.0,255.0,255.0,255.0,255.0,255.0,255.0,255.0,255.0,255.0,255.0,255.0,255.0,255.0,255.0,255.0,255.0,255.0,255.0,255.0,255.0,255.0,255.0,255.0,255.0,255.0,255.0,255.0,255.0,255.0,255.0,255.0,255.0,255.0,255.0,255.0,255.0,255.0,255.0,255.0,255.0,255.0,255.0,255.0,255.0,255.0,255.0,255.0,255.0,255.0,255.0,255.0,255.0,255.0,255.0,255.0,255.0,255.0,255.0,255.0,255.0,255.0,255.0,255.0,255.0,255.0,255.0,255.0,255.0,255.0,255.0,255.0,255.0,255.0,255.0,255.0,255.0,255.0,255.0,255.0,255.0,255.0,255.0,255.0,255.0,255.0,255.0,255.0,255.0,255.0,255.0,255.0,255.0,255.0,255.0,255.0,255.0,255.0,255.0,255.0,255.0,255.0,255.0,255.0,255.0,255.0,255.0,255.0,255.0,255.0,255.0,255.0,255.0,255.0,255.0,255.0,255.0,255.0,255.0,255.0,255.0,255.0,255.0,255.0,255.0,255.0,255.0,255.0,255.0,255.0,255.0,255.0,255.0,255.0,255.0,
-1.25778e-01,3.78700e-02,-2.50969e-02,-7.92906e-02,1.24357e-02,3.15686e-02,-1.51836e-02,-7.75207e-02,7.89170e-02,-1.28630e-03,7.02680e-02,8.28002e-02,1.88602e-01,-1.18412e-01,1.60741e-01,-7.27284e-02,-6.56566e-02,-4.50436e-02,-1.29421e-01,-8.72792e-03,-8.94720e-02,8.64678e-02,2.80892e-02,-2.33477e-02,-1.07157e-01,-4.66609e-02,2.52867e-02,4.59044e-02,3.45364e-02,4.39366e-02,-3.84665e-02,-6.62562e-02,4.46561e-03,2.43061e-03,2.99302e-02,7.51491e-02,3.64233e-02,-9.19803e-02,2.26948e-02,5.34510e-02,-2.07288e-02,-1.31389e-01,2.85280e-02,-6.47132e-02,1.69095e-01,-7.80214e-02,5.97226e-02,-1.27939e-01,-1.99041e-01,4.00339e-02,1.23952e-01,-1.17329e-01,3.68204e-02,4.63834e-02,-6.79953e-02,-1.45488e-01,-9.26734e-02,-1.20006e-01,-3.37590e-02,1.17321e-01,-2.53313e-02,1.71315e-01,-1.33583e-02,2.89849e-02,5.33292e-02,6.79856e-02,-9.86425e-02,3.49874e-02,1.02680e-01,5.52154e-02,-1.70478e-01,-3.03871e-02,8.23583e-02,-2.92237e-02,-5.22309e-04,4.78722e-02,-5.57873e-02,-1.15196e-01,4.21724e-02,7.44205e-02,4.14722e-02,4.60253e-02,-2.16472e-02,-7.32628e-03,-1.08535e-01,-9.43873e-02,1.31386e-01,-1.56453e-01,-7.68781e-02,-2.17704e-02,-1.42847e-01,-1.07067e-01,-1.96060e-01,-7.78051e-02,6.19933e-02,-3.32323e-02,4.35108e-02,1.14060e-01,6.16723e-02,-1.71377e-03,2.50580e-02,9.46773e-02,1.59507e-01,-1.82264e-02,-5.50438e-02,5.44651e-02,-2.96571e-02,-7.97219e-02,1.28264e-01,1.62775e-02,-8.38640e-02,2.64306e-02,-5.21522e-02,1.87687e-02,9.66074e-02,-1.08127e-03,-4.73146e-02,-1.10577e-01,-9.89460e-02,1.64362e-01,8.76814e-02,1.12140e-01,5.82472e-02,1.79917e-01,-4.98713e-02,-3.64728e-02,-8.47187e-02,-4.99333e-03,-1.18247e-01,1.04393e-01,2.95912e-02,7.99986e-03,-9.70689e-03,-4.31176e-02,-1.98170e-01,-3.67396e-02,1.76422e-01,8.68463e-02,2.82821e-02,2.88597e-02,-6.54547e-02,2.31971e-02,-8.30468e-02,1.61662e-01,-8.08816e-02,4.87536e-02,2.56081e-02,6.35973e-02,-6.24943e-02,-9.86097e-02,-1.42383e-02,1.45038e-01,5.67228e-02,6.30196e-02,3.87206e-02,6.42809e-02,-1.36323e-01,2.90763e-02,1.81754e-02,-3.67193e-02,-3.65766e-02,-7.09692e-02,6.47659e-02,1.06235e-01,8.45508e-02,-1.76596e-01,-1.24623e-01,-7.42689e-02,1.34069e-01,-1.01746e-01,3.21909e-02,-5.28144e-02,-1.08893e-01,-1.69855e-01,2.71172e-02,-6.11535e-03,4.78133e-02,-2.81699e-02,1.01162e-01,3.48696e-03,-1.42763e-01,1.32091e-01,1.34995e-01,-1.25485e-01,6.28865e-02,1.04374e-03,-1.05917e-03,7.06245e-02,1.29205e-02,-1.84558e-01,-7.26363e-02,-1.73058e-02,4.64218e-03,1.77945e-02,-2.49969e-02,-2.59372e-02,1.16808e-01,4.99014e-02,7.60908e-02,-4.59615e-02,1.25834e-01,-2.98729e-02,4.27921e-02,5.63302e-03,1.24262e-01,7.14553e-02,-1.28681e-02,-8.87862e-02,-9.90851e-02,-8.25037e-02,-4.89743e-02,-4.90209e-03,-1.00702e-02,-2.20655e-02,-1.44974e-01,-1.91617e-02,-5.29346e-02,1.25849e-01,-6.86192e-03,-1.11826e-01,8.39481e-02,-1.79067e-01,1.75991e-01,2.90855e-02,1.16627e-01,9.31907e-02,-8.71068e-02,-4.89725e-02,5.96693e-03,7.31726e-02,-1.26618e-01,-2.26269e-02,3.03802e-02,8.28720e-02,-3.12307e-02,6.24204e-02,5.84216e-04,7.57622e-02,2.20079e-02,5.21781e-02,1.87841e-02,-1.72613e-02,4.55057e-04,1.63734e-01,-1.01854e-01,-5.20833e-02,-7.41182e-02,7.53032e-02,1.16199e-02,1.30158e-01,3.28645e-02,-5.49130e-02,1.20630e-01,-3.09533e-02,-1.12121e-01,-9.48888e-03,-1.11907e-01,-1.34968e-01,-9.87183e-02,1.78307e-01,-1.60351e-02,-1.01446e-01,4.39822e-02,5.57625e-03,7.29186e-02,-1.72699e-01,1.61560e-02,9.85257e-02,6.46224e-02,4.77478e-02,-1.20583e-01,1.87436e-01,1.47169e-01,1.50550e-01,-9.45803e-02,5.78761e-02,3.54434e-02,-1.14508e-01,-1.83551e-02,7.35724e-02,-1.52972e-01,-5.12310e-02,3.01799e-02,-1.06241e-01,-1.15539e-02,1.12366e-01,-1.20355e-02,6.89895e-02,-3.60428e-02,-1.26525e-01,-1.08980e-01,-1.33515e-01,1.21028e-01,-1.13083e-02,8.76107e-02,1.92764e-01,-1.42210e-01,-3.88980e-02,1.19180e-01,6.97005e-03,-7.75451e-02,-4.68732e-02,1.07213e-01,-8.82230e-02,4.41185e-02,1.27466e-01,6.53489e-02,-1.09764e-01,1.14789e-01,3.10146e-02,-1.38377e-01,-1.84530e-02,-3.32392e-02,-4.89021e-03,5.46756e-02,-1.07586e-01,-1.86319e-01,-1.28496e-01,-2.82142e-02,-1.51300e-01,-9.43499e-02,-5.87225e-02,1.16853e-01,-1.90224e-01,-1.06614e-01,-8.83608e-02,-1.30048e-01,-1.63620e-02,-8.01151e-02,6.22355e-02,8.10390e-03,3.03692e-02,5.50108e-03,8.85241e-02,9.69746e-02,-1.54123e-01,3.30009e-02,-9.71182e-02,-4.91868e-02,-7.40282e-02,-6.22095e-02,-1.49191e-01,1.11364e-01,-5.62818e-03,1.90745e-02,1.75794e-01,1.64900e-01,9.75135e-02,-1.10823e-02,7.27534e-02,2.14556e-02,4.98963e-02,2.43237e-02,-7.91050e-02,-6.10136e-02,4.59529e-02,-7.65337e-02,1.90812e-02,8.94005e-02,-1.13555e-01,-5.19638e-02,-1.12019e-01,-1.40212e-01,-4.56002e-03,-2.73119e-02,-1.32055e-01,6.69940e-02,-1.26835e-01,-1.92090e-01,-1.26838e-01,1.52239e-02,4.74327e-02,-1.60214e-01,2.91994e-02,1.11667e-02,9.18235e-02,6.34287e-02,-7.00049e-02,1.12142e-01,9.16550e-02,-4.57785e-02,-4.44517e-03,-1.16276e-01,-2.73821e-02,4.20683e-03,1.25796e-01,-6.67723e-02,1.07557e-01,1.62302e-04,-1.37032e-01,-4.67958e-02,6.26243e-03,-1.12674e-01,3.86130e-02,-3.79893e-02,1.78917e-01,2.96810e-02,9.24402e-02,-1.84674e-01,6.25763e-05,-2.78202e-02,-9.74975e-02,-5.96799e-02,1.52271e-01,-7.84764e-02,-1.27602e-01,9.46808e-03,-4.82508e-02,6.41056e-02,-7.38243e-02,9.32225e-02,3.31517e-02,-3.22172e-02,2.52728e-02,8.33807e-02,5.27965e-03,8.12411e-02,-5.74668e-02,7.78439e-02,-5.80461e-02,-4.52440e-02,-2.12452e-02,-1.86938e-01,-1.59095e-01,1.11892e-01,6.48603e-02,1.49442e-01,1.90538e-03,-8.69631e-02,-1.51307e-01,-8.33438e-02,1.05700e-01,9.29085e-02,-7.85425e-02,-1.94906e-01,-1.77349e-02,-1.02963e-01,-4.07121e-02,2.60908e-02,-6.56042e-02,-4.54350e-02,1.26488e-01,1.70666e-01,2.45331e-02,-5.88897e-02,1.51631e-01,-1.05188e-01,-4.17364e-02,1.31783e-01,-3.05082e-02,-1.20413e-01,-6.96683e-02,9.99641e-02,6.88964e-02,-3.66770e-02,1.10017e-01,1.03563e-01,-1.36603e-01,1.38247e-01,-6.26791e-02,3.48424e-02,-1.37361e-01,6.90888e-02,1.99895e-01,5.17446e-02,7.25036e-03,-1.52868e-01,1.82717e-02,1.45243e-01,8.18588e-02,1.11337e-01,6.05152e-02,4.91943e-02,-1.04724e-01,1.07410e-01,-1.03758e-01,-1.05405e-01,-1.24801e-03,-5.45832e-02,3.87920e-02,1.18747e-01,-3.26585e-02,-1.60594e-01,2.30856e-02,2.36478e-02,-2.17938e-02,1.54738e-01,-2.22272e-02,-7.94367e-02,-1.19187e-01,-6.31024e-02,-8.77916e-02,-9.97282e-03,-4.13912e-02,-2.62041e-02,3.10437e-02,-2.18621e-02,4.79356e-02,-1.03988e-01,-4.11487e-02,-5.47499e-02,3.48508e-02,-1.50652e-01,6.47930e-02,2.87254e-02,-1.24575e-01,1.01590e-01,-5.21070e-02,1.38935e-02,-3.86739e-02,1.92785e-01,-1.79573e-01,1.59048e-01,3.97946e-02,-6.44581e-02,2.48561e-02,1.24131e-02,-2.17631e-03,5.70978e-02,-1.32503e-01,1.23000e-01,1.26601e-01,-7.68373e-03,-5.43796e-02,1.27071e-01,4.26190e-02,6.51465e-02,7.59463e-02,4.94377e-02,1.07241e-02,-1.91147e-01,1.18634e-01,-3.12834e-02,-9.29391e-02,-8.59173e-03,2.66195e-02,7.31728e-02,1.12695e-01,-1.02849e-02,1.60027e-01,-1.16740e-02,1.01492e-01,7.43273e-02,-1.86881e-02,-2.43146e-02,-2.08690e-02,1.16183e-01,-8.01484e-02,-1.64474e-01,-7.44891e-02,-1.52793e-01,5.89810e-03,-5.79951e-02,-7.96184e-03,-2.69028e-02,-1.45116e-01,2.29688e-02,7.54202e-02,-5.08611e-02,1.44176e-02,4.09218e-02,4.63600e-03,-9.60779e-02,-1.54610e-02,-1.66087e-01,-1.14905e-01,2.50933e-04,-2.91613e-02,-7.11963e-02,1.03363e-01,1.43728e-02,1.16601e-01,1.54259e-01,-1.21008e-01,-2.60167e-02,-2.55121e-03,3.73752e-02,1.97886e-02,2.49563e-02,-1.67056e-01,9.83406e-02,-9.55851e-02,-7.51206e-02,-7.35339e-02,-5.73743e-02,-1.26310e-01,-6.80616e-02,-7.05319e-02,4.07118e-02,-2.84561e-02,-1.93943e-01,-2.22900e-02,7.85184e-02,1.27571e-01,5.45460e-02,-6.56301e-02,1.27834e-01,6.23663e-02,-9.97310e-02,1.70037e-01,-6.27406e-02,-1.09881e-01,4.03513e-02,-4.49990e-02,-5.95604e-03,-1.09194e-01,6.67285e-02,-1.18431e-04,1.86632e-02,-1.03611e-01,9.86609e-02,7.15299e-02,-6.55903e-02,-1.80200e-01,1.27970e-01,-4.79234e-02,-1.67179e-01,-3.13832e-02,-2.75167e-02,-1.13869e-01,-2.53671e-02,1.30849e-01,-1.19154e-01,-3.29535e-02,-3.45219e-02,-1.58296e-01,-1.70849e-01,5.11707e-02,-1.02154e-01,6.64256e-02,-1.11073e-01,9.84759e-02,7.60968e-02,3.07820e-02,-1.32805e-01,-1.10528e-01,-1.02810e-01,-1.91422e-02,-3.88884e-02,-9.30616e-02,5.01626e-02,1.54544e-01,-9.16326e-03,7.53790e-03,-6.60573e-02,2.11688e-02,2.59375e-02,7.12876e-02,3.65365e-02,-1.09300e-01,-3.60937e-02,-1.12576e-01,7.89552e-02,7.29019e-02,-4.60389e-02,1.89583e-02,3.31406e-02,-4.88014e-02,-6.37665e-02,-5.24484e-02,9.05720e-02,8.64249e-02,1.96277e-01,7.64880e-02,-2.52707e-02,-3.85283e-02,7.47747e-02,4.91307e-02,-2.31368e-02,-6.44854e-02,3.44860e-02,7.73793e-03,2.65585e-02,6.69577e-02,1.89276e-01,9.01163e-03,-4.00279e-02,-1.17963e-02,8.86972e-03,1.21680e-01,9.03159e-02,-3.63470e-02,-4.35507e-02,8.92261e-02,1.97412e-02,-1.12595e-01,-5.24390e-02,-2.27848e-02,1.35271e-03,-7.02865e-02,8.98361e-02,-1.02984e-02,-1.32212e-01,1.75336e-01,-1.89137e-01,-1.51555e-01,-2.89047e-02,9.13089e-02,1.34557e-01,1.13386e-01,-1.24171e-01,1.67338e-01,3.33387e-02,1.09138e-02,6.92010e-02,9.75536e-02,-8.18991e-02,2.31917e-02,-6.65285e-02,-1.86686e-02,1.67914e-01,-1.76251e-01,7.47893e-02,-4.51320e-02,4.62871e-02,4.93466e-02,-1.15876e-01,1.57168e-01,-1.73955e-04,4.51190e-02,1.61797e-01,1.72816e-01,6.77499e-02,-8.13778e-02,-1.60129e-01,-2.93962e-02,-6.93889e-03,-1.62895e-03,-6.13716e-02,-7.38113e-02,-1.64443e-01,-1.66129e-01,-7.79046e-02,1.62406e-01,1.31499e-01,3.27675e-02,8.03912e-02,5.93276e-02,1.65621e-01,-1.54998e-02,1.02212e-01,1.50946e-01,-1.85377e-01,-8.39450e-02,5.03544e-03,-5.19223e-03,3.15049e-02,-6.34626e-02,5.87532e-02,8.91876e-03,4.89289e-03,2.42474e-02,-4.23957e-02,-9.41249e-02,-5.38245e-02,5.88709e-02,1.53965e-01,3.84735e-02,1.09548e-01,3.01436e-02,1.16038e-01,1.98440e-01,3.64790e-02,4.42333e-03,1.35147e-01,-8.30882e-02,5.43831e-02,-4.80567e-02,-6.62714e-02,-3.99999e-02,-7.69903e-02,-1.24120e-01,-1.84264e-02,1.15139e-01,8.78898e-02,-1.33804e-03,-1.55609e-01,-2.71869e-02,1.69631e-01,-7.54252e-02,-8.96566e-02,-9.86937e-02,-1.22277e-01,1.27102e-02,3.00614e-02,-8.85052e-02,-4.96730e-02,7.10592e-02,-1.23831e-01,1.23157e-01,3.74918e-03,-1.71506e-01,5.62086e-02,-1.05838e-01,-4.25010e-02,1.78878e-01,1.25461e-01,1.16286e-01,5.27143e-02,2.21851e-02,4.35003e-02,-6.52782e-02,-9.99715e-02,1.61489e-01,8.26584e-02,-4.91276e-02,1.82505e-02,2.27513e-02,7.15892e-02,1.82804e-01,-8.96633e-02,4.64776e-02,1.45417e-01,3.85385e-02,1.52876e-01,-1.25392e-02,-3.16727e-02,1.19332e-01,6.06732e-02,-4.22398e-02,1.30017e-02,9.26797e-02,-3.02663e-02,1.18088e-02,-1.06278e-01,-1.19492e-01,1.23851e-01,-1.15123e-03,7.55090e-02,-1.56724e-01,1.67137e-01,-9.61280e-02,-1.06769e-01,-3.73910e-02,-2.43357e-02,1.36867e-01,2.22876e-02,-1.04108e-01,-1.10024e-01,-4.87720e-02,9.99125e-03,-7.72149e-03,8.91280e-03,1.81008e-02,-7.49479e-02,1.58351e-01,1.64545e-01,5.04007e-02,-8.41134e-02,-8.83212e-02,1.33865e-02,2.81964e-02,7.38656e-02,-2.34141e-02,-1.22889e-01,-5.24582e-02,2.21472e-02,-1.66856e-02,1.62924e-01,8.35892e-02,5.57384e-02,8.71183e-02,1.58261e-02,-3.12126e-02,-1.52589e-01,-1.59748e-02,-3.78885e-02,5.53877e-02,6.75348e-02,6.37074e-02,6.51690e-03,9.01458e-02,-9.89456e-02,5.48133e-02,3.81515e-02,-2.08502e-02,-6.79516e-02,7.11186e-02,8.85789e-04,3.36927e-02,-1.11179e-01,1.56974e-02,-6.18572e-03,-5.26510e-02,5.67325e-02,-9.26420e-02,-8.19463e-02,8.36052e-02,1.30130e-02,-5.66683e-03,-6.69630e-02,-1.98304e-01,1.21820e-01,-1.09929e-01,8.78359e-02,1.37654e-01,5.51776e-02,-6.71533e-02,-9.46910e-02,-1.21924e-01,1.37185e-01,1.40252e-01,9.62875e-02,1.01028e-01,-4.06251e-02,5.26207e-02,6.79039e-02,-1.20289e-01,1.71011e-01,1.63164e-02,6.89067e-02,-7.73991e-02,-1.41885e-01,-1.65795e-01,-1.24863e-02,-4.90442e-02,9.98965e-02,-2.55320e-02,1.47796e-01,-9.29144e-02,-1.05226e-01,-1.87814e-01,-2.51882e-02,5.40551e-02,2.50390e-02,1.22999e-02,5.93515e-02,-1.30394e-01,5.10476e-04,-1.14384e-02,1.20938e-03,6.76105e-02,-6.63099e-02,-1.05918e-01,1.57663e-01,-9.33373e-02,7.67819e-02,-1.02153e-01,-2.37204e-02,9.86656e-02,1.43859e-02,-5.02351e-02,1.52628e-01,6.12729e-02,5.72216e-02,6.42122e-02,-5.61024e-02,1.73094e-01,4.26928e-03,6.87934e-03,-1.92831e-01,-8.67989e-03,2.26661e-02,4.27994e-02,-8.54767e-02,-1.45298e-01,1.33205e-01,-2.60625e-02,1.22305e-01,-5.05755e-02,9.61415e-03,6.18064e-02,8.19976e-02,-9.46117e-02,-3.84620e-02,2.49075e-03,-1.05005e-01,3.88964e-02,-6.89623e-03,-8.97854e-03,-1.04630e-01,-1.97069e-01,-3.84996e-02,-8.98378e-02,1.53031e-01,-5.36221e-02,1.39810e-01,-6.70868e-02,-7.70318e-02,4.93098e-02,-1.08038e-01,-9.18225e-02,1.26017e-01,-3.99068e-02,1.77305e-01,-2.42535e-02,3.23937e-02,-5.57743e-03,-1.69895e-02,2.42064e-02,1.08699e-01,-1.26621e-02,1.33621e-01,7.50141e-02,-4.92156e-02,1.18258e-01,8.58019e-02,-1.53060e-01,-1.11564e-01,-2.39293e-02,-1.49548e-01,-5.57000e-02,-8.36655e-02,-7.87912e-02,-1.82163e-01,1.90005e-01,7.42309e-02,8.26165e-02,7.93120e-02,-1.16653e-01,3.44408e-02,-2.00457e-02,7.63777e-02,-4.21027e-02,3.71001e-02,5.48539e-02,-6.58277e-02,7.24813e-02,-1.85507e-02,5.12509e-02,-1.87401e-01,3.14935e-02,-2.58829e-02,-6.20272e-02,8.53096e-02,1.43187e-01,-8.11527e-02,6.41166e-02,3.98110e-02,-1.14575e-01,-1.90770e-02,3.76382e-02,1.81653e-01,3.38626e-02,-1.42700e-01,-1.60312e-01,-6.34128e-02,-6.09506e-02,-6.16688e-02,-1.03497e-01,-1.94867e-02,5.66808e-02,-1.52277e-01,-6.36249e-02,1.24034e-01,1.39813e-01,1.26929e-01,-1.56565e-01,9.03698e-02,1.09539e-01,-4.63059e-02,-4.02644e-02,4.37134e-03,-3.69709e-02,1.09231e-01,1.21007e-02,4.77966e-02,7.96017e-02,6.46184e-03,-1.08689e-02,5.69445e-02,6.45479e-02,-1.36644e-01,5.14133e-02,7.47998e-02,1.23321e-02,-8.06472e-02,8.65271e-02,-1.71306e-02,-8.18781e-02,-3.96250e-02,8.20372e-02,-5.99382e-02,1.99791e-02,1.52542e-01,1.44447e-01,8.84905e-02,8.07894e-02,1.93833e-01,9.71001e-02,4.50200e-02,1.63240e-01,-6.48965e-02,-4.06140e-02,2.39911e-02,7.03669e-02,-1.04643e-02,1.07880e-01,-1.95183e-03,-1.89630e-01,-1.18152e-01,1.03486e-01,5.33424e-02,-4.81443e-02,-7.03907e-02,7.58989e-02,1.79066e-01,7.51629e-02,1.35174e-01,-2.28710e-02,5.60473e-02,-3.25096e-02,5.29609e-02,-5.68587e-03,1.01009e-02,1.56781e-01,-1.53137e-01,-9.96174e-03,-3.32671e-03,-1.15499e-01,4.29728e-03,-1.57867e-02,1.54576e-01,1.38116e-01,1.75646e-02,-1.80417e-01,1.25299e-01,-3.54152e-02,-4.46109e-02,-1.71226e-02,-1.30835e-01,-1.38262e-01,3.14309e-02,-1.21517e-01,-7.32511e-02,5.68932e-02,-7.88394e-03,-7.29681e-02,1.35370e-01,4.61434e-02,-1.20536e-01,1.38900e-01,2.34451e-02,-1.72041e-01,-1.08289e-01,3.10083e-02,-4.95869e-02,8.19273e-02,-2.52165e-02,-1.18017e-01,4.60897e-02,1.12547e-01,9.56896e-02,4.41155e-02,4.57854e-02,-4.17178e-02,-6.06354e-02,-1.45476e-01,6.04805e-02,1.17384e-01,5.33183e-02,3.60553e-02,3.11914e-02,6.24842e-02,-2.12705e-02,1.93647e-01,1.37983e-01,6.72632e-02,6.15011e-02,1.11482e-01,9.48131e-02,-5.87533e-02,-8.99861e-02,-2.86111e-02,-1.12385e-02,-1.67548e-01,-1.97873e-01,1.42434e-01,-2.73241e-02,-1.71948e-02,1.92195e-01,1.45931e-01,-6.95508e-02,-9.27799e-02,-3.63424e-04,6.57129e-02,4.70009e-02,-3.38880e-02,7.36162e-03,-9.10171e-02,1.70883e-01,-4.76433e-03,5.63433e-03,4.54333e-02,-4.19924e-02,1.31737e-01,-1.08282e-01,-1.21642e-01,-1.61069e-02,-1.85783e-01,-7.08930e-02,-4.35285e-02,1.64016e-01,9.56190e-03,1.14809e-01,1.70782e-02,-1.12788e-01,4.92682e-02,-5.06442e-03,-2.88374e-02,-5.55810e-02,4.31660e-03,-1.66065e-01,4.89608e-03,-9.60946e-02,-3.96088e-02,-3.81923e-02,1.97061e-02,-6.35990e-02,1.70871e-01,1.97534e-02,-7.12807e-02,2.96731e-03,1.35480e-02,6.93201e-02,-8.73159e-02,-2.36295e-02,-2.41833e-02,1.84671e-01,-3.51020e-02,6.35190e-02,-1.44582e-02,5.69695e-02,-1.12002e-01,-1.17869e-02,-5.52586e-02,5.24980e-03,1.23311e-02,-1.39409e-01,8.23290e-03,-6.01230e-02,-4.53878e-02,4.53366e-02,1.23353e-02,3.18921e-02,4.53620e-02,1.61319e-02,-2.35983e-02,-3.49710e-02,-5.78890e-02,-4.97887e-03,1.48802e-01,-2.65469e-02,-4.17457e-02,1.35680e-02,5.06191e-02,-4.80936e-02,-6.66833e-02,9.72159e-02,1.32196e-01,-2.93388e-02,6.11236e-02,-1.49094e-01,-7.80548e-02,1.34457e-01,-7.05229e-02,-1.57760e-02,7.24067e-02,2.24939e-02,1.28866e-02,1.52702e-02,8.77929e-02,-3.29414e-02,1.68362e-02,-1.09161e-01,-1.00140e-01,1.24693e-01,-1.34389e-01,5.59726e-02,-2.13994e-02,4.74004e-02,1.92133e-01,-8.91721e-02,-6.20917e-02,-4.78408e-02,-1.78268e-01,-9.38823e-02,-3.14335e-02,2.53706e-02,-1.18758e-01,6.63109e-02,6.23128e-02,1.75087e-01,-1.20592e-01,7.41329e-02,-3.84035e-02,1.09574e-01,-5.46105e-02,3.04674e-02,2.37861e-02,-1.48615e-01,-6.40400e-02,-4.00485e-02,-1.39534e-01,1.55696e-02,-8.66917e-03,-2.41453e-02,-3.86983e-02,-1.13279e-02,-3.07319e-02,1.65361e-01,1.00817e-01,-6.25270e-02,8.70820e-02,-7.62920e-02,-4.14607e-02,-1.66822e-01,3.50392e-02,-1.03070e-01,-1.46525e-01,1.44079e-01,-1.85331e-02,-6.77958e-02,7.15677e-02,1.55362e-01,9.13883e-02,-1.11805e-01,-1.29413e-01,2.07342e-02,4.06265e-02,9.26960e-03,1.30783e-01,-4.30765e-03,9.81453e-02,-6.01669e-02,2.74133e-02,-1.51776e-01,1.26769e-01,-1.58953e-01,-3.50493e-02,5.37337e-02,1.23303e-01,8.45063e-02,-5.36196e-02,4.76733e-02,6.24582e-03,9.80843e-02,-3.84285e-03,8.53631e-02,-3.95722e-02,5.14002e-02,-1.19294e-01,8.99422e-02,8.99182e-02,-7.01450e-03,1.53233e-02,1.40418e-01,3.89513e-02,-1.30785e-01,3.94878e-02,-9.00140e-02,4.74889e-02,-2.10021e-02,1.00156e-01,-1.09595e-01,1.13829e-01,3.49962e-02,-1.19024e-01,-1.66442e-01,1.72039e-02,7.08950e-02,6.75585e-02,-5.02802e-02,1.55899e-01,7.60178e-02,2.94097e-02,2.81076e-03,-5.00695e-02,-8.27954e-02,7.06230e-02,2.81529e-02,1.00560e-01,1.13622e-01,5.09855e-02,3.31756e-03,7.92766e-02,-3.26453e-03,3.60772e-02,4.37804e-02,1.37406e-01,6.73163e-02,-1.81089e-01,8.58114e-02,2.05898e-02,3.57677e-02,-8.50977e-02,-7.21709e-03,-1.04973e-01,-5.70233e-02,1.97713e-01,3.32707e-03,-7.78144e-02,-7.28962e-02,9.72663e-02,-1.37784e-02,-5.13417e-02,-7.95893e-02,-3.13613e-02,4.78933e-02,-7.17615e-02,-6.78348e-02,-7.82267e-02,-7.04801e-02,-1.65203e-04,5.90364e-02,7.30889e-02,2.44273e-02,-2.24099e-02,-1.40650e-01,-5.04246e-02,-6.18616e-02,-5.11338e-02,1.81170e-01,-5.42191e-02,3.36890e-02,-1.03956e-01,-1.13671e-01,-6.68743e-02,1.34036e-01,1.96384e-01,8.07711e-02,-2.31978e-02,7.89646e-02,1.27333e-02,-1.82057e-01,-4.21034e-02,-8.68991e-02,1.06596e-01,1.04572e-01,-9.87455e-02,-4.15448e-02,-6.39617e-02,1.50551e-01,-4.02588e-02,1.08893e-01,-6.75490e-03,5.54847e-02,5.38468e-02,-2.36557e-02,1.17223e-01,-7.70681e-02,7.48128e-02,4.76421e-02,1.35994e-01,8.98439e-02,2.09800e-02,4.69161e-02,-8.76409e-02,-3.20022e-02,8.57304e-03,1.61468e-02,-1.63982e-01,-1.29080e-01,8.37381e-02,1.31588e-01,2.44847e-02,9.70396e-03,-1.62258e-02,-1.52555e-02,-4.66810e-02,-5.81836e-02,1.66017e-01,6.13588e-02,2.56044e-02,1.05481e-01,1.12036e-01,9.31063e-02,1.44725e-01,-2.89137e-03,9.39543e-02,-5.46720e-02,-1.01220e-01,1.69135e-02,1.02468e-01,7.30196e-02,-8.12172e-02,8.98871e-02,-5.45317e-02,5.52719e-02,-4.85938e-02,9.00400e-02,-6.78717e-02,1.09253e-01,1.42945e-02,-7.80104e-02,-9.87237e-02,-6.76215e-02,3.70129e-03,2.18142e-02,-4.85525e-03,-2.35123e-02,1.63488e-01,1.66512e-01,1.68725e-02,9.46719e-02,-1.12321e-01,5.09355e-02,1.23882e-01,-1.58176e-01,9.53516e-02,-2.89738e-02,1.93523e-01,4.57781e-02,-9.89080e-02,-4.05345e-02,1.09138e-01,1.09748e-02,1.51507e-02,-1.19525e-02,-9.66879e-03,1.14813e-01,6.70407e-02,7.25846e-02,-7.13732e-02,-3.56772e-02,-2.56378e-02,1.43359e-01,3.43873e-02,-1.57659e-01,-5.69571e-02,7.15638e-02,1.75060e-02,7.75648e-02,7.12664e-02,1.10517e-01,1.60972e-01,5.17600e-02,2.56768e-02,1.02265e-01,3.13662e-02,-2.34978e-02,-1.33244e-02,2.83509e-02,7.51137e-02,-6.93440e-02,7.59164e-02,-1.53567e-01,1.35314e-01,1.35076e-02,-3.02264e-02,-1.02242e-01,-9.28135e-02,-6.71903e-02,-2.37056e-02,7.15369e-02,-1.61132e-01,5.71107e-02,5.87570e-02,2.03693e-02,3.81616e-02,1.50305e-01,-4.46749e-02,-1.70456e-01,-3.70486e-02,-2.79877e-03,7.99586e-02,1.24866e-02,-1.36901e-01,7.88981e-02,-7.92557e-02,6.13768e-02,1.17256e-01,7.08258e-02,7.02923e-03,3.29894e-02,3.57353e-02,2.59259e-02,-1.29420e-01,1.70567e-02,2.39944e-02,4.41977e-02,6.67724e-02,-6.41709e-02,5.65841e-02,-2.31580e-02,-4.84139e-02,9.08364e-02,1.93884e-01,5.90762e-02,-1.22038e-01,-1.08301e-01,5.27602e-02,-3.10142e-02,-5.83985e-02,3.92840e-02,4.51562e-02,-5.86741e-02,8.40056e-02,1.28466e-01,1.02778e-01,4.87351e-02,-1.41060e-01,-7.69441e-02,-3.58226e-02,7.76606e-02,-1.90332e-01,-4.01046e-02,3.14356e-02,-9.63870e-02,-9.91711e-03,1.90182e-02,-9.84094e-02,-4.63661e-02,1.98464e-02,-1.02146e-01,1.48783e-01,-1.90966e-02,-1.79003e-01,3.30954e-02,-7.48616e-03,-8.67652e-02,3.51408e-02,-1.64151e-01,-2.71469e-02,-1.33256e-01,-6.49893e-02,-1.07931e-01,3.65331e-02,-1.07258e-01,-1.37492e-01,-9.29402e-02,9.63443e-02,-6.33214e-02,8.02534e-03,-1.13747e-01,-5.72922e-02,8.73133e-02,4.37222e-02,-2.48977e-02,-1.36312e-01,-8.95230e-02,6.25517e-02,1.34240e-01,1.20827e-01,9.69878e-02,5.71894e-02,-1.20338e-01,1.25675e-01,-1.37067e-01,-1.72035e-02,-1.15752e-01,-6.15221e-03,-7.57351e-02,-6.78648e-03,-2.41338e-02,-2.50533e-02,1.87508e-01,-2.79686e-02,-1.93674e-01,-1.99016e-01,-7.91512e-02,6.94127e-02,9.39462e-02,-1.02684e-01,-3.21315e-02,2.27967e-02,1.66988e-02,-7.82339e-04,-4.00298e-02,1.08164e-01,-9.85053e-02,-3.48749e-02,-1.66267e-01,1.89526e-02,6.92261e-02,1.27005e-01,-1.67739e-02,1.09208e-01,4.16325e-02,-7.84214e-02,-7.74154e-03,4.37136e-02,-3.89894e-02,-1.24942e-01,-2.42308e-02,1.09233e-01,9.57262e-02,-1.27428e-02,-3.35745e-02,1.23455e-01,7.75857e-02,1.11834e-01,-6.84479e-02,-6.10170e-02,1.20216e-01,3.00467e-02,-1.73173e-01,-1.42235e-02,-7.59211e-02,1.05557e-02,-1.11191e-01,-7.17170e-02,-5.55959e-04,-3.92983e-02,8.59630e-03,-1.50027e-01,9.48057e-02,-1.95686e-01,-1.05888e-01,-2.61291e-02,1.02298e-01,-1.30612e-01,-5.70695e-02,6.10747e-02,-1.26009e-01,-1.50654e-02,6.76622e-02,-9.31252e-02,1.56250e-01,-7.12593e-02,-1.89164e-02,7.75251e-02,7.96209e-02,-6.04990e-02,-6.47523e-02,-5.07325e-02,-1.79434e-01,-1.70877e-01,-1.58729e-01,-1.43540e-01,5.01440e-02,-3.05528e-02,2.92232e-02,-3.25226e-03,2.34618e-03,3.21769e-02,-8.86808e-02,-8.68517e-02,-3.31665e-02,1.96208e-01,-1.66167e-02,-1.33968e-01,-1.02165e-01,-7.88022e-02,1.58893e-01,1.89651e-01,1.99431e-01,-1.92170e-01,-6.69610e-02,-3.79553e-02,-3.67447e-02,1.83040e-01,1.01602e-01,8.83498e-02,1.64586e-01,6.22081e-02,-2.25342e-02,9.80572e-02,-6.12786e-02,3.14950e-02,-7.94961e-02,1.06111e-02,-6.24993e-02,9.23164e-02,5.78955e-02,-6.05846e-02,-1.13976e-01,1.57770e-01,1.85824e-01,7.06759e-02,3.12747e-02,-3.94269e-02,-7.12926e-02,5.01035e-02,4.47845e-03,1.68919e-02,-7.65994e-02,9.17955e-02,-1.67572e-02,-8.01695e-02,1.25842e-01,7.18838e-02,2.82968e-02,1.87061e-01,-4.41584e-02,-1.36313e-01,7.63099e-02,1.17620e-01,9.58839e-02,1.07068e-01,1.10939e-01,1.62150e-01,-8.78268e-02,1.51122e-01,9.85597e-02,3.30777e-02,1.08773e-01,-1.11353e-03,-1.37291e-01,7.78708e-02,1.75534e-01,-1.29429e-01,1.82236e-02,-3.16502e-02,-1.70534e-01,-5.61318e-02,2.41274e-02,-6.80374e-04,-1.04432e-01,-1.90524e-01,1.11723e-01,1.44191e-01,6.76206e-02,5.32607e-02,5.58935e-02,1.21970e-01,-4.10849e-02,-9.74305e-02,-1.05363e-01,-8.43913e-02,3.37581e-02,-1.27083e-02,6.40263e-02,1.79274e-01,2.90827e-02,9.85640e-02,-7.16976e-02,-1.92964e-01,-3.38155e-02,-9.13902e-02,-1.28402e-01,1.24881e-01,1.16129e-01,-2.89308e-02,4.75583e-02,-6.70479e-02,5.19028e-02,3.99805e-02,3.22008e-02,9.76039e-02,-1.66600e-01,-2.19627e-02,6.71498e-02,-1.17402e-01,4.39966e-02,7.21009e-02,-6.60611e-03,-3.35333e-02,-7.99007e-02,8.74264e-02,6.19254e-03,-3.53663e-02,-6.16644e-02,-8.89882e-02,-5.03229e-02,9.54774e-02,3.31716e-02,-1.01967e-02,-1.21384e-02,9.65579e-02,4.84995e-02,-3.81498e-02,-6.49812e-02,1.06584e-02,9.16372e-02,1.23246e-01,4.76889e-02,-1.34871e-01,5.38727e-02,8.31526e-02,9.61713e-02,6.78292e-02,1.73379e-02,6.22339e-02,7.69234e-02,1.97729e-01,-1.07769e-01,1.79944e-02,-2.97814e-02,3.34554e-02,-3.36688e-02,-1.25701e-02,-6.60692e-02,8.04725e-02,2.84362e-02,2.41600e-02,-1.44302e-01,-1.79294e-01,4.91773e-02,9.87165e-02,-8.52786e-02,4.41154e-02,-2.30918e-03,1.34392e-01,9.83982e-02,-4.38585e-02,-8.61605e-02,1.57759e-02,-1.52655e-02,1.41275e-01,1.85256e-01,3.59859e-02,-4.38164e-02,9.78734e-02,-8.45938e-02,-6.24677e-02,3.24258e-02,1.01962e-01,-1.42906e-01,-7.60018e-02,-1.45762e-02,3.89008e-02,-7.05964e-02,-5.74366e-02,3.32644e-02,2.78622e-02,-1.29901e-01,7.12875e-02,1.06857e-01,-5.10353e-02,-1.05463e-01,-1.88162e-01,-6.10323e-02,-7.81587e-02,1.14399e-01,8.92647e-02,-8.61199e-02,-1.76838e-01,1.90061e-01,7.53723e-02,-1.65902e-01,-9.29806e-02,-1.03769e-01,1.15414e-01,-1.01052e-01,-1.88954e-01,2.59501e-02,9.11963e-02,1.05703e-01,-2.56018e-02,-6.49207e-02,1.32470e-01,3.96375e-02,7.13225e-02,3.18553e-02,1.01005e-01,-1.18843e-01,1.62482e-02,-1.05803e-01,-9.94581e-04,-5.30228e-02,-6.85534e-02,-7.06305e-02,-6.11856e-02,-1.70687e-01,-3.45612e-02,-1.67540e-02,1.15701e-01,9.96401e-02,-1.39779e-01,1.28296e-02,-8.88332e-02,5.18899e-02,-9.64402e-02,-5.13604e-03,1.05971e-01,-2.41441e-02,1.61671e-01,-1.06683e-01,1.33941e-01,1.03849e-01,1.23739e-01,-5.77835e-02,7.81774e-02,-9.38581e-03,2.50928e-02,-1.36832e-01,1.07072e-02,7.75020e-02,-2.88166e-02,-6.05506e-02,1.61402e-01,4.55890e-02,3.64248e-02,5.89805e-02,5.24571e-02,2.04467e-02,-4.85479e-02,6.89639e-02,-1.18258e-02,2.39252e-02,-9.40965e-02,1.38675e-03,-3.89271e-02,-1.34199e-02,-6.36051e-02,1.79542e-01,-1.03834e-02,-7.31675e-02,-6.10640e-03,-2.21054e-02,5.24246e-02,-5.14655e-02,4.73608e-02,-1.33910e-02,1.40535e-01,-7.14818e-02,7.18064e-02,-9.55479e-03,1.13266e-01,-2.78037e-02,7.36725e-03,4.75593e-02,-1.12288e-02,-7.33072e-02,1.03058e-01,8.86890e-02,1.77191e-01,4.98689e-02,-5.14794e-02,-9.11773e-02,-3.78643e-02,-6.03484e-02,-3.33401e-02,2.26385e-02,5.93790e-02,6.48284e-03,-8.19166e-02,7.39461e-02,-2.28719e-02,4.27173e-02,-7.65959e-02,-1.09553e-01,1.19359e-01,1.44944e-01,4.23754e-02,3.48416e-02,9.17018e-02,2.19977e-02,-3.42081e-02,-1.40587e-01,7.48704e-02,1.20579e-01,-7.68336e-02,1.08223e-01,3.04379e-02,-6.27519e-03,-8.38096e-02,-1.38641e-02,1.67021e-02,-4.40317e-02,-3.19735e-02,-7.11469e-02,-1.11367e-01,-6.58620e-02,8.47428e-02,-8.72911e-02,1.61196e-01,2.84602e-02,7.87513e-02,-7.52758e-02,-1.49404e-01,1.43572e-01,-9.93180e-02,-6.66968e-02,2.23793e-02,1.23764e-01,1.66939e-01,5.41127e-03,1.04464e-01,1.66337e-01,5.71274e-02,4.42325e-02,-5.76472e-02,3.04244e-02,-7.74274e-02,-2.92680e-02,1.46414e-01,1.36883e-01,3.26209e-02,-4.56626e-02,9.70568e-03,8.55323e-02,4.38997e-02,-7.38337e-02,4.09092e-02,1.32464e-01,-1.65256e-01,-5.93240e-02,-3.30425e-02,-1.23435e-02,-1.67871e-01,-7.44075e-03,1.04992e-01,6.58769e-02,-4.80971e-02,-4.28181e-02,2.97367e-02,6.06708e-02,-2.37622e-02,-8.80599e-04,-6.00489e-02,1.41506e-01,-1.07794e-01,-1.28680e-01,1.00536e-01,7.32075e-02,-2.39748e-02,-1.73489e-01,-7.00788e-02,5.65351e-03,-7.21188e-02,-8.47335e-02,-1.11959e-01,-4.92772e-02,1.93593e-01,-1.92814e-02,-6.63952e-02,-4.09303e-02,-5.62312e-02,6.06957e-02,1.13346e-02,-6.31421e-02,7.12894e-02,1.18149e-01,3.68757e-02,-5.75734e-02,-1.38681e-03,4.09561e-02,-5.25433e-02,7.99816e-02,2.91796e-02,1.61093e-01,-1.60059e-01,5.67993e-02,5.34194e-02,1.75405e-01,-1.09565e-02,-3.55626e-03,-7.59698e-02,-5.69500e-03,5.86287e-02,-3.94236e-02,-5.12231e-02,-1.99632e-03,-1.50415e-01,1.10666e-01,6.05837e-02,4.58031e-02,6.01630e-03,2.42999e-02,-1.73373e-01,3.56676e-02,1.34690e-01,-5.39047e-02,-4.44105e-02,7.69371e-02,1.62851e-01,-8.66486e-02,1.39332e-01,2.81327e-02,5.67040e-02,-1.06642e-01,-8.49879e-02,-7.46138e-02,1.67884e-01,-4.21829e-02,-2.93999e-02,1.52216e-03,-4.53130e-02,-2.82784e-02,5.94533e-02,7.73673e-02,1.06758e-01,-7.22092e-02,2.75107e-03,-4.56124e-03,-1.49740e-01,8.72665e-02,2.07492e-03,1.58838e-02,6.27240e-02,3.89947e-03,-6.14944e-02,1.71701e-02,1.10541e-01,1.40736e-01,-3.65297e-02,-1.61771e-01,4.08740e-02,8.23444e-02,-1.72190e-01,3.21458e-02,4.07036e-02,-1.11682e-01,-5.52826e-02,-1.00202e-01,8.12562e-02,-2.25030e-02,1.28215e-01,-1.36177e-01,7.38534e-02,1.62934e-01,-5.36599e-02,-1.04284e-01,-4.16974e-02,-4.84296e-02,3.95615e-02,2.33076e-02,-1.28391e-01,-2.14786e-02,-3.90460e-02,7.40323e-02,8.15988e-02,-8.68475e-02,-9.97749e-02,1.93603e-01,1.19884e-01,1.20886e-01,-2.40518e-02,2.70242e-02,1.68701e-01,-1.21703e-01,-1.82472e-02,2.58721e-02,4.81306e-03,1.42781e-01,-1.42012e-01,-1.08154e-01,-9.20862e-02,-9.40312e-02,1.22494e-01,-4.33864e-02,-2.62042e-02,-4.56990e-02,1.38338e-02,-7.58069e-02,8.78901e-02,3.23299e-02,-1.19804e-01,-8.97413e-02,8.21117e-02,-1.73995e-01,-6.11917e-03,-1.31050e-01,1.30399e-01,-2.29220e-02,-1.42091e-01,-2.81876e-02,1.08174e-02,-8.46778e-02,1.66754e-01,2.34668e-03,-5.98053e-02,-2.96509e-02,2.21909e-02,-5.97485e-02,-1.12651e-01,9.89537e-02,-1.67786e-01,-1.22141e-02,-1.76377e-01,3.30815e-02,-5.80483e-02,1.15164e-01,-3.77896e-02,2.11636e-02,-1.35892e-01,-2.15189e-02,-9.94606e-02,5.16175e-02,1.82435e-01,-1.13216e-01,3.90521e-02,-8.42743e-02,-1.11383e-01,6.14433e-02,-5.56236e-02,1.23567e-01,-1.60874e-01,2.92154e-02,-8.31025e-02,1.01027e-02,1.12445e-01,8.71003e-02,-8.09812e-02,-5.02348e-02,4.87613e-02,-7.20473e-02,7.21360e-02,-1.63171e-02,-4.49562e-02,-1.04667e-01,-1.48271e-02,-1.46098e-01,-2.87506e-02,1.16422e-01,-7.75132e-02,1.43476e-01,-9.74590e-02,-2.56142e-02,5.36649e-02,-1.61952e-01,5.34349e-02,1.62420e-02,-1.08773e-01,1.19588e-01,-1.11213e-01,-1.31059e-01,2.43709e-02,1.70920e-01,8.88617e-02,3.35224e-02,8.01997e-02,-1.73253e-01,1.53114e-01,2.59544e-02,3.82085e-02,-2.09353e-02,-1.93084e-01,1.40236e-02,-6.52931e-02,-9.11989e-02,5.64209e-02,3.66461e-03,2.10501e-02,-1.88851e-02,-2.32052e-02,1.77322e-01,-1.04641e-01,1.21705e-01,8.89905e-02,-1.24897e-01,-1.89091e-01,-1.57639e-02,-5.27580e-03,1.28286e-01,6.47206e-02,-9.51901e-02,2.56551e-03,-1.43565e-01,-9.57364e-02,-1.32949e-01,4.48096e-03,8.61083e-02,-3.47112e-02,-1.91779e-02,-1.67500e-01,-8.43355e-02,1.11264e-02,-4.36544e-02,-1.49998e-01,-4.87997e-02,1.97241e-01,-1.95631e-02,5.09976e-02,-7.65265e-02,-1.41125e-01,1.29306e-01,4.06450e-02,8.11928e-02,-1.86245e-01,
1.21067e-01,1.89513e-02,1.41236e-01,-1.10683e-01,1.26468e-01,-1.31256e-01,-1.52949e-02,-4.24091e-02,1.46034e-01,-7.49884e-02,2.35551e-02,1.72357e-01,-1.33280e-01,-5.81009e-04,1.27762e-01,-1.05624e-01,-3.25553e-02,1.57350e-02,6.30639e-02,7.04065e-02,1.40090e-01,5.89076e-02,1.14213e-01,6.86690e-02,-4.25831e-02,-5.36554e-02,-1.39787e-01,-1.49745e-01,-1.37783e-01,1.38578e-01,-1.75077e-01,8.21128e-02,6.02429e-02,5.30835e-02,-9.05723e-02,2.73456e-02,6.30810e-02,7.66296e-02,-3.91633e-02,-4.51271e-02,-1.65271e-01,-1.27068e-01,2.42627e-03,1.10498e-01,-5.24044e-02,-2.21822e-02,9.60997e-02,-1.34476e-01,1.06180e-01,-4.65277e-02,-3.11912e-02,-7.62274e-02,1.81483e-01,-1.55754e-02,1.59320e-02,-3.77626e-02,-1.60132e-01,3.71940e-02,-3.64792e-02,1.71777e-02,-1.47070e-01,-2.97726e-03,1.13418e-01,6.54104e-02,2.61132e-02,1.39310e-01,-7.51810e-02,1.77787e-01,-9.73968e-02,-1.40628e-01,7.50581e-02,-2.23590e-02,-8.41830e-02,8.43941e-02,1.23328e-01,-7.60578e-02,3.65848e-02,-4.03328e-02,-1.04614e-01,-1.89169e-02,7.66786e-02,-9.09086e-02,-8.29383e-02,-1.20589e-01,-2.95394e-02,1.03368e-02,3.56359e-02,1.27593e-02,6.12319e-02,-6.60480e-02,2.24026e-02,-1.63651e-01,4.88401e-03,-2.43280e-02,-1.30147e-01,1.73511e-01,5.59702e-02,7.86530e-02,-1.09175e-01,-1.45127e-01,-3.23245e-02,-1.17620e-01,-3.68932e-04,1.27338e-01,-9.47744e-03,-1.12411e-01,1.50786e-01,-8.70411e-02,7.32603e-02,-7.19940e-02,-9.85744e-02,-1.19340e-01,-1.23014e-01,-1.52717e-01,-4.11907e-03,8.83849e-02,1.78494e-02,-1.36315e-01,2.30957e-02,4.37032e-03,2.64268e-02,-1.78860e-01,-1.34827e-01,8.31460e-02,6.21348e-02,1.98827e-02,1.96393e-03,8.57566e-02,2.35199e-02,-4.34108e-02,4.63092e-02,3.70291e-03,1.11984e-01,-2.05396e-02,9.23904e-02,-6.59465e-02,-9.40509e-02,-4.76537e-02,-6.58733e-02,-1.58439e-01,1.12884e-01,-9.14466e-02,1.36473e-01,-4.54436e-02,7.40053e-02,-1.27076e-01,2.88403e-03,1.03322e-01,1.06676e-01,3.94223e-02,5.99416e-02,1.20123e-01,7.48408e-02,7.84117e-02,1.48555e-01,-7.92597e-02,4.58341e-02,2.15118e-02,2.46602e-02,4.38029e-03,-6.02549e-02,-2.51011e-02,-2.79459e-02,3.76757e-02,9.15236e-02,5.73896e-02,9.83345e-02,5.14682e-02,9.56595e-02,-2.90864e-02,4.74627e-02,1.30140e-02,7.40946e-02,4.93259e-02,5.90634e-02,-4.75913e-02,-1.98134e-01,1.02966e-01,-9.95490e-02,1.55865e-01,8.42338e-02,2.39330e-02,-4.06832e-02,1.18076e-01,8.66671e-02,7.76742e-02,-6.36259e-03,-1.82316e-01,-3.77205e-02,-9.99077e-02,1.16365e-01,3.04010e-02,1.02861e-02,-8.34317e-02,1.30221e-01,-2.96986e-02,1.10989e-01,-3.47004e-02,-5.86377e-02,1.53010e-03,-3.71079e-02,-5.56145e-02,7.24166e-03,6.61443e-02,3.67663e-02,-2.06374e-02,2.43445e-02,-1.09002e-01,7.69819e-02,2.68619e-02,-5.63567e-02,-1.49100e-01,-2.92745e-02,1.34383e-01,3.68264e-02,5.70423e-02,-4.10326e-02,6.07670e-02,-1.04008e-01,-4.91474e-02,-1.26114e-01,-1.43965e-01,3.15145e-02,-7.31813e-02,1.60714e-02,-1.72622e-01,3.92289e-02,-1.82714e-01,-1.69669e-01,9.01619e-02,-9.71534e-02,1.43863e-02,-3.86428e-03,1.68726e-01,-1.30489e-01,4.56371e-02,-9.17402e-02,-1.49936e-01,-5.45612e-02,7.83919e-02,6.96408e-02,-9.98480e-02,1.03888e-01,5.44604e-02,1.25677e-01,-6.93065e-02,8.56873e-03,-1.84587e-02,7.00870e-02,-1.93542e-01,-3.16549e-02,-1.07805e-01,-1.32663e-01,4.83830e-03,3.90184e-02,-1.22318e-01,-8.68145e-02,5.52711e-03,-5.60192e-02,5.05134e-02,-7.26320e-02,-1.31794e-01,-4.32986e-02,-1.25259e-01,2.74160e-02,-6.62463e-03,-2.35378e-02,1.75321e-01,-2.70549e-02,-6.01876e-03,4.32072e-02,-8.82642e-02,1.96886e-03,-6.29170e-02,-6.42767e-02,-2.86520e-02,1.71615e-01,3.47250e-02,2.62577e-02,1.12277e-01,-1.56727e-02,8.11268e-02,-2.45277e-02,2.26159e-02,-1.86004e-02,6.08333e-03,-2.54969e-02,1.21757e-01,9.99501e-02,-1.20330e-01,3.15836e-02,6.28060e-04,-2.45945e-02,-6.94160e-02,-5.14710e-03,-3.25460e-02,2.91023e-02,2.20474e-02,1.04048e-01,-1.39740e-02,2.34969e-02,-3.47248e-02,-2.51630e-02,1.53523e-01,-1.29283e-01,4.57294e-02,-3.96233e-04,1.11545e-01,1.03741e-02,1.39592e-01,-1.37300e-01,-7.55613e-02,3.26692e-02,6.58252e-02,-5.80076e-02,-9.03734e-02,4.55968e-02,-8.37332e-02,-7.66860e-02,6.65682e-03,9.20429e-02,4.50166e-02,-1.64846e-02,-1.76153e-02,-2.98951e-03,9.92091e-02,1.01027e-01,-5.07608e-02,-1.27720e-01,-2.19504e-02,-9.88157e-03,4.26220e-02,8.01492e-02,7.55834e-04,5.61281e-02,4.11004e-03,3.59134e-03,-3.72570e-02,-2.86788e-02,5.03920e-02,-2.31015e-02,1.16212e-01,-1.01688e-01,-8.61287e-02,-5.59016e-02,-4.81581e-02,9.24523e-02,1.34455e-01,3.04711e-02,-1.08872e-01,-1.16886e-01,8.77912e-02,1.69369e-01,-2.35110e-04,8.13164e-02,-1.30515e-01,-1.11792e-01,9.39499e-02,8.72571e-02,-5.14873e-02,-8.81087e-02,-1.31051e-01,9.45353e-02,-6.12694e-02,-7.04878e-03,4.56401e-02,-1.50700e-01,1.02642e-02,-1.77520e-02,5.94239e-02,9.17567e-02,2.88699e-02,-4.95579e-02,-6.62774e-02,-1.54028e-01,5.96102e-02,1.51944e-01,-1.52851e-01,1.34170e-01,-1.52167e-01,-7.63329e-02,-1.43780e-01,8.33850e-02,-1.40445e-01,1.15041e-01,-9.94162e-02,-1.47077e-01,4.33844e-02,-3.05530e-02,4.25043e-02,-3.85535e-02,-5.14731e-02,-4.66371e-02,7.81810e-02,-1.65760e-02,-8.22086e-02,-1.01042e-01,3.88157e-02,6.32619e-02,2.18360e-02,1.54332e-01,-4.39095e-02,9.27911e-02,1.65486e-01,-7.66027e-02,-8.71191e-02,-1.72844e-01,-1.88367e-01,1.07967e-01,-8.34274e-02,1.23187e-01,1.16605e-01,-5.83794e-02,1.16390e-01,5.69916e-02,-3.12819e-02,-4.14971e-02,-3.70550e-02,-3.59639e-02,-1.11529e-01,3.58212e-02,-1.97414e-01,-9.27173e-02,5.42194e-03,7.85789e-03,8.48429e-02,-1.24271e-01,3.41678e-02,-1.32235e-01,-3.26634e-02,9.08080e-02,-1.70639e-01,1.18427e-01,-3.42269e-03,3.21019e-02,7.40812e-03,1.12392e-01,-7.96456e-03,2.81077e-02,4.07383e-03,-1.52819e-02,1.17477e-04,-2.98880e-02,-3.96161e-02,-1.08383e-01,-1.26619e-02,-4.55402e-02,-5.49477e-02,5.59007e-02,1.42596e-01,-1.20574e-02,-7.14282e-02,-1.64799e-01,-4.33242e-02,9.38768e-02,-1.26004e-01,-7.50440e-02,-6.46407e-02,-1.43078e-02,-8.78431e-02,1.43451e-02,-8.19448e-02,-6.91198e-02,-1.58591e-01,6.07388e-02,-3.70689e-02,1.71795e-01,-8.24567e-02,-1.05861e-01,-9.98685e-02,5.96854e-02,7.09483e-02,8.06673e-02,2.15368e-02,8.10164e-02,8.30886e-02,1.07239e-01,2.17060e-02,1.21053e-02,-3.73882e-02,7.19655e-04,-6.50819e-02,7.88746e-02,-6.42862e-02,5.86895e-02,-9.66196e-02,2.95256e-02,-1.25508e-01,4.36444e-02,8.64697e-03,1.49527e-01,4.47772e-02,-5.53302e-02,1.64733e-02,-5.54188e-02,-1.72143e-01,2.26471e-02,8.18800e-02,-2.45051e-02,9.98818e-02,-7.55229e-02,1.14195e-01,-3.38554e-02,-1.47418e-01,-4.55611e-02,6.40875e-02,-5.29555e-02,5.17490e-02,6.15636e-02,5.81893e-02,-5.63364e-02,4.50093e-02,3.83910e-03,4.73494e-02,-2.37750e-02,3.31923e-02,5.07957e-02,1.34250e-01,2.81167e-02,2.95579e-02,4.87184e-03,-3.10867e-02,1.16346e-01,-1.99685e-02,7.26026e-02,9.66769e-02,-7.13290e-02,6.09919e-02,5.06480e-02,-4.03741e-02,2.24578e-02,7.52954e-02,1.36511e-02,-7.67171e-02,-1.27442e-01,-1.39660e-01,-1.79346e-02,6.23232e-02,1.00142e-01,4.36781e-02,-1.80993e-02,-2.86404e-02,7.94350e-02,-2.78357e-02,-1.30523e-01,9.21501e-02,1.06436e-02,9.04101e-02,1.48863e-02,-2.53534e-02,-1.04495e-01,-4.58195e-02,-2.95231e-02,-4.90117e-02,8.44884e-02,7.01759e-02,3.90669e-02,-2.14543e-03,2.36060e-02,9.60759e-03,-1.08398e-02,5.32379e-02,9.35011e-03,-1.36717e-01,-4.52225e-02,6.68608e-02,-7.79621e-03,-4.96305e-02,5.61383e-02,7.83441e-03,-1.18322e-01,-1.37557e-01,9.49882e-02,1.05975e-01,-1.41986e-01,-1.74365e-01,5.13721e-03,7.40295e-02,-1.82390e-01,-3.16772e-02,-1.25527e-01,-6.66473e-02,-1.44661e-01,-3.21939e-03,-4.04181e-02,-9.59846e-02,5.27552e-02,-1.28090e-01,-9.97091e-02,-3.38210e-02,9.44210e-02,-4.83267e-02,-7.44674e-02,-8.44825e-02,-4.63738e-02,1.60205e-01,5.77985e-02,-7.79722e-02,-6.25567e-02,-5.11665e-02,-3.36623e-02,-1.76648e-01,9.73823e-02,-8.66067e-02,-1.16016e-01,1.54173e-02,-6.42262e-02,-1.65063e-01,1.34268e-01,-1.26437e-01,-1.67258e-01,-5.05115e-02,-7.56587e-02,2.69288e-02,-7.49560e-02,1.77608e-01,7.28594e-02,-7.35075e-03,-1.31268e-01,-7.97063e-02,1.24212e-01,-9.76814e-02,1.60288e-01,-8.29017e-02,-1.55177e-01,5.97479e-03,1.64924e-01,2.02783e-02,8.37464e-02,8.19545e-02,-4.38128e-03,6.10287e-02,8.44303e-02,-4.09363e-02,-1.71179e-01,-5.94839e-02,4.85395e-02,-1.11450e-02,-1.15355e-01,-7.10238e-04,1.17357e-01,1.01079e-01,-3.52052e-02,6.37719e-02,7.05974e-04,-1.29358e-01,-4.12014e-02,1.29041e-01,1.76337e-02,-2.35965e-02,4.90636e-02,6.61377e-02,-1.09969e-01,1.47752e-01,-1.07466e-01,-9.42554e-02,3.73862e-02,-1.15110e-02,4.13909e-02,-1.12873e-01,1.64483e-02,5.42075e-02,-5.07325e-02,-1.16147e-01,-1.16509e-01,-7.14830e-02,-1.44518e-01,5.29734e-02,4.51966e-02,-5.22437e-02,5.56023e-03,-1.71861e-01,1.08037e-01,7.90988e-02,9.83111e-03,1.12217e-01,8.34572e-02,-5.02699e-02,-1.38856e-01,1.34663e-02,8.24194e-02,1.04985e-01,-8.88638e-02,-6.85242e-02,-5.74509e-03,2.20605e-02,1.11766e-01,5.64527e-02,-4.14732e-03,8.39649e-02,-1.79985e-01,-1.33743e-01,-1.52495e-01,-4.68427e-03,9.07784e-02,2.85150e-02,-2.14558e-02,-1.20197e-01,7.50018e-02,7.41795e-02,2.35036e-02,1.39582e-01,-5.42175e-02,-3.01046e-02,-1.50351e-01,-1.48569e-01,-1.63759e-01,-6.52330e-02,1.71789e-01,8.64730e-02,-2.98383e-02,-2.18582e-02,9.29835e-02,-5.97169e-02,2.97191e-02,-1.85547e-01,1.11669e-01,-2.65437e-02,5.30968e-02,3.12749e-02,8.30132e-02,1.30246e-01,-4.36742e-02,-6.12403e-02,1.31485e-01,3.72680e-02,1.34284e-03,-1.69048e-02,6.67897e-02,6.85957e-02,6.54807e-02,9.36761e-02,-1.02541e-01,-1.86443e-01,-6.83638e-02,1.93035e-01,-6.18048e-04,-9.26126e-02,-2.45624e-02,5.04474e-02,-1.20986e-01,1.87898e-01,-8.83383e-02,1.52455e-01,4.72192e-03,1.50868e-01,-9.80432e-02,-2.64300e-02,-4.03018e-02,-5.83752e-02,-3.10416e-02,3.02878e-02,2.30677e-02,-1.79784e-03,1.85252e-02,1.81550e-02,-8.90599e-02,-5.64520e-02,-1.21806e-01,-1.49655e-01,-2.05518e-02,-8.99591e-02,1.49044e-02,-5.69861e-02,1.63047e-01,1.38794e-01,-1.39485e-02,-3.59161e-02,3.63433e-02,-2.51747e-02,-1.42401e-01,7.59956e-02,7.98606e-02,5.64241e-02,1.19538e-01,-8.25665e-02,1.49373e-02,-1.99913e-01,-6.34146e-02,3.86440e-02,4.78368e-02,-9.85980e-02,2.77773e-02,-8.59997e-02,6.60851e-02,5.07747e-02,7.40075e-02,-6.63620e-02,4.52698e-02,-2.69937e-03,4.64459e-02,-4.84563e-02,6.70851e-02,1.22093e-02,-1.81308e-02,-1.30743e-01,7.26718e-03,9.73731e-02,-5.49487e-02,1.14915e-01,-6.63590e-02,6.96982e-02,5.39277e-02,-8.41372e-02,-5.34302e-02,3.80160e-02,-1.12586e-02,-1.21659e-01,-2.98846e-02,-5.69334e-02,8.55372e-03,-3.44027e-02,7.86174e-02,1.20233e-01,-1.93069e-01,3.39894e-02,-6.81806e-02,-2.01444e-02,-1.97248e-01,-4.91302e-02,-2.88937e-02,-1.52839e-01,7.32875e-02,7.41944e-02,-2.98179e-02,9.60782e-02,2.66505e-02,-1.45906e-01,-5.86771e-02,4.09240e-02,2.28098e-02,4.54018e-02,4.00698e-02,2.98357e-02,-1.62439e-01,1.97031e-01,-1.90172e-01,-3.36855e-02,3.00649e-02,-4.11023e-02,6.91707e-02,-1.97805e-01,8.64308e-02,-7.17196e-02,-1.63105e-02,-1.09101e-01,2.99649e-02,1.17691e-01,2.10208e-02,3.72162e-03,-2.55504e-02,1.61971e-01,-7.50461e-02,3.49956e-02,1.68732e-02,-3.42886e-02,4.34474e-03,-1.35189e-01,1.20803e-02,9.29342e-02,-1.66028e-01,-8.32389e-02,5.69701e-02,5.08518e-02,-1.17193e-01,1.64129e-01,1.79232e-01,-3.54273e-02,-1.02659e-01,8.14328e-02,-2.58988e-02,-1.06245e-01,7.68994e-02,-5.27823e-02,1.64537e-01,4.79232e-02,2.99669e-02,-1.67834e-01,1.07361e-01,-6.87304e-04,-2.06923e-02,-8.93291e-02,-3.75269e-02,-6.27829e-02,-1.01186e-01,1.04646e-01,1.42288e-01,-3.17318e-02,1.11431e-01,1.36062e-01,-8.74957e-02,-2.28134e-02,1.65838e-01,-3.06308e-02,2.88239e-02,-3.85367e-02,-2.60318e-02,7.50445e-02,-1.39239e-01,-1.45199e-01,1.01551e-01,-1.56876e-02,4.54746e-02,-4.55324e-02,6.55299e-02,-5.04331e-03,9.17100e-02,-1.44663e-01,-3.17762e-03,1.05656e-01,5.84367e-02,-2.81198e-02,7.78165e-02,-3.53996e-02,1.37259e-01,-1.11092e-01,-4.26553e-03,-4.48742e-02,-1.36501e-01,7.03654e-02,1.54638e-01,1.06418e-01,2.42439e-02,6.47120e-02,-9.30442e-02,8.70928e-02,1.83760e-01,2.80061e-02,6.23413e-02,-3.71896e-02,-8.24155e-02,-3.17795e-02,7.62310e-02,7.33880e-02,-3.85862e-02,2.15158e-02,5.60036e-02,1.49432e-01,5.68859e-02,3.04980e-02,-1.02581e-01,9.95833e-02,-2.49490e-02,-7.13196e-03,-1.19623e-01,1.42580e-01,-7.37585e-03,6.56627e-03,-7.62627e-02,1.03903e-01,5.19532e-02,1.17110e-02,6.65246e-02,1.06175e-01,2.58411e-02,1.56903e-01,-1.54983e-03,-3.48266e-02,1.66839e-01,4.17559e-02,-1.69043e-01,-9.64999e-02,-1.57439e-02,-8.85259e-04,-1.54503e-01,-8.81338e-02,-2.91757e-02,-6.95476e-02,3.85811e-02,1.36690e-01,-4.18243e-03,-8.27156e-03,8.07234e-02,-1.38409e-01,-1.17604e-02,-8.43994e-02,7.07113e-02,1.18257e-01,-2.75102e-02,-1.94181e-01,-1.41495e-02,1.93883e-02,-6.63472e-02,6.10288e-02,4.35064e-02,-1.49909e-01,1.06585e-01,-1.05822e-01,-4.01812e-02,9.97025e-02,-4.59176e-02,6.55636e-02,-5.66908e-02,-7.00600e-03,-4.93810e-02,-9.67421e-02,-1.67710e-01,-1.55494e-01,7.32687e-02,-8.40786e-02,-1.58133e-01,-1.28933e-01,-3.71671e-02,-1.86434e-01,1.68932e-01,8.44561e-02,4.17204e-02,3.64412e-02,1.04961e-01,-6.75612e-02,1.02564e-01,2.86453e-02,-1.23663e-01,7.75080e-02,-4.36418e-02,2.95400e-03,5.52813e-02,5.46220e-02,4.70100e-03,6.71495e-02,1.05760e-02,-1.18630e-01,1.35698e-01,1.35315e-01,1.09220e-01,1.51572e-01,-9.13196e-02,-2.67688e-02,1.21994e-01,-8.96711e-02,-2.24472e-02,4.43219e-02,2.26363e-02,-9.98665e-02,-1.54992e-01,-9.65097e-02,-1.39866e-01,1.16503e-01,-1.51030e-02,-2.40528e-03,3.40961e-03,8.06933e-02,-6.75730e-02,-9.68356e-02,1.57591e-01,2.05782e-04,6.87858e-02,-8.01269e-02,3.10037e-02,6.42796e-02,1.60574e-02,2.14878e-02,3.56474e-03,-9.90911e-02,-3.91518e-02,-1.14043e-01,-1.41015e-02,-2.51427e-03,-3.41207e-02,3.87042e-03,1.14844e-01,2.05062e-02,-3.06550e-02,-1.39856e-01,-1.43547e-01,-1.07368e-01,3.15173e-02,-4.70068e-03,4.71354e-02,1.36962e-02,5.67784e-02,1.06066e-02,2.77458e-02,1.17794e-01,8.39778e-02,1.61888e-01,-6.14911e-02,1.73507e-02,-1.83779e-02,-1.11760e-01,-1.32130e-01,6.26246e-02,-4.36304e-02,-1.15580e-02,-1.10701e-01,-2.80798e-02,1.25654e-01,5.22256e-02,-3.00705e-02,8.90037e-02,7.94379e-02,6.19586e-02,7.82434e-03,1.12221e-01,3.01751e-02,3.11691e-02,-3.09971e-02,5.81506e-02,2.43427e-02,2.88245e-02,1.67135e-01,-4.54428e-02,3.27299e-02,-9.12150e-02,1.58034e-01,5.37147e-02,5.39359e-02,1.01819e-01,-1.18143e-01,1.14543e-01,2.71263e-02,-1.39878e-01,8.38012e-02,1.83281e-02,-1.73320e-01,1.91770e-02,2.19012e-03,-3.63237e-02,-4.71158e-03,-7.63465e-02,-6.32076e-02,7.20437e-02,1.63573e-01,1.06835e-01,9.06702e-02,5.88094e-02,-6.91320e-02,-6.36082e-02,-2.12751e-02,-1.45822e-01,-9.34867e-02,7.48516e-03,6.42807e-02,-1.88650e-01,-9.75346e-02,-5.20316e-02,1.78779e-01,-1.09307e-01,-6.90448e-03,6.35412e-02,-6.71186e-02,3.13682e-02,-1.39449e-01,3.05600e-02,4.35712e-02,-2.22660e-02,-4.51008e-02,-1.64829e-01,-1.23406e-01,-5.70191e-02,7.60345e-02,-3.41784e-03,-9.01137e-02,4.31076e-02,3.49980e-02,1.62879e-01,-1.40082e-01,3.08657e-02,1.81327e-01,4.41659e-02,3.86574e-02,5.85001e-02,-4.31344e-02,5.67112e-02,8.95382e-02,-5.21549e-02,-1.72123e-02,-1.78222e-01,-9.34209e-02,1.49276e-01,4.22715e-02,-1.91413e-01,-1.55025e-02,5.37829e-02,-2.81735e-02,4.83370e-02,-2.39360e-02,-1.17788e-01,9.92609e-02,3.68204e-02,-1.45517e-01,1.73582e-02,-1.11604e-01,-5.46799e-02,-1.99397e-01,2.14010e-02,4.81955e-02,2.43349e-02,-8.53785e-02,-2.81423e-02,-1.40503e-01,-1.14857e-01,6.31310e-02,2.75185e-02,-8.17367e-02,3.03237e-02,1.57533e-01,4.89342e-02,-3.05605e-02,3.99923e-02,9.53883e-02,-1.40009e-03,-8.30524e-02,-7.59117e-02,-1.98518e-03,1.41649e-01,-1.94214e-01,8.52094e-02,3.79025e-02,-7.11329e-02,2.53480e-02,8.19865e-02,-8.70866e-02,-2.69847e-02,-3.27120e-02,4.49513e-02,9.44977e-02,-1.37666e-02,-4.68028e-02,2.72180e-03,-2.38767e-02,1.16706e-01,9.18308e-02,-1.15847e-01,-1.52248e-01,-5.78928e-02,-2.07593e-02,7.05269e-02,7.43944e-02,1.20319e-01,9.43137e-02,-2.59130e-02,1.86703e-02,2.79620e-02,-9.70702e-02,-6.11058e-02,-9.72167e-02,-3.33522e-02,-1.56128e-01,1.05923e-01,3.47741e-02,1.10129e-02,2.71894e-02,-6.50243e-02,-1.80780e-01,1.16677e-01,-4.61209e-03,-6.44517e-02,-4.12445e-02,-1.56302e-01,1.53251e-02,7.32623e-02,-3.62495e-02,-1.92115e-02,-7.76472e-02,4.52771e-02,-1.48419e-02,-1.81813e-01,4.82783e-02,1.97310e-01,3.53933e-02,-7.52024e-02,-1.69167e-01,2.14612e-02,1.44069e-02,1.87505e-01,-6.65717e-02,-9.48071e-02,-6.97657e-02,-4.64753e-02,1.38813e-02,5.88628e-02,8.30093e-02,-1.48557e-01,3.90774e-02,5.52171e-02,1.26104e-01,1.30956e-01,-7.19104e-02,-1.04872e-01,-1.51215e-01,-2.92593e-02,-4.71597e-02,6.98823e-03,-8.19615e-02,3.69600e-02,-9.58090e-02,8.74508e-02,5.06928e-02,5.55460e-02,-9.79128e-02,-1.75887e-02,-9.65913e-02,-1.15958e-01,-2.75838e-02,-3.48904e-02,-1.52316e-01,2.73943e-02,-6.91824e-02,-1.30798e-02,6.15294e-02,-3.12950e-02,-4.58889e-02,-2.30378e-02,1.03576e-02,1.72235e-03,-1.70371e-01,-4.26666e-02,-5.26167e-02,1.95346e-01,7.90567e-02,9.00449e-02,-8.62137e-02,-4.97176e-02,2.86963e-02,-2.91001e-02,6.83951e-02,2.84336e-02,-1.69675e-01,-1.18728e-01,-1.57182e-01,-2.25778e-02,-3.59137e-02,-5.46070e-02,9.99000e-02,-7.92130e-02,1.39308e-02,1.98423e-01,6.79169e-02,1.59497e-02,-1.66306e-03,1.09244e-01,-8.58807e-02,3.90597e-02,-1.09564e-02,-8.23107e-02,-6.53014e-02,-5.05042e-02,8.27322e-02,9.99823e-02,9.13840e-02,1.90484e-01,1.56912e-01,1.22338e-01,-1.27651e-01,5.89482e-02,1.57223e-01,1.60994e-02,-8.13130e-02,-1.40106e-01,-1.64101e-02,7.11868e-02,1.97275e-01,7.17400e-02,9.79682e-02,5.06817e-02,-8.51671e-02,-6.48131e-02,6.74086e-02,6.21294e-02,7.22543e-02,-4.87781e-02,3.49936e-02,5.56831e-02,2.26205e-02,1.06915e-02,-1.96491e-02,5.04697e-02,-9.29298e-02,6.95779e-02,6.91545e-03,7.86016e-02,-1.39133e-01,-9.64843e-02,8.10970e-02,-6.36861e-02,-2.27594e-02,2.51013e-02,2.22838e-02,-1.12893e-01,4.35720e-02,8.03195e-02,-9.07522e-03,-1.14467e-01,1.52328e-01,-6.44214e-02,-8.21130e-02,-5.74673e-02,-3.43911e-02,4.67685e-02,8.48088e-02,-6.34362e-02,-2.95019e-02,1.33299e-01,4.38568e-02,-1.12980e-02,1.13166e-02,-9.14595e-02,-3.84647e-02,-7.05567e-02,-1.58206e-01,-3.36685e-02,-1.76436e-01,-9.36953e-02,4.24049e-02,4.42916e-02,1.90907e-01,-5.19480e-02,-1.71831e-02,1.13745e-01,6.96065e-02,-6.05488e-02,-1.59405e-01,-5.34819e-02,-1.28820e-01,1.49582e-01,1.04038e-01,7.91712e-02,-3.05276e-02,7.27152e-02,-1.68872e-01,-1.02065e-01,9.77551e-02,1.90719e-03,1.53576e-01,-1.91168e-01,8.03496e-02,-9.12770e-02,-3.67946e-03,-8.25627e-02,2.09196e-02,-9.85600e-03,1.51633e-02,-3.03932e-02,-4.76447e-02,1.27902e-01,-1.13267e-01,2.26642e-02,9.52406e-02,-5.05437e-02,-7.63263e-02,9.84372e-02,1.62269e-01,1.61159e-01,1.14268e-01,1.36625e-01,7.57164e-02,4.71143e-02,-1.75011e-01,-7.37868e-02,1.48642e-03,-2.89200e-02,6.12618e-02,-1.31137e-01,3.23050e-03,1.12592e-01,-4.93853e-02,-1.99019e-02,-2.37079e-03,7.75507e-02,1.48980e-02,1.84127e-02,8.82647e-02,1.25622e-01,6.70335e-03,3.53562e-02,-1.87386e-01,-2.24061e-02,-1.71587e-01,-1.14200e-01,-2.01286e-02,4.45877e-02,8.02785e-02,-5.93773e-02,-8.46134e-02,-3.15002e-02,1.57714e-01,-1.52960e-03,-1.90546e-01,-1.68391e-01,-9.76736e-02,-1.97424e-01,-1.43827e-01,4.65591e-02,-5.37135e-02,1.87577e-02,-4.73874e-02,7.34849e-02,-1.61736e-02,-7.72969e-02,2.07117e-04,-7.89740e-02,-3.16210e-02,-4.36630e-02,1.96090e-01,3.11813e-02,5.62724e-02,-2.59179e-03,4.37762e-02,-5.91944e-02,1.62548e-02,-2.77025e-02,3.32841e-02,-1.14532e-01,6.53465e-02,-8.03644e-03,1.25988e-01,7.19822e-03,-6.69741e-02,1.58370e-01,7.33074e-02,3.25239e-02,9.69578e-02,5.94395e-02,5.62475e-02,1.95450e-01,-1.69560e-01,-4.82044e-02,-1.80275e-02,4.64597e-02,2.30482e-02,-5.84981e-03,-6.44897e-02,9.54178e-02,-4.23698e-02,-1.45700e-02,5.34510e-02,-1.83523e-01,8.51813e-02,-2.82523e-02,-2.24619e-02,1.99189e-02,-1.01639e-01,-8.08913e-02,8.23347e-02,5.95148e-03,9.67077e-02,8.34502e-02,2.80765e-02,1.01560e-01,-9.44941e-03,1.98535e-02,-9.99872e-02,2.64960e-02,1.28682e-01,5.80584e-02,-2.19953e-02,5.72941e-02,-1.45037e-01,8.33200e-02,-9.82780e-02,1.02811e-01,1.84556e-02,-7.22872e-02,1.63987e-01,1.27460e-02,4.59943e-02,-1.37981e-01,-1.12794e-01,6.41979e-02,7.15753e-03,2.27732e-02,-7.26193e-02,-2.19600e-02,1.29413e-01,1.35227e-01,7.02225e-02,-1.03403e-01,5.18792e-03,6.02689e-02,-8.39482e-02,1.48133e-02,-1.64112e-01,5.57836e-02,2.34132e-02,1.16968e-01,-1.43306e-01,-1.19047e-01,5.70989e-02,6.46590e-02,6.79270e-02,-7.12508e-03,4.72840e-02,-4.03994e-02,-1.98407e-02,-3.54835e-02,-7.16042e-02,3.25323e-02,-1.13395e-01,-1.47593e-01,-9.82056e-02,6.05880e-02,-4.56891e-03,1.06743e-01,4.97606e-02,-1.21963e-01,-4.38979e-02,5.98959e-02,6.50103e-03,-1.62137e-02,2.60069e-03,1.61203e-02,-3.72029e-02,1.15779e-01,-2.52197e-02,1.04673e-01,1.60652e-01,-6.32870e-02,-6.07710e-03,-1.63438e-02,-1.11418e-01,-6.07153e-02,1.33311e-01,-1.18376e-01,5.72623e-02,-1.95936e-02,1.79308e-04,-1.50715e-01,-1.21635e-01,-1.32530e-01,1.12280e-01,-4.24930e-02,3.22150e-02,-7.10945e-02,-1.75336e-01,5.63498e-02,6.31011e-03,1.62917e-01,2.29506e-02,9.96031e-02,-1.35269e-01,4.72039e-02,-3.03065e-02,1.65521e-01,1.15140e-01,-1.03181e-01,1.55081e-01,1.71100e-02,-5.48671e-03,2.12235e-02,-1.30980e-01,-6.32099e-02,-6.01941e-02,-1.82143e-01,1.05018e-01,-1.25614e-01,1.86506e-01,-3.38198e-02,8.45865e-02,-1.02601e-02,-7.92750e-02,9.45670e-02,1.79855e-01,-1.49525e-01,-4.38978e-03,-7.40959e-02,5.10520e-02,-1.06535e-01,4.11286e-03,-9.83377e-02,4.85804e-02,1.94612e-02,-4.46488e-02,-1.34415e-01,1.83589e-01,-4.89185e-02,7.83597e-03,6.77575e-02,5.42150e-02,4.39493e-02,-1.18237e-01,9.34663e-02,-3.33746e-02,-3.42207e-02,-3.74037e-02,3.83146e-02,4.89838e-03,-4.94728e-02,1.35945e-01,-1.31385e-03,1.05601e-01,2.81433e-02,-3.78757e-02,-9.72726e-02,-1.15589e-01,1.46351e-01,-7.56707e-02,-1.86552e-02,-1.96597e-01,3.61883e-03,-1.78805e-02,9.76390e-04,2.52155e-03,-1.41131e-01,-6.41889e-02,-3.17511e-02,-1.23407e-01,2.90797e-02,1.41149e-01,1.49141e-01,6.10913e-02,4.74097e-02,2.38557e-02,7.06289e-02,7.32527e-02,8.55529e-02,7.98131e-02,5.47035e-02,-1.49386e-01,8.33784e-02,7.16480e-02,-8.76561e-04,-4.54037e-02,9.91265e-02,-8.51723e-02,8.47540e-02,7.56801e-02,-9.59800e-02,-1.75491e-02,1.37987e-01,-8.09696e-02,1.87847e-02,-1.69967e-02,9.99182e-02,-4.28799e-02,-2.37043e-02,1.22390e-01,-5.74755e-02,6.82002e-02,4.69433e-02,9.71570e-02,-2.31901e-02,-5.48685e-03,1.39832e-01,4.02330e-02,-4.79994e-03,-9.89921e-02,1.43788e-01,1.68433e-01,4.29048e-02,3.72795e-02,-2.11182e-02,2.56589e-02,9.75365e-02,-2.82816e-02,-2.00805e-03,5.82300e-02,-8.66916e-02,-1.06539e-01,3.42283e-02,7.39631e-02,-3.83151e-02,4.06608e-02,-1.52728e-02,-1.00834e-02,-1.26251e-01,-8.94859e-02,-4.08079e-02,7.09136e-02,-9.00416e-02,1.26989e-02,-2.58584e-02,-1.67757e-01,4.03779e-02,9.44893e-02,-9.67487e-02,6.25423e-02,-1.28393e-01,1.71935e-01,6.58015e-02,-1.61835e-02,6.94781e-02,6.78792e-02,-9.88263e-02,8.62680e-02,-9.18195e-02,-8.51938e-02,2.00967e-02,3.06988e-02,-2.05146e-02,1.65327e-02,-1.29111e-02,-1.80018e-01,1.12163e-01,3.87202e-02,-1.71588e-01,1.15949e-01,-8.65604e-02,1.80131e-01,1.45201e-02,5.71360e-02,5.41497e-02,-8.19357e-02,2.61937e-02,-1.83729e-01,3.01190e-02,7.81651e-02,-1.36910e-02,-5.45593e-03,-4.48246e-04,-4.92968e-02,9.32535e-02,1.82223e-01,1.02045e-01,1.35927e-01,-7.99759e-02,1.58117e-01,6.03156e-02,-3.37721e-02,-2.01895e-03,6.51958e-02,1.20628e-01,2.62800e-02,1.63458e-01,-1.18668e-01,-5.68368e-02,1.66316e-01,-1.07454e-01,-4.58177e-02,2.10832e-02,-9.40731e-03,-6.52093e-02,3.90305e-02,-1.70916e-02,-1.06137e-01,-1.60889e-03,1.43416e-01,-1.81446e-01,-2.31556e-02,1.76176e-02,7.29036e-02,-1.80513e-03,-1.95317e-02,4.26330e-02,-3.69115e-02,1.20202e-01,3.28968e-02,-3.68902e-02,5.27447e-02,8.39666e-02,3.91791e-02,3.19505e-02,-1.40772e-03,6.12811e-02,-3.94938e-02,-8.02702e-02,6.56103e-02,-5.33949e-04,-5.31312e-03,-7.07273e-02,1.37565e-01,1.47301e-01,-1.26031e-02,-3.06579e-02,5.01013e-02,-7.32038e-02,1.80683e-02,-4.03732e-02,-2.13426e-02,-2.45875e-02,2.71309e-02,-3.88056e-04,-4.59772e-02,-1.04224e-02,2.79869e-02,-1.47899e-03,-8.60361e-04,5.55215e-02,-1.62994e-01,-1.02565e-01,-2.04743e-02,-1.96450e-02,-1.49410e-01,5.74164e-02,-5.45652e-02,